0.06086017 -0.062494457 -0.050159954 0.03919991 0.06112329 -0.049362242 -0.105825454 0.037953075 -0.016693156 -0.04682477 0.025940934 0.021070192 -0.018452613 0.019421922 0.018914301 -0.071020946 -0.0392704 -0.03282038 -0.04824335 0.010485205 0.01680318 -0.07802366 -0.08487632 0.030015308 0.020425191 0.028614499 0.018512458 0.035815712 0.036070082 0.009575245 0.036378104 0.02909031 0.030494552 -0.06001871 0.04483113 -0.06828717 0.025810326 0.026178686 0.032998767 0.06363533 -0.077311285 -0.031813335 -0.052611988 -0.05610359 -0.066228926 -0.05631769 0.03321464 -0.11078799 -0.028298566 0.06020392 -0.049265716 0.047927648 0.046290398 0.04357244 0.029735785 0.035850644 -0.064259484 0.045412745 0.0445904 0.042955697 -0.04832358 0.06842677 -0.041103072 0.011172645 0.033870716 0.05606981 0.028552083 -0.04173373 0.049784932 0.030936899 0.04152605 0.027534608 -0.030465215 -0.060003515 -0.059587423 0.021175642 -0.06607676 -0.03462239 0.026983345 0.022011695 -0.032968618 0.05046875 -0.008209283 -0.05882535 0.018949553 0.062834695 0.027062349 -0.038394913 -0.06463351 -0.01724809 -0.04194778 0.04150757 0.016359655 -0.027978007 0.04537815 -0.08038263 -0.09061782 -0.10300296 -0.054448996 -0.09867315 -0.03885437 -0.08272703 -0.102350555 -0.06613402 -0.052126262 0.04416878 -0.045312602 0.03006951 0.013816397 -0.08572473 -0.07238594 -0.06283067 0.040103514 -0.07922518 0.029477773 0.01687859 -0.038184233 -0.015801173 -0.044291478 -0.03711734 -0.04993629 -0.042858575 0.04997902 -0.056085914 0.028374981 0.04563688 -0.09714684 0.043891475 0.015012912 0.031359654 0.033976745 0.02414871 -0.02350511 0.012316177 -0.050038237 -0.03485869 -0.0705172 0.024762504 0.03282516 -0.03885554 -0.04215601 0.035786103 -0.09788036 0.036865458 -0.03679531 0.059187513 0.033844896 0.045153428 0.040618867 -0.0434658 0.020947235 0.017987544 -0.0946896 0.019246705 0.04602732 0.018883578 -0.05899865 0.011380389 -0.05947211 0.01963803 -0.046163395 -0.041445963 0.02344538 0.052325647 0.030082481 0.048316535 0.057912692 0.0071306378 0.02891935 0.043844268 0.04054096 0.050532613 -0.04928015 -0.05739237 -0.03909846 0.015687115 -0.03577643 -0.04665895 -0.101209365 -0.044146553 -0.039338898 -0.028530369 -0.05942725 0.02892556 -0.04897177 -0.045562666 -0.034170184 -0.025154501 0.022712484 0.055901077 0.038379394 0.041643433 -0.025405874 0.047711343 0.14768328 -0.031529598 -0.023457903 -0.02170647 0.031374358 0.04629201 -0.047362357 -0.03143843 0.041520443 -0.03926691 -0.040436666 -0.026448216 0.027747942 0.027233936 0.037492387 -0.033910647 0.050349396 0.04975767 0.031156434 0.04801368 0.042685855 0.035759952 0.028476048 -0.018245101 -0.028255833 0.036054358 -0.04936504 -0.03365993 -0.031869136 -0.026776876 -0.05802181 -0.07208946 -0.043796763 -0.045951746 0.017689569 0.05474496 -0.037020534 -0.059902936 -0.043640666 -0.026721196 0.036101606 0.033800606 -0.11272419 0.03776872 0.02854926 0.034478012 0.009581862 0.036546737 0.028629215 -0.045736365 -0.019747429 -0.040813666 -0.025864854 -0.011616746 -0.098557994 -0.022061152 -0.07709448 0.068206884 -0.05389946 -0.027996134 0.025156748 0.020143999 -0.054703075 0.051271956 0.031776637 -0.03824162 -0.04477802 0.028209955 -0.0673532 0.03171933 -0.0146305645 -0.053617198 0.037993286 0.03108255 0.05061021 0.024269775 -0.026185248 -0.04793078 0.030186702 0.042556718 0.01620406 -0.029838528 -0.109384015 0.030676382 -0.054204695 -0.022821886 0.06833367 -0.04667078 -0.070776686 -0.05681602 0.024520613 0.042631086 0.048680305 -0.062838964 0.05011445 0.008712636 -0.025537834 0.045589574 0.049868964 0.012986269 -0.045315426 0.025807131 0.055377286 0.023008337 -0.053727962 -0.04731563 -0.05907209 -0.023240997 0.045528017 0.015735079 0.028995622 0.029834596 -0.023973411 -0.11819252 -0.042773046 0.029156443 0.00607105 0.041450076 -0.06890478 -0.043171026 -0.052596353 0.025092779 0.06370333 0.021310292 0.022219626 0.033492707 -0.01699895 0.0343931 0.063237205 0.034472503 0.017540595 -0.048732974 -0.06180075 0.022407379 0.03164187 -0.07278693 -0.051865526 0.020162113 -0.058157403 0.036090896 -0.042326525 0.023765463 0.016676081 -0.033437584 -0.037637733 0.041098654 -0.14224653 0.04621859 -0.017667808 0.0511852 0.052586224 -0.041530285 0.020218797 -0.106057525 -0.03734248 -0.074936494 0.014204904 0.061145622 -0.021338573 -0.061553404 0.062029652 0.017429618 0.02907646 -0.039656803 -0.023310548 0.033782743 -0.0129566025 0.052709702 0.04157368 -0.04471737 -0.05965662 -0.043301295 0.06297654 0.024372328 -0.0038304639 -0.029806986 0.014952301 0.051399477 -0.046470605 0.030787934 -0.036959864 0.03245347 -0.026258508 0.021789387 0.053841047 -0.06053279 -0.03394485 0.04226824 -0.03132244 -0.07844417 -0.043349765 0.041135896 -0.039972533 0.057739645 0.014357922 -0.08053993 0.053205587 -0.06327269 0.03401981 -0.005129514 0.030523246 0.05458211 -0.049071115 0.03675107 -0.061075557 0.034725606 0.03229314 0.01065192 0.034348723 -0.07578169 -0.06615574 0.02536797 -0.0370179 0.01829067 -0.01594919 0.026814537 0.06296136 0.030936211 -0.03780527 0.03739113 0.027346453 0.022538947 -0.04388652 0.04434355 -0.039515816 -0.06472949 0.032386433 0.04260752 0.02358537 -0.03590477 -0.06140625 -0.04511958 0.0270196 0.034308605 -0.019805336 -0.09420367 0.054708175 0.05072092 -0.09647513 0.024310056 0.043104973 0.048851248 0.02017804 -0.04341153 0.047171757 0.015897775 0.024612775 0.042619307 0.054361608 0.05619816 0.040103417 0.015100278 -0.048384167 -0.020618774 0.048794612 0.019466205 -0.09567558 -0.01386159 -0.026183506 -0.025974855 -0.033503957 0.02488192 -0.02130678 0.025620425 0.029797316 0.017970199 0.046179798 0.023254914 -0.04948325 0.032659046 0.02413812 0.010858434 -0.043440435 -0.014307673 0.03527046 -0.021474674 -0.06691095 0.034705948 -0.05375707 -0.048276454 -0.03273998 0.037161116 0.052742254 -0.081404425 -0.037895724 -0.045164276 0.009515642 -0.01892069 0.03163347 -0.062530726 -0.05400016 -0.071686156 -0.059638496 0.028832238 -0.04823374 0.02425688 0.0069437725 -0.035421684 -0.05750972 -0.06205986 -0.035919756 -0.06774317 -0.01983357 0.017938115 0.002532343 -0.027695395 0.041185725 -0.038047943 0.049578268 0.046329536 -0.060844366 -0.02128585 0.023546867 0.051067945 -0.056351908 0.033892415 0.04987301 -0.02217288
