-0.034924004 -0.017123843 -0.008666585 0.033330854 -0.014611645 0.041896496 -0.019639455 0.0055276817 -0.007955834 -0.021275314 -0.017994588 0.0025703248 -0.018424071 -0.0340733 -0.017129073 0.012084418 0.028134942 0.032510724 -0.02243466 -0.010201197 -0.022752121 0.03287721 -0.027900822 0.015851744 0.042958323 -0.037626054 -0.036379702 -0.03239983 -0.014568306 0.034124736 -0.0014494098 0.007849977 0.02957459 0.0352086 0.006249158 0.0014441411 -0.027435526 -0.009827917 -0.0122341355 0.034438364 0.030188212 -0.015190749 0.025311403 0.01892503 -0.032072417 0.029842023 -0.018821275 0.014624683 0.036580242 0.0027267837 -0.041058972 0.019879652 -0.044133045 -0.001799798 0.026289461 -0.030010447 -0.0060409154 0.011785211 -0.003214335 0.029349012 0.0018363724 0.024257943 0.035654947 0.022233045 0.012850451 -0.03770925 -0.0012720689 -0.028211826 -0.013736466 -0.004706747 0.02096549 0.021221273 -0.038864013 -0.011669489 -0.028778816 -0.01726972 -0.0012086466 -0.009223652 -0.014101583 -0.0084162755 -0.016725456 -0.020852895 -0.026916875 -0.029696664 0.013845053 0.0077245226 0.0018355105 0.018012946 0.015080903 -0.043768257 0.011938824 -0.040070433 -0.027561985 -0.011676313 -0.020153305 -0.008941004 -0.013767469 0.045438007 0.00037490722 -0.008974478 -0.025594387 -0.0049890024 0.027698092 -0.020803262 -0.010513292 -0.006876797 0.014279302 -0.005734674 0.021712719 0.022847174 -0.0071819955 -0.034580875 0.018258587 0.030722443 0.028016867 -0.0134704625 0.018323204 -0.023108877 -0.016821485 0.025524423 0.020455832 0.037386138 -0.018359803 0.03574677 -0.019923875 0.026239978 -0.02336582 0.038475133 -0.011814534 0.0040292493 0.021292156 0.020593904 -0.013967558 0.025078248 -0.0032152876 0.014860038 -0.0103092985 -0.010834707 -0.036136676 -0.021468444 -0.011155851 0.0056190765 -0.018871265 0.0014577942 -0.020458216 -0.011707483 0.012196513 0.01512803 0.00037127454 0.015265569 0.005556162 -0.051638078 0.009890131 -0.00070193794 -0.03241026 0.012065163 0.022904871 -0.017500328 -0.02774498 0.03447272 -0.037132937 0.020397274 -0.027828697 -0.021682473 0.026334649 0.0024089154 0.023120666 -0.014317056 -0.010380872 0.03272717 0.026186822 0.00643365 -0.03707868 -0.0104364585 -0.014812638 0.015026044 0.016772531 -0.007593997 -0.008072868 -0.01761878 0.014451413 0.020273495 -0.015025595 0.0021786713 0.0383816 -0.009062292 0.016148394 0.0036530097 -0.031228794 0.0012234867 -0.021476444 0.006211083 0.016954944 -0.0024079017 -0.0039563864 -0.0023798654 0.021319296 -0.008926128 0.032198828 -0.020799335 -0.011531514 -0.03931538 -0.0006417379 0.0076126438 -0.02460865 0.022890018 0.003270668 -0.03117871 -0.019777771 0.04404692 -0.012221107 -0.0141311595 -0.029516798 0.02852479 -0.02135926 0.0104754595 0.0061479723 0.042607035 0.01996899 -0.009307234 0.03999306 -0.011396255 -0.032654624 -0.025094975 -0.012140753 -0.028158262 -0.025487706 0.022158746 -0.0002905334 0.014902013 0.010231536 0.047409717 0.033639178 -0.021370923 -0.028035432 -0.026904102 -0.020351874 0.01120078 0.009159989 0.016379498 -0.017834699 0.014761557 0.026952932 0.029106524 0.013154696 -0.023919636 0.0054025566 -0.0019039154 -0.0018105343 0.011750369 0.011175376 0.018966274 -0.004447158 -0.04297264 0.016218204 0.026396252 0.013516096 -0.0026737265 -0.005262488 -0.004658201 0.016773652 0.024641888 -0.010891214 -0.018759644 -0.015235181 0.0006275424 0.02770664 -0.018764758 0.02910186 0.018006233 -0.026190495 0.03147232 0.00817819 0.020796886 0.027340798 0.033401664 -0.018745882 0.011954401 -0.0066030496 -0.021899223 -0.03830387 0.011394371 0.030992799 0.02911283 -0.039991163 -0.004948276 0.009634046 0.008619025 0.022293719 0.036090083 0.015009182 -0.002918756 -0.017189868 -0.008430092 -0.039012093 0.026884792 0.027776832 0.0038774242 0.007941625 0.02536049 0.0060397782 0.034970872 -0.016583439 0.012100954 -0.01637771 0.004403886 0.031226985 -0.018320499 0.014389535 0.015887253 0.031084355 -0.029298585 -0.040019944 0.005233473 0.003953483 -0.0057047727 0.016072264 0.010181117 0.022881506 0.008822942 0.00936892 0.030290183 0.030889612 -0.010342355 0.019721793 -0.034138713 -0.0025089646 0.014688142 0.0068013305 -0.03070338 -0.021969711 -0.007849643 0.009971734 -0.0004413073 0.034432895 0.030913778 -0.021949492 -0.027708814 -0.0036829095 0.0029659795 -0.0005855013 0.03208483 -0.025910975 0.0016752814 0.010257694 -0.004902536 -0.018325897 -0.0028815987 -0.025823267 0.03814398 0.00020963441 -0.03590797 0.014929466 -0.010575238 -0.03491576 -0.0180109 0.022347752 0.020936219 -0.028370729 0.020415083 0.02442804 0.00055776996 -0.013556579 -0.01129884 0.038424276 0.03454635 0.014976697 0.02981906 -0.0144861555 -0.0095199505 0.023758013 0.020203657 -0.028574418 0.025877403 0.0031913572 0.012206449 0.03067706 -0.0043730675 -0.0063486868 0.019934436 0.002880549 -0.031158127 0.033047866 0.018099137 -0.023609094 0.033282503 -0.022524621 0.007902847 -0.022979125 -0.005494262 -0.0018512984 -0.025926946 0.014256243 -0.023670966 -0.02014675 -0.043514777 -0.014279006 0.026482625 -0.03514245 -0.008515686 0.0070850383 -0.01691458 0.015786758 0.003910012 0.030594569 -0.021091431 -0.021851823 -0.009511544 -0.015552441 0.0025920398 0.0050643235 -0.034217767 0.03317478 -0.028892012 0.032214448 0.008383073 -0.0034667233 0.030403037 0.02673309 0.03641069 -0.0139983045 -0.014794374 -0.010012764 -0.020537477 -0.0043900367 -0.033790786 0.013619259 -0.024596002 0.025122553 0.027934568 -0.019963672 -0.019757774 0.008658258 -0.00912461 -0.02434087 -0.03676526 -0.024745211 0.024705652 0.031909645 -0.026993928 -0.016925214 0.008169206 0.039983306 -0.03594472 -0.033474434 0.019661916 -0.0009806146 3.36724e-05 0.031523354 0.024179384 0.029725457 0.014624099 -0.0012534215 -0.0104279 -0.013609197 0.027253168 0.031528834 0.0013286265 -0.035257764 0.024593752 -0.00048322906 0.005981923 0.029535726 -0.032674164 0.021787327 -0.004413202 -0.019338522 0.012545188 -0.02404148 0.011486413 0.016179862 -0.032773294 0.007322071 -0.011745419 0.007190672 0.015791273 0.020524653 -0.04087827 0.0050900998 0.012113295 -0.023799365 0.0014326521 -0.00852631 -0.016975543 0.028321197 -0.0005152458 0.006598286 0.018064722 -0.0027124991 0.031277485 0.014116316 0.023111975 -0.02419522 -0.02959288 -0.023620049 -0.033985637 -0.032461423 -0.032013543 0.042734392 -0.03984905 0.0027642064 -0.021740869 0.0140200155 0.015718011 -0.013820489 -0.029892081 -0.016490864 -0.02361414 0.011947136 0.0012695506 0.030375713 0.010468217
0.047464814 0.03859936 0.042017452 0.008158603 -0.017656298 -0.034523804 -0.002702336 -0.026486374 0.007298066 -0.023204718 -0.00805386 0.014047194 -0.0014479753 0.02447081 0.019384168 -0.028932784 0.014031173 0.031262588 -0.048502028 0.04219755 -0.041953344 0.0027037633 -0.020440426 -0.004623684 -0.039343268 0.04689307 -0.02322995 -0.018958645 -0.041272074 0.0032055525 -0.029721702 0.032200195 0.011412498 -0.03331554 0.011816868 -0.008100402 0.01737582 -0.031129282 0.040297657 -0.008906567 0.0140177505 -0.02979865 0.027795374 -0.034429364 0.020462008 -0.03708932 -0.010364243 -0.045512043 -0.03130932 0.026840325 -0.0076116957 -0.023161927 -0.015052564 0.018699555 -0.047383938 -0.025500914 0.021654554 0.023958974 -0.043611296 0.028897552 -0.03246135 0.014615875 0.03636872 -0.0028254134 -0.040163714 0.013416194 -0.031056229 0.02912382 0.031979218 0.008564749 -0.045676954 -0.03498816 0.04367367 0.015191841 0.0068927915 -0.02243131 0.035143748 -0.037529588 -0.0414636 0.0353817 0.0056983433 -0.026062742 0.0066908794 0.009915799 -0.018693011 0.043623444 -0.010068107 -0.015184124 0.039306574 0.020554105 0.041612454 -0.03616465 0.01454741 0.044600204 0.004457302 -0.009493243 0.031044692 -0.046600077 0.0071812486 -0.023160452 -0.0014256965 -0.018205822 0.004700116 0.013814135 -0.020975322 -0.027162213 -0.044215906 -0.057802133 0.04496968 0.042384077 -0.03589112 -0.003627482 0.025165226 0.017762471 0.0068583367 -0.0005654926 -0.022233428 -0.018498605 -0.038831968 -0.037245695 0.015328569 0.04507495 -0.020671483 -0.024681063 0.03482482 -0.023601536 0.005087631 -0.011826933 -0.022603633 0.024214601 0.044027768 0.040381707 0.02227659 0.018451998 0.021336317 -0.037901368 -0.018617604 0.028096108 0.032096744 -0.011280043 0.0074995533 0.0077394396 0.010210667 0.015269221 -0.020674951 -0.03928836 0.020943988 0.020842902 0.02487408 0.016242368 -0.00072215707 0.04759524 0.019263694 -0.012029079 0.037913833 0.029560555 -0.03262079 0.034578446 -0.010278357 0.021429045 0.026499605 0.004395236 -0.0028695187 -0.037657004 0.027572725 -0.006770061 -0.004845775 0.019133007 0.014070858 0.018944636 0.014701432 -0.043887414 0.0007860454 -0.028545627 0.0032270306 -0.013687138 0.016017674 0.024627328 0.014850821 -0.035399977 0.040232092 -0.01609505 0.013758585 -0.017757505 -0.00016580775 -0.03204392 -0.0009848671 -0.04096059 0.0250484 -0.009411228 0.03331417 -0.004270444 0.017694786 -0.0428705 -0.003972951 0.0025348857 -0.043318223 -0.040633783 0.056906164 -0.05255397 0.010817197 0.032274142 -0.011162584 -0.007084841 0.041500717 -0.043255676 0.019397615 -0.029932288 0.038602803 0.016927326 0.046925474 0.010333742 -0.0043289554 0.0062223785 -0.041862186 -0.042737126 0.040111862 -0.057151195 0.037059262 -0.00962991 0.03316479 -0.006643319 -0.036073487 0.038916778 -0.032741863 -0.013365589 0.016301079 -0.0076339897 0.0031264708 0.026657451 -0.0003625976 -0.037748016 0.02615985 -0.0396882 -0.014889616 -0.008058802 -0.018119711 -0.0039778086 -0.039511666 -0.005436246 -0.025448784 0.0069818515 -0.0019889532 0.0035696446 -0.0019741282 -0.014547392 -0.039668113 0.03765172 0.02031436 -0.045248397 -0.0057501933 0.018220406 -0.03185052 -0.033225633 -0.018773254 -0.014204234 -0.028297858 0.042043973 0.03481283 0.031366214 0.029524004 0.03157239 0.019399138 -0.04199036 -0.03029891 0.034995496 0.019935885 0.0061323955 0.03549809 -0.026616342 -0.017585546 0.03503353 -0.0012651687 -0.010524497 0.030079998 0.019999295 -0.035375554 -0.042778164 -0.03214415 -0.028170438 -0.014034978 -0.024449376 0.011735707 0.0068350327 -6.361542e-05 -0.048818618 -0.027935628 0.025265086 -0.03271835 -0.04931065 0.005896342 0.02163944 0.0059510716 0.008963088 0.023325728 0.026357649 0.018418012 0.002949215 -0.043406814 0.024616616 0.02372342 -0.023023976 0.0011345627 -0.04175377 0.018019944 0.015187448 0.030535458 -0.019063426 -0.05011669 0.0076001333 0.008549281 -0.045892388 -0.01680959 0.00753116 0.016980486 0.047571447 0.02888551 0.03188875 -0.014619428 0.03884191 0.041556597 0.007185575 0.0012631607 -0.0016087658 0.003413378 -0.009948958 -0.001225133 -0.048282642 -0.042582903 0.0290224 -0.0047368323 0.007315341 0.018872345 -0.019609863 0.036133133 0.013417718 -0.03221037 0.00014972458 0.023132307 0.019298652 -0.0015001178 0.03836861 0.044826817 0.028207479 0.021060018 0.03102732 0.00067588926 0.037872527 -0.0368567 -0.04065845 -0.038779225 0.0035480063 0.04226741 0.023690762 0.030932575 -0.016333625 0.0336821 0.0322944 0.012799401 -0.0061802594 -0.026496947 0.04639526 -0.032374617 -0.009639336 0.030774986 -0.027402624 0.017047878 -0.029223552 -0.024851123 -0.028245687 -0.032979522 -0.01999757 0.03315058 0.02078786 -0.02503553 0.053743657 -0.052260507 -0.017948285 -0.029071504 0.041617047 0.030673616 -0.027598616 -0.024819909 -0.023773964 0.0076770196 -0.026163876 -0.015301513 0.031395108 0.017161515 -0.019935628 0.018298589 0.027324663 -0.01970634 -0.032347713 0.029472591 -0.008290554 0.049866676 -0.03223945 -0.008844756 0.005661297 0.012277075 0.017995825 -0.020331167 0.040608823 0.066797845 0.019413402 0.0010104016 0.0055402424 -0.027397698 0.010631305 -0.031204082 0.020051695 0.036315612 -0.010987051 0.031154009 -0.0051316326 0.04390324 0.016212247 -0.054418508 -0.03870963 0.040462967 0.014839961 -0.009849961 -0.023026029 0.0037780337 0.022519637 0.0020367 0.044400793 -0.036191583 0.04206303 -0.024620641 -0.0270349 -0.047361378 -0.022901291 -0.013872126 0.039593223 -0.0027374397 -0.027223764 0.02642409 -0.010976351 0.0015720209 0.04224651 0.02900501 0.040917348 0.04575026 0.03787699 -0.03827748 0.0040214434 -0.008673719 -0.037148323 0.03612919 -0.02912387 0.038263466 0.047687914 -0.01932293 0.012778831 0.040869236 0.010907477 0.03495944 -0.03894905 0.03669414 -0.024642322 -0.0019690963 -0.04082436 -0.04427709 0.03456428 0.017701648 0.030662587 -0.0037943244 0.018132167 -0.014096534 -0.028478961 -0.008971151 0.01873368 0.029495368 0.021752778 0.03428148 -0.016535603 0.037120897 0.004391301 -0.038002424 0.00979557 0.014861954 0.026006611 -0.009177996 0.0383417 -0.015967442 -0.0027370832 0.0027426216 0.036629815 -0.03809765 -0.001111302 -0.0015597346 0.020436123 -0.016940435 -0.022336535 -0.014132763 0.036405407 -0.01170204 0.041521646 0.041712478 0.04564201 -0.013585369 -0.0030510298 -0.041495502 -0.018076394 0.006325044 0.025756912 -0.026635425 -0.017024811 0.02075619 -0.022259483
-0.041826244 -0.033954136 0.01601423 0.039536707 0.015556742 -0.05422897 0.017782487 0.026695296 -0.047931146 -0.021363404 0.036152765 0.027773557 0.01605413 0.026531503 0.0043638563 0.025214918 0.025045583 -0.044943195 0.03611898 0.01948938 -0.04013817 -0.034624167 0.046465747 0.024605341 -0.0036707295 0.00039754988 -0.034806617 0.02079249 0.014950875 -0.030613812 -0.008954833 -0.055865835 0.012768301 0.0051754573 0.036608577 -0.04446888 0.0450868 0.028960338 -0.046956714 -0.037086084 -0.02967444 0.0056540323 -0.044861946 0.048550546 -0.0072340677 0.001434726 0.0077455505 -0.03854971 -0.025456516 0.027804287 -0.002689434 -0.013729765 -0.014486808 -0.02250198 -0.05408443 0.041942276 0.028850347 6.0108196e-05 -0.027131489 -0.050871972 -0.01667188 -0.04686527 -0.03313922 0.009692685 -0.032163758 0.0350102 -0.0017520646 -0.018734016 0.003992183 0.026105799 0.02393611 -0.016632345 -0.012460718 0.035943404 0.024391014 0.014342934 0.01574798 -0.005072586 0.000735993 0.012840374 -0.001956729 -0.031997554 0.0047526467 0.00302612 0.017803907 -0.030904105 0.035370976 -0.00587727 -0.040347446 -0.0013348504 0.04112446 0.05026266 0.038424492 0.008205313 -0.019483663 -0.020136902 0.029306643 -0.024651889 0.017843528 -0.04452948 -0.015148471 -0.036914628 -0.040923778 0.030364601 -0.021900745 -0.05506488 -0.0058625382 -0.009173295 -0.025907042 0.032138217 -0.009513916 0.013106159 -0.04599644 -0.029002342 0.040304363 0.007089364 0.0010203648 -0.0052235206 -0.0062878598 -0.0009376222 0.033902317 -0.046313103 -0.014342498 0.024352873 0.0003897237 -0.0048032156 0.040275678 -0.029551292 0.032548256 -0.0021439285 -0.0011291449 -0.026476413 0.017459974 0.03931485 0.039858557 0.035934888 -0.024609635 -0.0036465565 0.03853674 0.015938992 -0.012899417 0.03978146 0.04268879 -0.016316276 0.015900359 -0.05098722 -0.006505071 0.034530334 0.023315376 -0.02862754 -0.035386324 -0.018460702 -0.057510898 -0.010018541 -0.021554668 0.017578844 -0.036319762 -0.016160408 -0.036661737 0.0117834145 -0.005240303 -0.0010930633 -0.0030414974 0.021901807 -0.026727293 0.036639944 0.012836185 0.014346408 0.0097390255 -0.012648679 0.027305158 -0.022661358 0.036693864 -0.011534129 0.021526607 -0.03238584 0.017375678 0.0148271145 0.047448386 0.043791898 -0.04046192 0.021632249 0.050819628 -0.03513969 -0.037023757 0.03574056 -0.0054250797 -0.041538242 0.02188367 -0.037049413 -0.041229535 -0.032048453 -0.019576743 0.0076588546 -0.04283283 0.060702037 0.021320669 0.015028416 -0.009566401 0.018639758 -0.03819639 0.02546272 -0.024607645 -0.018139703 0.038860083 0.03579966 0.04086786 -0.009272117 -0.037449222 0.038189184 -0.013007043 -0.028217725 0.004064237 0.017924987 -0.028333634 -0.027980804 0.027252201 -0.0018165844 -0.0409825 0.018289085 0.04090462 -0.006667978 -0.03750088 0.028975476 -0.027275419 -0.023744797 0.03459588 0.021334846 0.019054832 0.018132126 0.03344771 0.009808547 0.00037400625 -0.051399022 0.0132193705 0.0051240036 -0.03496021 -0.019928707 -0.038767323 0.012697622 -0.031935055 -0.030714689 0.019365354 0.04291314 -0.0064980867 0.017029589 0.033043083 -0.017723348 0.029216332 0.037167944 0.010191679 0.012189237 -0.029387863 0.039834388 0.026368614 0.014152427 -0.028134918 -0.0034844722 -0.048594013 0.026010428 0.01096075 0.026317753 0.034545522 -0.016255977 0.005844564 -0.03805938 -0.019143684 0.04340744 0.018036619 -0.0039719534 -0.015847636 -0.028363306 -0.0065784613 -0.002774634 0.007927876 -0.026141744 0.029307647 0.0066335374 0.010108535 0.012879836 0.030370215 0.030515194 -0.0034528149 0.03796999 0.025060013 0.0013218797 0.048803255 0.02775086 -0.029314473 -0.014480766 -0.03226369 0.03276832 -0.0381866 -0.046535622 -0.022423614 0.014988044 -0.0060789767 0.04870621 0.011304951 -0.007146233 0.010304421 0.009330561 -0.008224268 0.017040951 0.03496195 -0.043432876 -0.011228562 -0.014846064 0.020216683 0.024729267 0.033042118 -0.010201746 0.0152239315 -0.005361075 -0.04413184 -0.002488438 -0.036887616 -0.048349224 0.002442961 -0.034478944 -0.013058867 -0.0018450307 -0.030750895 0.021305291 -0.022494579 -0.004011652 -0.018512573 -0.0511948 -0.031509917 -0.04038889 -0.03811125 0.045210842 -0.024546687 -0.044746827 -0.021167742 0.039294656 -0.056797102 -0.004088912 -0.005172998 0.018996201 -0.015845496 0.01689779 -0.045102216 0.042969164 0.0014680818 -0.025786845 -0.038624797 -0.014680638 0.016632192 0.024448073 0.04533297 0.026916228 -0.012760584 0.015668351 0.01784506 0.045583542 0.0454292 -0.022273304 -0.044973012 -0.042776823 0.018391963 -0.045041148 0.0330509 0.061878916 0.0054826173 -0.011651575 -0.0083661415 -0.00678023 -0.044145133 0.026638785 0.00010482805 -0.021795036 0.011365413 0.019330647 0.005490132 -0.061600976 -0.0315275 0.026740693 -0.015011035 -0.018109111 0.015292323 -0.047965232 0.015068604 -0.001693944 0.017780399 -0.0009171952 0.013863574 0.030633623 -0.023040824 0.013874078 -0.02051435 -0.02116714 0.026214803 -0.004340171 -0.015702317 0.04119226 0.012122199 6.130593e-05 -0.030767549 0.007539974 0.02291423 -0.019685956 -0.04580002 0.038573824 -0.019559706 -0.0383142 0.021518026 -0.035658292 0.041823305 0.019271784 0.0049187136 0.021610515 -0.037175216 -0.034088086 -0.03155154 -0.04215392 0.03667956 -0.004112043 0.043442667 -0.027409205 0.036975686 0.0150621375 0.039386023 -0.017518803 -0.021294346 -0.0064985477 -0.023675134 0.008584955 -0.014763578 0.018715518 0.01089022 -0.01981869 -0.009421778 -0.035212345 -0.015835756 0.036874462 -0.00805291 0.015742825 -0.022691593 -0.024187481 -0.01433898 -0.04296307 0.027816767 -0.007347531 0.008085101 -0.028773194 0.025392814 0.0060224263 0.045479115 -0.0006255825 -0.0052761347 0.028097248 -0.039269555 -0.019508675 -0.0028821435 -0.016391795 -0.04110848 0.0025483859 0.033672664 0.032005537 0.03263821 0.039387804 0.03242742 0.044127576 -0.046628863 -0.006425475 -0.018988706 0.035230502 -0.038555615 0.013977179 0.0060494086 0.029501714 0.026695777 0.02288305 0.019851996 0.0043521468 0.027034367 0.015721763 -0.010323137 -0.015969323 0.055451 0.03671742 0.035696544 0.0043174163 -0.032018863 -0.046213157 0.0012999552 0.0008252296 -0.008360953 0.04338762 0.046584222 0.031654686 0.030041592 -0.011585798 -0.03793796 0.03151013 0.024254115 -0.003941483 -0.021222293 -0.019139696 -0.025086563 -0.019937558 0.04338103 0.005827744 -0.03192034 0.057492714 0.0007474211 -0.0147698745 -0.01831489 0.048577107 0.032804523 -0.0074068075
0.007530459 0.0065896157 -0.010186889 0.0033864472 0.03429563 0.020849336 0.016212465 -0.04055823 -0.02726606 0.0026652 0.0103792045 0.047992237 -0.040884826 -0.027903052 -0.021861706 0.025344063 -0.00981991 -0.045249853 -0.008625016 0.0103682745 0.022334136 -0.050442275 -0.0071652774 -0.026521957 0.019770449 -0.034289796 -0.0016174868 0.019802595 0.009656061 0.0013739951 0.013589176 0.006548007 -0.0451191 0.012401616 0.008086673 -0.040414613 -0.024146896 0.022873556 0.011561616 0.008802198 -0.04371975 0.012594683 0.031769007 0.010221982 0.029089902 -0.06440846 -0.022067513 -0.007733771 -0.0013790403 0.010835085 0.021816028 -0.003982052 0.029078133 -0.040037416 0.02337678 -0.028552076 -0.01857649 0.03649173 -0.02276616 0.022674153 -0.005403469 -0.03471702 0.03405863 -0.042214442 -0.00468028 -0.009513521 -0.014263114 0.021137565 -0.060032703 0.0044179866 -0.03565663 0.03201752 0.01082745 -0.022162938 0.018021742 0.0076595168 -0.043241944 0.008101081 0.024272216 0.04376033 0.025668573 -0.02967809 -0.022271058 0.0038421194 0.031402748 -0.009626696 0.029975943 -0.031217676 -0.008952564 -0.015610747 0.004456674 0.005407835 -0.011421243 0.0348564 -0.037291255 -0.011134754 0.043637734 -0.025076287 0.022018628 -0.03792471 0.035826847 0.020192256 -0.016990231 0.012212263 0.026648916 0.03204608 0.043281067 0.03843285 -0.058234736 0.040163085 0.022462713 0.005912358 0.0005086598 -0.033178285 -0.029251456 -0.027379831 0.0368418 -0.03156651 0.04865025 0.008059486 -0.04730235 0.0045331013 0.027892532 0.030526515 -0.021963943 0.0442069 -0.017043186 0.018091008 0.016755696 -0.030482966 0.003913496 0.038344413 -0.0038423797 -0.046677675 0.044154454 -0.0035848203 -0.034942538 0.01582334 -0.0189246 0.0115669295 -0.01650695 -0.023280473 0.03505168 0.024099648 0.0044771703 0.034654103 -0.0068368805 0.0059150127 0.017769026 0.015966102 -0.026717687 0.025461437 0.048561234 -0.037763406 0.013068957 0.036271773 -0.03083928 -0.038295895 0.059545916 -0.01827744 -0.038836107 -0.026930893 0.036394384 0.024237167 -0.024435457 0.014393865 0.020134568 -0.005786466 0.044202458 -0.0152210025 -0.041358087 -0.025303124 -0.02339544 0.0034340094 0.012022508 0.015056467 -0.04307701 -0.031697147 0.004719432 0.041553084 0.03819345 -0.021017795 0.01889705 -0.026042147 -0.041140817 -0.032959606 -0.032568943 -0.007963199 -0.030261997 0.03561026 -0.0017341931 -0.0365171 -0.058871668 0.039520856 -0.042501025 0.045373138 -0.022991847 0.006042002 0.04559375 0.037390936 0.050442763 -0.035457063 0.023083247 -0.02416498 -0.025925122 0.0010034908 -0.014942338 -0.028027352 0.053329032 0.004452094 0.022248654 -0.032935426 -0.049518816 -0.030673463 -0.047535483 0.03263918 -0.017076267 0.06263988 -0.024166128 0.051374476 -0.012109269 0.03562118 -0.03170484 0.029121893 0.047164816 -0.010418799 -0.004459478 -0.043740463 0.03394318 0.023249218 -0.004843212 -0.0059134085 -0.026362706 0.037959684 0.007917021 -0.038070135 0.012324823 0.029745365 -0.010739985 0.006518467 0.027198235 0.0026602764 0.02996672 -0.0071767755 -0.049673885 -0.019057022 -0.039642163 0.024865938 -0.015567245 0.03713564 0.0034075803 -0.016929546 -0.032055825 -0.042038277 0.031185267 -0.021058451 0.014757725 0.019116713 -0.01432345 0.03158993 -0.03146458 0.055766843 -0.016219674 0.025247304 -0.013476666 -0.025093855 -0.03175449 0.031328563 0.032717634 -0.04208283 0.00043080826 0.061434846 0.008840206 0.010294356 0.03140415 -0.010018261 -0.0019341458 0.06081691 0.03822806 0.044645965 0.038892206 0.03442742 0.027180692 -0.044782776 0.022409286 -0.023274265 0.028335497 0.013238873 -0.021305287 0.041718554 0.05038632 -0.0442181 -0.030242383 -0.025610533 0.039790947 0.004533294 -0.03701993 -0.048561063 0.041712478 -0.04280262 -0.036588386 0.024050137 -0.0028576448 0.024958141 -0.041123297 0.055212952 -0.044025324 -0.028920738 0.023027867 -0.04207493 -0.038454417 -0.019228343 -0.039388854 -0.013908651 0.0037889222 -0.01136678 -0.002746929 0.050323907 -0.01457367 -0.0049021123 -0.04497475 -0.019481404 0.01774946 0.0073626414 -0.028329479 -0.045768034 0.0571945 -0.01337768 -0.04248902 0.00042580508 -0.019509261 0.00997918 -0.046851538 -0.012437926 -0.04518495 -0.0025736492 0.059914984 -0.0058634123 -0.0032681671 -0.028571304 -0.020567928 -0.02322531 0.0035261493 0.018038617 0.053590532 0.015268996 0.018171413 0.012203105 0.0040405197 0.016436053 0.037176356 -0.013805685 0.046307232 0.037249103 0.0238611 0.072280705 -0.038425624 -0.0010050905 -0.023664046 -0.008861092 0.0012271417 -0.023548463 -0.011880559 0.037695274 0.0007287139 0.030983998 -0.013749472 0.030354017 -0.0008723489 -0.0407697 0.00864176 0.028852126 0.010630878 0.022191517 0.020958694 -0.011539376 -0.0053441455 0.020342013 0.03237074 -0.059052512 0.022345662 0.023370568 -0.03923247 -0.0019491817 -0.028068928 -0.035648912 0.042173468 -0.010093993 0.027363308 -0.042255994 0.008474945 0.020188536 0.011234126 0.034045406 0.02911109 0.04307568 0.021862103 -0.032754846 0.014784938 0.02805716 -0.0028788082 0.017405063 0.015503274 -0.039180513 -0.015951777 0.04480322 -0.03813709 -0.028197473 0.02469399 0.0009092184 0.02453079 0.036837664 0.020858323 0.025889467 0.020565456 -0.021030627 -0.047689274 0.021733673 -0.024768842 0.018847995 -0.009740409 0.0027833492 -0.00012234077 0.023275862 -0.03381026 -0.050812494 0.033868343 -0.02564984 -0.024249192 0.018770665 -0.042892307 0.0066525466 -0.0051312875 -0.036511995 0.015643649 0.04628126 0.03459737 0.041807264 -0.040326513 -0.018138843 -0.015925702 0.011092314 0.02280481 -0.014062433 -0.023293095 0.02754278 -0.039756853 -0.036464024 -0.0025381907 0.043502063 -0.0045177196 -0.036008112 0.018073654 0.017258791 -0.047051825 -0.007749352 0.008551199 -0.03647173 -0.0060939337 0.028453955 0.02222784 0.013356329 -0.009407744 0.025201017 0.041459266 -0.028464794 -0.032484613 -0.041039817 0.05371129 -0.0085351365 -0.005529734 -0.01708855 -0.0181987 0.01325953 0.04059106 0.039718468 0.046089962 -0.029378027 -0.008192123 0.049319975 -0.047460675 -0.005567375 -0.014308242 -0.009859905 0.029055156 -0.016248196 0.0047530103 0.011436037 -0.03214821 -0.0374575 0.03765592 0.028428616 0.012507682 0.011587115 -0.018823754 -0.015816052 0.03237197 0.033111792 -0.03448152 0.00030079682 0.004603124 0.028613558 -0.032544047 -0.014581696 -0.039510477 -0.011327925 -0.01725035 0.025858479 0.057337217 0.042209305 -0.013175542 -0.03663007
-0.009304974 -0.0013539162 0.010766381 -0.029944047 0.03876815 0.029666627 -0.01755825 -0.011129538 0.02818051 -0.06432604 -0.006150796 0.0050657215 -0.012442215 0.014621725 -0.04042285 -0.0038842396 -0.049226098 0.022753859 0.0481964 -0.01159572 0.01991352 0.03548812 0.018659908 -0.023424247 -0.041496243 0.017326558 -0.050407466 0.011064238 0.040924054 0.035147548 0.041153744 -0.040937487 -0.043867074 0.041513946 0.018135862 -0.02154207 0.02749948 -0.030316401 0.015363716 0.024205973 0.03494588 0.013442319 -0.012484108 -0.039306905 0.0028834974 0.03248621 -0.005938936 -0.040802542 -0.015458539 0.032817177 0.046338487 0.0023029018 0.0012184329 -0.046182614 0.04045505 -0.023686608 -0.024307642 0.03189286 -0.042715546 0.026434982 -0.043454155 0.034832247 -0.007233875 0.010537126 0.019678691 0.01495651 0.008436852 0.017713724 -0.048395704 -0.030360265 -0.024504604 0.004373816 -0.045256045 -0.016203156 -0.031675883 -0.0047566486 0.038894486 -0.00038962692 0.004823759 -0.0011414066 0.026306046 0.018812163 0.047042716 0.0038616385 -0.00404226 0.027567899 0.023873786 0.02013837 0.035903614 0.021973435 0.015704403 0.020741122 -0.022750162 0.04649827 0.005105248 0.043096688 0.011163982 -0.0133604435 0.0065897647 0.015713241 0.011346503 0.04263593 -0.048495818 0.040559776 -0.021717807 0.005905935 0.011867587 -0.00016958236 0.039170224 0.007038879 -0.030454531 -0.0029327502 -0.03041139 0.049284156 -0.020876827 0.024541205 0.026317745 -0.02228028 0.05634413 0.036979053 0.017109815 -0.014781013 -0.004315683 -0.015297268 0.019832171 -0.0551612 -0.0403063 0.007151328 -0.016193124 0.042911068 0.02365722 0.02375138 -0.017870752 0.005205469 0.038247984 0.002870197 0.030271156 -0.04399865 0.011452454 -0.033887673 -0.02889441 0.041972995 0.028595684 0.04222774 0.021216191 -0.016278833 -0.023907274 -0.04883523 -0.01641659 0.034339964 0.031135226 0.004127056 0.03252077 -0.03267623 -0.01907709 0.0028412412 -0.008216554 0.020525524 0.03661081 0.038661215 0.023664175 0.03090965 0.029220816 -0.008472032 -0.031172123 0.0036111674 0.006490416 -0.0017039933 0.020957986 -0.026025841 0.03322922 -0.032101307 -0.01844942 0.026178997 0.050231192 0.024766246 -0.00018618273 0.035590805 0.020814022 0.012405313 0.026657872 -0.014273001 0.012910996 0.0010011777 0.013913532 0.030842135 0.015733691 -0.010874072 0.025909351 -0.038019035 0.0051455293 -0.04073925 -0.022318693 -0.022075456 0.012342328 0.044098467 -0.01706802 0.049776442 0.042807907 0.032173812 0.0308411 -0.009584006 -0.034959327 -0.01746776 0.009799171 0.03735738 -0.015454096 -0.0065889126 -0.018554183 0.024050077 -0.017648954 0.03682063 -0.009652987 0.051384527 -0.04284683 -0.026883194 -0.0097167 -0.017713174 0.04562174 -0.018882666 0.021814851 -0.018265447 0.0043523954 -0.0024999366 0.044281755 -0.006411305 0.022544298 0.0045903763 0.037700497 -0.0068115164 0.0451168 0.031563837 -0.026391659 0.019182893 -0.05439601 0.021594753 0.012479603 0.0006663795 0.014813062 -0.04776401 -0.025030294 -0.04690411 -0.010224019 -0.018301276 0.010750092 0.010635774 0.04865819 -0.025240734 0.032197554 0.05319626 0.04858538 0.009540858 0.009205025 0.02620115 0.045423016 -0.019702228 -0.052922197 -0.011766325 0.0069742776 0.02151803 -0.01625454 0.060619224 0.032386355 0.008226377 0.04647385 0.038094465 0.008734586 0.010765018 -0.018953815 -0.0007610029 0.0070023155 0.011453062 -0.016674995 0.033541627 0.00019050913 -0.00523346 -0.02072739 0.010095889 0.044245675 0.05581472 0.019465448 0.021670489 0.037861373 0.035281956 0.0072559924 0.025020102 0.034745153 -0.0033007136 -0.042402104 -0.013333109 -0.03482437 -0.035799965 -0.017490078 -0.034610868 -0.03249678 -0.04394185 0.008430667 0.013589448 -0.072078735 -0.040262625 -0.003331352 0.043595325 0.038085584 0.015326861 -0.028143361 0.030502707 0.029428871 -0.032051973 0.004171767 -0.0008177917 0.030416174 0.0015894013 0.035944514 -0.04455344 -0.020011997 0.03973013 -0.028299725 -0.04838369 -0.01794344 0.033280652 -0.015167868 -0.039692517 0.039887946 -0.017230567 0.050886605 -0.010995871 0.0008685671 0.022339512 0.025976438 -0.0033667886 -0.018284583 -0.0037656906 0.021731514 0.012963765 -0.006931931 -0.04520284 -0.02623551 0.03629279 0.030941362 0.014155524 0.017053552 -0.051966403 0.005553405 -0.018363725 -0.025695927 -0.0020019622 0.054910854 0.031526502 -0.018717544 -0.0009476621 0.027067123 -0.04853925 -0.023671791 -0.016277744 -0.021516882 -0.051526405 0.033200584 -0.01529568 -0.025460476 -0.025188582 0.023535674 0.02685692 0.018351443 0.022200244 0.011083303 -0.024987448 0.014247847 -0.041774567 -0.008552896 0.00417146 0.00656153 0.015432199 -0.019142251 -0.020763028 0.036659416 -0.019731374 0.018411197 0.048635624 -0.017490353 0.04399008 0.0064996276 0.017259462 0.019485086 0.03820616 0.010030725 -0.043313406 0.02917253 0.038628437 -0.016488796 -0.008771823 -0.049694836 0.014092906 -0.0055050524 -0.009858154 -0.0017516022 -0.030840565 -0.05025683 0.02298864 -0.009349976 0.015235123 0.025233673 0.036744386 -0.038310204 -0.011120785 -0.012709903 0.05194004 -0.0042548315 0.019911554 -0.0008044717 0.0024961038 -0.0025626463 -0.036151692 0.033070832 -0.04110544 0.009868267 -0.01024368 0.02648831 -0.0020807981 0.03653981 0.032680888 0.019558711 -0.03877487 -0.026699945 -0.007665574 0.024493432 0.041856717 0.03992771 0.024100622 0.029211037 0.012252417 0.046214204 0.000227287 -0.028433166 -0.018442104 0.018039482 0.01998254 0.026100619 -0.0033095116 -0.01827336 0.026710937 0.024424952 -0.03427719 -0.008174048 -0.036670923 0.023415267 0.04528255 -0.013576582 0.0078256745 -0.017651543 0.0023934485 0.017963188 0.019236948 -0.033295035 -0.053684954 -0.010008585 0.016896162 -0.03981009 -0.0026212914 -0.033241566 -0.034047704 -0.023738753 -0.0038022837 -0.029286912 -0.052087888 -0.027835226 -0.012525908 -0.011843141 -0.03461474 -0.020561278 0.04137296 0.053401686 -0.013549969 -0.014710193 0.011551641 0.060972854 -0.052264035 -0.0076013454 -0.044942666 -0.005161027 0.0038347824 0.040438425 -0.0072688013 -0.026809217 0.03347709 0.01073624 -0.020673547 0.038057048 -0.037457522 -0.014766629 -0.0022995851 0.014842964 0.040871985 -0.014300396 0.042156246 0.008597865 -0.0152185755 -0.02406719 0.0047929967 0.020069603 -0.042336144 -0.018430917 -0.030146215 0.020295558 -0.011642345 0.0072953515 0.040088054 -0.025082383 0.012882358 -0.013578913 -0.029618578 -0.0061378907 -0.023510598
0.030816894 -0.010004131 -0.03233507 -0.038820043 -0.00083421665 0.015813185 -0.009855711 0.016760105 -0.016334955 0.04728952 0.008927777 -0.04239457 0.018231126 0.025628498 0.009940535 -0.036421586 0.034487553 -0.017968556 0.021149393 -0.028791828 0.03979522 -0.044537295 -0.0036493712 0.03263161 0.0013202076 -0.026220461 -0.031742226 0.03905211 0.01962858 -0.01787204 -0.0062474576 0.051412478 0.041816037 -0.0081644105 -0.039952114 -0.0018761213 0.0041655265 -0.008515128 0.014641721 0.009039307 -0.012500835 -0.0035585 -0.03741645 -0.03164874 0.030664887 0.014202369 -0.043893863 -0.032733902 -0.002969041 -0.0048806793 0.028569207 0.027538953 -0.030441536 0.00588228 0.00038676406 8.999257e-05 -0.01644081 0.031187557 -0.014490742 0.03705278 0.008146067 0.029104251 0.011592975 -0.021840973 -0.039460696 0.028951352 -0.043077443 0.019515853 0.030797148 0.013670484 0.008622702 -0.0060096723 0.010168925 0.013181785 -0.024544263 -0.0044937227 0.037656583 0.020157915 0.013094158 0.010243914 0.006218827 0.014806089 0.0066218325 -0.041572336 0.029920803 0.05365817 -0.03391313 0.041313782 0.025256906 -0.00409093 -0.034743037 0.019366689 0.003548243 -0.016175466 0.010200642 -0.03869358 0.04752227 0.013873648 0.042328972 -0.028899863 0.0042046886 -0.052631047 -0.043278005 -0.030323774 0.043871477 -0.02306536 -0.03469071 0.03867322 -0.02933355 -0.033328608 0.052987423 -0.009001453 -0.04735463 -0.007902565 -0.02466983 0.026344279 0.008735495 -0.014776513 -0.037853323 -0.023707718 -0.012096049 -0.024787119 0.05253643 0.049106136 -0.047679607 0.033605028 0.02232807 0.05088121 -0.00012806809 -0.010239913 0.015992546 -0.03575497 0.013376399 -0.00998738 -0.04732951 0.04680429 0.016770009 -0.021681108 -0.02771096 0.0446449 -0.003842742 -0.023902932 -0.041454673 0.018034387 -0.04121657 -0.019105032 0.017749231 -0.011593836 0.0073093697 -0.026378259 -0.019722361 0.016368618 -0.019642454 0.029969223 -0.027161881 -0.004841987 0.03494373 -0.040300895 -0.008943366 -0.013073822 -0.03578964 -0.022755211 0.004241349 0.024843927 0.020547839 -0.030881738 0.031842496 -0.02864641 0.036522355 0.041424595 -0.018073216 -0.035997976 0.038212363 0.0307578 -0.0222216 -0.018133799 -0.00318685 0.009478662 0.0073132114 0.0017585397 -0.03080005 0.042342223 -0.024222875 0.021392765 -0.033741552 -0.045084104 0.04118478 -0.03637747 -0.011676488 0.02113138 -0.023195652 0.021852091 -0.037177827 -0.0008619605 0.047355708 0.008007957 0.030473808 0.035162248 0.036477994 0.016502306 0.008133107 0.046309877 0.0043990244 0.032893356 0.067079104 0.037416227 0.020514477 0.02975311 0.0017465309 0.012272133 0.034854375 0.0029999872 -0.038769625 -0.0050001815 0.029464256 0.000936346 0.042083465 -0.024414454 -0.0058315676 0.0066614286 -0.076342866 0.042889904 -0.010491544 -0.023217151 0.013428038 0.024534835 -0.00600983 -0.017178021 -0.009466035 -0.003994086 -0.042951312 -0.030840686 -0.008741753 -0.036531426 -0.03546017 -0.017335258 -0.028130697 0.009787225 0.03279409 0.04972575 0.03917777 0.017778633 -0.0072057294 0.029579895 -0.031240864 -0.007185011 -0.010536049 0.008729439 -0.038767543 -0.03366501 0.038475648 0.015351759 0.021888545 0.007535957 0.044399295 -0.005288569 0.0064197825 -0.02078321 0.0006543374 0.04422015 -0.023496283 -0.014266699 -0.0072712637 0.016091742 -0.016083231 -0.025801001 0.0041342718 -0.045145202 0.047624312 0.018939015 -0.050921295 0.02636931 0.019646449 0.02696169 -0.011023439 0.0066863284 -0.029533355 0.025604 -0.019457912 -0.0051394715 -0.018293902 0.020737492 -0.016525691 0.0099388445 0.025175557 -0.033370387 0.018784367 0.009043086 -0.012753795 -0.033715423 0.03663361 -0.0057931924 0.026568439 0.014755858 0.019750748 -0.021227526 0.043553036 0.028777702 -0.043638766 -0.006639418 -0.009150718 0.040349837 0.021678926 0.0071234494 0.019914396 0.033144988 -0.041750424 -0.010010776 0.009758407 -0.0002886777 -0.036647227 -0.0062094983 -0.030103592 -0.03784968 -0.037133466 -0.044220876 0.0206503 -0.03090375 -0.009804143 0.04263137 -0.03194724 0.012175686 0.0114340065 0.00021537539 0.029210417 0.009611203 0.008155891 -0.015396957 0.023715522 -0.039496943 -0.015670456 -0.017479422 -0.02012932 0.0072146654 0.023353862 0.003951925 -0.004297976 -0.037395164 -0.0020502869 -0.03899704 -0.010075279 0.051183786 -0.026244579 0.02809162 0.029035881 -0.035877574 -0.045360878 0.03728287 0.0331199 0.030038629 -0.03378462 0.019192971 -0.030533057 0.032124907 -0.031256363 -0.008495594 -0.0069641517 -0.0020195707 -0.033132173 0.0055207927 0.0143330395 -0.0028278732 0.015923796 -0.053538993 -0.0068376465 0.024652682 0.018779272 0.04464116 0.016405275 -0.019401778 0.03352538 0.016102608 0.012110893 0.035641517 0.041925475 0.002822423 -0.021394094 0.04128542 0.0032088298 0.050611276 0.04307177 -0.003681462 0.00055517524 -0.031140456 -0.04125494 0.014455882 -0.025027806 -0.03903528 -0.0028635282 -0.026628586 0.01612848 -0.021935416 -0.048775554 -0.02630228 0.04046902 0.036750767 0.005670764 -0.01746684 0.041256562 -0.048974626 -0.03205401 -0.017614787 0.010312971 0.017818242 0.027279936 0.00992092 -0.021731855 0.0033496276 0.020881386 -0.010689806 0.03143475 0.023119137 -0.038551122 -0.009886582 0.01789905 -0.010502593 -0.020099334 0.03827784 0.011698157 0.0430437 0.022664936 -0.003733825 0.019452216 0.019013086 -0.023479244 -0.024688762 -0.019729793 0.026546527 -0.04604644 0.023630256 -0.0018595435 -0.00965774 -0.006580954 0.0047879424 -0.04123157 -0.036456943 -0.015043681 0.00791071 0.017979568 0.037388317 0.0020354649 -0.0437825 0.02798287 0.027735278 0.010505166 0.010524623 0.023926308 -0.0324842 -0.04923576 -0.044961378 -0.030541379 0.023543151 -0.04563963 0.030830454 -0.0054348367 -0.016308544 -0.015952112 -0.013318836 0.023614947 -0.03746054 0.052064724 0.008299027 0.0014333936 0.035327837 0.02714603 -0.01050025 -0.027136795 0.024236355 0.020230373 0.007149904 0.046019983 -0.006966155 0.0437314 -0.024456551 0.008607219 -0.047304593 0.030165438 0.022724923 -0.042307004 -0.045369647 -0.021906693 -0.020616995 0.00420736 -0.012423016 0.029071478 -0.041605562 0.018450003 0.041361343 -0.0111696785 0.03146992 -0.0068955845 0.0022985295 -0.037743285 0.010354937 0.016641159 0.024410821 0.014133948 0.0007893365 0.039566536 -0.013284354 0.020391474 0.045315176 0.036191843 -0.041691374 0.011561991 0.05426764 0.032322623 -0.018154928 -0.024710396 -0.014963605 0.0026380203 0.00029385285
0.045444585 0.023013055 0.019539857 -0.03472717 0.019088447 -0.039529428 -0.031317584 -0.0110602835 -0.036346786 0.017397583 -0.012753593 0.03190337 -0.031829033 -0.003733654 0.0008521328 0.0037252791 0.0069054193 -0.0104011865 -0.011871823 -0.032195415 0.023099706 -0.027573159 -0.014617709 -0.039205033 -0.032919075 0.036397483 -0.015774764 0.033894442 -0.0024976549 0.011911237 0.0070329783 0.04042832 -0.013620183 0.018222123 0.007967613 -0.027035946 -0.0045665572 0.023511497 0.03596971 0.030916784 0.02029071 -0.024430122 -0.036294565 -0.005579135 -0.035701536 0.02738523 -0.028723244 -0.031174913 0.022384256 0.028981553 -8.421864e-05 -0.010373123 0.011610517 -0.0028265163 0.012292984 -0.005951341 -0.030159837 -0.022166224 0.018368023 -0.0059601534 -0.012246509 0.02336432 -0.028024869 0.014753649 0.022164466 -0.010697288 0.01197645 -0.024754023 -0.009945648 0.012916121 0.033683445 0.03223341 0.010473634 -0.036274847 -0.01812533 0.022512835 -0.021309504 -0.008916472 0.018637089 0.0088040745 0.012495783 -0.00022275439 0.020674005 0.013114073 0.03298649 -0.014350942 -0.02262931 0.0010198258 0.00951809 -0.010400434 -0.021391569 0.013834989 -0.022220349 -0.01713386 0.0071744695 0.006876018 -0.028054168 -0.0033505773 0.014858771 0.025952527 0.009633589 0.03669042 -0.025878273 0.022697806 -0.006177883 0.014839442 -0.028719861 0.02044819 -0.027598139 0.018561045 0.016156068 0.007850473 0.031846363 -0.018151846 0.025986608 0.027631521 0.0037690983 -0.00018765354 0.0003800662 -0.009266356 -0.024044154 0.0058259866 -0.0019108937 -0.043943763 -0.016179712 0.024652705 -0.015483241 -0.028662186 0.025501037 0.007834785 -0.039419446 -0.019338036 -0.014828442 -0.0054037264 0.028939907 -0.022120012 -0.020117408 0.04383696 -0.0066583366 -0.020515352 -0.00093450584 0.006318918 -0.034252133 -0.019725781 0.0043279342 0.007909655 -0.0032149295 -0.02100947 0.012868055 -0.013088627 -0.034702506 0.0032352372 0.0003540882 0.024085628 0.029227942 0.024779482 0.023942845 0.03244838 0.03863226 0.03098639 0.029020539 -0.024227206 0.022722865 0.029889805 -0.0022950915 -0.0019025845 0.009152482 0.00013321372 0.022411555 0.03066935 -0.013240472 -0.01794554 -0.02427021 0.018912913 -0.017355273 -0.02916048 -0.0023157243 0.021350596 0.018777847 0.028787084 0.029152509 0.021978285 -0.015590795 -0.02865134 -0.019829944 0.01778471 0.00032677592 0.002403492 0.01524147 0.019365659 -0.0180354 0.033006232 0.016256124 -0.006829654 -0.026795289 -0.040444434 0.03650255 0.015230265 -0.012625408 0.035179008 -0.011255749 0.026062911 -0.03405511 0.01115925 0.0035361801 0.0066195014 0.014668386 -0.008357289 -0.012529404 -0.020550786 0.013688816 -0.028700009 0.015213116 -0.017780779 0.026290443 -0.021118026 -0.014517263 -0.019207172 0.030307593 -0.015999662 0.039088007 0.024992904 0.024353262 0.00692863 0.033549592 0.008091513 0.011926329 -0.038643412 -0.015685454 0.023970723 0.023725644 -0.036602322 -0.011705881 0.024119321 0.026664991 0.0004168973 0.033471942 0.02430788 0.024339749 -0.0035467655 -0.012094873 0.0058495593 -0.0065012826 -0.023029413 -0.0361611 -0.0262812 -0.0055116573 -0.005591802 0.0034009 -0.0026480637 0.0139104165 0.032734945 -0.006938138 0.018742055 0.023839716 -0.023892734 -0.023293175 -0.013547928 0.010474959 0.028024323 0.02787238 -0.025307296 -0.011811428 0.010039288 -0.011302518 0.03649353 -0.026709748 -0.037810106 0.0053109527 0.03525515 0.022617148 0.0014616403 0.054777827 -0.0045070695 -0.016658409 -0.009997055 0.03081236 0.023559395 -0.0014711504 0.006820108 -0.0017708901 -0.030716151 -0.011532394 0.013078637 -0.0013585943 -0.007245833 -0.033790186 -0.019294877 0.025695268 0.012514309 0.0006355209 0.008033609 -0.0019472019 0.01187276 0.030747067 -0.018811675 -0.0024593007 -0.023974396 -0.013343836 0.016479647 -0.03342277 -0.024269747 -0.013087291 0.022298617 -0.018300291 0.016549245 -0.021629026 -0.00041486844 -0.00066921086 -0.010402951 0.018315328 0.009046206 0.0339502 -0.016756508 -0.016249146 0.0010083914 -0.04275011 -0.003089982 0.032737393 0.026914965 0.0021504723 -0.032149628 -0.032175843 0.015940504 -0.026449477 0.028374892 -0.0029896458 0.025342692 0.0018120701 0.018633539 0.02136833 0.034857154 -0.003627837 0.01151037 -0.033576805 0.036071803 0.017921055 -0.028454397 -0.025630632 -0.015456804 0.010959074 -0.020513581 0.042606384 3.8106053e-05 0.006314237 0.026185341 0.017548941 0.019892087 -0.015550572 0.003687861 -0.040804926 -0.015673311 0.0021670836 -0.019174546 -0.003174984 -0.004851085 0.01902622 0.014784532 0.010345261 -0.016550463 -0.03306968 -0.01847839 -0.0005492944 0.022472793 -0.007056359 -0.016387817 -0.024009 0.04151882 0.031924836 -0.016635282 -0.00203908 -0.03489445 0.022356428 0.0059735146 0.01524858 -0.0022574705 -0.006417357 -0.016821753 0.019917877 -0.0027485022 0.037215866 -0.038203165 -0.02596313 -0.008306651 -0.029540109 0.01165873 0.036746375 -0.003241029 0.018552665 0.0036514509 -0.037276495 -0.029842332 -0.0041867574 0.042553216 0.008936339 -0.0035017228 -0.017970845 0.0025635296 -0.018191544 0.014654135 0.022049759 0.05277054 0.017609313 0.0077571613 0.045833282 0.009501049 -0.008352284 -0.028361669 0.03346128 -0.017747605 0.029293565 0.0017077605 0.01614094 -0.017151877 0.008198723 -0.039712567 -0.021733932 0.017401982 0.026450742 -0.038358655 -0.031948507 0.02020538 -0.017876804 0.022204086 0.022608014 -0.033015326 9.6985365e-05 0.031406883 -0.012189666 0.0046236194 -0.013236089 0.034857694 -0.033392876 -0.03166384 -0.021019896 0.021016954 -0.030644689 -0.033781033 -0.022751326 0.037246823 -0.022636209 0.00015230336 0.013855692 0.021503286 0.049805 -0.024049098 -0.031776607 -0.028666213 -0.03588494 0.019611476 0.032180022 0.00044422943 -0.018456899 -0.021986483 -0.013187831 0.024088502 -0.0028664516 0.03260777 -0.013907991 -0.0025680028 0.015276872 0.0053616622 0.03834066 0.002461944 -0.029117322 0.030161738 0.021325855 0.014036031 -0.008829248 -0.009259602 -0.013361742 0.035249528 -0.033866897 -0.021523003 -0.021311382 -0.038933545 -0.024023037 0.0270256 -0.0044080447 0.015623206 -0.018458772 -0.021567391 0.0030125096 -0.01396941 0.0014208433 -0.027662188 0.021115985 0.015972886 -0.016009476 -0.033282977 0.015284879 -0.011637631 -0.04134621 0.0021972435 -0.012534318 -0.03356892 -0.010905825 0.019848242 0.03727073 0.008381575 -0.014222577 -0.007135675 -0.024814498 0.0049207727 -0.00055651576 0.03175545 -0.021432588 -0.013777322 -0.0058065993 -0.007520859 -0.024722423 -0.01494267
0.018037315 -0.042495552 0.009267403 0.005861307 0.03540305 -0.02906346 -0.019644873 0.013551931 -0.00594562 0.0141243655 0.021736365 -0.022739515 -0.0005352408 -0.014418696 0.015438046 0.0057770996 0.035551894 -0.015470658 0.039593264 0.0009556418 -0.0002140053 0.050790135 -0.010786294 -0.018722022 0.04442604 0.023184363 -0.008367111 0.022893064 0.037274797 -0.04222614 -0.038041916 7.489352e-05 0.0018772536 0.077005595 0.029469268 -0.025224173 0.04089448 -0.035884615 -0.03907751 -0.042469203 -0.006579295 0.024831984 0.0018076585 -0.010232574 0.03429841 -0.001661 -0.0036686773 0.02481719 -0.02855732 -0.043423176 0.004530458 -0.0017158515 -0.04457992 -0.03622193 -0.01830597 -0.025737764 0.012829969 -0.019672347 0.03563708 0.011468605 0.044435795 -0.008507001 0.028274432 0.016794493 -0.036831625 -0.00832835 0.019101098 -0.011694863 -0.021837458 -0.04128857 -0.042099804 0.042678095 -0.04173659 0.0199563 -0.027358107 -0.018559653 -0.017979141 0.043120757 -0.043994837 0.014339042 -0.038364157 -0.03521238 -0.025835775 -0.06430312 0.045475308 0.02987199 -0.024633868 0.0077172136 -0.033031423 -0.014646921 0.028456474 0.03705167 -0.0341424 -0.044026174 0.037900355 0.021993918 0.023133678 0.032611147 -0.009255689 0.043014128 0.0022594647 -0.020324735 -0.006440081 -0.01769807 0.011539756 -0.025386851 -0.006847735 0.020249082 0.056544274 -0.014194866 0.017593862 -0.04329831 -0.042915657 -0.03469103 0.021426646 -0.03608427 -0.015700245 0.015753206 0.019002918 0.00065279996 0.04812802 0.008601585 0.042202394 -0.024847077 0.016526904 0.008229685 -0.02070184 0.016729698 -0.044559155 -0.028698971 0.030866018 0.031338908 -0.022725496 -0.025209611 -0.011079057 -0.021698073 0.014581702 0.034926496 -0.0105904285 0.0016470627 -0.0055196383 -0.012262405 0.013614292 -0.051319152 0.023486195 0.018274466 0.01167257 -0.013700841 0.045012113 0.034419443 0.012829763 0.02042322 -0.04020111 0.04039998 0.0035435925 -0.023902338 0.0061143506 -0.040273722 -0.0002054441 -0.024542658 -0.023473483 -0.0037651309 0.004274552 -0.027629869 0.044871766 -0.02472539 0.02105941 0.04170469 -0.015388466 -0.0035283554 -0.014868777 0.03777701 0.03413978 0.033617385 0.038462225 0.038306434 0.030942325 0.027458379 0.038231526 0.025521403 -0.017087715 0.035041217 0.031869687 -0.04671833 -0.0108951535 -0.029814227 -0.04376656 -0.029869303 -0.037247907 0.019880006 -0.0023181452 -0.03797119 -0.00801225 0.029359546 0.009517427 0.0011077662 0.013262839 0.02786719 0.05135964 0.008323089 0.0070926794 -0.03707822 -0.0034979335 -0.034873534 -0.0035265165 -0.040357 0.013339819 -0.01446665 0.04222031 -0.04189681 0.014556002 0.039543085 0.0003653433 0.028325284 -0.037292365 0.0003407539 -0.03740233 0.036140125 0.027197074 -0.018094001 -0.018896896 0.0031243663 0.0280633 0.033077247 0.017937802 -0.012117542 -0.009730099 0.03524829 -0.05468814 -0.019643076 0.01237603 -0.012766152 -0.04105005 -0.00070534117 -0.03422738 0.032417618 -0.021527454 -0.035088435 0.04776633 -0.037498146 -0.012036711 0.006938984 -0.019738365 -0.018341765 0.060297128 -0.01647756 0.002204018 -0.0015302083 0.061963145 -0.010918244 7.448413e-05 0.037973467 -0.043812606 -0.037175097 -0.025312923 0.014033349 -0.03147666 0.020682072 0.0115582775 -0.022273006 0.020373141 0.012734064 -0.030230585 -0.015267075 0.030976495 -0.031148445 -0.008832541 -0.010667688 0.028912181 -0.040000305 0.032220576 -0.02386035 0.012919557 0.020818211 0.022445414 -0.016607262 -0.0132934265 -0.021377794 0.0015055904 0.026845256 0.028443553 0.010369663 0.041454084 -0.045902237 0.021660253 0.023930078 -0.001165618 0.012859169 -0.031065878 -0.022655996 -0.007233148 -0.034341823 -0.02397835 -0.016184935 0.014073328 0.013623027 -0.027264433 0.0012396662 -0.0042491485 0.012393382 -0.034263335 0.015032673 0.0065904674 -0.027051058 0.029549938 -0.0020879093 0.025511526 -0.038647905 -0.034856845 0.011266584 -0.03570669 -0.019095238 0.036922395 -0.008785149 -0.037619602 -0.042677972 0.030925704 -0.029986737 0.0029308181 0.027068408 -0.022594472 -0.01676809 -0.021789338 0.021529388 -0.026751082 0.039449148 0.011969152 0.037565287 -0.023233352 -0.014155729 0.025278086 -0.036901347 0.0048399894 -0.040958147 -0.044046078 0.033757202 0.00079294475 0.003174734 -0.0154402815 0.03101688 0.03376669 -0.01266135 0.0049264934 -0.04811311 0.0077842935 -0.031723104 -0.046782944 -0.01653687 -0.05724435 -0.048603818 -0.043729942 0.037888374 -0.018551186 -0.05040586 -0.024186196 -0.02270181 -0.0074636764 -0.0013559286 0.028181918 0.042315327 0.03102465 -0.03217247 0.006580008 0.00999943 0.033262853 0.0068436917 0.042876914 -0.04538671 0.039871033 0.029691363 -0.030262414 0.031573597 -0.03850998 0.040655337 0.008974008 0.004792315 0.051483516 -0.021200854 0.022961024 0.014489728 0.049640108 -0.019618146 -0.042156123 -0.043653525 0.011466819 0.037869338 -0.028130183 0.022372058 0.015994353 -0.008358488 -0.0042176386 0.012700015 0.0034903449 -0.045287725 0.030624392 0.025891172 0.029275343 0.04249549 -0.0030619383 0.01968305 0.023870546 0.019225758 0.007949336 0.031381257 -0.041475154 0.017829845 -0.019119158 0.0017337716 -0.022718912 -0.047932856 0.0331793 0.016522015 0.029259132 0.035513174 0.03536296 -0.037538383 -0.011124684 0.0023152851 0.008503042 -0.028134475 -0.033419322 -0.02615803 -0.019777812 0.011550988 -0.010096046 0.0045179566 0.016394105 0.040022686 -0.038301256 -0.042138193 -0.0006963583 0.040573053 -0.029155701 -0.00753928 0.043857414 0.022499252 -0.035510626 0.035122063 -0.044714093 -0.013972193 0.006124564 -0.033483226 -0.009491006 0.011711949 -0.04477528 -0.020160116 0.025945768 0.053734988 0.03324184 0.034830485 -0.029578134 0.028350724 -0.02171033 -0.007517979 -0.034277253 0.065150015 -0.03729081 -0.02563551 -0.01227411 -0.025652409 0.037533563 0.04584688 0.03599207 0.021153605 0.0016906842 -0.039098255 0.011886168 -0.044753186 0.0303972 -0.031083042 -0.014538741 0.030528475 0.028955767 0.025894636 -0.01126999 -0.0049726525 -0.011977634 0.035068274 -0.029060604 -0.02457774 0.0053302674 0.025467174 0.008115295 0.017255554 0.013848229 0.018098077 -0.0027418304 0.0014245873 0.002011319 0.010592972 -0.027216863 0.01149237 -0.020902496 0.001675844 -0.017623285 -0.014154629 -0.0048403325 -0.037845593 0.00478745 -0.03984984 -0.009830811 0.013622872 0.022247117 -0.05279298 0.03501786 0.039739877 0.029426707 -0.0146239735 -0.02897583 -0.047896855 -0.028925842 -0.023130246
0.030581875 0.0027131254 0.038242072 0.03503465 -0.009287744 0.016749362 -0.034448072 0.02057897 -0.02166286 -0.010444489 -0.020550545 -0.0015505872 -0.051323082 0.03651716 0.030346021 -0.03471837 0.032757293 -0.032417003 0.025819836 0.017423498 0.03774573 -0.005680231 -0.0033841485 -0.026855048 -0.019067457 0.009725017 -0.039852303 -0.009130598 -0.022805633 -0.039367054 -0.040150978 -0.03639115 -0.043407764 0.04279893 0.000518991 -0.04194613 -0.01271708 -0.0288748 -0.039055087 0.028842468 -0.034551866 0.027812498 -0.009655444 -0.021066759 -0.010339503 0.0014227043 -0.03175006 -0.050498493 0.01040059 -0.008820079 0.035350893 -0.010618947 -0.015870495 -0.0015154891 0.035037134 -0.027592037 -0.04014219 0.045813736 0.022633974 -0.0034137496 0.0064669163 0.036309563 0.032340523 -0.02958263 0.026301937 -0.014069271 0.028813781 -0.037943687 -0.04374172 -0.029785564 0.044800185 -0.024950417 0.043282364 -0.009363176 -0.044805318 -0.027687997 -0.038461525 -0.01253564 0.007981727 0.008804106 0.012378769 0.016449723 0.043429624 -0.043361217 -0.043491088 0.03488461 0.022254117 -0.038830623 -0.03789902 -0.037805874 -0.045737125 -0.022232637 0.02769482 -0.04632527 -0.029018601 0.033951994 -0.020276155 0.05132871 -0.026991162 -0.039178118 -0.0037268142 0.017343214 -0.011942343 0.019436145 -0.007514827 -0.028692994 0.009460235 -0.014802277 -0.013253868 0.012104592 -0.0025306048 -0.031050859 0.028069375 -0.0106356945 -0.013904187 0.0059134606 0.04195917 -0.0054355394 -0.035814535 0.02700275 -0.00836644 -0.01959489 0.016175373 0.056226738 -0.021799495 -0.037048057 -0.031174205 0.010960882 0.0044759107 -0.0055327727 0.031884845 4.2709235e-06 -0.035322633 -0.029674118 0.040281318 0.019047156 0.030042972 0.020540172 -0.031273797 0.012424885 -0.017216949 -0.012414987 0.01719473 -0.00079909124 0.034802224 -0.025769884 -0.0058872513 -0.03941705 -0.026585935 -0.03475419 -0.007040403 -0.006495168 0.00010152383 0.04246671 0.034147985 -0.033970904 -0.0013906184 -0.04789603 0.008740814 0.019080138 0.03516907 0.030798275 -0.023559168 -0.023683088 -0.034002267 0.06885804 -0.03009671 0.03888177 0.041268516 0.0047161095 0.02258549 0.024603179 -0.037326302 -0.033299748 -0.046731446 0.0089229625 0.0043739416 -0.03083676 -0.04630595 0.02295973 -0.015986744 0.009721542 0.018555542 0.04020916 -0.036467712 0.014148246 0.028772155 0.04093122 0.022291115 0.016255807 0.017084742 0.045336157 -0.015948292 -0.014396782 -0.050880622 -0.044743516 0.021688592 -0.021536143 0.0072893947 -0.014923131 0.0033408625 0.0431314 -0.023072507 0.024825366 0.008355911 0.020415869 0.03209302 -0.044420864 0.023149207 0.043621115 0.010655825 -0.025206046 0.027972616 -0.032588895 -0.019156955 0.041347466 -0.03850354 0.007815081 -0.02575181 -0.043572854 0.043195043 0.033499897 -0.03919069 0.039717756 0.025015574 0.035404902 0.037779935 0.019489048 0.0052672573 0.004023465 -0.02462347 0.011900433 0.016402893 -0.0017718258 0.00031670532 -0.015777275 0.014857923 -0.029414717 0.0077421223 -0.006453216 -0.0018890064 -0.03773943 -0.047186963 0.040577695 -0.031621855 -0.030571591 0.0056073293 0.028323993 -0.032005124 -0.040692095 0.01853942 -0.0215411 0.008976167 0.01995365 0.017989155 -0.0430452 -0.026138695 0.03478428 0.036235232 0.037379503 0.011548931 -0.013577053 -0.001854933 0.016854052 -0.0078464355 -0.004104281 -0.039131824 -0.05025363 -0.010400387 -0.023268329 0.04133811 0.014001205 -0.039287142 -0.009917516 -0.027825851 0.00786958 0.042508412 0.006498275 -0.024639236 0.010352956 -0.04510951 0.02327736 0.0043112095 0.04027329 0.02717649 0.018632667 -0.027987296 0.00082392315 0.011334317 0.023973307 -6.3315405e-05 -0.0014907944 -0.045272876 -0.0076819165 0.025393767 -0.00068979664 -0.045808863 -0.031756733 -0.043958757 0.03689883 -0.0034258878 -0.045376472 0.01458701 0.02416073 0.03308664 0.004138973 0.007960042 0.017248955 0.014558613 0.030144917 0.04321472 -0.027425226 -0.042429253 -0.021772768 0.00027387682 -0.018886998 0.027973633 -0.04882345 0.014495505 -0.031251755 -0.012013283 0.024764685 0.018197546 -0.029562816 -0.008830815 0.029010467 0.049887642 -0.014121347 -0.0032710638 0.041496992 0.018273456 -0.04515559 -0.0016342544 0.014100766 0.028024688 -0.028386686 -0.026331266 0.00858228 0.009962508 -0.0054234797 -0.019336265 -0.026470603 -0.014442076 -0.007852971 -0.022178974 -0.024865476 -0.04329166 -0.04463136 -0.014264558 -0.035181515 -0.036809158 0.009860004 -0.026940316 -0.023908742 -0.011062507 0.0055020177 -0.0047685993 0.008835588 -0.00382858 -0.03224302 0.067464404 0.033251908 0.0010199964 -0.02994108 -0.040309757 -0.022709217 0.0042717005 0.039156288 0.013977093 0.021403879 -0.0038085077 -0.0375608 0.005023656 0.007680028 0.0018510504 -0.028925087 -0.031121936 -0.028117813 0.013487044 -0.014720736 0.004696206 -0.0017962294 0.0499743 -0.004694563 -0.013008391 -0.016538344 0.019535422 0.039368294 -0.020922601 -0.031722974 0.024093807 0.0017575606 -0.017346097 0.045967165 -0.010605918 -0.0430078 0.038245082 -0.004501404 0.009744878 0.045741275 0.043572515 -0.04198737 -0.020773787 0.038973533 0.03059643 -0.038180783 -0.045079768 -0.038562186 0.019715091 0.028029274 0.008421805 -0.0254365 0.027250728 -0.0066497377 -0.048694722 0.044573255 -0.050213326 0.033566687 0.030089354 -0.03319088 0.011000805 0.037557825 0.033812273 -0.024849303 -0.0008621501 -0.019703636 -0.03432896 0.022337064 -0.011358956 -0.044323374 -0.045019004 -0.0024544895 -0.02855182 0.01804103 -0.018034467 -0.031241477 0.029291619 0.0048452644 -0.04207121 0.031601932 0.015764518 -0.04225614 0.044569124 -0.00676988 -0.025447436 0.036834694 -0.022818005 0.009049379 -0.008402504 -0.041033603 -0.0032360416 0.041370437 0.031104742 -0.032774985 0.007920967 0.04662235 -0.014996666 -0.037786733 0.0024954418 0.0055690827 -0.019229122 0.019853493 -0.003806265 0.038041424 0.016298907 0.0074273916 -0.04270103 -0.031479266 0.044707615 0.01252216 0.029031597 -0.0024305875 -0.035147436 0.0142952055 -0.046683736 0.040107664 0.026802946 -0.03169353 -0.0380143 0.040651213 0.04040148 -0.045619123 0.002096811 0.03955396 -0.030699633 0.03241109 0.03503423 -0.034666505 0.036608264 -0.038985126 0.003540927 0.024868146 -0.024210183 0.032938827 -0.011379989 0.009753341 0.01383829 0.042222936 0.022714557 0.006625756 -0.011911513 -0.0073478897 -0.039924257 -0.03136539 -0.033593424 0.03191908 0.009884162 0.0060686455 -0.03347252 -0.053165667 0.01828874 -0.010919588
0.0010115347 -0.036888786 -0.040488876 -0.044194624 -0.037455462 -0.047443207 -0.018542487 -0.0075251423 -0.041837156 0.0036814376 -0.04694305 -0.025688894 0.05451695 -0.0027206943 0.018834466 0.0053155012 -0.0012544161 -0.005689532 -0.03262533 -0.035083413 0.023055485 0.04408769 0.0059961034 -0.004326961 0.032738574 -0.06492609 -0.0019264377 -0.03186734 -0.041959222 -0.03301175 0.04537613 0.032352418 0.031535834 0.057095814 0.030253476 -0.031719103 0.057067916 0.0304127 -0.0026638675 0.029042842 0.009030439 0.029430369 -0.0153896855 0.045332525 0.01629709 0.015656529 -0.021471757 0.03974083 0.029156646 -0.03462088 0.011204748 -0.032858092 -0.031544037 -0.002132741 -0.012368402 0.026295492 -0.026135301 0.04474225 0.03188321 -0.029689515 0.050093748 -0.016426256 -0.042243928 -0.03791076 0.0045545474 0.029790042 0.03352259 0.038688842 0.052984353 -0.011209457 -0.03220839 0.042659722 0.0077614128 -0.0032186974 0.0058913464 -0.027367506 0.003551731 -0.0059544733 -0.065579824 0.030077191 -0.033921693 -0.024907183 0.0041560116 0.03808899 -0.036442883 0.016670657 -0.020196173 -0.003778514 -0.015100839 -0.00632741 0.05013489 0.044445544 0.017386349 -0.02213177 0.053427037 -0.036420938 -0.04026239 -0.04689093 -0.0010974604 -0.030358264 -0.026513545 0.037399527 -0.018502008 -0.0004965363 -0.015763894 0.042126466 0.0068361955 -0.010175269 0.02045847 0.025498273 -0.03633458 -0.03442248 -0.0055580246 -0.0042610555 -0.0035784652 -0.04499514 -0.046183623 0.0175436 -0.02987824 0.033061802 -0.017760657 0.0040293364 -0.028373957 0.009024244 -0.011074006 0.027512858 -0.04667579 -0.04182368 -0.024720259 -0.002316103 0.0021409735 -0.01897954 -0.04283965 0.029717598 0.023225294 0.0021049834 -0.0101829525 0.019076137 -0.015266005 -0.01856181 0.0062640673 0.007411088 0.03845994 0.034227517 0.033672996 -0.043526515 0.0074232533 -0.040880147 0.013457761 0.038027175 0.038749233 -0.02768945 0.059571527 -0.033445876 -0.0049808193 0.045393623 -0.0196507 -0.043912824 0.027327454 -0.02845078 -0.005304286 0.04769287 0.0062319436 -0.0055222833 0.004719635 -0.038810328 0.014035402 -0.023801435 -0.033148136 0.042077333 -0.018900232 -0.03965031 -0.03675257 0.02955451 -0.0074011893 -0.03212411 0.03293213 0.03157204 0.04389462 -0.044072762 0.010087267 -0.05919185 0.02464806 0.008061695 0.012296618 -0.004480367 0.022537583 0.022143867 0.024407335 0.009830927 -0.031484008 -0.042403597 -0.026669947 0.037405822 -0.0034764984 -0.026487317 0.018112114 -0.038651723 -0.030461181 -0.04712645 0.020178558 -0.040682357 -0.03262359 -0.019485552 0.053984307 0.011586343 0.04069437 0.013952313 -0.023420783 0.0043800804 0.028209576 -0.020346189 -0.028710194 0.013204339 0.018734112 -0.045682978 0.03032446 0.0034417033 -0.010919205 -0.026798218 0.009542896 -0.04204724 -0.049287125 0.013072798 0.02216453 -0.031447493 -0.0051337676 0.004578204 -0.007613523 0.007614888 -0.02130265 -0.046567347 -0.029835049 0.033706028 0.010748838 -0.033674024 -0.029733153 -0.014280016 0.03897479 0.036154766 -0.032346092 0.014333833 0.04791457 -0.04218544 0.012066434 0.044920057 -0.0143023105 -0.048035156 -0.0495553 0.0028687024 -0.017758183 0.010822369 0.028916711 -0.043065492 0.03569842 0.034426514 0.04010653 0.042676304 0.008734705 -0.004379808 0.039765414 -0.04263448 0.02282885 -0.022665735 0.032901328 -0.015818743 0.02042762 -0.034882892 0.0049509155 0.022563325 -0.0051245675 -0.011455569 -0.039756574 -0.01970523 -0.049926393 0.025272155 -0.011790313 0.016763376 0.04529929 0.06492076 -0.0028770226 -0.00939478 -0.027972192 -0.0074318876 -0.018514633 0.0017885161 -0.018223474 0.022038372 -0.008797433 -0.032094188 0.011772517 -0.03271532 0.017101012 0.04443718 0.02590419 0.024486147 -0.013104254 -0.020727219 -0.0010228986 0.03875702 0.027027762 0.03343631 0.037074704 -0.014603101 -0.026095886 0.045701873 -0.01817437 0.023736233 0.04208949 0.0090514105 0.02646384 0.03374396 0.018918844 -0.033652604 0.020776937 -0.036559798 -0.03826631 0.004736776 -0.03110883 -0.042041134 0.045725446 0.004713556 -0.012614101 0.01235589 -0.014580402 -0.020356886 -0.01129187 -0.01182241 0.009205316 0.032711826 -0.046512526 -0.015337577 0.0052914103 0.023882352 0.045687236 -0.043474697 -0.031211793 0.012128275 -0.016713368 0.03663228 -0.030898422 -0.011769814 -0.0016320741 0.03556685 -0.0456281 0.015872335 -0.0004309607 -0.014298379 0.03127469 0.014413746 -0.058278814 -0.012259755 -0.03042893 -0.0392113 -0.028302511 0.027560106 0.0012751243 -0.022210166 0.031734988 -0.0077200606 0.040710676 -0.015848331 -0.02890985 -0.003254948 0.021408642 -0.01907075 0.022793317 -0.038045257 0.025171386 -0.037834015 -0.035935275 0.018110014 -0.019195288 -0.0341433 -0.033102196 -0.027286861 -0.010568953 0.029903248 -0.0065060644 0.0053529833 -0.010079272 7.272316e-05 -0.027325556 -0.015593057 0.0046320283 0.03017236 0.05599786 0.02875453 0.041897338 0.018763646 0.032322764 0.03059847 -0.019203153 -0.031310778 -0.0155324275 0.026106305 -0.026891764 -0.044576757 0.014473989 -0.0023068679 -0.036013708 0.01286594 0.03420549 -0.018942822 0.023868024 0.04869179 -0.045170154 -0.043213062 0.033830494 -0.0022256025 0.030441737 0.031747684 -0.016349653 -0.04895283 -0.0072872834 0.038396265 -0.0034500472 5.7913312e-05 -0.01307472 -0.02275628 -0.04086175 0.026357738 0.012358889 0.0417812 -0.04301316 0.010322616 0.01600089 -0.038237024 -0.03931316 0.017773673 0.055032402 -0.030038746 -0.026301706 0.024651594 0.018664125 -0.020018144 0.013511655 -0.020003097 -0.03196386 -0.02278781 -0.03249429 -0.051835373 -0.0014153675 0.037017513 0.039626926 -0.024128918 -0.03359435 0.019756153 -0.0013141254 0.003981758 -0.0022277036 0.0012735642 -0.015991284 0.022606634 0.027084243 0.0032480194 -0.044948705 0.01760653 -0.036807626 -0.026048021 -0.01528637 0.045882776 -0.016899962 0.041342396 -0.0207032 0.024222298 0.013259587 0.036252905 -0.050844107 -0.03679174 0.03481252 0.003569363 -0.033628084 0.017600771 0.024815843 -9.34194e-05 0.0013038657 0.02895029 0.024171969 0.0037125496 0.02389911 0.031911694 0.0050251926 -0.036010318 0.033929046 -0.0128305955 -0.0039055801 -0.0077582016 0.015887093 0.0046374183 -0.017721863 0.03277898 -0.020825535 -0.044516873 -0.00074972946 0.039215602 -0.0070513934 0.03821483 -0.03016725 -0.029079534 0.034868285 0.023098404 0.04414314 0.04419827 -0.0128698535 0.0027919025 0.029314365 0.045548182 0.037765156 0.028935261 -0.030781288 0.0025855547
-0.03663718 0.029807992 -0.0011404277 0.030522823 0.007951606 0.02703962 0.022511454 -0.05858975 0.028522214 0.0042386074 0.01714469 -0.029565632 0.041773763 0.032216758 0.032517627 0.007125316 0.0093438085 0.014808856 0.058442775 -0.0005473551 -0.010513568 0.053129192 0.0066730287 0.016395662 0.044961937 0.031633087 0.009267945 0.025428308 -0.0065296525 -0.06368294 0.054142635 -0.03998429 0.0068201683 -0.019136563 0.002603774 0.021850888 0.0050003733 0.043388225 -0.04700301 -0.030830339 -0.01541885 0.003859892 0.0056318413 0.020395005 0.0339685 0.036349572 -0.03511174 0.057738848 -0.044962402 -0.004922922 -0.0014624975 -0.020375919 0.03361548 0.04288843 -0.016640581 0.007160556 -0.033806387 -0.0011832415 -0.038033057 -0.015809236 -0.042783644 0.013333636 0.0042112004 -0.01084968 0.037364427 -0.011747358 -0.025054382 -0.036728214 -0.0032759574 0.018347874 -0.0295408 0.002974855 -0.012319585 0.03779829 0.032596927 -0.039818373 0.008603476 0.042558637 0.014270271 -0.061984446 0.011214266 -0.036314677 -0.014764409 0.009175107 0.05759834 0.06757847 0.039491836 0.045805592 0.021997266 0.044266615 -0.03815904 -0.015443137 -0.0014307603 -0.029473914 -0.07180496 0.025364753 -0.032928716 -0.015257982 -0.005643125 0.032484755 0.0030132409 0.00016209854 -0.007873473 0.008898582 -0.039636653 -0.025028873 -0.03941805 0.017795287 -0.048822332 0.027572995 0.042072307 -0.0080881 0.035791736 -0.0018104074 -0.017083688 0.033839867 -0.021598773 0.007740066 -0.038763523 0.03798417 -0.04715779 -0.021394664 -0.03671172 0.00079224317 -0.014863008 -0.022559632 0.0007565338 -0.035826024 -0.009450482 -0.051393595 0.037959963 0.03676296 0.03372509 -0.044629503 -0.005971002 0.04532983 0.015147459 -0.03058945 -0.020830188 -0.024430143 -0.040849794 0.0015271637 -0.0011564421 -0.020675888 0.019138332 -0.007754919 0.020162715 -0.050568122 -0.05379511 0.010981381 0.033926506 0.032922287 0.06120368 -0.028552309 -0.007939259 0.00015870591 -0.006271656 -0.031616434 -0.048787918 -0.023157725 0.015611577 0.036988974 0.02308693 0.029245019 -0.035891324 -0.03328518 -0.011269983 -0.04431283 -0.034326326 -0.030038845 -0.060050394 0.043918166 -0.013498994 0.020342603 0.0124798035 -0.04174706 -0.02688462 -0.034658715 0.031868316 0.0016709842 0.07097735 -0.014372723 0.0017813783 0.033121675 0.012598844 0.034108102 -0.0062050526 0.020506818 -0.021669125 -0.020345973 0.027415937 -0.020602094 0.016618092 0.04360681 0.027250119 0.014483024 -0.048690327 -0.011672362 -0.0412717 -0.012462481 -0.0075203218 0.036364894 -0.03482261 -0.037761893 0.016931172 0.033359826 0.006300524 -0.027574873 0.018374514 -0.017162884 0.020799529 -0.016182419 -0.01070532 0.027938237 0.0062262514 -0.008789487 0.03128813 -0.061507232 0.005042378 0.004947987 0.0013030028 0.013218307 0.03590136 -0.01367047 -0.027992245 0.030595493 0.009651953 -0.037693057 -0.049015496 -0.0677386 0.037390362 -0.0020038518 0.040573232 0.031461578 0.0013782531 0.0026330317 0.009765129 0.011772471 0.0192849 -0.028355628 0.0029116771 -0.033803575 -0.06355764 0.019118372 -0.035153743 0.05274747 0.021173866 0.03678112 0.0559237 0.0136293555 0.039828587 0.017286332 0.024995737 -0.013708674 0.0143231135 0.024384512 -0.038976196 0.040352743 0.03846413 -0.020852033 0.03938683 -0.036382467 0.0054271664 0.0026095412 -0.014333179 -0.026335567 -0.012142989 -0.015193295 -0.014583942 -0.014156478 -0.005564403 0.032740775 0.045211732 -0.05035821 0.013766592 -0.04029501 -0.04073846 -0.003586847 0.03980513 0.055048525 -0.04977449 0.03178047 0.022224238 0.007176124 0.030493766 -0.03683482 -0.00823647 0.02273083 0.035015505 0.03904702 -0.010272503 -0.0035808561 -0.025509836 0.010274124 -0.019849364 0.019478876 -0.017712565 -0.043994553 0.030018691 -0.040098965 -0.044184856 -0.04381855 -0.0024409357 -0.041168872 0.022671316 0.00819129 -0.016077364 0.028411169 0.016728118 -0.042920057 -0.016369954 -0.0021072242 -0.034243032 0.0040343427 0.042175412 0.04006554 -0.032958973 -0.026927538 0.040164817 0.02982457 -0.0026236991 -0.009411811 -0.03771062 -0.04633098 -0.039621703 0.0050497055 0.0008361382 0.0008455369 0.04055686 0.017675998 -0.003092466 0.011035868 -0.016358282 -0.031953752 -0.009028693 -0.028792402 0.041923642 -0.038959 0.014924261 -0.0017837627 0.011575927 0.009680568 0.016030025 -0.021598442 0.014100449 -0.0038610303 0.013656003 -0.04302233 -0.038681846 0.024303418 0.016842324 -0.031626694 -0.01563029 -0.069458745 -0.03832678 -0.046759706 -0.033121053 0.008971641 -0.043461673 0.010387457 -0.0018233495 -0.0016881366 -0.031135157 -0.06256464 0.044580948 -0.023067694 0.031478796 0.027757695 0.010861903 -0.013958614 -0.043914825 -0.010765572 0.02214416 -0.002685086 0.01682082 0.040090613 -0.03795944 0.038163375 -0.04977075 -0.008213346 -0.0005477682 -0.019793317 -4.019237e-05 -0.012248584 0.037271317 0.003499859 -0.044160187 0.0432391 -0.022295322 0.010293908 -0.0038096423 0.046549723 -0.023599891 -0.031917125 0.012666808 -0.025955694 -0.041293576 -0.048481595 0.016953075 0.006236274 -0.030828888 0.033677585 -0.021253599 0.01833453 -0.018955745 -0.0050982656 0.016404446 0.015187911 -0.046998184 0.022629177 0.013384079 -0.033750273 -0.040051952 0.047220603 0.023997242 -0.0012270659 0.0364817 0.0025020984 -0.0010326977 0.032622583 0.027661497 -0.025369102 0.024507172 -0.00479359 -0.017033098 0.017807499 0.01691267 -0.018089648 0.004761582 -0.010783599 -0.025409343 -0.053918574 0.0016928103 -0.007688191 0.041437753 0.053839236 -0.049363364 0.0016784086 -0.033044226 0.014070673 -0.03699619 0.03834979 0.046335697 0.015281916 0.03441269 -0.018362261 0.028266141 -0.02885334 -0.03351428 -0.007304713 0.033145126 0.020595051 0.0021375953 0.021672744 0.0047984854 0.0063552414 0.0067501627 -0.01804918 0.018446125 0.014694561 -0.031752814 -0.013751052 0.022331413 -0.0127687035 -0.011249197 0.0059033195 0.024914643 -0.028639384 -0.024801716 0.038587064 0.047365826 -0.0013372425 0.016000966 0.025941536 -0.027788311 -0.010306935 0.034019515 0.028107202 0.033798613 0.010970116 0.010574089 -0.017606594 -0.029930659 0.047749244 0.020256566 0.016881127 0.040456668 -0.030541506 0.014478767 -0.029050617 0.020644786 -0.056393176 -0.033520214 -0.026337532 0.01476722 -0.032876927 0.029280031 -0.014481813 0.033397157 0.003961725 -0.014863803 0.050290257 -0.040153723 -0.010799827 -0.024590984 0.020105634 -0.036027297 -0.06070299 0.007817922 -0.021931453 0.006441506 0.026308041
0.021764604 -0.010311067 -0.010165294 0.0255206 0.016389553 -0.0057253414 0.029334042 -0.0073588267 0.03857034 0.017997827 0.062335175 -0.0067454525 -0.022700768 0.01761781 0.024792092 -0.022440404 -0.018789921 -0.011646468 -0.0072966516 0.044162236 0.036399603 0.030874526 -0.0184276 -0.027365327 0.032303594 0.022346357 -0.025984796 0.022939192 -0.026596464 -0.018352447 -0.008328618 0.023134127 0.031301156 -0.012103616 -0.00695231 -0.031941384 0.024910895 -0.017118378 0.037187353 -0.022549327 -0.036708847 0.035482727 -3.964715e-05 -0.043704435 -0.039284896 0.015786324 0.044849884 0.03751009 -0.024656065 -0.026827931 -0.036497246 -0.007614491 -0.04254751 0.036307108 0.026206225 -0.02535942 0.018260283 -0.04706272 -0.019629043 -0.009245852 0.00870214 -0.008091489 0.029744172 0.016469074 0.039523676 -0.024878154 -0.020211121 0.011274561 -0.0086509 -0.012940185 -0.0068786126 -0.0049923602 -0.03536194 0.0007337767 -0.03377138 -0.048336964 0.04534019 0.029313652 0.043233734 0.027665116 0.0038811918 0.045107085 -0.0015549192 -0.008616218 0.02028038 0.038968544 0.032262344 -0.02743646 -0.022158926 0.04390527 -0.021387147 -0.023384301 0.028598228 -0.027031058 0.051013034 0.032495875 0.009588799 -0.013598836 0.01409823 0.043951508 -0.0068846904 -0.02648531 0.04527277 0.0021512022 0.036561456 -0.031368736 0.02500438 -0.005482442 0.034523524 0.04883264 -0.018322108 -0.0075727566 -0.053546414 0.022919856 0.03724075 -0.018169118 -0.018027058 -0.02880242 0.032331295 -0.0019130635 0.01203016 -0.0047455183 0.03556303 0.052082416 -0.000988834 0.028055703 0.0010668808 0.009434084 0.007106527 -0.05327168 -0.010719133 -0.047476232 -0.02013918 -0.03835813 0.03271561 0.03720561 -0.015592798 0.010717609 0.042097453 -0.036773592 -0.026551154 0.01879267 0.034366485 -0.043646418 0.047415633 -0.03475045 -0.021197282 -0.029434228 -0.01936951 -0.035827413 0.024744127 -0.026132355 -0.05043221 -0.019889379 0.004714769 0.0057060425 0.03196517 -0.038653202 0.02048637 -0.016930858 0.0249328 -0.02492297 -0.04009822 0.044490878 0.0017116204 -0.0005633155 0.03299937 -0.0311285 -0.011221761 0.03487109 -0.03779665 -0.019516688 -0.0033028102 0.018699726 0.01719298 0.013310101 0.042196408 -0.026331276 -0.002845375 0.010391683 0.010943872 0.04924384 0.0038269113 -0.009965006 -0.016309526 -0.040496934 0.02601301 -0.005379926 -0.04036514 0.018350052 -0.018330246 -0.029524297 -0.0071914224 0.05444923 -0.018661836 -0.022125328 -0.01379726 -0.015191502 0.004404578 0.0011019235 -0.03667005 0.018607195 -0.020817691 -0.018740952 0.04312617 0.014231274 0.0062242392 0.045193747 0.021312663 0.043224704 -0.028172178 -0.012710921 -0.0034492295 0.04741665 0.016548261 -0.02348269 0.029484201 -0.003349365 -0.033670306 0.036098626 0.042010505 -0.026758455 0.037819862 0.03409814 0.007861712 -0.039629225 0.0034885912 -0.04144649 0.027835561 -0.013007571 -0.021459462 -0.034823705 0.016993886 0.015044603 -0.02521154 0.019861719 -0.017186876 -0.043210655 0.014142899 -0.013698479 0.028899672 -0.037583318 -0.007251312 -0.02485853 0.022650385 -0.028650025 -0.028614767 -0.01894864 -0.028079862 0.04397391 -0.04999561 -0.01871171 -0.02400963 -0.029723154 0.018382955 0.00814951 0.02791312 -0.01762004 -0.025428763 0.028616976 -0.019081138 -0.03905476 0.004470421 0.03295035 0.011026664 0.023076886 0.046299662 -0.01738113 0.048939526 0.036514997 -0.037858155 0.010329815 -0.00906767 0.0034605667 -0.012470719 0.016103288 0.00954047 0.00095571554 -0.045007043 -0.029608488 -0.014047324 -0.037846733 -0.032346256 0.023344815 -0.029118408 0.047937136 0.033554066 -0.008236899 -0.05117118 0.03689845 0.042352036 -0.0020832256 -0.007077236 0.026700804 -0.021553254 0.0067112152 -0.02663291 -0.02676746 -0.046784766 -0.011085845 0.011904676 -0.004939281 0.0016544535 0.017234033 -0.016810412 -0.060474176 -0.030661242 0.02337541 0.021947425 0.015458579 0.002045759 0.016062746 -0.013726829 0.05287336 -0.028324949 -0.038325597 0.008940343 -0.021973625 -0.008117407 0.013260871 -0.007131587 0.040060826 0.0021470236 -0.030612921 0.03426421 0.0014137006 -0.034469 -0.049363308 0.016269708 0.040453378 -0.013169009 0.0062849987 0.019988889 -0.06661051 -0.013599739 0.016374636 -0.038596317 -0.042533424 0.015397221 0.0012118623 -0.015469213 -0.005307097 -0.0052800872 -0.008124106 -0.016530521 0.014324001 -0.023964329 -0.024406753 -0.018770771 -0.0359128 -0.0008453318 0.011210559 -0.01697491 -0.017766269 0.038034257 0.030064387 -0.036306545 0.00112918 0.00888112 -0.014370886 -0.011780005 -0.042372912 0.016737184 -0.03973662 0.040621333 -0.016659535 -0.048447527 0.004596021 -0.0011881605 -0.028164353 -0.038333617 0.03352404 -0.040158853 -0.028840901 -0.027001277 0.031939685 -0.009418921 0.024889933 -0.038952958 -0.049414095 0.0274545 -0.00805431 -0.019394303 0.029436097 0.008956007 -0.042564653 -0.030210514 -0.018998694 -0.03395507 -0.02095437 0.0014261232 0.014832069 0.029777642 -0.0059771594 -0.04157655 -0.046807565 -0.02506343 -0.009770848 -0.04066248 -0.0374819 -0.037784766 -0.009695572 0.043114617 0.040027447 -0.029499402 -0.009847928 0.046281163 -0.0067323693 0.030212078 0.010982504 0.025551531 -0.019431278 0.041307233 -0.028052688 0.07019554 0.018305458 0.0324566 -0.03300007 0.044683855 -0.01369726 -0.027745763 -0.0010462549 -0.03373344 0.01893589 -0.017759813 0.03533998 -0.022102695 0.0012928856 -0.038390245 0.020609638 -0.02987382 -0.030373855 0.011634675 0.037966363 0.037028465 -0.006196381 -0.02843973 -0.030909264 -0.016042544 0.0046111904 -0.020162877 -0.03484608 0.036794756 -0.024680939 0.030111844 0.0413623 -0.002816886 0.035585452 2.3695899e-05 0.0347308 0.019434132 -0.04099923 -0.021864748 0.030177156 0.002817062 -0.04231213 0.032802578 -0.009727642 -0.02838782 -0.03302801 -0.040312305 -0.036782075 0.011874104 0.05046449 0.025650313 -0.033639602 -0.028943256 -0.034304637 0.037479524 -0.0460936 -0.033182856 -0.03807486 0.006538289 0.03214233 0.028384916 -0.039096113 0.004795493 0.021880616 0.013640738 -0.028986854 -0.010503358 -0.023567496 0.016386438 -0.0032101104 0.019773273 -0.025565745 0.03510848 -0.0067689414 -0.018205076 0.032808095 0.027458273 0.037249513 0.009799556 -0.03549662 0.033025246 0.038549986 -0.0019583402 0.0056070103 -0.026442897 0.036305252 -0.0054808473 -0.03263431 0.034868006 -0.028919695 0.024847446 -0.013190055 -0.041431554 -0.013545254 -0.0057416693 0.049410943 0.05006105 0.010422548
