-0.0041173315
0.004011706
0.0044747274
-0.00081243285
0.011912651
0.0058106496
0.0061486405
0.026906935
0.0042409226
-0.005379869
-0.016202843
0.008062015
0.0003929006
0.025706349
-0.0010318323
0.020135418
0.008602908
-0.009550444
-0.030339917
0.0017843097
0.017347144
0.008426531
0.002020662
0.00501242
0.015375549
0.0072309305
0.016492313
0.031607464
-0.0063677984
0.027545113
-0.0031904406
0.034033965
0.011829384
0.025333462
0.00886237
0.024701666
-0.0022642221
0.02051417
0.0013153721
0.02270463
-0.009351933
0.027473416
0.00019426156
-0.01010264
0.0060392283
-0.008271497
0.01206924
0.037439924
-0.0056886375
-0.016501259
-0.0016749857
0.018119382
0.0016355343
0.020444727
0.020923601
0.0010166725
0.04747625
0.0032709274
0.0038593179
0.0019306253
0.0060727866
0.027780969
0.012310564
0.00724858
-0.00030255562
0.008456315
0.007954809
0.0084688505
0.023863181
0.011014872
0.027454823
0.01038421
0.026614074
0.024116835
-0.0038492342
0.031923637
-0.0138010355
0.0011644573
-0.003303944
0.013799354
-0.0054758005
0.021356827
0.009311986
0.021372717
0.029965617
-0.008202175
0.025783503
-0.011047993
-0.016543852
0.0259556
-0.027768444
-0.0027048725
0.0061941366
0.015077407
-0.0020054425
0.001757702
-0.0004647496
-0.011479198
0.0011736683
0.024665235
0.009575595
0.012155287
0.019315826
0.032125138
-0.0010104175
-0.012848583
-0.00075998605
0.0064393315
0.014606737
0.025043134
0.0033449691
-0.0049246484
0.017032322
0.009227166
0.028406868
0.035275333
-0.0014186577
0.001200689
0.00612982
0.006853613
0.020619119
0.018423444
0.022335855
0.033496406
0.008732376
0.00941514
-0.010162274
-0.013887704
-0.0027176691
-0.0017385503
-0.0024431497
-0.011034268
-0.0002634205
0.011301034
0.023865579
0.0038760565
0.017200403
-0.010317136
-0.008224131
0.007955438
0.012953928
0.045217026
0.015145283
0.023377148
0.021961477
0.013182932
0.01258711
0.01388071
0.0060038124
0.0011467815
0.0022777664
0.016963676
-0.051481627
0.0040145474
0.0041480465
0.015652528
-0.014535014
0.026171539
0.013709269
9.952248e-06
0.030823532
0.026923273
0.019687839
0.011846275
-0.024162106
0.0072493143
0.020841232
0.0050415937
0.037636973
0.023492903
0.021649748
-0.020234274
-0.00025868995
-0.013341533
-0.0057016187
0.014714423
0.02414093
0.021078594
-0.02530626
0.02690788
0.030817905
0.013476848
0.001967963
0.017471943
-0.008699082
-0.006442449
-0.00014568103
0.008004751
0.02592888
0.009294451
-0.0041826996
0.012098254
-0.0025174597
0.02440675
0.019343223
0.03111741
0.025906166
0.0010111202
0.0035010173
-0.007386144
0.0035537004
0.017054414
0.016640848
0.02780088
0.016222777
-0.009962039
0.014464763
0.019658212
0.014849796
-0.010058274
0.004991584
-0.011436496
0.009987068
0.03267433
-0.0017555765
-0.0027489814
0.0030308277
0.018184323
0.011142369
0.019331742
0.007303906
-0.009178689
0.008145025
0.016590418
0.02456725
-0.0036298325
0.013619321
-0.0107562095
-0.011944029
0.013018341
0.00089580036
0.0073380354
0.0005398932
0.012078724
-0.024663825
0.027369345
0.00052139134
-0.006326051
-0.008418339
0.013023583
0.011723591
-0.007054338
0.009774895
0.023522425
0.004024086
0.012475363
0.016829114
0.02696404
-0.014552505
-0.0044626985
0.026913812
-0.0018434192
-0.005112417
0.030347278
0.025493458
0.014852305
0.021288916
0.015317355
0.008542116
-0.025203204
-0.006852532
-0.016315171
0.004042317
0.017665664
0.0045131794
0.014730499
0.020633401
0.01012311
-0.011590746
-0.019189425
0.011940628
0.0073277117
-0.0169373
0.015149882
-0.0012639009
-0.02275465
0.009045862
0.012648029
0.018885253
-0.017462833
0.028616374
-0.006112675
-0.023262478
0.009507664
-0.02758674
0.007205613
0.008977658
0.024307827
-0.011662064
0.010265349
0.025840007
-0.0052066445
-0.004549612
0.013136113
0.011434804
-0.018828591
0.040377654
0.034240767
0.019510513
-0.040025413
0.015770841
0.011180353
0.024559343
-0.0037857562
0.015912551
0.011994753
0.02112244
0.031696893
0.015812505
-0.021700924
0.0168525
0.029016772
-0.0010748444
-0.009177208
-0.0016440671
0.04319657
-0.01936867
-0.011651299
0.028498333
0.009635225
0.025857892
-0.013368591
0.0068864953
-0.006922974
0.008228395
-0.00303555
0.009098449
0.026139675
-0.011608038
-0.009854923
0.0067818365
-0.00296858
0.02910901
0.021795722
0.0045648124
-0.015721038
0.027825158
0.00049630716
-8.162025e-05
0.010407262
0.005159986
0.031233113
0.019976752
0.0026015851
0.0046641114
-0.014422911
-0.0135087855
-0.009757227
-0.005738271
-0.011358359
-0.01715912
0.03563217
0.008097394
-0.0033528188
0.04706361
0.0032896614
-0.007830155
-0.006103627
0.02626991
0.03220835
0.007286174
0.013322897
-0.03910786
-0.00017266374
0.0008478106
0.01543542
0.002388417
-0.0024551812
-0.014752312
0.0026675332
0.0032356703
0.023969501
0.03165116
0.008788196
0.014312031
0.0014227438
-0.005252653
0.0058827465
0.0123560745
0.0022047916
0.010314113
-0.011785818
0.0072140256
-0.008074537
0.004723064
-0.009180503
-0.0020993878
0.002852585
-0.0036139619
0.024221487
0.008041555
0.035267536
0.030319212
0.03406119
0.012139055
0.012753062
-0.022771807
0.015827145
0.010705767
-0.006111533
0.011587904
0.0187489
-0.00091971125
-0.002391792
-0.008232743
-0.011619199
0.0052744825
0.017069241
0.027015163
-0.011621414
-0.006200481
0.018333064
-0.012712733
0.004202775
-0.013617579
0.006848568
0.016133582
-0.0039678793
0.00439348
0.019682322
0.01128803
0.018136216
-0.0043389658
0.023573095
0.01891903
0.018124541
0.0046016946
-0.0034821136
0.0237695
0.004203347
0.012580415
-0.0029690315
-0.0031451592
0.0025718126
0.011013268
-0.009221108
-4.312824e-05
-0.0023061435
-0.0030480926
0.023059411
0.006267157
0.016017491
0.012212832
-0.036483906
0.016613446
0.015536777
0.002910534
0.0057059317
0.009409546
-0.012368196
0.032643784
0.022437373
0.0056444188
0.005702114
0.016230032
0.0031635913
0.011412124
-0.0020556026
0.019960213
-0.0086963745
0.0091912495
-0.0054967976
0.005805877
0.008789227
-0.005659088
-0.027023293
0.02041083
0.016302446
0.0025416743
0.022256706
0.0043026414
0.029445935
-0.003367267
0.020919744
-0.017238598
0.03487626
0.011173995
-0.006850163
-0.0184697
0.030156488
0.020527916
0.022517264
0.0273191
0.014379318
0.004542354
0.025324974
-0.019458955
-0.017035907
0.012329615
0.01102645
0.031663343
-0.018085336
-0.007595658
-0.0051186467
0.0077179554
0.015892034
-0.017244745
0.033632793
0.003795265
-0.048190385
0.008948101
-0.013921577
0.037347473
0.037539344
-0.0011526874
0.0060509825
0.012715306
0.014317441
0.014936988
-0.015817482
0.0066137994
0.01045794
