0.16648144
0.34808692
0.07247891
0.12499245
-0.064918295
-0.0426348
-0.63633895
0.1390898
0.028841713
-0.108592354
0.056963053
0.009488368
-0.16016956
-0.02137244
0.00844394
0.027643472
0.0043640374
-0.18002075
0.4912558
0.11660468
-0.15878014
-0.010712537
-0.023832265
0.07115635
-0.09487156
-0.030195743
0.11926403
-0.098704904
0.33488038
-0.09541355
0.086816356
0.13311882
0.39588532
0.1018555
0.03950648
0.394012
0.015605029
-0.046759136
0.17095473
0.17557575
-0.0042892196
0.110647745
-0.18073928
0.15677856
-0.17984048
0.21110281
0.16880414
-0.2144795
-0.056288395
0.2066846
-0.08432098
-0.04244686
-0.06134461
-0.34366027
-0.14336258
0.014249914
0.14814164
-0.1133846
-0.00583588
-0.074564055
0.33623844
0.019456435
-0.03820143
0.11996805
-0.07705515
0.104009196
-0.06624761
-0.17142914
0.04655461
0.15728514
-0.09281252
0.22907338
-0.07261399
-0.07283355
-0.043433145
-0.18371354
-0.08836019
-0.039158996
-0.0015984429
0.31507146
-0.073819235
-0.30535832
0.22541963
0.09943345
-0.105166726
0.056507517
0.13459742
0.06873055
0.024981044
0.024509031
0.07766051
-0.1976346
-0.037997663
0.10551844
-0.10414992
0.097812004
0.01946713
0.025097698
-0.11499343
-0.010236326
-0.15525469
-0.047295935
-0.19915903
-0.18202986
-0.072314724
-0.07340643
-0.036449764
-0.1094823
0.07701914
0.26345703
0.07311044
0.21879774
-0.028641166
0.06186257
-0.07851377
0.000866511
0.042104978
0.2363639
0.06833341
0.24096863
-0.048103847
0.09512127
-0.013099997
0.07298984
0.1320218
-0.17283735
-0.06497793
-0.049730208
-0.47397295
0.08887076
0.11092134
0.008769987
-0.1412985
-0.021918366
0.16974092
0.31986976
0.114673644
0.04896116
0.3427994
0.15610014
0.08080667
0.09255964
-0.026113572
-0.058540992
-0.13730787
-0.046589106
-0.27562875
0.1163114
-0.31621182
0.030562202
-0.10911578
-0.24102801
-0.020469816
0.1183446
0.20832422
-0.07577863
-0.050988015
0.032801967
0.26392075
-0.08290943
0.095356986
0.07413285
0.034147214
0.037228208
0.10959621
0.20642678
0.056970924
0.12411765
0.124985345
-0.4419308
-0.05696248
0.23204748
-0.054881837
-0.027158067
0.12645131
0.07969693
-0.14117295
-0.14009605
0.030517656
0.016387247
-0.0272906
-0.04007282
0.08172408
0.06286453
0.018619176
-0.10875747
0.14813301
-0.02667713
-0.07527134
0.5858823
-0.117402785
-0.010845632
-0.09049457
0.3395815
-0.11034784
-0.08479047
-0.043205936
0.044865463
0.49842647
0.0049742237
-0.16241151
0.07670883
0.024753429
0.18806653
0.44341174
-0.32999688
-0.058600917
0.29038122
-0.054147914
-0.097189225
0.10094457
0.08710561
0.20672096
0.31006232
-0.15121916
-0.12621227
0.25038508
0.12269256
0.048195306
0.08962554
-0.0077245883
0.2604375
-0.0851689
0.16053636
0.085372396
0.047795746
-0.0069786413
-0.114345476
-0.07244928
-0.21915048
0.12691532
0.052878037
-0.10146752
0.026043354
0.14253232
0.48713627
0.0969617
0.1189647
-0.12825294
0.6649995
-0.040831286
0.13630164
-0.1430583
0.08564201
-0.00024254933
0.06747843
-0.058053337
0.37191185
-0.05924713
0.113285445
0.19686913
-0.012613499
-0.0964593
0.09766291
0.19676103
-0.07321309
