-4.942e-42 4.921e-42 4.935e-42 4.917e-42 -4.921e-42 4.907e-42 4.907e-42 -4.92e-42 -4.947e-42 4.914e-42 4.924e-42 4.916e-42 -4.92e-42 4.928e-42 -4.917e-42 -4.934e-42 -4.924e-42 -4.948e-42 4.937e-42 -4.927e-42 -4.934e-42 -4.935e-42 4.914e-42 -4.95e-42 4.948e-42 -4.942e-42 4.931e-42 4.942e-42 -4.942e-42 4.914e-42 4.909e-42 4.941e-42 4.938e-42 4.945e-42 4.907e-42 4.923e-42 4.941e-42 4.907e-42 4.923e-42 4.93e-42 4.921e-42 -4.92e-42 4.93e-42 4.927e-42 4.931e-42 4.942e-42 4.928e-42 4.917e-42 -4.917e-42 4.94e-42 -4.945e-42 -4.91e-42 -4.945e-42 4.906e-42 4.916e-42 4.916e-42 4.926e-42 -4.947e-42 4.942e-42 4.937e-42 -4.921e-42 -4.937e-42 -4.937e-42 4.938e-42 4.942e-42 4.907e-42 4.931e-42 4.952e-42 4.94e-42 -4.923e-42 4.923e-42 4.917e-42 4.924e-42 -4.952e-42 -4.928e-42 4.907e-42 -4.91e-42 4.914e-42 -4.942e-42 4.917e-42 4.95e-42 -4.91e-42 4.942e-42 -4.906e-42 -4.921e-42 4.907e-42 -4.909e-42 -4.933e-42 -4.913e-42 4.921e-42 4.947e-42 -4.906e-42 4.906e-42 4.906e-42 4.927e-42 4.948e-42 4.95e-42 -4.921e-42 -4.951e-42 4.945e-42 4.912e-42 -4.924e-42 4.931e-42 4.93e-42 -4.923e-42 4.945e-42 4.952e-42 -4.93e-42 4.942e-42 4.916e-42 -4.909e-42 4.923e-42 4.937e-42 4.926e-42 4.907e-42 4.907e-42 -4.931e-42 -4.921e-42 -4.916e-42 -4.928e-42 -4.912e-42 -4.927e-42 -4.927e-42 -4.926e-42 -4.906e-42 -4.945e-42 -4.94e-42 4.948e-42 -4.91e-42 4.942e-42 4.931e-42 4.912e-42 4.927e-42 -4.914e-42 -4.938e-42 -4.941e-42 4.952e-42 4.921e-42 4.933e-42 4.93e-42 4.947e-42 4.913e-42 4.938e-42 -4.926e-42 -4.94e-42 -4.952e-42 -4.92e-42 -4.947e-42 4.926e-42 4.913e-42 4.919e-42 -4.945e-42 -4.906e-42 4.928e-42 4.916e-42 -4.909e-42 -4.926e-42 -4.926e-42 -4.906e-42 4.934e-42 4.913e-42 4.927e-42 4.919e-42 -4.916e-42 4.93e-42 4.93e-42 -4.909e-42 4.941e-42 -4.927e-42 -4.928e-42 -4.916e-42 4.942e-42 -4.947e-42 -4.906e-42 4.934e-42 4.942e-42 -4.931e-42 4.926e-42 4.947e-42 4.917e-42 4.937e-42 -4.928e-42 4.931e-42 4.907e-42 4.931e-42 -4.927e-42 4.912e-42 -4.914e-42 4.95e-42 4.909e-42 4.95e-42 4.914e-42 4.919e-42 4.93e-42 -4.942e-42 4.913e-42 4.917e-42 4.938e-42 4.913e-42 4.93e-42 4.945e-42 4.906e-42 4.942e-42 4.917e-42 4.935e-42 -4.913e-42 -4.93e-42 4.944e-42 -4.935e-42 4.933e-42 4.951e-42 -4.951e-42 4.941e-42 4.935e-42 4.934e-42 4.92e-42 -4.951e-42 -4.947e-42 4.927e-42 -4.926e-42 4.907e-42 4.941e-42 -4.93e-42 4.916e-42 4.919e-42 4.926e-42 4.93e-42 -4.909e-42 4.917e-42 4.91e-42 4.91e-42 4.921e-42 4.909e-42 -4.916e-42 4.91e-42 4.945e-42 -4.942e-42 -4.93e-42 4.913e-42 -4.927e-42 4.916e-42 -4.907e-42 4.941e-42 -4.95e-42 -4.941e-42 -4.906e-42 -4.927e-42 -4.952e-42 4.948e-42 4.952e-42 -4.93e-42 4.927e-42 4.923e-42 4.912e-42 -4.907e-42 -4.948e-42
-0.054270823 -0.01907595 -0.0074795773 -0.020151779 0.04610808 -0.02290627 0.03239541 0.043519188 0.017263638 0.0013943232 -0.04324522 -0.0067959256 -0.0048885024 -0.035008237 0.020009119 -0.0068584755 -0.04904028 -0.0258695 -0.013516362 0.009518239 -0.019604582 0.010408359 -0.03536437 -0.009201944 -0.03457067 -0.00011177191 -0.01597167 -0.0076321103 -0.015912721 0.04664338 -0.019918941 -0.0339401 0.007888141 0.0065336847 0.04782438 0.060441867 0.009536857 -0.017108899 -0.018989954 0.0060504423 0.0021223505 -0.04042008 0.005907325 -0.010123565 -0.01908109 0.017516553 -0.0016792639 0.028880456 0.011778885 0.006887065 0.029235978 -0.013292518 -0.011982541 -0.027615415 -0.025383148 0.0045517534 0.06528707 -0.009806157 -0.011741313 0.0044927103 0.03550394 0.043715432 0.014823667 -0.021929448 -0.011805849 0.005826579 0.040851556 -0.054770023 -0.022194955 -0.00274125 -9.7484655e-05 -0.032927655 0.0121663315 -0.047362123 -0.056395985 0.00089244737 -0.02689143 -0.031587943 0.008103148 0.01447265 0.0021123705 -0.017415628 0.014178712 0.014571419 -0.035045378 -0.011188808 0.008187975 0.010442905 -0.049504757 -0.008803177 -0.009821548 -0.026915781 0.013512263 0.024540469 0.0015913215 -0.07413959 0.005179618 0.06689809 0.0060389424 -0.008346121 -0.043162923 -0.0110524995 0.02336105 -0.02072604 -0.0047211414 0.023513254 0.02188028 0.018054053 0.009159334 -0.008559182 0.019024475 -0.03929589 -0.03685152 0.007122033 -0.003219503 0.051024895 -0.008710064 0.040865064 0.00033360726 0.009042338 -0.0105275605 -0.0075624776 0.010753795 0.012836042 0.015872408 0.03880725 0.008396618 -0.0051037413 -0.035842188 0.038166665 -0.0008105433 0.015478509 0.0058730072 -0.022374136 -0.021875722 0.019899875 0.012505873 0.0034931102 -0.039290853 -0.039487336 0.054346677 0.007683446 -0.0017998172 -0.054821834 -0.026163928 -0.035058193 -0.012638188 -0.022414101 -0.026518906 -0.0548279 -0.03607026 -0.014433944 -0.011884774 0.002176899 0.029042546 0.021283178 0.00430855 0.005462316 0.016678076 0.00015154983 -0.011537066 0.015056525 0.007937548 0.055816125 -0.015148066 -0.056662597 -0.006721535 -0.008290739 -0.023439312 -0.011936556 -0.008343856 0.016942153 -0.008445222 0.012764139 0.01157369 0.023238404 0.025447132 -0.01194105 0.014970334 0.024502125 -0.028216915 -0.017517129 0.0132959215 -0.051741943 0.026757788 0.025922768 0.0056872293 -0.014238476 -0.050098296 0.008453982 0.015822893 0.040017962 0.015021624 0.007366724 0.017876646 -0.028677166 -0.009699086 -0.019737137 -0.046751942 -0.0151622975 -0.009864417 -0.016948989 0.010638073 -0.013239558 0.02071767 -0.04359631 -0.0030748516 -0.028263148 -0.013675824 -0.005273259 0.056533888 0.018147735 0.011357691 -0.04732044 0.028458402 0.0072041294 0.01923331 -0.011865145 0.008161813 -0.0011871622 -0.008017856 0.011719843 0.04065211 -0.008290786 0.004774284 0.02200268 -0.0019969777 -0.0142045 0.0067565646 0.004383472 0.016705412 -0.017149935 -0.0047582397 0.0021644344 0.015705947 -0.0037110501 -0.017043725 0.020222345 0.018043432 0.05172732 -0.05139855 0.03278592 -0.039454445 0.0017207566 0.014495382 -0.014612923 0.01668705 -0.024137601 0.0004572797 0.006330911 0.003565156 -0.035512403 -0.019693904 -0.009308564 0.0040061176 0.008576386
-0.01844386 -0.010462862 0.0013138129 -0.0072398935 -0.0029165833 -0.014712516 0.0074319034 -0.0026148346 0.013484223 0.017243484 -0.0016021619 -0.0016247946 0.018314067 -0.014709718 0.0016082911 0.0142456135 0.0016719631 -0.006038541 0.0040041897 -0.009516143 -0.004467525 0.00047162612 -0.0019967197 -0.0010768828 -0.01151276 0.021219315 -0.0026741573 -0.0025448713 0.018372241 0.018708425 0.011328841 0.012544109 0.009764102 0.0066092936 0.003163274 0.009139077 0.0007327957 -0.016029889 0.0067600557 0.0050030435 0.021472003 -0.00317189 -0.010826505 0.0041036103 -0.012062594 -0.020734342 -0.0037436066 -0.02951851 0.0028717308 -0.007863112 -0.0012865076 0.017380686 -0.0014846053 -0.0107741915 -0.0055203973 -0.0007024299 0.003143377 0.005194532 -0.014851371 -0.007948895 0.006766533 0.014790736 -0.0047411425 -0.01760188 0.0071929395 0.014452387 0.010924075 -0.0015162383 0.001247158 -0.013496559 -0.0034879826 0.013375905 -0.018415919 -0.0006711246 0.015611652 -0.002068501 0.002700795 0.006924833 -0.0008401259 -0.010126106 0.00910908 0.015698582 0.016116269 0.01143189 0.016085854 0.012113915 0.013723338 0.0004663718 -0.011238767 0.0002635865 0.0150081385 -0.024000404 -0.028182195 0.016659668 -0.0011309643 0.006686661 -0.0004576035 0.01499852 0.0044489275 -0.0075456398 -0.0121185 0.010379508 0.017339202 -0.004253202 -0.023901017 0.0030650215 -0.003768417 0.0061102323 -0.02143358 -0.005705026 0.0011900512 -5.6703168e-05 -0.0118419165 0.00014881663 0.005841903 0.012337437 0.012581111 0.0010153508 0.0010048 -0.0027052986 0.021584086 0.0162461 0.0015779126 0.005460835 0.008675993 0.0054677934 -0.01276297 0.005645439 0.0031523923 0.0031136728 0.004257895 -0.00854317 0.041986283 0.009391313 0.006211452 -0.025867404 -0.005783191 0.0072689233 0.01381305 -0.0030052103 0.013314834 -0.022715025 0.006255068 0.004718053 6.781646e-05 -0.0065460145 -0.021779694 0.005497088 -0.0075708395 0.0043039247 -0.00021298105 -0.016706211 0.002358054 -0.011458544 -0.015235757 -0.012480131 -0.012145023 -0.0020742815 -0.007743005 0.010071392 -0.0069892188 -0.006795313 0.014865497 -0.0055053234 0.0023861034 0.0062837317 0.00203322 0.010076112 0.0019204328 0.0046456447 0.027905054 0.0046360083 -0.0069145486 0.004128734 -0.0016058397 0.006485419 0.0044852146 0.0077392776 0.019058956 -0.01641248 0.009030958 -0.004781469 -0.0110652875 -0.010311755 -0.013222234 -0.0071355146 -0.014786709 -0.010745578 -0.008218293 -0.0005403858 -0.012843493 -0.0047753365 0.0014409852 -0.021797096 0.017465174 -0.002074773 -0.021911014 0.012677237 -0.0023742265 -0.012249749 -0.008837327 0.00060613564 0.0003120062 -0.006962957 0.00484038 0.010469526 0.00090658595 -0.01097552 0.018821163 0.008445985 0.0048540686 -0.002141109 0.024386918 -0.0058908635 -0.011858456 0.010454325 0.00295686 0.00726817 0.004746114 -0.0057820515 0.00312724 -0.013580857 0.012942347 -0.0005712019 0.004010925 0.010773454 0.008470874 0.008557144 0.0030240046 -0.015739242 0.016003823 -0.007753755 -0.04491622 -0.011099754 -0.015677705 0.007901987 -6.599097e-05 0.0070103006 0.00454915 0.006833135 0.013246132 -0.02137444 -0.0011669976 0.02256033 0.0028751404 0.0103074275 0.004605564 0.006263194 -0.0059907776 0.0024606576 -0.01685158 7.8207435e-05 0.0043483046 -0.012761634 0.010253686 -0.010235657
0.017335812 0.01490018 -0.008459947 0.008058204 0.0057778615 -0.019799402 0.0048451438 -0.0016031862 0.0076632365 -0.017171515 0.017522853 0.026783602 -0.013445302 0.007402596 -0.02937831 -0.002722592 0.009566415 -0.0019452109 -0.013938256 0.016540643 0.0046948264 -0.0014134725 -0.009696294 0.013364606 0.020010035 -0.01171943 -0.0018516984 0.01830929 0.00601721 -0.009639194 -0.005347878 -0.002360317 -0.009794324 0.014642592 0.0028285861 0.008996199 -0.01030572 0.015972547 0.0008418096 0.0094269635 -0.0035367175 -0.0025186024 0.008432357 0.0032207267 0.00494058 0.008045766 0.018792626 0.0083985105 -0.0052561914 -0.001130771 -0.010014389 0.014216159 0.0018072197 0.0016922201 -0.009154577 0.0144380275 0.021369806 0.015550562 -0.021379724 -0.014906228 0.025535375 -0.016085703 0.011705437 -0.005840406 -0.01806349 -0.0031098824 0.003115268 -0.015572992 0.007864636 0.015203149 -0.0017436569 0.0026396592 -0.0047320933 -0.009654081 -0.024036217 0.0073622065 0.0054239132 0.0007806198 0.011648893 -0.0077780914 -0.0019046927 -0.018064143 0.027345492 -0.018438838 -0.0080822585 0.005408837 -0.03048151 0.0017339503 0.0032793053 0.0059744255 -0.017758014 0.002613005 0.009400091 -0.031786416 -0.009943954 0.0035424188 -0.01664929 0.0069580358 -0.006349751 0.008728165 0.0030292573 -0.004340048 -0.005532877 -0.017208206 0.0016157547 -0.007754617 -0.030728046 0.008494196 0.00932925 0.008006652 -0.010551023 0.0068493937 -0.0061542564 0.022527311 -0.029042553 0.00025299907 -0.018077925 -0.0012178362 -0.01519326 -0.0034559285 -0.027436944 -0.03471828 0.009454838 -0.023525644 -0.005645974 0.012498965 0.0014008541 0.00015052105 0.01675129 0.0015997806 0.01232212 0.0035219796 -0.01107672 -0.021136902 -0.007447493 0.027269095 -0.007608692 0.011051731 -0.0075992574 -0.011055046 0.0012935392 0.015580592 0.00035887532 0.02642605 -0.0006319293 -0.002964054 0.014685517 -0.006872982 0.010010818 -0.0019724788 0.0052497997 0.003892347 0.0069653057 -0.008794021 0.03503233 0.0031671121 0.028656464 0.0027607833 0.01342924 -0.02227403 -0.01702326 -0.019130563 -0.008706177 -0.0016073608 -0.0013477384 -0.0145394085 0.0029161433 -0.0035453753 0.009504755 -0.0110361455 0.00026620753 0.016355524 0.005265056 -0.0074435677 -0.04560474 0.007921471 0.0019841082 0.006209873 -0.0044314098 0.0024057764 -0.009940334 -0.0117293615 -0.009390717 0.0079079 0.007824817 -0.0062644654 -0.00447094 0.014113138 -0.0032709702 -0.01589359 -0.018617652 0.005574398 -0.015747264 0.010332584 -0.005608265 -0.02049042 0.020762615 -0.0059498497 -0.014357482 0.004380232 -0.0072124274 -0.008307777 -0.00888128 0.0015370589 -0.012277336 -0.0063190786 -0.04182168 0.01303563 -0.009265937 0.01632727 0.0011195032 0.0014804914 -0.026903147 -0.0052655605 0.0024644022 -0.006346745 0.0024481956 -0.018023994 -0.003117126 0.016206041 0.00351135 0.0142497 -0.009336404 -0.0025667506 -0.021331236 -0.015473178 -0.007233431 -0.0015280052 -0.010463284 0.0032393865 0.0045147086 -0.0018448175 0.0483492 0.007608085 0.0019069395 -0.025554288 0.0075334194 -0.022232655 -0.025741665 0.0049108216 0.0013795518 0.03040286 0.013141764 0.002853723 -0.015810885 -0.006064402 -0.0056134225 0.009497024 -0.010112578 0.020699114 -0.005287489 0.009640091 0.0092028165 0.00092973665 -0.009376067 0.008308446
-0.0008517452 -0.0040918537 0.017302169 0.02052642 0.008918345 -0.023664871 0.020433307 0.02568264 0.029096128 0.0024599682 0.00238379 0.023795879 0.024392486 -0.0062355376 0.010648405 0.03803282 -0.027344855 -0.027870407 0.016295906 0.006141528 0.009930277 -0.0007821945 0.009613867 -0.004459665 -0.020106142 0.024019549 -0.019800521 0.00741055 0.0059041316 -0.0039186743 0.027524196 0.03986997 -0.008003445 -0.008161872 0.021884603 0.012358911 -0.0070983497 -0.009881159 -0.033353746 -0.017166529 0.0026599 -0.0042490885 0.027335716 0.023223268 0.0011243849 -0.0009801501 -0.04812639 0.0038793562 -0.026436025 -0.0031634877 -0.025938677 -0.022973469 -0.013372609 -0.0025654107 0.023925118 -0.028229276 0.00321129 0.012695526 -0.017975548 -0.003470594 -0.005906711 0.016158147 -0.018145394 -0.018110078 0.0017064267 0.02162481 0.022239624 0.018719718 0.003812572 0.010131038 0.010784717 -0.009407371 -0.010334725 0.0040873894 0.017476873 -0.04364765 -0.025804315 -0.012171971 0.0090576485 -0.0073775616 -0.0064730807 0.017488744 0.0054541104 -0.024080854 -0.012122608 -0.00041011433 0.026569795 0.009417353 -0.008696155 0.017058235 0.0059276074 -0.0030962632 0.009982923 0.028423734 0.0003718021 0.023274496 -0.008631423 -0.02590751 -0.030254679 -0.008614817 0.015866911 -0.036378875 -0.0020025817 0.004892533 -0.022249289 -0.03945015 0.0026457186 -0.011731688 -0.003414696 0.003933967 0.0008397123 0.014826944 0.03887683 0.0117097525 0.015653634 0.013973069 0.027414149 -0.010589947 -0.01852054 -0.013730983 -0.0025578565 -0.010701545 0.0070098774 0.03610378 0.010041875 0.017896857 -0.001994199 -0.027802091 -0.033118173 0.022098131 -0.0087510785 -0.021645837 -0.019440887 0.028103493 -0.018096386 -0.0021381578 0.0027149445 0.021059295 -0.0018370312 0.00076187024 0.0018423763 0.01817422 0.03288004 -0.0026488584 -0.0055500926 -0.023702128 0.0038533136 -0.02067288 -0.010451578 -0.01493269 -0.030507915 -0.014697991 0.005734878 -0.01667107 -0.012951527 0.015252799 -0.013670259 -0.023219436 -0.0026097775 0.008494776 0.02242811 0.01758851 0.024767429 0.020822298 0.011986633 -0.006741736 -0.021516038 0.012909293 0.028903453 0.027131889 0.0002766098 -0.016428368 -0.012480221 0.04221645 0.017785907 0.038486313 -0.0015659959 0.005759287 0.018690314 -0.032261048 0.0155855715 0.0021026328 0.0033208337 -0.03368771 -0.021399928 -0.0044803284 -0.034415163 -0.023183862 0.007831774 -0.006002698 -0.03318499 -0.013659231 0.022205578 -0.036945425 0.031762417 0.03219339 0.014946887 -0.00401398 -0.023093853 0.006113184 0.007695235 0.01444405 -0.0064577144 0.007890538 0.0015258155 0.0030138318 0.00395021 -0.00025159746 0.032789066 -0.017113002 -0.01436194 -0.01050302 0.023774909 -0.0037656599 0.0017919294 0.026111064 0.013196393 0.026210092 0.012769759 -0.030059107 -0.0047188397 -0.007845641 0.0039595324 0.007087045 0.027540753 -0.005731322 0.0014706214 0.03647882 -0.01705877 -0.013763962 0.0055355444 0.027021721 -0.012756124 -0.03386901 -0.020301854 0.050676767 0.017316187 0.0025395127 -0.006887881 0.0012749882 0.0030585744 -0.01777064 0.008342481 0.016917897 0.012816648 0.022079492 0.0017277908 -0.016345965 0.019494047 -0.028259572 0.0033121824 0.014338073 0.004023783 0.0019662078 0.041894756 -0.0051548174
0.00069007266 8.697077e-05 0.0005352493 4.926212e-05 -5.308489e-05 0.00021323643 0.00040473155 0.00014355892 0.0007027589 -0.00026309205 0.000847876 0.00013365729 0.00018993534 0.0003411451 0.00010350889 0.00035161892 0.00040059816 1.24764565e-05 0.0012876667 0.00036536614 0.00025771192 0.00063354464 0.00019221599 0.0005685471 0.00014825503 0.00069232326 0.0005014332 -2.7711687e-05 -0.00039952248 -7.126735e-05 0.0006374059 9.111883e-05 2.3792695e-06 0.00028103168 0.0010149601 0.0005397761 0.00015317311 0.00047438534 -1.2215336e-05 0.00081109436 0.00076683215 0.0005046696 0.00011890953 0.00017025485 0.00025373063 0.00022883742 -0.00012243183 -0.0005094816 -0.00037561543 0.000264453 0.00021096005 0.00022340703 0.00036455956 -5.8767295e-05 -0.0003075678 0.00018808342 4.2514093e-06 0.000228485 -5.4373668e-05 0.00014941624 0.00016730373 0.00015764538 3.7955065e-06 5.5601588e-05 -8.6647546e-05 0.00026417576 -0.00023589685 -0.0014802045 0.00024064962 -0.00023397435 -0.00013040469 -8.255948e-06 0.00021947474 0.00014503457 0.00011650329 0.00086261524 0.000519847 -0.00016022388 -0.00023623178 7.2613984e-05 5.17106e-05 0.00031568736 0.0001559949 -0.000365863 0.00023550866 0.0006996965 0.0009079934 0.00046073805 0.00026667494 0.0009220442 0.00028624033 0.0003883993 -2.7917798e-05 0.00026267208 4.98736e-05 0.00021259375 -0.0001362928 9.315054e-06 0.00021789744 0.0006513872 -0.00020474638 -0.00072243356 -2.105829e-05 4.4280056e-05 0.00045883018 -0.0002618034 1.1963105e-05 0.000108017746 -7.1592012e-06 0.0006058688 -3.7502898e-06 0.0006398441 -0.00027262088 0.0005647355 -3.7644582e-05 0.000722045 5.3995504e-05 -1.621209e-05 0.0002680188 0.0005978265 -0.0003308226 -0.00016609461 0.0009530604 6.175715e-05 0.00037947312 5.5512082e-05 0.0002357726 -7.732831e-05 -0.0005271458 0.0005977868 -2.056326e-05 -0.00011888536 -8.246355e-05 0.00089370925 -6.275043e-05 -0.00021235191 0.0006927498 -0.00047113674 3.6226484e-05 2.767845e-05 0.00041680643 7.809503e-06 0.00059663854 0.00025505174 0.00026015757 0.0007065263 0.0001971783 -5.6253546e-05 -0.00062596484 -0.00028824806 0.00077657326 0.00016396401 5.869433e-05 -0.0003253226 0.000121896905 0.00087254494 0.0007025641 0.00048378596 0.0006922321 -0.0001637436 7.860548e-05 -0.00013238976 0.00013306738 0.0005034672 3.1085372e-05 -0.0001616232 -0.00014814886 2.6915397e-05 -0.00021276466 4.358262e-05 0.0007773871 0.00041480048 -0.00017325627 0.00015148635 0.0005832797 0.00026117498 -0.00038338816 -0.00018142156 0.00047769098 -2.8520519e-05 1.6769072e-05 0.00030174345 0.00018434002 -6.5891065e-05 -7.2227675e-05 0.00047532364 0.00013939108 0.0001829488 0.00047707272 -7.793174e-05 0.00029047314 0.0005487997 4.3002838e-05 -4.8860613e-05 6.0821517e-06 -9.07423e-05 -0.0002907179 0.0001872038 0.00020731214 0.00023147302 0.00011474517 0.00030755898 0.00051825534 0.0002455311 -3.4562763e-05 0.00044455982 -5.1921557e-05 0.0009817291 0.000520157 0.000115277624 -0.00011849913 0.00014189856 0.00017065465 0.0006434935 -0.0019618594 -0.0001808113 -5.8571754e-06 -0.00038958658 -0.00029045358 0.00048913626 0.00015143842 -6.378414e-05 0.00013711325 0.00039940173 0.000264528 0.0002956661 5.5629414e-05 0.0001637501 -4.5180235e-07 0.00012667371 5.4482884e-06 0.0003001754 -0.00016903077 8.430198e-05 3.8011316e-05 0.00057720364 0.0007587537 2.9646268e-05 -0.00020932904 0.0003923804 0.0004255281 0.00010980175 0.0002563522 0.0004226652 0.00032239943 0.0002768077 0.0002454605 0.0007651195 0.00031411427 0.0005633499 0.00031972892 -0.00015464055 0.0003458541 0.00031031805 0.00035048375 0.00061886513
0.0047886944 -0.018530166 -0.0077318707 0.008309285 -0.0050833314 -0.0016390866 0.016107427 -0.0038262743 -0.011930245 0.005987749 -0.00022511702 -0.015142378 0.0075690635 -0.0032401327 -0.0058228443 -0.006519495 -0.019285068 0.012067856 0.021034693 0.007451059 0.002699415 0.0020399434 0.008729612 -0.0067087864 -0.012478402 0.018757844 0.015218459 1.274756e-05 0.011916789 0.006300691 0.0038667792 0.004019231 0.00044188835 -0.01027168 0.0062823175 0.013454796 -0.00041494583 0.00015899663 -0.01674127 0.017999262 -0.015229479 0.0031482982 -0.007075886 0.0036353087 -0.0031618425 -0.008271378 -0.015163089 -0.003432838 -0.0040315585 -0.0153874755 -0.012309392 0.013662885 0.0053889146 -0.014781126 -0.009203275 0.00067589513 0.016769592 0.014171777 -0.008777173 0.009261699 -0.0041213487 0.0031430915 -0.00022403139 -0.0052766963 -0.008382329 0.012141042 0.01819866 -0.01727968 -0.01928064 -0.011460775 -0.010307934 0.0071937614 0.009788587 0.00044728798 0.004585077 0.0060847225 0.008000592 0.008038595 -0.009609699 0.0048962845 0.004566143 -0.0010040127 0.0086488025 0.016314786 -0.010301122 0.011170221 0.0075482135 -0.012212722 -9.685931e-05 -0.0026378706 -0.017853845 0.010358612 0.0017878677 0.0013432414 0.010870764 -0.0021192306 0.0062705125 0.014478839 -0.002279154 -0.0053624576 -0.004078326 -0.012132309 0.0071485667 -0.0022731477 -0.025844332 0.0086272955 -0.0051571266 0.0039527053 -0.017423423 -0.005563194 0.00083883404 0.010639826 0.0006358806 -0.009293723 0.0040232376 0.0064472756 -0.020950647 0.0014994845 0.0033393675 -0.016921299 -0.012759573 -0.0015183898 -0.023234822 0.0062773926 0.0066754413 -0.005924359 0.0044378773 0.0035802077 0.02358013 0.011060928 -0.008069631 -0.003377941 0.011912254 0.00041889923 0.0005270836 -0.025696052 0.00093165215 0.0133895185 -0.0056437547 0.010683784 -0.00971689 -0.010042927 0.0024506361 -0.006935282 -0.0058353897 0.00894838 -0.0028649792 0.0022360159 -0.004447135 -0.0036648787 -0.01279027 -0.00339505 -0.0037090087 0.0005327377 0.011430027 -0.0026192844 -0.0059619686 -0.0072096153 -0.012651235 0.0024750414 0.008939318 -0.009686663 -0.012858486 -0.006678109 0.004985432 0.0024025908 -0.0015181364 -0.006781891 -0.006470058 -0.013259387 0.031763542 -0.018180644 -0.0013669676 -0.016257053 -0.015422621 0.013637016 0.014807629 -0.010601627 -0.0033243806 -0.0022593942 0.019063672 0.013545597 -0.000748117 -0.017548516 -0.0064590587 0.00357865 -0.008009743 -0.012882449 -0.0058885533 -0.016513733 0.009994439 -0.0010476349 0.0050044185 0.004062973 0.0069189477 0.0075676925 -0.009877063 -0.0009823211 0.007628621 -0.02157006 0.0030749445 0.00859156 -0.006024078 -0.011336747 -0.027697595 0.0041957484 0.02077281 -0.00013513482 0.022968385 -0.008755189 -0.0061968016 0.009576083 0.012984007 -0.012850351 -0.0065840534 0.013275571 0.004315546 -0.0024803858 -0.0035952237 0.0002071293 -0.010060001 -0.00093212596 0.011551243 -0.0026059921 0.00788602 -0.0040962407 -0.006698571 0.009318825 0.016641235 -0.007353575 0.0048462898 -0.010525334 -0.003351226 -0.0004506576 0.009923643 -0.0074031176 0.023403699 -0.013660853 -0.014758279 0.0026150234 0.012207421 -0.0047892504 -0.004069594 0.009528608 0.0064848755 0.0068971403 0.0070969043 -0.0013389258 -0.010504811 -0.012946557 -0.02401753 -0.0011164099 -0.004294714 -0.003875413 -0.0030455631 -0.015920479
0.07985371 -0.021371853 -0.030037638 0.007205698 0.0068033612 -0.03138929 -0.0008156829 0.005620731 -0.022331046 0.025513107 0.017732233 -0.005210359 0.04137042 -0.018367529 -0.028484542 -0.01129756 0.012659327 0.018407913 0.0011482413 0.013099985 0.02907436 0.00671634 -0.031517223 0.021112029 -0.03595304 -0.019222708 0.0101186335 0.016823106 -0.022102086 0.0042102025 -0.0233177 -0.026208436 0.011026701 -0.0048990003 0.007999847 -0.0043944493 -0.027053514 -0.009382646 -0.023550574 -0.057509612 -0.020998873 -0.013281595 0.0039484575 0.05123534 -0.045338947 -0.011946661 0.0023659617 0.017795205 0.015959645 -0.01858919 0.0096541755 0.011336138 0.0057410398 0.027627714 -0.009231481 0.012618738 0.0011681641 0.016406141 -0.015519106 0.021529468 -0.0848105 -0.03377565 -0.03434208 -0.021680217 -0.031292025 -0.008797943 -0.03836481 0.032553036 -0.04152563 -0.009462034 -0.029338658 0.058785588 -0.001976274 0.02325392 -0.049317203 -0.016869292 -0.03014351 0.021207962 0.020690508 0.008213253 -0.01197495 0.0044885403 0.02777737 0.042239442 -0.00054954365 -0.021807112 0.03231596 -0.019993871 -0.012795317 -0.0013847981 -0.02447149 0.0023256026 -0.008849722 -0.0336474 0.027596986 0.019775826 0.028472831 0.011725534 -0.014398374 0.006390104 0.015648851 -0.018885368 0.008433964 -0.045939576 -0.005010658 -0.0074912086 -0.04799714 0.028549556 0.0044614947 0.0056922603 0.012434286 0.018642273 -0.005409523 -0.004419247 -0.0020872934 0.018112384 -0.017160468 -0.008869447 0.023681413 -0.039011404 -0.038861234 -0.02594769 0.035035726 0.002864345 -0.010999543 0.012803264 0.013822015 -0.0015105205 -0.021726688 0.0046877423 0.039643873 -0.029853918 -0.05074964 -0.038182113 0.002968411 0.004091893 -0.02250219 -0.007418635 -0.008784605 -0.019385546 -0.023656875 0.007322187 0.021291394 0.02201441 -0.0014134906 0.028076738 0.0036752648 0.009915568 0.017050086 -0.027984144 0.024931766 -0.033935636 -0.029878167 0.0033074673 0.004633026 0.0031735387 0.026592633 0.029357035 -0.00667087 -0.05435098 0.029179329 0.025809426 -0.026044894 0.011154831 -0.016683143 0.008261574 0.004654241 0.010732746 -0.0049078497 -0.017864963 -0.023170829 0.014253532 0.008215128 -0.02348947 -0.0043381136 0.016901884 0.006354676 0.02112328 0.021027451 0.015052723 0.006281857 0.011906038 0.0017446439 -0.011652742 0.032922562 -0.0022730262 -0.016040402 -0.03331032 -0.007109785 -0.01236167 0.005769721 0.0037838148 0.0071318466 0.0016550039 0.04521575 0.024340818 0.0016389398 0.01292421 0.008093356 -0.006635964 -0.0011176565 -0.015867895 -0.018433277 -0.009879834 0.01230641 0.030090643 -0.002121537 -0.017657813 -0.0011185756 -0.036159452 -0.03718867 0.010209571 0.00049418263 -0.0018395552 -0.020968102 0.0036875997 -0.001448869 -0.015698163 -0.0038108367 -0.0010861354 -0.012784151 0.017804604 -0.0002752033 0.005061206 -0.02831362 0.028234955 -0.0120259365 0.03997454 -0.03037391 -0.0037398927 0.045893338 -0.023240572 0.051584937 -0.019387893 0.030335326 -0.013169658 0.018322175 -0.022841543 0.015608223 -0.0061865575 -0.007234157 0.0037737938 0.031379677 -0.055975802 -0.031591613 0.0069926493 -0.0086211255 -0.00778536 -0.029520659 -0.0023672602 -0.025371077 -0.0061366786 -0.011611364 0.04350025 -0.038328834 0.026523061
-0.033098444 0.00026153083 0.01918228 -0.0038964255 0.009834506 0.0015703304 -0.014225194 -0.0048315027 0.0011144042 0.0029344535 -0.014078703 -0.021953074 0.0032240897 0.00026887323 0.020443585 0.0033231594 0.001276824 -0.012616229 -0.002922085 -0.009077661 -0.01043543 -0.0009958765 0.0025238737 -0.011896305 -0.005177986 0.012742418 0.014038383 -0.020405684 0.011151138 0.0146888215 0.009710107 -0.0064640343 0.00915482 0.003617961 -0.008875031 0.0041868053 -0.00565237 0.0012667652 0.000342094 0.028447378 0.0045754006 0.00085114164 -0.022243708 -0.013013646 0.018553622 -0.0032379809 -0.008164221 -0.010378285 0.011413973 0.007876929 0.00428099 -0.00019075851 0.0026440616 -0.025596362 0.005371296 -0.017132847 -0.0072239093 -0.017772662 -0.0024867654 -0.0070362585 0.027864508 0.008338753 0.015581441 0.0073290677 0.0015796602 0.0037706904 0.005137227 -0.011282801 0.0022511675 -0.011326499 -0.0019312338 0.0037110252 0.0024330735 -0.0058081592 0.027283339 0.025183396 0.006220227 -0.0072889864 -0.007407427 -0.021636633 -0.007794879 0.021631066 -0.028402463 0.014593803 0.007929594 0.00034897903 0.0126509275 -0.004241675 0.0002831725 0.002621758 0.01704717 -0.0055499 -0.0077278013 0.024275234 -0.0099583445 0.0041417535 0.011089325 0.022026438 0.0065464173 -0.011275921 -0.022929728 0.016127598 -0.0056999833 0.010694191 -0.001006261 0.004180181 0.017941972 -0.014229405 -0.0060004643 -0.00822487 0.0018384461 -0.014908914 -0.011774368 0.0025910789 0.00935235 0.0018365755 0.012165888 -0.0037677935 0.0050093937 0.008068348 0.025799302 0.023092689 0.00902543 0.007970581 0.020121714 -0.02448637 -0.0021208117 -0.0035636062 -0.0033782106 -0.0032938865 -0.019075012 0.016496014 0.026002342 0.018758478 0.0019929837 -0.010222508 0.01793288 -0.011372157 0.007083929 -0.0017871009 -0.008646558 -0.022368044 -0.010633606 -0.014203418 -0.0034868626 0.00084132486 -0.008234459 -0.005151821 0.004030082 0.005990331 -0.0003553646 -0.009563399 -0.0013158725 0.0075968597 -0.004374223 -0.0010639009 -0.023267575 -0.009482719 -0.014501367 0.0016424586 0.004072013 0.0014272601 0.019433964 -0.005447277 0.0074185897 0.0033219825 0.00020625725 0.02022957 -0.0049885656 0.014618611 0.017075349 -0.020173097 -0.0024452503 0.0013969122 0.023080891 -0.010730369 -0.001584179 -0.018782828 0.0029289548 -0.010766751 0.0115568405 0.0021058044 -0.001814318 -0.0153508885 -0.023106366 0.0013049111 0.013951966 -0.012950626 0.015331644 0.00730707 0.008207611 0.0021257133 0.010686485 -0.03425387 -0.002230766 0.0016191826 -0.002666878 0.0044617527 0.009624106 -0.009439373 0.00878925 0.008557169 -0.0013020148 0.0065392633 -8.71261e-05 -0.013116406 0.0076787514 -0.012253736 0.022040544 0.0065658186 0.015099715 0.00529149 0.014378597 -0.001288022 -0.00084620685 -0.0017084461 -0.008198903 0.021358244 0.01496482 0.002769174 -0.010135171 -0.021178123 0.010647959 0.0038757788 0.033579588 -0.010736774 0.0109410435 -0.0040397802 0.0063502644 -0.0007231379 0.004072918 0.0028619645 -0.032753516 -0.023043904 -0.017234705 0.014532828 0.005490802 0.0069969594 -0.0065414123 0.009729939 0.01871184 -0.01865711 -0.010495234 8.6590415e-05 0.0045124576 0.007640115 0.010300719 0.00678124 0.005405456 -0.005948417 0.0014758968 -0.009454745 0.00918237 -0.014973485 0.01142137 -0.016898233
0.010185994 0.01986768 -0.01891794 -0.013458012 -0.0063650147 0.012386507 0.016988052 -0.02361389 -0.006948239 0.006031309 -0.008413122 -0.007697389 0.0033531764 0.008506032 0.012685977 0.016923022 0.013036384 -0.015290369 -0.0314439 -0.00063979405 -0.000909489 0.00076537865 0.0030922291 0.008429803 -0.0076394537 -0.0033298978 0.00024583095 -0.019868515 0.014497108 -0.010275939 -0.02528156 -0.002843194 0.0013103104 0.019213017 0.0005625061 0.01889563 0.0003165081 -0.0038881595 -0.024520487 0.011302797 -0.014564373 -0.0052550915 -0.010819771 -9.4638184e-05 0.009196549 -0.009660636 -0.020128349 0.0069053094 0.0097211255 -0.006332873 -0.009575227 0.005528524 0.006933437 0.008550963 0.00097311975 0.0013385918 -0.0012357348 0.006553499 -0.015292509 -0.004703498 0.014492088 0.0026933881 -0.0049964963 -0.005624957 -0.02366976 -0.020467794 -0.020899225 -0.018900799 -0.0033113898 -0.005681706 -0.013544817 0.0119445855 -0.004033449 0.0091297915 -0.0057575544 0.011433087 -0.024054036 -0.006925536 0.0087774 0.015362474 0.0030115233 0.017750727 0.00371984 0.014037567 -0.003333373 -0.009963285 0.011843269 -0.02980687 -0.021998143 -0.01475253 -0.0149412565 0.0049628895 -0.0035425734 0.00834455 0.014626926 0.020299846 0.003330201 0.01827575 0.006673622 0.0052000303 -0.000501379 0.009092767 0.0025145481 0.01936466 -0.019727858 0.024541277 -0.0098942015 -0.0058826976 -0.0126809245 0.029397309 0.003990485 0.013612874 -0.028221471 0.0051994114 -0.0019992758 0.02365627 -0.0111968955 -0.008473418 0.0034276105 0.0024467297 -0.010760055 0.0062424205 0.00066498434 0.018866107 0.011098727 0.015867634 -0.004398719 0.0002538695 -0.009020074 -0.0037282838 -0.0015356978 -0.008234199 -0.0024624506 0.0022323118 -0.019268613 -0.025210883 0.010999401 -0.004426484 -0.0036750468 0.0027728106 0.0046213716 -0.023947172 -0.00044732878 -0.02667366 -0.007103582 -0.0042801793 0.009110879 -0.015324283 0.02886548 -0.012677211 0.0009983778 0.022706015 -0.00085075205 0.03520422 -0.00037671856 0.02158733 0.012534178 0.022370389 0.013998293 -0.0059268805 0.031071626 0.002602521 -0.0078012357 0.018572524 -0.0034698898 -0.009605736 -0.013790779 -0.0003828739 0.018108668 0.0009919726 -0.013087026 0.020043602 0.00849156 -0.0011492835 0.012755014 0.00028500013 -0.015262695 0.0061847377 0.007909295 -0.004884268 -0.009931322 0.006241076 -0.000832094 0.00969051 0.014972995 0.008970632 0.009084568 0.015283895 0.015604368 -0.011556427 -0.00085414416 -0.005272927 0.009990719 -0.0072418456 0.031350434 0.0100601865 -0.026591595 -0.0010851546 0.0021418126 0.014315826 -0.0073695756 0.00022856922 -0.015547842 0.0069263787 0.0043203314 0.01803456 0.0051532136 0.004273702 -0.0025390307 0.019522097 0.020534452 0.012755341 0.015303289 -0.005554251 -0.01967167 0.011922261 -0.00656217 -0.005638185 -0.0037201196 0.019249208 0.009253537 0.009481936 0.0033853932 -0.014758014 0.0024088703 -0.020261599 -0.021745462 -0.010784436 -0.0073632416 0.010744184 9.274242e-05 0.0050426456 0.00827391 -0.010002511 0.013159887 0.014239901 0.01474504 -0.0011122255 0.00044884923 0.003923075 0.005867292 -0.010441607 0.00425156 -0.044072613 -0.0095251 -0.001009377 -0.025286159 -0.0025407989 0.005098979 0.015193721 -0.0053167674 0.003153684 0.005389787 -0.016576407 -0.0067984415 -0.0034752062
-4.921e-42 4.92e-42 4.921e-42 -4.909e-42 4.926e-42 -4.906e-42 4.958e-42 4.917e-42 -4.941e-42 4.94e-42 4.916e-42 4.907e-42 4.919e-42 4.951e-42 4.947e-42 4.93e-42 -4.951e-42 4.916e-42 -4.95e-42 4.935e-42 4.917e-42 -4.952e-42 -4.931e-42 4.916e-42 4.951e-42 4.906e-42 -4.927e-42 4.934e-42 4.937e-42 4.947e-42 -4.947e-42 4.917e-42 -4.91e-42 4.95e-42 4.913e-42 -4.933e-42 4.942e-42 4.93e-42 4.921e-42 4.906e-42 4.951e-42 4.909e-42 -4.954e-42 -4.951e-42 4.91e-42 5.042e-42 4.959e-42 -4.909e-42 4.938e-42 4.909e-42 5.083e-42 -4.926e-42 4.942e-42 4.913e-42 -4.92e-42 4.947e-42 4.917e-42 -4.923e-42 -4.91e-42 4.921e-42 4.937e-42 -4.916e-42 4.94e-42 -4.913e-42 -5.537e-42 -4.933e-42 -4.914e-42 4.937e-42 4.945e-42 4.947e-42 4.948e-42 4.94e-42 -4.928e-42 4.944e-42 4.912e-42 4.935e-42 -4.912e-42 4.937e-42 -4.931e-42 4.941e-42 4.928e-42 4.907e-42 4.921e-42 4.912e-42 4.92e-42 4.941e-42 4.907e-42 4.944e-42 -4.933e-42 4.914e-42 4.94e-42 -4.931e-42 4.955e-42 4.913e-42 4.945e-42 4.952e-42 4.933e-42 -4.955e-42 -4.933e-42 -4.948e-42 4.912e-42 -4.906e-42 -4.963e-42 -4.917e-42 -4.914e-42 4.907e-42 -4.941e-42 4.951e-42 -4.94e-42 4.913e-42 4.907e-42 4.912e-42 4.945e-42 -5.03e-42 4.944e-42 -4.931e-42 -4.92e-42 -4.927e-42 4.95e-42 4.955e-42 4.94e-42 -4.926e-42 -4.933e-42 4.941e-42 4.916e-42 -4.909e-42 -4.924e-42 -4.931e-42 4.92e-42 4.907e-42 4.94e-42 4.948e-42 4.94e-42 4.942e-42 -5.724e-42 -4.935e-42 4.92e-42 4.945e-42 4.954e-42 4.931e-42 4.926e-42 4.937e-42 -4.926e-42 4.926e-42 4.916e-42 4.945e-42 -4.921e-42 4.919e-42 -4.926e-42 4.945e-42 -4.956e-42 4.934e-42 4.934e-42 4.913e-42 4.941e-42 -4.93e-42 4.907e-42 4.927e-42 4.937e-42 -4.94e-42 4.955e-42 -6.208e-42 4.933e-42 4.944e-42 4.909e-42 4.945e-42 -4.913e-42 4.942e-42 -4.92e-42 -4.933e-42 4.947e-42 -4.933e-42 -4.934e-42 -4.927e-42 4.934e-42 -4.917e-42 4.907e-42 4.924e-42 -4.928e-42 -4.913e-42 4.928e-42 4.909e-42 -4.945e-42 -4.914e-42 -4.913e-42 4.912e-42 -4.94e-42 4.955e-42 -4.931e-42 4.934e-42 -4.923e-42 4.954e-42 -5.154e-42 4.954e-42 -5.769e-42 4.938e-42 4.935e-42 4.942e-42 4.917e-42 -4.926e-42 -4.921e-42 -4.909e-42 4.95e-42 4.94e-42 4.907e-42 4.947e-42 -4.948e-42 4.931e-42 -4.944e-42 -4.93e-42 4.92e-42 -4.952e-42 4.94e-42 -4.919e-42 4.958e-42 -5.74e-42 -4.917e-42 4.951e-42 -4.906e-42 -5.083e-42 -4.942e-42 4.913e-42 -4.916e-42 4.912e-42 4.937e-42 -4.927e-42 4.931e-42 -4.947e-42 -4.928e-42 4.937e-42 4.916e-42 -5.008e-42 -4.937e-42 -4.924e-42 -4.951e-42 4.921e-42 -4.914e-42 4.914e-42 4.944e-42 4.927e-42 4.921e-42 4.917e-42 4.914e-42 -4.916e-42 -4.926e-42 -4.927e-42 4.954e-42 4.954e-42 -4.955e-42 4.934e-42 4.95e-42 4.941e-42 4.95e-42 4.923e-42 4.916e-42 4.95e-42
0.0031951992 0.0075774817 0.00043157674 -0.009118181 0.007148306 0.0039549107 0.0064524086 -0.01423146 -0.005526849 0.004528446 -0.00759733 -0.019015891 0.004218382 0.0012955065 0.013123464 0.006156415 -0.0008528716 0.0014805506 -0.016171487 0.0007127902 0.00022433915 -0.0029042365 0.006089965 0.006294441 -0.0072416165 0.005692061 0.010812512 -0.02019859 0.0066548316 -0.008656697 0.007437169 0.0018602068 0.017124856 0.011970127 0.0037931607 0.007481434 -0.004762771 -0.005607284 -0.0076374495 0.009236934 -0.00088204164 -0.005971925 -0.0027965934 0.009237152 0.0029824127 -0.0074150255 -0.020665009 -0.00012417475 0.008486925 -0.007622749 0.008723669 0.0037995945 0.001638704 0.01315643 -0.0006049921 -0.008885555 -0.011142687 -0.00302568 -0.016234078 -0.0008123455 -0.021771545 0.006431751 0.006310131 -0.00750166 -0.0025254013 -0.011323656 0.005270972 -0.014942646 -0.0061503886 -0.003450122 -0.0038507746 0.016178234 -0.0058326456 0.007951427 0.008017219 0.0015472898 -0.01107499 -0.005729796 0.017625267 -0.009894188 0.010875327 0.020780774 -0.008438365 0.015743703 0.00863866 -0.0024849025 0.014163575 -0.011681034 -0.024174795 0.002725518 -0.0016117499 -0.0033904747 -0.005503603 0.017706571 0.005876255 0.008897562 -0.003995187 0.017607152 0.010740648 0.006866633 -0.015368752 0.008502859 0.00665681 0.0097845 -0.031512506 0.011509696 0.0024778447 -0.0070872596 -0.011175947 0.013347153 -0.003677149 -0.0025092247 -0.0155524835 0.0025273964 0.0030948343 0.00279619 0.0027138558 -0.007674443 0.006102962 -0.0040960126 -0.005355951 0.008930468 0.008689025 0.008449055 0.002657028 0.001730109 -0.005816588 -0.0021246572 -0.0025995662 -0.005018576 -0.0010062834 -0.007978314 0.0016797151 0.008112423 -0.007925708 -0.011815705 0.005792011 -0.0068447543 0.00393506 -0.0042692362 -0.003357388 -0.016505785 0.011410857 -0.016130744 -0.009393585 0.011629096 -0.009325377 -0.014856575 -0.0051077767 0.003006028 0.012762609 -0.0027922045 0.0006852647 0.01589457 -0.016282892 0.000624079 -0.0005310271 0.0060108216 0.0014220431 -0.0021454012 0.016527839 0.008759521 0.00034519675 0.010909495 0.006556462 -0.012218835 0.00796995 -0.0022859082 0.0037887734 0.005797927 0.00302342 0.009651579 0.007139285 0.008298873 0.01110259 0.0049760747 -0.010684022 -0.006038092 -0.003342223 -0.016440803 -0.006561812 0.005976481 0.006387219 0.012853399 0.006406692 0.0037489752 0.003557693 0.0012692603 0.004389159 0.0023979507 0.0019762528 -0.006106206 0.009475078 -0.006125571 0.010256346 0.013623928 -0.021939894 -0.008417559 0.0035109662 0.010899341 -0.010962608 0.0064720833 -0.0154847605 -0.0012848844 0.013935528 0.0132215675 -0.0010971033 -0.0007101979 0.016902486 -0.0058937203 0.014425911 0.0045132814 0.024584033 0.0037693644 -0.009101151 0.0017478587 -0.0059537203 -0.0026505692 0.00415909 -0.006466388 -0.002955992 -0.0065761744 0.009431475 -0.010996082 0.0024441052 -0.0048413277 -0.016396735 -0.008245559 -0.0019948655 -0.0012741572 0.0033723558 0.0026695405 -0.005680215 -0.0022130238 0.0043895463 0.011285189 0.0060208277 0.006536984 -0.0017378345 0.0031266126 0.0057072374 -0.00907381 -0.0060699265 -0.015299194 -0.0031096372 -0.0066764993 -0.015578573 -0.016261676 0.011895734 -0.007896352 0.0023304087 -0.00013990447 -0.000925002 -0.0046715476 -0.005330106 0.0038443054
4.907e-42 4.916e-42 -4.941e-42 -4.948e-42 -4.95e-42 -4.937e-42 4.931e-42 -4.952e-42 -4.923e-42 -4.947e-42 -4.931e-42 -4.913e-42 4.923e-42 4.909e-42 -4.914e-42 4.916e-42 4.948e-42 -4.916e-42 -4.944e-42 4.93e-42 -4.947e-42 -4.91e-42 4.938e-42 -4.934e-42 -4.952e-42 4.921e-42 5.562e-42 4.91e-42 4.933e-42 -4.938e-42 4.934e-42 4.913e-42 -4.951e-42 4.91e-42 4.912e-42 4.942e-42 4.907e-42 -4.938e-42 -4.937e-42 4.94e-42 -4.912e-42 4.935e-42 -4.952e-42 4.914e-42 -4.938e-42 -4.937e-42 4.919e-42 -4.95e-42 4.937e-42 -4.933e-42 4.92e-42 4.952e-42 4.906e-42 4.913e-42 -4.924e-42 4.906e-42 -4.924e-42 4.94e-42 -4.935e-42 4.935e-42 -4.924e-42 -4.93e-42 -4.934e-42 -4.93e-42 -4.944e-42 4.942e-42 4.926e-42 4.91e-42 -4.95e-42 4.938e-42 4.938e-42 4.94e-42 -4.909e-42 -4.941e-42 -4.952e-42 -4.923e-42 4.95e-42 4.933e-42 4.909e-42 4.951e-42 -4.942e-42 4.927e-42 4.941e-42 -4.942e-42 4.933e-42 -4.931e-42 4.91e-42 -4.91e-42 -4.937e-42 4.917e-42 4.947e-42 -4.938e-42 4.906e-42 4.923e-42 -4.934e-42 4.928e-42 4.924e-42 4.924e-42 -4.95e-42 4.95e-42 4.947e-42 4.951e-42 4.926e-42 4.942e-42 4.951e-42 4.923e-42 -4.95e-42 -4.94e-42 -4.924e-42 4.909e-42 -4.934e-42 -4.924e-42 4.937e-42 4.917e-42 4.94e-42 -4.92e-42 4.933e-42 -4.923e-42 -4.937e-42 4.941e-42 -4.92e-42 -4.921e-42 4.916e-42 4.951e-42 -4.912e-42 -4.95e-42 -4.934e-42 4.941e-42 4.921e-42 4.924e-42 -4.952e-42 4.952e-42 4.934e-42 -4.937e-42 -4.941e-42 4.95e-42 -4.907e-42 4.906e-42 4.914e-42 -4.92e-42 4.938e-42 4.917e-42 4.93e-42 -4.92e-42 4.906e-42 -4.937e-42 -4.919e-42 -4.907e-42 -4.924e-42 -4.928e-42 -4.913e-42 4.926e-42 4.941e-42 4.91e-42 4.938e-42 -4.942e-42 4.914e-42 4.952e-42 -4.948e-42 4.937e-42 4.924e-42 4.941e-42 4.945e-42 -4.913e-42 4.945e-42 4.926e-42 -4.907e-42 -4.926e-42 -4.917e-42 -4.954e-42 -4.909e-42 4.94e-42 4.934e-42 -4.95e-42 -4.937e-42 -4.934e-42 -4.919e-42 4.952e-42 -4.95e-42 -4.935e-42 4.912e-42 -4.941e-42 4.95e-42 4.952e-42 4.91e-42 -4.907e-42 -4.952e-42 -4.948e-42 -4.944e-42 4.914e-42 4.928e-42 4.947e-42 -4.951e-42 4.91e-42 4.937e-42 4.916e-42 -4.938e-42 4.945e-42 -4.917e-42 -4.923e-42 4.912e-42 4.934e-42 -4.948e-42 5.29e-42 4.944e-42 -4.924e-42 4.934e-42 -4.948e-42 -4.93e-42 4.933e-42 4.919e-42 4.916e-42 4.921e-42 -4.947e-42 -4.914e-42 4.93e-42 -4.941e-42 4.944e-42 -4.95e-42 -4.917e-42 4.926e-42 4.938e-42 -4.933e-42 4.934e-42 -4.924e-42 5.745e-42 4.924e-42 4.941e-42 4.906e-42 4.916e-42 -4.91e-42 -4.91e-42 4.941e-42 -4.913e-42 5.249e-42 -4.91e-42 -4.912e-42 -4.928e-42 -4.95e-42 -4.948e-42 4.945e-42 4.94e-42 4.907e-42 -4.95e-42 4.907e-42 -4.947e-42 -4.95e-42 4.92e-42 -4.923e-42 4.917e-42 4.942e-42 4.919e-42 -4.923e-42 -4.944e-42 4.93e-42 4.933e-42
0.02183108 -0.019922316 0.041608248 0.054344695 -0.014929872 0.03471384 -0.011482066 -0.010294169 -0.021737583 0.031359103 0.014372648 -0.044552594 0.021955032 0.023870623 -0.04136597 -0.024867583 0.05162975 0.039921936 -0.012681461 0.021488728 -0.0028333166 0.0069499123 0.03209308 0.027505038 0.047866087 0.032310955 0.046868574 -0.029285664 0.028789792 0.0027985822 0.041968726 0.024289776 -0.0024296232 -0.0045689326 0.07532571 0.044609863 -0.009348601 0.010819466 0.023685528 0.013514216 0.069078684 0.03575659 -0.025537042 0.034226596 -0.0013215515 -0.0062001417 -0.003599001 -0.0031578832 -0.014190903 -0.008634446 -0.01819227 0.017094858 -0.03430289 0.0027983766 0.021686153 0.0400331 0.021758728 0.020047931 0.017343214 -0.012057845 0.026088186 0.016889226 -0.0057550753 0.03475426 0.030176597 0.023105789 0.04796344 0.010739696 0.018557947 -0.010698315 0.012246024 0.036791086 0.02467966 -0.022435628 0.014899617 0.03246546 0.01719342 -0.0031694756 0.013273937 -0.016894758 0.05020037 -0.025252555 -0.0096709225 -0.0055238735 0.037990287 0.00061688945 -0.03518581 0.019426934 -0.0025611597 0.0466767 0.00068273867 -0.027291568 -0.013849049 0.024402848 0.05865208 0.028645767 -0.021407949 -0.0033717426 0.051329557 0.034142204 0.037342083 -0.026266735 0.017632823 0.031030294 -0.0066623604 -0.040938523 0.046337508 0.0076970253 0.044090707 0.026902296 0.024874905 -0.03966797 0.020664018 0.00037279233 0.0063221604 0.07607235 0.04772431 -0.03507295 0.030306268 -0.013044527 -0.011778147 -0.039186575 -0.00050347537 0.015543477 0.04184996 0.053197317 0.012192084 0.0030982129 0.004118545 0.048837073 -0.010940071 0.029760307 -0.006655003 0.045506187 0.0021097525 -0.018822832 0.022209803 0.0064427345 2.2868757e-05 -0.0222217 0.029041598 -0.0485526 -0.011627606 0.05122295 0.004198806 0.035772607 -0.011427698 0.019703621 0.011659095 -0.024893666 0.016562544 -0.00624736 0.009247905 0.010897359 -0.01773992 0.0025276856 -0.03874945 0.040221147 0.083621174 0.030774923 0.02502323 0.024356283 -0.04203972 0.05064444 0.03906308 -0.0012957039 0.024418987 0.016649082 -0.026237946 -0.0151946 0.055582337 -0.008167746 0.04057238 0.047524832 0.015721414 0.041393276 -0.053699598 -0.032286618 0.01786693 0.00033537237 0.032968286 -0.015310522 -0.008549914 -0.014543641 -0.016037686 -0.040320784 0.04856755 0.03533799 0.018993814 0.0068287505 0.021949595 0.055696957 -0.001910999 0.0042437185 0.055477083 0.02863519 0.032418557 -0.030111024 0.05571547 -0.010045108 -0.016722467 0.00036713234 0.007875152 0.033630624 0.048841655 -0.018203458 0.04249963 0.06719098 -0.0061428356 -0.023835707 0.030988172 -0.02507209 -0.012593436 0.052215062 -0.019357214 0.026902057 0.03276519 -0.016262313 0.03414138 0.011402382 0.0043552932 -0.011929821 -0.0045305477 0.0026518542 -0.00045969736 0.046418093 0.054353524 0.019931018 0.0059766932 0.03996264 0.008533439 0.03582059 -0.014612714 0.036873464 0.053256683 0.028126033 0.0401092 0.020343332 0.0021363487 -0.0078116665 0.00033357876 -0.002736552 0.05194603 0.006773081 -0.031215565 -0.026579043 0.03342806 0.06337126 0.04696709 -0.019030858 0.008970335 0.020889817 0.067964524 0.018952284 0.026312895 0.035037667
0.027994202 0.011662907 -0.049123768 0.020667944 0.009644928 0.0014325634 -0.008059536 -0.012178924 0.0359103 0.0031276871 -0.012517072 0.007824755 0.0008311798 -0.00029570173 -0.025657099 0.035044074 -0.0071050455 0.0018363157 -0.010256356 0.0105888555 0.0036935552 0.006676524 -0.02486934 0.013814188 0.031299613 -0.0051304484 0.002413906 -0.008083159 -0.0066565285 -0.013356078 -0.00959943 0.013411877 0.023104142 0.008521107 -0.013392434 0.01005148 -0.008346028 -0.008421631 -0.0009440941 0.009141463 0.035239547 -0.014513397 -0.017338945 -0.0014186299 0.006171649 -0.01048261 4.5675693e-05 -0.010454512 0.011140996 -0.029651942 0.0039730608 -0.0005861482 -0.016443124 0.00088760327 -0.002813198 -0.019884832 -0.0023145715 -0.0034032117 -0.0028308353 0.030231876 -0.032892257 -0.013423526 -0.02132609 0.0017615277 0.007907393 0.018053275 -0.011097322 0.0066834036 0.014138103 0.022719767 -0.011324381 0.021532424 -0.014522054 0.015164964 -0.010586488 -0.017645659 0.0009709589 0.04609196 0.00418331 -0.00040543106 -0.0018501161 0.01018124 -0.023068337 0.024589341 -0.020951912 0.03118925 0.021395756 0.012402096 -0.005005962 -0.0038117156 -0.0065687844 -0.015103775 -0.00888185 0.013278092 0.018430652 -0.0017902933 0.03453306 0.028894488 -0.009329235 0.012538704 -0.005423157 0.004036734 -0.01497191 0.025505833 0.0060799923 -0.033036478 0.0070326948 0.003991006 -0.0038755017 -0.007972732 -0.0057428973 0.0011661921 -0.0135820145 0.0008648108 0.00063123624 0.029840747 0.02517578 0.0009146637 0.029339213 -0.014525049 -0.01204015 -0.013950316 0.031961687 0.039071705 0.0034317672 0.0074978373 -0.0140600195 0.009793367 -0.016902601 0.008144142 -0.01758494 -0.008970621 -0.019062456 -0.008508568 -0.041667648 0.014131826 -0.0019230718 0.0076861046 0.014440945 0.0020792193 -0.015847532 0.0015846415 0.010311089 -0.007128314 0.011945747 0.007419724 0.00041514967 0.0041287635 -0.008704641 -0.021532374 0.021678284 -0.030440852 -0.0907063 -0.004097828 -0.016059777 0.012262144 -0.032156367 -0.017887786 0.019763822 -0.019647503 0.0029968955 0.00499868 0.01392929 0.025801083 -0.006781344 -0.0038993724 -0.0372223 -0.023005612 -0.021535996 -0.008993151 0.003862553 0.0033578195 0.015187963 0.034767266 0.03292684 -0.014535381 0.026947824 -0.004866573 0.015236939 -0.03278306 -0.026380494 0.004341675 0.0007301347 0.002720131 0.010524804 0.0041420525 -0.006276834 0.00959869 -0.0010133251 -0.012156556 -0.009668614 0.0116420165 0.0064985873 -0.03643739 0.01321503 0.022012243 -0.04149843 0.02357588 -0.009099666 0.025856635 -0.0040098545 0.014466999 0.015389818 -0.023549523 0.023157056 -0.026065586 -0.010353146 0.00936416 0.023006035 0.0120299375 0.01795546 0.018421711 -0.009567647 -0.0032883934 -0.014250898 -0.024955219 0.02083346 -0.010666383 -0.012889042 -0.018448751 9.9109784e-05 -0.022506362 0.007923232 -0.016245209 0.036650687 -0.010839885 0.025150482 0.027501468 0.02504623 0.007186707 0.016690042 0.0039865547 0.030074853 -0.01085317 -0.01817935 0.016844846 -0.016334806 0.0070590675 -0.0023915896 0.013755298 0.007394985 0.010565711 0.01297136 -0.029535567 0.0012034044 0.014700805 -0.037107464 -0.0041058795 0.0028596665 -0.026401665 0.0022393137 0.019832538 0.010407032 -0.005674282 -0.0021021082 0.0044271024
-0.00281965 0.005472685 -0.00915333 0.004567858 0.011925913 -0.003872464 0.011641645 0.016607203 0.046750072 -0.015649358 -0.00857361 0.018788999 0.01464865 -0.0061509665 0.017491035 0.00069825456 0.02075453 0.018977506 0.005816342 -0.01583371 0.02128826 0.007874724 0.038295865 0.007899524 0.005628827 0.01685012 -0.01935922 -0.004858646 -0.0013303376 -0.01378572 0.007208867 0.012352951 -0.00992689 -0.00709321 0.01937396 0.023000265 0.0017811449 -0.0046934937 -0.0060649244 -0.028284429 0.019481795 -0.011420259 0.009091089 -0.0011382306 0.028764626 -0.008544712 -0.03334854 0.02847784 -0.04768798 0.01323314 0.0069746915 0.0032361075 -0.010598408 -0.02253519 -0.004385973 -0.01398606 0.001466908 -0.020373216 -0.007926858 0.018639794 0.039421793 -0.012672789 -0.027824305 -0.008102749 -0.007984597 -0.022273676 0.0045184675 -0.007386465 0.018035186 0.0010784256 0.016580453 -0.058233596 0.02647167 -0.01842733 0.003543364 0.01633002 -0.0013514097 -0.007923024 -0.0070504667 0.008003207 -0.010821507 -0.032577958 0.0035055187 -0.025276056 -0.0029844367 0.021803815 -0.03286098 0.033272125 0.016104762 -0.01911382 0.019314906 -0.02892133 0.026552504 -0.0078109964 -0.01988215 0.026264137 0.00699408 -0.040074304 0.032083955 0.007879192 0.007105057 0.014414744 -0.0038336131 0.005011006 0.015125191 0.0038384162 0.028670233 -0.005966038 0.0003358372 0.026341204 0.025314333 -0.003950816 0.016770175 -0.010284697 0.04647599 0.018181192 0.0071101175 -0.0026462348 -0.013670363 -0.012463212 0.021508567 -0.008618409 -0.0031720225 -0.004403518 0.0072315694 0.018645296 0.005238278 -0.019947812 -0.013548205 0.0059561823 -0.014694883 0.003924527 0.023036823 0.017871054 -0.008115091 0.016955797 0.013625212 0.016332306 -0.015992295 0.009717621 0.012683772 0.015438715 -0.0030957072 0.0011459271 0.0023291004 -0.0015880882 0.017851632 0.018101163 -0.003985339 0.00960306 -0.029103072 0.012154127 0.026463699 -0.010601224 -0.017350836 0.009433704 0.0065397425 -0.009379944 0.019107848 0.029304942 0.012230318 -0.0061655003 0.027551128 0.022013688 -0.009525641 -0.028353263 -0.012087212 0.0059266672 -0.0035594006 0.03700129 -0.036061067 0.021805448 0.004901558 0.030978989 0.0469877 0.0095079895 0.0062899664 0.0025985613 0.0036677476 -0.0017705862 -0.026707528 -0.02285816 0.0007564206 0.0039995075 -0.0019487448 -0.007141591 0.0017436106 0.02026884 0.0074480297 0.0027514303 0.023471504 -0.017955732 0.0017458105 0.00583273 0.018491084 0.005248492 0.015932765 0.009291094 -0.028041365 0.010235283 0.0076140785 -0.02187143 -0.001798184 -0.006990291 -0.0034541087 0.01549255 -0.028266411 -0.0015369459 -0.011358442 0.025984498 0.016493019 -0.0025145144 0.008978316 0.006028625 -0.021473637 0.036521684 0.0042118 -0.010286302 0.009267979 0.0056726644 0.016240392 -0.0043374836 0.030782426 -0.0060742204 -0.014481471 0.0071492908 -0.010108339 0.020968372 -0.016105881 -0.0036246453 0.018498765 -0.007506864 0.033350732 0.015956273 -0.0063845776 0.03169518 -0.018130144 -0.01993345 -0.00067093124 -0.0023400052 0.0049615502 -0.0076694447 -0.005844355 0.022344962 0.028055565 -0.012209086 0.004731521 0.0039253756 0.04569118 0.0059449133 -0.001330076 0.04239305 0.0055497005 -0.00027601398 0.009293413 0.010352257
-0.020760046 0.0035082307 0.04692521 0.017006706 -0.012206999 -0.0011864022 0.006843335 0.018961376 -0.014770035 0.015066247 0.009563944 -0.030699663 0.058948528 -0.0036076254 0.01286688 0.015404927 0.021854797 0.0048575136 0.026798474 -0.0006003965 -0.002538659 -0.00376794 -0.053330984 0.005960387 -0.03378103 0.019201536 0.002544687 -0.0015255157 0.021312969 0.035671294 0.031311072 -0.022811502 0.0053678863 0.010511845 -0.00428167 -0.002664998 0.017570771 0.0170077 0.0013187898 0.046351496 -0.005043119 -0.006565397 -0.010256987 0.023445914 -0.021045627 -0.03528827 -0.0022093072 0.00920986 -0.01620343 0.014383313 -0.033546936 0.011164851 0.023883475 -0.024087751 -0.003929054 0.017685004 -0.009657556 -0.002859166 0.010715345 -0.019601736 0.03161138 -0.003196678 -0.0053306506 -0.0064487224 0.005310639 -0.0016482034 0.00146462 -0.039699554 -0.027388914 -0.012323208 -0.0055615236 -0.06374885 -0.011812372 -0.049257696 0.024562007 -0.020089874 0.008611475 0.0036166885 -0.0040118443 0.002541277 -0.0046604862 0.020534383 -0.024347482 0.008281337 -0.04855985 -0.022302091 -0.02746104 0.018611284 -0.027501948 0.018489325 -0.001668257 0.05150072 0.03050516 -0.02831492 -0.016920947 0.017752476 0.0041741733 0.037880547 0.032071497 -0.030120378 -0.008058368 -0.011826463 0.004324704 -0.016119575 -0.017684326 -0.012098843 0.03277082 -0.016293189 -0.033634998 -0.019886306 -0.025214916 0.018125618 -0.0018105112 -0.020422064 -0.034999646 0.008703576 0.017210154 0.006854804 0.03149182 0.011593829 0.0004633394 -0.024773132 -0.005682371 0.018271912 0.000107135784 -0.020537663 0.0173572 0.0026911504 0.020236049 0.007900414 -0.027509086 -0.010967006 0.02374628 0.010747356 -5.9006965e-05 0.006086473 0.008556454 0.01779515 -0.008544769 -0.027243294 0.009797574 0.021333443 0.018809965 -0.039230846 0.0044561783 -0.021777052 -0.012568077 -0.018355021 0.0007759553 0.015450044 -0.031178249 -0.009915618 0.036874227 0.027126374 -0.040327597 -0.023480525 -0.021142604 -0.03513119 -0.02055278 0.016398558 0.025911773 -0.00955449 0.015033624 -0.035142094 -0.022340022 0.016519325 0.0062361183 0.021324262 0.007413102 -0.0048863017 0.03026589 0.017531652 0.0087094745 -0.005316333 -0.019578759 0.0043583284 -0.0075086406 -0.0061669634 0.023091197 -0.038321514 0.031013615 -0.008196583 0.038362615 -0.042129826 -0.058138642 -0.0156526 -0.008663753 0.0023112558 -0.009979406 -0.03244242 0.04147133 0.006675279 -0.0142665515 -0.02883077 -0.021267414 -0.03359059 -0.00124086 -0.015596542 0.014343057 -0.04543995 0.015500979 -0.021323783 -0.01562524 0.013634605 0.00090263475 -0.024751026 0.020620089 0.02913019 -0.017873418 -0.0014466975 -0.006034141 -0.022646327 0.026518874 0.00413103 0.031197816 0.020923011 -0.014907098 0.01868971 0.0066192895 0.0032974996 -0.01722804 -0.0116620865 0.052533556 0.01757396 0.009328858 0.016825238 -0.005940931 -0.029422395 -0.028217163 -0.0013136761 0.013281764 -0.021424428 -0.0058550355 -0.046547927 -0.024077674 0.019756809 -0.00046144836 0.0043101455 0.025332494 -0.013407479 0.032656997 -0.023337401 -0.033055905 0.0065655685 0.030723533 0.03507856 0.04843095 -0.010080903 0.02289014 0.04194636 -0.0018451557 0.016241012 -0.0019290771 -0.006439162 -0.008128387 -0.04846144
0.0040373467 0.0024184792 -8.918768e-05 -0.0012256753 0.009161904 0.00091559504 0.000557462 -0.00016737833 0.000510842 0.0021093076 -0.0022492844 0.00013328486 -5.9669943e-05 0.0021892188 0.009571341 0.00014686344 0.00019007197 0.00789631 -0.0021951005 9.006463e-05 -0.0024767665 0.0014868176 0.0040548095 0.0046629957 -0.00071037124 0.008924134 -0.0010077053 8.341015e-05 0.0005206461 -0.0005521254 0.0069915196 0.000946102 0.007209192 -0.0039132987 0.00044400676 -0.0014337039 7.4305062e-06 -0.00017108861 0.0042941235 -0.0005448624 0.002687838 -0.00015844402 -0.00020975879 -7.835292e-05 0.0057103527 2.6268349e-06 -0.0015033279 -1.5174439e-06 -0.0022983537 9.917382e-06 0.011354997 -0.0014663119 -0.0017203634 0.0010676201 0.0017107929 0.0002949751 -0.0071417047 -0.0006532261 8.982373e-06 0.009242782 0.00074016536 0.0023257483 -4.0242354e-05 0.009282051 0.00022597866 -0.00413345 -0.002005421 0.0024916157 0.002447458 0.000696078 -0.0012391597 -0.0002498647 9.28836e-09 0.005542553 2.9556271e-05 6.304706e-05 -4.4721533e-06 0.004264086 0.007834887 0.00051075075 0.001592969 0.0013163631 -0.005089305 -0.001459052 -0.006384924 0.00022913606 -0.000578175 0.00082804554 9.242684e-05 0.0068710563 0.008362485 5.468988e-05 -0.0003402624 0.0041114544 0.0009132126 -0.002036766 0.0013479271 0.00023662014 0.0037763463 0.0019811788 0.0011493465 -0.0038948096 6.817132e-05 0.00038776355 4.935e-42 0.0012226637 -2.2494837e-06 -0.0039034763 1.348841e-07 0.0047287233 -0.00076457555 -0.004018432 0.0032166406 -0.00045024362 0.006706832 -0.00705235 0.0035338541 0.0017933483 0.008494226 0.0013534805 0.010600888 0.007815053 -0.00051536417 0.0026736446 0.0005603518 -0.00013857064 -0.0014024882 -0.0021655383 -0.007564783 -0.0025671972 0.00064265495 0.009643359 -3.1234587e-05 0.006980734 0.00016703556 -4.6309586e-05 0.00059138646 0.0011302272 0.002092974 0.00039340102 -0.0018494279 -0.002427147 -0.00018074243 0.00681652 0.00031447224 0.010892747 0.00020612325 0.0001618397 0.00036791724 0.0052561844 -0.00016377986 0.0058256267 -0.004948631 0.0074138287 -0.00015844019 -0.006596046 -0.008421825 -0.005210094 0.006314671 7.348874e-07 0.004092384 0.0067512267 0.008059062 0.0036976985 -0.000985644 -0.0006863146 -0.00012676981 0.0010267326 -0.004362528 0.008828735 0.0009876348 -0.00063922594 -0.0005519878 0.008026171 0.008021739 -0.0049447864 0.0030814537 -0.006011304 0.0012097141 -0.0005597959 0.0053765047 0.0015195977 -1.1060158e-09 -0.0014996036 0.00031891125 0.0025320465 0.012571701 0.0011397653 0.0026685363 0.0034691924 2.4106877e-05 -0.003418932 0.0025272262 -0.0033011276 0.0011964659 0.0015106976 4.3339927e-08 -0.0050036344 0.004111946 0.00783522 0.0076731783 0.0022848344 0.0042070006 -0.0018577052 0.004991395 -0.005945417 0.0007056531 -0.0023169767 0.0052855797 -0.0022508665 0.0036203952 0.0011292776 0.0015273677 -0.0011563327 -3.1628028e-05 0.0024306872 7.857738e-05 0.009299009 0.008244622 -0.0034004198 -0.00016124992 0.005431355 -0.00016521665 -0.001038911 0.0023190829 9.984343e-07 0.00037247365 1.1408662e-06 0.0010619619 0.00016477847 -1.6782633e-05 0.00310417 -0.00043940448 -0.0024187774 -0.0001316958 0.004566221 0.002348822 0.006076244 0.0038392795 0.0010004801 -0.0011116103 -0.0065728854 0.0012261618 -0.0003249929 1.3621631e-05 0.00043781023 -0.0051258164 -0.00031199068 -0.00023315282 0.0009650554 -0.001415613 -0.00014736237 0.0011037859 -1.0621038e-05 0.0012806285 -0.0011915376
0.0009912031 0.0028768317 0.0008288701 0.0032509794 0.0067452183 0.0009788298 0.0011709457 7.206689e-05 -0.0006228691 0.009321628 0.0005317101 0.00045480175 0.001537749 0.0022979358 0.008491846 0.00030805712 0.00040400753 0.007686569 -0.002943241 0.00088538096 0.00020212399 0.0018827448 0.0039949836 0.003519906 0.0015528012 0.008371694 0.0039039277 0.0007963053 0.0018806086 0.001839056 0.0061919037 0.0027324283 0.006744587 -0.004867343 0.0017906374 -0.0009598132 0.00018473694 0.0033961493 0.0030847867 0.00077286654 0.0031420481 0.0047561927 0.00015981842 0.000174947 0.0048255753 0.00043256523 0.0023755878 0.0012182447 -0.0036928873 0.0016795845 0.01102202 0.0024187912 -0.0030285083 0.0019250339 0.0028532147 0.0025331862 -0.0043329285 0.002966844 0.0004606224 0.007848396 0.00037909625 0.0007053431 0.0027343533 0.007720632 0.002361712 0.0047337306 -0.0021320118 0.0026015227 0.0029752955 0.0018594924 0.0044938033 0.00028740262 0.0023355882 0.005494951 0.0013639403 0.0024462508 0.001195852 0.0058459085 0.0069502885 0.005385996 0.0055422354 0.0033961576 -0.0011992353 0.0013147849 -0.00082052895 0.0010521759 -0.00043532037 0.0043976046 0.0011423787 0.006158391 0.006112807 0.0014918929 -0.00016905554 0.0042015514 0.01050769 0.0009895801 0.0044130404 0.0007337692 0.0032315666 0.003467305 0.0018801807 0.0016639262 0.0008878165 0.00026813417 0.0011140913 0.0022453389 0.0017910765 -0.0006682711 0.00085248175 0.004973479 0.00384146 0.0011392384 0.0019411446 0.0010232959 0.005379548 -0.0015977025 0.0040201093 0.009552856 0.006927095 0.003069163 0.008789511 0.0065921484 0.00014716292 0.003968266 0.0047525917 0.0011370215 -0.002909759 0.00013187979 0.00038356317 0.0005751273 0.0011373934 0.008349893 0.0014724572 0.007856134 0.00085641094 0.0014846587 0.0036869328 0.006263929 0.004642635 0.0040289806 -0.0004872429 -0.0017934459 0.00041397632 0.006467985 0.001217476 0.0078032115 0.0035970183 0.0007761653 -0.0016027212 0.0059770383 0.0007641764 0.006034594 0.0020497919 0.006729973 0.0016132074 -0.007353062 -0.003770043 -0.0021478378 0.0061067836 0.0030015626 0.0030054732 0.0065143923 0.0065547796 0.0037376618 0.0039277105 -0.0012274832 0.0015069528 0.0024050847 -0.0047423565 0.007419978 0.0017882311 -7.798687e-05 0.00050650997 0.0069480115 0.006949339 -0.0013705586 0.0055957204 -0.0023773275 0.0011906589 0.003058238 0.006297745 0.005135468 0.0033534716 0.0015609674 0.00032979427 0.0005606276 0.011702448 0.0010539166 0.0030586007 0.004652963 0.0015416538 0.0054572225 0.0046387427 -0.0014163977 0.0019309935 0.0019351278 0.0021042202 -0.0005287272 0.0067415275 0.0058070957 0.0062948153 0.0042667934 0.009087436 0.003145972 0.0052345875 0.0012467438 0.0016193483 0.0020877896 0.008803031 -0.0012588985 0.0042674853 0.0031435697 0.0022530837 0.0011534742 0.0020132503 0.004531165 0.0009521526 0.0076758196 0.0075332792 0.000985905 0.00052793964 0.004269741 0.00096722844 7.0015805e-05 0.0047640046 0.0010621286 0.0050838194 0.0007759121 0.007997242 0.006163898 0.0012657552 0.0056476356 -0.0010362193 0.0013829329 0.00044444943 0.0048044855 0.0029423002 0.005030897 0.0025312346 0.0022394308 0.0003993449 -0.0014042864 0.0019197162 0.0020696272 0.006020006 0.00080021826 -0.0054644183 3.1178217e-05 0.0015410715 4.546331e-05 -0.0006120037 0.00039443027 0.0056834416 0.00044837146 0.006004312 -0.0015540589
0.025288716 0.0079149855 0.02915474 -0.008130097 0.013338628 -0.020060748 -0.024420721 -0.0009821837 -0.020511968 -0.047602948 0.010632211 -0.03498806 -0.008883286 0.034198795 -0.0085678 0.0049098637 -0.0011185613 -0.017650414 -0.03295373 -0.043544512 0.0062561748 0.024310108 -0.04723674 0.016526276 -0.021978274 -0.019102566 0.02441832 -0.06907146 -0.03051593 -0.016670981 -0.043460906 -0.045479286 0.013219988 0.015029674 -0.009379546 0.023955336 0.002974927 0.012660643 -0.020463241 -0.024100997 -0.0069028162 -0.00661168 0.00017421812 0.020340301 -0.014448641 -0.004098157 0.021344936 -0.017147226 -0.035681326 0.0061983094 0.011529958 -0.004474912 -0.0017460069 0.031741086 -0.038129583 -0.00932639 -0.026320493 -0.021288626 -0.0024089322 0.0070288084 -0.049140133 -0.015793944 0.025535481 0.022490857 -0.019909797 0.0030959146 -0.03223662 -0.03582805 0.0016262666 -0.006965341 -0.020293538 -0.0069422405 -0.014862522 0.014099197 -0.004318466 0.017341 -0.039263964 -0.031146504 0.014163662 -0.035175774 -0.024209807 0.01627957 -0.014734997 0.0030000978 0.007255923 -0.010306571 -0.0063096373 -0.013297555 -0.06426918 0.027017474 0.0053763026 0.049344126 0.0059807175 0.013067124 -0.028291756 0.049957547 0.0089941425 0.009860345 -0.025125533 0.012296648 -0.019938545 0.0221823 -0.019969901 -0.0009017593 0.0010154685 0.017242339 0.013179663 -0.014561357 0.00034969274 0.03315239 0.008327285 -0.008984068 -0.02226906 0.035021994 -0.015519684 0.008904629 0.007144804 -0.012417829 0.02280879 -0.02025103 -0.030436097 -0.0013217231 0.012841787 0.01785285 -0.0040455074 -0.009334109 0.0040139086 0.0031096684 -0.033976875 -0.024592467 -0.0065110424 -0.0022259734 0.007527456 0.056468103 0.017950518 0.004825359 0.016286146 -0.026397591 -0.02178815 0.038013116 -0.007143277 -0.01713179 0.015077412 0.024150763 -0.046213746 0.02940302 0.033845745 -0.018575838 0.01564057 0.011870609 0.022316601 0.00768423 -0.054017235 0.02852387 -0.025286838 0.018824963 -0.01790193 0.013332618 0.0069127847 0.018430578 0.045446098 -0.01591064 0.018558819 0.0067303195 0.0037518854 0.008541916 -0.011969282 -0.025204932 0.009629997 0.05565086 -0.028748082 -0.0027211588 0.009969634 0.032234512 0.052925654 -0.018570729 -0.017875636 -0.02025075 0.0088195065 -0.014412543 0.009475147 0.004244918 0.0057420805 0.016825838 0.03020168 0.0030403351 0.0033374208 0.022388898 0.04043173 -0.008312132 0.0048445663 0.011729195 0.034809016 0.021817608 0.027207108 0.0365014 -0.009306593 -0.0033950428 0.005824127 0.022039393 -0.0019314854 0.010273806 0.011885368 0.0023945281 0.060218155 -0.004348826 0.03757902 -0.017719647 0.0029717993 -0.015539072 0.043243922 0.0004471688 0.03559306 0.002197487 -0.024576765 -0.019488653 -0.024257844 0.00828226 0.024136288 -0.018800063 -0.018400135 -0.025921227 0.0041209655 -0.010476513 0.03216141 -0.01686349 0.0034875856 -0.0445372 0.0046713655 0.03061812 0.027721273 -0.0016853923 0.013388157 -0.043532383 -0.0025831955 -0.013361142 -0.017560031 0.04790187 -0.0028403783 -0.0005936011 -0.006419637 0.012024143 -0.019614432 -0.04192043 -0.008404832 0.0070646047 -0.02292981 0.034761377 -0.015952023 0.013432515 0.009979005 0.004368436 0.022529526 -0.023861757 0.00063746 0.0122105535
-0.00039672104 0.00818218 -0.00078222196 -0.0042701554 -0.02380697 -0.0011620034 -0.0029292235 -0.025437731 -0.018821962 -0.0015476771 0.0052914745 0.0075383172 0.0047558695 0.015415941 -0.0044058827 -0.00750242 0.006861956 -0.00034745465 -0.020481655 0.02831959 -0.0041447543 0.0032875133 -0.009311908 -0.0009133569 0.026102217 0.026763782 0.01057666 0.0038873833 -0.017822187 0.010944705 0.003258859 -0.0024214957 -0.009899038 -0.00022746692 -0.019917501 -0.0009824514 -0.0006397939 0.005286574 0.009615167 -0.0111201685 0.017689621 0.018633096 0.0016425604 0.014550769 0.013766283 0.00035487735 0.0055235303 -0.0042130277 0.008476305 0.0114720315 -0.015536969 -0.0060321116 0.017216338 0.0075305174 0.0048023243 0.018213589 0.00086172944 0.00086101115 0.008957074 -0.0023137527 0.012134636 -0.008495483 -0.0017502904 -0.011218915 0.0039959103 0.018706469 0.005038263 0.009503821 0.0038324804 -0.008082654 -0.0115997745 -0.005277612 0.002292567 0.010649874 0.02270058 -0.0048164413 -0.007983058 -0.01598209 0.009477274 -0.00470827 -0.017407272 -0.0020642965 -0.018751422 -0.020472795 0.00213391 0.0058247754 -0.012044033 -0.009624666 0.02199213 -0.0015230643 -0.010489018 -0.0069476906 -0.0029258155 -0.01858289 -0.0038346343 0.02652578 -0.010004549 -0.0064994455 0.00492862 -0.000632255 0.010333959 0.045017514 -0.01977575 -0.00012430937 -0.011537404 -0.0062968195 -0.016617091 -0.01218718 -0.00736237 -0.032292057 -0.016844805 0.02025051 0.032544028 -0.0074403044 -0.0003512855 -0.018754086 0.004663537 -0.016536111 0.0020580678 -0.008149612 -0.0052808006 -0.0005664221 -0.0015468638 0.0025046787 0.008094666 0.0026908547 -0.01108236 -0.0044968068 0.02410045 -0.0064777364 0.002769925 0.005998815 -0.005713225 -0.0027879605 0.014504863 -0.0171748 0.006740254 -0.0003871837 0.0008177485 0.017567787 0.00934584 -0.006047791 0.004507867 0.047665555 0.0012628916 -0.010526344 -0.014849368 -0.00056383584 0.006931327 0.041370496 0.013967889 -0.011431114 0.0020401925 -0.013086693 -0.013383352 -0.015159986 -0.018838566 -0.011422837 0.008388032 0.013557665 0.0067330594 -0.013485454 0.029821755 -0.0039711124 0.010204789 0.03436839 -0.004458258 -0.014329024 -0.0012819093 0.0031372018 0.015969161 0.007429072 0.007066979 -0.031007338 -0.011034662 -0.009670461 0.0032685564 0.0067533334 0.0026318089 -0.0010769285 -0.012599428 -0.016997162 -0.0040546693 0.003887872 -0.0061633466 -0.047956083 -0.014767324 -0.008302868 0.007201692 0.01379191 -0.021182375 -0.0066952147 0.007306647 -0.016238604 -0.004972421 -0.006035497 0.0026248165 -0.011075429 0.025801586 0.009165419 0.0071290853 -0.028210504 0.0074583082 -0.00012998798 -0.01126985 -0.014701441 0.0032319746 -0.0053856103 0.015896734 0.013330691 0.01606696 -0.014210888 -0.0075929477 0.013107467 -0.002202971 -0.0017404397 0.0020067913 0.0016434022 -0.0060406686 -0.006658649 -0.0003333417 -0.0007909481 -0.016952941 0.00096737244 0.007375334 -0.0060720555 0.0005867088 -0.009673175 0.013367014 -0.0041046934 -0.008010892 -0.0019580964 0.01576048 0.0120341 0.014093549 -0.019435255 -0.0051434482 0.0010143736 -0.0025555023 -0.008703139 0.009832876 0.0073913066 -0.014582971 -0.0020168275 0.0066064578 -0.0058712605 0.014625988 -0.0033727214 0.0068034693 0.009583849 0.017974785 0.011976405 -0.00683439 -0.01136137 -0.008407869 0.0024897698
-4.933e-42 4.95e-42 -4.921e-42 4.935e-42 4.921e-42 4.945e-42 4.926e-42 4.941e-42 -4.928e-42 4.952e-42 4.914e-42 4.948e-42 -4.948e-42 4.919e-42 -4.914e-42 4.928e-42 4.926e-42 4.951e-42 -4.938e-42 4.926e-42 -4.948e-42 -4.94e-42 4.926e-42 4.927e-42 -4.941e-42 -4.931e-42 4.92e-42 4.916e-42 4.931e-42 4.947e-42 -4.917e-42 -4.907e-42 4.923e-42 -4.909e-42 4.94e-42 4.935e-42 -4.917e-42 4.906e-42 -4.914e-42 4.947e-42 -4.94e-42 -4.95e-42 4.947e-42 4.913e-42 -4.94e-42 -4.92e-42 4.951e-42 -4.916e-42 4.95e-42 4.948e-42 -4.921e-42 4.93e-42 4.945e-42 -4.909e-42 4.94e-42 4.945e-42 -4.941e-42 -4.914e-42 4.95e-42 4.928e-42 -4.947e-42 4.912e-42 4.91e-42 4.935e-42 4.924e-42 -4.91e-42 4.927e-42 -4.927e-42 -4.923e-42 4.93e-42 4.948e-42 4.938e-42 -4.945e-42 -4.926e-42 4.945e-42 4.912e-42 4.935e-42 4.906e-42 4.941e-42 -4.95e-42 4.907e-42 4.92e-42 4.921e-42 -4.917e-42 4.916e-42 -4.914e-42 -4.924e-42 4.937e-42 -4.926e-42 -4.952e-42 -4.92e-42 4.945e-42 4.927e-42 4.919e-42 -4.942e-42 -4.919e-42 4.927e-42 -4.92e-42 -4.91e-42 4.924e-42 4.942e-42 4.91e-42 -4.921e-42 4.933e-42 -4.909e-42 4.927e-42 4.952e-42 -4.937e-42 4.935e-42 -4.906e-42 -4.909e-42 -4.937e-42 -4.923e-42 -4.91e-42 4.931e-42 4.951e-42 4.937e-42 4.921e-42 4.95e-42 -4.935e-42 4.945e-42 4.944e-42 -4.927e-42 -4.95e-42 -4.931e-42 4.931e-42 4.935e-42 4.927e-42 -4.947e-42 -4.91e-42 4.92e-42 -4.937e-42 -4.951e-42 -4.934e-42 4.924e-42 -4.919e-42 4.952e-42 4.938e-42 4.917e-42 4.916e-42 -4.934e-42 4.944e-42 4.917e-42 -4.921e-42 4.933e-42 -4.907e-42 -4.917e-42 4.93e-42 4.919e-42 4.923e-42 4.945e-42 4.94e-42 4.928e-42 -4.912e-42 4.91e-42 4.912e-42 -4.935e-42 -4.947e-42 4.952e-42 4.914e-42 -4.94e-42 4.931e-42 4.923e-42 -4.923e-42 -4.913e-42 4.912e-42 -4.937e-42 4.914e-42 -4.941e-42 4.91e-42 -4.919e-42 4.931e-42 4.921e-42 -4.916e-42 4.934e-42 4.93e-42 4.952e-42 4.926e-42 -4.928e-42 -4.952e-42 4.916e-42 4.928e-42 -4.937e-42 4.935e-42 -4.926e-42 -4.94e-42 -4.947e-42 4.942e-42 -4.947e-42 4.927e-42 4.927e-42 -4.919e-42 -4.948e-42 4.907e-42 4.938e-42 4.947e-42 4.906e-42 4.947e-42 4.928e-42 4.906e-42 4.944e-42 4.942e-42 -4.921e-42 -4.934e-42 4.948e-42 -4.938e-42 4.909e-42 4.912e-42 -4.942e-42 -4.91e-42 4.917e-42 -4.94e-42 4.948e-42 4.927e-42 4.909e-42 4.928e-42 4.941e-42 4.921e-42 4.931e-42 4.947e-42 -4.94e-42 4.944e-42 4.906e-42 4.927e-42 4.941e-42 4.923e-42 -4.94e-42 -4.947e-42 4.926e-42 4.909e-42 -4.909e-42 4.935e-42 -4.93e-42 -4.944e-42 -4.91e-42 -4.907e-42 4.944e-42 4.926e-42 4.941e-42 4.937e-42 4.941e-42 4.917e-42 -4.928e-42 4.937e-42 -4.94e-42 -4.909e-42 4.927e-42 4.913e-42 4.91e-42 -4.924e-42 4.913e-42 4.941e-42 4.945e-42 4.912e-42 4.926e-42 -4.909e-42
0.061665427 -0.022832626 0.03785733 0.018940153 -0.007464112 0.03759127 0.052299127 -0.036548216 -0.029983878 0.034070153 -0.051055815 0.031155936 -0.039781377 -0.037262134 0.020446787 -0.024539294 0.034199182 -0.04138005 -0.028809384 -0.0024368549 -0.017866498 0.0022429957 -0.02588106 -0.027155446 0.060083043 -0.0030494668 0.02495033 -0.0073392284 0.10656567 0.024148522 -0.052971594 0.0021297014 0.040714692 -0.011041757 0.025691027 -0.0051071392 -0.013791133 0.030007651 0.014253105 0.068060316 0.022310777 0.00076702767 -0.019937668 0.05104298 0.014407316 0.024625039 -0.016107785 0.0083097285 0.041765694 -0.00451009 0.004382217 0.0071812677 -0.027261322 0.024719313 0.060280174 0.05939649 -0.031697717 0.0573267 -0.013822767 -0.006092345 0.013410471 -0.045381196 0.0019334025 0.026981194 -0.015082072 -0.020509887 -0.03225209 -0.008190925 0.025888113 0.08757216 0.03366729 -0.008262414 0.00977421 0.04580036 0.029101368 -0.0075336876 0.002213076 0.018899314 0.04211653 -0.032844756 0.047476564 0.0024916725 -0.047836185 -0.051608104 0.022284841 -0.058412217 -0.029650629 0.01485962 0.027216308 -0.01770793 -0.0114004165 -0.039929196 -0.010169556 -0.028930333 -0.0077680196 -0.0007169348 -0.049050335 -0.029364005 -0.018579135 -0.0011808908 0.015997108 -0.015353155 -0.0688053 -0.021079693 0.017458864 0.014278435 -0.019073514 -0.037529163 0.0047839372 0.067693464 0.063632466 0.019454883 0.011903191 -0.0012247455 -0.0099273 -0.080991946 -0.060506597 0.013933866 0.009740054 -0.057823513 0.01915357 -0.005215394 -0.013073972 0.009230812 -0.0076051927 -0.09616411 0.07566876 -0.060181685 0.019749999 0.040774427 -0.007048045 -0.0039987448 -0.061913617 0.025367862 -0.012442135 -0.0461405 -0.043220706 -0.010815391 0.07788736 0.034560107 -0.05094861 -0.06750074 -0.008470353 0.046092685 0.09824889 -0.006796727 -0.007073923 0.028834706 0.07105527 0.013028999 0.011617949 0.052573934 -0.024625307 0.00771719 -0.02971995 -0.11995655 -0.011876852 -0.07263848 0.07903812 -0.02550779 0.02713219 -0.003269026 -0.023151895 -0.093160525 0.0042508044 0.047619913 -0.041025896 0.034181666 -0.025655568 0.015728297 0.0014444599 -0.048231944 -0.0011785983 -0.01854499 -0.06331824 -0.020101365 0.025986684 -0.06628612 0.037224136 -0.0335812 -0.020399824 -0.019650362 0.004831904 0.032851405 -0.0009394889 -0.017154222 -0.042136922 0.014364283 0.04313903 -0.021947505 -0.022206923 0.015028166 0.02872607 -0.051035084 -0.034092754 0.024871504 0.025226649 -0.03432445 0.031609148 -0.04956915 0.031103969 0.04528361 -0.036131557 0.029999442 -0.010155321 0.03756467 0.013840141 0.029839922 -0.016609436 0.019226922 0.07291052 -0.0160999 -0.005657022 -0.0014468196 -0.03147757 -0.008294862 0.010258648 -0.00048079336 0.053703368 -0.00029207687 0.04580373 -0.010029833 -0.05545331 -0.038330257 0.024970619 -0.018551147 -0.073182814 0.061574597 0.05183125 -0.0078740455 -0.00066747714 0.064629056 0.007548233 0.016188724 -0.020728108 -0.03976317 0.032955166 -0.029724605 -0.001795401 0.022006027 0.03229275 -0.022347607 0.0300267 0.03367643 -0.007791982 0.026733583 -0.010002804 0.0022817468 0.013292234 -0.05516727 0.03372936 -0.014622874 -0.021814454 0.038759977 -0.0019206785 -0.033254642
-4.933e-42 4.92e-42 4.955e-42 -4.93e-42 4.927e-42 4.93e-42 5.01e-42 4.997e-42 4.958e-42 4.947e-42 4.938e-42 4.909e-42 5.02e-42 4.909e-42 4.951e-42 -4.906e-42 -4.94e-42 -4.931e-42 4.909e-42 -5.052e-42 -4.93e-42 -5.017e-42 -4.924e-42 4.928e-42 -4.94e-42 -4.933e-42 4.914e-42 -4.977e-42 -4.944e-42 4.919e-42 4.951e-42 -4.948e-42 4.933e-42 4.938e-42 4.931e-42 -4.942e-42 4.921e-42 4.92e-42 4.941e-42 4.927e-42 4.95e-42 -5.88e-42 5.035e-42 -4.948e-42 4.91e-42 -5.021e-42 4.993e-42 5.053e-42 4.94e-42 -5.553e-42 -4.926e-42 5.408e-42 4.95e-42 -4.986e-42 4.912e-42 -4.944e-42 -4.91e-42 4.952e-42 -4.934e-42 4.94e-42 4.942e-42 -4.913e-42 4.969e-42 4.938e-42 -4.982e-42 -4.948e-42 4.955e-42 -4.934e-42 4.97e-42 -4.972e-42 -4.947e-42 -4.934e-42 -5.071e-42 -4.948e-42 -5.017e-42 4.947e-42 5.026e-42 4.934e-42 4.921e-42 -4.959e-42 4.912e-42 4.916e-42 4.92e-42 4.944e-42 -4.907e-42 5.084e-42 4.948e-42 -4.909e-42 -4.948e-42 4.942e-42 4.921e-42 -4.935e-42 -4.917e-42 -4.93e-42 4.917e-42 4.916e-42 4.944e-42 -4.984e-42 -4.928e-42 4.933e-42 -5.052e-42 4.954e-42 -5.045e-42 -4.96e-42 -4.938e-42 4.966e-42 5.042e-42 -4.944e-42 5.056e-42 -4.907e-42 -4.921e-42 4.93e-42 4.91e-42 4.917e-42 -4.935e-42 5.084e-42 4.916e-42 -4.937e-42 -4.917e-42 4.913e-42 4.923e-42 -4.921e-42 -4.969e-42 4.926e-42 4.927e-42 4.923e-42 4.945e-42 4.912e-42 -4.954e-42 4.928e-42 4.934e-42 4.906e-42 -5.008e-42 -4.95e-42 -4.955e-42 -5.01e-42 4.952e-42 4.91e-42 4.94e-42 4.906e-42 4.933e-42 -4.917e-42 5.115e-42 -4.942e-42 4.914e-42 4.933e-42 5.024e-42 -4.926e-42 4.962e-42 4.906e-42 -4.991e-42 -4.958e-42 4.919e-42 -4.956e-42 4.931e-42 4.95e-42 4.916e-42 6.1e-42 -4.907e-42 4.968e-42 -4.931e-42 4.927e-42 -4.956e-42 -4.928e-42 -4.921e-42 -4.907e-42 -4.973e-42 -4.907e-42 4.941e-42 -4.914e-42 -4.938e-42 5.021e-42 -4.914e-42 4.938e-42 4.928e-42 4.919e-42 4.928e-42 4.906e-42 -4.912e-42 -4.916e-42 4.945e-42 4.98e-42 4.917e-42 4.91e-42 -5.077e-42 -4.91e-42 -4.913e-42 -4.968e-42 4.977e-42 -4.945e-42 4.998e-42 4.945e-42 4.951e-42 4.926e-42 4.916e-42 -5.097e-42 -4.963e-42 -4.972e-42 4.952e-42 4.94e-42 4.931e-42 -4.937e-42 4.92e-42 -4.962e-42 -4.962e-42 -4.933e-42 -4.917e-42 -4.907e-42 4.917e-42 -4.942e-42 4.958e-42 4.92e-42 4.919e-42 -4.907e-42 -4.924e-42 4.923e-42 5.153e-42 4.91e-42 4.921e-42 4.906e-42 -4.972e-42 4.924e-42 -5.039e-42 4.933e-42 4.956e-42 -5.234e-42 -4.906e-42 5.28e-42 5.217e-42 -4.945e-42 4.91e-42 -4.944e-42 4.95e-42 -4.938e-42 -5.155e-42 -4.933e-42 4.912e-42 4.931e-42 4.921e-42 4.959e-42 4.91e-42 5.458e-42 4.982e-42 4.986e-42 -5.024e-42 -5.01e-42 -4.928e-42 -4.919e-42 4.924e-42 -4.965e-42 -4.959e-42 4.921e-42 -4.984e-42 4.942e-42 4.907e-42 -5.071e-42
-0.0036505542 -0.008201253 -0.0003887205 0.016962862 -0.00025971537 -0.020141551 -0.0036293792 0.015880415 0.01028241 -0.0062027304 0.014102502 0.0061845127 0.009323911 -0.0096951565 -0.0018580115 -0.017698346 -0.0013740523 0.012029225 0.015334707 0.007348871 0.008353551 -0.00064493937 0.016028956 -0.0071220016 0.0071988115 0.006519035 0.005793156 0.0048775864 0.0057305954 0.008930177 0.00528763 -0.01145267 0.0016776959 -0.014554675 0.006353475 0.0028824855 -0.001303095 0.0044315346 0.005677114 -0.012218114 0.013663192 -0.0011655107 0.0021786944 -0.006764253 -0.019735187 0.0018346461 0.004470258 -0.01450802 -0.013219963 0.0007867285 0.009344662 0.00022038998 0.0042009056 -0.002932262 -0.021947015 -0.011377725 0.0071266512 0.0054938546 -0.008957317 -0.013494644 -0.011973019 0.0066116257 0.013160955 -0.007327414 0.004876083 0.000100965044 0.0052612913 0.015783776 0.0105277635 -0.008866089 -0.00021837675 0.008971133 -0.0005290177 -0.0010103234 0.010760502 -0.00014069403 -0.005917072 -0.0017553353 0.013543969 0.008840635 -0.0017657578 0.00022626307 0.01678738 0.0014554705 0.011912256 -0.0068193674 -0.019721484 0.0077873943 -0.0067568105 0.0101853665 0.0021567931 -0.013226653 0.010343236 -0.0010230824 -0.0064119413 -0.00021387619 -0.0060536847 0.007753188 -0.00033928565 0.0015078577 -0.0013474039 0.008925251 0.0045350776 0.0017380284 -0.0077642575 -0.0031358371 0.0012837528 0.011002746 0.001468877 0.0040566227 -0.01382371 -0.0019017027 0.007755129 -0.0032944665 -0.012096575 0.00731389 -0.0005230568 0.008813364 -0.020930814 -0.010009401 -0.030522387 -0.0021373457 -0.0037091505 0.008439182 -0.013612916 0.003092349 -0.006505779 0.00039199064 -0.006896835 0.005782429 0.0073737805 -0.0055285664 0.022407994 0.010463971 0.0069993073 -0.0030971533 0.0077462625 0.0123235835 -0.009377275 4.026488e-05 0.00079542375 0.01270233 0.0192381 0.033553947 -0.00018950911 -0.001935876 -0.0011938773 -0.007536521 -0.018857004 0.007710064 -0.0074542514 -0.013867202 0.02012106 -0.0118117025 -0.003585477 -0.013764271 -0.0026241674 -0.0047224886 -0.005733083 0.010672235 -0.01226306 -0.018233834 -0.01624952 -0.00039599545 0.0075570806 -0.0018321001 0.01131849 -0.011941323 0.0020098742 0.0014654914 -0.0050155474 0.0067608864 0.0018978226 0.0019810952 -0.0027355622 0.005832152 -0.010557012 0.0031110519 0.00209133 -0.0044036806 0.010496384 -0.0016091249 -0.0011969096 0.0020685794 -0.00076848484 -0.008676401 -0.010358714 0.014908427 -0.0009452064 -0.0025622493 0.009841859 -0.0049717785 -0.012460393 0.0036326447 -0.004983087 -0.004575467 -0.0026466043 0.00587793 0.0005149307 -0.002868403 -0.0041287737 -0.0067340983 -0.008100936 -0.009957013 0.0029363537 0.010412932 -0.026386725 -0.0053837565 -0.025651123 0.0029755435 0.010296101 -0.001461697 0.0045194174 0.002689575 0.0015113455 0.0061254175 0.0016325254 -0.01089035 -0.008406865 -0.0016697655 0.0005739403 -0.010986915 0.017976774 0.01551173 -0.01955314 -0.008795836 0.0039264187 -0.0046048714 -0.017799819 -0.005322343 0.0064763217 -0.0049374276 0.0029635127 -0.015649658 -0.0139122 -0.005115083 0.0037129344 -0.017869115 -0.0013479526 -0.0037082266 -0.0022763642 -0.007022698 -0.0031095047 0.003529499 -0.0036005327 -0.0021016032 0.0030471876 0.003938783 0.010031616 -0.009654158 -0.005583048 0.010218341 0.008835004 -0.020358326 0.0027402896 0.007008797
0.07077202 -0.002262707 0.047777735 0.05642019 -0.0051929886 0.0387533 0.009471659 -0.0011559691 -0.058472093 -0.053748317 -0.030611642 -0.025180006 -0.048970975 -0.04567713 0.022336606 -0.0038587116 0.00183079 -0.013587354 -0.035654727 -0.033788126 -0.0148631325 0.06791654 -0.044355422 -0.013237651 0.08805413 0.053204484 0.042503476 -0.035753973 0.07060666 0.037137493 0.044027135 0.015388405 0.05029385 -0.007279855 0.06851859 -0.011645886 -0.008070144 0.0059289625 0.03437382 -0.0031541735 -0.074317195 -0.03043043 -0.018284373 0.028541481 0.034973968 0.031348515 0.0043688267 -0.01711896 0.044341136 -0.034247424 -0.048973482 -0.02524898 0.04606762 -0.0005308215 0.04363863 -0.014675866 -0.06598723 -0.008170359 -0.009706387 0.014489631 -0.02550294 -0.052119996 0.00019373326 0.01639447 -0.046986017 -0.02827289 -0.032399066 0.03125829 -0.0020915878 0.07138882 0.0024195255 -0.08007436 -0.05251873 0.047964267 -0.043802693 0.010851997 0.004409192 0.030181509 0.027529491 -0.023376757 -0.0009680724 -0.024778979 -0.038444486 0.02517337 -0.052286737 -0.038586233 -0.03951387 0.023877846 0.057460472 -0.02918519 0.010456741 0.04126664 0.016569244 -0.018521873 -0.02515906 0.046959613 -0.064857915 -0.012419576 -0.03789583 0.038436946 -0.020306125 -0.041239746 -0.060128286 -0.006030157 0.034613688 -0.017076813 -0.05892747 -0.06201075 0.013353967 0.028847842 0.04899681 -0.061586995 -0.032259133 -0.016839601 0.0070473687 0.033283617 -0.04101544 0.08108199 0.021236004 -0.011732211 0.0014147365 -0.029615799 -0.004325258 0.0047389353 0.08169325 -0.1074778 0.001051255 -0.045180917 0.020149708 0.012073694 -0.04267898 0.0008399045 -0.0482727 -0.0010318508 -0.043155514 0.010388802 0.00045171363 0.020492857 0.029307425 0.0045128497 -0.0021798196 -0.08985834 -0.034625586 0.029365622 0.03950028 0.031933833 0.030145785 0.006220093 0.10490765 0.0025507263 0.00097396376 0.020854453 -0.0151213 0.0494706 -0.012686579 -0.045669366 0.016699674 -0.052754898 0.05358063 -0.03520477 0.07854125 0.016335301 0.014563405 -0.117206335 0.04397004 -0.0011817542 -0.08280655 0.070697926 -0.040912002 -0.002666635 -0.035334874 -0.04326907 0.009772646 -0.016115809 -0.041762467 -0.04181197 0.004420017 -0.051782057 0.03418867 -0.020188356 0.018032916 -0.021269592 0.028477194 0.0073940544 0.010540215 -0.035578236 0.013772467 0.020614821 0.04296764 -0.023469165 0.018046986 -0.056950174 -0.034264028 -0.054359157 0.047372498 -0.0060579507 0.0032124014 -0.0372963 0.0033524304 -0.015814573 -0.0012281581 0.02492793 -0.024356885 0.09835766 -0.016766164 -0.07004549 -0.00064365746 0.033379603 -0.039669845 -0.03221055 -0.0128979245 -0.011482508 0.02720438 -0.04765778 -0.019010156 0.028313486 0.00011368212 -0.008582398 0.04150013 -0.027573952 -0.02742153 -0.035926584 -0.032138728 -0.00014415201 0.025056368 0.007264627 -0.04567481 0.0021371867 0.030845473 0.03105142 0.010403066 0.04659649 -0.058388658 0.008742114 -0.048726227 0.07303784 -0.022710005 0.0002598492 0.001711895 0.03236787 0.046208687 -0.070840545 0.0065140463 0.0025767721 -0.005159446 0.031077996 0.048588857 -0.0060175154 0.00056583935 -0.019543376 -0.019007264 0.042478576 0.012911096 0.043704793 -0.029378453 -0.041506782
0.059662953 0.03736002 0.006926817 0.00025873145 -0.017680854 0.033020537 0.0137168495 -0.024491448 0.0352771 0.0042838445 0.0070277844 0.002619669 0.01741785 0.011404643 -0.014870264 -0.020915981 -0.00415815 0.023195846 -0.00093085057 -0.010906065 0.028377008 0.010293705 0.007842813 0.02141815 0.008457597 0.0036379474 0.02395649 0.011312562 0.009917743 0.017410755 -0.010955983 0.011332103 0.0064601684 -0.0033361004 0.0215258 -0.016345277 0.008961758 -0.006325796 0.02383049 -0.013315923 0.013382273 0.05742939 -0.013089082 -0.009546267 0.01638858 0.036204048 -0.001450949 0.022996897 -0.012384047 0.023356896 0.010153827 0.018022345 -0.012844046 0.0043229917 0.0012268563 0.012244144 0.0047655213 -0.0025031257 -0.014521106 0.0075474787 0.01062157 0.013614551 -0.007475722 0.0012551016 0.021237649 0.008200749 0.0012500456 0.026593167 -0.0014403443 0.0011788352 0.019899976 0.016869968 -0.012878292 0.011880471 -0.0054621967 0.012899822 0.0067471643 0.006450573 0.022042954 0.004652614 0.008847358 0.015200999 0.02487577 0.021736694 -0.011472121 0.009498668 0.010090682 -0.0043859435 0.010868576 0.001960909 -0.000679378 0.003193441 0.012196568 -0.001300502 0.0060657565 0.022949317 0.015611837 0.03607245 0.010069839 0.0174112 0.014522781 0.018890262 0.019008879 0.036257975 0.014377693 0.030693341 0.010694925 -0.0073510413 -0.016967554 -0.0037440436 0.02840429 -0.008284122 0.005438583 0.020670582 -0.0051520704 0.029655522 0.002609697 -0.023597071 0.028086457 0.02143276 -0.0053236578 -0.021561665 0.049316715 0.033491623 0.025483714 0.040409915 0.016551692 0.011674324 0.024974369 0.032645274 -0.0094658015 -0.007010331 -0.0014599856 0.05364345 -0.00701401 0.016021391 0.0065265074 -0.015096895 0.010410132 -0.007839052 -0.017472902 -0.008290379 0.013276402 0.029786482 0.022716694 0.019426176 -0.004599585 -0.007351098 0.009318202 0.012892579 -0.010273806 0.024724925 0.026801808 -0.008790098 -0.0076399455 0.013754098 0.017149871 0.03397191 0.017328396 -0.020720651 0.010118496 0.018572673 0.0061343294 0.030085476 0.0069411267 0.0053105233 -0.032717492 0.025994217 0.00500975 0.0010993833 -0.005434148 0.0117394645 0.014024388 0.031256028 -0.021364437 0.018366471 0.0041206116 0.007353113 0.00813999 -0.017158419 0.01769168 -0.020582471 0.02318121 0.0032426277 0.0016924015 0.0032437446 -0.0034467415 0.004037806 0.0036847251 -0.016481567 -0.007916292 0.00866031 0.004741162 0.024615636 0.012140567 0.020988917 0.019259471 -0.03506931 0.00073457364 -0.0018769182 0.0030939549 0.016917413 0.017631343 0.024600117 0.026611116 0.014224596 0.009592113 0.017958581 -0.0011633093 0.0041051847 0.008321844 0.0047240863 -0.016592657 0.021488138 0.0044697137 0.032558993 0.031729568 0.011843347 0.021592068 -0.008685079 0.016011551 0.023339532 0.012962721 0.028176162 0.034721274 0.023435883 0.02262934 0.0106751 0.026399532 0.013785307 0.0049557486 0.03205765 0.018350892 0.0042785634 -0.02333009 0.011350064 0.0077950065 0.0068199923 -0.0036554972 -0.004517524 -0.0129286125 0.002349914 -0.013798136 0.025730621 0.021535177 -0.018404715 -0.0068542315 0.029297559 0.051408086 0.016377859 0.017068902 0.009094482 0.01678162 0.032756444 0.022301124 0.016235895
0.0014820731 0.0017194913 0.00072741054 0.0021534762 0.005135173 0.0010883968 0.00046291325 0.00018816444 -6.24939e-05 0.007754729 0.00022607563 0.0014486109 0.0009875067 0.0017119554 0.0052960753 0.0006269429 0.0011464726 0.0043721646 -0.0008462454 0.0001709521 0.00049128506 0.001812833 0.0018141682 0.0022876181 0.0017191574 0.0053795474 0.0024720316 0.0001475524 0.0010570383 0.0010264618 0.005393307 0.002127801 0.004902609 -0.0021824827 0.0017329057 0.00043357137 0.00010454223 0.0024922679 0.00219783 0.0013060357 0.0015183397 0.002691917 0.0002175045 6.829139e-05 0.0033870656 0.00028285367 0.0013751513 0.00045007296 -0.0003988825 0.00085158035 0.0059370175 0.0014271729 -0.00069238053 0.0013946131 0.0012644638 0.0017069211 -0.0017968134 0.002062703 0.00033338106 0.0046123476 0.0007204221 0.001315653 0.0012326116 0.004950591 0.0010283445 0.0037314424 -0.00021143869 0.0024839228 0.0016245137 0.0007474044 0.0029852795 0.00060640177 0.001069719 0.003395991 0.0007073656 0.0013513681 0.00034325352 0.0039335014 0.0047634044 0.0025957224 0.0035635722 0.002875345 -0.0005558916 0.0022489135 -0.00037450745 0.00026689723 0.00063335727 0.0019552817 0.0002606887 0.0038712877 0.0042040944 0.0008884873 0.00010506331 0.0023731354 0.005751761 0.0019801205 0.0026505517 0.0005108339 0.0017836947 0.002445136 0.00082363683 0.0011330922 0.0006049999 0.00025951272 0.00048424423 0.0017039217 0.0009342229 -0.00017131492 0.00035624046 0.0029974415 0.0030044701 0.00108691 0.0037533625 0.00088901905 0.0033616556 0.00019427454 0.0022205072 0.0049472866 0.0041115587 0.0018891408 0.005429544 0.003954893 0.00041520596 0.0020813288 0.0024966635 0.0011874088 -0.0004432932 1.4034779e-05 4.412059e-05 0.0022765868 0.0011943647 0.005352401 0.0006803029 0.0050683958 0.00058782526 0.0008128938 0.0026105223 0.004077729 0.003159194 0.0022912582 -0.00046323976 -9.982476e-06 0.00018223643 0.004063401 0.00035624727 0.004581746 0.0023363824 0.00015612207 1.6243435e-05 0.0052552093 0.00071194855 0.0035188668 0.0017734865 0.0038839984 0.000802625 -0.0012540852 -0.0015643368 -0.000866374 0.0055779233 0.0014500848 0.0018564839 0.004466108 0.0041282736 0.0028348516 0.0026678222 -4.877965e-05 0.00097576977 0.0018644589 -0.0016711706 0.004604615 0.00070738606 0.00051598327 0.0011679607 0.0051223407 0.004505432 -0.000376739 0.0035879295 -0.0012042513 0.0011867614 0.0014663173 0.00501524 0.00248884 0.0014684855 0.0014021548 0.000772934 0.0014752272 0.0067950864 0.0010069961 0.0016883081 0.0027143606 0.00080821716 0.0039053352 0.0030653772 -0.0004392335 0.0011591741 0.0010230249 0.00096643355 -4.817208e-06 0.005327368 0.0036900225 0.0037866211 0.0027758332 0.004936758 0.0017109124 0.002736571 0.00080947165 0.00079729094 0.002263429 0.0060973912 -1.7270124e-05 0.002505445 0.0022893914 0.0018236714 0.001052317 0.0011056595 0.0033757673 0.00026024395 0.0048846067 0.004286246 0.0010147262 0.0003235322 0.0023041929 0.0004991183 0.00034459625 0.0032976929 0.00032666855 0.0040092454 0.00015559302 0.003958963 0.0034969498 0.00064859336 0.0035980486 -0.0001676475 0.0015399321 0.00042235095 0.0033818511 0.0017072897 0.003288742 0.0021308481 0.001085289 0.00091551436 -0.00011820995 0.0010366488 0.0009250058 0.0029178436 0.00027510797 -0.0009030816 0.00028859804 0.0015773306 0.000934523 -7.3161704e-05 0.00072958437 0.0032144545 8.359508e-05 0.0033075865 -0.000103482984
-0.0150110135 -0.008390332 0.0120392265 -0.0008676995 0.014652568 -0.001296671 -0.042659048 0.0009011419 -0.003824217 0.0075188377 -0.003390444 -0.026221063 0.0261054 0.0008726167 -0.0069936295 0.0065212436 0.0033309723 -0.012170808 -0.0022771312 -0.008649445 -0.0057475395 -0.00022036087 -0.007887121 0.008002081 -0.006846152 -0.027175115 0.005464994 -0.0032274188 -0.011007342 0.009398387 0.0058375895 0.0071913223 0.017126104 -0.0070000337 -0.0003074572 -0.01249459 -0.0026568575 -0.013747471 -0.0051368414 -0.016630607 0.008172071 -0.009020696 -0.0006199317 -0.0074655153 0.012900782 0.004517751 -0.0060788007 0.0014668619 0.007303843 0.0076781134 0.006648412 -0.029517591 0.0063285585 -0.010462662 -0.008441579 -0.016122919 -0.02559825 -0.0048050904 0.017504923 0.010345821 0.0011411718 -0.00018325807 -0.006380847 -0.010746526 0.0013193452 -0.020396031 -0.011333493 -0.0055289874 0.006822767 -0.003929506 -0.022959648 0.031807024 0.00076506194 0.0038230543 0.01587418 -0.018262073 -0.011487924 0.0036594118 0.0022244442 -0.03410001 0.005289537 0.0063956226 -0.025875997 0.030620687 0.0023151103 0.013480464 0.017072791 -0.014170047 -0.0041745403 0.024135614 0.0158004 0.0021249598 0.002132082 0.018158717 -0.011131587 -0.012347917 0.022692561 0.0013541544 0.00061057927 0.023512099 -0.017891055 0.0015722498 -0.017221013 0.00024905565 0.010253109 -0.0054562422 0.008124178 0.000562907 -0.004467024 -0.014606861 0.0023250598 -0.023245463 -0.00060919323 0.0060469294 -0.0035816887 -0.0020038344 -0.005236523 -0.0044944882 0.0134966085 0.0034707966 0.03483577 0.042713407 -2.0218029e-05 0.019322673 -0.004040122 -0.03196098 -0.008613866 0.0005603636 0.013272045 0.00013765112 -0.004158521 0.0044689877 0.008498187 0.020208161 1.9329253e-05 -0.002202454 0.018738333 -0.0064982623 0.0023721287 -0.011293791 0.012732874 -0.0012551631 -0.0065948567 -0.007323916 0.0076762424 0.008140169 0.015676437 0.009297409 -0.025595872 -0.0073666493 0.011022098 -0.020327626 0.005267174 0.002692162 -0.014080698 -0.002186549 -0.022239275 0.0021144543 -0.013401155 0.012815813 0.004527197 0.011744643 0.004389095 0.0018615444 -0.00064224843 0.008778849 0.0045679403 0.014418587 0.00011749226 0.005840316 0.015124896 -0.010553896 -0.00026057905 0.006554187 0.019786058 0.010133959 0.006729819 -0.0101500815 -0.013348494 -0.008682733 0.009155519 0.00863916 0.0181324 -0.011758112 -0.009208996 -0.0035363247 0.015790032 -0.014973576 0.010136292 -0.0026742646 0.018096855 -0.010383015 0.029048441 -0.010088818 -0.017439935 0.0043986244 -0.01123688 -0.006679344 0.02872786 -0.0030232577 0.019188765 -0.013305586 -0.0026717489 0.010821835 0.012649827 -0.014297979 0.0038595835 -0.007970351 0.0060466873 -0.01391321 -0.0076028383 -0.0041440735 -0.0007076349 0.0024558234 0.025097728 -0.010939511 -0.004516127 0.0117774615 -0.008101873 -0.021441476 -0.0032621915 0.0047743805 -0.00753657 0.009530403 0.014559628 -0.009666205 0.0133657195 -0.015029773 -0.0017085137 -0.0037716322 0.0008082549 0.0056614717 -0.009218938 -0.017866863 -0.0016650166 0.009975876 0.015271564 0.015171133 0.010378239 0.0058120084 0.0015341745 -0.006097068 -0.01862199 0.0057762675 0.008228416 0.0007252445 -0.0050455737 0.0015124909 0.019849183 -0.012732919 0.017862124 -0.02311763 0.009605715 1.2756645e-05 -0.0028413062 0.0038555337
0.00054675085 0.00028416564 0.00018100957 0.00011029004 -0.00043308287 0.00028935578 0.0005628451 0.00019792549 0.0008389178 -0.00021333373 0.00097533374 0.00035380977 0.00029635098 0.00034728937 7.9455116e-05 0.00045113856 0.0004303324 8.980284e-05 0.0011998633 0.0004087134 -3.915794e-05 0.00053440966 0.000329793 0.00084775995 0.00017899727 0.0005802681 0.00069610844 -0.0002360565 -0.0005446857 -0.00016048252 0.00064868596 -4.5828365e-05 1.2631481e-06 0.0003493939 0.0009430334 0.0007320844 0.0001808474 0.0002283174 -9.912793e-05 0.0006431476 0.0010825644 0.00064344966 -6.160499e-05 0.00021393692 -0.00016689111 0.0003794706 -0.00019679457 -0.0008979655 -0.00035481004 0.00032447194 0.00048528443 0.00019413838 0.00059048325 -4.880775e-05 -0.00040435753 0.0002761403 -0.00018416789 0.00032394036 -9.0565234e-05 7.24276e-05 0.00023675675 0.00069476984 -0.0003596047 -5.59697e-05 0.00013466411 5.4132495e-05 -0.00023530159 -0.0013641604 0.00024530877 -0.0006175964 -6.6829884e-06 -0.0002134129 5.529135e-05 0.00011945915 -3.950399e-05 0.00056811207 0.0011228848 4.8321835e-05 -0.0005279336 0.00013107981 -0.00016996017 0.00024816496 0.00015653047 -0.00019475188 0.00014537248 0.00082523876 0.0008935184 0.00034160644 4.8771046e-05 0.0012694332 8.391872e-05 0.00036882423 -0.00051316724 0.0003116411 -1.526106e-05 0.00047818216 -0.00033776293 -0.00026017486 0.00026168444 0.0003066124 -0.00013432148 -0.00064532825 -0.00017134749 1.7272423e-05 0.0003876702 -0.00034774037 -2.3989833e-05 3.974642e-05 -0.00012935416 0.00053205725 -4.739161e-05 0.00078545726 -2.1471458e-05 0.0003229935 -3.763924e-05 0.00072404585 -0.00013184198 -8.537478e-05 0.00041528785 0.00085706706 -0.00066331634 0.00030474717 0.0009847682 6.6363726e-05 0.00045550047 0.0001512512 -9.36775e-05 -2.1156116e-05 -0.0006430438 0.00059579086 -2.4463632e-05 -6.1256123e-06 -0.0001511825 0.00069423526 -0.00031039832 -0.0006454961 0.00043702018 -0.00043990678 0.000100021796 0.000110698944 -8.4199855e-05 0.00016489383 0.0005180279 0.00048322612 0.00034787267 0.00077652116 0.00022979602 -4.6601363e-05 -0.00031756092 -0.00050283613 0.0011354869 0.00024353463 0.00018657991 -0.00076054246 2.2061544e-05 0.0007729808 0.0008876374 0.0006871868 0.00069323956 2.136037e-05 -6.19981e-05 -0.00026329278 -0.0001293582 0.00051842805 -5.187932e-07 -0.00016452404 -0.00012755515 -1.52731e-05 -3.1061805e-05 -0.00038646394 0.0006592688 0.0005680774 -0.00029747598 0.0002798519 0.000575737 0.00021096831 -0.00024354893 -0.00017452016 0.0006157339 -2.0249674e-05 0.000107172054 0.00029231887 7.384772e-05 -0.00015399852 -0.00012873484 0.00040742275 6.649501e-05 0.00038419338 0.00036241926 -0.00023548896 0.00055223657 0.00069347664 -6.468519e-05 -0.00023154858 -9.408521e-05 -0.0002153152 -0.0006195785 0.00035550838 0.00010922406 5.5538247e-05 -3.455026e-05 0.00046193626 0.00045868193 0.00018509981 -8.193577e-05 0.00049238827 1.7337201e-05 0.0011601888 0.0004447093 0.00020158658 -0.00022358238 0.00014538856 0.00064747594 0.0007341725 -0.0018901277 -0.00019418054 -0.0001244842 -0.00017365089 -0.0005790304 0.00036894504 0.00029230872 -0.00012801126 0.00027664716 0.0006077324 0.00041402597 0.00021928217 1.0598411e-05 9.0346664e-05 2.6347536e-05 0.0002570613 -0.00017879582 0.00027235335 -0.00023633974 2.3842904e-06 -5.2667125e-05 0.0008580758 0.001312164 0.0006200247 -9.6941316e-05 0.0006232768 0.0005862422 0.00027843387 0.00042824156 0.0005429059 0.00027555387 0.00029754944 0.00026518642 0.000922704 0.00030471146 0.0006997423 0.0003614518 -0.0001907167 0.00024175525 0.00014529297 0.00020490296 0.00072785217
-0.024997218 0.0021017895 0.00980158 -0.0015280081 0.027299138 -0.022490114 -0.010171989 -0.0014924015 0.007996981 -0.018340135 0.011772164 -0.023401918 -0.04687891 0.010188722 0.013608345 -0.01549273 -0.0073210537 -0.01468361 -0.012408349 0.009115503 -0.015160885 0.004996723 0.027063625 -0.01094733 -0.006020146 -0.0048109167 -0.011130361 -0.014558839 -0.0035664304 -0.017469993 0.021548558 -0.015590844 0.005541474 0.013397521 -0.017548624 0.013029437 0.0046286476 0.0120310355 0.03277276 0.005863005 -0.00089656754 -0.004533646 -0.0010493238 -0.0047703483 -0.0028892935 0.03149842 0.018451475 0.012522432 -0.023548478 0.010326428 0.019835565 -0.009711403 0.008638565 0.024445625 -0.02267316 0.00827004 -0.0038393564 0.008979255 0.014739512 -0.004070309 0.012805231 0.0026537387 0.028120734 0.014020954 -0.012852371 -0.0062373816 0.02789803 -0.026162038 0.010031392 0.0072513735 0.00565148 -0.015101679 0.0015546876 0.0051618097 0.037657987 -0.004633308 0.015526082 -0.008020687 0.022539798 0.0093148295 0.011201626 0.0151058985 0.0064703985 0.00010997515 0.0100890845 -0.0070933867 -0.01817794 0.0039920425 -0.01083025 0.017081657 -0.011338089 -0.010355697 0.024974233 -0.028458253 -0.034061864 0.008973008 -0.03753315 0.0056620524 0.013441039 -0.0022404885 -0.009702082 0.016853293 0.0029310442 0.012748203 0.0016835544 0.027535986 0.012685418 -0.009379887 0.024940439 -0.0029584395 -0.008686663 -0.011523623 -0.012515415 0.0016601431 0.013263675 -0.016153706 -0.0019835671 -0.0001924397 -0.0013048173 -0.015412817 0.013302794 0.008892197 -0.001845406 -0.00075552094 -0.005659985 -0.01396597 -0.01078525 -0.027927408 -0.0012717982 -0.0072641023 0.021425664 -0.0067391316 -0.010785831 0.032564253 0.0012312563 0.034079075 0.0015692828 0.00029453603 -0.017360475 0.0033514686 -0.012342345 -0.020461451 0.011698921 0.025805423 -0.026658222 -0.0003361547 0.0066752792 -0.034067176 -0.0142982565 0.022609223 0.024879718 0.0028641184 0.013742312 0.017358212 0.007829756 -0.017368577 0.0025919466 0.0012835361 -0.012508319 0.01136323 0.009127777 -0.002239412 0.015547226 0.004091872 0.0038614958 0.009218227 0.019522257 0.006062743 0.0025320177 0.021431023 -0.034810208 0.011619884 0.009348684 0.029327745 0.02840244 -0.019653542 -0.01825971 0.0035576823 0.0035852622 0.029320128 -0.014633659 -0.0014289168 0.028278438 0.0041002613 0.004832758 -0.002805057 0.03555867 0.0032695092 -0.006824199 0.006169497 0.0039330125 0.006552311 0.0036179705 -0.010986593 -0.017278986 -0.041695558 0.004891032 -0.0025152457 0.008243372 -0.002886737 0.00087672344 0.0067323307 0.0073589836 -0.008862877 0.021134464 0.010207792 0.004237233 -0.013669144 0.002779804 -0.0018690277 0.026393209 -0.009876201 -0.020092223 0.007969746 0.0041629686 -0.009346785 -0.027913772 0.014913713 -0.006227416 -0.007689735 0.0016745611 -0.03985484 0.015315936 0.0028556313 0.00216378 -0.0028075695 0.018262884 -0.016114803 -0.007197226 0.026602251 -0.018027093 0.0002296296 0.023136567 -0.01623452 -0.0067348806 0.029787669 -0.009246972 0.0016028851 -0.008533676 0.0008047746 -0.014619838 0.002858329 -0.011788413 -0.028675798 0.01118685 -0.016000006 0.016896298 -0.0015369257 0.023705754 0.00984701 -0.0069703655 0.016589915 0.011618192 -0.036423918 0.012269211 0.0070630526
