-0.16357318
-0.10662304
-0.08546784
-0.0022460287
0.20050272
0.11981225
0.12247216
-0.1734049
0.10229414
0.07521113
0.05278252
0.005022724
-0.07097056
0.0337101
0.054819677
0.071048535
-0.025331635
-0.019257728
-0.009065626
-0.14832628
-0.12585945
-0.079627655
-0.055611975
0.060302354
0.035429016
0.085545905
0.094081305
-0.009919014
0.09347627
0.114922166
-0.16185392
0.119386315
0.108275615
0.09442446
-0.05700809
0.0125826765
-0.005337585
-0.052301433
-0.10439801
-0.0534478
-0.004030607
-0.05182646
-0.011005217
-0.04879773
-0.12726311
7.9363435e-06
0.056486655
0.031837318
-0.079244815
-0.02785803
0.043396033
-0.0039886613
0.021114003
0.02103853
0.050699815
-0.057096276
0.035865527
0.0146542275
-0.040973134
-0.10526462
-0.05446789
-0.0024145904
0.06813649
-0.16163096
-0.038653072
0.078390144
-0.0037979996
-0.038196042
-0.1293048
-0.10502319
0.07656586
-0.04023381
-0.021299606
0.062792435
-0.12232743
-0.01442393
-0.1941441
-0.0727117
0.00015450355
-0.008498029
0.00043088524
-0.049609065
0.16190076
0.024598643
-0.08738151
-0.04108056
-0.023739466
0.018669153
-0.13007571
-0.023168536
0.1391933
-0.093155876
0.09524399
0.043819252
-0.070948854
0.077662624
0.037576497
-0.018251183
0.18167678
0.089646526
0.06481067
0.06254151
-0.050408978
0.10107036
-0.07263503
0.12048186
-0.0844562
-0.014058913
0.025756625
0.119495906
-0.022371966
-0.033026066
-0.023689808
0.068621464
0.17288348
-0.017650796
-0.13912894
0.19683279
0.014573904
-0.037810292
0.056374002
-0.0076089986
0.07570478
0.061395418
0.0058790594
0.024634365
0.080310434
-0.007167889
-0.07536122
0.0046633654
-0.115097575
-0.054080803
0.07346387
-0.030865248
0.0989992
0.019151693
0.068041824
0.0035654758
-0.045263134
0.14534825
0.17130205
0.02062846
-0.09618822
0.064902335
-0.04016608
-0.08321305
-0.0761565
-0.013334141
0.006763882
0.020526178
0.017745135
0.11184142
-0.09558105
0.05956248
-0.08583807
0.014455865
-0.13606526
0.123791106
-0.08543687
-0.006611299
0.12307761
0.042266726
-0.074002385
0.008657598
0.014251942
-0.015348806
0.09493322
0.0067661474
0.07359414
0.020375531
0.11293162
-0.196385
-0.11097648
0.011639458
-0.008401674
0.078255326
0.11058038
-0.0073960456
-0.041320726
0.029548753
0.092035435
0.12600634
-0.015729113
0.01824853
-0.19189768
0.21071415
0.039231002
0.05420728
-0.043822303
0.05439503
-0.13913442
0.005477345
-0.020257689
0.004229021
0.15286264
0.057895254
0.068437204
-0.025591826
-0.24893829
0.07631865
-0.021246335
0.117934585
0.07588561
0.04287404
0.037119128
-0.090715125
-0.10069739
-0.05417751
-0.047613446
-0.06716014
-0.08977937
0.06174246
-0.08370113
0.08454531
0.038212854
-0.07329522
-0.013337227
0.025792759
-0.07769922
0.014983451
0.06261066
-0.113938734
0.22550766
-0.02344464
0.26801452
-0.040192742
-0.03817662
0.009459583
-0.10735894
-0.0036919566
0.04794112
-0.070371896
-0.05747945
0.048606336
-0.036755577
-0.09750443
0.05533653
-0.13958457
-0.04106069
-0.044800527
-0.051094238
0.03657582
-0.038620844
-0.15362673
0.0732036
0.103568055
-0.09618698
-0.048155267
-0.029156134
-0.001703821
0.008869318
-0.03858581
-0.015777094
-0.06935332
0.21621677
0.14730845
0.06997833
0.06010543
-0.12605363
-0.018055992
0.07635964
-0.1389856
0.09386236
-0.01738753
-0.012254878
0.016758787
0.028976167
-0.035085224
-0.15736075
-0.09217465
0.04239816
-0.044428453
-0.15694499
0.065773696
-0.00067095255
-0.024152659
-0.0057223607
-0.056115728
0.019747978
-0.12868528
0.027032081
0.07213136
-0.13909033
-0.077186316
-0.041411053
-3.3809767e-05
-0.033057977
-0.004584265
0.04445646
-0.08254341
-0.055083122
0.015044405
-0.08466336
-0.05866879
-0.06466955
0.021852728
-0.08829643
0.12252184
0.050103415
-0.1233905
-0.017600283
0.049339842
0.086485945
-0.15657605
-0.08390433
0.033899978
-0.08148442
-0.015112872
-0.04491777
0.02490135
0.053198703
0.21455479
-0.142161
-0.20906115
-0.15865721
0.124606274
0.0005740537
0.027973676
0.07888167
-0.035656076
0.1701744
-0.085776076
-0.04892098
-0.03862265
0.10704941
-0.009839995
-0.1974435
-0.009621445
-0.07050743
-0.04697345
-0.022593308
-0.07775733
0.116050445
-0.017952468
0.11573132
-0.020410143
0.07141636
0.045084722
0.09557662
0.037638973
0.14120182
0.18156491
0.1082036
-0.14457048
-0.095564105
-0.09975609
0.0060027214
0.031574268
-0.2067115
-0.19126396
0.14228222
0.18673593
0.0027014958
-0.1701032
-0.24423054
0.035841394
0.16356829
0.03840217
-0.074018925
0.12583145
0.23827134
0.12827972
-0.18348694
0.10063787
-0.20280537
-0.055413194
-0.1096846
0.042433232
-0.01052525
-0.044189118
-0.08925539
-0.14452878
0.20365794
0.037575115
0.038236335
-0.10455521
-0.009204808
0.04951691
0.037161637
-0.106153846
0.07071481
-0.06331815
-0.050579168
-0.038870122
-0.1396467
0.014691035
-0.10183204
-0.05628115
0.012184769
0.0146408845
0.008455233
0.0858021
-0.048044078
-0.08363083
-0.08484054
-0.12042086
0.015505282
-0.1491105
0.033669524
0.015626483
-0.04439314
0.09008758
0.1292517
-0.050630562
-0.09478147
-0.11331398
0.029339222
0.016502712
-0.02914651
0.011372839
-0.11659633
0.06899403
-0.053645797
0.084537216
-0.052497715
0.014584913
0.055437755
-0.043822285
-0.038299374
0.045278545
-0.105651036
0.15421817
0.009476719
0.0168013
0.10202367
0.21104254
0.14912339
-0.07185741
-0.22141047
0.064306125
-0.092595965
0.07323335
-0.16452497
-0.024584282
0.05274777
-0.073533475
0.09498696
-0.0076329694
-0.12727112
0.063522786
-0.005939164
-0.09896498
0.07291892
-0.034356557
0.075708844
0.05536105
-0.09856036
-0.011674767
-0.0040194415
-0.1019621
0.14159335
0.005341718
0.11688917
0.075509004
0.09123713
0.046017945
0.010897546
-0.10469324
-0.018413631
-0.15997164
-0.017865395
-0.06120881
0.012343435
0.07325132
-0.02062815
-0.13418503
-0.10695801
-0.08414575
0.010966264
0.024730332
0.16312835
0.111435555
-0.0047736093
0.08944704
-0.121559694
0.11799031
-0.05124414
-0.079866834
-0.08670875
0.07783598
0.16791873
-0.010594172
0.09682702
0.12935954
-0.104699455
-0.056909297
-0.10480998
-0.08537275
0.033018276
-0.011671319
0.13263951
-0.0109922215
0.012436
0.10460126
0.02611719
0.1135963
-0.012498245
0.051111657
-0.11273153
-0.12731837
-0.064676926
0.00017480332
-0.0095093185
0.028896568
-0.044638194
-0.17134658
0.046215404
-0.014243606
-0.030549603
0.01596878
-0.05598249
-0.03324265
