-0.4539193
-0.0026207874
-0.858409
0.37823656
-0.00043428843
-0.04770659
0.39232555
-0.29881057
0.9962011
0.24436615
-0.13002512
0.47669843
0.9045427
-0.02493616
-0.45112067
0.066351674
-0.38007948
-0.46021616
-0.3169722
0.051501706
-0.525451
0.7239075
-0.11949995
0.31205952
0.25203815
-0.24442038
0.3683213
0.00041526076
-0.6942842
-0.46984977
0.029249845
-0.7181972
0.15315497
0.14155193
-0.33039033
-1.178756
0.93695545
0.21769989
-0.22537324
0.0037494258
-0.76158077
-0.055331737
0.2131451
-0.33670098
1.3607286
0.3938921
-0.067098975
0.63470036
-0.005588927
-0.43579242
0.0029911683
0.6226169
0.007889706
-0.05694538
-0.0036014125
-0.02048167
-0.008490485
-0.097921066
-1.7167265
-0.47336516
-0.028047789
-0.060308658
-0.6662594
-0.16576974
2.0995932
0.085096665
2.1018195
0.24969387
0.18365471
0.77411884
1.3584859
0.7840422
-0.022192352
0.5073276
0.27588773
-0.36893958
-0.22594133
0.01886176
1.0699747
0.43691817
0.117435314
0.6096788
0.17946601
0.11141739
-0.3202054
0.0045106662
-0.1723715
0.09210219
-0.48786464
1.141874
0.4350293
0.40268618
-0.023443982
0.5484304
0.39757714
0.06744972
0.119378135
0.46048746
-0.011916468
-0.44229326
-0.9165324
0.03518399
1.9808708
-0.81306595
-0.24919575
-0.028306084
0.08783374
-0.24873412
-0.07464873
-0.56225526
-0.6377937
0.018769365
-0.4623955
0.85016686
-0.4351861
0.43344116
0.05381441
0.09069332
0.3390334
0.0031405143
-0.6938799
0.7166365
1.1816803
0.07974793
1.5025412
0.33854455
0.10071445
0.009243816
0.19001754
-0.30113167
-0.118536845
1.0180968
-0.56867653
-0.5460027
-0.21249154
1.3968748
2.1240687
0.5037037
-0.010925528
1.622827
-0.35047692
-0.43229982
0.10500472
-0.002424993
0.26965478
-0.51748884
0.013553905
0.2531479
0.0034979563
0.85377014
0.1995186
0.579431
-0.18317375
-0.53071284
2.0362298
0.039153706
-0.5077093
0.6986897
-0.3500916
-0.0964412
-0.02680332
2.1892476
0.26822504
0.06932194
0.7564355
1.3998393
0.87412363
0.4848616
0.030620832
-0.3091842
0.7448118
1.3857194
-0.02109729
-0.47310758
-0.026515018
-0.12219852
0.014228243
0.12794316
-0.07461814
0.017371666
0.11988861
-0.6149038
-0.0129669495
0.38018346
0.10830316
-0.3454315
-0.62382966
-0.2647463
-0.27216917
0.052626938
-0.21619913
-0.013018982
-0.31126544
-0.017733024
-0.27552998
-0.21295795
-0.15666234
0.058357634
-0.4017353
0.38976422
-0.06582359
0.07707443
-0.16572976
-0.39954636
0.16538969
0.38805035
1.2790138
0.3432315
0.8783051
0.015253298
0.12538403
0.15315029
0.21221311
0.0038793543
-0.055557992
0.85567325
-0.072492845
0.045816958
-0.55820423
0.018256415
0.97128826
-0.29283315
0.23150215
-0.00034825152
-0.3521946
-0.14600451
-0.28621635
-0.061621893
-0.20003895
-0.09901732
-0.0105890455
0.109165244
-0.8474498
-0.19574736
-0.062384587
0.21438809
0.0036234537
4.800531
-0.006785701
0.4014432
0.5484792
0.0013174751
-0.36559772
0.26739773
0.6319264
1.462509
-0.032383557
0.24842109
0.2723943
-0.6388303
0.07503838
-0.064844385
-0.5992499
-0.23556656
-0.28079817
1.1915557
