0.0048553883 0.021467756 -0.0026592594 0.019464936 0.023268033 0.004479315 -0.014684051 -0.021606455 0.012195071 0.0335269 -0.11372844 -0.06576966 -0.023829613 -0.04683834 0.029099574 -0.0059651523 0.05515337 -0.07365795 0.029668335 0.03448488 0.015612016 0.0022513315 -0.080780335 0.027661696 0.009746049 0.03313098 -0.07157191 0.0051783314 -0.0697824 -0.033510514 0.034123864 -0.0076727564 -0.0024645955 0.0143445125 -0.057518978 -0.034846354 0.026674783 -0.035270818 -0.045842182 -0.019616947 -0.077770114 -0.06301396 -0.02505711 -0.07214156 -0.03930725 0.011934246 -0.019463401 0.02819311 0.039651714 -0.05158487 0.042437885 0.014238022 0.024022441 -0.05060589 -0.02485011 -0.0065690354 -0.056823026 0.017157366 0.03447973 0.028163929 -0.069523156 -0.08921895 0.018258465 0.051935837 0.03493985 -0.022756372 0.057935994 0.028257767 0.04690896 -0.015334314 0.015815828 -0.022768535 -0.032603838 -0.06413625 -0.05502044 0.0001712519 -0.0468614 0.020681836 -0.0017293172 0.0035203143 0.010814471 0.0014257178 -0.05010034 0.049330242 -0.06581578 -0.08855664 0.011423884 -0.013300726 0.0057716803 0.025207793 0.011239057 0.016266203 0.04123003 -0.029030103 -0.027408632 -0.008290635 0.009442341 -0.0031400288 -0.07785658 -0.005624696 0.007162397 0.016999189 -0.0035256497 -0.013246697 0.027610328 -0.06685865 -0.052996527 -0.022889748 0.02399687 0.011157656 0.014652547 0.02199997 0.009355765 -0.014206313 0.013820082 0.037543982 0.038353372 0.0051604332 -0.029259188 -0.028127491 0.0142991785 -0.0070174597 0.057104897 0.055535898 -0.0893768 -0.009896856 0.04260574 -0.098515876 -0.038939334 -0.06529649 0.034198124 -0.046373904 -0.0408945 -0.009501608 -0.053991824 -0.025956627 0.03397125 -0.044280734 -0.034922644 0.0069251633 -0.0071643703 -0.013508942 -0.025709353 -0.030980807 0.036534708 -0.010889377 -0.03668823 -0.0019938112 0.02415437 -0.0819348 -0.053679615 0.037141036 0.0062806737 -0.038540937 0.031350218 0.05066471 0.010472683 -0.020906352 -0.04769506 0.011112424 -0.039337654 0.022701297 -0.025109898 -0.013957285 -0.016208677 0.0065616216 0.00039143447 -0.09285511 -0.04086389 -0.01630812 0.06534628 0.020270294 -0.049040817 0.05882562 -0.027967837 -0.07207558 0.03780749 -0.039189506 -0.056030992 -0.0359884 -0.062072977 -0.016464712 -0.011212159 -0.06118207 0.01750251 0.03106209 -0.008169585 -0.028933385 -0.043699477 0.0028627557 0.020548264 -0.009938395 -0.058510628 0.0007849134 -0.021915516 -0.032016445 -0.038946174 0.004669687 0.018846234 0.04563327 0.0372507 0.017286468 -0.029015096 -0.064848095 0.024266213 0.021473542 0.0070270593 0.026828742 -0.040918194 -0.0012417547 -0.020116242 -0.042247962 0.012134455 0.023492832 0.032414034 0.013156358 0.021969728 -0.034656737 -0.023269685 0.044642475 -0.057244666 -0.010084496 0.015133779 0.028309222 0.07154699 -0.02079553 0.0457563 -0.03151889 -0.021593565 -0.030089067 -0.03640414 0.034328915 0.019387363 -0.035366133 0.020735797 0.048495255 -0.063183315 0.015199054 -0.030565515 -0.04517162 -0.043944627 -0.0620607 -0.06305292 0.006411 -0.00030904033 -0.10001394 -0.026949598 0.021971336 -0.040948454 0.033062413 -0.033854224 -0.058711074 -0.025451828 0.0345733 -0.04677081 -0.012906893 -0.06178329 -0.010173248 0.03850463 -0.0057846257 -0.006069013 0.0173572 -0.06326102 0.057924483 -0.03203542 -0.031004738 -0.061326038 -0.04106986 -0.0019820053 0.0025246842 0.06705376 -0.024222206 0.01784333 0.014107669 -0.030325927 -0.06573174 0.012717176 -0.019838955 0.030355077 0.07566462 0.033010427 -0.043013245 0.033166412 0.014464482 0.014773934 0.036585744 -0.016598629 -0.005030917 -0.04242344 -0.019286199 0.032179542 -0.013067098 0.0007357392 -0.05230901 0.009026362 0.009714598 -0.11230913 -0.004903997 0.0077533335 -0.008973807 -0.05025344 -0.051239636 -0.03047134 -0.04240767 0.008799147 -0.02941976 -0.05174808 0.049611673 -0.041492198 -0.028547563 -0.012371369 -0.10276627 -0.06945958 0.053963717 -0.06261369 -0.03700063 -0.008525247 -0.06173444 -0.029224068 -0.024289174 0.06699592 -0.032931987 -0.0841658 0.03982754 -0.042413134 0.0021871238 -0.041397568 -0.029606713 0.05585004 -0.022140656 -0.085440196 -0.038917515 -0.027109038 -0.039953437 0.014136751 -0.03378656 0.016283693 0.011240728 0.007491107 -0.11978089 -0.008393331 0.034433503 0.01566407 -0.009353958 -0.010050441 0.022687893 -0.031735312 -0.016983462 0.019814843 -0.08453959 -0.010254061 0.0071461606 0.026792448 0.044993423 -0.024750197 -0.037188116 -0.020786153 0.04724597 -0.02994578 -0.002443467 0.020113027 0.017165907 -0.03310047 -0.0058243917 0.0686395 0.015349154 -0.044695146 -0.0038256804 0.014832094 -0.029509412 -0.0050971527 0.0047636204 0.0632005 -0.09454786 -0.03108625 0.012246387 0.038522907 0.0081725065 -0.09149328 0.048182864 0.08351395 -0.024303105 -0.07614586 -0.06092085 -0.005085664 -0.059428513 0.00050103286 -0.029253487 -0.057711024 0.029148327 -0.016345112 -0.026488908 -0.05833166 0.023113078 -0.0039983056 -0.039515603 0.011177962 -0.015577534 0.021692194 0.0029043576 -0.017555414 -0.004563497 0.052538395 0.009638872 -0.027352639 0.0059139323 0.014528203 -0.009464043 0.03694688 0.021720508 0.0038481113 -0.011844202 -0.014330794 -0.042702235 -0.011536698 0.05478594 -0.0059232535 0.045606826 -0.015353151 -0.010123581 -0.045835275 -0.07341524 -0.04114478 -0.01455222 -0.056015942 0.03491952 0.023695618 0.026965667 0.042498354 0.01852606 0.006735199 -0.009638492 -0.015673978 0.0021948447 0.037311904 -0.03811561 -0.0064849937 0.020008318 -0.044734128 -0.00519028 -0.11131037 -0.060526334 -0.052264288 -0.0022767524 0.001405793 -0.051705755 -0.069436274 -0.040009383 -0.063777626 -0.07639044 -0.04426143 0.004299459 0.021115031 -0.029698802 0.018617451 -0.009925114 -0.0103203 0.041416265 0.00062695384 -0.0020442018 0.04321815 -0.08792745 0.004017009 -0.01130744 -0.06341027 0.010898352 0.004523952 -0.039957635 0.012534953 -0.054617595 -0.00038549234 -0.064752325 -0.02099725 0.008320546 -0.07046351 -0.024676211 0.0076010292 0.00797848 0.008213353 -0.038542755 -0.009554784 -0.050595123 -0.05565374 -0.0029432215 -0.06798141 -0.025203964 0.037881847 -0.02200329 0.0006969123 -0.0090931095 0.012712208 0.011374774 0.026109755 -0.027483996 -0.06428825 -0.0037450595 -0.058193635 0.026737798 -0.060658794 -0.01465353 -0.0038885465 -0.03403692 -0.035341516 -0.022617899 -0.01056778 0.00784718 0.03267631 -0.048171945 0.02153127 0.00031226993 -0.061989293 0.036892924
0.03833507 -0.0049145822 0.026101321 0.00805099 0.033411235 -0.008349554 0.020629086 -0.0043482687 0.04825844 0.039595462 -0.017445756 -0.014446722 0.032161225 0.010845417 0.039653912 -0.012861392 -0.012997425 0.039564867 -0.009082701 -0.014776918 -0.0022504348 -0.05086213 0.010151479 -0.021835193 0.029852143 0.046762478 -0.032215543 -0.025513401 -0.017422121 -0.031150319 0.015161777 -0.0023625265 -0.011018284 -0.0033584726 -0.02370401 0.029067613 0.0012979576 -0.017080273 -0.03666174 -0.014846133 0.012466413 0.007954378 -0.005416414 0.050536554 -0.029598039 -0.021043252 0.02417306 0.010568106 -0.017810227 0.027966032 -0.020492062 0.027265916 0.0063984273 -0.00726943 -0.0073445234 -0.006752793 -0.030679857 -0.002323514 -0.0048871585 -0.026456917 -0.054977752 -0.00063106953 0.004397567 -0.002624096 -0.014187459 0.015109568 -0.013717002 0.004086839 -0.04432937 0.030724816 0.04116333 -0.028211243 0.0046144463 0.024864834 -0.00733082 -0.00873048 -0.019787574 -0.004830766 -0.018155128 -0.02740116 0.008063219 -0.003539056 -0.020325294 -0.044279594 0.024252683 0.017270092 -0.03210853 -0.016439956 0.04376533 0.033205707 -0.02664159 0.03605433 -0.019052386 -0.0039518657 0.008406917 0.029210515 0.012621658 0.049477898 -0.0525202 -0.03338669 0.0056958995 0.0258857 0.0076001766 0.045204375 -0.0009458779 0.013728922 -0.012411609 0.0061749113 -0.017993417 -0.01381076 0.015119173 0.026384754 -0.04330083 -0.03297452 0.03991458 -0.029584391 -0.0066703935 0.022103155 -0.03530297 0.032175064 -0.017557591 0.035253465 -0.030068787 -0.0067763603 0.044912253 0.01162269 0.010227162 0.016881365 0.022392238 -0.033126283 -0.03259643 0.036067497 -0.025608497 -0.0032390137 0.004086118 -0.005556293 0.02169632 0.020015538 -0.0084105525 0.014677708 0.026804226 -0.014995902 0.022642938 -0.023886746 0.04273913 0.03982575 -0.022668423 -0.017614735 0.010496627 -0.012290955 0.035266574 0.03680257 -0.031766538 0.0037120224 0.047180932 -0.011614042 0.033093583 0.021723075 -0.0372941 0.033541717 0.0074398485 0.043896563 0.004301519 -0.017725952 0.012049174 0.032576367 0.020497896 -0.009196118 -0.02108613 0.0028257887 -0.020442119 0.033568908 -0.026451776 -0.047449537 -0.037103713 -0.009437269 0.02590245 0.03260223 -0.04169386 0.032150723 -0.02829143 0.040317543 0.0023145885 -0.034642998 0.04255 -0.0150774205 0.03717716 0.048451573 -0.020225374 -0.019341907 0.0394099 0.0038136195 -0.032194998 -0.0034124493 -0.029967783 0.0142281465 -0.009806905 -0.0017435201 0.0017584702 0.023040919 -0.031786624 -0.00039256486 -0.020206671 -0.03030238 -0.032581337 -0.023548612 0.049361188 0.035775032 0.026013937 -0.052431773 0.018504411 -0.05488969 0.021570774 0.04496031 0.019742558 -0.035354264 0.027440367 -0.004741089 -0.046916712 0.03512243 0.03264017 0.0046592955 0.03985201 -0.004425363 0.01008806 0.013166084 0.02872419 8.669277e-05 0.023647908 -0.04781589 0.044683862 -0.011873654 -0.013550595 -0.01902293 0.023656841 0.011368727 0.020087847 0.031375926 -0.033946518 0.01265271 -0.041791197 0.0024899044 -0.025892863 -0.0006902633 -0.015743006 -0.034106664 0.018706478 -0.026626615 0.00830961 0.023542486 0.036911916 -0.004062718 0.0066882325 -0.02102149 -0.043078724 -0.017693399 -0.006139738 -0.024083527 -0.0034255362 0.036950145 0.031804495 -0.01191507 -0.017315835 -0.019834872 0.005333652 -0.019037576 0.025417922 -0.014219083 -0.003842879 -0.0008173594 0.023608858 0.03807382 0.012881464 0.016996184 -0.019897776 0.015815897 0.008142635 -0.034622762 0.016354742 -0.025493434 0.026469147 0.040124305 0.024564099 -0.02054719 -0.025500774 0.026716955 0.050187014 -0.014113712 0.043702625 -0.019483829 -0.043855872 -0.020143108 0.030120008 0.0076099327 -0.007899084 0.036171734 0.038703643 0.009781579 -0.0114085 -0.022493385 -0.010778148 0.018077625 -0.01979108 0.012293698 -0.015510164 0.027120104 0.028133547 -0.0025827172 -0.06155636 -0.052507564 -0.021281574 0.038907208 -0.037035983 0.045328338 -0.013547652 -0.031572606 0.015412139 -0.0077214874 -0.06439241 0.021425432 -0.021752564 -0.02777701 -0.045410875 0.012495583 0.0068956325 -0.016162647 -0.023624834 -0.02205625 0.022384016 -0.03470919 0.036326263 -0.02178361 0.026517887 -0.029875303 -0.019371336 0.011852771 0.009324941 0.018088065 -0.03221048 -0.027404673 0.0110964235 -0.025915 -0.02437433 -0.042932957 0.028664256 0.03791613 -0.011107999 0.011753653 0.034643095 -0.0045986106 -0.0058429996 0.01710673 0.005854593 -0.016630337 -0.029969804 -0.009422743 0.012734294 -0.004674643 0.02310557 0.030548552 0.016118912 0.024935666 -0.016632909 0.03209252 -0.035960715 -0.015019001 -0.027208472 -0.016598957 -0.028537787 0.04156311 -0.047900755 0.01295661 -0.0036774883 -0.046360385 -0.014628909 -0.0135569265 -0.021680923 -0.007826063 0.01794656 0.016709395 -0.03520871 0.04274411 -0.0011824596 0.0065989546 -0.035812754 -0.03391144 0.00523864 0.0102334535 -0.005013286 0.030824482 0.039883282 -0.0025468527 -0.041565124 0.02045124 -0.008474095 -0.03643271 0.04257149 0.017394919 0.0036965052 -0.03372537 0.026974412 0.0052268566 0.025654774 0.004267499 0.032780517 -0.024212146 0.01764556 0.0031836894 0.025014823 0.010456456 -0.022388998 -0.002049389 0.009065201 -0.0011541154 -0.01819888 0.034798216 0.020919781 0.03057454 0.022546776 0.018504038 0.03138087 -0.05101913 0.029203983 0.0052701337 -0.017901316 -0.019815722 -0.0032878246 0.017724676 -0.043367624 -0.024069836 0.021218622 0.004810619 -0.040110085 -0.02958107 0.006185112 0.040265605 0.043043945 -0.03336943 -0.010135667 -0.030848615 -0.031140724 -0.007876659 0.03347583 -0.009069328 0.022134991 -0.016651027 -0.014382236 -0.016198697 -0.01111903 -0.00049360865 0.0081723165 0.0065245964 0.028544314 -0.022400212 -0.0059553464 0.018545268 0.035877187 -0.023311649 -0.0016526532 0.022533383 0.0017782109 0.028188685 -0.003021396 0.008266769 0.03707865 0.020545334 -0.025105514 -0.006085882 0.03933955 -0.013171181 -0.032627728 -0.0042904625 0.019439697 0.011416786 -0.029438788 -0.030701132 0.0365113 0.013291594 0.021396177 0.017199822 -0.040381506 0.04061297 0.034251165 0.043874174 -0.03792264 0.030355606 0.049664017 -0.020177562 0.03696228 -0.036557935 -0.042063676 -0.011605131 0.0039480217 0.010883134 -0.030527253 -0.054912046 0.022475773 -0.004206871 -0.004677909 0.01943707 -0.04660606 -0.032376595 -0.028460106 -0.018916767 -0.021179259 -0.027684644 -0.019141627 -0.020123592 0.034773145 -0.032822214 0.03668452 -0.012681367
-0.005405901 0.028517116 0.043765735 0.03820215 0.004780674 -0.033421822 0.0037377859 0.029829318 0.039259966 -0.018842518 0.047680356 -0.025987472 0.03582256 -0.0026963265 0.024628857 -0.019205933 -0.009899695 -0.0057706707 -0.006192338 8.7726854e-05 -0.020327518 0.062241938 0.03648889 0.0011201361 -0.011142603 0.00429191 -0.0051367967 0.032543726 0.044652004 0.006755486 0.009966475 -0.002148126 -0.013186008 -0.029514385 0.023275083 -0.008798378 -0.01461321 -0.01639919 0.013018488 -0.013334458 -0.052429646 -0.017127791 0.0027522326 0.03332324 0.018374179 -0.008042544 -0.0041341637 -0.012621645 -0.04192638 0.028361136 -0.032329693 0.035774864 -0.00023956821 -0.0018402714 -0.010617828 0.03707254 0.009032882 0.003544849 -0.006078116 0.038338386 -0.029786987 0.03326629 -0.03220587 -0.015153521 0.04163758 -0.01913337 0.03088926 -0.009243335 0.0062835817 0.009262582 0.02658847 -0.035025068 0.025887733 0.04311144 0.009637052 0.008311278 -0.01988538 -0.029215496 -0.046370756 -0.0065716864 -0.003771041 0.023315238 -0.008292476 0.0100053 -0.00014263467 -0.042444516 0.007580513 0.00370203 -0.017818894 0.013627031 -0.055321615 0.016173624 -0.008803444 -0.061298136 0.040422563 0.014316844 0.018412305 -0.009249382 0.003264182 0.0075124777 -0.015965762 0.017327907 0.04085329 -0.029120697 -0.036183104 -0.036561202 -0.022569252 -0.026778152 -0.019197686 0.029846804 0.0016528453 -0.012473153 -0.028139321 0.0099806795 -0.006598287 -0.018094165 0.017671758 0.03030093 0.026503498 -0.04915275 0.05147296 -0.009582476 0.0075735785 -0.009301686 -0.024549985 -0.025200825 -0.020764189 0.019399313 -0.004690332 -0.023632966 0.013799254 0.000941006 -0.0029526113 0.013852802 0.035873495 -0.03224861 0.02352312 -0.015998786 0.030126303 -0.041422334 0.027768748 0.021065025 -0.04231999 0.014830567 0.04246667 0.0008374736 0.034069583 0.02719697 -0.014322452 -0.03139386 0.023147898 0.023908066 0.03461022 0.036838073 0.0206331 -0.014576677 0.03596877 0.014787442 -0.0010854476 0.0006161112 0.04418487 -0.022518368 0.020562135 0.010221639 -0.0032788618 0.017566321 -0.036535002 -0.017161133 -0.040208053 -0.049733885 -0.021963282 -0.037479065 0.0295383 0.033870164 -0.049597148 -0.0146721145 0.016895723 -0.019099435 -0.000430389 -0.03325749 -0.036684293 -0.022640431 -0.00019619761 -0.015060939 0.033096854 0.030736947 -0.044024277 0.04261369 -0.00040978994 -0.027137922 0.0064369654 0.02809356 -0.0017774849 -0.0059263757 0.03663984 -0.038159616 -0.003610344 0.00852491 -0.039556347 0.03374559 -0.025442323 0.004122558 0.040721226 0.026394643 0.024411578 0.004796247 -0.016397234 0.0072869095 -0.01672199 0.04091154 0.04406117 -0.00045730136 0.042059086 -0.016160065 -0.0118518295 -0.038533863 -0.03392411 0.0043727993 -0.038437515 0.033727523 -0.0031027035 -0.03408921 -0.03823853 0.012180975 0.03376101 -0.00840268 -0.031849712 0.0017686212 0.01424139 0.006840311 -0.03409127 -0.009870696 -0.03455976 0.038296994 -0.02305782 0.04354671 -0.019934576 -0.01892733 -0.053328577 -0.017051827 -0.0036015252 -0.0033898735 -0.023418812 -0.00736357 -0.039042857 -0.023934618 0.028636334 -0.005664838 0.021119034 0.036609635 -0.0483922 0.0017888574 -0.030554997 -0.015387158 0.041168373 0.025192866 -0.009794117 -0.013643612 -0.051149257 -0.039974548 0.010367173 -0.022975495 0.035288442 -0.0060596117 0.023766082 0.0153040355 -0.03827716 -0.023876365 -0.039057218 0.024107542 -0.0017237861 0.0018031565 -0.009197317 0.0021793034 -0.040920362 0.037205476 0.005114685 -0.00057834963 -0.033812355 0.024701584 0.03088254 -0.01127733 0.010842365 0.004478127 -0.018338922 -0.011171954 -0.019711183 -0.039432492 -0.01053188 -0.0056631546 0.020026049 -0.012306894 0.029311076 0.015390605 -0.0003673381 0.01909349 -0.004873569 -0.037220456 -0.0009558863 -0.022740977 0.0409563 -0.033477157 -0.026761057 0.00031914076 -0.021117773 0.040383592 -0.016763074 -0.04259626 -0.0008508782 -0.022507466 0.020254964 -0.021622902 -0.03430999 -0.017899381 0.025515344 -0.038126603 -0.020274822 0.058162536 -0.031404864 0.046264663 -0.030004397 -0.008472111 -0.019114602 -0.004529969 0.021290962 -0.0469602 0.016264942 -0.023465037 -0.006384002 -0.04704568 -0.027384065 -0.03472473 0.03370724 0.021424877 -0.015659567 0.008896502 0.021242658 0.0014182501 0.0066145696 0.012286463 -0.049808756 -0.04424567 0.019712664 -0.040012494 0.014211306 0.029269487 0.013966493 0.015765648 0.019237006 -0.005768262 -0.0013147807 0.01300895 -0.040782537 0.030319208 0.02424505 0.036522627 -0.007615377 0.0059241545 0.0098257875 0.034203753 0.016182277 -0.016929386 0.0052082003 0.017982915 0.012557561 -0.0074648587 0.02196651 0.029262487 0.010024083 0.005713151 -0.004578574 -0.01639321 -0.010817439 0.029446391 0.0069415644 0.006533362 -0.012003472 0.027719459 -0.015906861 -0.034491315 0.037626356 -0.033579905 0.03711454 0.04083961 -0.023081627 0.027594589 -0.015543759 -0.010064415 -0.038517706 -0.022517838 -0.020306328 0.046901867 0.024958843 0.021884363 0.03599648 -0.034484923 0.004647425 0.015112041 -0.0083424905 -0.008511608 -0.014256739 -0.031875264 -0.05776137 -0.038600024 0.025239829 -0.019867525 0.008074848 0.013724705 -0.004852268 -0.046109423 0.0043575126 0.0090895165 0.010728484 0.027396899 -0.030061187 -0.01652651 0.005109781 -0.007275105 0.00055639935 -0.037953533 0.03503912 -0.0008409756 -0.045954198 0.02908589 -0.0056719626 -0.029875288 -0.010012296 -0.0023954415 0.025494298 -0.029984126 -0.011757399 0.043184686 0.0435403 0.03550858 0.018687645 -0.049811997 0.025875386 -0.015770203 -0.038095053 0.0390835 0.036203433 -0.04914693 0.022307146 -0.00747608 0.051833104 0.018644448 0.015273521 0.010110133 -0.04385154 0.0020576008 -0.019717285 -0.004031538 0.00867572 -0.009570888 -0.02641583 0.024903785 -0.022133237 0.03709288 -0.0070218374 0.037041247 0.041766968 -0.036310453 0.017268777 -0.028420521 -0.0053826477 0.04573984 0.01375915 0.022557637 0.028733598 0.0042029284 -0.03730273 0.043417495 -0.040101968 -0.019945342 0.034297045 0.030705204 -0.0012321919 -0.021825735 -0.018832084 -0.035003632 0.021592421 -0.014527874 0.044389524 -0.034939498 -0.04455804 0.01217416 0.040392943 -0.040828966 0.014777343 0.02716414 -0.03872936 -0.034006566 -0.040893316 0.0027644837 -0.008683631 -0.03608383 0.049852587 0.041185845 -0.036144335 0.015328658 0.027372522 0.029457819 0.0127305165 0.043566898 0.030532993 0.007383569 0.0011475737 -0.0014548332 -0.0346011 0.033748977 0.01869956 -0.023108032
0.022900714 0.045324318 -0.007148779 0.00890567 0.021603443 0.013484812 -0.0077311243 -0.007695379 0.038976494 0.046351533 0.024930086 -0.010299244 -0.0081019765 -0.029278476 -0.00027624317 0.041292507 -0.019006379 0.039039038 -0.047096748 -0.025553524 -0.002210395 0.0022260814 -0.022122284 -0.01774035 0.013850652 -0.016129117 -0.023039218 -0.0452203 -0.04048009 -0.038005456 0.028826723 0.018322406 -0.042758815 0.0057983957 -0.025887407 -0.032494802 0.04325065 -0.0728986 -0.040817298 -0.03187361 0.017812585 -0.001715965 0.013202578 0.03256782 0.036381252 0.026367143 0.025941288 -0.017775677 0.03722478 0.022826225 0.061307386 -0.047504164 0.020169305 -0.0044695255 -0.009063576 0.027786635 -0.011910529 0.03265902 0.0033130124 -0.00038348572 -0.052010134 -0.04870925 -0.02804919 0.03182042 0.021963226 -0.010930387 0.02871596 0.024189554 0.036628086 -0.028583854 0.0275196 -0.024707284 0.0025185647 0.037349455 0.0011175901 0.0035387 0.043613754 0.033456657 0.010148217 -0.012255716 -0.029776432 0.03100182 0.0017000855 -0.014294962 0.02854658 -0.022164743 -0.04504491 0.031564824 -0.025279846 0.011508496 -0.0040148566 -0.02172646 0.04750134 -0.056910783 0.0257617 0.017020991 0.030767256 0.045477916 -0.015638717 -0.036364634 -0.038314227 0.0123686 0.020024525 -0.016067447 0.0073568965 -0.014715992 0.04220705 -0.03326868 -0.017839286 0.037279297 -0.027186269 -0.03294625 0.028552677 0.0095206695 -0.03981238 -0.056791827 -0.025184352 -0.022922473 -0.036845166 -0.034849077 -0.025887452 0.012566272 0.048891578 0.043567084 -0.00960453 0.034751967 -0.03414374 -0.017655361 0.0047902777 -0.01069729 -0.0146082295 0.019706216 -0.032276757 0.00013215824 0.0048145936 0.042640854 0.035330415 0.03046131 -0.007368486 -0.048160452 -0.0530628 0.0328238 -0.015759192 -0.005418735 0.017907161 -0.02546778 -0.0032396147 0.022019133 -0.05157022 0.029404802 0.05051602 0.00086630427 0.022951512 -0.003684708 -0.05455558 -0.040302314 0.030680863 -0.021647267 -0.028922698 0.039551307 -0.017127598 -0.0063648834 0.034194764 -0.0007029891 -0.026508167 0.0218297 -0.004333378 0.03144451 -0.009539139 0.0050463392 0.009741874 -0.0060629207 0.04706395 -0.04717648 -0.0148237115 0.010733666 0.00431653 0.024258649 -0.023616219 -0.0034126984 0.001659206 -0.015256467 0.011214908 0.02347107 -0.024065051 0.012278449 -0.022769773 -0.02331974 0.0060087056 -0.040640693 0.022126827 -0.018653218 -0.03771043 0.0056474153 0.021209575 0.0068679275 -0.03243295 -0.0084652165 -0.018990194 0.041525457 0.007844447 0.009425394 0.024850998 -4.153117e-05 0.028976627 -0.0066265934 0.025485802 -0.034740362 0.016069489 -0.024791006 0.019889398 -0.0022034189 -0.018763281 0.042873774 -0.02041987 0.044272512 -0.02273061 -0.032604687 -0.039257944 -0.0048878547 0.032693844 0.011996285 0.037812367 0.03348176 0.03262966 0.009779592 -0.008701379 0.0056804037 0.0014216672 -0.02957187 -0.029519876 0.0014031508 0.008735547 -0.05540164 0.011043316 -0.021578848 -0.035712153 -0.039916426 -0.02767194 0.026886495 -0.031119484 0.007323592 0.03298693 0.02339435 0.018886114 0.0068268417 -0.0026824716 -0.03734208 -0.035388984 -0.039946068 -0.026632411 0.0017605271 -0.0058811163 0.033909608 0.05013867 0.01982255 -0.036032792 0.029188793 0.031270746 -0.035289496 0.042986132 0.026417231 -0.023410816 0.035302456 -0.0012656264 0.04303092 -0.004401056 0.0060798763 -0.021579467 -0.024599709 -0.024861248 -0.0284949 0.0153066935 0.040865205 0.04409607 0.023451854 -0.03740971 -0.014032267 -0.046560735 0.0055073765 0.045378696 -0.00054994994 0.027850596 0.02695126 -0.0058415774 0.044444654 -0.031399965 0.015123019 -0.029315155 0.026265385 -0.0032821728 0.01980207 0.04467201 0.023835666 -0.008930914 -0.0068374244 0.013706586 -0.0145189045 0.01916198 -0.013156521 0.006557105 0.040483613 0.015024594 0.029780854 -0.011178189 -0.021010831 0.017671762 -0.02550996 -0.0021563838 -0.017975198 0.032278538 0.019358763 -0.007100137 -0.005965495 -0.020034842 -0.03906747 0.008390939 0.021751352 -0.007821742 -0.038783308 -0.030580143 0.01618389 -0.05476513 -0.024127157 -0.037724733 0.03308198 -0.028092496 0.0052217664 -0.046008494 -0.017390907 -0.0024616222 0.040235475 0.03268741 0.020895254 0.0038213616 0.030476738 0.022837274 0.0119023295 0.028064793 0.013409602 -0.016029006 -0.044388026 0.049315203 -0.04863214 -0.007871399 -0.0021946519 -0.03321546 0.033435315 -0.0081932545 0.047280636 -0.041341968 -0.02886941 -0.037759874 -0.03072748 -0.011067242 -0.031078907 -0.0019580503 -0.041628677 -0.011092239 -0.030612774 -0.056016263 -0.010051578 0.0059636277 0.043785688 0.045493413 0.029292917 0.032967426 -0.027080545 -0.008319722 -0.0014507897 0.018845836 -0.039754253 0.01473215 -0.059254833 -0.045544375 -0.018475536 -0.044406686 0.031100225 0.0014362452 0.038578935 -0.041619886 -0.020240363 -0.01808413 0.018096158 0.04248337 -0.031463694 0.011600798 -0.02497027 -0.022011353 0.0033614703 0.024115752 -0.041409023 -0.022429792 -0.037140716 0.017413886 0.032045662 0.024009138 0.016145494 0.035442166 0.0324401 -0.033228375 0.016017355 -0.017202517 0.019993242 0.023325399 -0.0032392612 -0.0267794 0.0055328244 0.0109246755 -0.0035861805 0.027746096 0.010389716 0.016501596 0.010650748 -0.0070700017 -0.018829035 0.010212231 -0.02935682 0.009815047 -0.008281827 -0.0137710115 -0.016054247 -0.015952425 0.031315856 0.038793072 0.014397816 -0.0028696973 0.019356174 -0.041493777 0.013693347 -0.03121423 -0.042127058 0.0011435893 0.010654775 0.007941182 0.034163147 0.004063543 -0.019768119 0.00016877087 -0.017570203 -0.033074003 -0.023615383 -0.033425473 0.053397693 -0.0013212374 0.0386897 -0.033486344 -0.040036127 -0.019753488 0.02542497 -0.0016780894 -0.01613518 -0.03875245 0.031076591 0.020927118 -0.022128155 -0.0066362205 -0.021736754 -0.030665379 0.05006349 0.00015849966 -0.019626895 -0.03387367 -0.023942338 -0.032383036 -0.039307844 0.028937621 0.023715936 0.030424029 0.026448973 0.02811438 0.0052741533 0.0020840156 0.0145133585 0.024899432 0.020082599 -0.023057122 0.059779305 0.01865333 0.015993796 -0.040406324 -0.029067872 -0.04632551 0.0008960684 -0.016147051 -0.018656405 -0.008445552 0.042982943 0.009090681 0.050741445 -0.018972496 -0.025132492 -0.005161405 -0.05360876 0.029991733 -0.04918858 0.04241495 0.0445252 -0.0051528416 -0.019721288 0.030874535 -0.0016747508 -0.013675431 0.041493054 -0.0020099045 0.037738413 0.025698908 0.030470736 0.028553491 0.031474635 0.04355549 0.030812386
-0.037699163 -0.005849537 0.023070907 -0.040628962 -0.038332626 -0.01433738 -0.023593953 -0.038602173 -0.030013356 -0.026268072 -0.033303536 -0.0554583 0.033014525 0.006779103 -0.0204741 0.013081822 -0.014414787 0.025607772 -0.016956659 0.06375575 -0.0048219105 -0.027512968 -0.06268836 0.040109664 0.024569044 -0.009540016 0.017018858 0.015976902 -0.04632668 -0.034714762 0.032547265 -0.032802735 0.03773259 0.0004989674 0.021417681 -0.035309855 0.03278488 -0.07027214 0.021467138 0.0058378014 -0.08113894 -0.0034615905 -0.0074480963 0.008239289 -0.017597532 0.014311166 0.010810633 -0.009341484 0.004846474 0.022348465 0.01929146 -0.0023786402 -0.030994982 -0.031207321 -0.04856916 0.024599943 -0.02326512 0.0481587 0.011700855 0.02606493 -0.09072039 0.0042405995 -0.05038845 -0.029245054 -0.054887313 0.027752038 -0.029692784 -0.0046947636 -0.00880846 0.017237443 0.0018000915 0.033067822 -0.030689998 0.007445163 -0.08207322 -0.020823449 0.012491472 0.04848055 -0.02360764 0.037688017 -0.039503347 -0.06492423 -0.038992476 -0.091823444 0.012780475 -0.012087638 0.03869684 -0.014349484 -0.0054804455 0.021871684 -0.0011439741 0.039549045 0.004802444 -0.0005580097 0.02013614 0.027461627 0.007079945 0.03380453 -0.021634351 -0.00088995823 0.021780355 0.014117383 0.013577096 -0.0014090225 0.0459251 -0.028511686 -0.026948314 0.000105653344 -0.030795703 0.0021302705 -0.035211246 -0.040125024 -0.058452196 0.02257002 -0.018378297 -0.025345968 -0.0040783174 -0.015485188 0.015564473 -0.029720066 0.014912658 -0.039075814 -0.04360113 -0.026835108 -0.052628018 0.020053888 -0.0035414828 0.035654273 -0.0534473 -0.027471391 -0.0010275623 -0.005981227 0.011026606 -0.0067800875 0.012451685 -0.058557 0.011639496 0.0027896643 -0.019756202 -0.036910914 0.033046998 -0.028920278 -0.057995968 -0.045089703 -0.043786217 0.020148793 -0.006146485 0.028487625 -0.010395838 -0.05546445 -0.016636487 0.029769737 0.01422447 -0.034819014 -0.013464688 -0.009092493 -0.01802467 -0.04352958 0.042685725 0.036447193 -0.003199013 0.04290531 -0.029739143 -0.036090612 -0.03159643 -0.0045509585 0.009465348 0.030793248 -0.002432167 -0.0005914228 0.041379042 0.015161418 0.002274143 -0.030841235 -0.03562009 -0.023516832 -0.011416473 -0.045396246 0.027657341 -0.04529536 0.01633183 0.013472522 0.004419081 0.036483046 -0.011649015 0.019170798 0.015816364 0.014773281 0.006307948 0.03943407 -0.008086983 -0.045893457 -0.025710415 0.03692376 -0.044729415 0.011940644 -0.028573165 0.011683154 0.02585944 -0.049691927 0.0071181837 -0.0015986832 0.027687257 0.026947288 -0.016703997 0.023231568 0.027230551 0.028086755 -0.031005552 -0.043816075 0.03858605 -0.03828243 0.052462306 -0.015338629 -0.06456143 -0.026783545 -0.04126546 0.016447188 -0.061464623 -0.014005384 0.023661926 0.02754122 -0.053556167 -0.024343798 -0.05587693 -0.044621583 0.027618872 0.01125754 0.0439942 -0.03460629 -0.018945197 0.06463146 -0.0037228453 0.011889188 0.06185035 0.015078296 -0.07393993 0.0045398474 0.009387749 -0.012872189 0.021268815 -0.058959432 0.0009540422 0.004329887 -0.050734267 0.016473943 0.02115103 -0.042957246 -0.037031308 -0.004367244 -0.009335804 0.02819739 0.0003810534 -0.022860616 -0.031046655 0.028343702 -0.04365262 -0.006450362 0.016006382 -0.008799454 0.021352118 -0.04157547 -0.0023878426 0.03960739 0.024035327 2.5684198e-05 0.0065996964 -0.062560774 -0.034607157 -0.01561642 0.016370501 0.051824547 0.008308826 -0.002401123 0.040049654 -0.0034042003 -0.02623842 -0.010060525 0.031549387 -0.049521524 -0.029007036 0.031935547 0.014597163 -0.021570439 0.0109441 -0.0043929606 0.012794803 0.012422857 -0.029990723 -0.033275846 0.023765763 -0.039758664 0.015488608 -0.037399847 0.005619592 0.024782766 -0.035644453 -0.046982624 -0.026488809 -0.024826024 -0.013304315 0.023801299 -0.0038936262 -0.026945736 0.0014235952 0.009419829 0.027085783 -0.042954195 -0.035509393 0.023680914 0.008139204 -0.017537724 0.02787178 0.031208314 0.023792138 0.0083522815 0.0034973307 0.04654815 -0.02604667 0.013198005 -0.0072664306 -0.03927743 -0.0028775032 -0.00042544884 -0.0075951293 -0.012504815 0.03731936 0.028513523 0.034345184 -0.031664822 0.039058875 -0.02597893 0.018884316 0.03004093 0.057778943 0.035290103 -0.036930017 0.0065032924 0.0017420234 0.00575023 -0.056440692 -0.03364823 -0.027658263 -0.043209918 0.035842273 -0.029561413 -0.03524945 -0.023608018 -0.011317216 -0.009937013 0.021651514 -0.04865231 -0.04045585 -0.04132809 -0.0012121628 -0.033169303 0.031793077 0.022312224 0.023907376 0.03725342 0.023797547 -0.0027713515 -0.038397916 0.013184731 -0.028383387 -0.06595577 -0.013703298 -0.04809485 0.030981416 0.023747414 -0.02524018 0.02404196 -0.054076985 0.029091157 0.016707232 0.054710794 -0.009458355 0.0091437325 -0.0029966545 0.017692897 -0.051294073 -0.038847443 0.018898724 0.019806108 -0.045313276 -0.00044217514 0.05045225 0.058617022 -0.017565364 0.005193806 0.00829839 0.0026474341 -0.029120939 0.047065996 -0.0037834735 -0.036480457 -0.02199965 0.00849972 0.03828409 -0.049018085 -0.0286965 0.026331104 0.038039885 -0.0303695 -0.0030547308 0.011933057 0.03692862 0.045067955 0.005788668 0.03977147 -0.049520556 0.03685029 -0.047936615 -0.05651583 -0.07273378 -0.008345762 0.008835684 0.03419443 -0.014882219 -0.07758673 0.019548468 0.028011654 -0.08774208 -0.005437045 0.017149916 0.027688248 0.030832548 -0.015703013 -0.02207442 0.018157827 -0.049529698 0.047217265 -0.027984915 0.010793196 0.007852299 -0.02159135 -0.012226548 -0.023125634 0.0016188761 0.0010049394 -0.025459267 0.0049462216 -0.02899599 0.0004606134 -0.0023479525 -0.021005113 0.023195213 -0.0049707917 -0.0065552625 -0.004506808 -0.05476492 -0.042418167 0.002851831 -0.030716794 -0.0025979378 0.041811522 -0.0060413564 0.0032170631 -0.0067816894 -0.03933671 0.014712169 0.041359898 -0.01455642 -0.028697843 -0.011460644 -0.01935252 -0.024859263 -0.017600985 -0.010717647 0.019071203 -0.037270553 -0.037313167 -0.017133422 -0.06051998 0.017751895 -0.02219573 0.0312 0.035491634 0.003556333 -0.010926179 -0.00945567 0.031371817 -0.058235858 0.027663602 -0.012347443 -0.04258596 -0.011123281 0.029674785 -0.042966466 -0.008108543 -0.028477604 -0.005545282 0.04060699 0.010421317 -0.048574716 -0.008777057 0.005660704 0.011059993 -0.01573686 -0.009876598 -0.072246015 0.03554049 -0.019064752 0.04410389 -0.024875237 -0.020510226 -0.011779614 -0.009238556 0.016324593 0.05364597 -0.008377577 -0.023792226
-0.01266341 0.018134814 0.0010947543 0.00986746 -0.012693439 -0.042736877 0.054072563 0.05913403 -0.025665661 0.0142499935 0.030403389 0.02542856 -0.009796443 0.010698951 -0.04152931 -0.0057220603 -0.024788251 -0.04317243 -0.0047815563 0.049194843 0.026947789 0.0040291254 -0.017420415 -0.0763439 -0.05748714 -0.042376157 0.024436077 0.028911904 0.06263659 0.0045587225 -0.008658932 0.03131893 0.002725086 0.017501028 -0.007916582 -0.01685353 -0.011231064 -0.012749761 0.020373896 0.0046492424 0.026481504 -0.052286558 -0.014553442 0.042860508 -0.026253566 0.0332032 0.013308063 -0.039910957 -0.051741406 0.010196811 0.01609414 0.029992798 -0.006540871 -0.010045558 0.025722703 -0.055650108 0.0036658817 -0.039390363 -0.015861098 -0.03200033 -0.047945246 -0.042443376 0.0016473663 0.014952001 -0.0030005986 0.0028941443 -0.001934912 -0.01471022 0.02773753 0.051108614 0.0145936115 0.0039964626 -0.021749781 -0.035542175 0.040960133 -0.021841742 0.037166983 -0.035221264 0.009529704 -0.0031132547 0.020530222 -0.031854447 -0.010553291 -0.03988454 -0.016145695 -0.0025487712 0.018413661 -0.026990226 -0.042639412 -0.03594469 -0.02253058 -0.049209025 0.024751456 0.0066546183 0.014722022 0.033222448 0.03976136 -0.03567172 -0.020010801 0.010720168 -0.014635327 0.039550267 0.02660768 0.021840382 -0.0055957143 0.002944892 0.0071603428 0.0020538294 -0.011738421 0.011705215 -0.036845468 -0.054303046 -0.0009007944 -0.033941515 -0.013757298 0.012650159 0.011451241 0.04748924 0.017296221 -0.038438 0.023839409 0.016233783 -0.011026431 0.037337318 -0.04957567 -0.049329218 0.040353056 0.006054359 0.039707474 0.026662808 0.047459587 -0.015749834 0.016902708 -0.03515364 0.04590838 0.025639037 0.02206707 -0.025894867 0.006553706 -0.008755146 -0.013820152 -0.029441409 -0.057943832 -0.014237158 -0.031183127 -0.014927588 -0.021324117 0.037790097 -0.0150063075 -0.0003329152 -0.035163756 -0.017736413 -0.009305456 -0.06541798 -0.0037783342 0.039236885 0.009673695 0.016376132 -0.0190888 0.03511785 -0.001128325 0.023132646 0.036153898 0.0043386808 -0.014168144 0.016492223 0.04704135 -0.010361616 0.018615045 0.029449066 0.0073726685 0.04330739 0.031420425 -0.009816574 0.024551118 0.023037398 -0.052736826 0.0072967517 -0.038491666 0.046632815 0.030027112 -0.0062346295 0.013095139 -0.0015381293 0.052871894 -0.023011712 0.0031874704 0.027475834 0.0057292576 0.039777737 0.028238555 -0.011964585 0.03825204 -0.015690776 -0.017154988 0.036211833 0.04112237 -0.016628373 0.029244209 0.030558681 -0.004484006 -0.020284176 -0.026292818 -0.031658567 0.035026345 0.03899924 0.05496151 0.0057304734 -0.040365558 0.034656454 -0.043555204 -0.010892305 -0.029214751 0.03948309 0.004339029 -0.013296903 -0.016975297 0.000676853 -0.026007064 -0.020112447 -0.012897908 0.023728045 -0.04573577 -0.002760419 -0.036721442 0.036392316 0.030913806 -0.06792927 -0.036276888 0.014813109 0.048531987 0.031965066 -0.024205655 0.025336104 -0.020834118 0.0030265194 0.02340282 -0.020027325 0.018152473 0.0030012634 0.0070576775 0.007041956 -0.0102106985 0.007645927 0.032935333 -0.0191905 0.05889268 0.014708401 0.012488747 -0.008968997 0.041092593 -0.059281006 0.026179712 0.024485402 0.008906971 0.02292238 0.00010203007 0.007034706 0.0034304985 0.043826737 0.047887444 0.07181058 0.012484758 0.0045294333 0.011480383 -0.024747986 0.03373795 0.021731958 0.021873267 -0.006441111 -0.059544325 0.021153511 -0.016510995 0.03531276 0.030546706 -0.029759316 0.053255178 0.03424811 0.01093899 0.029524121 -0.0038781776 0.033522673 0.018196553 0.020483082 -0.008951245 0.04067669 -0.08053647 0.04824353 -0.026781552 0.05638346 0.050417192 0.0003768944 -0.002412346 -0.0003102015 -0.061332498 -0.029742396 -0.0041782726 -0.021018304 0.047232218 -0.036266968 0.01980593 -0.035804175 -0.033531692 -0.032385174 -0.0016943075 0.036994502 -0.05152253 0.03632841 0.024700519 -0.0122319 0.013318095 -0.041936006 0.03656284 -0.01998415 0.02097462 -0.020095577 -0.022627184 0.044124253 -0.031203154 0.037582844 0.037711624 0.025130436 -0.0019147228 -0.008523971 0.05827924 -0.043411918 0.0046389517 0.06608589 0.038263988 -0.028523494 -0.07053946 0.0032458894 0.035905797 -0.008553422 0.0010344962 -0.041674647 -0.03618236 0.020002568 -0.053727407 -0.043586824 -0.030994957 -0.012595236 -0.022065036 0.062052455 -0.044309143 0.030592246 -0.022776857 0.011781507 0.0046798177 -0.044593252 -0.011930902 0.030196324 0.042029776 0.0010491319 -0.022508973 -0.019947158 -0.03402446 -0.0078848265 -0.04651114 0.016948178 -0.007777681 -0.041009694 0.026251178 -0.019435659 0.061098732 -0.021654483 0.040587887 0.012536436 -0.056640234 0.0011231748 -0.019048233 0.033948123 -0.036043994 -0.022240072 0.044445187 0.024534047 0.05386502 0.05159437 -0.0059364596 0.018608335 0.03440047 -0.0017343779 -0.023628578 -0.007199518 -0.051914316 -0.010304827 -0.074804075 -0.0040288204 0.007824597 0.06080006 -0.008133215 0.034828432 0.02559568 -0.033849258 0.014382413 -0.032217734 -0.02715323 0.04051332 0.026482737 0.034834836 0.041117013 -0.02907412 0.022546012 0.034119237 0.013308518 0.00890527 -0.058291614 0.025876518 -0.017692614 0.041146416 0.011458554 0.015539061 -0.021339422 0.012311147 0.0040131398 -0.064847365 0.013193446 6.318225e-05 -0.0033817291 0.012674713 0.017987829 0.0122837145 -0.024220912 -0.015851986 -0.051796783 -0.0042603356 0.010049681 0.033096343 -0.008529872 0.028305769 -0.04674067 -0.029039972 -0.008197511 0.0027169115 0.024134865 -0.036310453 -0.004922705 -0.022539875 0.022355122 -0.009663871 0.0015078982 -0.04811201 -0.018285682 -0.0020146999 -0.058427565 -0.0040636836 -0.014744309 0.010024085 0.012629744 -0.017179653 0.026257494 0.05196633 -0.02182112 -0.02940243 0.017910246 -0.027909292 -0.05140438 -0.016238049 0.013350209 0.036782622 -0.009012983 0.009547261 -0.005793739 0.00042416836 -0.020993778 -0.0030560934 0.00019441226 0.018909615 0.046229217 -0.008911587 -0.033502743 -0.018457573 -0.0036911424 0.0529295 0.003557505 -0.011268142 -0.012411127 0.00046675024 -0.013886529 0.023100903 0.024843134 -0.022214059 -0.02764397 0.016014095 0.017719327 0.050466225 0.003519632 -0.018826801 0.007098371 -0.04513382 -0.001583149 -0.037343264 -0.020454254 0.025257986 0.007340133 0.041273452 0.052209757 -0.025090832 0.0127905775 -0.013882179 0.030543236 -0.022610497 0.06492515 -0.018025603 -0.01967376 -0.07041868 0.025623985 -0.008880965 -0.0177307 -0.023864836 0.039732903 0.0617979
0.026191002 -0.04010127 -0.024604872 0.019771557 0.00778629 -0.027635727 0.009206897 0.039333716 -0.03126039 -0.019304918 0.0032878523 -0.013451356 0.019199481 0.0067421366 0.020945523 -0.038547076 -0.0015714401 0.025390487 0.019549701 0.04502545 -0.0007511025 0.038656473 0.037239037 -0.04038856 0.023883272 0.040687945 0.040338382 -0.005979233 0.002556401 -0.05028319 0.0025632158 -0.022919185 -0.022993198 0.041998718 0.006694403 -0.009578087 -0.044025894 0.029755011 0.0033641777 -0.014647575 0.023941474 0.03241773 0.0006462814 -0.027755884 -0.031087844 -0.036828298 -0.014458284 -0.022639992 0.033487752 0.0054117027 -0.0025016277 0.021900833 0.043368444 0.016599484 -0.012313147 0.010885191 -0.023608642 0.025758479 0.005413572 0.007966704 0.007351236 -0.003234168 -0.031020977 0.036021218 -0.0042237504 0.042055175 0.009001328 0.018717535 -0.039035294 0.039709497 0.028237887 0.037643872 0.035523284 -0.019877795 0.016336406 -0.023193778 0.012823306 -0.035731412 0.012724529 0.02664398 -0.00096771226 0.022957647 -0.003181093 -0.008423375 -0.022019975 -0.016083311 -0.0006898352 -0.017648226 -0.008711866 -0.0049968166 0.012747332 -0.0046907533 -0.022425074 0.018702898 0.0016734725 0.01099718 0.029921008 -0.04460825 -0.003492292 0.008329267 -0.008475088 -0.042857274 -0.036512613 -0.040640775 -0.04479107 0.022030791 -0.0014622125 0.029319437 -0.00065815536 0.018794306 -0.0067538386 -0.00041272634 0.022388168 -0.017546859 0.035384472 0.006305364 -0.0034283996 -0.012880596 -0.00661942 -0.0070504807 0.016420992 -0.0050679967 0.01982557 -0.01836035 0.04099897 -0.023805816 0.02775435 -0.010253496 -0.025221918 -0.043838993 -0.043251265 0.039306413 -0.0110194255 0.029351972 0.05688924 -0.01168023 0.032743968 0.04049885 0.02233764 0.04521433 -0.011534789 -0.0018790192 -0.006961904 -0.036622435 0.03295225 -0.02630687 -0.047448125 0.00025508858 0.0012004871 -0.007076125 0.031951357 -0.017979726 0.0072809667 0.043487944 -0.0026770297 -0.008622392 -5.552662e-05 0.033857178 0.0032268309 0.021680126 0.01563794 -0.037502073 0.025984654 -0.015567073 0.01968634 -0.012113879 -0.011833522 -4.8577664e-07 0.0087210825 -0.02900116 0.012101493 0.010981245 -0.04013237 -0.00668943 0.019372478 0.017594809 0.008652434 -0.02436429 -0.025340354 -0.019808251 0.026950292 -0.0011135536 0.0011659962 0.025196783 0.0010741567 0.033168998 -0.008254658 -0.052485544 0.027809028 0.014895851 0.025734164 -0.027390845 -0.019199751 -0.03681196 0.027576158 -0.035339788 -0.043391194 0.027299872 0.018924214 -0.018311948 0.017804686 0.009061322 -0.0065004737 -0.020980362 0.011833129 -0.012549473 0.01939119 -0.0159211 0.011949156 0.021355119 0.02546406 -0.020100916 0.00051102194 0.0044880016 -0.0010749341 -0.0009852067 -0.019915555 0.04894024 0.02739783 0.030839803 0.021166796 0.021996753 -0.011486581 -0.027642298 0.02422709 -0.028366573 -0.018025368 -0.012409767 0.02516372 -0.009077762 0.023537537 -0.00495226 -0.04253945 -0.032998193 0.0066347183 0.030065361 0.00060210406 -0.034716077 0.030910838 0.042081755 -0.0005930035 0.041099668 0.0133400485 0.007911272 -0.0005021061 -0.011300137 -0.0008380089 -0.023266558 -0.016321048 -0.011583557 -0.02657269 0.030316405 -0.0035776498 0.0049947347 0.008114375 -0.0050715837 0.0009170003 0.052575782 -0.0013027785 0.022312574 0.0055239247 0.04446141 -0.017848903 -0.0031713874 -0.007169191 0.022468701 -0.004540323 -0.013120764 0.051415887 -0.022560878 -0.04698509 0.0076913545 0.020321442 -0.013316833 0.03573629 -0.002034357 0.012848239 -0.040696062 0.019397518 -0.031957965 0.026701339 -0.02367456 0.04177833 -0.027159719 0.0040853703 -0.03664019 0.0016963048 -0.013990439 0.05134057 0.016083764 -0.01689141 -0.029607147 0.023261985 -0.0041568773 0.003853524 0.018962562 -0.016924415 0.049753495 0.022933938 -0.015378639 0.0008494013 -0.008400684 0.04633962 -0.017832706 -0.01654568 -0.028550187 0.03687947 -0.03917334 0.03258002 -0.022465574 -0.040215965 0.044003345 0.029527444 0.038744345 -0.028036153 -0.011338943 0.017894572 0.014941146 0.011951148 0.040813137 -0.019511722 0.026894405 -0.024771672 -0.002689317 -0.04762854 0.011906903 -0.030347014 0.035498 -0.037545882 0.01680023 0.022715578 -0.019824514 -0.02379415 0.03740482 0.03595574 0.019748893 -0.018653955 -0.0012314297 0.012501845 -0.030771988 -0.010376091 -0.004295744 -0.033523917 -0.0047153914 -0.037651222 -0.037064277 0.0027283926 -0.03470581 0.040138286 0.0005378374 0.027801 0.024230922 0.0077103656 0.041844893 -0.018285848 -0.017882137 0.03808581 0.01793335 -0.04293177 0.018583406 0.0071852803 0.04388581 0.04289338 -0.014237578 0.0069716186 0.029017694 0.049623758 0.005772107 -0.013664559 0.006023313 0.010279324 0.0065576346 -0.006692413 -0.01778465 0.032887977 0.00070662453 -0.027323356 0.04342546 0.0036871536 0.03788297 -0.016916268 0.0077903075 0.028244983 -0.026621249 -0.049823765 -0.027093899 0.025771057 0.040645022 -0.01866293 0.018122766 -0.01533577 0.006607499 0.0049536326 -0.03204788 0.034929395 0.03850778 0.04467338 -0.010881899 -0.035706542 -0.0042140596 -0.025718572 -0.031369224 0.031945046 0.026303865 0.036808513 -0.00018637016 -0.03173476 0.018932555 0.03754305 -0.03505698 0.026749212 0.047986623 0.0409428 0.04417194 -0.039477367 -0.040326316 -0.03971515 -0.0034685452 0.028490702 0.0021900216 -0.027476054 0.0127157895 -0.011216881 0.022417402 -0.031493902 -0.02828882 -0.006183825 0.030623144 0.03126408 -0.016941063 0.032651197 -0.019346368 -0.00777814 -0.012495161 -0.021568863 -0.0082656965 -0.048483163 -0.035305 -0.028482376 -0.053498246 0.036427435 -0.03309051 0.0020602278 0.05117061 0.020329637 -0.018611385 0.024886156 0.027860256 -0.014328107 0.0060915067 0.013673756 -0.021798648 0.011308809 0.01675217 0.0006613433 0.0035630807 -0.021498214 0.017077107 -0.026301475 -0.02663721 -0.008562979 0.040084034 0.042116128 -0.041242037 -0.0029193144 -0.02239208 -0.007450717 -0.01953948 0.026585577 0.018481184 0.026290948 -0.02971427 -0.01359769 -0.013822495 -0.01371337 0.034941833 -0.0038660867 0.005437358 0.032825075 -0.011648606 0.033593263 0.018282522 0.004770686 0.04130577 -0.03446665 0.033985578 0.037885465 0.044334117 0.032976583 -0.008107549 0.012017037 0.023186933 0.039057698 -0.030474763 0.03424427 -0.006574655 -0.01950912 0.035063148 -0.007605278 -0.037065186 0.0399817 0.033797123 0.036828388 -0.021396482 -0.00653155 0.03836761 -0.008221758 -0.014412574 -0.034759093 0.03684968 0.0012254915 0.021793336
0.039594993 0.03700771 0.021654705 -0.015653105 -0.01821184 -0.056988485 -0.0004967267 -0.0074313106 0.03633372 0.03271376 -0.012182528 -0.013114851 0.03915856 0.008698708 -0.01615066 -0.0036362703 0.037243374 -0.04405591 -0.0025409379 0.040993083 -0.048600532 0.027658343 -0.0009785345 -0.06275706 -0.04624597 0.046386562 0.038135868 0.0070115686 0.029896088 -0.005077759 0.015727563 0.048416752 0.016713401 -0.034803417 0.013476547 0.057496473 0.044950143 0.058308378 0.047320202 -0.048111916 0.02590661 0.010857079 0.007051707 -0.038035315 -0.04238692 0.008105728 0.045014255 -0.011522179 0.003172221 -0.008724757 -0.0055632014 -0.021054227 0.0138945365 0.006401178 0.0040020547 0.03616125 0.02272137 0.0075906897 -0.03427008 -0.011844119 0.035786357 -0.017473908 0.040245846 -0.010442702 0.00057186704 0.024821525 0.04381076 -0.012238862 0.04936903 -0.0077529238 -0.0336912 -0.042826638 -0.00088323967 0.017469717 0.023653395 -0.04498358 -0.010826329 -0.02249894 0.02073868 -0.055533104 0.03708975 0.0024214874 -0.042555608 0.01745053 0.024369793 -0.007903251 0.0144994585 0.028990772 -0.030915935 -0.044273067 0.033813324 0.02062942 0.024164546 0.0039824448 0.004113167 0.026739374 0.034379072 -0.01424442 0.047436744 -0.02865022 -0.017988013 -0.01787395 -0.022540385 0.049882334 -0.02678063 -0.064675055 0.016814128 0.01015224 -0.027914079 -0.010303393 -0.043889817 -0.021051934 -0.015807135 0.032303084 0.038740817 0.01145119 -0.013288742 0.016166663 -0.046641883 -0.0495285 0.016148774 -0.03140016 0.031494908 -0.033517845 0.027148243 0.026436238 -0.019736793 -0.015455055 0.045825507 0.018330252 -0.051111743 0.024099326 0.007773439 0.03734071 0.048617948 -0.018225815 -0.0028791714 0.047479615 0.049309045 0.048786152 -0.057515305 -0.019383194 0.027269557 -0.049904056 0.0014530079 0.0041110357 0.008743265 0.0006078837 -0.03544174 0.030583624 -0.014673606 -0.011385583 -0.0069528874 -0.03152088 0.009735746 -0.019234644 -0.0330529 0.012911596 -0.0410817 0.020424478 0.026231213 0.01189776 0.005845318 0.009623497 -0.0045226025 -0.008748851 -0.02596568 0.00858645 0.003037608 -0.0035942118 0.01810169 0.019662678 0.037649278 0.009221828 0.020956468 -0.04190013 0.02126292 -0.016190778 -0.056553647 0.006150583 0.0032581338 -0.018767977 -0.039631415 0.025994077 -0.017868172 0.022013348 0.018630276 -0.039897818 -0.02694366 -0.01571201 -0.027380522 0.019268312 -0.019525373 -0.020185955 0.02505793 -0.0030591928 -0.008789094 0.015111691 -0.029738234 0.031657346 0.057598118 -0.02122829 -0.04905704 -0.029703941 -0.022028046 0.041595403 0.019919634 0.014809461 0.0033899175 0.039500203 -0.029193796 0.047328502 0.007986381 0.03146128 -0.0016379508 -0.043398377 -0.03316242 -0.0032313603 0.041319124 -0.00077626115 0.031942055 0.04268189 -0.020779144 0.034560356 -0.01359351 0.037490435 -0.0076212804 -0.001144461 -0.0155191105 -0.022565693 0.033421446 -0.02511834 -0.014498055 0.053258672 0.008763066 0.020667678 -0.05962321 -0.028197808 0.010374388 0.0034935628 0.041442517 -0.029954605 -0.027236685 0.030683456 -0.036038235 -0.0007103433 0.031818207 -0.02721398 0.04090175 -0.013322295 0.025626866 -0.01655557 0.013275423 0.0415258 0.014166414 -0.017787846 0.04418916 0.018949881 -0.009031659 0.038084347 -0.001576825 0.029961994 0.017439432 -0.046627104 -0.017804516 0.02053198 -0.004257229 0.0029631786 -0.027062397 -0.0150484275 -0.013516056 -0.046880636 0.03569197 0.035271022 -0.015224268 -0.014699807 0.022552496 -0.043378405 -0.020206919 0.031131098 0.021489423 0.016030477 0.011098448 0.019148126 -0.008472029 0.037996616 -0.020743214 0.010451275 -0.033766583 -0.033286884 -0.0034281113 0.051734515 0.020650866 0.008469683 -0.0015424273 0.00727962 0.033936575 0.029039115 0.037408214 -0.012012485 -0.038061075 -0.011793416 0.007992249 0.026427994 0.032106914 0.03687948 0.023588002 -0.022573736 0.029538795 -0.042277087 -0.012180252 0.017043589 -0.009449822 0.020571074 -0.016871449 0.010282703 -0.018927805 -0.011747148 0.055212915 -0.016029906 -0.032180216 -0.027175914 0.00501919 -0.020687297 0.03073969 -0.02824846 -0.0044857115 0.06177962 0.044769343 -0.008121826 0.023299519 0.031988703 0.012807043 -0.017059041 -0.021669703 -0.06494232 -0.018345539 0.039388485 0.0141874645 0.040496256 -0.029273937 -0.040150166 0.012310158 0.04264324 -0.04734342 -0.026325127 -0.019287968 -0.014334247 0.034907505 -0.0041332073 0.00411032 -0.029724173 -0.040818915 0.021038255 0.023873808 -0.043390892 -0.00877258 -0.015060205 -0.044258904 -0.047250133 0.008245749 -0.015072802 -0.004510654 0.02801739 0.026035277 0.051219296 -0.011017552 0.044499643 -0.044761386 0.03644687 -0.008254708 -0.02266549 -0.02056906 0.055681087 -0.029816942 -0.05680444 0.037460875 -0.031348374 0.032249212 0.01740064 -0.051059894 -0.014217789 0.014408166 0.014977982 0.027437922 -0.034118645 0.038800023 -0.015465852 0.0045473855 -0.036752395 -0.034137737 0.020264903 0.043146875 0.033799626 -0.012045075 0.019583097 0.0116066625 -0.032566343 0.035202898 -0.021694368 0.0052588405 0.048672836 0.0044085113 -0.010848613 -0.009094778 0.019804625 -0.021677684 0.036941126 -0.012008486 0.020161802 0.030216053 0.037061986 0.0262051 -0.029892804 -0.04612202 0.01067282 -0.019773254 0.040500294 0.025396137 0.0039607277 0.05344185 0.032338243 -0.019906282 -0.026524302 0.012912177 -0.027984172 0.035158847 0.017844545 0.04283023 -0.029919924 0.023838516 -0.012950401 0.047312938 -0.0030143342 0.016117074 0.020717788 -0.03816797 0.033939388 -0.0133495 0.026038865 -0.027569536 -0.0500116 0.03789177 0.023019424 0.00052835536 -0.028911004 -0.0072825607 -0.033279072 -0.0070275525 -0.013791636 -0.0101595335 0.025266517 0.003422768 -0.022636602 -0.0040172124 -0.029062606 -0.02174317 0.039725125 -0.030175569 0.030550951 -0.030257834 -0.046428435 -0.009567488 -0.03077614 -0.000656568 0.013058788 0.005838803 -0.010045773 0.0013842293 0.012937433 0.040972732 -0.008100091 -0.0018164347 0.023173496 -0.012767827 0.01104582 -0.036994234 0.02493171 -0.0125105325 -0.033919685 0.009180799 0.04357781 0.0056151706 0.0074900314 -0.06685193 -0.032166094 -0.0013164659 -0.014380144 0.019571343 -0.017653367 0.053552575 0.0024112805 -0.039540283 -0.0045821834 -0.034916695 -0.0134859225 -0.004078949 -0.031810563 -0.040445816 0.04490612 -0.016203446 0.015690573 -0.0055054417 -0.038265362 -0.018525029 -0.0014826854 0.02245618 -0.040252183 -0.0021306511 -0.049417973 -0.02658365 -0.03613759
0.042592164 0.015998278 0.050210543 0.014060175 0.009441318 0.014088829 -0.038332123 0.044789728 -0.036197968 -0.036207184 0.039202817 -0.03921475 0.022540111 0.003832729 -0.025712363 -0.007477492 -0.040403813 -0.04004332 -0.025766792 -0.011443242 -0.043759666 0.027439827 -0.014296097 0.007427316 -0.02909764 -0.028256249 0.005867215 -0.02751769 -0.014333894 -0.021832293 0.017719166 -0.0100770835 0.026294855 0.015202269 -0.0023302005 0.014644024 -0.003126247 0.0117987115 -0.007249748 0.013810337 0.018667703 -0.034065522 0.009984403 0.0015990854 0.03725752 -0.015302144 0.011881773 -0.014169162 -0.022315348 0.00035984724 -0.033667482 0.013698908 -0.021313367 0.026100777 0.00842789 0.047147125 0.021020412 -0.008833421 -0.0401001 -0.014090232 0.019560996 0.018748956 -0.04251339 0.014986544 -0.03525151 0.012781839 0.020657891 -0.005069852 0.03567375 -0.04032561 0.030354708 0.0037784595 -0.012223264 -0.016431995 -0.016783202 -0.008271991 -0.025409812 -0.021572059 -0.050117854 -0.008114815 -0.018228058 0.03819005 0.0076507377 0.008642402 0.025694545 0.009049272 0.031327777 0.041411553 -0.0030704513 0.038387723 0.03604977 0.03762677 0.01970945 0.03285202 -0.027934961 0.024465086 -0.021909025 0.021166058 -0.0044372766 -0.023417823 0.028394712 -0.051135454 0.009358981 0.016737953 -0.03465175 -0.018232262 -0.032631435 -0.013552888 0.016350215 0.038143624 -0.018613774 0.0045485967 0.025087498 -0.050386373 -0.046402577 0.03724418 -0.015641699 0.011667408 -0.043994468 -0.04865796 0.0044978787 0.020285046 -0.029543549 -0.0032523456 -0.00081931753 0.0098214615 -0.019570068 0.022326834 0.00096261944 -0.04790561 -0.04920894 0.026172994 -0.018370196 0.04785338 -0.00747432 -0.01659615 -0.017072361 0.023903262 0.007660973 0.0011319255 -0.047571685 0.03691285 0.023189995 0.03440491 0.023642886 0.024880812 0.010371165 0.03266295 0.0077532246 -0.009186149 0.016670374 -0.018293364 0.0018683114 0.04650597 -0.025784353 -0.033299293 0.0065106405 -0.009263523 0.035489917 -0.01377266 -0.018966088 -0.0014295279 -0.015678693 0.031588648 0.04653171 -0.033469636 0.010095172 -0.042790905 -0.014395117 -0.015519237 0.020778658 -0.031460367 0.013867002 -0.03136482 0.038488295 0.0305062 -0.0054894746 -0.03789629 0.009803855 -0.031047428 -0.0040148436 0.028443666 -0.02051609 0.022912698 -0.010770752 0.002043707 0.023193749 -0.024916727 -0.029208181 -0.023741074 -0.022189578 0.03999276 0.033924706 0.018636767 0.022738002 0.017084805 0.009558659 0.038461298 0.009120397 0.010215318 -0.017249513 -0.0062670023 0.016378736 0.033755597 0.027701797 -0.0053924015 -0.05340926 -0.010349563 -0.008172398 0.059367258 -0.022582632 0.0076593133 -0.018249612 -0.019938901 -0.03410022 0.032527033 -0.014112561 0.017049437 0.00040142742 0.048092056 0.0136391325 -0.039577834 0.008116832 -0.022544611 -0.0018342141 -0.013737228 0.007433261 -0.004179207 0.023074921 0.0057573603 -0.037730217 0.034805976 0.027147528 0.0036755602 0.0082348855 -0.022431629 0.020985477 0.001295858 0.013883278 0.04128158 -0.00623005 0.017080612 -0.0052746865 -0.023867115 -0.004674986 -0.0595634 0.018026749 -2.37791e-05 0.015485077 0.030168151 -0.046116285 -0.0015062597 -0.031338755 -0.024629708 -0.033534788 0.012550953 0.0011007467 0.012439729 -0.018150037 -0.0029672305 0.0073869363 -0.011437365 -0.02584326 0.022982268 0.0017518789 -0.020160433 -0.02724453 0.021111863 -0.043078717 -0.019909956 -0.007138546 0.017616397 0.010500265 -0.018654414 -0.03973475 -0.0048885196 -0.022605125 0.013207938 0.019667674 0.003557357 -0.027352896 -0.04636109 -0.026312754 -0.046305276 0.03685412 -0.010932608 -0.0031714381 -0.014399883 0.040172003 -0.005626442 0.007910923 -0.02491024 0.030058306 0.0063628675 0.01007354 -0.0075135566 0.04932757 -0.0054802177 0.01102092 -0.033719618 0.034284115 0.022335973 0.045695063 -0.017649353 0.031924125 -0.0028766796 0.009837171 0.030500602 -0.016528722 0.011992331 0.03158707 0.01639988 0.004476424 0.0011695167 -0.027789801 0.0087707685 -0.012137672 0.004911412 -0.044918764 0.034938883 0.006244858 0.011862453 -0.025530543 -0.008744802 -0.04245744 0.032591213 0.031351283 -0.03086065 0.008935619 -0.034962866 0.03395097 -0.019064266 0.025692195 0.05204861 0.02369018 0.017114693 -0.013377251 -0.022834864 0.020539183 0.023557426 0.03111904 0.0068639647 0.021929493 0.009035804 -0.014626463 -0.012537774 0.020420054 -0.0318721 0.031057475 -0.043914225 0.037617117 0.024208447 0.010980329 -0.016968954 0.042753823 0.042823967 0.017046066 0.025695669 -0.021833157 -0.026173716 -0.040624075 -0.023404047 -0.019294653 -0.008388402 -0.036082756 0.020225061 0.029296512 0.028468266 0.024271213 0.0029383257 -0.008764518 -0.028087426 -0.049365148 -0.041515205 -0.00861677 -0.03619266 0.00071115134 0.022413028 -0.015222519 0.01198151 -0.018862426 0.020971013 -0.008683568 -0.026204757 -0.01257891 -0.006870774 0.024490511 -0.007686436 0.021875652 0.0035145222 0.03222582 -0.03417849 -0.014969663 -0.05396448 0.033274863 -0.011693071 0.017589048 -0.032863904 0.0024122882 -0.02633328 -0.010753655 -0.00033683312 0.047291804 0.0085818395 -0.014081524 -0.033187844 0.03289263 -0.023536216 0.02489663 -0.015636038 -0.008860898 0.049900442 0.053842533 -0.0025106077 0.030529 -0.014444775 -0.03157984 -0.019043567 0.031516153 -0.02566958 0.040970057 -0.01075603 0.027181514 -0.00025352012 0.019747121 -0.020531833 0.006448035 -0.0043156575 0.00968092 -0.043826543 0.03365891 0.031112378 0.025118768 0.013309544 -0.016449349 0.037075642 0.02191569 -0.021722464 -0.026261844 -0.05638594 -0.022458471 -0.020013891 0.04081567 0.032309406 0.026908137 -0.0051459717 0.020852553 -0.019047607 -0.015126872 0.013204738 -0.007609742 -0.0026702783 -0.012119464 0.040089544 0.00010175157 0.0059732096 -0.013187042 -0.019403959 0.009811943 0.00011466221 0.048954777 -0.013281801 0.0077544358 -0.048388682 -0.0069716903 -0.029918317 0.028233394 0.00012798619 -0.05170377 0.023659673 0.04652916 -0.010495623 0.009645244 -0.043906555 -0.023190396 0.03193793 -0.029585054 0.014521837 0.016015906 0.003851376 -0.018760523 -0.035137773 0.017662065 -0.01248134 0.001908573 0.0033310552 -0.022006843 0.0034206063 -0.013415403 0.0036419933 0.023089748 0.049732845 -0.033691544 -0.03160489 0.010964253 -0.007963736 0.025336415 0.011590159 -0.04572267 -0.042996656 0.008342002 -0.036449246 -0.0045608543 -0.0013362364 -0.0356064 0.029272813 0.017930556 -0.05384185 -0.03666709 -0.04611779 -0.008255929 -0.005737133
-0.009787894 -0.019060425 -0.010128706 0.0435541 0.021605395 -0.034682117 0.014114499 0.018983005 -0.014188168 -0.0033083542 -0.032715213 -0.015262898 0.018337468 0.033748932 -0.012148236 -0.022319963 -0.020613749 0.03694305 0.03420892 -0.029133873 0.034212828 -0.03404454 -0.034973662 0.012937219 -0.026342802 -0.013965114 -0.021996766 -0.019077785 -0.0018216275 0.0027234943 0.020929532 -0.008413686 0.022144943 0.0054461868 0.03720085 -0.027372826 -0.0467562 -0.031008732 0.011136063 -0.01634893 0.024348222 0.021837141 0.016091643 -0.004482462 0.043033764 -0.020658901 0.04778433 -0.0059005534 0.0029749335 0.049030356 -0.022460489 0.023377756 0.031216552 0.022920355 0.033738356 0.016979033 0.031918146 0.0396388 -0.01095168 0.015409665 -0.05267324 0.023515668 -0.043345667 -0.033728626 -0.014398465 -0.028898897 -0.046403617 0.023513716 -0.0145421075 0.038147207 0.016093776 0.0096919155 -0.04099893 -0.0059253857 0.052027866 0.038668122 0.023264984 0.032280635 -0.03188919 0.03205709 -0.023189653 0.036550585 0.01911413 0.040287137 0.016211266 0.013324021 0.007750796 0.022707267 -0.027411567 -0.022803564 0.023084028 0.01164582 0.0149685405 0.04290074 -0.025480784 0.049474917 -0.03763089 0.018391846 0.008528719 -0.011358769 0.02384381 -0.024777222 -0.0059132674 -0.02719596 0.0094963685 -0.012020128 -0.030983731 0.037370905 0.045249473 0.020025427 0.012416164 0.014014984 0.03211183 0.0063088015 0.022475392 0.0012176384 -0.0039849835 0.029595267 0.03480946 0.04362048 0.02205899 -0.010767369 0.04027237 0.040526308 -0.011523893 -0.015400268 0.0020500438 -0.0156862 -0.049557157 -0.02131794 0.00750775 0.029725872 0.013399372 0.015535585 -0.02997508 0.015246355 0.032101914 -0.021055792 -0.03866286 0.03956631 -0.04052356 -0.018088706 0.009185819 -0.026499305 0.032747466 -0.007647406 0.03664327 -0.020196838 -0.016832938 -0.0071245288 0.00741746 0.009146883 0.036820795 -0.04341046 -0.030504623 0.036016323 0.03942234 0.04887605 -0.019261146 -0.016964002 0.04221216 0.018319583 0.0021274558 0.043697655 0.0035019047 -0.00795263 0.020675117 0.012412499 -0.03537459 0.00030860642 0.021935731 -0.016622763 0.031958986 -0.0082403235 -0.043615136 0.051060133 0.04287268 -0.0042130137 0.02890508 0.03186491 -0.04622735 -0.0498236 -0.037326317 -0.025640355 -0.0059427796 -0.0320304 -0.036386363 -0.011730882 0.0043529333 0.028942147 -0.029576922 0.015747884 -0.026508722 -0.014833097 0.012399057 0.042055313 -0.0013710762 0.024361027 0.047490418 0.043858692 -0.024454126 0.020822985 -0.0012085496 -0.005434364 -0.02062066 -0.020463988 0.00850708 -0.03218727 0.010766461 0.03247967 -0.0013658378 0.053612113 0.03813327 0.005479872 0.03829251 0.018104658 -0.029659402 0.04729952 0.03202966 -0.00680386 0.042739175 0.0049552596 0.039983418 0.015503392 -0.013296898 0.0016881662 0.047689557 0.043960918 0.02585582 -0.045782678 0.03130524 -0.03727823 0.024462761 -0.026874196 0.022422051 -0.031962767 -0.04524917 -0.02907743 -0.036272604 -0.024670912 -0.03836308 -0.009995432 0.049301222 0.025390862 -0.031677134 0.021303413 0.011375032 0.013930869 -0.029289698 0.029836688 -0.021457631 0.041800294 0.032336645 0.022305164 0.0166581 0.0041431016 -0.0024394535 0.023930764 0.0032116012 -0.0010443233 0.024337664 0.042376198 -0.04266516 -0.007989223 -0.052687887 -0.039164755 -0.0026863674 -0.032535374 -0.005395867 0.047862913 0.043721203 0.038675398 0.025895374 -0.009023439 -0.020621903 -0.026047532 -0.008890413 -0.02300945 0.004432194 -0.017369702 0.03257169 0.016593607 0.04224549 0.027176363 0.032210723 0.03974336 -0.0051089977 -0.016091 -0.011075461 0.018126074 0.018412232 0.016301047 0.036407407 0.044826873 -0.0010326855 -0.03293662 -0.038909495 -0.014940476 0.004172168 -0.029615466 0.012676092 0.018083008 -0.00041402297 -0.014723126 0.012962863 -0.029698348 -0.009634345 0.0038669219 -0.01749381 -0.030637437 0.01722637 -0.025878625 0.02690906 -0.021795614 0.013004054 0.00611382 -0.023568172 -0.049565207 -0.041664943 0.032453615 0.018366937 0.0105232345 0.022630595 0.019089784 -0.03512231 -0.026430909 -0.022096192 0.013467635 0.041358232 -0.026143463 0.0005336259 -0.0021031043 0.018344449 -0.028345073 0.039818373 -0.01619834 0.000983769 -0.0060313134 -0.015494717 -0.030027427 -0.010072518 0.021320177 -0.010007966 0.011921868 -0.035720456 -0.032632016 -0.03228112 0.03298646 -0.03146336 -0.038041774 0.02848963 -0.04814997 -0.009152034 -0.034448564 -0.00032078437 -0.01070148 0.0322846 -0.012305294 -0.010757352 -0.03641002 0.025415545 -0.03157263 -0.003493172 -0.02465391 -0.0316861 0.011265151 -0.011067296 -0.022143925 -0.0055805887 -0.040524095 0.032988656 -0.020298872 0.024493055 0.012508342 0.03931427 0.040148087 -0.031256128 -0.016791586 -0.018573461 0.001456237 0.020646289 0.00392318 -0.010151893 0.028311763 -0.031980257 -0.01651341 -0.0016429174 -0.01851777 0.019781014 0.012318154 0.0061805695 -0.0013217806 -0.014553064 0.012349968 0.028268099 -0.037099853 0.0010283586 0.011446591 0.02176078 -0.038487043 -0.021319555 0.037300106 -0.008931591 0.045223564 -0.016400162 0.036542982 -0.0077183642 0.029783607 0.003642048 0.047031146 -0.04803395 -0.023277298 0.0018493732 -0.027410109 0.03947569 -0.03213667 -0.018317105 -0.035557546 0.007927998 -0.0059449244 -0.0079045715 0.038009066 -0.0026695929 -0.0013354346 -0.014527108 -0.0048727784 -0.03753933 0.031837065 -0.0738202 -0.0012805635 0.014323794 -0.0073438776 0.02796391 0.024317345 -0.019505931 -0.046602916 -0.02697876 -0.021999734 -0.021048455 0.0077013546 0.009993873 -0.003250407 0.026615694 0.033454277 -0.029535936 0.028854923 0.006678426 -0.049921118 0.034773808 -0.034727145 0.035688736 0.01329914 -0.0031435578 -0.014389984 -0.031480923 0.0042940476 0.035833426 0.021009805 0.019809619 0.011755154 0.006273902 0.04521089 0.0035340225 -0.031684965 0.014600913 0.014297682 0.024531139 -0.048173368 -0.0014998203 -0.05891681 0.031014968 0.036174938 -0.04342392 0.015999947 -0.015933912 0.024078468 0.03555466 -0.013227938 0.033168647 -0.030055609 -0.028169334 -0.03020766 -0.018911464 -0.038233425 0.027326884 -0.04471009 -0.008320141 -0.0010442802 -0.027744308 0.0011593758 0.033497557 -0.002650846 0.020391252 -0.034327127 0.02426283 0.027976146 -0.014823006 0.005017261 0.0254314 -0.026664816 0.020762147 -0.03661696 -0.024310727 -0.019488702 -0.010826942 0.029588075 0.0069375215 0.03438524 0.03693927 -0.024540419 0.03367843 0.042618755
-0.020354062 0.032868538 0.02262 -0.0100972615 0.0060959915 0.004086063 0.03964238 -0.021492213 0.0018347312 0.0070267553 -0.0010832166 0.03559889 0.027412416 -0.02200405 0.0474622 0.0036595236 0.03919978 -0.021368077 -0.009094867 0.019234197 -0.01593018 -0.0148490565 0.01460593 0.03942524 0.015069133 0.0360244 0.010804086 0.005804795 0.04349478 -0.053458 0.03758043 -0.018765036 -0.020751912 -0.022592522 -0.008750159 -0.021371048 -0.035088107 -0.006180658 0.01754165 0.010644266 -0.020643657 -0.027754098 -0.013861327 0.013260849 -0.044805545 -0.011915201 -0.017548133 -0.0146783935 -0.038242947 -0.0009070197 -0.021418352 -0.025571128 -0.008612032 0.02901657 0.031269826 0.0077837226 -0.023156807 -0.0004412515 -0.0137412455 0.01366577 -0.010905082 0.007835978 -0.016049523 -0.008864828 0.04296225 0.015054165 0.0053495183 -0.018819254 -0.040147565 -0.012980966 0.025975127 0.012361594 -0.046466745 0.008430069 -0.023956645 0.010846088 0.015330581 0.036117356 -0.01137548 -0.02441238 0.03626289 0.018996859 0.023186846 -0.0026585478 0.0062541505 -0.0030244214 -0.045647625 0.0024962674 -0.033840984 0.025014495 0.009595009 0.004283452 0.0078904135 -0.01818426 0.025442861 -0.026598426 0.005146868 -0.017399725 -0.011810844 -0.007206829 0.017527176 0.01575916 -0.012824235 0.01606843 -0.03937155 -0.034807704 0.017686846 -0.019571442 -0.015418381 0.032402433 -0.04383367 -0.02941856 -0.018236706 0.02754504 0.008306964 -0.0045257662 0.030462254 0.036442958 -0.01765023 0.027685395 0.028230129 -0.035865165 0.037238102 0.023387568 -0.0077183773 -0.050538864 -0.026064781 -0.0039927796 0.035682037 0.03726747 -0.0061012846 -0.031868443 -0.026129315 -0.016748859 0.010103858 -0.055877946 -0.028285936 0.023737054 0.04672497 -0.035091404 0.025863806 -0.03580764 0.022119245 -0.018180892 0.012644441 -0.027591608 0.013215429 -0.01826283 -0.011321089 -0.0142468335 0.0018377424 0.016424054 -0.03641927 0.01177344 -0.018543158 0.04648247 0.04144406 -0.039638065 0.025421662 -0.020768479 0.01878002 0.01690425 -0.019863898 -0.029674321 -0.009519785 0.009859433 0.011313417 0.018301804 -0.009804968 -0.04280598 -0.02735377 0.042433605 -0.034024045 -0.033560142 0.036097612 -0.031891968 0.0109601375 0.009440932 -0.045241818 0.04292793 0.01666964 -0.035594832 0.013585978 0.026522946 -0.03269644 0.0012619908 -0.016950443 0.011363068 0.043478403 -0.012484294 -0.035267513 0.019254021 -0.034280967 0.02684322 0.04169702 -0.0370284 0.032197695 -0.032741588 -0.005224881 -0.02011338 -0.04039889 0.015606658 0.041005637 0.028722452 -0.018790305 -0.009629694 0.0016610284 0.020621164 -0.038701817 0.018220386 0.028411618 0.008551022 -0.037528977 0.03889484 0.04013019 0.0012557636 0.04652691 0.041032996 0.01129414 -0.01997893 -0.017170165 0.03565413 -0.038921162 0.04022071 0.028999178 0.01573955 0.01362558 0.001261639 -0.023777924 0.03629255 0.002285379 0.037297964 -0.020815816 -0.009795118 0.02361003 -0.038624518 -0.051480554 0.030739559 -0.009620683 -0.015247644 0.03457096 -0.051314563 -0.033699572 -0.0041368357 0.009186794 0.025902724 -0.031392016 -0.006545706 0.0119217895 0.00875223 -0.0146690635 -0.035975218 0.042725712 -0.001937341 -0.020739581 0.016524615 -0.035114393 -0.005059912 -0.020280601 0.012012259 0.04139071 0.010831792 0.043678798 -0.02427301 0.03894859 -0.0125629995 0.02067502 -0.010723181 0.038380682 -0.015808808 0.0029125593 -0.036797352 -0.04728516 0.040217455 -0.00827105 0.04445023 -0.03285936 -0.010010836 0.04305373 -0.025080223 0.036731258 0.019480826 0.01977327 0.0052525946 0.028374167 0.04437909 0.04041494 -0.02491974 -0.032123968 -0.018817566 -0.019207697 -0.028000046 -0.0021801589 0.012698149 0.013233247 0.014074271 0.00424678 -0.064428784 0.031842187 0.016951073 -0.03044181 0.01634165 -0.0018451748 0.01613116 0.031747125 0.005586899 -0.040651195 0.0055888896 -0.0045610312 -0.03198036 0.020196011 -0.0051691094 0.008737349 -0.03436159 0.001308928 -0.0084351525 -0.0019857355 -0.020281116 -0.018303948 -0.0008577099 0.0014747771 -0.037262045 0.001162499 -0.037234604 0.00072221586 -0.033138998 0.023173701 0.024991 -0.010590257 -0.066537306 0.016347535 0.042368766 0.022010224 0.017440598 0.017377095 -0.04491327 -0.03751065 -0.028910568 0.027025478 0.015866444 -0.036603067 -0.02507299 -0.0060514496 -0.0135104675 0.03398955 0.0057402905 0.030643553 -0.011167892 -0.015483208 0.007574632 -0.038441494 -0.0008861035 -0.0057701436 0.041977733 0.030549813 0.03992997 -0.021198953 0.028055651 0.036137167 0.0011627092 0.030714449 0.030238044 -0.028698413 0.033962738 0.018798383 0.02714222 -0.037833966 -0.01960005 -0.027381314 0.02447101 -0.029845327 -0.008165864 0.027179655 0.036438957 0.032151278 -0.020507328 0.007134412 -0.031564936 -0.03577311 -0.012981715 0.007362633 -0.0060287486 0.025290214 0.004967736 -0.034404255 0.036330186 0.009561844 -0.027174499 0.025653996 -0.04081599 0.00052160403 -0.00020129354 0.036444202 0.013747296 0.013031242 0.027523033 0.010710425 0.0073285634 0.03619017 -0.036629874 0.03008219 -0.030396886 0.020097127 0.014272493 0.005487142 0.02082803 0.024623329 0.011449677 0.023513839 0.033099517 -0.010953169 0.014550971 0.018213658 -0.037339 0.011963318 0.029345607 -0.040407825 0.018141774 0.043978333 0.0026875276 -0.008686314 -0.012122632 -0.0034782202 -0.026868643 0.0077908193 -0.026140125 0.037424475 0.042224336 0.021620555 0.03464089 -0.0077554034 0.0125796925 0.043836683 -0.014056455 0.0037495228 -0.005295924 0.019476723 -0.047779635 -0.009680154 0.00760665 0.012386458 -0.004988652 0.0018946215 0.041875843 0.041095026 -0.023226712 0.03990004 -0.013029845 -0.031930435 0.00021203919 -0.04204857 0.018801987 0.03600043 0.0023094502 0.03321768 -0.03549593 -0.027592853 -0.012295799 0.021171661 -0.038094603 0.01974479 0.03438665 0.025793534 -0.0047278763 -0.02681571 -0.014116903 -0.034461293 0.030589346 -0.02190673 -0.025019752 -0.033858858 0.039284382 -0.006696119 0.03422188 0.035306938 -0.015580836 -0.02055454 -0.03179031 -0.03249402 0.010511287 0.001178554 0.042776454 0.022711087 -0.030028168 -0.035163023 0.012369574 0.0149473725 0.03761609 0.028639948 -0.03015469 -0.02843912 0.03197706 -0.01777658 -0.00083536876 0.018588627 0.030385414 0.029247938 -0.041046057 0.025293075 0.035993952 0.017282592 -0.033098035 -0.024770511 0.0419922 -0.036551643 -0.00411222 0.019729812 -0.051302236 0.028850626 0.019594207 5.946394e-05 -0.032097217
-0.01659899 -0.028321592 0.041803613 -0.02030294 0.018393176 -0.0076537416 -0.026164854 -0.016466416 0.015730783 -0.0037513499 -0.00599443 0.038774733 -0.0155760525 -0.028361289 0.013208003 -0.038707428 -0.019964613 -0.020225186 0.014969535 0.0054372353 0.024523342 0.03967826 0.028609537 -0.037699454 0.02051844 0.0075301165 -0.004744588 0.029416751 0.016170435 -0.01091717 -0.012553543 0.036169983 0.039123483 -0.04441141 0.008698021 0.0007178019 0.021699024 0.03736861 0.035501193 -0.046057258 0.0030783683 -0.0025780294 0.015009583 -0.020418577 -0.03952314 0.0034275919 0.06348772 0.004331513 -0.035775397 -0.010298523 0.036720287 -0.0077887666 -0.009682504 -0.04141847 0.057456493 -0.038189165 -0.04890352 -0.007272867 0.011514391 0.0034466404 -0.04211124 -0.06623146 0.023696652 0.018523682 -0.023927404 0.03223894 0.0045258165 -0.0077935285 0.06979016 -0.03189885 -0.0308666 -0.04397802 0.033201385 -0.02177116 0.008005928 0.004940012 0.019588131 -0.053731613 0.061384536 -0.023318112 0.029923886 -0.03634744 -0.005127713 0.0011911351 -0.029227393 -0.021101583 -0.0021092917 -0.009624868 0.029420368 0.01641221 -0.010944369 0.0262317 -0.0078577725 0.0432066 0.02304849 -0.028750911 0.0019286778 -0.035527904 -0.008794809 0.050653398 0.030023023 0.017972384 0.006806592 -0.030509219 -0.023017913 -0.013855741 0.023763712 0.027752077 0.031700302 0.018153707 0.0507734 -0.021416692 -0.032434803 0.04467046 -0.008830363 -0.0077840304 0.054259695 -0.031112583 0.0021359196 -0.013475857 0.052535824 0.05504401 0.052663255 -0.012853256 -0.021698846 0.0012877968 -0.042655896 -0.007116954 -0.0032632235 0.0013691899 0.014217279 -4.125547e-05 0.037291575 0.023349743 0.007198779 -0.009980946 -0.0022835245 0.021824282 0.04165461 -0.043845933 0.007820006 0.01168957 -0.03183755 0.037738 0.018218141 0.02735504 -0.011294467 0.019077683 -0.012446199 -0.009440051 0.033165686 0.024854722 -0.013791883 -0.011042165 0.06871457 0.00072091393 -0.016502239 0.018232668 0.02949904 0.032179188 -0.038045947 -0.0027951675 -0.04307742 -0.0046913787 0.010037293 -0.031997263 -0.048755787 0.02264621 0.04185847 -0.017927887 0.04935957 0.038840745 0.033824082 0.041554555 0.01970327 0.0067784595 0.02925904 0.006253203 0.022995204 0.022733327 -0.004857878 0.011546962 0.02301771 0.038216792 0.019592503 0.013823352 0.009042489 -0.017772604 0.020019934 -0.047612775 0.037959184 0.03153145 0.035912428 -0.05604714 0.028720584 0.017415572 -0.026033102 0.050009068 0.005592835 -0.016628072 0.015269426 -0.05139896 -0.017785793 0.034238674 -0.03693293 -0.014648505 0.029008655 0.044783514 -0.07934899 -0.036151577 0.042485356 0.029156122 0.0081748795 0.026188647 0.022754496 0.032134723 -0.028668093 0.005320255 0.006862324 -0.016815865 0.029062614 -0.02020907 0.01607827 0.019873708 -0.043912366 -0.04737866 -0.035847086 0.0011481139 -0.010983633 -0.022054302 -0.0037209531 0.019129748 0.040576197 0.020801438 -0.051468153 0.013598915 -0.016781125 -0.008576928 -0.008004817 -0.015321981 0.013892005 -0.008275102 -0.040415738 0.04559546 -0.028232006 -0.027404713 -0.02906979 -0.037722714 -0.018480519 0.0066752783 -0.033604033 0.015333666 -0.006585065 -0.05160677 0.004260424 -0.016861558 -0.0059855464 0.024990266 0.010880593 0.013314287 -0.018998396 0.016231427 -7.780691e-05 -0.007217724 -0.054551676 -0.06173861 -0.005272733 -0.01610384 0.0478673 0.008653854 -0.027012695 -0.012390996 0.007025071 -0.008389669 0.019400643 0.03437374 0.023538642 0.01616417 0.0235482 0.020728823 0.036753494 -0.0068160878 -0.02639477 -0.008337296 -0.02755332 -0.032409217 -0.03897672 -0.0057569514 0.00816472 0.021585306 0.018596854 -0.06358184 0.027791746 0.012393859 0.035321712 0.015330162 0.04817569 0.03054687 -0.020163538 0.049905293 0.008264462 -0.017289104 0.023354175 0.06859806 0.03807551 0.014821814 -0.01863776 0.046439257 -0.024317386 0.008564403 -0.018405154 0.012312287 0.0037859732 0.037013527 -0.048317846 -0.052225668 -0.037062254 -0.03345731 0.05581357 -0.025362356 0.03551073 0.0010844577 0.027201848 0.012940934 -0.028639233 0.0055567776 0.020017546 0.015494024 -0.006367886 0.008902255 -0.051096547 -0.002862577 0.00088640815 -0.0020043608 -0.043688398 -0.027501298 0.01817845 0.0065484066 -0.023927849 -0.071071886 -0.008461444 0.015719043 -0.00409658 0.027464367 -0.0062583173 0.005124618 0.00869209 0.06685651 0.03933388 -0.019325282 0.005980163 0.016034532 -0.06492188 -0.011085292 0.001493608 -0.008408311 -0.037035923 0.015951062 -0.019760372 -0.007606109 -0.028700832 0.017080864 0.0112988865 -0.031357165 -0.004580054 0.08411922 -0.011151556 0.04523912 0.016397005 0.036565214 -0.010855681 0.034221735 0.024287906 0.013549776 -0.04639743 -0.038294673 -0.022162141 0.007573567 -0.026456535 0.002966186 0.015243552 0.003697853 -0.013825234 0.03453984 -0.010107691 0.023708193 -0.044056207 -0.021986818 0.029346028 -0.026281849 0.024793223 -0.002535677 -0.0009932345 0.014013563 0.016944453 -0.006757347 0.04725269 -0.020819487 0.024116842 0.0137100285 -0.04876407 0.038969066 -0.025672218 0.00970887 -0.015720153 -0.044728722 0.012747136 0.018657235 0.024484398 -0.05352929 0.05788069 -0.0060421396 0.0070212726 0.053459782 0.022933742 0.02958862 0.026745642 0.03344223 -0.051543713 0.08594097 -0.0133674275 0.010765834 -0.008702422 0.03952369 -0.020482972 -0.021941781 -0.023757165 -0.0076802885 -0.008137539 -0.034084655 -0.0050513106 -0.0067379987 0.032917887 -0.026187176 -0.0019265102 0.0037168383 -0.029460173 -0.0077237575 -0.029122407 0.03715877 0.045302834 0.011492937 -0.023006188 -0.005443287 0.03315867 0.018994648 -0.02443851 0.009448904 -0.047434058 -0.018205877 0.020619059 -0.018945776 0.03471786 0.0073405006 -0.00031371784 -0.010595756 0.023180546 -0.0045661354 -0.03812934 -0.03094355 -0.022987662 -0.041633237 0.056355096 -0.027004872 0.007505671 0.006400427 -0.026210945 -0.035114605 -0.02826318 -0.011224969 -0.026945792 -0.012293232 -0.0037724415 0.036420282 -0.012498926 -0.049693525 0.023092879 -0.031434316 0.033628285 0.016043507 0.015484867 0.0026495373 -0.002096895 -0.030319562 -0.03650706 0.035922647 0.0034328056 -0.012466877 0.031473305 0.009063713 -0.031045262 -0.0002126953 -0.018557264 0.05180657 -0.043526594 0.035825703 -0.05589418 0.022338422 8.700267e-05 -0.03841292 0.058447003 0.05219604 0.015889054 -0.03814445 -0.025743369 0.016709123 0.0059779743 0.0396455 0.014740524 -0.052494276 0.03671621 -0.02188806
-0.010729436 -0.038787235 0.025759479 -0.0057559735 0.016468234 0.04001854 -0.004181731 0.03237132 0.009563922 -0.0567895 -0.006462434 0.0060237683 -0.006790274 0.043182734 -0.027086494 -0.028029392 -0.020678358 -0.013276864 -0.002211571 -0.011986711 -0.037045304 -0.04171737 -0.03952863 0.019388294 0.0058476995 -0.03004542 0.012208443 0.04827768 0.013444504 0.02411121 -0.039378047 0.0154845435 0.013050662 -0.033399347 -0.019410165 -0.009658195 -0.007026649 0.043009024 -0.016095286 0.06348455 0.028541882 -0.04971139 0.016564125 -0.032574862 0.036379877 -0.017991409 0.011795379 0.040840417 -0.014801224 0.009230231 0.019428292 0.0132876225 -0.036731556 0.0075549674 -0.019647459 0.025229637 -0.01897825 -0.026091719 0.014248998 0.03158847 -0.028173996 -0.0354936 0.0025177451 0.022923317 0.0035870634 -0.0043591512 1.8641695e-05 -0.0011960069 0.029194502 -0.028212361 0.053299088 0.025873866 0.016238159 -0.026451897 0.002922259 0.0015730923 0.02607829 -0.021225845 0.0039089336 0.01840666 0.036820605 -0.0026961195 0.0063826153 0.034813717 0.029733298 -0.033805363 0.0012848449 0.0015307706 0.054092385 0.021114575 0.034868382 -0.024861673 -0.020788627 -0.017442135 0.019630492 -0.0046295053 0.008307412 -0.013094254 0.02447027 0.006112957 -0.033924673 -0.031980835 -0.030402912 -0.044559117 -0.014105407 0.053182494 0.011672353 0.037164934 -0.031398337 0.027558291 -0.0022374815 -0.037925884 0.034396287 -0.0063597593 -0.04164675 -0.03579104 -0.01161124 0.018446898 -0.042791225 0.006936708 0.020693598 0.049984157 -0.035522543 0.03739395 -0.03204527 -0.011575377 -0.017941529 0.030448593 0.024255354 0.046715792 -0.020178292 0.0026706364 0.041059777 0.017777372 0.018956214 0.0003359087 -0.031371996 0.023322556 -0.01996433 0.013297697 -0.038467664 -0.037330385 -0.022677692 -0.0042788135 0.0260801 0.010723988 -0.036183137 -0.03125329 0.0095443735 -0.016907629 -0.028302347 -0.033295304 -0.035914198 -0.007612638 0.029043356 -0.016657976 -0.013692885 0.021835323 0.02186832 -0.008291531 0.024006622 -0.010149216 0.01959945 0.023448875 -0.03891632 -0.016179686 -0.040341668 0.049830914 0.02242005 -0.034003485 0.009026247 0.015215408 0.021806056 0.024486424 0.0051213834 0.03697889 0.034500953 -0.024881996 -0.0032378358 -0.008016954 -0.0074289953 -0.008322816 -0.013812121 0.0054484266 -0.019240623 0.013537072 -0.02586798 0.028011737 -0.0030883793 -0.031295136 -0.03228263 -0.040788356 0.011223797 -0.003128111 0.024318041 0.010933903 0.04946777 0.0008804884 -0.01617076 -0.015630549 0.051502064 0.0059761964 -0.012161686 0.030478433 -0.018896012 -0.01444377 0.013035768 -0.029243413 -0.0010781911 0.054007433 0.030093407 0.008269232 0.00068407686 0.01671192 0.021516915 0.0055898833 -0.024909072 -0.016407618 -0.021518772 0.03669098 -0.00074277585 0.0053705964 0.011944931 0.03462757 0.039430905 -0.024296278 -0.01929993 0.013047287 -0.001704428 0.025231056 0.041785046 0.008066682 -0.032134313 0.0110682 0.00021459625 0.00542325 0.051008515 -0.033750933 -0.02604095 -0.019518139 -0.04623899 0.018521518 0.0053216117 0.02101305 0.000590979 0.045691647 -0.034014 0.008358786 -0.033319965 -0.038675293 0.006324008 -0.006182356 -0.0126932245 0.018872818 0.007751798 -0.010980394 -0.056345634 0.04787209 0.010423489 0.015084682 -0.027562886 -0.040046405 -0.035758525 0.0112476135 0.0064772186 0.017996656 0.046139866 0.03479238 -0.04006077 0.006833154 0.0026999246 0.025190406 0.017385319 0.037379388 -0.021025378 0.032185037 -0.012091926 0.002052128 0.018418908 -0.039137617 0.030100452 -0.01571751 -0.038613282 0.01650796 -0.038344543 0.012031713 -0.028174775 -0.03137159 0.031876788 -0.019562272 0.008339201 -0.02874905 -0.04270149 0.042316005 -0.011808792 -0.040700484 0.03732564 0.047116734 -0.005124847 0.018595142 0.036101665 -0.0077490765 -0.023744902 -0.013483361 0.033368114 0.012411171 -0.0140043115 -0.019657578 0.0028602611 -0.050597668 -0.027232371 -0.007559808 0.03722255 -0.03449884 0.0075248363 -0.0042621735 0.040733047 -0.016737267 -0.0011009715 0.045563895 -0.011826515 0.014104807 -0.0037157114 -0.015207138 0.05158929 0.017873906 -0.026883416 -0.025223505 -0.0016462612 0.044964116 -0.0033907727 -0.0045192256 -0.03228888 0.015481365 0.034703497 0.024915958 0.0019372543 -0.0034175136 -0.010342583 0.0043638055 0.03860405 0.014471732 -0.030160658 -0.032685317 -0.045823645 -0.005876855 -0.031981777 -0.021358151 0.009188994 0.035690036 0.03447888 -0.001758103 -0.023914946 -0.007460804 0.020097185 -0.015326689 -0.03637102 -0.008326659 0.01067762 -0.02416097 -0.035512403 0.0051030316 -0.020063657 0.01881345 -0.039631937 0.009912113 -0.023661505 -0.03440386 0.026260486 -0.029152106 0.03495645 -0.031626318 -0.024224253 -0.028793728 -0.03154802 -0.033945717 -0.052716546 0.013703488 0.030636031 0.031734277 -0.008296667 0.0031657577 0.04035787 0.03842627 -0.070503406 0.033247825 0.015463842 0.029204795 -0.039964642 -0.0096012205 0.012284949 -0.014909133 0.05706619 0.03696909 -0.028503267 -0.022954687 0.04250591 -0.023787228 -0.0036680773 -0.012966385 -0.00157459 0.008955791 0.014461901 0.014343219 -0.042499065 0.036084693 0.053496577 -0.020760996 0.00801347 -0.017987004 -0.02879342 -0.0067767007 0.016333641 -0.02489631 -0.038944058 -0.014178138 0.005598036 0.031729452 -0.0169205 0.037858788 -0.047867563 0.0048977444 -0.010934695 -0.0011656561 -0.029527947 -0.05227874 -0.02660994 -0.020833688 0.035653763 -0.010071338 0.048893657 0.0023617882 0.011941446 0.015734293 -0.01265038 -0.032668825 0.006315818 -0.0007871916 -0.0042281165 -0.03341302 -0.009031617 0.02070865 0.058532927 -0.016041866 0.024301743 -0.008281031 -0.003679957 -0.029394532 -0.033883825 0.025737816 0.029105917 0.017221149 0.0043146033 0.044340204 0.04963664 0.017533824 0.01557086 0.013381137 -0.010995512 -0.017009614 -0.00792249 0.038534354 0.014159555 0.038989037 -0.029025633 -0.012811092 0.003006323 0.0013232119 -0.006945558 -0.034675553 0.0066079386 0.03371706 -0.045279726 -0.028626336 0.021096935 -0.010954757 0.00042123665 0.0134226 0.005408614 0.008266991 0.038823828 0.0075565004 -0.019665841 0.0075154346 0.031581815 -0.0071488717 -0.0064371685 0.00027502567 0.016444163 0.04140387 -0.027216617 -0.028848268 0.018899787 0.0032381217 0.011090288 0.03347829 0.022298982 -0.01952844 0.025067447 -0.006641845 0.013791436 -0.044852078 0.016298823 -0.025435328 0.0035519653 0.031942036 0.03226604 -0.031672455 -0.026739214 -0.035100106 -0.02629536 0.023310577
0.0017397673 -0.032794245 0.032316316 -0.0023418625 -0.019405173 0.030895812 -0.031604733 -0.036960643 0.026857328 0.03299201 -0.03419043 -0.04247941 -0.025555369 0.027533283 0.021172341 -0.03491795 -0.020225331 0.013047842 -0.027270619 -0.031915925 -0.01936955 -0.004297428 -0.011775763 -0.011830863 -0.01755383 -0.011388462 -0.018141657 0.0324594 -0.0147057725 -0.04103822 0.037349317 0.027902877 0.0150619885 0.028268242 -0.01521009 0.02434669 0.034306582 -0.00485508 0.007984081 0.008871039 0.04665474 0.006615987 0.028011605 0.020755054 0.03749984 -0.007736592 0.004992858 -0.02653807 0.035932485 0.013824583 -0.037598833 -0.03837074 -0.07856628 0.032481663 -0.010859466 -0.007898911 -0.0030932098 0.04372182 0.013281948 0.025943367 0.02704893 0.031103866 -0.021978883 0.007996063 0.024559313 0.014141196 -0.027480882 0.007733996 -0.03354357 -0.016208524 0.034021515 0.002939139 0.0042717676 0.055730443 0.047962196 0.004004344 0.032523755 -0.013378197 -0.003961035 0.0014314285 -0.04107307 -0.007547374 0.039261684 0.028156972 0.017237894 -0.011367914 0.019508144 -0.040713016 0.027688509 0.035676185 -0.028873486 0.030970976 0.030354517 -0.005624047 -0.034558397 0.013355469 -0.014330138 0.030533964 0.022941574 0.061870247 -0.027773198 -0.04047189 -0.003178975 -0.04072516 0.016567577 0.030351816 -0.016578306 0.019128662 -0.025081003 -0.05427799 -0.018101655 -0.024701001 -0.010488096 0.024132771 0.011627088 -0.007980025 -0.04269586 0.012475992 0.009715333 -0.042184316 0.042729165 -0.034986377 -0.036190625 -0.009112127 -0.037388675 -0.023588238 -0.031253856 0.035391785 -0.017106893 -0.037201103 0.019502448 -0.0043451646 0.0046967077 -0.03180588 -0.007300579 0.0417567 -0.046337444 0.018006371 0.01131845 0.026623935 -0.036149096 -0.0045419973 0.0076116472 -0.031772587 -0.033837453 -0.038428932 0.033987097 -0.021799888 0.04240995 0.0039838566 -0.012686075 0.005387738 -0.04107445 0.026782177 0.0024354449 -0.002528475 0.02153312 -0.03091608 -0.0036174087 0.04020278 -0.024840176 0.010785307 -0.0398519 0.0284254 -0.039718498 0.02007424 0.0053700064 -0.022137098 0.027139813 0.04187423 -0.003642227 0.0410631 -0.04234242 0.023197273 -0.01434863 0.005264502 0.03169393 -0.04494795 0.0009757892 0.03872771 0.026415685 -0.025210232 0.008136906 -0.022713898 -0.014595966 -0.017647887 0.023728613 -0.039816204 -0.025452945 -0.0074405926 -0.019755905 -0.021339515 -0.05160685 0.027010087 -0.01128811 0.006172745 -0.015194811 -0.0079676155 0.0020191353 -0.01915593 0.0123423515 0.014739486 0.03475394 -0.01143609 -0.035154685 0.0031476582 -0.0029536586 0.006024385 0.042503882 -0.018253088 0.04697785 -0.008574679 0.026908703 -0.036338016 0.011842273 -0.02014792 0.037176184 0.035686124 -0.016818533 0.008917281 -0.016772304 0.036976714 -0.012027618 -0.031939656 -0.008675743 0.034260854 0.027320283 0.033918235 0.007922722 0.03698971 0.0054167625 -0.021860465 0.032435175 0.016137647 -0.016553601 -0.0034848396 -0.03418066 -0.009559752 0.027714957 -0.011227206 -0.0142355915 0.057755835 -0.026825143 -0.003912027 -0.009302976 -0.0064579546 -0.022362446 -0.01616746 -0.023371624 0.034078386 -0.030139431 -0.015139769 -0.030224944 0.019532125 0.03187991 -0.057798803 -0.015769271 0.0401176 0.050776787 -0.03637447 -0.009669986 0.015590771 -0.026020173 -0.039177284 -0.008042067 -0.060842853 -0.016325884 -0.007390062 0.032975957 0.023048006 -0.019117627 -0.013463603 -0.00038802638 -0.0042372313 0.007556203 -0.010515606 -0.047336668 0.01292252 -0.025164006 -0.011436919 -0.010200185 -0.033505827 -0.037718028 -0.031570204 0.001225542 -0.03613972 -0.02648215 -0.029704494 0.053214066 -0.011607172 -0.009315782 0.011631569 -0.033946685 0.037223212 0.037758462 -0.044691466 -0.019667862 -0.02945757 0.005901934 -0.036351487 0.006739234 0.022425564 -0.0005277946 -0.035238236 -0.03344262 -0.031113964 0.031508327 0.0066726725 0.03867975 -0.06919704 0.004360881 -0.024597537 0.016606662 0.022377957 0.02795182 -0.0047462243 -0.012139057 0.019988416 0.02179529 0.028130244 0.027210306 0.015177345 0.034279346 0.03029061 0.03557201 0.014980148 0.020510582 0.012202788 -0.01277449 0.025922269 0.035364315 -0.011929294 -0.029518254 -0.0137705365 -0.0035185015 0.019490391 -0.00062781275 -0.042510957 0.01165607 -0.004612131 0.035871018 -0.009995388 0.0068470784 0.026091648 0.019595426 0.03456741 0.043417133 0.0434733 -0.009000042 0.00818825 0.017763197 -0.005038221 0.022888746 0.049163487 0.04803121 -0.01671505 -0.02837008 0.0015323713 -0.0457133 0.008696239 0.022581344 -0.044020254 0.04465894 -0.042330638 0.019083662 -0.019982457 0.02889761 -0.019578235 0.025472572 0.019197125 -0.024216266 -0.025064206 0.011072433 -0.0049270755 0.024957078 0.023625366 -0.025976827 0.04336145 -0.0151085295 0.01642204 -0.024844756 -0.029151758 0.030671652 0.01593397 -0.050464474 -0.016670171 0.016554581 -0.016997138 0.005824364 0.0064280424 0.031857114 -0.02449147 0.0045739515 0.021126937 0.0032659015 -0.004079808 0.033413216 -0.017791225 0.040734656 -0.059193414 0.044229943 0.001918195 -0.027389778 0.029215073 -0.04239322 0.03141111 -0.021941857 -0.01388385 0.01674005 -0.0152854575 -0.028394047 0.017288307 -0.018484032 -0.023556255 -0.033505872 -0.0013819004 -0.027592316 0.016864385 -0.013412197 -0.053410597 0.040376578 -0.0119459545 -0.040971242 0.042025764 -0.032119915 -0.044384874 -0.014875047 0.032530542 -0.032085374 -0.07095681 0.005636799 0.014019154 0.0297217 -0.04631679 -0.040695217 0.012735309 -0.04113786 0.05300939 -0.021672761 -0.04551411 -0.02018414 0.00075763563 -0.026422868 -0.0066463146 0.044000983 -0.040603813 -0.0125842625 -0.009244423 -0.005196662 -0.031655695 -0.056719646 0.050009344 0.0034852761 -0.0031365969 0.016864577 -0.021776073 0.014766181 0.010740996 0.011622689 0.019219572 -0.035224084 -0.033102904 0.012512281 -0.0064979307 0.029030528 -0.03810559 -0.024574952 -0.029522058 -0.02135601 0.030128283 0.032466486 -0.0019152621 0.024534443 -0.040349137 0.0043961615 0.0068975277 -0.02962128 -0.037764583 0.027728256 0.039139923 0.024131032 -0.039501037 0.025842125 -0.03914983 -0.0009290844 0.020618692 -0.023176111 0.018279077 -0.01493494 0.020795036 0.03758476 -0.029219462 -0.037131127 0.045740083 0.020090457 0.026988376 0.0035387455 0.028525507 0.016645333 0.0041838116 -0.016183093 -0.0045189965 0.035791278 -0.02684636 -0.0090546645 0.020920223 -0.0027967235 -0.009183966 -0.0031877419 0.017708581 -0.037017893 -0.0023429848
0.030131197 0.022761507 0.030697433 0.029325942 -0.024377445 -0.003319462 0.028388059 0.04626095 -0.043104015 -0.016259965 -0.03107215 -0.004801933 -0.0023923104 0.012772059 -0.013616437 -0.044117305 -0.012168663 0.011074499 -0.018608153 0.048936915 0.006977701 0.000592277 -0.017000394 0.034132116 0.0020528163 -0.0030343751 0.04102262 -0.010530332 -0.02712216 0.012442762 0.0055970913 0.037712175 0.011490885 -0.032262523 0.027318437 -0.03005315 -0.022977564 0.031537395 -0.019172639 -0.0131675 -0.03414656 -0.008305276 0.034518626 0.009517417 0.03533615 0.044508588 -0.026361814 -0.00818377 0.021461109 -0.023697328 -0.004387112 0.018509451 -0.0040937 0.046201866 -0.015503998 -0.017418815 0.0037822498 0.012746163 -0.015000411 0.013509685 -0.023487063 0.017471716 0.037079036 0.006310262 0.0064671 0.013810658 -0.023613887 0.034625746 -0.035125844 0.0075676558 -0.02477301 -0.019535674 0.023695886 -0.0035265167 -0.033689268 -0.021254068 -0.02121059 -0.003933017 0.019795137 0.030805197 -0.044528723 0.031433027 -0.0036770296 0.038488682 -0.0275723 0.012515119 -0.014697457 -0.02507849 -0.035889924 0.024049204 -0.0039902125 -0.007951268 -0.0129354345 -0.013526774 0.002492226 0.04044206 0.034800097 -0.032086182 -0.022559825 -0.030376706 0.032035373 0.01454657 -0.02815404 -0.034132324 0.009592764 0.043989103 0.051751506 0.044658132 0.0076730284 0.030384403 0.009379862 0.024152918 -0.016139336 -0.015605998 -0.017095355 -0.025711123 -0.019635458 0.021367835 0.015440195 0.046846423 -0.029201122 -0.015114803 0.030139787 -0.035761967 0.0046158778 -0.030564394 0.007773742 -0.0019176895 0.02616257 0.051505666 0.003342876 -0.018282983 0.019868415 -0.031108903 0.005897593 0.03900097 0.03936198 0.04196901 0.021896293 -0.019631559 -0.0025069667 0.02050784 -0.043704115 0.021330647 0.0103907995 0.03393914 0.005254977 0.0023316124 0.022573736 0.014200214 0.019007958 -0.02815362 0.01730375 -0.012713898 0.011628143 0.018622857 0.009523315 0.012635957 0.023228684 -0.03752148 0.023817776 -0.024297768 -0.025017576 0.031124417 0.04016074 -0.03213185 -0.019838342 0.031694286 0.007764807 0.014699727 -0.008225076 -0.027788807 -0.00049063255 0.04237366 0.043271706 -0.040460885 0.030248273 -0.040191066 -0.009645685 0.014021407 -0.0035389161 -0.028927192 0.04400194 -0.00187871 0.02511821 -0.021379378 0.014442382 -0.016806511 -0.019618701 0.0062833373 -0.0086478405 -0.025956625 0.009902944 0.009060187 0.0030928757 0.025571767 -0.035443593 -0.012994351 -0.024734853 -0.02034657 -0.01390992 0.009980339 0.0037826605 0.011403996 0.039652124 -0.006869112 0.028036121 0.0018518941 0.0042470386 -0.060439218 0.027586007 0.0423757 -0.010565038 0.0051899822 -0.03345642 -0.04002156 0.0015057549 -0.01943634 0.0006290701 0.017474283 0.020728113 -0.013266094 -0.042286895 0.013529469 0.011274727 0.0036926835 -0.038053233 0.030131845 -0.020747095 0.020148568 0.04808756 0.021448659 0.022323135 0.0334947 -0.0039980505 -0.01268072 0.05358552 -0.021831451 0.013943141 -0.03555838 0.036100253 -0.017064156 0.019047003 0.00482342 0.010492713 -0.025628338 0.0032636386 -0.041943192 0.033522934 0.032404438 0.031473383 0.03165282 0.004193206 -0.030592151 -0.024640651 -0.03165823 0.01818536 0.033382095 -0.03009802 -0.03897293 0.0234525 0.030817756 0.038049076 -0.015322498 -0.030847685 -0.022656318 0.008688057 0.022311008 0.019324407 0.051485177 -0.037661936 -0.034853708 -0.038669948 -0.008520788 -0.017780578 -0.016187733 0.010285266 -0.03168452 0.043636966 0.035379644 0.020119352 -0.033370566 0.01952428 -0.032763947 -0.0033421204 -0.028325293 -0.027156249 -0.011308946 -0.025380699 0.020777298 0.008488608 -0.004432535 0.003872373 0.051643692 0.015293464 -0.045802988 0.021493658 0.026550557 -0.03547592 -0.004967869 -0.042507283 -0.0070802523 -0.03976196 -0.01757521 -0.022722505 -0.0371824 0.023652082 0.028847419 0.032804456 0.054250088 -0.049274385 -0.007823432 0.019387504 0.038022786 -0.035804354 -0.04789189 -0.032050505 -0.035407435 -0.036102068 -0.02795576 0.03952359 -0.020157063 -0.033178285 0.006701985 0.008315324 -0.004404819 0.022681424 -0.00018438054 -0.02567817 0.03661144 -0.021240199 0.013060071 -0.008961619 0.028285662 0.009058525 0.025201602 0.024553934 0.01917561 -0.035064377 -0.02885872 -0.0033452876 0.04361928 0.044235382 -0.014378874 -0.000491761 -0.028194834 0.0019313811 -0.018745393 -0.026671793 -0.017123325 0.035627138 -0.01749962 -0.029367225 -0.02996135 -0.009094495 -0.046052143 0.023717074 0.02433406 0.0469435 0.019053098 -0.008031515 0.034508333 0.022993458 -0.005456475 -0.023267472 0.027361117 0.025804397 0.03923685 -0.045143608 0.026839588 0.0245135 -0.018890768 0.014424053 -0.0046997927 -0.020704689 -0.022587504 0.0027946262 -0.023234392 0.02007875 -0.0015014388 -0.010815932 -0.015322787 -0.022634083 0.02687008 -0.03538023 0.024160033 -0.014737524 -0.019706016 -0.0016249667 0.026062379 -0.029306844 -0.039024815 0.010283584 -0.0041164975 0.017581346 -0.0045241173 -0.004443297 -0.028304936 -0.038649384 -0.012773802 0.014588609 -0.0075983945 0.049586676 0.02238385 -0.027244516 -0.031603713 -0.007313455 -0.043898467 -0.03233453 0.007254952 -0.022590213 0.010513783 0.033625066 0.007818912 0.017497677 0.03161315 -0.027546914 0.029740958 -0.010201733 0.030333467 0.00030245996 -0.029898945 -0.015126993 -0.0051776385 0.015511465 -0.004118863 -0.026588656 -0.017769396 -0.02197713 0.016182426 0.006500602 0.010249753 0.020728633 -0.040948052 -0.024025138 0.031863358 0.025471875 -0.020335939 0.030899925 -0.032467637 0.042331163 0.009525686 -0.008576896 -0.002427454 -0.003062795 -0.030917514 -0.032413293 -0.041042536 -0.011597116 0.021463836 -0.018410603 0.028254746 0.018426277 0.04023997 -0.011602131 0.033951763 -0.0005684217 -0.012472337 0.015968293 0.02548859 -0.03982479 0.0032838788 0.0146799935 -0.011156135 0.041121963 -0.04607274 0.038560092 0.043238316 0.028225569 0.03831546 0.011904077 0.03250281 0.019251259 0.045222875 -0.01965315 0.017064542 0.0058568637 -0.007362564 -0.0047345096 0.037965175 -0.04283936 0.038912077 0.011356494 0.023745421 -0.040191334 -0.019084388 0.02577237 -0.014742076 -0.035066865 -0.03498935 -0.021171376 0.03897605 -0.016146123 -0.010168636 -0.028460331 0.025398318 0.032907788 0.014650898 0.0560207 0.026419066 -0.017315598 -0.040992852 0.040378854 -0.002120193 -0.017654806 -0.03716806 0.037004024 0.009714151 -0.005230618 0.051690087 -0.038379475 -0.0095666535
