0.06916228
0.069037795
0.05100603
0.039489552
0.02100389
-0.09028924
-0.028014386
-0.061463654
-0.010304336
-0.03282398
0.047571547
0.044478245
-0.022894807
-0.021048928
-0.044812147
0.05413818
0.05573783
0.061262913
-0.07714808
-0.027080653
-0.067674085
0.059834227
0.0017071045
-0.04664413
0.002398788
0.041240547
0.053416256
0.020305833
-0.007290772
0.028117776
0.05647611
-0.039318614
0.025160523
0.052460402
-0.05288892
-0.034407444
0.09235871
-0.035378594
-0.04304242
0.025314434
0.047835372
0.035647094
0.08688987
-0.066219
0.012345733
0.08333564
-0.035244036
0.05439417
0.047952443
0.04400388
0.027078906
0.015583314
-0.09765
0.066119045
0.03785922
0.07999474
0.034217175
0.05100458
0.076079205
-0.02237662
-0.0273416
-0.028049093
-0.057308286
-0.056713846
-0.14368702
0.03783159
0.045650113
-0.08185953
-0.0693938
-0.04580795
0.0556815
0.05873943
-0.08554393
-0.04058223
0.052020937
-0.11274398
-0.025840038
0.06981577
-0.049354658
0.042531874
0.008865039
0.027951824
0.04097991
0.018928507
0.049716774
0.016025105
-0.053324915
0.075438745
-0.0584385
0.0818932
-0.02737887
0.06390955
0.042667653
0.05777718
0.029203875
-0.04764439
-0.06076764
-0.060368624
-0.016253224
-0.14936815
0.05201056
0.040695377
0.050176136
0.077252075
0.039836735
0.039010428
-0.037829418
-0.10979572
0.052323386
-0.055528384
0.07617152
0.038197815
0.04527521
0.03416681
-0.03778428
-0.049404107
0.04560934
0.017636651
0.03963949
-0.040852226
-0.057149533
0.045461733
-0.027166981
0.021744058
0.07222488
0.036345743
-0.079515845
-0.033334304
0.017728217
0.055514622
0.062376164
-0.06441807
-0.140938
0.07064297
0.07502477
0.07009332
0.017479373
0.043998003
0.038866196
-0.04843697
0.0596916
0.050991196
0.053934395
-0.03738553
-0.118088074
0.05245659
-0.0060400213
0.07347083
0.043622
0.03894273
0.046718117
0.044129636
-0.093898706
0.021430515
-0.023043113
-0.0062606363
0.037345
-0.16580573
-0.13586576
-0.06442842
0.039616536
-0.07211946
-0.11877423
-0.033680476
-0.03912725
0.008691232
-0.08663948
0.043850005
-0.055011977
0.063997135
-0.04211865
0.040607434
-0.036194965
-0.0250589
0.028873663
-0.050742846
0.042577676
-0.015450241
-0.081772484
-0.040194612
-0.05800295
-0.027889878
0.039653122
0.0813437
0.07481089
0.035973907
0.065970376
0.053540744
0.026199501
-0.04129964
0.052760806
-0.06545772
0.07118009
-0.029504169
0.092503905
-0.06699188
-0.055217195
0.0185799
0.031472
-0.049540363
-0.04304767
0.05056157
-0.040489923
-0.051095586
-0.05104221
0.003909352
-0.089822166
-0.019649094
0.06463266
0.046123624
-0.06817829
0.05671426
-0.0467302
0.037547357
0.038612016
-0.04826597
0.05612298
0.011937739
-0.044538252
0.022871755
-0.0035710067
-0.03705823
-0.017903294
0.06825353
0.024661625
0.034466777
-0.055184234
-0.12824985
0.015709545
-0.054348912
-0.09251098
0.036754057
0.08084469
0.04670033
-0.03863797
0.05821287
-0.07240584
0.055870574
-0.04146319
-0.028573072
0.058446065
0.060032967
-0.06245577
-0.034532517
0.0037149456
-0.052082893
-0.21276847
-0.066612706
0.050639816
0.006323755
0.06570388
-0.13291313
-0.026127681
-0.037505206
0.03532863
0.058933303
0.03786723
0.031459454
-0.1056119
-0.03625373
0.052969266
-0.023195527
-0.069016725
0.05896417
-0.02932827
-0.04123586
0.04304976
0.06116907
-0.008240031
0.01540242
-0.025357082
0.04427887
0.06490438
-0.04915786
0.036952946
0.046976738
0.068218395
0.036862712
-0.14242336
0.044308234
0.041142467
0.03327648
-0.019163013
0.04476156
0.05705995
0.0670303
-0.042606067
-0.07271401
0.018626489
0.052860517
-0.057213515
-0.059395526
-0.040560763
-0.04103715
0.06725876
0.029903302
0.096182205
-0.07414574
-0.072022855
-0.0153013915
-0.118308336
0.037315127
-0.0067352476
0.071600504
-0.017650103
0.039541792
-0.10099909
0.03773089
0.07297557
0.03960451
-0.03564613
-0.033958584
0.030232804
0.03638769
0.04105255
-0.08236833
0.047355343
-0.114004366
0.054710273
-0.03909509
-0.04707941
0.08000086
-0.091101944
0.024759978
0.04726463
0.040509332
-0.04435945
0.028666241
-0.062350098
0.015264609
0.048141465
0.052000724
-0.057203766
0.038618755
-0.02514914
-0.08163953
0.035326596
0.034042582
0.050679725
0.061460733
-0.03576183
0.057814382
-0.062353764
0.024943246
0.068749264
0.044604786
-0.031893246
0.036341988
0.042211864
-0.006319222
0.076450236
0.048675563
-0.098441236
-0.04557488
0.04947454
-0.05099814
0.057153564
0.062377807
0.07759247
0.05581228
-0.05679212
-0.060065936
0.053716283
0.09486287
0.023593735
-0.038315453
-0.043631777
0.05794181
-0.039425433
0.06486937
0.036457084
-0.027075876
0.054146662
-0.044573244
-0.15555114
-0.038735792
-0.048194293
-0.14807656
-0.042741958
0.05924773
0.05538928
0.0036652458
0.062955275
-0.05154002
-0.020108799
-0.056859817
-0.18654402
0.02155115
-0.03853851
0.061309952
-0.05711241
0.07150283
-0.04022437
-0.037159227
-0.05745772
-0.04924008
0.04438302
0.03742913
0.043453977
0.034281142
0.029731704
0.037599675
-0.016252672
0.056557395
-0.046981677
-0.06176929
-0.047601465
-0.015276033
0.044939764
-0.0024803027
-0.084827214
-0.023562538
-0.10112
0.05404188
0.018484931
-0.09390336
0.033599164
-0.030125579
0.042281236
0.06087285
0.035577662
-0.039705914
0.050123617
-0.10684739
0.040649604
0.059822924
0.055191327
0.04325454
-0.14084552
-0.12708129
0.068827085
-0.013778931
-0.027401881
-0.091325864
0.0021881186
0.05272106
-0.059574742
-0.033507857
-0.039423387
0.060030144
0.030377565
0.06937271
0.029567162
-0.056922298
0.07403494
-0.04558438
0.055741943
-0.031056004
-0.046406575
0.04901103
-0.04342904
-0.06603614
-0.023093406
0.038405534
0.044778615
0.045221
0.013929812
-0.06008083
-0.071673065
-0.020213986
0.05744743
0.061076738
0.053818926
-0.026389316
-0.07094557
0.05773437
-0.0627822
0.05642608
-0.0004815819
-0.033665184
-0.059584297
0.040426206
0.047870975
0.059909586
0.07752133
-0.042820387
0.035441652
0.04172019
0.014192263
0.053646192
-0.045849793
0.040359788
0.054561604
0.052013274
0.045740493
-0.031546228
0.0553498
-0.13091105
-0.05889131
-0.051105138
0.06493567
-0.04693162
-0.04724404
0.018263493
-0.04765273
0.057243325
0.040151518
0.046075847
0.053920016
-0.06193959
0.04721573
0.057321474
0.042113658
0.05699891
0.08603592
-0.09962113
0.0466747
-0.09581968
-0.042965587
0.055332106
0.047810644
0.05394921
