0.005238526
0.013448175
0.0074685286
0.002247677
0.0014460151
0.008175274
0.0030757138
-0.004518986
0.014085027
0.0018135284
-0.007772518
-0.016710186
0.012113317
0.013276156
0.005867345
-0.008079298
-0.007882272
0.007621433
0.012148083
0.001626078
-0.009017062
0.0074089863
-0.007827795
0.023770463
-0.009835629
0.01594729
-0.0066278675
0.010537474
0.00926324
0.021351997
0.004752497
-0.003284761
0.018607806
0.01291425
-0.017359111
0.019599663
0.027776668
-0.025861561
0.008582985
-0.012738407
0.010511292
-0.0070926053
0.003644502
-0.008917092
-0.0021665997
0.017415002
0.0086696595
-0.0016047515
-0.0011105256
0.008439102
0.0040252297
0.005136726
0.011255615
0.01004057
0.011933282
-0.0046875146
0.0050428766
-0.003187293
-0.00090199395
0.010106193
-0.0114818225
0.026662312
0.0053616883
0.017397458
0.008313907
-0.004389884
-0.0025864567
-0.014607939
0.017539103
0.012185518
0.015079911
-0.0102158375
0.005151147
0.001085806
0.009307138
-0.009252021
0.014976684
-0.0064036055
0.0038665903
-0.00044012425
0.015506418
0.012739887
0.011525706
-0.012259325
0.010455602
0.018120093
-0.005949666
0.02860603
0.024375385
0.008250718
-0.008140862
0.0030106946
-0.01853514
-0.0017485576
-0.002593356
0.007112151
-0.007809586
-0.0025928128
0.012411075
0.016652474
0.010244168
-0.021107601
0.0041184835
0.0005865777
-0.0039657387
-0.009566385
-0.018566452
0.0026942678
0.015300022
-0.014958204
0.0018558701
0.009384673
0.01562785
0.011784305
0.01220169
0.028362243
0.0082041845
-0.005682672
0.01212689
-0.014180134
0.018290639
-0.004948024
-0.0067206663
0.0040925667
0.007008383
-0.012319317
0.030398857
0.0110566905
0.006756593
0.024982106
0.01084719
0.01411544
0.019379092
0.013871917
-0.013952517
0.0019962396
0.01958955
-0.0142559605
0.010868157
0.008366185
0.0041826465
0.010072004
-0.009605472
-0.0017312198
-0.006154019
0.0070902854
0.0039410507
0.0036846139
-0.008249216
-0.0024460366
0.005623681
0.007891751
-0.008944296
-0.0053828014
-0.0075027486
-0.0057627195
0.018237732
0.017666902
-0.011463348
0.017489549
0.0050856206
0.0037299818
0.0023726285
0.005747338
0.00938327
0.00082761626
-0.010004064
-0.003977864
0.011549499
-0.0005435663
0.014218107
0.019798446
0.024125064
0.0091826795
0.0076166354
0.0055564893
0.005383873
0.015036344
0.004045419
0.011901663
-0.005520542
0.025032105
-0.0076710368
0.014292868
0.012190255
0.008026552
0.01391038
0.0064367414
0.009559567
-0.008365308
0.006917205
0.01951778
0.01657504
-0.014043379
0.012169576
0.018736737
-0.004745797
0.0144726895
0.00081309775
0.008536454
0.0132413795
0.024040183
0.006751695
0.014776101
0.0049280245
0.0052489867
-0.006997081
0.015287525
-0.00024585403
-0.008257966
0.00479762
0.019106302
0.009785531
0.018541548
-0.006841458
0.013936725
0.020128354
-0.009989013
0.014497375
0.009373515
0.007038974
0.010086638
0.018152507
-0.015615056
-0.011214163
0.018382875
0.0010848973
-0.0023417089
0.0014350637
-0.014514212
0.004111404
0.015433543
0.016356992
0.0072225407
-0.0016030297
0.01717565
-0.0025066745
0.011871294
0.0016054653
-0.0008454904
-0.003975856
-0.0010282989
-0.005344727
0.0013048261
-0.00741897
-0.013664193
0.014266807
0.010971609
0.02289675
2.5508192e-05
-0.00856539
0.015475894
0.011775107
0.018524677
-0.004477178
0.0024873058
-0.00843676
-0.011569432
0.021047441
-0.0004942444
0.004387212
0.0075863623
-0.015418723
0.021275641
1.3728451e-05
0.011516095
-0.0048753903
-0.0101000955
-0.0019301863
0.006240382
0.010491059
0.008318232
0.014438084
-0.00950001
0.010725314
-0.0028250727
-0.0073475633
0.0008001087
-0.005255204
-0.012826399
-0.011739286
0.004457932
-0.016881162
0.007892615
0.005501917
0.0067824586
0.0065323794
-0.0070053176
0.019203968
0.010944022
0.00045570437
0.015431407
0.017457148
0.0013492152
-0.012194208
-0.016526954
0.019872911
0.032306723
-0.004520436
0.01463256
0.0015037998
-0.00580901
0.0044135386
0.00630943
0.015562085
0.0023438642
0.013034837
0.0028261028
-0.013466106
0.008299562
0.003491945
-0.004296529
0.005689722
0.010825847
0.0033897797
0.009293636
-0.00036997313
-0.0021799318
-0.00089899724
0.018643638
1.4497475e-05
0.0011126787
0.008451185
0.004667345
0.017680617
0.017888179
0.0024680826
0.019140206
0.010001721
-0.0033777312
0.024833634
0.008452261
0.008256101
0.010957102
-0.008121338
0.011486744
-0.008709189
0.0032196254
0.009782597
-0.028809957
0.015366435
-0.010401207
0.0031078884
-9.0531656e-05
0.0030845145
-0.009446581
0.0017215336
0.015556644
-0.0015814877
0.007971331
0.0074603218
-0.0024486887
-0.0030935958
0.011433413
-0.0076034246
-0.008220071
0.013665511
0.0048174122
-0.0033827676
0.011145068
0.024032721
0.0024852208
0.018701043
-0.02999674
0.008931979
0.0008412624
0.025738394
0.013358938
-0.011783621
0.024493054
0.013667465
-0.01578449
0.010701931
0.0070162886
0.0077923695
0.00013065473
0.015747206
0.011149658
-0.0020259854
0.023936298
-0.01970351
0.004087633
0.023128795
0.008012164
0.0019891537
0.0048697535
-0.010627204
0.0032711134
-0.009730701
0.018962981
-0.0014235697
-0.0018383285
-0.004574474
-0.00080427155
0.010487091
-0.013211058
-0.001509253
0.022247672
0.004413027
-0.0059026997
0.0051914486
-0.005637979
-0.012565767
0.013646075
0.024558548
-0.0007606823
0.016097989
0.019756498
-0.0061146836
-0.007621606
-0.0043333685
-0.0026513354
-0.006209493
0.010641619
-0.021264704
0.0066680196
0.01419194
-0.0029096003
-0.001286312
0.006483597
0.01714765
-0.01164743
-0.00036362378
-0.014328683
0.024397276
0.011353294
-0.0023016366
0.030036373
0.014446085
0.021059042
0.012148553
0.005538229
0.005916249
0.0047791023
-0.0069638947
-0.0142075885
0.010486265
-0.004640747
0.023145067
0.016441366
0.021529123
-0.0077332403
0.0020768663
0.0013747303
0.007429764
0.019786157
0.016220493
0.009019329
-0.0015659378
-0.01357459
0.0015214785
0.02236393
-0.00052829424
0.01002969
0.021007642
0.013083801
0.0030057759
0.01801774
0.014811942
-0.0029421595
0.0015109583
0.009402307
0.011650973
0.005303764
-0.004331518
-0.0028664505
0.015172201
0.017937496
0.013333581
0.015832784
0.01638004
0.013593618
0.023547905
-0.03865246
0.01578787
-0.0056417263
-0.0045745126
-0.0005872086
0.0071051666
0.022673132
0.014291793
-0.0028933962
0.007365011
0.010289531
-0.008288818
0.008246488
0.007194549
-0.010478406
0.016376335
0.014112813
0.009373242
-0.005246032
-0.00039494078
0.025621366
0.012890378
-0.008783358
-0.010015884
-0.018310474
0.009005436
0.006145751
-0.0019764407
0.0027952564
0.007717734
-0.013566327
0.009928223
0.009295216
0.0045789173
-0.0245301
-0.010007946
-0.0016393447
0.0044673746
0.011307298
