9.309371933341026306e-03
2.584436535835266113e-02
-2.665526792407035828e-02
3.459733212366700172e-03
-1.025338564068078995e-02
-3.851993754506111145e-02
6.988216191530227661e-04
4.026527702808380127e-02
7.008394598960876465e-02
2.854727767407894135e-02
8.527932688593864441e-03
-4.590915516018867493e-02
-1.367524545639753342e-02
-1.511734630912542343e-02
-7.666870020329952240e-03
-1.791234826669096947e-03
5.988495051860809326e-02
-6.989373266696929932e-02
-4.419301450252532959e-02
-1.047875359654426575e-02
3.782545402646064758e-02
6.815356761217117310e-02
-5.409163609147071838e-02
-6.662840314675122499e-05
-2.909947372972965240e-02
4.089392349123954773e-02
-3.982287831604480743e-03
2.309098467230796814e-02
-3.902091085910797119e-02
8.139534853398799896e-03
4.552016034722328186e-02
-4.910060763359069824e-02
-2.414442133158445358e-03
-3.162051783874630928e-03
-3.673234581947326660e-02
4.467383492738008499e-03
-3.494252637028694153e-02
5.302911996841430664e-02
-2.991371415555477142e-02
9.261702187359333038e-03
2.506596967577934265e-02
3.555647656321525574e-02
-3.082191012799739838e-02
-3.281012922525405884e-02
9.988627582788467407e-02
9.301936253905296326e-03
-2.738821692764759064e-02
-4.599990695714950562e-02
2.128094062209129333e-02
-2.098949812352657318e-02
-5.658717826008796692e-03
3.809600323438644409e-02
3.897866606712341309e-02
4.114908352494239807e-02
3.195739118382334709e-03
-4.265725985169410706e-02
-2.043147198855876923e-02
3.456207737326622009e-02
9.832968004047870636e-03
-2.380719222128391266e-02
7.268054410815238953e-03
-1.425428781658411026e-02
-2.723805233836174011e-02
-1.051476970314979553e-02
1.690872479230165482e-03
6.756619084626436234e-03
2.816828526556491852e-02
3.943489119410514832e-02
9.671887010335922241e-02
3.625642741098999977e-03
-5.301628261804580688e-03
-3.919506445527076721e-02
-4.062198475003242493e-02
8.409523963928222656e-02
-1.093370094895362854e-02
-5.155405774712562561e-02
1.908585242927074432e-02
3.384464606642723083e-02
1.175572746433317661e-03
-2.762282826006412506e-02
5.078022833913564682e-03
-6.608020514249801636e-02
2.157609909772872925e-02
3.286628425121307373e-02
1.645324937999248505e-02
1.947112753987312317e-02
-7.484203670173883438e-04
3.396009653806686401e-02
-4.920597746968269348e-02
4.849308636039495468e-03
6.993765942752361298e-03
3.695499524474143982e-02
-4.847007989883422852e-02
-4.738155752420425415e-03
-2.114835008978843689e-02
4.465993959456682205e-03
-2.919963328167796135e-03
-4.008588567376136780e-02
6.025228649377822876e-02
2.854644879698753357e-02
6.706824526190757751e-03
-1.248556561768054962e-02
-2.658044546842575073e-02
-9.114585816860198975e-03
-1.186226960271596909e-02
4.035950452089309692e-02
-1.943313889205455780e-02
2.285625413060188293e-02
8.097179234027862549e-03
2.050056122243404388e-03
3.701313957571983337e-02
-1.761187240481376648e-02
4.459658265113830566e-02
-5.966639891266822815e-02
-1.408638246357440948e-02
-2.270386926829814911e-02
1.014139410108327866e-02
3.712892159819602966e-02
-1.964726485311985016e-02
-1.780426944606006145e-03
-6.131552159786224365e-02
3.858621045947074890e-02
8.223312906920909882e-03
9.079284220933914185e-02
6.100731901824474335e-03
6.071802228689193726e-02
5.285637918859720230e-03
2.401554211974143982e-02
2.849481825251132250e-04
-2.727349847555160522e-02
-1.557340193539857864e-02
9.117866866290569305e-03
5.869297683238983154e-02
-6.640493869781494141e-02
2.727118879556655884e-02
-3.956368193030357361e-02
3.955360036343336105e-03
7.595993112772703171e-03
2.392323501408100128e-02
-7.767029106616973877e-02
-9.904728271067142487e-03
1.306138187646865845e-02
-2.532853186130523682e-02
5.314382165670394897e-02
4.496884066611528397e-03
1.385133806616067886e-02
4.868329316377639771e-02
-6.581930443644523621e-03
-2.875191904604434967e-02
2.620861306786537170e-02
-4.111826792359352112e-02
-2.594935148954391479e-02
3.166611120104789734e-02
2.577616460621356964e-02
-1.993459463119506836e-02
2.236951701343059540e-02
-3.799806907773017883e-02
-3.660963382571935654e-03
-9.237477555871009827e-03
5.815085396170616150e-02
-1.666742376983165741e-02
-6.266418099403381348e-02
-8.824368007481098175e-03
3.683643788099288940e-02
1.260900311172008514e-02
-2.576813660562038422e-02
2.148133469745516777e-03
-2.510272711515426636e-02
5.202544108033180237e-02
-2.178999781608581543e-02
5.531757324934005737e-02
-5.985535681247711182e-04
-1.719258539378643036e-02
-2.283391170203685760e-02
-1.499814819544553757e-02
3.876908496022224426e-02
6.365791894495487213e-03
6.395070999860763550e-02
8.512405306100845337e-02
-5.610665678977966309e-02
1.722454652190208435e-02
-3.811369836330413818e-02
1.199783943593502045e-02
-1.189698185771703720e-02
5.325226858258247375e-02
1.557599008083343506e-02
-1.726387254893779755e-02
-7.332038599997758865e-03
6.603836268186569214e-02
2.756111323833465576e-03
6.778909265995025635e-02
-9.946819394826889038e-03
4.161826148629188538e-02
4.149120673537254333e-02
-9.133565239608287811e-03
4.815661162137985229e-02
6.640550680458545685e-03
-1.823928579688072205e-02
-1.921469718217849731e-02
5.512780323624610901e-02
2.959113381803035736e-02
-1.424947474151849747e-02
1.979833468794822693e-03
4.011217132210731506e-02
7.286016829311847687e-03
-4.199115559458732605e-02
-2.645196579396724701e-02
-1.032173540443181992e-02
1.689871959388256073e-02
3.165514767169952393e-02
3.267166763544082642e-02
-1.369352824985980988e-02
-1.949322223663330078e-02
3.082916885614395142e-02
4.995460435748100281e-02
7.746645063161849976e-02
-2.623168751597404480e-03
-1.330555696040391922e-02
1.642797142267227173e-02
3.984167799353599548e-02
7.112207356840372086e-03
-1.996885798871517181e-02
-2.059074491262435913e-02
1.297584455460309982e-02
5.387201439589262009e-03
-3.819323331117630005e-02
-2.125219255685806274e-02
6.621477007865905762e-02
9.560060687363147736e-03
-3.449111431837081909e-02
-5.216889828443527222e-02
2.288401359692215919e-03
1.853230409324169159e-02
-4.945604130625724792e-02
-1.480710878968238831e-02
2.253110334277153015e-02
4.779272899031639099e-02
-4.260917380452156067e-02
2.519010566174983978e-02
9.736938029527664185e-02
1.621265336871147156e-02
-1.036964729428291321e-02
2.616785233840346336e-03
1.213375199586153030e-02
-3.847796842455863953e-02
8.248588070273399353e-03
3.855621442198753357e-03
-4.957541450858116150e-02
-1.233150600455701351e-03
1.122699026018381119e-02
6.324911490082740784e-03
2.850848017260432243e-03
7.683861255645751953e-02
-1.314994599670171738e-02
-3.840473294258117676e-02
-8.261856622993946075e-03
