-0.037912164
0.013152316
0.081256345
0.48482907
0.07521465
0.18422416
0.3918581
-0.2260333
-0.25748667
0.1617037
0.08161838
-4.3077034e-05
-0.3222552
0.48504677
0.14702481
0.17267615
0.13943364
-0.24321996
0.06434113
-0.34858134
-0.5171436
0.07139738
0.42000866
-0.41798034
-0.02229035
0.48114017
-0.4832983
0.03949035
-0.038138706
0.42806193
-0.39491954
-0.26475593
0.56936336
-0.3623996
-0.22590505
0.5204264
-0.023462646
0.32138738
-0.23527932
0.03885422
-0.2946741
0.13483103
-0.2691559
-0.30337176
0.48017314
0.3866209
-0.028029395
0.040115505
0.5747318
0.4370499
0.18833917
0.4933918
0.18297505
0.0070344666
0.25537613
-0.15432122
0.22679949
-0.23011799
-0.24797355
0.041442607
0.2007958
-0.24572825
-0.4625108
-0.27342367
0.19222726
-0.18887128
0.093899176
-0.34120104
0.10857532
0.0102478275
-0.510864
0.14301753
0.00095199246
-0.24977352
0.22071202
-0.40834746
0.055113003
0.14799039
0.27346992
0.36449397
0.235625
-0.23562439
0.019159159
-0.3026214
-0.21256952
-0.1667188
-0.17394662
-0.44015992
0.10466816
-0.39109483
-0.30485857
-0.2398826
-1.1505944e-05
0.19945796
0.596188
-0.48819482
0.115142144
0.1241608
-0.29684737
-0.084029496
-0.30295435
-0.45032516
0.20162205
0.23120478
-0.13940382
0.35909483
0.26851398
0.1908222
0.3032874
0.336504
-0.3103656
0.32470554
0.3813133
-0.4150286
-0.23823982
-0.39084882
0.15764669
-0.30570108
0.291532
-0.559049
0.02625754
-0.30236566
0.0401701
0.31787354
0.41576672
-0.25058064
0.40817824
0.048159663
0.3528091
0.3089557
-0.113924295
0.38287434
-0.24652664
-5.217784e-06
0.14728664
-0.5800916
-0.2758587
-0.17565691
-0.3268789
0.057707164
-0.051153578
0.20658538
0.28039527
0.17119224
0.013629517
-0.1908471
-0.18581831
-0.03579295
-0.18106717
-0.43819964
0.0064844745
0.49399
0.35673016
-0.0038654401
0.03075881
-0.35437074
0.082524955
-0.27426136
-0.03273738
-0.43396193
0.5402284
0.21056978
0.23569573
0.20785707
0.13829169
-0.25130817
-0.16179582
-0.20907623
0.12107962
-0.19339347
-0.20418224
0.25979352
-3.308072e-05
0.24014206
0.19842505
-0.48547032
0.05621673
0.08881191
-0.24702482
-0.27873027
0.37035963
0.18930501
-0.24556328
-0.002779
-0.5053302
-0.034811523
0.28192326
0.44847295
0.30941597
0.1343727
0.21160229
-0.29667366
-0.31727886
0.091201834
5.6446923e-05
-0.22930391
0.39443034
-0.18866107
0.22634414
0.43981498
0.36570612
-0.0066191796
-0.3181708
-0.0073973993
0.37883365
-0.11006421
-0.44057253
0.33253813
-0.2188781
-0.34266004
-0.36632058
-0.39724877
-0.18604557
0.3101637
0.2396756
-0.26597884
0.0015022767
-0.2078839
0.022203939
-0.22604166
-0.4874988
0.14969088
-0.40981054
-0.2815967
0.3087698
0.30777428
0.2516241
0.11769127
-0.18960977
0.15843762
0.4949473
0.5577918
0.19596282
-0.5377664
0.10836513
0.43944633
0.5202021
0.18989588
-0.000262128
0.07809748
0.31360397
-0.014405899
0.34043303
0.112334564
0.2576305
0.26777956
0.5256203
0.15325639
0.011453306
-0.120578244
0.20375755
0.30980563
-0.28017
-0.30551088
0.072580844
0.061567083
