0.18772006
-0.18333504
-0.021938436
0.27931887
-0.24056092
-0.2283212
0.08945315
-0.18865527
0.42405608
0.35382122
-0.15777913
-0.17902648
0.24224424
0.2754216
0.24220905
0.19683509
0.049214486
-0.2527439
0.19205268
-0.29459193
-0.3979078
0.082867526
-0.08995795
-0.027300749
-0.23507357
-0.27586827
0.040720712
-0.21789657
-0.13307033
-0.36345842
0.06776486
-0.11522012
-0.2319568
-0.26699018
-0.31883734
0.10384706
0.31417233
-0.14889704
0.28844023
-0.24901056
0.04062772
-0.34659612
0.30272976
-0.40554905
0.0010944908
-0.21432407
-0.17558092
-0.28786322
0.18704733
-0.3478403
0.32848394
0.26334345
0.3537949
-0.18628205
-0.27397785
0.21622193
0.32398653
0.22470097
0.37497568
0.22599265
-0.3065105
-0.17784305
-0.24437442
0.31493467
0.13176148
0.036496438
0.27076504
0.23138005
0.48348558
0.2967968
0.05712601
-0.29211935
-0.3267314
0.11804278
-0.19019203
-0.26830876
0.12971406
-0.25160214
-0.257854
0.39861727
-0.31347632
-0.18665357
-0.16888486
-0.27613747
-0.02998393
-0.1303968
-0.3804675
-0.06872508
0.2942743
0.2377593
0.25580812
0.3045265
0.12231435
-0.23826367
0.075172916
0.20616242
0.13703811
-0.019226646
0.20315051
-0.23096107
-0.23934047
-0.15473165
0.18250883
0.19526799
-0.43215603
-0.27423358
0.061988935
0.121048436
0.17278245
0.026343651
-0.25501952
0.14082327
-0.21997167
0.035990234
0.4375099
0.3363925
-0.34386426
0.31417322
-0.14549957
-0.19231673
-0.15866704
0.25951812
0.2691293
-0.064548716
0.18380535
0.27907774
-0.29344654
-0.15456933
-0.25543898
-0.2350367
-0.28061453
0.0547307
-0.12239757
0.23699456
0.2907245
0.25961378
0.07192442
-0.28137317
0.032653607
-0.35959744
0.44040817
0.3011899
0.4379523
0.48093957
0.21617393
0.079396054
-0.31409943
0.040896527
-0.39902472
-0.37168163
0.24447192
0.13459764
0.2888501
0.11150001
0.23669793
-0.12314854
0.3978556
-0.22534624
0.14350191
0.092088945
0.03632394
0.32332447
-0.093685605
-0.14098772
0.09790302
0.3307963
-0.18230353
-0.17066972
0.19183035
-0.047251754
0.13963258
0.11715595
0.27150303
-0.1787034
-0.3311041
-0.28112277
0.3942911
-0.0116270855
0.24566498
0.20287131
0.20684037
0.18310505
-0.4975828
0.09063475
0.13849415
0.0029297415
-0.19957098
-0.24053025
0.19238563
-0.17534572
0.108369716
0.03494122
0.15781039
-0.3274767
0.21650235
0.21694523
-0.2084228
0.106737934
-0.17470194
0.027855901
-0.039661504
0.25718582
0.24459605
0.20789425
0.20903623
0.32249525
-0.124921344
0.03554772
-0.24066013
-0.25898978
-0.17827593
-0.12927483
0.007750727
0.09995058
0.067202784
-0.2618101
-0.15740114
-0.13295329
-0.15278216
-0.25209838
-0.29328865
0.105289474
0.2775661
0.3009243
-0.2688018
0.26867238
0.23565634
-0.099252045
0.054461163
-0.29523265
-0.25439027
0.1823621
0.26155546
-0.23088758
-0.07330806
0.08891235
-0.08178313
-0.20039913
0.13144375
-0.01626354
-0.0052350326
-0.06243916
0.050306804
-0.24157469
0.06914052
-0.34834713
0.18924823
0.42296237
0.073436625
-0.02442509
0.20726696
0.15171604
-0.29977223
-0.028173234
0.20083603
0.32543424
0.479384
0.31814918
-0.29710144
0.22151648
0.264501
-0.2854334
0.065135375
0.14628401
0.2195713
0.07360223
-0.30829424
0.38222826
0.07339197
0.1830157
0.15733345
0.25783634
-0.28351176
0.26472405
0.4353066
0.13969949
0.42536065
0.41324094
-0.17765042
0.08777532
0.14383112
-0.06783799
0.1031929
-0.18667051
0.280121
-0.25874177
0.23052305
0.36694655
-0.20856665
-0.1157938
0.22403209
0.09325854
0.01896928
-0.13215661
-0.15558141
0.18546176
0.3178571
-0.349066
0.4238605
0.12213757
0.3087387
-0.30292296
-0.03179941
0.39117745
0.22332607
0.23787019
-0.18547152
-0.24559641
-0.098777436
-0.46933714
-0.28417373
-0.21052583
-0.21633126
0.1320248
0.12413061
-0.30367005
0.14072773
-0.20132247
-0.10726579
0.3448383
0.40836293
0.045656003
0.18922903
-0.20291822
-0.38339603
-0.37732854
0.27188173
-0.114122525
0.25960642
-0.20554405
0.29040846
0.01387522
0.2355659
0.21083741
-0.31721458
0.30302778
0.052322596
0.35701412
-0.5175521
0.16447464
0.39321783
0.19149487
-0.36657146
-0.21499361
0.29465815
-0.103793815
-0.050605174
0.2494729
0.2293991
0.117570974
0.27271923
-0.09404324
-0.32731196
-0.05968167
0.39037797
0.18027537
-0.01927222
-0.299799
-0.36838695
-0.38198486
0.13650161
0.39466906
0.411204
-0.26276296
-0.24024081
0.3426868
0.14208458
0.47924086
-0.32111952
-0.23529081
0.51863533
0.024604434
0.21624018
-0.0718545
0.0926946
-0.25603962
-0.12936851
-0.16721559
0.122534536
-0.13180333
0.3120547
-0.32576695
0.11982109
0.058805134
0.17360663
-0.116789125
0.26428586
0.22716129
0.041234624
-0.13327613
-0.256921
0.12614009
0.08464026
0.24875359
0.07457708
0.25899786
0.21878217
0.19943641
0.1776131
0.28865126
0.3921133
0.25863346
-0.30475265
-0.0905352
0.2779108
0.2230607
0.14476416
0.113773845
0.2778942
0.32607484
0.15835497
-0.12794727
-0.22808476
-0.21294726
-0.15263534
0.04120737
-0.29402652
-0.23418747
-0.059442274
-0.12847093
0.115328245
-0.23455879
-0.11008729
0.0033287124
0.47510123
-0.4800039
0.109531604
0.26478857
0.10147867
0.06632067
0.25186625
-0.22300558
0.37560916
-0.08029514
0.35821968
-0.21594305
-0.09219994
-0.3415965
0.25014734
-0.26051363
0.22107495
0.22514234
-0.24474987
0.21209995
0.26134682
0.08693856
0.23629452
-0.536031
-0.31849152
-0.20958728
0.23059236
-0.21554957
-0.38967034
0.046522778
-0.11247857
0.18933232
-0.08432552
-0.046972297
-0.049851757
0.32455721
0.1347607
-0.19792373
0.4721907
0.052599654
0.26186186
0.31637976
-0.5975134
-0.18188247
-0.04253679
-0.25186867
-0.25098518
-0.28596818
-0.10635242
-0.09420438
0.043408282
-0.08307009
-0.23770043
0.30979183
-0.23688047
-0.270892
-0.34495345
0.34015596
-0.31730914
0.34155992
-0.1855918
0.093302704
0.2786116
-0.25948486
0.11256321
0.34746468
0.012902511
-0.1726351
0.23010303
-0.10963614
-0.25608864
-0.26807687
0.23017824
0.095793776
-0.3938948
-0.1701553
0.18273583
0.11926698
-0.29071993
0.14199196
-0.36548164
0.40683958
-0.07155943
0.13041504
0.38023764
-0.30452472
-0.21365052
-0.12428915
