0.02358403 0.032683 0.023403898 0.017985309 0.032360863 -0.026791755 -0.023892755 -0.060538206 -0.09242742 -0.024268858 0.033846915 0.060120307 -0.059366435 -0.19947192 -0.04702281 0.0094743455 0.047549877 0.05311282 -0.08404472 -0.028254332 -0.06633465 0.037754875 -0.07639378 -0.034510955 -0.048410732 0.04630164 0.04068421 0.050237127 -0.06726337 0.036799412 0.0442617 -0.042369463 0.042583097 0.049668547 -0.05167893 -0.067552336 0.03554916 -0.020827329 -0.030521337 0.015968794 0.025548002 0.03685679 0.051087297 -0.049105745 0.05134033 0.037778165 -0.03579091 0.044273894 0.06284966 0.019216169 -0.011567702 0.019689167 0.026345527 0.037098642 0.040345576 0.026356975 0.038399525 0.042451635 0.021462578 -0.066925004 -0.034552116 -0.019735288 -0.025814401 -0.05383381 -0.022856446 0.03410051 0.031417545 -0.087048605 -0.013681015 -0.16361274 0.022314565 0.040894605 -0.04963779 -0.020541038 0.041169707 -0.028599832 -0.03227784 0.0334545 -0.18745697 0.051660698 0.098151974 0.052847084 0.041670967 0.022577014 0.013486659 0.043305498 -0.117911674 0.06495315 -0.038734954 0.03240114 -0.0653573 0.0754804 0.019265335 0.04540324 0.02531029 -0.013010617 -0.059987154 -0.046726495 -0.034702864 -0.050339796 0.014712958 0.04609876 0.059205934 0.06527605 0.028881032 0.026914472 -0.030363612 -0.06137434 0.04229348 -0.011882536 0.025792593 0.06263204 0.02764294 0.02135388 -0.20667285 -0.06762581 0.07536947 0.08048316 0.046191003 -0.027666993 -0.024920953 0.055540252 -0.051887967 0.02661489 0.026301181 0.044277668 -0.06123412 -0.03467846 0.0366206 0.024484614 0.034679137 -0.14121774 -0.072666965 0.011359782 0.060026087 0.011761053 0.046682496 0.01832797 0.020935614 -0.03646123 0.053247884 0.04582739 0.034542345 -0.03064908 -0.037561443 0.018012352 -0.09507534 0.03495449 0.03678087 0.04413138 0.029603418 0.038704295 -0.089196265 0.02928479 -0.060842823 -0.061293792 0.021767428 -0.060448673 -0.059127696 -0.03977764 0.0337943 -0.053942334 -0.059376642 -0.22979201 -0.02091203 0.025667878 -0.035488203 0.02959589 -0.056217052 0.021350952 -0.045576327 0.04384144 -0.03791492 -0.051715616 0.07529294 -0.06281391 0.018543461 -0.07412637 -0.055221718 -0.030997867 -0.026921822 -0.038872026 0.03667855 0.03774651 0.030463511 0.040256184 0.02204984 0.027979307 0.38200858 -0.0352569 0.023596874 -0.04594566 0.03900388 -0.08540678 0.041916147 -0.03745931 -0.041863717 -0.06799784 0.06927203 -0.022939561 -0.04161129 0.04830809 -0.054536562 -0.051446058 -0.03823541 0.051701657 -0.08977373 -0.046375234 0.033936765 0.033188187 -0.31652242 0.05161677 -0.056536853 0.06759851 0.028340908 -0.046255678 0.060365986 0.033742804 -0.09085419 0.08026082 -0.04390069 -0.04559635 -0.022437753 0.050727025 0.06471259 0.08585259 -0.05578014 -0.013925139 -0.07397807 -0.07772771 -0.036816698 0.074910946 0.026145998 0.022537488 -0.07839674 0.035392288 -0.04068861 0.04163211 -0.04222657 -0.067673914 0.03368824 0.02953659 -0.048229642 -0.058459386 -0.060809746 -0.047112167 -0.09511358 -0.030849101 0.1013565 0.035917427 0.006702753 -0.019580951 -0.03414761 -0.025496278 0.051310018 0.02314631 0.044832513 0.039463118 -0.013666588 -0.013859006 0.018833622 -0.041283738 -0.026701283 0.027141092 -0.044816684 -0.117477566 0.01891833 0.06306147 -0.07706706 0.035265807 -0.04907937 0.069319025 0.030042289 -0.03250909 0.03693621 0.017543368 0.03650728 0.07763443 -0.06329409 0.026911536 0.06855787 0.03485599 -0.05529044 0.046826474 0.020211382 0.050160296 -0.03671676 -0.021683447 0.06946468 0.039449137 -0.061290115 -0.023620369 -0.21747527 -0.112808414 0.013459573 0.026265062 -0.04957568 -0.033869576 -0.05432373 -0.17879006 -0.06192695 0.04319804 -0.068049744 0.03500311 -0.04279107 0.020791484 -0.07358909 0.07420663 0.037866447 0.01345033 -0.00821981 -0.04426299 0.045069296 0.048955087 0.05581298 -0.04515287 0.048855796 -0.20190327 0.05937783 -0.07161478 -0.047903955 0.016804028 -0.09910525 0.041435987 0.020367486 0.03212318 -0.032910496 0.03231487 -0.04493626 0.042398047 0.05096498 0.022847882 -0.051298436 0.11932985 -0.024455484 -0.03764885 0.042354833 0.047467608 0.023535267 0.036979456 -0.03973247 0.011290495 -0.093803756 0.043805994 0.027225573 0.02732463 -0.060565904 0.017899666 0.020570075 -0.050572757 0.028442008 0.030013027 -0.038073413 -0.028950214 0.051061586 -0.024288423 0.10845284 0.034948606 0.03667436 0.0143326605 -0.030609835 -0.04353384 0.022330603 0.0845939 0.053823113 -0.068919815 -0.04590078 0.07377496 -0.099353686 0.04166705 0.043694336 -0.045531508 0.019284936 -0.029471045 -0.35860223 -0.030571539 -0.061436474 -0.06681604 -0.035522588 0.037223164 0.031713564 -0.029745983 0.060395777 -0.04850423 -0.035413694 -0.05185503 -0.025022032 0.030048512 -0.1519123 0.015957676 -0.04108565 0.045154456 -0.08258792 -0.048622645 -0.05287744 -0.05207272 0.059687715 0.029296942 0.044691015 0.020818453 0.05584325 0.027004516 -0.0692054 0.012998154 -0.0548837 -0.01300033 -0.041923534 -0.06301074 0.022293435 -0.05218271 -0.04777896 -0.07388649 -0.042351797 0.026863664 0.052133072 -0.05558003 0.04553387 -0.07103629 0.04099309 0.024979882 0.13595377 -0.024232294 0.0436081 0.034932826 0.048416473 0.045375966 0.02692144 0.019890506 -0.123023406 -0.06397729 0.024331562 -0.02639576 -0.08272538 -0.04184223 -0.09287952 0.06320605 -0.1640345 -0.04986735 -0.023895146 0.026979692 0.030544309 0.03290132 0.043586347 -0.035135504 0.04699845 -0.06627755 0.01838737 -0.049780734 -0.025340447 0.036834158 -0.072055504 -0.055175357 -0.099652134 0.056899484 -0.110296056 0.04444654 -0.04107604 -0.061984397 -0.015058592 -0.020079434 0.07026714 0.04364984 0.037634216 -0.04508854 -0.03576228 0.037609737 -0.038732287 0.024093652 -0.079180464 -0.038319953 -0.039054107 0.061767444 0.020212324 0.028698118 0.035968672 -0.048334032 0.03502375 0.030497935 0.03851794 0.036190983 -0.06130202 0.011586499 0.04684561 0.026731933 0.052531596 -0.040946353 0.039987274 -0.10562568 -0.03198263 -0.073389634 0.023085281 -0.042165812 -0.02951122 0.030143477 -0.066143475 0.06535807 0.034428984 0.024433868 0.035403036 -0.050215952 0.06344561 0.023986151 0.063502416 0.028752206 0.032966707 0.027471311 0.5190207 -0.11306667 -0.038805664 -0.016397774 0.020586282 0.02955665
