3.723104018718004227e-03
9.955503046512603760e-03
1.915618963539600372e-02
-1.754807308316230774e-02
-4.105775430798530579e-02
-2.246065251529216766e-02
3.003381937742233276e-02
-2.078057080507278442e-02
4.234727844595909119e-02
1.709277182817459106e-02
1.623571477830410004e-02
-1.643323339521884918e-02
-2.077401056885719299e-02
-1.641256548464298248e-02
1.277527771890163422e-02
7.606389001011848450e-03
8.021743968129158020e-03
3.075272403657436371e-02
-1.602077297866344452e-02
6.403654068708419800e-02
4.825215041637420654e-02
6.459862459450960159e-03
-2.456432674080133438e-03
1.600267924368381500e-02
-4.668348468840122223e-03
1.410620287060737610e-02
-4.185517877340316772e-02
8.714439347386360168e-03
-7.077589165419340134e-03
-1.789760962128639221e-02
2.274897694587707520e-02
3.749186545610427856e-02
6.403143517673015594e-03
-1.512956432998180389e-02
-1.811688765883445740e-02
1.266398373991250992e-02
2.921102941036224365e-02
2.125867456197738647e-02
-3.263333346694707870e-03
1.581360772252082825e-02
2.467291615903377533e-02
-3.128865733742713928e-02
6.090112496167421341e-03
2.418016269803047180e-02
2.010156773030757904e-02
3.526542335748672485e-02
2.656813943758606911e-03
-1.236993586644530296e-03
5.824323371052742004e-02
2.237464115023612976e-02
1.061416976153850555e-02
2.078392170369625092e-02
-5.269594024866819382e-03
5.506586283445358276e-03
-1.121178735047578812e-02
8.850651793181896210e-03
2.101483754813671112e-02
2.232789248228073120e-02
3.937828540802001953e-02
1.362058427184820175e-02
-2.089040353894233704e-02
2.511761710047721863e-02
2.632692456245422363e-02
-8.208632469177246094e-03
8.906736038625240326e-03
-1.973057951545342803e-04
-9.503739885985851288e-03
-3.055979311466217041e-02
1.456780359148979187e-02
-7.197417784482240677e-03
-3.019528277218341827e-02
2.949125773739069700e-04
5.523009691387414932e-03
1.083373208530247211e-03
2.845182456076145172e-02
2.176262438297271729e-02
1.403038110584020615e-02
-1.760168932378292084e-02
-2.237654849886894226e-02
2.238917537033557892e-02
8.290575817227363586e-03
4.600369837135076523e-03
-3.930209670215845108e-03
-1.750712655484676361e-02
1.070023793727159500e-02
5.558654200285673141e-03
-1.440606662072241306e-03
5.671048909425735474e-02
-2.494568005204200745e-02
-2.913647098466753960e-03
-2.222243137657642365e-02
-7.061847019940614700e-03
-1.833461970090866089e-02
-1.756090857088565826e-02
-7.365976460278034210e-03
7.759971078485250473e-03
1.201540138572454453e-02
1.544600911438465118e-02
-1.698514074087142944e-02
2.427129633724689484e-02
7.123972289264202118e-03
-2.363643608987331390e-02
1.061122585088014603e-02
2.151306532323360443e-02
-4.807145800441503525e-03
9.068112820386886597e-03
-2.001186087727546692e-02
1.594266667962074280e-02
1.513833296485245228e-03
2.081167651340365410e-03
-3.089753910899162292e-03
5.280728638172149658e-02
1.226097438484430313e-02
1.591866277158260345e-02
-1.947901211678981781e-02
2.912397496402263641e-02
7.588917389512062073e-03
-1.500350772403180599e-03
2.622852846980094910e-02
1.012837141752243042e-02
6.568020209670066833e-03
1.125446427613496780e-02
-1.599198393523693085e-02
5.268494598567485809e-03
2.177470177412033081e-02
-1.003090801532380283e-04
-1.656921580433845520e-03
4.933318705298006535e-04
8.356027537956833839e-04
3.927863389253616333e-02
1.045056432485580444e-02
-1.940399594604969025e-02
-2.205268293619155884e-02
4.845383577048778534e-03
1.244056131690740585e-02
3.320477530360221863e-02
2.291319519281387329e-02
2.077613025903701782e-02
-1.088564097881317139e-02
-4.575287923216819763e-02
-5.044226069003343582e-03
1.221894007176160812e-02
3.824350656941533089e-03
1.655527390539646149e-02
5.283966194838285446e-03
1.306981127709150314e-02
2.889958908781409264e-03
-1.559278741478919983e-02
2.386232838034629822e-02
-1.364875934086740017e-03
-1.167918089777231216e-02
7.171461731195449829e-02
4.162027686834335327e-02
2.516138134524226189e-03
-1.740560680627822876e-02
1.351965777575969696e-02
1.251748297363519669e-02
1.111851353198289871e-02
3.072754107415676117e-02
-1.775147207081317902e-02
-9.939720854163169861e-03
-2.425803802907466888e-03
-8.559973910450935364e-03
-2.852798439562320709e-02
-1.514564920216798782e-02
9.249266237020492554e-03
-1.235014386475086212e-02
2.995902905240654945e-03
-8.874116465449333191e-03
1.837488822638988495e-02
4.496748372912406921e-02
5.186291411519050598e-03
2.359975501894950867e-02
2.653815038502216339e-02
-1.866486482322216034e-02
1.342842355370521545e-02
4.973809234797954559e-03
-1.390785351395606995e-02
-2.769635524600744247e-03
-9.216438978910446167e-03
-3.234500437974929810e-02
2.681601606309413910e-02
3.917864337563514709e-02
2.630181261338293552e-04
1.389533653855323792e-02
5.478815175592899323e-03
-5.033771041780710220e-03
-8.887760341167449951e-03
3.731584176421165466e-02
1.739070937037467957e-02
6.054679863154888153e-03
-2.518961206078529358e-02
-3.728043753653764725e-03
-5.461976397782564163e-03
-1.119626965373754501e-02
1.582323573529720306e-02
-9.298804216086864471e-03
2.065846510231494904e-02
1.864467374980449677e-02
-1.722980290651321411e-02
-2.133370190858840942e-02
2.295644767582416534e-02
2.255828678607940674e-02
-9.974943473935127258e-03
-1.302640791982412338e-02
-1.472881995141506195e-03
-1.839544437825679779e-02
3.183818981051445007e-02
-4.482516087591648102e-03
1.912945695221424103e-02
-1.100234128534793854e-02
9.275672957301139832e-03
4.417906980961561203e-03
-1.223256625235080719e-02
1.430389005690813065e-02
6.218798458576202393e-03
1.741512533044442534e-04
3.282397985458374023e-02
1.021179463714361191e-02
-1.525831501930952072e-02
-2.288862131536006927e-02
8.180475793778896332e-03
1.522034872323274612e-04
5.128455162048339844e-02
-9.251181967556476593e-03
9.920050390064716339e-03
-1.146522443741559982e-02
9.747201576828956604e-03
-1.703645102679729462e-02
-1.280039828270673752e-02
-2.227613702416419983e-02
4.085610434412956238e-02
-7.481342181563377380e-03
1.233574352227151394e-03
-1.459643710404634476e-02
1.453355606645345688e-02
1.623882353305816650e-02
-1.445298781618475914e-03
9.212367236614227295e-03
2.320346608757972717e-02
-1.999126560986042023e-02
1.859972253441810608e-02
1.054484024643898010e-02
-2.058310201391577721e-03
-1.876618154346942902e-02
5.242302641272544861e-02
1.570904860273003578e-03
2.922173961997032166e-02
1.922542043030261993e-02
2.196209738031029701e-03
5.444784648716449738e-03
2.148188836872577667e-02
1.691111735999584198e-02
-1.892102882266044617e-02
1.300741173326969147e-02
-2.051511593163013458e-02
