0.0045841564
0.011770214
0.020024387
0.0131971
-0.004971929
0.020655744
0.0067553404
0.036709953
0.025203586
0.020390641
0.04882858
-0.0038033086
0.025621144
0.017053692
-0.000596666
-0.010424439
-0.00089324673
0.02751942
0.01610232
-0.001479475
0.000986008
0.0013709667
-0.0066985483
0.008809755
-0.007973299
0.026423223
0.021151876
8.278865e-05
0.010949858
0.017657155
-0.010432873
-0.013229508
0.010202696
0.011815449
-0.0106728645
0.01901047
-0.007267027
-0.007216267
-0.008580536
0.007951981
0.01359772
-0.0038369105
-0.006158367
0.008140457
-0.04402155
0.035891857
0.040077914
0.023156356
0.010373263
0.008212148
-0.0068315715
-0.006825442
0.016406085
0.026577026
0.030658849
0.025450036
-0.004043128
-0.017281964
0.019261772
-0.0066891154
-0.02858263
0.028245566
-0.00855516
0.041363683
0.025693243
-0.015187408
0.019858398
-0.030787613
0.0210013
0.0038723177
0.025353631
-0.032798905
-0.00498926
0.013576504
-0.012450438
0.003119466
0.010185639
-0.0059148804
0.024408026
-0.004884982
0.007940804
0.023503138
0.017959347
0.003590385
0.0056753336
-0.0019530024
-0.011763167
0.038001005
0.0068167984
0.01084164
-0.0027529174
-0.0025247878
0.013046136
-0.007801913
-0.014734205
0.02446142
-0.015286553
0.029554943
-0.0022052114
0.037528113
-0.008417893
-0.0075689442
0.037043612
0.009012482
0.0068608155
-0.016441388
-0.005629443
0.002595492
0.022847338
-0.023993904
-0.007258886
0.0068752235
0.0042550033
0.0070827072
0.027287612
0.0396788
0.02397502
0.03637493
0.00630284
-0.0025116338
0.00051796116
-0.00863164
-0.0096161915
-0.009006006
0.023376526
-0.025903884
0.028570367
0.006638853
0.010567474
0.025562504
-0.0027715203
-0.01623359
-0.023470493
0.016404113
-0.016169587
0.004446673
0.038072385
-0.008664259
0.015169209
0.016589524
-0.013859146
0.02738676
-0.018779876
-0.007171978
0.0010882601
0.0057070195
-0.015803652
0.009290481
-0.013474279
-0.008127456
-0.001343356
-0.018648705
-0.0013094469
0.032684725
0.0018530225
-0.037379697
0.028833684
0.030340033
-0.015062958
0.02524325
0.024341973
-0.0012226487
-0.012995911
-6.836269e-05
0.0036807093
0.029317673
-0.017243158
-0.008535429
0.025257746
-0.009551872
0.027602293
0.039760202
0.020916691
-0.03183569
-0.00025895124
0.02735315
0.020453129
0.005355759
-0.007752835
0.011482
-0.011608009
0.06289312
-0.014052177
0.018239219
0.02260062
-0.0065197875
0.019648416
0.018397639
0.011808906
-0.0097156
0.029053159
0.03295868
0.037900362
-0.038040526
0.022651855
-0.009858872
0.016975785
0.020184262
-0.0101777
-0.0045120507
-0.0058685155
0.023167076
0.013396341
0.023732778
-0.028209364
0.011629546
0.014855548
0.01412233
-0.010153925
0.0064713806
-0.02335339
0.016588012
0.03873712
0.03248734
0.024272704
0.01920365
-0.009174495
-0.003374309
0.021014398
-0.012435693
0.005034894
0.004169461
0.03463818
-0.019285105
-0.0021336724
0.017421909
-0.004104928
0.014927377
0.005684875
-0.019479334
0.010853542
0.01852702
0.028078312
-0.012436327
0.005149096
0.03515195
0.015902825
-0.0018052312
-0.00960493
0.007811627
-0.0020302816
-0.010037433
-0.03528135
0.0028936686
0.020919474
0.006713377
0.011935084
-0.0069039483
0.013856462
0.0015909892
-0.009410355
-0.002479736
-0.0150696775
0.033715393
-0.009804953
-0.0044027795
-0.014834593
-0.011254382
0.0057906928
-0.0033286319
0.010491613
-0.019029196
-0.0060517215
0.02026324
0.009005738
0.021431765
0.001360595
-0.009886156
-0.008983372
0.018019922
0.03517161
-0.020846806
0.006371671
0.0031023487
-0.005117751
-0.004756786
0.012437822
-0.018475708
-0.010142122
-0.019474937
-0.013317399
0.010059915
-0.019062057
0.02239876
-0.014353969
-0.008665373
-0.015072946
-0.010469059
0.036368202
0.023936406
-0.021549612
0.037025586
0.0006603849
-0.0009176624
-0.02707397
0.003231656
0.013178878
0.03957027
-0.0016920834
0.009206578
0.009069155
-0.009474531
-0.011993671
0.0076395306
0.030825669
-0.002851386
0.020814473
0.019167885
-0.017202493
0.0254391
-0.001163214
-0.0023041356
0.024930855
0.029618872
-0.0068978732
0.011377761
-0.0034194505
-0.015020947
0.016333487
-0.014042903
0.010473071
0.0065493514
0.0056255846
0.002872086
0.034656845
0.037352357
0.017306186
0.022608632
0.021997647
-0.0026377586
0.050304614
-0.0017043921
0.007820736
0.0068031256
0.0025425581
-0.0111877415
-0.0041314284
0.0068288944
-0.0014502101
0.018131724
0.033299085
-0.00058533676
-0.0069295787
-0.004949792
-0.006865016
-0.019836709
-0.0016623429
0.005723368
-0.011205214
0.0008232434
0.008162714
0.005918722
-0.010322253
0.0074407
-0.009170497
-0.021518014
0.029727709
0.008005127
0.006733907
0.0072773052
0.012825743
0.01426865
0.024725296
0.012186161
-0.012537348
-0.010465682
0.0015479549
0.025408786
0.0028564977
0.048861977
0.03075441
-0.02363323
0.0047556544
0.0010997606
0.009612549
0.0014094623
0.037890628
-0.016472546
-0.0013821886
0.010779638
-0.0072486876
-0.0033982787
0.04601671
0.019603191
-0.0018106748
0.006244918
-0.018184481
0.0038650252
-0.025764383
0.05274425
-0.0076003023
-0.00817532
0.014257694
-0.0059262644
-0.0054879
-0.023109335
-0.00310035
-0.007916802
-0.00975735
-0.0001489172
0.027967207
-0.0046557067
-0.0065181814
0.028712124
0.016870763
-0.014889323
0.04841025
0.03700964
0.0025391222
0.0019315142
-0.016094688
-0.015520377
0.012292669
0.0072130887
-0.0016339166
-0.0026901234
0.036216136
-0.006852767
-0.01117294
-0.03377644
0.023217766
-0.0032849289
0.007516409
-0.03402774
0.04058337
0.027394688
-0.036281116
0.019795205
0.047356457
-0.021359295
0.009247279
0.02871599
0.02333545
0.016168032
-0.0100548295
-0.039396532
-0.009381929
-0.008651274
0.045336816
0.027996749
0.034225553
-0.011147857
0.005992875
0.0008460428
0.011580875
0.0018450926
0.017577708
0.014485775
0.018120823
-0.0018371452
0.000929779
0.013628581
-0.00023052173
-0.0025411698
0.017847769
0.021448443
0.0040821387
0.038325537
0.008473105
0.012610384
-0.007663288
-0.017869674
0.005067882
-0.00298638
-0.004254005
0.014474346
0.009235491
0.0095488755
0.022302995
0.017742485
0.0035275628
0.021377435
0.029747473
-0.03221415
-0.021972252
-0.009914736
-0.011207209
0.004964233
0.01573148
0.009760788
0.03880032
0.015187541
0.017661992
0.016460352
-0.022381704
0.003801765
0.005353013
-0.0032383974
0.022825941
0.0069108075
0.0051735933
-0.019023899
0.0067441696
0.023490848
0.027875077
0.0026617288
-0.013391043
-0.036740914
0.030326238
0.016601251
-0.024531215
-0.017274283
-0.011346469
0.009000875
0.019716028
0.003226944
0.006981391
-0.014885332
-0.011016584
-0.011605264
0.016175244
0.02676322
