-0.039654057 -0.022982102 -0.0138399005 0.04711027 0.048409455 0.042933762 -0.018247874 -0.014691365 -0.019846506 -1e-44 -0.013887816 0.049575858 0.02321936 -0.03481986 -0.013269046 -0.0135689 -0.019894883 -0.043156147 -0.007758808 -0.034150455 0.029890805 0.02936629 0.030691704 0.03339747 -0.04040096 -0.013957706 -0.019762313 -0.03127108 -0.013971168 -0.012683224 -0.04377651 -0.014510897 0.043340728 -0.037000638 0.03053366 -0.03904551 -0.024610834 0.024972018 0.048725598 -0.02870351 -0.021857738 -0.01420971 -0.02152638 0.028264327 0.034235656 -0.017752169 -0.01462672 0.02615528 0.011715357 -0.021823544 0.05672345 -0.0392716 -0.049211808 0.06104834 0.051412392 0.021409329 0.03179595 -1.1e-44 -0.022487497 0.012897398 -0.028245162 -0.009818621 -0.019606166 0.037923247 0.06388862 -0.016177734 -0.013078393 -0.029322805 -0.01935294 0.01758869 -0.012550229 -0.014296447 -0.010047547 -0.014167077 -0.013706416 0.028626833 -0.025549091 0.024083918 -0.023183927 0.043453082 0.036844663 -0.032715973 -0.02846859 -0.020489583 0.02381763 -0.020769253 -0.03266367 0.049125887 -0.01220401 -0.02190445 -0.03530134 -0.022214815 0.04136544 -1e-44 -0.010226188 0.024101872 -0.012743537 -0.024842583 -0.013521937 -0.0118790595 -0.023522532 -0.011179688 -0.028656768 -0.039910242 -0.011574904 -0.038946573 -0.013643011 -0.0138267465 -0.016193105 1e-44 -0.015292557 0.030332293 -0.010272224 -0.014106708 -0.021051712 0.03883059 0.025055628 -0.017528558 -0.015306838 0.049966224 -0.012867062 -1e-44 0.046366345 -0.03359086 0.032427784 -0.014184499 -0.03548541 -0.038394652 -0.021844946 -0.014496173 0.073458865 -0.014510743 -1e-44 1e-44 -0.025277946 -0.014383438 0.020907035 -0.0091011 -0.0140876435 -1.1e-44 -0.022083495 -0.01569934 -0.034632493 0.03726989 1e-44 0.030329026 -0.013913163 -0.00649637 1e-44 -0.042401183 0.033118624 0.040915914 -0.013838129 1e-44 -0.015722988 -0.016618863 0.01752284 -0.041710585 -0.015011358 0.0942379 -1e-44 0.034994278 1e-44 -0.014503142 0.03958709 -0.016250959 -0.018048003 -0.014316866 -0.01437186 -0.014492228 0.060651895 0.041638896 0.02415602 -0.006831732 -0.014624341 1e-44 -0.022374503 0.0337479 -0.03791707 0.04622381 1e-44 -0.014725817 -0.014346819 0.025498858 -0.022105623 -0.015985519 -0.036944065 -0.030958138 -0.03051471 -1e-44 -0.05054498 -0.014293958 -0.017002547 0.056593735 -0.01942992 -0.012003209 -0.021099903 -0.014848183 -0.038188983 -0.024916612 -0.03429561 0.025031932 -0.034884993 1e-44 -0.013178733 -0.03678354 -0.01324171 -0.015379194 0.015246112 -0.027042914 -0.021025026 0.028459828 -0.016999835 -0.033585645 -0.02594379 -0.017929021 -0.012005539 0.027815513 0.050741173 0.008798395 0.067998245 -0.02913457 -0.018876962 1e-44 0.030619096 -0.013475982 -0.0121605145 -1e-44 -0.012344677 -0.023717655 1e-44 -0.012468398 -0.016694415 -0.015379313 0.01796362 0.04344964 -0.006790464 -0.04905064 0.028881634 0.030910822 -0.012603948 0.021541135 -0.013813829 0.025946256 -0.014075975 -0.01976866 -0.02982587 0.035350755 0.02897313 0.028029753 0.022175033 0.030375902 0.02273591 -0.006646045 0.024071103 0.021544771
