-0.09121089
-0.086560726
0.08292997
0.20809653
0.16523182
0.15152091
-0.119680576
0.006198362
-0.14167567
-0.07961423
0.05404778
0.21581274
-0.012932923
-0.014402862
0.11164313
-0.032609936
-0.1991499
0.05558211
-0.07457786
-0.19983038
0.019044891
0.09227358
0.15634844
0.062345244
-0.15355839
0.0036911736
0.023858523
-0.19814688
0.04154584
0.048597243
0.09647224
0.02957023
0.114603266
0.076734
0.37898502
-0.025544968
-0.18516241
0.08429671
0.06130758
-0.18726699
-0.05844643
0.0025406198
-0.06022753
0.12956958
0.16688438
-0.14518268
-0.014373122
-0.53056544
0.035975683
-0.012618892
0.09507143
-0.27471846
-0.14774136
0.117643744
0.13139997
0.10531185
-0.5646353
-0.030883558
-0.20528455
0.17049657
-0.0014031687
-0.040448025
0.0013231172
0.02139082
0.18163621
0.032657497
0.062124386
-0.18940116
0.0022874486
0.27778414
-0.112577304
0.07808167
-0.12540051
0.08340206
0.03951137
0.095746875
-0.074297935
0.4840414
-0.052752882
0.19433582
-0.82762295
-0.21893044
-0.1418479
-0.17833917
0.4562368
-0.08017457
-0.02393889
0.16641486
-0.042904958
0.13649133
-0.12928568
-0.04128584
-0.6740094
-0.06189235
-0.16365878
-0.471408
-0.14455356
-0.08861506
-0.06603737
-0.15410772
-0.13146521
-0.09994106
0.0032886295
-0.053289957
-0.009552673
-0.1963735
0.050268833
0.11587619
-0.07924535
-0.021581579
-0.18102263
0.12794164
0.01832934
-0.1535533
-0.10949261
0.14604631
0.44222423
-0.13786203
-0.054512333
0.12572695
-0.011974002
-0.034983873
0.14987575
-0.093883246
0.11848968
0.0631276
-0.13447128
-0.12720472
-0.05693471
-0.056047108
0.23907359
-0.024360886
-0.049105324
-0.08639302
-0.057970677
-0.13825057
0.34201008
-0.039155006
-0.038277473
-0.060675982
0.018732574
-0.13312893
-0.12134777
0.22805905
-0.042837434
0.3844348
-0.12165481
-0.14862388
-0.04291897
-0.13354987
0.11905378
0.11097032
0.06275922
-0.046906713
-0.07185586
0.00021683708
0.11728828
-0.084084265
0.032101076
0.3601937
-0.1782722
0.20202191
-0.03835034
-0.06810252
-0.6416181
-0.19389239
-0.07605355
0.025020752
0.07335115
-0.009846611
0.055805627
0.1700491
0.33023134
-0.108412325
-0.17824736
-0.19425495
-0.21702576
0.13764594
-0.08792148
0.11189756
-0.04861756
0.0088053355
0.020725198
-0.54506475
-0.06549836
0.0864731
-0.19272725
-0.12148338
-0.1588725
-0.0765232
-0.042884793
0.035494156
0.0432693
0.0603989
-0.04698168
-0.12282406
0.016755747
0.047415096
-0.091857634
-0.07242711
-0.1174863
-0.536837
-0.07008323
-0.021447405
-0.046015073
-0.13166189
-0.03135684
-0.001955676
-0.28605628
0.024071211
-0.020427562
0.105491824
-0.0003758316
-0.15585889
-0.050008137
-0.0035745879
-0.13253449
0.18996975
0.18459411
0.22623555
-0.040541697
-0.23069532
-0.038505536
-0.03390217
-0.48172313
0.06297404
-0.114885435
-0.047743578
-0.008689573
-0.28793398
-0.17185628
-0.07499551
-0.20556678
-0.038661648
0.30627334
0.10361314
-0.15578023
-0.07787123
-0.6183901
-0.60045445
-0.022480737
-0.43086264
-0.22059795
0.47823507
0.031887416
-0.3143257
0.018126821
0.053403296
0.12351672
0.15417595
0.39973122
0.048073214
0.42039588
-0.1131951
0.13452932
0.12537287
