-1e-44 -0.034988116 0.03079666 0.012815547 0.0128077855 -0.032561682 -1e-44 -0.031948283 -0.027441505 0.020120218 1e-44 0.046510413 -0.037317306 -0.021059059 -1e-44 1e-44 -1e-44 -0.029861065 0.028874042 0.016315717 0.02137808 0.0288758 0.02887488 -0.03137568 0.013051593 -0.031925227 -0.029487872 -0.0456969 -0.027003735 -0.050097685 0.012811358 -0.026480326 1e-44 1.1e-44 0.026260907 -0.028642485 -0.03340952 -0.03401758 0.012807919 0.016303534 1e-44 -0.02610124 -0.028786294 0.045737192 0.016221473 -1e-44 -0.05142 -1e-44 0.012807796 0.012815173 0.016306551 -0.012466448 -0.029399997 -0.010885065 0.028869892 -0.040142726 0.012808136 -1e-44 -0.059700668 0.028875716 -0.03923657 -0.0066379528 -0.03826725 0.0437054 -0.03746632 -0.020977477 -1e-44 -0.03339218 -0.032470845 0.012815752 0.050645113 0.012807956 -1e-44 1.3e-44 0.01802545 1e-44 -0.019720001 0.021381216 -0.022972165 0.03341481 1e-44 0.023868676 1e-44 -0.0372055 -0.03319467 -0.026229909 -1e-44 -1e-44 -1e-44 0.02589195 -0.04112463 -0.03511103 -1e-44 1e-44 -0.026408687 -1e-44 -0.045157626 -0.02427521 1.3e-44 0.046744153 -0.013330637 1e-44 -1e-44 -0.013547756 -0.030576017 0.03480199 -0.019277364 1e-44 -1.3e-44 -0.032888796 -0.029745473 0.01281518 -0.026489425 -0.03341696 -0.030367648 -0.032765348 0.012815473 -0.011996657 -1e-44 0.028878098 -0.050444126 0.016309489 0.012807807 -1e-44 0.0339121 -0.024582803 -0.04218231 1e-44 0.013111769 -0.012086943 0.0128149 0.058878418 0.052196126 -1e-44 -0.02715715 -0.028496634 -0.025654525 -0.035406835 -0.026601357 0.028845595 0.021232024 0.01625001 -1e-44 0.028875172 0.031854466 -1e-44 -0.03452328 0.028877344 1e-44 1e-44 0.021372644 0.016307289 0.012815874 1e-44 -0.022108098 0.043138005 0.028875714 1.3e-44 0.021485908 0.021525135 -0.028001139 -0.02742933 0.061582047 -1e-44 0.02887503 -0.053987544 -0.023981959 -1e-44 0.040439315 0.016298862 -0.030156374 0.012807863 0.025910685 1.3e-44 -0.04065266 0.02578813 -1e-44 0.012807795 -0.027916979 -0.03926979 -0.029754503 -1e-44 0.016183903 0.01927088 0.016302323 0.012807759 -0.034616865 -0.02952883 0.016318183 1.1e-44 -0.036810637 -0.020790022 0.044801034 0.061527815 -0.036845252 1e-44 -0.04101414 -0.029047191 -0.033197004 0.0140497815 -0.011803772 1e-44 0.016519293 0.064054824 -0.027868824 1e-44 0.026095776 -0.03430737 -0.024458496 -0.029099204 0.016317919 0.028874943 0.01631828 -0.011804214 -0.04515578 -0.01273051 -1e-44 0.021524936 0.012963224 0.052185196 1e-44 0.016315836 -0.028035108 1e-44 0.021377021 -0.03544208 1e-44 -0.027708279 -0.03623367 -0.03475057 0.035679556 -1.3e-44 -0.037774082 -0.027354212 1e-44 0.021376763 -0.034156512 -0.027261231 1e-44 1e-44 -0.04579392 0.02169634 -0.03941057 0.026168833 0.016549641 -0.017625982 1e-44 0.045026924 0.037004303 0.028870223 0.025295757 0.021595318 -0.04095156 -0.04200687 0.012823582 0.012809443
