-3.910178840160369873e-01
1.827031970024108887e-01
-1.465034484863281250e-01
1.886266469955444336e-02
3.068468868732452393e-01
-1.749990731477737427e-01
-1.174331642687320709e-02
3.086179792881011963e-01
1.315164566040039062e-01
-1.345428228378295898e-01
2.615393996238708496e-01
4.086942225694656372e-02
3.392095565795898438e-01
3.939757496118545532e-02
-1.380837112665176392e-01
2.258776277303695679e-01
2.613303363323211670e-01
-5.878306552767753601e-02
5.004960298538208008e-01
3.091055154800415039e-01
4.302015900611877441e-01
-8.661582320928573608e-02
-8.196621388196945190e-02
3.444826304912567139e-01
5.815553069114685059e-01
1.348575949668884277e-01
7.692386955022811890e-02
-1.972149610519409180e-01
4.453070163726806641e-01
3.756881356239318848e-01
1.529245376586914062e-01
4.597004652023315430e-01
5.429689884185791016e-01
3.680218160152435303e-01
3.462841212749481201e-01
2.919583320617675781e-01
6.027448922395706177e-02
1.208729892969131470e-01
-2.680379152297973633e-01
-4.563872516155242920e-02
-6.078118458390235901e-02
4.584887027740478516e-01
3.201363682746887207e-01
7.429357618093490601e-02
4.397114515304565430e-01
-7.014046609401702881e-02
1.888415962457656860e-01
2.205949574708938599e-01
-3.338651359081268311e-01
3.664791584014892578e-01
-2.350174486637115479e-01
2.572312951087951660e-01
2.628578841686248779e-01
4.236456453800201416e-01
3.902948498725891113e-01
2.866919636726379395e-01
4.187814593315124512e-01
2.502999305725097656e-01
-3.474852740764617920e-01
2.431430071592330933e-01
-1.679803282022476196e-01
4.076523780822753906e-01
4.304101169109344482e-01
-3.203720152378082275e-01
-1.484210193157196045e-01
-5.031225457787513733e-02
4.413103163242340088e-01
-1.378069072961807251e-01
-2.632652036845684052e-02
2.546686828136444092e-01
4.154371619224548340e-01
5.110827684402465820e-01
3.594698309898376465e-01
1.203180700540542603e-01
-2.923325449228286743e-02
-1.435343325138092041e-01
4.880762100219726562e-01
5.034559965133666992e-01
3.404690623283386230e-01
3.245576620101928711e-01
2.157364487648010254e-01
-5.666821822524070740e-02
-1.630279608070850372e-02
-9.858596324920654297e-02
-1.398330330848693848e-01
-4.188390672206878662e-01
1.954435408115386963e-01
-1.169002503156661987e-01
1.802563965320587158e-01
3.837968111038208008e-01
3.729591965675354004e-01
-3.394242525100708008e-01
5.215884447097778320e-01
-2.983402609825134277e-01
3.457245826721191406e-01
-2.312042713165283203e-01
1.589239686727523804e-01
1.923302002251148224e-02
-5.566189065575599670e-02
4.207094609737396240e-01
3.952438235282897949e-01
2.737352550029754639e-01
-2.324188500642776489e-01
-2.845431566238403320e-01
1.726881712675094604e-01
2.523176074028015137e-01
-1.175790801644325256e-01
4.244238734245300293e-01
-4.180898889899253845e-02
4.397104680538177490e-02
3.929671943187713623e-01
2.946120202541351318e-01
5.204594731330871582e-01
4.099577069282531738e-01
4.208490848541259766e-01
8.438370376825332642e-02
6.599133368581533432e-03
-6.523293852806091309e-01
5.398074984550476074e-01
4.518220722675323486e-01
4.524080753326416016e-01
2.259428240358829498e-02
4.212671816349029541e-01
1.166166439652442932e-01
-2.032210677862167358e-01
3.408356010913848877e-01
2.184011787176132202e-01
2.886259853839874268e-01
4.502456784248352051e-01
-1.021657660603523254e-01
-3.353499472141265869e-01
-4.024095088243484497e-02
5.196670442819595337e-02
-2.473179399967193604e-01
1.416790634393692017e-01
-8.664920926094055176e-03
4.603852033615112305e-01
3.051896393299102783e-01
-3.073678910732269287e-01
4.488672316074371338e-01
3.066953122615814209e-01
-2.115997672080993652e-01
3.437300026416778564e-02
3.059315085411071777e-01
-6.372651457786560059e-02
3.274380266666412354e-01
4.419228136539459229e-01
9.531918913125991821e-02
3.506422042846679688e-01
3.126192092895507812e-01
4.685423672199249268e-01
-4.138456881046295166e-01
4.004357755184173584e-01
2.844622135162353516e-01
3.287515342235565186e-01
-2.086167931556701660e-01
1.947856098413467407e-01
3.493914008140563965e-01
4.343897402286529541e-01
4.353691339492797852e-01
3.306782543659210205e-01
3.042104840278625488e-01
1.542104929685592651e-01
-4.278372228145599365e-01
1.874330043792724609e-01
3.274618983268737793e-01
3.644680082798004150e-01
1.659445115365087986e-03
3.823485970497131348e-01
6.867651361972093582e-03
-4.146767035126686096e-02
5.420581102371215820e-01
1.494576930999755859e-01
3.355194628238677979e-01
1.539873629808425903e-01
1.881978064775466919e-01
5.333164930343627930e-01
2.896584570407867432e-01
3.051354587078094482e-01
4.513426423072814941e-01
-5.668399333953857422e-01
-7.669079303741455078e-02
-4.000826179981231689e-01
-5.542869493365287781e-02
-1.570834070444107056e-01
-1.042557582259178162e-01
-1.530065536499023438e-01
5.497817993164062500e-01
-1.157637462019920349e-01
1.418730765581130981e-01
3.021991848945617676e-01
-2.145754098892211914e-01
8.674033731222152710e-02
5.560196042060852051e-01
-8.616917580366134644e-02
9.992284327745437622e-02
3.003324568271636963e-01
-1.218139007687568665e-01
4.644533097743988037e-01
3.994397819042205811e-01
4.568247795104980469e-01
3.927954733371734619e-01
-1.905607283115386963e-01
-2.483144402503967285e-01
3.091375902295112610e-02
2.791109681129455566e-01
1.982030570507049561e-01
-8.293823897838592529e-02
-1.453721374273300171e-01
-2.139456570148468018e-01
8.516779541969299316e-02
-1.298771351575851440e-01
-4.858610045630484819e-04
1.360476016998291016e-01
5.613469332456588745e-02
-3.305037915706634521e-01
2.401926182210445404e-02
1.625259965658187866e-01
-1.771744899451732635e-02
2.589295506477355957e-01
4.055956304073333740e-01
-3.195164799690246582e-01
-2.406580839306116104e-03
4.303970336914062500e-01
-2.449374496936798096e-01
2.800246775150299072e-01
4.031309783458709717e-01
-9.632999449968338013e-02
7.161340117454528809e-02
1.651103496551513672e-01
2.145726829767227173e-01
-2.127437144517898560e-01
1.964158266782760620e-01
4.901452660560607910e-01
1.825243085622787476e-01
1.348295509815216064e-01
-3.667095005512237549e-01
4.574565589427947998e-01
1.937797963619232178e-01
-9.451024234294891357e-02
-1.674595326185226440e-01
4.830323457717895508e-01
2.963120937347412109e-01
3.297333419322967529e-01
1.267344802618026733e-01
-2.336053252220153809e-01
-3.492555618286132812e-01
-9.971786057576537132e-04
-1.266020536422729492e-01
3.548880219459533691e-01
-2.076713740825653076e-01
4.670061171054840088e-01
-3.033186197280883789e-01
1.435132920742034912e-01
2.088802903890609741e-01
2.337185889482498169e-01
