0.018137164
0.023685053
-0.0051099355
0.0109612765
0.014796659
0.014175938
0.015568362
-0.0055736364
0.018297572
0.011427781
0.011799697
0.0072084805
0.017884694
0.012427708
0.0073253
0.013326196
0.015495035
-0.0033596437
0.006284058
-0.0009833267
0.01685016
0.012857491
-0.00089703116
0.014194763
0.009115156
0.004876455
0.008152353
-0.011521405
-0.009112171
0.018575465
0.006198885
0.01329364
0.0009053225
0.003085391
0.010238578
0.024254857
0.0040284568
0.020044759
0.0037052443
0.0011072023
-0.00029750238
0.005807673
-0.008055321
0.0065387953
-0.014412861
-0.001988552
0.005358028
-0.007116675
0.014172088
0.013345449
0.0071048676
0.019459857
0.0042640762
9.971178e-05
0.026078101
-0.0071711843
-0.01232785
-0.009564584
0.010465678
0.0056992867
0.020248018
0.009320599
-0.0083449595
0.027523328
0.007278476
0.009157404
0.0064158877
-0.00023381309
0.0123200985
-0.0009925895
0.016968146
-0.0031142344
-0.007911964
0.0029034961
-0.0036494916
0.0039299154
0.0018267083
-0.016525738
0.006901418
0.0041061738
-0.0037780039
0.0228575
-0.0010032183
0.0017319021
-0.0017559624
0.0054986887
-0.01262434
0.010995757
-0.005552303
0.026583562
0.025932366
0.004449274
-0.007219203
0.004562691
0.014959841
0.016409386
0.001121217
0.010679473
-0.0018863023
-0.00010428678
0.007984849
0.008358731
0.0066325106
-0.0039237426
-0.017498134
-0.0010867099
-0.013911539
0.011978722
-0.0060051186
0.010941014
0.004429636
0.0077197514
0.011114011
0.010185644
0.0036759926
-0.008304709
0.0042467853
0.013302613
-0.003949295
0.008116735
-0.008794077
0.012906504
-0.01033361
0.011319214
0.005071776
0.019253263
-0.0024108652
0.0075022634
0.0025362142
-0.003123374
0.02487813
0.016461095
0.031573385
0.020108424
0.007909238
0.00025614636
0.008714209
0.0049633025
0.012074075
0.025162784
0.014338805
0.007524916
0.01050305
0.0025004111
0.01891794
0.00331036
-0.005277846
0.00082680525
0.020065298
0.01688075
0.002101512
-0.00026134308
0.018080713
0.005493846
-0.008858257
0.004832438
0.00501075
0.020552281
-0.0064016925
0.02071684
-0.014578475
0.007450977
0.018629843
0.00797914
-0.0017528787
0.017261826
0.016882602
0.009965834
0.014040337
-0.0032009608
0.00029684664
0.029846916
-0.005992981
0.0040195747
0.003483304
0.0045344923
0.027567448
0.0037074713
0.0032352223
0.0046901526
0.018316302
0.014522591
0.013284502
0.012984962
0.002596596
0.015091622
-0.013271152
-0.00032858015
0.00903606
-0.0010807192
-0.015468138
0.011704027
0.018014066
-0.000507878
0.0036253985
0.012099862
-0.00089380494
0.016584119
-0.0038695561
-0.0028261307
0.013005462
0.036660813
0.013557461
0.013364555
0.0077584363
-0.004730828
0.0028836068
0.025907954
0.01697526
0.01623163
0.004799524
0.0019237731
0.009821194
-0.002306612
-0.010169555
-0.00986544
0.018444985
0.00874276
0.010005272
0.008734931
0.023380652
0.006312694
0.0066392934
0.0062298113
0.013498783
0.023414986
0.0031576059
-0.0021929157
0.011638822
0.014309625
0.005391749
-0.0057734954
0.00059809483
0.007920559
0.02259853
-0.00559002
0.0045362865
0.0007691095
-0.0037131475
0.019723892
0.002717898
0.016479881
0.011074
0.019995546
-0.0017204053
0.011113893
0.027692268
-0.0022660666
-0.0056608366
-0.0020325077
0.011150271
0.03233739
0.0073690675
0.005498335
0.0038652432
0.0123195145
0.0064011547
0.0028576269
0.013281524
-0.012163805
0.006436038
0.008853812
-0.0019710807
0.008967291
0.011357738
-0.00066508015
0.010256124
0.015384974
0.007466737
0.015330326
0.010475792
0.012248067
0.008593128
-0.00012889337
-0.005770983
0.011577861
0.027995953
0.0053964937
-0.00412439
-0.015459984
0.014032191
0.019277774
0.011723083
0.0030959237
0.01658012
0.0015589871
0.008861019
-0.0038334723
0.018369278
0.007575767
0.004229136
0.028041292
-0.0006333903
0.019443594
0.022006778
0.016270585
-2.182262e-05
0.008621069
0.019367967
0.015621775
-0.012265284
-0.0034237716
-0.0037334817
0.014961637
0.02165858
0.02442935
0.0038843048
0.0033556763
0.007905102
0.014219266
0.009827061
0.030115252
0.007197285
-0.009979272
0.0059412452
0.012165267
-0.012844633
0.013948251
0.00718689
-0.001960903
-0.0031032688
0.016932204
0.007559758
-0.0020058944
0.015408452
-0.0029404238
0.009095549
0.0007425794
0.013293817
-0.0028853475
0.008856525
0.0032633673
0.014056477
0.018286284
0.014235828
0.020510789
0.015185061
0.012222451
0.012828783
-0.0045694914
-0.008243441
-0.004473088
0.00013121252
0.003692899
-0.02951267
0.010565179
-0.0029495205
0.010732566
0.0015502466
0.021789271
0.009904521
0.014095197
0.031386033
-0.006299339
0.0039475732
0.014409402
0.005032206
-0.0014861948
0.0039422857
0.011668514
-0.0022482479
0.0033578528
-0.00024187328
-0.00048673557
0.016114227
0.0032889852
0.0067057633
0.019593496
0.007270193
0.011856907
0.026752932
-0.001157218
0.022478942
0.0066154627
0.0051646978
0.006868891
0.021210378
-0.0035628385
0.015554006
0.0021806972
0.004598325
0.006482795
-0.0039926865
-0.01799315
0.01606147
-0.00049747946
0.018296486
0.0084453635
-0.015143907
0.010700648
-0.0055187857
-0.00103401
0.0064333947
-0.0054540993
0.0012207981
-0.0021429618
0.033217832
0.029167116
0.0061238767
0.008905978
-0.004357619
-0.0063031325
0.005145056
0.008886021
-0.0068338094
-0.0018077728
0.009138381
0.001598931
0.017583834
0.021164488
0.02088484
0.019160172
-0.015883142
0.014628225
-0.0008055303
0.0074635195
-0.00088403927
-0.0021585892
-0.006344348
0.013218193
0.010690845
0.005343954
0.014347971
0.0024965229
-0.007434204
-0.004865498
0.0040645883
-0.0042004487
0.013154661
-0.008894925
0.009103743
0.0083589135
0.0039076414
0.024461305
0.008876538
0.02006133
0.028181918
-0.005202955
-0.005903066
0.016483566
0.009434008
0.010358852
0.020852301
0.020666284
0.00087944564
0.016705815
0.006624241
0.012233623
0.005176642
-0.0066278344
0.0060940273
0.002021687
-0.008464381
-0.0059638773
0.005807232
0.009218955
0.006216742
0.0060897428
-0.004325632
0.021189582
0.018830497
-0.0015306065
0.030659303
0.010862132
0.022810038
-0.018892523
0.011394086
-1.5731202e-05
0.018619653
0.00987735
-0.0060056755
0.029071392
-0.012977788
-0.0032672195
-0.0008861209
0.015600889
0.00955567
0.002198646
0.007069924
-0.0031501541
0.008805639
-0.008098283
0.016416285
0.009651521
-0.0027966406
0.018555278
0.0029086892
-0.009248321
0.017336316
0.031076543
-0.00451276
0.005146642
0.016507104
0.0086210305
0.004699905
0.026561864
0.00938129
0.014189051
-0.009782916
-0.004532013
0.0057204138
0.011798702
0.019761797
-0.0042700055
0.01154118
0.003029557
0.01144784
0.021614358
0.012771911
-0.0076451697
0.0077858483
0.013941004
