-0.1547283
-0.03962239
-0.21373938
0.0031221285
-0.11181087
-0.01607986
-0.017617732
0.07087917
0.094891265
-0.044997368
0.0035892422
-0.021874815
0.12370553
0.056308694
-0.05598494
-0.15174982
-0.08463035
-0.06752549
0.016738253
-0.07209335
-0.00022802688
-0.00057913247
-0.09108251
-0.045627326
-0.103171915
0.005128496
-0.07270389
-0.09691147
-0.18426514
-0.12240919
-0.046824317
-0.022785228
-0.1038186
-0.15557098
0.09163531
-0.045427553
-0.09858385
-0.007735078
0.00783235
-0.3456447
-0.007998876
-0.08495687
-0.15123992
-0.08501447
0.021711797
-0.39855728
0.06456455
-1.7785096e-05
0.014613422
-0.0040951823
0.06905703
-0.11442701
-0.09904012
0.09304007
0.034737375
-0.07301841
0.10908072
-0.055438556
-0.009032146
-0.034372177
-0.019521056
-0.0037489585
-0.09902971
-0.0043595093
-0.010844991
-0.065088116
-0.038315147
-0.086153336
-0.07825126
-0.09955393
-0.119793616
-0.112827286
0.03140185
0.03110365
-0.00066577276
0.08987708
0.087117776
-0.08994769
-0.008492317
0.03913011
-0.011905179
-0.061017696
-0.056378387
-0.21103151
0.088120945
-0.10311325
-0.102079846
-0.00738021
0.05486733
-0.023145588
-0.073119685
0.04938933
-0.08632086
0.115657665
-0.024379514
-0.11224475
0.031978916
0.10049707
-0.10069782
0.07859775
-0.049242586
-0.00386282
0.060186375
-0.0080595715
-0.08983047
0.02063558
-0.014338596
-0.0002676828
-0.029219937
0.11145499
0.065071575
-0.00063945295
-0.008645069
0.10772116
0.07894811
0.054870866
-0.17296702
-0.057338394
-0.09004979
-0.019146746
-0.018082652
-0.064724155
-0.06614208
0.02377695
-0.036203835
0.06230396
-0.018271623
-0.05433025
0.13038827
0.0061841705
-0.058072466
0.042030938
0.052843794
-0.004031684
-0.10428997
0.014248193
-0.0027390611
-0.008053948
0.11580657
0.081126764
-0.1661357
-0.17412917
-0.07488673
-0.038042523
0.036489654
-0.025085902
-0.049974382
0.07692848
-0.010339086
0.08639245
-0.07809794
-0.3078984
0.091378406
0.06866483
-0.00087747874
0.019181963
-0.007815928
-0.02852339
-0.020435698
-0.00059097644
-0.0070544044
-0.065268956
-0.0061907456
-0.09956657
-0.06610853
0.0037343535
-0.0035193572
0.0033076173
-0.095501274
-0.05266366
0.066798225
0.068222545
-0.06364215
-0.10779549
0.013616354
-0.29208574
-0.14594018
0.019384788
0.11760276
-0.027648645
-0.009685979
0.11592076
-0.0920704
-0.0016024102
-0.043739498
0.015318233
-0.019848198
-0.07693925
-0.009234651
-0.05861877
-0.037907757
-0.113527246
-0.06524995
0.055486053
-0.02630298
-0.012759778
0.029910427
-0.025659597
0.07145948
-0.004951971
-0.045950152
-0.024782386
0.08418636
0.046346135
-0.071508855
-0.13065201
0.103593856
-0.0040173023
-0.0001509487
-6.172769e-05
-0.017851915
-0.05608109
0.052761693
0.052520614
-0.0036123437
-0.016867222
0.06501628
-0.044971157
-0.009666077
-0.07638578
-0.029123403
-0.03205855
0.088431165
0.08913379
0.04097923
-0.03019425
-0.15578967
-0.10289357
-0.07311994
-0.07950741
0.09265514
0.025665976
0.05637536
-0.00082753424
-0.0040663243
-0.06384551
0.084841296
-0.1066486
-0.0065287706
-0.00338186
-0.035001952
-0.020562237
-0.10788174
-0.08484939
-0.015556982
-0.011899169
-0.052795306
-0.034412153
-0.04011367
0.063310884
-0.08027898
0.094771385
0.11506241
-0.040058326
-0.040626217
-0.014705379
