0.039156403
0.12689269
-0.0041403174
0.070398904
0.051486585
0.1536227
0.15058872
0.055747416
-0.02425478
0.12584244
-0.04472383
0.057916977
0.17388202
0.20245376
-0.0018496015
0.114522465
0.13347337
-0.022492312
-0.111268595
-0.051220197
0.047270868
0.09704941
-0.16367693
0.11108522
0.12417257
0.07094659
0.06672302
0.037112217
-0.04458031
-0.036394604
-0.0343646
-0.01541418
-0.0012087418
-0.03521335
0.08869039
0.022557946
-0.011741218
-0.025021754
0.06464997
-0.13376676
-0.107218824
0.043735914
0.076291956
0.018069725
0.08282864
0.021497767
-0.056950826
-0.05401342
0.13757953
0.081869215
0.21426575
0.14573264
-0.06398619
-0.004352827
0.0792639
0.0033275993
0.094591305
0.03351428
0.093692854
0.11973796
0.08711173
0.05933851
-0.088660926
0.11058289
0.18180163
0.07918434
-0.01880399
-0.044863768
-0.05665613
0.06343743
-0.010843993
-0.11746159
0.16825385
-0.00078447314
0.12892519
0.13627242
0.21673754
0.20351593
0.17651461
0.13766581
0.015854169
0.12642841
0.0408267
0.07297189
0.15899844
0.1583202
0.09689612
0.05430362
-0.019278605
0.08096947
0.022726484
0.10839895
0.18504214
0.1029864
-0.06807739
0.05816523
-0.010308552
0.08675694
0.0081515815
0.09136027
-0.015477743
0.07407042
0.066422775
0.03841762
-0.1097706
0.19351573
0.0324076
0.16075101
-0.0800716
-0.047747213
0.12788787
-0.045039713
0.007160127
0.04748402
0.21339995
0.022168374
0.03462907
-0.012101138
-0.019246494
0.17132159
0.11432788
0.031354148
0.0290305
0.13524806
0.07278422
-0.015847439
0.18276991
0.13403387
-0.070884235
0.1446319
-0.00594966
-0.0032836138
0.04658082
0.12201309
-0.09177864
-0.015156114
0.059015356
0.13786511
0.1312507
0.028914694
0.1674876
0.12146349
0.04697295
-0.049138404
0.027076218
0.051398013
0.1772371
0.11411956
0.0035492824
0.031965435
0.1504278
0.17561768
0.10169873
0.027100822
-0.07490384
0.19564769
0.096386366
0.019476593
-0.023524584
-0.0057144067
0.05701979
0.07111716
0.06184246
-0.051213957
0.050603677
0.10029634
-0.00075110694
0.0043459237
-0.13872238
0.08222608
0.07166944
0.005108612
0.13106352
0.12370016
-0.0024519272
0.19927645
0.0029465763
0.06440923
-0.020971451
0.04017952
0.06541821
0.20830932
-0.095073685
0.10448992
0.01868185
-0.018861176
0.036700204
0.09272481
0.1570738
0.114397496
0.0025959525
-0.036234558
-0.03424234
-0.090133056
-0.048751973
-0.11525108
0.078343436
0.13973308
0.006696279
-0.07490684
0.047482207
-0.025400223
0.0707826
0.046766907
0.063922115
0.13159983
0.06437286
0.047380686
0.08415809
0.083329044
0.08118951
0.064221226
0.0772056
0.015958566
-0.10792775
0.04559423
0.09622157
-0.06989661
0.1429879
0.12716542
0.051318664
-0.022725824
0.024786152
0.17610283
0.0170345
-0.028614968
0.16547585
0.085038096
0.16292866
0.026938446
-0.02809252
-0.008656416
0.006644092
0.037822522
-0.0012576128
-0.0030321986
0.08402526
-0.019940685
-0.12909557
-0.046581727
-0.024004217
0.18553033
-0.051024605
-0.017958924
-0.020450966
0.13108233
0.0893479
0.023080343
0.112974234
-0.06829345
-0.018484298
0.13363335
0.02315709
-0.044372465
-0.09042536
-0.024015866
