0.0032802783 -0.02009053 0.025376525 0.0512674 -0.029248927 -0.008600301 0.031353842 0.011151218 -0.040037088 -0.008916257 -0.024488123 -0.012279419 -0.0064431285 0.010373401 -0.039023783 0.029552778 0.0023998846 0.00016796222 0.00213594 -0.0076400535 0.014405104 0.0029382624 0.0043287626 -0.01866663 -0.020358464 0.005758163 0.0258364 0.017164944 0.0026548184 -0.017289968 -0.013023159 -0.012790448 0.024341876 -0.025735918 -0.023317944 0.045930825 0.033372335 -0.009305229 -0.008949125 0.007910907 0.019070886 -0.020588234 -0.0027937419 0.035475798 -0.03209433 0.030568281 -0.008191988 0.009236 0.033365816 0.027600091 0.00092157355 0.0053572627 0.018155262 -0.016904768 -0.03184901 0.01095719 -0.039572347 -0.03367636 -0.028025404 -0.025177343 -0.029064676 0.037954584 -0.012011842 -0.002105493 0.007758558 0.016947009 -0.029603535 0.013446646 0.01788506 -0.021151366 0.032370582 0.02092011 0.005260403 -0.033683233 -0.016922101 -0.017059619 0.030292688 0.016855864 -0.03582934 0.033936802 0.028581174 -0.03489685 -0.0052933875 0.010152176 0.03337646 -0.023060812 0.03679129 0.019797191 0.02796665 -0.012378329 -0.04090351 0.023616515 0.015087284 0.0108139515 0.025476169 -0.012322194 0.005116927 0.015357335 -0.021044029 0.0070506996 0.029886136 0.032554254 0.011835008 0.0016647542 0.030590976 0.0466841 -0.008554066 -0.03830447 -0.013371054 -0.005591217 0.015442591 0.018355614 -0.010629542 0.006162889 -0.015139754 0.008950349 0.012216946 0.021591682 0.0005331305 -0.028651351 -0.038841173 -0.0099271815 0.022597812 0.019378323 0.005785004 0.016843673 -0.01909065 -0.03897316 -0.004590312 0.0001292229 0.0028278518 -0.029530168 0.004585349 -0.03850747 0.025818324 0.034419093 -0.023018915 -0.034281213 0.022822648 0.027488628 0.00688076 -0.024660738 -0.020323446 -0.02687394 -0.010897836 -0.011740625 0.021250002 0.0045599 -0.0025950323 -0.049896758 -0.010481838 -0.032308716 -0.004940907 0.007916363 0.021886107 0.012211945 -0.023707818 -1.0762155e-05 -0.021771895 0.020197961 0.01246495 0.021221539 -0.0021716647 0.042505726 -0.0142922625 -0.032030523 -0.013525843 0.021764182 0.015088609 -0.033850487 -0.020399999 -0.019198438 -0.006767768 0.035902273 0.06766555 -0.033269487 -0.03516327 -0.039416045 0.007065736 -0.025040546 0.050472178 -0.034914188 -0.0040085474 -0.026070444 0.0391675 -0.00678394 0.0062019927 -0.010543549 -0.021376664 -0.020412557 0.036568232 0.023028068 -0.020807587 0.005162035 0.0049174237 -0.0261719 0.009361485 -0.03000562 -0.03201108 -0.03716203 -0.020692436 -0.0074071256 -0.0012393255 0.010757456 0.002052393 -0.018926684 -0.02915617 -0.022401335 0.042668793 0.015081945 -0.031998664 0.0069974284 0.034751114 -0.039359435 0.039455272 0.031645972 0.011352308 0.03272729 -0.03381734 -0.010162092 0.00058169157 -0.025992472 0.017184602 -0.020331893 0.0020988535 -0.02133806 0.021289637 0.012644954 -0.025006123 -0.031567257 -0.0077682165 0.008795073 -0.025046103 -0.0056306804 0.013449751 0.0011841266 0.027711043 0.028428713 0.02830881 0.0004072321 0.008495623 0.0339717 -0.03149194 0.015792115 0.03172182 0.0017043302 0.024078531 -0.022817707 -0.018265018 0.023835272 0.06314881 -0.031323083 -0.042079173 -0.0142800985 -0.012718122 0.0345939 0.028019276 -0.025325887 -0.0017287132 -0.035300046 0.0165232 -0.009193449 0.015041019 0.0034703764 0.00038443235 -0.011201281 -0.030134369 0.02039537 0.029451055 0.017916564 0.00783088 -0.0001730781 0.032720905 -0.023222068 -0.036266252 0.02762673 -0.00028962578 0.010667557 0.018873008 0.0031426633 -0.020233253 0.022354703 0.030257363 -0.04552928 0.010552139 -0.00234528 -0.044389848 0.042043146 0.022479678 -0.025646204 -0.021023981 0.004382741 0.033081215 0.039865255 -0.030054297 -0.029343994 -0.024042413 0.024549166 0.02923343 0.032978334 0.010609355 0.00015050167 0.026283974 -0.0125920875 0.028839871 -0.030635048 0.04270065 0.00016678215 0.0194898 0.043370508 -0.027404124 -0.0124585265 -0.0034246072 -0.012008304 0.00015876834 0.029332293 -0.014660269 0.024183678 -0.028445022 0.020603068 -0.018040976 -0.0288284 0.020520875 -0.022029776 0.013068496 -0.011182385 -0.006309853 -0.0030692453 0.0055072187 -0.038342007 0.0065001044 -0.026933243 0.01257554 0.014222876 0.03711662 0.042046998 0.027703607 -1.30474245e-05 -0.0012805371 -0.029964766 -0.0321029 0.0048520393 0.0059056007 0.012695435 -0.004110242 0.015650235 0.012732875 0.0014140822 0.001690291 0.004406194 -0.003692884 0.0182505 -4.170781e-05 -0.009989012 -0.016896304 -0.021277836 -0.0055612056 -0.02396202 -0.005282184 0.018745968 0.037562832 -0.026333544 0.010248701 -0.013853614 0.0188748 0.02655494 -0.012061506 0.032409817 -0.014681958 -0.026496667 -0.032573976 -0.007558325 -0.0038923672 -0.043533523 0.0024187448 0.0064140228 0.040424034 0.03140466 -0.017703317 -0.023435643 0.024238888 0.008217473 0.023007875 -0.011286764 -3.200433e-05 -0.011988464 0.00820317 0.027352188 -0.017461011 0.032514565 -0.0017365384 -0.02175373 -0.0137038035 -0.0009930023 -0.018779056 -0.05855515 -0.0029649343 -0.02495476 -0.0039793584 0.02800782 -0.02665392 -0.03445626 -0.025879215 0.035081454 -0.023778979 0.03151568 0.039754536 -0.0069558946 0.012494821 -0.006053907 -0.01569309 -0.011417959 -0.03375633 0.079548284 0.012521674 0.024363479 0.02231688 0.011570431 0.010489595 -0.0128403595 -0.02259571 0.028932935 -0.013141553 0.0010825187 -0.03708424 -0.009261932 -0.0016716361 -0.013737001 0.0020257572 -0.024422372 0.0012350875 0.03428365 0.026293224 0.026097631 0.038229696 -0.031702057 -0.020212688 0.009940534 0.037070718 -0.0119853495 0.030737212 0.042266577 -0.0065016365 0.033008587 0.016805958 0.014509511 -0.0030578591 0.03181095 0.025078531 0.02126774 0.03972607 -0.012675312 -0.035597485 0.036012117 0.0026988871 -0.011120036 -0.01371663 -0.03676204 0.022449879 0.0038330238 0.004036305 0.032519456 0.011025105 -0.016973896 -0.008496789 0.018068867 0.004782163 -0.0019161879 -0.017799567 0.033693697 0.009197174 0.029199317 -0.026831534 -0.020886175 -0.011054913 -0.039357346 0.0149432635 0.038708366 -0.021422228 0.035425518 -0.008267375 0.011008584 0.006093815 0.005738356 0.027588382 0.016022136 0.0018223824 0.0045026303 0.036491096 -0.014187367 -0.039136715 -0.020227188 -0.0059666825 -0.057634126 0.027960977 -0.014503885 -0.013441811 -0.03911205 0.029174514 0.005541268 0.0011791424 -0.004219272 -0.0013883774 -0.022580443 0.042798005 -0.03951729 -0.03429374 0.04745973 0.016645703 0.037464578 0.0018390244 0.029558463
0.029430801 -0.038553685 -0.0052236496 0.0065469206 0.019255636 -0.028474953 0.04501133 0.019329805 0.016123561 -0.028668214 -0.046016447 0.01694591 -0.02776452 0.04496428 0.028461425 -0.01060031 0.02214668 -0.003578325 -0.016550487 0.034026638 0.029698862 -0.045784317 -0.01420989 0.03321619 0.024701461 -0.003952262 -0.0070470194 0.05123039 -0.012752659 -0.04036336 0.0011223251 0.0010550106 0.012851754 0.04419125 0.015131296 0.0402587 -0.03239211 -0.015369002 0.021948822 0.02277833 0.00046503125 0.022170825 0.0014140701 -0.037567776 0.046630234 0.04136496 0.007199239 -0.008610912 -0.004439113 -0.0014210755 0.03896209 -0.0013910664 0.01625214 0.016739165 -0.024987984 0.0046527525 0.026906313 0.045770075 -0.0130847925 -0.011565546 0.02608824 -0.03477103 -0.033435352 -0.0010745078 0.035496272 -0.030061215 0.04527781 -0.012489818 -0.017680492 -0.03071559 -0.027957061 -0.03684948 0.040047362 0.007828709 -0.044751693 0.022871695 -0.03900931 0.055049013 0.04352212 -0.020007012 0.03771342 0.0016937999 -0.03603366 0.039406568 0.010868705 0.01882961 -0.029782157 0.03685218 -0.05541271 0.0418488 0.0043736543 -0.045657262 -0.0286793 -0.039163783 0.037412863 0.037546508 -0.056633312 -0.035330687 0.04098676 -0.03124458 -0.031138636 -0.022726933 0.033346586 -0.041710444 -0.015532208 -0.04308875 0.010141701 0.036498882 0.03182666 -0.04619794 -0.0161998 0.031070191 0.017993215 0.027486145 -0.024143089 0.041724786 -0.016804175 0.037124664 0.00138634 -0.0415798 0.041247822 -0.0359887 -0.022022126 -0.019655183 0.002025249 -0.018401684 0.018102372 -0.034795944 -0.029307941 0.0060806507 -0.0013474408 0.0058380817 0.047825877 -0.021189425 -0.008084921 -0.049840666 -0.008411538 -0.014116828 -0.047770485 0.0022701665 0.029483778 -0.0048962473 -0.03688385 -0.020382816 0.020106869 -0.038500216 -0.006771985 0.020494042 0.021222718 0.0149865495 -0.041325822 -0.020706713 0.001441927 -0.03348448 0.033144094 0.009864449 0.0028279803 0.009436509 -0.018316956 0.03741248 0.04323764 0.016173935 -0.04294932 -0.013915101 0.021318719 -0.029841844 0.04692624 -0.040680178 -0.01946108 -0.0097263 -0.044415604 0.018751983 0.042877324 -0.011081307 0.008883521 -0.015138433 0.02777688 0.039388433 0.007366445 -0.021788137 -0.04031972 0.02520405 0.040274564 0.018076811 0.039339628 0.024750514 0.004358407 0.00066806324 -0.043218177 -0.00040344996 -0.002398825 0.019266881 -0.0137844775 -0.019870117 0.005414867 -0.034522075 0.021654043 -0.002108312 -0.006318737 0.035765477 -0.012403354 -0.0046043023 -0.009001654 -0.048255995 0.035091948 0.00069892313 -0.033231035 0.00065368495 -0.024530984 0.046687253 -0.031621233 0.019251531 0.03672617 -0.035072885 0.033695213 -0.023604078 -0.031415965 -0.028396012 0.03342177 -0.007958505 0.01723611 -0.0058187414 -0.040350396 -0.03764713 0.028077172 0.011246375 0.006594826 -0.023781486 0.02601051 0.020347599 0.007850322 0.004877991 0.023728682 0.023137141 -0.010066605 0.036549486 -0.039998014 -0.021653885 0.026119726 0.05265662 0.042177718 0.04568456 -0.013685089 0.0016758125 -0.007156724 0.009826 -0.029539734 -0.0011765019 0.0171457 0.03309425 0.015442619 0.043939438 0.027459878 -0.03142937 -0.039753184 -0.040109433 -0.010260972 0.012837905 -0.037129525 -0.010780085 -0.03855266 0.039640453 0.017018441 -0.046982415 -0.038836036 -0.011830016 -0.017460888 -0.03568767 0.046309233 -0.02589828 0.045922104 0.007894261 0.015529516 -0.010443892 0.0038657722 -0.009110864 -0.017458584 0.005585145 0.019948632 -0.03394677 0.019945571 -0.015939094 -0.02007594 -0.009083136 0.04063071 -0.0021668726 -0.035717137 0.017965334 0.016979668 -0.031078635 0.027250143 0.028250916 -0.035725486 -0.030608032 -0.010743383 -0.017554423 0.003411891 -0.02721608 0.024089089 -0.0036004484 -0.0015717754 -0.007169694 -0.014944016 -0.044997733 0.0055684787 0.037167747 -0.012383414 0.035662048 -0.014399141 -0.009391306 0.011453153 -0.03844465 -0.01787763 0.024317376 0.03328607 -0.05788034 0.013611692 0.04184854 -0.018406404 0.010768479 -0.032823164 0.027575212 -0.012566076 0.011164382 -0.008841732 0.012567612 -0.0016292032 0.023341129 0.017979555 0.01645696 -0.024659343 0.014781526 -0.033741333 -0.0039806496 0.04332109 0.043489248 0.027955238 0.022064991 0.04168327 -0.03929243 -0.030821249 -0.03676089 -6.0644517e-05 -0.040579908 -0.0053144824 -0.0049188654 -0.026505327 -0.027571432 -0.022783825 -0.018779973 0.037824042 0.021706615 0.019135844 0.042980112 -0.0143457195 -0.011416187 0.042992115 -0.00030926205 0.004664038 -0.028962327 -0.0020427401 -0.02204813 -0.018529251 0.020664465 -0.0045149797 -0.034129035 -0.037598357 0.012638928 -0.03907022 -0.05098011 0.013151799 0.025978368 -0.01511406 0.006558122 0.035381053 0.019908903 0.020891571 0.013839191 0.04401399 -0.012598204 -0.023655972 0.006646929 -0.032978043 -0.04113105 -0.011069599 0.031921856 0.013440407 -0.02814906 -0.005388453 0.016678633 0.030542668 -0.006255056 0.0028132303 0.022488121 0.03371951 -0.0012953865 -0.049874533 0.019576125 -0.013563307 -0.024682904 0.0067498474 -0.028421314 -0.030142905 -0.01449641 -0.046356592 0.035922665 0.011658127 -0.005776424 -0.0027486247 -0.017162042 -0.006174974 -0.029111102 -0.0012343854 0.05666353 0.012234 -0.026045531 -0.006409374 0.007054445 0.015172202 -0.0051574316 0.040794563 -0.023523191 -0.031211818 0.017054867 0.009681867 -0.0009619614 0.00823285 -0.03743348 -0.022075683 0.0020975333 0.004687949 0.033436388 0.007909768 0.010121907 0.00905973 -0.029913021 -0.008146697 -0.030160582 -0.01853387 -0.034649346 0.015380843 -0.014672646 0.007928217 -0.032431718 -0.03413613 0.028476207 -0.00085112476 0.016162114 -0.044999897 0.037234012 -0.008718963 -2.7443815e-05 0.012800692 0.002999991 -0.026806543 0.032696184 -0.04438572 0.028726615 0.03853401 0.02071399 -0.025443738 0.028993316 0.037617084 -0.008685224 0.041453317 0.032866474 -0.05008468 0.048321847 -0.038804162 -0.042148307 0.024956403 0.018550456 -0.027353024 0.034589104 -0.011234208 0.006707106 0.039420668 -0.030004691 -0.015323402 -0.03996885 -0.01821382 0.023200875 -0.039582938 -0.016686058 -0.024872322 0.015033057 -0.029089294 -0.043127112 0.010282066 -0.010543929 -0.026687408 0.0022168513 -0.02597923 -0.039153438 0.039538376 0.003750289 0.029238649 -0.03459182 -0.036358964 0.044210438 0.0055360924 -0.0056441785 -0.041540008 -0.012299973 0.0035754447 -0.029876394 -0.03520476 0.030909054 0.029119998 -0.0128230015 -0.009908052 0.026544739
0.022360733 0.032192413 -0.036829893 -0.025754642 0.03273253 0.053331517 0.04759074 0.04397962 0.02873322 -0.015672395 0.024375707 -0.010355325 -0.019434124 -0.043485783 -0.021763032 0.012221344 0.0037522179 0.023492865 -0.012777911 -0.02189749 -0.027534839 0.05263086 -0.006004565 0.023299793 0.028527902 -0.026174346 0.03764714 -0.0020867242 -0.028305888 0.03868336 -0.012522587 0.018301183 -0.016573694 -0.036819074 -0.04084673 0.010599836 0.036163956 -0.048196882 -0.009779902 -0.035131507 -0.043684553 -0.03281378 0.045147553 0.021496568 -0.014893504 -0.046219736 -0.03568723 -0.03954334 0.020163586 0.04055631 0.025593724 0.02257575 -0.0035560203 -0.015050774 -0.024557084 -0.004445588 -0.018236557 -0.0012868176 -0.020516062 0.0136202 -0.016923238 0.039759275 0.02691868 -0.008479182 -0.035465814 0.06410419 -0.010448801 7.679986e-05 -0.024495518 -0.0042304876 0.040559642 0.014269273 -0.0011167567 0.00969082 -0.01919748 -0.0068877256 -0.03430108 0.0138494745 -0.034906533 0.03484266 -0.0067751906 -0.021324849 0.021523023 0.0064355917 -0.021886861 0.030462181 -0.013116936 0.00028985704 -0.03496115 -0.017392214 -0.023512973 -0.027535276 -0.048539165 -0.019358097 0.052286573 -0.017782679 0.042755738 0.015821623 0.021984022 -0.027255865 -0.00720501 0.008295866 0.024218133 -0.02599538 -0.028804885 0.011105727 0.028597262 -0.03951747 -0.010477483 0.022101542 -0.005085134 -0.017053626 0.023055207 0.021386102 -0.02352961 -0.03256568 -0.021534944 0.010807899 -0.020203056 0.014983883 0.044150308 0.018426541 -8.749182e-05 -0.021112848 0.014120641 -0.03498619 0.024566006 -0.02713061 0.020827578 0.018780356 0.050813552 0.038797006 0.0013696272 0.010874818 0.03048737 0.017955225 0.040386047 0.043517854 -0.0020139418 -0.017492991 0.015997563 -0.028266024 0.044605147 5.2967247e-05 -0.026061058 -0.042858936 0.0076763597 -0.012546982 -0.038381033 0.0039863954 -0.0007726294 0.0054955734 -0.013578362 0.050486807 0.014188718 0.04570029 -0.033631686 0.005042613 0.02047552 -0.0378176 -0.006984491 0.015396844 -0.028917197 -0.007910537 -0.037831202 0.014085903 0.0083562825 -0.045674596 0.035170764 -0.0011796489 -0.025028832 -0.030102368 0.048805725 0.07317752 0.037230697 -0.018039484 0.04189605 -0.02502313 -0.021789378 -0.028817635 -0.050682314 0.013726949 -0.015243617 0.012613399 -0.039497815 0.0009645362 0.017558504 -0.027198773 -0.025088238 -0.025439447 -0.015228877 -0.041395426 0.043738715 -0.041959237 0.01946997 -0.022461552 0.035917494 0.029606024 -0.016319845 -0.034562167 0.024375068 0.041116297 0.023989907 0.022440897 0.050815478 -0.033200067 0.005724894 0.009232725 0.04525216 -0.0028257205 0.020393416 0.0094945 -0.03588241 0.0393243 -0.040043652 -0.036014207 0.011425915 0.062099505 0.010315865 -0.026735334 -0.014559274 0.04344242 0.01775147 0.03246979 0.02806483 -0.014990663 -0.035372984 0.014868926 -0.046052363 -0.041094612 -0.008354919 0.03064933 0.02268311 0.028414793 0.011668989 -0.021613706 -0.0029816045 0.010696632 0.035296023 0.025574222 -0.035461843 -0.029187553 -0.040789783 0.04137643 0.008055791 -0.044609122 0.037523616 -0.026205216 0.032214813 0.01722663 0.05432903 -0.0034218095 0.015524888 -0.04146357 0.028332459 0.013687382 -0.0020118952 0.03462838 -0.016180454 -0.0045847683 -0.0035417655 -0.015949376 -0.049137503 0.0111415405 0.0064817546 0.019884445 0.0325169 -0.0038312126 0.0043743243 0.00763118 0.014930472 -0.020056795 0.01874836 -0.019986644 0.02190156 -0.033361215 0.03539217 0.027622847 -0.027288249 0.047818504 -0.036229655 0.0042446875 0.024532314 0.029706487 -0.027811395 -0.0036409874 -0.016224412 0.04488288 -0.043320954 -0.0063653877 -0.035066172 -0.01257282 -0.05563655 0.023343543 0.015179978 -0.006576712 -0.016484112 0.024786236 -0.012538077 -0.025593169 -0.01583844 -0.008305543 0.023731017 0.028258147 0.0027012778 -0.014897358 0.042291574 0.017603774 -0.02795595 0.017029315 -0.010892139 -0.03200645 0.022263972 0.060998563 0.006109058 0.007561618 -0.01578148 0.00032289085 -0.00021674125 0.032516543 0.040872935 0.024895782 -0.05401787 0.012243558 0.01001626 0.038864043 -0.011933979 -0.0424122 0.0061322 -0.018633638 -0.0034067726 -0.031302888 -0.028630033 -0.003636192 0.030938622 -0.022651095 -0.036401913 0.032662272 0.00977712 0.037930887 -0.017851893 0.048176497 0.00400385 0.03635259 -0.016563082 -0.031969927 -0.019600859 0.009596357 0.040864352 0.029368214 0.019225417 0.030538332 -0.023459677 -0.048617184 -0.036774635 -0.014136189 0.05295887 0.044631843 0.009157356 -0.041312896 0.037214383 0.039112248 0.008399005 0.026236357 -0.019754278 -0.019107865 -0.008679275 0.04628568 -0.040642455 0.021031698 -0.015035138 0.0072063114 -0.038105812 -0.02215719 -0.038676295 -0.018675942 -0.002012559 -0.034539834 0.0217404 0.028816542 0.0219445 0.037732907 0.02063007 0.027111981 -0.011819023 -0.0023681058 0.021999117 0.030998524 -0.031723972 -0.008530581 -0.035149045 -0.022546787 -0.020514905 -0.043724567 0.046846222 0.032914527 -0.0043474785 0.029228117 0.036669787 0.0454109 0.0045860214 -0.035069108 -0.003342705 0.006899434 -0.04381502 -0.0046929494 0.02842427 0.021472294 -0.016246518 -0.030764004 -0.022443159 0.031565588 -0.01850053 0.03718568 0.013439878 -0.01764527 -0.026947118 -0.018345945 -0.008303765 -0.043314807 0.02504574 -0.01365246 -0.03762621 0.012516268 -0.01930097 0.025032343 -0.038347874 -0.017950868 -0.028248254 -0.0072496207 0.0011409925 0.010744285 0.0037502456 -0.011417279 0.035933405 -0.033019055 0.026407184 0.029915748 0.009083642 -0.020601582 -0.054760795 0.04889918 0.039882496 0.037728727 0.03280647 0.0090661235 -0.0074200723 0.036620658 0.03192774 0.009182685 0.004494906 0.017470296 0.030777184 0.036292747 0.0197199 0.02715404 0.015409519 0.0041172598 0.038252078 0.036829643 -0.00078174553 -0.0023009493 -0.0032817281 -0.0065806503 -0.021346351 0.0004211114 0.009196055 0.017240528 -0.002609932 -0.006667439 -0.033829026 -0.027342413 -0.036505174 -0.004037759 0.0009896937 -0.025812762 0.012488042 0.039244596 -0.006457823 -0.023779642 -0.039266896 -0.0032756922 0.04177993 -0.04067328 0.027684003 -0.017860327 0.036163196 0.022604117 0.03022755 0.036014456 0.007079713 0.0059475107 0.013151519 -0.006971609 0.033324383 -0.023567434 -0.024980713 0.01317424 0.010314744 -0.013635102 -0.064647 0.030019999 -0.044343024 -0.044642206 -0.02824186 0.031885907 -0.0010542435 0.0061947163 -0.045073684 0.022777252 0.00046997206 0.035743043
0.010230903 -0.019662857 0.03277144 -0.009404977 0.031766925 -0.0077601518 -0.024687823 0.05409375 0.0025169645 0.03669326 -0.04031863 -0.017345589 0.022665752 -0.0054709725 -0.012218778 0.0013310972 -0.0057071615 0.01866138 -0.03897654 -0.011022695 -0.0065000127 0.004322656 0.040789425 -0.0011363014 0.036056284 -0.0036514995 -0.025790721 -0.01143006 -0.04411977 -0.026499633 -0.032797202 -0.014100052 -0.022258822 -0.009999214 0.025865465 -0.025272356 0.024317734 -0.033730216 -0.026124632 -0.02029967 -0.03017026 0.048634436 0.0066138254 -0.027178043 -0.032624926 -0.010701078 -0.012304085 -0.002053271 0.0022123184 -0.024218345 -0.033163372 0.034443393 -0.006139561 -0.046709433 0.03097575 -0.016402258 0.011973221 -0.029143322 -0.043449376 -0.031184187 -0.030696068 0.021592144 0.05005862 0.0021942095 0.03066855 0.014870471 0.003958842 -0.0013037396 -0.0091170175 0.041522138 -0.023775548 -0.007886021 -0.021575568 0.037610944 -0.02322437 -0.025265241 0.022241551 -0.008587897 -0.007171633 0.012852224 -0.030923516 0.013064051 -0.010586776 0.017979471 -0.002230026 0.026797699 0.017922673 -0.03964528 0.028035445 0.03398279 -0.00486478 -0.028952982 0.024108278 -0.044683907 -0.04456669 0.026363878 -0.016035127 -0.037161086 0.037371535 -0.03929506 -0.037352696 0.026649147 -0.027101638 0.032375526 0.04307002 -0.02770331 -0.05508202 -0.007672875 0.013532575 0.033406503 -0.010183136 0.02733455 -0.014364079 -0.04191468 0.041757587 -0.039186873 -0.015490064 0.024381489 0.0238787 -0.0014416109 0.039931875 -0.00738493 0.036755558 0.02857188 0.025415273 0.023609022 0.037081204 0.013351585 -0.032820813 0.030569294 0.016266264 -0.029233895 -0.056166682 -0.019472897 -0.0077257054 -0.015388607 -0.019206733 -0.026774906 -0.037387483 -0.045540333 0.016190162 -0.030602187 -0.015470641 0.033703845 -0.04609831 -0.032010872 -0.013449215 0.041354693 -0.032867793 -0.006064418 0.037300922 -0.043856796 -0.026677255 0.040639445 -0.037548017 0.024327433 0.011814216 -0.029704528 -0.019253213 -0.018884161 0.04795397 0.04280164 0.05093376 -0.044228468 -0.0407129 0.015996372 0.0052084145 -0.012755384 0.02916354 -0.042908754 0.053453278 -0.03902257 -0.024968212 0.011837877 -0.0057743806 -0.017720003 -0.03686137 -0.0061238925 0.041630674 -0.011358101 0.030005809 -0.03772005 0.006012123 -0.040863726 -0.011067067 0.041500174 0.047011763 0.008163579 -0.0008790915 0.021025646 -0.034485027 0.0076890457 -0.027835181 -0.040716257 -0.0420218 -0.030440098 0.046650987 0.024083393 -0.022879414 -0.012048553 -0.010806617 0.01916428 0.04748323 -0.024733014 -0.014801206 -0.0025000442 -0.012022638 0.017700283 0.008229903 0.0349729 0.03035511 -0.013113398 -0.016304577 0.03380501 0.037368592 0.024482323 0.0050734747 -0.057816796 0.0054126643 0.00408361 -0.008491413 0.021343552 0.00039352925 -0.033557452 -0.0351798 -0.036627963 0.03582689 -0.019947032 -0.041090272 -0.000740925 -0.018639077 -0.043579213 0.027476234 0.041036934 0.031583652 -0.0033380392 0.027782958 0.02424616 -0.027965492 -0.017133066 0.04030777 0.036972582 -0.0017427244 -0.036318943 -0.0034442425 -0.02285017 -0.04443409 -0.015261451 0.032969885 -0.06233591 0.046571717 -0.0024615442 -0.023952857 -0.05335226 0.015229089 0.008088346 0.02284478 0.022311024 0.028803898 0.04929178 -0.01672452 -0.024749571 -0.0001693469 -0.0027454412 -0.042778768 -0.025338428 0.043835714 0.0075859474 -0.047119707 -0.024144452 0.019756615 -0.033355195 -0.010205809 -0.048887216 -0.0072038397 -0.033452 -0.0029442906 0.020387212 -0.06286937 -0.018998625 -0.02035769 0.022248862 -0.0061165486 -0.008259184 -0.031947874 0.0041081375 0.022930577 -0.06877307 -0.035785515 -0.008728443 0.010730621 0.0060388334 0.02769899 0.038970556 0.022048825 0.013224539 -0.005903232 -0.04383731 -0.03057256 -0.015895942 -0.010751406 -0.011262172 -0.03274499 -0.025099212 -0.022912439 -0.0013486085 -0.014058163 -0.037948225 -0.0017600274 0.026219893 -0.02667808 -0.03096214 0.025987443 -0.018194297 -0.034444243 0.008224318 0.029412689 0.02725149 -0.01920088 0.024390653 -0.002427314 -0.043350942 -0.018765016 -0.066754095 -0.0069547286 0.029792208 0.051280092 -0.0305997 0.015358567 -0.00044393577 0.030759837 0.0066148606 -0.011609536 0.03306755 0.0024274802 0.03423729 0.011616892 0.009687481 0.026186028 0.045110155 -0.009402741 -0.02020709 0.030640645 -0.045842297 -0.009193266 0.037961654 -0.00062256434 0.037586857 0.038374163 0.017496169 0.03607176 -0.028591495 0.050443377 -0.034523938 0.041984014 0.041591294 0.0065163374 0.0030183776 0.02203492 0.045752775 -0.0073280064 -0.004651888 0.035184767 -0.020097513 0.0047582723 0.02174525 0.022556068 -0.016299227 0.048674658 0.04072912 0.046537813 0.033739537 0.036488462 -0.009754992 -0.003200314 0.022831207 -0.010283592 -0.017217593 0.036844276 -0.0131909875 -0.014705669 0.0031241365 0.028088605 -0.018094653 0.029113336 0.0028668754 -0.042297628 -0.011341279 -0.0004609633 -0.018676542 -0.010011504 0.005311056 -0.032275803 0.02205483 0.015806371 0.041320674 -0.026467158 0.0062619997 0.005453163 0.040724754 -0.038097672 -0.051482957 0.026333176 -0.030318217 0.025160443 -0.012681974 0.026471972 -0.0082828365 0.01732332 0.039543316 -0.0095685795 -0.0009451887 -0.0137744425 0.04761579 -0.015579649 0.03218503 -0.02283127 -0.00350944 -0.008413778 0.013857711 0.040599547 0.04339087 0.029311998 -0.033241834 -0.0018647962 -0.047706164 -0.061009765 0.035481133 -0.01821776 -0.011945118 -0.019131718 -0.048289604 0.003245704 -0.00062421936 -0.004334127 0.03031714 -0.03756397 -0.0371683 0.044629008 -0.021579245 -0.026983596 0.0335517 -0.04237087 0.045755994 -0.016642889 0.013976667 0.002144796 0.05353739 0.014018607 0.011515019 0.0031958122 -0.029956846 -0.022199538 -0.03530553 4.7589037e-05 0.001034712 0.011186834 -0.019255646 -0.039890304 0.035754465 -0.01421589 0.039349537 0.01724601 0.017237261 -0.0063625104 0.033712663 -0.061184395 0.017795507 0.008559232 -0.0023694062 0.036947913 0.0013453037 0.010859146 0.003465907 -0.0153374495 -0.009749958 0.027578333 -0.023348205 -0.041241284 0.0056692204 -0.030186404 0.012211907 -0.037617836 0.024812775 -0.017488712 0.038002554 0.038543817 0.010399995 -0.03252662 0.030391153 0.02478501 -0.036067005 0.021229593 0.03995506 0.01254083 -0.019222153 -0.04065703 0.00018697034 0.03866767 -0.038086507 0.07128483 0.047332633 0.044484794 -0.045440294 0.029552208 -0.008833801 0.020356765 -0.019518882 -0.030653056 -0.006225289 -0.008702723 0.03420341
-0.043558042 0.025309598 -0.0051385174 0.023224594 0.0118661085 0.0016480101 -0.046584707 0.037007987 -0.038295664 0.036932126 -0.042687368 0.006377935 -0.053801883 0.004472137 0.00022302255 -0.047209922 -0.0214212 -0.026356842 0.018296 0.026541729 0.042435136 -0.00433986 -0.010713742 0.02008221 0.029783038 0.04118109 -0.036760718 0.037108652 0.0071259653 0.0020196713 -0.04086408 0.044153694 0.04732965 -0.0381927 -0.022333205 -0.03275224 6.6953144e-05 0.031998206 -0.03143448 0.0051936465 0.005595406 0.037311625 0.027056966 -0.041481715 0.044717617 -0.013905083 0.030329058 -0.013116345 0.042707566 -0.045041993 -0.022111466 -0.02043286 0.0018164273 0.04003842 0.005107802 -0.033874646 0.020237368 0.008611436 -0.020447522 0.013023571 0.021766752 -0.0018772277 0.0083253 -0.0015401264 -0.01829479 -0.0054174163 0.031821705 -0.026137153 0.038661968 0.030628096 -0.045149673 -0.02404626 0.015488348 -0.045572057 0.016331028 0.0063944035 0.013124667 0.0298619 0.006845458 -0.02900114 -0.02809377 -0.038244523 -0.019396441 -0.010861632 -0.018861378 -0.0109946765 -0.032222807 0.021460988 -0.034942355 -0.03738073 0.025445541 0.023628894 0.010690892 -0.017153833 0.012640937 -0.005315396 -0.00050688756 0.043466084 0.026255455 0.03601866 -0.00070763944 -0.0017587962 0.012992118 0.034989033 -0.040983967 -0.052950732 -0.023896156 -0.036476813 -0.008866353 -0.030685805 0.03796027 0.01576887 -0.025716955 0.03840535 -0.041196994 -0.028532103 0.03748942 -0.03873143 -0.047990263 -0.03972283 -0.0065113856 0.031439584 0.016942736 0.019959565 0.009180139 0.020164745 -0.013896202 0.052895598 -0.0025371544 -0.021955177 -0.071258865 -0.030833356 0.017443642 0.024958843 0.032885533 0.022419468 0.006481618 -0.0025200122 0.015875256 0.017840747 0.03834026 0.022869274 0.026754934 0.005508321 -0.042879246 -0.020476595 -0.00026128837 0.039553043 0.013752223 -0.04362665 0.0008856491 -0.007976124 0.030604025 0.008211559 0.035615265 0.053052593 0.014008597 0.006919744 -0.016801825 -0.047377124 0.03926382 -0.024144113 0.03951402 0.01450852 -0.033908717 -0.023912774 0.034826327 0.01871146 0.009050333 -0.039379857 -0.0026261855 -0.019481618 -0.02877729 0.0024909491 -0.07073789 -0.027922539 -0.029884622 0.05508444 -0.039315153 -0.08185116 0.040917233 0.036802854 0.003291552 0.025676051 0.026080417 -0.01122522 -0.01716074 -0.031192487 0.05182338 -0.04290435 0.020719718 -0.011328004 -0.03760112 -0.038899805 -0.038038474 0.040547676 0.03479843 0.031160051 0.009964598 -0.06605029 -0.0007249358 0.051679276 0.0041194763 0.014378834 0.049246896 0.025127985 -0.025938116 0.01645964 0.050200127 -0.00982636 0.043319695 0.02842173 0.022455059 -0.036328167 0.038398404 0.044970054 -0.0036920996 0.004566749 -0.020240637 -0.01704462 0.007970521 -0.017383933 -0.026832523 0.036146138 -0.0051833526 -0.0044151214 0.01659797 0.037537087 0.029094612 0.020253662 0.015965564 -0.020548418 0.020530699 -0.014789874 0.032211054 -0.022046624 -0.044550415 0.012130709 -0.040753614 0.018431278 -0.028675832 -0.020779679 0.045337547 -0.041605275 -0.04349112 -0.029916564 0.03214529 -0.030650327 0.014454114 -0.06565373 -0.03707028 -0.021183677 0.042542174 0.03937174 -0.03725135 -0.04294498 0.03155565 0.0081888605 0.046170138 0.011575353 0.008774135 0.0062939995 -0.058411255 0.04140626 0.016634898 -0.012501486 0.02106423 -0.01938273 0.011121781 -0.037195906 -0.019771026 0.0109112235 -0.023798412 -0.041506104 0.0292445 0.03536626 -0.035609048 -0.004364817 -0.004316963 0.04208071 -0.030146826 -0.00034605424 -0.005626065 -0.008481569 0.022976935 -0.052040763 4.4154243e-05 0.020759849 -0.04168357 -0.031469956 0.04100109 0.0017127104 -0.023138836 0.009904752 -0.022771645 0.0160816 0.01813571 0.035833646 -0.034936123 -0.042672332 0.008881236 0.055643007 -0.02460391 0.043456476 -0.044336144 -0.042334158 -0.03172553 0.014763304 -0.046147145 0.04032956 -0.044962566 -0.029436423 0.031132381 0.03459946 -0.012580561 0.00042069552 0.052459624 -0.02082776 -0.00086381874 -0.015065535 0.009199582 -0.005251105 -0.048711654 -0.031002957 0.030412527 0.00079536106 -0.023557661 -0.0135354325 -0.019043952 0.0052767834 -0.012760551 -0.03789526 -0.050998256 -0.027495082 -0.015826175 -0.0008436201 0.007970825 0.0026994995 -0.016554976 -0.025025887 0.018230585 0.010775689 0.024714716 0.0028451746 0.020277534 -0.02131333 0.043501586 -0.043550044 -0.042369895 -0.014427753 -0.04860077 0.027624775 -0.010925065 0.0025400333 0.006409616 0.036876444 -0.052398067 -0.042984817 0.03900113 0.023564497 0.02422052 0.01251543 -0.04201934 -0.00973397 0.009114606 -0.0110210525 -0.033262644 -0.0056273574 -0.02706209 0.00597115 0.0049054385 -0.034865793 0.011271235 0.009059861 0.0086691305 -0.025731629 0.054422423 0.01355961 -0.006683107 0.02010438 0.05149522 -0.012862814 -0.006487874 -0.00091812323 -0.026006546 0.0011702924 -0.032134168 0.017786654 0.046395663 -0.021480164 -0.0031181576 0.04581954 -0.03913581 0.018461047 0.007999469 -0.033906452 -0.0443397 -0.025302108 0.02572925 -0.040429737 0.030028816 0.010048646 -0.0007426083 -0.054837916 0.039219342 -0.021331463 -0.002679428 0.0593997 -0.0025540497 -0.024379995 0.034061052 -0.03593686 0.036613546 0.011098738 -0.0042785206 -0.045532078 -0.0035590155 0.0070854817 0.039520856 -0.047550414 0.019761616 0.051189296 -0.04150908 0.03891531 -0.033116713 -0.014885612 0.011261021 0.015134254 -0.0019923418 -0.05844899 0.01379079 -0.005057287 0.018672733 -0.0050955294 -0.01010463 0.012150349 0.002615453 -0.044911955 0.03072461 0.040269632 -0.040051077 -0.010533613 -0.0034634995 0.036698308 -0.042920303 0.0077923997 -0.014574102 0.0058594327 0.041647732 0.020592798 0.01555065 -0.010537277 0.027294474 -0.0145326285 -0.022241212 0.023676649 -0.038416613 -0.012806747 0.016011773 -0.01391905 -0.03801361 0.036734335 0.027739437 0.04117938 0.015188295 -0.018189752 -0.012180962 -0.01419998 -0.022058737 -0.023429334 0.048341837 0.034918576 -0.013745898 0.032462686 0.0057038367 0.021645414 -0.024230948 0.047725573 0.04386396 0.03773155 0.016804842 0.028041108 0.0063916254 0.012452864 -0.005310634 0.053757135 -0.015288774 0.015575104 0.007490537 -0.04109207 -0.0442029 0.00079104747 0.0052772732 0.01952761 0.0030649165 -0.024976507 0.0046934644 0.017324861 0.011212363 0.04440902 0.0051174364 -0.03532371 0.009327643 -0.001278267 -0.019528447 -0.04123325 0.03308985 -0.0081939725 -0.032128636 0.014316414 0.0069869533 0.04816774
-0.027994307 -0.0031305358 0.035440136 0.03702464 0.03320469 0.0033024705 -0.011456172 0.047790825 -0.020520275 -0.042766806 0.010694634 -0.03689602 -0.01898604 -0.0018355863 -0.033170138 0.024999063 -0.012784947 0.038980618 0.0034874429 -0.026898533 -0.038336042 0.022136007 0.040122245 0.0052301115 -0.024702039 -0.0046070227 0.033982586 0.04508402 0.02694145 -0.03526088 -0.04170387 0.014861594 -0.036401324 -0.009775008 0.007948702 0.02570559 0.02070601 0.017481392 -0.039171245 -0.017986467 0.00297068 0.023568548 0.022715168 -0.0037117766 0.00068785157 -0.0022108948 -0.041751094 -0.02134116 -0.00030562733 -0.028616687 -0.03679186 0.03779453 0.0064097256 -0.014140919 -0.03303692 0.034359783 0.026926814 0.038806785 0.025988871 0.01700451 0.011341358 -0.015418912 0.015753651 0.033566624 0.021516323 -0.0017479322 -0.025904011 0.006237982 0.021652611 0.044411078 -0.03671552 -0.007485311 -0.026424568 0.019595897 -0.022345824 0.014385988 -0.03401506 0.033126373 0.015052738 -0.010128117 0.043123856 -0.0070605665 -0.024643581 0.042792678 0.0469026 -0.053576473 0.0054863594 -0.019645574 0.033632103 -0.034123555 -0.013721567 0.017363548 -0.027697245 0.009511007 -0.03349787 0.0074028815 -0.050813977 -0.0237412 -0.038969234 -0.047577664 0.028268296 -0.0017047618 -0.0073708054 0.02018776 0.0061840164 -0.012311955 -0.013250588 0.039971296 -0.019923514 0.013121445 0.00036496556 -0.011078071 0.032730594 -0.024583563 -0.043573186 0.035641637 -0.03273466 0.02862859 0.01458645 0.023814939 -0.0010532419 0.023930172 -0.020833919 -0.035637163 -0.013295036 0.015556275 0.008594488 -0.02415671 -0.025405867 -0.00086268666 -0.05592058 -0.024377547 -0.02947299 0.0016122956 0.03437606 -0.04789688 -0.024117641 0.030881548 -0.0274568 0.037744574 -0.004567315 0.0057282397 0.024941258 0.04554281 0.029030329 -0.023780994 -0.03545482 -0.029453775 0.034404434 -0.08589517 0.021902116 0.053648837 -0.039263185 0.009649599 0.0523655 -0.0046406533 -0.011358813 -0.040589526 0.0126234405 0.032341886 -0.0154025685 0.018200075 0.0009127563 -0.0074040717 -0.026938252 -0.010500096 0.013236459 -0.037543807 0.007876763 -0.043098602 0.025224166 0.04392558 0.041586682 0.033516306 -0.010065495 0.020485343 -0.004180924 0.034756456 0.02625576 -0.041532136 -0.034705263 0.007575612 -0.042775758 0.051565886 -0.030994367 0.036842544 0.031298652 -0.0013542484 0.0016548659 -0.00383069 0.01876624 -0.048928645 0.025847988 0.026111368 -0.029277865 -0.027135437 0.035414856 -0.05032523 -0.0017617259 0.036757424 0.006564677 0.009352511 -0.00026562734 -0.025322948 0.014399727 -0.016742954 0.021959828 0.008019178 -0.021195885 0.012374641 -0.004356679 -0.026698768 -0.044354167 -0.040500432 0.021248363 -0.02213397 0.017159086 -0.035199005 0.01613928 0.0007163913 0.017312417 -0.012309375 -0.036245953 -0.0018967313 0.023738159 -0.016041338 -0.021875927 -0.0035342462 -0.0065768026 -0.0057465136 -0.010767189 0.011507251 0.038356252 -0.030775603 -0.04359593 -0.01832251 -0.010425422 -0.039549705 0.011331789 -0.023146903 -0.03775397 -0.024465773 -0.033088572 0.047772054 -0.023735728 -0.03502698 -0.004866615 -0.04233759 0.043303773 -0.020831015 -0.04175366 0.04020821 0.033019297 -0.003592951 -0.025503736 -0.047795586 -0.0016095826 -0.046486 0.0142497085 -0.010202933 -0.025694145 0.01880827 0.03584573 -0.016292738 0.0052942093 0.0017118462 0.043753292 -0.0052976673 -0.016904825 0.028881941 0.04182387 0.014214861 -0.0031795725 -0.012277738 0.024618294 0.035581622 0.000662401 -0.032036234 0.014716704 -0.010339224 -0.03661767 -0.027136493 -0.018410986 0.001967909 0.026832186 0.016785111 0.035457294 0.037615508 0.04081974 -0.016795535 -0.01643271 0.037349623 -0.052722603 0.014943737 0.045639325 0.017503448 0.041897297 0.015517231 -0.006816957 -0.016121114 -0.057171445 0.039332565 0.030748112 -0.044123575 0.040083762 0.020206777 -0.03198948 0.03147642 -0.03224292 -0.0075641703 -0.008929094 -0.012044675 0.024861624 0.027053993 -0.021357378 0.014321411 0.041773573 -0.026534835 -0.0015502955 -0.007517223 0.020849437 0.02275175 -0.050569363 -0.0547538 -0.042346224 0.044741813 0.012588357 0.044388976 0.03767901 -0.039360054 -0.033636224 -0.04148733 0.022624422 -0.020052437 -0.0042601903 0.00081402506 -0.027770061 0.035469264 -0.008940386 0.014778228 0.015960881 0.006900452 -0.04992277 -0.014325261 -0.012012276 0.019186772 -0.0024919247 -0.022410681 0.037725043 -0.0039161956 -0.046640016 0.034545425 -0.06866204 0.017280042 0.034605812 0.04946942 -0.014875479 0.0057134256 -0.03594312 -0.025092311 -0.037826035 -0.027710559 -0.0044268123 -0.0026986217 -0.02657391 0.029806597 0.00053785363 0.028439902 -0.008468632 0.043630436 0.043490686 -0.023524508 -0.004033577 -0.022821171 0.02672915 0.01257547 0.0013277596 0.014521205 -0.020434257 0.0008851565 0.04710652 -0.0023468784 0.02846855 -0.002090886 0.0046686707 -0.012757969 0.048251316 0.021429261 -0.046942707 -0.027215123 -0.026694395 -0.0006308225 0.015957016 -0.019483335 0.01078733 0.023152858 -0.036722604 -0.039008677 0.028291967 -0.023268139 0.05631272 0.020162398 0.044154488 0.019456653 -0.02685419 0.03756496 -0.0015027177 -0.033798452 -0.038157016 0.025668623 -0.033510994 0.037090722 0.029481076 -0.046897165 0.033349723 0.005300028 0.020378519 -0.036642708 -0.04266241 -0.013825505 0.01825905 0.033863813 0.0095062265 0.018517103 -0.011071842 0.03669746 0.038416002 0.019137062 -0.03563956 -0.024496956 0.004326592 0.05241061 -0.033607706 -0.02208314 -0.01184743 -0.011700804 0.0051468597 -0.02110326 -0.04432361 -0.021752486 0.018604724 -0.005757846 -0.037913527 0.019858632 0.010688753 0.02059851 0.025977198 -0.0084494995 -0.007920486 -0.007099637 0.022332754 0.002803297 0.03677572 -0.043632243 0.038833633 0.015305662 -0.007465029 0.01524398 -0.0640341 0.033904247 0.013035514 -0.019472647 -0.015283033 -0.016296618 -0.014985629 0.0018014224 0.0045569967 -0.043098394 -0.01693526 0.04315033 0.040351395 -0.030869396 -0.022490682 0.040175512 0.02125347 -0.01740684 -0.015104407 0.042395715 0.039399896 0.015353181 0.0088819815 -0.013460257 0.03160987 -0.010815367 -0.01630662 -0.0025592705 0.04020055 -0.011685448 0.017924717 0.017744906 0.019068962 -0.04203145 -0.032832038 -0.00603933 -0.017318746 0.021213526 0.023087742 -0.031112097 -0.033533327 -0.007065573 -0.023306374 -0.02512704 0.02063966 0.02873062 0.053450976 -0.03623386 0.0076385713 -0.03050553 -0.0105489995 0.0069125486 0.041225776 0.007063961
-0.016120087 0.015297983 0.01285097 -0.013225993 0.018075211 0.020097822 -0.011154831 0.0005411734 -0.034180332 0.03542045 0.005853318 -0.009434565 0.016799597 -0.02142093 -0.006125979 -0.024958055 -0.023172379 -0.022091893 -0.011629055 0.038440585 -0.016693728 -0.035447616 0.018341068 0.0003300346 0.034026623 0.0013507481 -0.022255646 0.024334203 0.00453132 0.0010990383 0.036352124 0.0154658295 -0.0039889775 -0.031565007 -0.036693074 0.0040289178 0.015805705 -0.030955616 0.019769339 0.019829975 -0.018473387 -0.016571082 0.028808061 -0.019848473 0.022415126 0.028434103 -0.0031185057 -0.013313849 0.037389264 -0.0032212017 0.004505327 -0.021047488 0.0074314717 0.03717631 -0.005921782 0.0037653218 0.02775678 0.0028914239 -0.008056817 -0.016449671 0.024478994 0.007403478 -0.022748148 -0.016991848 0.03378601 -0.0017074167 0.0054763244 -0.017177057 0.0125314705 -0.04013796 -0.03387183 -0.022241881 -0.02986732 0.01645218 0.02052452 0.019857509 -0.0012237036 0.0012348723 0.008294337 0.008594569 0.012118225 -0.011325019 0.009430593 0.012205637 -0.040394194 0.028394071 -0.02968669 0.014871116 -0.0009720587 0.015787452 -0.020001167 0.018516636 0.025303649 -0.024356715 -0.010569528 -0.013032751 -0.01413842 0.01937223 0.033476233 -0.028240083 -0.020921955 0.021567438 -0.016024863 -0.02477533 0.011208439 -0.012174918 -0.028837344 0.002458788 0.014765887 -0.044691384 -0.029865345 0.01141537 0.011439473 -0.004286856 0.027515152 0.019969018 0.012209842 -0.0095068095 -0.0026543413 0.010061362 -0.007907732 -0.006198128 0.00094537955 -0.022982206 0.004043623 0.002523904 -0.0004315874 0.032409795 0.018254343 -0.005002137 -0.023632346 -0.021740576 -0.029125385 0.0326861 0.014680448 -0.02030118 -0.0022632808 -0.00878906 0.030544944 0.018698018 0.015159237 0.011307905 -0.017030662 -0.016971374 -0.032181386 0.032445487 0.015395487 -0.039858054 -0.020167084 0.032251474 -0.012635769 -0.025288017 -0.026045466 -0.00096499256 -0.0022804104 -0.031305555 -0.008561069 -0.033134736 -0.0058604 0.015347993 0.031671394 0.02912291 0.011273753 -0.021043966 0.02116717 -0.012812079 -0.037127517 -0.012108639 0.026534487 0.008022402 0.003368852 -0.028054895 0.020725407 0.020131176 0.08307195 0.027713783 -0.0069890027 -0.0051047034 -0.008509881 0.019702593 -0.016725909 0.013126604 -0.006485339 -0.00391651 -0.0044539715 0.00044456762 0.037714373 0.012455463 -0.0026308238 -0.022912541 0.041792672 -0.008219481 -0.008404502 0.012451708 -0.012178637 0.007329357 0.03453722 0.027551051 -0.013176878 -0.005855365 0.0017018358 -0.021853026 -0.0030624862 0.010932961 -0.014764266 -0.0079702865 0.037780013 0.01418769 -0.0022264866 -0.0050303843 -0.014864289 -0.012951807 -0.0050810315 0.0032916013 0.019826833 0.0054341797 -0.0037173259 -0.0016012217 0.0112610515 -0.029299445 0.0042909076 0.0083918385 0.020197852 0.036072478 -0.034347422 -0.020703461 0.03887561 0.022305159 -0.006833951 -0.008419474 0.024720863 -0.029005038 0.004972126 0.005925149 -0.0022188749 -0.031125447 -0.0040368 0.018767789 -0.013587687 -0.030771656 0.03480425 0.026495853 -0.002104054 -0.019242648 -0.0070037195 0.0058942847 -0.003256367 -0.005280083 -0.004551621 -0.022754118 0.045496844 -0.016598575 0.0052260244 -0.009329458 0.024825972 -0.039407082 -0.022684738 0.007304523 -0.030323228 0.014580912 -0.007963126 -0.015310462 -0.0067606466 -0.026222294 0.015935682 0.0011084692 0.02508746 0.0039928476 0.02897968 -0.0125523545 -0.010796435 0.035488985 -0.028863005 0.026095418 0.026573934 0.006477235 -0.019181063 0.013463457 -0.021380605 -0.016774604 -0.0034452043 -0.00012271825 -0.019237025 -0.025690325 0.009601905 0.019567547 0.0002939427 -0.013076433 0.0030431305 0.017232057 0.013674966 -0.020386375 0.026930263 -0.034611315 -0.0031708959 -0.01998413 -0.0114099225 -0.007288147 -0.0078021986 -0.0064339875 -0.021149805 -0.03854255 0.012465417 0.0127399415 -0.030562276 0.010939134 0.020208588 -0.007117613 0.019873835 0.03939604 -0.029759068 -0.034627978 -0.034631405 -0.0033997213 0.029744638 0.0029617369 0.032739017 0.019006733 0.016209442 -0.015278658 2.6780082e-05 0.024236849 -0.014396514 -0.002139021 -0.020598663 -0.015229627 -0.017521583 -0.010053748 -0.0021391108 -0.013349464 -0.02856934 -0.023263354 0.025198858 -0.011833406 -0.042097084 0.043426953 -6.578231e-07 0.0035147173 0.03220685 0.03314538 -0.009242719 0.006391221 -0.026589656 0.014346874 -0.014714711 -0.0072533325 -0.022154879 -0.025395464 -0.026654758 0.007498226 0.032411907 -0.022214096 -0.007452985 0.015021581 0.0149599565 -0.006358931 0.022206914 -0.0049657915 0.005092182 -0.011958934 -0.02531068 -0.02235087 -0.027387816 0.018426346 0.010766559 0.028086396 -0.02653036 -0.036315437 0.006117642 -0.024980305 -0.030325763 -0.027949719 0.0027528345 0.027291987 -0.022313034 -0.02695756 -0.026250333 -0.002454957 -0.002509279 0.028694674 -0.0037210651 -0.011482539 0.0013215266 -0.01147186 0.0028742559 -0.0019618524 0.0053937063 -0.014677483 -0.024738608 -0.036949657 0.033663444 -0.012678702 6.800001e-05 0.0010480239 -0.032412503 0.04615133 0.027726553 -0.015781464 0.017298782 -0.014847558 0.021164624 0.0150102405 0.0045580887 -0.003423212 -0.004119366 -0.008717254 0.0351973 0.015706908 0.029105978 0.013528085 -0.015811503 0.00204639 0.009695278 -0.030309012 -0.004336811 0.015258471 -0.012512454 -0.02492814 -0.00951916 -0.0059327767 -0.01618758 -0.025425863 0.017174007 -0.018080918 0.012714013 0.0069785956 -0.020926144 -0.014823213 -0.008654896 -0.009463934 -0.0014141742 0.011562524 -0.030709777 0.0051081763 -0.0061044693 -0.012860508 -0.0013681783 0.004425665 -0.026324395 0.035863608 0.024877418 -0.016775966 0.017741332 -0.020468593 -0.034172513 -0.035859395 -0.0059834253 -0.0240192 -0.03027875 -0.017630251 4.7893078e-05 -0.010928955 0.0048482707 0.025050733 -0.009354783 -0.022971934 -0.012060332 0.03657464 -0.016833175 -0.022929596 0.037103288 -0.02310128 0.020122634 0.0010958187 0.04033071 -0.024851175 0.009499326 0.009336129 0.02840892 -0.006465615 -0.041052703 -0.0028185912 0.006989309 0.036456726 -0.006390539 -0.037953146 -0.01842062 0.010113008 0.02387564 0.016661758 -0.016837176 -0.0032584153 0.022845065 0.0007005328 -0.003751276 0.03930958 0.021117825 0.033886805 0.010968179 -0.018129552 0.017948138 0.019496908 -0.04281043 0.041204773 -0.014725792 -0.015731182 0.0071758865 0.011326682 0.014121164 -0.036616843 -0.0054326225 0.039060753 0.0070770755 -0.027996529 -0.013260424 0.008981165 0.014538375 -0.010384698 -0.028157327 -0.0009950995 0.015800158 0.024517523
0.01270912 0.012683152 -0.0104505485 0.00023796169 -0.0009568781 0.034592703 -0.02087247 0.026002629 -0.043047972 -0.03208489 -0.061721154 -0.008654882 -0.05733492 0.030021189 -0.008810869 -0.029741561 0.044890616 -0.019180067 -0.035198655 0.015671795 -0.012778561 -0.018644892 0.035002824 -0.034457665 -0.024192812 0.026499977 0.019311043 0.04113422 0.016747367 -0.0022349765 0.004570757 -0.019150935 0.041384913 0.030516332 -0.027565034 0.019701961 -0.039473593 0.020962471 0.020334 -0.032045487 0.02995526 -0.0024021533 0.0013217053 -0.010035674 0.0046191695 0.04405972 -0.025399808 -0.0056820903 -0.035344116 0.030082945 -0.005523255 -0.016292403 0.052641436 0.017879322 0.021086335 0.0036093856 -0.004081087 -0.02459624 0.012110432 0.03734874 0.016627988 -0.0053079473 -0.038044892 -0.015806181 0.0127788605 -0.023630017 0.016157636 -0.03249347 0.034556583 0.014193383 0.02012407 -0.013228785 0.012906399 -0.046723597 -0.03903996 -0.033298016 0.012832189 0.03263799 -0.03132957 -0.04053775 -0.040922493 0.030874787 -0.037334662 0.022632092 -0.008094892 0.041490808 -0.024432011 0.02669078 -0.026929794 -0.017095525 0.029947696 0.006651061 0.022900715 0.021841388 0.02330601 0.0068209586 0.009867327 0.007792198 0.0056916145 -0.034745965 0.033755217 0.0024011254 0.04383308 -0.018747173 -0.031977985 -0.030227074 -0.017058553 0.029582134 0.04052812 0.0042115264 0.0148672545 -0.039254326 -0.0101554915 -0.024387999 -0.012429792 0.036844738 0.015771182 -0.0451266 -0.038152426 0.031230466 -0.030155236 -0.027912762 0.03149775 0.01566611 -0.0010101056 -0.00022222441 -0.032550793 -0.00057644997 0.0039406014 -0.009540447 0.039868105 -0.03149289 0.023821864 -0.0011855412 -0.03336846 0.043019384 0.033323362 -0.04304358 0.016072037 0.012988599 -0.014714819 -0.009368633 0.010344602 -0.026806014 0.03950362 -0.014458468 -0.0004799159 0.024318723 0.0016281381 0.0024999 -4.820283e-05 0.047084555 0.043466292 -0.030686663 -0.033954196 0.027991382 0.01407768 -0.027148446 -0.059395242 0.0066698655 0.04218435 -0.043880258 0.01963323 0.013410628 -0.049374092 0.01545786 -0.0035584103 -0.020107493 -0.015103573 -0.044935763 0.02036036 -0.0411028 0.024953239 0.00039214393 -0.041513853 0.04472944 -0.018986981 -0.00742974 0.03835297 0.015658187 -0.01767679 -0.037136793 -0.013186873 0.03977786 -0.020472921 -0.009045503 -0.0065234476 0.016080843 0.026755193 -0.030465772 0.03891844 0.0063035046 0.043717187 0.003898501 -0.0358944 0.009999805 -0.023652796 0.0054450524 0.024816787 -0.024735428 0.038301017 -0.032904465 0.020233393 0.043362845 -0.013017272 0.0064790654 -0.03424678 0.040377334 -0.048190095 0.013914224 0.018731046 -0.030347034 -0.04307602 0.019425167 -0.040755864 0.0010922271 0.039276544 0.05370557 0.01088441 0.013603133 -0.03312302 -0.048694875 -0.040915832 0.033267077 -0.012510921 0.025053013 -0.0104986755 0.042725958 0.0032921745 0.03407499 -0.030201077 -0.031025203 -0.0033181421 0.022795057 0.024906183 0.047882047 0.02428609 -0.090404764 -0.0066217585 0.015912551 0.020322938 0.028069964 -0.022037761 0.028129583 0.018271139 0.03861927 -0.009519956 -0.015956424 -0.016813083 -0.01226696 -0.040715087 -0.047732055 0.017960439 0.051150482 0.02099307 -0.044018485 0.038336743 -0.041982826 0.0123716835 -0.0046796706 0.00367524 -0.011602941 0.0027248638 -0.010373832 0.016843043 -0.04141266 -0.041550733 0.012991314 -0.026114337 0.034882538 -0.015795356 0.0268916 0.010339676 0.04680328 -0.0037702066 -0.018634686 -0.039005626 0.029825298 -0.024363356 0.02580838 -0.0035211951 0.034787636 -0.0073149167 0.012932587 -0.025785467 0.023188742 -0.02284148 0.03922858 0.006190123 0.0067580836 -0.03628645 0.024313089 -0.0018023975 -0.023891144 0.02645544 0.034354407 0.037199587 0.027741026 -0.027852023 -0.0010360135 -0.0028021222 -0.047235996 -0.010895695 0.048186056 0.0055204136 -0.035573147 -0.011022607 -0.011600213 -0.04823567 -0.017100716 -0.011073418 -0.0048684585 -0.015558794 -0.03529356 0.037611164 -0.012446567 0.009809075 -0.036461834 -0.034641106 0.04864999 0.024146939 0.04182427 0.018917693 0.015408037 -0.03564127 0.020475756 -0.018769445 0.04019204 0.01057286 -0.0062089474 0.03129817 -0.038033277 -0.03777191 -0.023251617 0.0395982 -0.021883255 0.03997052 -0.009057981 -0.021404034 -0.008383455 -0.053279188 0.0010387059 0.042226944 0.021306776 -0.048025623 -0.006191646 -0.009740879 -0.011068872 0.03178914 -0.04707416 -0.034559183 -0.017620768 0.033598136 -0.05242845 -0.027751649 0.009859604 -0.00766619 0.040160444 -0.031867065 -0.00015967348 -0.027234934 -0.022154404 -0.03251828 -0.007371853 -0.0052730166 -0.023601856 -0.03739351 -0.014382162 0.03369991 -0.049249746 -0.01965662 0.022053443 -0.028437974 0.026136503 -0.042727023 -0.031467278 0.021544522 -0.01972568 0.037419442 -0.0049568214 -0.040631264 -0.040391125 -0.036379382 0.039315943 0.027571121 0.045652166 -0.037239477 0.04067608 -0.019734373 -0.00024182771 -0.025800776 -0.036680594 -0.03854039 -0.04079799 0.040904846 0.015876742 -0.03686148 0.024127398 0.036933575 -0.022120684 0.04100422 -0.009728469 -0.053763762 -0.023711553 -0.013917377 -0.044335965 0.0074620177 0.016844928 0.04635433 -0.0125411805 -0.0065842015 -0.008339518 -0.015654312 0.033346713 0.0025273706 -0.012694093 0.02754888 0.032947037 0.017651534 0.028128104 0.03676448 0.041407816 -0.03818741 -0.020828579 0.011083515 0.01297924 0.03606164 0.014543231 -0.037678376 -0.021419723 0.036305405 0.04690764 0.022910858 -0.005665636 -0.004802413 -0.030166073 0.041198686 -0.031517945 -0.020694392 0.035370838 0.047146834 -0.030551769 -0.018255375 -0.044254683 0.033363875 -0.016413726 -0.022712206 0.030334076 0.030762317 0.015720883 -0.007978297 -0.010525477 0.042287406 -0.03025257 -0.049884643 -0.028651882 -0.016302986 -0.036275927 0.030644635 -0.020968039 0.04241191 -0.031614665 -0.04583339 -0.016689226 -0.0028395236 0.04763869 0.008727539 0.03707424 -0.025259791 0.03419934 -0.039970316 0.03332158 0.021476666 -0.0023568703 0.047768727 -0.032391883 0.036914516 0.02929338 -0.022684632 -0.030118745 -0.027900182 -0.028948499 0.010516042 -0.01266806 0.009987607 -0.029500812 0.005231323 0.029531702 0.029069195 0.047964823 0.04210936 -0.007995223 0.029924475 -0.0026516903 0.0023739587 0.0052416255 0.0026689684 0.03996336 0.022646282 0.01716647 0.019723129 0.00849747 -0.027067777 0.02651556 0.011366059 -0.030033413 0.03281173 -0.01014613 -0.010688539 0.0150097795 -0.029357167 -0.005473936
0.050321776 0.018203348 0.0010708779 0.012582024 -0.028643798 -0.026363373 0.031978913 -0.028834397 -0.030143006 -0.0070194877 -0.04364424 -0.0080115935 0.020094685 0.044403635 -0.0055440404 0.004833868 -0.0049120686 -0.05121438 -0.033383597 0.002618558 -0.037663493 0.0037282656 0.020834776 0.03630422 -0.019842155 -0.04275192 -0.023593726 0.030842783 0.0056025786 -0.009548018 -0.041308727 -0.023881422 -0.03154628 -0.013547567 -0.036205973 -0.025789035 0.033981796 0.0071174577 0.036216088 -0.038239986 -0.030285552 -0.010222567 -0.041250587 0.041103743 -0.03968416 -0.041673016 -0.0021887948 -0.03713093 -0.04061542 0.005287643 0.046684284 -0.00023503744 0.056991566 -0.041392077 -0.030143185 -0.03760257 -0.0025628875 -0.010936846 -0.030825736 0.021176197 0.01939091 0.0047827177 -0.036648396 0.00042099596 -0.008600717 0.007840315 -0.024918403 0.0324436 0.040968206 -0.0026677158 -0.024105921 -0.027396271 -0.063191004 -0.022007678 0.029550709 -0.030988257 0.045772884 0.027121883 0.006000312 -0.019552832 -0.016562928 0.0020504675 0.050412852 0.010121778 -0.049203984 0.009910649 0.031429186 0.0037947549 0.032559674 0.0005455216 -0.012204753 -0.035628214 0.0022956312 0.00044404253 0.03682046 -0.03179499 -0.041513093 0.015640862 -0.050004695 -0.03964631 -0.020956818 0.03969739 -0.01040445 0.025681127 -0.0074498844 0.03256027 -0.014133096 -0.0024065597 -0.021059478 -0.036383737 0.021382164 -0.042298142 0.056919795 0.027870666 -0.012324577 -0.00616797 0.040009182 -0.03952222 0.03114862 0.010084105 0.0054749437 0.001975092 0.026456382 0.029289173 -0.014873729 0.034772664 -0.013728382 -0.03556081 -0.0135917105 -0.028986283 -0.0019731948 -0.00082794635 -0.0034576142 0.015734002 0.04145899 -0.028552232 -0.029995183 0.028136682 -0.021784408 0.016960494 -0.002354488 -0.042849623 0.02065885 -0.025429944 -0.0188309 0.01935427 -0.044300586 -0.025571058 0.022131236 0.05637899 -0.027595792 -0.0050791777 0.016114207 0.028205564 0.023087317 0.018171456 0.039876156 0.0107564675 0.04779739 0.011556036 0.028430473 0.02604083 -0.014088304 0.031181786 0.04871008 -0.01339622 0.043654688 0.019391939 -0.012923992 0.014097224 -0.046162058 -0.06619738 -0.03690062 -0.03753309 0.0055828993 0.035763927 -0.020587103 -0.03410727 -0.02353105 0.011734696 0.03687514 -0.025484467 0.021040346 -0.04918623 0.04443263 -0.036340028 -0.008929102 0.033232663 0.035172336 0.04942561 0.0045871655 -0.0049844584 0.026084013 0.01929417 -0.02997111 -0.024608165 0.039483704 0.025693513 0.00066178734 0.0029358459 -0.043577977 -0.0021010404 -0.03011993 0.034490768 -0.042384345 0.03963107 0.036909573 0.003203056 -0.028346362 0.009167109 -0.048281573 0.031166468 0.03701831 0.01112985 0.03058665 0.016453547 0.029646363 -0.007870613 -0.03445596 -0.0029232805 0.029034244 -0.02771589 0.047742143 -0.03534458 0.017153017 0.0042490303 0.04977183 -0.0055302386 0.0027384877 -0.024860358 0.009432609 0.041646257 0.029467978 0.020783428 -0.04319521 0.015137573 0.03286206 -0.011080239 -0.035980586 -0.011911144 -0.03140868 0.003860392 -0.0102432845 -0.026185172 -0.03563129 -0.028228043 -0.038171045 -0.027711222 -0.009290801 0.016073193 0.055061404 -0.019047128 -0.009643495 0.0534103 0.017960873 -0.017436855 -0.016007671 -0.045605425 0.045574695 -0.025788492 -0.025182322 -0.028232915 -0.0043130135 -0.0184306 0.020330254 0.015114179 0.005604146 -0.025486996 0.006223613 0.04281222 -0.02243633 0.036586087 -0.012088407 -0.025881102 -0.00022703437 -0.02327708 0.0009812947 0.032654874 -0.0049203034 0.0048301406 0.03843022 0.012089975 0.061442282 -0.00034677432 -0.035619467 -0.016392564 0.028402813 -0.03648971 0.008373641 0.013342018 -0.012222635 0.033149924 0.022326155 0.044022985 0.039081916 -0.046490353 0.011490001 -0.01346741 0.0021446764 0.012990262 0.00234519 -0.0033053043 0.006130153 -0.014039947 0.043139935 0.0179223 -0.017096035 0.007835864 0.0011522572 0.021016773 -6.11496e-05 -0.009139901 -0.026684554 -0.006758429 -0.017997466 -0.025966141 0.017355723 0.025203008 0.029649803 0.04780985 0.0040922128 -0.014147889 -0.015131741 0.046329033 -0.026296342 -0.007562159 -0.0059680454 -0.046797697 -0.00011050794 -0.020471351 0.015582367 0.023008212 -0.02826844 -0.03025996 0.029412571 0.0072296704 -0.00013193366 0.013972769 0.024308205 0.022286894 0.045977503 -0.021066137 -0.03191446 0.032505225 0.019254116 -0.041929964 0.053341035 -0.030854935 -0.033536747 -0.0041343295 0.014249011 -0.03922288 0.042194556 -0.041596424 -0.0314474 0.0055003976 -0.05694613 0.041610155 -0.024547452 -0.047102366 -0.016246237 0.046499103 -0.038517307 0.033795398 0.046249043 -0.049492292 0.018971974 0.0010104331 -0.040477365 -0.029529313 0.04145043 0.0072222324 0.03402707 -0.00951092 0.028444339 -0.00905857 -0.013881709 0.036590412 -0.02986127 -0.020627238 0.009795836 -0.052828122 -0.027262913 0.037438672 0.016719684 0.039628647 -0.021983115 -0.009461019 -0.010134668 -0.0072240666 -0.018632928 0.040654052 -0.0029279392 -0.037590362 -0.024810767 -0.012081005 -0.018672656 -0.02031461 -0.041353803 0.027876101 -0.020227332 0.025883306 -0.0067611714 -0.00632612 -0.013916892 -0.03330618 -0.026165385 0.01541116 0.02081458 -0.022404432 0.007460794 0.006153651 0.02813648 -0.012361687 0.01414417 0.010465179 0.021840092 -0.041500993 -0.02613258 0.0043295654 -0.029008226 -0.02562688 0.039770547 0.040862158 0.012224797 -0.034108575 0.02210283 0.029677007 -0.026915547 -0.010314971 -0.03911732 -0.034508552 -0.03301742 0.011676162 -0.024215309 0.038202036 -0.008415686 0.038274053 0.02000433 -0.03262862 0.012346137 0.0131147895 -0.046132952 -0.02415728 -0.041842442 -0.016277576 0.049524095 0.03395902 -0.02181929 0.03255178 -0.03040563 -0.017296096 -0.018584302 0.045540165 0.027379569 -0.015574033 0.024332618 -0.030249882 0.035829768 -0.0069898986 -0.039023843 0.022962365 0.01224628 -0.009244246 -0.031349212 0.025222272 0.018088717 0.0006948502 -0.030492662 -0.017818853 0.033239502 0.01764862 -0.012313856 0.041258 0.030138737 -0.047721405 0.041585986 0.005554851 0.039641432 0.004356014 0.01262618 0.036063913 0.010884879 -0.0075169043 0.03511689 0.012363595 -0.031741183 -0.008949054 0.020276317 -0.010527121 -0.03692686 0.04592003 -0.016871484 0.004807989 -0.0011490415 0.03649344 0.026442325 0.015806172 -0.0042114654 0.014620302 -0.048721064 -0.0017462514 0.03558312 0.019478865 0.012402729 -0.033891153 -0.017516898 0.039043106 -0.009615647 -0.014767042 -0.01359457 0.011416482
-0.026731415 -0.036560774 -0.031436145 -0.047549486 0.025424143 -0.0027119033 0.015830802 -0.010944435 -0.009610082 -0.041742165 0.022329098 -0.02874255 -0.063762926 0.02537653 0.030278213 -0.0026720252 -0.013203471 0.027293462 0.044739176 0.04497094 0.0513233 0.04126331 0.038484734 -0.014891708 -0.023700237 0.0005049623 0.037314 -0.004387742 0.03110542 0.009681986 -0.03796505 -0.008613989 -0.0076397154 0.012249945 -0.007851197 0.041444015 0.044279516 -0.043059018 -0.01097727 0.035244178 -0.0025597613 0.024865525 0.021021716 -0.045602538 0.037903026 0.0019557995 -0.036389362 0.043841053 -0.022712022 0.013924053 0.011478978 -0.037968505 0.046253767 0.022367973 0.0040859855 -0.03985423 0.01835835 0.019146474 -0.0151701765 0.004692834 -0.031103209 0.035360508 0.03212141 -0.036128793 -0.04358803 -0.04764334 0.0059674513 0.0347147 -0.02947599 0.011304118 0.051364835 0.0027907302 0.050036218 0.042119607 -0.0018566948 -0.015388496 -0.024374176 0.026413655 -0.03463944 0.043265827 -0.046222333 -0.026449254 0.013745024 -0.0068358574 -0.0249563 0.03885182 0.024418307 -0.022756582 0.012548197 -0.052962344 0.0361967 -0.024923287 0.020436503 -0.046715528 0.01909848 0.0010159222 0.024056872 -0.026588388 -0.03650991 0.007196336 0.039744295 -0.0053348998 -0.0251881 -0.0015937121 0.037067376 -0.04801184 -0.025841227 -0.026412347 -0.05140203 0.00022126987 -0.025771838 -0.021272264 0.049355015 0.000569862 -0.032086134 0.022688203 0.020389931 0.0012772774 0.044461284 -0.029332064 -0.02986985 0.046177 0.033754926 0.042375136 -0.039309036 -0.019552993 0.034304272 0.014121947 -0.008545335 -0.029286059 -0.0084484825 -0.031471692 0.0449042 0.042239655 0.00070879865 0.03619453 0.03426355 -0.003816032 -0.042017017 -0.0018917052 0.042713348 0.03643245 0.0330783 0.01729336 0.026297858 -0.03209384 -0.019278383 0.015019799 -0.03498616 -0.002871561 -0.038642097 -0.014559275 0.013486111 -0.010271461 -0.038847864 0.0038357307 -0.027211629 0.03674157 0.007861097 -0.010846529 0.023872497 0.0033085195 -0.025156079 0.034473944 -0.0014144686 -0.010318463 -0.0065569337 0.053887106 -0.04153926 -0.04061393 0.039200496 -0.012861039 -0.02019456 0.020744082 -0.027392112 -0.021642828 0.036486413 0.042654894 0.028600799 0.036330786 -0.020438407 -0.049888596 -0.04809977 0.016799456 -0.001727528 0.034090076 0.024110438 0.002335793 -0.010055975 0.01417298 -0.036557183 0.047181413 0.015365515 -0.048296385 -0.044756085 0.02755581 0.024903063 0.034586314 0.011553334 -0.0055769593 -0.044477858 0.035710078 -0.032038644 0.0121838795 0.026351344 -0.00028943105 0.018196523 -0.015322682 0.022625212 0.013639884 0.033142157 -0.038468443 0.010950596 -0.039426576 -0.04056355 0.035341665 0.040467486 -0.003354831 0.0017511944 -0.018121442 -0.027690554 -0.03162927 -0.020454286 -0.04739961 -0.046394948 -0.02632459 0.016173001 -0.00045859613 0.009741783 0.04107392 0.01508855 0.012104606 -0.022175083 -0.023713017 -0.025181243 0.03489892 -0.04189662 -0.008006574 0.025959002 -0.02113145 -0.0018411485 -0.04344744 0.045082804 0.04707733 -0.0040077516 0.046561148 0.030866168 0.021833144 0.03681349 -0.030005015 0.04044073 -0.025719866 -0.02062839 0.050650433 0.025681349 0.038537856 -0.035809044 0.04205697 0.0077257077 0.0065886914 -0.041125353 -0.026116628 0.023007277 -0.04293788 -0.02860085 0.039298262 -0.028968591 -0.011081649 0.026983399 -0.03792742 -0.03268847 0.024982547 0.040552653 0.037627198 -0.013007312 0.04457127 -0.0060431333 0.027754048 0.033364963 0.017945731 0.004249086 -0.02552395 -0.05257245 -0.015046976 -0.026361926 -0.013494797 -0.011403173 0.013041099 0.022057105 -0.0273581 -0.03722196 -0.012526525 0.010462441 -0.040041372 -0.0053154402 0.000342792 -0.03641239 -0.029855596 -0.030744415 0.03724388 -0.030814428 -0.0061335256 0.013708079 -0.045693535 -0.016642522 -0.035723515 0.022453425 0.015309831 -0.038409233 0.0023303737 0.00020717573 0.021579556 -0.0012522682 -0.04459006 0.00765764 0.005658994 0.036990203 0.0029595047 0.031506762 0.027838368 0.022932233 0.022736808 0.013256453 0.052789446 0.006383851 0.01887349 -0.05174925 -0.03209617 0.04091227 0.0001864236 0.002875977 -0.0255505 0.010231799 0.03631591 -0.009480572 0.010676145 0.03589854 0.04692634 0.01641412 -0.008575513 0.0058052847 -0.026696397 -0.03623895 0.008499851 0.01908029 0.0042466754 0.015646735 0.031857494 0.03102957 -0.03880404 0.040903427 -0.035483114 0.03506662 0.010478739 -0.029509725 0.0029822465 0.027957972 -0.0023390232 -0.019964306 -0.039303623 0.036505166 0.034081705 0.0010537606 0.004614167 0.006790776 0.011549127 0.027950149 -0.036692705 0.03400082 -0.043063097 0.016254906 0.0054234574 -0.0230834 -0.019734155 -0.009929569 -0.048887726 0.0030419414 0.004877389 0.045191232 0.0808754 0.065851025 0.03403154 0.018681983 -0.02828789 0.009147716 0.047415473 0.03547029 -0.028896917 0.040320575 -0.025239209 0.04085805 0.033640914 -0.0034733887 -0.015918279 -0.027979294 0.013440955 0.0030854102 0.0014893739 -0.0048602144 -0.002252124 0.056954186 0.01968204 0.028959615 0.031942822 0.008997169 0.024943983 -0.04130242 0.045852587 -0.022857534 0.01601219 0.04257457 -0.02773698 -0.0044025127 0.032179646 -0.009992074 -0.023771925 0.03704929 0.00993964 -0.036693912 -0.03284766 -0.0037876605 0.04416619 0.01927154 -0.020906247 -0.033034187 -0.048740882 0.0071396832 -0.018178293 -0.028254602 0.0016142904 0.021038048 0.053845886 -0.029846873 -0.04352258 -0.053037766 0.039281655 -0.037309323 0.0058244364 -0.017779289 -0.028824719 0.0025028202 0.047861535 0.05227449 -0.020343972 0.008524991 0.020374283 0.039456367 -0.05041254 0.021816086 0.0054947753 -0.008091861 -0.02247702 -0.01807682 -0.04686014 -0.01470385 -0.02581691 0.017876506 -0.036839843 0.018674677 -0.011177918 0.0017243943 -0.042552415 -0.021974767 -0.040081188 -0.015433095 0.03999054 0.014569327 0.048844825 -0.0053909896 0.0016473713 -0.009983294 -0.018395215 0.011859058 0.019896904 0.0038081242 -0.028373372 0.03752427 0.020110771 0.046458133 -0.008700148 -0.028841102 0.019224916 -0.01614799 0.022542672 -0.0023444972 0.0025292865 -0.04242578 -0.037234925 0.030839475 0.021444337 0.037399456 -0.0042451364 0.038500357 0.031791594 0.0062358524 -0.032247238 0.024598734 -0.033845045 0.030534232 0.007714677 -0.048246466 -0.048984878 -0.000300902 -0.032276496 0.051234167 0.008139833 -0.022322735 -0.017049495 -0.04019334 0.0013577184 0.031373806 -0.0012873294
0.03528635 0.016751293 -0.006862467 0.041101664 0.03864664 0.018837336 -0.03732071 -0.047035787 0.00069209916 0.035258256 -0.05226709 -0.015766896 -0.028044445 -0.009569961 -0.032949865 -0.025075624 0.006810067 0.019562488 -0.009601825 -0.009280038 0.034803953 0.022267109 0.020477664 -0.003996673 0.039835986 -0.014716409 -0.02591547 0.007778591 0.02823168 0.014701708 0.0022455854 0.015023483 0.040758204 -0.00738316 0.013504865 0.006935009 -0.009669745 -0.0049021593 0.03832211 0.0042264685 0.008732114 -0.0045180945 -0.038488097 0.03426085 0.012790597 0.0445248 0.006669498 -0.028071925 -0.007992192 -0.020663729 -0.00041129417 0.008577518 0.033608634 0.035564147 -0.011495226 0.03803985 0.023336116 -0.023727482 -0.019134026 -0.056211043 -0.024275929 -0.030500855 -0.0038083843 -0.025151886 0.009006043 0.025692541 0.040492967 0.01904088 0.031771407 -0.028946297 -0.017315209 0.026583388 0.051470034 0.03953633 -0.047136504 0.040805433 0.038449857 -0.015395743 0.0289834 0.04456483 -0.017756516 -0.03174532 0.052508924 -0.043381684 -0.013766551 0.013592158 0.00162036 -0.03512734 0.0065847775 0.011706652 -0.0034615544 -0.020769993 0.042782992 0.011925121 -0.006265044 -0.03470911 -0.02344521 0.035736047 -0.0027565819 0.023780154 -0.036253326 0.036796257 0.038307462 0.012581442 0.035567224 0.03159001 0.01005486 0.01975593 0.029580772 -0.027415572 -0.06104937 -0.005285128 0.02365557 0.030353453 0.0030322468 -0.014087727 0.0029238574 0.039093055 0.014492706 -0.017212223 0.015682934 0.0072760116 -0.027107466 0.040901083 0.015864097 -0.04589296 0.033830274 0.059698574 0.031143006 2.3005436e-05 0.0058545913 0.006900194 0.0023577763 0.034013193 -0.043803744 -0.03162808 0.013440345 0.010237497 0.03323721 0.0039638206 -0.0029166664 0.016688468 0.00050818326 -0.04470515 -0.009305399 0.013418431 0.042118344 0.012210119 0.021106226 -0.0063372226 0.036816865 -0.018593132 0.0004474922 -0.054846264 0.029718503 -0.016940767 0.04435311 0.03135093 -0.017426804 0.02843818 0.042594463 0.031422794 -0.023997705 -0.023389397 0.030287901 0.015974648 0.030511172 0.028918225 -0.005544819 -0.026432535 -0.0014805822 0.015652383 -0.039454676 -0.040927414 0.004821041 -0.0035361038 0.040662207 0.018071657 0.029085185 0.027557708 0.022312168 -0.009170567 -0.009886721 -0.017525854 -0.013324972 -0.02476248 0.01602209 -0.033073142 -0.031340428 0.040172912 -0.03960925 0.05320336 -0.0207961 0.036745504 -0.02512324 -0.032141898 -0.02985356 0.005375309 0.024875948 -0.004059058 -0.04355608 0.011243335 0.0252943 0.027299583 -0.010078985 -0.004332222 -0.0133482395 0.044725794 -0.020827465 -0.04734664 0.018709661 -0.015072176 -0.033065654 0.030558335 -0.046756517 0.049409322 -0.0030324804 0.01895206 0.043661583 -0.020422466 0.01722554 0.031658716 0.03764969 0.0010418851 -0.015267186 -0.028213307 0.026303029 -0.038794268 -0.028472366 -0.032590944 0.00648607 0.033586767 0.027067011 0.03528703 -0.0402367 -0.006522542 0.007226113 0.00075594103 -0.013386258 -0.013764335 -0.027857289 -0.03453718 0.0033555739 0.022715079 -0.011211285 -0.022571174 0.016216101 0.027738305 -0.042314406 0.02915793 0.017249336 -0.027977781 -0.01586406 -0.038014 0.0385878 -0.044943858 -0.025120698 -0.009371454 0.030871099 -0.015989818 -0.08707723 -0.017452916 -0.017789569 0.024744766 -0.039758347 0.014381815 0.010555127 -0.03551572 0.043027893 -0.03767805 -0.037078757 -0.007816788 0.028814888 0.0182507 0.015624502 0.018692603 0.041438933 0.021115186 0.018030187 -0.02404694 -0.0054763476 0.0059047267 0.035030264 -0.01602924 -0.041967377 0.031128535 0.011194924 -0.03079446 -0.042923313 -0.0014266028 0.046843298 0.00488987 0.03331385 0.022808162 0.048046242 0.020099321 -0.024060905 0.04069149 -0.01878455 -0.0054583782 0.0017485153 0.031998023 -0.017624138 0.040654883 -0.025548454 -0.0077765156 -0.051836062 0.048740614 0.012428291 -0.032508027 -0.009507091 -0.043404717 -0.028247429 -0.010537118 -0.044948015 0.0051325057 -0.00840452 -0.025873644 0.01779283 0.014589444 -0.04491281 -0.011582458 -0.00040984532 0.021868927 -0.039286613 0.010676708 0.039260987 -0.028402042 0.045522727 0.031943638 0.034009773 0.017756624 0.039685205 0.049613524 -0.0020259926 0.037951946 0.015001593 -0.049545556 0.01216266 0.03557138 0.041622736 -0.011747186 -0.017763875 0.034190305 0.03806305 0.008733112 -0.0447391 0.0012298995 0.012308584 0.018474316 -0.019135453 -0.029760407 -0.003676311 0.022304647 0.0048276037 -0.025509346 0.015194284 -0.040836055 0.034227937 0.020304512 0.040163092 -0.0033527159 -0.02700335 0.030706048 -0.058915574 -0.058785953 0.03265648 -0.037910298 -0.005243562 -0.0009168714 -0.014389833 -0.030960802 -0.041646834 -0.022097247 -0.046781044 0.014719366 0.006357165 0.021167938 -0.035879746 -0.08275402 0.0045245825 0.04716759 -0.038782213 0.02930265 -0.0041887895 -0.0103958575 0.043126877 -0.0009537602 0.03128875 0.035655934 0.027276741 -0.04871651 0.046001144 -0.022567572 0.017050317 0.011456598 0.0013930459 -0.060176793 -0.03205363 -0.024086053 0.021977024 0.030834524 -0.03944376 0.01043555 0.0262851 0.025262514 -0.043602563 -0.025319014 -0.031025799 -0.038649023 -0.011895739 -0.014576559 0.0261593 -0.017690167 0.019044336 0.016398823 -0.024215357 0.018557405 -0.040860284 -0.019840395 0.023466766 -0.017971413 0.020282442 -0.009498497 0.014065399 -0.019191189 -0.004029818 -0.014623699 0.057792414 -0.05651158 0.03598657 -0.030097272 0.011755502 -0.044222787 0.02238257 0.008188209 0.040084083 -0.040684726 0.0032590306 0.015853107 0.042986754 -0.04660337 -0.0034920995 0.0064735576 -0.003716062 0.018853083 0.024873454 0.029865062 0.032328833 -0.009355066 -0.03963251 -0.020270063 -0.033254866 -0.026958046 0.039364193 0.028849836 0.004526781 0.03676189 0.017198594 0.03168966 -0.037613027 0.005508346 -0.0121501945 0.0169343 -0.037080515 0.009369592 0.020964015 0.03254811 0.03272553 0.04250603 0.03100679 0.017862465 0.00867726 0.03118024 -0.038153578 -0.0074832337 0.008555308 -0.014312387 0.047945175 -0.02896859 0.035758644 0.045681547 -0.028586304 0.02806249 0.006846863 0.03054271 -0.008251955 0.0007174123 -0.011779463 0.02478609 0.003615728 -0.016593648 0.020845847 -0.020046383 0.027075525 -0.03764733 -0.007871057 0.03319659 -0.026751967 -0.008498667 0.060426984 0.007570064 -0.012840642 0.03020546 -0.041522667 -0.011520762 -0.027073268 -0.04119029 -0.023036795 0.0035133215 0.026898306 0.034005966
-0.0019096681 -0.0074934987 -0.016395446 0.015771957 0.017322918 0.035037056 -0.024505043 -0.009621785 0.040876955 -0.052248515 -0.028487917 -0.022023652 0.035644993 -0.046804935 -0.04703652 -0.0034351072 0.03174608 -0.017328354 -0.0028880034 0.019630603 -0.02215029 -0.01796678 0.032246012 -0.019300036 0.008048963 -0.039595462 -0.044758055 -0.014556788 0.010043345 0.015546497 -0.009808526 0.040560696 0.029124912 -0.043059953 -0.013340387 -0.028919013 -0.006700333 0.005131235 -0.0037885741 -0.016453348 -0.019514112 0.008398228 0.037569482 0.025986101 0.01776644 0.023288758 -0.040018227 0.021722222 0.041774005 -0.009327741 -0.002545521 0.009312242 -0.022784974 -0.010219719 -0.021880453 -0.028402861 0.03647322 0.03784176 0.023601532 -0.015375383 0.043089632 -0.020598168 0.031357083 0.004131324 -0.041720647 0.039205156 -0.019730998 -0.05945654 -0.031938773 -0.022773659 -0.006152934 0.018898686 0.023704665 -0.008879519 0.0015786652 -0.0052724485 0.017816236 0.0075863427 0.0049953 0.027108809 0.03470793 -0.03247895 -0.051151443 0.030969929 -0.00080709043 -0.009266084 -0.02220856 -0.03164234 -0.0020033948 -0.048368458 0.0019101389 0.010958594 -0.027600946 -0.033225674 -0.009079588 -0.045371704 0.038962148 -0.033624355 0.0008722447 -0.0064706937 -0.02896207 -0.0024875682 0.0035766163 0.026953792 -0.027608108 0.011802808 0.037527055 -0.04204543 0.010751228 0.034976922 -0.013745107 -0.024967244 -0.036747407 -0.017406221 -0.0026697156 0.022838278 0.025029017 -0.02204248 0.0044034794 0.04272505 0.012598316 -0.0034332718 0.0077826763 0.023119483 0.028347867 -0.047835026 -0.009428619 -0.021947347 -0.03373583 -0.024733828 0.011937085 -0.010799418 0.028325256 0.03991528 0.043056548 -0.023034917 0.04374953 0.027424557 0.012387692 -0.04561492 -0.02756908 0.011714506 -0.04192503 0.045899376 0.056107793 0.015312643 -0.01936536 -0.031432066 -0.01958422 0.013518182 0.0005672291 0.037578054 -0.021572227 -0.004758388 0.026366433 -0.025347857 -0.033072427 0.025580455 -5.8499554e-05 0.0096885385 0.032022372 0.032024972 0.012119048 -0.022405254 -0.026086163 0.03519927 -0.030128645 0.0065084486 -0.0035181679 -0.023282217 0.013838878 0.03556427 -0.020381525 0.008281335 0.011127121 0.013241496 -0.034963258 -0.034853168 -0.040698323 0.029448956 0.047604416 -0.04683995 -0.03427804 0.004259124 0.005475586 0.005309572 0.037052095 -0.03220082 0.0047026533 -0.042971015 -0.0032838595 0.0108346995 0.010346203 -0.008579768 -0.03744688 -0.03521205 0.030032441 -0.035038143 -0.041782685 -0.010517947 -0.023872457 0.009067198 0.040175036 -0.016606018 -0.018239552 -0.04421755 0.016005877 0.010642878 0.014032457 -0.020542428 0.01392346 0.009650454 -0.035148177 0.039777342 -0.044926424 -0.0047370284 -0.04232984 0.016077653 -0.025363151 -0.033320844 -0.022786023 -0.012835953 -0.034969505 0.0080985045 -0.045347366 -0.04257547 0.006184959 0.032384787 -0.0010764358 0.035824094 0.036344275 -0.03480214 -0.050086964 0.007184901 -0.03099006 0.027380986 -0.021369442 0.025384018 0.011355415 -0.0432233 -0.032822262 0.010641381 -0.0076822084 -0.032920603 0.00034358693 -0.003907446 -0.045604963 0.0478381 -0.046599776 0.023130301 0.02757263 -0.03861418 -0.0024686814 -0.004848669 0.037254576 0.036392745 0.02435177 0.026236916 0.04325426 0.054987747 0.03430545 0.026538145 -0.01934434 -0.040025465 0.047063246 -0.010756993 -0.0030266948 -0.00018521378 0.048092883 5.7267298e-05 0.023733065 0.00015043149 0.025071345 0.038626797 -0.025598573 0.009557443 0.03383157 -0.028219467 -0.025488572 0.029405612 0.0061402856 -0.03412768 -0.008296324 0.01909479 -0.037871443 -0.0030541713 -0.04159376 0.019146066 -0.035429213 -0.040716756 -0.003097864 0.0123713035 -0.0072262296 0.006307154 0.021104626 0.035617437 -0.023883458 0.04383745 0.010576438 0.017516002 -0.023895577 -0.016847374 0.044576142 0.027040845 0.040695895 -0.026201833 -0.0012917367 0.02486455 0.023806857 -0.029949836 0.05251752 0.044257645 0.025234504 -0.07782405 0.0052811583 -0.059493743 -0.012443692 0.016235458 -0.012265089 0.0005568857 -0.02400285 0.026755342 -0.039166357 -0.0044403076 0.0198206 -0.024726534 0.023083348 0.018566735 0.01911955 0.009347583 0.014822889 -0.032397676 0.026449168 -0.010533521 0.00836675 -0.019900355 0.04289984 -0.0011209373 -0.034264386 -0.0142697925 -0.008419785 -0.041834805 -0.020557173 0.0152828675 0.016719831 -0.01175028 0.014724925 0.0551776 -0.036705483 -0.03869923 -0.024970284 0.04344648 0.04107803 -0.015919073 -0.042752616 0.052818317 0.032740913 -0.040924586 0.033197995 0.0149636865 0.007560766 -0.034517556 0.02200836 -0.021585558 -0.0019533488 0.034290865 0.024508024 -0.0050249402 0.04420727 0.012973528 -0.004659197 -0.02768513 -0.04509679 0.036116704 0.013846417 0.03391393 0.0016401233 -0.015746346 -0.03322569 -0.0011784435 -0.057712574 0.021464584 -0.0071330895 0.043150574 0.038181297 -0.057071887 0.027886929 0.034791578 0.025807003 -0.006221021 0.018633733 0.0121321725 0.0133658815 0.03961091 0.012436967 -0.033611897 -0.010359671 0.0058243074 0.033155266 0.041920636 -0.008276948 0.027358452 0.05413757 0.034307633 0.04171396 -0.03830852 -0.01390434 0.0058562034 -0.033383347 0.01655518 0.051516507 0.032042757 0.034986913 -0.031361457 -0.00156652 0.04881172 -0.039013505 -0.026367266 -0.004595336 -0.0035010655 -0.012534652 0.031412493 -0.01499072 0.0014243687 0.03565483 0.030767495 -0.018199744 -0.02593867 -0.004124403 0.007527253 0.024373291 0.03786539 0.019235818 0.01973452 0.005966578 0.009736049 0.037986964 -0.0028057059 -0.00040706396 0.0041212575 -0.03031233 0.022381378 0.017296718 -0.037995357 0.040524594 0.03308684 -0.026807932 0.03756282 -0.000662915 0.017174024 0.002031943 -0.034507416 -0.03943471 -0.04197523 0.00041961734 -0.023741953 0.013143002 -0.028327307 -0.009531988 -0.0067634624 -0.019165467 0.021409858 0.012660028 0.029943556 0.03749354 -0.051382698 0.0010175721 -0.034047887 -0.008165331 -0.02802419 0.014370295 0.033719845 -0.027881982 -0.0035407206 0.012053 0.0003371759 0.038053323 0.020373244 0.010499219 -0.004593753 -0.02935328 0.018641924 -0.003469916 0.026474437 -0.03590859 -0.036095936 0.030669082 0.04223454 0.027181743 0.00400791 0.04519954 -0.015074679 -0.015644846 -0.024501601 0.0377505 -0.027479464 0.0050946535 -0.018808862 -0.029567745 0.021604978 -0.037820447 -0.026029453 0.023742305 -0.03621495 0.009309385 -0.036133192 -0.0059679514 0.0054562874 0.027357204 -0.03532483 -0.0016106407 -0.023286361
