0.013329897
-0.0012396681
0.002578319
0.031898644
-0.0036509978
-0.0035168005
-0.0061540515
0.010560313
0.002523377
0.0018293873
-0.0016088134
0.002399674
0.018572979
-0.0027162123
0.021483311
0.01054909
-0.0033476471
0.008795375
0.020959206
0.008976308
0.018596342
0.017759375
9.125625e-05
0.0021161838
0.01632974
0.0068066134
0.007017934
0.009076213
0.00036632808
0.02098849
0.006787812
0.0028925517
-0.0007030941
-0.00032235865
-0.0030337574
0.030837178
0.042777453
0.0091956835
-0.0057184948
0.019944018
-0.008166158
0.011240962
-0.018333789
0.0061490624
0.006525432
-0.0006045651
0.00848328
0.010612514
0.017123345
0.014974901
0.010275106
0.017923137
-0.002613773
-0.0004745882
0.012046699
0.02793008
0.014213605
0.014553389
-0.0048427577
0.024503661
-0.01467619
0.018053519
0.009203469
0.00851392
0.0025371416
0.0073854285
-0.0008873572
0.016250366
0.023066808
-0.00027241863
0.009877639
0.018842416
-0.00017057387
0.018482577
-0.00066908606
0.023331001
0.0048138727
0.019773023
0.018604781
-0.00047779636
-0.0018437431
-0.00014440721
0.0019528781
0.01598205
0.01942488
-0.0015436579
0.013978278
0.0020721704
0.016488532
0.0070985146
0.012180366
0.016835758
0.022166757
-0.0006044107
0.008829349
-0.0007495682
0.031431813
0.014316418
0.019948462
0.007829018
-0.005412484
0.025214966
0.01714913
0.017317208
0.008561498
0.0014084977
-0.0069955555
-0.0007141066
0.00022440156
-0.00032459054
0.02046488
0.0037049453
0.0043547465
-0.00036970555
0.01827439
0.0027146477
0.018406967
0.015847767
0.010348219
-0.010422006
-0.0004007595
0.009419658
0.0063629504
0.016747616
0.010907689
0.0154942395
-0.00078843586
0.0003043628
-0.0007365063
0.00800115
0.015186529
0.007512508
0.03572933
0.021704275
-0.00088927546
0.009952897
0.015594092
0.026771754
-0.0011687767
0.006433869
-0.0013041331
0.021955496
-0.007504308
0.017383603
0.00015317101
0.0022099938
0.009414205
0.023775125
0.023149187
0.013706051
0.018699013
-0.011565581
0.016631491
0.005681873
-0.0022950096
0.014648304
0.04103264
-0.004466715
-6.5838794e-05
0.0079776505
0.008584455
0.016673973
0.0009696457
0.0061591137
-0.006673819
0.017035589
0.00078396196
0.022700027
0.005917903
0.006807854
-0.00076627516
0.015059652
0.008219633
0.0026099756
0.012522538
0.010935602
0.03941469
0.005815229
0.039428856
0.0091998335
-0.0007273986
0.02588305
0.007165364
0.002615585
-0.0052465037
0.0069912593
0.012421086
-0.0007529897
0.0078071277
-0.00051111815
-0.0020369529
0.0109583195
0.013137633
0.00833556
0.02579415
0.013945758
0.001051847
0.015465737
-0.0075956862
0.008344886
0.010864507
0.006653208
0.0042650932
-0.0034175764
0.02524279
-0.0043231654
0.021240786
0.014531216
0.00803524
-0.009721075
0.009251557
0.010207084
-0.002802342
0.00854058
-0.0021288285
0.017465686
-0.005381055
0.0016774185
0.0052056853
-0.007415769
0.008167252
0.0031385324
0.0061639077
0.007297673
-0.00090314035
-0.0067902664
-0.0006830316
0.01759139
0.004772132
-0.011485311
0.0145399235
0.008398426
-0.0051887888
0.006800317
0.0132563235
-0.006107488
0.015552775
-0.0007301123
0.0133901965
0.031109164
-0.0037578826
0.016463326
0.011991465
0.00070839457
0.01415481
0.02376112
0.025202624
0.0021949164
-0.003940678
0.00711048
0.030948965
0.011210562
-0.0052057942
-0.00037290723
0.013196748
0.0044865306
0.00036023668
-0.0003502181
0.019505449
0.003333278
0.011219939
0.03924439
-0.0005462098
0.014591256
-0.0005325373
0.014025133
-0.004063297
-0.006162027
-0.00033461256
0.0069585913
-0.0065545086
0.024041967
0.014281123
0.018954141
0.006504223
0.00085937645
0.003336155
0.001401445
0.006777904
0.0071211965
0.003060415
0.002307458
0.014446858
0.005353621
-0.0073930174
0.010838766
0.0015024926
0.00017430515
0.0069855503
0.007301228
0.013956517
0.0066601397
0.015009733
0.0073115774
0.0029879895
0.0070291385
0.011659188
-0.001093129
-0.0006224032
0.027125545
-0.00064550014
0.00900073
0.047209587
-0.0008880696
0.0041289087
0.0021588213
-0.00049623783
0.016373198
0.006743867
0.0015875237
0.014424165
-0.0061367676
-0.00039686172
-0.0010032235
0.00017470898
0.0065484955
-0.00045052532
-0.0011087758
0.020875387
0.02205034
0.009673284
0.028968122
0.024149856
-0.0043580323
0.01440397
-0.010984055
-0.0006749162
0.0023969393
0.0005038835
0.0047708973
1.0077813e-05
0.016365817
-0.002420948
0.0122672925
0.013537144
-0.011559675
0.031520832
0.033185903
0.010226707
0.012302054
0.0005769214
0.017026339
0.010777148
0.031156756
-0.0003670537
0.0005996459
0.0147861475
-0.0005288861
0.0142505495
0.0028671077
-0.00041003875
-0.001153463
0.023778243
-0.001472427
0.014254902
-0.0011461603
0.017484872
-0.0006070802
-0.010438693
0.011772242
0.020409308
0.018354867
0.015947148
0.0049369973
0.024180459
0.031571798
-0.002119304
0.0045963973
-0.001590427
0.0027707312
0.008268305
0.0006111737
0.004795518
0.008153111
0.04115386
0.032375637
0.015408978
0.011262869
0.014351437
0.0025917895
0.019912716
-0.0016247605
-0.00039352226
0.026484476
0.0118111875
-0.0128205195
0.004816304
0.0037280163
-0.0071722344
-0.004960991
-0.00019454402
0.024010886
0.00883286
0.014316881
-0.013517129
0.027867738
0.023736412
0.0044087237
-0.0010043449
-0.012990497
0.018425856
-0.0061263507
0.00800084
-0.000256308
0.01157858
0.007164942
-0.0026830204
-0.0016022951
0.033163935
0.027938323
0.013882766
-0.0053148563
0.004969101
0.004232947
0.0057858867
0.022455234
-0.024545578
0.016591452
0.014030322
0.0014566605
0.008086199
-0.0032606607
0.008985194
-0.007393872
-0.00027771428
0.02248376
0.0009981589
0.01539286
0.005079921
-0.00054477295
0.036895785
-0.0022394739
0.004087423
0.012854987
-0.0034783157
0.01666305
0.01878392
0.003794221
0.009169354
0.00972945
0.0060861725
-0.0007989815
0.01353003
0.005633704
0.009063783
0.011198939
0.019990273
0.008155603
-0.008568941
0.006560559
0.006537695
0.0015485443
-0.0014537999
0.007900573
0.005619462
0.017608834
0.01542056
0.0017193224
0.009113645
-0.0011072676
-0.010132048
0.0074638287
0.008978052
-0.0073239068
0.009046102
-0.00056845415
0.013679123
0.005393381
-0.010066443
0.005384837
0.0027605216
0.003294345
0.012353865
-0.00041406407
0.012901912
-0.0011875299
0.007763532
0.01745127
0.01844281
0.024064936
-0.0021333464
0.0053210612
0.014215824
0.0047338596
0.034049526
-0.008627123
0.017841898
0.008621438
-0.0025865212
0.010489364
-0.016270654
0.013744151
0.0021046621
0.000123741
0.007975872
-0.00038310353
0.011130373
0.0016484472
0.0020582925
-0.00066105806
-0.025732547
0.0118094925
-0.002019951
0.038962625
0.0010230304
-0.00018911393
0.022332288
0.0101881735
0.017267495
-0.0029231831
0.007929558
-0.00035421862
