-0.0054764827
-0.008174018
-0.004630506
0.0054938765
0.0022608484
-0.0019185492
0.0011331094
0.0025623462
-0.0064376676
-0.00741156
0.005028763
0.0040428503
0.0029236497
-0.00719217
0.006862684
0.013390669
0.0043538283
-0.009460313
-0.0071540335
-0.0028261684
0.00033471678
0.00067509065
0.009197227
0.006123282
0.007856104
0.008748155
0.016342506
0.006786963
0.0051130345
0.019622961
0.0017660846
-0.0018295418
0.0043777237
-0.00010133546
0.0019753776
-0.026005508
0.006845228
0.010052415
0.00043379847
0.008117369
-0.004993529
0.00527377
0.0012097188
0.003219361
0.006816602
0.0006739915
0.002735222
0.008665199
-0.0017858247
0.0045144097
0.009303048
0.004657102
-0.004374585
0.009515644
0.027249826
0.00037808975
0.0036974994
0.004935715
-0.004632446
0.008896558
0.00486565
0.0039325
0.010298279
0.0003732188
0.000720705
-0.0054574674
-0.010525322
0.009877045
0.002602908
0.004932857
0.0051336647
-0.0021488303
0.008077349
0.008058759
-0.00050820276
0.008696331
0.007045297
-0.010627756
-0.0069487994
0.0018596853
0.011599444
-0.039968673
8.578095e-05
0.0073505365
0.004410168
-0.009276383
-0.00213086
0.003355447
-0.0021173868
0.005435179
0.018121365
0.00052011566
0.0009032898
0.007401912
0.0008413246
0.004546101
0.00046742533
-0.003350894
-0.0014309813
0.0022595997
-0.003052044
-0.0038296944
0.0032774901
0.012588388
-0.017900769
0.0056421417
0.0039868364
-0.0017312863
0.006771702
0.0078045083
-0.00078810216
0.01258941
-0.0016781924
0.010991418
-0.0014146627
-0.014431549
0.010140331
0.023394533
-0.0039866883
0.003398447
0.0034761322
0.026035842
-0.006738404
-5.872026e-05
0.007387975
-0.0015851536
0.004177603
0.011302503
-0.004473108
0.0056349565
-0.009591494
-0.005628373
0.009135224
-0.007220851
0.010409792
0.006907915
-0.029474229
-0.008828976
0.0053081387
-0.0014368864
-0.0054712375
0.011300292
-0.010077056
0.013079358
-0.00027618508
0.008536899
0.0096184425
-0.031138688
0.0029018803
0.0061578574
0.010680298
-0.0065627573
0.0051019196
0.00072436465
-0.00012246665
-0.008167781
0.003769336
-0.00094416266
0.007206718
0.0011530465
0.002886831
0.0014133138
0.001242939
0.0009701261
0.012771653
0.0010126587
0.010257846
0.0009954649
0.0042773453
0.0039805835
0.00010705741
-0.0032197384
0.0051283655
0.010546138
0.0023691028
-0.009972335
0.008395503
0.0043937755
-0.004024071
0.0012417225
0.011566726
-0.0011269455
-0.0109375315
0.008603704
0.0045237853
-0.00595227
0.012442137
-0.008820391
0.013644898
0.013421342
0.0024691138
-0.00433205
-0.0025941418
-0.0128167
-0.008926042
0.004459764
0.010679583
-0.005843169
0.0072851805
0.00041026616
-0.0047479062
0.015780304
0.012799053
-0.003308326
0.003260014
0.013826802
0.011605008
0.0006781655
0.0024397094
0.0032079867
0.000644723
-0.006513632
0.008138544
0.00352894
-0.0049319896
-0.008832671
0.0063017807
0.009443709
0.021832576
0.0011464161
0.0039065713
-0.013021498
0.00928301
-0.0038864515
0.014085804
0.007413249
0.013751934
0.0030020373
-0.0007224681
0.0045847446
0.007167137
0.006997318
-0.0021804955
0.0076734414
0.018270928
0.00061916444
0.0037807657
-0.0030158428
-0.0062013445
0.0023885486
0.0040275007
0.010067471
0.0072823945
-0.0052177655
-0.0011529692
-0.0034137012
0.0136543745
-0.0032884758
0.004000884
0.003111277
0.0026732713
0.0040958533
0.0074360315
0.0034288194
0.011959519
0.012382992
0.008068237
-0.0019585676
-0.0024432598
0.007273847
-0.0056305267
0.009226109
0.0039148363
-0.03764509
0.005059808
-0.008263114
0.017160224
0.011884275
0.0034929714
-0.004761396
0.0023379251
0.0053039906
0.006219024
-0.025524557
0.0015665075
-0.0072249533
0.0076508503
-7.037879e-05
0.0010567732
0.027730487
0.004132833
0.013621976
0.007553046
0.004187801
0.006221765
-0.0031423315
0.0019168762
0.0011642752
-0.004925392
-0.00846722
0.008728273
-0.009276044
0.014726783
0.006044293
0.006240064
0.012394551
0.011379973
0.0049987515
0.0058112927
0.006130329
0.011058746
0.0032374456
0.031671856
-0.025144367
-0.00022353131
0.0019192642
0.00823982
-0.007521124
0.0032762352
0.022080459
-0.0037961719
-0.008102079
-0.00049507065
0.00094815635
0.001866108
0.0062098405
0.0069505903
0.0052375905
0.0054804664
0.00019181677
0.0006317081
0.010493243
0.0038870948
0.004204067
-0.020800529
0.0075107366
0.009375072
0.008700967
0.0017359455
0.0175545
-0.0011595787
-0.027638635
0.0038863642
0.010677636
-0.0028072076
0.015353977
0.006365144
-0.008217768
0.0013459293
-0.019105118
-0.0035818927
0.007025998
-0.00245356
-0.011769297
0.008137117
-0.037384767
0.0016014383
-0.0030256792
0.010087876
-0.005390995
0.014008871
0.007206264
0.0035550771
0.0060973857
0.014313113
-0.023963513
0.008184582
0.0020671987
0.000669224
0.00024764927
0.009523835
-0.017387291
0.0076946393
0.00021361529
0.0024472296
0.00038065584
0.0047407113
-0.017578654
-0.021087702
0.0041326457
0.0043578153
-0.0018161499
-0.006706928
0.007753896
0.0016171361
-0.003628053
-0.00074478553
0.0082147615
-0.02279759
0.0061833044
0.003852346
0.007189409
0.009565092
0.014338223
0.0035555104
-0.0031468957
0.012883435
0.0048109447
-0.0034931807
0.004234647
-0.003976084
-0.009521429
-0.013207362
0.0046972926
0.003358785
0.0075077014
-0.001147983
0.0039602485
-0.00070393673
0.0015970131
0.0019370356
-0.006449284
-0.00046490974
-0.00072534493
0.005979909
0.0033021795
-0.001925941
-0.01135232
0.009759282
0.010712626
0.0142759215
-0.001162877
-0.015671168
0.012831991
0.0031835262
0.0025167717
-0.0036250842
-0.012211141
0.0058357404
0.001977068
0.004309561
-0.009371683
-0.008982563
0.007329013
0.0025301755
0.010467126
0.016502537
0.004761645
-0.00058934354
0.0019781792
0.0076151094
0.00689683
0.0054940092
0.010809901
0.0017505451
0.010908235
0.007190015
0.0072598564
-0.0025970812
0.0054892986
0.0036733404
0.0008200332
0.0020806598
-0.0024568627
0.010043578
0.0030064362
-0.0013944269
0.01091882
-0.0020325966
-0.011155212
0.011303373
0.0012118221
-0.015300835
0.007028287
0.016221587
0.004271276
0.0027891311
0.00585686
0.004662309
0.0051664896
-0.0010524382
-0.0030379938
0.007357054
-0.0018210274
0.011062731
0.01733942
0.005660359
0.0034105359
0.0065482575
0.0016965327
0.005070838
-0.013097279
-0.0028764235
0.012268041
0.0021974493
0.013236834
0.004431849
0.01573474
-0.01342479
-0.0038575567
-0.0020097883
0.0039621317
-0.015234808
-0.014944941
0.004679231
0.0035279738
-0.00027723672
0.0013155644
-0.016162405
0.0029406117
-0.00022472955
0.0361354
0.015953034
0.006810231
-0.003380426
-0.02274701
0.008849259
-0.0013120582
-0.0038997687
0.003472623
0.004440212
0.013318587
0.009166577
0.0051346077
-0.0012882166
0.005475787
-0.0061140317
-0.009244907
0.0052925474
-0.012314161
-0.008898167
0.0042194175
0.009947334
0.009125327
0.010062222
0.0039426778
0.0029276363
0.0074407477
0.0026357693
0.0037662324
0.022169312
0.009438031
0.007255599
0.00032466004
0.0036925774
0.007955097
-0.002438215
0.0071694274
0.0040922374
0.005497063
0.0042591356
0.004452333
-0.01614174
0.0041178227
0.0031808582
0.0011063815
0.0062208744
-0.0008688379
-0.015382992
0.005131341
0.01048201
-0.0031113096
0.0009634596
0.007720573
0.0018160584
-0.0105529865
-0.018794928
0.0068763345
0.003102283
0.006044878
0.0009443534
0.0011578862
0.0016353257
0.01027458
0.005250784
0.0018938099
-0.00890579
-0.008923901
0.0004499202
-0.010925129
0.004931919
0.0055133286
0.010212929
-0.013808319
0.006051826
0.003023351
0.0021395946
-0.0057692835
0.0026360066
-0.002101902
-0.0050505386
0.0017041413
0.0028989888
-0.02168303
0.0048185047
0.0084725525
0.039641764
-0.00466035
0.005123351
0.007964616
-0.0038472726
-0.008088177
0.00834089
-0.02452964
0.0035360067
-0.013743278
-0.0006900187
-0.0059363963
0.0067823227
0.016372412
-0.0029454038
-0.0028054528
0.0049347254
0.0060243127
0.008721279
-0.0013410384
0.008073632
-0.005173916
0.007827996
0.023032367
0.009924946
-0.006689191
0.0062576267
-0.0031938497
0.0034746306
0.0065639876
0.004212707
-0.00012843769
0.0061703497
0.0043603056
0.0057840003
-0.0007568276
0.032324538
0.012421261
0.010174599
0.029848745
0.0011573499
-0.032936636
-0.018814346
0.0030539068
0.000432157
0.006704839
0.0016578354
0.0046643484
-0.010955799
0.006612131
-0.009144916
0.008287745
-0.011650151
-0.0025288165
-0.009591206
0.005026737
0.008451285
0.009181376
0.010890421
0.0075947493
0.003276015
0.000113759794
0.006087849
0.0041080173
0.011863082
0.0013496969
0.0045923684
0.0098849805
0.005283105
0.00096848543
0.011940992
0.00061207754
0.010290253
-0.007168411
0.0095711155
0.010706711
0.004677863
-0.029609365
-0.00572376
0.00806274
-0.0071024513
0.0068534315
-0.0016367679
-0.008164083
0.006240724
0.005274505
7.804958e-05
0.0048670014
0.0053391787
0.0029350647
0.003066692
-0.024483
-0.014630727
0.0055778837
0.010318274
0.005457131
-0.00019994934
-0.01256479
-0.0021708
0.007583443
-0.0021575957
0.00079429033
-0.011607959
0.006517395
0.0026720043
0.0012896734
-0.012003325
-0.0010468896
1.9250403e-05
0.0061848382
0.010405222
0.0014211342
-0.047310807
0.0025650235
0.0036201305
-0.003048534
-0.0014061928
0.0036555429
-0.007662461
0.0038472624
0.003861624
0.0057200734
0.0019514031
-0.0014768846
0.0018205197
-0.003761927
-0.017841926
0.013157754
-0.0019792086
0.011300656
0.006329968
0.0062222467
0.0049539497
0.011924674
0.018113518
0.005001604
0.0041937777
-0.021003623
-0.023660796
0.008110634
-0.008505302
0.007229512
-0.005791205
-0.005214689
0.0014323039
0.014591789
-0.013614231
-0.00221666
0.0035757157
0.006613156
0.0027987733
-0.0022081963
0.0009806342
0.010724174
0.00467623
-0.002349078
0.0005635465
-0.015563054
-0.015982596
0.0005187672
0.00990946
0.0035764761
-0.00874245
0.0041705817
0.0050138864
0.0003923107
0.0093534915
0.004536253
0.006538092
0.0014952163
-0.006795276
0.010166789
-0.011745195
0.007955054
0.00018795357
0.0049509592
-0.01916095
0.004147681
-0.0009932653
0.0023899637
-7.9402744e-05
-0.0017433316
-0.008501588
-0.005603733
0.0069341213
-0.0026956028
0.0045213765
0.008088454
-0.0004275128
8.265566e-05
0.0038685862
0.0009574494
-0.005122054
0.0011372134
0.009234342
0.009692428
0.0056484425
-0.0020101257
0.0057080626
-0.0069178888
0.009314474
0.0035285647
0.006847467
-0.0022996108
0.0036975727
0.0025669595
0.07377043
0.007694067
0.0034640895
0.0006454534
-0.0014609387
0.00275543
0.007861304
0.017213207
-0.0109440675
0.0049249274
0.00036939746
0.0041121123
0.0036867743
-0.0013729971
0.0008210751
-0.003565357
-0.0013164196
0.003302345
0.0008928072
0.0027876848
0.00037365497
-0.0044227815
-0.015050877
-0.0049083605
0.013501121
-0.048601903
0.0038023829
0.01683626
0.0048348666
0.0034839197
-0.0015611612
0.03607017
0.010824153
-0.022892406
-0.012340156
-0.022582477
0.0032416582
0.0058582188
0.015362268
0.011081949
-0.0070120557
-0.005649228
-0.0012297519
0.005919298
0.0010929542
0.016689511
-0.008259064
-0.0021883328
0.0067628375
0.007401902
0.0123812575
0.007871626
0.010739941
0.0085065225
0.0008936647
0.0046841395
0.002265178
0.0045039193
0.00586704
0.00086890196
-0.012612989
-0.011365371
0.003859316
0.0012706125
0.0016510173
-0.004048651
-0.0053035575
-0.016260171
0.007146721
-0.00023741422
0.00835999
0.0010572012
0.0011088882
-0.0021793845
0.010376133
0.007611697
0.0064282003
-0.005125405
0.0049636136
0.00026931858
-0.009452861
0.0061255577
0.008446531
0.0048774835
0.010560349
0.008720719
0.0034127084
0.00043150745
0.01549913
-0.003723673
0.0024615107
0.0030990161
0.0070412853
0.0058404617
0.004590266
-0.0009103258
-0.02127208
0.010214422
0.014215048
0.009745992
-0.0068595423
0.017148819
0.027935475
0.004058401
0.005766385
-0.033888124
-0.012859005
0.000951467
0.0033284659
0.0045493795
0.009561385
0.002881573
0.008994758
-0.008852449
-0.0028688486
-0.027169542
0.010985161
-0.0025582593
0.00064392836
-0.0072223833
-0.011384751
-0.0014079006
0.0041854666
0.009900148
0.0120352665
0.01318031
0.0024132733
-0.021909457
-0.0030376692
0.007987082
-0.0015516692
0.0075958064
0.005859751
0.0044681826
0.005766423
0.002761483
0.00076240744
0.0073501626
0.004982236
0.005990866
-0.00309596
0.00047621338
0.015831003
0.0030796668
0.017357176
-0.004975997
0.007474377
0.010391976
0.0017829132
0.0065143537
-0.0038768149
0.0046735248
0.0028842657
0.014766881
0.002500283
-0.008940027
-0.004265911
0.0018721372
0.021012187
0.016133497
0.0031647116
-0.022733342
0.00949415
0.008815965
0.00037380308
-0.0026644082
0.008938776
-0.001196587
-0.007869559
0.0058377585
0.0009126344
-0.014180337
0.009111606
0.005150546
0.008407541
-0.0028397776
0.0028025133
-0.013321286
0.004354582
0.0059738955
0.003134304
-9.3335984e-05
-0.016931865
0.020966535
0.003523873
-0.0037071267
0.006020562
0.0033313087
0.0046186107
0.00066737033
0.013090395
0.0070134928
-0.0024070041
-0.00018327546
0.0097453315
0.007589011
0.0005298758
-0.0020634884
-0.003131886
0.01655491
-0.00027217713
0.003835789
0.0039617014
0.0061124987
0.0015827891
-0.0075084274
0.0191478
0.0062891496
0.0134587325
0.006806688
-0.0045700474
0.007008186
0.0011929048
0.004336982
-0.0066224365
0.007657227
-0.00022310103
0.0014013821
-0.0005132936
0.006335663
0.008554832
0.0038983892
-0.008692339
0.0070592086
0.0051852744
0.03673755
0.0033066527
0.0030643449
0.00048824507
0.0058958586
-0.013147646
0.0073176287
0.0066144387
-0.0029497063
-0.0020965813
0.004242562
-0.009826459
0.014327505
0.012163252
-0.0023524817
0.009282386
0.00746278
