0.007533283
-0.30914629
-0.034801904
0.31864214
0.010057778
-0.03967826
0.06315787
0.022501845
0.02198681
0.04790356
0.021675516
0.04563699
0.14667456
-0.6547064
0.04289532
-0.030593136
-0.07998688
-0.002884451
-0.014101089
0.03753751
0.0031538522
0.11039875
0.047346275
-0.025590766
-0.011333396
0.02599873
0.029969528
0.020478858
0.023512159
-0.043169226
0.0123122055
-0.00916186
-0.061611813
0.000251147
-0.013350005
-0.009588617
-0.03271455
-0.0024825332
0.03452167
-0.008082257
0.010504529
0.038910683
0.023943607
0.045542408
-0.05364261
0.02078817
-0.012270401
0.048243348
-0.015078465
0.068027996
0.0063429307
0.027151404
0.014530501
0.04513526
-0.43772107
0.02280621
0.0029844907
0.0075185285
-0.016296005
-0.008439346
0.019158132
0.022332167
-0.0025248015
-0.008138307
0.022702914
-0.052211273
-0.011431156
0.062957734
-0.011405819
-0.007965688
0.0055943024
0.003088389
-0.030487554
-0.3719426
0.0034284901
0.034183018
0.03780954
-0.031744342
-0.021693949
0.0192194
0.39186952
-0.00726939
-0.0009009463
0.015406655
0.003462397
-0.012121002
0.004992006
0.03072036
-0.023039581
-0.03072167
-0.0012441691
0.030676812
-0.013514691
-0.0017770116
-0.014729553
0.030505735
-0.0020944308
0.013457642
-0.09002296
-0.015553068
-0.03939254
-0.031344686
0.009331744
0.010173316
-0.0015380926
0.65983844
0.012005515
0.064441755
0.02174132
0.026796931
-0.0076648756
0.013672281
-0.012747847
-0.013111266
0.009631085
-0.06054125
0.0044086636
-0.014502174
-0.037521422
0.006844918
0.029593242
0.003937028
0.011484525
0.0231026
-0.016311714
0.024496341
0.0031402665
-0.05786704
0.006238085
-0.020111486
0.07117485
0.025982
-0.062920704
-0.017899113
0.00570911
0.021571487
0.013062495
-0.41560933
-0.035899308
-0.02025157
0.032313727
-0.04828424
0.026602924
-0.006653399
0.019527216
0.14084323
0.023575043
0.022593323
-0.012236075
-0.14450347
0.029298285
-0.01150177
0.0064955987
0.0158384
-0.005955044
0.05964777
-0.056033205
0.078829445
0.34455666
0.29494923
-0.076876715
-0.18072675
0.047685403
0.1770376
0.021445995
-0.046756662
-0.002671333
-0.036521878
-0.031113375
0.003895476
0.16458271
-0.024310494
-0.008546466
0.040361565
0.007566594
-0.008033933
-0.016046964
-0.013623791
-0.011311785
-0.01158656
0.042629153
0.018698655
0.029000482
-0.7364738
0.024122234
0.03279129
-0.029555177
-0.029726144
0.08366409
0.020632382
0.0048775547
-0.014553742
0.03884895
-0.75658184
-0.029810082
-0.01868995
0.03321301
-0.02509707
0.017263733
-0.032791566
0.038058046
0.008724349
-0.016468624
-0.014267751
0.0061320267
-0.74037683
0.0129839135
-0.03845204
-0.011935369
-0.027350359
-0.023876328
-0.008009292
-0.030216215
0.042222466
0.058576226
0.013813609
0.032283723
0.13731395
-0.011877037
-0.022654388
-0.00028238585
0.005736597
-0.002130482
0.028736522
0.012505373
-0.017377315
0.026768783
-0.008188162
0.009866856
-0.02713206
-0.016432295
0.012772783
-0.04147438
0.3276959
0.30824745
0.047170077
-0.033097018
-0.009252206
0.027302949
0.23841755
0.0059153433
-0.010259718
0.03839244
0.020451287
-0.02961803
0.0045296014
-0.026610814
0.00590769
0.016752291
0.034055747
0.047789276
0.053166438
-0.06148653
0.0024071883
-0.048549965
-0.008698396
