0.06785184 0.5187147 -0.00013119934 0.0035296513 -0.43999472 0.030217037 -0.010180055 -0.39912596 -0.011979578 -0.10115049 0.004948642 -0.011173232 0.1563741 -0.3061703 -0.4931241 -0.5490154 -0.3174522 0.47112557 0.4556519 -0.38430396 0.21138488 0.026324973 0.3459752 0.2136932 -0.054755595 0.5278965 -0.38514486 0.35898358 -0.22577599 0.118147545 -0.5640189 -0.00017564409 -9.1356946e-05 0.45733368 -6.236881e-05 -1e-44 -0.5168192 -0.12936744 -0.68706834 0.36493766 0.32270554 0.0437599 1e-44 -0.19568609 -0.020794932 0.04893065 -1e-44 -0.6811512 0.6503974 0.08705583 -0.5423365 0.36373794 -0.00013049509 -0.00013805374 0.28021136 -0.018718041 0.6569494 -0.0684239 -0.017389536 -0.6205889 -0.60088634 -0.034296528 0.0614283 -0.2873124 -0.45310897 -0.46497697 0.61869615 -0.28898627 0.3539792 0.36842164 0.43066624 -9.463333e-05 0.6540054 -0.00012939153 0.37158728 -0.24220194 -0.013708274 -0.3468969 -0.7031862 0.00020180142 -0.10057416 -0.012853064 -0.10349439 0.481413 -0.045846734 0.04392898 -0.14158672 -0.3678649 -0.12241752 -0.6944878 -0.3778458 0.091678396 -0.06238173 0.6393068 0.59382284 -0.011735377 0.16991282 -0.004715103 0.19641504 0.0016137674 0.49691775 -0.011005348 -0.008656344 0.15168229 0.3193872 -0.61553746 -0.33803982 0.59143573 0.6199369 -0.00919671 0.46000105 -0.52240103 -0.32352588 -0.07599681 0.66495764 0.50241536 -0.16193916 0.09058844 -0.005643305 -0.002572048 -5.4255364e-05 0.17523177 -1.1392889e-06 0.036642287 -0.49848756 -0.005513652 -0.000113020375 -0.23880805 0.19096313 0.27877566 -0.10527503 -0.07324205 -0.25207657 0.3563822 0.22348054 0.19346607 0.31159407 0.08912699 -0.00509233 -0.6945754 -1e-44 0.01926892 0.18453474 -0.00590721 0.5934616 0.22788341 0.22461501 0.5386731 0.5894199 0.024948385 0.3561193 4.6346013e-05 -0.009273556 -0.6760468 0.56351054 -0.0017864951 -0.37038374 0.47332782 -0.009767363 -0.0012932234 1e-44 0.17186193 0.21297988 1.1e-44 -0.00016592027 -0.060498856 -0.49792922 -0.6807108 -0.006816815 0.31301945 -0.0031667317 -0.06299756 0.18497054 -0.5132898 -0.014441227 -2.8496297e-05 -0.65595406 -0.0011320305 0.49565136 0.22737275 0.6173808 -0.70539814 -0.25491884 -0.0067632063 0.18524043 0.005902797 -0.24195035 0.7053678 0.14856212 -0.16988488 0.6082046 -0.535321 0.36975107 0.20445816 0.66967654 -0.37602448 -0.0033406403 0.006109876 -0.27075508 0.45197073 0.27404532 -0.15493801 0.29568288 0.47855157 0.17849083 -0.0020285444 0.0013623392 -0.0059225527 -0.009058847 -0.66704166 0.09961406 0.586433 -0.012571568 0.69924897 -0.32007274 1.9574438e-05 0.5111208 -8.968238e-05 0.6565648 0.3979849 0.20026842 -0.13180679 -0.051112425 -0.68539476 -0.45844957 -0.4880148 1e-44 -0.49196333 -0.08307917 -0.55366474 4e-45 -0.15816417 0.003358866 0.29197487 0.6227573 0.02606288 -0.41948077 0.58086723 0.5693706 -0.14237346 -0.016486663 -0.011771449 0.7031657 -0.38246578 -0.661099 6.535472e-06 -0.079775475 -0.08554246 0.19674875 0.49554995 -0.024422737 -3.67e-43 -0.34500524 0.6261647 0.6375294 0.03091889
