0.066719435
-0.058948956
-0.026337298
0.052413654
0.042671215
-0.055069383
0.04574977
0.05879108
-0.056300852
0.06348376
-0.099436544
0.0862286
0.055726614
0.06967115
-0.042470716
-0.028884124
-0.074439764
0.05888356
0.08358053
0.04221293
0.03868265
-0.052512705
0.07178695
-0.039299432
-0.037266
-0.047890436
0.032333333
-0.122596025
-0.06101363
-0.029377328
-0.07784253
-0.018599965
0.04328714
0.060682435
-0.05025555
-0.0038374544
0.047630273
0.0568039
-0.03563657
-0.032026343
0.05801771
0.05916647
0.07332584
0.0558152
-0.06348919
-0.033724606
-0.07254176
0.048293065
-0.021937313
0.06896379
-0.07044435
0.039465204
0.08500922
0.052341394
0.071774945
-0.02254984
0.09001835
-0.04707568
-0.056137506
0.053523533
0.037930757
0.057605278
-0.029583802
-0.040620726
0.05832057
0.051499777
-0.067615256
0.0613706
-0.09561543
0.047353797
0.08361327
0.047524698
-0.13254434
0.059880853
-0.052745134
0.050688107
0.05468688
-0.030744927
0.053955834
0.078469045
0.055459626
0.102933854
0.09459296
0.039354973
-0.058228754
-0.04403476
0.04068023
0.06356477
0.03235706
-0.05151674
0.05113998
-0.1272869
-0.075463876
0.04550925
-0.056864265
0.032167688
0.04620763
-0.058247138
0.056591887
0.04235595
0.08317127
0.06449895
-0.05712528
0.04722213
0.07550071
-0.05505827
0.06671597
-0.06715324
-0.018358907
-0.044533327
-0.04244106
0.07907523
-0.06050233
0.04643759
-0.046846684
0.023638897
0.05160603
-0.049071096
-0.0574785
-0.045270763
-0.01363928
-0.024877865
0.068878755
-0.060472507
0.059576467
-0.048317287
-0.043227088
-0.017015295
0.0569016
0.093321465
-0.060955934
0.045348786
-0.041491628
0.050552353
-0.01439671
-0.061141253
0.06312194
0.052343786
-0.055526257
0.059974078
-0.02769784
-0.044940542
0.0802495
-0.0042232936
0.08627828
0.03175434
-0.045262303
0.0128887845
-0.02046503
0.041239105
-0.059166983
-0.00806563
-0.018658636
0.054725397
0.053562693
-0.07478695
0.047374494
0.03833767
0.07595772
0.034802325
-0.006816994
-0.041657086
-0.045181844
0.054195154
-0.09299092
0.062112972
0.051041063
-0.0253459
0.055726495
0.07001985
-0.054996874
-0.01217908
0.044350624
-0.050283883
0.044207234
0.044423774
0.0324538
-0.072914384
-0.03983991
-0.05181053
0.045971137
-0.05173956
-0.039102506
-0.12878078
-0.028249927
-0.0444858
0.053658858
0.10151121
0.073400415
0.03792567
0.04449196
-0.08228007
-0.02882219
0.06783897
-0.043436732
-0.07197993
-0.036416225
-0.023183562
-0.058837313
0.077767245
0.048792124
0.07252919
0.0563485
-0.04287622
-0.108898535
-0.010659456
-0.03956873
0.05743674
-0.03927662
0.035160072
0.059702404
0.08168515
0.068419494
-0.03811708
-0.05376034
-0.0863034
-0.04446518
-0.031008627
0.025537612
-0.03687022
-0.049285095
0.07774966
0.10593122
0.06896438
0.08506273
-0.05619115
-0.07138349
-0.03829842
-0.03295597
-0.034137398
-0.022634422
0.061096992
-0.05255875
0.06376522
-0.05042111
-0.056751475
0.08877334
-0.051411536
0.067802034
0.039288633
-0.037345663
-0.035934232
0.051297158
0.048566233
-0.048537493
0.06894639
-0.04181302
0.049089465
-0.058886863
-0.037155364
0.06695194
0.05795752
0.083958335
-0.04631416
0.036102775
-0.061969683
-0.07754618
-0.0557519
0.05120038
-0.05457631
0.04715593
0.058351934
0.051192623
0.08957522
0.012817627
-0.023601955
-0.051237572
-0.10999171
0.046135914
0.04137824
-0.033635013
0.09170808
-0.05578931
0.051536616
-0.048000883
0.037527915
-0.048247248
0.047578212
0.05535367
0.030864445
-0.02763109
0.07583618
0.048085965
0.059677377
0.021995503
-0.06911052
0.05213809
0.07767076
0.06660514
-0.11662324
-0.034509823
-0.056627426
-0.05998281
-0.010596642
-0.030727299
-0.033299323
0.055336908
0.0843706
-0.0390225
0.07022719
-0.049234234
0.07485786
-0.046017524
0.025724694
0.057838835
-0.07254954
0.009536743
-0.049989544
0.040462155
0.03357137
-0.05180142
0.06743544
0.055070844
0.0066480758
-0.031952
-0.040647686
0.03273708
-0.059350897
0.06622999
-0.004459574
0.00668544
0.035830542
0.058296107
-0.033758935
-0.041993387
-0.018421112
-0.054421328
-0.043516386
-0.012953935
-0.08679704
0.07436718
-0.05274388
0.07552195
-0.026175
-0.05013623
-0.0017160847
-0.034476824
0.09502774
-0.028702658
-0.073897354
0.053459592
0.05415518
-0.021490868
-0.02861372
0.059920598
0.060743257
-0.005341874
-0.09171478
-0.024209151
-0.06702109
0.06370118
-0.038807303
0.0669842
-0.039933525
-0.059412114
0.06266967
-0.036252946
-0.018918715
0.04944332
0.0501588
0.05253964
0.04982729
-0.08958858
0.05104605
-0.086523145
-0.040499516
-0.008160238
0.07177213
-0.041518938
-0.034981776
0.036671776
0.1030462
0.08269383
0.057337668
-0.043992642
-0.051674124
0.040208254
-0.028499698
-0.058932394
0.057145067
-0.066654615
-0.027078353
0.07086985
-0.01572936
-0.05687378
-0.09955138
0.038483504
0.049028948
-0.025061445
0.061632484
-0.04039399
-0.040652454
0.03510158
-0.056769278
0.07007996
-0.053351212
0.075567916
0.06330817
0.07095978
-0.051708087
-0.06868104
0.03175956
0.059045464
0.041031566
0.030605095
-0.03591397
-0.039600767
0.06983437
-0.03340665
-0.050757695
0.017444065
0.04971608
-0.034103047
0.058080275
-0.06587292
0.04514625
0.07184979
0.046954352
0.041223533
0.0539124
-0.096559495
-0.02998261
0.06740431
0.062658496
0.033203114
0.05694969
-0.050024215
-0.08130779
0.045118537
-0.08367043
-0.028984608
-0.00021605013
0.0037113926
-0.066031255
0.00049665954
0.057876993
-0.06914819
-0.03749508
-0.031137824
0.050428614
-0.049139034
0.07624157
-0.06884793
0.024593886
0.08125956
0.08595017
0.037186515
0.05874409
0.05115644
-0.072363436
-0.089584485
-0.024897123
-0.063609645
0.054791745
0.018443514
0.0355199
-0.04483384
-0.052597575
-0.062408105
-0.030880857
0.0076446203
-0.06889636
0.045474004
0.09670134
0.055001125
0.04255289
-0.010060033
0.06745434
0.027333293
-0.074733585
-0.034657016
-0.04879428
0.052182768
-0.09934549
0.06101672
0.04495244
0.052350577
-0.05278524
-0.029186072
0.052570034
-0.110515304
-0.0848737
-0.051573988
-0.056931768
-0.08152789
-0.06922943
0.04934787
0.03424889
-0.023330182
-0.09983221
-0.04295166
0.02105937
0.04359733
0.06277783
0.037375797
0.059340198
0.051320713
0.036752135
-0.046112422
-0.028899917
-0.037423648
0.045417324
-0.031141521
0.07165648
0.05379124
-0.083308995
0.05984156
-0.05320712
0.1029217
0.052357
-0.038250975
-0.02143139
