-0.0006856468
-0.04846192
0.0041890386
8.331097e-05
-0.030577656
-0.023988683
0.084337056
0.00012771659
0.14082728
0.00038628062
-0.0015852117
-0.08996221
0.041945126
0.011256772
0.020476075
0.012858354
-0.0069577284
0.053903576
-0.076322906
0.0014435067
-0.0015925785
-0.008500115
-0.05357363
0.02909646
0.046693347
-0.2184958
-0.14624107
-0.0048542568
0.0034553295
0.0064061414
0.006130452
0.0229527
-0.026889479
0.02889881
0.037368666
0.042566776
-0.022273667
-0.0890516
0.26744863
0.19913298
-0.016434005
-0.1656464
0.033258494
-0.0009348104
-0.038605534
0.0064769415
-0.05136025
0.12898453
0.000960598
-0.005588017
-0.07258778
0.077858895
0.05369521
0.24196352
-0.009895983
0.018180773
-0.07438144
0.0017411477
5.0755265e-05
-0.10545843
0.2003613
0.026155844
-0.11250772
0.21925396
0.018859588
0.032993563
0.1183036
0.22380054
-0.0005275839
0.013153912
-0.007205502
-0.00840343
0.008920343
0.20889905
0.047789503
-0.017961256
-0.080745265
0.10924899
0.013930664
-0.033181164
0.05515472
-0.06069166
-0.035253584
-0.011890345
0.010786367
0.004214262
0.01464691
0.04068078
-0.019557396
0.005720538
0.006750235
0.008165526
0.2244384
-0.010472858
0.113768145
-0.118137896
-0.002697856
-0.0026042105
-0.0007401725
0.00824346
0.010997738
0.0055177314
0.14225622
0.11076658
0.030621074
0.015266835
0.07340576
0.016049605
0.07849742
0.092946835
-0.0727435
0.027668245
0.041398738
0.07733635
-0.0023212878
-0.009236847
0.0013811402
0.053960945
-0.05892088
-0.05992615
-0.013417166
-0.00086149055
0.004211738
-0.00855178
-0.062649466
-0.12032397
0.051767573
0.081874505
0.15893131
-0.12260042
0.057034172
0.19392557
0.041660734
0.0038453669
-0.0024579077
-0.009463666
0.1647439
-0.02867982
0.021445552
0.10773764
-0.07395487
0.008198136
0.05747096
0.07495921
0.046372093
-0.01059044
0.014564385
0.1235193
0.19310205
0.32538167
0.0070893676
-0.0048329877
0.013738976
0.00020509197
-0.013011731
-0.005459092
-0.018616872
-0.023531394
0.004057338
-0.0019514441
-0.059978303
0.08747346
0.015180803
0.027913027
-0.00012300505
0.26135856
-0.0022770432
0.015560994
0.10738494
-0.0082948655
0.16691048
-0.12353104
-0.03262664
0.027778698
0.039087657
0.015200868
-0.10495132
-0.042114772
0.13006438
-0.14684598
-0.007930126
0.021675162
-0.002092002
0.006511254
0.0065391883
-0.0021001848
-0.003985486
0.0083673205
-0.0032884239
0.0034748071
0.14442018
-0.1783912
0.06168409
0.002251077
0.040917736
-0.014964129
-0.0035106603
-0.017068796
-0.030789506
-0.0016767652
0.078377835
0.0061423024
-0.0044649174
-0.002791645
-0.0018262992
0.006011951
-0.07346894
-0.006047986
0.017036295
0.0049668807
0.068286695
-0.029395556
-0.0007921535
0.08639484
-0.0726968
-0.005496359
0.046836283
0.07256227
-0.005366841
-0.008162349
0.010606621
0.008240676
0.056872144
-0.01418026
0.0020274378
-0.18593398
0.030729432
0.08403213
0.12583053
0.008407
0.2089811
-0.007429736
0.31336635
0.0020512387
0.013722404
0.29641688
-0.04050609
0.014745078
-0.13283442
0.03581581
0.0007754478
0.0330563
0.046132762
-0.0028248488
0.22448628
0.0087490305
0.0067622373
0.052297294
-0.029887214
-0.18342522
0.010033222
0.009111297
0.004005756
0.026272563
0.02436818
0.08609621
