0.06022495
0.025148606
0.06744239
0.18330692
0.014996276
-0.00051881326
0.02061817
0.27150652
-0.007096085
0.062641256
-0.019364933
0.08090055
0.247279
-0.025657674
-0.033781447
0.04237821
0.034205083
0.07585399
-0.0029690724
0.15823543
0.35701826
0.051772654
0.037616197
-0.004788932
-0.018785581
-0.034528293
-0.059053376
0.044496924
0.03766178
-0.018818598
-0.026339266
0.067357436
-0.09972984
-0.01476816
0.079670675
0.045250643
0.055054095
0.044927776
0.23274598
-0.25264943
-0.056140464
-0.0066582235
-0.02321775
-0.010930352
0.13495006
-0.08581128
-0.05256432
-0.023825204
-0.016117558
0.014175497
0.09179061
0.0056614717
0.021022875
0.03549187
0.15139106
-0.009768608
0.11831721
0.045525696
-0.083363526
0.12978503
0.11707831
-0.04979752
0.050266184
0.06446683
0.036842424
-0.05216577
0.004673644
-0.03196841
0.16478622
0.21763606
0.04096533
-0.050880264
0.088143535
0.00905075
-0.0039312765
-0.2331456
0.336742
-0.020403165
0.057343308
0.11698997
-0.06208913
-0.06317111
-0.016351733
0.16506521
0.0075249835
0.07206257
0.08880029
-0.022739278
0.15810536
0.009195446
0.0049106553
0.047760073
0.091262944
0.056367133
-0.06487288
0.34684384
-0.0029109782
-0.0056963083
-0.0010921254
0.08250459
0.19479196
0.029353295
-0.056907456
0.11824621
-0.009160991
0.0072831465
0.046672598
-0.016006494
-0.11422029
-0.0054117045
-0.08660184
0.0115675265
0.022955561
0.13766798
0.02029693
0.1414698
0.05258346
-0.025730051
0.048244298
0.1721698
0.023983052
-0.025868071
-0.029210206
0.16750026
0.04296475
0.028523818
-0.048139215
-0.00015771242
0.10687974
0.12120548
0.01793932
-0.14880137
-0.023231542
0.01859271
0.034962837
0.038514793
0.02665255
0.1661171
0.11562562
-0.014262013
0.061865956
-0.010974787
0.19116296
-0.043920703
0.10038173
0.025152441
-0.052488074
0.25833616
-0.050744377
0.016293107
-0.050996024
-0.049365558
0.09190434
0.02285385
0.02110849
0.09599883
0.020792538
0.15869863
-0.071556814
0.031102696
0.078676656
-0.0037442371
0.022617606
0.025292965
0.06909137
0.1363006
-0.0022765836
-0.03002385
0.00851975
0.0064617596
-0.062543884
-0.05076169
0.117148794
-0.005914252
0.0148868
-0.031269196
-0.03749586
-0.019901963
-0.090507425
0.023092752
0.0043601408
0.36175382
-0.0042412737
-0.16728653
-0.057605214
-0.030069208
0.22385597
0.047378458
0.1359621
-0.054937016
0.018606618
-0.06866747
-0.048597295
-0.07919011
0.04006204
-0.050185304
0.16017766
-0.009941187
-0.08586801
-0.024010565
0.14228131
-0.15300973
-0.040430855
0.06947264
-0.020461643
-0.012971002
-0.0062526343
0.04504252
0.022295138
0.35431066
-0.025914846
-0.0010102215
0.10765791
0.039355427
-0.03579233
0.098518156
0.18129674
0.017716603
0.079686694
0.082787834
0.0032837116
-0.058804844
-0.05537601
0.21300039
0.029459754
-0.07318885
-0.0074241753
0.091915175
0.045610722
-0.023343552
-0.015543445
0.0439978
0.2491232
0.018284436
-0.020624962
0.15341789
0.056438517
-0.039816454
-0.11914332
0.04565067
-0.016763588
0.25578615
0.07031097
-0.0110208
0.16979246
0.036451977
-0.014148153
-0.02962726
0.18551718
0.25618488
0.2731012
-0.06945582
0.0149916
0.010584723
-0.09652383
-0.042691212
