-7.630539685487747192e-02 2.809656225144863129e-02 1.621361821889877319e-01 3.445134460926055908e-01 8.684805035591125488e-02 7.051430642604827881e-02 -1.376170367002487183e-01 1.618089675903320312e-01 -3.898589611053466797e-01 3.597050905227661133e-03 9.648013859987258911e-02 3.075232170522212982e-02 1.105483248829841614e-01 7.524232566356658936e-02 -1.366270333528518677e-01 2.817554473876953125e-01 1.858139336109161377e-01 2.053110599517822266e-01 -3.277033865451812744e-01 -4.709810391068458557e-02 -2.748209238052368164e-02 -9.077024459838867188e-02 -1.592349559068679810e-01 -8.973153680562973022e-02 -4.646066948771476746e-02 -6.234112009406089783e-02 -2.701479010283946991e-02 -1.072264015674591064e-01 -1.049633696675300598e-01 -3.454406857490539551e-01 -9.156663715839385986e-02 -8.596736937761306763e-02 -1.966003328561782837e-02 -1.104311719536781311e-01 -6.524429470300674438e-02 -6.616234034299850464e-02 1.126430481672286987e-01 -2.339193224906921387e-01 2.001825869083404541e-01 1.106951609253883362e-01 2.606975734233856201e-01 -5.891292169690132141e-02 4.652714729309082031e-02 3.171306848526000977e-01 1.271863700821995735e-03 9.154336154460906982e-02 1.564750969409942627e-01 1.476719677448272705e-01 -2.103326097130775452e-02 5.757838487625122070e-02 3.236583471298217773e-01 -4.581211879849433899e-02 2.719319760799407959e-01 -1.175110340118408203e-01 -2.727108597755432129e-01 2.308565229177474976e-01 -2.292975634336471558e-01 -9.589500725269317627e-02 1.860196143388748169e-02 -8.520510792732238770e-02 8.675982803106307983e-02 -2.160554379224777222e-01 -1.242494583129882812e-01 -6.281280517578125000e-02 -9.632435441017150879e-02 5.580252036452293396e-02 -7.921196520328521729e-02 4.894821345806121826e-02 9.034167975187301636e-02 -1.602532416582107544e-01 9.246130287647247314e-02 2.083981335163116455e-01 -1.464789062738418579e-01 -1.333866566419601440e-01 4.528616368770599365e-02 1.839293539524078369e-01 2.353075593709945679e-01 -4.158205986022949219e-01 -5.783205032348632812e-01 -4.144123494625091553e-01 2.741928696632385254e-01 1.300954967737197876e-01 -1.871205568313598633e-01 -1.470431685447692871e-01 1.005085706710815430e-01 3.639116287231445312e-01 4.094918072223663330e-02 -3.417985886335372925e-02 1.569000780582427979e-01 3.335713967680931091e-02 -1.737700700759887695e-01 4.137143194675445557e-01 -2.421532198786735535e-02 -1.912876814603805542e-01 -8.380442857742309570e-02 2.019801922142505646e-02 5.778474733233451843e-02 3.477434515953063965e-01 -6.071260198950767517e-02 5.176677927374839783e-02 -1.016911417245864868e-01 3.955494612455368042e-02 2.544502913951873779e-01 5.302891135215759277e-02 2.062488347291946411e-01 3.959891200065612793e-02 -1.167168724350631237e-03 6.183395534753799438e-02 2.897045612335205078e-01 -2.013421207666397095e-01 4.173360764980316162e-02 -1.431265473365783691e-01 -1.215418353676795959e-01 8.108184486627578735e-02 -1.722127944231033325e-01 -4.714997708797454834e-01 4.801024496555328369e-01 -2.160330861806869507e-01 -4.386797249317169189e-01 -1.554096937179565430e-01 3.149839639663696289e-01 -4.368883073329925537e-01 2.258234657347202301e-02 -5.776840448379516602e-02 -2.525953054428100586e-01 -3.566339313983917236e-01 1.972565799951553345e-01 3.006086125969886780e-02 -2.797370962798595428e-02 3.604430258274078369e-01 2.064817547798156738e-01 -5.017107725143432617e-02 9.565483778715133667e-02 -3.041817247867584229e-01 1.734153330326080322e-01 -1.296805497258901596e-02 6.690023839473724365e-02 -3.928092420101165771e-01 1.585211418569087982e-02 -3.558195754885673523e-02 1.406932771205902100e-01 1.325019299983978271e-01 -3.692692220211029053e-01 -7.943226397037506104e-02 3.482053875923156738e-01 -5.623660087585449219e-01 -1.475663483142852783e-01 4.006297588348388672e-01 -5.647052451968193054e-02 1.832672953605651855e-01 9.400501847267150879e-02 4.114851951599121094e-01 2.840600609779357910e-01 3.212403953075408936e-01 -2.568243145942687988e-01 2.608194053173065186e-01 5.922735929489135742e-01 -6.692700088024139404e-02 -8.654282242059707642e-02 3.231512308120727539e-01 8.974828571081161499e-02 -7.817909121513366699e-02 1.495949923992156982e-01 1.159600764513015747e-01 8.482996374368667603e-02 2.497094273567199707e-01 -4.685002937912940979e-02 4.071400165557861328e-01 4.378161728382110596e-01 1.253986656665802002e-01 1.031322106719017029e-01 -1.148882880806922913e-01 -1.266967505216598511e-02 1.593185216188430786e-02 8.190467953681945801e-01 1.782516576349735260e-02 -2.101949602365493774e-01 -3.821358382701873779e-01 -5.401881933212280273e-01 -6.098909303545951843e-02 -7.722127437591552734e-02 1.667742431163787842e-01 -6.035172380506992340e-03 -2.855442762374877930e-01 1.258305646479129791e-02 -3.698243498802185059e-01 3.728612139821052551e-02 -1.893247961997985840e-01 -1.567349396646022797e-02 -4.063441157341003418e-01 -4.097825661301612854e-02 2.749103903770446777e-01 -3.884720802307128906e-02 -9.016957879066467285e-02 2.662258455529808998e-03 -9.850900620222091675e-02 1.551670730113983154e-01 -6.637658923864364624e-02 -1.967933177947998047e-01 -3.722001984715461731e-02 -1.713341325521469116e-01 -2.879107594490051270e-01 -2.694131135940551758e-01 5.044604539871215820e-01 -5.342453122138977051e-01 4.508654475212097168e-01 -1.122649759054183960e-01 -2.474035471677780151e-01 -2.830048203468322754e-01 -4.495559260249137878e-02 8.181487768888473511e-02 -2.787177860736846924e-01 -3.617402613162994385e-01 -1.121858581900596619e-01 8.871480822563171387e-02 -1.684016436338424683e-01 -2.363408952951431274e-01 -1.060734838247299194e-01 -1.180061697959899902e-01 8.525797724723815918e-02 -3.305693268775939941e-01 -4.764161407947540283e-01 1.508677601814270020e-01 2.343885302543640137e-01 -1.595661342144012451e-01 -2.990150451660156250e-01 -2.983547449111938477e-01 1.301553566008806229e-02 -3.046325445175170898e-01 1.765775084495544434e-01 -1.069316118955612183e-01 -1.887367814779281616e-01 4.162968695163726807e-01 -5.861024931073188782e-02 -2.350615411996841431e-01 3.051586449146270752e-01 -5.754809975624084473e-01 1.402966529130935669e-01 -1.475562602281570435e-01 4.753564298152923584e-02 -8.571945875883102417e-02 3.730266913771629333e-02 4.689143225550651550e-02 -2.220538854598999023e-01 2.811529934406280518e-01 1.217764243483543396e-01 2.882154285907745361e-01 9.972811490297317505e-02 1.636804789304733276e-01 -2.474465519189834595e-01 -1.887987405061721802e-01 -2.120122760534286499e-01 -1.209388300776481628e-01 2.838114835321903229e-02 -6.509470939636230469e-02 9.020002931356430054e-02
-2.040001749992370605e-01 -4.447175189852714539e-02 4.373738467693328857e-01 3.368238359689712524e-02 1.873689889907836914e-01 1.248114407062530518e-01 1.995192617177963257e-01 -2.453795522451400757e-01 8.533285558223724365e-02 -2.687355577945709229e-01 2.032670676708221436e-01 9.536186605691909790e-02 -8.362653851509094238e-02 2.922663390636444092e-01 8.469460159540176392e-02 7.841421663761138916e-02 -6.640762835741043091e-02 -1.302861273288726807e-01 -1.914368122816085815e-01 -1.738291382789611816e-01 7.137601822614669800e-02 -6.413456052541732788e-02 2.655603587627410889e-01 2.598305046558380127e-01 -1.605843603610992432e-01 4.325006008148193359e-01 -3.151236772537231445e-01 3.323446586728096008e-02 1.870438009500503540e-01 -4.047703742980957031e-01 -2.312843501567840576e-01 1.421395689249038696e-01 5.236266553401947021e-02 9.749808907508850098e-02 -1.848032474517822266e-01 3.132545351982116699e-01 -3.081648349761962891e-01 -2.172805070877075195e-01 -2.869709432125091553e-01 5.327361822128295898e-02 -1.472056359052658081e-01 -2.878138422966003418e-01 -9.280141443014144897e-02 1.132073700428009033e-01 2.694607079029083252e-01 -4.566288888454437256e-01 -1.111561357975006104e-01 2.659926712512969971e-01 -5.542667210102081299e-02 3.400364145636558533e-02 -5.048634856939315796e-02 1.295888125896453857e-01 3.585089370608329773e-02 -2.292551845312118530e-01 -2.910647168755531311e-02 5.286059379577636719e-01 1.888265162706375122e-01 -1.385569572448730469e-01 -1.212348714470863342e-01 -7.631527725607156754e-03 -1.987008936703205109e-02 2.805621922016143799e-01 4.991075098514556885e-01 1.155576705932617188e-01 -2.531479671597480774e-02 3.629252016544342041e-01 3.328055739402770996e-01 7.402326911687850952e-02 -2.612044811248779297e-01 9.707722812891006470e-02 -2.479438632726669312e-01 3.443660438060760498e-01 -1.654460094869136810e-02 2.436426281929016113e-02 -2.848803400993347168e-01 -1.067268773913383484e-01 -7.574922591447830200e-02 -5.823640525341033936e-02 -2.206315994262695312e-01 1.322459578514099121e-01 6.812731623649597168e-01 1.866944432258605957e-01 4.934740811586380005e-02 -4.441551864147186279e-01 3.788498044013977051e-02 1.958292275667190552e-01 1.663836650550365448e-02 5.066926777362823486e-02 -9.899609535932540894e-02 -4.489252865314483643e-01 -7.899521291255950928e-02 -3.823463916778564453e-01 1.830273121595382690e-01 1.059270948171615601e-01 1.755040884017944336e-01 4.909447431564331055e-01 -6.471669673919677734e-02 -1.797674782574176788e-02 -1.569398492574691772e-01 4.062258005142211914e-01 8.680954575538635254e-02 1.376414746046066284e-01 -2.634258270263671875e-01 2.821172177791595459e-01 -1.550723332911729813e-03 -3.208010792732238770e-01 2.494652122259140015e-01 -1.823067218065261841e-01 1.581010222434997559e-02 2.929118275642395020e-02 -5.052210092544555664e-01 2.795912139117717743e-02 -1.459351480007171631e-01 5.009530484676361084e-02 6.841694116592407227e-01 3.122249841690063477e-01 3.405925333499908447e-01 -5.928840860724449158e-02 -2.063255906105041504e-01 -2.639107406139373779e-01 3.023403286933898926e-01 -1.841226965188980103e-01 2.078089118003845215e-01 -2.514448761940002441e-01 3.775056898593902588e-01 4.348061382770538330e-01 -2.268360182642936707e-02 3.596417605876922607e-02 2.274395823478698730e-01 1.121790632605552673e-01 3.311866223812103271e-01 6.371412277221679688e-01 -2.485954314470291138e-01 -5.670480430126190186e-03 -1.226448193192481995e-01 -1.844181120395660400e-01 -1.824529320001602173e-01 8.722590282559394836e-03 1.125533059239387512e-01 -1.257166825234889984e-02 -4.014044255018234253e-02 -2.676423490047454834e-01 -5.789554119110107422e-01 1.565063744783401489e-01 -1.263245642185211182e-01 -1.523069944232702255e-02 1.089687943458557129e-01 -4.975507557392120361e-01 -1.062107309699058533e-01 -2.895642220973968506e-01 1.264105886220932007e-01 1.722382605075836182e-01 7.524438202381134033e-02 -1.943668872117996216e-01 4.540191590785980225e-02 5.938944220542907715e-02 2.124868631362915039e-01 -3.968990221619606018e-02 2.329888381063938141e-02 2.820725739002227783e-01 3.723238110542297363e-01 8.819900453090667725e-02 6.899701058864593506e-02 -1.016280055046081543e-01 -8.528698235750198364e-02 1.383245587348937988e-01 -1.607633531093597412e-01 -1.531964540481567383e-01 1.110849082469940186e-01 -3.770310580730438232e-01 7.477462291717529297e-01 -5.545007809996604919e-02 -1.337348073720932007e-01 -9.706686437129974365e-02 -7.954835891723632812e-02 -5.021545663475990295e-02 1.395493596792221069e-01 1.025601997971534729e-01 -6.048277392983436584e-02 6.457890868186950684e-01 -1.834906488656997681e-01 9.505835920572280884e-02 2.682062685489654541e-01 6.614370644092559814e-02 5.597490351647138596e-03 2.361330986022949219e-01 -2.978227138519287109e-01 -9.288770705461502075e-02 1.164802759885787964e-01 -4.717679917812347412e-01 -3.726048395037651062e-03 -6.264954805374145508e-01 -9.958828985691070557e-02 -8.388572186231613159e-02 2.940106578171253204e-02 -5.858496949076652527e-02 2.353245168924331665e-01 3.554701805114746094e-01 -2.011415511369705200e-01 -2.882712185382843018e-01 -3.568494692444801331e-02 -2.152657061815261841e-01 1.948760300874710083e-01 -1.144457757472991943e-01 -8.230002596974372864e-03 3.186617493629455566e-01 3.128766417503356934e-01 2.854027748107910156e-01 2.323886603116989136e-01 -1.866222620010375977e-01 -1.647819429636001587e-01 -1.213741749525070190e-01 3.996170312166213989e-02 8.433828502893447876e-02 6.614869087934494019e-02 6.407777070999145508e-01 8.330328017473220825e-02 6.018168479204177856e-02 1.030568331480026245e-01 -2.969108223915100098e-01 3.272400796413421631e-01 -9.683664143085479736e-02 2.177047431468963623e-01 2.359884977340698242e-02 1.412604469805955887e-02 7.085032761096954346e-02 2.671982347965240479e-01 -2.215290814638137817e-02 2.979108691215515137e-01 -1.432936638593673706e-01 -3.370117247104644775e-01 3.185429275035858154e-01 2.573889791965484619e-01 -6.458612680435180664e-01 2.158286720514297485e-01 8.040944114327430725e-03 -3.081971593201160431e-02 3.219819068908691406e-02 4.271430969238281250e-01 1.191331744194030762e-01 3.373212516307830811e-01 -2.867237105965614319e-02 3.231515288352966309e-01 2.011788636445999146e-02 -3.299072682857513428e-01 1.261561363935470581e-01 1.859332174062728882e-01 3.839456439018249512e-01 7.981177419424057007e-02 3.156609134748578072e-03 3.410046994686126709e-01 -2.915032207965850830e-01 -2.343713045120239258e-01 -4.699232578277587891e-01 -2.605437934398651123e-01 -5.923581868410110474e-02
-1.468802690505981445e-01 -5.606164783239364624e-02 2.961568534374237061e-01 1.759960800409317017e-01 -3.406033217906951904e-01 1.924420148134231567e-01 -6.191826462745666504e-01 1.251630950719118118e-02 1.866492331027984619e-01 -6.660391390323638916e-02 -1.542145311832427979e-01 3.096134960651397705e-01 -1.926951706409454346e-01 6.384849548339843750e-02 -2.491460889577865601e-01 -3.873110711574554443e-01 4.826108813285827637e-01 -1.017827838659286499e-01 -2.813382148742675781e-01 -2.928784787654876709e-01 1.231826767325401306e-01 -4.923329502344131470e-02 -1.172906085848808289e-01 1.553522348403930664e-01 -2.338604331016540527e-01 -3.117507398128509521e-01 2.283046953380107880e-02 -6.465668231248855591e-02 -4.161207973957061768e-01 -3.040661811828613281e-01 -3.191827535629272461e-01 -4.658157527446746826e-01 -1.132378950715065002e-01 2.244130522012710571e-01 -3.779808804392814636e-02 2.422043681144714355e-02 6.792149692773818970e-02 1.614340245723724365e-01 -5.267029255628585815e-02 1.195060312747955322e-01 -4.363140836358070374e-02 -1.697554141283035278e-01 -4.928324371576309204e-02 -8.256217837333679199e-02 -9.147600084543228149e-02 -2.202556580305099487e-01 -4.009130001068115234e-01 3.527435287833213806e-02 1.899145096540451050e-01 1.030472517013549805e-01 -6.550265848636627197e-02 -8.654375076293945312e-01 -3.653377592563629150e-01 3.675911128520965576e-01 -2.690384387969970703e-01 1.206903904676437378e-01 2.863636985421180725e-02 -2.088096141815185547e-01 -3.821251988410949707e-01 -3.513297438621520996e-01 -2.055798284709453583e-02 3.105205595493316650e-01 4.592671990394592285e-01 4.897836223244667053e-02 -5.779914855957031250e-01 -3.110935688018798828e-01 -2.821258604526519775e-01 -6.493285298347473145e-03 2.938090860843658447e-01 -1.100282147526741028e-01 -4.188829660415649414e-01 1.435565501451492310e-01 -4.870395734906196594e-02 1.183465942740440369e-01 7.706508785486221313e-02 2.452359944581985474e-01 4.235821664333343506e-01 -7.123121619224548340e-02 -3.808685541152954102e-01 -5.112993717193603516e-01 3.145785629749298096e-01 2.615711092948913574e-01 1.386631131172180176e-01 1.508706361055374146e-01 -1.584439128637313843e-01 -1.845738440752029419e-01 7.086983323097229004e-01 2.368027418851852417e-01 -5.095828771591186523e-01 -1.772425025701522827e-01 -2.924236357212066650e-01 4.211519658565521240e-01 1.009900644421577454e-01 -2.612667679786682129e-01 -8.063745684921741486e-03 1.201888993382453918e-01 6.268844753503799438e-02 -2.752820849418640137e-01 -5.971670150756835938e-01 5.107543468475341797e-01 1.725528091192245483e-01 -2.541212439537048340e-01 -1.128326505422592163e-01 2.171253114938735962e-01 1.132933795452117920e-01 1.333685815334320068e-01 1.129427459090948105e-02 -1.715832054615020752e-01 2.793880552053451538e-02 -1.419221460819244385e-01 5.831407755613327026e-02 4.526508599519729614e-02 -3.319927304983139038e-02 -2.388270795345306396e-01 -1.765156090259552002e-01 6.683691591024398804e-02 1.114394441246986389e-01 1.363938301801681519e-01 1.687556356191635132e-01 4.474104940891265869e-01 2.163009792566299438e-01 -5.138674974441528320e-01 -7.267957180738449097e-02 1.866118013858795166e-01 2.330884039402008057e-01 6.126048564910888672e-01 -1.147026196122169495e-01 2.313384264707565308e-01 -2.219314426183700562e-01 -4.623075425624847412e-01 1.694632470607757568e-01 -6.429687142372131348e-02 -2.017528265714645386e-01 -2.867773771286010742e-01 -3.972806930541992188e-01 2.299218177795410156e-01 -4.155934229493141174e-02 -2.300610393285751343e-01 -2.880625724792480469e-01 -3.205763995647430420e-01 -5.359018445014953613e-01 3.119875788688659668e-01 -3.702149987220764160e-01 -5.871044397354125977e-01 -2.210535481572151184e-02 7.079095393419265747e-02 -4.278628528118133545e-01 -4.985564649105072021e-01 -1.492059975862503052e-01 -6.278781592845916748e-02 2.287921756505966187e-01 -2.004249393939971924e-01 -2.400985360145568848e-01 -5.589276924729347229e-02 -6.696654558181762695e-01 6.800299137830734253e-02 2.236804664134979248e-01 -1.980305314064025879e-01 7.795937359333038330e-02 3.655859529972076416e-01 1.398431211709976196e-01 5.015044212341308594e-01 -2.324026226997375488e-01 -2.523906230926513672e-01 -1.055845841765403748e-01 3.928112089633941650e-01 4.747418165206909180e-01 -4.263467192649841309e-01 1.871511042118072510e-01 -3.220906257629394531e-01 -7.816249504685401917e-03 -1.676157116889953613e-02 -6.580086797475814819e-02 -2.102821692824363708e-02 -2.389510571956634521e-01 4.199247658252716064e-01 -3.984232619404792786e-02 4.496451318264007568e-01 -4.621644318103790283e-01 -4.077173024415969849e-02 -3.346569240093231201e-01 -1.706376969814300537e-01 -1.498880684375762939e-01 2.966156005859375000e-01 3.911055997014045715e-02 -6.669596433639526367e-01 3.184808194637298584e-01 3.343205153942108154e-01 -1.726993471384048462e-01 -7.047120332717895508e-01 -1.906972080469131470e-01 -1.217296943068504333e-01 -2.218705713748931885e-01 -4.155290424823760986e-01 -3.744790703058242798e-02 -4.065261781215667725e-01 -3.146904408931732178e-01 -1.846200078725814819e-01 1.629948168992996216e-01 -1.139091029763221741e-01 -2.505849115550518036e-02 -8.062757551670074463e-02 4.268498718738555908e-01 1.513857990503311157e-01 7.048254460096359253e-02 3.671845793724060059e-01 -5.023056864738464355e-01 1.342775821685791016e-01 5.504744648933410645e-01 -1.450198739767074585e-01 3.039711713790893555e-01 2.003907412290573120e-01 5.453850626945495605e-01 -3.043376207351684570e-01 -1.848617494106292725e-01 6.784147024154663086e-02 6.792143732309341431e-02 -5.730785895138978958e-03 -5.301352143287658691e-01 -2.894320785999298096e-01 2.792405784130096436e-01 5.126005038619041443e-02 4.889170527458190918e-01 8.656416833400726318e-02 -1.391092836856842041e-01 -1.807019263505935669e-01 -3.922900855541229248e-01 2.725104987621307373e-01 -2.710415124893188477e-01 -3.869132101535797119e-01 -3.446128368377685547e-01 -4.295059442520141602e-01 -3.185411095619201660e-01 2.734749019145965576e-01 -1.226670891046524048e-01 -2.345324605703353882e-01 2.207934856414794922e-02 -9.704929590225219727e-02 -2.693135738372802734e-01 -1.278758887201547623e-02 -1.502427458763122559e-01 6.542724370956420898e-01 2.577053010463714600e-01 5.052685737609863281e-02 -2.460713982582092285e-01 7.639800198376178741e-03 -2.276438623666763306e-01 -2.688002884387969971e-01 2.600710093975067139e-01 4.230977222323417664e-02 4.629110693931579590e-01 2.277249246835708618e-01 3.340152204036712646e-01 1.747827976942062378e-01 3.605817854404449463e-01 4.590297639369964600e-01
2.769849896430969238e-01 -3.264642357826232910e-01 -2.432741075754165649e-01 1.225317195057868958e-01 -2.006678283214569092e-02 -1.072459891438484192e-01 -1.331064552068710327e-01 -1.971595585346221924e-01 2.550138235092163086e-01 -1.841835081577301025e-01 -4.048270881175994873e-01 -1.743164062500000000e-01 2.078406065702438354e-01 -5.792057514190673828e-01 -3.712506890296936035e-01 7.064116746187210083e-02 4.233993887901306152e-01 -3.181752860546112061e-01 -3.409727811813354492e-01 -1.057189032435417175e-01 5.512701719999313354e-02 3.842185810208320618e-02 -3.557192385196685791e-01 -2.889169147238135338e-03 -2.562507092952728271e-01 -1.766257882118225098e-01 -3.893198668956756592e-01 -4.812657088041305542e-02 -4.292125105857849121e-01 -2.703871130943298340e-01 5.517063662409782410e-02 3.492381796240806580e-02 -9.287516027688980103e-02 -3.084410727024078369e-01 -2.667632400989532471e-01 1.243705600500106812e-01 -1.080837175250053406e-01 -5.384191274642944336e-01 -2.763789147138595581e-02 -3.318751156330108643e-01 2.829304337501525879e-01 -1.088788211345672607e-01 -2.639780938625335693e-01 1.141769066452980042e-02 1.311703585088253021e-02 -3.088911771774291992e-01 -1.824434995651245117e-01 1.194725781679153442e-01 -2.986348569393157959e-01 -3.541027903556823730e-01 5.912652611732482910e-01 3.811711668968200684e-01 -4.784055650234222412e-01 -5.033339858055114746e-01 -1.786019057035446167e-01 -6.994737684726715088e-02 -7.229887694120407104e-02 -3.850893080234527588e-01 -2.441950887441635132e-01 -7.972270250320434570e-01 -3.358219563961029053e-02 -2.406342327594757080e-01 5.614737868309020996e-01 2.005383819341659546e-01 -2.862222790718078613e-01 -3.966301977634429932e-01 -8.347381353378295898e-01 -2.628878057003021240e-01 -1.954466663300991058e-02 -4.310891032218933105e-01 -6.606831680983304977e-03 -4.408110380172729492e-01 -7.657158188521862030e-03 2.602399885654449463e-01 -5.021128654479980469e-01 4.802614450454711914e-01 1.929847598075866699e-01 -1.078689917922019958e-01 -2.330159246921539307e-01 1.610262989997863770e-01 -3.324231877923011780e-02 -1.410458236932754517e-01 1.737329810857772827e-01 -1.125642657279968262e-02 -1.458928734064102173e-01 -2.819620668888092041e-01 2.602573484182357788e-02 3.423111736774444580e-01 -3.422575294971466064e-01 -1.308547407388687134e-01 -7.727485150098800659e-02 -4.602410793304443359e-01 -2.620988488197326660e-01 -2.713167667388916016e-01 -3.719919323921203613e-01 1.455515772104263306e-01 -6.406245827674865723e-01 -4.518376886844635010e-01 -1.202038750052452087e-01 -1.109612658619880676e-01 -1.352359503507614136e-01 -5.497210621833801270e-01 5.154997706413269043e-01 9.441255591809749603e-03 -1.981490291655063629e-02 -3.296893537044525146e-01 -2.777771279215812683e-02 6.960546970367431641e-01 3.391073942184448242e-01 1.900488436222076416e-01 -4.556763768196105957e-01 -6.337055563926696777e-02 1.589579284191131592e-01 -1.344185024499893188e-01 -1.025046482682228088e-01 2.660189988091588020e-03 8.614663779735565186e-02 -3.681236505508422852e-02 -2.068695425987243652e-01 3.717853128910064697e-02 -5.886013433337211609e-02 1.653295941650867462e-02 2.060387097299098969e-02 -5.420104861259460449e-01 -1.306648105382919312e-01 -2.796985954046249390e-02 -2.799171507358551025e-01 3.578989580273628235e-02 -6.446186304092407227e-01 2.942800894379615784e-02 -5.917239785194396973e-01 -3.627065420150756836e-01 -2.121699452400207520e-01 1.856213212013244629e-01 -1.208304762840270996e-01 3.508646190166473389e-01 -6.031244397163391113e-01 -6.040006875991821289e-01 -5.012555047869682312e-03 -3.431929647922515869e-01 3.793852627277374268e-01 -3.636179491877555847e-02 3.432800471782684326e-01 -4.224077463150024414e-01 1.580512076616287231e-01 -8.274433761835098267e-02 -3.443121612071990967e-01 3.260569646954536438e-02 -3.592580184340476990e-02 -1.149803325533866882e-01 -3.641346096992492676e-01 -1.483158171176910400e-01 -7.812213152647018433e-02 -2.668416202068328857e-01 -4.462556242942810059e-01 -2.203958332538604736e-01 -4.805639088153839111e-01 1.281166970729827881e-01 6.569081544876098633e-02 -6.183803454041481018e-02 -6.869922280311584473e-01 1.133825927972793579e-01 -3.259185254573822021e-01 -5.342769026756286621e-01 -4.081422686576843262e-01 4.498354196548461914e-01 -2.310422062873840332e-01 -3.426389694213867188e-01 5.637217760086059570e-01 -8.613608032464981079e-02 5.720647051930427551e-02 1.256060749292373657e-01 -3.225676119327545166e-01 2.005111053586006165e-02 -2.278459072113037109e-01 -1.834419518709182739e-01 5.762405321002006531e-02 -2.328392267227172852e-01 -6.115917563438415527e-01 6.485624909400939941e-01 -1.921373754739761353e-01 -2.503804564476013184e-01 -2.460414618253707886e-01 -8.174881339073181152e-01 -2.074234038591384888e-01 -3.468617796897888184e-01 -3.439439833164215088e-01 -1.287297010421752930e-01 -1.319664809852838516e-02 -2.300727963447570801e-01 -5.829493403434753418e-01 4.964635372161865234e-01 -4.858971834182739258e-01 -3.818649053573608398e-01 -1.590856164693832397e-01 -2.992752492427825928e-01 6.312859058380126953e-02 -2.824229896068572998e-01 -5.501804873347282410e-02 -3.205542862415313721e-01 -5.646317005157470703e-01 -1.011252626776695251e-01 7.137123942375183105e-01 2.756330417469143867e-03 1.890760511159896851e-01 1.942921131849288940e-01 -6.396861672401428223e-01 -3.265446722507476807e-01 -1.783215403556823730e-01 -5.199701189994812012e-01 -1.627977639436721802e-01 -1.128733083605766296e-01 -3.731678128242492676e-01 -9.124904274940490723e-01 5.230502039194107056e-02 -2.197123169898986816e-01 1.322596669197082520e-01 1.494031399488449097e-01 -1.611602604389190674e-01 6.352868676185607910e-02 4.365528374910354614e-02 2.657635807991027832e-01 -4.398234188556671143e-01 1.771426349878311157e-01 -1.662496328353881836e-01 -1.233104467391967773e-01 -2.575960159301757812e-01 -2.237655781209468842e-02 5.067451596260070801e-01 -4.207129776477813721e-02 4.790931940078735352e-01 -5.402082577347755432e-02 -8.802503347396850586e-02 9.946013987064361572e-02 -3.081240952014923096e-01 -2.029792219400405884e-01 -2.615383267402648926e-01 -9.941785037517547607e-02 -3.341170493513345718e-03 9.501484036445617676e-01 -2.095724344253540039e-01 6.502910256385803223e-01 9.489828348159790039e-02 -9.239247441291809082e-01 3.410348296165466309e-02 -2.750025391578674316e-01 3.327330946922302246e-01 -6.133743524551391602e-01 -2.946498394012451172e-01 -3.816664814949035645e-01 6.165624596178531647e-03 -2.692452967166900635e-01 -2.931628935039043427e-02 -2.382221966981887817e-01 -2.102691233158111572e-01 6.251928955316543579e-02
2.333632558584213257e-01 -8.860773593187332153e-02 3.759123384952545166e-01 1.139930784702301025e-01 2.092274464666843414e-02 5.312819480895996094e-01 -7.972845435142517090e-02 1.625817120075225830e-01 -3.673128187656402588e-01 1.126053184270858765e-01 4.249281287193298340e-01 5.001851916313171387e-01 -1.065754219889640808e-01 -1.034278497099876404e-01 -2.842251062393188477e-01 3.091008365154266357e-01 4.270206391811370850e-01 -9.594060480594635010e-02 -3.766792714595794678e-01 8.972302079200744629e-02 -2.932641208171844482e-01 8.767842501401901245e-02 -4.090569913387298584e-01 -1.786568909883499146e-01 7.526203244924545288e-02 2.933162450790405273e-01 1.609765589237213135e-01 2.231987267732620239e-01 -2.772020995616912842e-01 3.354961425065994263e-02 2.863251231610774994e-02 -2.958715856075286865e-01 -3.137297630310058594e-01 2.012943625450134277e-01 1.352585256099700928e-01 -1.093247234821319580e-01 -6.772047877311706543e-01 6.105701997876167297e-02 -2.085512317717075348e-02 1.767673194408416748e-01 -8.184006437659263611e-03 6.781820557080209255e-04 -1.146441623568534851e-01 -3.501371741294860840e-01 2.835038006305694580e-01 1.544626504182815552e-01 -2.656782567501068115e-01 -8.937610685825347900e-02 -1.511181443929672241e-01 -8.500425517559051514e-02 -7.703068549744784832e-04 4.963311553001403809e-01 8.748865127563476562e-02 -1.009672433137893677e-01 2.288166061043739319e-02 -7.649730425328016281e-03 2.611851319670677185e-02 -4.681155085563659668e-01 -3.826153278350830078e-02 -3.790378272533416748e-01 4.749204963445663452e-02 7.301247864961624146e-02 -1.650427132844924927e-01 -2.706367075443267822e-01 -1.070964559912681580e-01 -2.828002870082855225e-01 -5.641018152236938477e-01 5.204095840454101562e-01 -2.120302021503448486e-01 -1.763315685093402863e-02 -2.073028683662414551e-01 2.910087630152702332e-02 -4.050759971141815186e-01 -4.154213964939117432e-01 -5.812742710113525391e-01 3.472120761871337891e-01 9.563788026571273804e-02 -2.826288044452667236e-01 3.080622255802154541e-01 -4.675467610359191895e-01 -2.749681472778320312e-01 -7.645007222890853882e-02 -8.647815883159637451e-02 -2.409268915653228760e-01 6.624472141265869141e-02 -5.657292604446411133e-01 -1.856162846088409424e-01 -8.326674103736877441e-01 -2.238139510154724121e-01 -5.787198543548583984e-01 -1.994091421365737915e-01 -3.074103035032749176e-03 1.220401450991630554e-01 -3.745006024837493896e-01 1.274067312479019165e-01 3.944899737834930420e-01 -1.523299813270568848e-01 -3.261935489717870951e-04 -2.449390739202499390e-01 -2.374127954244613647e-01 3.353868126869201660e-01 -3.919784724712371826e-01 3.785845041275024414e-01 -1.799663901329040527e-01 -2.883774973452091217e-02 -2.731868028640747070e-01 -1.371781080961227417e-01 8.194488286972045898e-02 7.319062352180480957e-01 -9.832012653350830078e-02 -4.406959190964698792e-02 -6.566080451011657715e-01 1.722918897867202759e-01 4.641685783863067627e-01 3.806407330557703972e-04 -6.597474217414855957e-03 -2.797758579254150391e-01 1.605646610260009766e-01 -2.731885910034179688e-01 4.283485710620880127e-01 -3.416530489921569824e-01 -5.836981534957885742e-01 2.782121486961841583e-02 1.977313011884689331e-01 -3.906695842742919922e-01 1.957636475563049316e-01 -4.181763902306556702e-02 1.000300142914056778e-02 -1.080497056245803833e-01 -2.482455223798751831e-01 -5.643700957298278809e-01 -4.800209999084472656e-01 -1.185242533683776855e-01 -4.934169650077819824e-01 2.970983088016510010e-01 2.230889201164245605e-01 3.074294328689575195e-01 -1.600633859634399414e-01 9.129665791988372803e-02 6.049669384956359863e-01 -1.588764972984790802e-02 5.412516593933105469e-01 -7.595387101173400879e-02 3.130774199962615967e-02 5.485736131668090820e-01 -5.210520625114440918e-01 -4.417272210121154785e-01 -3.313788175582885742e-01 5.131989344954490662e-02 -8.245383389294147491e-03 -8.524243533611297607e-02 -2.562521398067474365e-01 -1.213240101933479309e-01 -2.413752228021621704e-01 -3.001115024089813232e-01 -2.532508671283721924e-01 1.575334817171096802e-01 -8.525231480598449707e-02 -1.538793295621871948e-01 5.229773521423339844e-01 -2.151563763618469238e-02 6.645565032958984375e-01 -3.018318712711334229e-01 -1.984305083751678467e-01 -6.028167009353637695e-01 3.403087556362152100e-01 1.558594256639480591e-01 -3.127779960632324219e-01 2.789747416973114014e-01 2.573665380477905273e-01 -2.978244423866271973e-01 1.421522945165634155e-01 -1.492976695299148560e-01 -1.247371360659599304e-01 -1.320364922285079956e-01 3.473076820373535156e-01 -2.301362603902816772e-01 2.536141872406005859e-01 2.201507091522216797e-01 3.266844749450683594e-01 -2.443271130323410034e-01 -4.114950820803642273e-02 -2.921638190746307373e-01 6.775839328765869141e-01 -8.408049494028091431e-02 -2.553965747356414795e-01 3.523249551653862000e-02 1.033561155200004578e-01 -6.761171817779541016e-01 7.754395715892314911e-03 -2.621168494224548340e-01 2.807804644107818604e-01 2.544789910316467285e-01 2.810827642679214478e-02 1.557474136352539062e-01 1.034206002950668335e-01 6.331503391265869141e-01 2.585623264312744141e-01 -4.148317575454711914e-01 1.134516820311546326e-01 -3.885143697261810303e-01 8.052130043506622314e-02 4.273121058940887451e-01 6.235321760177612305e-01 -1.720795929431915283e-01 1.051844879984855652e-01 -6.610839962959289551e-01 9.208224713802337646e-02 -1.777469962835311890e-01 -2.566221654415130615e-01 2.667765021324157715e-01 2.677952051162719727e-01 1.611178517341613770e-01 -1.250061541795730591e-01 -5.331207066774368286e-02 2.412648797035217285e-01 -5.954115465283393860e-02 -2.721099853515625000e-01 -4.365576207637786865e-01 -4.552394449710845947e-01 3.442249596118927002e-01 -2.041674554347991943e-01 -1.809269189834594727e-01 -2.645085155963897705e-01 -2.776948809623718262e-01 -6.408954858779907227e-01 2.596806585788726807e-01 5.331369638442993164e-01 5.139169283211231232e-03 -1.798965483903884888e-01 -6.662568449974060059e-02 -3.894241750240325928e-01 2.608056962490081787e-01 -2.920279279351234436e-02 -2.411449700593948364e-02 -3.536314070224761963e-01 -1.457459777593612671e-01 1.118473485112190247e-01 -3.979451954364776611e-02 3.125496506690979004e-01 1.754985153675079346e-01 1.980725675821304321e-01 3.221082389354705811e-01 -2.958748340606689453e-01 -1.600138247013092041e-01 1.801200509071350098e-01 2.127073258161544800e-01 -1.104809790849685669e-01 -4.528791084885597229e-02 -2.303495407104492188e-01 2.925204932689666748e-01 3.363426327705383301e-01 -2.641860842704772949e-01 1.324954479932785034e-01 7.075898349285125732e-02 3.846402168273925781e-01
-6.083556413650512695e-01 -3.419619426131248474e-02 -1.878937631845474243e-01 -4.379456937313079834e-01 1.652091145515441895e-01 -4.932356178760528564e-01 7.795434445142745972e-02 -4.949111342430114746e-01 7.543147802352905273e-01 5.447699874639511108e-02 -3.718686476349830627e-02 1.104445755481719971e-01 -3.821843266487121582e-01 9.670900553464889526e-02 5.321244001388549805e-01 -3.328663855791091919e-02 -1.610040962696075439e-01 2.015919238328933716e-01 -7.364817857742309570e-01 -2.902976572513580322e-01 2.588763535022735596e-01 -2.202671207487583160e-02 4.667502362281084061e-03 4.114917218685150146e-01 1.884306371212005615e-01 -3.838896751403808594e-02 -1.212518513202667236e-01 2.097681909799575806e-01 4.906852915883064270e-02 -7.666939496994018555e-02 3.273561894893646240e-01 1.899573057889938354e-01 -9.251049906015396118e-02 9.744102507829666138e-02 5.123169720172882080e-02 -1.735040098428726196e-01 -1.811881810426712036e-01 -2.301929593086242676e-01 3.061893880367279053e-01 5.346146225929260254e-02 2.690486907958984375e-01 -3.863763213157653809e-01 3.433739840984344482e-01 -7.610699534416198730e-02 -2.571960538625717163e-02 -1.893324106931686401e-01 -1.518113613128662109e-01 1.862224191427230835e-01 -1.377566950395703316e-03 -3.070224225521087646e-01 5.984141826629638672e-01 7.721198350191116333e-02 3.054377995431423187e-02 -1.205644607543945312e-01 9.288503974676132202e-02 1.261241137981414795e-01 1.711820438504219055e-02 1.977771371603012085e-01 1.221784204244613647e-01 4.114969819784164429e-02 5.485105141997337341e-02 -6.973943114280700684e-01 2.942081093788146973e-01 5.947927013039588928e-02 -6.316159665584564209e-02 -1.255221664905548096e-01 1.508019864559173584e-01 1.005618646740913391e-01 -5.486906319856643677e-02 -2.299225926399230957e-01 -1.767600923776626587e-01 1.130321621894836426e-01 -1.330537255853414536e-02 3.717814683914184570e-01 -6.752969324588775635e-02 -4.080786556005477905e-02 -5.324783548712730408e-02 -7.402329146862030029e-02 -2.719981074333190918e-01 -1.812899261713027954e-01 1.270768344402313232e-01 4.126658141613006592e-01 5.972407460212707520e-01 -2.634997479617595673e-02 -5.776234865188598633e-01 3.107042014598846436e-01 2.222038246691226959e-02 3.470553159713745117e-01 -2.057054638862609863e-01 1.470196843147277832e-01 -4.035426378250122070e-01 6.382019817829132080e-02 -1.375796496868133545e-01 -1.807336695492267609e-02 3.078091442584991455e-01 1.512501835823059082e-01 -3.309811055660247803e-01 -4.855529963970184326e-01 5.049031972885131836e-02 2.817433476448059082e-01 -4.826382696628570557e-01 -7.062195986509323120e-02 4.308497011661529541e-01 -1.956072598695755005e-01 1.569194793701171875e-01 1.116143614053726196e-01 -5.130508169531822205e-02 3.515637665987014771e-02 1.228655651211738586e-01 -1.961423605680465698e-01 -2.252567857503890991e-01 -4.331730902194976807e-01 -1.722471565008163452e-01 4.371131211519241333e-02 3.565120398998260498e-01 -2.669454216957092285e-01 2.056789025664329529e-02 6.991321593523025513e-02 -1.257576495409011841e-01 -2.547664046287536621e-01 3.332938998937606812e-02 1.799410879611968994e-01 1.917729154229164124e-02 -1.381744295358657837e-01 -4.788172841072082520e-01 7.874909788370132446e-02 1.382476240396499634e-01 5.162316560745239258e-01 1.020928546786308289e-01 -2.477813810110092163e-01 1.334376186132431030e-01 1.524833142757415771e-01 -2.012362182140350342e-01 -2.746580541133880615e-01 5.118305683135986328e-01 -5.146673694252967834e-02 -1.891369223594665527e-01 4.239654541015625000e-02 -2.209260761737823486e-01 -9.188935160636901855e-02 1.494471579790115356e-01 -2.374083846807479858e-01 -1.069949567317962646e-01 -2.376024574041366577e-01 -6.835971027612686157e-02 1.955091506242752075e-01 1.894622445106506348e-01 1.939746737480163574e-01 1.921464130282402039e-02 -1.618813723325729370e-01 -1.490018069744110107e-01 2.801174819469451904e-01 -1.101724803447723389e-01 -2.704683877527713776e-02 -1.353910565376281738e-01 4.256384670734405518e-01 -1.954247504472732544e-01 -7.598012685775756836e-02 -1.458346098661422729e-01 -4.467402696609497070e-01 -7.500119209289550781e-01 1.835785061120986938e-01 5.011909827589988708e-02 7.570726424455642700e-02 -8.272835053503513336e-03 -1.444355100393295288e-01 -1.065432280302047729e-01 -2.392165511846542358e-01 -5.056420713663101196e-02 -7.598783373832702637e-01 -1.027024239301681519e-01 2.629511058330535889e-01 2.496881484985351562e-01 -1.433345973491668701e-01 5.465469881892204285e-02 -1.618042439222335815e-01 5.443515181541442871e-01 7.340181618928909302e-02 -4.046110808849334717e-02 5.588952079415321350e-02 4.327549412846565247e-02 -1.601231843233108521e-01 5.619742870330810547e-01 2.805778682231903076e-01 -3.828918561339378357e-02 4.497066736221313477e-01 9.365457296371459961e-02 5.683971196413040161e-02 2.175434529781341553e-01 1.162285730242729187e-01 -3.038032948970794678e-01 1.016726717352867126e-01 -5.849732831120491028e-02 4.177911579608917236e-01 -3.219553455710411072e-02 -3.400515706744045019e-04 -2.874822616577148438e-01 -1.655393838882446289e-01 -1.379370391368865967e-01 -8.583988994359970093e-02 -1.015447750687599182e-01 -3.608465790748596191e-01 2.404498495161533356e-02 -2.634337842464447021e-01 1.304560452699661255e-01 1.419226173311471939e-02 1.025750041007995605e-01 -1.393196433782577515e-01 -4.495408013463020325e-02 -7.123122364282608032e-02 5.434333812445402145e-03 -3.203793764114379883e-01 -5.821699500083923340e-01 1.358614563941955566e-01 5.546049475669860840e-01 -1.264806091785430908e-01 -2.039865404367446899e-02 4.522213339805603027e-01 3.293405100703239441e-02 2.786501646041870117e-01 6.347006559371948242e-02 -3.105668164789676666e-02 3.322369605302810669e-02 2.985153496265411377e-01 -2.293698340654373169e-01 5.620855838060379028e-02 3.760226964950561523e-01 -1.184180602431297302e-01 1.658575236797332764e-01 1.888474971055984497e-01 -2.843191325664520264e-01 4.837872982025146484e-01 4.167013764381408691e-01 2.347974032163619995e-01 -5.306031927466392517e-02 2.751131951808929443e-01 -3.532825708389282227e-01 -8.154191821813583374e-02 3.638933598995208740e-01 3.180377483367919922e-01 4.435423016548156738e-02 -2.513381540775299072e-01 1.862950772047042847e-01 -3.558536469936370850e-01 -7.490713149309158325e-02 -7.027421891689300537e-02 2.411230504512786865e-01 2.017925381660461426e-01 4.841134548187255859e-01 3.409679532051086426e-01 -1.139781251549720764e-02 2.867732644081115723e-01 -3.396032005548477173e-02 -2.469125390052795410e-01 9.572937153279781342e-03 3.033581078052520752e-01
3.586291372776031494e-01 -1.027105972170829773e-01 9.738120436668395996e-02 -4.566947221755981445e-01 4.130859673023223877e-02 3.185639977455139160e-01 1.691171973943710327e-01 -7.881417125463485718e-02 5.891622900962829590e-01 4.197259619832038879e-02 -1.921541243791580200e-01 9.880509972572326660e-02 1.304057091474533081e-01 -1.005237177014350891e-01 2.170314081013202667e-02 -2.477780580520629883e-01 -7.203758228570222855e-03 1.073288694024085999e-01 -2.370188683271408081e-01 -4.739159718155860901e-02 -2.446997538208961487e-02 -1.094237640500068665e-01 2.030329108238220215e-01 1.759958267211914062e-01 5.150524154305458069e-02 -4.721304774284362793e-02 -1.121339946985244751e-01 -4.784124791622161865e-01 -2.745223939418792725e-01 1.170264407992362976e-01 1.220908761024475098e-01 8.267582207918167114e-02 -2.121109813451766968e-01 -5.470266938209533691e-01 1.565308570861816406e-01 2.326798141002655029e-01 -3.234358131885528564e-01 -5.047960877418518066e-01 5.929024815559387207e-01 6.696368008852005005e-02 1.130326315760612488e-01 3.145737648010253906e-01 -2.661485373973846436e-01 -9.889232367277145386e-02 -3.173098862171173096e-01 -9.071280807256698608e-02 -4.276048839092254639e-01 -6.687852554023265839e-03 -3.798411414027214050e-02 1.925230920314788818e-01 -1.350121498107910156e-01 4.603322967886924744e-02 1.761072129011154175e-01 2.929919064044952393e-01 2.229337990283966064e-01 -7.940682768821716309e-02 -1.266937255859375000e-01 -1.828025877475738525e-01 -1.380799263715744019e-01 -1.219334453344345093e-01 -2.549750804901123047e-01 -2.909483388066291809e-02 9.170997142791748047e-02 2.053378969430923462e-01 -8.356442302465438843e-02 3.524736166000366211e-01 2.415612041950225830e-01 5.873524397611618042e-02 -1.057007536292076111e-01 -3.614421784877777100e-01 -5.453836917877197266e-01 -1.856471598148345947e-01 1.711143925786018372e-02 -1.879986226558685303e-01 1.538826078176498413e-01 -4.816428944468498230e-02 1.334061920642852783e-01 -8.078895509243011475e-02 1.660856008529663086e-01 -8.482904732227325439e-02 -1.108899191021919250e-01 6.024174392223358154e-02 1.908803433179855347e-01 -4.581619501113891602e-01 -5.507713556289672852e-02 -1.037139594554901123e-01 -2.191119343042373657e-01 1.675096452236175537e-01 2.596724331378936768e-01 2.516172826290130615e-01 8.651699125766754150e-02 -4.324213266372680664e-01 1.200634017586708069e-01 7.827463001012802124e-02 4.524419307708740234e-01 -1.348396390676498413e-01 1.709490567445755005e-01 -1.676274389028549194e-01 3.748291730880737305e-02 1.892804801464080811e-01 4.207769781351089478e-02 1.437786519527435303e-01 -1.931288242340087891e-01 1.711251139640808105e-01 2.674460113048553467e-01 5.948192998766899109e-02 1.234732940793037415e-02 1.636212691664695740e-02 -6.140047311782836914e-02 -1.527825742959976196e-01 -1.958495527505874634e-01 5.550829321146011353e-02 3.056561108678579330e-03 -1.583693176507949829e-01 3.482941091060638428e-01 3.377369344234466553e-01 -2.239421755075454712e-01 4.113150537014007568e-01 1.987975090742111206e-01 -3.567911386489868164e-01 1.641077399253845215e-01 4.773781597614288330e-01 6.382920593023300171e-02 -3.192774057388305664e-01 -2.931111492216587067e-02 8.625307679176330566e-02 1.663149595260620117e-01 1.379570662975311279e-01 1.480555236339569092e-01 -3.232941329479217529e-01 1.914139986038208008e-01 8.235584199428558350e-02 3.482955396175384521e-01 -1.374946534633636475e-01 1.464251726865768433e-01 -2.180228382349014282e-01 -2.088767439126968384e-01 2.218532413244247437e-01 3.481447994709014893e-01 -1.683512181043624878e-01 2.320257872343063354e-01 4.690023884177207947e-02 1.589527875185012817e-01 -1.710814684629440308e-01 -2.312302291393280029e-01 2.265707254409790039e-01 3.520491123199462891e-01 -1.822949498891830444e-01 -2.202744968235492706e-02 -3.858423829078674316e-01 -1.472446918487548828e-01 -1.014479771256446838e-01 -1.336074918508529663e-01 -3.298182785511016846e-01 1.129468977451324463e-01 -3.832373768091201782e-02 -2.949483394622802734e-01 1.110828667879104614e-01 2.455780059099197388e-01 -1.433387249708175659e-01 -9.151519089937210083e-02 -3.019264638423919678e-01 -2.630287706851959229e-01 8.884553611278533936e-02 -1.643575876951217651e-01 -1.043592169880867004e-01 -2.038875520229339600e-01 1.462648808956146240e-01 3.838531672954559326e-01 -1.773691326379776001e-01 -2.572593688964843750e-01 -2.866823673248291016e-01 1.895607858896255493e-01 4.292371869087219238e-02 -1.060906648635864258e-01 -2.699957787990570068e-01 -5.042145252227783203e-01 4.229946136474609375e-01 2.652921676635742188e-01 -1.871961802244186401e-01 -3.707977235317230225e-01 -2.087283879518508911e-01 -1.907288283109664917e-01 4.803352057933807373e-02 -2.103860378265380859e-01 1.516733616590499878e-01 2.794291973114013672e-01 -1.057896018028259277e-02 -5.948006291873753071e-04 4.458892345428466797e-01 9.565289318561553955e-02 2.689137756824493408e-01 -1.896521896123886108e-01 -7.226136326789855957e-02 5.779616162180900574e-02 1.219326853752136230e-01 1.259414702653884888e-01 1.437631547451019287e-01 -3.313561901450157166e-03 -2.950821816921234131e-01 1.180715858936309814e-02 2.285813540220260620e-01 1.557025760412216187e-01 -3.518138453364372253e-02 -1.913290321826934814e-01 -1.789924688637256622e-02 1.311187297105789185e-01 2.428029030561447144e-01 1.923831701278686523e-01 -8.059126138687133789e-02 -1.473108772188425064e-02 7.147298008203506470e-02 1.826624572277069092e-01 2.677186429500579834e-01 1.675996035337448120e-01 1.958083659410476685e-01 3.640181124210357666e-01 1.751852333545684814e-01 -2.140059620141983032e-01 3.695332631468772888e-02 9.271941334009170532e-02 1.596406400203704834e-01 3.664803504943847656e-01 -4.488323349505662918e-03 8.100857585668563843e-02 1.195666864514350891e-01 -2.954037487506866455e-01 -6.135406494140625000e-01 2.340745180845260620e-01 3.026060461997985840e-01 3.211463093757629395e-01 -4.824826121330261230e-01 -2.247951179742813110e-01 -1.510106474161148071e-01 1.006147339940071106e-01 -1.838511228561401367e-02 1.523764282464981079e-01 -1.260640174150466919e-01 -2.543585002422332764e-01 1.523745954036712646e-01 2.926930487155914307e-01 -4.999553859233856201e-01 3.049334883689880371e-01 9.844654239714145660e-03 -2.643852531909942627e-01 2.202520668506622314e-01 1.297196745872497559e-01 -4.152502715587615967e-01 -6.781682837754487991e-03 3.783108294010162354e-01 1.290287673473358154e-01 5.147359967231750488e-01 1.772640198469161987e-01 8.511393517255783081e-02 -1.268074149265885353e-03 -2.686119377613067627e-01
2.975458800792694092e-01 2.009741514921188354e-01 -2.483187988400459290e-02 6.787774711847305298e-02 -4.692740365862846375e-02 3.787294030189514160e-02 1.398952007293701172e-01 -6.211461126804351807e-02 -5.481041073799133301e-01 -1.430543363094329834e-01 -5.668278411030769348e-02 -2.686439752578735352e-01 -3.061017394065856934e-01 -1.928060315549373627e-02 1.946155130863189697e-01 1.634340584278106689e-01 -7.841546833515167236e-02 3.309412598609924316e-01 1.896911300718784332e-02 5.536374449729919434e-01 2.219675630331039429e-01 -3.348674625158309937e-02 1.639700233936309814e-01 3.598860502243041992e-01 -1.063682138919830322e-01 -3.673142194747924805e-01 -1.720129698514938354e-01 2.857519388198852539e-01 -2.059286832809448242e-01 9.173059836030006409e-03 -1.891661882400512695e-01 -1.650821119546890259e-01 -2.741149067878723145e-01 -2.856034338474273682e-01 -1.192630305886268616e-01 -5.894443988800048828e-01 1.915586441755294800e-01 -3.541418015956878662e-01 4.308041632175445557e-01 -4.424332678318023682e-01 2.555433511734008789e-01 2.575207352638244629e-01 5.419278740882873535e-01 1.128725707530975342e-01 6.815520673990249634e-02 9.910334646701812744e-02 -3.097446076571941376e-02 2.897294163703918457e-01 3.921777009963989258e-01 -2.972295880317687988e-01 -3.036374449729919434e-01 7.994266226887702942e-03 -1.712287515401840210e-01 -1.085903681814670563e-02 3.399161994457244873e-01 -2.217143923044204712e-01 2.313134223222732544e-01 4.100433290004730225e-01 -1.137025058269500732e-01 1.509880870580673218e-01 -1.051155943423509598e-02 -2.600622363388538361e-02 -2.825270891189575195e-01 -5.508829951286315918e-01 4.866327643394470215e-01 -1.236970648169517517e-01 2.005294114351272583e-01 8.310579508543014526e-02 -2.336656004190444946e-01 -6.831806898117065430e-02 -5.452737808227539062e-01 2.054371386766433716e-01 -1.801243401132524014e-03 -1.516491919755935669e-02 -9.075457602739334106e-02 3.511176705360412598e-01 -9.634801745414733887e-02 -2.107607573270797729e-01 7.194335758686065674e-02 3.642316162586212158e-01 -1.022883057594299316e-01 2.454102933406829834e-01 -2.118579894304275513e-01 -5.918658524751663208e-02 -1.773677468299865723e-01 2.513064444065093994e-01 8.414160460233688354e-02 -1.002253741025924683e-01 1.568620502948760986e-01 -2.320077270269393921e-01 5.602464824914932251e-02 2.270959168672561646e-01 4.892405867576599121e-01 3.933679684996604919e-02 6.240541115403175354e-02 -1.831066608428955078e-01 -1.969790607690811157e-01 1.741921901702880859e-01 -3.168963491916656494e-01 -2.661120593547821045e-01 -1.023581158369779587e-02 3.177732229232788086e-01 -1.583900600671768188e-01 -4.887899160385131836e-01 4.440930485725402832e-02 3.476002812385559082e-01 -1.751522123813629150e-01 -5.154114365577697754e-01 -1.454163342714309692e-01 -3.851236104965209961e-01 -4.361750185489654541e-02 -1.626971215009689331e-01 -3.857509195804595947e-01 -1.134177297353744507e-01 -3.646018505096435547e-01 -4.441116750240325928e-01 -6.597651541233062744e-02 -3.733740001916885376e-02 -3.318172097206115723e-01 -5.920588970184326172e-01 2.793265506625175476e-02 4.914255440235137939e-01 -1.929958909749984741e-01 4.742571327369660139e-04 9.795422852039337158e-02 -3.307502483949065208e-03 -4.622502326965332031e-01 -1.568531692028045654e-01 -2.390672713518142700e-01 5.499687790870666504e-02 5.625925585627555847e-02 -5.649616196751594543e-02 -3.902925923466682434e-02 -5.996700841933488846e-03 6.325328722596168518e-03 1.394112855195999146e-01 2.457846105098724365e-01 1.363306194543838501e-01 4.063560068607330322e-01 2.308535873889923096e-01 -2.209031432867050171e-01 -1.203964203596115112e-01 -1.592062115669250488e-01 -4.601569473743438721e-02 -2.541798055171966553e-01 1.419038772583007812e-01 -5.074883345514535904e-03 3.670986890792846680e-01 -1.564180701971054077e-01 -4.819345474243164062e-02 4.411650896072387695e-01 3.148131370544433594e-01 -1.315063387155532837e-01 2.174282670021057129e-01 -8.179432898759841919e-02 1.679033488035202026e-01 -3.495531976222991943e-01 -2.713484466075897217e-01 -2.268120646476745605e-01 3.107188045978546143e-01 7.726487517356872559e-02 2.354117184877395630e-01 1.804729178547859192e-02 -1.738120764493942261e-01 2.482840269804000854e-01 -6.077992916107177734e-01 -1.082044765353202820e-01 1.982796937227249146e-01 3.511722981929779053e-01 -9.247614443302154541e-02 -9.522586315870285034e-02 -1.542944088578224182e-02 -3.434800729155540466e-02 -1.810613274574279785e-01 -2.821143269538879395e-01 -6.794106215238571167e-02 -2.814923822879791260e-01 -3.666382133960723877e-01 -1.400873512029647827e-01 -3.486332893371582031e-01 -2.063690871000289917e-01 -1.932490617036819458e-01 -2.391273379325866699e-01 6.443098932504653931e-02 1.830645352602005005e-01 3.347694128751754761e-02 4.839821904897689819e-02 3.717243373394012451e-01 1.181357949972152710e-01 9.179621189832687378e-02 -6.327643245458602905e-02 1.787346154451370239e-01 2.863130271434783936e-01 -2.442965954542160034e-01 4.763323441147804260e-02 -4.064931347966194153e-02 -3.311263918876647949e-01 -1.893414855003356934e-01 -3.530649244785308838e-01 1.426929831504821777e-01 -8.693768829107284546e-02 -7.764314115047454834e-02 -1.794431805610656738e-01 1.607959270477294922e-01 -2.890854179859161377e-01 -2.650933712720870972e-02 1.098275408148765564e-01 -3.071198165416717529e-01 3.455289825797080994e-02 -1.672420203685760498e-01 -2.103475481271743774e-02 1.343025416135787964e-01 -9.814486652612686157e-02 3.924256563186645508e-02 -6.992717739194631577e-03 -6.091707348823547363e-01 4.930321872234344482e-02 -2.520479261875152588e-01 -1.236080974340438843e-01 3.224726617336273193e-01 -4.804499913007020950e-03 2.488267421722412109e-01 3.520791884511709213e-03 6.550693511962890625e-02 -1.962060928344726562e-01 -3.686582669615745544e-02 4.693053290247917175e-02 -1.876854747533798218e-01 -1.511679589748382568e-01 1.226461231708526611e-01 -5.121857523918151855e-01 -7.549250125885009766e-02 4.337945580482482910e-01 -3.976548314094543457e-01 -1.869174540042877197e-01 1.481996923685073853e-01 3.611189499497413635e-02 5.407691374421119690e-02 -1.318855285644531250e-01 -3.210474848747253418e-01 -1.396334022283554077e-01 -4.042877554893493652e-01 -1.762538105249404907e-01 1.040176153182983398e-01 2.630664780735969543e-02 -5.918011814355850220e-02 -6.651342660188674927e-02 6.766463071107864380e-02 1.885729283094406128e-01 -6.728582084178924561e-02 -2.615846693515777588e-03 -1.524630337953567505e-01 -5.579181313514709473e-01 -1.271921247243881226e-01 5.946820601820945740e-02 -2.717359662055969238e-01
1.130759567022323608e-01 -2.662418782711029053e-01 3.047145605087280273e-01 -2.466464191675186157e-01 -2.892204523086547852e-01 -2.553534805774688721e-01 -5.205378532409667969e-01 2.145631760358810425e-01 2.492904290556907654e-02 7.247848808765411377e-02 -2.470855861902236938e-01 -1.012608259916305542e-01 -2.000806331634521484e-01 6.013620644807815552e-02 -6.409180164337158203e-01 -3.326528668403625488e-01 7.405327558517456055e-01 -1.277627330273389816e-02 -2.598643004894256592e-01 1.264600604772567749e-01 2.393156141042709351e-01 1.566055268049240112e-01 1.659531742334365845e-01 1.714663393795490265e-02 -2.579972445964813232e-01 -4.454476758837699890e-02 -2.932286262512207031e-01 -1.934695541858673096e-01 9.314937144517898560e-02 -1.676252186298370361e-01 2.635295689105987549e-02 -3.228211402893066406e-01 7.377280294895172119e-02 -4.855090975761413574e-01 1.451636664569377899e-02 2.138793468475341797e-02 -3.092482686042785645e-01 -7.888613641262054443e-02 2.645351588726043701e-01 1.197269111871719360e-01 -3.284877166152000427e-02 2.280012518167495728e-01 1.228476911783218384e-01 2.439835518598556519e-01 2.125577330589294434e-01 -9.728528559207916260e-02 -2.760683596134185791e-01 -2.030749171972274780e-01 -9.444209188222885132e-02 -8.435023576021194458e-02 1.435859035700559616e-02 -5.515484884381294250e-02 -1.916597783565521240e-01 -2.029414847493171692e-02 5.685048922896385193e-02 -1.624268591403961182e-01 -6.349603086709976196e-02 -1.303955018520355225e-01 -6.450176239013671875e-02 -4.443920776247978210e-02 8.837289363145828247e-02 1.173808425664901733e-01 3.275936543941497803e-01 -4.568203985691070557e-01 -1.671868264675140381e-01 -1.207506936043500900e-02 4.300398752093315125e-02 -1.915236413478851318e-01 2.833571732044219971e-01 4.013862311840057373e-01 -1.957551985979080200e-01 -1.247303783893585205e-01 -5.460133552551269531e-01 3.882148861885070801e-01 3.847154229879379272e-02 3.836583495140075684e-01 9.161536395549774170e-02 -1.398047804832458496e-01 1.122448891401290894e-01 -2.229306548833847046e-01 -3.288609683513641357e-01 2.478110939264297485e-01 -1.415812820196151733e-01 -3.880367875099182129e-01 -2.687205374240875244e-01 -1.699372529983520508e-01 5.977458953857421875e-01 -1.361863315105438232e-01 -2.413168102502822876e-01 -1.547999680042266846e-01 -4.665599390864372253e-02 -9.743740409612655640e-02 1.328276544809341431e-01 -1.346698775887489319e-02 -3.749841451644897461e-01 2.770755439996719360e-02 -3.234526216983795166e-01 -2.208595909178256989e-02 -1.239554882049560547e-01 -3.277091681957244873e-01 1.006663218140602112e-01 -3.725973963737487793e-01 3.356812000274658203e-01 -1.261777617037296295e-02 2.537646703422069550e-02 4.104661643505096436e-01 8.433364331722259521e-02 2.556843161582946777e-01 -2.225638180971145630e-01 -5.685262680053710938e-01 -3.491066396236419678e-02 4.196387827396392822e-01 -3.893730044364929199e-01 -1.260464638471603394e-01 3.716017901897430420e-01 3.255614638328552246e-01 -1.635939031839370728e-01 1.414711922407150269e-01 -3.179575800895690918e-01 4.390068352222442627e-02 -3.584848642349243164e-01 -3.331018090248107910e-01 9.569494426250457764e-02 8.124165236949920654e-03 -7.721216976642608643e-02 1.533617973327636719e-01 -3.250009715557098389e-01 5.056135728955268860e-02 -5.758737400174140930e-02 -4.076477289199829102e-01 -2.048912644386291504e-02 -3.833402097225189209e-01 8.383674174547195435e-02 6.733106076717376709e-02 -4.062245190143585205e-01 2.067932784557342529e-01 -1.042670458555221558e-01 -2.460184544324874878e-01 1.863986253738403320e-01 4.005970805883407593e-02 1.933248490095138550e-01 4.330999553203582764e-01 3.158144056797027588e-01 -7.616496831178665161e-02 1.787071377038955688e-01 9.683047235012054443e-02 -4.294423460960388184e-01 -4.320876598358154297e-01 7.291708886623382568e-02 -2.287573218345642090e-01 -9.690069407224655151e-02 -2.734656929969787598e-01 -2.278082817792892456e-02 -2.170206606388092041e-01 -1.821789294481277466e-01 3.241685330867767334e-01 -2.875714600086212158e-01 -5.542464852333068848e-01 -1.697752475738525391e-01 3.090104460716247559e-01 -1.968019604682922363e-01 4.189529716968536377e-01 8.550965040922164917e-02 -9.292785078287124634e-02 2.114538550376892090e-01 3.982971012592315674e-01 -1.156351640820503235e-01 -3.515538275241851807e-01 -2.604691982269287109e-01 -3.732202351093292236e-01 -1.197718232870101929e-01 2.212290279567241669e-02 1.509140338748693466e-02 5.287615954875946045e-02 3.324602171778678894e-02 4.616707861423492432e-01 -2.869502902030944824e-01 -1.382953375577926636e-01 1.486395895481109619e-01 -7.657740265130996704e-02 4.623688012361526489e-02 -6.785733997821807861e-02 -4.855867102742195129e-02 2.879923582077026367e-01 -1.674345731735229492e-01 -4.913377389311790466e-02 -1.579959541559219360e-01 2.538999915122985840e-01 -1.422856003046035767e-03 3.484443128108978271e-01 -2.660313844680786133e-01 -2.869013249874114990e-01 -1.809909194707870483e-02 -2.830797433853149414e-02 -2.249240726232528687e-01 -2.441347241401672363e-01 -5.378751158714294434e-01 2.736403644084930420e-01 2.481743395328521729e-01 -1.342347078025341034e-02 -2.853867784142494202e-02 -5.352891609072685242e-02 2.498245388269424438e-01 8.372862637042999268e-02 5.713064074516296387e-01 9.527126699686050415e-02 -3.389748632907867432e-01 -5.806468725204467773e-01 2.364086359739303589e-02 -6.887774914503097534e-02 2.934609055519104004e-01 3.082526028156280518e-01 -1.247782260179519653e-01 -1.522131413221359253e-01 -3.166023194789886475e-01 -2.682963013648986816e-01 4.627269133925437927e-02 -4.841708764433860779e-02 -2.271912097930908203e-01 -1.237149536609649658e-02 -6.504511088132858276e-02 -3.187003135681152344e-01 1.600102037191390991e-01 -5.607147142291069031e-02 -5.150650739669799805e-01 4.055550992488861084e-01 -1.547618210315704346e-01 5.718946456909179688e-01 -1.716118305921554565e-01 1.086386442184448242e-01 3.512096777558326721e-02 1.292980760335922241e-01 2.271055728197097778e-01 1.594143509864807129e-01 -8.844681084156036377e-02 -4.348176717758178711e-02 8.736722171306610107e-02 -2.371014468371868134e-02 -4.341015815734863281e-01 -4.906664416193962097e-02 -1.262660920619964600e-01 1.176995411515235901e-01 1.297842264175415039e-01 1.787965558469295502e-02 -1.377592831850051880e-01 -9.706711769104003906e-02 5.536615103483200073e-02 -4.058557748794555664e-01 -3.694664239883422852e-01 6.213927268981933594e-02 -4.081241786479949951e-02 3.880103528499603271e-01 3.745471686124801636e-02 -4.265151172876358032e-02 3.086251318454742432e-01 -2.830863557755947113e-02
2.673011422157287598e-01 2.607278525829315186e-01 -2.060672193765640259e-01 -3.461977243423461914e-01 1.717868745326995850e-01 2.041859924793243408e-01 -4.079984426498413086e-01 -3.131148517131805420e-01 -2.350032478570938110e-01 -8.304529786109924316e-01 -4.495440721511840820e-01 -6.114599108695983887e-01 -2.754179835319519043e-01 -7.054830789566040039e-01 -1.343739628791809082e-01 1.430048644542694092e-01 -2.201617658138275146e-01 -2.348172515630722046e-01 -9.965107776224613190e-03 3.006068170070648193e-01 -6.616545915603637695e-01 1.226829737424850464e-01 -9.701196849346160889e-02 -1.629672013223171234e-02 -9.880076348781585693e-02 -2.852552831172943115e-01 -2.162065505981445312e-01 -3.043712973594665527e-01 -9.972532093524932861e-02 -6.092351675033569336e-01 8.982560597360134125e-03 1.980563253164291382e-01 3.295045718550682068e-02 -3.720001876354217529e-01 -4.125586152076721191e-01 -3.363080322742462158e-01 -3.444505631923675537e-01 4.553523957729339600e-01 -2.149383872747421265e-01 1.621121889911592007e-03 -2.838265001773834229e-01 1.852307319641113281e-01 -6.520650386810302734e-01 -1.095960959792137146e-01 -3.403132855892181396e-01 -9.928925894200801849e-03 -1.038129925727844238e-01 -3.839814066886901855e-01 -2.045175582170486450e-01 2.934223413467407227e-01 -2.317895889282226562e-01 1.374887861311435699e-02 -5.777248144149780273e-01 -1.887656301259994507e-01 4.591028094291687012e-01 -3.262603282928466797e-01 -7.445240020751953125e-02 -4.729640781879425049e-01 -4.564744532108306885e-01 -1.875137239694595337e-01 -1.199517864733934402e-02 1.369501557201147079e-02 -1.173754930496215820e-01 -2.267170399427413940e-01 -3.796154558658599854e-01 -1.777990758419036865e-01 6.414186358451843262e-01 -2.664346992969512939e-01 5.831379294395446777e-01 -3.232441544532775879e-01 -3.843327164649963379e-01 -8.303328752517700195e-01 -1.090248450636863708e-01 -3.791665434837341309e-01 9.252578020095825195e-02 8.358055353164672852e-01 1.859596185386180878e-02 -2.674837410449981689e-01 2.969048172235488892e-02 -1.439359933137893677e-01 -2.678179442882537842e-01 -9.286849498748779297e-01 2.302971631288528442e-01 7.510753870010375977e-01 3.216087222099304199e-01 -1.911786943674087524e-01 -6.583966612815856934e-01 1.650117337703704834e-01 1.611361205577850342e-01 -3.108662366867065430e-01 -4.122395515441894531e-01 -1.828575730323791504e-01 -1.419580727815628052e-01 -8.266760706901550293e-01 -2.061296701431274414e-01 -1.059825420379638672e-01 1.700610294938087463e-02 -7.277597188949584961e-01 -2.111801207065582275e-01 -3.973048627376556396e-01 2.979501783847808838e-01 -4.279633462429046631e-01 -2.406993955373764038e-01 -3.019548356533050537e-01 -6.068640947341918945e-01 -1.837560236454010010e-01 -5.165314078330993652e-01 -2.591900120023638010e-04 -2.849753499031066895e-01 6.025421246886253357e-02 -3.868008852005004883e-01 -2.688758261501789093e-02 1.318871378898620605e-01 5.730997323989868164e-01 5.600989237427711487e-02 -1.902047544717788696e-01 -3.450123071670532227e-01 -4.183244109153747559e-01 -3.158736824989318848e-01 2.255121171474456787e-01 -6.108853220939636230e-01 -9.145744144916534424e-02 3.951872512698173523e-02 -5.224226713180541992e-01 -4.576059579849243164e-01 -1.147993877530097961e-01 -3.584767878055572510e-01 -1.383316963911056519e-01 2.571325600147247314e-01 -1.929285824298858643e-01 -2.759945094585418701e-01 2.368069291114807129e-01 1.540879160165786743e-02 1.551906205713748932e-02 -2.169824838638305664e-01 2.693070471286773682e-01 -4.617120325565338135e-01 -5.313450098037719727e-01 -2.931925356388092041e-01 -2.779904939234256744e-02 2.552938163280487061e-01 1.570214629173278809e-01 4.773604869842529297e-01 -4.053273797035217285e-01 -1.662953048944473267e-01 2.218765765428543091e-01 -1.811529546976089478e-01 -1.400839388370513916e-01 5.535760428756475449e-03 -4.395128190517425537e-01 -4.332778751850128174e-01 -5.799592733383178711e-01 -2.410776615142822266e-01 -4.950670003890991211e-01 -1.135358307510614395e-02 -4.188750982284545898e-01 3.580221533775329590e-01 -2.777414917945861816e-01 -7.942561060190200806e-02 -1.326416581869125366e-01 -2.428310364484786987e-02 2.332860380411148071e-01 -8.564586937427520752e-02 -3.187931180000305176e-01 -2.110224068164825439e-01 2.135805338621139526e-01 -5.855613350868225098e-01 2.823120355606079102e-01 3.578415140509605408e-02 9.172520041465759277e-02 3.854984641075134277e-01 4.543264955282211304e-02 -2.042622119188308716e-01 -1.679003536701202393e-01 -1.060995459556579590e-01 -4.173262119293212891e-01 -3.214786946773529053e-01 -2.174430638551712036e-01 3.577225282788276672e-02 5.385458469390869141e-01 7.523170113563537598e-02 3.425677716732025146e-01 -4.854617118835449219e-01 -4.395633935928344727e-01 -6.353552639484405518e-02 -5.257262587547302246e-01 -7.376074790954589844e-01 -1.685196459293365479e-01 -2.913030236959457397e-02 -6.309939920902252197e-02 -4.777954518795013428e-01 1.830869764089584351e-01 -5.365827083587646484e-01 -1.151826456189155579e-01 -3.364560306072235107e-01 -5.419306159019470215e-01 2.729355394840240479e-01 4.903159439563751221e-01 1.938607245683670044e-01 8.648201823234558105e-03 -2.257554531097412109e-01 2.912203669548034668e-01 4.947160482406616211e-01 5.212562680244445801e-01 2.480881959199905396e-01 -4.694792628288269043e-01 -2.093243449926376343e-01 -2.499377876520156860e-01 -7.883127778768539429e-02 -3.730712234973907471e-01 -1.041519343852996826e-01 -4.174538850784301758e-01 2.013536542654037476e-01 -1.144613884389400482e-02 -2.656298577785491943e-01 -9.759858995676040649e-02 -4.384787082672119141e-01 -3.356913030147552490e-01 -1.719295233488082886e-01 8.280967362225055695e-03 -6.349558830261230469e-01 -5.179192125797271729e-02 -7.583057158626616001e-04 -2.656844854354858398e-01 -1.313368976116180420e-02 6.123545169830322266e-01 2.825560867786407471e-01 -1.767843365669250488e-01 -2.257984504103660583e-02 -6.917528510093688965e-01 -2.100664190948009491e-02 -2.864110171794891357e-01 -5.128906369209289551e-01 3.404160439968109131e-01 -9.296952188014984131e-02 -3.698793947696685791e-01 -2.783719897270202637e-01 6.526125222444534302e-02 -1.906044185161590576e-01 -1.604026407003402710e-01 1.239500641822814941e-01 1.632135063409805298e-01 -1.733456552028656006e-01 2.323599308729171753e-01 -4.834598004817962646e-01 -5.712264776229858398e-01 -3.409953117370605469e-01 -5.699170008301734924e-02 1.875417232513427734e-01 -9.704310297966003418e-01 4.916347861289978027e-01 -7.281121015548706055e-01 4.512855112552642822e-01 2.214015871286392212e-01 -4.379068613052368164e-01 -4.488056898117065430e-01
7.155387997627258301e-01 2.327994257211685181e-01 1.917327344417572021e-01 -5.674408078193664551e-01 4.131342843174934387e-02 2.588708996772766113e-01 2.781073153018951416e-01 2.984857261180877686e-01 -6.502003669738769531e-01 2.005717717111110687e-02 3.457972109317779541e-01 4.327720701694488525e-01 6.018106937408447266e-01 -7.323307991027832031e-01 -5.533192157745361328e-01 6.769574284553527832e-01 -2.884044945240020752e-01 -2.772749364376068115e-01 3.187544345855712891e-01 3.844473659992218018e-01 1.210515275597572327e-01 1.786967813968658447e-01 -1.265526264905929565e-01 -4.454017579555511475e-01 2.330874651670455933e-01 -1.510755866765975952e-01 5.825288295745849609e-01 2.021328657865524292e-01 -2.210831344127655029e-01 -2.263704538345336914e-01 8.652938902378082275e-02 -4.906975030899047852e-01 -4.087950289249420166e-02 -1.203030496835708618e-01 3.186917901039123535e-01 -1.918664127588272095e-01 -4.934566840529441833e-02 4.658838510513305664e-01 3.039935529232025146e-01 1.426796168088912964e-01 -4.264045506715774536e-02 9.913469851016998291e-02 2.691043615341186523e-01 -2.130527049303054810e-01 3.744631409645080566e-01 1.536862552165985107e-01 1.445500850677490234e-01 -7.043479681015014648e-01 -5.103871226310729980e-01 -4.057385623455047607e-01 2.893454134464263916e-01 -1.217791214585304260e-01 -4.250420257449150085e-02 -2.645288705825805664e-01 4.633827805519104004e-01 2.730769813060760498e-01 2.776802778244018555e-01 -2.892312109470367432e-01 -6.506593823432922363e-01 -9.028927981853485107e-02 9.581242799758911133e-01 -6.692191213369369507e-02 3.258778750896453857e-01 -5.467126965522766113e-01 3.517654240131378174e-01 -1.427282094955444336e-01 -1.729475706815719604e-01 5.119142532348632812e-01 5.765707492828369141e-01 -3.796923533082008362e-02 4.909396544098854065e-02 -1.948891580104827881e-01 1.240400299429893494e-01 -3.341430425643920898e-02 -6.057316064834594727e-01 1.139886230230331421e-01 -5.775442346930503845e-03 -3.555060029029846191e-01 1.297916769981384277e-01 1.871167123317718506e-02 1.303568035364151001e-01 1.160253062844276428e-01 -3.606520295143127441e-01 1.170520782470703125e-01 3.526141941547393799e-01 -2.142389267683029175e-01 1.464011669158935547e-01 -1.662697456777095795e-02 9.284843504428863525e-02 1.651774942874908447e-01 7.092290371656417847e-02 -4.001361131668090820e-01 8.883976191282272339e-02 -4.409653842449188232e-01 2.969013452529907227e-01 2.382559329271316528e-01 -4.773787856101989746e-01 -9.653847664594650269e-02 -3.525075614452362061e-01 -7.606276124715805054e-02 5.169964432716369629e-01 -4.225923120975494385e-01 6.737917661666870117e-01 3.548807203769683838e-01 3.661075830459594727e-01 -1.506966501474380493e-01 3.592571318149566650e-01 4.936736077070236206e-02 5.690785050392150879e-01 -5.570660531520843506e-02 3.312361240386962891e-01 -1.241622194647789001e-01 4.513230025768280029e-01 8.146464079618453979e-02 1.057432293891906738e-01 2.218559831380844116e-01 -7.511205971240997314e-02 2.248607575893402100e-01 1.950029167346656322e-03 -1.610199213027954102e-01 -3.044186532497406006e-01 -8.446422815322875977e-01 2.711393237113952637e-01 2.939261123538017273e-02 3.482386469841003418e-01 6.556755304336547852e-02 -2.039118856191635132e-01 -1.668277382850646973e-02 3.183302655816078186e-02 -5.345371365547180176e-01 -3.488281369209289551e-01 -1.886646002531051636e-01 -4.295621216297149658e-01 5.185742974281311035e-01 -3.627229034900665283e-01 -7.957295179367065430e-01 3.285762071609497070e-01 3.453826308250427246e-01 9.661748073995113373e-03 1.532667726278305054e-01 2.604375183582305908e-01 2.505331635475158691e-01 1.177106350660324097e-01 3.006577491760253906e-01 5.903280377388000488e-01 4.685003161430358887e-01 -5.402159094810485840e-01 1.578376144170761108e-01 4.395192489027976990e-02 -2.998349368572235107e-01 8.310934901237487793e-02 -1.387981772422790527e-01 2.428626567125320435e-01 3.238862156867980957e-01 -3.658226728439331055e-01 -7.928225398063659668e-01 -1.326950043439865112e-01 2.190820276737213135e-01 -1.327578537166118622e-02 2.267111688852310181e-01 1.864710450172424316e-01 6.100811362266540527e-01 -5.413325130939483643e-02 -2.079613506793975830e-01 -5.233533978462219238e-01 6.896724104881286621e-01 2.883431613445281982e-01 5.352032184600830078e-01 1.327106952667236328e-01 1.216093972325325012e-01 -1.299019157886505127e-02 1.914895325899124146e-02 3.327587246894836426e-01 4.166114330291748047e-01 -6.553409099578857422e-01 1.469558924436569214e-01 4.772704243659973145e-01 4.516729712486267090e-01 3.507240414619445801e-01 8.403095602989196777e-02 1.464572250843048096e-01 -9.001669287681579590e-01 -5.074893832206726074e-01 2.280914485454559326e-01 4.607231616973876953e-01 -1.714252233505249023e-01 6.289664506912231445e-01 -1.252118945121765137e-01 1.541249454021453857e-01 8.092440664768218994e-02 -3.652248084545135498e-01 6.363512277603149414e-01 3.214789927005767822e-01 -7.021172046661376953e-01 5.719406604766845703e-01 -5.362291261553764343e-02 1.417078673839569092e-01 -3.339552581310272217e-01 -3.288642168045043945e-01 2.107827663421630859e-01 -5.762491822242736816e-01 1.752727776765823364e-01 7.414593100547790527e-01 -3.790761232376098633e-01 1.448595970869064331e-01 1.410817056894302368e-01 -3.962614834308624268e-01 4.874924123287200928e-01 2.167255133390426636e-01 -2.292165011167526245e-01 7.751899957656860352e-01 4.564157500863075256e-02 -3.639178872108459473e-01 2.548137120902538300e-02 8.156219124794006348e-02 1.155383139848709106e-01 -3.714264929294586182e-02 -2.383873797953128815e-02 8.079739660024642944e-02 -2.398526370525360107e-01 -1.950297206640243530e-01 4.806385040283203125e-01 -4.803969860076904297e-01 2.554323077201843262e-01 1.228447537869215012e-02 2.532484829425811768e-01 1.410833150148391724e-01 2.386744767427444458e-01 4.566992819309234619e-01 -1.073388159275054932e-01 2.723800241947174072e-01 -2.393071651458740234e-01 -4.417064040899276733e-02 3.399549126625061035e-01 -8.831501007080078125e-02 -1.411427110433578491e-01 2.422613203525543213e-01 -1.536747999489307404e-02 5.697837099432945251e-02 -8.492036722600460052e-03 -3.730328679084777832e-01 2.855420410633087158e-01 -2.771210074424743652e-01 6.158452853560447693e-02 -2.010475695133209229e-01 6.195444986224174500e-02 5.907109472900629044e-03 3.439694643020629883e-01 3.734834194183349609e-01 -2.162401974201202393e-01 -1.187322214245796204e-01 7.411578893661499023e-01 7.096643745899200439e-02 2.235658615827560425e-01 2.950286865234375000e-01 6.742733120918273926e-01
-2.687292695045471191e-01 5.009602010250091553e-02 -2.016533762216567993e-01 3.458657264709472656e-01 6.132973358035087585e-02 1.733447462320327759e-01 -2.325828745961189270e-02 3.090971522033214569e-02 -3.286665380001068115e-01 2.207519263029098511e-01 -1.243296712636947632e-01 2.431515753269195557e-01 -2.898288965225219727e-01 7.099730521440505981e-02 4.503942430019378662e-01 -1.410584803670644760e-02 2.909230627119541168e-02 8.200936764478683472e-02 -2.011129856109619141e-01 1.861679106950759888e-01 1.184663847088813782e-01 3.823563158512115479e-01 2.665454149246215820e-01 -7.638043910264968872e-02 3.742386400699615479e-01 -2.458138018846511841e-01 -3.314963579177856445e-01 -5.811391025781631470e-02 -4.031557589769363403e-02 1.908648759126663208e-01 8.362928032875061035e-02 -3.345567882061004639e-01 2.091105878353118896e-01 -3.066611588001251221e-01 1.055522263050079346e-01 -4.015414714813232422e-01 9.000227600336074829e-02 -1.696151047945022583e-01 1.554785668849945068e-01 -6.016790270805358887e-01 1.053972318768501282e-01 -2.204949110746383667e-01 1.943288594484329224e-01 1.189477927982807159e-02 -1.123517099767923355e-02 -4.188062846660614014e-01 9.939561784267425537e-02 -1.002384275197982788e-01 -1.254877448081970215e-01 -3.482813537120819092e-01 3.128556311130523682e-01 -2.579911947250366211e-01 1.805946417152881622e-02 -1.282791197299957275e-01 1.326014399528503418e-01 1.011825427412986755e-01 -4.407904297113418579e-02 1.242613941431045532e-01 2.528132498264312744e-01 -3.029528260231018066e-01 1.115237846970558167e-01 -1.667716801166534424e-01 1.845868378877639771e-01 -1.913706064224243164e-01 -1.205120757222175598e-01 -3.134158551692962646e-01 -2.056504040956497192e-01 -5.953432619571685791e-02 -3.031355440616607666e-01 -3.999668657779693604e-01 -1.228006854653358459e-01 2.297619432210922241e-01 -2.955703064799308777e-02 2.142666094005107880e-02 -1.285164952278137207e-01 -4.093046486377716064e-01 -2.636313736438751221e-01 -2.437535226345062256e-01 -1.803390532732009888e-01 9.944129735231399536e-02 -1.971869468688964844e-01 1.030980572104454041e-01 -1.821154356002807617e-01 -2.322933077812194824e-02 1.992810517549514771e-01 -3.935321271419525146e-01 -1.985369026660919189e-01 -9.961757808923721313e-02 -4.520622491836547852e-01 -2.308487333357334137e-02 2.058666013181209564e-02 1.858422905206680298e-01 2.518618404865264893e-01 9.447893500328063965e-02 -5.410980060696601868e-02 1.396079957485198975e-01 -1.711395978927612305e-01 -1.320335268974304199e-01 5.038970708847045898e-01 -1.175243780016899109e-01 -3.764803409576416016e-01 -3.218533992767333984e-01 4.422278106212615967e-01 3.239918351173400879e-01 1.297924816608428955e-01 1.014304384589195251e-01 -2.459994703531265259e-01 9.367286413908004761e-02 4.117965698242187500e-01 -3.305510878562927246e-01 2.417144626379013062e-01 -9.526462107896804810e-02 -4.316786304116249084e-02 2.578865587711334229e-01 2.619106769561767578e-01 -1.725381910800933838e-01 5.858169794082641602e-01 -3.121919035911560059e-01 1.003910750150680542e-01 -1.770274192094802856e-01 -2.426895499229431152e-01 1.226133201271295547e-02 1.555508375167846680e-01 -6.147554144263267517e-02 9.455461800098419189e-02 3.980484902858734131e-01 8.338907500728964806e-04 5.104154348373413086e-01 -1.405344437807798386e-02 1.954642385244369507e-01 -1.540201306343078613e-01 1.329310387372970581e-01 -2.671905159950256348e-01 2.038532048463821411e-01 5.016631484031677246e-01 1.693560034036636353e-01 -3.102539293467998505e-02 1.736221462488174438e-01 -6.130904704332351685e-02 4.297582060098648071e-02 -1.709640771150588989e-01 -1.312880963087081909e-01 3.638269603252410889e-01 4.842267930507659912e-02 -2.724857926368713379e-01 2.359520196914672852e-01 -2.037008106708526611e-01 3.106626272201538086e-01 1.235956922173500061e-01 9.273616969585418701e-02 3.509009778499603271e-01 1.920894235372543335e-01 1.364334225654602051e-01 1.291729658842086792e-01 2.350069135427474976e-01 3.861345052719116211e-01 -4.864366352558135986e-01 -1.004752051085233688e-02 2.181582897901535034e-01 -3.812327384948730469e-01 -5.056176185607910156e-01 -9.786728024482727051e-02 -1.689853817224502563e-01 3.300450444221496582e-01 2.850860916078090668e-02 -1.404350847005844116e-01 -7.552267983555793762e-03 -3.105058073997497559e-01 3.192556202411651611e-01 -3.342771828174591064e-01 -5.143591165542602539e-01 -6.762062758207321167e-02 9.673681855201721191e-02 -1.418778300285339355e-01 -3.623701632022857666e-01 2.057395875453948975e-01 -2.136964201927185059e-01 -4.540095627307891846e-01 7.716978341341018677e-02 3.757232427597045898e-01 -4.715356626547873020e-04 9.130249917507171631e-02 5.189268663525581360e-02 2.100398205220699310e-02 2.399273067712783813e-01 4.893301799893379211e-02 8.922092616558074951e-02 -4.791826307773590088e-01 -5.594881772994995117e-01 4.727120399475097656e-01 1.299484819173812866e-01 -1.072153896093368530e-01 -2.265115082263946533e-01 1.170407794415950775e-02 -2.873530983924865723e-01 -4.361033737659454346e-01 -2.868970632553100586e-01 -3.577763140201568604e-01 -1.211813092231750488e-01 5.522180199623107910e-01 7.245242595672607422e-02 -8.272089809179306030e-02 3.485611379146575928e-01 -4.384330213069915771e-01 5.134051442146301270e-01 4.992111027240753174e-01 -1.589893102645874023e-01 -5.042447149753570557e-02 1.190182939171791077e-01 5.017880722880363464e-02 -5.329843163490295410e-01 -3.248907625675201416e-02 -3.179408609867095947e-01 -8.143522590398788452e-02 1.960697025060653687e-01 -1.046158745884895325e-01 -1.306949406862258911e-01 1.761572211980819702e-01 4.269190430641174316e-01 1.329617500305175781e-01 -6.052921712398529053e-02 -5.915144458413124084e-02 -1.344588547945022583e-01 3.628134727478027344e-01 -3.823712766170501709e-01 2.401522593572735786e-03 3.651646375656127930e-01 -5.612978935241699219e-01 2.621572315692901611e-01 2.187330275774002075e-02 -4.348744451999664307e-01 1.755380481481552124e-01 7.099951803684234619e-02 -4.247821569442749023e-01 -1.486540138721466064e-01 -7.996588200330734253e-02 -8.492854237556457520e-02 -2.369859665632247925e-01 9.862477332353591919e-02 3.202548921108245850e-01 -1.140992790460586548e-01 -1.454189270734786987e-01 2.675965428352355957e-01 -5.352677106857299805e-01 1.920790225267410278e-01 3.034355938434600830e-01 3.182892501354217529e-01 -6.379728913307189941e-01 3.698178753256797791e-02 1.895932704210281372e-01 2.489476352930068970e-01 -8.341550827026367188e-02 -4.464390501379966736e-02 -1.914902031421661377e-01 -9.023914486169815063e-02 1.188676431775093079e-01
-5.263749361038208008e-01 -2.348845638334751129e-02 1.707663089036941528e-01 -2.039744406938552856e-01 1.252902299165725708e-01 -2.610455453395843506e-01 -2.399394363164901733e-01 1.506208628416061401e-01 -3.257296085357666016e-01 -1.442679166793823242e-01 2.680259384214878082e-02 5.750285927206277847e-03 -2.137790322303771973e-01 -8.207473903894424438e-03 -1.167071759700775146e-01 -2.442986331880092621e-02 8.478915691375732422e-02 -2.296541184186935425e-01 -8.529219031333923340e-02 5.559559538960456848e-02 -1.597698181867599487e-01 3.839466720819473267e-02 4.913432151079177856e-02 -2.235481142997741699e-01 -8.013350516557693481e-02 3.511543571949005127e-01 2.473805248737335205e-01 7.140482217073440552e-02 4.194737225770950317e-02 -2.077407902106642723e-03 -1.254204660654067993e-02 1.495143026113510132e-01 -1.739454716444015503e-01 1.720030754804611206e-01 1.395927683915942907e-04 9.144857525825500488e-02 -6.732746493071317673e-03 1.345118731260299683e-01 4.414514824748039246e-02 -2.438992857933044434e-01 -3.404510319232940674e-01 -1.068160384893417358e-01 -8.622357994318008423e-02 -1.110867485404014587e-01 2.108621150255203247e-01 -3.705271705985069275e-02 3.633403778076171875e-01 4.885347485542297363e-01 -1.656608283519744873e-01 -4.596146196126937866e-02 1.575510017573833466e-02 1.689089089632034302e-01 -2.435670197010040283e-01 2.585830390453338623e-01 3.480276167392730713e-01 -2.067421972751617432e-01 4.983595013618469238e-01 2.553137838840484619e-01 1.000318676233291626e-01 2.190619409084320068e-01 3.904920816421508789e-02 -4.191792309284210205e-01 2.117216587066650391e-01 -7.556967437267303467e-02 -1.557275801897048950e-01 -3.750293254852294922e-01 1.321894675493240356e-01 1.552665233612060547e-01 3.087186999619007111e-02 3.015606105327606201e-01 -2.006981819868087769e-01 -2.659644782543182373e-01 1.918336600065231323e-01 1.983168721199035645e-01 4.270705953240394592e-02 -1.662229895591735840e-01 1.819646358489990234e-02 -2.372161597013473511e-01 1.043589189648628235e-01 -3.216650187969207764e-01 -2.097838521003723145e-01 -1.985012553632259369e-03 1.495373994112014771e-01 1.348142921924591064e-01 4.359675943851470947e-01 -4.171795397996902466e-02 1.916843354701995850e-01 7.649897038936614990e-02 -3.043315112590789795e-01 -6.812668591737747192e-02 4.721976816654205322e-01 4.014532268047332764e-01 -1.242334321141242981e-01 1.379308104515075684e-01 1.213835552334785461e-01 -3.879411220550537109e-01 1.207196041941642761e-01 -8.777671307325363159e-02 -2.000191211700439453e-01 -1.017876788973808289e-01 -2.479294538497924805e-01 -3.329156041145324707e-01 1.943559795618057251e-01 1.455188635736703873e-02 -2.310086786746978760e-01 -2.347185164690017700e-01 8.903782814741134644e-02 1.931317299604415894e-01 -4.670295715332031250e-01 1.082788035273551941e-01 5.765219777822494507e-02 6.955439690500497818e-03 1.482052654027938843e-01 3.198375105857849121e-01 -1.602511554956436157e-01 8.393345028162002563e-02 -1.066355779767036438e-01 -3.001239709556102753e-02 -8.137186616659164429e-02 -3.090002574026584625e-02 -5.159869790077209473e-01 -1.497341692447662354e-01 6.233913451433181763e-02 2.257819622755050659e-01 -2.399148941040039062e-01 -1.679730229079723358e-02 -1.592419296503067017e-01 2.640441358089447021e-01 -1.233671233057975769e-01 -4.705953598022460938e-02 -1.141748204827308655e-01 -1.155766546726226807e-01 4.103734493255615234e-01 -9.661377966403961182e-02 -1.550545841455459595e-01 -1.689255833625793457e-01 6.770097464323043823e-02 -1.358176618814468384e-01 3.945684134960174561e-01 1.031239181756973267e-01 -3.379123210906982422e-01 -3.006091117858886719e-01 5.007462203502655029e-02 1.821733713150024414e-01 -8.485977351665496826e-02 1.345019042491912842e-01 -1.116997934877872467e-02 -3.663362562656402588e-01 -1.176408007740974426e-01 8.603385090827941895e-02 -1.267089992761611938e-01 -1.670766174793243408e-01 1.633800119161605835e-01 8.409232646226882935e-02 4.569928944110870361e-01 -4.892065376043319702e-02 -5.764044076204299927e-02 9.350140579044818878e-03 4.007802903652191162e-01 7.529185712337493896e-02 2.651275992393493652e-01 2.955476343631744385e-01 -8.653859049081802368e-02 1.505849063396453857e-01 -2.237550914287567139e-01 -2.908313870429992676e-01 2.251979261636734009e-01 -2.218051850795745850e-01 -3.218288719654083252e-01 5.305795073509216309e-01 -6.646560132503509521e-02 1.887467950582504272e-01 -7.384648174047470093e-02 2.733034268021583557e-02 -2.280710637569427490e-02 1.346802562475204468e-01 3.241179287433624268e-01 -1.458925157785415649e-01 -2.168692797422409058e-01 3.980764374136924744e-02 2.751970887184143066e-01 2.056521326303482056e-01 1.101193279027938843e-01 2.763930261135101318e-01 -2.481337338685989380e-01 3.330533206462860107e-01 -5.897197872400283813e-02 -8.557865396142005920e-03 6.511883437633514404e-02 -2.192734479904174805e-01 -2.748622596263885498e-01 -1.349359303712844849e-01 1.553484797477722168e-01 -6.705388426780700684e-02 2.289200574159622192e-01 -2.670358419418334961e-01 -1.810466349124908447e-01 -2.119482681155204773e-02 3.646757006645202637e-01 1.861605793237686157e-01 1.300798505544662476e-01 -1.123733222484588623e-01 -1.984789967536926270e-03 -2.278423160314559937e-01 2.246668376028537750e-02 -9.221778810024261475e-02 8.620753884315490723e-02 1.754421740770339966e-02 -3.762596473097801208e-02 -5.721063539385795593e-02 1.055445894598960876e-01 1.581846922636032104e-02 -1.905395686626434326e-01 1.352557986974716187e-01 -1.180733889341354370e-01 1.119439080357551575e-01 1.744893938302993774e-01 -9.898209571838378906e-02 2.028805762529373169e-01 -2.463871687650680542e-01 -7.832901179790496826e-02 -3.756636381149291992e-01 -3.950877487659454346e-01 -3.268021643161773682e-01 -3.470245003700256348e-01 6.580160558223724365e-02 1.600621044635772705e-01 2.165478765964508057e-01 -2.901505529880523682e-01 -1.416089385747909546e-01 -1.300617819651961327e-03 3.239843547344207764e-01 -1.461504697799682617e-01 -3.309424966573715210e-02 9.851733222603797913e-03 -2.452465295791625977e-01 3.151127696037292480e-02 3.416702523827552795e-02 -1.036544293165206909e-01 -1.640173345804214478e-01 8.959594182670116425e-03 3.741801157593727112e-02 2.544448375701904297e-01 -9.187404811382293701e-02 -3.140371739864349365e-01 -2.541354596614837646e-01 -4.199546203017234802e-02 -2.637362182140350342e-01 -2.066499143838882446e-01 1.105032954365015030e-02 -1.661990955471992493e-02 -2.536379396915435791e-01 -1.174762099981307983e-01 2.390219271183013916e-01 1.411653012037277222e-01 1.955365762114524841e-02
-2.124159187078475952e-01 -8.391842246055603027e-02 -3.783765435218811035e-01 5.899046659469604492e-01 -3.346355855464935303e-01 -3.103988468647003174e-01 3.960136771202087402e-01 -3.780691698193550110e-02 1.050928514450788498e-02 2.483069449663162231e-01 -1.840415447950363159e-01 -1.492773592472076416e-01 -3.181099593639373779e-01 3.391073644161224365e-02 1.474617272615432739e-01 2.808559536933898926e-01 1.449606865644454956e-01 -3.232562914490699768e-02 3.396703600883483887e-01 -2.005952596664428711e-01 -2.175996899604797363e-01 -3.352040052413940430e-01 1.956251449882984161e-02 -2.316593006253242493e-02 8.567675948143005371e-03 -9.440056234598159790e-02 1.619776338338851929e-01 -2.078799754381179810e-01 1.592014133930206299e-01 -1.479956805706024170e-01 1.800064295530319214e-01 3.126163184642791748e-01 -2.983816713094711304e-02 -6.206125766038894653e-02 3.275559544563293457e-01 -3.332847356796264648e-01 6.140250563621520996e-01 -3.691949546337127686e-01 -4.733540713787078857e-01 -1.909827440977096558e-01 1.954057514667510986e-01 -1.448339074850082397e-01 1.792605668306350708e-01 -1.752075701951980591e-01 3.165791928768157959e-01 -2.961703203618526459e-02 2.473360002040863037e-01 1.075261458754539490e-02 -4.241473674774169922e-01 6.186924129724502563e-02 3.376849740743637085e-02 3.206318914890289307e-01 -4.545762017369270325e-02 -6.465844064950942993e-02 -2.948573827743530273e-01 6.027841940522193909e-02 4.969277381896972656e-01 -4.159465432167053223e-01 -2.915689721703529358e-02 9.741061925888061523e-02 1.071307808160781860e-01 -1.314913202077150345e-02 1.164388563483953476e-02 5.685455203056335449e-01 -2.339693158864974976e-02 -8.003388345241546631e-02 -2.020777463912963867e-01 -4.529045149683952332e-02 -4.302171468734741211e-01 1.682948470115661621e-01 2.616057991981506348e-01 1.958862841129302979e-01 -5.944079719483852386e-03 -1.727705597877502441e-01 1.924279332160949707e-01 1.329129785299301147e-01 -1.621283963322639465e-02 4.652323126792907715e-01 1.753724962472915649e-01 4.126275479793548584e-01 -4.931930825114250183e-02 -2.068119794130325317e-01 -6.148468703031539917e-02 -1.912096887826919556e-01 1.428243070840835571e-01 -4.142595529556274414e-01 -7.406970113515853882e-02 4.358849227428436279e-01 2.420812547206878662e-01 2.621615491807460785e-02 9.102907776832580566e-02 5.536820366978645325e-02 1.034383550286293030e-01 -6.064089387655258179e-02 -3.876582905650138855e-02 3.839333057403564453e-01 9.649000316858291626e-02 2.122920602560043335e-01 -2.482532709836959839e-01 1.543433517217636108e-01 5.862435325980186462e-02 9.944438934326171875e-02 -3.839609026908874512e-01 -4.976658821105957031e-01 3.905941247940063477e-01 -2.905368804931640625e-01 4.719401895999908447e-02 4.989575743675231934e-01 4.042728543281555176e-01 -3.182626664638519287e-01 3.408058583736419678e-01 -8.151553571224212646e-02 5.580015182495117188e-01 3.955984711647033691e-01 4.561546742916107178e-01 -2.793171107769012451e-01 2.079586237668991089e-01 1.884755045175552368e-01 2.695171348750591278e-02 -1.628455072641372681e-01 2.657000906765460968e-02 -1.613205671310424805e-01 9.213665127754211426e-02 -1.858475208282470703e-01 -3.772111535072326660e-01 2.385538369417190552e-01 -2.653964161872863770e-01 2.833792865276336670e-01 -1.024172455072402954e-01 6.478351950645446777e-01 -4.931712150573730469e-01 5.206343159079551697e-02 5.458819270133972168e-01 2.182504683732986450e-01 3.868315815925598145e-01 1.849381327629089355e-01 3.107541799545288086e-01 -3.421822190284729004e-01 3.059278428554534912e-01 -2.006216198205947876e-01 -2.190966755151748657e-01 -1.394218206405639648e-01 5.191023945808410645e-01 -3.022527992725372314e-01 1.213572472333908081e-01 1.329206824302673340e-01 5.722351074218750000e-01 -1.179732829332351685e-01 5.223853886127471924e-02 -1.072946637868881226e-01 -3.756313771009445190e-02 8.862879872322082520e-02 3.505218327045440674e-01 2.974727451801300049e-01 -1.885928958654403687e-01 -4.309143722057342529e-01 2.364792861044406891e-02 -1.371866166591644287e-01 -3.339477777481079102e-01 2.057419717311859131e-02 5.036668479442596436e-02 -3.291769325733184814e-01 2.217858331277966499e-03 -8.245054632425308228e-03 -1.076739877462387085e-01 -3.617449402809143066e-01 -9.627684205770492554e-02 -1.549800038337707520e-01 2.646642327308654785e-01 -1.551510095596313477e-01 -6.503982096910476685e-02 1.849654316902160645e-02 7.165288180112838745e-02 -5.014032125473022461e-02 3.838723897933959961e-01 -3.863719999790191650e-01 1.195602938532829285e-01 3.412010967731475830e-01 4.152173995971679688e-01 -1.137584075331687927e-01 -4.018453657627105713e-01 6.183978319168090820e-01 3.724885880947113037e-01 -1.566403955221176147e-01 -1.607547998428344727e-01 1.677266210317611694e-01 -3.085747063159942627e-01 1.202316433191299438e-01 -1.448985636234283447e-01 -1.355396658182144165e-01 1.297172904014587402e-01 2.006164491176605225e-01 1.508566141128540039e-01 1.834744513034820557e-01 -2.029820531606674194e-01 6.730030179023742676e-01 5.440306067466735840e-01 3.644787967205047607e-01 6.665160655975341797e-01 4.169871211051940918e-01 1.196676045656204224e-01 9.154359996318817139e-02 -4.475220441818237305e-01 -1.281968355178833008e-01 -2.120261490345001221e-01 3.671165704727172852e-01 2.876623868942260742e-01 4.142936468124389648e-01 1.494169831275939941e-01 -6.369456648826599121e-02 3.006616532802581787e-01 -2.385905832052230835e-01 5.415469408035278320e-02 6.573063135147094727e-01 3.103926777839660645e-01 -1.873516738414764404e-01 -1.846179813146591187e-01 1.762847602367401123e-01 2.734786272048950195e-01 5.067099332809448242e-01 3.214765489101409912e-01 -7.121855765581130981e-02 9.343440830707550049e-02 -1.107483506202697754e-01 5.138884782791137695e-01 -3.377142846584320068e-01 4.731080830097198486e-01 -3.507836759090423584e-01 5.596855878829956055e-01 -1.333196908235549927e-01 3.199774771928787231e-02 5.416156053543090820e-01 -2.198855727910995483e-01 -1.668943464756011963e-01 8.621325343847274780e-02 3.917284905910491943e-01 -1.652251183986663818e-01 9.737047553062438965e-02 6.853071451187133789e-01 -1.142991557717323303e-01 -1.809119135141372681e-01 -3.187664747238159180e-01 2.743960022926330566e-01 4.213869944214820862e-02 4.408867359161376953e-01 -1.639853268861770630e-01 1.124306544661521912e-01 1.807247549295425415e-01 5.487937927246093750e-01 7.075512409210205078e-02 -3.042710423469543457e-01 -2.408816963434219360e-01 -4.309575259685516357e-02 -8.574400842189788818e-02 1.085218228399753571e-02 -2.319003492593765259e-01
2.484577149152755737e-01 9.842131286859512329e-02 2.851516939699649811e-02 -1.657932251691818237e-02 -4.635488688945770264e-01 -3.758541345596313477e-01 2.173874974250793457e-01 -3.704313337802886963e-01 1.965298056602478027e-01 -3.972780108451843262e-01 -1.770655661821365356e-01 1.670962125062942505e-01 -1.339716166257858276e-01 7.992440462112426758e-02 1.920027434825897217e-01 2.219007760286331177e-01 1.700439453125000000e-01 -1.974528469145298004e-02 -1.483156085014343262e-01 -3.156378865242004395e-02 6.461344361305236816e-01 2.412306219339370728e-01 5.994260683655738831e-02 -4.375158548355102539e-01 -3.497256040573120117e-01 -1.687293797731399536e-01 -4.759971052408218384e-03 -2.126286029815673828e-01 -4.056278765201568604e-01 -7.813636958599090576e-02 2.069078534841537476e-01 -4.302210807800292969e-01 8.842127770185470581e-02 -1.398184448480606079e-01 -1.324097365140914917e-01 1.807439327239990234e-01 1.369527280330657959e-01 -7.206675410270690918e-02 -1.247194409370422363e-01 4.014522582292556763e-02 1.288623958826065063e-01 4.719456657767295837e-02 -6.818287819623947144e-02 8.883777260780334473e-02 1.371487081050872803e-01 -2.362247258424758911e-01 -5.818536505103111267e-02 2.608896698802709579e-03 4.276519268751144409e-02 -2.700920104980468750e-01 2.165719121694564819e-01 9.057532995939254761e-03 1.389700770378112793e-01 -3.494694828987121582e-02 -2.200810909271240234e-01 7.361298054456710815e-02 -7.303301244974136353e-02 2.747513353824615479e-02 3.025162816047668457e-01 8.187734335660934448e-02 2.930081486701965332e-01 2.391757965087890625e-01 -2.547100372612476349e-02 -2.785036563873291016e-01 4.517687559127807617e-01 6.941312551498413086e-02 5.167930945754051208e-02 -3.852798789739608765e-02 -4.860862195491790771e-01 4.644169211387634277e-01 -6.696451306343078613e-01 3.114203810691833496e-01 4.067596793174743652e-02 -1.465723812580108643e-01 -6.355993449687957764e-02 9.539958089590072632e-02 -5.447540879249572754e-01 -2.287207394838333130e-01 5.497546792030334473e-01 2.165620326995849609e-01 3.795712292194366455e-01 2.750363349914550781e-01 2.975391745567321777e-01 2.407891601324081421e-01 -2.987177371978759766e-01 -6.110070273280143738e-02 -3.556998819112777710e-02 -6.931690871715545654e-02 1.562930345535278320e-01 2.300695925951004028e-01 2.288138568401336670e-01 -9.336111694574356079e-02 4.715598374605178833e-02 2.123571187257766724e-01 2.155537530779838562e-02 4.283964037895202637e-01 -5.007092952728271484e-01 -6.719940155744552612e-02 -4.112979471683502197e-01 -2.015918195247650146e-01 1.055751964449882507e-01 1.405893266201019287e-01 3.203699290752410889e-01 5.754271149635314941e-01 3.546526432037353516e-01 -1.429438143968582153e-01 1.788150668144226074e-01 -5.025486275553703308e-02 2.136772871017456055e-01 2.552659809589385986e-01 -2.674697041511535645e-01 -2.693854272365570068e-01 2.667821478098630905e-03 -1.809176057577133179e-01 5.106612443923950195e-01 2.371179908514022827e-01 4.027407765388488770e-01 -1.379809528589248657e-01 3.459436818957328796e-02 -5.139355659484863281e-01 2.230547368526458740e-01 6.543639302253723145e-02 -6.374748051166534424e-02 -2.607730925083160400e-01 9.857194870710372925e-02 -4.554888978600502014e-02 -1.676793098449707031e-01 8.506604284048080444e-02 -2.083917856216430664e-01 -3.962245583534240723e-01 -1.608343124389648438e-01 -7.470912486314773560e-02 -5.804395675659179688e-01 -6.917065382003784180e-02 1.206325590610504150e-01 4.686427414417266846e-01 -3.350857496261596680e-01 -1.290708780288696289e-01 3.328433334827423096e-01 1.851385086774826050e-01 4.436122179031372070e-01 -8.263194561004638672e-02 -2.041631489992141724e-01 3.028008341789245605e-01 2.059854120016098022e-01 -9.847224503755569458e-02 2.764563858509063721e-01 -2.053301185369491577e-01 -1.422603428363800049e-01 5.483957473188638687e-03 1.469644010066986084e-01 4.326972663402557373e-01 -5.371030047535896301e-02 -1.465914025902748108e-02 3.463979065418243408e-02 -7.608540356159210205e-02 7.713560014963150024e-02 2.037996985018253326e-02 -3.689562678337097168e-01 -2.318611741065979004e-01 1.886368691921234131e-01 -3.692804872989654541e-01 4.114486277103424072e-01 -3.143695294857025146e-01 1.490875892341136932e-02 2.967594750225543976e-02 1.070998907089233398e-01 1.438571978360414505e-02 1.679607182741165161e-01 6.403390765190124512e-01 1.979281008243560791e-01 -6.149935070425271988e-03 7.142949849367141724e-02 -9.753338992595672607e-02 2.329813987016677856e-01 -4.326945543289184570e-02 -2.206377685070037842e-01 -3.034104965627193451e-02 1.448865234851837158e-01 -7.951441407203674316e-02 -2.632906436920166016e-01 -3.333914577960968018e-01 5.527953803539276123e-02 1.784693896770477295e-01 -2.114536315202713013e-01 -3.193862736225128174e-01 -1.115280985832214355e-01 -6.044039875268936157e-02 2.542992532253265381e-01 -1.258515864610671997e-01 -9.584327042102813721e-02 3.505452275276184082e-01 1.150483936071395874e-01 -1.821348667144775391e-01 -1.510840207338333130e-01 3.195501267910003662e-01 -2.221734970808029175e-01 1.546359658241271973e-01 -2.185603380203247070e-01 2.855154685676097870e-02 -3.034872710704803467e-01 -1.692891716957092285e-01 -4.012146890163421631e-01 1.732759475708007812e-01 1.060799807310104370e-01 1.531613320112228394e-01 3.574614524841308594e-01 3.858552873134613037e-01 4.353848695755004883e-01 -1.411835402250289917e-01 -8.374274522066116333e-02 -1.413802355527877808e-01 -5.751110315322875977e-01 2.415467798709869385e-02 -2.620099484920501709e-01 -2.617606334388256073e-02 4.050083756446838379e-01 7.471051216125488281e-01 1.969942599534988403e-01 2.275814861059188843e-01 -1.142264828085899353e-01 -2.658704519271850586e-01 -3.608383610844612122e-02 1.619558781385421753e-01 -6.253094226121902466e-02 1.793072074651718140e-01 -1.895403861999511719e-01 -3.965463638305664062e-01 2.433164864778518677e-01 3.201477527618408203e-01 3.778069317340850830e-01 1.945478022098541260e-01 -4.674018546938896179e-02 -3.342032134532928467e-01 8.487451076507568359e-02 1.655517891049385071e-02 9.159117192029953003e-02 6.517565995454788208e-02 1.371589899063110352e-01 1.197991296648979187e-01 -5.393038988113403320e-01 7.036652415990829468e-02 5.468569397926330566e-01 9.319924749433994293e-03 8.487052470445632935e-02 8.823923021554946899e-02 -3.768680244684219360e-02 2.538955807685852051e-01 4.014623165130615234e-01 6.379733234643936157e-02 3.742130398750305176e-01 -2.822996973991394043e-01 3.380546867847442627e-01 -5.069296360015869141e-01 1.515809893608093262e-01 -1.159392222762107849e-01
