3.171595046296715736e-03 -2.043327130377292633e-02 -6.646041292697191238e-03 6.648088805377483368e-03 2.382184145972132683e-03 2.609064977150410414e-04 -8.881612680852413177e-03 4.551106132566928864e-03 -1.463490352034568787e-02 8.056490682065486908e-03 -7.111046463251113892e-03 1.482184510678052902e-02 -2.749536884948611259e-03 -9.775565704330801964e-04 1.884497329592704773e-02 -7.353108376264572144e-04 -9.726928547024726868e-03 -8.498480543494224548e-03 -1.226742402650415897e-03 8.063171990215778351e-03 -1.883399300277233124e-02 1.353165367618203163e-03 -3.780365688726305962e-03 2.539696171879768372e-03 -2.211316488683223724e-02 -9.239264763891696930e-03 -4.761845804750919342e-03 7.615400478243827820e-03 -2.049828646704554558e-03 -8.188717998564243317e-03 -9.109860984608530998e-04 2.139261737465858459e-02 1.119792927056550980e-02 1.256786473095417023e-02 2.908685477450489998e-03 2.085301466286182404e-02 -4.146450373809784651e-05 4.971713293343782425e-03 6.192377302795648575e-03 6.688119377940893173e-03 -3.494958160445094109e-03 -6.416553165763616562e-03 5.786953843198716640e-04 5.568461492657661438e-04 -3.114236891269683838e-02 8.101903833448886871e-03 -2.336410991847515106e-02 1.030130777508020401e-02 -8.807248435914516449e-03 -2.361827297136187553e-03 3.246223786845803261e-03 1.927846577018499374e-03 7.284450810402631760e-03 1.701200939714908600e-02 6.161957979202270508e-03 3.283763071522116661e-03 3.171415068209171295e-03 -5.664746859110891819e-04 9.018132695928215981e-04 -4.285085480660200119e-03 3.770280163735151291e-03 -4.824987612664699554e-03 8.650151081383228302e-03 4.110443219542503357e-02 1.037762616761028767e-03 9.646618127590045333e-05 7.047972758300602436e-04 -7.449691183865070343e-03 1.005503814667463303e-03 -3.471029456704854965e-03 2.662147395312786102e-03 2.189398277550935745e-03 4.085627384483814240e-03 1.921594259329140186e-03 2.988740988075733185e-02 -3.901722957380115986e-04 3.010736219584941864e-02 1.824712147936224937e-03 -1.460254844278097153e-02 2.746077487245202065e-03 -1.087591238319873810e-02 -1.398238819092512131e-03 1.022009737789630890e-02 6.835883832536637783e-04 4.339467734098434448e-03 -6.412338698282837868e-04 3.338901733513921499e-04 8.224729448556900024e-03 -7.284312974661588669e-03 -1.375660998746752739e-03 8.177725598216056824e-03 -4.580894485116004944e-03 4.458000883460044861e-03 -5.631592357531189919e-04 1.041489746421575546e-02 4.008173476904630661e-03 3.845216706395149231e-03 3.544820647221058607e-04 -1.799198915250599384e-03 -1.152386516332626343e-02 2.911956515163183212e-03 3.057959722355008125e-03 -3.655512351542711258e-03 1.791474781930446625e-02 1.488643814809620380e-03 6.584180518984794617e-03 -9.886733256280422211e-03 3.395975567400455475e-03 -2.988059073686599731e-02 -6.793198175728321075e-03 1.183941122144460678e-02 1.995424181222915649e-02 1.821669167838990688e-03 -5.607089959084987640e-03 -4.350373987108469009e-03 9.866097243502736092e-04 8.840561844408512115e-03 -1.065750955604016781e-03 1.093697082251310349e-02 -1.943800225853919983e-02 -3.312351880595088005e-03 -8.281053975224494934e-03 -6.393492221832275391e-02 6.546309683471918106e-03 -7.307425606995820999e-03 1.414215844124555588e-02 8.213145774789154530e-04 2.610241621732711792e-02 9.561696089804172516e-03 -3.051899839192628860e-03 6.437220145016908646e-03 -8.054844103753566742e-03 -1.962638925760984421e-03 8.760425262153148651e-03 -1.648258045315742493e-02 -4.813395906239748001e-03 -6.239388603717088699e-04 5.084970034658908844e-03 6.129290559329092503e-04 1.549730310216546059e-03 -1.421731617301702499e-02 -8.630323223769664764e-03 3.142582997679710388e-02 7.943966425955295563e-03 1.646175794303417206e-02 6.441970472224056721e-04 -7.641729433089494705e-03 2.326143207028508186e-03 -2.232846105471253395e-03 4.456478171050548553e-03 -9.718539193272590637e-03 -4.643328953534364700e-03 -1.718205958604812622e-02 -4.795644897967576981e-03 -3.200650447979569435e-03 -1.286487677134573460e-03 4.265357565600425005e-04 3.753250231966376305e-03 5.169832613319158554e-03 -1.545529253780841827e-02 9.073586203157901764e-03 -4.198437090963125229e-03 -2.306199260056018829e-02 1.093613755074329674e-04 6.999928504228591919e-03 3.420877456665039062e-02 1.419419795274734497e-02 1.249698735773563385e-02 -3.699686145409941673e-03 -7.365230470895767212e-03 1.938139088451862335e-03 -1.701440778560936451e-03 7.394805550575256348e-03 -5.992114078253507614e-03 -5.746710230596363544e-04 1.735508069396018982e-02 1.706680748611688614e-03 -6.809087935835123062e-03 -1.421711873263120651e-02 1.235340023413300514e-04 1.612231880426406860e-02 1.860256888903677464e-03 1.364683150313794613e-03 -1.289984211325645447e-02 -3.631783183664083481e-03 -2.738049719482660294e-03 -7.733282167464494705e-03 -2.553303027525544167e-03 2.200294751673936844e-03 1.409141067415475845e-02 -1.625916175544261932e-02 1.383827254176139832e-02 2.831536158919334412e-02 -2.587969182059168816e-03 7.762672845274209976e-03 -3.416351275518536568e-03 -1.195863075554370880e-02 -3.274000249803066254e-03 5.426825373433530331e-04 1.392287295311689377e-02 -6.177491974085569382e-03 -6.341831292957067490e-03 -4.789532686118036509e-04 7.681458373554050922e-04 -8.528978563845157623e-03 -1.296407729387283325e-02 -1.072779670357704163e-02 -2.505704178474843502e-04 5.091237369924783707e-03 9.982649935409426689e-04 -3.026519902050495148e-03 1.374041289091110229e-02 1.137111335992813110e-03 -6.082056555896997452e-03 1.048972085118293762e-02 -3.027681668754667044e-04 2.645421540364623070e-03 -8.217581547796726227e-03 1.603435538709163666e-02 -1.148080639541149139e-02 3.559861099347472191e-03 -6.043494213372468948e-03 1.663924567401409149e-02 1.384715083986520767e-02 -1.989370444789528847e-03 1.381671288982033730e-03 1.681178808212280273e-02 5.258422810584306717e-03 5.644926335662603378e-03 -4.451289772987365723e-03 3.164105350151658058e-03 2.126356959342956543e-02 -1.683747954666614532e-02 4.156986833550035954e-04 -2.905848901718854904e-03 -3.511553397402167320e-03 4.799546673893928528e-03 2.823944902047514915e-03 6.959498859941959381e-03 -1.394358370453119278e-02 -2.964459825307130814e-03 -1.574680209159851074e-02 3.928575199097394943e-03 2.731921384111046791e-03 3.508787835016846657e-03 1.671450736466795206e-04 2.736761234700679779e-03 -2.989383973181247711e-02 -8.476356160826981068e-04 -1.457151811337098479e-04 -2.878996776416897774e-03 -4.634740296751260757e-03 2.640147460624575615e-03 -2.053920738399028778e-02 2.120666205883026123e-03 4.038214217871427536e-03
3.401639405637979507e-03 -1.018597465008497238e-02 5.457893945276737213e-03 4.542014375329017639e-02 -9.763925918377935886e-04 -1.163984299637377262e-03 9.900332428514957428e-03 -7.788461167365312576e-03 8.117793477140367031e-04 -3.301817551255226135e-02 7.150175049901008606e-03 1.299886219203472137e-02 4.601821769028902054e-03 3.533420967869460583e-04 8.404999971389770508e-04 7.212573196738958359e-03 7.473520934581756592e-03 -6.798932328820228577e-03 -6.397935096174478531e-03 -4.148170817643404007e-03 2.290889620780944824e-02 -9.477260522544384003e-03 -9.100441820919513702e-03 -6.787074264138936996e-03 1.597671536728739738e-03 -2.165586687624454498e-02 -1.715765451081097126e-03 -2.391344308853149414e-02 3.849306609481573105e-03 7.492470089346170425e-03 -1.039705518633127213e-02 4.127792268991470337e-02 -1.990133896470069885e-02 5.487047135829925537e-03 1.906476542353630066e-02 -3.764249011874198914e-02 -2.912944648414850235e-03 -1.494170445948839188e-02 1.257862616330385208e-02 1.061104144901037216e-02 -1.124446000903844833e-02 2.159963175654411316e-02 -5.390624050050973892e-03 -5.732058547437191010e-03 -3.601007163524627686e-03 7.760663051158189774e-03 -1.045737601816654205e-02 -5.980026442557573318e-03 -1.149743236601352692e-02 -1.713779754936695099e-02 -1.960242725908756256e-02 -8.384256943827494979e-05 -1.617079414427280426e-02 -3.235309198498725891e-02 1.226798049174249172e-03 1.975186355412006378e-02 -1.030191499739885330e-02 -2.044145390391349792e-02 9.249255992472171783e-03 -2.704393817111849785e-03 1.389150135219097137e-02 2.045135013759136200e-03 4.859445150941610336e-03 -1.212887000292539597e-02 -1.503095030784606934e-02 -6.423163693398237228e-03 -6.749692838639020920e-03 -3.431861102581024170e-02 1.180518139153718948e-02 -1.136715710163116455e-02 2.971038687974214554e-03 -1.161644607782363892e-02 3.030712716281414032e-03 -4.477526061236858368e-03 1.552258152514696121e-02 -6.648696959018707275e-03 -1.535752322524785995e-02 -7.485792972147464752e-03 -2.230989001691341400e-02 4.277778789401054382e-03 -1.424946822226047516e-03 -2.602277323603630066e-02 -1.974887028336524963e-02 1.860192604362964630e-02 3.435087623074650764e-03 3.628513775765895844e-03 -8.291226811707019806e-03 -2.108193933963775635e-02 9.477145969867706299e-03 -8.072734810411930084e-03 -2.119739353656768799e-02 -9.637667797505855560e-03 3.203296102583408356e-03 1.484992261976003647e-02 1.868375577032566071e-02 5.192510783672332764e-03 -9.399885311722755432e-03 1.655533793382346630e-03 -2.851798431947827339e-03 -1.606726087629795074e-02 -5.843079648911952972e-03 -4.909933544695377350e-03 -2.868965035304427147e-03 -1.912878453731536865e-02 2.265099901705980301e-03 -6.156248506158590317e-03 -1.051641441881656647e-02 -4.116272926330566406e-02 1.172323431819677353e-02 -1.300220843404531479e-02 6.706914398819208145e-03 -2.633901871740818024e-02 -4.154012538492679596e-03 -2.489507198333740234e-02 -2.532966248691082001e-02 6.018481217324733734e-03 3.508307784795761108e-02 -6.961651612073183060e-03 8.246093988418579102e-03 -1.992629282176494598e-02 -9.116038680076599121e-03 -6.876315921545028687e-03 -2.905237488448619843e-02 -2.917629433795809746e-03 -3.828609362244606018e-03 8.467251434922218323e-03 -7.048270781524479389e-04 4.049502685666084290e-02 1.322247367352247238e-02 -7.970214821398258209e-03 -1.091093569993972778e-02 1.132362522184848785e-02 4.249856341630220413e-03 -9.418358094990253448e-03 5.694825202226638794e-03 8.078075945377349854e-03 -1.707885065115988255e-03 -3.556622564792633057e-02 -4.147650673985481262e-03 -2.007498173043131828e-03 3.636300191283226013e-02 7.606943603605031967e-03 -4.301855713129043579e-02 2.003423310816287994e-02 2.322964929044246674e-02 -2.661207399796694517e-04 -7.016119547188282013e-03 2.914572367444634438e-03 -5.420580971986055374e-03 5.369105841964483261e-03 -3.051710547879338264e-03 -9.640069678425788879e-03 3.916689381003379822e-02 2.059487998485565186e-02 2.337686158716678619e-02 -1.277846749871969223e-02 1.106108631938695908e-02 -1.073369942605495453e-02 4.357276775408536196e-04 -5.227732472121715546e-03 5.783810280263423920e-03 1.933925785124301910e-03 -3.374103456735610962e-02 7.817974314093589783e-03 -1.995495986193418503e-03 2.391455508768558502e-02 -5.926439072936773300e-03 -6.151192355901002884e-04 -3.917880356311798096e-03 9.075141511857509613e-03 1.785219833254814148e-02 5.306041333824396133e-03 -1.905452087521553040e-02 -2.252058766316622496e-04 5.608550272881984711e-03 1.140916999429464340e-02 6.722951773554086685e-03 -1.020379932015202940e-04 -7.857292890548706055e-03 5.147979408502578735e-02 5.980786401778459549e-03 -1.243473088834434748e-04 1.300707459449768066e-02 -1.298853103071451187e-02 9.416339918971061707e-03 3.654979169368743896e-03 2.722600242123007774e-03 -2.214566804468631744e-03 -3.483320819213986397e-03 3.220960497856140137e-02 -2.024426311254501343e-02 3.077989816665649414e-02 1.436123624444007874e-02 9.959207847714424133e-03 3.953949082642793655e-03 -9.843641601037234068e-05 -1.659661903977394104e-02 1.448302282369695604e-05 2.897472120821475983e-03 -2.645648200996220112e-04 -7.289028726518154144e-03 1.366979558952152729e-03 2.562429010868072510e-02 -5.488306749612092972e-03 3.040573932230472565e-02 -1.717069745063781738e-02 -1.684242300689220428e-02 3.152926219627261162e-03 -1.398641429841518402e-02 -1.003847271203994751e-02 -1.350819040089845657e-02 1.832737034419551492e-04 8.833000902086496353e-04 -7.159716005844529718e-06 8.065870963037014008e-03 -2.304112538695335388e-03 -6.929689086973667145e-03 3.242930024862289429e-02 9.841249324381351471e-03 -1.426041964441537857e-02 4.853975959122180939e-03 4.989809822291135788e-03 3.893924294970929623e-04 -2.405443787574768066e-02 -7.691116537898778915e-03 -1.033767778426408768e-02 -7.619278505444526672e-03 -5.659994669258594513e-03 -4.483389202505350113e-03 5.091459024697542191e-03 -3.717412799596786499e-02 2.121381461620330811e-02 -2.995975373778492212e-04 -1.240438688546419144e-02 6.342762149870395660e-03 2.403355436399579048e-03 1.801566034555435181e-02 4.802916198968887329e-03 -7.545418106019496918e-03 -9.013805538415908813e-03 -6.155992159619927406e-04 -1.647193566896021366e-03 8.015847415663301945e-04 1.079283421859145164e-03 9.499604813754558563e-03 8.425171487033367157e-03 6.370120216161012650e-03 5.799660086631774902e-02 1.046681869775056839e-02 1.148790959268808365e-02 3.848283551633358002e-03 3.817477729171514511e-03 9.237194433808326721e-03 -1.334291510283946991e-02 6.423625163733959198e-04 8.199744857847690582e-03
8.106459863483905792e-03 2.034283801913261414e-02 1.162542263045907021e-03 -8.450131863355636597e-03 9.789573028683662415e-03 -2.363408682867884636e-03 -7.346116472035646439e-03 5.952645558863878250e-03 -7.765974849462509155e-03 -1.006363425403833389e-02 -9.293366223573684692e-03 -1.966501399874687195e-02 1.286321552470326424e-03 7.049683947116136551e-03 -9.670775383710861206e-03 5.129961646161973476e-04 -7.375821005553007126e-03 -8.354039862751960754e-03 -9.340952383354306221e-04 3.658892121165990829e-03 8.428349974565207958e-05 -2.521368861198425293e-02 4.288696218281984329e-03 8.276600856333971024e-04 1.053755544126033783e-02 2.612481266260147095e-02 -1.821706816554069519e-02 -1.517677493393421173e-02 4.513968713581562042e-03 -4.880632273852825165e-03 6.428396794945001602e-03 1.220773626118898392e-02 7.103511597961187363e-03 1.756926998496055603e-03 -1.554428413510322571e-02 -3.607591241598129272e-02 -6.335090845823287964e-03 -3.991592675447463989e-03 -3.879773663356900215e-03 -2.581264358013868332e-03 -6.738455267623066902e-04 9.651985950767993927e-03 7.684587035328149796e-03 -8.326162351295351982e-04 -5.545588210225105286e-03 8.334019803442060947e-04 8.224517805501818657e-04 -2.041158266365528107e-02 -1.762762112775817513e-04 3.041242249310016632e-03 -2.398446900770068169e-03 3.241000697016716003e-03 -6.518539972603321075e-03 1.095552928745746613e-02 -2.711172448471188545e-03 -7.132780272513628006e-03 -7.803110405802726746e-03 -9.685996919870376587e-03 -8.227715268731117249e-03 4.788731690496206284e-03 5.301386117935180664e-03 1.843863166868686676e-03 1.403730548918247223e-02 -2.945125848054885864e-02 -8.593156002461910248e-03 2.375316340476274490e-03 5.209439405007287860e-05 -3.884521778672933578e-03 -2.275550505146384239e-03 5.435663741081953049e-03 -1.268549356609582901e-03 -6.694417912513017654e-03 -6.711191963404417038e-03 1.077090948820114136e-02 -8.107095956802368164e-03 -2.811606042087078094e-03 -7.514667231589555740e-03 -2.005114965140819550e-02 8.123947307467460632e-03 1.880830735899507999e-03 2.185289515182375908e-03 -4.114466719329357147e-03 -1.007132418453693390e-02 -1.561163831502199173e-02 4.175305366516113281e-03 -2.602526918053627014e-03 2.167597599327564240e-02 1.126679126173257828e-02 -1.286224229261279106e-03 8.085921406745910645e-03 4.244729410856962204e-03 -5.542229395359754562e-03 3.892023814842104912e-03 -6.393838673830032349e-03 1.534818555228412151e-03 8.919555693864822388e-03 -1.899914629757404327e-02 6.092431955039501190e-03 -1.029746606945991516e-02 2.973518101498484612e-03 -6.705434992909431458e-03 9.482703171670436859e-03 -4.810895305126905441e-03 1.850762590765953064e-02 3.047115169465541840e-03 -5.580180324614048004e-03 -1.795126358047127724e-03 1.827756315469741821e-02 2.503322903066873550e-03 -5.237706005573272705e-03 3.191069886088371277e-02 -1.116570085287094116e-03 2.645908971317112446e-04 -2.286729216575622559e-02 -3.094754720223136246e-05 9.923150762915611267e-03 1.803349703550338745e-02 -1.363408192992210388e-02 1.045905426144599915e-02 -7.179542910307645798e-03 3.690490266308188438e-03 -4.653822164982557297e-03 -8.665518835186958313e-03 1.426327740773558617e-03 -7.768053183099254966e-05 3.530842810869216919e-02 5.102954804897308350e-03 -1.373422704637050629e-02 3.988103941082954407e-03 2.751810243353247643e-03 2.546059433370828629e-03 1.000128313899040222e-02 -4.094845149666070938e-03 -2.700971812009811401e-02 2.465595956891775131e-03 9.586525848135352135e-04 -7.775632664561271667e-03 8.097730576992034912e-03 -5.889367093914188445e-05 7.243783678859472275e-03 4.027734976261854172e-03 4.412166774272918701e-03 -1.218785252422094345e-02 -3.512236580718308687e-04 1.005422137677669525e-02 -1.591655425727367401e-02 2.096381410956382751e-02 -2.607995457947254181e-02 4.906844114884734154e-04 -1.550212269648909569e-03 -1.878722687251865864e-03 9.677072055637836456e-03 1.370382029563188553e-02 -3.322669491171836853e-02 3.642503172159194946e-02 -6.137786898761987686e-03 -2.213342115283012390e-03 -6.173045374453067780e-03 -2.380820689722895622e-03 2.700288780033588409e-02 5.210221279412508011e-03 1.018848549574613571e-02 3.944546915590763092e-03 9.743621572852134705e-03 1.300084497779607773e-02 2.529379352927207947e-02 3.960706293582916260e-02 6.763379555195569992e-03 -1.356492005288600922e-02 2.231087069958448410e-03 6.767618004232645035e-03 3.508491674438118935e-03 -6.742376717738807201e-04 -1.944452407769858837e-03 2.420893870294094086e-04 2.792731393128633499e-03 7.531571667641401291e-03 5.663302727043628693e-03 -2.971827518194913864e-03 -1.802724204026162624e-03 1.215150207281112671e-02 -1.281717675738036633e-03 3.027769271284341812e-03 3.027430968359112740e-03 -1.649344526231288910e-02 5.750847980380058289e-03 4.690720699727535248e-03 9.394600638188421726e-04 3.371989820152521133e-03 2.474222518503665924e-02 1.043410506099462509e-02 2.925023436546325684e-03 -1.702010072767734528e-02 -1.181305013597011566e-02 5.370164755731821060e-03 -3.530007088556885719e-03 -9.663450531661510468e-03 3.497784957289695740e-03 -8.407276123762130737e-03 -2.677789423614740372e-03 8.969787159003317356e-04 5.082589574158191681e-03 -7.286053616553544998e-03 -1.205472461879253387e-02 1.528994645923376083e-02 1.270548719912767410e-02 -1.163498777896165848e-02 4.324445035308599472e-03 -1.202100049704313278e-02 -6.573385559022426605e-03 -5.345160141587257385e-03 1.049267943017184734e-03 -1.296893041580915451e-02 -4.003982059657573700e-03 -6.442199461162090302e-03 6.431062705814838409e-03 8.470693137496709824e-04 1.838135719299316406e-02 -1.684770174324512482e-02 -3.450284246355295181e-03 -3.176867961883544922e-03 2.733763540163636208e-03 -3.848315216600894928e-03 -1.025685854256153107e-02 -5.122781265527009964e-03 9.539359249174594879e-03 8.493590168654918671e-03 -2.026569796726107597e-03 1.807721215300261974e-03 1.733105746097862720e-04 1.064350176602602005e-02 -3.112280741333961487e-02 1.165308430790901184e-02 5.487202201038599014e-03 1.189039787277579308e-03 -1.130360830575227737e-02 7.021123077720403671e-03 5.351825617253780365e-03 -5.283414386212825775e-03 6.327292881906032562e-03 -2.973631490021944046e-03 -1.070689223706722260e-02 -1.309703290462493896e-02 4.461013246327638626e-03 -1.304403133690357208e-02 1.144893839955329895e-02 -3.367685247212648392e-03 -6.118388846516609192e-03 1.011487375944852829e-02 -5.692182108759880066e-03 -4.107358399778604507e-03 6.139958277344703674e-03 6.807307247072458267e-03 1.259391847997903824e-02 -2.783750882372260094e-03 6.621082779020071030e-03
2.482540346682071686e-02 1.874744333326816559e-02 -6.906625349074602127e-03 1.865747035481035709e-03 -4.542251583188772202e-03 -7.297893520444631577e-03 -2.479174546897411346e-02 7.420692592859268188e-03 1.270593609660863876e-03 -1.239952538162469864e-02 -3.145546419546008110e-03 -1.200528256595134735e-02 2.914641518145799637e-03 2.541250549256801605e-03 -8.685517124831676483e-03 -1.124416594393551350e-04 7.331027649343013763e-03 -1.225534453988075256e-02 5.675632506608963013e-03 -1.055452227592468262e-02 1.779514364898204803e-02 -2.160420268774032593e-02 -5.101321730762720108e-03 -6.785247940570116043e-03 -9.368448518216609955e-03 -3.205885877832770348e-04 1.339720655232667923e-02 -1.771401427686214447e-02 4.064440727233886719e-03 -1.223581261001527309e-03 -1.206854591146111488e-03 -1.677670516073703766e-02 -2.867329865694046021e-02 -2.479410031810402870e-03 -1.053302269428968430e-02 -6.035286467522382736e-03 9.570753900334239006e-04 -4.380660597234964371e-03 -5.427816882729530334e-03 2.483344869688153267e-03 -5.079292226582765579e-03 1.855656318366527557e-02 1.090364344418048859e-02 -3.235887037590146065e-03 -4.851491190493106842e-03 4.667635075747966766e-03 1.299505587667226791e-02 -1.545975357294082642e-02 -6.518123205751180649e-03 -1.244779559783637524e-03 4.723018966615200043e-03 7.351764012128114700e-03 -1.192848570644855499e-02 -1.097800768911838531e-02 -8.579454384744167328e-03 -8.145299740135669708e-03 -1.617698743939399719e-02 -8.329079486429691315e-03 -1.085270475596189499e-02 -1.329000340774655342e-03 2.811029553413391113e-03 7.981056347489356995e-03 4.401559475809335709e-03 -2.213248983025550842e-03 7.426207885146141052e-03 1.777058467268943787e-03 -2.136854268610477448e-02 5.749555304646492004e-03 -5.248894914984703064e-03 1.632125861942768097e-02 -1.490716729313135147e-02 2.060360508039593697e-03 -1.335910172201693058e-03 3.834354924038052559e-03 9.213401935994625092e-03 -1.010932028293609619e-02 -1.677227206528186798e-02 -1.572349667549133301e-02 -1.122846547514200211e-02 7.783237844705581665e-03 1.108724623918533325e-02 -1.617465354502201080e-02 1.524292677640914917e-02 -1.509615499526262283e-02 -9.414657950401306152e-03 -2.576372120529413223e-03 3.578273206949234009e-02 -1.903070020489394665e-03 -7.613570429384708405e-03 4.974994808435440063e-03 3.186467289924621582e-02 -1.596440747380256653e-02 1.549415756016969681e-03 -6.468899548053741455e-03 8.139889687299728394e-03 -1.425201632082462311e-02 -1.393363531678915024e-02 2.060832222923636436e-03 -7.230217568576335907e-03 -3.974456805735826492e-03 -1.008903980255126953e-02 3.603038610890507698e-03 -2.000459702685475349e-03 1.613067463040351868e-02 3.710823133587837219e-03 1.684242160990834236e-03 -1.445014216005802155e-02 2.601004578173160553e-02 -1.696280203759670258e-02 -1.494025159627199173e-02 1.011181971989572048e-03 1.236424501985311508e-02 -8.217291906476020813e-03 -1.500284182839095592e-03 -6.526159122586250305e-03 3.016674704849720001e-02 1.598149910569190979e-02 -5.154387908987700939e-04 6.265293806791305542e-03 1.154233468696475029e-03 -5.326643120497465134e-03 -9.221309795975685120e-03 2.855568192899227142e-02 6.760794203728437424e-03 2.854205202311277390e-03 5.594855919480323792e-02 6.154999136924743652e-03 -7.044638972729444504e-03 7.581971120089292526e-03 4.432013374753296375e-04 -1.241073384881019592e-02 2.317322418093681335e-02 2.508449833840131760e-03 -2.801038138568401337e-02 -6.686101667582988739e-03 -3.288903506472706795e-03 -9.935890324413776398e-03 -1.162143424153327942e-02 -6.325911730527877808e-03 2.009603194892406464e-03 -1.938859117217361927e-03 7.936049951240420341e-04 3.471070434898138046e-03 1.740147941745817661e-03 1.479231938719749451e-02 -9.583439677953720093e-03 1.264909841120243073e-02 -1.230117119848728180e-02 -2.356117963790893555e-02 -5.551342386752367020e-03 -6.014938931912183762e-03 1.621199212968349457e-02 2.520395442843437195e-02 -2.527472376823425293e-02 4.237347096204757690e-02 8.713714778423309326e-03 -1.151024363934993744e-03 -4.812693689018487930e-03 -8.151628426276147366e-04 -1.799160800874233246e-02 -7.285229861736297607e-03 1.108924392610788345e-02 1.396877458319067955e-03 -8.047121227718889713e-04 -7.187994197010993958e-04 1.123346760869026184e-02 3.170235082507133484e-02 8.242193609476089478e-03 -2.110687270760536194e-02 -1.834596693515777588e-02 7.926590740680694580e-03 -5.269439890980720520e-03 -3.044838551431894302e-03 -1.660450734198093414e-02 -1.951817423105239868e-03 -1.249147113412618637e-02 1.786249689757823944e-02 5.298778414726257324e-03 3.213308751583099365e-03 -1.265291962772607803e-02 4.590207710862159729e-03 5.039559677243232727e-03 6.672937422990798950e-03 9.104785858653485775e-04 -1.183169241994619370e-02 -1.658323593437671661e-02 1.372677087783813477e-02 4.978781798854470253e-04 1.874237204901874065e-03 9.443972259759902954e-03 -7.326014339923858643e-03 -6.312176701612770557e-04 -4.113240167498588562e-03 -2.117321267724037170e-02 1.310271117836236954e-02 -7.470806129276752472e-03 -3.855961142107844353e-03 -2.847726223990321159e-03 -1.531596528366208076e-03 3.837257623672485352e-03 1.091465004719793797e-03 1.695353351533412933e-02 -6.598599255084991455e-03 -1.462632324546575546e-02 2.863961737602949142e-03 2.841261588037014008e-02 -5.260137375444173813e-03 -3.502846229821443558e-03 -6.369269918650388718e-03 -1.397335622459650040e-02 -1.024001464247703552e-02 -3.136353800073266029e-03 -1.048382557928562164e-02 -9.442602284252643585e-03 5.473809316754341125e-03 5.710370372980833054e-03 -5.394666921347379684e-03 1.382912974804639816e-02 -1.240910217165946960e-02 1.859924197196960449e-02 -4.318897612392902374e-03 1.753772236406803131e-02 -1.565065793693065643e-02 -6.503285840153694153e-03 1.946076401509344578e-03 -4.323797766119241714e-04 6.632996257394552231e-03 -1.361857168376445770e-02 2.344951353734359145e-04 -3.594850888475775719e-03 4.879340995103120804e-03 -3.910842537879943848e-02 4.897920880466699600e-03 1.995324622839689255e-03 -5.785920657217502594e-03 -2.503181062638759613e-02 -8.702504448592662811e-03 3.636035369709134102e-03 2.754332264885306358e-03 -9.442172013223171234e-03 -1.813192479312419891e-02 1.059737429022789001e-02 1.718680188059806824e-02 3.925643104594200850e-04 -2.764458581805229187e-02 9.611486457288265228e-03 3.826790489256381989e-03 -7.795069250278174877e-04 3.117554355412721634e-03 -3.911391366273164749e-03 -4.395654890686273575e-03 -1.304043107666075230e-03 -5.451675504446029663e-03 -2.016567159444093704e-03 -2.031233347952365875e-02 -1.905097998678684235e-02
-1.891039195470511913e-03 1.424937881529331207e-02 -7.540404796600341797e-03 1.973060332238674164e-02 -7.720068097114562988e-03 -4.488177131861448288e-03 -2.234096638858318329e-02 1.617646217346191406e-02 -7.675334345549345016e-04 3.131144493818283081e-02 -7.040424738079309464e-03 3.335407748818397522e-02 1.443101465702056885e-02 -1.699243113398551941e-02 -1.508797239512205124e-02 -5.110779311507940292e-03 1.443897094577550888e-02 -3.278284519910812378e-02 8.839121088385581970e-03 -3.217601031064987183e-02 2.081341668963432312e-02 -3.142955154180526733e-02 2.559144282713532448e-03 2.278067637234926224e-03 -1.526323799043893814e-02 3.746398538351058960e-02 2.650916203856468201e-02 1.841867109760642052e-03 3.451165044680237770e-03 1.450738287530839443e-03 2.819000743329524994e-03 -6.269046105444431305e-03 -1.620321720838546753e-02 -5.457568913698196411e-03 -1.185862580314278603e-03 1.652999594807624817e-02 -6.500926800072193146e-03 -8.705723099410533905e-03 -9.298394434154033661e-03 1.958078518509864807e-02 -8.110211230814456940e-03 2.209127508103847504e-02 3.228384256362915039e-02 1.937824301421642303e-03 -1.717024855315685272e-02 1.924318261444568634e-02 1.079656369984149933e-02 -3.568177670240402222e-02 -1.174728013575077057e-02 -1.348468009382486343e-02 1.567906141281127930e-02 1.809906028211116791e-02 -3.598223207518458366e-03 7.757128775119781494e-02 -3.956958651542663574e-03 -1.055426662787795067e-03 -2.741213142871856689e-02 -4.164027422666549683e-02 -1.486119162291288376e-02 -9.144238196313381195e-03 -5.840129684656858444e-03 7.045980892144143581e-04 2.390542253851890564e-02 3.991685062646865845e-02 -1.068659964948892593e-02 -2.352440933464094996e-04 -3.519919142127037048e-02 1.307567209005355835e-02 -1.056677941232919693e-02 2.511478215456008911e-02 -1.481776405125856400e-02 1.994416303932666779e-02 4.257083870470523834e-03 7.965075783431529999e-03 -1.394384447485208511e-02 -6.824638694524765015e-03 8.012161590158939362e-03 -2.434170618653297424e-02 -2.091754227876663208e-03 2.471748040989041328e-03 3.089390695095062256e-03 6.622693967074155807e-03 -3.152923425659537315e-03 -1.470653153955936432e-02 -1.106091123074293137e-02 1.782972947694361210e-03 5.767711997032165527e-02 -8.606361807323992252e-04 -3.595749288797378540e-02 7.391360588371753693e-03 2.383204735815525055e-02 -1.996443420648574829e-02 1.092733466066420078e-03 -5.940554663538932800e-03 4.279357846826314926e-03 4.860660061240196228e-03 4.780464223586022854e-04 7.611390203237533569e-03 -1.326194405555725098e-02 -1.145605929195880890e-02 -1.069053169339895248e-02 1.452077832072973251e-02 -1.074481662362813950e-02 2.185337617993354797e-02 5.708390381187200546e-03 4.301408771425485611e-03 1.552602183073759079e-02 7.663101423531770706e-03 -1.158080436289310455e-02 -3.760921536013484001e-03 1.980862021446228027e-02 2.684456296265125275e-02 1.435641478747129440e-02 2.119089849293231964e-02 -5.103303492069244385e-02 6.302517838776111603e-03 -9.722782298922538757e-03 -1.192463282495737076e-02 1.292557828128337860e-02 -2.818863093852996826e-02 -1.479982491582632065e-02 -3.056727349758148193e-03 -4.903138615190982819e-03 2.470793202519416809e-03 1.005919184535741806e-02 3.199227899312973022e-02 1.712057180702686310e-02 -3.731295093894004822e-02 1.737367734313011169e-02 2.482157666236162186e-03 -1.257769856601953506e-02 4.531388357281684875e-02 3.428878495469689369e-03 -2.176394499838352203e-02 2.051489800214767456e-02 7.736215367913246155e-03 -1.252053678035736084e-02 -3.247716650366783142e-02 -1.454308070242404938e-02 5.571884568780660629e-03 1.155304838903248310e-03 6.192999426275491714e-03 -3.475661203265190125e-02 1.117375213652849197e-02 2.454792894423007965e-02 -1.602444797754287720e-02 1.153375674039125443e-02 -1.538678334327414632e-04 9.926537051796913147e-03 -1.172959338873624802e-02 -9.749239310622215271e-03 2.527978736907243729e-03 1.522422861307859421e-02 -4.418945312500000000e-02 2.114376425743103027e-02 -9.981731884181499481e-03 1.515485462732613087e-03 7.701932918280363083e-03 -6.215279456228017807e-03 -9.973476640880107880e-03 -9.786620736122131348e-03 1.276258379220962524e-02 -9.857013821601867676e-03 1.337957475334405899e-02 1.090444158762693405e-02 -4.458477254956960678e-03 -3.998548258095979691e-03 3.447953204158693552e-04 -6.517864298075437546e-03 9.280568920075893402e-03 2.800401067361235619e-03 -3.553013375494629145e-04 2.213739417493343353e-02 -9.110113605856895447e-03 1.172338845208287239e-03 -3.500464558601379395e-02 4.674403928220272064e-03 1.991029269993305206e-02 1.157444668933749199e-03 -1.106785144656896591e-02 1.038300804793834686e-02 1.024325843900442123e-02 -4.970728885382413864e-03 5.506764631718397141e-03 -2.293911203742027283e-02 1.280564349144697189e-02 1.526338793337345123e-02 1.902229705592617393e-04 5.005957093089818954e-03 2.975989773403853178e-04 -2.703209966421127319e-02 1.404243148863315582e-02 8.157751522958278656e-03 -1.338130608201026917e-02 3.398308902978897095e-02 -3.498528385534882545e-03 -1.028302311897277832e-02 -2.514263149350881577e-03 7.328409235924482346e-03 1.206646580249071121e-02 2.052526455372571945e-03 1.198675110936164856e-02 -1.234804367413744330e-04 -3.301156312227249146e-02 -2.722233347594738007e-02 2.374393679201602936e-02 7.872533984482288361e-03 1.622997689992189407e-03 -1.355945318937301636e-02 -1.955854147672653198e-02 -8.694392628967761993e-03 -2.847107872366905212e-02 -4.223763942718505859e-03 2.832895610481500626e-03 6.252720020711421967e-03 -4.565299605019390583e-04 5.783955566585063934e-03 1.452347636222839355e-02 3.089314885437488556e-02 3.971159085631370544e-02 -8.074754849076271057e-03 2.834630385041236877e-02 -2.436769194900989532e-02 -3.876027837395668030e-02 -2.477651461958885193e-03 7.240501232445240021e-03 1.179294753819704056e-02 1.257244846783578396e-03 -9.831128641963005066e-03 4.005894996225833893e-03 3.570902626961469650e-03 -1.685364521108567715e-03 4.009264521300792694e-03 8.617868646979331970e-03 1.149560976773500443e-02 -1.839124783873558044e-02 2.433906774967908859e-03 1.003279816359281540e-02 1.888394355773925781e-02 1.586225815117359161e-02 -1.459328224882483482e-03 3.902282193303108215e-02 -1.245855819433927536e-02 -3.101136302575469017e-03 -3.213693574070930481e-02 1.012262795120477676e-02 -6.987058091908693314e-03 -1.124460063874721527e-02 -2.938325889408588409e-02 -9.548665955662727356e-03 -5.129056517034769058e-03 2.447754144668579102e-03 -2.565340255387127399e-04 -3.791620489209890366e-03 -3.789595328271389008e-03 9.966053068637847900e-03
-7.011940469965338707e-04 1.073202677071094513e-02 1.025104988366365433e-02 2.609372511506080627e-02 -2.762074396014213562e-02 6.002208683639764786e-03 5.528810992836952209e-02 -1.228166557848453522e-02 -6.539492867887020111e-03 -5.586147308349609375e-02 -5.585928447544574738e-03 1.672672224231064320e-04 2.320310659706592560e-02 -1.164476573467254639e-02 -1.743723079562187195e-02 -1.001461315900087357e-02 -3.477478399872779846e-02 -5.574259534478187561e-02 1.197485253214836121e-02 1.590049639344215393e-02 3.846099972724914551e-02 1.840866170823574066e-02 1.621841103769838810e-03 -1.860598847270011902e-02 -7.262744009494781494e-02 -2.674791775643825531e-02 -8.180378377437591553e-02 4.134087357670068741e-03 9.878838434815406799e-03 8.024548739194869995e-02 -4.938548058271408081e-02 -3.279064595699310303e-02 3.324151039123535156e-02 -1.348308520391583443e-03 8.759377524256706238e-03 -5.742514505982398987e-03 -8.586996118538081646e-04 -1.201950106769800186e-02 5.239882506430149078e-03 1.453926973044872284e-02 -8.278916589915752411e-03 1.843626424670219421e-02 1.740250736474990845e-04 -1.136468723416328430e-03 -3.124890290200710297e-02 -2.485085977241396904e-03 -1.208089943975210190e-02 2.769728656858205795e-03 -3.696497296914458275e-03 -4.239527881145477295e-02 -6.038715131580829620e-03 4.819189198315143585e-03 2.038492588326334953e-03 3.783047571778297424e-02 -8.610925637185573578e-03 5.586813017725944519e-02 -5.454254895448684692e-02 1.674968004226684570e-02 -4.086208995431661606e-03 -1.789680216461420059e-03 -1.292228419333696365e-02 2.166837081313133240e-02 -1.318411808460950851e-02 1.760419644415378571e-02 8.448878303170204163e-03 -3.406389057636260986e-02 7.452663034200668335e-03 -3.191035240888595581e-02 2.424234524369239807e-02 1.288733328692615032e-03 1.085079554468393326e-02 -8.791233412921428680e-03 8.254389278590679169e-03 -2.561445580795407295e-03 -3.837201371788978577e-02 -3.763596061617136002e-03 -2.236873283982276917e-02 1.639939658343791962e-02 -3.970684483647346497e-02 2.521091513335704803e-02 2.750610746443271637e-02 8.825493976473808289e-03 3.230218961834907532e-02 2.716077119112014771e-02 -1.691239327192306519e-02 -4.372105933725833893e-03 1.297189574688673019e-02 -3.599942103028297424e-02 8.936827071011066437e-03 7.965617813169956207e-03 2.132719196379184723e-02 -3.026070771738886833e-04 9.710145182907581329e-03 -2.905811928212642670e-02 9.871966205537319183e-03 -7.838742458261549473e-04 4.665613174438476562e-02 8.013319224119186401e-03 -6.964219734072685242e-03 4.809874668717384338e-02 3.519486635923385620e-02 1.268925238400697708e-02 -7.311508525162935257e-03 3.001154959201812744e-02 -7.589974906295537949e-03 1.199723035097122192e-02 -4.053576290607452393e-02 -1.219490915536880493e-02 2.924094349145889282e-02 -1.487361080944538116e-02 2.242715843021869659e-02 1.629986363695934415e-04 -5.233991891145706177e-03 1.017895806580781937e-02 -2.715445589274168015e-03 3.931309655308723450e-02 4.297967255115509033e-02 -3.111143596470355988e-03 2.607386000454425812e-02 -1.747392863035202026e-02 -1.152692176401615143e-02 -2.720613032579421997e-02 1.932086609303951263e-02 -2.173709915950894356e-03 1.619328558444976807e-02 -1.014923211187124252e-02 -6.897348910570144653e-03 1.583168096840381622e-02 1.724743843078613281e-02 -3.218171652406454086e-03 6.306791678071022034e-03 -5.097007378935813904e-02 2.782835811376571655e-02 4.982483107596635818e-03 -2.152141928672790527e-02 6.843822542577981949e-03 1.145450025796890259e-02 7.685085386037826538e-02 -9.847575798630714417e-03 -6.689294707030057907e-03 2.322411909699440002e-02 -6.134263239800930023e-03 -2.169871889054775238e-02 1.309570111334323883e-02 1.371503341943025589e-02 2.033249475061893463e-02 4.496831074357032776e-02 -1.132075488567352295e-02 -3.826159285381436348e-03 1.316449139267206192e-02 1.394667383283376694e-02 -1.459609623998403549e-02 1.946816965937614441e-02 -7.530272006988525391e-02 -5.989607423543930054e-02 3.325632587075233459e-02 3.813520818948745728e-02 -2.064066193997859955e-02 -1.433714572340250015e-02 -1.818150654435157776e-02 -1.764001511037349701e-02 -1.088000740855932236e-02 4.198170453310012817e-02 -2.708899090066552162e-03 -1.063894946128129959e-02 2.165375649929046631e-02 3.503141924738883972e-02 -4.402718041092157364e-03 3.359432891011238098e-02 -3.861508145928382874e-02 1.340503990650177002e-02 2.617551246657967567e-03 -2.396613918244838715e-02 -1.770853810012340546e-02 3.108604066073894501e-02 7.295247167348861694e-02 3.862701356410980225e-02 -2.516746520996093750e-02 1.728323101997375488e-02 3.561650216579437256e-02 -5.061721429228782654e-02 8.905443246476352215e-04 3.625445440411567688e-02 1.646635239012539387e-03 4.857438057661056519e-02 5.168733769096434116e-04 1.519714598543941975e-03 7.359269075095653534e-04 1.754952408373355865e-02 6.270883977413177490e-02 6.061272323131561279e-02 -6.947394460439682007e-02 1.226010173559188843e-02 -5.164931714534759521e-02 -3.873344138264656067e-02 3.968645632266998291e-02 -2.228075638413429260e-02 -4.718987271189689636e-02 4.880536720156669617e-02 -4.810136929154396057e-02 -1.047861576080322266e-02 1.776454970240592957e-03 -6.290644407272338867e-02 9.727866388857364655e-03 -8.148615248501300812e-03 -9.633816778659820557e-03 4.945041239261627197e-02 -1.918032765388488770e-02 -8.974737487733364105e-03 -6.322000641375780106e-03 -4.119152575731277466e-02 2.334235608577728271e-02 6.398492841981351376e-04 6.498562544584274292e-02 -3.595695598050951958e-03 -1.195246446877717972e-02 -1.162963546812534332e-02 1.190073695033788681e-02 -1.589132472872734070e-03 -4.591588675975799561e-02 -1.242476981133222580e-02 5.399987846612930298e-02 2.357893809676170349e-02 2.891917526721954346e-02 6.924986839294433594e-02 -6.650906801223754883e-02 7.721906155347824097e-02 -1.817383221350610256e-03 9.392837435007095337e-02 1.336459908634424210e-02 7.999239861965179443e-02 -3.009534813463687897e-02 1.921124756336212158e-02 6.450765579938888550e-02 1.287300547119230032e-04 3.362500667572021484e-02 -3.729045391082763672e-03 -1.435749884694814682e-02 -1.072904677130281925e-03 -1.058542262762784958e-02 -8.853728882968425751e-03 -1.524973288178443909e-02 -1.540736295282840729e-02 -1.292227953672409058e-02 -1.578885503113269806e-02 2.962013520300388336e-02 1.587369851768016815e-02 1.151122734881937504e-03 7.618691306561231613e-03 3.465786203742027283e-02 -6.594178557861596346e-05 4.633612465113401413e-03 4.579560831189155579e-02 -3.750253841280937195e-02 4.573129583150148392e-03 -1.583061530254781246e-03
4.136351868510246277e-03 1.096625439822673798e-02 1.058241911232471466e-02 -6.971915252506732941e-03 -4.248706158250570297e-03 3.643817035481333733e-03 -1.843820791691541672e-03 1.049273414537310600e-04 8.627533097751438618e-04 -1.688048429787158966e-02 2.185178454965353012e-03 9.537255973555147648e-04 4.820029251277446747e-03 -3.891675034537911415e-03 -1.629199832677841187e-02 -1.236079260706901550e-03 5.897744558751583099e-03 4.093511961400508881e-03 -4.059971310198307037e-03 -1.110946061089634895e-03 1.044251210987567902e-02 6.999287288635969162e-04 3.144029993563890457e-03 1.711431425064802170e-03 1.713486155495047569e-03 7.057440932840108871e-03 5.777554586529731750e-03 -1.056846510618925095e-02 1.033412758260965347e-02 2.155375477741472423e-05 2.453519264236092567e-03 -2.662310563027858734e-02 -1.234790123999118805e-02 -8.071594871580600739e-03 -1.486435066908597946e-02 4.945214604958891869e-04 2.779263770207762718e-03 -1.157833263278007507e-02 8.523526601493358612e-03 -2.142963232472538948e-03 -1.046078523359028623e-05 -8.574338280595839024e-04 -2.689800690859556198e-03 -3.543811151757836342e-03 2.003600075840950012e-02 -1.461453153751790524e-03 1.595935784280300140e-02 -1.104323193430900574e-02 4.338891711086034775e-03 6.346133071929216385e-03 -2.275730716064572334e-03 2.239991445094347000e-03 1.257980940863490105e-03 -1.074690558016300201e-02 -4.110775887966156006e-03 -6.642465014010667801e-03 3.308348823338747025e-03 7.954402826726436615e-03 -1.263181562535464764e-03 2.065455541014671326e-03 -1.287949737161397934e-03 3.428165335208177567e-03 1.286503300070762634e-02 -6.559794303029775620e-03 -2.000416861847043037e-03 -9.107729420065879822e-04 9.572641924023628235e-03 -8.316420717164874077e-04 2.075700176646932960e-04 9.839542210102081299e-03 -3.830638714134693146e-03 -1.696147024631500244e-03 -8.028923766687512398e-04 -9.066690690815448761e-04 -2.628137916326522827e-02 -2.934119431301951408e-03 -1.811111345887184143e-02 4.535784479230642319e-03 3.202794119715690613e-03 -3.090224461629986763e-03 5.900559015572071075e-03 1.159639377146959305e-02 -1.393568608909845352e-02 -8.536573499441146851e-03 -2.891910495236515999e-03 1.940451562404632568e-03 7.848457433283329010e-03 -1.279859710484743118e-02 6.879765074700117111e-03 -1.738452934660017490e-03 1.613975316286087036e-02 -5.555650684982538223e-03 -1.263567974092438817e-04 4.600585903972387314e-03 -8.787381462752819061e-03 -2.485036849975585938e-03 6.761210970580577850e-03 -1.618284150026738644e-03 4.013578873127698898e-03 4.561280657071620226e-04 -2.220432041212916374e-03 -8.598747663199901581e-03 3.435466671362519264e-03 -1.568326167762279510e-02 -1.193044590763747692e-05 -3.609502920880913734e-03 1.100599486380815506e-02 -1.617508195340633392e-02 2.961104363203048706e-02 4.942361731082201004e-03 -5.848900880664587021e-03 -9.607659652829170227e-03 -6.758352974429726601e-04 1.125072780996561050e-02 -6.651172880083322525e-03 -6.567256059497594833e-03 -1.359493937343358994e-02 1.514974865131080151e-03 -1.170115545392036438e-02 7.971392944455146790e-03 -3.165964502841234207e-03 6.362631451338529587e-03 8.180597424507141113e-02 1.756127551198005676e-02 2.860601525753736496e-03 6.473447661846876144e-03 2.971201436594128609e-03 1.201737485826015472e-02 -9.131568484008312225e-03 -6.191490683704614639e-03 -1.082686241716146469e-02 1.107284147292375565e-02 4.696944728493690491e-03 -1.659895293414592743e-02 -1.598877017386257648e-03 2.855504862964153290e-03 -1.881795935332775116e-03 -1.829431578516960144e-02 1.701479923212900758e-04 -2.029950032010674477e-03 1.510872971266508102e-02 2.639238955453038216e-03 -2.046119235455989838e-02 1.188608657685108483e-04 -9.141655638813972473e-03 -2.487932331860065460e-03 4.357498139142990112e-03 8.553795516490936279e-03 2.065266482532024384e-03 -5.455197766423225403e-03 4.885726142674684525e-03 9.991799481213092804e-03 1.392269041389226913e-03 7.187612820416688919e-03 1.571088097989559174e-02 1.974247628822922707e-03 -2.021069871261715889e-03 7.572909817099571228e-04 -6.271730642765760422e-03 1.076325587928295135e-02 -7.284194231033325195e-03 1.113869948312640190e-03 2.001382224261760712e-02 -2.248094882816076279e-03 1.716145314276218414e-03 -3.592042624950408936e-02 -8.017057552933692932e-03 -1.095833163708448410e-02 -6.514515727758407593e-03 4.766876809298992157e-03 -4.673853050917387009e-03 1.315874978899955750e-03 -8.479053154587745667e-03 9.864342398941516876e-03 -3.558757714927196503e-03 -1.952293515205383301e-02 -3.022910561412572861e-03 1.896236464381217957e-02 8.039809763431549072e-03 1.708692498505115509e-02 -1.192370522767305374e-02 1.748906652210280299e-04 1.577215152792632580e-04 5.504750646650791168e-03 2.731921616941690445e-03 2.567454008385539055e-03 4.878474399447441101e-03 3.388444427400827408e-03 -3.196672070771455765e-03 -1.652196794748306274e-02 9.526819922029972076e-03 -2.517042309045791626e-02 -2.283030562102794647e-02 1.047793217003345490e-02 -4.650899674743413925e-03 -1.574429101310670376e-03 9.247356094419956207e-03 -9.438314475119113922e-03 -2.118118340149521828e-03 -1.229719258844852448e-02 2.100665122270584106e-03 7.596996147185564041e-03 -1.140781678259372711e-03 -3.555286210030317307e-03 -2.822102513164281845e-03 2.425039559602737427e-02 5.380017217248678207e-03 2.993630187120288610e-04 -1.960943685844540596e-03 -1.125599723309278488e-02 7.104825228452682495e-03 -1.470149867236614227e-02 -2.276362385600805283e-03 1.155601465143263340e-03 -6.455854047089815140e-03 2.230222802609205246e-03 -8.105851709842681885e-03 6.783052347600460052e-03 -1.417781319469213486e-02 6.815097294747829437e-03 -3.319035284221172333e-03 5.086618009954690933e-03 -9.362526237964630127e-03 -1.427811384201049805e-02 2.738560317084193230e-03 3.201677463948726654e-04 -2.268352918326854706e-02 2.329896087758243084e-04 -5.847571883350610733e-03 8.251955732703208923e-03 -7.838874123990535736e-03 -1.465499494224786758e-02 1.528473384678363800e-02 -3.353612963110208511e-03 3.052332671359181404e-03 3.236975520849227905e-03 -7.839996367692947388e-03 -4.350410774350166321e-03 -1.215375773608684540e-02 5.078950198367238045e-04 9.274054318666458130e-04 -1.807554811239242554e-02 2.631824091076850891e-02 -3.438848070800304413e-03 -7.749463547952473164e-04 8.557506371289491653e-04 -3.619613824412226677e-03 1.484732050448656082e-02 -4.134331829845905304e-03 -3.892891807481646538e-03 5.890935193747282028e-03 4.604835994541645050e-03 -3.934825304895639420e-03 1.652314513921737671e-02 -5.114816594868898392e-03 -2.703792182728648186e-03
-2.461910189595073462e-04 -5.039764102548360825e-03 6.672163028270006180e-03 -2.485681511461734772e-02 -2.206539269536733627e-03 8.012922480702400208e-03 2.046249993145465851e-02 1.246606372296810150e-02 -3.828521585091948509e-03 -1.420609652996063232e-02 6.850243080407381058e-03 5.994386505335569382e-03 4.888368770480155945e-03 7.831265218555927277e-03 -8.297945372760295868e-03 -1.194668933749198914e-02 6.357559934258460999e-03 -4.764811135828495026e-03 -9.255542419850826263e-03 -6.591164506971836090e-03 3.622660040855407715e-02 -7.081145420670509338e-03 7.126134354621171951e-03 -8.196271955966949463e-03 6.080208346247673035e-03 1.403530593961477280e-02 -1.744277216494083405e-02 4.311167169362306595e-03 7.110562175512313843e-03 -2.094736509025096893e-02 -6.063502514734864235e-04 -9.210575371980667114e-03 2.372175827622413635e-02 6.638031336478888988e-04 1.821104623377323151e-02 6.648971699178218842e-03 1.284474879503250122e-02 -5.342929624021053314e-03 -6.175350025296211243e-02 -4.220156464725732803e-03 -8.549579419195652008e-03 -1.838573440909385681e-02 -4.407880362123250961e-03 -1.307949889451265335e-02 1.940903603099286556e-03 5.484489258378744125e-03 3.848405927419662476e-02 1.036825124174356461e-02 8.167467080056667328e-03 1.424040831625461578e-02 -1.981683075428009033e-03 9.473703685216605663e-04 3.613871755078434944e-03 3.440042585134506226e-02 2.446217928081750870e-03 -4.307944793254137039e-03 -3.043516073375940323e-03 6.588651333004236221e-03 -9.291784837841987610e-03 4.511468287091702223e-04 -3.045327961444854736e-03 3.883562982082366943e-03 -1.422929391264915466e-02 -2.412525191903114319e-02 -3.482537111267447472e-03 -8.650408126413822174e-04 -9.260568767786026001e-03 -1.045606937259435654e-02 -1.265504630282521248e-03 -3.627500729635357857e-03 2.051427587866783142e-02 1.000201422721147537e-02 -1.040945202112197876e-02 5.229911301285028458e-03 2.558241831138730049e-03 -5.628957413136959076e-03 6.685007363557815552e-02 9.098810143768787384e-03 2.994769625365734100e-02 -6.899859290570020676e-03 5.809813737869262695e-04 -2.665074542164802551e-03 -2.468432672321796417e-02 -3.640770912170410156e-02 8.099121972918510437e-03 1.193875540047883987e-02 -1.254099700599908829e-02 6.561370537383481860e-05 -2.195124747231602669e-03 3.831235691905021667e-03 2.729257382452487946e-02 -1.642501330934464931e-03 -3.226076718419790268e-03 7.035057060420513153e-04 -2.283447235822677612e-02 1.727227936498820782e-03 7.899644784629344940e-03 9.003463201224803925e-03 8.888058364391326904e-03 -2.204810082912445068e-02 -1.043841149657964706e-02 3.454798134043812752e-03 6.787667516618967056e-03 2.218628861010074615e-02 -2.834377111867070198e-03 1.301882974803447723e-02 -1.423605624586343765e-02 3.656344115734100342e-02 -4.670326784253120422e-02 9.458061307668685913e-03 5.062688887119293213e-02 -5.940448958426713943e-03 -9.570954134687781334e-04 -5.561215803027153015e-03 5.667043849825859070e-03 -2.278520725667476654e-02 8.017324144020676613e-04 -1.211219839751720428e-02 -4.931773990392684937e-03 -2.607986517250537872e-02 2.747803046077024192e-05 7.958916015923023224e-03 -1.696903258562088013e-02 -7.281586993485689163e-03 2.340954495593905449e-03 1.942279562354087830e-02 -3.573664871510118246e-04 -2.827907167375087738e-02 -1.838541822507977486e-03 -3.973445855081081390e-03 9.182534180581569672e-03 -1.031131017953157425e-03 -9.843340376392006874e-04 -4.557206295430660248e-03 -2.656195685267448425e-02 -2.191506698727607727e-02 -4.485314711928367615e-03 3.166761307511478662e-04 -6.451989174820482731e-04 1.631470164284110069e-03 -2.070397511124610901e-02 -6.100810132920742035e-04 -2.933812141418457031e-02 -3.433547168970108032e-02 2.229770459234714508e-02 -9.277908131480216980e-03 3.679309040307998657e-03 -4.977808799594640732e-03 2.967602107673883438e-03 -1.351823844015598297e-02 2.209626138210296631e-02 2.683290280401706696e-02 -1.561278291046619415e-02 -5.246073473244905472e-03 3.995783999562263489e-02 -1.277844607830047607e-02 -8.009058656170964241e-04 6.253846455365419388e-03 -2.337622689083218575e-03 -7.093592546880245209e-03 2.194442553445696831e-03 4.392877162899821997e-04 1.990028284490108490e-02 -2.317526843398809433e-03 -5.646488629281520844e-03 7.369783124886453152e-04 -7.337050046771764755e-04 3.384522395208477974e-03 -2.262262254953384399e-02 -1.571145839989185333e-02 1.789472252130508423e-02 7.008494809269905090e-03 1.493739522993564606e-02 6.001124624162912369e-03 -7.394373882561922073e-03 2.033915370702743530e-02 -2.839917130768299103e-02 2.069413661956787109e-02 1.647736504673957825e-02 1.845084596425294876e-03 -2.981803752481937408e-02 1.507624634541571140e-03 -1.131726521998643875e-02 -4.440688528120517731e-03 7.416836917400360107e-02 2.380681224167346954e-03 -2.420223318040370941e-03 7.694214582443237305e-04 -1.045234221965074539e-02 -1.498560979962348938e-02 -1.159194856882095337e-02 -1.140048913657665253e-02 -2.360934764146804810e-02 -2.214637398719787598e-02 1.971919089555740356e-03 -7.528472342528402805e-04 1.465492136776447296e-02 -6.371017079800367355e-04 7.767443079501390457e-03 -1.594746671617031097e-02 -3.829958382993936539e-03 -2.276545623317360878e-03 4.306219983845949173e-03 -1.698754727840423584e-03 -3.692463506013154984e-03 -3.537412360310554504e-02 5.243273451924324036e-03 -2.521847374737262726e-03 7.066587451845407486e-03 6.577761843800544739e-03 2.060429425910115242e-03 3.052916144952178001e-03 -4.840916022658348083e-03 -3.673055907711386681e-03 -6.416688207536935806e-03 5.406541749835014343e-03 -2.254349645227193832e-03 -7.003653445281088352e-04 3.469642251729965210e-02 1.305096037685871124e-02 -7.585005369037389755e-03 -2.304501365870237350e-03 -5.564582068473100662e-03 5.869743414223194122e-03 1.325485669076442719e-02 9.042461402714252472e-03 3.856810182332992554e-02 -7.287506014108657837e-03 8.818415924906730652e-03 -3.359329421073198318e-04 1.369550172239542007e-02 -3.869641944766044617e-02 2.389220520853996277e-03 -1.583362556993961334e-02 -1.037343591451644897e-02 -6.742155179381370544e-03 -1.283429469913244247e-02 1.108729187399148941e-02 -2.308422699570655823e-02 -1.662902347743511200e-02 -9.073705878108739853e-04 2.224802970886230469e-02 -2.813103608787059784e-02 -9.247814305126667023e-03 -1.923949341289699078e-03 -3.573462599888443947e-03 -4.464358091354370117e-03 -2.223010174930095673e-02 5.701420828700065613e-03 -1.509499968960881233e-03 -6.855790503323078156e-03 -2.842316636815667152e-03 8.717104792594909668e-03 -7.978445850312709808e-03 -1.332792919129133224e-02 2.256452571600675583e-03
-1.189641770906746387e-03 -1.259517762809991837e-02 -8.434088667854666710e-04 -2.163634262979030609e-02 4.903710214421153069e-04 2.796848770231008530e-03 1.826648972928524017e-02 6.341318599879741669e-03 -7.788304938003420830e-04 -3.901840373873710632e-02 -7.648299913853406906e-03 -1.018466707319021225e-02 3.544689156115055084e-03 -1.264047808945178986e-03 4.527831915766000748e-03 5.083627183921635151e-04 -7.722084876149892807e-03 1.574740186333656311e-02 -7.036159513518214226e-04 -1.039265375584363937e-02 1.116880029439926147e-02 -1.823857775889337063e-03 1.010680943727493286e-02 -1.995878847083076835e-04 -1.191018056124448776e-02 -5.570788402110338211e-03 8.018299005925655365e-03 8.631754666566848755e-03 -1.576293725520372391e-03 2.195539139211177826e-02 1.210330985486507416e-03 4.383363295346498489e-03 -1.506935525685548782e-02 -1.624717842787504196e-03 -1.608723774552345276e-02 1.035238243639469147e-02 1.385177718475461006e-03 -8.076561614871025085e-03 7.380959577858448029e-03 -4.137238953262567520e-03 -2.618249692022800446e-02 5.630687228403985500e-04 1.332331099547445774e-03 2.255441853776574135e-03 -1.144760521128773689e-03 1.011385675519704819e-02 1.933878054842352867e-03 2.272730879485607147e-02 -5.713242106139659882e-03 -1.311544049531221390e-02 1.054122112691402435e-02 -1.098412461578845978e-02 -6.203423254191875458e-03 1.070206239819526672e-02 2.843493828549981117e-03 -1.486618909984827042e-02 1.282239519059658051e-02 -9.006101638078689575e-03 6.626097019761800766e-03 -4.705853294581174850e-03 -6.705326493829488754e-03 1.937417313456535339e-03 -3.876547142863273621e-02 2.321549318730831146e-02 2.707423409447073936e-03 -9.828497655689716339e-03 7.332982495427131653e-03 -2.039238810539245605e-03 1.306011341512203217e-02 7.857880555093288422e-03 -9.101770818233489990e-03 2.335638506338000298e-03 4.256785847246646881e-03 7.002059719525277615e-04 -1.070719305425882339e-02 4.371905699372291565e-03 -2.534023672342300415e-02 2.442504279315471649e-03 4.249683843227103353e-05 7.855266332626342773e-03 4.550564568489789963e-03 4.513389896601438522e-03 -2.969509456306695938e-03 3.621858544647693634e-03 5.929897073656320572e-03 1.968014985322952271e-04 -2.495215833187103271e-02 -1.864970778115093708e-03 6.784473545849323273e-03 8.151175454258918762e-03 2.037765644490718842e-02 -1.330648316070437431e-03 6.838095374405384064e-03 8.029985241591930389e-03 1.563213579356670380e-02 3.630395513027906418e-03 3.685375442728400230e-03 1.131051103584468365e-03 -7.845689833629876375e-05 -1.354707218706607819e-02 2.724290592595934868e-03 1.520154718309640884e-02 6.903385277837514877e-03 -3.936783410608768463e-03 -1.192505733342841268e-04 -7.838974706828594208e-04 2.094351314008235931e-02 -4.292294383049011230e-03 -2.614907920360565186e-02 -7.541115861386060715e-03 -3.928574174642562866e-02 -2.151905931532382965e-02 4.651072900742292404e-03 -3.784657921642065048e-03 -2.861764514818787575e-04 -3.334191441535949707e-02 -1.977552473545074463e-02 1.207994576543569565e-02 -4.754362162202596664e-03 2.879847213625907898e-02 -1.949942205101251602e-03 2.504341769963502884e-03 1.483267359435558319e-02 -9.651809930801391602e-03 4.117379896342754364e-03 -2.481508813798427582e-02 1.742430147714912891e-03 2.922377176582813263e-02 6.716022733598947525e-03 -3.658685367554426193e-03 6.756427232176065445e-03 -8.752212161198258400e-04 -1.525946543551981449e-03 2.418931387364864349e-02 1.605802029371261597e-02 6.372584961354732513e-03 4.327691625803709030e-03 6.159652024507522583e-03 4.448670428246259689e-03 -8.586203679442405701e-03 -1.499247923493385315e-02 -2.105640713125467300e-03 -5.193796008825302124e-02 8.048266172409057617e-03 -6.025736685842275620e-03 1.077867578715085983e-03 -9.535538963973522186e-03 -2.047279290854930878e-02 9.820493869483470917e-03 4.563692491501569748e-03 -3.402322065085172653e-03 -2.659074962139129639e-03 -2.783280983567237854e-02 1.876794733107089996e-02 -9.227352216839790344e-03 -1.041181106120347977e-02 -2.235991269117221236e-04 8.842056617140769958e-03 3.130338154733181000e-03 -4.467228800058364868e-02 -2.737705130130052567e-03 -4.595496226102113724e-03 -1.246404740959405899e-02 4.732203669846057892e-04 1.844953658292070031e-04 1.582682877779006958e-02 -5.413455888628959656e-03 -1.219349168241024017e-02 5.086645483970642090e-03 -1.548685226589441299e-02 2.136487746611237526e-03 -4.308039788156747818e-03 7.019823417067527771e-03 1.457346486859023571e-03 -8.091782219707965851e-03 9.331767447292804718e-03 4.653854295611381531e-03 1.967940852046012878e-02 6.738998461514711380e-03 1.229579653590917587e-02 3.339322749525308609e-03 1.093083526939153671e-03 6.793493404984474182e-03 -2.721662400290369987e-03 7.155978120863437653e-03 7.365227211266756058e-03 -7.342657074332237244e-03 2.721341094002127647e-03 -3.877141047269105911e-03 -7.758656982332468033e-03 -1.808969676494598389e-02 1.841745525598526001e-02 -3.228459507226943970e-03 5.195886641740798950e-02 5.491631105542182922e-03 5.437563639134168625e-03 1.633013715036213398e-03 -1.536152046173810959e-02 9.431209415197372437e-03 -2.963956212624907494e-03 -8.337426930665969849e-03 -1.667565479874610901e-02 1.361082028597593307e-02 1.186123304069042206e-02 -8.924453868530690670e-04 1.064838748425245285e-02 -1.380954519845545292e-03 4.105260595679283142e-03 -7.019289303570985794e-03 7.610082160681486130e-03 5.867595784366130829e-03 2.287280047312378883e-03 1.048564631491899490e-02 5.993667058646678925e-03 -6.170216016471385956e-03 -6.933060474693775177e-03 -3.152049612253904343e-03 -1.155027747154235840e-02 -4.105574917048215866e-03 -6.339841638691723347e-04 4.126813728362321854e-04 -1.597728021442890167e-02 -2.237626165151596069e-02 2.015806175768375397e-02 2.912612399086356163e-04 -2.648747526109218597e-03 -9.969092905521392822e-03 -8.975105360150337219e-03 1.734878867864608765e-03 8.659040555357933044e-03 7.151859346777200699e-03 5.547407548874616623e-03 -9.031953290104866028e-03 3.717944724485278130e-03 4.972703754901885986e-03 -6.498761940747499466e-03 -5.140961147844791412e-03 1.298843976110219955e-02 2.488497411832213402e-03 -1.081427544704638422e-04 4.174016881734132767e-03 1.497981417924165726e-02 1.605666428804397583e-02 -8.276479318737983704e-03 9.798953309655189514e-03 -1.207996904850006104e-02 1.882365555502474308e-03 1.297997497022151947e-02 -1.078433170914649963e-02 7.230191025882959366e-03 -1.193977240473031998e-02 -3.166139824315905571e-03 -3.254250914324074984e-04 1.128293853253126144e-02 3.999674692749977112e-03 3.466136986389756203e-03
1.679525151848793030e-02 -8.063652552664279938e-03 -5.746179725974798203e-03 -2.610796317458152771e-02 -3.782114014029502869e-03 -5.704066716134548187e-03 9.400537237524986267e-03 1.163261290639638901e-02 1.013398449867963791e-02 4.885850008577108383e-03 9.271137532778084278e-04 -2.125236392021179199e-02 -2.213577739894390106e-03 -3.947461955249309540e-03 -3.933845087885856628e-03 -6.382301915436983109e-03 -4.305214155465364456e-03 1.735192164778709412e-02 6.866263691335916519e-03 -2.613542601466178894e-02 1.785562187433242798e-02 -1.471182610839605331e-02 7.134628947824239731e-03 -6.856182124465703964e-03 -2.132820151746273041e-02 -2.223835885524749756e-02 3.641463263193145394e-05 -2.868867246434092522e-03 -5.565090570598840714e-03 2.438838034868240356e-02 -2.507388591766357422e-03 -1.526286266744136810e-02 -1.338547188788652420e-02 -2.523098839446902275e-03 -2.228866890072822571e-02 -8.066248265095055103e-04 3.708039177581667900e-03 -1.002550823614001274e-03 1.307270489633083344e-02 -9.329018939752131701e-05 -2.202052064239978790e-02 -1.917472481727600098e-02 5.091145168989896774e-03 -1.904819073388352990e-04 -5.336612928658723831e-03 7.636636495590209961e-03 4.155995324254035950e-03 3.642025403678417206e-03 -9.122656658291816711e-03 -1.081529539078474045e-02 6.889814510941505432e-03 -3.155597485601902008e-03 -8.386477828025817871e-03 -1.586325466632843018e-02 -7.627317681908607483e-03 -8.939496241509914398e-03 1.963478699326515198e-02 -1.744315028190612793e-02 6.168791558593511581e-03 -7.456013932824134827e-03 -3.753785509616136551e-03 6.939243990927934647e-03 -1.943868957459926605e-02 -1.676143496297299862e-03 7.229562848806381226e-03 -6.402671337127685547e-03 -1.467672176659107208e-02 -5.811010953038930893e-03 3.492728807032108307e-03 3.660912625491619110e-03 -1.280500367283821106e-02 5.289494059979915619e-03 3.061887342482805252e-03 8.942932472564280033e-04 1.390297431498765945e-03 -3.939787391573190689e-03 -3.077150508761405945e-02 -9.600897319614887238e-03 -8.276743814349174500e-03 1.356786116957664490e-02 7.192892488092184067e-03 5.619568284600973129e-03 2.056170441210269928e-02 -7.338895928114652634e-03 4.942569881677627563e-03 -4.240865353494882584e-03 -2.001801878213882446e-02 -4.984875675290822983e-03 9.082858450710773468e-03 8.951931260526180267e-03 -6.687507964670658112e-03 -3.740597749128937721e-03 9.275920689105987549e-03 2.916668541729450226e-03 8.511774241924285889e-03 -1.817901805043220520e-02 -3.903306787833571434e-03 -2.312385477125644684e-03 -2.194143831729888916e-03 -2.406940609216690063e-02 -1.001335680484771729e-03 1.294194068759679794e-02 5.126254167407751083e-03 1.332188490778207779e-03 -2.790340222418308258e-04 6.150227040052413940e-03 -6.306645926088094711e-03 1.170254778116941452e-02 -3.312124311923980713e-02 -2.845387673005461693e-03 -5.475730821490287781e-02 -3.568730782717466354e-03 -7.247844245284795761e-03 -2.415746077895164490e-02 -2.152903191745281219e-02 -2.415657788515090942e-02 -1.192702911794185638e-02 8.939799852669239044e-03 -2.037699148058891296e-02 2.933827787637710571e-02 -4.796564113348722458e-03 -3.105944488197565079e-03 2.049507386982440948e-02 -9.174654260277748108e-04 3.868918400257825851e-03 -8.290800265967845917e-03 4.055477678775787354e-03 9.375319816172122955e-03 4.970256704837083817e-03 -5.044232122600078583e-03 -7.198547828011214733e-04 4.307788331061601639e-03 -2.296760911121964455e-03 5.515572614967823029e-03 1.049717306159436703e-03 1.410361658781766891e-02 3.412137040868401527e-03 1.375922840088605881e-02 -2.522085094824433327e-03 -6.209083367139101028e-03 -2.347815968096256256e-02 -2.884813118726015091e-03 7.922912947833538055e-03 1.015279721468687057e-02 -6.041138432919979095e-03 3.275061491876840591e-03 1.862272038124501705e-03 -1.317952107638120651e-02 -1.730898395180702209e-02 1.785835018381476402e-03 3.814764320850372314e-03 8.843116462230682373e-03 -9.056795388460159302e-03 1.794479414820671082e-02 -1.539170090109109879e-02 -1.977096311748027802e-03 -3.258479759097099304e-03 3.303073113784193993e-03 4.682232160121202469e-03 -6.020057946443557739e-02 -3.676977008581161499e-03 -5.734535865485668182e-03 -1.481136539950966835e-03 -1.209416333585977554e-02 -8.439903147518634796e-03 4.781835246831178665e-03 1.525408937595784664e-03 -1.057983655482530594e-02 7.435382343828678131e-03 -3.008470498025417328e-02 9.990190155804157257e-03 -1.443099975585937500e-02 4.501761402934789658e-03 -1.357467286288738251e-02 -8.961704559624195099e-03 6.026865448802709579e-03 1.057377643883228302e-02 -1.687001786194741726e-03 4.437468480318784714e-03 1.915675960481166840e-02 -9.394024498760700226e-03 -6.457783456426113844e-05 8.017141371965408325e-03 -3.017777344211935997e-03 -9.156433865427970886e-03 -1.604473404586315155e-02 -5.900924559682607651e-03 -4.991620779037475586e-03 -3.429283620789647102e-03 1.705204718746244907e-03 -8.814173750579357147e-03 6.020051892846822739e-03 -2.071297727525234222e-02 3.390774503350257874e-02 3.941249160561710596e-04 5.502403248101472855e-03 -1.208881658385507762e-04 -7.271939422935247421e-03 8.638887666165828705e-03 7.231888826936483383e-03 -7.879531010985374451e-03 -1.832917332649230957e-03 -2.018109895288944244e-02 7.136383559554815292e-03 3.816390875726938248e-03 8.832397870719432831e-03 -8.316258899867534637e-03 -7.379803806543350220e-03 -1.091293618083000183e-02 -1.484410953707993031e-03 -5.280251614749431610e-03 -1.388652715831995010e-03 7.896797731518745422e-03 -4.285113420337438583e-03 2.851110417395830154e-03 1.633162959478795528e-03 -2.998372539877891541e-03 -5.496421363204717636e-03 -2.891241945326328278e-02 3.174650715664029121e-03 -9.429201018065214157e-04 1.022625248879194260e-02 -2.487208880484104156e-02 1.440738700330257416e-02 7.312764646485447884e-04 -5.603750701993703842e-03 -1.535529736429452896e-02 -7.480713073164224625e-03 9.394002147018909454e-03 1.410733559168875217e-03 5.925246048718690872e-03 3.942203242331743240e-03 -1.358828321099281311e-02 3.289521671831607819e-03 -4.192785359919071198e-03 -2.174108661711215973e-02 -1.191041991114616394e-02 5.256690550595521927e-03 -2.871999517083168030e-03 -9.995774365961551666e-03 -1.335961371660232544e-02 1.651302562095224857e-03 1.102780178189277649e-02 -4.402645397931337357e-03 -3.815724747255444527e-03 -9.616778232157230377e-03 8.562507107853889465e-03 1.667256653308868408e-02 7.146651856601238251e-03 6.097740959376096725e-03 -1.632843166589736938e-02 -6.924639921635389328e-03 1.678842864930629730e-02 7.810201961547136307e-03 -7.769037038087844849e-03 -2.237726561725139618e-02
-6.846365053206682205e-03 -1.845585368573665619e-02 1.405968941980972886e-04 -3.545123338699340820e-02 3.700244007632136345e-03 -9.205547394230961800e-04 1.375359855592250824e-02 1.331275235861539841e-02 1.341181434690952301e-02 -2.128725638613104820e-03 -2.635258482769131660e-03 -3.317678719758987427e-02 7.016833871603012085e-03 -1.875234395265579224e-02 -7.537582889199256897e-03 -8.551614359021186829e-03 -9.002564474940299988e-03 2.634477801620960236e-02 -8.296081214211881161e-04 -4.302938282489776611e-02 3.078464418649673462e-03 -6.159685086458921432e-03 2.119771763682365417e-02 1.388285891152918339e-03 -4.066358506679534912e-02 -1.488662697374820709e-02 -5.328923836350440979e-02 -4.699460230767726898e-03 -1.250587683171033859e-02 2.806230075657367706e-02 -6.149590015411376953e-03 1.810318604111671448e-02 1.778296940028667450e-02 -6.444384809583425522e-03 -7.960859686136245728e-03 -3.148252144455909729e-03 -4.926656838506460190e-03 -6.210200022906064987e-03 8.056818507611751556e-03 -2.256033942103385925e-02 -1.631778478622436523e-02 -1.916288025677204132e-02 1.925491914153099060e-02 1.332965586334466934e-02 -1.382210291922092438e-02 2.229038067162036896e-02 -5.751276388764381409e-03 5.158871877938508987e-03 -2.538212202489376068e-02 -1.133699622005224228e-02 2.624638751149177551e-02 1.685698889195919037e-02 4.402121063321828842e-03 1.246976573020219803e-02 -2.886015921831130981e-03 -7.848282344639301300e-03 -1.555792335420846939e-02 -2.050850726664066315e-02 9.466838091611862183e-03 -2.320461161434650421e-02 -5.021287128329277039e-03 7.612658664584159851e-03 -2.197654917836189270e-03 1.308622583746910095e-02 -3.399502718821167946e-03 -1.384198851883411407e-02 -4.321829602122306824e-02 2.502328949049115181e-03 5.988297984004020691e-03 7.132879924029111862e-03 -1.617488265037536621e-02 -9.074178524315357208e-04 4.194186534732580185e-03 1.484166830778121948e-02 1.712442934513092041e-02 -5.640430375933647156e-03 -2.257770113646984100e-02 -2.230540476739406586e-02 -1.502636075019836426e-02 7.560225785709917545e-04 6.861360743641853333e-03 2.925577200949192047e-02 -1.007688883692026138e-02 1.521201804280281067e-02 9.569660760462284088e-03 -1.722565270029008389e-03 -5.537313222885131836e-02 3.816424170508980751e-03 1.041327975690364838e-02 2.015796862542629242e-02 -4.764814674854278564e-02 -1.302699092775583267e-02 1.439146138727664948e-02 -4.058108897879719734e-04 1.995818503201007843e-02 8.376073092222213745e-03 5.065476056188344955e-03 8.219406008720397949e-04 -1.086115837097167969e-02 -3.982947766780853271e-02 -3.554803843144327402e-04 2.111215144395828247e-02 4.140922334045171738e-03 2.042227610945701599e-02 5.024116020649671555e-03 -3.602044191211462021e-03 -2.101179445162415504e-03 -1.422179210931062698e-02 9.057889692485332489e-03 3.502813400700688362e-03 3.877154318615794182e-03 -8.696627337485551834e-04 1.398202218115329742e-02 -1.213986799120903015e-02 -1.347802858799695969e-02 -7.987933605909347534e-02 -4.057610780000686646e-02 1.331404084339737892e-03 -1.767074689269065857e-02 9.613331407308578491e-03 -1.223561447113752365e-02 5.663092597387731075e-04 2.239184640347957611e-02 -1.313730701804161072e-02 5.772489588707685471e-03 -4.517290741205215454e-02 1.520585175603628159e-02 -2.623746544122695923e-02 9.796347469091415405e-03 -5.455948878079652786e-03 1.221567951142787933e-02 4.854975733906030655e-03 9.578777477145195007e-03 1.177040580660104752e-02 7.957328110933303833e-03 2.519771642982959747e-02 7.822127081453800201e-03 3.450625389814376831e-02 -1.442538487026467919e-04 -1.024241186678409576e-02 -2.121434733271598816e-02 -7.767011411488056183e-03 -1.214445009827613831e-02 1.035986375063657761e-02 -2.948922291398048401e-02 8.587197400629520416e-03 -2.470822946634143591e-04 -4.118679556995630264e-03 1.637379452586174011e-02 -2.679493045434355736e-03 -1.542348181828856468e-03 -3.356431145220994949e-03 7.473828736692667007e-03 -2.100085141137242317e-03 -3.052614256739616394e-02 1.904401928186416626e-02 -9.990066755563020706e-04 1.481937617063522339e-02 -6.690939422696828842e-03 -6.124215945601463318e-02 -2.242816146463155746e-03 -3.454459831118583679e-03 6.059112027287483215e-03 2.905629109591245651e-03 4.741679877042770386e-03 -8.779780007898807526e-03 -3.460833057761192322e-02 -5.422019399702548981e-03 2.246295288205146790e-02 -2.432470768690109253e-02 1.516783330589532852e-02 -9.597242809832096100e-03 1.994631625711917877e-02 -3.046102588996291161e-03 -4.524637013673782349e-03 -3.058734908699989319e-02 1.076077762991189957e-02 2.453594841063022614e-02 -1.207270938903093338e-02 2.743231132626533508e-02 -7.246984634548425674e-03 -8.767661056481301785e-04 -8.566934615373611450e-03 -4.206718876957893372e-03 -3.953137248754501343e-02 9.448331780731678009e-03 -1.406813226640224457e-02 -1.362032536417245865e-02 3.600117051973938942e-04 1.528927311301231384e-02 -3.752538701519370079e-03 -1.569847017526626587e-02 -3.212284669280052185e-02 2.256929501891136169e-02 1.625298522412776947e-02 1.181018538773059845e-02 1.714785234071314335e-03 -4.771361127495765686e-03 6.650778930634260178e-03 3.619045764207839966e-02 -1.640578545629978180e-02 -1.322372257709503174e-02 -4.620309919118881226e-02 2.490240521728992462e-02 3.876948903780430555e-05 2.203097101300954819e-03 -1.280300691723823547e-02 7.060773670673370361e-03 -1.176621299237012863e-02 2.698397263884544373e-03 -1.410475373268127441e-02 -6.261655129492282867e-03 1.871138624846935272e-02 2.147085033357143402e-02 1.451339223422110081e-03 -4.055087920278310776e-03 1.029084809124469757e-02 -3.337595611810684204e-03 -1.662204042077064514e-02 1.820874027907848358e-02 -3.883869154378771782e-03 2.262103371322154999e-02 -4.813149943947792053e-02 -3.426333889365196228e-03 -7.978980429470539093e-04 -8.137982338666915894e-03 -1.058949623256921768e-02 6.035891827195882797e-03 1.016649324446916580e-02 5.552352406084537506e-03 3.054511966183781624e-03 6.617889739573001862e-03 -1.667215675115585327e-02 -4.262513946741819382e-03 5.147594958543777466e-03 1.557511044666171074e-03 -1.712794601917266846e-02 1.413528248667716980e-02 -1.025697309523820877e-02 1.367011200636625290e-02 1.482070074416697025e-03 9.358047507703304291e-03 -1.170247513800859451e-02 -9.557810612022876740e-03 1.232136413455009460e-02 -2.246649935841560364e-02 6.942259613424539566e-03 3.068632073700428009e-02 2.108426019549369812e-02 3.582572331652045250e-03 -2.071587368845939636e-02 2.330212155357003212e-03 -1.068218052387237549e-02 9.685531840659677982e-04 7.408980280160903931e-03 7.966609671711921692e-03
-7.740762550383806229e-03 -4.023927822709083557e-02 9.488677605986595154e-03 3.596697747707366943e-02 -4.784844350069761276e-03 4.359262809157371521e-02 -2.924171276390552521e-02 -1.242086384445428848e-02 2.315217134309932590e-04 1.605280488729476929e-02 -1.173780299723148346e-02 3.097924403846263885e-02 1.922781579196453094e-02 2.981738001108169556e-02 -3.166265785694122314e-02 -2.533211559057235718e-02 6.154925562441349030e-03 -1.810447312891483307e-02 3.637684509158134460e-03 -4.393221810460090637e-03 3.278150409460067749e-02 1.120971702039241791e-02 2.699243649840354919e-02 -6.621504202485084534e-03 -2.980129793286323547e-02 3.801856562495231628e-02 7.306127808988094330e-03 2.293391898274421692e-02 4.374582320451736450e-03 4.274237155914306641e-02 -9.162542410194873810e-03 1.679623126983642578e-02 2.145829237997531891e-02 -1.607115380465984344e-03 6.698915269225835800e-03 -4.378081485629081726e-02 5.939102545380592346e-02 9.445711039006710052e-03 -8.490265905857086182e-02 7.445394247770309448e-02 6.332738790661096573e-03 -1.699839369393885136e-03 8.510181680321693420e-03 -3.844382986426353455e-02 4.732223972678184509e-02 4.688625223934650421e-03 6.295274943113327026e-02 5.506175011396408081e-02 -1.080023963004350662e-02 -3.956250846385955811e-03 2.695212513208389282e-02 7.114627514965832233e-04 8.179342257790267467e-04 5.349391605705022812e-03 -6.367153022438287735e-03 -4.471265524625778198e-02 2.376312203705310822e-02 -1.031611347571015358e-03 9.323624894022941589e-03 4.332374781370162964e-03 6.909983232617378235e-03 2.685043029487133026e-02 -3.786271810531616211e-02 -6.430600583553314209e-02 -2.728573745116591454e-03 -1.454712823033332825e-02 -3.600737825036048889e-02 -3.823296353220939636e-02 1.689373329281806946e-02 3.733198717236518860e-02 5.154340341687202454e-02 7.021150551736354828e-03 -1.649906858801841736e-02 -9.864491410553455353e-03 2.159313485026359558e-02 -8.523521013557910919e-03 -4.364295396953821182e-03 -5.845377454534173012e-04 6.304690986871719360e-02 -2.938358578830957413e-03 5.845378618687391281e-03 -1.478490768931806087e-03 3.416150435805320740e-02 5.646914243698120117e-02 2.438821457326412201e-02 2.267182245850563049e-02 4.692813381552696228e-02 -4.039312154054641724e-02 6.272993236780166626e-02 -5.267462879419326782e-02 5.146668292582035065e-03 -1.964992284774780273e-02 6.132698617875576019e-03 1.163732074201107025e-02 -4.546253010630607605e-02 -1.161460578441619873e-02 -1.108864415436983109e-02 2.299420163035392761e-02 -5.106421187520027161e-03 -6.884060800075531006e-02 1.649266667664051056e-02 -1.755454204976558685e-02 -3.175063058733940125e-03 5.627963691949844360e-03 -1.658186689019203186e-02 -3.775251656770706177e-02 -2.122449502348899841e-02 4.322934523224830627e-02 -3.713837265968322754e-02 5.580113828182220459e-02 5.456861853599548340e-02 -5.495416000485420227e-02 -9.009009227156639099e-03 -2.682694606482982635e-02 5.444807186722755432e-02 1.264145411550998688e-02 -1.367732603102922440e-02 -7.627293001860380173e-03 3.735383739694952965e-03 1.020544581115245819e-02 4.777770489454269409e-02 -4.999044816941022873e-03 -7.794912904500961304e-03 1.002154778689146042e-02 1.936363428831100464e-02 -5.828544963151216507e-03 4.805060103535652161e-02 -1.762460544705390930e-02 -1.393396593630313873e-02 -7.292098365724086761e-03 4.016336053609848022e-02 1.068623503670096397e-03 -1.923368126153945923e-02 -2.331659942865371704e-02 3.345030918717384338e-02 -1.467240694910287857e-02 1.321565359830856323e-02 3.793472051620483398e-02 2.551308716647326946e-04 9.331570938229560852e-03 6.627288460731506348e-02 -2.278512343764305115e-02 3.725315257906913757e-02 -1.718866638839244843e-02 2.003584988415241241e-02 1.047159824520349503e-02 -1.556804124265909195e-02 -1.708310842514038086e-02 -5.547121167182922363e-03 2.502426737919449806e-03 5.074031185358762741e-03 1.670398004353046417e-02 -3.940214961767196655e-02 2.314594201743602753e-02 -2.062285318970680237e-03 -5.597133561968803406e-02 1.405832357704639435e-02 -5.636994261294603348e-03 7.247353787533938885e-04 -1.513168960809707642e-02 -2.502046152949333191e-02 -1.231221389025449753e-02 5.519032478332519531e-02 -1.466638408601284027e-02 -2.279816567897796631e-02 -5.331065878272056580e-02 4.740910977125167847e-02 7.982818037271499634e-02 -4.030904918909072876e-02 4.441962111741304398e-03 3.632983192801475525e-02 1.185967307537794113e-02 -1.306471531279385090e-03 -1.334769837558269501e-02 6.890622898936271667e-03 -1.813747920095920563e-02 2.066080272197723389e-02 -3.889716928824782372e-03 3.770171850919723511e-02 2.748288959264755249e-02 -8.327984064817428589e-02 1.309499982744455338e-02 -2.417552284896373749e-02 -3.176816098857671022e-04 -9.676114656031131744e-03 -5.279080476611852646e-03 2.054882002994418144e-03 1.646830141544342041e-02 6.693074479699134827e-03 -4.381888732314109802e-02 2.573643438518047333e-02 -5.226232111454010010e-02 -1.550833322107791901e-02 2.900273352861404419e-02 2.725649438798427582e-02 2.421567961573600769e-02 7.528850343078374863e-03 -1.837490499019622803e-02 6.682057399302721024e-03 -3.114884020760655403e-03 1.079164911061525345e-03 -3.017313592135906219e-02 1.963373646140098572e-02 5.698021873831748962e-02 -4.331377521157264709e-02 -3.586794808506965637e-02 -7.726425770670175552e-03 -2.232696302235126495e-02 -9.874300099909305573e-03 8.806668221950531006e-03 1.622106996364891529e-03 -5.050997436046600342e-02 -5.954075604677200317e-04 8.892291225492954254e-03 -6.595147307962179184e-03 -1.247779000550508499e-02 -2.799816802144050598e-02 2.214084193110466003e-02 2.991239912807941437e-02 9.869502857327461243e-03 -1.791862398386001587e-02 7.979946210980415344e-03 -3.965499345213174820e-03 1.034713163971900940e-02 -1.832162402570247650e-02 -4.641829431056976318e-02 2.233806252479553223e-02 -2.029965398833155632e-03 -8.473646594211459160e-04 9.113756008446216583e-03 2.115797437727451324e-02 -6.122929975390434265e-02 8.560947328805923462e-02 3.052160888910293579e-02 -1.239243615418672562e-02 2.606554888188838959e-03 -6.634797900915145874e-02 8.280892856419086456e-03 -5.255395546555519104e-02 -1.409815624356269836e-02 3.143113863188773394e-04 1.466375309973955154e-02 -2.905387990176677704e-02 -1.287929993122816086e-02 1.096790842711925507e-02 -3.403424471616744995e-02 2.147844061255455017e-02 4.749848693609237671e-02 -6.414109468460083008e-02 3.131182398647069931e-03 -4.964450374245643616e-03 -2.331187017261981964e-02 1.680821180343627930e-02 -1.221752446144819260e-02 -1.133925188332796097e-02 -3.276310744695365429e-04
