2.274933736771345139e-03 -1.044853590428829193e-02 2.397350035607814789e-03 -9.796662256121635437e-03 2.322361618280410767e-02 -5.779431667178869247e-03 -8.101144921965897083e-04 1.429350208491086960e-02 -1.776964962482452393e-02 1.378504373133182526e-02 -3.059079498052597046e-02 -1.845928467810153961e-02 1.197425462305545807e-02 -2.509789541363716125e-03 2.325875218957662582e-03 -1.634880155324935913e-02 -1.306494604796171188e-02 -2.501789666712284088e-02 -1.060195453464984894e-02 -1.544370409101247787e-02 -1.081286953308335796e-07 -2.864729426801204681e-02 -1.474669296294450760e-02 -3.181025851517915726e-03 -1.524246949702501297e-02 5.596413277089595795e-03 -2.255612984299659729e-03 8.254595100879669189e-03 1.614945940673351288e-02 1.267273537814617157e-02 -4.124852363020181656e-03 -2.676002681255340576e-02 -1.464575907448306680e-04 -9.517231956124305725e-03 -9.223629720509052277e-03 -7.464192458428442478e-04 -9.938823990523815155e-03 -1.794532500207424164e-02 8.203910547308623791e-04 1.018581911921501160e-03 -3.427106142044067383e-02 -1.273827441036701202e-02 -4.202789161354303360e-03 -1.860750094056129456e-02 -1.033001672476530075e-02 -7.420937996357679367e-03 1.275203190743923187e-02 1.953366398811340332e-02 -5.461428314447402954e-03 2.837002463638782501e-02 3.153712255880236626e-03 1.294614747166633606e-02 -1.370119303464889526e-02 -1.506739668548107147e-02 1.298945210874080658e-02 6.930209347046911716e-04 5.302618723362684250e-03 -5.958826746791601181e-03 -1.487574190832674503e-03 -3.802432445809245110e-03 -4.026494279969483614e-04 1.839676126837730408e-02 -3.125492716208100319e-03 -6.478406488895416260e-03 1.282422337681055069e-02 -5.989034660160541534e-03 4.113876074552536011e-02 -9.104099590331315994e-04 3.776224795728921890e-03 -4.813661333173513412e-03 -5.230822414159774780e-02 4.121382534503936768e-02 -8.690411224961280823e-03 -5.240102764219045639e-03 -2.802395960316061974e-03 -1.803969964385032654e-03 1.738922903314232826e-03 -8.097625337541103363e-03 9.981109760701656342e-04 -2.257445827126502991e-03 -3.527689957991242409e-03 -5.512061994522809982e-03 1.644250121898949146e-03 -1.950476900674402714e-03 -1.977076986804604530e-03 1.006883662194013596e-02 -3.830085275694727898e-03 -9.904514998197555542e-03 -5.133097525686025620e-03 9.311686735600233078e-04 5.179601535201072693e-02 -5.952752195298671722e-03 9.138734079897403717e-03 8.035949431359767914e-04 5.720620509237051010e-03 1.224529836326837540e-02 3.376927599310874939e-02 3.636511275544762611e-03 -1.535166986286640167e-02 1.465696189552545547e-02 6.787291727960109711e-03 1.010575890541076660e-02 -4.328962415456771851e-03 -5.995711311697959900e-02 1.687619718722999096e-03 1.302599534392356873e-02 -2.666400978341698647e-03 2.126958407461643219e-02 3.818137920461595058e-04 -4.135448951274156570e-03 -6.519786547869443893e-04 2.468657912686467171e-04 6.088390480726957321e-03 -1.800169120542705059e-03 -3.841530065983533859e-03 3.611168358474969864e-03 7.379679940640926361e-03 -4.103756044059991837e-03 -9.204428642988204956e-03 1.539879199117422104e-02 -2.289191586896777153e-03 -1.354882773011922836e-02 3.307936480268836021e-03 1.909870281815528870e-02 1.182890776544809341e-02 -1.251883525401353836e-02 -5.998244043439626694e-03 8.409400470554828644e-03 -3.156257094815373421e-03 2.761125564575195312e-02 2.033420652151107788e-02 -2.386290580034255981e-02 9.090826846659183502e-03 7.027446408756077290e-04 3.603803366422653198e-02 -1.079306658357381821e-02 -3.248650580644607544e-03 7.364299148321151733e-03 5.726802162826061249e-03 8.275239961221814156e-04 2.276881411671638489e-02 1.254667621105909348e-02 -1.425739657133817673e-02 -5.307366373017430305e-04 -5.001590587198734283e-03 -3.696713224053382874e-02 -4.419914621394127607e-04 -4.973612260073423386e-03 -2.985748834908008575e-02 7.275391370058059692e-03 1.350136753171682358e-02 -5.906135775148868561e-04 -2.206804463639855385e-03 -2.329738438129425049e-02 1.522459182888269424e-02 -7.279236888280138373e-05 1.048301253467798233e-02 1.205520331859588623e-02 7.896510069258511066e-04 -2.481496520340442657e-02 -2.952542901039123535e-02 -1.609091646969318390e-02 -3.306253056507557631e-04 4.122482147067785263e-03 -8.502635173499584198e-03 -7.455922197550535202e-03 -7.375708315521478653e-03 -1.124387606978416443e-03 -1.075868960469961166e-02 -1.018164400011301041e-02 -6.725696846842765808e-03 2.328965114429593086e-03 -2.280142158269882202e-02 -1.514771115034818649e-02 4.308309033513069153e-02 8.333439007401466370e-03 -3.801543265581130981e-03 -1.642822474241256714e-02 1.163177471607923508e-02 1.929001510143280029e-02 -5.829627159982919693e-03 1.489055226556956768e-03 6.722369696944952011e-03 1.712150499224662781e-02 -1.028886530548334122e-02 1.175522711127996445e-02 1.682542846538126469e-03 5.874974653124809265e-03 2.056235680356621742e-03 2.763430122286081314e-03 -3.825557650998234749e-03 3.322442993521690369e-03 2.228103345260024071e-03 1.247685868293046951e-02 1.570610143244266510e-02 4.998745396733283997e-03 1.429117936640977859e-02 1.162266079336404800e-02 4.279654473066329956e-03 -5.349233397282660007e-04 1.583064347505569458e-02 -2.690816298127174377e-02 -2.854818711057305336e-03 -2.109215361997485161e-03 -1.736560603603720665e-03 -9.252788731828331947e-04 3.171933931298553944e-04 -2.312113530933856964e-02 4.715588875114917755e-04 9.642838500440120697e-03 2.712973859161138535e-03 -6.664673332124948502e-03 2.501128613948822021e-02 -1.487779710441827774e-02 1.603703014552593231e-02 6.720859091728925705e-03 -1.251349598169326782e-02 -1.172718685120344162e-02 1.831468194723129272e-02 -2.133740112185478210e-02 5.512713454663753510e-03 6.858047563582658768e-04 -2.885927446186542511e-02 -6.777815986424684525e-03 -3.220681846141815186e-02 7.452809950336813927e-04 -3.603955032303929329e-03 -1.584658399224281311e-02 -5.288567394018173218e-02 8.896749350242316723e-04 -1.484730560332536697e-02 -3.787714289501309395e-03 2.886021276935935020e-03 -2.435936033725738525e-02 -6.904680631123483181e-04 9.547651745378971100e-03 -1.603772491216659546e-02 -5.632092710584402084e-03 4.598205909132957458e-03 2.388626150786876678e-02 3.897114889696240425e-03 -2.746700309216976166e-02 -5.697067826986312866e-03 -1.007659360766410828e-02 -1.029411517083644867e-02 6.927964743226766586e-03 2.990916138514876366e-03 -1.665407605469226837e-02 -4.168939776718616486e-03 -2.841048408299684525e-03 -4.124107945244759321e-04 -3.128235694020986557e-03 3.276160918176174164e-03 4.927318077534437180e-03 -2.857019193470478058e-03 2.916343882679939270e-02
-4.201231524348258972e-02 7.035046350210905075e-03 -3.314767405390739441e-02 1.616569794714450836e-02 -4.283125326037406921e-02 4.271623212844133377e-03 -1.400156412273645401e-02 -1.016890164464712143e-02 4.472843930125236511e-02 2.668266883119940758e-03 -2.055265940725803375e-02 -7.247978448867797852e-02 -9.583151899278163910e-03 -6.865772418677806854e-03 4.909337498247623444e-03 6.873340811580419540e-03 3.871133085340261459e-04 4.005893133580684662e-04 -1.112177874892950058e-02 3.183501213788986206e-02 -1.160495914518833160e-02 3.663407266139984131e-02 -1.215455960482358932e-02 -4.190332815051078796e-02 -3.930342197418212891e-02 -3.203408420085906982e-02 -6.192341446876525879e-03 -1.555956713855266571e-02 1.943083852529525757e-02 2.207294479012489319e-02 -3.976714238524436951e-02 -1.754178665578365326e-02 -4.906161688268184662e-03 3.706434741616249084e-02 1.235306169837713242e-02 -1.529335789382457733e-02 1.387983467429876328e-02 1.888892240822315216e-02 -1.366128958761692047e-02 -1.886984915472567081e-03 -3.134690970182418823e-02 3.670234233140945435e-02 -1.185618713498115540e-02 1.661995053291320801e-02 3.112282790243625641e-02 1.019779685884714127e-02 1.333762519061565399e-02 -8.773422800004482269e-03 -1.802935451269149780e-02 -4.521400667726993561e-03 -1.923384494148194790e-03 1.851297449320554733e-03 1.012378931045532227e-02 -7.864023558795452118e-03 -9.872395545244216919e-03 -2.777015604078769684e-02 4.024720285087823868e-03 -2.169635146856307983e-02 2.295392798259854317e-03 -5.745515692979097366e-03 5.394307896494865417e-03 -6.913786288350820541e-03 -1.748346537351608276e-02 6.524439901113510132e-03 -2.017735317349433899e-02 3.865517675876617432e-02 1.868281885981559753e-02 -4.592964891344308853e-03 -1.234860625118017197e-02 1.917060348205268383e-03 5.765027552843093872e-02 6.404204666614532471e-02 3.046695888042449951e-02 -5.032953992486000061e-02 3.677200060337781906e-03 4.680434940382838249e-04 -4.143067635595798492e-03 -1.883434830233454704e-03 1.598399103386327624e-04 2.311302581802010536e-03 -1.127929077483713627e-03 -1.892182976007461548e-03 2.033917466178536415e-03 -3.378075733780860901e-02 -6.764862220734357834e-03 -1.329936645925045013e-02 9.484047768637537956e-04 -1.694837771356105804e-02 7.928986102342605591e-03 2.969098975881934166e-03 -4.978897795081138611e-02 -7.408353965729475021e-03 -4.011874273419380188e-02 5.186304915696382523e-03 -4.562197998166084290e-02 4.237512592226266861e-03 4.476841539144515991e-02 -1.444838475435972214e-03 -1.537482719868421555e-03 2.884217165410518646e-02 -2.461937256157398224e-02 5.754992365837097168e-03 1.353716477751731873e-02 -2.475779131054878235e-02 1.135870348662137985e-03 2.101957611739635468e-02 3.458292782306671143e-02 1.555556897073984146e-02 8.072726428508758545e-03 -6.231381557881832123e-03 -4.981587175279855728e-03 -1.810815068893134594e-03 -4.631204064935445786e-03 4.242468625307083130e-03 9.468315169215202332e-03 -5.245415377430617809e-04 2.705488819628953934e-03 1.148092187941074371e-02 -2.537470124661922455e-02 2.129580639302730560e-02 1.536440104246139526e-02 1.161401596618816257e-04 -1.272081717615947127e-04 -3.873831406235694885e-02 4.058462753891944885e-02 5.645517725497484207e-03 -7.860822975635528564e-02 4.946436733007431030e-03 4.893752280622720718e-03 1.240057218819856644e-02 -4.631517454981803894e-03 2.934594638645648956e-02 -2.797623723745346069e-02 1.101482007652521133e-02 -6.539300829172134399e-02 -1.127611398696899414e-01 1.266285777091979980e-02 3.745505213737487793e-02 -7.695734500885009766e-03 -1.775557175278663635e-02 -2.364631555974483490e-02 2.240590192377567291e-02 -1.060566119849681854e-02 8.156750351190567017e-03 3.260861150920391083e-03 3.268604166805744171e-03 2.322923624888062477e-03 -5.904588848352432251e-03 -3.645920008420944214e-02 4.094901378266513348e-04 -1.614673435688018799e-02 -1.119901798665523529e-02 -1.296805916354060173e-03 -2.482304722070693970e-02 -9.925276972353458405e-03 -3.600174188613891602e-02 -8.412510156631469727e-03 7.777047809213399887e-03 4.037096165120601654e-03 -4.755421541631221771e-03 -6.294796708971261978e-03 -3.839002922177314758e-02 4.426400177180767059e-03 -4.681054502725601196e-03 1.024142373353242874e-02 -1.452362537384033203e-02 8.231191895902156830e-03 -2.279173349961638451e-03 -1.232692133635282516e-02 -3.266604244709014893e-02 5.874086054973304272e-04 6.899122148752212524e-03 -5.870636086910963058e-03 -1.021267194300889969e-02 4.567088186740875244e-02 -1.717677153646945953e-02 -9.291794151067733765e-03 1.400322280824184418e-02 1.764653995633125305e-02 9.910476393997669220e-03 -5.216969177126884460e-03 -5.603546276688575745e-03 -6.728423177264630795e-04 -3.668057965114712715e-03 8.188156411051750183e-03 8.248465135693550110e-03 7.288192864507436752e-03 1.841156370937824249e-02 -1.413259189575910568e-02 3.414943814277648926e-02 -1.986684463918209076e-02 3.734717890620231628e-02 4.419862758368253708e-03 -4.929813742637634277e-02 1.266166847199201584e-02 -1.649783365428447723e-02 -1.638208748772740364e-03 1.099136844277381897e-02 -3.890233580023050308e-03 -6.053465418517589569e-03 2.010678499937057495e-02 1.033710781484842300e-02 -1.200870331376791000e-02 -2.287149894982576370e-03 -8.256478235125541687e-03 1.761146588250994682e-03 -1.618426875211298466e-03 -3.849183022975921631e-02 9.393461048603057861e-03 -3.013748675584793091e-02 -1.566338725388050079e-02 -5.789649672806262970e-03 -6.556588225066661835e-03 2.893521077930927277e-02 -4.346974939107894897e-02 -4.023088887333869934e-02 2.621375955641269684e-02 4.783233627676963806e-03 3.017872013151645660e-02 2.266919799149036407e-02 -1.389800570905208588e-02 -1.204262487590312958e-02 3.666875511407852173e-02 -2.854014746844768524e-02 -3.310326859354972839e-02 5.212162155658006668e-03 4.483160097151994705e-03 -3.483656048774719238e-02 -2.375415340065956116e-02 -1.689305179752409458e-03 -7.762168534100055695e-03 -3.826566040515899658e-03 3.361602546647191048e-03 5.350703839212656021e-03 4.508321639150381088e-03 2.630165033042430878e-02 4.995558876544237137e-03 -1.008744444698095322e-02 1.550822053104639053e-02 -1.480656443163752556e-03 -2.105114795267581940e-02 -5.145214498043060303e-02 8.175424300134181976e-03 -8.699243888258934021e-03 5.268490873277187347e-03 -1.829093508422374725e-02 3.893697634339332581e-02 1.296159718185663223e-02 -1.758170127868652344e-02 -9.117428213357925415e-03 -7.065322995185852051e-02 2.774069644510746002e-02 -3.489006310701370239e-02 4.276807419955730438e-03 -8.538561873137950897e-03 -4.900850355625152588e-02
-2.459115162491798401e-02 -2.301426045596599579e-02 2.867626026272773743e-02 2.104113623499870300e-02 -1.417472120374441147e-02 2.537144813686609268e-03 -2.155165188014507294e-03 1.942193880677223206e-02 2.501454902812838554e-03 -1.674502342939376831e-02 8.816196583211421967e-03 1.325128320604562759e-02 4.241228569298982620e-03 6.439296412281692028e-04 3.902007127180695534e-03 -5.455376207828521729e-02 3.157861158251762390e-02 -1.592058129608631134e-02 -3.811563830822706223e-03 -4.244636371731758118e-02 -4.137039650231599808e-03 1.526113320142030716e-02 3.049183450639247894e-02 -3.352896869182586670e-02 -8.809675462543964386e-03 -7.722819223999977112e-03 1.322784367948770523e-02 -6.812665145844221115e-03 -6.399019155651330948e-03 3.963906317949295044e-03 2.560654468834400177e-02 -1.192510128021240234e-02 8.015190251171588898e-03 4.418300837278366089e-02 -4.434911906719207764e-02 -5.756214633584022522e-02 1.026333589106798172e-02 -5.351031664758920670e-03 5.432587582617998123e-03 -4.636901896446943283e-03 -1.585307903587818146e-02 -2.064447291195392609e-02 -2.567184623330831528e-03 -5.236117169260978699e-03 -1.527480408549308777e-02 1.955789141356945038e-02 -4.531711805611848831e-03 -1.227730186656117439e-03 1.054346933960914612e-02 -4.222611896693706512e-03 9.947491809725761414e-03 -3.064141236245632172e-02 -4.831349104642868042e-02 -1.255035400390625000e-02 -7.251518778502941132e-03 1.055521704256534576e-02 5.439078807830810547e-02 -9.534980927128344774e-05 2.489116042852401733e-03 -5.276451632380485535e-02 8.215160109102725983e-03 -1.669660024344921112e-02 5.682669579982757568e-03 -3.707492025569081306e-03 -6.840690039098262787e-03 -1.413301099091768265e-02 1.189444772899150848e-02 -4.247165750712156296e-03 -1.077634375542402267e-02 1.375017920508980751e-03 -2.747377008199691772e-02 -1.278822962194681168e-02 -2.651702426373958588e-02 -2.022983133792877197e-02 7.138736080378293991e-03 -4.304008558392524719e-03 4.799248708877712488e-04 -1.262627542018890381e-02 1.840019412338733673e-02 -3.011222463101148605e-03 4.787199199199676514e-03 -3.826790198218077421e-04 1.511798705905675888e-02 -2.850718423724174500e-02 3.099835943430662155e-03 -3.625137731432914734e-03 1.313226995989680290e-03 -6.130636204034090042e-03 -4.778121074195951223e-04 4.842777736485004425e-03 -3.183263912796974182e-02 2.782997209578752518e-03 -1.112450379878282547e-02 -1.076059043407440186e-02 -2.534359879791736603e-02 1.743502332828938961e-03 1.100122835487127304e-02 4.260875750333070755e-03 7.835512980818748474e-03 9.166305512189865112e-02 -1.407205825671553612e-03 1.771644572727382183e-03 2.712192013859748840e-02 -3.978946059942245483e-02 1.750329160131514072e-03 4.386034980416297913e-02 4.361585713922977448e-03 2.444704063236713409e-02 -6.007625255733728409e-03 4.414066672325134277e-03 6.847690790891647339e-03 -6.723055150359869003e-03 2.687523556232918054e-05 -1.046319957822561264e-03 -8.051824755966663361e-03 3.211277071386575699e-03 2.550852252170443535e-03 -1.548454049043357372e-03 1.483478955924510956e-02 8.988020708784461021e-04 -2.700337581336498260e-02 -9.364450350403785706e-03 2.023619413375854492e-02 4.138240765314549208e-04 -1.954483240842819214e-02 -3.936017397791147232e-03 -3.980648145079612732e-02 9.993127547204494476e-03 -2.626662841066718102e-03 -9.438892011530697346e-04 -1.979103870689868927e-02 1.347425021231174469e-02 1.402650028467178345e-02 -2.442437969148159027e-02 -3.951003309339284897e-04 1.424367818981409073e-02 -2.805729396641254425e-03 -3.618979454040527344e-02 -6.838670931756496429e-03 -9.331079199910163879e-03 -1.394284050911664963e-02 -1.597073115408420563e-02 -7.301511708647012711e-03 -3.423376940190792084e-03 -2.266214787960052490e-02 3.482228610664606094e-03 1.016889815218746662e-03 -5.091635044664144516e-03 -5.669024959206581116e-02 1.975749991834163666e-02 2.014723839238286018e-03 -2.204331383109092712e-02 7.632219698280096054e-03 1.027971971780061722e-03 -1.781554147601127625e-02 -1.555962115526199341e-02 5.015854258090257645e-03 -4.559042863547801971e-03 -3.690513083711266518e-03 -1.770260557532310486e-02 1.571767963469028473e-02 -1.459198072552680969e-02 -5.842236801981925964e-03 3.539994067978113890e-04 -1.804697886109352112e-02 8.751257322728633881e-03 -1.537821604870259762e-03 1.185542205348610878e-03 8.219139650464057922e-03 -1.535877026617527008e-02 1.302495412528514862e-02 -6.664450280368328094e-03 -1.973647996783256531e-02 1.517030969262123108e-02 -1.459949766285717487e-03 2.510583959519863129e-03 -8.104473352432250977e-03 2.561829052865505219e-02 7.352134678512811661e-03 2.902908250689506531e-02 -1.162476465106010437e-02 -9.591958485543727875e-03 2.204382047057151794e-02 1.718136045383289456e-04 -2.438941271975636482e-03 -2.004360780119895935e-02 -9.469037875533103943e-03 2.854499500244855881e-03 -2.032511122524738312e-02 3.470048308372497559e-02 -1.991552300751209259e-02 6.610195618122816086e-03 4.396866075694561005e-03 2.260587923228740692e-02 -3.581329807639122009e-02 -7.995570776984095573e-04 -8.920255117118358612e-03 -8.986026979982852936e-03 1.994722522795200348e-03 1.128725474700331688e-03 -6.932401098310947418e-03 -2.309921570122241974e-02 -2.500741183757781982e-02 5.302704870700836182e-03 -2.854346297681331635e-03 -2.310155332088470459e-02 1.103944517672061920e-02 -2.072435058653354645e-02 9.317542426288127899e-03 -2.051285095512866974e-02 6.174942012876272202e-03 -1.088204979896545410e-02 2.323193984921090305e-05 -3.198840469121932983e-02 -2.988216839730739594e-02 4.250077530741691589e-03 -7.332962937653064728e-03 3.002352826297283173e-02 -9.832162410020828247e-03 5.578702315688133240e-03 1.507642213255167007e-03 -1.399171631783246994e-02 1.955503039062023163e-02 -1.933701708912849426e-02 4.692025482654571533e-03 1.829928904771804810e-02 5.138209089636802673e-04 1.267097890377044678e-03 -2.796859480440616608e-02 -8.279981091618537903e-03 -9.279977530241012573e-03 -5.392448510974645615e-04 6.273731589317321777e-03 -5.589861050248146057e-02 -1.852364395745098591e-03 4.637747257947921753e-02 1.075094041880220175e-04 -8.019942790269851685e-03 -6.040836218744516373e-03 -1.065351627767086029e-02 -9.494327940046787262e-03 2.484444715082645416e-02 -2.235189080238342285e-03 -1.815014146268367767e-02 -1.555861532688140869e-02 2.274771407246589661e-02 9.854760020971298218e-03 3.248567134141921997e-02 -9.082430973649024963e-03 -9.480554610490798950e-03 4.034088924527168274e-03 -2.605922892689704895e-02 1.598907634615898132e-02 2.413845434784889221e-02 -1.369750685989856720e-02 2.403502818197011948e-03
-1.505684386938810349e-02 -1.194809284061193466e-02 1.200782321393489838e-02 2.471977844834327698e-02 -2.834054641425609589e-02 -2.607380971312522888e-03 -8.784112520515918732e-03 1.358128990978002548e-02 1.118508051149547100e-03 -4.662831779569387436e-03 -6.913029123097658157e-03 -2.309639239683747292e-04 1.028238795697689056e-02 5.732211284339427948e-03 -1.178319143946282566e-04 -3.869961202144622803e-02 3.197073936462402344e-02 -2.148294635117053986e-02 -1.139993686228990555e-02 -3.270763903856277466e-02 -7.557135540992021561e-03 -2.245414303615689278e-03 2.232302725315093994e-02 -2.803077362477779388e-02 -5.114015191793441772e-03 7.403850089758634567e-03 -9.206630056723952293e-04 -1.191044971346855164e-02 1.555103622376918793e-02 6.648446433246135712e-03 4.367537796497344971e-02 -9.307001717388629913e-03 3.283565863966941833e-03 2.822356112301349640e-02 -6.563508510589599609e-02 -1.018499210476875305e-02 -1.331482362002134323e-02 4.261316731572151184e-03 6.359646562486886978e-03 9.642651304602622986e-03 -1.782251521944999695e-02 -6.228446494787931442e-03 -1.828153803944587708e-02 -2.167006209492683411e-02 -1.804595068097114563e-02 2.491898089647293091e-02 -2.419513277709484100e-02 1.159070432186126709e-02 -1.609517610631883144e-03 7.357157301157712936e-04 -1.776468753814697266e-02 -2.202817797660827637e-02 -3.574865683913230896e-02 -2.097561489790678024e-03 -6.472530658356845379e-04 -7.618841249495744705e-03 2.439136430621147156e-02 1.493830932304263115e-03 2.277342369779944420e-03 -4.626368358731269836e-02 -3.068776428699493408e-02 -1.417454890906810760e-02 5.751840770244598389e-03 -1.095030177384614944e-02 -1.388722565025091171e-02 -3.350072354078292847e-02 -1.141978334635496140e-02 3.100245085079222918e-04 -2.860085107386112213e-02 2.609510207548737526e-03 -1.292797736823558807e-03 -1.733443886041641235e-02 -2.352180331945419312e-02 -5.245586484670639038e-02 5.671466235071420670e-03 6.560984533280134201e-03 1.049433485604822636e-03 -5.044352263212203979e-03 3.936174139380455017e-02 -9.935298934578895569e-03 -1.871104724705219269e-02 -2.533901715651154518e-03 1.410356350243091583e-02 -5.153878405690193176e-02 7.680073031224310398e-05 6.132944487035274506e-03 -1.576382317580282688e-03 3.107803408056497574e-03 -5.188289796933531761e-04 1.707732491195201874e-02 -3.960342705249786377e-02 9.281788952648639679e-03 -2.632255852222442627e-02 -2.804937772452831268e-03 -2.080178074538707733e-02 1.578959450125694275e-02 1.082957442849874496e-02 -1.534629031084477901e-03 -1.506806234829127789e-03 6.297407299280166626e-02 3.390862792730331421e-02 1.030861027538776398e-02 8.704815059900283813e-03 -3.911875933408737183e-02 4.405170620884746313e-04 5.957596004009246826e-03 -5.945794284343719482e-03 4.860179871320724487e-02 1.141341053880751133e-03 1.189595926553010941e-02 7.516643498092889786e-03 -7.357497233897447586e-03 -1.589719438925385475e-03 -1.741108571877703071e-04 -8.045325055718421936e-03 -8.701637387275695801e-03 -3.496278077363967896e-03 -4.334869328886270523e-03 -6.951228249818086624e-03 -7.566756103187799454e-03 -1.035970728844404221e-02 -4.292229656130075455e-03 2.461481280624866486e-02 3.979079890996217728e-03 -1.858527027070522308e-02 -5.459762644022703171e-03 -4.447350278496742249e-02 1.479792222380638123e-02 4.565289709717035294e-04 5.942692048847675323e-03 -2.432925254106521606e-02 1.718191802501678467e-02 4.696175456047058105e-03 6.676467601209878922e-03 4.419549368321895599e-03 6.825898773968219757e-03 -2.263714093714952469e-03 -3.005298227071762085e-02 -4.390420857816934586e-03 -3.965228388551622629e-04 1.033334992825984955e-02 -5.924527067691087723e-03 -7.873774506151676178e-03 7.143390248529613018e-04 -1.601935178041458130e-02 6.325110793113708496e-03 -5.352002568542957306e-03 -7.741035893559455872e-03 -3.514635935425758362e-02 2.621348388493061066e-02 -5.991267040371894836e-03 -1.854193210601806641e-02 1.138273626565933228e-02 -4.077560827136039734e-02 -1.879810914397239685e-02 -1.912354305386543274e-02 4.769056569784879684e-03 6.266234559006989002e-04 1.921854098327457905e-03 -4.565839190036058426e-03 3.274818649515509605e-03 -8.362383581697940826e-03 -9.780507534742355347e-03 2.731251064687967300e-03 -5.374101456254720688e-03 5.269303172826766968e-02 1.829189807176589966e-02 -3.533355658873915672e-03 4.830011632293462753e-03 -4.559241607785224915e-02 1.777766458690166473e-02 -4.174579866230487823e-03 -2.157336287200450897e-02 1.551216188818216324e-02 -5.212926119565963745e-02 8.099937811493873596e-03 3.934184089303016663e-03 2.169311977922916412e-02 -4.149571061134338379e-03 -1.739646308124065399e-03 -6.372868549078702927e-03 -9.563397616147994995e-03 1.434416789561510086e-02 -1.403830666095018387e-02 -8.934102952480316162e-03 -4.862503707408905029e-02 5.159965250641107559e-03 1.205937564373016357e-02 -3.637026995420455933e-02 2.309436444193124771e-03 -2.382384240627288818e-02 5.733522120863199234e-03 1.977336406707763672e-02 3.285076469182968140e-02 -1.978198997676372528e-02 -7.324544247239828110e-03 -6.317949388176202774e-03 1.904650707729160786e-03 1.793108385754749179e-04 -5.691157653927803040e-03 -2.145905606448650360e-02 -3.406436368823051453e-02 -9.030984947457909584e-04 5.718288011848926544e-03 5.986573523841798306e-04 -1.075832452625036240e-02 4.722751211374998093e-03 -3.671431168913841248e-02 -5.636052694171667099e-03 -2.377979457378387451e-02 -5.144719616509974003e-04 -1.292512658983469009e-02 -1.617206633090972900e-02 -1.361395977437496185e-02 -1.820390112698078156e-02 -9.589121909812092781e-04 -1.487696170806884766e-02 3.617921099066734314e-02 -1.100004836916923523e-02 -1.877357834018766880e-03 -2.954005030915141106e-03 -1.133016310632228851e-02 5.843773856759071350e-02 -5.802568048238754272e-03 -6.582329049706459045e-03 -2.243714407086372375e-02 1.216065976768732071e-02 -1.106679905205965042e-02 2.057677879929542542e-02 -2.652926370501518250e-02 -2.483654301613569260e-03 7.975592779985163361e-06 7.108276709914207458e-03 -4.323969036340713501e-02 -3.445660462602972984e-03 6.947269197553396225e-03 9.692687541246414185e-03 1.681624352931976318e-02 -6.072355899959802628e-03 -1.888467813841998577e-04 -3.270080196671187878e-04 1.749857142567634583e-02 -3.005176084116101265e-03 -6.277022417634725571e-03 2.863821014761924744e-02 1.663817837834358215e-02 1.371301896870136261e-02 1.725729368627071381e-02 -3.421616507694125175e-03 -1.104186382144689560e-02 -1.039734669029712677e-02 -3.881058469414710999e-02 -1.115071866661310196e-02 1.590988412499427795e-02 9.433428756892681122e-03 -7.548215799033641815e-03
-6.753994151949882507e-03 -6.165889091789722443e-03 1.103363279253244400e-02 2.153983898460865021e-02 -8.737980388104915619e-03 -1.284821331501007080e-02 -2.856337837874889374e-02 1.083557400852441788e-02 4.386488348245620728e-02 -5.901179462671279907e-02 -2.324528060853481293e-03 -5.228937137871980667e-03 1.091649476438760757e-02 2.503071911633014679e-02 -8.453366346657276154e-03 -3.348109498620033264e-02 3.085538744926452637e-02 -3.262867778539657593e-02 -3.706318512558937073e-02 9.083004668354988098e-03 2.341643674299120903e-03 -4.025739058852195740e-02 2.691818587481975555e-02 -1.367032155394554138e-02 -1.339087355881929398e-02 4.364837706089019775e-02 1.267509907484054565e-02 -3.171843709424138069e-03 4.667170345783233643e-02 1.020928658545017242e-02 7.212817668914794922e-02 -3.106545098125934601e-02 1.200216263532638550e-02 6.854239851236343384e-02 -7.175010442733764648e-02 -1.616423018276691437e-02 5.197305697947740555e-03 1.889192353701218963e-04 8.591333404183387756e-03 2.521352656185626984e-02 -1.164358574897050858e-02 2.878294140100479126e-02 -7.915237918496131897e-03 -6.049929559230804443e-02 -2.091214060783386230e-02 2.572031877934932709e-02 -3.732798248529434204e-02 1.808110810816287994e-02 1.593455858528614044e-02 -3.223772719502449036e-02 1.647365652024745941e-02 -8.249302394688129425e-03 -4.920998960733413696e-02 -6.127553526312112808e-03 4.852532409131526947e-03 -4.371874965727329254e-03 4.152175411581993103e-02 -1.344993826933205128e-03 -2.883842680603265762e-03 -6.443901360034942627e-02 1.190303266048431396e-02 2.410372020676732063e-03 -2.994321286678314209e-03 1.853997702710330486e-03 8.038497529923915863e-03 3.934565931558609009e-02 -2.557729557156562805e-02 -2.395038725808262825e-03 -9.198959916830062866e-03 -1.139285601675510406e-02 -7.047422695904970169e-03 -4.376207478344440460e-03 -2.535327151417732239e-02 2.369303256273269653e-03 3.366542980074882507e-03 -1.125400327146053314e-02 -8.102873340249061584e-03 -2.256340906023979187e-02 4.731671139597892761e-02 -4.194404184818267822e-02 1.693237572908401489e-02 -3.765293164178729057e-03 2.765549719333648682e-02 -2.201724611222743988e-02 3.182720625773072243e-03 1.322682760655879974e-02 1.667454256676137447e-03 -8.222275413572788239e-03 -3.239973448216915131e-04 -1.479892060160636902e-02 -3.728156164288520813e-02 2.852417901158332825e-02 -4.108414798974990845e-02 5.753501784056425095e-03 -4.815546795725822449e-03 2.982123941183090210e-02 2.079018577933311462e-02 -3.678695065900683403e-04 -5.760033149272203445e-03 4.912894964218139648e-02 4.365477710962295532e-02 1.138384919613599777e-02 -3.429933683946728706e-03 -1.840665563941001892e-02 -9.048448875546455383e-03 -6.119142472743988037e-02 1.984661072492599487e-02 5.744977295398712158e-02 1.144147291779518127e-02 -2.780212322250008583e-03 1.320282742381095886e-02 -6.267411168664693832e-03 -3.978738561272621155e-03 -1.758993894327431917e-04 -6.727601867169141769e-03 1.250085420906543732e-02 2.748321043327450752e-03 -2.337144920602440834e-03 -4.156389087438583374e-02 -9.773138910531997681e-03 -5.324788391590118408e-03 1.903306692838668823e-02 3.566966205835342407e-02 -4.170498810708522797e-03 -2.858759276568889618e-02 -4.642018582671880722e-03 -5.264513939619064331e-02 2.269861847162246704e-02 6.473761983215808868e-03 4.477396607398986816e-03 -3.383840620517730713e-02 1.218983624130487442e-02 2.209485135972499847e-02 -4.119935631752014160e-02 2.829461731016635895e-02 2.599494997411966324e-03 4.027528222650289536e-03 -3.345523029565811157e-02 -4.011921584606170654e-03 -2.219657879322767258e-03 -2.863712050020694733e-02 -1.209214329719543457e-02 -6.470760703086853027e-02 1.663268543779850006e-03 -5.791353806853294373e-02 4.566366225481033325e-02 -2.185387164354324341e-02 -1.512777525931596756e-02 -6.751860491931438446e-04 1.674836687743663788e-02 -1.300674863159656525e-02 8.368154056370258331e-03 2.539332024753093719e-03 -1.928176544606685638e-02 -2.846826985478401184e-02 -1.371367927640676498e-02 6.218219175934791565e-03 -4.509506281465291977e-03 2.976431511342525482e-03 3.108588419854640961e-02 -8.624018519185483456e-04 3.809046000242233276e-02 -1.518615894019603729e-02 4.767638165503740311e-03 4.013016074895858765e-02 1.054054778069257736e-02 2.625875547528266907e-02 -2.904720371589064598e-03 5.355775356292724609e-03 -7.567112147808074951e-02 5.564588308334350586e-02 7.393517065793275833e-03 2.546465722844004631e-03 6.235493719577789307e-02 -8.100070059299468994e-02 3.364261612296104431e-02 -3.231224603950977325e-03 1.760888472199440002e-02 1.414933986961841583e-02 -5.187338963150978088e-02 1.608169265091419220e-02 1.170057523995637894e-02 1.418437995016574860e-02 -3.609726950526237488e-02 -5.716950166970491409e-03 -2.403729222714900970e-02 3.775565186515450478e-03 2.908288501203060150e-02 -6.325723230838775635e-02 -5.616193264722824097e-02 2.043512277305126190e-02 5.975579377263784409e-03 -7.929923944175243378e-03 5.361298564821481705e-03 -5.507171899080276489e-02 -1.067650225013494492e-02 -2.473773201927542686e-03 9.583109989762306213e-03 4.878717474639415741e-03 -3.045570803806185722e-03 -8.090477436780929565e-03 -4.975211992859840393e-02 -9.882594458758831024e-03 1.131413504481315613e-03 5.778581369668245316e-03 2.092663571238517761e-02 2.106826752424240112e-02 -5.093863233923912048e-02 7.444364018738269806e-03 -5.925094708800315857e-02 1.601036638021469116e-02 -1.514316722750663757e-02 2.646754262968897820e-03 -4.644485190510749817e-02 1.928047277033329010e-02 -4.962374642491340637e-02 9.001450613141059875e-03 2.598251029849052429e-02 9.067456237971782684e-03 1.536067225970327854e-03 -1.805450767278671265e-02 -3.153589740395545959e-02 2.336988039314746857e-02 4.030830413103103638e-02 -9.653557837009429932e-02 -1.701060682535171509e-03 7.838097400963306427e-03 2.663426846265792847e-02 5.759778991341590881e-02 -2.668515592813491821e-02 -4.079403355717658997e-03 -2.374727744609117508e-03 1.573888212442398071e-02 -7.920508086681365967e-02 -3.539370140060782433e-03 -2.817646414041519165e-02 -2.395408041775226593e-02 3.080939641222357750e-03 -4.912016540765762329e-02 -4.100815393030643463e-03 3.768009599298238754e-03 1.993359997868537903e-02 -1.251981128007173538e-03 -7.239814382046461105e-03 5.345539376139640808e-02 4.048643261194229126e-02 3.340606577694416046e-03 -1.460000872611999512e-02 -5.673908744938671589e-04 -1.445398945361375809e-02 -3.056122362613677979e-02 -6.013184040784835815e-02 -5.491887405514717102e-02 3.054321743547916412e-02 -1.726465113461017609e-02 -5.660561844706535339e-03
-8.499984443187713623e-02 9.462093003094196320e-03 5.009904038161039352e-03 7.771982997655868530e-02 3.501450642943382263e-02 6.163730472326278687e-02 -2.518419548869132996e-02 -1.109265815466642380e-02 6.332638114690780640e-02 -4.431080445647239685e-02 -6.580355763435363770e-02 3.685482218861579895e-02 -1.080988124012947083e-01 -1.457735896110534668e-03 4.938660189509391785e-02 4.124551266431808472e-02 7.616989314556121826e-02 -2.131558209657669067e-02 5.732818040996789932e-03 -1.651479862630367279e-02 -4.867224395275115967e-02 4.504027776420116425e-03 9.811499156057834625e-03 1.716595888137817383e-02 -7.262954115867614746e-02 -8.755180239677429199e-02 2.780769136734306812e-04 -4.550048708915710449e-02 7.178616523742675781e-02 1.041391491889953613e-02 5.615978501737117767e-03 -7.158099114894866943e-02 -1.289023738354444504e-02 -6.285525858402252197e-02 3.052642010152339935e-02 -5.012161657214164734e-02 6.258594244718551636e-02 5.127323674969375134e-05 -7.644747197628021240e-02 -1.703580655157566071e-02 -1.114077493548393250e-01 7.240732014179229736e-02 -2.728862129151821136e-02 -2.804274857044219971e-02 1.362578421831130981e-01 -7.470396906137466431e-02 8.807702362537384033e-02 -2.679248573258519173e-03 -3.003075532615184784e-02 -4.568197578191757202e-02 -4.069423768669366837e-03 -2.293173409998416901e-02 -9.827491827309131622e-03 2.361356094479560852e-02 -3.097188286483287811e-02 9.550881222821772099e-04 -9.461440145969390869e-02 4.527840018272399902e-02 -1.696076989173889160e-02 -4.924053698778152466e-02 2.136839786544442177e-03 -1.200813055038452148e-01 2.813044190406799316e-02 -8.714186027646064758e-03 -2.031881175935268402e-02 8.240968734025955200e-02 -3.734976053237915039e-02 2.030635997653007507e-02 1.902903895825147629e-03 1.600351184606552124e-02 -5.313556641340255737e-03 1.489747781306505203e-02 4.644927009940147400e-02 2.212281571701169014e-03 1.464820932596921921e-02 -3.919078409671783447e-02 1.374972518533468246e-02 -1.007876023650169373e-01 6.711096316576004028e-02 -1.663786172866821289e-02 1.175651233643293381e-02 2.205446735024452209e-02 6.531515717506408691e-02 -9.094385057687759399e-02 2.783635444939136505e-02 7.609639782458543777e-03 -7.742139510810375214e-03 -5.356390774250030518e-02 -7.712504360824823380e-03 -3.967700898647308350e-02 3.398435190320014954e-02 -4.985255748033523560e-02 -8.405704051256179810e-02 -6.628618389368057251e-02 -1.270941924303770065e-02 5.916160717606544495e-02 7.334243506193161011e-02 -8.417179808020591736e-03 -3.064919821918010712e-02 -3.593380004167556763e-02 -3.073083981871604919e-02 -5.923876538872718811e-02 5.016469210386276245e-02 -3.550991415977478027e-02 2.071891911327838898e-02 2.010414935648441315e-02 4.200244694948196411e-02 2.537096850574016571e-02 7.282523810863494873e-02 3.283469751477241516e-02 1.434961613267660141e-02 -1.789097301661968231e-02 3.512505209073424339e-03 -1.792580261826515198e-02 -1.110831275582313538e-02 -2.755262702703475952e-02 6.854180712252855301e-03 -2.141802757978439331e-02 -6.809608638286590576e-02 1.613522134721279144e-02 -1.062118187546730042e-01 -8.665437251329421997e-02 4.112338274717330933e-02 -1.510808914899826050e-01 1.931386068463325500e-02 1.361925434321165085e-02 5.194411799311637878e-02 3.379330784082412720e-02 2.934652939438819885e-02 5.414927750825881958e-02 -3.193243220448493958e-02 -1.269880495965480804e-02 -4.211517795920372009e-02 1.562130823731422424e-02 -3.110802918672561646e-02 -1.742772758007049561e-02 3.545830491930246353e-03 -8.657150715589523315e-02 3.952247276902198792e-02 7.101140916347503662e-02 5.266591906547546387e-02 -1.100786845199763775e-03 4.329345375299453735e-02 -3.064445592463016510e-02 2.760475501418113708e-02 -8.449811488389968872e-03 1.038843318819999695e-01 5.743608344346284866e-03 -8.021236211061477661e-02 8.752456866204738617e-03 2.645659074187278748e-02 1.152574867010116577e-01 1.342890504747629166e-02 -5.326502770185470581e-02 -5.116299167275428772e-02 2.544304728507995605e-02 -1.272392086684703827e-02 -9.311458468437194824e-02 2.852286584675312042e-02 5.430921167135238647e-02 -6.570095568895339966e-02 5.761664360761642456e-02 -4.548285622149705887e-03 1.298230234533548355e-02 -3.525684028863906860e-02 3.090736083686351776e-02 -2.958273887634277344e-02 3.843790292739868164e-02 -6.537344306707382202e-02 -2.318490110337734222e-02 -4.446385800838470459e-02 2.841714769601821899e-03 -9.610828012228012085e-03 -1.068608984351158142e-01 -1.860784925520420074e-02 -1.050377935171127319e-01 4.861177410930395126e-03 1.093047931790351868e-01 1.688147522509098053e-02 3.143354877829551697e-02 -6.162748485803604126e-02 -2.204411104321479797e-02 -4.599007964134216309e-02 -3.907354548573493958e-02 8.921089023351669312e-02 1.921648904681205750e-02 -1.611283980309963226e-02 4.582965373992919922e-02 -4.314477369189262390e-02 -1.932040788233280182e-02 4.177899658679962158e-02 -1.325397938489913940e-02 -3.265639301389455795e-03 3.901540068909525871e-03 7.324911653995513916e-02 -7.180485874414443970e-02 1.417146157473325729e-02 1.706126332283020020e-02 -2.187173999845981598e-02 6.602364126592874527e-03 5.172352865338325500e-02 -4.338043276220560074e-03 -7.037112955003976822e-03 -2.478617941960692406e-03 -3.118318505585193634e-02 1.897423528134822845e-02 -2.599891275167465210e-03 9.874799847602844238e-02 1.928438805043697357e-02 -1.959750615060329437e-02 4.129873123019933701e-03 -4.021913278847932816e-03 -2.320250123739242554e-02 -6.966113299131393433e-02 -1.047966256737709045e-01 -6.174071133136749268e-02 8.036729693412780762e-02 6.047611683607101440e-02 5.609183758497238159e-02 2.085210382938385010e-02 1.060603260993957520e-01 2.807592973113059998e-02 2.486304752528667450e-02 -7.872478663921356201e-02 2.258859109133481979e-03 9.614341892302036285e-03 9.426057338714599609e-03 3.383953496813774109e-02 -5.003628507256507874e-02 -1.108735450543463230e-03 -2.155628986656665802e-03 4.781142994761466980e-02 -1.974613033235073090e-02 9.604891762137413025e-03 1.591447740793228149e-02 7.370205223560333252e-02 6.453714519739151001e-02 -5.543838441371917725e-02 -4.170843958854675293e-02 2.364362403750419617e-02 -5.442057549953460693e-02 -3.038097918033599854e-02 -1.956287398934364319e-02 3.734875842928886414e-02 9.778679907321929932e-02 -5.417704954743385315e-02 6.620729714632034302e-02 5.434430018067359924e-02 3.879127034451812506e-04 -1.126406900584697723e-02 -1.749541424214839935e-02 6.159029901027679443e-02 -4.824368283152580261e-02 -1.226031500846147537e-02 7.700312137603759766e-02 1.839290745556354523e-02
4.767227917909622192e-03 4.794760141521692276e-03 -1.228490262292325497e-03 1.582993753254413605e-02 -1.690246164798736572e-02 7.862814702093601227e-03 -1.627391902729868889e-03 -8.066147565841674805e-03 6.492260843515396118e-03 -2.267222665250301361e-02 3.252812102437019348e-02 -8.588125929236412048e-03 9.195633232593536377e-03 1.073124539107084274e-02 3.862837795168161392e-03 3.172878548502922058e-02 2.500206232070922852e-03 1.041680853813886642e-02 -1.975013408809900284e-03 2.955402433872222900e-02 -1.124680042266845703e-02 7.441502995789051056e-03 -5.655348300933837891e-03 -1.625698246061801910e-02 1.359620969742536545e-02 -9.385267272591590881e-03 1.853632740676403046e-03 -5.133987870067358017e-03 -1.783532463014125824e-02 1.743081398308277130e-02 -5.077444482594728470e-03 3.023803234100341797e-02 2.765043405815958977e-03 6.500389426946640015e-03 1.416526827961206436e-02 1.601824536919593811e-02 1.524270325899124146e-02 1.111612888053059578e-03 2.371140057221055031e-03 -5.601631011813879013e-03 1.528380066156387329e-02 1.674833521246910095e-02 7.666029967367649078e-03 2.676400914788246155e-02 5.054792854934930801e-03 -6.344634108245372772e-03 -1.851206086575984955e-02 -1.551289856433868408e-02 5.786648951470851898e-03 -4.318057745695114136e-02 -7.627501618117094040e-04 -4.292907658964395523e-03 -1.059136446565389633e-02 9.817388840019702911e-03 -1.094242837280035019e-02 -8.269138634204864502e-03 1.376722659915685654e-02 1.435641292482614517e-02 2.659360878169536591e-03 -5.267933942377567291e-03 -2.849997952580451965e-03 -2.769624441862106323e-02 1.311575341969728470e-02 -3.237359598278999329e-02 1.492738723754882812e-02 -1.683403365314006805e-02 -4.508682340383529663e-02 -7.403717609122395515e-04 -2.580023929476737976e-02 2.537956926971673965e-03 2.270940691232681274e-02 -3.031377866864204407e-02 2.818800881505012512e-02 1.089605595916509628e-02 5.078057758510112762e-03 -5.032436547480756417e-06 -2.405157545581459999e-03 1.830160059034824371e-02 -1.491162576712667942e-03 -3.365622833371162415e-03 -3.718769876286387444e-04 -1.625753793632611632e-04 -1.703688176348805428e-03 -2.510322257876396179e-03 -4.936212673783302307e-03 -1.369609497487545013e-02 3.641869872808456421e-03 1.684951130300760269e-03 5.170227494090795517e-03 4.735565744340419769e-03 -5.325531959533691406e-02 -4.490088205784559250e-03 1.276083663105964661e-02 4.944290776620618999e-05 -4.384788684546947479e-03 4.060914739966392517e-03 -9.405273012816905975e-03 -1.152285956777632236e-03 9.796617552638053894e-03 -2.872729301452636719e-02 8.121710270643234253e-03 -4.062713123857975006e-03 8.718623779714107513e-03 4.700234159827232361e-02 -1.004020305117592216e-05 -3.059690445661544800e-02 1.327211689203977585e-02 -1.340417750179767609e-02 -3.787679132074117661e-03 3.756504273042082787e-03 1.246903091669082642e-03 -1.866597158368676901e-04 8.192294044420123100e-04 1.876480062492191792e-03 2.863863250240683556e-03 7.231729105114936829e-04 -9.806930087506771088e-03 2.879526931792497635e-03 -4.448246210813522339e-02 -7.873865775763988495e-03 -2.316482597962021828e-03 4.199865274131298065e-03 -6.230193655937910080e-03 -1.445056963711977005e-02 3.532004076987504959e-03 7.929581217467784882e-03 4.453283268958330154e-03 -6.661510095000267029e-03 8.486519567668437958e-03 -2.563649415969848633e-02 -2.633033506572246552e-02 1.838866248726844788e-02 -8.481499738991260529e-03 -1.041204109787940979e-02 -3.653123229742050171e-02 1.061932090669870377e-02 8.681673207320272923e-04 3.443554742261767387e-03 -8.786359801888465881e-03 4.783863201737403870e-03 -1.378745120018720627e-02 -2.383606275543570518e-03 9.790154173970222473e-03 2.229015808552503586e-03 8.610460907220840454e-03 2.945596911013126373e-02 4.680721554905176163e-03 7.718408480286598206e-03 4.127838090062141418e-02 -1.276998221874237061e-02 -1.469732448458671570e-02 2.013334818184375763e-02 -2.790884347632527351e-03 1.931662298738956451e-02 -1.279642153531312943e-02 1.685808598995208740e-02 -1.931729959324002266e-03 -4.904046189039945602e-03 -5.097499582916498184e-03 2.159149013459682465e-02 -9.509167633950710297e-03 -7.257062476128339767e-03 1.014479948935331777e-05 5.184006877243518829e-04 1.268414035439491272e-02 -4.487322177737951279e-03 1.792208664119243622e-02 7.525754044763743877e-04 1.498807920143008232e-03 1.395799405872821808e-02 9.459813125431537628e-03 -5.359943490475416183e-03 1.771717215888202190e-03 1.600784249603748322e-02 -2.604727633297443390e-02 -1.392758358269929886e-02 2.528662327677011490e-03 1.368644740432500839e-02 -1.487734355032444000e-02 -2.652530930936336517e-02 -2.159711439162492752e-03 -6.814277730882167816e-03 -1.793962344527244568e-02 -5.490621551871299744e-03 7.277644239366054535e-03 -4.180199000984430313e-03 2.971822163090109825e-03 -1.003045029938220978e-02 -4.581051319837570190e-02 1.227413490414619446e-02 1.962312031537294388e-03 -6.499017123132944107e-03 -1.000517630018293858e-03 -2.826700732111930847e-02 8.070984855294227600e-03 3.972018312197178602e-04 -4.741449840366840363e-03 -2.848252095282077789e-02 -8.107206784188747406e-03 1.841182354837656021e-03 2.065272768959403038e-03 2.865764498710632324e-02 -2.599260583519935608e-02 -1.425771974027156830e-03 1.136170831159688532e-04 1.933202001964673400e-04 3.610814921557903290e-03 2.519154548645019531e-02 -1.944931223988533020e-03 -1.597971655428409576e-02 -1.553659822093322873e-04 5.045296158641576767e-03 -3.021885640919208527e-02 8.394191972911357880e-03 -2.490344922989606857e-03 -1.298640947788953781e-02 9.019355289638042450e-03 1.456862688064575195e-02 -3.361170180141925812e-03 2.140878140926361084e-02 -1.170281972736120224e-02 -3.709517652168869972e-03 4.728784039616584778e-02 1.827530562877655029e-02 5.042566731572151184e-02 1.763554522767663002e-03 -6.519615650177001953e-03 3.534706681966781616e-02 1.815350353717803955e-02 2.813019789755344391e-03 1.726108044385910034e-02 -2.691011643037199974e-03 -2.447342034429311752e-03 1.711568236351013184e-02 4.259407520294189453e-03 3.900721203535795212e-03 1.761771738529205322e-02 4.654416348785161972e-03 4.740338306874036789e-03 -3.673447668552398682e-02 -4.767904058098793030e-03 6.568702403455972672e-03 3.410618286579847336e-03 7.373241707682609558e-03 -2.696823887526988983e-02 -4.742854274809360504e-03 4.851173609495162964e-03 2.309216931462287903e-02 1.794607669580727816e-04 3.308450803160667419e-03 -1.858498784713447094e-03 -3.708033589646220207e-03 -1.349122449755668640e-02 -6.065327674150466919e-03 2.365763531997799873e-03 -2.932758629322052002e-02
1.753655283209809568e-06 -2.069359179586172104e-03 -1.982047781348228455e-02 -7.302593905478715897e-03 -2.256581373512744904e-02 -5.881235934793949127e-03 -7.537466008216142654e-03 -1.718311198055744171e-02 -4.494664445519447327e-02 3.379439190030097961e-02 -3.572859615087509155e-02 2.141539566218852997e-02 -2.885688329115509987e-03 -1.086901873350143433e-03 4.705119878053665161e-03 -7.561113685369491577e-02 3.767623100429773331e-03 -6.746567669324576855e-04 2.172031439840793610e-02 6.188651314005255699e-04 5.533026065677404404e-03 -3.296834602952003479e-02 -2.352358307689428329e-03 2.316123619675636292e-02 -1.439065765589475632e-02 -2.718084864318370819e-02 7.945932447910308838e-03 5.792565643787384033e-03 -1.016971748322248459e-02 1.530051697045564651e-02 7.264293730258941650e-03 3.393615037202835083e-02 3.182108746841549873e-03 -1.415288262069225311e-02 -5.131248757243156433e-02 -5.303363502025604248e-02 -3.018226241692900658e-03 2.341460809111595154e-02 4.185868892818689346e-03 1.531765883555635810e-05 -2.847969159483909607e-02 -2.257901802659034729e-02 3.888287814334034920e-03 2.454415662214159966e-03 3.826236352324485779e-03 -5.287850508466362953e-04 -3.922749310731887817e-02 -1.209171768277883530e-02 7.861960679292678833e-03 1.859686151146888733e-02 8.457677438855171204e-03 1.784832961857318878e-02 2.237303880974650383e-03 -2.366915345191955566e-02 6.459390860982239246e-04 3.413680708035826683e-03 -3.419404104351997375e-02 2.083429717458784580e-04 -8.348735049366950989e-03 -1.526058185845613480e-02 2.069222973659634590e-03 3.173306584358215332e-02 4.390385933220386505e-03 1.023237779736518860e-02 -9.470546618103981018e-03 9.598670527338981628e-03 -1.762476377189159393e-02 9.989137761294841766e-03 -4.950491245836019516e-03 -8.824943797662854195e-04 -2.683182246983051300e-02 3.258641064167022705e-02 2.658499963581562042e-02 4.262879490852355957e-02 -3.917998634278774261e-03 -8.483115583658218384e-02 1.108977594412863255e-03 -2.820587018504738808e-03 2.715921029448509216e-02 -2.176422625780105591e-02 -4.272739461157470942e-04 -5.501159466803073883e-03 1.061502564698457718e-02 -1.377327926456928253e-02 -3.305883612483739853e-03 4.005595576018095016e-03 1.755652483552694321e-03 2.762317284941673279e-02 -3.354518208652734756e-03 -2.408339269459247589e-02 7.733121514320373535e-02 1.208386011421680450e-02 -9.970696642994880676e-03 -2.122971042990684509e-02 2.749905176460742950e-02 -1.965179666876792908e-02 -1.904311962425708771e-02 -4.200348630547523499e-03 -1.592870918102562428e-03 3.832716261968016624e-03 -2.478108927607536316e-02 1.194749865680932999e-02 -1.277950219810009003e-02 -5.797839537262916565e-02 1.134117320179939270e-02 -6.827220320701599121e-03 -3.711943700909614563e-02 -2.314956858754158020e-02 -1.016037352383136749e-02 3.197524324059486389e-02 2.292360179126262665e-03 2.712415531277656555e-03 -1.233080774545669556e-02 1.719019841402769089e-03 -7.327754981815814972e-03 4.438864067196846008e-03 -1.027759537100791931e-02 -6.188670173287391663e-03 -3.166171163320541382e-02 1.866276375949382782e-03 -4.359329491853713989e-02 3.279373049736022949e-02 1.398510648868978024e-03 -5.913525819778442383e-03 -1.624791766516864300e-03 -1.532015204429626465e-02 -1.179574336856603622e-02 2.267869422212243080e-03 -8.813763852231204510e-04 2.619533333927392960e-03 3.738217800855636597e-02 8.953901007771492004e-03 5.962108261883258820e-03 -3.526178747415542603e-02 5.110846459865570068e-02 5.527596920728683472e-02 -1.057746913284063339e-02 -5.869893357157707214e-02 1.298428513109683990e-02 1.244141347706317902e-02 8.901802822947502136e-03 2.386879175901412964e-02 -2.784387767314910889e-02 -9.429872967302799225e-03 -1.790306559996679425e-04 1.525199739262461662e-03 -1.167796831578016281e-02 5.170652293600142002e-04 2.598805353045463562e-02 1.378613337874412537e-02 1.523980777710676193e-02 -6.195738911628723145e-03 4.776437766849994659e-03 -1.265237946063280106e-02 2.251321636140346527e-02 2.792633883655071259e-02 -5.493401084095239639e-03 -1.879029162228107452e-02 -3.625949146226048470e-03 3.450873121619224548e-02 1.304358802735805511e-02 1.475619734264910221e-03 -1.417139079421758652e-02 6.111865397542715073e-03 4.286754503846168518e-02 4.217243287712335587e-03 1.719480007886886597e-02 1.203212700784206390e-02 -7.541206199675798416e-03 -3.281695395708084106e-02 -1.804726943373680115e-02 -1.620831526815891266e-02 3.964382267440669239e-05 4.689908586442470551e-03 1.962734758853912354e-02 -8.107961155474185944e-03 -1.669079810380935669e-02 -8.316958323121070862e-03 -4.430891480296850204e-03 -2.488985285162925720e-02 7.340596523135900497e-03 1.501655206084251404e-02 9.170222096145153046e-03 -2.727823518216609955e-02 6.784216966480016708e-04 -1.569648645818233490e-02 -1.573405414819717407e-02 -1.801762171089649200e-02 -3.669411689043045044e-02 -2.595856972038745880e-02 2.333915093913674355e-03 -2.158462256193161011e-02 -1.194547745399177074e-03 1.412453129887580872e-02 -4.937360435724258423e-02 1.615536515600979328e-03 1.222065091133117676e-02 -5.415796115994453430e-02 -9.818248450756072998e-03 1.273157354444265366e-02 -1.273026969283819199e-02 6.113137118518352509e-03 -7.790316361933946609e-03 -5.483263172209262848e-03 -2.860374748706817627e-03 -5.422989372164011002e-03 2.459605457261204720e-03 -2.798273635562509298e-04 -4.721397999674081802e-03 1.981704123318195343e-02 1.233763177879154682e-04 -1.387318596243858337e-02 -8.580697700381278992e-03 -2.079724706709384918e-02 8.751933462917804718e-03 1.556303445249795914e-02 1.351437997072935104e-02 1.420729141682386398e-02 -4.515816923230886459e-03 -1.174489036202430725e-03 -1.877326704561710358e-02 -6.255675107240676880e-02 -9.327596984803676605e-03 -8.995378389954566956e-03 -1.875798217952251434e-02 -2.187420614063739777e-03 -4.789460822939872742e-02 1.631128415465354919e-02 -1.458681095391511917e-02 -8.122528903186321259e-03 2.753565832972526550e-02 -2.399982884526252747e-03 -4.399247467517852783e-03 -3.849281370639801025e-02 -4.077597521245479584e-03 4.116177558898925781e-03 1.422050059773027897e-03 -1.392865204252302647e-03 6.962445378303527832e-02 6.084126885980367661e-03 2.202813513576984406e-02 -4.690502770245075226e-03 -1.142642274498939514e-02 -1.470807008445262909e-02 -6.546628661453723907e-03 1.039210823364555836e-03 -3.324052691459655762e-02 -1.068040169775485992e-02 2.537334896624088287e-02 4.050983698107302189e-04 -2.448507025837898254e-02 -4.038789868354797363e-02 -1.449365355074405670e-02 -3.544023027643561363e-03 1.785498484969139099e-02 -7.173226680606603622e-03
2.808889560401439667e-02 -4.850501194596290588e-03 -1.055447966791689396e-03 1.289677806198596954e-02 1.812546700239181519e-02 3.866682527586817741e-03 -6.555491592735052109e-03 -4.102482460439205170e-03 -3.620055736973881721e-03 -6.521514616906642914e-03 -2.864929288625717163e-02 -1.615216955542564392e-02 -4.884820431470870972e-03 -1.249458547681570053e-02 1.051628496497869492e-02 2.598212659358978271e-02 -3.114248067140579224e-02 -2.131289616227149963e-02 1.626163348555564880e-02 -7.068639155477285385e-03 1.082824449986219406e-02 -5.441207066178321838e-02 2.596368268132209778e-02 1.088818442076444626e-02 1.636416651308536530e-02 -3.475751960650086403e-03 7.191306445747613907e-03 -7.684262935072183609e-03 1.709582097828388214e-02 -1.285443664528429508e-03 -8.416103199124336243e-03 6.432982161641120911e-03 8.765954407863318920e-04 1.293223351240158081e-02 1.099840179085731506e-02 -1.439295522868633270e-02 8.461050456389784813e-04 1.048729289323091507e-02 -9.841137565672397614e-03 -8.230417035520076752e-03 6.990557070821523666e-03 1.604096591472625732e-02 -1.347276289016008377e-02 8.187982253730297089e-03 4.504892567638307810e-04 -6.289556156843900681e-03 -1.771648786962032318e-02 -5.879616364836692810e-03 -1.894608372822403908e-03 2.913626667577773333e-05 4.413085523992776871e-03 7.787308190017938614e-03 4.068849608302116394e-02 2.816187031567096710e-02 -1.792596280574798584e-02 -3.558060154318809509e-02 -2.915561757981777191e-02 1.331730931997299194e-02 -1.035331003367900848e-02 2.176800183951854706e-02 1.063927542418241501e-02 2.271955832839012146e-03 2.056922018527984619e-02 -1.281223539263010025e-02 -2.124617993831634521e-02 -1.236244803294539452e-03 3.259483724832534790e-02 -5.926089826971292496e-03 -2.309775538742542267e-02 -4.718334414064884186e-03 3.475341945886611938e-02 -1.097954064607620239e-02 1.512280199676752090e-02 -3.145289793610572815e-02 -1.441073109162971377e-04 1.903843320906162262e-02 2.232124563306570053e-03 2.028792165219783783e-03 -1.114602573215961456e-02 9.144396171905100346e-04 4.225125536322593689e-03 -2.571001183241605759e-03 -7.137309294193983078e-03 1.606276025995612144e-03 -3.605202538892626762e-03 1.050638034939765930e-02 -8.468343876302242279e-03 -7.767217175569385290e-05 -5.238940939307212830e-03 1.945539988810196519e-04 2.212863601744174957e-02 -8.657559519633650780e-04 1.246215589344501495e-02 1.313018519431352615e-02 3.538973629474639893e-02 -1.930331252515316010e-02 4.586110357195138931e-03 -1.181296072900295258e-02 4.980162251740694046e-03 -5.744396243244409561e-03 3.701576031744480133e-03 -2.476273477077484131e-02 -3.937667608261108398e-02 2.437439188361167908e-02 -3.754087956622242928e-03 1.353313680738210678e-02 3.220701357349753380e-03 2.160570770502090454e-02 -4.332863725721836090e-03 6.437572650611400604e-03 4.140922799706459045e-03 5.568943452090024948e-03 8.412565104663372040e-03 -4.942694795317947865e-04 4.176104906946420670e-03 1.247919909656047821e-02 9.901889599859714508e-03 7.363787735812366009e-04 4.445227794349193573e-03 -3.400572109967470169e-03 -1.125576905906200409e-03 6.733416114002466202e-03 3.023127466440200806e-02 1.477499899920076132e-04 -1.783650950528681278e-03 -2.882164902985095978e-03 3.663095459342002869e-02 -2.719564363360404968e-03 5.461692344397306442e-03 1.325426436960697174e-02 -1.126415468752384186e-02 1.756779477000236511e-02 -1.522507518529891968e-02 2.457216009497642517e-02 -4.106558114290237427e-02 1.562129613012075424e-02 6.052203476428985596e-03 1.345778442919254303e-02 5.880943033844232559e-03 -1.234602369368076324e-02 6.800698582082986832e-03 -2.496486529707908630e-02 -1.409899070858955383e-02 4.424285434652119875e-04 -1.067508477717638016e-02 -1.958532445132732391e-02 -1.285219937562942505e-02 -1.588592771440744400e-03 -3.168083354830741882e-02 3.516267752274870872e-03 1.124515291303396225e-02 5.856698408024385571e-05 -8.573863888159394264e-04 1.567324809730052948e-02 -1.226364634931087494e-03 1.683053746819496155e-02 1.353592961095273495e-03 -4.942069645039737225e-04 1.371995080262422562e-03 3.909480758011341095e-03 -2.146179787814617157e-02 -1.982758380472660065e-02 -4.780579824000597000e-03 6.449304637499153614e-04 3.427848592400550842e-02 -1.882554613985121250e-03 1.652461104094982147e-02 -3.353205393068492413e-04 -1.175424922257661819e-02 -2.577236108481884003e-02 1.690732128918170929e-02 5.810766946524381638e-03 -9.480066597461700439e-03 -1.018966455012559891e-02 -1.295038312673568726e-02 -1.752444729208946228e-02 -2.784901112318038940e-02 -2.124700881540775299e-02 -3.823543339967727661e-02 -3.136670216917991638e-02 -2.164645865559577942e-02 4.831159487366676331e-03 -6.427809130400419235e-03 3.488334827125072479e-03 -7.761926855891942978e-03 -1.275895908474922180e-02 -3.387977136299014091e-03 2.957447199150919914e-03 1.628650724887847900e-02 1.307773776352405548e-02 -1.197723764926195145e-02 1.103555783629417419e-02 6.763168494217097759e-04 -1.196946948766708374e-02 3.525734692811965942e-02 -1.643045619130134583e-02 -6.187203107401728630e-04 6.543212383985519409e-02 -7.102439645677804947e-03 -9.108514641411602497e-04 -8.702151477336883545e-03 6.481273565441370010e-03 -6.375288125127553940e-03 1.175188575871288776e-03 1.113811600953340530e-02 -6.812945939600467682e-03 -6.397964898496866226e-03 -7.679593982174992561e-04 2.719077048823237419e-03 3.482382046058773994e-03 -1.573491655290126801e-02 1.576200500130653381e-02 -1.740013994276523590e-02 6.090220808982849121e-02 1.562225632369518280e-02 8.385132998228073120e-03 7.144299801439046860e-03 -4.389730282127857208e-03 -6.924732588231563568e-03 -4.173262044787406921e-02 4.176730755716562271e-03 -3.353735199198126793e-03 -1.267853658646345139e-02 -1.508428342640399933e-02 2.826156653463840485e-02 6.570511963218450546e-03 -1.460487022995948792e-02 -3.114062361419200897e-03 3.259427472949028015e-02 -4.980301950126886368e-03 5.630314350128173828e-03 4.175197333097457886e-03 -1.884367316961288452e-03 2.694310247898101807e-02 6.366699002683162689e-03 -4.949598759412765503e-02 1.285154186189174652e-02 -7.194626610726118088e-03 3.221975173801183701e-03 7.737822830677032471e-03 -1.101822499185800552e-02 -1.772335171699523926e-02 -1.192649547010660172e-02 2.902808785438537598e-02 -1.584056019783020020e-02 9.226351045072078705e-03 -2.815996296703815460e-02 5.399677902460098267e-03 2.491283044219017029e-02 -4.615722224116325378e-03 -2.354069612920284271e-03 8.066430687904357910e-03 -3.303822129964828491e-02 -8.240683935582637787e-03 -1.190673746168613434e-02 2.110176719725131989e-02
3.047825023531913757e-02 -1.368858572095632553e-02 -5.093394964933395386e-02 -1.827337895520031452e-03 1.556285563856363297e-02 2.001557499170303345e-03 -1.119775511324405670e-02 -2.732214750722050667e-03 -5.620814859867095947e-03 2.049692533910274506e-02 -4.667101055383682251e-02 -6.054695695638656616e-03 -1.604027464054524899e-03 4.436401359271258116e-04 -2.711999230086803436e-03 4.464495927095413208e-03 -1.933881267905235291e-02 -7.505986839532852173e-03 2.455348521471023560e-02 -4.221419245004653931e-02 1.518158987164497375e-02 -2.792000770568847656e-02 2.594534680247306824e-02 -1.299790013581514359e-02 2.413272485136985779e-02 6.921090651303529739e-03 -6.021538749337196350e-03 -1.171312574297189713e-02 2.058873698115348816e-02 1.067070197314023972e-02 -5.009625572711229324e-03 1.765403710305690765e-02 -5.422351881861686707e-03 -5.107809230685234070e-02 2.278281562030315399e-02 -6.342663429677486420e-03 -1.378640625625848770e-02 -1.735271885991096497e-03 -7.073786109685897827e-03 -2.287218230776488781e-04 -2.020678482949733734e-03 -1.572545804083347321e-02 -5.727840121835470200e-03 5.756489466875791550e-03 -2.570099197328090668e-03 5.285194143652915955e-03 -2.052190154790878296e-02 -6.783382501453161240e-03 2.488226629793643951e-03 1.043418608605861664e-02 -1.983385719358921051e-02 1.431044470518827438e-02 4.695101827383041382e-02 3.413381054997444153e-02 -2.739804610610008240e-02 -3.414247930049896240e-02 -1.316101569682359695e-02 1.188385393470525742e-02 -1.147293299436569214e-02 1.388985570520162582e-02 -2.888623625040054321e-02 4.846630617976188660e-03 1.353513915091753006e-02 -1.909997127950191498e-02 2.157326089218258858e-03 -1.466026529669761658e-02 1.898389495909214020e-02 -1.720292784739285707e-04 -2.934125252068042755e-02 -1.937596942298114300e-03 3.267913684248924255e-02 -3.152503073215484619e-02 1.724230684340000153e-02 1.209983788430690765e-02 3.231154521927237511e-03 5.330279842019081116e-02 4.187091719359159470e-03 -8.320051245391368866e-03 9.390429593622684479e-03 9.127940982580184937e-03 -2.126013487577438354e-02 1.468834001570940018e-03 5.457365186884999275e-04 -3.990869224071502686e-02 -6.227409467101097107e-03 -4.060462815687060356e-04 -2.340131206437945366e-03 2.555945888161659241e-03 -9.766563773155212402e-03 9.688868187367916107e-03 -1.161231193691492081e-03 -4.417127463966608047e-03 7.105606608092784882e-03 1.994237489998340607e-02 1.105336006730794907e-02 -8.794391527771949768e-03 2.718216273933649063e-03 -9.284009225666522980e-03 3.091203281655907631e-03 5.688343662768602371e-03 -1.533480361104011536e-02 7.237663026899099350e-03 -5.125147849321365356e-02 -1.981863938271999359e-02 3.256592666730284691e-03 1.739177736453711987e-03 -1.297892164438962936e-02 1.628225296735763550e-02 4.746780730783939362e-03 1.012798678129911423e-02 6.633276119828224182e-03 2.568335738033056259e-03 -1.953364117071032524e-03 1.823861384764313698e-03 5.985656753182411194e-03 -5.172876641154289246e-03 -1.275081769563257694e-03 -4.105721600353717804e-03 -9.184332564473152161e-03 -1.127343345433473587e-02 7.174634840339422226e-03 1.992656104266643524e-02 4.714773595333099365e-02 -6.327587645500898361e-03 1.628784276545047760e-02 -1.010319776833057404e-02 -3.032090514898300171e-02 7.189319469034671783e-03 -3.182829590514302254e-03 1.255138684064149857e-02 -1.326310727745294571e-02 2.374679222702980042e-02 -1.041422504931688309e-02 2.479259110987186432e-02 -4.448458179831504822e-02 1.943018101155757904e-02 7.024111226201057434e-03 -1.887969439849257469e-03 2.489840844646096230e-03 -1.610982045531272888e-02 1.909464597702026367e-02 -1.016792654991149902e-02 -2.598396502435207367e-02 -3.463977016508579254e-03 -1.118006650358438492e-02 -2.097095921635627747e-02 -5.447778850793838501e-03 -5.331367254257202148e-03 -3.156833723187446594e-02 7.534257136285305023e-03 -2.361792139708995819e-02 9.126489982008934021e-03 6.300819572061300278e-03 7.235324941575527191e-03 -1.103439740836620331e-02 -4.496112465858459473e-02 1.974653685465455055e-03 -9.747597388923168182e-03 2.460243878886103630e-03 5.797876976430416107e-03 -4.216928407549858093e-02 -6.435502320528030396e-03 -4.999605938792228699e-03 2.760458271950483322e-03 1.252466812729835510e-02 4.436725750565528870e-02 1.742575690150260925e-02 -3.959308844059705734e-03 -9.755727834999561310e-03 -3.319829329848289490e-02 2.578930743038654327e-02 -9.614668670110404491e-04 -2.686008252203464508e-02 3.808384062722325325e-03 -1.024885801598429680e-03 -9.381298907101154327e-03 -1.031968556344509125e-02 -1.306845713406801224e-02 -2.803287655115127563e-02 -1.914739049971103668e-02 -1.024598907679319382e-02 -1.367641333490610123e-02 5.070900660939514637e-04 -1.383803784847259521e-02 -3.533316776156425476e-03 -2.403152408078312874e-03 -2.768930047750473022e-03 2.610165160149335861e-03 2.077468112111091614e-02 -6.923919077962636948e-03 -1.006407383829355240e-02 1.992917247116565704e-02 1.656612940132617950e-02 1.449690083973109722e-03 4.363878071308135986e-02 -1.963515579700469971e-02 -1.282057818025350571e-02 4.888662323355674744e-02 -2.628970192745327950e-03 4.331091884523630142e-03 -1.966186054050922394e-02 5.218006204813718796e-03 6.076968275010585785e-03 1.577371032908558846e-03 9.755496867001056671e-03 -9.124330244958400726e-03 -1.562161557376384735e-02 -1.795107685029506683e-02 -6.175417918711900711e-03 3.122582472860813141e-02 -1.467372197657823563e-02 1.402747724205255508e-02 -2.109877020120620728e-02 6.101494655013084412e-02 1.246845815330743790e-02 3.400863334536552429e-02 2.191800437867641449e-02 1.445659436285495758e-02 2.053824253380298615e-03 -2.993240579962730408e-02 7.794720120728015900e-03 6.177411880344152451e-03 -2.895994111895561218e-02 -2.460152655839920044e-02 2.566751651465892792e-02 -1.922200433909893036e-02 1.047197077423334122e-02 -3.201841935515403748e-02 -1.057162415236234665e-02 -5.048033781349658966e-03 7.860798388719558716e-03 -1.431158743798732758e-03 -1.055727479979395866e-03 1.758403517305850983e-02 -5.451227072626352310e-03 -3.268506377935409546e-02 2.968307398259639740e-02 5.928585305809974670e-03 -3.130681440234184265e-02 2.570838294923305511e-02 -5.287558306008577347e-03 -4.573241341859102249e-03 -4.531478974968194962e-03 3.327241539955139160e-02 -2.863953262567520142e-02 9.659196250140666962e-03 -2.540684118866920471e-02 1.205281820148229599e-02 1.247964706271886826e-02 -1.708676852285861969e-02 3.032038686797022820e-03 -6.119363824836909771e-04 -3.311798349022865295e-02 -4.433984868228435516e-03 -9.348451159894466400e-03 -9.135608561336994171e-03
3.329431265592575073e-02 -2.082331338897347450e-03 -4.231590032577514648e-02 -5.752248223870992661e-03 3.351809456944465637e-02 -7.847676053643226624e-03 -3.154410794377326965e-02 -9.635871276259422302e-03 1.466840319335460663e-02 6.226276978850364685e-03 -7.537286728620529175e-02 -8.113838732242584229e-03 2.468509972095489502e-02 1.427704654633998871e-02 -1.401793956756591797e-02 9.690802544355392456e-03 -3.194966120645403862e-03 1.359268091619014740e-02 1.561730820685625076e-02 -2.372638881206512451e-02 4.113803803920745850e-02 -4.653546959161758423e-02 1.412215828895568848e-02 3.288096934556961060e-02 3.421184793114662170e-02 3.710010647773742676e-02 1.099427696317434311e-02 7.983096875250339508e-03 5.649802833795547485e-02 2.331039868295192719e-02 2.478131558746099472e-03 4.256280139088630676e-02 -3.677845466881990433e-03 -7.795530557632446289e-02 4.037206992506980896e-02 4.524936527013778687e-02 -1.428498513996601105e-02 6.176909897476434708e-03 2.800608053803443909e-03 2.679314091801643372e-02 3.825210034847259521e-02 1.899262703955173492e-02 -1.015332154929637909e-02 -7.506691850721836090e-03 -4.465585574507713318e-03 6.948442663997411728e-03 1.029045414179563522e-02 -1.189901679754257202e-02 -8.204887853935360909e-04 -6.332524120807647705e-03 1.618893072009086609e-02 1.677499897778034210e-02 7.284791767597198486e-02 5.034336820244789124e-02 -5.359556525945663452e-02 -3.143446892499923706e-02 2.534283511340618134e-02 1.337831094861030579e-02 -9.723937138915061951e-03 2.421418763697147369e-02 1.441270112991333008e-02 -6.841165479272603989e-03 -2.185147488489747047e-03 -2.037633024156093597e-02 1.572616957128047943e-02 -2.661935053765773773e-02 6.729588657617568970e-02 -2.084468724206089973e-03 -4.347260296344757080e-02 -8.751394227147102356e-03 4.795260354876518250e-02 -2.417774125933647156e-02 1.134257856756448746e-02 -5.361382290720939636e-02 6.269118748605251312e-04 5.626954883337020874e-02 -9.286279790103435516e-03 9.874500334262847900e-03 -2.201112546026706696e-02 6.411519832909107208e-03 1.465362962335348129e-02 2.055180957540869713e-03 1.035956433042883873e-03 2.635942399501800537e-02 1.886893250048160553e-02 -1.785964518785476685e-02 -2.388216787949204445e-03 4.821081180125474930e-03 -2.064050640910863876e-03 1.890969648957252502e-02 1.527360826730728149e-02 2.264831401407718658e-02 5.928888916969299316e-02 3.033056482672691345e-02 4.221456497907638550e-02 1.875067129731178284e-02 -2.135087549686431885e-02 -6.245930679142475128e-03 1.487512886524200439e-02 -9.785722941160202026e-03 -3.854937478899955750e-02 1.616716617718338966e-03 -6.372343003749847412e-02 -1.656901091337203979e-03 -1.383480522781610489e-02 -8.202587813138961792e-02 -4.852924030274152756e-03 1.832954213023185730e-02 8.139284327626228333e-04 1.098261214792728424e-02 2.577631035819649696e-03 4.228074103593826294e-03 -3.248537890613079071e-03 6.794230081140995026e-03 4.696251358836889267e-03 1.588600128889083862e-02 7.768838666379451752e-03 -5.832856986671686172e-03 5.673450976610183716e-02 -8.121843449771404266e-03 3.271687019150704145e-04 1.538364123553037643e-02 8.734956383705139160e-02 -1.289731916040182114e-02 2.152928849682211876e-03 -5.280338227748870850e-03 -3.281969204545021057e-02 7.080966606736183167e-03 -6.881412584334611893e-03 -2.329036360606551170e-03 -4.044798761606216431e-02 1.595947518944740295e-02 6.231494713574647903e-03 2.491632662713527679e-02 -8.189715445041656494e-02 3.719116374850273132e-02 -3.206911496818065643e-03 -2.770284889265894890e-03 1.378826238214969635e-02 -1.920577487908303738e-03 -1.547209918498992920e-02 1.455252873711287975e-03 -4.290050640702247620e-02 -8.078873157501220703e-03 -7.461553812026977539e-02 -1.432092953473329544e-02 -4.799742600880563259e-04 -9.502261877059936523e-03 8.492901921272277832e-03 3.907187841832637787e-03 -8.413343876600265503e-02 -4.095018375664949417e-03 1.719541032798588276e-03 4.061292484402656555e-02 9.833327494561672211e-03 -8.336623758077621460e-02 1.243572495877742767e-02 -5.603117402642965317e-03 1.010405831038951874e-02 3.141519613564014435e-03 -2.074688300490379333e-02 -1.962871290743350983e-02 -1.873903721570968628e-02 1.694998936727643013e-03 2.473229169845581055e-02 8.400727808475494385e-02 1.392880082130432129e-02 -3.099294917774386704e-05 -5.838402081280946732e-03 -7.430247217416763306e-02 5.284630507230758667e-02 -3.494298725854605436e-04 -1.256407611072063446e-02 4.971561487764120102e-03 9.028397500514984131e-03 -1.068282127380371094e-02 -2.336954884231090546e-02 -9.005513042211532593e-03 1.759099960327148438e-02 -6.882831454277038574e-02 -8.630199357867240906e-03 -1.904679089784622192e-02 9.798337705433368683e-03 -3.205583244562149048e-02 -2.141046803444623947e-03 3.164696693420410156e-02 2.235359139740467072e-02 2.622173866257071495e-03 1.237710751593112946e-02 -2.873162738978862762e-02 2.741773985326290131e-02 5.819074809551239014e-02 -1.232403982430696487e-02 -1.302936952561140060e-02 3.838309273123741150e-02 -3.152054175734519958e-02 -1.635528355836868286e-02 1.285320706665515900e-02 6.701770238578319550e-03 4.406347405165433884e-03 -3.236015513539314270e-02 3.504741936922073364e-02 -4.007132258266210556e-03 1.501913554966449738e-02 2.003468805924057961e-03 2.388370595872402191e-02 -1.031133718788623810e-02 -9.725598618388175964e-03 7.293074391782283783e-03 2.980064973235130310e-02 6.205281242728233337e-03 9.847412817180156708e-03 -9.837651625275611877e-03 8.564781397581100464e-02 3.832024335861206055e-02 2.716204896569252014e-02 -8.232555352151393890e-03 1.484757103025913239e-02 -1.087400317192077637e-02 -3.155484423041343689e-02 1.413638237863779068e-02 6.662097293883562088e-03 -5.441410094499588013e-02 -8.539520204067230225e-03 4.283534735441207886e-02 7.357934489846229553e-03 1.412330474704504013e-02 -1.975025609135627747e-02 -8.522334508597850800e-03 -5.907423794269561768e-03 1.969535648822784424e-02 -1.713278761599212885e-04 5.518067162483930588e-03 4.191968217492103577e-02 -9.808910079300403595e-03 5.073325010016560555e-04 1.233691535890102386e-02 -2.526030316948890686e-02 -3.124769777059555054e-02 1.019583195447921753e-01 -1.193876843899488449e-02 8.204464800655841827e-03 -1.839147508144378662e-02 5.553011596202850342e-02 -1.688561961054801941e-02 3.593031689524650574e-02 -3.844198584556579590e-02 -2.678988501429557800e-02 2.788363024592399597e-02 -2.083492465317249298e-02 9.868132881820201874e-03 1.164378016255795956e-03 -4.311053082346916199e-02 2.554397331550717354e-03 -2.404443547129631042e-02 -5.708828102797269821e-03
-5.678289011120796204e-02 1.335589028894901276e-02 -7.272840291261672974e-02 6.095442175865173340e-02 -3.526625409722328186e-02 -5.916702002286911011e-02 3.282320126891136169e-02 -7.127238065004348755e-02 5.097964778542518616e-03 5.906157195568084717e-02 -8.116024732589721680e-02 7.880623638629913330e-02 1.422342471778392792e-02 6.281441450119018555e-02 -1.176695805042982101e-02 9.730009362101554871e-03 2.745342254638671875e-02 -1.511185616254806519e-02 1.011642888188362122e-01 1.230230703949928284e-01 -2.410996519029140472e-02 -1.269276067614555359e-02 -5.335504189133644104e-03 9.609148651361465454e-02 5.857928842306137085e-02 -4.403264075517654419e-02 -2.280586399137973785e-03 3.059973008930683136e-02 2.531788684427738190e-02 -2.165591157972812653e-02 -5.341219156980514526e-02 -1.135818939656019211e-02 3.214498516172170639e-03 2.747724764049053192e-02 -6.890616845339536667e-03 -6.133830919861793518e-02 6.499053537845611572e-02 1.199100911617279053e-02 -1.193022355437278748e-02 -8.104724436998367310e-02 -2.995280735194683075e-02 1.388477813452482224e-02 3.242541849613189697e-02 2.041916176676750183e-02 -5.629598349332809448e-02 3.150936216115951538e-02 -1.393454615026712418e-02 -5.046090483665466309e-02 -1.079463865607976913e-02 7.988024502992630005e-02 8.481818251311779022e-03 7.561811804771423340e-02 1.191395521163940430e-02 5.931694991886615753e-03 -4.425759892910718918e-03 -6.613913178443908691e-02 -1.334638148546218872e-02 4.557894542813301086e-02 -2.018455602228641510e-02 -3.295585140585899353e-02 -8.344056084752082825e-03 -1.711957901716232300e-02 4.961398616433143616e-02 -1.762530300766229630e-03 -2.322932006791234016e-03 1.339472946710884571e-03 -1.058372296392917633e-02 2.312483452260494232e-02 -1.241269633173942566e-01 -2.230654284358024597e-02 -7.768126577138900757e-02 -9.044987708330154419e-02 -2.891920506954193115e-02 -9.380897879600524902e-02 3.925899975001811981e-03 -4.772330075502395630e-02 1.869980059564113617e-02 9.157599997706711292e-04 9.532523900270462036e-02 5.618983134627342224e-02 7.106616161763668060e-03 2.568474784493446350e-02 3.254488855600357056e-02 -1.437651962041854858e-01 -8.016374707221984863e-02 1.537778787314891815e-02 4.859796911478042603e-02 7.971487939357757568e-02 -1.535405963659286499e-02 -6.777792423963546753e-02 -3.989030793309211731e-02 5.441930517554283142e-02 3.583006560802459717e-02 -5.090351775288581848e-02 2.844426780939102173e-02 -4.225607216358184814e-02 5.188953131437301636e-02 7.895004004240036011e-03 -7.855825871229171753e-02 1.052258163690567017e-02 -1.178350821137428284e-01 1.287267170846462250e-02 2.001838386058807373e-02 -5.198124796152114868e-02 4.539486393332481384e-02 -3.266147896647453308e-02 4.400533065199851990e-02 1.483963150531053543e-02 -6.003595516085624695e-02 9.395726770162582397e-02 2.282350137829780579e-02 -1.737252064049243927e-02 1.173933316022157669e-02 8.185209706425666809e-03 -2.324817702174186707e-03 1.736821432132273912e-04 2.050214447081089020e-03 -3.157382458448410034e-02 -2.586550638079643250e-02 -7.145719975233078003e-02 -5.697366967797279358e-02 7.496398687362670898e-02 2.554909326136112213e-02 -5.565601587295532227e-02 6.670809537172317505e-02 -3.309728205204010010e-02 5.245266482234001160e-02 4.821422626264393330e-04 -1.405911240726709366e-02 6.330662965774536133e-02 -7.942549884319305420e-03 -9.555523097515106201e-02 1.846533268690109253e-02 8.294538408517837524e-02 -4.163108766078948975e-02 3.159524872899055481e-02 1.058350410312414169e-02 -7.724519073963165283e-02 3.202660381793975830e-02 -5.030344799160957336e-02 -1.069259122014045715e-01 2.668148465454578400e-02 -3.648364543914794922e-02 -1.098410692065954208e-02 1.011440455913543701e-01 4.960032925009727478e-02 -2.370208315551280975e-02 1.969097927212715149e-02 -2.413104847073554993e-02 4.228059202432632446e-02 -1.169232204556465149e-01 8.133601397275924683e-03 1.267743948847055435e-02 3.833566606044769287e-02 6.060377694666385651e-03 -1.460858527570962906e-02 1.988359726965427399e-03 -1.687508821487426758e-02 1.739689335227012634e-02 2.138723246753215790e-02 3.462794423103332520e-02 3.766164928674697876e-02 1.256993878632783890e-02 1.492123119533061981e-02 9.984245151281356812e-02 -4.378281906247138977e-02 1.152106560766696930e-02 1.724292337894439697e-02 -5.117367953062057495e-02 2.698050346225500107e-03 -1.160209998488426208e-01 -1.384351123124361038e-02 -1.304505299776792526e-02 4.952912684530019760e-03 3.406152501702308655e-02 -6.545937806367874146e-02 1.622028066776692867e-03 3.771042451262474060e-02 6.141510605812072754e-02 -2.682286128401756287e-02 8.575219660997390747e-03 5.514710769057273865e-02 3.083523921668529510e-02 1.810252666473388672e-02 -2.010701037943363190e-02 5.898736044764518738e-02 -9.656360745429992676e-02 5.537412129342556000e-03 -6.267178338021039963e-03 -7.961557712405920029e-04 6.879821419715881348e-02 3.026109887287020683e-03 -2.154542366042733192e-03 1.001565381884574890e-01 -1.309586316347122192e-01 -1.815317571163177490e-02 -5.705610383301973343e-03 2.142385579645633698e-02 -4.886315762996673584e-02 1.673821173608303070e-02 -2.374302968382835388e-02 -8.682665973901748657e-02 -1.218905393034219742e-02 -6.229692604392766953e-03 -1.576651260256767273e-02 1.179747655987739563e-02 4.710052534937858582e-02 -8.113407343626022339e-02 -1.088118366897106171e-02 4.939262941479682922e-02 -6.241815909743309021e-02 3.613409027457237244e-02 4.192859679460525513e-02 3.417784720659255981e-02 3.049984201788902283e-02 5.305588990449905396e-02 3.475180640816688538e-02 1.134996041655540466e-01 -9.163851290941238403e-02 -2.389444969594478607e-02 -4.873095080256462097e-02 -4.732448235154151917e-02 -3.358631953597068787e-02 2.544979751110076904e-02 1.556732133030891418e-02 4.453429952263832092e-03 -7.755272835493087769e-02 1.200046241283416748e-01 4.005740210413932800e-02 -1.578263379633426666e-02 7.294303178787231445e-02 3.287412598729133606e-02 -2.025583945214748383e-02 4.130743443965911865e-02 2.749932184815406799e-02 -6.884250789880752563e-02 2.438165713101625443e-03 -6.474856752902269363e-03 4.824431147426366806e-03 -1.082918271422386169e-01 5.367724690586328506e-03 -2.344470471143722534e-02 -5.070218071341514587e-02 9.614094742573797703e-04 -1.597731187939643860e-02 -4.135577380657196045e-02 -6.215192750096321106e-02 3.407699614763259888e-02 6.046107783913612366e-02 5.529024172574281693e-03 -4.290554299950599670e-02 -2.447463199496269226e-02 -3.017188794910907745e-02 -1.008734107017517090e-01 1.052246149629354477e-02 -1.389942765235900879e-01
