4.862522482872009277e-01 1.885840445756912231e-01 1.771595329046249390e-01 -9.237295389175415039e-02 -2.923752069473266602e-01 -2.673805058002471924e-01 -2.868690192699432373e-01 -4.599252939224243164e-01 -2.359651476144790649e-01 -1.445345953106880188e-02 -1.631947904825210571e-01 -3.913189172744750977e-01 3.640744462609291077e-02 -2.458474785089492798e-01 -3.595285415649414062e-01 1.157255023717880249e-01 -3.013018667697906494e-01 2.377173155546188354e-01 -1.261881291866302490e-01 2.896717488765716553e-01 1.726249158382415771e-01 1.373082399368286133e-01 -3.824175000190734863e-01 1.331412792205810547e-01 8.504832535982131958e-02 5.648301541805267334e-02 -7.307906150817871094e-01 -5.680652856826782227e-01 -1.036279872059822083e-01 1.910608559846878052e-01 -1.247929111123085022e-01 3.350638151168823242e-01 -2.429133504629135132e-01 6.225014477968215942e-02 5.774183869361877441e-01 1.775774061679840088e-01 1.207038760185241699e-01 -9.840556979179382324e-01 -2.473415248095989227e-02 -2.486743927001953125e-01 2.379301786422729492e-01 2.010696195065975189e-02 -4.454946219921112061e-01 8.432617038488388062e-02 3.197205066680908203e-01 3.668303191661834717e-01 -2.580127306282520294e-02 -2.236874997615814209e-01 1.427711695432662964e-01 1.282110512256622314e-01 -4.490735530853271484e-01 2.133803218603134155e-01 1.290181279182434082e-01 -1.478047221899032593e-01 1.537595242261886597e-01 -7.574455440044403076e-02 -7.059754570946097374e-04 9.222064912319183350e-02 4.155941605567932129e-01 5.996891763061285019e-03 2.934082448482513428e-01 4.972261488437652588e-01 -8.608874082565307617e-01 -1.239708438515663147e-01 -8.397799730300903320e-02 -1.063325181603431702e-01 -3.836574554443359375e-01 2.326875329017639160e-01 1.500892341136932373e-01 4.612576663494110107e-01 2.300477586686611176e-02 -2.094737440347671509e-01 -4.449610412120819092e-01 -2.176382839679718018e-01 1.283700168132781982e-01 -5.533528923988342285e-01 -4.765355288982391357e-01 -5.160997509956359863e-01 2.107257694005966187e-01 2.381344735622406006e-01 -6.387602686882019043e-01 1.056112274527549744e-01 -2.399110794067382812e-01 1.812205463647842407e-01 -3.522994816303253174e-01 2.549267709255218506e-01 1.632999330759048462e-01 1.035288814455270767e-02 -2.379369735717773438e-01 7.690978236496448517e-03 -1.861023157835006714e-01 -1.415746062994003296e-01 7.972257584333419800e-02 -1.592940241098403931e-01 -7.666712999343872070e-02 -5.391659736633300781e-01 -2.563925646245479584e-02 -7.382198572158813477e-01 3.965444564819335938e-01 -1.061132103204727173e-01 -1.859164685010910034e-01 -3.001644015312194824e-01 4.258382618427276611e-01 -6.263379007577896118e-02 7.006900012493133545e-02 2.892660796642303467e-01 -3.264809846878051758e-01 2.723084092140197754e-01 2.757315337657928467e-01 9.799206256866455078e-02 3.870534524321556091e-02 -3.393920511007308960e-02 1.703502684831619263e-01 4.034435749053955078e-01 2.283241227269172668e-02 4.827542603015899658e-01 2.639884352684020996e-01 -7.073546051979064941e-01 -8.639855384826660156e-01 4.712805524468421936e-02 -1.024825051426887512e-01 3.774761855602264404e-01 1.134748235344886780e-01 1.336909458041191101e-02 3.406245410442352295e-01 5.205488801002502441e-01 -6.767261028289794922e-01 -1.026861593127250671e-01 -7.124362885951995850e-02 1.949714124202728271e-01 2.925451099872589111e-01 -5.765273571014404297e-01 -9.792450815439224243e-02 -5.689027905464172363e-01 2.610824443399906158e-02 -2.043531835079193115e-01 -3.177976608276367188e-02 2.017796039581298828e-01 3.450986742973327637e-01 4.898740351200103760e-01 -1.987273544073104858e-01 4.082704707980155945e-02 -6.433323621749877930e-01 -1.007050946354866028e-01 2.901307642459869385e-01 -4.005560576915740967e-01 -3.996211662888526917e-02 -3.121495842933654785e-01 9.515779465436935425e-02 7.039024829864501953e-01 1.719159036874771118e-01 5.262808203697204590e-01 1.518936753273010254e-01 6.060712970793247223e-03 -5.538929700851440430e-01 9.805852174758911133e-02 -1.663461774587631226e-01 -1.014792695641517639e-01 -2.621179074048995972e-02 5.902595818042755127e-03 -1.566600799560546875e-01 -1.466514468193054199e-01 -4.729180932044982910e-01 -9.165885299444198608e-02 1.323092728853225708e-01 -2.428673356771469116e-01 8.700737357139587402e-02 -4.179243743419647217e-01 1.496579945087432861e-01 -2.304299324750900269e-01 -4.100479185581207275e-01 -1.124173998832702637e-01 -1.077418923377990723e-01 3.438758254051208496e-01 -1.294038593769073486e-01 -3.065016865730285645e-01 9.387978166341781616e-02 2.773147225379943848e-01 2.381832897663116455e-01 -5.514469146728515625e-01 -2.723772823810577393e-01 -3.644909858703613281e-01 2.663111984729766846e-01 3.706080913543701172e-01 3.034974932670593262e-01 -1.917760968208312988e-01 -2.398390769958496094e-01 -1.452742666006088257e-01 -4.215740039944648743e-02 -2.222124785184860229e-01 -4.813292026519775391e-01 6.420393586158752441e-01 1.469630300998687744e-01 -3.826245367527008057e-01 1.043925061821937561e-01 1.648049652576446533e-01 -4.542111605405807495e-02 4.401446580886840820e-01 -1.521647125482559204e-01 -5.478810891509056091e-02 -2.134909629821777344e-01 -2.064066827297210693e-01 -3.916803598403930664e-01 -1.017232611775398254e-01 8.414249867200851440e-03 2.893745303153991699e-01 -2.203118242323398590e-02 2.909927964210510254e-01 6.732386946678161621e-01 3.806500434875488281e-01 1.473125517368316650e-01 1.619209647178649902e-01 -1.440704762935638428e-01 -3.717499077320098877e-01 -5.389699339866638184e-01 2.871323823928833008e-01 -1.754362136125564575e-02 -9.657722711563110352e-02 2.254163920879364014e-01 -2.241711504757404327e-02 1.365731656551361084e-01 -5.136964917182922363e-01 1.345629394054412842e-01 9.861671924591064453e-02 7.464641928672790527e-01 -5.814078077673912048e-02 -2.066295146942138672e-01 1.083743870258331299e-01 7.797216624021530151e-02 3.020114302635192871e-01 7.991076260805130005e-02 5.150063037872314453e-01 -1.405329108238220215e-01 -3.248440325260162354e-01 -1.775245964527130127e-01 4.122765064239501953e-01 6.603549122810363770e-01 -6.128112077713012695e-01 1.133154928684234619e-01 -8.379495888948440552e-02 -5.990453809499740601e-02 3.425288200378417969e-01 2.830189764499664307e-01 -6.775417923927307129e-01 1.234049946069717407e-01 -7.093735337257385254e-01 -4.651458933949470520e-02 -2.021305710077285767e-01 -2.064743787050247192e-01 5.336912274360656738e-01 -4.472344815731048584e-01 -5.792365074157714844e-01 1.440671533346176147e-01 -4.418617188930511475e-01 -3.205596283078193665e-02 5.552936196327209473e-01
-4.077597260475158691e-01 -6.448369026184082031e-01 -9.452920407056808472e-02 1.127266436815261841e-01 -4.319060742855072021e-01 -7.058094739913940430e-01 -1.217268586158752441e+00 3.228684961795806885e-01 3.453820943832397461e-01 2.346567623317241669e-02 -6.589451804757118225e-03 -3.493469953536987305e-01 -5.008631944656372070e-01 -2.731140255928039551e-01 -1.755024194717407227e-01 -1.077418103814125061e-01 -1.319062113761901855e-01 -8.819031715393066406e-01 -3.898419737815856934e-01 -1.487673968076705933e-01 1.422010064125061035e-01 1.211562901735305786e-01 -4.184582233428955078e-01 7.018852978944778442e-02 9.684109687805175781e-02 1.401075720787048340e-01 -6.422141790390014648e-01 -6.036561727523803711e-01 -2.078216075897216797e-01 -1.273242980241775513e-01 2.427909672260284424e-01 4.049994517117738724e-03 4.508235678076744080e-02 -5.662064626812934875e-02 3.354187309741973877e-01 -5.782467722892761230e-01 -4.849468767642974854e-01 -2.403659671545028687e-01 -1.400569826364517212e-01 7.176573872566223145e-01 1.313075423240661621e-01 2.307328879833221436e-01 -1.909001767635345459e-01 5.627085566520690918e-01 1.584292352199554443e-01 -1.662044227123260498e-01 -2.129036374390125275e-02 -3.212163150310516357e-01 5.421070456504821777e-01 -4.736736789345741272e-02 -5.072031617164611816e-01 3.093236386775970459e-01 -3.626083135604858398e-01 3.274116814136505127e-01 4.895242750644683838e-01 6.651329994201660156e-01 -4.228573739528656006e-01 -1.647448539733886719e-01 -2.486059069633483887e-01 -6.781968474388122559e-02 1.662070453166961670e-01 6.960726529359817505e-02 -4.464672505855560303e-01 4.292379617691040039e-01 -3.890553116798400879e-01 -4.215141758322715759e-03 -9.272850118577480316e-03 1.151462122797966003e-01 -4.111091792583465576e-02 -4.639434814453125000e-01 -3.856151401996612549e-01 3.616163730621337891e-01 1.302137076854705811e-01 4.765690565109252930e-01 -1.105150058865547180e-01 -2.273973822593688965e-01 4.544471576809883118e-02 -2.028704434633255005e-01 2.700210213661193848e-01 -3.934854269027709961e-01 -1.074763312935829163e-01 4.884167909622192383e-01 -2.836779057979583740e-01 3.636731505393981934e-01 -2.233117073774337769e-02 3.512493371963500977e-01 2.971595823764801025e-01 2.401834875345230103e-01 -1.703501045703887939e-01 2.844740152359008789e-01 2.003403753042221069e-02 -6.954459547996520996e-01 2.934162020683288574e-01 2.055986411869525909e-02 -1.987968236207962036e-01 1.479383856058120728e-01 5.084536597132682800e-02 -2.522747730836272240e-03 1.727847754955291748e-02 3.350193798542022705e-02 -1.565408259630203247e-01 3.554223477840423584e-01 -5.501225218176841736e-02 5.888508632779121399e-02 1.238439381122589111e-01 1.859643161296844482e-01 -1.575621135998517275e-04 8.935114741325378418e-02 -2.971270680427551270e-02 2.266460061073303223e-01 1.245096474885940552e-01 3.219935297966003418e-01 -4.391209781169891357e-01 1.842889040708541870e-01 -2.305811345577239990e-01 4.145176410675048828e-01 5.363618135452270508e-01 6.538833975791931152e-01 -1.006779540330171585e-02 4.611603915691375732e-01 1.571879535913467407e-01 3.540014028549194336e-01 -2.207625210285186768e-01 -5.091571211814880371e-01 9.627016782760620117e-01 2.538760900497436523e-01 2.126110941171646118e-01 1.327608805149793625e-02 2.141485512256622314e-01 1.524432748556137085e-01 -2.828174829483032227e-01 -1.900959014892578125e-01 -3.921699523925781250e-01 -3.244218826293945312e-01 -2.844068594276905060e-02 1.330256313085556030e-01 2.846847288310527802e-02 2.039557695388793945e-01 -1.833369433879852295e-01 9.240187704563140869e-02 1.470833718776702881e-01 5.209494829177856445e-01 -1.584190279245376587e-01 6.445258855819702148e-02 -2.202278673648834229e-01 5.114384889602661133e-01 1.045468449592590332e-01 9.703159332275390625e-03 7.712759077548980713e-02 7.425867915153503418e-01 -2.392929494380950928e-01 -4.543277919292449951e-01 -6.313078403472900391e-01 -1.099498718976974487e-01 -2.718526124954223633e-02 -3.500961661338806152e-01 -5.847651958465576172e-01 3.733254373073577881e-01 -3.633918464183807373e-01 -4.198840856552124023e-01 -9.185910820960998535e-01 2.055695056915283203e-01 -6.047221366316080093e-03 -1.570528745651245117e-01 4.483687877655029297e-01 -7.549145221710205078e-01 -6.026883795857429504e-02 1.825826019048690796e-01 -1.981782913208007812e-02 -5.206840634346008301e-01 -1.864791512489318848e-01 3.439570069313049316e-01 2.173078656196594238e-01 3.730722665786743164e-01 2.579116523265838623e-01 -3.849645256996154785e-01 2.566485106945037842e-01 -3.568834662437438965e-01 -8.469486981630325317e-02 3.996213674545288086e-01 1.445773150771856308e-02 1.475300788879394531e-01 -5.605026483535766602e-01 3.227720409631729126e-02 5.035996437072753906e-01 -3.500111401081085205e-01 -2.542667835950851440e-02 -7.444705069065093994e-02 -1.400454640388488770e-01 3.803475201129913330e-01 -5.776675939559936523e-01 -8.382592350244522095e-02 1.281662434339523315e-01 5.817415937781333923e-02 -4.591048061847686768e-01 2.350091002881526947e-02 1.066713035106658936e-01 2.346970140933990479e-01 -1.998677402734756470e-01 -1.065999865531921387e-01 3.426295220851898193e-01 -2.152230031788349152e-02 -3.702054619789123535e-01 3.335253521800041199e-02 5.827444791793823242e-01 6.048776507377624512e-01 -2.130682468414306641e-01 1.868598610162734985e-01 9.724263846874237061e-02 8.124814629554748535e-01 3.559603691101074219e-01 -1.781321465969085693e-01 -5.946766585111618042e-02 -2.524321973323822021e-01 -1.579822748899459839e-01 3.079026639461517334e-01 -1.507752388715744019e-01 6.553693115711212158e-02 -3.770929202437400818e-02 -4.054584503173828125e-01 -4.482995718717575073e-02 -8.406370282173156738e-01 -9.355666115880012512e-03 -5.851571559906005859e-01 -1.294187456369400024e-01 2.610947936773300171e-02 2.886628508567810059e-01 2.468260228633880615e-01 -3.840460442006587982e-03 5.974825024604797363e-01 1.991012878715991974e-02 3.761554062366485596e-01 -3.592317402362823486e-01 -2.056090682744979858e-01 -4.850765317678451538e-02 3.575673699378967285e-01 2.159869074821472168e-01 9.526254236698150635e-02 -2.923647761344909668e-01 1.584416925907135010e-01 -3.223491609096527100e-01 1.551401168107986450e-01 2.889485657215118408e-01 4.152378533035516739e-03 -2.866286337375640869e-01 4.931486397981643677e-02 4.856775701045989990e-01 4.154108762741088867e-01 -4.394879192113876343e-02 -2.341368794441223145e-01 -1.409971117973327637e-01 5.801298618316650391e-01 -1.460317671298980713e-01 -1.490889191627502441e-01 1.917334645986557007e-02 -2.879773378372192383e-01
-2.092058658599853516e-01 4.562712013721466064e-01 -2.454265356063842773e-01 -4.689951539039611816e-01 -4.036710262298583984e-01 -1.716331206262111664e-02 1.200969517230987549e-01 -4.776155352592468262e-01 -3.541031181812286377e-01 2.601348459720611572e-01 -2.292778491973876953e-01 -5.619318485260009766e-01 -8.376009017229080200e-02 4.823455214500427246e-02 -4.544996619224548340e-01 2.565560936927795410e-01 -8.900033682584762573e-02 -4.743313789367675781e-01 6.069424748420715332e-01 -6.326581835746765137e-01 -1.137310266494750977e-01 -6.109071969985961914e-01 -3.633490204811096191e-01 -5.978389456868171692e-02 1.686232388019561768e-01 3.778963088989257812e-01 1.198220700025558472e-01 -1.760457456111907959e-01 -1.107536256313323975e-01 -4.053789675235748291e-01 -3.070688247680664062e-01 -5.292254686355590820e-01 -1.358132064342498779e-01 2.649520933628082275e-01 -8.847339451313018799e-02 -7.298270612955093384e-02 -5.139593482017517090e-01 -1.011322587728500366e-01 -6.574428826570510864e-02 7.585569620132446289e-01 3.664277493953704834e-01 -2.428168356418609619e-01 -1.471980363130569458e-01 -9.249862432479858398e-01 2.407077401876449585e-01 9.440526366233825684e-02 -2.277868241071701050e-01 -4.203317686915397644e-02 1.740899085998535156e-01 5.807218700647354126e-02 2.570095956325531006e-01 3.973618149757385254e-01 9.780814871191978455e-03 1.455330401659011841e-01 -4.109902307391166687e-02 1.749845892190933228e-01 -1.022499799728393555e-01 -3.810406029224395752e-01 -5.324884653091430664e-01 7.895942032337188721e-02 5.064500570297241211e-01 1.185892894864082336e-01 -5.465124845504760742e-01 -9.220547676086425781e-01 7.185562700033187866e-02 9.006063640117645264e-02 -1.053297594189643860e-01 2.031802535057067871e-01 2.340202927589416504e-01 -8.828054666519165039e-01 -9.612780809402465820e-02 -2.932066917419433594e-01 -1.878852099180221558e-01 1.153819188475608826e-01 5.369744449853897095e-02 8.231426030397415161e-02 2.448200881481170654e-01 3.001064248383045197e-02 -1.086539030075073242e-01 -3.842054605484008789e-01 4.171211719512939453e-01 1.456383019685745239e-01 -1.957257986068725586e-01 5.153639912605285645e-01 -1.109478101134300232e-01 3.836683928966522217e-01 -2.533137984573841095e-02 -6.883770823478698730e-01 -5.107247233390808105e-01 2.130586653947830200e-01 1.006567329168319702e-01 -3.521472811698913574e-01 -4.294812381267547607e-01 -4.876750707626342773e-01 -8.356097936630249023e-01 2.212969958782196045e-02 2.481360174715518951e-02 2.940000295639038086e-01 -5.551648736000061035e-01 -6.107472255825996399e-02 9.388161823153495789e-03 6.665568351745605469e-01 1.636301279067993164e-01 2.580898702144622803e-01 -4.758042693138122559e-01 -3.504029810428619385e-01 4.101266562938690186e-01 1.133102700114250183e-01 2.184163182973861694e-01 -7.054521888494491577e-02 -1.037276983261108398e+00 -3.618240058422088623e-01 -4.711951911449432373e-01 -6.545621752738952637e-01 3.990885615348815918e-01 7.552335262298583984e-01 -3.199188411235809326e-01 -5.315774083137512207e-01 -3.209320008754730225e-01 -1.896947920322418213e-01 2.519590780138969421e-02 -1.550616975873708725e-02 -5.725032091140747070e-01 -7.572385072708129883e-01 4.653436318039894104e-02 -2.982919812202453613e-01 -3.545837700366973877e-01 -1.095870044082403183e-02 4.499395191669464111e-01 2.621676400303840637e-02 -5.818954482674598694e-02 -1.286847740411758423e-01 -2.898525446653366089e-02 -1.748548001050949097e-01 -3.975272178649902344e-01 -9.202136993408203125e-01 -4.490404427051544189e-01 -2.007865756750106812e-01 -3.896131813526153564e-01 5.776239037513732910e-01 3.400975465774536133e-01 -7.006909847259521484e-01 -2.484034448862075806e-01 -2.192083597183227539e-01 -8.899187296628952026e-02 1.102904081344604492e-01 -1.824642159044742584e-02 -3.266213089227676392e-02 2.148322761058807373e-01 3.538661897182464600e-01 -6.228769198060035706e-02 -3.608117401599884033e-01 -3.399842232465744019e-02 -1.205138266086578369e-01 -7.033974677324295044e-02 -8.587754368782043457e-01 2.099655568599700928e-01 -2.272632159292697906e-02 -3.713883459568023682e-02 -3.246104344725608826e-02 -2.032216340303421021e-01 1.225801259279251099e-01 -1.798380911350250244e-01 8.792035281658172607e-02 -1.381128001958131790e-02 -3.682996332645416260e-02 -1.101234257221221924e-01 -1.497108340263366699e-01 6.066166236996650696e-02 -1.868502050638198853e-01 -4.340190589427947998e-01 -5.886072516441345215e-01 -3.407539427280426025e-01 -7.437157630920410156e-02 2.133694589138031006e-01 -4.280285239219665527e-01 5.410246849060058594e-01 -7.189068198204040527e-01 9.463231265544891357e-02 1.565268039703369141e-01 -3.246279656887054443e-01 -3.990493714809417725e-01 5.845659971237182617e-01 4.387378990650177002e-01 -9.943326562643051147e-02 3.047095239162445068e-01 -5.268725156784057617e-01 -3.603302240371704102e-01 -3.972028195858001709e-01 -4.288568198680877686e-01 -2.286189235746860504e-02 -2.417444996535778046e-02 -3.560543060302734375e-01 -3.728438019752502441e-01 -2.173187732696533203e-01 -4.287593960762023926e-01 -2.915114462375640869e-01 -2.974271960556507111e-02 -3.009444773197174072e-01 1.033261641860008240e-01 4.140232503414154053e-01 -9.590106010437011719e-01 -5.786516517400741577e-02 -5.106011033058166504e-01 1.162879541516304016e-01 1.899567544460296631e-01 8.785288035869598389e-02 -5.662049651145935059e-01 -1.073982939124107361e-01 -8.555840700864791870e-02 -6.488860249519348145e-01 -2.859717905521392822e-01 -9.040579795837402344e-01 -8.834946900606155396e-02 -2.204733192920684814e-01 -2.684101164340972900e-01 8.758314251899719238e-01 -1.871890872716903687e-01 1.827532052993774414e-01 -1.661194711923599243e-01 -4.984417557716369629e-01 -4.799704253673553467e-01 -3.352484405040740967e-01 -6.031822562217712402e-01 7.553336024284362793e-01 -2.633431181311607361e-02 -2.578950524330139160e-01 4.928060173988342285e-01 -6.046310067176818848e-01 -1.086172536015510559e-01 4.514655470848083496e-01 2.131618112325668335e-01 -4.386404156684875488e-01 1.604662686586380005e-01 1.072435751557350159e-01 -4.243622124195098877e-01 3.580068647861480713e-01 -6.773810088634490967e-02 3.562415540218353271e-01 1.192216649651527405e-01 -4.927734434604644775e-01 -2.440598756074905396e-01 -1.258798837661743164e+00 2.768444456160068512e-02 -3.169632554054260254e-01 6.488678604364395142e-02 3.356291353702545166e-01 5.654366686940193176e-02 -2.527312636375427246e-01 -8.766347169876098633e-01 -3.038026392459869385e-03 1.805450022220611572e-02 -1.862066611647605896e-02 1.925255358219146729e-01 -1.202287599444389343e-01 3.624831140041351318e-01
3.793082833290100098e-01 2.540673315525054932e-01 2.256178855895996094e-01 1.020359694957733154e-01 -1.624533720314502716e-02 4.369817674160003662e-01 -1.574614197015762329e-01 1.888771355152130127e-02 3.439904749393463135e-01 4.056655168533325195e-01 -9.408030658960342407e-02 2.515603303909301758e-01 -2.947495281696319580e-01 8.310138434171676636e-02 1.947544217109680176e-01 3.114107251167297363e-01 1.449622511863708496e-01 -2.431171238422393799e-01 8.515482544898986816e-01 -7.980313897132873535e-01 5.415561199188232422e-01 1.818292886018753052e-01 -3.406024724245071411e-02 -9.478393197059631348e-01 5.256985425949096680e-01 -1.938367336988449097e-01 3.315770924091339111e-01 2.833651192486286163e-02 -2.007900923490524292e-01 -2.431225776672363281e-01 -2.004356235265731812e-01 -8.840401172637939453e-01 2.370239943265914917e-01 6.764003038406372070e-01 2.186003029346466064e-01 -2.776153683662414551e-01 7.427967339754104614e-02 -1.278107166290283203e-01 -1.859145909547805786e-01 2.044075429439544678e-01 6.615515053272247314e-02 -1.889328509569168091e-01 7.628156989812850952e-02 -1.760644316673278809e-01 7.388023734092712402e-01 1.851639151573181152e-01 4.118758141994476318e-01 -4.263490810990333557e-02 -2.751480638980865479e-01 -4.757153093814849854e-01 3.896083682775497437e-02 -3.043106198310852051e-02 3.849289119243621826e-01 4.737179875373840332e-01 1.710861474275588989e-01 -1.173379868268966675e-01 1.495348364114761353e-01 4.173342287540435791e-01 -7.490412890911102295e-02 -6.183231249451637268e-02 6.069418191909790039e-01 -1.089937165379524231e-01 -2.144961506128311157e-01 3.226629793643951416e-01 -7.351402044296264648e-01 4.876396954059600830e-01 -1.924232840538024902e-01 2.295972853899002075e-01 -7.170794159173965454e-02 -1.095340132713317871e+00 6.675361990928649902e-01 6.069397926330566406e-01 -2.178706377744674683e-01 -2.896088659763336182e-01 -3.124833106994628906e-01 -2.490990906953811646e-01 -1.927941292524337769e-01 1.347846090793609619e-01 1.216013282537460327e-01 1.889959573745727539e-01 -6.409627199172973633e-02 -8.674057573080062866e-02 -2.105280756950378418e-01 -7.906832545995712280e-02 -2.564457990229129791e-02 2.670923471450805664e-01 -1.938134133815765381e-01 -3.609527274966239929e-02 2.421106845140457153e-01 1.698332279920578003e-02 2.756693959236145020e-01 -2.207184433937072754e-01 -3.530899062752723694e-02 5.299713015556335449e-01 2.753701210021972656e-01 -2.123786658048629761e-01 -4.214976429939270020e-01 -4.437940418720245361e-01 -7.081671357154846191e-01 1.267441660165786743e-01 -4.696348682045936584e-02 3.100694715976715088e-01 1.336678713560104370e-01 7.160604745149612427e-02 9.647201001644134521e-02 -1.445619612932205200e-01 -5.311136841773986816e-01 -3.235771358013153076e-01 2.693600058555603027e-01 6.389726698398590088e-02 -4.664271473884582520e-01 -1.180664747953414917e-01 -3.156545758247375488e-01 4.134979844093322754e-01 1.585078798234462738e-02 -2.503493130207061768e-01 -1.483559012413024902e-01 4.710214585065841675e-02 -8.784276247024536133e-02 3.994667157530784607e-02 2.825079718604683876e-03 -3.937782021239399910e-04 -1.939797401428222656e-01 -4.625860452651977539e-01 -1.125859022140502930e-01 3.911957740783691406e-01 5.169708132743835449e-01 1.409943997859954834e-01 3.786256313323974609e-01 1.365117728710174561e-01 2.418048679828643799e-01 1.447798013687133789e-01 2.102941274642944336e-02 2.564108669757843018e-01 -5.708339810371398926e-02 8.870638161897659302e-02 -1.499004941433668137e-02 -3.985141217708587646e-01 3.415675461292266846e-01 1.148326508700847626e-02 -5.429900288581848145e-01 -6.269329460337758064e-04 3.212155997753143311e-01 -6.046518683433532715e-01 1.130156666040420532e-01 -5.250619724392890930e-02 -9.175338596105575562e-02 -1.014445722103118896e-02 6.170346736907958984e-01 -4.081487655639648438e-01 4.037619531154632568e-01 1.684473305940628052e-01 -1.080356538295745850e-01 4.253058135509490967e-02 1.899418681859970093e-01 -2.942486703395843506e-01 2.577442824840545654e-01 -7.269199006259441376e-03 -1.710101962089538574e-01 4.639848694205284119e-02 1.095038000494241714e-02 2.564347088336944580e-01 -5.343406796455383301e-01 3.617869913578033447e-01 -3.729296326637268066e-01 -2.769186198711395264e-01 -4.660135880112648010e-02 -1.906591653823852539e-01 1.169562488794326782e-01 -1.432651728391647339e-01 -3.577834665775299072e-01 3.790998160839080811e-01 1.725656837224960327e-01 2.837786078453063965e-01 4.034132063388824463e-01 -3.386166691780090332e-01 -7.656082510948181152e-01 7.132954597473144531e-01 -1.650243699550628662e-01 -3.392621874809265137e-01 3.648046404123306274e-02 -4.453237354755401611e-01 -1.040238812565803528e-01 1.646847575902938843e-01 4.812830686569213867e-01 4.538667798042297363e-01 -1.519960314035415649e-01 1.418479979038238525e-01 -3.750954568386077881e-02 -3.506408631801605225e-01 -2.545297145843505859e-01 -9.695728123188018799e-02 2.664172649383544922e-01 -7.738934159278869629e-01 -2.452636063098907471e-01 4.166895449161529541e-01 1.297529488801956177e-01 -4.804042875766754150e-01 5.696022883057594299e-02 -3.448507189750671387e-01 -3.926405012607574463e-01 -1.288335323333740234e-01 2.597048878669738770e-01 4.786908254027366638e-02 7.340198010206222534e-02 -6.089316010475158691e-01 -1.093201264739036560e-01 1.096322983503341675e-01 2.252301573753356934e-01 -4.225653409957885742e-01 2.051538228988647461e-01 -1.300335489213466644e-02 2.711593210697174072e-01 -3.509230613708496094e-01 -3.259806632995605469e-01 -5.081763267517089844e-01 8.262700587511062622e-02 9.041354060173034668e-02 -1.589930951595306396e-01 1.194347962737083435e-01 -2.997595071792602539e-01 -3.779081404209136963e-01 6.747886538505554199e-02 4.840719327330589294e-02 5.450458526611328125e-01 5.045494437217712402e-01 2.404237687587738037e-01 1.065444871783256531e-01 -2.202983945608139038e-01 -3.602471649646759033e-01 5.642319098114967346e-02 -4.254606664180755615e-01 -4.043201208114624023e-01 2.592425048351287842e-01 2.092169038951396942e-02 1.355774104595184326e-01 1.504817008972167969e-01 -9.702015668153762817e-02 -5.825653076171875000e-01 -2.950339913368225098e-01 -2.693880200386047363e-01 1.504346914589405060e-02 1.648995131254196167e-01 -7.759002503007650375e-03 -2.250584661960601807e-01 -3.870288133621215820e-01 1.141491904854774475e-01 -5.571809038519859314e-02 2.372338920831680298e-01 -5.704010725021362305e-01 3.756819665431976318e-01 -7.191876322031021118e-02 -8.233664929866790771e-02 3.284119665622711182e-01 2.091120630502700806e-01 -4.643445014953613281e-01
-1.484051495790481567e-01 -3.611927032470703125e-01 1.987370103597640991e-02 -5.547332763671875000e-01 -3.948311209678649902e-01 4.189148917794227600e-02 -3.710667192935943604e-01 5.837639048695564270e-02 2.234052270650863647e-01 -2.632336318492889404e-01 -3.945873379707336426e-01 5.384536087512969971e-02 -9.225524216890335083e-02 -5.671001672744750977e-01 3.318487107753753662e-01 5.511043071746826172e-01 3.284509778022766113e-01 2.941127419471740723e-01 -8.360869437456130981e-02 2.400830090045928955e-01 -9.535239078104496002e-03 2.781740427017211914e-01 -8.176250010728836060e-02 -2.686660587787628174e-01 7.714428305625915527e-01 -4.066491723060607910e-01 6.324259936809539795e-02 -3.562271595001220703e-01 3.023544549942016602e-01 -7.396791875362396240e-02 3.879364132881164551e-01 4.633297771215438843e-02 3.475429117679595947e-01 2.634140849113464355e-01 -4.464206844568252563e-02 -3.783411085605621338e-01 3.656701743602752686e-01 1.339805722236633301e-01 8.682202547788619995e-02 4.407462477684020996e-02 -3.762030601501464844e-01 2.922133803367614746e-01 -7.164821028709411621e-02 -2.260137498378753662e-01 -8.591764420270919800e-02 -9.760953485965728760e-02 2.919050455093383789e-01 2.221385389566421509e-01 4.863438308238983154e-01 1.964923366904258728e-02 7.985670864582061768e-02 -4.525719583034515381e-01 2.120235711336135864e-01 4.728769883513450623e-02 -5.557216331362724304e-02 -1.018843427300453186e-01 4.755791127681732178e-01 -8.058992773294448853e-02 -8.354287594556808472e-02 -2.895372211933135986e-01 1.120526865124702454e-01 -3.857141733169555664e-02 2.221315950155258179e-01 2.018727809190750122e-01 1.773036122322082520e-01 4.702174365520477295e-01 -1.516494154930114746e-01 1.552053242921829224e-01 2.944713532924652100e-01 -2.885005474090576172e-01 -1.627883762121200562e-01 3.024557530879974365e-01 7.284639775753021240e-02 -1.507666110992431641e-01 -4.466360062360763550e-02 4.281994700431823730e-01 3.817366063594818115e-01 3.642749488353729248e-01 -1.382521688938140869e-01 -1.315837204456329346e-01 -1.284858226776123047e+00 2.480516284704208374e-01 -7.365343570709228516e-01 -4.040783941745758057e-01 -3.434332907199859619e-01 4.053353667259216309e-01 5.464445352554321289e-01 -3.455035090446472168e-01 -3.686679601669311523e-01 -1.241789236664772034e-01 3.656808435916900635e-01 1.647704690694808960e-01 1.000604331493377686e-01 1.869510561227798462e-01 -2.519587241113185883e-02 1.580544747412204742e-02 7.855837792158126831e-02 -1.200678944587707520e-01 -2.698249816894531250e-01 -1.245685070753097534e-01 -2.839022874832153320e-01 2.776529192924499512e-01 1.139063835144042969e-01 6.211677938699722290e-02 2.572337351739406586e-02 1.631332933902740479e-01 -6.150354743003845215e-01 -1.993653178215026855e-01 3.582129180431365967e-01 -1.200363114476203918e-01 2.116735130548477173e-01 -1.474356204271316528e-01 -3.472005426883697510e-01 -6.021075695753097534e-02 -6.489679813385009766e-01 8.014035224914550781e-02 -1.010853648185729980e-01 2.079310417175292969e-01 -4.026878476142883301e-01 2.783338129520416260e-01 4.152438640594482422e-01 5.803583860397338867e-01 -1.732156798243522644e-02 -2.466316968202590942e-01 1.905100941658020020e-01 -1.787267774343490601e-01 -7.563266158103942871e-02 -1.532212197780609131e-01 -3.886471986770629883e-01 -1.048376262187957764e-01 3.913758322596549988e-03 -1.477723103016614914e-02 -1.859580427408218384e-01 -9.954630732536315918e-01 1.746892482042312622e-01 4.639922380447387695e-01 3.519968688488006592e-02 3.756152689456939697e-01 1.742101274430751801e-02 -3.871690034866333008e-01 -6.526552438735961914e-01 -2.584018409252166748e-01 1.324952095746994019e-01 -1.189823895692825317e-01 -1.224696412682533264e-01 -5.761665701866149902e-01 -1.423275172710418701e-01 1.642235815525054932e-01 -3.395711630582809448e-02 -3.197251260280609131e-01 2.230932116508483887e-01 -1.851793229579925537e-01 -3.527630865573883057e-01 -2.844504117965698242e-01 -5.552979707717895508e-01 -2.558384239673614502e-01 -5.089147090911865234e-01 2.394010573625564575e-01 -6.449780464172363281e-01 -4.269609749317169189e-01 7.020850479602813721e-02 1.744752228260040283e-01 -1.154980435967445374e-02 -8.573815226554870605e-02 9.928834438323974609e-02 -1.649245023727416992e-01 4.057420194149017334e-01 -3.419150412082672119e-01 6.755021214485168457e-02 -1.573147177696228027e-01 -2.013484686613082886e-01 4.260399937629699707e-01 -1.355336885899305344e-02 2.394637912511825562e-01 2.822299599647521973e-01 -2.872646450996398926e-01 7.488039880990982056e-02 9.424268454313278198e-02 5.770145058631896973e-01 -4.430024027824401855e-01 -5.615612864494323730e-02 2.171256095170974731e-01 -3.061913549900054932e-01 -4.098202884197235107e-01 9.229841828346252441e-02 -2.520577795803546906e-02 8.661936037242412567e-03 1.806038916110992432e-01 4.335476458072662354e-02 -7.204346358776092529e-02 -3.080028593540191650e-01 -5.873272418975830078e-01 -6.903771311044692993e-02 9.927917271852493286e-02 -8.589691482484340668e-03 1.931133866310119629e-01 -1.771123111248016357e-01 -4.403174221515655518e-01 3.912451863288879395e-01 -4.696131348609924316e-01 -4.604712873697280884e-02 -7.302798330783843994e-02 -2.232028692960739136e-01 6.664562225341796875e-01 -5.244569107890129089e-02 2.424617530778050423e-03 3.253166377544403076e-02 1.755022108554840088e-01 -3.205701410770416260e-01 -7.864344120025634766e-02 -3.214305043220520020e-01 -4.169389903545379639e-01 -2.086413800716400146e-01 -1.109272480010986328e+00 -6.717219203710556030e-02 2.735989987850189209e-01 -9.992767125368118286e-02 4.319286346435546875e-02 -2.721998989582061768e-01 3.866546601057052612e-02 -8.184096813201904297e-01 -1.571820825338363647e-01 4.225798882544040680e-03 2.309103012084960938e-01 -1.523277014493942261e-01 1.343845576047897339e-01 2.465046048164367676e-01 -4.541387036442756653e-02 -4.320230484008789062e-01 1.435844451189041138e-01 7.430388033390045166e-02 -1.104830205440521240e-02 -3.302713036537170410e-01 -2.209531515836715698e-01 -9.123518131673336029e-03 -4.641230106353759766e-01 1.759927421808242798e-01 -9.822824597358703613e-01 1.380549557507038116e-02 5.720331072807312012e-01 -6.047537922859191895e-01 4.252550601959228516e-01 -8.916516602039337158e-02 -5.599637627601623535e-01 -8.978437632322311401e-02 -5.132269486784934998e-02 2.577198855578899384e-02 -2.943737506866455078e-01 -3.326930478215217590e-02 -1.449698656797409058e-01 -6.529318690299987793e-01 -7.306112349033355713e-02 6.624780297279357910e-01 -6.698491051793098450e-03 -5.271675437688827515e-02 -7.168875634670257568e-02
2.016339637339115143e-02 4.378461837768554688e-01 3.723401725292205811e-01 2.424778649583458900e-03 1.727221906185150146e-01 -4.303413629531860352e-01 1.041741147637367249e-01 -4.704118371009826660e-01 -2.841468453407287598e-01 1.579288840293884277e-01 -4.893802851438522339e-02 -1.516759991645812988e-01 3.254926204681396484e-01 2.400257252156734467e-02 -5.481996536254882812e-01 -1.609012633562088013e-01 -1.965854316949844360e-01 -5.562193393707275391e-01 -1.554586738348007202e-01 -2.309824377298355103e-01 1.282636225223541260e-01 -6.161894202232360840e-01 -2.472649365663528442e-01 5.739779472351074219e-01 -4.002870023250579834e-01 2.258192747831344604e-01 1.329238712787628174e-01 -2.308240532875061035e-01 -2.131467312574386597e-01 -5.651691555976867676e-01 -3.450365066528320312e-01 -4.001785814762115479e-01 -4.682314395904541016e-01 2.361554354429244995e-01 -3.485679924488067627e-01 -1.685610711574554443e-01 -1.634943336248397827e-01 -8.430298417806625366e-02 -3.949699401855468750e-01 -3.170956075191497803e-01 4.706397652626037598e-01 2.185279279947280884e-01 -6.564256548881530762e-01 -5.477820634841918945e-01 -4.548189938068389893e-01 -9.444759041070938110e-02 4.075136780738830566e-01 2.826267778873443604e-01 3.053383529186248779e-01 3.351444900035858154e-01 -6.418670415878295898e-01 1.595020294189453125e-01 -2.516848742961883545e-01 4.160175919532775879e-01 -4.548441767692565918e-01 -7.101454734802246094e-01 7.281139492988586426e-02 1.378433853387832642e-01 -3.542491495609283447e-01 -7.304492592811584473e-02 -2.409191876649856567e-01 -2.167963236570358276e-01 8.296040445566177368e-02 -5.559810400009155273e-01 -2.458340227603912354e-01 -2.182938307523727417e-01 -4.799661934375762939e-01 -4.302952885627746582e-01 -3.564410805702209473e-01 3.602035939693450928e-01 -4.737633466720581055e-02 1.927627176046371460e-01 -4.797439873218536377e-01 2.057832032442092896e-01 3.483964204788208008e-01 -1.877882331609725952e-01 -7.788697481155395508e-01 3.291815221309661865e-01 3.034980595111846924e-01 6.016314774751663208e-02 -2.191600054502487183e-01 -9.673246741294860840e-02 1.535961180925369263e-01 -3.966991603374481201e-01 3.252361118793487549e-01 -6.573104262351989746e-01 -3.688674867153167725e-01 -2.166507579386234283e-02 1.570550054311752319e-01 -8.161498699337244034e-04 4.276811778545379639e-01 4.720202386379241943e-01 -2.724248170852661133e-01 -5.138567090034484863e-01 3.920464515686035156e-01 7.758977264165878296e-02 1.625005006790161133e-01 -8.699591755867004395e-01 -3.544672429561614990e-01 3.157937899231910706e-02 -3.650191128253936768e-01 -3.897373750805854797e-02 -3.979785144329071045e-01 -1.202561110258102417e-01 -4.904220998287200928e-01 -1.304534226655960083e-01 9.355736523866653442e-02 -2.953186258673667908e-02 -2.345539331436157227e-01 2.843551635742187500e-01 1.214104741811752319e-01 -2.841141223907470703e-01 -2.304119318723678589e-01 1.604920625686645508e-01 2.698005735874176025e-01 1.617391854524612427e-01 -2.134239673614501953e-01 -3.315893709659576416e-01 -8.517573028802871704e-02 2.849248647689819336e-01 1.096969395875930786e-01 4.777637496590614319e-02 1.745410412549972534e-01 -1.327565312385559082e-01 1.895468235015869141e-01 -4.868708848953247070e-01 -3.625334203243255615e-01 3.151816725730895996e-01 -2.899479568004608154e-01 -3.536769151687622070e-01 1.538719087839126587e-01 -7.342456579208374023e-01 3.841108381748199463e-01 -5.068723559379577637e-01 -7.361271977424621582e-01 1.806143485009670258e-02 -4.554918035864830017e-02 -7.697694748640060425e-02 -1.694591939449310303e-01 -3.854682669043540955e-02 -1.009155586361885071e-01 -5.127363204956054688e-01 -3.086027503013610840e-01 -6.738511919975280762e-01 1.327498704195022583e-01 -2.502948045730590820e-02 3.072215020656585693e-01 2.817791402339935303e-01 3.651823699474334717e-01 -4.424510896205902100e-01 2.794707417488098145e-01 -1.539042145013809204e-01 -2.655670940876007080e-01 6.643725931644439697e-02 -4.238080680370330811e-01 3.950503841042518616e-02 -3.769980967044830322e-01 -3.543102443218231201e-01 1.240166500210762024e-01 -3.629468083381652832e-01 -5.174719169735908508e-02 -4.486860632896423340e-01 1.012660488486289978e-01 -1.506885290145874023e-01 4.193478450179100037e-02 2.227508127689361572e-01 -7.431159019470214844e-01 4.531277716159820557e-01 -2.166122384369373322e-02 8.443643152713775635e-02 6.652788519859313965e-01 -7.985837012529373169e-02 -1.143873408436775208e-01 -6.570093631744384766e-01 -2.254212945699691772e-01 -5.148638971149921417e-03 -2.607482969760894775e-01 -5.203248262405395508e-01 2.217760235071182251e-01 -1.953419446945190430e-01 -3.607198596000671387e-01 2.002463191747665405e-01 1.347680985927581787e-01 7.890245914459228516e-01 3.724238872528076172e-01 6.118330731987953186e-02 -8.915222436189651489e-02 4.764730036258697510e-01 -4.159113857895135880e-03 1.035942211747169495e-01 5.558516457676887512e-02 -2.782510221004486084e-01 -1.838252693414688110e-01 1.892448663711547852e-01 -4.311346262693405151e-02 2.750717401504516602e-01 1.792619824409484863e-01 -2.254067063331604004e-01 2.779131531715393066e-01 -5.437071323394775391e-01 6.713728606700897217e-02 -2.439201027154922485e-01 -3.347151577472686768e-01 -7.027810811996459961e-01 -2.783010154962539673e-02 -1.403323840349912643e-02 -3.244651257991790771e-01 -4.121260046958923340e-01 -4.567817449569702148e-01 -4.209315180778503418e-01 2.334794588387012482e-02 2.368812635540962219e-02 2.015321701765060425e-01 3.832535743713378906e-01 1.229653656482696533e-01 1.560804396867752075e-01 4.047498404979705811e-01 -2.339979410171508789e-01 -8.863046765327453613e-02 -1.393212527036666870e-01 -4.398457240313291550e-03 7.821691781282424927e-02 2.156428247690200806e-01 -5.196049809455871582e-01 -8.974173069000244141e-01 4.064132273197174072e-01 4.642399549484252930e-01 -1.259570717811584473e-01 5.490280985832214355e-01 -2.592963278293609619e-01 2.366176620125770569e-02 4.959565773606300354e-02 -7.703037261962890625e-01 -2.820384800434112549e-01 3.419318236410617828e-03 -2.757200896739959717e-01 2.400145977735519409e-01 2.107847779989242554e-01 -6.817078590393066406e-01 -2.076883316040039062e-01 4.472270905971527100e-01 -9.100549221038818359e-01 5.074504017829895020e-01 -2.210009992122650146e-01 4.091630280017852783e-01 2.574040926992893219e-02 1.335472762584686279e-01 -1.101329803466796875e+00 1.874395459890365601e-01 -7.784605771303176880e-02 -5.529861450195312500e-01 -9.977665729820728302e-03 -2.122708410024642944e-01 -1.227281913161277771e-01 -5.414971113204956055e-01 -2.218935340642929077e-01
-4.300380051136016846e-01 -1.521550267934799194e-01 4.015115201473236084e-01 -8.364335894584655762e-01 2.675465643405914307e-01 -7.972431182861328125e-01 8.111086487770080566e-02 -2.440354824066162109e-01 -6.103499531745910645e-01 1.877356320619583130e-01 -1.936913728713989258e-01 -4.043267667293548584e-01 -4.485733211040496826e-01 -6.865572333335876465e-01 2.278042733669281006e-01 7.194966077804565430e-02 -1.414053142070770264e-01 -7.129162549972534180e-02 1.688897013664245605e-01 -1.970253884792327881e-01 2.473545372486114502e-01 1.853026151657104492e-01 1.503902971744537354e-01 1.263110637664794922e-01 -1.987308710813522339e-01 -2.883720993995666504e-01 -2.947710454463958740e-01 1.165699735283851624e-01 -8.684165775775909424e-02 1.020950824022293091e-02 -1.155746281147003174e-01 3.826105594635009766e-01 1.358706206083297729e-01 -4.240262322127819061e-03 -1.520287543535232544e-01 -2.900190055370330811e-01 -9.568337202072143555e-01 -5.309279561042785645e-01 -2.428908199071884155e-01 -5.036346912384033203e-01 2.213815599679946899e-01 -7.046552896499633789e-01 -7.288978900760412216e-03 3.752293884754180908e-01 -5.328050628304481506e-02 3.385197520256042480e-01 3.973972201347351074e-01 7.759235799312591553e-02 1.337070912122726440e-01 -2.610429190099239349e-02 -9.900256991386413574e-02 1.427244991064071655e-01 3.026984632015228271e-01 -2.036332488059997559e-01 4.437256976962089539e-02 -1.719226241111755371e-01 -3.621882200241088867e-02 3.429672420024871826e-01 4.034106731414794922e-01 -5.646899342536926270e-02 -5.269415378570556641e-01 1.677680611610412598e-01 -3.849410116672515869e-01 7.303395867347717285e-01 -4.725643396377563477e-01 4.167655408382415771e-01 -3.193929195404052734e-01 -9.533698111772537231e-02 3.214656412601470947e-01 1.273109912872314453e-01 1.891600489616394043e-01 -1.033647730946540833e-01 -3.365294262766838074e-02 3.289884030818939209e-01 5.258907675743103027e-01 -6.990937143564224243e-02 4.256402552127838135e-01 -1.926085501909255981e-01 -2.751001119613647461e-01 1.888440549373626709e-01 -1.130678132176399231e-01 1.044770777225494385e-01 4.865713417530059814e-02 -9.875572919845581055e-01 -2.141970209777355194e-02 -3.743599653244018555e-01 -7.887288182973861694e-02 3.292499184608459473e-01 2.870402038097381592e-01 7.855685055255889893e-02 -1.064452603459358215e-01 -1.750696003437042236e-01 3.710147440433502197e-01 1.623561531305313110e-01 -3.306003659963607788e-02 4.044333696365356445e-01 7.661115527153015137e-01 -6.315469145774841309e-01 5.225054025650024414e-01 2.559993565082550049e-01 -8.746217191219329834e-02 -3.193875253200531006e-01 2.928638160228729248e-01 9.730318933725357056e-02 -3.304835557937622070e-01 -3.316487371921539307e-01 -2.283966839313507080e-01 1.689628064632415771e-01 6.907646358013153076e-02 -4.227316379547119141e-01 5.602146685123443604e-02 4.785191118717193604e-01 -6.459717154502868652e-01 3.795048892498016357e-01 -3.789810836315155029e-01 6.991869211196899414e-02 1.655052304267883301e-01 3.852725327014923096e-01 2.817540057003498077e-02 -6.353729367256164551e-01 -4.894832149147987366e-02 1.251242309808731079e-01 1.013775840401649475e-01 6.994364410638809204e-02 3.745572641491889954e-02 -1.646202951669692993e-01 -1.948488652706146240e-01 -4.821509718894958496e-01 2.653242051601409912e-01 3.286583721637725830e-01 -2.277263700962066650e-01 -1.048272252082824707e-01 5.342143028974533081e-02 3.174955844879150391e-01 -9.918723255395889282e-02 -9.978177398443222046e-02 1.068620383739471436e-01 2.471573650836944580e-01 2.545419335365295410e-01 -5.658906698226928711e-01 1.071923375129699707e-01 -1.858548372983932495e-01 -1.726550459861755371e-01 3.724614679813385010e-01 -3.217660188674926758e-01 -5.605037212371826172e-01 -5.737965106964111328e-01 -4.636645019054412842e-01 -3.068538308143615723e-01 1.679584830999374390e-01 1.292189657688140869e-01 1.730972081422805786e-01 -6.455494463443756104e-02 -2.224075645208358765e-01 -3.252120912075042725e-01 1.142254769802093506e-01 1.394144445657730103e-01 -1.625718772411346436e-01 -2.207726240158081055e-01 -3.606278300285339355e-01 -4.346337020397186279e-01 -3.812797665596008301e-01 -3.211336731910705566e-01 -5.970952510833740234e-01 -6.354212164878845215e-01 7.424470502883195877e-03 -1.719349473714828491e-01 1.465783715248107910e-01 3.277304023504257202e-02 -2.587858140468597412e-01 -5.138935446739196777e-01 2.242481261491775513e-01 -1.973645091056823730e-01 1.265448480844497681e-01 -3.870399296283721924e-01 4.906489327549934387e-02 -7.325446605682373047e-01 1.052285730838775635e-01 2.060732990503311157e-01 -8.576533198356628418e-02 -7.463128864765167236e-02 -4.219731688499450684e-01 -6.357787847518920898e-01 2.747509628534317017e-02 -5.813782215118408203e-01 -2.934374473989009857e-02 -2.002229243516921997e-01 -2.298143208026885986e-01 6.738036870956420898e-02 -1.967898756265640259e-01 2.021579444408416748e-01 -1.595403850078582764e-01 -3.422124981880187988e-01 -8.626238703727722168e-01 -4.165913462638854980e-01 -2.517842948436737061e-01 3.863254785537719727e-01 1.451776623725891113e-01 1.598862856626510620e-01 -1.911339014768600464e-01 -1.388486027717590332e-01 1.685160845518112183e-01 1.749248951673507690e-01 9.785812348127365112e-02 3.742674887180328369e-01 -1.023024544119834900e-01 -5.942493081092834473e-01 -2.657468318939208984e-01 2.630279660224914551e-01 3.617890179157257080e-01 4.092084169387817383e-01 -3.383834362030029297e-01 -3.660111129283905029e-01 -1.681251972913742065e-01 -3.192856013774871826e-01 2.116897553205490112e-01 -2.746215760707855225e-01 -1.160961985588073730e-01 2.545864880084991455e-01 -2.211491018533706665e-01 1.231448575854301453e-01 3.211899995803833008e-01 2.323056757450103760e-02 -6.686783581972122192e-02 4.606981873512268066e-01 -1.511588692665100098e-01 -3.656769394874572754e-01 8.716391026973724365e-02 -2.478207200765609741e-01 -4.342009127140045166e-01 -2.739454805850982666e-01 2.225002497434616089e-01 -2.444056719541549683e-01 1.763417422771453857e-01 4.264612495899200439e-02 2.083255350589752197e-01 -1.555844396352767944e-01 1.472857445478439331e-01 -3.144186437129974365e-01 3.416182994842529297e-01 9.501696377992630005e-02 3.374370038509368896e-01 -1.704481244087219238e-01 4.359247386455535889e-01 3.351334333419799805e-01 -7.228956371545791626e-02 -1.118834987282752991e-01 -2.123607844114303589e-01 2.657954096794128418e-01 -1.890161931514739990e-01 -2.678745687007904053e-01 -3.392306268215179443e-01 -2.828386425971984863e-01 1.257746368646621704e-01 -3.801339492201805115e-02 2.273570299148559570e-01
-5.126768723130226135e-02 5.499793216586112976e-02 7.290649414062500000e-02 2.152861505746841431e-01 -3.300086781382560730e-02 -9.192810058593750000e-01 4.551668763160705566e-01 4.396397620439529419e-03 -1.643266230821609497e-01 -2.057410776615142822e-01 2.586441040039062500e-01 -2.367829531431198120e-01 -3.525899946689605713e-01 2.309842407703399658e-01 -3.516327142715454102e-01 -3.842425532639026642e-03 -1.216673403978347778e-01 -5.281518101692199707e-01 -2.106693387031555176e-01 3.943347632884979248e-01 -4.042235314846038818e-01 -6.107462644577026367e-01 -1.198831498622894287e-01 2.642016708850860596e-01 -5.293021202087402344e-01 4.087978899478912354e-01 8.290655016899108887e-01 2.978532612323760986e-01 -3.776798546314239502e-01 -1.860875934362411499e-01 -2.973096966743469238e-01 -4.627216756343841553e-01 -1.766559481620788574e-01 5.158529803156852722e-02 -1.021201834082603455e-01 2.954667992889881134e-02 -7.482901811599731445e-01 1.810360103845596313e-01 -3.411499857902526855e-01 3.467717170715332031e-01 1.268632709980010986e-01 -3.428791165351867676e-01 -3.298304229974746704e-02 5.958375707268714905e-02 -2.225979268550872803e-01 -4.034572839736938477e-01 5.429066717624664307e-02 -4.020835459232330322e-01 -5.694848895072937012e-01 2.970589995384216309e-01 3.519466817378997803e-01 1.860655546188354492e-01 -4.187154471874237061e-01 3.211961686611175537e-01 -2.842054665088653564e-01 -1.254411600530147552e-02 4.486018717288970947e-01 -3.091817200183868408e-01 -9.376940131187438965e-02 7.162999361753463745e-02 -4.116336107254028320e-01 -2.058721035718917847e-01 3.936533927917480469e-01 -3.283782303333282471e-01 -4.030877649784088135e-01 -4.749668836593627930e-01 -3.327572643756866455e-01 -3.399320244789123535e-01 -3.683773577213287354e-01 8.715829462744295597e-04 3.978569805622100830e-01 2.550122737884521484e-01 -1.493876278400421143e-01 -7.413178682327270508e-01 2.718605697154998779e-01 6.249523535370826721e-02 1.061274334788322449e-01 1.483809798955917358e-01 -2.557884752750396729e-01 -3.010260164737701416e-01 -2.875057458877563477e-01 -8.241851925849914551e-01 -3.161009252071380615e-01 6.322341561317443848e-01 -7.104587554931640625e-02 -6.775358915328979492e-01 1.392632070928812027e-02 -4.219978153705596924e-01 3.930124342441558838e-01 3.182707130908966064e-01 -2.773274183273315430e-01 7.151674628257751465e-01 -4.409555345773696899e-02 7.083813846111297607e-02 -3.603765368461608887e-02 4.234318062663078308e-02 3.370621707290410995e-03 2.486814707517623901e-01 -4.802019000053405762e-01 4.786335676908493042e-02 1.813695728778839111e-01 -4.840087145566940308e-02 -1.201404184103012085e-01 -7.756954431533813477e-01 -5.116436481475830078e-01 -3.376846611499786377e-01 -3.261522054672241211e-01 -2.332722544670104980e-01 -2.399823069572448730e-01 1.527075171470642090e-01 -1.207580491900444031e-01 -4.632987380027770996e-01 2.080989927053451538e-01 3.257459728047251701e-03 -6.629983186721801758e-01 -2.027424573898315430e-01 -3.906307816505432129e-01 6.775761395692825317e-02 1.087334826588630676e-01 -2.388167977333068848e-01 7.914831489324569702e-02 -4.568096399307250977e-01 -4.711899161338806152e-02 2.871016860008239746e-01 -3.634507060050964355e-01 1.000275760889053345e-01 -1.975283026695251465e-01 -4.458723068237304688e-01 -1.504951808601617813e-02 -7.292764186859130859e-01 3.368471264839172363e-01 4.164826273918151855e-01 2.856680750846862793e-01 3.291620910167694092e-01 2.797213792800903320e-01 -2.157040387392044067e-01 -5.173710174858570099e-03 4.200077950954437256e-01 5.244072526693344116e-02 3.674568831920623779e-01 2.223941236734390259e-01 2.578044831752777100e-01 -7.007066607475280762e-01 -1.690813452005386353e-01 2.564743757247924805e-01 9.703058004379272461e-02 2.346965819597244263e-01 1.660193949937820435e-01 4.348113834857940674e-01 -5.379172563552856445e-01 -2.602305710315704346e-01 -6.622521877288818359e-01 -2.592007219791412354e-01 5.317032337188720703e-01 6.451202929019927979e-02 -1.435507386922836304e-01 -3.519513905048370361e-01 7.043401151895523071e-02 -1.833340525627136230e-02 -6.681608557701110840e-01 9.076522290706634521e-02 -4.175038933753967285e-01 7.924291491508483887e-02 -2.816948890686035156e-01 -2.132708579301834106e-01 -4.606562852859497070e-01 -3.126959800720214844e-01 -3.441578149795532227e-01 -1.377263516187667847e-01 7.906240224838256836e-02 4.879979491233825684e-01 -2.226758152246475220e-01 -1.838579475879669189e-01 -1.565113216638565063e-01 -2.545552253723144531e-01 -2.182667106389999390e-01 3.611684441566467285e-01 -3.459981977939605713e-01 -1.836834847927093506e-01 -4.244863092899322510e-01 -2.688140571117401123e-01 -1.009103469550609589e-02 2.144483327865600586e-01 -5.437037348747253418e-01 1.317619346082210541e-02 1.232629641890525818e-01 -4.625987708568572998e-01 -1.382871866226196289e-01 -2.843897044658660889e-01 -1.538508571684360504e-02 2.129188627004623413e-01 1.436799615621566772e-01 -3.251563608646392822e-01 7.614853791892528534e-03 1.049601584672927856e-01 1.855911016464233398e-01 2.727062106132507324e-01 -1.530047953128814697e-01 9.668945334851741791e-03 -2.744981832802295685e-02 2.312127798795700073e-01 4.965206086635589600e-01 1.066723931580781937e-02 -4.686064422130584717e-01 -1.804871410131454468e-01 -2.624928355216979980e-01 1.302191466093063354e-01 -1.015587210655212402e+00 5.346470698714256287e-02 -4.749387800693511963e-01 3.231382966041564941e-01 -4.455275237560272217e-01 -5.778010487556457520e-01 -5.350882411003112793e-01 1.085066944360733032e-01 -4.267968535423278809e-01 2.110820263624191284e-02 2.027536034584045410e-01 3.190169036388397217e-01 -5.048981904983520508e-01 -3.051590919494628906e-01 -1.846690326929092407e-01 -5.759726464748382568e-02 -1.643266826868057251e-01 7.474753260612487793e-02 1.189492046833038330e-01 4.418499884195625782e-04 -2.856304943561553955e-01 -2.399853765964508057e-01 -4.515379667282104492e-01 -1.170619204640388489e-01 3.262203931808471680e-01 4.066636264324188232e-01 -4.670704603195190430e-01 -1.976763159036636353e-01 -6.302979588508605957e-01 -2.719512879848480225e-01 -2.188043892383575439e-01 -3.244509398937225342e-01 -3.495443761348724365e-01 5.838351789861917496e-03 -7.618133425712585449e-01 1.950994729995727539e-01 5.475041642785072327e-02 -4.688179194927215576e-01 3.734607994556427002e-01 -1.435073614120483398e-01 -5.104216337203979492e-01 -7.795844972133636475e-02 4.648369271308183670e-03 -3.371481597423553467e-01 -7.479605823755264282e-02 1.508906036615371704e-01 6.275433301925659180e-01 -1.254650056362152100e-01 1.663640886545181274e-02
3.065587282180786133e-01 6.836819648742675781e-02 9.742435812950134277e-02 2.034389674663543701e-01 1.615726500749588013e-01 5.391456931829452515e-02 -7.673727720975875854e-02 -7.521273195743560791e-02 1.750548332929611206e-01 1.214331984519958496e-01 -6.374315172433853149e-02 -3.636968135833740234e-02 -5.148322582244873047e-01 -9.311381578445434570e-01 1.784030497074127197e-01 -5.842435956001281738e-01 -8.368881046772003174e-02 -1.555354446172714233e-01 -4.351315200328826904e-01 1.650514751672744751e-01 2.207610756158828735e-01 -3.655699193477630615e-01 -2.809619903564453125e-01 1.435199826955795288e-01 7.411206513643264771e-02 -2.601544857025146484e-01 -8.055474758148193359e-01 2.157791405916213989e-01 -4.951687157154083252e-01 4.554359614849090576e-02 2.900918424129486084e-01 1.994577646255493164e-01 -2.964836359024047852e-01 4.719024598598480225e-01 3.244555294513702393e-01 -1.480274740606546402e-02 -1.120501849800348282e-02 -3.159454166889190674e-01 2.012431174516677856e-01 -2.965213060379028320e-01 3.049119114875793457e-01 9.554285556077957153e-02 -6.742635369300842285e-02 5.199086666107177734e-01 -4.602667391300201416e-01 -1.038524806499481201e-01 -6.848508119583129883e-02 -3.534773588180541992e-01 3.607872128486633301e-01 3.529898822307586670e-01 -4.057972431182861328e-01 -2.510709762573242188e-01 4.361188709735870361e-01 -2.758712172508239746e-01 5.420755743980407715e-01 -4.640086367726325989e-02 -2.130526602268218994e-01 3.197090923786163330e-01 -6.183605268597602844e-02 -5.419251322746276855e-01 1.469050496816635132e-01 3.601410984992980957e-01 -3.216228485107421875e-01 7.590503692626953125e-01 3.587698638439178467e-01 8.007249981164932251e-02 1.736663728952407837e-01 -1.354758627712726593e-02 9.590075165033340454e-02 -2.513063251972198486e-01 7.202761620283126831e-02 -3.771426081657409668e-01 -2.343610860407352448e-02 2.727659940719604492e-01 2.995845973491668701e-01 5.317369699478149414e-01 -4.734437167644500732e-01 -1.302341520786285400e-01 -1.080779284238815308e-01 -1.410175021737813950e-02 1.778963655233383179e-01 -1.687169633805751801e-02 2.559433877468109131e-01 8.307086676359176636e-02 -5.532046556472778320e-01 1.970471590757369995e-01 -5.301536917686462402e-01 -3.231071233749389648e-01 -1.625534743070602417e-01 -1.113038882613182068e-01 2.844830155372619629e-01 -2.380880713462829590e-01 3.524899780750274658e-01 2.136653512716293335e-01 -3.707526028156280518e-01 -5.571046471595764160e-01 -1.840478032827377319e-01 5.005096793174743652e-01 5.018900036811828613e-01 -4.519963860511779785e-01 4.652619063854217529e-01 -4.250184595584869385e-01 4.399106204509735107e-01 -3.401232883334159851e-03 8.669146150350570679e-02 8.269232511520385742e-01 2.084813863039016724e-01 1.884591281414031982e-01 -2.389367967844009399e-01 -1.847494244575500488e-01 1.985239982604980469e-02 3.257211148738861084e-01 6.948386877775192261e-02 -2.446859925985336304e-01 2.466045767068862915e-01 4.094065129756927490e-01 5.049964189529418945e-01 -2.696073651313781738e-01 -9.565798640251159668e-01 1.607096791267395020e-01 -6.009397283196449280e-02 -5.593670159578323364e-02 1.496230959892272949e-01 -2.174687534570693970e-01 2.432235926389694214e-01 5.275083184242248535e-01 -5.093904733657836914e-01 1.268733441829681396e-01 1.392443925142288208e-01 1.038770601153373718e-01 6.124765872955322266e-01 -2.504896931350231171e-02 5.913653224706649780e-02 1.059245914220809937e-01 7.321225106716156006e-02 1.148155182600021362e-01 -4.329079017043113708e-02 -5.413975119590759277e-01 -6.698524355888366699e-01 -3.464594185352325439e-01 -3.394536077976226807e-01 6.178554892539978027e-01 -4.390945434570312500e-01 4.358537029474973679e-03 -3.292654156684875488e-01 2.743789255619049072e-01 -3.948218747973442078e-02 -8.898077160120010376e-02 -5.189875960350036621e-01 -3.008010610938072205e-02 -3.856334462761878967e-02 1.014373153448104858e-01 -4.140191711485385895e-03 1.526206545531749725e-02 1.196136921644210815e-01 -1.914806514978408813e-01 -2.969082817435264587e-02 -8.621130138635635376e-02 1.421769857406616211e-01 -6.772966384887695312e-01 -9.967251867055892944e-02 -1.890334039926528931e-01 -1.153976395726203918e-01 -5.414182543754577637e-01 2.103084623813629150e-01 2.117236107587814331e-01 -1.243882849812507629e-01 -2.990698218345642090e-01 -1.197516694664955139e-01 1.060633659362792969e-01 1.062591522932052612e-01 3.438373655080795288e-02 5.130550265312194824e-01 -2.363115698099136353e-01 -6.895522475242614746e-01 -8.417121171951293945e-01 1.563749462366104126e-01 -3.182773664593696594e-02 -4.847349524497985840e-01 1.424560695886611938e-01 -6.205735206604003906e-01 -1.820572167634963989e-01 -3.487806394696235657e-02 3.416080772876739502e-01 -3.742606341838836670e-01 -4.386737048625946045e-01 1.487963199615478516e-01 -2.083200514316558838e-01 -7.852399945259094238e-01 -6.233961582183837891e-01 -2.577671408653259277e-01 2.371430397033691406e-01 4.790737628936767578e-01 3.674062490463256836e-01 -1.025758162140846252e-01 2.404188811779022217e-01 4.738750457763671875e-01 5.203936696052551270e-01 3.090719580650329590e-01 -1.967887878417968750e-01 -2.989882528781890869e-01 -3.680247440934181213e-02 -1.824686676263809204e-01 2.440667748451232910e-01 2.101723998785018921e-01 -8.943118155002593994e-02 6.243277713656425476e-02 3.286730349063873291e-01 4.131617844104766846e-01 4.719726443290710449e-01 1.954973340034484863e-01 2.479147166013717651e-01 5.088430047035217285e-01 -2.773634195327758789e-01 8.256694674491882324e-02 1.939156800508499146e-01 -9.686833620071411133e-02 1.305273622274398804e-01 -1.133730411529541016e-01 -4.267147779464721680e-01 -4.423657432198524475e-02 -3.708770573139190674e-01 2.998446524143218994e-01 -4.974536895751953125e-01 4.775863587856292725e-01 5.144796371459960938e-01 -1.481950166635215282e-03 1.835556328296661377e-01 -2.280853986740112305e-01 9.782540798187255859e-01 4.811186790466308594e-01 -5.165138840675354004e-01 8.413194119930267334e-02 2.277742624282836914e-01 -6.469505280256271362e-02 3.683788776397705078e-01 -6.960031986236572266e-01 -1.573414504528045654e-01 3.626396879553794861e-02 2.413579374551773071e-01 -4.293479770421981812e-02 -1.530607044696807861e-01 6.384180188179016113e-01 1.893486380577087402e-01 -4.184769690036773682e-01 -8.357143402099609375e-02 -1.435085386037826538e-01 5.374782085418701172e-01 1.330736093223094940e-02 4.447458088397979736e-01 2.858878076076507568e-01 -1.662456393241882324e-01 -5.287754535675048828e-01 3.781940639019012451e-01 -1.460366994142532349e-01 1.404800862073898315e-01
-3.646003603935241699e-01 -3.966265916824340820e-01 -2.873459160327911377e-01 1.239301338791847229e-01 4.312808513641357422e-01 -5.337801575660705566e-01 -1.952701956033706665e-01 -7.419289648532867432e-02 1.041324138641357422e-01 1.152221933007240295e-01 -2.541748061776161194e-02 -1.007065698504447937e-01 1.300560534000396729e-01 -3.606942296028137207e-01 -3.801990449428558350e-01 -3.277621567249298096e-01 8.270815946161746979e-03 7.846744358539581299e-02 -1.855303794145584106e-01 1.075639128684997559e-01 -1.075276657938957214e-01 -7.760385274887084961e-01 6.899824738502502441e-02 3.116341233253479004e-01 -6.539230942726135254e-01 -1.636451780796051025e-01 -1.455585360527038574e-01 3.602747619152069092e-02 6.339380051940679550e-03 -1.853109449148178101e-01 -2.805995643138885498e-01 -5.494315624237060547e-01 -2.093885540962219238e-01 -3.596815168857574463e-01 -1.212352141737937927e-01 4.719216227531433105e-01 5.918028950691223145e-02 4.458315968513488770e-01 -1.684047281742095947e-01 -1.499908324331045151e-02 -6.430456638336181641e-01 -8.038105368614196777e-01 1.040213853120803833e-01 -1.185108572244644165e-01 2.952332198619842529e-01 -5.875402092933654785e-01 -5.824270099401473999e-02 1.465895622968673706e-01 -2.762310802936553955e-01 -2.748900353908538818e-01 -6.246251463890075684e-01 6.667770445346832275e-03 -6.384316682815551758e-01 3.085151314735412598e-01 -4.820597544312477112e-02 -3.011695444583892822e-01 3.643282651901245117e-01 1.360236555337905884e-01 -1.917695850133895874e-01 1.523857004940509796e-02 -3.240869343280792236e-01 -4.046105742454528809e-01 1.695807464420795441e-02 1.119135841727256775e-01 -1.711594015359878540e-01 1.752405762672424316e-01 2.109353840351104736e-01 -4.390776455402374268e-01 1.633265465497970581e-01 -2.860979549586772919e-02 -4.879178106784820557e-01 3.395294249057769775e-01 -5.203096270561218262e-01 -1.000774949789047241e-01 -2.412491887807846069e-01 -2.411372512578964233e-01 -8.076424151659011841e-02 -2.026324868202209473e-01 -6.348398923873901367e-01 6.018156409263610840e-01 2.542180707678198814e-03 -4.950906038284301758e-01 -1.356735974550247192e-01 3.358737528324127197e-01 -1.413196027278900146e-01 -3.525705039501190186e-01 4.631583392620086670e-02 -5.485396981239318848e-01 -2.262714058160781860e-01 1.993784010410308838e-01 2.096892446279525757e-01 4.213396608829498291e-01 -5.142194628715515137e-01 -1.524733603000640869e-01 -9.823406487703323364e-02 9.041376411914825439e-02 1.302170157432556152e-01 -3.441893458366394043e-01 -2.106775492429733276e-01 3.647501468658447266e-01 -2.169793099164962769e-01 -1.754174530506134033e-01 4.517666995525360107e-02 -2.559666633605957031e-01 2.704326510429382324e-01 -2.156709730625152588e-01 -3.448378741741180420e-01 2.880344986915588379e-01 6.692297011613845825e-02 -1.670856326818466187e-01 -2.156424373388290405e-01 -1.457070857286453247e-01 -8.375384807586669922e-01 -3.813752233982086182e-01 6.911221146583557129e-02 -2.368451356887817383e-01 1.713643409311771393e-02 4.449598491191864014e-01 6.528236269950866699e-01 -6.563044339418411255e-02 1.372516006231307983e-01 -6.079673767089843750e-01 8.498194068670272827e-02 2.613454163074493408e-01 1.355524063110351562e-01 2.080825120210647583e-01 -3.380080163478851318e-01 -4.039919972419738770e-01 4.391060397028923035e-02 -1.860802620649337769e-02 3.837025165557861328e-01 -2.331442981958389282e-01 -4.350184798240661621e-01 -2.137394845485687256e-01 8.110942691564559937e-02 -2.264811694622039795e-01 3.559460863471031189e-02 -1.336321681737899780e-01 3.701705113053321838e-02 3.940072357654571533e-01 -9.920061565935611725e-03 -4.243181645870208740e-01 -3.197273910045623779e-01 -5.605351645499467850e-03 -3.127670288085937500e-01 -2.830943465232849121e-01 -3.587545454502105713e-01 -2.956861853599548340e-01 6.966724246740341187e-02 -4.746722280979156494e-01 2.889831364154815674e-02 1.130439937114715576e-01 1.721975207328796387e-01 1.074910089373588562e-01 1.762812770903110504e-02 -2.403883263468742371e-03 1.389185935258865356e-01 3.597188889980316162e-01 -5.400449633598327637e-01 -2.174524664878845215e-01 2.650091052055358887e-01 -5.161787569522857666e-02 1.799701154232025146e-01 -3.791055679321289062e-01 -2.249509692192077637e-01 8.849901705980300903e-02 -1.312207877635955811e-01 4.026316404342651367e-01 -3.792000710964202881e-01 2.384108155965805054e-01 2.999606132507324219e-01 -8.984073065221309662e-03 4.638792276382446289e-01 -1.638349145650863647e-01 -4.806651771068572998e-01 -7.477271556854248047e-02 -8.973120898008346558e-02 3.515085577964782715e-01 -6.437020897865295410e-01 -2.126887291669845581e-01 2.008122950792312622e-01 5.947416275739669800e-02 -3.895833194255828857e-01 -4.721853137016296387e-01 1.581477373838424683e-01 -4.667795076966285706e-02 -2.369425445795059204e-01 3.200560510158538818e-01 5.058933496475219727e-01 8.705656975507736206e-02 -7.280126214027404785e-02 7.637680172920227051e-01 -3.534482717514038086e-01 5.502183735370635986e-02 -8.280290663242340088e-02 3.573304042220115662e-02 -4.161609411239624023e-01 1.817454397678375244e-02 2.375963032245635986e-01 8.819615095853805542e-02 5.693916231393814087e-02 -3.172057121992111206e-02 4.788320362567901611e-01 -3.486880362033843994e-01 -6.087965369224548340e-01 -1.074848175048828125e-01 5.833502411842346191e-01 -3.614982366561889648e-01 3.262931704521179199e-01 -1.306472718715667725e-01 6.220219135284423828e-01 -1.098981648683547974e-01 -2.892248928546905518e-01 -7.202333211898803711e-01 2.325957268476486206e-01 -6.735880970954895020e-01 -2.761164307594299316e-01 -1.146021261811256409e-01 -3.836498856544494629e-01 -4.477566480636596680e-01 5.016553997993469238e-01 1.265365034341812134e-01 4.931750893592834473e-02 -1.920503973960876465e-01 -1.262615919113159180e-01 -5.272798538208007812e-01 3.037022054195404053e-01 2.522401213645935059e-01 2.800302505493164062e-01 7.391019165515899658e-02 4.573402404785156250e-01 -4.200049489736557007e-02 1.002460271120071411e-01 -2.611742615699768066e-01 -2.644637227058410645e-01 1.966218650341033936e-01 -2.370886318385601044e-02 -2.867428660392761230e-01 -5.594766698777675629e-03 -9.268236905336380005e-02 2.553467750549316406e-01 -5.266148447990417480e-01 7.201787829399108887e-01 -3.747024536132812500e-01 1.355251967906951904e-01 -4.210130274295806885e-01 1.801242530345916748e-01 -6.267336010932922363e-01 -3.546197414398193359e-01 -3.945773541927337646e-01 -2.453392893075942993e-01 1.150561571121215820e-01 1.440467387437820435e-01 -6.059008240699768066e-01 -1.877733767032623291e-01 -1.392191350460052490e-01
8.624754846096038818e-02 -4.946902394294738770e-02 1.175844445824623108e-01 1.056474745273590088e-01 5.585776567459106445e-01 -1.774476319551467896e-01 -1.906727701425552368e-01 1.603273004293441772e-01 2.194168120622634888e-01 1.568260490894317627e-01 -3.338582068681716919e-02 1.410597264766693115e-01 -2.183577567338943481e-01 2.144944071769714355e-01 -3.783937394618988037e-01 -3.434340953826904297e-01 -1.962941884994506836e-01 -2.873702645301818848e-01 -3.390106260776519775e-01 -2.786694169044494629e-01 -3.473498821258544922e-01 -4.420805573463439941e-01 3.050166182219982147e-02 -5.293185710906982422e-01 -3.387866914272308350e-01 -5.783862993121147156e-02 1.313284691423177719e-02 -4.132534563541412354e-02 -3.638604283332824707e-01 -4.648022651672363281e-01 -9.079695492982864380e-02 -5.474412441253662109e-01 -3.102377057075500488e-01 9.285493195056915283e-02 4.302836656570434570e-01 2.572339177131652832e-01 -4.394211992621421814e-02 2.820624224841594696e-02 1.226365044713020325e-01 -1.171788014471530914e-02 1.567273400723934174e-02 -1.814410388469696045e-01 -1.031937673687934875e-01 -1.625302284955978394e-01 -1.101588681340217590e-01 -6.498124003410339355e-01 -1.861965656280517578e-01 -7.043193578720092773e-01 -3.183932304382324219e-01 1.296646744012832642e-01 -2.341705113649368286e-01 6.671887636184692383e-02 -1.932859271764755249e-01 4.554776549339294434e-01 5.230409502983093262e-01 3.288430869579315186e-01 4.512670040130615234e-01 8.079712092876434326e-02 -2.775990664958953857e-01 4.529238343238830566e-01 -3.266181051731109619e-01 -1.424174606800079346e-01 2.857584059238433838e-01 -1.747423229971900582e-04 -1.141391023993492126e-01 -5.937935709953308105e-01 3.266368806362152100e-01 -1.990393549203872681e-01 -1.352479904890060425e-01 -4.124419689178466797e-01 -7.146394997835159302e-02 -2.837494611740112305e-01 -1.466713994741439819e-01 -3.620110750198364258e-01 -1.805900037288665771e-01 -1.335417628288269043e-01 1.041003540158271790e-01 -3.739226758480072021e-01 -4.507340192794799805e-01 1.344893723726272583e-01 2.790542542934417725e-01 1.039498001337051392e-01 -5.823801457881927490e-02 -7.208571583032608032e-02 7.654450088739395142e-02 -2.632613480091094971e-01 -1.084580365568399429e-02 -5.685547590255737305e-01 3.009706139564514160e-01 -4.576074182987213135e-01 -2.007526308298110962e-01 -1.498867124319076538e-01 -5.799450278282165527e-01 4.435309171676635742e-01 -5.876371860504150391e-01 -2.028316408395767212e-01 -8.463983237743377686e-02 2.196298092603683472e-01 -2.117374986410140991e-01 -1.413093693554401398e-02 -7.571680098772048950e-02 -3.634524345397949219e-01 -6.963914632797241211e-01 -1.874662041664123535e-01 -1.482925564050674438e-01 -5.848024487495422363e-01 2.472905069589614868e-01 2.050708085298538208e-01 4.450510814785957336e-02 -6.810332536697387695e-01 -7.116925716400146484e-02 -1.534402836114168167e-02 -6.053949594497680664e-01 1.797880679368972778e-01 1.991195082664489746e-01 -1.590932160615921021e-01 -1.498746573925018311e-01 7.948700338602066040e-02 -2.389217354357242584e-02 -1.498630940914154053e-01 9.917919337749481201e-02 -2.663283646106719971e-01 2.070319503545761108e-01 3.790852427482604980e-01 2.201995402574539185e-01 2.028488963842391968e-01 -1.986447572708129883e-01 -6.607915759086608887e-01 8.223587274551391602e-02 2.377730756998062134e-01 1.270975638180971146e-02 3.729971051216125488e-01 -2.488835006952285767e-01 1.333114355802536011e-01 1.302696764469146729e-01 -4.688133671879768372e-02 3.667617440223693848e-01 7.212830334901809692e-02 3.995245322585105896e-02 -2.409351021051406860e-01 7.340192049741744995e-02 -1.657990366220474243e-01 1.088502928614616394e-01 -2.456755638122558594e-01 -2.290544658899307251e-01 1.789627522230148315e-01 -2.710366994142532349e-02 -5.393031835556030273e-01 -2.239620536565780640e-01 -4.221933484077453613e-01 -3.121742904186248779e-01 -6.690987348556518555e-01 3.534048423171043396e-02 -6.722503304481506348e-01 -6.349607836455106735e-03 -6.484217643737792969e-01 2.522138357162475586e-01 -1.667738109827041626e-01 -3.733622133731842041e-01 3.087343834340572357e-02 -3.229554891586303711e-01 7.532846927642822266e-02 -1.443082541227340698e-01 -1.752479374408721924e-01 4.881049692630767822e-01 1.103983148932456970e-01 -3.051447272300720215e-01 -1.196123361587524414e-01 -5.532201752066612244e-02 -1.461209654808044434e-01 -8.420842885971069336e-02 -3.909097909927368164e-01 3.446952700614929199e-01 -1.162042692303657532e-01 -2.337573021650314331e-01 -2.117838114500045776e-01 -1.640013605356216431e-01 2.924804389476776123e-01 -2.940967381000518799e-01 -3.690616488456726074e-01 -5.718305706977844238e-01 -2.296470701694488525e-01 -1.657268702983856201e-01 -1.490587443113327026e-01 1.356058418750762939e-01 -2.456590831279754639e-01 -8.944024145603179932e-02 -1.817080676555633545e-01 -2.253009676933288574e-01 -7.116991281509399414e-02 6.706245243549346924e-02 1.204551234841346741e-01 2.263461947441101074e-01 2.578264176845550537e-01 -5.430861115455627441e-01 -6.416572928428649902e-01 1.010020226240158081e-01 3.614297509193420410e-01 3.170998692512512207e-01 -5.474913120269775391e-01 3.166569471359252930e-01 4.937998950481414795e-01 -6.774414330720901489e-02 -5.364460125565528870e-02 -2.094881832599639893e-01 -3.656909167766571045e-01 -3.704437911510467529e-01 -5.566790103912353516e-01 -4.218238592147827148e-01 -1.147844672203063965e+00 4.711539745330810547e-01 -6.263701319694519043e-01 -5.112272221595048904e-03 -1.793660074472427368e-01 6.039034575223922729e-02 4.349974542856216431e-02 -5.537171363830566406e-01 1.315895766019821167e-01 -3.228266239166259766e-01 -3.713409006595611572e-01 -6.509644538164138794e-02 1.107011139392852783e-01 1.845504641532897949e-01 -2.904256880283355713e-01 -3.161070942878723145e-01 -5.249283909797668457e-01 -1.921212971210479736e-01 3.337826132774353027e-01 3.397674560546875000e-01 -6.718031764030456543e-01 -1.404000371694564819e-01 -7.327591776847839355e-01 3.022903800010681152e-01 -3.974642157554626465e-01 -1.353445798158645630e-01 -2.014117538928985596e-01 -2.824191451072692871e-01 -4.170186817646026611e-01 -5.213041901588439941e-01 2.650838494300842285e-01 2.297893315553665161e-01 -5.197502970695495605e-01 6.953384876251220703e-01 1.200644746422767639e-01 2.673982083797454834e-01 7.798689603805541992e-02 -2.986894249916076660e-01 -1.122469380497932434e-01 -7.247718423604965210e-02 7.229052484035491943e-02 -2.702974975109100342e-01 1.549338921904563904e-02 1.032324284315109253e-01 -2.618304826319217682e-02 -4.489674866199493408e-01 -5.704331398010253906e-01
-4.009952247142791748e-01 -2.896428406238555908e-01 -2.721263794228434563e-03 -1.940009556710720062e-02 1.021700426936149597e-01 2.090528905391693115e-01 -8.047842383384704590e-01 7.323654890060424805e-01 -1.518111377954483032e-01 -6.111348867416381836e-01 2.309336662292480469e-01 6.955447793006896973e-02 -4.821569472551345825e-02 -7.425783667713403702e-03 -4.394158124923706055e-01 -6.993646025657653809e-01 -5.282685160636901855e-02 4.522373899817466736e-02 7.613214664161205292e-03 6.990116089582443237e-02 -1.976794563233852386e-02 -2.946248948574066162e-01 -1.107123494148254395e-02 -1.266852319240570068e-01 -4.569811522960662842e-01 -5.057423710823059082e-01 -5.253443121910095215e-01 1.832693666219711304e-01 -2.183442115783691406e-01 5.357892811298370361e-02 2.509817779064178467e-01 1.213113740086555481e-01 -6.910821795463562012e-02 -3.749276101589202881e-01 4.296229779720306396e-01 5.313061475753784180e-01 -5.156227350234985352e-01 1.949725896120071411e-01 -2.730438113212585449e-01 -4.552280306816101074e-01 2.660814225673675537e-01 1.037300899624824524e-01 2.141291946172714233e-01 1.513878405094146729e-01 1.248680055141448975e-01 6.553617864847183228e-02 2.680445909500122070e-01 -2.162509262561798096e-01 -3.020651936531066895e-01 8.816894143819808960e-02 -1.816764473915100098e-01 -2.384736239910125732e-01 -2.508516907691955566e-01 -9.875325858592987061e-02 -1.597671806812286377e-01 5.932445451617240906e-02 -4.182111322879791260e-01 4.465574398636817932e-03 -4.072406888008117676e-01 -1.767043583095073700e-02 -7.069621086120605469e-01 3.040610849857330322e-01 5.063627287745475769e-02 8.196571469306945801e-02 5.277912132441997528e-03 6.805446743965148926e-02 2.974479496479034424e-01 -4.316801577806472778e-02 -4.894234836101531982e-01 -5.459063220769166946e-03 -5.895282626152038574e-01 -3.783008754253387451e-01 8.142840117216110229e-02 4.211319088935852051e-01 -1.697951741516590118e-02 5.985177159309387207e-01 -4.544175565242767334e-01 1.679582744836807251e-01 -2.148780822753906250e-01 -2.312700599431991577e-01 2.860577590763568878e-02 2.445205301046371460e-01 3.998138755559921265e-02 -4.455539882183074951e-01 3.615614771842956543e-01 -2.854593992233276367e-01 -4.376826286315917969e-01 -5.313602089881896973e-01 -4.305787384510040283e-01 1.973916292190551758e-01 -6.406148076057434082e-01 2.919523119926452637e-01 1.949977129697799683e-02 2.268048562109470367e-02 -2.794320583343505859e-01 -1.559439897537231445e-01 -3.890713453292846680e-01 -1.471548080444335938e-01 -4.509234726428985596e-01 2.592439353466033936e-01 1.160694137215614319e-01 -5.611560344696044922e-01 2.190400213003158569e-01 5.796688050031661987e-02 3.110242486000061035e-01 3.417861461639404297e-02 5.024791955947875977e-01 3.922419995069503784e-02 -1.691972762346267700e-01 1.873863339424133301e-01 -1.694713681936264038e-01 3.409293591976165771e-01 1.056057885289192200e-01 -1.274508237838745117e-01 3.770498335361480713e-01 2.320645153522491455e-01 4.920325428247451782e-02 6.145144701004028320e-01 -8.227998018264770508e-01 4.963111877441406250e-02 -2.299656271934509277e-01 5.495619494467973709e-03 1.015478558838367462e-02 7.463404443114995956e-03 1.291699558496475220e-01 1.233216598629951477e-01 2.096078842878341675e-01 3.988963365554809570e-02 -1.340771280229091644e-02 2.017362713813781738e-01 6.931117177009582520e-02 3.249087035655975342e-01 2.830795645713806152e-01 1.315673291683197021e-01 -5.540282726287841797e-01 1.983394920825958252e-01 -7.659269869327545166e-02 -1.550001502037048340e-01 -3.564825057983398438e-01 -7.439004182815551758e-01 -3.029390238225460052e-02 2.134083211421966553e-01 -2.315782755613327026e-01 -1.243284642696380615e-01 -3.436045050621032715e-01 5.411349534988403320e-01 4.106978476047515869e-01 -5.489675402641296387e-01 -4.588042795658111572e-01 9.351834654808044434e-02 4.105753898620605469e-01 -1.146845426410436630e-02 5.861768126487731934e-01 -6.602778285741806030e-02 1.189524605870246887e-01 -7.257135957479476929e-02 8.190231770277023315e-02 -2.839718759059906006e-01 5.198714137077331543e-01 -4.353037774562835693e-01 -4.493787884712219238e-01 -9.732226282358169556e-02 6.607414036989212036e-02 -3.777857869863510132e-02 1.022014319896697998e-01 2.772960066795349121e-01 4.081967100501060486e-02 -5.847154557704925537e-02 -3.579969704151153564e-01 -9.759562611579895020e-01 2.374273240566253662e-01 1.948788911104202271e-01 2.159882336854934692e-01 -2.171886861324310303e-01 9.471829235553741455e-02 -6.563027203083038330e-02 -4.739184379577636719e-01 -3.044514358043670654e-02 -1.316869705915451050e-01 4.547967612743377686e-01 6.009133532643318176e-02 -6.466239094734191895e-01 -3.841992616653442383e-01 -7.289035711437463760e-03 9.014262468554079533e-04 -2.165179550647735596e-01 5.807745270431041718e-03 -4.434570968151092529e-01 -2.108794301748275757e-01 -8.950641751289367676e-02 4.736225605010986328e-01 -4.253377020359039307e-01 7.667978107929229736e-02 5.094916224479675293e-01 1.930022537708282471e-01 1.500533521175384521e-01 1.935688555240631104e-01 3.335533142089843750e-01 4.156379699707031250e-01 2.491914182901382446e-01 -8.278000354766845703e-01 2.705756425857543945e-01 1.301109194755554199e-01 3.878079354763031006e-01 -1.961785703897476196e-01 -1.166704893112182617e-01 1.236999332904815674e-01 2.583701610565185547e-01 -1.492923647165298462e-01 -3.580109477043151855e-01 4.327055513858795166e-01 -1.041293442249298096e-01 4.085897505283355713e-01 -2.237905263900756836e-01 7.288447767496109009e-02 3.381971642374992371e-02 2.219748795032501221e-01 5.049227476119995117e-01 1.341416835784912109e-01 3.127139806747436523e-02 -3.527424335479736328e-01 6.026403307914733887e-01 1.320331692695617676e-01 -4.256867170333862305e-01 -2.372255772352218628e-01 -4.265132844448089600e-01 6.912808120250701904e-02 6.945013999938964844e-02 -2.954092919826507568e-01 5.415685176849365234e-01 1.738906800746917725e-01 -2.862779498100280762e-01 6.262179017066955566e-01 -9.869892895221710205e-02 3.863593563437461853e-02 -9.659203886985778809e-02 1.209710761904716492e-01 4.547849297523498535e-01 1.848888546228408813e-01 8.822098374366760254e-02 2.039327621459960938e-01 -1.698833405971527100e-01 -9.677354246377944946e-02 3.956280276179313660e-02 -4.497613012790679932e-01 1.306623220443725586e-01 3.604888543486595154e-02 1.895520687103271484e-01 3.625926375389099121e-01 -8.831786364316940308e-02 3.909965753555297852e-01 -1.564854197204113007e-02 -4.502261281013488770e-01 9.354640543460845947e-02 1.661760061979293823e-01 3.207119405269622803e-01
-2.114676833152770996e-01 1.915590167045593262e-01 3.118802905082702637e-01 -3.160598874092102051e-01 -4.939160346984863281e-01 -9.219618886709213257e-02 1.849008500576019287e-01 2.337350845336914062e-01 3.936789929866790771e-01 2.764974832534790039e-01 1.649816483259201050e-01 4.352703690528869629e-01 -5.093056708574295044e-02 -3.223675787448883057e-01 5.251700282096862793e-01 3.455811738967895508e-01 5.798925757408142090e-01 1.240675225853919983e-01 2.309622988104820251e-02 2.546630799770355225e-01 -2.743966579437255859e-01 1.075468435883522034e-01 -6.167533993721008301e-01 2.298125028610229492e-01 3.664365410804748535e-01 3.976952433586120605e-01 -1.062924191355705261e-01 -2.171454727649688721e-01 1.552925556898117065e-01 -4.440026879310607910e-01 -2.384136766195297241e-01 -4.234704971313476562e-01 1.059770882129669189e-01 -2.708358466625213623e-01 4.661201685667037964e-02 3.957696259021759033e-01 -4.126595258712768555e-01 -2.508729696273803711e-01 3.084916770458221436e-01 -7.112924754619598389e-02 -5.262115597724914551e-02 1.412259065546095371e-03 -2.066157311201095581e-01 2.307997047901153564e-01 1.230398863554000854e-01 1.477644741535186768e-01 2.308934628963470459e-01 -1.404590997844934464e-02 -2.333320528268814087e-01 -3.879481256008148193e-01 2.204960286617279053e-01 -1.959458589553833008e-01 2.957857549190521240e-01 -2.967089414596557617e-01 2.998211653903126717e-03 5.364596098661422729e-02 -2.424692511558532715e-01 -2.718961834907531738e-01 -3.426659479737281799e-02 5.954609438776969910e-02 3.522887527942657471e-01 8.353776484727859497e-02 8.303838968276977539e-02 -5.649237632751464844e-01 1.766911745071411133e-01 2.303696125745773315e-01 -1.139182373881340027e-01 -2.922373712062835693e-01 -3.110507726669311523e-01 -1.057549342513084412e-01 -1.055159419775009155e-01 3.150875866413116455e-01 -5.220317840576171875e-01 -4.692173004150390625e-02 5.310129523277282715e-01 3.379633724689483643e-01 6.167690735310316086e-03 -1.539834290742874146e-01 2.218517959117889404e-01 1.168791204690933228e-01 3.898564875125885010e-01 -4.812710359692573547e-02 -7.010203599929809570e-01 -5.236514657735824585e-02 -3.365391790866851807e-01 -3.415400385856628418e-01 -5.716453790664672852e-01 -6.912375092506408691e-01 -3.371280729770660400e-01 3.796890079975128174e-01 -4.259434044361114502e-01 -4.692206382751464844e-01 1.316634267568588257e-01 -1.337755024433135986e-01 -5.583119392395019531e-01 2.427322864532470703e-01 1.614793241024017334e-01 1.550806462764739990e-01 2.741722464561462402e-01 1.620556600391864777e-02 5.416639521718025208e-02 2.734974399209022522e-02 -1.829715222120285034e-01 4.636975228786468506e-01 -3.643627166748046875e-01 2.697955630719661713e-02 1.018098071217536926e-01 7.558897882699966431e-02 -1.400357186794281006e-01 2.388933002948760986e-01 -5.348086357116699219e-01 1.918380707502365112e-01 1.935643553733825684e-01 3.106886148452758789e-01 4.513455554842948914e-03 4.748311042785644531e-01 1.868279129266738892e-01 4.133392870426177979e-01 1.085555404424667358e-01 -3.030985891819000244e-01 1.252600103616714478e-01 -4.627884328365325928e-01 -3.556363284587860107e-01 -4.045782610774040222e-02 -3.125531375408172607e-01 4.239962399005889893e-01 -1.296249628067016602e-01 5.814951844513416290e-03 -5.136273503303527832e-01 4.678277373313903809e-01 3.543798923492431641e-01 3.977448642253875732e-01 -7.446364313364028931e-02 1.439842879772186279e-01 -5.982102011330425739e-04 4.654892086982727051e-01 -3.786967992782592773e-01 6.847599148750305176e-02 -4.336467683315277100e-01 -2.132439240813255310e-02 3.817977011203765869e-02 -1.237333863973617554e-01 2.226578146219253540e-01 -1.824049651622772217e-01 -2.192667424678802490e-01 6.107112169265747070e-01 -2.583223879337310791e-01 -9.392102062702178955e-02 -3.529818058013916016e-01 1.307703852653503418e-01 3.880786895751953125e-01 2.384132295846939087e-01 -1.763754487037658691e-01 9.042903780937194824e-01 -3.896110057830810547e-01 -1.592571586370468140e-01 -7.998273521661758423e-02 2.286182343959808350e-01 -4.644435048103332520e-01 -7.592477649450302124e-02 -2.774291932582855225e-01 2.276954054832458496e-01 2.434231936931610107e-01 3.458223044872283936e-01 5.760381221771240234e-01 1.993362456560134888e-01 -2.504621744155883789e-01 5.552401021122932434e-02 3.003145456314086914e-01 -2.156221419572830200e-01 -3.810925483703613281e-01 3.610965609550476074e-02 -5.734269972890615463e-03 2.940895259380340576e-01 -1.289421170949935913e-01 -9.234786778688430786e-02 5.321521162986755371e-01 -2.959260940551757812e-01 2.129869163036346436e-01 1.016085743904113770e-01 2.707968838512897491e-02 5.810830369591712952e-02 5.555401742458343506e-02 -2.150523662567138672e-01 -1.803184896707534790e-01 -2.001278474926948547e-02 -1.863804459571838379e-01 -3.393685817718505859e-01 -5.733432769775390625e-01 6.540718954056501389e-03 -2.813127934932708740e-01 -2.087307125329971313e-01 -5.511121153831481934e-01 4.505617618560791016e-01 -7.542147040367126465e-01 -6.862854212522506714e-02 8.386121690273284912e-02 4.088010489940643311e-01 -2.132915109395980835e-01 1.488919556140899658e-01 1.965354532003402710e-01 -2.072275383397936821e-03 -2.674954533576965332e-01 2.208561450242996216e-01 -2.412497103214263916e-01 -1.218638196587562561e-01 2.365012886002659798e-03 1.614041253924369812e-02 3.252005875110626221e-01 6.940796226263046265e-02 2.110375165939331055e-01 -1.935105621814727783e-01 -1.947602443397045135e-02 5.855603888630867004e-02 -4.833268225193023682e-01 -5.152010917663574219e-01 1.391350328922271729e-01 1.202727016061544418e-02 2.515478432178497314e-01 7.205862551927566528e-02 2.697879672050476074e-01 -8.447121977806091309e-01 2.484136819839477539e-01 -8.431122303009033203e-01 2.171513736248016357e-01 4.414647072553634644e-02 -3.605444431304931641e-01 4.210456907749176025e-01 -3.945015966892242432e-01 -1.416881941258907318e-02 -6.900849342346191406e-01 -2.023108899593353271e-01 2.864699959754943848e-01 6.172267347574234009e-02 -2.522110939025878906e-01 -1.034838333725929260e-01 -1.409907173365354538e-02 4.464273154735565186e-01 -2.528141438961029053e-01 3.030007183551788330e-01 -7.120792269706726074e-01 1.146700605750083923e-01 1.481484770774841309e-01 2.740999311208724976e-02 2.752660512924194336e-01 -5.780318975448608398e-01 4.779434762895107269e-03 3.139362335205078125e-01 -2.397244274616241455e-01 -2.808396816253662109e-01 -1.508966833353042603e-01 4.100074470043182373e-01 3.332661092281341553e-01 -8.435090184211730957e-01 5.232868194580078125e-01 1.586702913045883179e-01
1.853889822959899902e-01 -3.147832453250885010e-01 -6.797393560409545898e-01 3.586064875125885010e-01 2.864212095737457275e-01 5.162869393825531006e-02 3.424465656280517578e-01 1.409382559359073639e-02 -1.854452937841415405e-01 8.465574122965335846e-03 -1.309815347194671631e-01 3.362752869725227356e-02 -7.438795566558837891e-01 -8.703920990228652954e-02 -6.244348287582397461e-01 -2.861957252025604248e-01 1.570526063442230225e-01 4.391766339540481567e-02 7.049755193293094635e-03 -2.787707149982452393e-01 -3.090721964836120605e-01 -5.841447114944458008e-01 2.783241569995880127e-01 1.340080499649047852e-01 -5.712522268295288086e-01 -1.290418207645416260e-01 1.125171259045600891e-01 1.476411223411560059e-01 -6.988672167062759399e-02 -3.297623693943023682e-01 -2.718881070613861084e-01 -3.082441091537475586e-01 -1.573950201272964478e-01 3.122440166771411896e-02 -6.178335547447204590e-01 1.106257438659667969e-01 2.122761011123657227e-01 3.064536154270172119e-01 5.915963053703308105e-01 2.635981738567352295e-01 2.328247278928756714e-01 -4.090505838394165039e-01 6.683590263128280640e-02 -4.880180358886718750e-01 2.445036023855209351e-01 -1.405431628227233887e-01 1.909686475992202759e-01 5.264168605208396912e-02 -5.047659277915954590e-01 2.799277007579803467e-01 -1.808948516845703125e-01 4.712079763412475586e-01 2.118472009897232056e-01 -1.677538901567459106e-01 -1.848895549774169922e-01 2.268181592226028442e-01 3.475057780742645264e-01 -4.037275910377502441e-01 -8.392127603292465210e-02 -1.315832734107971191e-01 -1.258901804685592651e-01 -1.690163314342498779e-01 2.866298854351043701e-01 -4.154011607170104980e-01 -1.432135701179504395e-01 -4.952600300312042236e-01 3.098841011524200439e-01 -2.963213324546813965e-01 3.200401663780212402e-01 -2.216864004731178284e-02 -4.033517539501190186e-01 -5.168390870094299316e-01 -4.568705856800079346e-01 -2.565335035324096680e-01 -6.661189198493957520e-01 8.095718920230865479e-02 -3.289380669593811035e-02 2.493276298046112061e-01 -4.233886599540710449e-01 -1.706307381391525269e-01 1.067992523312568665e-01 -1.826197206974029541e-01 1.319498419761657715e-01 3.354538083076477051e-01 -6.496212631464004517e-02 1.090112850069999695e-01 -1.358605176210403442e-01 -1.780155152082443237e-01 7.212751507759094238e-01 -1.149810850620269775e-01 3.618973791599273682e-01 -1.499760597944259644e-01 -2.396105676889419556e-01 4.679605960845947266e-01 -4.293413162231445312e-01 -1.512747555971145630e-01 3.096515536308288574e-01 4.535847604274749756e-01 -4.247214496135711670e-01 9.074842557311058044e-03 5.497614741325378418e-01 3.939255475997924805e-01 -3.528715670108795166e-01 -2.865880727767944336e-01 2.138294279575347900e-01 -2.613970935344696045e-01 -1.208191365003585815e-01 2.679037488996982574e-02 -2.973260581493377686e-01 4.074725881218910217e-02 1.883491873741149902e-01 -5.055493116378784180e-01 -6.870041489601135254e-01 -7.019761800765991211e-01 3.330835402011871338e-01 -1.837930381298065186e-01 -6.862469911575317383e-01 -1.182977855205535889e-01 4.323295950889587402e-01 -1.688739508390426636e-01 1.027728989720344543e-02 -4.552170634269714355e-01 -6.285077333450317383e-02 -1.093725413084030151e-01 -3.311575949192047119e-01 -1.528359800577163696e-01 -6.603080034255981445e-02 1.277608275413513184e-01 3.254964351654052734e-01 -2.924792766571044922e-01 -3.946963697671890259e-02 2.746027112007141113e-01 -5.504757165908813477e-01 3.803574144840240479e-01 1.109802871942520142e-01 3.094285959377884865e-03 -1.744187325239181519e-01 -3.375016152858734131e-01 -6.039819717407226562e-01 3.824539184570312500e-01 -3.310468792915344238e-02 -3.833336755633354187e-02 -4.044780731201171875e-01 2.078396640717983246e-02 -6.006947904825210571e-02 1.016808897256851196e-01 -2.477045804262161255e-01 3.074419796466827393e-01 -4.159910380840301514e-01 -1.776102036237716675e-01 -8.596527576446533203e-01 -5.069851279258728027e-01 -3.892013430595397949e-02 -3.497443795204162598e-01 2.130974382162094116e-01 -1.891640573740005493e-01 -8.911381661891937256e-02 2.014714628458023071e-01 1.740444898605346680e-01 -6.547662019729614258e-01 -2.042755931615829468e-01 -4.373181238770484924e-02 -1.797263771295547485e-01 -1.467921137809753418e-01 -3.610408604145050049e-01 4.823954775929450989e-02 -4.505393207073211670e-01 1.007014662027359009e-01 -5.434534698724746704e-02 -2.151762098073959351e-01 9.371705353260040283e-02 -8.216230273246765137e-01 3.197893500328063965e-01 -5.012173056602478027e-01 -4.372571110725402832e-01 -6.814097166061401367e-01 6.189665570855140686e-02 7.382899522781372070e-02 -4.781527519226074219e-01 -6.200847029685974121e-01 -6.459497809410095215e-01 -6.294649839401245117e-01 3.223798871040344238e-01 2.777344286441802979e-01 -7.496491074562072754e-02 -3.924486041069030762e-01 -1.020545139908790588e-01 -3.658511042594909668e-01 1.047672331333160400e-01 -6.388942003250122070e-01 -7.936128973960876465e-02 1.057132035493850708e-01 -2.897898256778717041e-01 2.764333486557006836e-01 -4.195303022861480713e-01 -5.785962939262390137e-01 1.418346762657165527e-01 1.012356355786323547e-01 2.382332831621170044e-01 -3.688142299652099609e-01 -1.417138576507568359e-01 1.402784138917922974e-01 -5.476126074790954590e-02 -1.141395717859268188e-01 -1.151067987084388733e-01 1.423158198595046997e-01 2.961628437042236328e-01 -8.239135742187500000e-01 -6.986339688301086426e-01 -9.263852983713150024e-02 -2.314220517873764038e-01 -2.659840881824493408e-01 -4.554403424263000488e-01 -2.150357365608215332e-01 2.870029509067535400e-01 -4.529433697462081909e-02 -3.671762645244598389e-01 -2.241300195455551147e-01 -3.609854280948638916e-01 -5.659479647874832153e-02 -4.972994625568389893e-01 1.748476624488830566e-01 3.120728135108947754e-01 -5.698325634002685547e-01 1.700413972139358521e-01 -3.532423079013824463e-01 1.349238753318786621e-01 -2.028046250343322754e-01 -1.310156937688589096e-02 -2.387537360191345215e-01 8.090249300003051758e-01 2.194267362356185913e-01 -1.060013771057128906e+00 3.419081121683120728e-02 -1.724318265914916992e-01 -1.500782072544097900e-01 -1.412108726799488068e-02 -1.691953241825103760e-01 -2.811555936932563782e-02 -2.271007560193538666e-02 5.474298596382141113e-01 -4.203856736421585083e-02 -3.431897759437561035e-01 2.104833275079727173e-01 4.389584660530090332e-01 3.191056847572326660e-01 -1.122378278523683548e-02 7.131824642419815063e-02 -1.379252523183822632e-01 -3.550053760409355164e-02 2.586370706558227539e-01 -3.012975454330444336e-01 -8.808276802301406860e-02 -4.489443004131317139e-01 -1.267365664243698120e-01 2.126005478203296661e-02
2.717962488532066345e-02 -1.850261092185974121e-01 -1.426197886466979980e-01 1.065184473991394043e-01 7.012397050857543945e-01 -2.748451754450798035e-02 2.457956410944461823e-02 1.141219437122344971e-01 6.752192229032516479e-02 1.516149491071701050e-01 -1.302485167980194092e-01 -1.871617585420608521e-01 8.057264238595962524e-02 1.812103539705276489e-01 1.133429184556007385e-01 -1.704991310834884644e-01 -9.723855555057525635e-02 1.822918653488159180e-01 6.943958997726440430e-02 -7.463336735963821411e-02 -3.525829613208770752e-01 5.336635559797286987e-02 -1.209609955549240112e-01 -2.166025489568710327e-01 1.259249448776245117e-01 9.560810774564743042e-02 2.345861345529556274e-01 3.718669712543487549e-01 2.040631771087646484e-01 -3.210237994790077209e-02 -5.053907632827758789e-02 2.858421802520751953e-01 2.010819911956787109e-01 2.711726725101470947e-01 3.640995621681213379e-01 5.884268879890441895e-02 -3.507507741451263428e-01 1.255101431161165237e-02 -1.096236631274223328e-01 -4.680642783641815186e-01 2.527572214603424072e-01 -2.596766650676727295e-01 6.809921860694885254e-01 -1.187192201614379883e-01 -7.560116052627563477e-01 7.105525732040405273e-01 1.224817410111427307e-01 2.703897655010223389e-01 3.574441075325012207e-01 -5.650986433029174805e-01 6.932026743888854980e-01 1.643323600292205811e-01 2.332275062799453735e-01 -2.447489947080612183e-01 -5.671848058700561523e-01 2.133857272565364838e-02 3.211219310760498047e-01 -8.447194099426269531e-02 3.734895586967468262e-01 -9.340298175811767578e-01 3.327177464962005615e-01 -2.123939245939254761e-01 -1.458036005496978760e-01 1.832621991634368896e-01 4.181385636329650879e-01 1.710250079631805420e-01 -1.502369344234466553e-01 1.100208684802055359e-01 2.089109271764755249e-01 2.095883786678314209e-01 -3.948369026184082031e-01 1.981433853507041931e-02 1.181394904851913452e-01 2.329634428024291992e-01 -3.195899724960327148e-01 2.099617570638656616e-01 3.297374844551086426e-01 2.461028099060058594e-01 -5.849868059158325195e-01 -3.757877945899963379e-01 -3.104837238788604736e-01 -2.324293255805969238e-01 2.597693800926208496e-01 -2.178861796855926514e-01 -3.224292993545532227e-01 5.150763988494873047e-01 -6.016562134027481079e-02 -8.334672747878357768e-05 -1.491741091012954712e-01 -2.687195837497711182e-01 -2.183627933263778687e-01 -2.088332735002040863e-02 1.943139433860778809e-01 -4.787442460656166077e-02 1.606614589691162109e-01 2.351802885532379150e-01 2.589540369808673859e-02 5.066181346774101257e-02 -2.139881104230880737e-01 -3.763921558856964111e-02 1.763966530561447144e-01 3.045692145824432373e-01 1.140017807483673096e-01 1.055206656455993652e-01 -3.208968341350555420e-01 2.607202231884002686e-01 -2.971832156181335449e-01 7.031963020563125610e-02 4.480325803160667419e-02 3.075759485363960266e-02 3.359062671661376953e-01 3.483974337577819824e-01 5.305833742022514343e-02 2.858836650848388672e-01 2.983045578002929688e-01 4.230870604515075684e-01 -1.489233374595642090e-01 -1.960252821445465088e-01 -2.569229602813720703e-01 4.217540323734283447e-01 2.146763801574707031e-01 -7.810299098491668701e-02 1.262929569929838181e-02 9.066844731569290161e-02 -2.617772221565246582e-01 -9.407151490449905396e-02 1.105487793684005737e-01 -4.780240952968597412e-01 -4.346722662448883057e-01 2.172579020261764526e-01 -1.839073598384857178e-01 -2.422409653663635254e-01 -1.449252218008041382e-01 -3.042612075805664062e-01 -2.210033237934112549e-01 1.315048933029174805e-01 -5.005309581756591797e-01 -1.892808377742767334e-01 -3.925494849681854248e-01 -1.919849216938018799e-01 -6.517032384872436523e-01 -6.380091905593872070e-01 4.463138878345489502e-01 -2.805666923522949219e-01 -2.257331907749176025e-01 -3.257325291633605957e-02 -1.778144240379333496e-01 -5.487700104713439941e-01 -1.434724181890487671e-01 1.154544875025749207e-01 1.894506812095642090e-01 2.797544896602630615e-01 5.007775425910949707e-01 1.979855746030807495e-01 -3.273783922195434570e-01 2.515458166599273682e-01 2.819290459156036377e-01 -4.741828739643096924e-01 6.772809028625488281e-01 -8.850098401308059692e-02 -1.988052427768707275e-01 6.730362772941589355e-01 -5.282244458794593811e-02 -1.905194371938705444e-01 -3.311333358287811279e-01 4.466069638729095459e-01 4.222615659236907959e-01 3.861507177352905273e-01 9.985976666212081909e-02 9.600302577018737793e-02 -2.995018362998962402e-01 -3.037403821945190430e-01 -4.881414026021957397e-02 4.559365212917327881e-01 -1.859823912382125854e-01 -4.929672777652740479e-01 -1.624121069908142090e-01 -2.128403186798095703e-01 -2.949715256690979004e-01 -4.816778898239135742e-01 -7.488902658224105835e-02 -1.153708025813102722e-01 -3.231312930583953857e-01 -4.361559450626373291e-01 -4.824363440275192261e-02 3.007160127162933350e-01 3.546144068241119385e-01 1.266977638006210327e-01 1.490154862403869629e-01 -1.842197030782699585e-01 1.502171903848648071e-01 -8.566246251575648785e-04 -4.917764067649841309e-01 1.460748314857482910e-01 2.107049673795700073e-01 -5.526912808418273926e-01 2.083610743284225464e-01 5.637272000312805176e-01 -2.488683611154556274e-01 2.635028772056102753e-02 -5.936331152915954590e-01 -1.228093057870864868e-01 -1.542373895645141602e-01 3.623027503490447998e-01 1.409085243940353394e-01 2.204172909259796143e-01 1.905220150947570801e-01 -3.261954709887504578e-02 9.016237407922744751e-02 -3.795512318611145020e-01 2.790397405624389648e-01 -5.021447539329528809e-01 8.639904856681823730e-02 -8.284822702407836914e-01 1.642682701349258423e-01 -9.505378082394599915e-03 5.161453410983085632e-02 -1.707671135663986206e-01 3.337754309177398682e-01 -1.889499649405479431e-02 3.615521267056465149e-02 5.479984283447265625e-01 -2.611201815307140350e-02 2.882305085659027100e-01 -2.631832472980022430e-02 -4.646776914596557617e-01 2.556695938110351562e-01 -3.013075292110443115e-01 -4.608530700206756592e-01 -1.730236224830150604e-02 4.026195108890533447e-01 -5.466400384902954102e-01 -4.107199236750602722e-02 -7.333355396986007690e-02 -5.438541173934936523e-01 -3.895185589790344238e-01 1.637464761734008789e-01 -2.071322053670883179e-01 3.802041113376617432e-01 -4.521383941173553467e-01 -5.917869880795478821e-02 -9.194479882717132568e-02 4.141414165496826172e-01 -4.062290191650390625e-01 -1.960225552320480347e-01 2.598430216312408447e-01 -2.109253704547882080e-01 -1.278023272752761841e-01 3.859402611851692200e-02 2.750490307807922363e-01 4.921847581863403320e-01 1.504746228456497192e-01 -1.151361763477325439e-01 1.474795341491699219e-01 -3.495489954948425293e-01 1.892880350351333618e-01
