-1.598787158727645874e-01
-1.702083796262741089e-01
8.491434901952743530e-02
-2.851321827620267868e-03
-4.489796981215476990e-02
5.541724339127540588e-02
-7.914648950099945068e-02
-3.283532336354255676e-03
6.181598082184791565e-02
6.731692701578140259e-02
-4.355926066637039185e-03
1.553303897380828857e-01
9.671533107757568359e-02
3.606388717889785767e-02
-1.935807615518569946e-01
-8.700155466794967651e-02
-2.755257673561573029e-02
-1.197801623493432999e-02
-1.468696296215057373e-01
-1.904608868062496185e-02
-8.645536005496978760e-02
-1.035756431519985199e-03
7.941909879446029663e-02
1.493259966373443604e-01
-1.398779898881912231e-01
6.337550282478332520e-02
1.048470102250576019e-02
-2.660056203603744507e-02
-1.213934123516082764e-01
6.763661280274391174e-03
1.573712080717086792e-01
1.006716713309288025e-01
1.526765227317810059e-01
6.186183542013168335e-02
-5.987878888845443726e-02
2.176312915980815887e-02
-8.938154578208923340e-02
2.740828320384025574e-02
-2.801494300365447998e-01
-5.607028678059577942e-02
-4.094401746988296509e-02
-2.386627644300460815e-01
-5.317891389131546021e-02
9.011967480182647705e-02
1.397256404161453247e-01
-3.260591626167297363e-01
-1.487327069044113159e-01
-3.221311792731285095e-02
3.978534042835235596e-02
-1.191624477505683899e-01
3.097615018486976624e-02
1.736642234027385712e-02
-1.739581301808357239e-02
1.621333807706832886e-01
-2.674832344055175781e-01
1.046488359570503235e-01
5.121622234582901001e-02
-8.321933448314666748e-03
8.723448216915130615e-02
-1.291755437850952148e-01
-4.583597928285598755e-02
-8.043979853391647339e-02
2.663213945925235748e-02
1.658186502754688263e-02
-1.269619632512331009e-02
-7.605733722448348999e-02
6.223302334547042847e-02
-2.788619697093963623e-01
4.675406217575073242e-02
8.024769276380538940e-02
7.576478272676467896e-02
4.583872854709625244e-02
1.749434918165206909e-01
-1.326851099729537964e-01
1.945587433874607086e-02
8.337158942595124245e-04
1.861791759729385376e-01
1.962770894169807434e-02
-5.183779820799827576e-02
-4.332634806632995605e-02
9.903566539287567139e-02
1.989712193608283997e-02
8.937165141105651855e-02
-1.991224661469459534e-02
-1.125433668494224548e-01
5.652670934796333313e-02
-5.862896516919136047e-02
-6.249419972300529480e-02
1.142662465572357178e-01
-3.021258674561977386e-02
-1.497939229011535645e-01
3.745225816965103149e-02
4.292658716440200806e-02
4.024092853069305420e-02
-2.892456389963626862e-02
-4.862618818879127502e-02
-3.467266261577606201e-02
-1.115363985300064087e-01
9.948173910379409790e-02
1.592002511024475098e-01
-7.057669758796691895e-02
7.133424282073974609e-02
-4.671204835176467896e-02
-3.274955600500106812e-02
-8.575668558478355408e-03
1.820205338299274445e-02
4.039580747485160828e-02
-4.861664772033691406e-02
1.498803347349166870e-01
-4.091971088200807571e-03
2.267586290836334229e-01
-1.491075661033391953e-02
-2.166976220905780792e-02
-7.446425408124923706e-02
-4.776725918054580688e-02
-1.119320839643478394e-01
-3.311909362673759460e-02
-1.035477742552757263e-01
1.906664855778217316e-02
1.645097136497497559e-01
-1.414617002010345459e-01
4.360711202025413513e-02
-2.964831329882144928e-02
1.073209866881370544e-01
-4.893497098237276077e-03
-1.554833352565765381e-01
5.824889987707138062e-03
4.767321050167083740e-02
8.043878525495529175e-02
1.409685015678405762e-01
1.054093539714813232e-01
-3.272273764014244080e-02
9.315144270658493042e-02
-1.093872189521789551e-01
9.987667948007583618e-02
4.190858453512191772e-02
1.062971204519271851e-01
-6.308213621377944946e-02
8.264039456844329834e-02
-5.978275090456008911e-02
-5.880123749375343323e-02
-7.926863431930541992e-02
1.091107353568077087e-01
6.018391624093055725e-02
5.308797955513000488e-02
-5.149171873927116394e-02
5.355870351195335388e-02
8.458342403173446655e-02
-1.167093515396118164e-01
-1.950683593750000000e-01
-7.611241936683654785e-02
-2.625240385532379150e-01
8.811928331851959229e-02
-6.563466042280197144e-02
-9.775894135236740112e-02
-1.817058026790618896e-02
1.174302473664283752e-01
-2.513209581375122070e-01
1.587016321718692780e-02
-2.653871849179267883e-02
-1.988589912652969360e-01
-1.646053493022918701e-01
-2.006647139787673950e-01
4.113380238413810730e-02
-1.082658022642135620e-02
3.815658763051033020e-02
-2.071599476039409637e-02
-6.236506998538970947e-02
-7.362148910760879517e-02
-7.288103550672531128e-02
1.004593297839164734e-01
5.562227964401245117e-02
2.715201117098331451e-02
-3.112271986901760101e-02
-2.894935198128223419e-02
-1.229832619428634644e-01
6.188109144568443298e-02
-2.981500141322612762e-02
-3.839035704731941223e-02
-8.503784425556659698e-03
1.556116789579391479e-01
-2.170433700084686279e-01
-1.492668241262435913e-01
-6.083229929208755493e-02
-1.409632991999387741e-02
-1.951747238636016846e-01
2.684012986719608307e-02
1.156859695911407471e-01
-3.604447096586227417e-02
4.386507347226142883e-02
-3.327780589461326599e-02
-1.213921606540679932e-01
1.472663879394531250e-02
2.623434364795684814e-02
1.233254969120025635e-01
1.602743193507194519e-02
1.348396539688110352e-01
-4.571371525526046753e-02
-2.298332937061786652e-02
7.009793072938919067e-02
-4.352487996220588684e-02
7.653223723173141479e-02
3.062866255640983582e-02
-2.331272512674331665e-02
-1.823567897081375122e-01
-9.737417846918106079e-02
1.958492994308471680e-01
5.652913823723793030e-02
-2.749611251056194305e-02
1.021865829825401306e-01
1.324046030640602112e-02
2.261920645833015442e-02
7.135287672281265259e-02
-2.059534192085266113e-01
3.605118766427040100e-02
-1.278922706842422485e-01
3.462770953774452209e-02
5.019398778676986694e-02
6.143038719892501831e-02
3.304572543129324913e-03
-3.069694340229034424e-01
5.859230086207389832e-02
1.459072083234786987e-01
1.151787117123603821e-01
1.208196058869361877e-01
3.445084393024444580e-02
9.500501304864883423e-02
1.573263667523860931e-02
1.658101826906204224e-01
-5.416273698210716248e-02
-7.410741597414016724e-02
-2.865324728190898895e-02
-5.188144743442535400e-02
-3.335233032703399658e-02
-3.285607323050498962e-02
-1.078066825866699219e-01
1.387793868780136108e-01
-7.083872333168983459e-03
5.411274731159210205e-02
-4.861428588628768921e-02
1.474442481994628906e-01
-1.173811592161655426e-02
-2.051615864038467407e-01
5.605375021696090698e-02
-1.359495073556900024e-01
-7.352554053068161011e-02
-3.836083784699440002e-02
1.096482798457145691e-01
2.710165828466415405e-02
-6.442890316247940063e-02
-1.705658584833145142e-01
-1.288669705390930176e-01
-5.808182433247566223e-02
4.726891964673995972e-02
-2.182867191731929779e-02
2.296487241983413696e-02
