1.819306239485740662e-02
-6.912514567375183105e-03
4.886142443865537643e-03
-7.840846478939056396e-02
-6.710425019264221191e-02
2.222219705581665039e-01
-5.054361745715141296e-02
-2.524799667298793793e-03
8.062976412475109100e-03
8.785156905651092529e-02
2.780998647212982178e-01
3.397411406040191650e-01
-6.812493503093719482e-02
1.672904044389724731e-01
3.062738776206970215e-01
-3.596846759319305420e-02
2.380575239658355713e-02
3.312838077545166016e-01
-1.053651869297027588e-01
9.571088850498199463e-02
1.396795362234115601e-01
-1.339300125837326050e-01
2.472697049379348755e-01
8.125158399343490601e-02
2.504311800003051758e-01
-5.828555300831794739e-02
-2.473702467978000641e-02
-4.997912049293518066e-02
1.837948262691497803e-01
2.912493348121643066e-01
-9.039211273193359375e-02
-1.383222788572311401e-01
1.854885816574096680e-01
3.912953287363052368e-02
-9.788483381271362305e-02
-8.987233787775039673e-02
-6.945302337408065796e-02
-8.297974616289138794e-02
-1.264806240797042847e-01
3.211509883403778076e-01
4.978847801685333252e-01
-1.142743322998285294e-02
-1.504815928637981415e-02
-5.860288068652153015e-02
-8.161691576242446899e-02
2.560778856277465820e-01
1.202066540718078613e-01
1.063790842890739441e-01
5.042234659194946289e-01
-8.196031302213668823e-02
1.737981438636779785e-01
-8.469142764806747437e-02
2.902508974075317383e-01
-9.737340360879898071e-02
-4.174769669771194458e-02
1.522682309150695801e-01
1.047071721404790878e-02
3.756007179617881775e-02
1.264762599021196365e-02
-3.299681842327117920e-02
1.727239191532135010e-01
-4.719794914126396179e-02
6.730450391769409180e-01
4.791691005229949951e-01
-3.595880232751369476e-03
-1.277481466531753540e-01
2.197338491678237915e-01
2.280946522951126099e-01
8.782686293125152588e-02
-8.109619468450546265e-02
-2.834151685237884521e-02
-6.754080206155776978e-02
-3.211083635687828064e-02
-4.364268854260444641e-02
-9.979937225580215454e-02
-4.961870610713958740e-02
-1.325829792767763138e-02
1.077139824628829956e-01
-7.511720806360244751e-02
-2.105484902858734131e-02
3.951165676116943359e-01
-7.104738149791955948e-03
3.539538383483886719e-01
1.248475983738899231e-01
-4.797390196472406387e-03
-5.172337219119071960e-02
-2.521461993455886841e-02
4.643208384513854980e-01
2.867021560668945312e-01
-5.892572179436683655e-02
1.495381295680999756e-01
-2.178605273365974426e-02
9.579019993543624878e-02
1.488426700234413147e-02
1.568564027547836304e-01
-6.768400780856609344e-03
-5.432680994272232056e-02
-3.481739759445190430e-02
-1.076124235987663269e-02
1.276166271418333054e-02
-5.585636943578720093e-03
-1.074242591857910156e-01
-4.110863432288169861e-02
-3.539323806762695312e-02
-6.841883063316345215e-02
-4.901875555515289307e-02
-1.042390987277030945e-01
-4.872998595237731934e-02
-4.106626287102699280e-02
1.828050613403320312e-01
-1.894502155482769012e-02
3.004813566803932190e-02
4.361377656459808350e-02
-5.898255482316017151e-02
3.520703017711639404e-01
3.769658803939819336e-01
-6.742065399885177612e-02
-6.509175896644592285e-02
-7.883825898170471191e-02
3.292739093303680420e-01
3.197534680366516113e-01
-5.991206318140029907e-02
-2.811777219176292419e-02
-3.610390052199363708e-02
3.694225847721099854e-01
3.937141969799995422e-03
-4.217197746038436890e-02
-6.493744999170303345e-02
-2.835749089717864990e-02
5.595149993896484375e-01
-4.567833244800567627e-02
-7.119119167327880859e-02
-1.133877113461494446e-01
-1.308359056711196899e-01
2.376174032688140869e-01
3.251934647560119629e-01
-1.047168597579002380e-01
4.398273229598999023e-01
-5.292458459734916687e-03
9.913656115531921387e-02
-2.398015232756733894e-03
4.631796181201934814e-01
2.895588874816894531e-01
3.063393533229827881e-01
-1.016743183135986328e-01
-1.754496246576309204e-02
-1.111275330185890198e-01
-4.500206932425498962e-02
-1.634736545383930206e-02
1.213580742478370667e-01
2.162422239780426025e-02
5.521389842033386230e-01
3.039670586585998535e-01
4.919663071632385254e-01
1.196846440434455872e-01
-4.569393023848533630e-02
-1.601026803255081177e-01
-4.200422018766403198e-02
-6.549565494060516357e-02
1.397204771637916565e-02
1.842764914035797119e-01
-7.049109041690826416e-02
4.739639535546302795e-02
-7.155276089906692505e-02
-6.000611558556556702e-02
3.014759421348571777e-01
1.487428206019103527e-03
9.973485022783279419e-02
3.639119863510131836e-02
6.711871176958084106e-02
-3.919781371951103210e-02
-4.098761454224586487e-02
-1.517303287982940674e-01
-2.415966056287288666e-02
-1.949659921228885651e-02
-8.841530978679656982e-02
6.869082152843475342e-02
3.310110270977020264e-01
-9.063647687435150146e-02
-2.648509852588176727e-02
8.985237032175064087e-02
1.422637980431318283e-02
-6.996270269155502319e-03
9.671545773744583130e-02
-7.070174813270568848e-02
-5.852641165256500244e-02
-5.482312291860580444e-02
2.620331645011901855e-01
-6.011213734745979309e-02
-6.395294517278671265e-02
4.340265095233917236e-01
3.677264153957366943e-01
-4.577303677797317505e-02
-5.515373870730400085e-02
1.596868634223937988e-01
-8.217991888523101807e-02
6.748058646917343140e-02
-1.164670288562774658e-01
-4.991110786795616150e-02
-3.917918726801872253e-02
-8.916950225830078125e-02
-1.085068564862012863e-02
2.772601544857025146e-01
4.184923693537712097e-02
-9.353443235158920288e-02
1.690529137849807739e-01
-9.606054425239562988e-02
3.275167047977447510e-01
-1.656184345483779907e-02
-2.778231725096702576e-02
-2.382291853427886963e-02
5.186492800712585449e-01
1.685919016599655151e-01
-7.900150492787361145e-03
2.456501424312591553e-01
3.722842335700988770e-01
-2.764480374753475189e-02
4.929588437080383301e-01
-5.795311555266380310e-02
4.539002478122711182e-01
-6.817653030157089233e-02
-7.305128872394561768e-02
-7.775847800076007843e-03
-7.730973511934280396e-02
-8.657191693782806396e-02
1.366743259131908417e-02
6.836774349212646484e-01
-1.553803030401468277e-02
-1.052224710583686829e-01
5.157682895660400391e-01
-7.328638434410095215e-02
4.833694696426391602e-01
4.113969504833221436e-01
-2.818388305604457855e-02
1.966233253479003906e-01
3.400014638900756836e-01
9.461699053645133972e-03
-1.186875347048044205e-02
7.734033465385437012e-02
3.125279545783996582e-01
1.957587748765945435e-01
3.559757024049758911e-02
3.639117479324340820e-01
-6.806867569684982300e-02
-6.399448961019515991e-02
1.130973473191261292e-01
9.378172457218170166e-02
-4.866752400994300842e-02
-1.870292983949184418e-02
-3.406199812889099121e-02
9.910230524837970734e-03
-6.065340712666511536e-02
-4.483282193541526794e-02
2.384376972913742065e-01
3.218130469322204590e-01
-4.837909713387489319e-02
