1.177940145134925842e-01
-3.443505614995956421e-02
9.932825714349746704e-02
1.991475522518157959e-01
1.294488161802291870e-01
1.830541342496871948e-01
-2.767040431499481201e-01
-8.960758894681930542e-02
1.458994299173355103e-01
-1.554426848888397217e-01
3.632427752017974854e-01
1.022184416651725769e-01
1.114302277565002441e-01
2.390242516994476318e-01
4.890860989689826965e-02
-1.335407644510269165e-01
2.987387478351593018e-01
1.370460446923971176e-02
1.351865231990814209e-01
1.873919963836669922e-01
-4.486363753676414490e-02
1.330992430448532104e-01
-1.918867416679859161e-02
-1.241846904158592224e-01
-1.140928715467453003e-01
1.265086382627487183e-01
5.530544742941856384e-02
-1.888298094272613525e-01
-1.252620965242385864e-01
3.037254512310028076e-01
7.517710328102111816e-02
1.230718940496444702e-02
-6.657187640666961670e-02
-2.452783286571502686e-01
1.312800347805023193e-01
2.704869806766510010e-01
-2.816826403141021729e-01
1.062614545226097107e-01
-8.130544424057006836e-02
1.852090358734130859e-01
1.163532435894012451e-01
-2.184425294399261475e-01
-5.602779984474182129e-02
-3.224393725395202637e-01
-6.872000545263290405e-02
-1.021925061941146851e-01
1.812044084072113037e-01
-1.394128501415252686e-01
-1.041720882058143616e-01
-6.213910877704620361e-02
8.074015378952026367e-02
-4.328116029500961304e-02
-3.118169903755187988e-01
1.833432121202349663e-03
2.586364448070526123e-01
1.356630306690931320e-02
-1.562246214598417282e-02
-1.290913522243499756e-01
-1.294815242290496826e-01
7.194025814533233643e-02
1.616832166910171509e-01
2.519755661487579346e-01
1.864635758101940155e-02
1.492136567831039429e-01
-1.708072423934936523e-01
-2.344228923320770264e-01
9.291344135999679565e-02
1.802159398794174194e-01
8.142664283514022827e-02
-7.771702855825424194e-02
1.678755134344100952e-01
1.226354576647281647e-02
-2.294200286269187927e-02
2.140991091728210449e-01
-2.822085022926330566e-01
-1.138406768441200256e-01
2.099597454071044922e-02
-2.731364802457392216e-04
9.518358856439590454e-02
5.962128192186355591e-02
2.322094440460205078e-01
5.435080453753471375e-02
-1.305013988167047501e-02
-2.225667387247085571e-01
5.922897718846797943e-03
2.605961263179779053e-01
-2.167249917984008789e-01
1.248745694756507874e-01
4.662154987454414368e-02
-1.897806525230407715e-01
1.467560231685638428e-01
1.639166772365570068e-01
-9.149487316608428955e-02
5.304459854960441589e-02
-2.632329463958740234e-01
1.466751284897327423e-02
9.683244675397872925e-02
-5.776841938495635986e-02
6.458348035812377930e-02
1.364344507455825806e-01
-7.073386758565902710e-02
-2.043730765581130981e-01
1.546646803617477417e-01
-9.148479253053665161e-02
1.787751354277133942e-02
1.862796396017074585e-01
7.418990717269480228e-04
-5.831586197018623352e-02
-3.597317636013031006e-02
-2.430268228054046631e-01
1.592467129230499268e-01
-1.525407098233699799e-02
-1.166344135999679565e-01
1.723670661449432373e-01
-2.452732175588607788e-01
-1.002695411443710327e-01
-2.438591122627258301e-01
-2.692992389202117920e-01
-1.200807169079780579e-01
1.382963061332702637e-01
9.577187150716781616e-02
-1.720359548926353455e-02
-3.488022461533546448e-02
-1.230336632579565048e-02
-1.582669168710708618e-01
-8.468392491340637207e-02
3.020764142274856567e-02
1.429048925638198853e-01
-1.868915557861328125e-01
1.636707633733749390e-01
-1.016239151358604431e-01
-1.764976382255554199e-01
-1.928404159843921661e-02
-2.585385181009769440e-02
-3.480878099799156189e-02
8.622109144926071167e-02
-1.248925342224538326e-03
-2.019804418087005615e-01
-2.883917093276977539e-01
-9.837733209133148193e-02
2.448715716600418091e-01
-3.789442181587219238e-01
-5.994962900876998901e-02
1.486880704760551453e-02
4.752329364418983459e-02
7.898239046335220337e-02
-3.725969791412353516e-02
-7.099557667970657349e-02
-2.467675805091857910e-01
6.841926276683807373e-02
-1.066987439990043640e-01
-1.379308849573135376e-01
1.542915105819702148e-01
-3.978746011853218079e-02
2.223209440708160400e-01
-2.149050235748291016e-01
6.032010540366172791e-02
9.113404899835586548e-02
-2.426974475383758545e-02
-1.758515089750289917e-01
2.270798087120056152e-01
8.053612709045410156e-02
-2.170128189027309418e-02
4.294667392969131470e-03
1.327323168516159058e-01
1.235688850283622742e-02
-2.197860628366470337e-01
-3.123495355248451233e-02
-6.522659957408905029e-02
3.555690646171569824e-01
5.411972478032112122e-02
-2.752660587430000305e-02
8.143511414527893066e-02
1.034570261836051941e-01
2.308672815561294556e-01
-2.885883748531341553e-01
1.243036165833473206e-01
-5.010471120476722717e-02
-1.486353129148483276e-01
-1.031044796109199524e-01
-5.395952239632606506e-02
-1.684302985668182373e-01
-2.475606799125671387e-01
-2.640045285224914551e-01
5.706202704459428787e-03
-2.630114853382110596e-01
-1.245404407382011414e-01
-2.002270221710205078e-01
-2.286818474531173706e-01
1.503607630729675293e-01
1.179436817765235901e-01
5.190328881144523621e-02
-2.266271412372589111e-01
-5.491748079657554626e-02
-7.000661641359329224e-02
-9.409836679697036743e-02
2.394094318151473999e-01
-4.542668536305427551e-02
2.178238630294799805e-01
-9.118836373090744019e-02
1.010204553604125977e-01
2.431146614253520966e-02
-2.075726240873336792e-01
9.112199395895004272e-02
6.040054932236671448e-02
-9.659903123974800110e-03
2.078815102577209473e-01
-4.737760499119758606e-02
6.113969162106513977e-02
6.172661110758781433e-02
4.106606915593147278e-02
-1.809287816286087036e-02
1.035833805799484253e-01
2.563304966315627098e-03
5.406684055924415588e-02
3.520616143941879272e-02
1.736466586589813232e-01
-1.802906394004821777e-02
-1.717280745506286621e-01
1.918431371450424194e-01
-7.000388205051422119e-02
-1.038272380828857422e-01
3.602479398250579834e-01
-2.017861977219581604e-02
-4.838514700531959534e-02
-1.010889559984207153e-02
-3.996255248785018921e-02
-3.779547810554504395e-01
2.273578494787216187e-01
8.817605674266815186e-02
-4.256249219179153442e-02
-7.243277039378881454e-03
-1.226035994477570057e-03
2.213314175605773926e-01
3.265984654426574707e-01
-2.646497488021850586e-01
2.218976616859436035e-01
1.410903632640838623e-01
3.586180806159973145e-01
2.454980276525020599e-02
2.495278120040893555e-01
-3.406846821308135986e-01
-2.123686522245407104e-01
-7.508223503828048706e-02
3.219310343265533447e-01
-3.087026476860046387e-01
-2.657184749841690063e-02
-5.287990719079971313e-02
-2.067061066627502441e-01
-2.927018105983734131e-01
1.796930730342864990e-01
1.938747912645339966e-01
-1.267167925834655762e-01
-4.180925786495208740e-01
-4.877665042877197266e-01
6.431245803833007812e-02
