-1.797783933579921722e-02
2.035964652895927429e-02
1.231875270605087280e-02
-2.905804663896560669e-02
4.418013244867324829e-02
2.018558233976364136e-02
-9.343622252345085144e-03
-1.651360839605331421e-02
1.395038887858390808e-02
5.202787742018699646e-02
6.483934354037046432e-03
-7.647901773452758789e-03
-2.828869270160794258e-03
-3.709235787391662598e-02
2.121160924434661865e-02
2.849587425589561462e-02
2.910462766885757446e-02
-1.568372361361980438e-02
-1.227169856429100037e-02
-1.455180905759334564e-02
-3.150140866637229919e-02
5.699715390801429749e-02
4.199411347508430481e-02
2.173156244680285454e-03
-1.669566333293914795e-02
-1.445857249200344086e-02
-2.601063437759876251e-02
-9.089769795536994934e-03
4.692264273762702942e-02
4.822483286261558533e-02
2.768024988472461700e-02
8.752050809562206268e-03
5.559836328029632568e-02
9.911695867776870728e-02
3.066229820251464844e-02
-1.469218696001917124e-04
-8.385227993130683899e-03
-2.942740172147750854e-02
5.819439422339200974e-03
-3.856128081679344177e-03
5.832688417285680771e-03
-5.094525963068008423e-02
-3.104924410581588745e-02
1.955738477408885956e-02
9.772903472185134888e-02
-7.219399791210889816e-03
1.275492087006568909e-02
-5.366180557757616043e-03
2.746702544391155243e-02
5.393761023879051208e-02
-4.026790708303451538e-02
2.479206956923007965e-02
-1.665816642343997955e-02
-3.130824537947773933e-03
1.955922506749629974e-02
-3.724492155015468597e-03
-1.480673532932996750e-02
-2.600370161235332489e-02
1.181085221469402313e-02
1.683130301535129547e-02
5.851187184453010559e-02
1.735617592930793762e-02
-2.939325571060180664e-02
-1.147489761933684349e-03
8.382345549762248993e-03
2.028089947998523712e-02
3.211952745914459229e-02
1.795838959515094757e-02
1.920640654861927032e-02
6.762754917144775391e-02
-1.406381092965602875e-02
-2.040121518075466156e-02
3.403321281075477600e-02
-5.604204162955284119e-02
1.768299611285328865e-03
-6.344094872474670410e-03
-7.935930043458938599e-02
1.363207772374153137e-02
-2.205846086144447327e-02
1.808672398328781128e-02
1.028260216116905212e-02
-4.683940671384334564e-03
1.622787909582257271e-03
-1.563543081283569336e-02
1.142631471157073975e-02
4.750786721706390381e-02
-3.749990463256835938e-02
7.355995476245880127e-03
2.516489103436470032e-02
2.310520969331264496e-03
6.149875372648239136e-02
-2.312686853110790253e-02
1.239202171564102173e-02
-1.527506113052368164e-02
4.218870773911476135e-02
1.600615121424198151e-02
6.735070794820785522e-02
-6.176620256155729294e-03
-5.073204636573791504e-03
-2.681410871446132660e-02
-3.866706276312470436e-03
-1.325536705553531647e-02
2.927331812679767609e-02
4.007549583911895752e-02
1.808300055563449860e-02
3.931827843189239502e-02
-2.184169366955757141e-02
4.534636437892913818e-02
-1.846233010292053223e-02
-3.442280367016792297e-02
-4.200618248432874680e-03
2.211752533912658691e-02
-2.111455984413623810e-02
6.993823498487472534e-02
1.861199364066123962e-02
3.877300396561622620e-02
-4.306017886847257614e-03
-1.716273464262485504e-02
-2.040332369506359100e-02
-1.732793822884559631e-02
-2.169151557609438896e-04
2.124560251832008362e-02
1.439922582358121872e-02
1.962687633931636810e-02
-2.070177346467971802e-02
-1.992155797779560089e-02
2.192310616374015808e-02
-2.153769368305802345e-03
-6.099588703364133835e-03
-1.090839225798845291e-02
-4.495964571833610535e-02
2.490878105163574219e-02
-3.651124238967895508e-02
1.337119471281766891e-02
-1.572737121023237705e-03
-3.186788177117705345e-03
-2.838546037673950195e-02
3.527629002928733826e-02
3.804153949022293091e-02
2.900411747395992279e-02
1.652917824685573578e-02
-5.135842133313417435e-03
-4.028180986642837524e-02
2.373624965548515320e-02
2.546199224889278412e-02
6.205079704523086548e-02
-5.203030258417129517e-02
-8.694789372384548187e-03
2.178213093429803848e-03
-2.476471103727817535e-02
-1.551729440689086914e-02
-2.365339361131191254e-02
-1.490537263453006744e-02
3.129438683390617371e-02
-3.877101698890328407e-04
-5.516912788152694702e-03
3.330820426344871521e-02
2.468901220709085464e-03
4.587682709097862244e-02
2.959520369768142700e-02
-2.272255904972553253e-02
-1.134506426751613617e-03
2.718248218297958374e-02
1.357406377792358398e-02
2.721489965915679932e-02
-3.944616019725799561e-02
-4.971635341644287109e-02
-4.263930022716522217e-03
3.214455395936965942e-02
6.303192581981420517e-03
-5.141423549503087997e-03
2.809378691017627716e-02
1.852829754352569580e-02
2.079047076404094696e-02
-3.387558273971080780e-03
-1.206912845373153687e-02
7.449615746736526489e-02
7.158216089010238647e-02
-3.994655609130859375e-02
1.525789313018321991e-02
6.207657512277364731e-03
2.138440310955047607e-02
2.007213607430458069e-02
2.314536459743976593e-02
9.854596108198165894e-02
1.894435472786426544e-02
-6.314048916101455688e-02
-2.516887616366147995e-03
-1.515814568847417831e-02
-2.724611014127731323e-02
-1.690153963863849640e-02
3.584813326597213745e-02
5.270826444029808044e-02
-6.013646721839904785e-03
3.531046584248542786e-02
1.653954572975635529e-02
-1.137651596218347549e-02
-5.100112035870552063e-02
5.152389407157897949e-03
1.852908171713352203e-02
2.672112174332141876e-02
-1.050548721104860306e-02
4.524926189333200455e-03
-9.698573499917984009e-03
2.326298505067825317e-02
-2.035720273852348328e-02
8.990602567791938782e-03
2.932710945606231689e-02
2.936016954481601715e-02
-9.297518408857285976e-04
7.717863656580448151e-03
-2.219204977154731750e-02
1.875348389148712158e-02
5.899967253208160400e-02
-1.457280293107032776e-02
5.016603693366050720e-02
5.240965634584426880e-02
1.017517223954200745e-02
4.136075824499130249e-02
1.237877458333969116e-02
3.973148018121719360e-02
8.739975281059741974e-03
-1.351824868470430374e-02
-3.655588254332542419e-03
-2.120993565768003464e-03
-3.393582627177238464e-02
2.376113086938858032e-02
1.443801913410425186e-02
-3.280584886670112610e-02
3.701593726873397827e-02
-2.018350735306739807e-02
2.038494916632771492e-03
4.967687278985977173e-02
-1.290872576646506786e-03
5.408282950520515442e-02
4.808781202882528305e-03
-3.011845983564853668e-02
1.345907524228096008e-02
8.520367741584777832e-02
8.149647153913974762e-03
3.894649818539619446e-02
1.151566486805677414e-02
7.360298652201890945e-03
-8.597336709499359131e-03
-1.867582090198993683e-02
-1.610383391380310059e-02
2.086238563060760498e-02
-2.630074135959148407e-02
-8.042681962251663208e-03
3.573219990357756615e-03
6.903922557830810547e-02
-3.633636981248855591e-02
2.954204380512237549e-02
1.000411342829465866e-02
4.866944253444671631e-02
2.935408847406506538e-04
