-7.264097779989242554e-02
1.898036897182464600e-01
-9.185008704662322998e-02
1.266954988241195679e-01
9.370119124650955200e-02
-4.894366860389709473e-02
-1.063704341650009155e-01
1.063470467925071716e-01
7.248624414205551147e-02
-3.202523589134216309e-01
1.589264869689941406e-01
2.271132729947566986e-02
-1.862291991710662842e-02
-1.148811429738998413e-01
6.092990562319755554e-02
-1.505868881940841675e-01
-2.427433431148529053e-01
-1.310033947229385376e-01
-1.857297420501708984e-01
6.556230038404464722e-02
2.349470853805541992e-01
3.026248887181282043e-02
-2.169515341520309448e-01
-2.035354673862457275e-01
1.499113291501998901e-01
1.552359759807586670e-01
6.089070066809654236e-02
4.844546690583229065e-02
5.770339071750640869e-02
5.644132569432258606e-02
-1.058147922158241272e-01
-1.342339962720870972e-01
-4.933693259954452515e-02
1.602013260126113892e-01
5.212987214326858521e-02
6.335870828479528427e-03
-1.868188530206680298e-01
-2.066477537155151367e-01
1.327964216470718384e-01
1.030846834182739258e-01
-1.612932384014129639e-01
-1.271912753582000732e-01
1.216683164238929749e-01
-2.499691843986511230e-01
1.481212824583053589e-01
-1.616212911903858185e-02
1.732905656099319458e-01
6.279785931110382080e-02
6.401886790990829468e-02
-2.930890582501888275e-02
4.787296056747436523e-03
-1.964918822050094604e-01
-1.444710940122604370e-01
2.821353077888488770e-02
5.956201348453760147e-03
-1.405810266733169556e-01
7.199699431657791138e-02
6.825281679630279541e-02
3.282718732953071594e-02
6.798439472913742065e-02
-1.762599498033523560e-02
2.917743287980556488e-02
4.888684675097465515e-02
-1.498572528362274170e-01
2.612151578068733215e-02
-3.849520161747932434e-02
-1.487360298633575439e-01
7.443098723888397217e-02
-5.645553022623062134e-02
-1.221743077039718628e-01
-4.848719015717506409e-02
-2.277109473943710327e-01
1.462805829942226410e-02
-7.541477680206298828e-03
-2.346016317605972290e-01
-1.104558259248733521e-01
-4.556674510240554810e-02
5.984434485435485840e-02
-2.556783854961395264e-01
-8.324953168630599976e-02
-7.333628833293914795e-02
1.248361170291900635e-01
-8.967782557010650635e-02
-6.769382953643798828e-02
-1.443441212177276611e-01
1.744328886270523071e-01
-9.420846402645111084e-02
-1.875396668910980225e-01
-6.865856237709522247e-03
-1.379201374948024750e-02
-6.433048844337463379e-02
1.444259285926818848e-01
-4.817286040633916855e-03
5.215756222605705261e-02
8.350783586502075195e-02
-2.728687524795532227e-01
-1.095413044095039368e-02
4.473939165472984314e-02
1.838771440088748932e-02
-5.601077526807785034e-02
4.006286710500717163e-02
-4.570272564888000488e-02
5.910513922572135925e-02
-8.431641012430191040e-02
-1.309727579355239868e-01
-9.359155595302581787e-02
-1.405741274356842041e-01
3.237243741750717163e-02
2.060552239418029785e-01
-7.063756883144378662e-02
1.573103517293930054e-01
-6.616894155740737915e-02
-6.998150050640106201e-02
-3.478209301829338074e-02
-3.312772139906883240e-02
1.448375880718231201e-01
-2.770245075225830078e-01
-1.215801239013671875e-01
-7.392626255750656128e-02
5.341149400919675827e-03
8.272831887006759644e-02
-1.327910125255584717e-01
4.439926240593194962e-03
-1.137014664709568024e-02
-2.595381811261177063e-02
5.235058441758155823e-02
-1.464849561452865601e-01
5.998016148805618286e-02
-1.871320903301239014e-01
1.967980116605758667e-01
3.694859892129898071e-02
8.469866216182708740e-02
-3.168700635433197021e-02
1.039315387606620789e-01
-1.551730483770370483e-01
1.299339830875396729e-01
8.289741817861795425e-04
-8.540479093790054321e-02
1.116073951125144958e-01
3.976166993379592896e-02
-1.747990995645523071e-01
1.898748129606246948e-01
-4.908122867345809937e-02
3.887728229165077209e-02
-3.547214716672897339e-02
6.060020066797733307e-03
9.665337204933166504e-02
7.136332988739013672e-02
-8.127111941576004028e-02
1.753921806812286377e-02
1.277146041393280029e-01
-3.076200373470783234e-02
-9.651321172714233398e-02
-4.169985279440879822e-02
2.189816534519195557e-01
1.445359587669372559e-01
-5.132739618420600891e-02
5.918697640299797058e-02
8.293846249580383301e-02
2.312269359827041626e-01
-1.305019706487655640e-01
7.153002545237541199e-03
-7.572087645530700684e-02
1.566956043243408203e-01
-2.244650572538375854e-02
1.288580298423767090e-01
-3.218176215887069702e-02
1.847821474075317383e-02
-3.462550044059753418e-02
3.706965222954750061e-02
1.675627008080482483e-02
2.647456340491771698e-02
-1.101857423782348633e-01
2.769820019602775574e-02
1.268991231918334961e-01
-2.401224374771118164e-01
-1.212978139519691467e-01
6.429423391819000244e-02
-2.966887503862380981e-02
-2.495723031461238861e-02
1.035197079181671143e-01
-1.791140288114547729e-01
1.236457526683807373e-01
5.093370750546455383e-02
-1.293625682592391968e-01
-4.617856442928314209e-02
1.761082410812377930e-01
-1.694789975881576538e-01
-1.221278160810470581e-01
-5.663634836673736572e-02
-9.080240130424499512e-02
-2.080834284424781799e-02
1.056808680295944214e-01
-6.314090639352798462e-02
2.332708388566970825e-01
1.453037653118371964e-02
-2.372238487005233765e-01
-9.240196645259857178e-02
-1.436192542314529419e-01
-7.712535094469785690e-03
-3.184201419353485107e-01
-5.694198608398437500e-02
-1.084344089031219482e-01
5.512981861829757690e-02
-8.110240846872329712e-02
-7.507100701332092285e-02
-1.646606922149658203e-01
-4.259609803557395935e-02
-1.525800526142120361e-01
4.135044291615486145e-02
4.882869124412536621e-02
-9.885060042142868042e-02
8.426360040903091431e-02
1.720038801431655884e-01
2.458443678915500641e-02
7.889016717672348022e-02
9.413286298513412476e-02
-3.728082403540611267e-02
1.023215800523757935e-01
-1.828895322978496552e-02
-3.569950163364410400e-02
-4.588285088539123535e-02
2.940828725695610046e-02
1.597284525632858276e-01
-2.456977032124996185e-02
1.119903549551963806e-01
-2.061100155115127563e-01
-2.576513960957527161e-02
2.597757279872894287e-01
3.108751960098743439e-02
5.395836662501096725e-03
4.232523962855339050e-02
1.961908936500549316e-01
8.500266820192337036e-02
-2.155984938144683838e-01
9.559357911348342896e-02
-1.304694563150405884e-01
2.446258366107940674e-01
2.304403632879257202e-01
1.211985945701599121e-01
3.028612956404685974e-02
-7.620501518249511719e-02
-2.435462623834609985e-01
-2.493413910269737244e-02
-5.951241776347160339e-02
3.141272068023681641e-02
-1.724370121955871582e-01
-4.686779901385307312e-02
4.620145261287689209e-02
1.222796961665153503e-01
-1.723507642745971680e-01
-8.147994428873062134e-02
-1.246182098984718323e-01
-1.944264024496078491e-02
-1.033444628119468689e-01
5.682681873440742493e-02
