5.611051246523857117e-02
5.633905157446861267e-02
5.579734221100807190e-02
1.274528205394744873e-01
9.719844162464141846e-02
1.000621244311332703e-01
5.224568769335746765e-02
-8.604973554611206055e-02
1.521680410951375961e-02
1.092189550399780273e-01
-3.971548750996589661e-02
-3.158724680542945862e-02
1.908356398344039917e-01
-3.968675807118415833e-02
-5.854286998510360718e-02
2.913668751716613770e-02
2.183437049388885498e-01
1.451907753944396973e-01
2.258376777172088623e-02
2.411982715129852295e-01
1.276375651359558105e-01
9.110204130411148071e-02
-1.587501019239425659e-01
1.419494003057479858e-01
-2.038896977901458740e-01
3.737911581993103027e-01
1.024357303977012634e-01
2.947833836078643799e-01
-6.531464308500289917e-02
2.245317399501800537e-01
5.874164402484893799e-02
-9.914495050907135010e-02
1.515063643455505371e-01
1.247434541583061218e-01
1.121752243489027023e-02
2.452886253595352173e-01
3.738947510719299316e-01
1.915615946054458618e-01
1.295630261301994324e-02
1.664443165063858032e-01
2.155732959508895874e-01
-4.373865947127342224e-02
5.428335443139076233e-02
-6.767565757036209106e-02
5.249574780464172363e-02
5.187752470374107361e-02
1.370746493339538574e-01
1.452786326408386230e-01
-9.186398983001708984e-02
1.123916953802108765e-01
1.651206463575363159e-01
1.507116705179214478e-01
8.105115592479705811e-02
3.026226758956909180e-01
1.795991361141204834e-01
-2.305153524503111839e-03
-5.919503793120384216e-02
-2.131172418594360352e-01
1.841970533132553101e-02
6.730744987726211548e-02
1.873499900102615356e-01
-3.993622958660125732e-02
1.876479834318161011e-01
2.121694236993789673e-01
-8.775231987237930298e-02
1.491152942180633545e-01
1.730519980192184448e-01
2.687792778015136719e-01
1.940193474292755127e-01
1.324933320283889771e-01
-1.234710589051246643e-01
1.875336319208145142e-01
2.259346246719360352e-01
1.869426220655441284e-01
-4.470167681574821472e-02
9.687670320272445679e-02
2.667792141437530518e-01
2.583564259111881256e-02
-1.317334473133087158e-01
2.637194991111755371e-01
-1.409558206796646118e-02
2.033768147230148315e-01
1.565111279487609863e-01
2.316370755434036255e-01
-4.666953161358833313e-02
1.624037623405456543e-01
-4.458806291222572327e-02
9.396004676818847656e-02
2.870604097843170166e-01
1.241995394229888916e-02
1.157060787081718445e-01
1.389222592115402222e-01
2.585400342941284180e-01
2.542351782321929932e-01
3.319729119539260864e-02
1.649844348430633545e-01
1.256498843431472778e-01
1.153461188077926636e-01
2.297444343566894531e-01
-1.338842045515775681e-02
-8.646325767040252686e-02
1.166657060384750366e-01
2.578411949798464775e-03
2.786340713500976562e-01
1.143752932548522949e-01
-2.322117239236831665e-02
2.545435726642608643e-01
1.676381379365921021e-01
7.356952875852584839e-02
2.512341439723968506e-01
7.521169632673263550e-02
2.500633895397186279e-01
1.941508054733276367e-01
3.078504502773284912e-01
1.361891180276870728e-01
1.221505701541900635e-01
8.638411760330200195e-02
1.370746493339538574e-01
2.695226371288299561e-01
7.372771203517913818e-02
-5.555883422493934631e-02
1.973676532506942749e-01
1.148788109421730042e-01
1.231803670525550842e-01
9.968934580683708191e-03
2.198038399219512939e-01
3.244438767433166504e-01
1.555009037256240845e-01
1.011999770998954773e-01
-2.371273702010512352e-03
1.227934882044792175e-01
6.878753006458282471e-02
7.026345282793045044e-02
-8.879428356885910034e-02
1.557265371084213257e-01
-6.782908737659454346e-02
9.467013925313949585e-02
-1.260821968317031860e-01
6.391838937997817993e-02
-1.702761501073837280e-01
2.092689871788024902e-01
7.067781686782836914e-02
-1.016946509480476379e-01
1.514283418655395508e-01
3.180633783340454102e-01
-4.470552317798137665e-03
1.757822930812835693e-01
1.526119709014892578e-01
2.014966309070587158e-01
1.464331988245248795e-02
-1.394264996051788330e-01
2.788762748241424561e-01
8.665261417627334595e-02
1.333624124526977539e-01
1.012657675892114639e-02
2.196775823831558228e-01
3.967560082674026489e-02
-5.567172169685363770e-02
1.354659050703048706e-01
-8.643999695777893066e-02
1.549588292837142944e-01
-2.633200287818908691e-01
1.526087820529937744e-01
2.637672424316406250e-01
3.141014277935028076e-01
-5.388533696532249451e-02
-3.528051078319549561e-02
2.221371531486511230e-01
2.842015624046325684e-01
-6.713366601616144180e-03
1.849469691514968872e-01
6.206057593226432800e-02
1.954607516527175903e-01
2.255674451589584351e-01
1.082059592008590698e-01
1.583528518676757812e-01
1.559683084487915039e-01
9.684451669454574585e-02
5.390461161732673645e-02
2.096188813447952271e-01
1.213100254535675049e-01
-9.815157204866409302e-02
1.532645076513290405e-01
2.171008288860321045e-01
2.100793272256851196e-02
3.445888459682464600e-01
1.528368890285491943e-01
-1.210174057632684708e-02
3.188955038785934448e-02
1.396042406558990479e-01
2.347288876771926880e-01
6.864047050476074219e-02
7.426456362009048462e-02
2.151316106319427490e-01
1.338761895895004272e-01
1.713049709796905518e-01
-1.304504722356796265e-01
1.507834643125534058e-01
2.258981168270111084e-01
-1.309004873037338257e-01
-1.065364852547645569e-01
3.469954431056976318e-01
5.155500024557113647e-02
1.176414042711257935e-01
1.841817498207092285e-01
3.783798217773437500e-01
7.931403815746307373e-02
1.025043055415153503e-01
-1.096070334315299988e-01
-2.812129072844982147e-02
1.418605893850326538e-01
-3.316729795187711716e-03
8.187966793775558472e-02
4.834941029548645020e-02
-7.255220413208007812e-02
4.419963061809539795e-02
-1.159546300768852234e-01
-1.682857051491737366e-02
1.220784634351730347e-01
1.119635850191116333e-01
1.027168259024620056e-01
-3.026021271944046021e-02
1.058864295482635498e-01
2.268420904874801636e-01
1.681811064481735229e-01
8.324805647134780884e-02
-1.305989325046539307e-01
6.082586944103240967e-03
2.206883579492568970e-01
1.143472269177436829e-01
2.340230159461498260e-03
1.548067927360534668e-01
4.272045940160751343e-02
1.660633832216262817e-02
7.010260224342346191e-02
4.483628645539283752e-02
1.766678988933563232e-01
1.688161939382553101e-01
9.042218327522277832e-02
-4.021998867392539978e-02
8.179872483015060425e-02
2.112533450126647949e-01
1.013205721974372864e-01
-3.559888526797294617e-02
1.988728642463684082e-01
2.551028430461883545e-01
1.169588789343833923e-01
3.007364571094512939e-01
-6.583867967128753662e-02
1.888666599988937378e-01
7.433906942605972290e-02
2.355648130178451538e-01
-1.126184687018394470e-01
1.640394926071166992e-01
1.220957338809967041e-01
6.566673517227172852e-02
