4.616973400115966797e-01
-3.950191140174865723e-01
-3.280621170997619629e-01
-3.527759313583374023e-01
2.664765119552612305e-01
-2.127178609371185303e-01
-1.242006421089172363e-01
1.920727938413619995e-01
-1.880616545677185059e-01
4.009014070034027100e-01
-3.953102529048919678e-01
3.587207496166229248e-01
4.952481091022491455e-01
4.858397841453552246e-01
-3.975899517536163330e-01
4.266952574253082275e-01
-4.021627306938171387e-01
-2.009533345699310303e-01
-1.546026170253753662e-01
5.040243864059448242e-01
-3.520099222660064697e-01
-3.221137225627899170e-01
3.151769340038299561e-01
-4.701622724533081055e-01
-2.651502005755901337e-02
3.312458395957946777e-01
4.170579016208648682e-01
3.979596197605133057e-01
-2.801554501056671143e-01
2.765765190124511719e-01
5.066531896591186523e-01
2.981997728347778320e-01
2.498499900102615356e-01
4.064427614212036133e-01
4.911951720714569092e-01
1.096383482217788696e-02
-2.836348414421081543e-01
3.884706795215606689e-01
3.524744212627410889e-01
4.027048647403717041e-01
2.607387006282806396e-01
5.207389593124389648e-01
-3.443323373794555664e-01
-4.547798037528991699e-01
-2.213644981384277344e-01
1.828308403491973877e-01
1.122702509164810181e-01
-4.029046595096588135e-01
-7.770936191082000732e-02
1.941822171211242676e-01
-2.151788622140884399e-01
3.591451942920684814e-01
-4.086903035640716553e-01
4.457676410675048828e-01
-3.964548110961914062e-01
3.729493021965026855e-01
3.079777061939239502e-01
2.268459945917129517e-01
4.327116608619689941e-01
4.478832781314849854e-01
-1.920561045408248901e-01
3.574531674385070801e-01
1.971446126699447632e-01
2.437338531017303467e-01
2.391233444213867188e-01
2.957354784011840820e-01
-3.080902621150016785e-02
-3.260309696197509766e-01
2.845866382122039795e-01
1.558216512203216553e-01
4.645786285400390625e-01
3.733124732971191406e-01
-4.162782132625579834e-01
1.374882161617279053e-01
4.647780209779739380e-02
-4.681577086448669434e-01
-3.509652912616729736e-01
-4.495069980621337891e-01
-2.912004292011260986e-01
-4.191061556339263916e-01
3.651400506496429443e-01
-4.610681235790252686e-01
-1.587921567261219025e-02
3.516954481601715088e-01
-2.630839049816131592e-01
4.423394501209259033e-01
-4.203816652297973633e-01
4.721207916736602783e-01
3.111734092235565186e-01
2.489268928766250610e-01
-3.658792078495025635e-01
-3.029422760009765625e-01
-3.811801373958587646e-01
2.910378873348236084e-01
3.750798106193542480e-01
-6.166170537471771240e-02
-4.477083981037139893e-01
3.862373232841491699e-01
-8.880396187305450439e-02
-4.087533354759216309e-01
2.438187450170516968e-01
1.940870285034179688e-01
-4.068014323711395264e-01
-4.385614693164825439e-01
4.516815245151519775e-01
3.191877603530883789e-01
3.309697508811950684e-01
-3.787548542022705078e-01
2.863185405731201172e-01
1.904419213533401489e-01
-2.455647438764572144e-01
-3.015825748443603516e-01
-3.089241385459899902e-01
3.678607940673828125e-01
4.814524948596954346e-01
-4.217777848243713379e-01
3.611916899681091309e-01
4.178735911846160889e-01
3.111297488212585449e-01
2.725692391395568848e-01
4.977155327796936035e-01
-1.359307467937469482e-01
4.675293266773223877e-01
-4.458174705505371094e-01
3.070202469825744629e-01
-3.400521874427795410e-01
-2.905400395393371582e-01
3.859170377254486084e-01
1.516366750001907349e-01
2.145163565874099731e-01
4.757092595100402832e-01
-4.718006551265716553e-01
2.639559507369995117e-01
-4.222783744335174561e-01
-2.384988814592361450e-01
3.058259189128875732e-01
4.070045650005340576e-01
2.284612804651260376e-01
3.685650825500488281e-01
4.376151561737060547e-01
4.853643178939819336e-01
1.713967174291610718e-01
4.506562054157257080e-01
-2.819615304470062256e-01
4.073160886764526367e-01
-3.287693858146667480e-01
3.340485990047454834e-01
-4.844065010547637939e-01
5.170458555221557617e-01
4.613880813121795654e-01
4.566185176372528076e-01
4.880294501781463623e-01
2.309491932392120361e-01
3.019170463085174561e-01
-4.337548911571502686e-01
1.746449768543243408e-01
3.778464794158935547e-01
-3.677880465984344482e-01
2.574975788593292236e-01
3.660036921501159668e-01
3.372034430503845215e-01
5.059670209884643555e-01
-3.016750514507293701e-01
3.184414505958557129e-01
3.501709699630737305e-01
-1.291208863258361816e-01
2.691749632358551025e-01
3.944627940654754639e-01
4.139850735664367676e-01
3.917465209960937500e-01
4.154390394687652588e-01
4.618058800697326660e-01
-3.874694705009460449e-01
2.449225038290023804e-01
2.822802066802978516e-01
4.619863331317901611e-01
4.407487809658050537e-01
4.515225887298583984e-01
2.476808577775955200e-01
3.498688340187072754e-01
3.455901741981506348e-01
-3.200915157794952393e-01
7.330405712127685547e-02
2.787763476371765137e-01
3.369266092777252197e-01
3.363820612430572510e-01
-3.584787845611572266e-01
-2.749070525169372559e-01
4.582878649234771729e-01
3.272341787815093994e-01
-4.858158230781555176e-01
-2.530165910720825195e-01
4.788474738597869873e-01
-4.531745910644531250e-01
3.905383944511413574e-01
2.984166145324707031e-01
3.617663085460662842e-01
3.589918613433837891e-01
-3.426004946231842041e-01
3.554330468177795410e-01
-3.925777077674865723e-01
2.447793483734130859e-01
2.744353413581848145e-01
4.049357771873474121e-01
2.557191848754882812e-01
4.523914754390716553e-01
4.022317528724670410e-01
-2.833184301853179932e-01
-1.700296849012374878e-01
-3.672480583190917969e-01
5.842640250921249390e-02
3.856726586818695068e-01
-3.109521567821502686e-01
3.408134579658508301e-01
2.646542787551879883e-01
2.539335787296295166e-01
-3.692667782306671143e-01
3.009231984615325928e-01
-2.492278814315795898e-01
4.056718051433563232e-01
2.665390968322753906e-01
4.000646770000457764e-01
2.590185105800628662e-01
1.854858398437500000e-01
-4.404561221599578857e-01
-3.460229933261871338e-01
-3.902403414249420166e-01
2.753017246723175049e-01
-2.132760882377624512e-01
-3.000975251197814941e-01
3.832989931106567383e-01
4.972548186779022217e-01
3.399905562400817871e-01
3.992675244808197021e-01
3.260584175586700439e-01
3.758061230182647705e-01
4.686466753482818604e-01
3.669940233230590820e-01
3.211791515350341797e-01
3.954904079437255859e-01
-4.038346409797668457e-01
2.232883274555206299e-01
3.403814435005187988e-01
3.783138692378997803e-01
-1.539503335952758789e-01
1.032115668058395386e-01
4.475901722908020020e-01
-8.785770088434219360e-02
-3.862831592559814453e-01
2.767600417137145996e-01
-6.670715659856796265e-02
3.178132176399230957e-01
3.102214038372039795e-01
3.819164037704467773e-01
-4.265100061893463135e-01
2.368529886007308960e-01
