4.024938941001892090e-01
-3.940850868821144104e-02
-8.225963264703750610e-02
-7.393537461757659912e-02
-8.458005636930465698e-02
-5.517166480422019958e-02
-9.127064049243927002e-02
5.828915629535913467e-03
2.860845029354095459e-01
-6.877206265926361084e-02
-5.465069785714149475e-02
2.349550127983093262e-01
-6.762262433767318726e-02
-1.633050106465816498e-02
5.438534617424011230e-01
-5.952842533588409424e-02
1.383018046617507935e-01
4.551508277654647827e-02
-6.542826443910598755e-02
-4.223372787237167358e-02
-5.273523274809122086e-03
-4.778632894158363342e-02
-2.703138627111911774e-02
3.573540970683097839e-02
-8.360282331705093384e-02
-7.914089411497116089e-02
-7.862452417612075806e-02
-9.271556138992309570e-02
3.295925557613372803e-01
-1.686439216136932373e-01
-4.293819144368171692e-02
-3.019616194069385529e-02
2.483783811330795288e-01
4.134334921836853027e-01
-2.220422774553298950e-02
-5.777663551270961761e-03
3.660529479384422302e-02
7.813136279582977295e-02
-8.582489192485809326e-02
4.223965704441070557e-01
5.117144584655761719e-01
-6.628725677728652954e-02
-4.283053055405616760e-02
-7.433456182479858398e-02
-9.788212925195693970e-02
4.459994658827781677e-02
3.609524574130773544e-03
2.172194719314575195e-01
3.363629579544067383e-01
6.852094084024429321e-03
2.126436978578567505e-01
-8.064226061105728149e-02
-4.391307011246681213e-02
-2.381645888090133667e-02
-2.104680798947811127e-02
-1.034188345074653625e-01
-2.417468465864658356e-02
-4.028192907571792603e-02
2.038679271936416626e-02
-9.273131936788558960e-02
4.634669125080108643e-01
-6.441538780927658081e-02
-4.400890693068504333e-02
5.139731988310813904e-02
3.709369525313377380e-02
3.522016406059265137e-01
7.586285937577486038e-03
-3.658848628401756287e-02
2.015516608953475952e-01
-4.064651578664779663e-02
-5.273157358169555664e-02
-7.667642831802368164e-02
2.136546671390533447e-01
-6.394695490598678589e-02
-3.772531822323799133e-02
1.964677572250366211e-01
-7.010606676340103149e-02
-7.156109064817428589e-02
1.551741361618041992e-01
-1.805743202567100525e-02
-9.011816978454589844e-02
-7.319473475217819214e-02
4.363198950886726379e-02
-5.715292692184448242e-02
-5.394015833735466003e-02
1.213497854769229889e-02
-1.070931702852249146e-01
4.685050547122955322e-01
1.829815804958343506e-01
-1.062138471752405167e-02
2.042497508227825165e-02
1.253789812326431274e-01
-5.332574993371963501e-02
-5.414462462067604065e-02
-5.043737962841987610e-02
1.339052915573120117e-01
-4.217206314206123352e-02
-9.567911177873611450e-02
-7.069663703441619873e-02
-8.425609022378921509e-02
-1.107129007577896118e-01
-6.748926639556884766e-02
3.241209387779235840e-01
2.260460751131176949e-04
-7.738550007343292236e-02
-5.733200162649154663e-02
-9.956794232130050659e-02
-4.095886275172233582e-02
5.846512503921985626e-03
-9.726995229721069336e-02
-6.670994311571121216e-02
1.891689151525497437e-01
2.673133909702301025e-01
-7.706598192453384399e-02
-4.745592921972274780e-02
7.518134266138076782e-02
4.839785695075988770e-01
-1.089683249592781067e-01
1.323018223047256470e-01
-8.888480812311172485e-02
3.766201138496398926e-01
-2.505150064826011658e-02
-5.607707425951957703e-02
3.768442869186401367e-01
-1.022482141852378845e-01
-5.347154289484024048e-02
1.008428409695625305e-01
-7.258927077054977417e-02
-6.066134199500083923e-02
-5.528254061937332153e-02
2.721267640590667725e-01
-6.804627180099487305e-02
-1.514417529106140137e-01
-3.858577832579612732e-02
1.607469022274017334e-01
4.455084502696990967e-01
-6.663064658641815186e-02
1.078070998191833496e-01
-2.706336416304111481e-02
-8.072144538164138794e-02
3.470886498689651489e-02
-8.540516346693038940e-02
-4.823190718889236450e-02
2.023812681436538696e-01
-5.440456047654151917e-02
-1.470176968723535538e-02
3.524343967437744141e-01
-9.571024775505065918e-02
2.205281406641006470e-01
-2.565553039312362671e-02
-7.341194897890090942e-02
2.835485935211181641e-01
1.486544609069824219e-01
-1.165004894137382507e-01
-8.866003155708312988e-02
-6.560219079256057739e-02
-1.187841035425662994e-02
4.088482856750488281e-01
-6.461373716592788696e-02
9.636659175157546997e-02
3.789744526147842407e-02
5.040781572461128235e-02
2.251056954264640808e-02
-5.327562987804412842e-02
-5.435053259134292603e-02
1.775906048715114594e-02
-6.596164405345916748e-02
-6.749108433723449707e-02
-8.354271203279495239e-02
-2.898397110402584076e-02
2.637467682361602783e-01
-7.909712940454483032e-02
-9.324384480714797974e-02
-9.530349820852279663e-02
-2.429749071598052979e-02
-5.874693393707275391e-02
7.166658341884613037e-02
-4.869943484663963318e-02
1.069278419017791748e-01
-7.481902092695236206e-02
-9.729095548391342163e-02
-1.088476777076721191e-01
1.574381068348884583e-02
-5.312002077698707581e-02
2.469796314835548401e-02
-8.083605766296386719e-02
1.998833119869232178e-01
2.705665826797485352e-01
-1.721221022307872772e-02
6.035333871841430664e-01
-4.618556797504425049e-02
-5.913000553846359253e-02
5.267673986963927746e-05
-1.295312494039535522e-01
-1.804697676561772823e-03
-7.629005610942840576e-02
-7.630324363708496094e-02
1.681229285895824432e-02
-6.740422546863555908e-02
-3.593034669756889343e-02
-2.801895374432206154e-03
3.904069066047668457e-01
3.327159881591796875e-01
-1.807364076375961304e-02
-8.078637719154357910e-02
-7.401719689369201660e-02
-1.010805666446685791e-01
-7.482080906629562378e-02
-2.994476072490215302e-02
-6.085922941565513611e-02
-1.052394881844520569e-01
-9.274008870124816895e-02
2.022004425525665283e-01
-6.768663227558135986e-02
1.871170997619628906e-01
-5.481724441051483154e-02
-1.255068182945251465e-01
3.938054144382476807e-01
2.038318216800689697e-01
1.216408014297485352e-01
-5.628089979290962219e-02
-8.961071074008941650e-02
-5.345372855663299561e-02
-8.085697144269943237e-02
-5.793756991624832153e-02
4.530445113778114319e-02
-5.646591261029243469e-02
-9.141686558723449707e-02
-9.516321122646331787e-02
1.694143563508987427e-01
-7.492703199386596680e-02
-1.735996454954147339e-02
5.415357947349548340e-01
-6.758619099855422974e-02
-1.878938823938369751e-02
-7.185656577348709106e-02
5.390586853027343750e-01
-1.776706613600254059e-02
-5.161543935537338257e-02
-2.901202440261840820e-02
-5.687864869832992554e-02
-9.328918159008026123e-02
1.901218444108963013e-01
-5.816004797816276550e-02
-9.404572844505310059e-02
-4.880524054169654846e-02
-4.886783286929130554e-02
1.408425867557525635e-01
-8.342630416154861450e-02
4.090035259723663330e-01
-2.361037209630012512e-02
-3.490062057971954346e-02
-5.613617971539497375e-02
-7.049144059419631958e-02
4.290857817977666855e-03
-6.272020936012268066e-02
