-2.365159243345260620e-01
2.718206346035003662e-01
6.431201845407485962e-02
-7.964710891246795654e-02
-2.431288957595825195e-01
-1.532797366380691528e-01
2.782380282878875732e-01
-2.247424274682998657e-01
5.562779307365417480e-02
-2.168400883674621582e-01
2.167346775531768799e-01
-3.498970866203308105e-01
-4.404933750629425049e-02
-1.354372352361679077e-01
-1.562809497117996216e-01
-1.331799030303955078e-01
-2.612767815589904785e-01
-2.149685323238372803e-01
1.232823282480239868e-01
-6.251052021980285645e-02
-1.575493514537811279e-01
-2.184298783540725708e-01
1.998514086008071899e-01
-5.892616137862205505e-02
-9.678393602371215820e-02
-2.971014082431793213e-01
-1.268462836742401123e-01
5.062285810708999634e-02
8.618569374084472656e-02
-3.538085818290710449e-01
-1.446198523044586182e-01
6.182784587144851685e-02
9.002705919556319714e-04
9.313058853149414062e-02
1.724388822913169861e-02
-1.237495392560958862e-01
2.110738493502140045e-02
1.955264657735824585e-01
-1.851926743984222412e-01
1.162316575646400452e-01
-1.276344656944274902e-01
2.544468827545642853e-02
6.450066715478897095e-02
-1.057459507137537003e-02
-2.040048092603683472e-01
-2.537900805473327637e-01
-2.182243391871452332e-02
8.870271593332290649e-02
1.652258932590484619e-01
-6.323444843292236328e-02
-1.534122377634048462e-01
1.079194620251655579e-01
-9.523858875036239624e-02
1.326704174280166626e-01
2.445222437381744385e-01
-3.954654633998870850e-01
1.554198656231164932e-02
-4.249982163310050964e-02
6.418550759553909302e-02
-2.499834448099136353e-02
-3.756267949938774109e-02
-2.048252820968627930e-01
-7.221472263336181641e-02
8.188341557979583740e-02
-3.113574087619781494e-01
-1.162981837987899780e-01
-1.681904494762420654e-01
-8.488122373819351196e-02
-2.713356018066406250e-01
-1.010886505246162415e-01
-6.446241401135921478e-03
-1.007193401455879211e-01
-1.185602024197578430e-01
-3.235133737325668335e-02
-1.674364954233169556e-01
1.909746229648590088e-01
-3.292487934231758118e-02
7.369238138198852539e-02
-9.491971880197525024e-02
3.914504125714302063e-02
8.108715713024139404e-02
-3.013588674366474152e-02
-2.204308509826660156e-01
-1.805554628372192383e-01
1.044870726764202118e-02
-1.054878905415534973e-01
1.247101351618766785e-01
1.058381870388984680e-01
-2.884395420551300049e-01
1.873704046010971069e-01
1.595687866210937500e-01
2.032172679901123047e-01
-1.395993232727050781e-01
-6.048634052276611328e-01
-9.887018799781799316e-02
-2.894411981105804443e-01
-4.092800915241241455e-01
4.214905202388763428e-03
-1.148201227188110352e-01
-1.868342310190200806e-01
4.575925320386886597e-02
-3.255868554115295410e-01
-1.167376339435577393e-01
5.909879505634307861e-02
3.129762038588523865e-02
-2.428535930812358856e-02
3.902992233633995056e-02
6.079878658056259155e-02
-3.327652066946029663e-02
-1.776992678642272949e-01
-1.886497996747493744e-02
-7.384021580219268799e-02
-2.858623629435896873e-04
-1.242344751954078674e-01
6.642975658178329468e-02
-1.913676410913467407e-01
-3.643963336944580078e-01
1.947792470455169678e-01
-9.516619145870208740e-02
7.938878238201141357e-02
-1.517215669155120850e-01
-9.422320127487182617e-02
-1.518930345773696899e-01
1.684089601039886475e-01
-2.283878438174724579e-02
-2.421539276838302612e-01
-1.614155918359756470e-01
-1.283357590436935425e-01
-2.769041657447814941e-01
2.074753344058990479e-01
1.258528083562850952e-01
2.588102594017982483e-02
-1.002011373639106750e-01
2.290496416389942169e-02
-2.875943183898925781e-01
-7.870987057685852051e-02
-3.093475401401519775e-01
-4.154741764068603516e-01
1.239364445209503174e-01
1.854756921529769897e-01
-3.800458014011383057e-01
-2.503580413758754730e-02
-4.203606247901916504e-01
-2.911510467529296875e-01
-1.132493317127227783e-01
-1.760569661855697632e-01
-8.909978717565536499e-02
-9.933141618967056274e-02
-1.422322094440460205e-01
-1.272541284561157227e-01
2.640083730220794678e-01
-6.445675343275070190e-02
-1.468742042779922485e-01
3.050171434879302979e-01
-4.959250614047050476e-02
-1.160115674138069153e-01
2.366957068443298340e-01
-3.098063468933105469e-01
-2.308340519666671753e-01
1.592148989439010620e-01
-3.693734407424926758e-01
1.434233039617538452e-01
-2.690361440181732178e-01
2.462079981341958046e-03
7.896611839532852173e-02
-4.813058301806449890e-02
1.226232647895812988e-01
5.432508513331413269e-02
-1.002254039049148560e-01
6.116051226854324341e-02
1.789579167962074280e-02
-5.182985961437225342e-02
1.021396666765213013e-01
-9.637790173292160034e-02
2.555354237556457520e-01
1.537529099732637405e-02
9.950644336640834808e-03
-2.638996243476867676e-01
-2.572719752788543701e-01
-5.453623086214065552e-02
-1.145611852407455444e-01
-3.654696941375732422e-01
-6.110705137252807617e-01
-6.746677309274673462e-02
-2.018568068742752075e-01
-3.197668790817260742e-01
-4.329441115260124207e-02
2.119671925902366638e-02
-1.748596578836441040e-01
1.724096946418285370e-02
1.031782105565071106e-01
-1.095273569226264954e-01
-5.181291326880455017e-02
1.135900393128395081e-01
-1.601237952709197998e-01
-1.150113269686698914e-01
-5.413479208946228027e-01
-4.461583197116851807e-01
-1.020515114068984985e-01
-9.353337436914443970e-02
7.796478271484375000e-02
-2.046015560626983643e-01
7.677993923425674438e-02
-8.848347514867782593e-02
1.810083165764808655e-02
-9.636787325143814087e-02
-4.850566983222961426e-01
-1.795426458120346069e-01
9.384049102663993835e-03
-2.246025763452053070e-02
-4.971027746796607971e-02
9.228408336639404297e-03
8.487098664045333862e-02
-1.195282787084579468e-01
1.150373220443725586e-01
-3.517379164695739746e-01
-2.914165332913398743e-02
8.534064143896102905e-02
1.787453591823577881e-01
-4.826107621192932129e-01
-3.641954809427261353e-02
-1.492223888635635376e-01
2.338319420814514160e-01
-1.438349038362503052e-01
-6.799106299877166748e-02
-2.982625365257263184e-01
-1.696624755859375000e-01
-6.652241945266723633e-02
-4.437530413269996643e-03
2.791025489568710327e-02
-2.119027823209762573e-01
-3.231837749481201172e-01
8.989657461643218994e-02
-2.288381308317184448e-01
-3.185846209526062012e-01
5.240483954548835754e-02
1.604114025831222534e-01
2.347467280924320221e-02
4.371731355786323547e-02
-1.997443735599517822e-01
-7.878013700246810913e-02
7.865086197853088379e-02
1.703505665063858032e-01
-2.376626133918762207e-01
-5.902894958853721619e-02
-2.783545851707458496e-01
1.061328798532485962e-01
3.625934123992919922e-01
-1.030377969145774841e-01
-1.170122101902961731e-01
-9.297905862331390381e-02
-4.467809200286865234e-02
-1.479457616806030273e-01
-1.454973071813583374e-01
-1.479744464159011841e-01
-9.728980809450149536e-02
