-4.907118156552314758e-02
-8.027310669422149658e-02
-1.504817306995391846e-01
-3.943528234958648682e-02
-2.756516337394714355e-01
7.338631153106689453e-02
7.570759952068328857e-02
-3.754290938377380371e-01
1.089941263198852539e-01
7.882305234670639038e-02
2.086641490459442139e-01
-2.241618484258651733e-01
-1.922557875514030457e-02
-6.042821705341339111e-02
1.000131219625473022e-01
3.453344851732254028e-02
-2.866077609360218048e-02
2.078274451196193695e-02
-1.255428791046142578e-01
-2.712329290807247162e-02
9.540083259344100952e-02
4.001862369477748871e-03
-1.220810934901237488e-01
-1.548182070255279541e-01
-1.961233019828796387e-01
1.168608432635664940e-03
-9.537680447101593018e-02
3.114455565810203552e-02
7.631903141736984253e-02
7.435472309589385986e-02
1.413716226816177368e-01
1.247820928692817688e-01
-1.312529742717742920e-01
-8.390310406684875488e-02
-1.126329079270362854e-01
2.669005393981933594e-01
9.026825428009033203e-02
-9.990317746996879578e-03
-6.606371700763702393e-02
-4.774652421474456787e-02
3.105779550969600677e-02
-2.175878137350082397e-01
2.336942404508590698e-02
-4.195179939270019531e-01
-1.083983331918716431e-01
-1.598485396243631840e-03
-1.533621996641159058e-01
1.510920077562332153e-01
-1.351799666881561279e-01
-4.299329966306686401e-02
-1.492731124162673950e-01
-1.606711745262145996e-01
-3.682322800159454346e-02
-7.166692614555358887e-02
-8.131550252437591553e-02
-1.758539825677871704e-01
3.461849689483642578e-02
-1.401679217815399170e-01
-9.632481634616851807e-02
8.186712116003036499e-02
-1.339357048273086548e-01
-1.999392807483673096e-01
-1.241154223680496216e-02
-3.774093389511108398e-01
-5.218998063355684280e-03
1.276206374168395996e-01
1.126300729811191559e-02
-3.032342903316020966e-02
-1.070808172225952148e-01
-2.837456464767456055e-01
4.281371831893920898e-02
-2.024616003036499023e-01
-4.093240015208721161e-03
1.956654638051986694e-01
-9.784115478396415710e-03
2.070588767528533936e-01
2.543257474899291992e-01
-8.640881627798080444e-02
1.642903536558151245e-01
1.250634044408798218e-01
5.582795478403568268e-03
-6.340724229812622070e-02
8.905866742134094238e-02
-3.471390306949615479e-01
7.911841571331024170e-02
1.857310235500335693e-01
1.738878786563873291e-01
5.699486006051301956e-03
-2.877164483070373535e-01
3.793318057432770729e-03
-2.658006846904754639e-01
-1.805098056793212891e-01
3.917666897177696228e-02
-2.556669116020202637e-01
1.349633932113647461e-01
7.464777678251266479e-02
-1.538410037755966187e-01
-3.411412835121154785e-01
2.032132744789123535e-01
7.435915619134902954e-02
2.219656556844711304e-01
-7.763335853815078735e-02
-1.271343380212783813e-01
8.390017598867416382e-02
-1.800682023167610168e-02
-2.549688518047332764e-01
-4.219615086913108826e-02
9.760596789419651031e-03
3.544176369905471802e-02
-3.381715118885040283e-01
1.277016699314117432e-01
-4.281601309776306152e-02
-3.499239981174468994e-01
1.545366793870925903e-01
-1.636645942926406860e-01
5.548347905278205872e-02
-1.492676287889480591e-01
1.458802632987499237e-02
6.406703591346740723e-02
1.902589350938796997e-01
-1.450835615396499634e-01
-2.694711685180664062e-01
-3.604623973369598389e-01
2.041154354810714722e-01
2.039522677659988403e-02
-1.004772260785102844e-01
2.592254616320133209e-02
-1.084998026490211487e-01
-1.855708509683609009e-01
-1.174639761447906494e-01
-1.210568100214004517e-01
9.266803413629531860e-02
1.483119558542966843e-02
-2.329227328300476074e-02
-9.006151556968688965e-02
4.423581063747406006e-03
-9.176833927631378174e-02
4.472612962126731873e-02
-1.763241365551948547e-02
1.249704509973526001e-01
9.661982767283916473e-03
-1.330026239156723022e-01
-3.164555132389068604e-01
-1.026781871914863586e-01
8.929208852350711823e-03
-8.567395061254501343e-02
1.138147935271263123e-01
6.853144615888595581e-02
-1.968229264020919800e-01
-1.680252701044082642e-01
-2.272472344338893890e-02
-2.927153706550598145e-01
2.574737183749675751e-02
1.496406942605972290e-01
1.910390555858612061e-01
-2.738772630691528320e-01
1.094676330685615540e-01
-8.286696672439575195e-02
-1.706277877092361450e-01
2.509221993386745453e-02
3.728906437754631042e-02
-2.481855303049087524e-01
-7.368373125791549683e-02
-6.625671684741973877e-02
-5.812876299023628235e-02
6.024135649204254150e-02
-2.926667928695678711e-01
-5.838875845074653625e-02
-1.672447472810745239e-01
-1.789900660514831543e-01
1.735751926898956299e-01
1.577872224152088165e-02
-1.102489233016967773e-01
2.020881697535514832e-02
-2.002951316535472870e-02
-4.100365340709686279e-01
-1.124040856957435608e-01
-7.778757810592651367e-02
2.745236754417419434e-01
-4.930275492370128632e-03
-6.362838204950094223e-03
1.204836070537567139e-01
-1.438658088445663452e-01
-1.387865934520959854e-02
1.108381077647209167e-01
-3.103474378585815430e-01
-1.496756672859191895e-01
-1.621312350034713745e-01
-6.231268122792243958e-02
-4.262499883770942688e-02
-4.082674384117126465e-01
-5.257184803485870361e-02
-9.622204303741455078e-02
-1.755631417036056519e-01
-2.655493319034576416e-01
-7.463996857404708862e-02
-8.077114820480346680e-02
7.892668992280960083e-02
1.384629607200622559e-01
-1.456636637449264526e-01
-9.577673673629760742e-02
2.561810314655303955e-01
-1.355138421058654785e-02
2.195965498685836792e-01
9.006071090698242188e-02
-2.547214627265930176e-01
-1.726878136396408081e-01
1.227128580212593079e-01
1.250716000795364380e-01
-3.590773418545722961e-02
3.448784723877906799e-02
9.037286788225173950e-02
-2.181636542081832886e-01
1.766607910394668579e-02
-2.148536965250968933e-02
-1.299232542514801025e-01
8.403877168893814087e-02
-2.760827243328094482e-01
2.064973562955856323e-01
-1.434580683708190918e-01
1.494652871042490005e-02
-5.319037660956382751e-02
-2.295951358973979950e-02
-4.955093190073966980e-02
2.276968806982040405e-01
-3.539999946951866150e-02
3.853420913219451904e-02
-1.174690946936607361e-02
-2.558954954147338867e-01
1.075117737054824829e-01
-9.960158169269561768e-02
-2.232340276241302490e-01
-7.294698059558868408e-02
1.151244044303894043e-01
1.928085237741470337e-01
-2.392053157091140747e-01
6.419862061738967896e-02
-2.083884626626968384e-01
2.521324157714843750e-01
3.641004487872123718e-02
-9.153795242309570312e-02
-2.138807922601699829e-01
-1.155198812484741211e-01
2.291187196969985962e-01
3.442826867103576660e-01
-2.456517666578292847e-01
-8.222511038184165955e-03
8.765951544046401978e-02
-7.597346603870391846e-02
-3.074252419173717499e-02
1.107493489980697632e-01
7.872036844491958618e-02
-1.675415635108947754e-01
-2.027517184615135193e-02
3.753448277711868286e-02
6.445388495922088623e-02
