-3.045082986354827881e-01
2.526858747005462646e-01
-1.992091722786426544e-02
5.157364159822463989e-02
-4.146754145622253418e-01
8.461166918277740479e-02
4.141588509082794189e-01
1.251985579729080200e-01
-5.008819103240966797e-01
2.722696661949157715e-01
-1.124882102012634277e-01
-3.632403537631034851e-02
7.387802749872207642e-02
-5.050666332244873047e-01
-3.538232743740081787e-01
-4.643114209175109863e-01
4.353760927915573120e-02
2.401855587959289551e-01
-4.219007492065429688e-01
-6.117275357246398926e-02
2.856836616992950439e-01
1.989482939243316650e-01
-5.009449720382690430e-01
-2.971784174442291260e-01
-2.672383375465869904e-02
-5.854704231023788452e-02
2.379285544157028198e-01
-2.098588496446609497e-01
2.309195548295974731e-01
-4.606779515743255615e-01
-2.825852856040000916e-02
-2.128202468156814575e-01
1.986950188875198364e-01
-1.589776128530502319e-01
-1.818889528512954712e-01
-2.145627290010452271e-01
2.319960147142410278e-01
-3.584567010402679443e-01
-5.758594274520874023e-01
-1.895017176866531372e-01
-1.450045406818389893e-01
1.307369172573089600e-01
3.121140897274017334e-01
-4.828956127166748047e-01
-3.649329543113708496e-01
-1.928685456514358521e-01
1.217127144336700439e-01
-3.375131487846374512e-01
2.076338231563568115e-01
-3.478129580616950989e-02
2.019316405057907104e-01
3.604473471641540527e-01
-5.316880345344543457e-01
3.166546523571014404e-01
3.547751307487487793e-01
-1.588033139705657959e-01
-1.706844079308211803e-03
5.938109382987022400e-02
3.837056457996368408e-01
3.524562343955039978e-02
-7.346068322658538818e-02
6.982903182506561279e-02
3.891316354274749756e-01
-4.512559771537780762e-01
-5.946919322013854980e-01
9.100012481212615967e-03
3.819261491298675537e-01
2.677532136440277100e-01
2.689871490001678467e-01
-2.756823003292083740e-01
-3.320108056068420410e-01
-6.251449882984161377e-02
-3.873827680945396423e-02
3.645893335342407227e-01
-1.862027943134307861e-01
-1.312818974256515503e-01
-9.954041242599487305e-02
-6.547649204730987549e-02
-6.513752788305282593e-02
-4.967555776238441467e-02
2.895464897155761719e-01
-4.939093440771102905e-02
-3.607918620109558105e-01
-3.227668404579162598e-01
-4.677004814147949219e-01
3.666101694107055664e-01
-4.048358798027038574e-01
1.869484595954418182e-02
3.173733949661254883e-01
-1.439850628376007080e-01
-5.291804671287536621e-01
-1.804884672164916992e-01
-2.946793138980865479e-01
4.867566749453544617e-02
-2.979354262351989746e-01
1.767990887165069580e-01
-3.588078320026397705e-01
-3.288241028785705566e-01
2.183029428124427795e-02
2.635726891458034515e-02
2.792303860187530518e-01
-3.774624764919281006e-01
-2.642730176448822021e-01
-2.232928127050399780e-01
2.396174520254135132e-01
2.367630004882812500e-01
-2.171315699815750122e-01
5.143833532929420471e-02
-1.560506522655487061e-01
-3.082936704158782959e-01
-4.609217941761016846e-01
3.932137787342071533e-01
-1.161523908376693726e-01
-4.847626984119415283e-01
1.259052455425262451e-01
3.056354587897658348e-03
-3.808746337890625000e-01
-2.908547520637512207e-01
-3.120442926883697510e-01
7.117670029401779175e-02
6.865861266851425171e-02
-4.194003716111183167e-02
-1.003351658582687378e-01
1.735228747129440308e-01
-1.905664205551147461e-01
1.231156140565872192e-01
1.819569766521453857e-01
1.532540619373321533e-01
-7.825727760791778564e-02
-2.672151327133178711e-01
-4.210827350616455078e-01
-1.604468524456024170e-01
1.236591190099716187e-01
-3.103756010532379150e-01
-5.583284050226211548e-02
-3.545165956020355225e-01
-1.288209557533264160e-01
-3.154829740524291992e-01
1.416318267583847046e-01
1.826693564653396606e-01
-1.674175411462783813e-01
1.489185690879821777e-01
5.061732605099678040e-02
-4.399603977799415588e-02
-8.336353302001953125e-02
3.946152329444885254e-01
-1.229687258601188660e-01
2.171749472618103027e-01
-1.509693711996078491e-01
2.118843048810958862e-01
2.625303342938423157e-02
-1.712179332971572876e-01
-9.156136959791183472e-02
-3.187980353832244873e-01
-1.361796399578452110e-03
-1.662490367889404297e-01
1.504183709621429443e-01
-1.386482268571853638e-01
3.497613072395324707e-01
-4.783410578966140747e-03
-4.045874476432800293e-01
-4.331888556480407715e-01
-1.724707633256912231e-01
1.750263273715972900e-01
1.904579848051071167e-01
-1.973172724246978760e-01
-1.700601875782012939e-01
-2.197345197200775146e-01
9.097348153591156006e-02
7.339807599782943726e-02
-3.772822618484497070e-01
6.829999387264251709e-02
-1.562038511037826538e-01
3.291471898555755615e-01
-3.861820101737976074e-01
-3.757195770740509033e-01
-2.391898930072784424e-01
-8.981036394834518433e-02
3.072169609367847443e-02
-3.728159368038177490e-01
-2.034099102020263672e-01
-2.086075842380523682e-01
-4.193421900272369385e-01
2.319637089967727661e-01
1.876202225685119629e-01
-7.525698840618133545e-02
3.501544296741485596e-01
2.382765412330627441e-01
-1.595399528741836548e-01
-2.592221796512603760e-01
-1.737589836120605469e-01
3.675737380981445312e-01
-3.219907581806182861e-01
-5.324143916368484497e-02
1.194345280528068542e-01
-1.007961481809616089e-01
3.744518458843231201e-01
1.592105068266391754e-02
6.166641414165496826e-02
-5.034873485565185547e-01
-4.427184909582138062e-02
-1.190130412578582764e-01
-1.727544814348220825e-01
-4.133307933807373047e-01
1.485884934663772583e-01
-1.419309675693511963e-01
-3.891420960426330566e-01
1.164231970906257629e-01
2.400787621736526489e-01
-5.759780853986740112e-02
2.307684868574142456e-01
4.932671785354614258e-01
-3.470755517482757568e-01
1.606960892677307129e-01
3.605518937110900879e-01
-2.396057173609733582e-02
4.173696041107177734e-01
4.109474718570709229e-01
-1.831317506730556488e-02
-8.133674971759319305e-03
3.402804136276245117e-01
-4.994603991508483887e-01
-1.581441611051559448e-01
4.307602345943450928e-02
-1.412156969308853149e-01
4.049276113510131836e-01
-3.661752641201019287e-01
-5.470852255821228027e-01
-6.568575501441955566e-01
-2.867087125778198242e-01
1.024968996644020081e-01
-1.854665130376815796e-01
-3.917705416679382324e-01
1.235774904489517212e-01
1.373814940452575684e-01
-4.458481371402740479e-01
5.784298479557037354e-02
3.618589937686920166e-01
1.307153403759002686e-01
4.168531596660614014e-01
-2.664919495582580566e-01
-7.169456034898757935e-02
1.732625067234039307e-01
-1.894396990537643433e-01
-3.001572191715240479e-01
-1.270069777965545654e-01
5.611795186996459961e-02
2.974263019859790802e-02
-4.997288882732391357e-01
-3.862385153770446777e-01
1.153992265462875366e-01
2.947843372821807861e-01
-2.912888228893280029e-01
-4.555558860301971436e-01
2.192295938730239868e-01
-1.097845584154129028e-01
