2.876871638000011444e-02
1.709256507456302643e-02
-1.276397146284580231e-02
-5.043497309088706970e-03
3.841934376396238804e-04
-4.080542421434074640e-04
2.981063909828662872e-03
-9.467907249927520752e-03
-6.051885336637496948e-02
4.369049798697233200e-03
-4.744344949722290039e-02
-3.873092820867896080e-03
-1.031762547791004181e-02
-2.124501205980777740e-02
4.913729429244995117e-02
-4.548817127943038940e-02
-2.338084019720554352e-02
-6.102943327277898788e-03
3.866878151893615723e-02
-3.530933707952499390e-02
-1.537316478788852692e-02
-4.685482010245323181e-03
-7.423266652040183544e-04
-1.829272694885730743e-02
-1.154206600040197372e-02
4.570468515157699585e-02
-3.672482445836067200e-02
-9.088733932003378868e-04
2.608334273099899292e-02
3.655111650004982948e-03
-1.185538480058312416e-03
3.620884567499160767e-02
-9.728721342980861664e-03
-1.592572778463363647e-02
9.539542719721794128e-03
1.575917121954262257e-03
1.708780974149703979e-02
1.904728077352046967e-02
-1.116628386080265045e-02
5.095386132597923279e-02
1.900409115478396416e-03
2.537556737661361694e-02
-2.299978770315647125e-02
4.334255587309598923e-03
1.710186339914798737e-02
-1.752542681060731411e-03
4.383259266614913940e-02
7.338488358072936535e-04
-7.877631112933158875e-03
-1.566751115024089813e-02
-1.390603021718561649e-03
3.074639663100242615e-02
-5.165963992476463318e-02
7.224614731967449188e-03
-3.274853108450770378e-03
-4.187966138124465942e-02
1.724805869162082672e-02
2.517678029835224152e-02
-1.478983927518129349e-02
-2.401432022452354431e-02
-2.433198317885398865e-02
2.935804193839430809e-03
3.878423944115638733e-02
-3.359845653176307678e-02
-1.824747025966644287e-02
2.306986413896083832e-02
2.240930311381816864e-02
-2.365791983902454376e-02
1.458718813955783844e-02
1.072594895958900452e-02
-8.253963664174079895e-03
-4.238472133874893188e-02
-9.098358452320098877e-03
8.383862674236297607e-03
-1.896606758236885071e-02
3.093035193160176277e-03
-2.431875094771385193e-02
-2.258391864597797394e-02
-1.884500682353973389e-02
2.322631888091564178e-02
7.273721043020486832e-03
1.658407039940357208e-02
-2.508845413103699684e-03
5.881484597921371460e-03
-3.860676893964409828e-03
-3.860868141055107117e-02
-7.589017041027545929e-03
-2.772539667785167694e-02
-2.198787406086921692e-02
1.552969682961702347e-03
-1.205531600862741470e-02
3.295139595866203308e-02
3.404244408011436462e-02
-6.537156179547309875e-03
-2.538657560944557190e-02
3.161707147955894470e-02
4.444747045636177063e-02
3.084833035245537758e-03
6.091468967497348785e-04
-6.939646787941455841e-03
2.086413651704788208e-02
3.957468643784523010e-02
-3.707627998664975166e-03
1.855594106018543243e-03
5.820978805422782898e-02
-1.772447675466537476e-02
-4.478098358958959579e-03
-1.012847013771533966e-02
1.758943311870098114e-02
-6.044420599937438965e-02
-3.760943934321403503e-02
-2.152641117572784424e-02
3.044288605451583862e-02
-1.412439066916704178e-02
-4.813901335000991821e-02
-2.060743048787117004e-02
-1.661117770709097385e-03
4.021222144365310669e-02
-2.412286959588527679e-02
-6.351190619170665741e-03
-2.327154017984867096e-02
2.132720313966274261e-02
4.555905610322952271e-02
4.817877430468797684e-03
-2.022843621671199799e-02
1.059479196555912495e-03
1.977017149329185486e-03
9.823706932365894318e-03
-8.671513758599758148e-03
3.222487634047865868e-03
8.197547867894172668e-03
4.982923157513141632e-03
-1.944110495969653130e-03
-3.353483602404594421e-02
-4.634685441851615906e-02
-8.960335515439510345e-03
-2.175777032971382141e-02
1.142729446291923523e-02
-5.108909099362790585e-04
-2.741009928286075592e-02
2.415660768747329712e-02
4.684994369745254517e-02
1.114273327402770519e-03
9.209243580698966980e-03
-3.128399327397346497e-02
7.487367838621139526e-03
-3.693426260724663734e-03
1.415704190731048584e-02
2.312541007995605469e-02
1.883072406053543091e-02
5.572174675762653351e-03
3.915337845683097839e-03
1.366338413208723068e-02
2.164640277624130249e-02
1.373766805045306683e-03
4.749685525894165039e-03
9.098387323319911957e-03
-2.941274642944335938e-02
-3.535900264978408813e-02
-1.477917004376649857e-02
-6.827740464359521866e-03
3.439162671566009521e-02
6.777090951800346375e-03
3.438013792037963867e-02
-4.081630334258079529e-02
1.239441242069005966e-02
-4.540054127573966980e-02
1.063132658600807190e-02
4.682695958763360977e-03
-2.828521654009819031e-02
3.539262339472770691e-02
2.309916540980339050e-02
-4.380027204751968384e-02
3.266306966543197632e-02
-2.192970924079418182e-02
-2.062461338937282562e-02
-1.658389228396117687e-03
-1.904166676104068756e-02
-8.571262471377849579e-03
2.660353668034076691e-02
3.111751750111579895e-03
-1.125983707606792450e-02
6.074167322367429733e-04
-3.445922583341598511e-02
-1.078156381845474243e-02
-1.776061602868139744e-03
8.547232486307621002e-03
9.010859765112400055e-03
3.865163773298263550e-02
1.259369193576276302e-03
1.091562956571578979e-02
8.303643204271793365e-03
-1.262743864208459854e-02
-3.310348466038703918e-02
-2.251099608838558197e-02
-5.137411877512931824e-02
2.829227969050407410e-02
-3.169013559818267822e-02
9.025037288665771484e-03
-9.613121859729290009e-03
-1.846740394830703735e-02
6.164099276065826416e-02
3.396695852279663086e-02
7.013900578022003174e-02
-3.180574998259544373e-02
-1.499791722744703293e-02
3.582463786005973816e-02
-6.295115221291780472e-03
-2.306410111486911774e-02
-1.585946790874004364e-02
-3.025325573980808258e-02
-9.467223659157752991e-03
-1.630905270576477051e-02
-2.667795494198799133e-02
1.143680792301893234e-02
-2.323689684271812439e-02
-4.324385151267051697e-02
-1.926214247941970825e-02
-2.722678706049919128e-02
6.241468712687492371e-03
1.763305999338626862e-02
1.343419682234525681e-02
2.004060195758938789e-03
-1.223996933549642563e-02
1.898739486932754517e-02
-4.550433717668056488e-03
6.924137705937027931e-04
9.217254817485809326e-03
1.305290590971708298e-02
3.651579469442367554e-02
7.328515406697988510e-03
-2.428398467600345612e-02
-1.835487596690654755e-02
1.654835976660251617e-02
-1.661423034965991974e-02
-3.078451193869113922e-02
-9.696258231997489929e-03
7.844477891921997070e-03
-3.641287237405776978e-02
-1.215998549014329910e-02
1.102687558159232140e-03
3.154118359088897705e-02
-1.214933115988969803e-03
3.225976973772048950e-02
-1.948446221649646759e-02
1.014403160661458969e-02
-1.878108456730842590e-02
-7.091321982443332672e-03
-2.581001073122024536e-02
-2.125002071261405945e-02
-1.466400641947984695e-02
6.722441408783197403e-03
8.122918196022510529e-03
4.281740263104438782e-02
-2.576150558888912201e-02
2.906775288283824921e-02
