8.761577308177947998e-02 -1.374118626117706299e-01 9.941815584897994995e-02 -3.695130944252014160e-01 2.848081290721893311e-01 -2.051856070756912231e-01 3.066965937614440918e-01 1.178785488009452820e-01 3.687425702810287476e-02 -3.418763577938079834e-01 -3.402357921004295349e-02 -5.969282239675521851e-03 2.538362890481948853e-02 3.437523916363716125e-02 -1.094276830554008484e-01 -5.121557787060737610e-02 -4.606229960918426514e-01 4.194893687963485718e-02 2.736083464697003365e-03 1.733506321907043457e-01 2.040834724903106689e-02 2.009015828371047974e-01 1.057561039924621582e-01 1.496379673480987549e-01 6.377924233675003052e-02 -1.305214762687683105e-01 3.222658112645149231e-02 -9.045497514307498932e-03 1.321139782667160034e-01 5.737715214490890503e-02 -2.498333603143692017e-01 -2.391311675310134888e-01 -2.680355012416839600e-01 7.760309614241123199e-03 -4.736546427011489868e-02 -2.324266880750656128e-01 -1.014054715633392334e-01 -5.345623008906841278e-03 1.209964230656623840e-01 -1.484127044677734375e-01 -3.035243153572082520e-01 -6.663651764392852783e-02 1.007686108350753784e-01 2.349610328674316406e-01 -1.355281285941600800e-02 -9.601492434740066528e-02 -7.566308975219726562e-02 -8.714713156223297119e-02 1.755119413137435913e-01 -1.518676429986953735e-01 5.317133665084838867e-02 4.320846498012542725e-02 3.473538532853126526e-02 8.494342118501663208e-02 1.854727268218994141e-01 1.543504893779754639e-01 4.374078512191772461e-01 -2.970112860202789307e-02 -3.249936997890472412e-01 3.077811300754547119e-01 9.250329434871673584e-02 -5.690558999776840210e-02 -1.070161443203687668e-02 -1.031770333647727966e-01 -1.918126940727233887e-01 -6.463538855314254761e-02 1.508170962333679199e-01 1.496309489011764526e-01 -5.098387226462364197e-02 -1.833820343017578125e-02
6.745433807373046875e-02 7.954587787389755249e-02 1.408811360597610474e-01 1.327786594629287720e-01 -7.424873858690261841e-02 -8.970049768686294556e-02 -1.264855861663818359e-01 -2.984483838081359863e-01 8.380464464426040649e-02 1.914336532354354858e-01 1.501714345067739487e-02 1.834079995751380920e-02 7.512968033552169800e-02 -8.521156758069992065e-02 -1.051666215062141418e-02 5.327461361885070801e-01 -2.192241698503494263e-01 1.973804682493209839e-01 -3.648636639118194580e-01 -8.412964642047882080e-03 4.099088907241821289e-02 1.559258252382278442e-02 2.029687911272048950e-01 2.091040909290313721e-01 1.250968724489212036e-01 1.539213359355926514e-01 3.109182417392730713e-01 1.864554286003112793e-01 4.526072368025779724e-02 1.095214560627937317e-01 -5.819673184305429459e-03 8.686316013336181641e-02 4.300602711737155914e-03 9.421628713607788086e-02 3.821169212460517883e-02 3.364538401365280151e-02 4.498873651027679443e-02 -2.132124751806259155e-01 -1.599089205265045166e-01 -1.609620600938796997e-01 5.355479940772056580e-02 -4.795325919985771179e-02 -2.060665488243103027e-01 1.334141998086124659e-04 -4.592459276318550110e-02 -8.934530615806579590e-02 -3.645410761237144470e-02 7.670261710882186890e-02 3.971858024597167969e-01 -5.795209482312202454e-02 1.039643771946430206e-02 -1.420322805643081665e-01 5.995363369584083557e-02 -4.124305397272109985e-02 -3.172816708683967590e-02 -1.703849583864212036e-01 1.040187105536460876e-01 9.883225709199905396e-02 2.902758307754993439e-02 -4.603669047355651855e-02 1.745362281799316406e-01 2.321914024651050568e-02 1.379789710044860840e-01 1.907452493906021118e-01 2.711906135082244873e-01 -1.015617027878761292e-01 4.642404913902282715e-01 -1.867299079895019531e-01 -1.262664198875427246e-01 -7.188069820404052734e-02
1.467442065477371216e-01 -1.469632834196090698e-01 -2.194041162729263306e-01 6.039168313145637512e-02 -7.791627198457717896e-02 5.512484814971685410e-03 1.003677397966384888e-01 -1.831856220960617065e-01 -2.266499847173690796e-01 1.260178536176681519e-01 -7.370512187480926514e-02 1.559623926877975464e-01 1.955986768007278442e-01 -6.880250573158264160e-02 -1.147516071796417236e-02 1.536294668912887573e-01 -4.801211357116699219e-01 8.258689939975738525e-02 2.324045300483703613e-01 2.028184980154037476e-01 -8.123232424259185791e-02 -4.334202781319618225e-02 1.920666545629501343e-02 -2.295810170471668243e-02 -2.426408678293228149e-01 1.641364991664886475e-01 -1.293565183877944946e-01 6.902211904525756836e-02 -1.377363204956054688e-01 5.129958689212799072e-02 7.784948498010635376e-02 -6.284096091985702515e-02 9.647741913795471191e-02 3.506637737154960632e-02 -8.156678825616836548e-02 -1.448439955711364746e-01 2.114108577370643616e-02 -1.091585233807563782e-01 -1.896428503096103668e-02 1.632272601127624512e-01 -1.340325325727462769e-01 -1.967103928327560425e-01 -7.384859770536422729e-02 -2.005739957094192505e-01 1.024581417441368103e-01 -1.764414310455322266e-01 -1.184113789349794388e-02 1.457965224981307983e-01 3.070734255015850067e-02 -2.728394865989685059e-01 -6.347798742353916168e-03 3.598600924015045166e-01 2.897205203771591187e-02 5.801320448517799377e-02 -1.245738044381141663e-01 1.884619742631912231e-01 -1.466034203767776489e-01 -4.017556607723236084e-01 3.564108908176422119e-02 9.963964670896530151e-02 1.003876850008964539e-01 -1.436005830764770508e-01 -8.720242977142333984e-02 3.015802502632141113e-01 -9.193825535476207733e-03 1.184930000454187393e-02 3.017076551914215088e-01 -2.014620453119277954e-01 -3.085939399898052216e-02 -8.655770868062973022e-02
-1.608221530914306641e-01 2.922094985842704773e-02 -1.231049224734306335e-01 -1.670500077307224274e-02 -3.257634341716766357e-01 5.013176053762435913e-02 1.109650433063507080e-01 -1.336602568626403809e-01 -1.197993755340576172e-01 -1.400363892316818237e-01 -2.155285477638244629e-01 6.757178902626037598e-02 7.890518009662628174e-02 -1.543005704879760742e-01 2.660631574690341949e-02 1.135690882802009583e-01 4.014264643192291260e-01 -1.264267950318753719e-03 -4.111946374177932739e-02 8.277092874050140381e-02 -9.541574865579605103e-02 -4.366464912891387939e-02 3.410162031650543213e-02 7.324752211570739746e-02 -1.144901383668184280e-03 -9.780062735080718994e-02 1.095375418663024902e-01 -2.455256506800651550e-02 -6.614127755165100098e-02 -1.910360604524612427e-01 -2.664791792631149292e-02 -3.078056573867797852e-01 -1.107353344559669495e-02 -4.102658107876777649e-02 2.246910482645034790e-01 9.608968161046504974e-03 5.061585456132888794e-02 -5.300507694482803345e-02 -1.100285127758979797e-01 -3.044787235558032990e-02 -3.041861951351165771e-02 -7.923743128776550293e-02 1.890049725770950317e-01 1.121855899691581726e-02 1.906726062297821045e-01 -1.163922599516808987e-03 -3.196249902248382568e-02 1.252280920743942261e-01 6.370269507169723511e-02 2.060810029506683350e-01 1.763540953397750854e-01 7.622126489877700806e-02 4.527041688561439514e-02 4.526762664318084717e-02 2.189433574676513672e-01 -9.496445208787918091e-02 3.148719901219010353e-03 2.275450974702835083e-01 2.762217819690704346e-02 1.005158722400665283e-01 2.029718132689595222e-03 2.779985032975673676e-02 -1.474741846323013306e-01 -1.610410660505294800e-01 -2.745766639709472656e-01 -1.716885417699813843e-01 1.111426949501037598e-01 2.000077962875366211e-01 1.449022293090820312e-01 -1.417117845267057419e-02
1.314215958118438721e-01 1.187421977519989014e-01 1.151959300041198730e-01 -2.272326499223709106e-01 7.347401976585388184e-02 1.075933575630187988e-01 -1.744455099105834961e-02 -1.525218188762664795e-01 1.495921015739440918e-01 -7.777751237154006958e-02 -2.289931327104568481e-01 6.602246314287185669e-02 2.238141745328903198e-02 1.217284947633743286e-01 -2.248259931802749634e-01 1.367481201887130737e-01 -4.471200108528137207e-01 8.625730872154235840e-02 6.011096388101577759e-02 2.908771112561225891e-02 6.511030253022909164e-03 2.116930298507213593e-02 6.432417035102844238e-02 -2.659236639738082886e-02 -3.660258650779724121e-02 -3.156130388379096985e-02 2.290162723511457443e-03 -1.249855905771255493e-01 -2.785332314670085907e-02 -1.080892160534858704e-01 8.088839799165725708e-02 -1.153411120176315308e-01 -9.647966921329498291e-02 -1.736027449369430542e-01 3.134564682841300964e-02 1.896020956337451935e-02 3.702212497591972351e-02 9.176329523324966431e-02 6.004200875759124756e-02 7.442646473646163940e-02 -3.239181637763977051e-02 3.207195550203323364e-02 3.221559524536132812e-02 -8.136324584484100342e-03 -1.355484314262866974e-02 -1.140143722295761108e-02 1.039215773344039917e-01 -7.642766088247299194e-02 1.263901442289352417e-01 -2.953017354011535645e-01 1.010061502456665039e-01 1.586285829544067383e-01 -1.455433946102857590e-02 -4.043673723936080933e-02 5.592875927686691284e-02 -1.232146471738815308e-01 2.288186736404895782e-02 -2.362285852432250977e-01 -1.227847337722778320e-01 1.791682839393615723e-02 -3.079642541706562042e-02 3.365947604179382324e-01 4.506825003772974014e-03 -2.997940778732299805e-02 -1.618998944759368896e-01 1.974414885044097900e-01 -1.498904228210449219e-01 6.693376228213310242e-03 1.731534898281097412e-01 1.429702937602996826e-01
3.533054515719413757e-02 1.271083112806081772e-02 2.172509580850601196e-01 -1.445554494857788086e-01 2.912649698555469513e-02 -3.201103582978248596e-02 -8.788819611072540283e-02 8.069802075624465942e-02 3.379368036985397339e-02 -2.339927107095718384e-01 -1.127067878842353821e-01 7.152104377746582031e-02 1.250561978667974472e-02 -1.390270739793777466e-01 1.486347764730453491e-01 -1.803414672613143921e-01 -6.562618017196655273e-01 5.705805495381355286e-02 8.805400691926479340e-03 6.341950595378875732e-02 -1.405695676803588867e-01 -1.698970049619674683e-02 2.508582919836044312e-02 -5.788718536496162415e-02 -4.781114310026168823e-02 1.776064001023769379e-02 1.094049960374832153e-01 1.596307158470153809e-01 3.171517327427864075e-02 2.284501194953918457e-01 -2.171839922666549683e-01 -1.767695546150207520e-01 -6.030175089836120605e-02 9.728712961077690125e-03 1.313749253749847412e-01 1.403097994625568390e-02 -6.592388451099395752e-02 -5.697533115744590759e-02 2.489550858736038208e-01 -5.596709623932838440e-02 -1.118213385343551636e-01 -1.032476499676704407e-01 5.016116797924041748e-02 -1.277701705694198608e-01 7.521396875381469727e-02 -1.568386107683181763e-01 4.628410190343856812e-02 -1.475169789046049118e-02 3.185560107231140137e-01 -4.947989061474800110e-02 1.744562759995460510e-02 -1.108113676309585571e-02 1.693688519299030304e-02 -1.783832348883152008e-02 -8.441265672445297241e-02 1.903902739286422729e-01 -6.406839936971664429e-02 1.192561239004135132e-01 3.439593315124511719e-02 1.437888480722904205e-02 1.067633107304573059e-01 -3.425119817256927490e-02 1.912521421909332275e-01 2.120386809110641479e-01 -3.215676872059702873e-03 1.584599539637565613e-02 3.923203423619270325e-02 -2.072534561157226562e-01 1.170076057314872742e-01 2.317266464233398438e-01
-1.394504774361848831e-02 -3.378655314445495605e-01 5.421513319015502930e-02 -3.141431510448455811e-02 -9.358344599604606628e-03 1.634369194507598877e-01 9.028750658035278320e-02 -2.599287629127502441e-01 2.189529836177825928e-01 8.635146915912628174e-02 -1.489820033311843872e-01 7.808379828929901123e-02 -1.038574986159801483e-02 -2.481983006000518799e-01 -9.557493031024932861e-02 -1.395102292299270630e-01 -1.329845190048217773e-01 4.565259441733360291e-02 -1.320489048957824707e-01 -6.720341742038726807e-02 2.110790461301803589e-01 -2.221014499664306641e-01 7.295992225408554077e-02 6.588832288980484009e-02 2.007305622100830078e-02 1.550929248332977295e-01 5.124044418334960938e-02 -2.238808721303939819e-01 1.476343721151351929e-01 -2.296619676053524017e-02 -8.655229210853576660e-02 2.111960202455520630e-01 -1.466325223445892334e-01 2.332442812621593475e-02 -1.057326644659042358e-01 -3.707691654562950134e-02 -5.070804804563522339e-02 1.146636903285980225e-01 4.511617124080657959e-02 2.077544033527374268e-01 2.494775801897048950e-01 -3.866443783044815063e-02 -6.186447292566299438e-02 8.531168103218078613e-02 -4.882428422570228577e-02 5.929865688085556030e-02 1.357080340385437012e-01 -8.003358542919158936e-02 -2.154898941516876221e-01 -2.441234737634658813e-01 -1.449810862541198730e-01 -2.503834366798400879e-01 2.331248074769973755e-01 2.552727162837982178e-01 -2.543098330497741699e-01 -1.820590347051620483e-02 -9.875280410051345825e-02 -8.866502344608306885e-02 4.862005710601806641e-01 -1.041349675506353378e-02 -3.648580014705657959e-01 1.656301021575927734e-01 -2.936954498291015625e-01 -1.171771436929702759e-02 3.025338649749755859e-01 -1.310409605503082275e-01 7.400345057249069214e-02 1.694152206182479858e-01 -7.486514747142791748e-02 1.825974434614181519e-01
-8.772904425859451294e-02 4.215831756591796875e-01 -8.467455953359603882e-02 -5.237932875752449036e-02 -3.356909845024347305e-03 -3.641325980424880981e-02 -1.784101277589797974e-01 1.165798977017402649e-01 -1.986321061849594116e-01 4.535282030701637268e-02 -9.362431615591049194e-02 -1.149585247039794922e-01 -1.547833830118179321e-01 2.600068449974060059e-01 2.163731008768081665e-01 4.501056671142578125e-01 4.209627211093902588e-01 1.329682301729917526e-02 -3.013260662555694580e-02 -1.192704401910305023e-02 1.584950983524322510e-01 -3.916933014988899231e-02 6.523342430591583252e-02 -1.014088541269302368e-01 8.799751102924346924e-02 3.131507337093353271e-01 -8.984129875898361206e-02 -3.364378213882446289e-02 -1.376010924577713013e-01 1.865333062596619129e-03 1.231664493680000305e-01 1.886954754590988159e-01 7.413795590400695801e-02 -1.063472256064414978e-01 -4.201855510473251343e-02 8.622697740793228149e-02 2.727508358657360077e-02 -4.472923651337623596e-02 -2.157405763864517212e-01 -2.437300533056259155e-01 1.116092782467603683e-02 -4.823691025376319885e-02 1.144437864422798157e-01 -2.147264927625656128e-01 -2.230007350444793701e-01 -6.471268832683563232e-02 1.974910125136375427e-02 -1.187382042407989502e-01 6.947498768568038940e-02 -4.707277938723564148e-02 -2.549731135368347168e-01 2.150058448314666748e-01 7.255543768405914307e-02 1.070477515459060669e-01 2.029705196619033813e-01 -2.854559011757373810e-02 5.255083367228507996e-02 1.931671500205993652e-01 3.314352631568908691e-01 -2.526371479034423828e-01 -2.475113570690155029e-01 -1.588624715805053711e-01 1.874296218156814575e-01 2.002810388803482056e-01 -4.394011944532394409e-02 1.753222793340682983e-01 -1.953094005584716797e-01 8.591575175523757935e-02 3.826243570074439049e-03 2.031177133321762085e-01
1.228681579232215881e-01 -1.612845510244369507e-01 -8.545266091823577881e-02 -1.676641851663589478e-01 -5.212992895394563675e-03 6.436116248369216919e-02 -1.107224225997924805e-01 -1.159652546048164368e-01 -7.136745005846023560e-02 -7.397774606943130493e-04 4.821655899286270142e-02 1.906544417142868042e-01 -1.080641821026802063e-01 -3.090697228908538818e-01 6.327281147241592407e-02 -8.088149875402450562e-02 -1.056563407182693481e-01 2.055994421243667603e-01 -9.506861865520477295e-02 -4.579633101820945740e-02 1.801653355360031128e-01 2.736644744873046875e-01 9.216675162315368652e-02 2.009965330362319946e-01 9.561921656131744385e-02 -6.631814688444137573e-02 8.567542582750320435e-02 3.905706480145454407e-02 -6.530170887708663940e-02 2.095521055161952972e-02 -2.131429463624954224e-01 3.031234070658683777e-02 4.787762463092803955e-02 -6.766398437321186066e-03 3.876309376209974289e-03 -1.705489307641983032e-01 -4.756459593772888184e-02 -1.152120232582092285e-01 2.561775147914886475e-01 -1.478767991065979004e-01 -2.317219674587249756e-01 -6.842388212680816650e-02 1.111159548163414001e-01 6.718881428241729736e-02 1.602071374654769897e-01 -6.357590854167938232e-02 -2.147022187709808350e-01 2.903377115726470947e-01 4.625358805060386658e-02 1.743244528770446777e-01 4.330538511276245117e-01 -2.593436539173126221e-01 1.790499985218048096e-01 -1.195898558944463730e-02 1.532661467790603638e-01 -6.068243458867073059e-02 4.762319102883338928e-02 1.035753190517425537e-01 -9.523941576480865479e-02 2.606532871723175049e-01 6.299906224012374878e-02 1.096583008766174316e-01 -4.363678395748138428e-02 4.392422735691070557e-02 -7.912811636924743652e-02 -4.289726540446281433e-02 -7.955859601497650146e-02 -1.199579052627086639e-02 -3.157073855400085449e-01 5.642881616950035095e-02
-5.509923025965690613e-02 -1.466866284608840942e-01 3.020861744880676270e-02 1.183527186512947083e-01 -1.593780070543289185e-01 2.359786480665206909e-01 2.909116633236408234e-02 -9.292887151241302490e-02 -3.324134647846221924e-02 4.053689911961555481e-02 -1.497122179716825485e-02 2.050633579492568970e-01 -1.787242293357849121e-02 -8.130216598510742188e-02 -1.484397239983081818e-02 -1.865764260292053223e-01 -2.727522552013397217e-01 -2.239531278610229492e-01 -3.127963468432426453e-02 1.477396935224533081e-01 5.233766883611679077e-02 4.895952716469764709e-02 6.681088358163833618e-02 5.484770983457565308e-02 5.437270551919937134e-02 4.071617498993873596e-02 -7.103811204433441162e-02 -8.466173894703388214e-03 3.344602184370160103e-03 6.268157064914703369e-02 -2.329807355999946594e-02 -5.461705848574638367e-02 -1.209743693470954895e-02 -7.533991709351539612e-03 1.075052320957183838e-01 -5.062987282872200012e-02 6.102433055639266968e-02 2.024838477373123169e-01 -4.762926325201988220e-02 1.348946690559387207e-01 -1.069451421499252319e-01 2.141159400343894958e-02 -5.158114433288574219e-02 -1.959803998470306396e-01 2.823747694492340088e-02 5.744773894548416138e-02 9.146150201559066772e-03 5.484932567924261093e-03 -2.105970829725265503e-01 -2.202628925442695618e-02 -2.277662605047225952e-02 1.191217899322509766e-01 -3.062482737004756927e-02 -4.016155749559402466e-02 4.810463637113571167e-02 3.444314375519752502e-02 1.312264204025268555e-01 9.437790513038635254e-02 1.983318924903869629e-01 9.009160846471786499e-02 3.970893099904060364e-02 -1.983917206525802612e-01 -1.332515925168991089e-01 1.779030114412307739e-01 7.388699799776077271e-02 1.406757533550262451e-01 7.979945093393325806e-02 -1.526479572057723999e-01 -5.104033946990966797e-01 -5.263036116957664490e-02
-1.090409308671951294e-01 -4.896431043744087219e-02 1.923628598451614380e-01 2.403109967708587646e-01 1.586661338806152344e-01 -3.240277245640754700e-02 -1.596037149429321289e-01 2.345353364944458008e-01 2.571985423564910889e-01 1.459246724843978882e-01 9.249774366617202759e-02 -3.095498681068420410e-02 1.232138648629188538e-01 3.719286620616912842e-01 -3.949015215039253235e-02 1.331265270709991455e-01 3.312990963459014893e-01 2.053463757038116455e-01 1.298656016588211060e-01 1.834221184253692627e-01 5.482121556997299194e-02 -1.660760641098022461e-01 1.375461220741271973e-01 8.190007507801055908e-02 1.693711131811141968e-01 -1.624311804771423340e-01 1.924091205000877380e-02 9.564853459596633911e-02 8.117803931236267090e-02 -1.173053383827209473e-01 4.919444769620895386e-02 -1.084248498082160950e-01 8.452284336090087891e-02 -1.247125566005706787e-01 -9.390726685523986816e-02 4.886300489306449890e-02 4.516956210136413574e-02 -1.548237204551696777e-01 5.614357441663742065e-02 -5.373696982860565186e-02 5.185511708259582520e-01 -4.838372394442558289e-02 6.039036065340042114e-02 -1.268738955259323120e-01 -3.505900129675865173e-02 -1.339490711688995361e-01 2.526322603225708008e-01 -7.350154966115951538e-02 9.459382295608520508e-02 -1.787374727427959442e-02 1.591678708791732788e-01 -2.052723243832588196e-02 3.889982402324676514e-02 -6.930401176214218140e-02 1.415405273437500000e-01 -5.944962613284587860e-03 1.452360451221466064e-01 3.093936741352081299e-01 -2.118147164583206177e-01 1.044820994138717651e-01 -1.039964482188224792e-01 -2.893263697624206543e-01 4.427795112133026123e-02 -1.209122836589813232e-01 -4.253144860267639160e-01 -4.995194822549819946e-02 -1.723466217517852783e-01 2.283963188529014587e-02 3.337405025959014893e-01 -2.054050564765930176e-01
4.791896417737007141e-02 3.161475658416748047e-01 -2.780838310718536377e-01 -6.055071204900741577e-02 -5.624373629689216614e-02 -3.023344092071056366e-02 -3.776842951774597168e-01 3.756913542747497559e-02 -1.510347127914428711e-01 4.578914120793342590e-02 -2.488530986011028290e-02 -6.681977957487106323e-02 -2.483394145965576172e-01 -1.187866553664207458e-01 1.243180334568023682e-01 -1.809708327054977417e-01 8.274806290864944458e-02 -2.680251002311706543e-01 1.000942364335060120e-01 3.093295395374298096e-01 -4.642376303672790527e-02 -2.705045975744724274e-02 -7.953452318906784058e-02 -7.811011164449155331e-04 -1.918058395385742188e-01 8.927431702613830566e-02 1.573885977268218994e-01 1.179112792015075684e-01 7.716643810272216797e-02 -1.132684483309276402e-04 1.091163256205618382e-03 -2.094292826950550079e-02 7.659336552023887634e-03 1.633114218711853027e-01 7.700123637914657593e-02 -7.454798370599746704e-02 6.314546614885330200e-02 1.257893294095993042e-01 -1.545142289251089096e-02 -1.694967448711395264e-01 -8.601588755846023560e-02 -1.554160565137863159e-01 -1.926865577697753906e-01 8.223062753677368164e-02 -1.242290958762168884e-01 -3.113735020160675049e-01 2.551850676536560059e-01 1.457472145557403564e-01 5.952510610222816467e-02 3.941974788904190063e-02 2.034408971667289734e-02 9.504369646310806274e-02 2.071705460548400879e-02 -1.268068850040435791e-01 5.152692273259162903e-02 7.195717841386795044e-02 3.479916602373123169e-02 -1.719128191471099854e-01 -1.105511095374822617e-02 3.698626160621643066e-01 2.025407552719116211e-01 2.574073672294616699e-01 -1.979487389326095581e-02 4.689690470695495605e-02 3.650354221463203430e-03 -5.074721947312355042e-02 -1.427329778671264648e-01 -8.014938235282897949e-02 -1.005591899156570435e-01 1.456182450056076050e-01
-5.608928203582763672e-02 -3.421170115470886230e-01 6.790968775749206543e-02 -1.837081760168075562e-01 9.767681360244750977e-02 6.145402044057846069e-02 3.249723929911851883e-03 -1.222928911447525024e-01 9.196386486291885376e-02 -4.745714366436004639e-03 7.822673022747039795e-02 2.260929048061370850e-01 -1.623698174953460693e-01 -3.239692747592926025e-02 -7.027900964021682739e-02 -3.474437072873115540e-02 -1.936982572078704834e-01 -1.848246715962886810e-02 -2.826252877712249756e-01 1.233201473951339722e-01 6.648819893598556519e-02 2.059246180579066277e-03 -8.472869545221328735e-02 1.519902646541595459e-01 5.112288892269134521e-02 -2.508646547794342041e-01 1.596775203943252563e-01 1.796841323375701904e-01 -3.481472283601760864e-02 1.067174877971410751e-02 -1.461412608623504639e-01 -1.301549077033996582e-01 -2.667831480503082275e-01 2.669288590550422668e-02 -6.074696779251098633e-02 1.245432719588279724e-01 1.720625609159469604e-01 -1.149746309965848923e-02 1.799513995647430420e-01 1.542464345693588257e-01 1.268517971038818359e-01 1.542308479547500610e-01 9.323629736900329590e-02 -2.173889242112636566e-02 2.203255891799926758e-01 3.206011280417442322e-02 4.985979199409484863e-02 -1.712269783020019531e-01 2.526725530624389648e-01 1.144491732120513916e-01 -7.859055884182453156e-03 4.452758468687534332e-03 8.152052015066146851e-02 7.669354975223541260e-02 2.860908955335617065e-02 3.458145260810852051e-02 9.540576487779617310e-02 2.489662617444992065e-01 -1.659899204969406128e-01 1.276162713766098022e-01 -1.692509204149246216e-01 2.211172599345445633e-03 4.516015350818634033e-01 9.925197064876556396e-02 -7.862382382154464722e-02 -9.477069601416587830e-03 -2.136595100164413452e-01 -1.868334859609603882e-01 -2.622713446617126465e-01 3.108758032321929932e-01
2.926791608333587646e-01 -1.986598074436187744e-01 1.236213296651840210e-01 -7.388359308242797852e-02 1.781823337078094482e-01 1.012323573231697083e-01 -9.191837161779403687e-02 -3.045021593570709229e-01 -1.084358021616935730e-01 -2.064626514911651611e-01 -1.171630173921585083e-01 9.505678713321685791e-02 -1.155293956398963928e-01 -2.944093644618988037e-01 -1.028210297226905823e-01 -1.928460597991943359e-01 -4.064450971782207489e-03 -2.182624042034149170e-01 1.011048629879951477e-01 -1.542144119739532471e-01 -5.260868743062019348e-02 -2.088135927915573120e-01 1.549584418535232544e-01 8.361443132162094116e-02 -3.021059557795524597e-03 -2.277038060128688812e-02 3.340627253055572510e-02 1.023832112550735474e-01 3.601039573550224304e-02 -9.462942928075790405e-02 -2.524563670158386230e-01 3.063016757369041443e-02 -1.155826598405838013e-01 -2.107566297054290771e-01 2.925353683531284332e-02 -1.990345492959022522e-02 -1.322188824415206909e-01 -1.222644117660820484e-03 1.425419449806213379e-01 -2.522462010383605957e-01 -1.497692316770553589e-01 -1.656356640160083771e-02 4.054098576307296753e-02 2.006118558347225189e-02 8.533751964569091797e-02 -2.559050619602203369e-01 -5.282811522483825684e-01 -6.435791403055191040e-02 -2.066135853528976440e-01 1.899573802947998047e-01 -1.061280891299247742e-01 -1.219357475638389587e-01 -2.729268372058868408e-01 -3.138776868581771851e-02 9.358181804418563843e-02 -1.045627370476722717e-01 -1.389684379100799561e-01 -2.306811362504959106e-01 -8.114411495625972748e-03 7.293825596570968628e-02 -1.176221668720245361e-01 -5.362102016806602478e-02 -6.015625223517417908e-02 2.487097121775150299e-02 -7.637554779648780823e-03 -2.219703644514083862e-01 -3.202374652028083801e-02 6.806417368352413177e-03 -2.923220396041870117e-01 -1.662499643862247467e-02
1.004386767745018005e-01 -6.536820530891418457e-02 -1.112887263298034668e-01 9.853216260671615601e-02 -1.628592461347579956e-01 -2.993133477866649628e-02 -1.293360590934753418e-01 1.283620297908782959e-01 -1.185853257775306702e-01 1.260678321123123169e-01 -5.796220526099205017e-02 6.161997839808464050e-02 1.070374064147472382e-02 -9.430775791406631470e-02 -1.769068464636802673e-02 9.851736947894096375e-03 -2.979786694049835205e-01 1.839617192745208740e-01 -1.598225831985473633e-01 2.627031132578849792e-02 2.125345915555953979e-01 1.092809736728668213e-01 -2.971889637410640717e-02 -1.358587387949228287e-02 -9.789340198040008545e-02 3.859829157590866089e-02 1.591015048325061798e-02 1.526488959789276123e-01 -7.709936797618865967e-02 -1.979435533285140991e-01 -1.752310544252395630e-01 -2.181535661220550537e-01 -7.650438696146011353e-02 -3.028723299503326416e-01 -6.751703470945358276e-02 -1.599508821964263916e-01 6.966669857501983643e-02 -1.055117473006248474e-01 -6.012541800737380981e-02 -8.585578948259353638e-02 2.343379259109497070e-01 -1.495853513479232788e-01 1.067746654152870178e-01 8.471257239580154419e-02 2.245158702135086060e-01 -3.040572442114353180e-02 -1.782716810703277588e-01 -1.711522489786148071e-01 -4.791599139571189880e-02 -2.016410976648330688e-01 -4.360213875770568848e-02 2.496711909770965576e-01 7.386076450347900391e-02 -3.429151177406311035e-01 5.660288780927658081e-02 -8.602888882160186768e-02 -5.670169368386268616e-02 -2.541665136814117432e-01 -1.686522960662841797e-01 6.992880254983901978e-02 1.147607713937759399e-01 -1.995573192834854126e-01 7.793787866830825806e-02 2.485926821827888489e-02 -6.713560968637466431e-02 1.055223401635885239e-02 -2.088014781475067139e-01 -9.742656350135803223e-02 1.468486487865447998e-01 1.571829468011856079e-01
-1.358553320169448853e-01 -3.072519898414611816e-01 -1.126695349812507629e-01 1.774351112544536591e-02 1.540440022945404053e-01 1.633954495191574097e-01 -2.486780732870101929e-01 -1.058180183172225952e-01 8.582924306392669678e-02 2.261466113850474358e-03 1.918338090181350708e-01 7.680550962686538696e-02 -2.254757285118103027e-01 -1.747633516788482666e-01 -3.635986940935254097e-03 3.175067007541656494e-01 -1.078652292490005493e-01 -3.002814352512359619e-01 -1.248929724097251892e-01 2.175704389810562134e-01 -1.393544673919677734e-01 -4.112638067454099655e-03 1.406342685222625732e-01 -1.169614642858505249e-01 -1.558080464601516724e-01 -1.612438708543777466e-01 -8.850279450416564941e-02 -1.526538729667663574e-01 -2.786447666585445404e-02 2.322546392679214478e-02 -9.828662499785423279e-03 7.037178426980972290e-02 -1.226213499903678894e-01 3.846307396888732910e-01 -1.086027920246124268e-01 9.237973392009735107e-02 1.110481992363929749e-01 1.027595549821853638e-01 -2.532414793968200684e-01 -2.613001875579357147e-02 -1.108394935727119446e-01 4.470457509160041809e-02 7.300411909818649292e-02 1.878831386566162109e-01 -1.179834827780723572e-02 1.869403719902038574e-01 -2.067124396562576294e-01 2.097190916538238525e-02 1.192784085869789124e-01 1.284562167711555958e-03 -1.841804534196853638e-01 1.374196708202362061e-01 -1.585322916507720947e-01 -1.422960590571165085e-02 -6.187571957707405090e-02 2.184237688779830933e-01 -1.026172935962677002e-01 -1.453419923782348633e-01 -7.541315257549285889e-02 -3.912016376852989197e-02 1.052114591002464294e-01 7.640303671360015869e-02 -5.387976393103599548e-02 1.904636737890541553e-03 -1.419540122151374817e-02 -5.255001410841941833e-02 -5.157182365655899048e-02 7.761670649051666260e-02 1.784481853246688843e-02 -4.934776946902275085e-02
9.146822243928909302e-02 -4.029478877782821655e-02 1.092763543128967285e-01 2.506186068058013916e-02 -9.613253921270370483e-02 3.978114575147628784e-02 -6.164539232850074768e-02 -1.094603464007377625e-01 1.680323481559753418e-01 1.247573122382164001e-01 -2.521912455558776855e-01 5.143830180168151855e-02 -2.523213252425193787e-02 -5.328945815563201904e-02 -3.681716024875640869e-01 3.122221529483795166e-01 -5.956387892365455627e-02 -3.086368180811405182e-02 -7.433509826660156250e-02 9.474548697471618652e-02 7.414045929908752441e-02 1.398800015449523926e-01 6.651541590690612793e-02 5.540691781789064407e-03 2.341961860656738281e-02 -3.449001908302307129e-01 -1.909621357917785645e-01 -6.839612126350402832e-02 4.569802060723304749e-02 -1.349844932556152344e-01 -9.220113605260848999e-02 -3.607383370399475098e-02 -1.135925389826297760e-02 -6.002819910645484924e-02 2.036833316087722778e-01 1.592266261577606201e-01 -4.878689721226692200e-02 4.760596528649330139e-02 -7.077997177839279175e-02 9.561725892126560211e-03 -3.464594855904579163e-02 1.922968626022338867e-01 -6.777879595756530762e-02 -6.564293056726455688e-02 -1.543852835893630981e-01 1.517048329114913940e-01 1.176904216408729553e-01 -2.834270894527435303e-01 6.665216386318206787e-02 -1.184144616127014160e-01 1.833932399749755859e-01 8.149392902851104736e-02 1.445182263851165771e-01 -1.474563777446746826e-01 2.490407973527908325e-01 2.043328881263732910e-01 -2.755901962518692017e-02 -1.860311031341552734e-01 -3.847725689411163330e-01 1.991382539272308350e-01 5.563077516853809357e-03 8.196222037076950073e-02 -1.860117465257644653e-01 -1.609440743923187256e-01 1.008509546518325806e-01 -3.572078794240951538e-02 -1.601465642452239990e-01 9.611511975526809692e-02 -1.085823476314544678e-01 2.706951275467872620e-02
3.078443706035614014e-01 -6.253808140754699707e-01 -7.776452600955963135e-02 8.461746573448181152e-02 2.029221132397651672e-02 1.353957355022430420e-01 3.072519302368164062e-01 -4.050061106681823730e-03 2.456618845462799072e-02 3.248609602451324463e-03 4.441939294338226318e-02 7.646062225103378296e-02 1.778476089239120483e-01 -8.048016577959060669e-02 -7.946104556322097778e-02 -6.462866663932800293e-01 -2.255388200283050537e-01 4.358304664492607117e-03 -3.373944014310836792e-02 -1.023846585303544998e-02 1.564704030752182007e-01 -1.436786651611328125e-01 7.458517793565988541e-03 -5.191057920455932617e-02 1.049146503210067749e-01 6.003880873322486877e-02 8.690840005874633789e-02 9.883110970258712769e-02 1.008231118321418762e-01 -3.451960533857345581e-02 5.058763548731803894e-02 9.565149247646331787e-02 6.719857454299926758e-02 7.392802275717258453e-03 -1.510858982801437378e-01 9.194730967283248901e-02 1.381583958864212036e-01 1.323478072881698608e-01 2.663624882698059082e-01 1.385161131620407104e-01 -7.756164669990539551e-02 -8.910159580409526825e-03 1.750766113400459290e-02 2.342806011438369751e-02 3.087541460990905762e-01 1.177512034773826599e-01 -1.753590106964111328e-01 -6.687393784523010254e-02 -1.842723488807678223e-01 -1.650916785001754761e-01 -6.360802054405212402e-02 -1.224279999732971191e-01 3.280003368854522705e-02 1.059735789895057678e-01 -1.979504674673080444e-01 -1.040994673967361450e-01 -2.538903057575225830e-01 1.346555948257446289e-01 1.785415224730968475e-02 3.262077867984771729e-01 -4.502764344215393066e-02 2.898674011230468750e-01 -6.380177289247512817e-02 -7.557089626789093018e-02 -6.482119858264923096e-02 7.090391218662261963e-02 2.549556829035282135e-02 6.140948086977005005e-02 8.668329566717147827e-02 3.635123968124389648e-01
3.006483893841505051e-03 -4.520470649003982544e-02 -2.272260338068008423e-01 -1.209437996149063110e-01 3.289835155010223389e-02 9.378042817115783691e-02 -5.065731331706047058e-02 1.799878329038619995e-01 -2.394709140062332153e-01 -1.012512147426605225e-01 -8.495544642210006714e-02 1.285478472709655762e-01 -3.082583472132682800e-02 9.771813452243804932e-02 2.104157358407974243e-01 -9.673819690942764282e-02 9.500323235988616943e-02 -1.250322675332427025e-03 2.164960205554962158e-01 1.084516048431396484e-01 4.934704303741455078e-02 -4.972299933433532715e-02 1.688226014375686646e-01 -1.633840054273605347e-01 2.838092446327209473e-01 1.355863660573959351e-01 -2.647421881556510925e-02 -9.055835008621215820e-02 2.497422993183135986e-01 2.434476166963577271e-01 -8.598507381975650787e-03 1.933183372020721436e-01 1.020044311881065369e-01 -2.260011434555053711e-01 -8.604586124420166016e-02 -9.023624658584594727e-02 -1.359991878271102905e-01 -1.143958792090415955e-02 7.454854995012283325e-02 -1.006148159503936768e-01 2.782663144171237946e-02 4.736485425382852554e-03 -1.869669705629348755e-01 -2.250608429312705994e-02 1.782053709030151367e-01 -7.320808619260787964e-02 5.453367158770561218e-02 1.409013122320175171e-01 -1.499061882495880127e-01 9.925268590450286865e-02 -4.382920563220977783e-01 9.169653058052062988e-02 1.555108726024627686e-01 -2.591165900230407715e-01 2.137256413698196411e-01 -1.259866207838058472e-01 1.164278164505958557e-01 -7.016611099243164062e-02 1.608158349990844727e-01 7.483904063701629639e-02 -1.799043715000152588e-01 2.680943906307220459e-01 -2.250975221395492554e-01 1.989778876304626465e-01 -6.177994608879089355e-02 -1.473057121038436890e-01 1.451048254966735840e-01 -2.160390764474868774e-01 8.849265985190868378e-03 4.600327927619218826e-03
1.099998801946640015e-01 -8.058255165815353394e-02 4.286763723939657211e-03 4.188255593180656433e-02 -4.677728936076164246e-02 -1.061919480562210083e-01 9.398920089006423950e-02 -2.600746750831604004e-01 -3.702436340972781181e-03 -3.348183631896972656e-02 -1.331451088190078735e-01 -6.600247323513031006e-02 5.761704593896865845e-02 -1.684738546609878540e-01 8.415519446134567261e-02 2.233267873525619507e-01 -6.718775629997253418e-02 6.106170266866683960e-02 1.757330377586185932e-03 -7.831849157810211182e-02 8.873973041772842407e-02 1.723312959074974060e-02 -2.642155624926090240e-03 -1.659948676824569702e-01 4.583032429218292236e-02 -1.391908228397369385e-01 1.572570651769638062e-01 1.420168876647949219e-01 -1.146540343761444092e-01 2.607857584953308105e-01 -1.804455667734146118e-01 -7.844104431569576263e-03 -5.855415947735309601e-03 7.116547971963882446e-02 -3.335625827312469482e-01 -8.265549689531326294e-02 1.563038527965545654e-01 -2.170283645391464233e-01 -5.713612213730812073e-02 -7.470379769802093506e-02 -1.391087770462036133e-01 8.259977400302886963e-02 2.258732467889785767e-01 -2.425245642662048340e-01 1.504030823707580566e-01 -1.278532110154628754e-02 -2.971663773059844971e-01 3.199382626917213202e-04 7.645685970783233643e-02 6.749304383993148804e-02 -6.486580520868301392e-02 7.614438980817794800e-02 -1.811801493167877197e-01 -9.579960256814956665e-02 1.866806745529174805e-01 -1.643830686807632446e-01 1.623184680938720703e-01 -4.188429415225982666e-01 -3.513003885746002197e-02 1.424091905355453491e-01 -3.890141844749450684e-02 -1.436871588230133057e-01 3.047504723072052002e-01 -1.049849912524223328e-01 -4.836148396134376526e-02 -2.403739541769027710e-01 -2.441608011722564697e-01 5.775484442710876465e-02 -9.512740373611450195e-02 1.877213418483734131e-01
2.446905672550201416e-01 -6.963370740413665771e-02 1.321266591548919678e-01 -1.302788704633712769e-01 -2.225390225648880005e-01 -6.887425668537616730e-03 5.240942239761352539e-01 -1.203646957874298096e-01 5.288558825850486755e-02 -1.510238926857709885e-02 -2.523742020130157471e-01 1.119965165853500366e-01 4.071666002273559570e-01 -3.617047965526580811e-01 3.270991519093513489e-02 -7.706766575574874878e-02 -1.059160530567169189e-01 -9.483970701694488525e-02 -1.827277988195419312e-01 -1.406620293855667114e-01 -7.874872535467147827e-02 1.823167204856872559e-01 1.536870598793029785e-01 -5.566385388374328613e-02 -8.385197073221206665e-02 8.763222396373748779e-02 2.769662141799926758e-01 4.411447793245315552e-03 -6.745119579136371613e-03 -3.267582878470420837e-02 -8.955894969403743744e-03 1.212801858782768250e-01 1.515066474676132202e-01 1.000147610902786255e-01 -1.058689430356025696e-01 9.603662788867950439e-02 -1.021217778325080872e-01 -1.109457165002822876e-01 -1.885851621627807617e-01 3.944987356662750244e-01 -2.050928473472595215e-01 8.373197913169860840e-02 -4.685605317354202271e-02 -1.922100335359573364e-01 7.816381752490997314e-03 3.206381201744079590e-01 -1.668365895748138428e-01 9.393914788961410522e-02 -2.070605903863906860e-01 -2.313911914825439453e-02 -4.365392401814460754e-02 3.175634518265724182e-02 -5.380858853459358215e-02 8.946937322616577148e-02 1.027105227112770081e-01 3.031039237976074219e-02 -2.033255994319915771e-01 -3.997732326388359070e-02 -5.424578487873077393e-02 2.621931256726384163e-03 -9.619977325201034546e-03 -1.056836843490600586e-01 -3.866293281316757202e-02 -1.015725359320640564e-01 1.787706166505813599e-01 -1.838000025600194931e-03 6.525905430316925049e-02 -2.710069119930267334e-01 -8.631034195423126221e-02 -3.426380455493927002e-01
-3.484313935041427612e-02 4.619287252426147461e-01 -1.354345232248306274e-01 -1.614722907543182373e-01 1.471668034791946411e-01 -2.805029451847076416e-01 -1.660134941339492798e-01 -9.192524850368499756e-02 -1.123535707592964172e-01 3.111020848155021667e-02 7.832474261522293091e-02 -3.959150612354278564e-01 -1.705752909183502197e-01 -5.853348970413208008e-02 7.038823328912258148e-03 1.236570179462432861e-01 -2.031934261322021484e-01 -9.160933643579483032e-02 -1.537292748689651489e-01 9.969481825828552246e-02 2.504506148397922516e-03 5.523254349827766418e-02 -1.888589709997177124e-01 4.934005439281463623e-02 8.502786606550216675e-02 5.549425259232521057e-02 1.344104558229446411e-01 7.072017341852188110e-02 1.187142729759216309e-01 9.143978357315063477e-02 -1.550101488828659058e-01 5.905880406498908997e-02 -5.216040089726448059e-02 -1.519966311752796173e-02 -5.578146874904632568e-02 9.480728954076766968e-02 -9.389951825141906738e-02 1.427501887083053589e-01 -1.332674324512481689e-01 -3.486030995845794678e-01 -3.911800310015678406e-02 -2.786978706717491150e-02 -1.311545819044113159e-01 -1.458113826811313629e-02 -9.469835460186004639e-02 -2.990227341651916504e-01 -8.324205130338668823e-02 9.218455106019973755e-02 -5.239448696374893188e-02 -2.398692816495895386e-01 1.220933049917221069e-01 -1.559137552976608276e-01 1.392941176891326904e-01 1.219345722347497940e-02 -4.311262443661689758e-02 -3.375815972685813904e-02 3.481744974851608276e-02 -8.877721428871154785e-02 5.565824732184410095e-02 9.590584784746170044e-03 2.250063465908169746e-03 1.043518632650375366e-01 3.312592580914497375e-02 2.849797531962394714e-02 -2.410781234502792358e-01 -1.618449017405509949e-02 -5.052172765135765076e-02 -1.763943769037723541e-02 4.877678677439689636e-02 1.473783999681472778e-01
-3.462917208671569824e-01 5.418203473091125488e-01 2.200952470302581787e-01 2.842968702316284180e-01 -2.304086275398731232e-02 -3.927673399448394775e-02 -3.366731703281402588e-01 2.420395761728286743e-01 9.515458345413208008e-02 4.052207171916961670e-01 1.402009278535842896e-01 -1.508909314870834351e-01 -1.877241730690002441e-01 2.245058268308639526e-01 -1.341166347265243530e-02 1.053676195442676544e-02 5.794406533241271973e-01 3.188926875591278076e-01 -9.650400839745998383e-03 1.617151051759719849e-01 2.505268715322017670e-02 7.164103537797927856e-02 -3.920029103755950928e-02 8.582996204495429993e-03 -1.921587586402893066e-01 -3.242342063458636403e-05 -7.354521751403808594e-02 6.095612479839473963e-05 7.017666846513748169e-02 -1.473838984966278076e-01 1.259449217468500137e-02 2.952663600444793701e-02 -1.948835104703903198e-01 7.989958673715591431e-02 -1.210414990782737732e-01 -1.647636890411376953e-01 3.206420689821243286e-02 4.198991879820823669e-02 -3.173806369304656982e-01 -3.926021456718444824e-01 9.089884161949157715e-02 -4.128556756768375635e-04 8.242196589708328247e-02 2.560079991817474365e-01 -3.556508123874664307e-01 -1.599980145692825317e-01 1.422156095504760742e-01 4.310970660299062729e-03 -1.850533038377761841e-01 1.651786565780639648e-01 2.706028819084167480e-01 -7.556094974279403687e-02 2.795779407024383545e-01 7.285378128290176392e-02 -1.069694757461547852e-02 6.552623212337493896e-02 3.920880705118179321e-02 -2.920711636543273926e-01 4.390539973974227905e-02 1.032546442002058029e-02 1.249100565910339355e-01 -9.803734719753265381e-02 -6.346695870161056519e-02 -8.228246867656707764e-02 -1.173738911747932434e-01 -1.640219539403915405e-01 -8.543323725461959839e-03 1.069048536010086536e-03 -1.107106730341911316e-02 7.127275317907333374e-02
5.336368829011917114e-02 -9.062506556510925293e-01 1.129038706421852112e-01 4.820160567760467529e-03 2.249765247106552124e-01 4.960592389106750488e-01 4.331669211387634277e-01 1.139917597174644470e-01 4.130958579480648041e-03 2.490195073187351227e-02 8.633136004209518433e-02 4.038695991039276123e-01 4.242586493492126465e-01 2.088485062122344971e-01 3.188535198569297791e-02 6.415795534849166870e-02 -5.099618807435035706e-02 7.853224128484725952e-02 3.597188368439674377e-02 4.614687338471412659e-02 -3.671614825725555420e-02 -3.032737877219915390e-04 -1.354908347129821777e-01 -1.229139789938926697e-01 9.226456284523010254e-02 -3.683353960514068604e-02 9.591858834028244019e-02 -8.124170824885368347e-03 5.139662697911262512e-02 -1.307196170091629028e-02 -4.466878250241279602e-02 -3.676233813166618347e-02 -1.294639259576797485e-01 -1.218511983752250671e-01 2.874268777668476105e-02 -3.179286420345306396e-02 -1.087631285190582275e-01 -1.256834864616394043e-01 4.992110133171081543e-01 2.806068360805511475e-01 8.533596247434616089e-02 -7.153527438640594482e-02 -8.524757623672485352e-02 4.514600336551666260e-02 5.639216899871826172e-01 5.206215381622314453e-01 2.415821105241775513e-01 -6.530199199914932251e-02 -1.234784498810768127e-01 1.153275147080421448e-01 -5.921069160103797913e-02 6.491114944219589233e-02 -9.196031838655471802e-02 -1.053641550242900848e-02 1.588619053363800049e-01 -2.379208952188491821e-01 1.079652160406112671e-01 4.557695612311363220e-02 -6.919291615486145020e-02 -7.876231521368026733e-02 5.927233491092920303e-03 -3.906947746872901917e-02 -1.135362759232521057e-01 8.290189504623413086e-02 -1.934042274951934814e-01 -7.943661510944366455e-02 -2.976804226636886597e-02 1.200430244207382202e-01 -6.983835250139236450e-03 -1.618962734937667847e-02
2.233681827783584595e-01 9.229177981615066528e-02 1.852440647780895233e-02 -6.593776401132345200e-03 1.389179527759552002e-01 -1.309275925159454346e-01 -2.576794624328613281e-01 -1.134020611643791199e-01 2.529276534914970398e-02 1.635344140231609344e-02 -5.218217521905899048e-02 -4.852400347590446472e-02 -4.378334581851959229e-01 -9.054681658744812012e-02 -1.185811385512351990e-01 7.925651967525482178e-03 -4.796497896313667297e-02 -9.915377199649810791e-02 1.529379934072494507e-01 4.880184680223464966e-02 -1.716277599334716797e-01 1.051065549254417419e-01 -1.628147065639495850e-01 1.562548428773880005e-01 -1.508934050798416138e-01 -9.958025813102722168e-02 7.872562855482101440e-02 -1.303977221250534058e-01 -1.604703664779663086e-01 2.350017130374908447e-01 -2.152536511421203613e-01 -1.312667280435562134e-01 1.186042726039886475e-01 -7.349243760108947754e-02 2.373411506414413452e-01 -1.191876977682113647e-01 -1.220111772418022156e-01 2.091135270893573761e-02 3.041223995387554169e-02 -1.903926432132720947e-01 3.868043422698974609e-02 7.557491213083267212e-02 1.402207370847463608e-02 -7.512540370225906372e-02 6.445877999067306519e-02 -4.872449934482574463e-01 1.914165169000625610e-01 1.444833725690841675e-01 -2.588723599910736084e-01 3.580496460199356079e-02 5.562392249703407288e-02 2.282931506633758545e-01 -1.549223554320633411e-03 5.940273404121398926e-02 -6.732843071222305298e-02 -3.695135936141014099e-02 6.170654296875000000e-02 7.496237009763717651e-02 -8.957488089799880981e-02 -5.380911380052566528e-02 -7.139240205287933350e-02 7.310124486684799194e-02 2.173128724098205566e-01 1.032900288701057434e-01 1.200332492589950562e-02 4.568908736109733582e-02 -2.271410450339317322e-02 -7.122322916984558105e-02 -3.281065449118614197e-02 2.141368091106414795e-01
6.138391420245170593e-02 -3.483435213565826416e-01 1.027002651244401932e-02 -7.588103413581848145e-02 1.348523497581481934e-01 2.135439366102218628e-01 1.653646677732467651e-01 -1.649646013975143433e-01 1.603028178215026855e-02 1.564993858337402344e-01 1.233085393905639648e-01 1.270467191934585571e-01 4.831987246870994568e-02 -3.528904020786285400e-01 2.425728924572467804e-02 -3.232204616069793701e-01 -1.737701892852783203e-01 -1.494344621896743774e-01 -1.422526389360427856e-01 -1.929915249347686768e-01 -2.021306008100509644e-02 -7.668191194534301758e-02 -8.163550496101379395e-02 -8.865823596715927124e-02 1.140994876623153687e-01 -4.634114727377891541e-02 6.354025099426507950e-03 -5.801109224557876587e-02 -7.754269987344741821e-02 1.392650008201599121e-01 -1.335029453039169312e-01 1.492615789175033569e-01 -9.763039648532867432e-03 4.786969348788261414e-02 3.787416964769363403e-02 -7.643730938434600830e-02 5.566357169300317764e-03 1.164016500115394592e-01 3.352466821670532227e-01 5.260508880019187927e-02 -4.689557943493127823e-03 1.618609279394149780e-01 -1.244846805930137634e-01 -1.525879502296447754e-01 4.444271922111511230e-01 -1.587266623973846436e-01 -1.341207623481750488e-01 5.421702191233634949e-02 -1.063405871391296387e-01 -7.196407020092010498e-02 -2.605476379394531250e-01 -1.249222755432128906e-01 -4.020351171493530273e-02 -6.232171505689620972e-02 -1.258142851293087006e-02 5.845877528190612793e-02 5.743809416890144348e-02 1.251246333122253418e-01 -5.685528274625539780e-03 1.156905815005302429e-01 -5.158615857362747192e-02 -1.970908418297767639e-02 -1.333557069301605225e-01 -7.336403708904981613e-03 -9.624062478542327881e-02 -3.478906676173210144e-02 -8.266213536262512207e-02 -4.263740405440330505e-02 2.638739049434661865e-01 5.035603046417236328e-01
1.865292042493820190e-01 -3.766088783740997314e-01 -1.343786567449569702e-01 7.001626491546630859e-02 -6.526024639606475830e-02 5.499020218849182129e-02 -1.750414632260799408e-02 -1.115311384201049805e-01 8.136060833930969238e-02 1.838384568691253662e-01 1.076172739267349243e-01 1.725053191184997559e-01 -9.261459112167358398e-02 -8.360739052295684814e-02 -2.960577905178070068e-01 -7.822763174772262573e-03 -1.288514584302902222e-01 7.013389468193054199e-02 -2.283110767602920532e-01 -9.481424093246459961e-02 1.466377079486846924e-01 1.187585145235061646e-01 2.693389728665351868e-02 4.971306398510932922e-02 1.002038642764091492e-01 -5.630433186888694763e-02 7.595805078744888306e-02 1.706570200622081757e-02 -1.362727880477905273e-01 -1.339904498308897018e-03 -1.951545625925064087e-01 3.070807456970214844e-02 -2.378725819289684296e-02 -4.328634589910507202e-02 -4.921069741249084473e-02 1.809935867786407471e-01 4.569838289171457291e-03 -1.625427901744842529e-01 3.000263571739196777e-01 -9.235780686140060425e-02 -1.279343962669372559e-01 2.260854691267013550e-01 1.175156533718109131e-01 -7.127671688795089722e-02 2.571297287940979004e-01 3.477135673165321350e-02 -1.972443908452987671e-01 7.808736711740493774e-02 3.291007503867149353e-02 -1.536947637796401978e-01 2.144966721534729004e-01 3.976194187998771667e-02 2.301833778619766235e-01 5.725218728184700012e-02 -1.233791559934616089e-01 -7.923166453838348389e-02 1.209775954484939575e-01 -1.685341149568557739e-01 -1.920234560966491699e-01 1.468006372451782227e-01 1.634664684534072876e-01 -2.769472002983093262e-01 3.216505348682403564e-01 -1.155666336417198181e-01 1.007381901144981384e-01 1.396345645189285278e-01 -4.611238837242126465e-02 1.950100250542163849e-02 -6.603012233972549438e-02 2.344082891941070557e-01
-8.121129125356674194e-02 -6.085940599441528320e-01 1.095383316278457642e-01 1.712813377380371094e-01 -6.671301275491714478e-02 2.603630423545837402e-01 3.696599304676055908e-01 -4.344623908400535583e-02 4.893570020794868469e-02 1.001029014587402344e-01 5.352653190493583679e-02 4.247387945652008057e-01 4.107531607151031494e-01 5.281354486942291260e-02 -1.588135398924350739e-02 -6.018092855811119080e-02 -7.379786670207977295e-02 -1.964304447174072266e-01 1.003215610980987549e-01 1.141424551606178284e-01 -6.334336847066879272e-02 9.298488497734069824e-02 -2.467014938592910767e-01 8.693398535251617432e-02 1.488621979951858521e-01 -2.035883218050003052e-01 1.484580039978027344e-01 8.366107195615768433e-02 1.944424510002136230e-01 -1.440882831811904907e-01 -9.396480768918991089e-02 -4.569202661514282227e-02 -4.103083908557891846e-02 -6.954504549503326416e-02 -1.537242233753204346e-01 9.306150674819946289e-02 7.790179806761443615e-04 -1.437850892543792725e-01 3.254290521144866943e-01 1.113605797290802002e-01 5.807120725512504578e-02 -6.554780900478363037e-02 5.639117583632469177e-02 -9.048783779144287109e-02 5.090687870979309082e-01 2.235635221004486084e-01 3.369350135326385498e-01 -1.766468733549118042e-01 1.346013043075799942e-02 7.864506542682647705e-02 7.477623410522937775e-03 1.125346794724464417e-01 5.534631013870239258e-02 7.917003333568572998e-02 -1.610876172780990601e-01 -2.272079437971115112e-01 7.805406302213668823e-02 1.990138553082942963e-02 -1.020204126834869385e-01 1.744160354137420654e-01 2.570163607597351074e-01 -3.249241411685943604e-02 5.173310637474060059e-03 1.394461840391159058e-01 -1.617224216461181641e-01 -2.857173793017864227e-02 1.179980710148811340e-01 -2.997376210987567902e-02 -1.095578521490097046e-01 -7.486604899168014526e-02
-3.561220765113830566e-01 2.214442491531372070e-01 -9.591381996870040894e-02 3.892527520656585693e-01 -2.424043565988540649e-01 1.095394268631935120e-01 -1.196681633591651917e-01 3.305574357509613037e-01 4.678501281887292862e-03 3.647563755512237549e-01 6.579166650772094727e-02 1.985042169690132141e-02 1.053885146975517273e-01 2.920571565628051758e-01 -2.232244759798049927e-01 1.414391100406646729e-01 5.625818967819213867e-01 -1.633391976356506348e-01 1.532975584268569946e-01 7.301252335309982300e-02 8.255279809236526489e-02 -8.062946051359176636e-02 -3.085313737392425537e-02 -4.646142944693565369e-02 1.436996310949325562e-01 1.403533271513879299e-03 -1.917871832847595215e-01 -7.446042448282241821e-02 -9.282923489809036255e-02 -4.359069094061851501e-02 1.142689585685729980e-01 -6.889017671346664429e-02 2.262193262577056885e-01 -6.584418565034866333e-02 -1.584825813770294189e-01 1.012289673089981079e-01 1.158806383609771729e-01 -1.648642867803573608e-01 2.645701542496681213e-02 1.463325917720794678e-01 2.772957384586334229e-01 1.526978462934494019e-01 2.088105976581573486e-01 -1.597152054309844971e-01 -2.834616601467132568e-01 7.772986590862274170e-02 2.878694422543048859e-02 -2.940623462200164795e-01 -1.673841327428817749e-01 2.835540473461151123e-01 8.716816455125808716e-02 6.733143329620361328e-02 8.873348683118820190e-02 6.436856091022491455e-02 8.547777682542800903e-02 -1.327721774578094482e-01 1.103818714618682861e-01 1.835159771144390106e-02 -6.753880530595779419e-02 -2.668347656726837158e-01 1.482246667146682739e-01 -1.431289166212081909e-01 -2.706685066223144531e-01 3.762632608413696289e-02 4.344416782259941101e-02 1.507525295019149780e-01 -2.196960896253585815e-01 -1.551793962717056274e-01 -4.968242347240447998e-02 1.307973265647888184e-01
-1.088399589061737061e-01 1.052992939949035645e-01 -7.791429758071899414e-02 6.979508697986602783e-02 -3.639612793922424316e-01 1.590014621615409851e-02 4.366644024848937988e-01 2.904548048973083496e-01 -5.414042249321937561e-02 -9.076683968305587769e-02 -1.837487816810607910e-01 -1.280157268047332764e-01 3.362708389759063721e-01 1.461155265569686890e-01 1.195483729243278503e-01 1.293539535254240036e-02 9.732723981142044067e-02 4.756944719702005386e-03 -1.110320612788200378e-01 -1.664615422487258911e-01 -9.594344533979892731e-03 -9.076695889234542847e-02 -3.818413615226745605e-02 -2.789700962603092194e-02 -1.460773348808288574e-01 -8.784053474664688110e-02 -2.069616615772247314e-01 -1.284003108739852905e-01 -3.094871155917644501e-02 7.446963340044021606e-02 9.823813289403915405e-02 1.939295977354049683e-01 -1.647135801613330841e-02 -1.560981869697570801e-01 1.350596547126770020e-01 8.499650657176971436e-02 -5.871220678091049194e-02 -2.177762985229492188e-01 -1.020956635475158691e-01 2.518350481986999512e-01 3.730958700180053711e-02 1.161670088768005371e-01 7.130379322916269302e-03 -9.959116578102111816e-02 -7.768201082944869995e-02 3.291707038879394531e-01 -1.798426657915115356e-01 -1.647575497627258301e-01 9.418518841266632080e-02 1.918752491474151611e-01 -5.602653697133064270e-02 -4.711257293820381165e-02 -1.198202371597290039e-01 -6.676863878965377808e-02 1.954527199268341064e-01 8.887892588973045349e-03 5.744960159063339233e-02 -1.892638653516769409e-01 -1.899906247854232788e-01 1.331788208335638046e-02 -1.937548518180847168e-01 6.717020273208618164e-02 -3.154470119625329971e-03 -7.355381269007921219e-03 -1.754329651594161987e-01 -2.231326326727867126e-02 -1.950210183858871460e-01 2.416463941335678101e-01 2.086312323808670044e-02 -3.447378873825073242e-01
3.885900601744651794e-02 8.332709968090057373e-02 2.136612981557846069e-01 1.985174715518951416e-01 -6.511420011520385742e-02 2.127060294151306152e-02 -1.933125592768192291e-02 5.598617345094680786e-02 2.622228860855102539e-01 1.357920616865158081e-01 -6.536210328340530396e-02 2.118166089057922363e-01 4.500061739236116409e-03 1.729160994291305542e-01 -3.142276108264923096e-01 -3.561667501926422119e-01 3.827372789382934570e-01 -1.548744738101959229e-01 3.912255540490150452e-02 7.879588752985000610e-02 -2.012476138770580292e-02 1.289141178131103516e-01 -1.852636784315109253e-02 2.044014036655426025e-01 -8.742271363735198975e-02 -5.547925457358360291e-02 4.874798282980918884e-02 4.893444105982780457e-02 1.928959228098392487e-02 7.003341615200042725e-02 3.227421268820762634e-02 -1.205739080905914307e-01 -2.334563247859477997e-02 1.158262565732002258e-01 -3.957810625433921814e-02 9.755554795265197754e-02 -3.557129204273223877e-02 -1.485537290573120117e-01 3.070975653827190399e-02 -9.395262598991394043e-02 2.210986018180847168e-01 5.798352137207984924e-02 1.204090416431427002e-01 1.309037208557128906e-01 9.934838116168975830e-02 8.459927141666412354e-02 2.135956883430480957e-01 -2.237738966941833496e-01 -1.204870715737342834e-01 1.698125749826431274e-01 -2.841894142329692841e-02 1.233376711606979370e-01 2.440848946571350098e-02 5.882135778665542603e-02 1.582885980606079102e-01 -6.876580417156219482e-02 7.862190157175064087e-02 -1.517012417316436768e-01 -7.423273473978042603e-02 3.656795481219887733e-03 -5.003446340560913086e-02 -7.149772346019744873e-02 -5.252879858016967773e-02 4.187827929854393005e-02 1.804510802030563354e-01 3.480225205421447754e-01 3.721944289281964302e-03 -8.848591893911361694e-02 8.818121999502182007e-02 1.909860968589782715e-01
-1.120533943176269531e-01 -7.408929467201232910e-01 1.489310860633850098e-01 7.065130025148391724e-02 -4.031076282262802124e-02 4.528191983699798584e-01 3.801451325416564941e-01 -1.921900212764739990e-01 -1.445778161287307739e-01 2.532511651515960693e-01 -2.051556557416915894e-01 2.534094750881195068e-01 7.364891171455383301e-01 -9.125437587499618530e-02 -1.680138409137725830e-01 1.151589304208755493e-02 -1.157004982233047485e-01 1.013331487774848938e-01 1.369804143905639648e-01 1.414227038621902466e-01 -1.008281633257865906e-01 3.768984973430633545e-02 -6.678571552038192749e-02 6.457819789648056030e-02 6.759111583232879639e-02 -2.415159493684768677e-01 -5.309809744358062744e-02 -5.546347051858901978e-02 1.226600781083106995e-01 1.813720017671585083e-01 2.776445448398590088e-02 4.382593557238578796e-02 -4.875097423791885376e-02 -9.473911672830581665e-02 -1.688225194811820984e-02 -3.955608978867530823e-02 6.529854983091354370e-02 -2.553000673651695251e-02 6.602913141250610352e-01 2.278951704502105713e-01 4.129065945744514465e-02 1.404798030853271484e-01 -6.044585630297660828e-02 1.421005651354789734e-02 5.289857387542724609e-01 3.675788640975952148e-01 1.668848097324371338e-01 -9.694506973028182983e-02 9.509243816137313843e-02 5.144057422876358032e-02 -1.803229302167892456e-01 1.833820529282093048e-02 -7.511394470930099487e-02 6.520821154117584229e-02 5.997081473469734192e-02 -4.040545225143432617e-02 -2.153666503727436066e-02 2.090752124786376953e-02 -2.678020000457763672e-01 2.967777289450168610e-02 8.225543051958084106e-02 -4.504277557134628296e-02 1.201538592576980591e-01 -3.049941500648856163e-03 -1.754781007766723633e-01 -1.754497177898883820e-02 -2.628572098910808563e-02 2.492709159851074219e-01 -2.386801689863204956e-02 -7.485794275999069214e-02
9.494628757238388062e-02 -8.442015200853347778e-02 7.033533602952957153e-02 9.244758635759353638e-02 1.371451467275619507e-01 2.666337881237268448e-03 -1.037883311510086060e-01 9.395923465490341187e-02 1.018683686852455139e-01 2.266391664743423462e-01 1.570089161396026611e-01 -1.295753270387649536e-01 -8.140949904918670654e-02 1.729699671268463135e-01 -2.217398881912231445e-01 3.166786134243011475e-01 -4.669908806681632996e-02 -2.450562641024589539e-02 -4.298218339681625366e-02 1.153076887130737305e-01 -2.210854142904281616e-01 1.126036196947097778e-01 -6.701864302158355713e-02 -9.402216970920562744e-02 -1.261555105447769165e-01 5.501015484333038330e-02 -5.024589598178863525e-02 1.277641057968139648e-01 7.874137163162231445e-02 -1.983088999986648560e-01 -2.001623064279556274e-01 -1.679611206054687500e-02 -2.012957632541656494e-01 -1.193130984902381897e-01 1.009781844913959503e-02 1.097942441701889038e-01 1.528134346008300781e-01 4.156408831477165222e-02 4.532581195235252380e-02 -9.803003072738647461e-02 6.386219710111618042e-02 4.513404518365859985e-02 -8.177857846021652222e-03 3.097137622535228729e-02 7.577730715274810791e-02 -7.251919806003570557e-02 -1.178308203816413879e-02 2.321527600288391113e-01 3.152720034122467041e-01 1.712833940982818604e-01 5.171109363436698914e-02 1.463405638933181763e-01 1.081373691558837891e-01 -1.585282981395721436e-01 -3.288659453392028809e-02 3.579065203666687012e-02 -1.912773102521896362e-01 1.038177385926246643e-01 -3.903810083866119385e-01 -1.618582755327224731e-01 -7.258396130055189133e-03 -3.084127977490425110e-02 -2.703779190778732300e-02 7.599994540214538574e-02 -1.350370049476623535e-01 -1.020788550376892090e-01 7.713127136230468750e-02 2.511833608150482178e-02 1.114796251058578491e-01 1.310082525014877319e-01
2.241180986166000366e-01 -1.610262244939804077e-01 6.649933755397796631e-02 -2.431457191705703735e-01 -8.740855753421783447e-02 -6.957267876714468002e-03 1.953125149011611938e-01 2.715096995234489441e-02 9.236311912536621094e-02 -2.125729620456695557e-01 -9.544538706541061401e-02 1.288986951112747192e-01 2.941801846027374268e-01 9.257909655570983887e-02 6.708332896232604980e-02 -9.853418171405792236e-02 -8.606095612049102783e-02 6.263216584920883179e-02 1.816367655992507935e-01 6.112938001751899719e-02 -7.632526755332946777e-02 2.401356585323810577e-02 -9.120568633079528809e-02 -5.413920059800148010e-02 5.679647251963615417e-02 -1.595385223627090454e-01 2.434474974870681763e-01 6.627088040113449097e-02 -2.008487936109304428e-04 2.513183653354644775e-01 3.784810751676559448e-02 -8.689012378454208374e-02 -1.873781830072402954e-01 1.343892663717269897e-01 -8.744774013757705688e-02 -7.281851023435592651e-02 -2.936155796051025391e-01 -2.288308292627334595e-01 7.161028683185577393e-02 2.356164753437042236e-01 2.442845255136489868e-01 -5.916775763034820557e-02 -2.423729598522186279e-01 -2.453303188085556030e-01 3.820315375924110413e-02 -7.697916775941848755e-02 1.391756683588027954e-01 -2.651153318583965302e-02 2.581483684480190277e-02 2.785775437951087952e-02 1.451966464519500732e-01 1.615416109561920166e-01 -1.529953181743621826e-01 1.105756312608718872e-01 -1.181477457284927368e-01 -3.602202609181404114e-02 -3.690218627452850342e-01 -1.140972226858139038e-01 -4.017261788249015808e-02 5.568881705403327942e-02 1.681182980537414551e-01 2.349981665611267090e-01 2.444271445274353027e-01 -8.873740583658218384e-02 -2.469052188098430634e-02 -1.005260422825813293e-01 2.604542970657348633e-01 -1.162114441394805908e-01 6.874702125787734985e-02 -4.940119013190269470e-02
-1.100986152887344360e-01 2.601032555103302002e-01 4.180215764790773392e-03 1.396824270486831665e-01 -1.336807459592819214e-01 5.828343331813812256e-02 9.580226987600326538e-02 2.457292824983596802e-01 5.169181898236274719e-02 2.402783185243606567e-01 -3.257984817028045654e-01 2.066332250833511353e-01 1.802674829959869385e-01 1.607878357172012329e-01 -6.442241836339235306e-03 -5.797280073165893555e-01 4.761992990970611572e-01 -1.260052621364593506e-01 2.331144213676452637e-01 9.027171134948730469e-02 2.227856069803237915e-01 -7.530961930751800537e-02 7.449945807456970215e-02 4.406965896487236023e-02 -9.924521669745445251e-03 -1.102358698844909668e-01 -1.471639703959226608e-02 -1.855580359697341919e-01 3.088788874447345734e-02 -1.667417436838150024e-01 6.842251121997833252e-02 -3.456778358668088913e-03 -1.620231941342353821e-02 1.224888265132904053e-01 -4.090944305062294006e-02 4.082268476486206055e-02 5.655171349644660950e-02 1.101507768034934998e-01 9.469363838434219360e-03 4.143063351511955261e-02 3.068518042564392090e-01 -1.472432049922645092e-03 7.973792403936386108e-02 6.695418059825897217e-02 -4.473910108208656311e-02 -3.358265012502670288e-02 2.134854793548583984e-01 -6.037627533078193665e-02 -1.229728758335113525e-01 2.348175346851348877e-01 -1.867496073246002197e-01 -1.450615674257278442e-01 -1.269824057817459106e-01 1.376751512289047241e-01 -2.686431072652339935e-02 -1.161508858203887939e-01 -1.073246002197265625e-01 4.115462675690650940e-02 -1.264018863439559937e-01 -1.023620888590812683e-01 -1.105834171175956726e-01 9.426087141036987305e-02 -1.733886823058128357e-02 1.471356749534606934e-01 -5.550095066428184509e-02 -7.540436461567878723e-03 -1.566530615091323853e-01 -2.095945924520492554e-02 -4.491515085101127625e-02 2.486054748296737671e-01
-5.585808306932449341e-02 -3.233385831117630005e-02 -3.326829895377159119e-02 4.362622275948524475e-02 -1.774503849446773529e-02 1.285881996154785156e-01 1.665263772010803223e-01 1.925068646669387817e-01 -1.379769574850797653e-02 9.688551723957061768e-02 -1.064921393990516663e-01 -1.711709611117839813e-02 4.434701800346374512e-02 1.574868857860565186e-01 -6.933594495058059692e-02 -3.088959120213985443e-02 -1.978614181280136108e-02 6.728988885879516602e-02 1.277983188629150391e-01 -4.959681928157806396e-01 2.722266316413879395e-01 -1.495234575122594833e-02 1.651637069880962372e-02 1.789253950119018555e-02 5.510170478373765945e-03 7.623145729303359985e-02 -4.833299666643142700e-02 -2.503466606140136719e-01 -3.124479055404663086e-01 1.675652116537094116e-01 -1.180027499794960022e-01 2.073660865426063538e-02 -6.195371598005294800e-02 1.256351079791784286e-02 -3.679945692420005798e-02 -3.297606408596038818e-01 -2.072603404521942139e-01 -2.274805456399917603e-01 4.796394333243370056e-02 7.462654262781143188e-02 2.457383871078491211e-01 -2.144797891378402710e-01 -8.349054306745529175e-02 -3.631428480148315430e-01 3.135483264923095703e-01 -1.162562519311904907e-01 1.671438217163085938e-01 -1.835897564888000488e-01 -1.199883744120597839e-01 6.624966859817504883e-02 7.393249869346618652e-02 1.864501237869262695e-01 -1.195558831095695496e-01 4.398999735713005066e-03 1.393686141818761826e-02 -2.724836170673370361e-01 1.631542891263961792e-01 1.385708302259445190e-01 -2.529799239709973335e-03 1.501848995685577393e-01 3.980508819222450256e-02 -2.336517870426177979e-01 2.612526714801788330e-01 -1.719432622194290161e-01 -1.688712090253829956e-01 -1.747893244028091431e-01 3.029200248420238495e-02 -1.742578148841857910e-01 -2.710958197712898254e-02 4.027768597006797791e-02
5.499920248985290527e-01 -2.013752311468124390e-01 1.303529739379882812e-01 -4.880316257476806641e-01 2.071920633316040039e-01 2.883050963282585144e-02 -1.669660024344921112e-02 -2.166262269020080566e-01 1.591752767562866211e-01 -4.132385253906250000e-01 -8.424946665763854980e-02 -3.286549821496009827e-02 -1.988429427146911621e-01 -3.794841766357421875e-01 9.329586476087570190e-02 -5.725232362747192383e-01 -4.947908222675323486e-01 -5.779487267136573792e-02 -2.095275372266769409e-01 5.561917275190353394e-02 8.261490613222122192e-02 -2.789483666419982910e-01 -1.263254135847091675e-01 -5.116104334592819214e-02 -3.524742648005485535e-02 -1.389581561088562012e-01 -6.610506772994995117e-02 -6.946221739053726196e-02 -1.458856016397476196e-01 9.258063882589340210e-02 2.825029790401458740e-01 1.831656098365783691e-01 -7.791902869939804077e-02 -8.149137720465660095e-04 4.486737772822380066e-02 1.921940781176090240e-02 -1.207627262920141220e-02 2.833470106124877930e-01 -1.288455910980701447e-02 6.490765605121850967e-03 -2.181832641363143921e-01 5.346019938588142395e-02 7.329805940389633179e-02 1.342460960149765015e-01 -2.322788536548614502e-02 3.982417285442352295e-02 -2.703327238559722900e-01 -6.684651225805282593e-02 -2.255372256040573120e-01 2.220533788204193115e-02 -1.459849327802658081e-01 -1.966353803873062134e-01 2.749556899070739746e-01 2.960306406021118164e-01 -6.940409541130065918e-02 -1.111598983407020569e-01 -4.683098569512367249e-02 -7.496675103902816772e-02 -3.273339197039604187e-02 -8.666854351758956909e-03 3.517259145155549049e-03 1.050998643040657043e-02 -1.042289808392524719e-01 8.829160034656524658e-02 8.152452111244201660e-02 -1.258553005754947662e-02 9.635006636381149292e-02 -2.759135887026786804e-02 1.649689860641956329e-02 4.131772741675376892e-02
-1.422566175460815430e-01 -2.250148206949234009e-01 -1.458633393049240112e-01 7.135738432407379150e-02 -1.339537836611270905e-02 -3.577633574604988098e-02 1.552518308162689209e-01 7.894104719161987305e-02 8.913889527320861816e-02 1.080774813890457153e-01 7.721638679504394531e-02 -1.203752830624580383e-01 1.226260066032409668e-01 1.669310629367828369e-01 6.555175781250000000e-02 2.938632965087890625e-01 2.362128496170043945e-01 -5.557012930512428284e-02 9.799143671989440918e-02 1.275629252195358276e-01 -1.325556933879852295e-01 7.790640462189912796e-03 -9.894757717847824097e-02 -4.957137256860733032e-02 -1.045714765787124634e-01 1.718302220106124878e-01 3.041932284832000732e-01 -7.688935101032257080e-02 -3.715401515364646912e-02 4.402115195989608765e-02 -1.613122969865798950e-01 6.005347147583961487e-02 -1.619773507118225098e-01 -1.229678317904472351e-01 -1.102704256772994995e-01 -6.584967672824859619e-02 -2.121436782181262970e-02 -3.329795971512794495e-02 1.380909830331802368e-01 -1.688725352287292480e-01 1.368004381656646729e-01 1.185456514358520508e-01 8.429365605115890503e-02 -1.849796026945114136e-01 1.209707930684089661e-01 -1.533132493495941162e-01 1.153028234839439392e-01 -1.252308785915374756e-01 4.931994900107383728e-02 1.985418200492858887e-01 -5.894953384995460510e-03 3.308205306529998779e-02 1.603941470384597778e-01 1.851142644882202148e-01 2.246323227882385254e-01 -3.137733787298202515e-02 2.193400859832763672e-01 -9.574992209672927856e-02 2.174863032996654510e-02 3.200834393501281738e-01 1.489690244197845459e-01 -1.130173206329345703e-01 1.292075663805007935e-01 3.605494648218154907e-02 -1.552580595016479492e-01 -2.793579362332820892e-02 -1.450251042842864990e-01 -7.965110987424850464e-02 4.499129354953765869e-01 1.536481529474258423e-01
7.911019027233123779e-02 -8.186675608158111572e-02 -2.149689495563507080e-01 4.491953179240226746e-02 -2.348674535751342773e-01 -7.307373732328414917e-02 2.417742013931274414e-01 1.419468522071838379e-01 -1.858698129653930664e-01 1.454811096191406250e-01 -2.791668176651000977e-01 1.323134452104568481e-01 1.376806199550628662e-01 4.216241836547851562e-02 1.044581551104784012e-02 1.775195300579071045e-01 -1.161448284983634949e-01 -5.189851392060518265e-03 9.425370395183563232e-02 7.786679267883300781e-02 1.384545117616653442e-01 -4.655313864350318909e-02 2.325046807527542114e-02 -2.696347534656524658e-01 -4.602507501840591431e-02 3.968339413404464722e-02 -1.415425688028335571e-01 -1.244826801121234894e-02 5.480387061834335327e-02 -1.129388883709907532e-01 -8.977188915014266968e-02 -4.520301893353462219e-02 1.124239340424537659e-01 -2.679756283760070801e-01 -1.482494622468948364e-01 1.764960959553718567e-02 -3.737765178084373474e-02 -2.408062294125556946e-02 -2.675811294466257095e-03 9.279898554086685181e-02 1.694465577602386475e-01 4.271202906966209412e-02 -9.383402019739151001e-02 -2.349535226821899414e-01 1.971610635519027710e-02 -1.207048222422599792e-01 1.293183770030736923e-02 2.265560440719127655e-02 8.486096560955047607e-02 -1.448768526315689087e-01 -9.046378545463085175e-03 -3.688397258520126343e-02 1.917987912893295288e-01 2.265883386135101318e-01 3.789526522159576416e-01 3.013977110385894775e-01 -9.227889031171798706e-02 1.135934144258499146e-02 -1.500669270753860474e-01 8.145306259393692017e-03 -7.603563368320465088e-03 1.227645203471183777e-01 3.304352164268493652e-01 4.404177516698837280e-02 -3.329475522041320801e-01 2.684204876422882080e-01 -2.248762547969818115e-01 7.058488577604293823e-02 9.666109085083007812e-02 -1.618239432573318481e-01
2.155025750398635864e-01 -1.738622970879077911e-02 -1.873310059309005737e-01 1.583111286163330078e-01 2.240730375051498413e-01 2.216603234410285950e-02 -2.295165657997131348e-01 1.351678967475891113e-01 3.994627669453620911e-02 1.220612153410911560e-01 -1.477156728506088257e-01 2.097514867782592773e-01 -3.070320487022399902e-01 -1.611538231372833252e-02 2.297409065067768097e-02 -3.244203329086303711e-02 -3.855955973267555237e-02 -2.115199109539389610e-03 1.471912115812301636e-01 -1.042319610714912415e-01 -1.263422891497612000e-02 1.570489257574081421e-01 -1.261265724897384644e-01 2.079530358314514160e-01 2.469798773527145386e-01 -1.326886862516403198e-01 4.521212726831436157e-02 2.393587346887215972e-04 6.393703073263168335e-02 1.018405258655548096e-01 -1.906253099441528320e-01 9.143735468387603760e-02 -2.570342272520065308e-02 1.353950947523117065e-01 -1.467601805925369263e-01 -8.653654903173446655e-02 1.659925431013107300e-01 6.119283288717269897e-02 1.214515268802642822e-01 -3.678691387176513672e-01 2.014527022838592529e-01 -4.229701682925224304e-02 5.429273471236228943e-02 9.976619482040405273e-02 2.010322958230972290e-01 -4.566502273082733154e-01 8.128726482391357422e-02 1.355827599763870239e-01 4.763714969158172607e-03 1.820219866931438446e-02 -3.714834898710250854e-02 -1.836665160953998566e-02 -3.438111245632171631e-01 -1.565072801895439625e-03 1.645177416503429413e-02 1.794330403208732605e-02 1.597602218389511108e-01 1.070664748549461365e-01 7.494246959686279297e-02 -7.358749397099018097e-03 2.573242187500000000e-01 7.195960730314254761e-02 9.497997164726257324e-02 -2.846500873565673828e-01 -1.597514748573303223e-02 -8.222844451665878296e-02 1.150457747280597687e-02 -1.411174833774566650e-01 -5.576917529106140137e-02 3.348536789417266846e-01
-8.292921632528305054e-02 3.931275606155395508e-01 -3.129006549715995789e-02 1.166950836777687073e-01 -3.045648150146007538e-02 -2.201066464185714722e-01 2.533327639102935791e-01 2.854795753955841064e-01 7.892241328954696655e-02 1.960566788911819458e-01 7.906981557607650757e-02 -3.277269303798675537e-01 2.566166818141937256e-01 2.236016690731048584e-01 1.077815666794776917e-01 3.126733601093292236e-01 2.390791177749633789e-01 1.948672235012054443e-01 -2.739736437797546387e-02 1.369136571884155273e-01 1.302149798721075058e-02 2.052225545048713684e-02 -3.470277646556496620e-03 3.425071388483047485e-02 -2.518619038164615631e-02 9.488459676504135132e-03 1.322817653417587280e-01 1.597468703985214233e-01 1.456265747547149658e-01 -1.217314377427101135e-01 -2.128541022539138794e-01 -3.601144626736640930e-02 1.069831922650337219e-01 -1.631427854299545288e-01 -1.685211807489395142e-01 1.278055757284164429e-01 1.716754585504531860e-01 -1.151350587606430054e-01 1.750888861715793610e-02 -9.614974260330200195e-02 1.868382692337036133e-01 -1.003636047244071960e-01 3.389010578393936157e-02 -1.820735484361648560e-01 4.454422742128372192e-03 -1.261584758758544922e-01 -9.012455493211746216e-02 -7.647606730461120605e-02 2.095674425363540649e-01 3.196450769901275635e-01 -5.712047684937715530e-03 1.220445986837148666e-02 1.966478824615478516e-01 3.394792973995208740e-02 2.343191951513290405e-01 -1.546675562858581543e-01 1.269867867231369019e-01 1.624995656311511993e-02 -6.513613462448120117e-02 3.272033333778381348e-01 1.406228989362716675e-01 1.388959139585494995e-01 -1.032538563013076782e-01 -9.587103873491287231e-02 -2.625813186168670654e-01 -8.472804725170135498e-02 -2.597326599061489105e-02 -8.474767208099365234e-02 -1.831558495759963989e-01 1.283603310585021973e-01
-3.406547009944915771e-02 -4.153319895267486572e-01 1.177013888955116272e-01 1.678021997213363647e-01 -1.551916822791099548e-02 1.201858669519424438e-01 8.530186116695404053e-02 1.255000289529561996e-02 3.232007920742034912e-01 2.132122367620468140e-01 9.963393211364746094e-02 1.213886514306068420e-01 1.513729691505432129e-01 -1.405377984046936035e-01 1.102097257971763611e-01 -1.216802299022674561e-01 1.352803707122802734e-01 5.259264633059501648e-02 -1.804183572530746460e-01 9.537362493574619293e-03 7.347957044839859009e-02 -1.348648667335510254e-01 1.886503770947456360e-02 1.579936221241950989e-02 1.997999101877212524e-01 -2.782419621944427490e-01 1.350758522748947144e-01 1.028501428663730621e-03 3.271983265876770020e-01 -3.853711485862731934e-01 -1.374244987964630127e-01 6.048606708645820618e-02 -1.290072686970233917e-02 -4.827549308538436890e-02 6.709773838520050049e-02 1.167760416865348816e-01 4.843040555715560913e-02 -8.111730962991714478e-02 3.153491020202636719e-01 -7.596727460622787476e-02 -3.066314943134784698e-02 2.123616635799407959e-01 1.798590831458568573e-02 -6.375150382518768311e-02 1.524785310029983521e-01 7.747153937816619873e-02 -1.742962896823883057e-01 -1.710277795791625977e-01 2.152808755636215210e-01 4.196177795529365540e-02 -2.360834479331970215e-01 -7.222397625446319580e-02 7.230009883642196655e-02 1.727133542299270630e-01 -5.374018102884292603e-02 6.835140287876129150e-02 -1.697710454463958740e-01 -2.769760191440582275e-01 -2.085347473621368408e-01 1.385476291179656982e-01 4.321561008691787720e-02 1.040267199277877808e-01 -6.758975237607955933e-02 -2.315747737884521484e-02 5.876575782895088196e-02 1.664868891239166260e-01 1.549586355686187744e-01 -1.417894382029771805e-02 -5.828354042023420334e-03 5.165569484233856201e-03
-1.138054504990577698e-01 -5.058096647262573242e-01 2.336902171373367310e-01 -8.718384802341461182e-02 8.712588250637054443e-02 1.200259923934936523e-01 4.924445413053035736e-03 1.179869025945663452e-01 6.189148873090744019e-02 8.247248828411102295e-02 -2.109446749091148376e-02 2.317009717226028442e-01 3.076881729066371918e-02 1.221841126680374146e-01 3.763181716203689575e-02 -2.392144501209259033e-01 -1.670307219028472900e-01 2.107195109128952026e-01 1.695395410060882568e-01 5.907022207975387573e-02 1.091398820281028748e-01 -4.952722042798995972e-02 2.845568023622035980e-02 -2.726341485977172852e-01 -2.865981459617614746e-01 7.338572293519973755e-02 -9.716075845062732697e-03 3.211225941777229309e-02 -7.632504403591156006e-02 -9.772720932960510254e-02 -2.767302468419075012e-02 1.912199705839157104e-01 1.142532601952552795e-01 -6.605134904384613037e-02 1.690762303769588470e-02 1.368004828691482544e-01 -2.427874356508255005e-01 1.686594188213348389e-01 -3.844538703560829163e-02 4.711783304810523987e-02 2.605254352092742920e-01 9.813503362238407135e-03 -3.827909752726554871e-02 1.569334268569946289e-01 1.268443167209625244e-01 4.660804569721221924e-02 1.933723241090774536e-01 -8.423683047294616699e-02 -7.337672263383865356e-02 -1.863898783922195435e-01 -1.002378314733505249e-01 7.952471822500228882e-02 -1.590454876422882080e-01 -2.333725392818450928e-01 -4.627946019172668457e-02 -1.119440421462059021e-01 -4.635451138019561768e-01 2.526296116411685944e-02 1.690163761377334595e-01 -6.894720345735549927e-02 -1.264103353023529053e-01 6.519759446382522583e-02 1.833495125174522400e-02 1.465566307306289673e-01 8.772917836904525757e-02 1.204588785767555237e-01 -2.996935881674289703e-02 -1.137524144724011421e-03 -1.413278877735137939e-01 9.426554292440414429e-02
-1.748794466257095337e-01 -4.832868576049804688e-01 -1.156960651278495789e-01 2.377041280269622803e-01 1.267257183790206909e-01 7.714889198541641235e-02 1.713129132986068726e-01 3.713808581233024597e-02 7.951804250478744507e-02 1.948786228895187378e-01 3.182169198989868164e-01 -9.153603017330169678e-02 3.466590642929077148e-01 -7.796447724103927612e-02 9.216989576816558838e-02 -1.425030231475830078e-01 1.160073280334472656e-02 7.222586870193481445e-02 8.351969718933105469e-02 5.878023803234100342e-02 2.073905803263187408e-02 -4.918723925948143005e-02 1.349742263555526733e-01 -6.059560924768447876e-02 -6.153273582458496094e-02 3.357669115066528320e-01 3.734313696622848511e-02 8.501041680574417114e-02 4.161370173096656799e-02 5.764319375157356262e-02 -2.852614596486091614e-02 -1.458328366279602051e-01 1.064585056155920029e-02 -2.387769334018230438e-02 -3.148970380425453186e-02 -1.402320712804794312e-01 9.198112785816192627e-02 1.325977146625518799e-01 2.802083492279052734e-01 9.126493334770202637e-02 -2.107539921998977661e-01 -3.175363838672637939e-01 1.233108565211296082e-01 2.259392142295837402e-01 2.125895209610462189e-02 8.565616607666015625e-02 4.848959296941757202e-02 3.770635426044464111e-01 1.452923715114593506e-01 -2.518151998519897461e-01 -1.075168251991271973e-01 4.385634139180183411e-02 -1.447481065988540649e-01 -9.715864807367324829e-02 9.523274376988410950e-03 1.506998389959335327e-01 1.004668250679969788e-01 -8.264315873384475708e-02 3.832560777664184570e-01 8.211258798837661743e-03 6.223879754543304443e-02 -4.930481314659118652e-02 -1.122078895568847656e-01 3.439670428633689880e-02 -2.015390098094940186e-01 -1.331599056720733643e-01 -1.677213609218597412e-01 -1.241777762770652771e-01 -8.743629604578018188e-02 3.866246715188026428e-02
-8.726873248815536499e-02 2.571337670087814331e-02 -2.029864490032196045e-01 -9.722875803709030151e-02 -1.244116872549057007e-01 3.613372147083282471e-01 -1.330963820219039917e-01 2.183329761028289795e-01 -6.069801002740859985e-02 3.768569231033325195e-02 -2.213930785655975342e-01 -1.558958441019058228e-01 6.630548834800720215e-02 1.152117252349853516e-01 2.220442742109298706e-01 1.004153937101364136e-01 -1.805627942085266113e-01 -7.017929106950759888e-02 2.159435749053955078e-01 -9.990014135837554932e-02 5.435744673013687134e-02 -4.335305690765380859e-01 -3.953901305794715881e-02 1.152426823973655701e-01 4.755577072501182556e-02 -2.137202769517898560e-02 -1.849659383296966553e-01 -2.104878425598144531e-01 -1.042135730385780334e-01 6.030248850584030151e-02 -6.296730041503906250e-02 -4.919600114226341248e-02 4.771247878670692444e-02 1.221481785178184509e-01 1.203398928046226501e-01 2.570299506187438965e-01 -4.631865769624710083e-02 1.234995722770690918e-01 2.968867421150207520e-01 -2.289897650480270386e-01 1.850924938917160034e-01 2.896246686577796936e-02 -1.204148679971694946e-01 1.405514329671859741e-01 2.328035384416580200e-01 -1.636768281459808350e-01 3.169389069080352783e-01 1.923456937074661255e-01 -2.609179615974426270e-01 -3.147296905517578125e-01 -4.479607567191123962e-03 9.626194834709167480e-03 -1.579493433237075806e-01 5.632250569760799408e-03 6.676493585109710693e-02 1.298122555017471313e-01 2.400212138891220093e-01 2.073968648910522461e-01 -3.748954506590962410e-03 9.373920969665050507e-03 4.430330172181129456e-02 -6.419274955987930298e-02 2.017852514982223511e-01 2.259582430124282837e-01 2.019095793366432190e-02 -5.241229757666587830e-02 1.391086578369140625e-01 1.722087562084197998e-01 -8.395801484584808350e-02 7.638916373252868652e-02
-3.766966760158538818e-01 4.242378771305084229e-01 3.040737239643931389e-03 4.982112050056457520e-01 -1.246268376708030701e-01 -7.256413996219635010e-02 -1.643657088279724121e-01 1.481946110725402832e-01 3.136112913489341736e-02 3.613410592079162598e-01 -2.510411664843559265e-02 -1.679782122373580933e-01 -5.614973604679107666e-02 2.523117661476135254e-01 3.380815032869577408e-03 3.851850926876068115e-01 4.694530367851257324e-01 3.527298569679260254e-02 4.339309781789779663e-02 -5.014013126492500305e-02 2.128185778856277466e-01 -4.578072205185890198e-02 1.888609528541564941e-01 1.781901568174362183e-01 1.901455223560333252e-01 -3.013283610343933105e-01 -1.520751118659973145e-01 7.933836430311203003e-02 1.308688670396804810e-01 8.167695254087448120e-02 5.673048272728919983e-02 -4.972719028592109680e-02 5.185547471046447754e-02 1.156325936317443848e-01 4.471479356288909912e-02 1.701451092958450317e-01 2.042849659919738770e-01 -4.759114235639572144e-02 -5.625195801258087158e-02 -3.127555549144744873e-01 -9.868244826793670654e-02 2.626842558383941650e-01 1.625736951828002930e-01 2.356917038559913635e-02 -2.440052628517150879e-01 -2.050907537341117859e-02 3.952126204967498779e-02 5.271904543042182922e-02 1.856451039202511311e-03 9.754205495119094849e-02 6.262093782424926758e-02 8.732524514198303223e-02 3.551381826400756836e-01 9.408655762672424316e-02 -1.842318326234817505e-01 -5.760098621249198914e-02 -1.042337715625762939e-01 9.153407067060470581e-02 -1.905795186758041382e-01 3.909905627369880676e-02 9.220287948846817017e-02 6.757387518882751465e-02 4.634704813361167908e-02 -5.243569612503051758e-02 -3.452160656452178955e-01 3.698925673961639404e-02 -8.602070063352584839e-02 -7.350374013185501099e-02 4.664850980043411255e-02 1.851087808609008789e-01
-3.239336237311363220e-02 -2.412716001272201538e-01 1.031157448887825012e-01 -2.660749107599258423e-02 2.689628116786479950e-02 1.256306469440460205e-01 -1.972143203020095825e-01 3.429516404867172241e-02 9.218820929527282715e-02 1.337227672338485718e-01 -7.326849550008773804e-02 3.408538401126861572e-01 -7.606799900531768799e-02 -1.257678680121898651e-02 -1.133193075656890869e-01 2.585216797888278961e-02 -2.828800976276397705e-01 7.544198539108037949e-03 -7.588610798120498657e-02 -5.460256338119506836e-02 -7.812834531068801880e-02 9.697397053241729736e-02 1.429179962724447250e-02 4.837355762720108032e-02 5.566160380840301514e-02 2.706863582134246826e-01 1.206870526075363159e-01 -1.559457331895828247e-01 1.257204711437225342e-01 -4.565078765153884888e-02 -6.057377159595489502e-02 7.363855838775634766e-02 3.005146235227584839e-02 9.343991428613662720e-02 4.412399977445602417e-02 -3.348437249660491943e-01 -1.710854321718215942e-01 5.784726142883300781e-02 9.369532763957977295e-02 1.040275469422340393e-01 1.140740811824798584e-01 -2.033961266279220581e-01 -2.598389685153961182e-01 1.362192332744598389e-01 1.560847014188766479e-01 -2.039050757884979248e-01 -7.628741115331649780e-02 -2.471642196178436279e-02 -9.390166960656642914e-03 1.802900433540344238e-01 1.163015067577362061e-01 -5.463170818984508514e-03 -1.819013357162475586e-01 1.310279220342636108e-01 1.345528811216354370e-01 -1.441953182220458984e-01 8.895310759544372559e-02 3.135470747947692871e-01 1.993370205163955688e-01 -3.900399804115295410e-02 -4.447592422366142273e-02 -8.358500897884368896e-02 2.734670937061309814e-01 1.132303699851036072e-01 -7.332018762826919556e-02 1.228829026222229004e-01 -2.896147370338439941e-01 -2.873057425022125244e-01 1.606349200010299683e-01 1.322831362485885620e-01
3.467310220003128052e-02 5.932349562644958496e-01 -3.516118600964546204e-02 -4.077969864010810852e-02 -1.435475796461105347e-01 -3.253914043307304382e-02 4.688237309455871582e-01 -2.293909490108489990e-01 1.082580611109733582e-01 1.168044880032539368e-01 -1.007055863738059998e-01 -1.796003580093383789e-01 1.391566991806030273e-01 -1.375835090875625610e-01 -1.472556442022323608e-01 5.730484053492546082e-02 -2.505528628826141357e-01 1.180713847279548645e-01 -6.452201306819915771e-02 1.001922860741615295e-01 1.192323341965675354e-01 -7.724998146295547485e-02 -3.307859599590301514e-02 2.455410063266754150e-01 1.090501807630062103e-02 1.359929591417312622e-01 9.931905195116996765e-03 -2.862831577658653259e-02 -3.837928175926208496e-02 8.983549475669860840e-02 2.639271318912506104e-01 -1.107462793588638306e-01 1.802887618541717529e-01 4.554250463843345642e-02 1.291806995868682861e-01 1.324394196271896362e-01 7.195843011140823364e-02 -1.671406030654907227e-01 -9.679536521434783936e-02 -1.137809362262487411e-03 1.369222719222307205e-02 3.146935999393463135e-02 2.061292827129364014e-01 -1.768374890089035034e-01 -1.058496609330177307e-01 1.223179548978805542e-01 2.592263817787170410e-01 -2.589285671710968018e-01 -1.875496357679367065e-01 -1.105249077081680298e-01 2.463661879301071167e-02 -7.020344585180282593e-02 3.568649590015411377e-01 8.575797080993652344e-02 7.740616798400878906e-02 1.654917448759078979e-01 -7.614138722419738770e-02 6.953454762697219849e-02 -2.836130186915397644e-02 1.471672113984823227e-02 -6.369221210479736328e-02 2.683631181716918945e-01 -6.672585755586624146e-02 1.838428527116775513e-01 5.071164295077323914e-02 -1.291519552469253540e-01 -8.300157636404037476e-02 4.187701642513275146e-02 -9.684046357870101929e-02 -2.658980898559093475e-02
-6.938588619232177734e-02 -4.609951674938201904e-01 4.853702709078788757e-02 2.316855490207672119e-01 1.947537064552307129e-02 1.692906916141510010e-01 -6.847017910331487656e-03 1.886783391237258911e-01 8.209337294101715088e-02 4.113286435604095459e-01 4.501386731863021851e-02 1.024817749857902527e-01 1.036874577403068542e-01 -6.124968826770782471e-02 -1.165982112288475037e-01 -1.822556555271148682e-01 1.671675778925418854e-02 6.969403941184282303e-03 -2.063844949007034302e-01 1.340747177600860596e-01 2.318039536476135254e-01 -1.098533272743225098e-01 8.669246733188629150e-02 -9.158518910408020020e-02 4.937418550252914429e-02 9.991606697440147400e-03 -2.864181436598300934e-02 1.228972598910331726e-01 -3.648300189524888992e-03 -3.000522255897521973e-01 -1.455136388540267944e-01 4.592407643795013428e-01 -1.332631707191467285e-01 1.635146737098693848e-01 2.956671523861587048e-04 -6.958176195621490479e-02 -1.609365195035934448e-01 -4.307898227125406265e-03 2.174479663372039795e-01 9.401071816682815552e-02 1.584355533123016357e-01 1.369903534650802612e-01 -1.508338749408721924e-01 -3.456361219286918640e-02 1.057599857449531555e-01 -3.666896373033523560e-02 3.440895378589630127e-01 -2.340265214443206787e-01 8.711144328117370605e-02 5.166395008563995361e-02 8.767500519752502441e-02 2.000198066234588623e-01 8.698464930057525635e-02 -1.075513102114200592e-02 -2.462202608585357666e-01 -1.286483108997344971e-01 -8.795326948165893555e-02 -1.442521363496780396e-01 -1.217498034238815308e-01 2.455471307039260864e-01 -2.371931821107864380e-01 3.662142157554626465e-01 5.030249804258346558e-02 -7.576853781938552856e-02 9.969898313283920288e-02 3.025388717651367188e-02 2.022021859884262085e-01 2.672777883708477020e-02 7.125877775251865387e-03 -9.506014734506607056e-02
1.436419934034347534e-01 2.817033529281616211e-01 1.243091076612472534e-01 -4.476292803883552551e-02 -4.591298997402191162e-01 -2.101243883371353149e-01 3.325715959072113037e-01 -7.654188573360443115e-02 -1.707821711897850037e-02 -1.596323400735855103e-01 -4.324285686016082764e-01 -2.018716484308242798e-01 4.514325559139251709e-01 -2.876320481300354004e-02 -3.644812703132629395e-01 2.670614719390869141e-01 -2.272664904594421387e-01 2.383317053318023682e-02 1.476145386695861816e-01 1.420731544494628906e-01 -2.750125713646411896e-02 -1.794574409723281860e-01 4.347717016935348511e-02 -9.818235039710998535e-02 -6.398990750312805176e-03 -1.209176331758499146e-01 -1.151573359966278076e-01 -1.374010592699050903e-01 -1.322394907474517822e-01 -1.248910799622535706e-01 -2.387508284300565720e-03 1.380030214786529541e-01 8.209728635847568512e-03 1.378012150526046753e-01 4.729863256216049194e-02 1.971647888422012329e-01 -2.846907675266265869e-01 -8.181416243314743042e-02 -8.055730164051055908e-02 1.633139252662658691e-01 1.391744017601013184e-01 1.517611593008041382e-01 -4.807185754179954529e-02 -9.445179253816604614e-02 -1.472308039665222168e-01 3.652329742908477783e-01 1.204980444163084030e-02 -1.295052617788314819e-01 -5.977588891983032227e-02 -4.906617105007171631e-02 3.929275274276733398e-02 4.041091725230216980e-02 -4.621916264295578003e-02 -6.432981044054031372e-02 -8.162797242403030396e-02 -1.129710674285888672e-01 2.356578037142753601e-02 -4.213908687233924866e-03 -2.632015943527221680e-01 -1.486261636018753052e-01 -1.999683976173400879e-01 -2.029547095298767090e-01 -2.463358789682388306e-01 2.279474884271621704e-01 6.050647795200347900e-02 1.084533240646123886e-02 2.208000570535659790e-01 1.032481268048286438e-01 -4.119604825973510742e-02 -1.238047853112220764e-01
-2.335426025092601776e-02 3.941017389297485352e-02 -4.077813029289245605e-02 7.122899591922760010e-02 -5.932750925421714783e-02 -4.279133677482604980e-02 3.218965232372283936e-01 2.452363260090351105e-02 2.256829142570495605e-01 1.281579881906509399e-01 -1.472215652465820312e-01 -1.248089745640754700e-01 2.678169310092926025e-01 -2.899420633912086487e-02 1.168413385748863220e-01 6.450044363737106323e-02 1.696336455643177032e-02 3.018003404140472412e-01 6.732635200023651123e-02 -4.718280583620071411e-02 1.218909025192260742e-02 9.809345752000808716e-02 -8.194203674793243408e-02 -5.626456439495086670e-02 6.773841381072998047e-02 -8.040339499711990356e-02 3.103671595454216003e-02 -2.357552386820316315e-02 -5.709286034107208252e-02 7.972235977649688721e-02 9.005033224821090698e-02 7.508189231157302856e-02 -5.467025190591812134e-02 3.079312443733215332e-01 -1.383092552423477173e-01 1.007800623774528503e-01 6.830057501792907715e-02 -1.563042551279067993e-01 -5.454178899526596069e-02 4.135951697826385498e-01 7.478683441877365112e-02 -6.459794938564300537e-03 4.324122145771980286e-02 -1.588829904794692993e-01 -9.353389590978622437e-02 1.233904138207435608e-01 1.392787843942642212e-01 1.319258362054824829e-01 -9.861087054014205933e-02 -5.779102444648742676e-02 7.706399261951446533e-02 2.422891706228256226e-01 -1.287983804941177368e-01 -3.210574621334671974e-03 -2.437892556190490723e-01 -9.280388802289962769e-02 2.069953978061676025e-01 -5.191841721534729004e-02 -2.297828793525695801e-01 1.307284235954284668e-01 -1.089080125093460083e-01 -3.335025608539581299e-01 -1.202729493379592896e-01 -1.152282357215881348e-01 1.243519410490989685e-01 -1.983548849821090698e-01 2.238403856754302979e-01 -1.323765963315963745e-01 3.701484948396682739e-02 -7.121088355779647827e-02
-1.682884991168975830e-01 9.713901672512292862e-04 -4.133823886513710022e-02 3.263604640960693359e-01 -3.577116429805755615e-01 -1.399996783584356308e-02 3.188739717006683350e-01 3.283235430717468262e-01 -8.979394100606441498e-03 2.666552662849426270e-01 -1.993773132562637329e-01 -4.658803716301918030e-02 2.130785286426544189e-01 5.156636238098144531e-02 1.303875148296356201e-01 -1.148515641689300537e-01 5.304849147796630859e-01 1.276895403861999512e-01 -1.492489576339721680e-01 2.351728454232215881e-02 -2.505824342370033264e-02 -2.787016630172729492e-01 -2.227571979165077209e-02 -1.701564192771911621e-01 2.193835005164146423e-02 2.732460200786590576e-02 8.052682131528854370e-02 -3.291732817888259888e-02 1.936334818601608276e-01 -1.428995132446289062e-01 -3.659381270408630371e-01 3.307164460420608521e-02 -3.797828853130340576e-01 6.098750163801014423e-04 4.854026809334754944e-02 -7.915212213993072510e-02 1.357945352792739868e-01 1.434142291545867920e-01 3.773869201540946960e-02 8.386260271072387695e-02 4.710301011800765991e-02 -1.010219901800155640e-01 4.028329998254776001e-02 4.017790779471397400e-02 1.444976031780242920e-01 1.214696466922760010e-01 -3.104995936155319214e-02 6.218798458576202393e-02 6.854513287544250488e-02 2.769077569246292114e-02 7.780293468385934830e-03 -2.113651931285858154e-01 -7.486224174499511719e-02 5.476593598723411560e-02 -1.341388970613479614e-01 -1.019459590315818787e-01 -9.221167862415313721e-02 2.679673023521900177e-02 -1.085411980748176575e-01 -1.514595001935958862e-01 4.708734899759292603e-02 1.161479502916336060e-01 -1.293420642614364624e-01 -1.192977800965309143e-01 1.428646296262741089e-01 -1.358111798763275146e-01 1.033974159508943558e-02 1.242569088935852051e-01 3.220530226826667786e-02 -8.971571177244186401e-02
8.181321620941162109e-02 -9.457102417945861816e-02 -1.112936139106750488e-01 -1.007051318883895874e-01 7.690981030464172363e-02 2.645729780197143555e-01 -4.055100679397583008e-02 4.504775628447532654e-02 5.294944718480110168e-02 -1.290069669485092163e-01 -7.272103428840637207e-02 1.502156853675842285e-01 -1.447176933288574219e-01 1.702781617641448975e-01 1.278236508369445801e-01 2.208781987428665161e-01 2.400814145803451538e-01 5.048465356230735779e-02 -1.232218295335769653e-01 -1.224735006690025330e-01 -1.065067350864410400e-01 2.915307879447937012e-01 -6.568274646997451782e-02 4.973750934004783630e-02 8.599130809307098389e-02 -2.363976091146469116e-02 2.760849595069885254e-01 1.976814717054367065e-01 -1.545154303312301636e-01 -1.190316230058670044e-01 -1.930632977746427059e-03 9.243652224540710449e-02 3.487541154026985168e-02 -8.456813544034957886e-02 -8.949282020330429077e-02 -5.875236541032791138e-02 1.133456900715827942e-01 -1.525681912899017334e-01 1.038046926259994507e-01 -1.154331117868423462e-01 -8.997263759374618530e-02 9.921627491712570190e-02 1.116174384951591492e-01 -1.140867639333009720e-02 -4.237886145710945129e-02 -1.815840005874633789e-01 -2.810080163180828094e-02 -2.595579028129577637e-01 1.643011569976806641e-01 -2.142271725460886955e-03 -8.998613804578781128e-03 -2.526385709643363953e-02 -3.821530565619468689e-02 -1.990945935249328613e-01 -1.152326315641403198e-01 -1.870581507682800293e-01 1.256248354911804199e-01 1.806814074516296387e-01 1.355304718017578125e-01 1.525873839855194092e-01 3.064850568771362305e-01 -1.003890335559844971e-01 1.887993365526199341e-01 -9.996575117111206055e-02 -5.715659633278846741e-02 1.063311845064163208e-01 1.811591722071170807e-02 -4.035397246479988098e-02 -3.188304305076599121e-01 8.824441581964492798e-02
-8.601397275924682617e-02 -2.116961777210235596e-02 -5.141885578632354736e-02 2.057992070913314819e-01 7.753022760152816772e-02 1.357243508100509644e-01 4.814602062106132507e-02 -1.547090411186218262e-01 -1.683521717786788940e-01 2.560047507286071777e-01 -5.084808915853500366e-02 6.095862016081809998e-02 -1.270069479942321777e-01 -4.168853163719177246e-02 -2.725722268223762512e-02 -2.285578697919845581e-01 -4.455047249794006348e-01 1.072309017181396484e-01 1.876728534698486328e-01 7.371523231267929077e-02 7.480898499488830566e-02 8.516826480627059937e-02 2.521789260208606720e-02 -4.354225099086761475e-02 2.635678052902221680e-01 -3.056432306766510010e-01 3.827808424830436707e-02 -1.081396862864494324e-01 3.924256656318902969e-03 1.459780931472778320e-01 3.194059729576110840e-01 1.719365455210208893e-02 9.656511992216110229e-02 -1.644149608910083771e-02 -2.556860148906707764e-01 -2.770548127591609955e-02 -1.154534965753555298e-01 -1.220194622874259949e-01 -1.167648122645914555e-03 -8.184253424406051636e-02 1.133273914456367493e-02 4.645164683461189270e-02 -2.210233658552169800e-01 -4.745160043239593506e-02 1.491147279739379883e-01 -1.008707210421562195e-01 -7.172100991010665894e-02 -6.870718300342559814e-02 -2.098483778536319733e-02 -1.361944824457168579e-01 2.135626375675201416e-01 1.957016997039318085e-02 8.540821820497512817e-02 4.775532986968755722e-03 -1.720386743545532227e-02 -7.781708985567092896e-02 -2.241125144064426422e-02 4.283997789025306702e-02 -1.535286307334899902e-01 -2.458991669118404388e-02 -1.286549121141433716e-01 5.809037387371063232e-02 -3.067681789398193359e-01 1.023151054978370667e-01 5.613761022686958313e-02 5.320168659090995789e-02 9.211425669491291046e-03 2.455946989357471466e-02 1.770483702421188354e-01 -3.276270627975463867e-02
-1.113408952951431274e-01 8.694468438625335693e-02 1.758514791727066040e-01 6.933179497718811035e-02 -5.461364984512329102e-02 8.312074840068817139e-02 -7.683213055133819580e-02 1.911941729485988617e-02 1.341082155704498291e-01 -3.254663432016968727e-03 -1.352442204952239990e-01 1.866459287703037262e-02 3.594229742884635925e-02 -7.238996028900146484e-02 -3.746182024478912354e-01 -2.096925228834152222e-01 3.856417238712310791e-01 1.528677344322204590e-01 -7.145801931619644165e-02 1.524624526500701904e-01 4.627898707985877991e-02 3.992436453700065613e-02 -1.708238571882247925e-01 4.179935157299041748e-02 -1.307157725095748901e-01 -2.037566900253295898e-01 -3.677030503749847412e-01 3.706432133913040161e-02 1.450268179178237915e-01 1.872468292713165283e-01 -8.711989969015121460e-02 -1.764578968286514282e-01 -3.314122930169105530e-02 2.936929091811180115e-02 4.337216913700103760e-02 1.338484883308410645e-01 3.596754744648933411e-02 1.651341095566749573e-02 -9.780526906251907349e-02 -8.604190498590469360e-02 5.397801473736763000e-02 3.366843760013580322e-01 -8.898109942674636841e-02 -3.253083676099777222e-02 -5.131949111819267273e-02 1.135562434792518616e-01 1.115095093846321106e-01 -2.341219633817672729e-01 -1.888689026236534119e-02 1.890104562044143677e-01 4.065814316272735596e-01 1.879696547985076904e-01 1.714532673358917236e-01 1.078642383217811584e-01 1.038377825170755386e-02 3.850220516324043274e-02 -9.587328135967254639e-02 -9.026262909173965454e-02 -2.557752132415771484e-01 -1.373658329248428345e-01 -1.121136322617530823e-01 -2.212564945220947266e-01 1.278402507305145264e-01 2.121862471103668213e-01 -1.481604129076004028e-01 -2.155758906155824661e-03 -1.587465107440948486e-01 1.499780267477035522e-01 -4.506188631057739258e-02 1.805422008037567139e-01
1.087766662240028381e-01 -6.482117809355258942e-03 1.534702479839324951e-01 -1.393132209777832031e-01 -3.580520569812506437e-05 -8.497122675180435181e-02 -2.738938927650451660e-01 -6.264174729585647583e-02 1.501746922731399536e-01 2.353102564811706543e-01 9.937636554241180420e-02 -1.490214616060256958e-01 -1.866369545459747314e-01 -3.538221120834350586e-02 -2.166247665882110596e-01 -7.421583682298660278e-02 8.880196511745452881e-02 6.687140464782714844e-02 2.191000580787658691e-01 1.042205542325973511e-01 -7.540236413478851318e-02 -6.087769195437431335e-02 1.133362576365470886e-01 1.178173571825027466e-01 -2.696208953857421875e-01 -1.981409043073654175e-01 2.597934603691101074e-01 -1.945884823799133301e-01 -6.060441210865974426e-02 1.289744228124618530e-01 9.917774796485900879e-02 -1.957795917987823486e-01 1.293304413557052612e-01 -1.539531513117253780e-03 5.026205256581306458e-02 2.079355716705322266e-01 -1.978432945907115936e-02 -1.821428537368774414e-01 9.410968981683254242e-03 -2.051509469747543335e-01 -3.778685033321380615e-01 -4.185267165303230286e-02 -9.105432033538818359e-02 -2.359930276870727539e-01 8.926644176244735718e-02 4.370244592428207397e-02 -2.541984058916568756e-02 -1.077693030238151550e-01 -7.053390890359878540e-02 3.369246795773506165e-02 1.392834633588790894e-01 5.783107876777648926e-02 4.013724997639656067e-02 -9.722512960433959961e-02 1.972914785146713257e-01 -6.838537007570266724e-02 8.046252280473709106e-02 2.591050863265991211e-01 -2.912302017211914062e-01 1.941670626401901245e-01 1.811666041612625122e-01 5.199163034558296204e-02 -9.396109730005264282e-02 3.769685029983520508e-01 -1.096921712160110474e-01 -2.217116765677928925e-02 -1.540271341800689697e-01 9.292896091938018799e-02 -2.054223418235778809e-01 6.561934947967529297e-02
