5.103072896599769592e-02
9.559966623783111572e-02
2.690882887691259384e-03
1.136793661862611771e-02
-4.086221754550933838e-02
-5.428041517734527588e-02
4.298345744609832764e-01
1.545323878526687622e-01
1.346663236618041992e-01
2.554388993303291500e-05
3.993616104125976562e-01
-1.023555397987365723e-01
-2.136977314949035645e-01
3.424922004342079163e-02
-4.006031900644302368e-02
-1.127337804064154625e-03
6.608000397682189941e-02
-2.535588480532169342e-02
-1.864792555570602417e-01
2.944928593933582306e-02
1.768041998147964478e-01
9.785524569451808929e-03
2.818269282579421997e-02
-7.457488775253295898e-02
-5.422379821538925171e-02
6.730188429355621338e-02
-3.669646382331848145e-02
-1.209136173129081726e-01
-2.554023824632167816e-02
-1.024442389607429504e-01
1.423880457878112793e-01
1.682182550430297852e-01
2.880220711231231689e-01
1.153772547841072083e-01
2.812941968441009521e-01
1.986024379730224609e-01
1.811868101358413696e-01
3.510341346263885498e-01
-5.907098948955535889e-02
3.232195973396301270e-02
4.758490994572639465e-02
1.440528929233551025e-01
1.183579713106155396e-01
-8.037619292736053467e-02
-1.756279319524765015e-01
3.253486379981040955e-02
4.346248507499694824e-02
-1.060060486197471619e-01
-1.649298518896102905e-01
-1.154836341738700867e-01
1.843839697539806366e-02
-1.975900493562221527e-02
4.090524911880493164e-01
-1.416123807430267334e-01
-1.457861904054880142e-02
2.452566623687744141e-01
2.010319977998733521e-01
3.052767217159271240e-01
2.368757575750350952e-01
2.451626211404800415e-01
3.275517225265502930e-01
4.080582782626152039e-02
-1.287466753274202347e-02
1.317553222179412842e-01
-1.401556730270385742e-01
2.617571353912353516e-01
-2.304727397859096527e-02
-6.935532391071319580e-02
7.067474722862243652e-02
-1.405313611030578613e-01
4.755517244338989258e-01
8.984755724668502808e-02
4.580328613519668579e-02
-1.354559510946273804e-01
3.257236182689666748e-01
4.091554135084152222e-02
-2.086444944143295288e-02
2.060472369194030762e-01
4.354790747165679932e-01
1.016923040151596069e-02
-1.781371538527309895e-03
7.512390613555908203e-02
2.478013932704925537e-01
1.048788875341415405e-01
-2.198692411184310913e-02
1.035603508353233337e-02
1.837001144886016846e-01
-1.525747356936335564e-03
1.703804545104503632e-02
-1.219343096017837524e-01
-9.363914281129837036e-02
-8.145862817764282227e-02
8.400324732065200806e-03
1.777627170085906982e-01
-6.381709128618240356e-02
-7.222477346658706665e-02
7.474404573440551758e-02
5.914049744606018066e-01
-6.173835322260856628e-02
-1.480983793735504150e-01
3.053791262209415436e-02
-1.733295917510986328e-01
-1.451899576932191849e-02
3.711514174938201904e-01
3.540422618389129639e-01
1.550159137696027756e-02
4.328745305538177490e-01
5.263802036643028259e-02
2.180556505918502808e-01
4.093827903270721436e-01
-1.417791098356246948e-01
9.475208818912506104e-02
3.955064415931701660e-01
1.074227094650268555e-01
-8.628907054662704468e-02
8.480095863342285156e-02
4.258098825812339783e-02
-2.738157659769058228e-02
-4.568600282073020935e-02
2.232730686664581299e-01
1.890018433332443237e-01
4.210299253463745117e-02
1.589312255382537842e-01
-4.383791983127593994e-02
-2.614026702940464020e-02
-4.706006497144699097e-02
-9.841769933700561523e-02
1.585278213024139404e-01
9.682001173496246338e-02
1.257160753011703491e-01
1.579660177230834961e-01
-1.354839652776718140e-01
-1.166433617472648621e-01
-1.154301390051841736e-01
1.791600696742534637e-02
-2.162903361022472382e-02
1.098295822739601135e-01
3.227954730391502380e-02
-3.701983019709587097e-02
3.739204108715057373e-01
9.624344110488891602e-02
-1.177345402538776398e-02
5.062441900372505188e-02
5.628796294331550598e-02
3.467386960983276367e-02
8.919780701398849487e-02
-1.550238728523254395e-01
3.541313707828521729e-01
-1.012952104210853577e-01
4.524606466293334961e-02
-1.444931048899888992e-02
6.792008131742477417e-02
3.357518017292022705e-01
1.672942787408828735e-01
-1.314102709293365479e-01
-7.186795026063919067e-02
3.284624218940734863e-02
-6.671930104494094849e-02
-5.867297202348709106e-02
3.192106634378433228e-02
2.062707692384719849e-01
-8.585774339735507965e-03
4.878302216529846191e-01
6.565789133310317993e-02
1.941607296466827393e-01
-5.966748110949993134e-03
-6.467385590076446533e-02
-1.846938952803611755e-02
1.500807255506515503e-01
3.359162509441375732e-01
1.245637983083724976e-01
1.004980206489562988e-01
3.133700191974639893e-01
-1.323682963848114014e-01
-6.530170887708663940e-02
2.708477526903152466e-02
3.537970483303070068e-01
2.077364325523376465e-01
1.233764514327049255e-01
1.939666867256164551e-01
1.205606162548065186e-01
-2.162213623523712158e-02
2.175552845001220703e-01
-2.490715309977531433e-02
-1.508009433746337891e-02
2.032320760190486908e-02
4.231983721256256104e-01
3.402061760425567627e-01
-6.540977954864501953e-02
7.410709559917449951e-02
-1.287617348134517670e-02
9.334809333086013794e-02
-5.323576182126998901e-02
1.595824062824249268e-01
3.973803222179412842e-01
-1.263755559921264648e-01
-9.302700310945510864e-02
5.012136697769165039e-02
1.735947877168655396e-01
6.728264689445495605e-02
2.392635866999626160e-02
1.526194512844085693e-01
-8.185122162103652954e-03
-1.662691533565521240e-01
-1.921382546424865723e-01
4.015137255191802979e-01
1.312073022127151489e-01
1.659919172525405884e-01
-4.880328476428985596e-02
8.153168857097625732e-02
-8.455826342105865479e-02
2.385463118553161621e-01
2.313865721225738525e-02
2.267262339591979980e-01
9.085746854543685913e-02
1.998011320829391479e-01
4.091154932975769043e-01
-9.470914304256439209e-02
-7.555630058050155640e-02
-9.383706748485565186e-02
5.605151653289794922e-01
-3.839812055230140686e-02
-4.626635834574699402e-02
-4.454452171921730042e-02
4.410241544246673584e-02
1.411482505500316620e-02
4.465584084391593933e-02
2.085285484790802002e-01
4.085664749145507812e-01
3.159050643444061279e-01
1.565382778644561768e-01
-8.123962581157684326e-02
-5.806344747543334961e-02
-9.926264733076095581e-02
2.207700908184051514e-02
-1.916562765836715698e-02
-7.037751376628875732e-03
1.218428090214729309e-01
1.564255207777023315e-01
6.498350948095321655e-02
-3.056571632623672485e-02
1.009114459156990051e-01
2.270936220884323120e-01
-4.046353325247764587e-02
8.636268228292465210e-02
1.648975163698196411e-01
3.394698500633239746e-01
-8.785198628902435303e-02
7.220459729433059692e-02
-9.640359133481979370e-02
1.638637781143188477e-01
3.492743670940399170e-01
-4.946844279766082764e-02
-1.236150488257408142e-01
1.217645220458507538e-02
2.930661439895629883e-01
