-4.050029907375574112e-03
-4.604456573724746704e-02
7.544782757759094238e-02
7.096527516841888428e-02
-2.341546416282653809e-01
6.699955463409423828e-02
1.801470518112182617e-01
4.045894369482994080e-02
6.328573822975158691e-02
-1.403861641883850098e-01
1.825401186943054199e-01
2.071894109249114990e-01
-2.612770199775695801e-01
1.206031963229179382e-01
2.404856681823730469e-02
3.575397655367851257e-03
2.048699557781219482e-01
-1.298812776803970337e-01
1.749174594879150391e-01
2.759836800396442413e-02
1.071649231016635895e-02
2.082519978284835815e-01
1.605164259672164917e-01
3.909039124846458435e-02
6.476225703954696655e-02
9.761226922273635864e-02
-2.582802772521972656e-01
1.138350963592529297e-01
2.631417214870452881e-01
3.305834829807281494e-01
-2.541172504425048828e-01
1.137227267026901245e-01
5.437237769365310669e-02
3.031407892704010010e-01
1.946154832839965820e-01
1.691798418760299683e-01
-8.617547154426574707e-02
-2.278477139770984650e-02
4.314119368791580200e-02
2.164662480354309082e-01
9.781997650861740112e-02
-5.208454281091690063e-02
-4.013566300272941589e-02
1.475599408149719238e-01
7.224705070257186890e-02
9.192484617233276367e-02
2.523623406887054443e-01
1.212319433689117432e-01
2.359746247529983521e-01
9.885474294424057007e-02
3.263704106211662292e-02
-1.580245792865753174e-01
3.540751636028289795e-01
1.613226830959320068e-01
2.188246697187423706e-01
2.149665057659149170e-01
8.734950423240661621e-02
6.919572129845619202e-03
1.105474755167961121e-01
1.383010894060134888e-01
1.052439957857131958e-01
-6.691487878561019897e-02
-3.654375299811363220e-02
7.185270637273788452e-02
1.148658916354179382e-01
2.213579118251800537e-01
4.698919504880905151e-02
-1.460943818092346191e-01
1.878035627305507660e-02
1.445776522159576416e-01
-5.037309601902961731e-02
2.240208238363265991e-01
-1.657573580741882324e-01
1.155627891421318054e-01
-2.750327289104461670e-01
-1.373376101255416870e-01
1.155416592955589294e-01
-1.393957249820232391e-02
-1.238889992237091064e-03
-7.200907170772552490e-02
2.585606276988983154e-01
2.823840975761413574e-01
1.375567913055419922e-01
5.085623636841773987e-02
1.922764331102371216e-01
2.765902578830718994e-01
9.809509664773941040e-02
2.656786935403943062e-03
2.393300235271453857e-01
2.810374200344085693e-01
7.778883725404739380e-02
2.177020311355590820e-01
1.235822662711143494e-01
-1.052187830209732056e-01
8.980201184749603271e-02
-5.039186775684356689e-02
-2.667929418385028839e-02
1.661291718482971191e-01
1.221120581030845642e-01
2.612619102001190186e-02
3.251078426837921143e-01
-1.968918144702911377e-01
-1.614809408783912659e-02
1.890965700149536133e-01
-8.215144276618957520e-02
1.889756321907043457e-01
8.256247639656066895e-02
2.215674668550491333e-01
-9.993136674165725708e-02
-1.401051972061395645e-02
-3.582420945167541504e-02
1.106538102030754089e-01
1.761732697486877441e-01
-9.104307740926742554e-02
-8.655682951211929321e-02
1.766833215951919556e-01
-1.538283890113234520e-03
1.328040808439254761e-01
-4.736100882291793823e-02
2.021483378484845161e-03
1.311772614717483521e-01
3.730843067169189453e-01
-1.334679126739501953e-01
-2.848995663225650787e-02
1.069290637969970703e-01
1.348670721054077148e-01
-1.453718449920415878e-02
4.459363222122192383e-02
-1.668267697095870972e-01
1.185570880770683289e-01
2.720567211508750916e-02
6.077206879854202271e-02
-1.383435260504484177e-02
1.286955773830413818e-01
-5.527935177087783813e-02
5.991952493786811829e-02
4.332214966416358948e-02
1.761802732944488525e-01
5.973839014768600464e-02
-8.204571902751922607e-03
-4.674806405091658235e-05
7.571586221456527710e-02
1.022281721234321594e-01
-1.778967231512069702e-01
-5.866577383130788803e-03
5.016876384615898132e-02
7.631742209196090698e-02
-6.189028918743133545e-02
2.438530921936035156e-01
-5.024121701717376709e-02
-5.203895270824432373e-02
-1.606357842683792114e-01
2.135471999645233154e-01
2.524874508380889893e-01
6.005243957042694092e-02
8.330552279949188232e-02
2.319733500480651855e-01
-1.059536188840866089e-01
2.273847758769989014e-01
8.754473924636840820e-02
9.386494010686874390e-02
1.024608090519905090e-01
-1.061772182583808899e-01
3.266988396644592285e-01
-2.194434404373168945e-02
-9.459054470062255859e-02
6.315813213586807251e-02
2.349563241004943848e-01
2.173627316951751709e-01
7.822803407907485962e-02
1.424682140350341797e-01
-2.076300531625747681e-01
-7.887526601552963257e-02
1.483352631330490112e-01
6.069883704185485840e-02
1.051377728581428528e-01
5.669735744595527649e-02
2.239277362823486328e-01
2.085180878639221191e-01
4.857114981859922409e-03
3.907513618469238281e-01
-1.777182333171367645e-02
-4.159093275666236877e-02
1.197341755032539368e-01
-2.241327911615371704e-01
2.623207867145538330e-01
-2.688758969306945801e-01
-8.891633898019790649e-02
-9.855996817350387573e-02
2.401014864444732666e-01
1.566760241985321045e-01
3.114750683307647705e-01
-1.928717643022537231e-02
1.445896923542022705e-01
3.377914428710937500e-01
2.140644788742065430e-01
1.351189762353897095e-01
2.336004376411437988e-01
1.658319979906082153e-01
2.280627638101577759e-01
-8.045393228530883789e-02
5.167579650878906250e-02
2.521440684795379639e-01
-1.329196691513061523e-01
-1.367315202951431274e-01
8.923002332448959351e-02
4.347318410873413086e-02
-2.094766944646835327e-01
-8.841421455144882202e-02
2.240290641784667969e-01
-5.913142114877700806e-02
1.387577503919601440e-01
-2.349948436021804810e-01
2.569857537746429443e-01
-1.877494007349014282e-01
2.663134336471557617e-01
2.448038905858993530e-01
4.459172114729881287e-02
1.171571314334869385e-01
1.924124062061309814e-01
3.028858639299869537e-02
1.916461251676082611e-02
1.218494325876235962e-01
1.912459433078765869e-01
-1.514577865600585938e-01
-1.154181584715843201e-01
-6.171901524066925049e-02
-1.042463332414627075e-01
3.762527108192443848e-01
5.804316699504852295e-02
1.076450645923614502e-01
2.660511732101440430e-01
-1.587338000535964966e-01
3.025474026799201965e-02
2.090949416160583496e-01
-1.841101795434951782e-02
-1.191709041595458984e-01
2.882522642612457275e-01
6.345678865909576416e-02
2.183708129450678825e-03
2.944496693089604378e-03
-5.496937781572341919e-03
2.911801636219024658e-01
-1.131039857864379883e-01
1.741048991680145264e-01
4.096477106213569641e-02
1.369969993829727173e-01
-1.014242470264434814e-01
1.044948995113372803e-01
9.651969303376972675e-04
2.277376949787139893e-01
-1.469863057136535645e-01
1.604833453893661499e-01
-1.461078524589538574e-01
3.253823518753051758e-02
-5.848976969718933105e-02
