3.593995869159698486e-01
-1.982596144080162048e-02
-7.999523729085922241e-02
2.653106153011322021e-01
2.186579406261444092e-01
1.262437701225280762e-01
-3.394300043582916260e-01
-1.966455727815628052e-01
2.851707041263580322e-01
-1.833877875469624996e-03
2.491492033004760742e-01
8.309999853372573853e-02
3.641418218612670898e-01
1.065537892282009125e-02
2.427776455879211426e-01
-4.399104416370391846e-02
-1.670167781412601471e-02
7.019880414009094238e-02
1.923791947774589062e-03
4.109497964382171631e-01
7.591713219881057739e-02
6.984263658523559570e-02
-2.596995830535888672e-01
-1.187017261981964111e-01
-1.477402634918689728e-02
2.513592541217803955e-01
1.204398870468139648e-01
4.912972822785377502e-02
2.176431715488433838e-01
-2.730555832386016846e-02
6.203735619783401489e-02
5.501372739672660828e-02
9.851553291082382202e-02
2.736389636993408203e-01
-7.573347538709640503e-02
5.588325113058090210e-02
-7.236661761999130249e-02
2.557631134986877441e-01
2.109755277633666992e-01
-1.120969206094741821e-01
4.172993004322052002e-01
1.718195900321006775e-02
-7.005355507135391235e-02
1.213792115449905396e-01
6.228639278560876846e-03
5.942335817962884903e-03
8.785436302423477173e-02
7.143374532461166382e-02
2.658308446407318115e-01
-7.141327857971191406e-02
1.016178280115127563e-01
5.369621887803077698e-02
-1.006626859307289124e-01
-2.399716712534427643e-02
3.303745687007904053e-01
2.821447551250457764e-01
-1.464208513498306274e-01
1.041366010904312134e-01
1.416967660188674927e-01
9.189832024276256561e-03
7.791363447904586792e-02
8.842489123344421387e-02
2.080492824316024780e-01
-1.476651430130004883e-01
2.005562633275985718e-01
1.499143540859222412e-01
1.634829640388488770e-01
4.219623655080795288e-02
2.575069069862365723e-01
-1.145187485963106155e-02
1.078318655490875244e-01
1.986513584852218628e-01
5.045620724558830261e-02
-9.519898146390914917e-02
-3.748044744133949280e-02
5.820038914680480957e-01
2.506557404994964600e-01
8.601314574480056763e-02
6.058529764413833618e-02
2.025123834609985352e-01
2.117015868425369263e-01
1.489562988281250000e-01
6.484223157167434692e-02
-4.445734620094299316e-02
6.060075759887695312e-02
9.312610328197479248e-02
2.657004296779632568e-01
4.468328878283500671e-02
7.545232772827148438e-02
1.710886955261230469e-01
-2.237079851329326630e-02
1.142319291830062866e-01
-2.334218472242355347e-01
8.533878624439239502e-02
2.333478033542633057e-01
5.452450737357139587e-02
5.706304218620061874e-03
-9.706578217446804047e-03
-1.008138358592987061e-01
3.180879056453704834e-01
2.001260519027709961e-01
-1.834689639508724213e-02
4.892767667770385742e-01
1.611674726009368896e-01
1.029983013868331909e-01
1.679094433784484863e-01
-2.963863126933574677e-02
2.164879590272903442e-01
3.477700054645538330e-01
-6.631611287593841553e-02
-1.063112448900938034e-02
1.755374521017074585e-01
-5.637085437774658203e-02
-1.406572759151458740e-01
-1.447530835866928101e-01
5.796698480844497681e-02
8.001008629798889160e-02
2.370867431163787842e-01
2.585255503654479980e-01
1.114647835493087769e-01
2.757576107978820801e-01
-2.106102705001831055e-01
-5.744546651840209961e-02
-5.314846336841583252e-02
1.034597456455230713e-01
-9.906291961669921875e-02
5.932018533349037170e-02
2.486153990030288696e-01
7.103315740823745728e-02
4.011078476905822754e-01
2.700201869010925293e-01
-1.318129152059555054e-01
-4.871444404125213623e-02
-1.953830197453498840e-02
3.357687965035438538e-02
1.547717303037643433e-01
-2.079237252473831177e-02
3.051353394985198975e-01
-1.308129280805587769e-01
5.189493671059608459e-02
4.032168984413146973e-01
2.748720943927764893e-01
3.014208376407623291e-02
-5.126295611262321472e-02
3.374065458774566650e-01
3.630783557891845703e-01
5.690824985504150391e-01
4.273442327976226807e-01
-1.418039053678512573e-01
3.212207928299903870e-02
5.433418750762939453e-01
-7.918538153171539307e-02
4.107597768306732178e-01
-2.641654610633850098e-01
3.309145569801330566e-02
9.436114132404327393e-02
-1.614864468574523926e-01
7.248033583164215088e-02
1.334669142961502075e-01
-8.737192302942276001e-02
3.044033050537109375e-01
1.507957130670547485e-01
-3.299850225448608398e-01
1.151526570320129395e-01
2.831678651273250580e-02
8.519162423908710480e-03
-1.255869120359420776e-01
9.576760232448577881e-02
8.650633506476879120e-03
2.433573752641677856e-01
-3.004854358732700348e-02
2.353163994848728180e-02
-8.174674212932586670e-02
6.131332367658615112e-02
6.469350457191467285e-01
2.064111232757568359e-01
4.356862604618072510e-02
-9.964070469141006470e-02
2.278219312429428101e-01
5.165907740592956543e-02
2.598275989294052124e-02
2.243616580963134766e-01
1.509929597377777100e-01
-1.476040948182344437e-02
1.111817657947540283e-01
1.132434606552124023e-01
5.078330263495445251e-02
-3.133559823036193848e-01
2.008001804351806641e-01
-7.114685326814651489e-02
-8.376047015190124512e-02
-9.072228334844112396e-03
-2.043301938101649284e-03
-1.220680624246597290e-01
4.853944480419158936e-02
-3.149296157062053680e-03
-2.834417484700679779e-02
1.206730455160140991e-01
9.732760488986968994e-02
2.672663927078247070e-01
-1.231446042656898499e-01
4.200473725795745850e-01
-5.595114827156066895e-02
2.207922190427780151e-02
7.049548625946044922e-02
5.652786791324615479e-02
-1.560673862695693970e-01
3.880994627252221107e-03
1.071378290653228760e-01
3.582887351512908936e-01
2.420403957366943359e-01
2.771215140819549561e-02
-1.100994423031806946e-01
-3.574304655194282532e-02
2.826115489006042480e-01
1.565545499324798584e-01
-6.560394912958145142e-02
1.167694702744483948e-01
1.053303331136703491e-01
4.045573174953460693e-01
-6.021282821893692017e-02
-2.578594908118247986e-02
3.176566362380981445e-01
-2.616255357861518860e-02
-1.109339762479066849e-02
1.378021687269210815e-01
1.694488376379013062e-01
-3.215957283973693848e-01
-1.274274587631225586e-01
4.189327359199523926e-01
8.129137009382247925e-02
2.650424838066101074e-01
6.746751256287097931e-03
9.360370039939880371e-02
5.337010324001312256e-02
-1.904011219739913940e-01
3.469007462263107300e-02
-3.311237692832946777e-01
-1.169634312391281128e-01
2.897244393825531006e-01
-6.788962334394454956e-02
-2.819851636886596680e-01
5.107113718986511230e-02
3.376385867595672607e-01
3.564114868640899658e-01
-2.800864577293395996e-01
5.754285454750061035e-01
2.152238339185714722e-01
1.076017767190933228e-01
-2.454025894403457642e-01
2.079825401306152344e-01
7.600644975900650024e-02
-2.285337448120117188e-02
6.217093020677566528e-02
4.772504791617393494e-02
2.134607136249542236e-01
