2.719101011753082275e-01
-1.095186546444892883e-01
4.899782314896583557e-02
1.785758435726165771e-01
2.099780887365341187e-01
9.950734674930572510e-02
9.337109327316284180e-02
-2.440965473651885986e-01
4.661689326167106628e-02
-8.812683820724487305e-02
2.764933407306671143e-01
2.627250552177429199e-01
3.330250382423400879e-01
1.362290829420089722e-01
9.727434813976287842e-02
1.257149875164031982e-01
-1.480625569820404053e-01
1.769233196973800659e-01
1.180449053645133972e-01
2.359872907400131226e-01
2.037402838468551636e-01
-7.249934971332550049e-02
-1.453728824853897095e-01
-1.949331723153591156e-02
-8.060015738010406494e-02
9.180513769388198853e-02
1.152246147394180298e-01
-8.338583260774612427e-02
1.639761403203010559e-02
3.321594595909118652e-01
2.310149073600769043e-01
3.144645318388938904e-02
1.637077629566192627e-01
1.047117263078689575e-01
4.653335735201835632e-02
-1.451118439435958862e-01
2.321688532829284668e-01
4.689424857497215271e-02
2.868484258651733398e-01
-4.629642143845558167e-02
1.042222157120704651e-01
1.357381641864776611e-01
7.343526184558868408e-02
8.956786990165710449e-02
5.532347038388252258e-02
-9.932507574558258057e-02
-4.233576357364654541e-02
1.504939645528793335e-01
2.943923138082027435e-02
2.411203384399414062e-01
-1.337455213069915771e-01
-1.281496882438659668e-01
-9.143907576799392700e-02
1.126990374177694321e-02
-8.032304048538208008e-02
9.450940042734146118e-02
-2.706392295658588409e-02
-1.027752608060836792e-01
2.359116077423095703e-01
2.925297431647777557e-02
-4.178749769926071167e-02
2.844005227088928223e-01
2.352281808853149414e-01
8.677521347999572754e-02
6.107711419463157654e-02
-1.638422310352325439e-01
-4.098563268780708313e-02
-3.737647458910942078e-02
-2.698660828173160553e-02
-1.961204707622528076e-01
1.586010307073593140e-01
-8.043127506971359253e-02
7.322965562343597412e-02
2.126590348780155182e-02
-2.519171498715877533e-02
6.191764026880264282e-02
2.565176412463188171e-02
1.965010017156600952e-01
-6.306220591068267822e-02
3.039539754390716553e-01
-2.800782322883605957e-01
-1.105397343635559082e-01
9.825236350297927856e-02
-6.223934292793273926e-01
3.225309774279594421e-02
1.104236990213394165e-01
3.417039215564727783e-01
-1.355949640274047852e-01
1.566799581050872803e-01
-2.800494804978370667e-02
-1.003237366676330566e-01
2.807335257530212402e-01
2.502195723354816437e-02
-9.755499660968780518e-02
-1.710100471973419189e-02
4.040050879120826721e-02
-4.532175958156585693e-01
1.381876170635223389e-01
6.717632710933685303e-02
-3.215556964278221130e-02
-2.066070027649402618e-02
2.364062219858169556e-01
-7.780269533395767212e-02
2.732392847537994385e-01
7.615099102258682251e-02
2.138442397117614746e-01
-1.795993000268936157e-01
1.284866034984588623e-01
2.095548063516616821e-01
-2.253147363662719727e-01
1.292623728513717651e-01
2.629628591239452362e-02
-3.412475287914276123e-01
2.571279704570770264e-01
-3.723723292350769043e-01
7.895836979150772095e-02
-8.376326411962509155e-02
3.372558578848838806e-02
-2.577726542949676514e-01
1.226857528090476990e-01
5.372596532106399536e-02
3.088061213493347168e-01
3.744960725307464600e-01
1.586451828479766846e-01
2.292522639036178589e-01
7.899402827024459839e-02
3.421249389648437500e-01
-9.386774152517318726e-03
8.754301816225051880e-02
1.970223784446716309e-01
1.614201962947845459e-01
1.312997490167617798e-01
1.692471653223037720e-02
-2.348782718181610107e-01
1.428184360265731812e-01
1.592164635658264160e-01
2.110616415739059448e-01
1.241363137960433960e-01
2.606638707220554352e-02
-5.988959595561027527e-02
1.926850825548171997e-01
2.896103262901306152e-02
-3.930415213108062744e-02
1.524960994720458984e-01
2.045093029737472534e-01
-4.786460846662521362e-02
1.365566253662109375e-01
2.759172320365905762e-01
-8.735284209251403809e-02
1.000964175909757614e-02
-4.141616448760032654e-02
2.459915876388549805e-01
1.710869967937469482e-01
-1.810940504074096680e-01
-1.152054816484451294e-01
7.455997169017791748e-02
-3.044054508209228516e-01
1.827218234539031982e-01
4.040137827396392822e-01
1.397492438554763794e-01
2.967016994953155518e-01
8.912114053964614868e-02
9.467752277851104736e-02
1.054373681545257568e-01
2.500963509082794189e-01
1.548986732959747314e-01
8.265595883131027222e-02
-3.255614042282104492e-01
1.774353533983230591e-01
1.437812745571136475e-01
-1.793209761381149292e-01
3.298138976097106934e-01
-1.740823984146118164e-01
2.564739286899566650e-01
5.359444022178649902e-02
-1.511970907449722290e-02
-1.738221757113933563e-02
-1.101586129516363144e-02
-1.241611763834953308e-01
-1.439730525016784668e-01
-1.790514215826988220e-02
1.301053445786237717e-03
3.004576563835144043e-01
-4.409063234925270081e-02
7.447613775730133057e-02
-1.261777728796005249e-01
1.404873579740524292e-01
2.238499931991100311e-02
-8.907616883516311646e-02
3.167141675949096680e-01
-8.200431615114212036e-02
-3.235551342368125916e-02
-4.100008681416511536e-02
-1.020849216729402542e-03
3.699677065014839172e-02
-6.473771482706069946e-02
9.134218841791152954e-02
-1.837301701307296753e-01
4.622825887054204941e-03
2.541520893573760986e-01
-2.628819085657596588e-02
-1.669040769338607788e-01
-6.820099800825119019e-02
6.427032873034477234e-03
-8.856463432312011719e-02
4.075816273689270020e-02
1.041966602206230164e-01
1.421276628971099854e-01
3.182917535305023193e-01
-4.059421643614768982e-02
8.555518835783004761e-02
3.418739140033721924e-02
6.943753361701965332e-02
-6.057803705334663391e-02
9.675915539264678955e-02
-3.221139311790466309e-02
-1.237612590193748474e-02
1.554875969886779785e-01
1.274499297142028809e-01
2.606058120727539062e-01
-4.743546247482299805e-01
-8.692967705428600311e-03
-2.100648432970046997e-01
-8.097368478775024414e-02
-1.127576008439064026e-01
-1.295334398746490479e-01
-2.123747318983078003e-01
-2.017641663551330566e-01
1.145933568477630615e-01
7.188612967729568481e-02
2.794511057436466217e-02
-4.011994972825050354e-02
-2.156217247247695923e-01
-6.677976995706558228e-02
-3.080913126468658447e-01
1.288396888412535191e-03
2.035977691411972046e-01
-2.225848138332366943e-01
1.910910904407501221e-01
8.415697515010833740e-02
-5.363758280873298645e-02
2.412706315517425537e-01
-2.127669304609298706e-01
7.425719499588012695e-02
-4.304246231913566589e-02
2.715895138680934906e-02
5.574588477611541748e-02
2.342166602611541748e-01
-1.147467568516731262e-01
-2.363374233245849609e-01
-2.288565225899219513e-02
-3.444023132324218750e-01
-2.921060025691986084e-01
1.841201335191726685e-01
2.100990861654281616e-01
-1.119707711040973663e-02
