-7.749613374471664429e-02
4.844990000128746033e-02
-1.674912124872207642e-01
1.793752908706665039e-01
-6.900557875633239746e-02
2.701604962348937988e-01
-3.017149269580841064e-01
4.587813746184110641e-03
4.511445760726928711e-02
-7.038488239049911499e-02
7.460338622331619263e-02
-5.108295008540153503e-03
-2.505490481853485107e-01
2.238525003194808960e-01
1.838996559381484985e-01
6.106681004166603088e-02
1.010506972670555115e-01
2.402261048555374146e-01
4.839871078729629517e-02
3.163022398948669434e-01
-1.377134621143341064e-01
-1.574031859636306763e-01
3.421637043356895447e-02
-2.265736758708953857e-01
3.767316415905952454e-02
1.504129767417907715e-01
1.612402200698852539e-01
-3.877213895320892334e-01
-1.851539164781570435e-01
2.487419396638870239e-01
1.782671362161636353e-01
1.080610156059265137e-01
1.066301949322223663e-02
3.414400815963745117e-01
3.103693127632141113e-01
4.708287119865417480e-02
3.089356124401092529e-01
4.611316323280334473e-02
2.062462121248245239e-01
4.346862062811851501e-02
9.934604167938232422e-02
1.148004829883575439e-01
6.609842181205749512e-02
-1.097511500120162964e-02
2.799169719219207764e-02
-3.354936093091964722e-02
-6.624698638916015625e-02
4.187502339482307434e-02
-1.730512231588363647e-01
5.653005465865135193e-02
1.468695700168609619e-01
-5.174792185425758362e-02
1.696299165487289429e-01
-1.019232571125030518e-01
1.974110454320907593e-01
1.055102199316024780e-01
-2.294105589389801025e-01
1.157983914017677307e-01
8.167893625795841217e-03
-6.822658330202102661e-02
1.631051898002624512e-01
-1.873761713504791260e-01
-3.233254700899124146e-02
-2.512374818325042725e-01
-2.841464243829250336e-02
2.907780110836029053e-01
2.702158391475677490e-01
9.443260729312896729e-02
2.156279087066650391e-01
3.943414241075515747e-02
-2.443258911371231079e-01
-2.139303386211395264e-01
-1.934106051921844482e-01
2.174063175916671753e-01
-4.180503487586975098e-01
-5.268626660108566284e-02
-2.714216411113739014e-01
1.640685200691223145e-01
7.918680459260940552e-02
2.556165307760238647e-02
-6.745231151580810547e-02
1.385055035352706909e-01
1.377186626195907593e-01
1.023532971739768982e-01
1.612255424261093140e-01
3.459585607051849365e-01
1.728598922491073608e-01
-3.309445977210998535e-01
1.911778897047042847e-01
2.161378711462020874e-01
-1.877802237868309021e-02
4.157661274075508118e-02
-1.105612516403198242e-01
3.313721716403961182e-01
-5.881692469120025635e-02
-5.281195044517517090e-02
-2.439802736043930054e-01
1.694749444723129272e-01
-3.653408586978912354e-02
4.525003582239151001e-02
-1.073559224605560303e-01
-2.954351902008056641e-01
2.677777968347072601e-02
3.045221269130706787e-01
9.236122667789459229e-02
1.705640405416488647e-01
1.288677453994750977e-01
6.718172132968902588e-02
2.669034302234649658e-01
-2.060736715793609619e-01
1.569817960262298584e-01
7.479229569435119629e-02
-1.640359610319137573e-01
1.531532555818557739e-01
-8.914169669151306152e-02
1.160570085048675537e-01
-2.534266710281372070e-01
-3.200646638870239258e-01
-1.443378627300262451e-01
-2.836395427584648132e-02
2.434341423213481903e-02
-7.204298861324787140e-03
4.666193574666976929e-02
7.545157521963119507e-02
-2.126213163137435913e-01
3.652649372816085815e-02
1.034499555826187134e-01
-1.567581892013549805e-01
-1.682848483324050903e-01
1.124658659100532532e-01
1.452290862798690796e-01
-1.065047681331634521e-01
-5.119629669934511185e-03
3.122766129672527313e-02
-2.196760103106498718e-02
1.556257158517837524e-01
2.339462004601955414e-02
1.321481615304946899e-01
1.694190949201583862e-01
2.294581830501556396e-01
2.006940245628356934e-01
2.118795663118362427e-01
1.293014083057641983e-02
5.509789660573005676e-02
1.619710922241210938e-01
1.946072429418563843e-01
-2.806139588356018066e-01
2.580098807811737061e-01
7.826402038335800171e-02
1.544996201992034912e-01
3.518695831298828125e-01
-7.789216935634613037e-02
2.547925412654876709e-01
9.996756911277770996e-02
1.427325904369354248e-01
2.661450803279876709e-01
2.023636847734451294e-01
1.709323376417160034e-01
-2.712502330541610718e-02
-1.680985838174819946e-01
2.298085689544677734e-01
2.040135413408279419e-01
-1.235074177384376526e-01
6.691517680883407593e-02
-2.250273078680038452e-01
-1.323687471449375153e-02
1.051522046327590942e-01
-1.278160512447357178e-01
-5.852873250842094421e-02
-2.943218126893043518e-02
4.965256154537200928e-02
1.003834828734397888e-01
-2.729468345642089844e-01
1.061737611889839172e-01
-7.933131419122219086e-03
2.042918652296066284e-01
3.415139615535736084e-01
2.061732858419418335e-01
-2.687171697616577148e-01
1.334952414035797119e-01
2.316877394914627075e-01
-2.585236169397830963e-02
-1.822903752326965332e-02
-1.979688555002212524e-01
1.140581220388412476e-01
1.110534816980361938e-01
2.352482676506042480e-01
-9.289997071027755737e-02
1.992724537849426270e-01
2.691459655761718750e-01
-1.447424888610839844e-01
9.177626669406890869e-02
3.015393316745758057e-01
-1.004385724663734436e-01
2.278649359941482544e-01
1.170643195509910583e-01
1.790208220481872559e-01
4.104284197092056274e-02
2.172487042844295502e-02
8.802466839551925659e-02
3.286056593060493469e-02
2.030021995306015015e-01
-4.923621192574501038e-02
1.715306043624877930e-01
-1.789574921131134033e-01
8.635476976633071899e-02
-1.106822267174720764e-01
-2.148832753300666809e-02
3.121361508965492249e-02
1.233208328485488892e-01
8.242331445217132568e-03
1.458599269390106201e-01
1.524844914674758911e-01
2.501167953014373779e-01
4.900722298771142960e-03
2.703565061092376709e-01
5.545933172106742859e-02
1.416673213243484497e-01
-6.761285662651062012e-02
3.165177255868911743e-02
1.915957480669021606e-01
8.076365292072296143e-02
1.381906867027282715e-01
9.164322912693023682e-02
-2.446662336587905884e-01
3.140365704894065857e-02
-1.692086458206176758e-01
2.257205545902252197e-02
5.587059631943702698e-02
-2.659180574119091034e-02
-2.667253613471984863e-01
1.770303249359130859e-01
-7.192967832088470459e-02
-8.270166069269180298e-02
1.833312511444091797e-01
-7.827157527208328247e-02
8.455064892768859863e-02
2.703628838062286377e-01
-2.702497839927673340e-01
2.017772346735000610e-01
9.866622276604175568e-03
4.296371713280677795e-03
-1.150801330804824829e-01
1.281487010419368744e-02
1.398544460535049438e-01
-2.851974964141845703e-01
-2.229125946760177612e-01
7.996349036693572998e-02
-2.127391099929809570e-02
-7.492830604314804077e-02
-1.997743099927902222e-01
-4.446952417492866516e-02
4.880965128540992737e-02
-4.360016807913780212e-02
1.223696991801261902e-01
-1.563276946544647217e-01
