3.791597113013267517e-02
-2.226026542484760284e-02
6.428178399801254272e-02
-1.587097882293164730e-03
-1.530860085040330887e-03
-5.454308819025754929e-03
2.831125445663928986e-02
3.262607008218765259e-02
-5.138063058257102966e-02
-3.783624246716499329e-02
6.151413917541503906e-02
1.932426169514656067e-02
8.241889625787734985e-02
2.406214922666549683e-02
-1.331531093455851078e-03
1.447544526308774948e-02
4.628635570406913757e-02
-2.325634658336639404e-02
-1.771241053938865662e-02
-1.875930093228816986e-02
-1.912868581712245941e-02
1.882137544453144073e-02
-3.099832125008106232e-02
-1.150239259004592896e-02
-2.809290774166584015e-02
3.033780306577682495e-02
1.624826714396476746e-02
-3.029142133891582489e-02
2.157609164714813232e-02
-1.098843384534120560e-02
-1.902195625007152557e-02
1.331631443463265896e-03
3.917774558067321777e-02
6.823161244392395020e-02
3.832281008362770081e-02
7.782968226820230484e-03
-2.734568901360034943e-02
-2.324206009507179260e-02
2.526537887752056122e-02
-5.187583155930042267e-03
-8.267552591860294342e-03
-4.503973759710788727e-03
-2.427244931459426880e-02
-3.950976207852363586e-02
5.339640192687511444e-04
2.190911956131458282e-02
1.358024962246417999e-02
-2.530145645141601562e-02
1.149680837988853455e-02
2.817666158080101013e-02
2.934281714260578156e-02
3.245481476187705994e-02
-6.286200135946273804e-03
-2.134599722921848297e-02
3.545820340514183044e-02
4.242498055100440979e-02
-7.375351339578628540e-02
5.213113501667976379e-02
-1.170413941144943237e-02
3.609903901815414429e-02
1.144495885819196701e-02
-2.359384298324584961e-02
-3.057939186692237854e-02
4.943157359957695007e-02
4.941237345337867737e-02
2.982672490179538727e-02
-8.871023543179035187e-03
5.129173398017883301e-03
-2.099718153476715088e-02
-3.299463540315628052e-02
1.017654780298471451e-02
1.236800756305456161e-02
1.556299161165952682e-02
3.775312006473541260e-02
5.330384010449051857e-04
-3.525774693116545677e-03
3.775844350457191467e-03
-4.025468975305557251e-02
-4.108573868870735168e-02
2.790520340204238892e-02
-7.890757173299789429e-03
-5.528810434043407440e-03
3.016120195388793945e-02
-2.636997774243354797e-02
-4.910372663289308548e-03
1.070479769259691238e-02
1.393321901559829712e-03
-2.107022143900394440e-02
6.153443455696105957e-02
1.013772655278444290e-02
-4.648581612855195999e-03
-1.429834589362144470e-02
-2.555703930556774139e-02
-4.547406453639268875e-03
-4.559186846017837524e-02
-1.005198247730731964e-02
4.957310855388641357e-02
1.929144188761711121e-02
1.355589926242828369e-02
2.856639213860034943e-02
-2.799391187727451324e-02
-3.819357603788375854e-02
1.350645255297422409e-02
-7.357668876647949219e-02
4.017880931496620178e-02
-1.936092972755432129e-02
-2.626942703500390053e-03
-1.636431179940700531e-02
-5.043361801654100418e-03
5.358917638659477234e-03
-4.087309166789054871e-02
4.458829294890165329e-03
8.593285456299781799e-03
-1.979059725999832153e-02
-4.352156072854995728e-03
-1.491141226142644882e-02
-3.145045787096023560e-02
-3.030115365982055664e-02
2.551593445241451263e-02
2.658316493034362793e-02
-1.520323380827903748e-02
4.259345680475234985e-02
-1.522614154964685440e-02
7.581085897982120514e-03
3.729399293661117554e-02
1.256403047591447830e-02
8.034658618271350861e-03
6.202701944857835770e-03
-1.923669688403606415e-02
9.284255211241543293e-04
4.445352777838706970e-02
2.606086246669292450e-02
5.447581410408020020e-02
3.002855181694030762e-02
3.812273591756820679e-02
-2.861386165022850037e-03
-5.259392410516738892e-02
-4.298584535717964172e-03
-4.797009378671646118e-02
1.785423420369625092e-02
5.111566558480262756e-02
9.916475974023342133e-03
4.473584890365600586e-02
1.155349519103765488e-02
-5.192188918590545654e-02
1.692255213856697083e-02
-5.482565984129905701e-02
-3.972087800502777100e-02
6.638738792389631271e-03
-1.816700212657451630e-02
-2.149265818297863007e-02
4.751992411911487579e-03
2.842784859240055084e-02
1.945882663130760193e-02
-2.967821434140205383e-03
3.013305179774761200e-02
1.848759315907955170e-02
-1.924435049295425415e-02
-4.394605383276939392e-02
-4.863810609094798565e-04
-1.192617882043123245e-02
-3.958036378026008606e-02
-4.184612259268760681e-02
-1.705780858173966408e-03
1.276052743196487427e-02
8.063115179538726807e-03
-1.832972466945648193e-02
3.181008622050285339e-02
5.771581456065177917e-02
4.676225408911705017e-02
1.325238589197397232e-02
-4.039177671074867249e-03
-2.841854095458984375e-02
3.065889887511730194e-02
5.911287851631641388e-03
1.051195990294218063e-02
4.331758245825767517e-02
2.895818650722503662e-02
1.078906469047069550e-02
1.414765045046806335e-02
-5.903613567352294922e-02
-1.478614937514066696e-02
-4.154688864946365356e-02
5.172117054462432861e-02
3.050673194229602814e-02
3.465691581368446350e-02
2.105938270688056946e-03
3.881153464317321777e-02
2.021103724837303162e-02
3.437444567680358887e-02
-4.539530724287033081e-02
3.199928626418113708e-02
1.276729255914688110e-02
1.756600849330425262e-02
4.137507453560829163e-02
-6.671692710369825363e-03
8.644387125968933105e-03
-3.169087693095207214e-02
6.096162274479866028e-02
-1.778891775757074356e-03
-2.872185409069061279e-02
-1.179418433457612991e-02
-1.287020184099674225e-02
1.266006380319595337e-03
-1.794044114649295807e-02
1.995393633842468262e-02
-1.827629096806049347e-02
-9.623338468372821808e-03
-1.798341632820665836e-03
-2.099607884883880615e-02
-6.870966404676437378e-03
3.953616693615913391e-02
-6.431578844785690308e-02
-2.421943703666329384e-03
3.491467610001564026e-02
-1.022726111114025116e-02
1.792552880942821503e-02
6.213793158531188965e-02
-1.239552628248929977e-03
-8.473022840917110443e-03
-2.397482842206954956e-02
4.336427897214889526e-03
-6.208887323737144470e-02
-3.046035394072532654e-02
5.660024285316467285e-02
-9.833810850977897644e-03
3.689476847648620605e-02
-1.128590083681046963e-03
1.070674322545528412e-02
-1.353930798359215260e-03
-1.616227440536022186e-02
3.917925804853439331e-02
-4.329827614128589630e-03
2.637590840458869934e-02
-4.270403459668159485e-02
2.567123994231224060e-02
-5.339934304356575012e-02
-1.973190531134605408e-02
-3.283745050430297852e-02
-2.429716847836971283e-02
2.136477967724204063e-03
-2.142863161861896515e-02
-1.134607940912246704e-02
-5.999489128589630127e-02
-2.352463640272617340e-02
2.368395775556564331e-02
1.991590298712253571e-02
2.783282101154327393e-02
-3.716117888689041138e-02
7.603042293339967728e-03
-7.895678281784057617e-03
-9.071880020201206207e-03
1.770272105932235718e-02
3.084936412051320076e-03
1.182747306302189827e-03
5.935958027839660645e-02
