-3.658302128314971924e-02
7.773678749799728394e-02
-1.086596399545669556e-01
-5.843166634440422058e-02
2.735163725446909666e-04
1.256639063358306885e-01
-9.687183797359466553e-02
4.067812561988830566e-01
-9.254527837038040161e-02
-9.147100895643234253e-02
-5.128819867968559265e-02
-8.891814202070236206e-02
-1.472698450088500977e-01
-7.382670789957046509e-02
-1.402146369218826294e-01
2.881036996841430664e-01
4.677302390336990356e-02
-1.062140166759490967e-01
5.080265998840332031e-01
1.972909867763519287e-01
-3.005325421690940857e-02
2.373016625642776489e-02
2.352834120392799377e-02
-1.633597612380981445e-01
4.169281125068664551e-01
-6.341294944286346436e-02
-6.925708800554275513e-02
-7.982740551233291626e-02
-7.218048721551895142e-02
-7.496001571416854858e-02
1.767258495092391968e-01
3.757391870021820068e-02
5.330789685249328613e-01
-5.929928272962570190e-02
-1.410082876682281494e-01
3.317457437515258789e-02
7.153131365776062012e-01
-8.660462498664855957e-02
-8.501467853784561157e-02
-1.131354272365570068e-01
-2.521836012601852417e-02
-8.054602891206741333e-02
-1.366298943758010864e-01
-1.169412359595298767e-01
4.088580980896949768e-02
-2.087865024805068970e-01
-8.445718139410018921e-02
-6.523922830820083618e-02
2.396927922964096069e-01
-8.960306644439697266e-02
-9.898287802934646606e-02
-1.278771013021469116e-01
-9.114180505275726318e-02
4.448341205716133118e-03
9.697040170431137085e-02
-1.011913418769836426e-01
-5.000276118516921997e-02
-1.091799959540367126e-01
-9.519515186548233032e-02
8.064967580139636993e-03
-1.621289551258087158e-01
-3.852877393364906311e-02
-1.854871213436126709e-01
-1.002681776881217957e-01
-1.059661507606506348e-01
-8.591821044683456421e-02
-4.669760540127754211e-02
-1.528741270303726196e-01
9.711709618568420410e-02
-6.145122274756431580e-02
-4.304746165871620178e-02
-1.850358396768569946e-01
-4.225529730319976807e-02
-1.558503657579421997e-01
4.612669050693511963e-01
-2.171798199415206909e-01
-2.634295262396335602e-02
1.688728928565979004e-01
-5.328875407576560974e-02
7.739631086587905884e-02
-1.414448022842407227e-01
-1.517345905303955078e-01
-5.820975452661514282e-02
4.575997591018676758e-03
-7.612260431051254272e-02
-1.501789391040802002e-01
-1.701088063418865204e-02
-3.587122261524200439e-02
-7.818126678466796875e-02
7.851173728704452515e-02
-2.175389230251312256e-02
-5.319522321224212646e-02
1.401758491992950439e-01
-1.649744212627410889e-01
4.150707423686981201e-01
3.418935537338256836e-01
-6.557450443506240845e-02
-7.689113169908523560e-02
3.714467585086822510e-01
-6.866859644651412964e-02
-1.901334226131439209e-01
-5.290320515632629395e-02
-1.952396184206008911e-01
-1.012463569641113281e-01
-1.850279867649078369e-01
4.980293661355972290e-02
-9.083494544029235840e-02
6.705487966537475586e-01
2.299279570579528809e-01
8.741008117794990540e-03
1.323421951383352280e-02
8.127980232238769531e-01
9.548507928848266602e-01
-1.018501445651054382e-01
1.595886200666427612e-01
-4.677969589829444885e-02
-4.951481521129608154e-02
-7.501059025526046753e-02
-5.012880638241767883e-02
-1.015989854931831360e-01
-4.519550502300262451e-02
-1.240459270775318146e-02
-3.172384202480316162e-02
-1.700272224843502045e-02
-9.737067669630050659e-02
8.264044523239135742e-01
-6.804393976926803589e-02
-8.720694482326507568e-02
2.038646303117275238e-02
-1.216351538896560669e-01
7.911148071289062500e-01
-7.070277631282806396e-02
-8.182659745216369629e-02
-1.526645869016647339e-01
-1.359819322824478149e-01
1.706303060054779053e-01
-1.380820572376251221e-01
-2.846089377999305725e-02
-3.655577823519706726e-02
6.307427883148193359e-01
-6.884986907243728638e-02
1.263006627559661865e-01
-7.916584610939025879e-02
-1.413199156522750854e-01
-1.092672571539878845e-01
-1.881001442670822144e-01
-1.552890539169311523e-01
2.743922173976898193e-02
-1.090391799807548523e-01
-7.885670661926269531e-02
8.069520592689514160e-01
1.273274421691894531e-01
-1.508835703134536743e-01
-8.612100034952163696e-02
-6.092519685626029968e-02
1.079854518175125122e-01
-1.164672151207923889e-01
-9.986209869384765625e-02
-5.585629120469093323e-02
-9.020284563302993774e-02
-1.910338699817657471e-01
-9.602033533155918121e-03
7.646038383245468140e-02
-1.639144569635391235e-01
-4.998459666967391968e-02
-7.158149033784866333e-02
-1.208634451031684875e-01
-5.497545003890991211e-02
-8.562955260276794434e-02
-5.030180141329765320e-02
-6.741592288017272949e-02
5.192561075091362000e-02
-9.489753097295761108e-02
-4.096046835184097290e-02
-8.627409487962722778e-02
-8.203820884227752686e-02
5.156517028808593750e-02
-2.115183137357234955e-02
-8.726852387189865112e-02
-6.440438330173492432e-02
-1.207728981971740723e-01
1.650016903877258301e-01
-9.388817101716995239e-02
5.053696408867835999e-02
-2.596126124262809753e-02
-2.974324300885200500e-02
-8.737944066524505615e-02
-1.618657708168029785e-01
-5.193462967872619629e-02
2.410697489976882935e-01
-7.158707827329635620e-02
3.476517200469970703e-01
7.795563340187072754e-02
-8.076177537441253662e-02
-1.091331839561462402e-01
-1.310389637947082520e-01
-1.959527283906936646e-01
-1.367654800415039062e-01
3.924857452511787415e-02
-3.589109703898429871e-02
-6.226288527250289917e-02
-6.416012346744537354e-02
-1.179473549127578735e-01
-1.360922902822494507e-01
-1.025635972619056702e-01
6.062408685684204102e-01
4.009885247796773911e-03
-1.025403216481208801e-01
-6.888320297002792358e-02
1.270246692001819611e-02
-6.056367605924606323e-02
-2.323678582906723022e-01
-1.878977566957473755e-01
-5.663753673434257507e-02
2.058212459087371826e-01
-1.163354068994522095e-01
-9.795840829610824585e-02
-6.995354592800140381e-02
2.522222399711608887e-01
-4.424152150750160217e-02
-7.444651424884796143e-02
-1.231417879462242126e-01
-6.744093447923660278e-02
-9.889470040798187256e-02
-1.358030457049608231e-02
3.156375586986541748e-01
2.215863764286041260e-01
2.893211245536804199e-01
-1.270961910486221313e-01
-8.894679695367813110e-02
-4.583292081952095032e-02
1.781291663646697998e-01
-3.798707947134971619e-02
-8.399020880460739136e-02
-3.394566103816032410e-02
8.870135247707366943e-02
-1.506890207529067993e-01
-9.609442204236984253e-02
7.704652380198240280e-03
1.370490193367004395e-01
-4.978296905755996704e-02
-1.148520857095718384e-01
2.577209770679473877e-01
3.147901892662048340e-01
-1.234549134969711304e-01
-1.124764909036457539e-03
-7.360347360372543335e-02
-9.779338538646697998e-02
-3.855151310563087463e-02
-7.745743542909622192e-02
-4.461162537336349487e-02
-8.971837908029556274e-02
-2.138982862234115601e-01
2.917975187301635742e-01
-4.231845214962959290e-02
-1.193977147340774536e-01
