3.970693647861480713e-01
-1.003792881965637207e-01
2.252627164125442505e-02
1.537328064441680908e-01
2.722095549106597900e-01
-3.895179554820060730e-02
-5.345309898257255554e-02
2.245787084102630615e-01
5.670538544654846191e-01
1.056272834539413452e-01
2.826771140098571777e-01
4.045890271663665771e-01
3.534264117479324341e-02
1.049312651157379150e-01
-8.957604318857192993e-02
-2.971494197845458984e-02
-6.424820423126220703e-02
-1.008559465408325195e-01
-2.612781338393688202e-02
2.876968681812286377e-01
-5.771220847964286804e-02
-9.495123475790023804e-02
1.463966630399227142e-02
-8.972126990556716919e-02
4.671622812747955322e-02
1.580489575862884521e-01
-4.283738881349563599e-02
-6.719269603490829468e-02
5.352365598082542419e-02
-8.306189626455307007e-02
-9.642367064952850342e-02
3.911767899990081787e-02
6.514184474945068359e-01
-5.634446814656257629e-02
-4.254541173577308655e-02
-4.725282266736030579e-02
-5.795292556285858154e-02
7.536894828081130981e-02
-6.086441501975059509e-02
2.880048751831054688e-01
4.473805725574493408e-01
-2.238567546010017395e-02
2.542226016521453857e-01
-7.668351382017135620e-02
-7.900644093751907349e-02
5.009891986846923828e-01
3.015102446079254150e-01
-1.066557392477989197e-01
-4.664663225412368774e-02
-6.729248911142349243e-02
-8.863733708858489990e-02
-2.875289507210254669e-02
-4.454812034964561462e-02
-7.268257439136505127e-02
-4.186255857348442078e-02
4.291636943817138672e-01
-2.924801222980022430e-02
-4.715701565146446228e-02
3.838926553726196289e-01
3.659711480140686035e-01
2.871963977813720703e-01
-2.056257799267768860e-02
-5.891983956098556519e-02
-9.167508780956268311e-02
-4.939502850174903870e-02
-6.702954322099685669e-02
-5.984091758728027344e-02
-8.672156929969787598e-02
-1.140807103365659714e-02
-5.726210772991180420e-02
1.092430204153060913e-01
-4.599836096167564392e-02
-2.798913046717643738e-02
1.582853943109512329e-01
-7.554192841053009033e-02
-7.258353289216756821e-04
4.929802939295768738e-02
-1.634487882256507874e-02
-6.627847254276275635e-02
-3.468261659145355225e-02
-4.451505094766616821e-02
-5.324039608240127563e-02
7.222941145300865173e-03
-4.419362172484397888e-02
-5.308912321925163269e-02
-7.738549262285232544e-03
5.340276956558227539e-01
5.666224360466003418e-01
-3.578848391771316528e-02
3.652921617031097412e-01
-2.385720983147621155e-02
-7.757579535245895386e-02
-6.807874143123626709e-02
1.913409330882132053e-03
-5.205123871564865112e-02
-1.056924611330032349e-01
2.199265807867050171e-01
1.400321424007415771e-01
3.972845673561096191e-01
-2.582480013370513916e-02
-6.608214229345321655e-02
6.724050734192132950e-03
3.417486697435379028e-02
4.730143845081329346e-01
-6.491042673587799072e-02
4.401517659425735474e-02
-7.962505519390106201e-02
2.430403083562850952e-01
-6.877109408378601074e-02
5.758320093154907227e-01
3.094415180385112762e-02
-6.891170889139175415e-02
-4.435057938098907471e-02
-6.981420516967773438e-02
-2.817488275468349457e-02
-3.381527960300445557e-02
-2.089645713567733765e-02
3.980955183506011963e-01
-5.098104849457740784e-02
-5.533425137400627136e-02
-4.446510225534439087e-02
-9.806378185749053955e-02
-1.746463403105735779e-02
-3.078912571072578430e-02
3.273178040981292725e-01
-7.387063652276992798e-02
-6.566358357667922974e-02
1.748833209276199341e-01
-3.420243412256240845e-02
-8.510417491197586060e-02
-4.270559549331665039e-02
7.169628888368606567e-02
5.872478485107421875e-01
-7.372055202722549438e-02
-1.002728119492530823e-01
3.583855181932449341e-02
2.590003609657287598e-01
3.386800289154052734e-01
-9.655968286097049713e-03
5.533843636512756348e-01
-9.098259359598159790e-02
-5.897967517375946045e-02
-2.967711538076400757e-02
-1.059203445911407471e-01
2.990160882472991943e-01
2.013862282037734985e-01
-7.648946344852447510e-02
-5.850184336304664612e-02
-7.050662487745285034e-02
-4.553879797458648682e-02
5.524357408285140991e-02
4.055747091770172119e-01
-6.996596604585647583e-02
8.255748450756072998e-02
-5.705559253692626953e-02
-8.750062435865402222e-02
-1.075434759259223938e-01
-9.328397363424301147e-02
-3.564105927944183350e-02
-1.059050112962722778e-01
-2.099325507879257202e-02
3.678801655769348145e-01
-2.716818265616893768e-02
-3.646842762827873230e-02
7.837443612515926361e-03
-4.360119625926017761e-02
-8.100615441799163818e-02
-6.956322491168975830e-02
-1.012528985738754272e-01
9.474560618400573730e-02
-4.279799014329910278e-02
-6.314064562320709229e-02
1.833556406199932098e-02
-1.261849254369735718e-01
-5.955791100859642029e-02
-5.572405457496643066e-02
-2.425350621342658997e-02
-7.000197470188140869e-02
-7.407416403293609619e-02
-4.036134108901023865e-02
2.684259116649627686e-01
-1.649025268852710724e-02
2.300858944654464722e-01
1.083556786179542542e-01
-6.771094352006912231e-02
-3.036343865096569061e-02
8.860570192337036133e-02
-1.362822949886322021e-01
-1.636594161391258240e-02
-3.167381137609481812e-02
-6.724531948566436768e-02
1.076702252030372620e-01
-3.712693601846694946e-02
-3.651109710335731506e-02
2.792162299156188965e-01
3.739269673824310303e-01
-1.019159778952598572e-01
5.124974064528942108e-03
-3.495811671018600464e-02
-6.873466819524765015e-02
-6.591451168060302734e-02
-5.325605347752571106e-02
5.102743506431579590e-01
2.318898774683475494e-02
-5.191620439291000366e-02
-1.205540448427200317e-01
-5.939566716551780701e-02
1.698197573423385620e-01
1.064170897006988525e-01
-8.667905814945697784e-03
-5.438074842095375061e-02
-3.914206847548484802e-02
-7.416636496782302856e-02
-4.827405139803886414e-02
-4.552474617958068848e-02
-5.442150682210922241e-02
-8.790963888168334961e-02
4.200119972229003906e-01
4.862857460975646973e-01
2.803928256034851074e-01
-2.588175237178802490e-02
-1.234106160700321198e-02
-4.946532845497131348e-02
-8.997449278831481934e-02
-4.331801459193229675e-02
4.273171126842498779e-01
-2.944744564592838287e-02
-1.355569511651992798e-01
-4.776876047253608704e-02
-5.865520611405372620e-02
-6.902664899826049805e-02
-9.321204572916030884e-02
-8.360847830772399902e-03
-6.819742172956466675e-02
-2.419498190283775330e-02
-5.087735131382942200e-02
-3.463682159781455994e-02
-7.973906397819519043e-02
-5.023979768157005310e-02
-7.539750635623931885e-02
2.795973606407642365e-02
-8.391172438859939575e-02
-2.784094214439392090e-02
1.656393520534038544e-03
3.772538304328918457e-01
-8.430322259664535522e-02
-8.130113780498504639e-02
7.593860500492155552e-04
-3.354069218039512634e-02
-9.389611333608627319e-02
6.723352074623107910e-01
-7.932568341493606567e-02
-9.611559659242630005e-02
3.089416027069091797e-01
1.178489252924919128e-01
-7.244981080293655396e-02
