-3.963441029191017151e-02
1.276687718927860260e-02
-5.333438515663146973e-02
-3.347104415297508240e-02
2.200698405504226685e-01
-1.213041841983795166e-01
-1.227767989039421082e-01
1.700181663036346436e-01
1.593580693006515503e-01
-1.610592007637023926e-02
6.816017627716064453e-02
3.745032101869583130e-02
-8.860858529806137085e-02
-2.633915469050407410e-02
1.628397256135940552e-01
-6.681878119707107544e-02
-4.294057562947273254e-02
1.205072775483131409e-01
2.131693065166473389e-02
2.825968563556671143e-01
-1.098943222314119339e-02
9.952764213085174561e-02
-3.241485357284545898e-02
-7.936995476484298706e-02
7.347991317510604858e-02
-4.987495392560958862e-02
4.778462927788496017e-03
9.758541733026504517e-02
-4.964370280504226685e-02
-6.106561422348022461e-02
2.639749944210052490e-01
2.513754069805145264e-01
-5.552078410983085632e-02
1.972024142742156982e-01
1.889649927616119385e-01
6.416543573141098022e-02
-3.711092844605445862e-02
-5.135546997189521790e-02
1.129142194986343384e-01
-5.576684698462486267e-02
2.361398935317993164e-01
-4.392862319946289062e-02
-5.508232489228248596e-02
-1.197712346911430359e-01
-5.674967169761657715e-02
3.445407375693321228e-02
1.014378219842910767e-01
-6.047157943248748779e-02
2.980389297008514404e-01
-3.307420387864112854e-02
-8.181042224168777466e-02
-4.347651079297065735e-02
3.052943348884582520e-01
-5.684588477015495300e-02
-4.347978904843330383e-02
-8.036276698112487793e-02
7.716013491153717041e-02
7.551708072423934937e-02
8.018026500940322876e-02
-7.625877857208251953e-02
1.578550934791564941e-01
2.778906002640724182e-02
1.886858232319355011e-02
-7.789233326911926270e-02
8.655846118927001953e-02
2.149068862199783325e-01
3.589645773172378540e-02
-3.543559461832046509e-03
-3.130266070365905762e-02
3.887184336781501770e-02
-6.457319110631942749e-02
-5.895145982503890991e-02
-2.375576458871364594e-02
2.116513401269912720e-01
-5.236286204308271408e-03
4.555040225386619568e-02
-4.948867484927177429e-02
-9.287961572408676147e-02
6.310904771089553833e-02
2.326796203851699829e-01
5.415788665413856506e-02
8.149055391550064087e-02
8.939462155103683472e-02
-6.449549645185470581e-02
-3.205328434705734253e-02
6.004797667264938354e-02
1.847500354051589966e-02
1.494850963354110718e-01
-2.398374490439891815e-02
3.596690297126770020e-02
-1.828781142830848694e-02
2.729802764952182770e-02
2.557215690612792969e-01
-6.302661448717117310e-02
1.957189589738845825e-01
-4.625093191862106323e-02
7.413899153470993042e-02
-2.206332236528396606e-02
-6.617116928100585938e-02
-2.583626471459865570e-02
-3.918244317173957825e-02
-8.514392375946044922e-02
-1.560892909765243530e-02
-3.222243115305900574e-02
-4.377882555127143860e-02
-2.247270755469799042e-02
1.283360570669174194e-01
1.607558690011501312e-02
3.202915564179420471e-02
1.392076313495635986e-01
1.215124153532087803e-03
-8.469594269990921021e-02
3.095016181468963623e-01
9.154461324214935303e-03
1.564171016216278076e-01
7.393979281187057495e-02
5.297642573714256287e-02
-3.521509096026420593e-02
1.166494935750961304e-01
1.386537253856658936e-01
1.142532452940940857e-01
2.707757055759429932e-01
-5.970342829823493958e-02
-4.367247968912124634e-02
-1.399487257003784180e-01
-4.900502413511276245e-02
-1.026462763547897339e-01
-3.179411590099334717e-02
-3.870951384305953979e-02
1.690051555633544922e-01
3.127056732773780823e-02
-3.458958864212036133e-02
-5.660646408796310425e-02
2.168370634317398071e-01
4.055944085121154785e-01
-6.295313942246139050e-04
-9.627711772918701172e-02
2.735587656497955322e-01
-2.611548081040382385e-02
2.628331184387207031e-01
8.317543566226959229e-02
-8.218664675951004028e-02
6.489140540361404419e-02
2.056900709867477417e-01
8.984152972698211670e-02
-1.525541581213474274e-02
-3.699928149580955505e-02
-3.910553827881813049e-02
2.262778282165527344e-01
1.411717236042022705e-01
2.097046934068202972e-02
-8.509576320648193359e-02
3.329268097877502441e-01
-5.391591042280197144e-02
6.012050062417984009e-02
-2.576913870871067047e-02
-7.530806213617324829e-02
2.535731494426727295e-01
-4.894015192985534668e-02
-3.214414045214653015e-02
6.874022632837295532e-02
1.946940785273909569e-03
1.480529606342315674e-01
3.987234830856323242e-02
-9.062926284968852997e-03
2.183097042143344879e-02
1.184875965118408203e-01
1.346831396222114563e-02
2.786211669445037842e-01
-1.416033599525690079e-02
-4.172988981008529663e-02
1.300863474607467651e-01
-7.420954108238220215e-02
-3.776381909847259521e-02
2.512564361095428467e-01
8.687762916088104248e-02
1.509643197059631348e-01
-6.258256733417510986e-02
-8.075492084026336670e-02
-2.000590786337852478e-02
7.152336835861206055e-02
-4.559036716818809509e-02
-4.797252267599105835e-02
-3.776637464761734009e-02
-4.467846080660820007e-02
-4.969426244497299194e-02
1.241983994841575623e-01
2.330252081155776978e-01
-5.097260326147079468e-02
4.976550862193107605e-02
1.612457931041717529e-01
1.498698145151138306e-01
-6.081614643335342407e-02
2.016500756144523621e-02
2.430137991905212402e-01
1.858057230710983276e-01
2.209122329950332642e-01
7.095439825206995010e-03
1.498404145240783691e-02
-4.955372586846351624e-02
-3.382802009582519531e-02
-3.020222857594490051e-02
2.720892727375030518e-01
-4.415966570377349854e-02
1.288484930992126465e-01
1.763336509466171265e-01
6.620777398347854614e-02
2.613534629344940186e-01
-7.553820312023162842e-02
-5.200494825839996338e-02
1.444910466670989990e-01
3.336652368307113647e-02
-8.641902357339859009e-02
-4.139527305960655212e-02
-4.473647102713584900e-02
-2.898894064128398895e-02
-2.360294945538043976e-02
-8.017790317535400391e-02
5.490633472800254822e-02
9.493982046842575073e-02
-8.984261006116867065e-02
-3.351597487926483154e-02
5.454163998365402222e-03
-6.319970637559890747e-02
4.440823569893836975e-02
-3.070815838873386383e-02
2.063434869050979614e-01
2.429121173918247223e-02
-3.689659759402275085e-02
2.006347775459289551e-01
-4.415297508239746094e-02
-3.806711360812187195e-02
-5.346193164587020874e-02
2.114384919404983521e-01
-5.754838883876800537e-02
-7.829913869500160217e-03
-4.431091248989105225e-02
3.414124548435211182e-01
-6.951224058866500854e-02
1.847641468048095703e-01
-5.623734369874000549e-02
1.758400932885706425e-03
2.133746892213821411e-01
2.182677760720252991e-02
-3.635320067405700684e-02
-1.498501151800155640e-01
-5.020511895418167114e-02
8.088865876197814941e-02
-6.063559278845787048e-02
2.625985443592071533e-02
-4.675159603357315063e-02
1.892039738595485687e-02
-6.265536695718765259e-02
2.546339929103851318e-01
1.765500903129577637e-01
-6.967300921678543091e-02
