-4.467234015464782715e-01
-1.182079762220382690e-01
-1.420844998210668564e-02
-2.746207416057586670e-01
1.266354024410247803e-01
2.728739678859710693e-01
-5.777597054839134216e-02
4.281377792358398438e-02
1.060664951801300049e-01
1.512735337018966675e-01
-5.135701503604650497e-03
2.559783458709716797e-01
-1.440242826938629150e-01
-1.128530278801918030e-01
-1.129415556788444519e-01
7.190462201833724976e-02
-1.988990157842636108e-01
-9.358605369925498962e-03
-8.726309053599834442e-03
-5.775810033082962036e-02
-7.123786956071853638e-02
1.345018148422241211e-01
1.912763416767120361e-01
2.331903949379920959e-02
-4.174953103065490723e-01
1.748785525560379028e-01
1.060834154486656189e-01
-2.382743507623672485e-01
-3.401977568864822388e-02
-2.433050870895385742e-01
-2.516473531723022461e-01
1.417944878339767456e-01
4.760920628905296326e-02
7.442438509315252304e-03
-4.730989038944244385e-02
-3.017724724486470222e-03
-3.566215559840202332e-02
3.336236253380775452e-02
-1.457045227289199829e-01
2.117900252342224121e-01
-1.230529174208641052e-01
-3.618096187710762024e-02
1.289891600608825684e-01
2.042244076728820801e-01
5.691287294030189514e-02
-1.915513575077056885e-01
-5.425807461142539978e-02
-2.307076901197433472e-01
-1.994732767343521118e-01
-2.022801339626312256e-02
-2.583412230014801025e-01
-7.604024559259414673e-02
-1.412546783685684204e-01
1.965758502483367920e-01
-5.982407927513122559e-02
-2.260715663433074951e-01
1.142891645431518555e-01
-5.797196179628372192e-02
-1.122380495071411133e-01
-1.083056256175041199e-01
-2.762387692928314209e-01
-9.696771204471588135e-02
-6.055093556642532349e-02
-6.092749908566474915e-02
-5.107030868530273438e-01
-1.053941529244184494e-02
-3.480573594570159912e-01
-2.061266303062438965e-01
-1.439252495765686035e-01
-2.531014978885650635e-01
1.021989211440086365e-01
-5.972743630409240723e-01
-1.286390870809555054e-01
6.455247849225997925e-02
-1.764584332704544067e-01
-2.993115410208702087e-02
1.949203163385391235e-01
5.549594759941101074e-02
-1.746003627777099609e-01
9.424765408039093018e-02
-1.444599628448486328e-01
-4.464356899261474609e-01
-1.015954837203025818e-01
1.684270203113555908e-01
7.420685887336730957e-02
2.730486392974853516e-01
-2.118615508079528809e-01
-3.249983862042427063e-02
9.523978829383850098e-02
-1.392786502838134766e-01
-3.337617218494415283e-01
-1.518300324678421021e-01
-5.357898771762847900e-03
-5.051356926560401917e-02
-7.682177424430847168e-02
-1.079305410385131836e-01
2.639048993587493896e-01
-2.878693640232086182e-01
8.243756368756294250e-03
5.746931955218315125e-02
-1.490961201488971710e-02
-4.151019454002380371e-01
1.930646300315856934e-01
4.888259619474411011e-02
3.381627202033996582e-01
-4.273051619529724121e-01
-2.142745256423950195e-01
-1.150513142347335815e-01
-3.176144137978553772e-02
-5.701764952391386032e-03
5.967767909169197083e-02
1.609230190515518188e-01
9.882637113332748413e-02
-1.608948111534118652e-01
-1.866351366043090820e-01
-1.170889809727668762e-01
1.087408140301704407e-01
1.889144331216812134e-01
1.701485067605972290e-01
4.361957311630249023e-02
-4.319153130054473877e-01
-1.481104344129562378e-01
-4.477657079696655273e-01
-1.998517662286758423e-01
1.211139783263206482e-01
-6.610726565122604370e-02
7.926895469427108765e-02
-1.990030854940414429e-01
-2.094023972749710083e-01
-4.361486732959747314e-01
-2.412057667970657349e-01
-2.586164176464080811e-01
9.264232963323593140e-02
2.075270414352416992e-01
-5.663415044546127319e-02
2.724246382713317871e-01
2.932625114917755127e-01
9.867147356271743774e-02
2.086688391864299774e-02
-4.672361612319946289e-01
-1.804593950510025024e-01
-4.977768957614898682e-01
-1.337929964065551758e-01
3.046133518218994141e-01
2.796974480152130127e-01
-8.425536006689071655e-02
-1.318420171737670898e-01
-2.084347605705261230e-01
2.166040800511837006e-02
-1.437821090221405029e-01
-3.334215581417083740e-01
4.050845280289649963e-02
-2.544389665126800537e-01
-2.740052640438079834e-01
1.896474510431289673e-01
-3.191178441047668457e-01
-2.578284442424774170e-01
-6.057251617312431335e-02
-3.240773975849151611e-01
1.672279089689254761e-01
1.282344013452529907e-01
-3.201004862785339355e-01
-2.383363246917724609e-02
-3.537937104701995850e-01
-1.422969996929168701e-01
6.138085387647151947e-03
-1.577254757285118103e-02
3.243450820446014404e-01
-1.568763554096221924e-01
6.615868210792541504e-02
-1.289563030004501343e-01
-1.441826820373535156e-01
2.478590011596679688e-01
1.247240081429481506e-01
-8.989080786705017090e-02
-5.171268060803413391e-02
-2.859577238559722900e-01
-3.369187116622924805e-01
-5.891318991780281067e-02
-9.192653745412826538e-02
-3.124751150608062744e-01
-2.063536494970321655e-01
-4.496088996529579163e-02
-2.142551094293594360e-01
-1.540063172578811646e-01
-3.244506716728210449e-01
-2.969907522201538086e-01
-1.806471496820449829e-01
-1.234113425016403198e-01
-1.227354481816291809e-01
1.381248086690902710e-01
-1.313473731279373169e-01
-2.045080661773681641e-01
-3.418135344982147217e-01
1.828841120004653931e-01
-2.590415626764297485e-02
7.376212626695632935e-02
1.669223606586456299e-01
1.723962128162384033e-01
8.300836384296417236e-02
-2.034439593553543091e-01
-7.357962429523468018e-02
7.921966910362243652e-02
1.226380318403244019e-01
3.748097717761993408e-01
-3.260291814804077148e-01
-1.087423786520957947e-01
-1.273860186338424683e-01
-3.708101063966751099e-02
-2.106861472129821777e-01
-2.437601797282695770e-02
1.334642767906188965e-01
-2.210991680622100830e-01
4.755682498216629028e-02
3.219381719827651978e-02
1.587928384542465210e-01
1.506837606430053711e-01
-1.262026131153106689e-01
-1.820013374090194702e-01
5.498315691947937012e-01
-3.228535056114196777e-01
1.408517807722091675e-01
-4.137567281723022461e-01
-3.434372246265411377e-01
3.652663826942443848e-01
-5.058794096112251282e-02
-3.085764348506927490e-01
1.104220524430274963e-01
-8.645217865705490112e-02
2.365986108779907227e-01
-3.718066215515136719e-02
2.640760242938995361e-01
-2.155573964118957520e-01
2.466045618057250977e-01
2.136210165917873383e-02
-1.108140721917152405e-01
4.630970209836959839e-02
3.979038447141647339e-02
-2.609618306159973145e-01
-2.138152122497558594e-01
2.301440089941024780e-01
3.177702128887176514e-01
1.005381941795349121e-01
-2.724314630031585693e-01
3.984219431877136230e-01
-4.365865886211395264e-02
-1.988279968500137329e-01
-1.426006853580474854e-01
-8.608268201351165771e-02
5.026144161820411682e-02
4.315967485308647156e-02
2.537383735179901123e-01
1.664920244365930557e-03
1.414157599210739136e-01
2.503990232944488525e-01
3.592325374484062195e-02
