-2.971718609333038330e-01 2.138129994273185730e-02 -1.415325794368982315e-02 2.990827336907386780e-02 -2.150606662034988403e-01 -4.763887822628021240e-02 -3.523720800876617432e-01 2.741613984107971191e-01 -3.558510541915893555e-01 -4.092472791671752930e-01 2.619768977165222168e-01 -1.137399766594171524e-02 -1.581919789314270020e-01 1.135833859443664551e-01 -3.385911881923675537e-01 -1.627491414546966553e-01 -2.833818197250366211e-01 -3.568631038069725037e-02 2.859056890010833740e-01 2.179975211620330811e-01 -5.541400611400604248e-02 -1.132492274045944214e-01 2.403690367937088013e-01 -5.438911169767379761e-02 7.861286401748657227e-02 -1.969350129365921021e-01 -1.337748616933822632e-01 1.342821270227432251e-01 -8.579379320144653320e-02 -4.140399396419525146e-02 1.016441807150840759e-01 -5.469890683889389038e-02 4.968739151954650879e-01 -2.486339062452316284e-01 -1.222603023052215576e-01 -1.180363371968269348e-01 -7.211426272988319397e-03 -1.764942258596420288e-01 -7.516808062791824341e-02 5.283105373382568359e-01 1.126512810587882996e-01 -3.095121979713439941e-01 5.850191041827201843e-02 4.922856017947196960e-02 8.063931763172149658e-02 3.839606344699859619e-01 9.419873356819152832e-03 -2.815663218498229980e-01 -2.764856517314910889e-01 -1.769131422042846680e-01 1.720387041568756104e-01 -1.411929130554199219e-01 -6.149813532829284668e-02 -3.342530727386474609e-01 -9.089531004428863525e-02 1.777071803808212280e-01 -1.062495186924934387e-01 3.283301293849945068e-01 1.007190421223640442e-01 1.630763858556747437e-01 -1.553385704755783081e-01 1.626270860433578491e-01 2.673198282718658447e-02 1.131863594055175781e-01 -6.905401349067687988e-01 4.719523489475250244e-01 -3.280577361583709717e-01 1.379060149192810059e-01 4.282982945442199707e-01 3.632737398147583008e-01
2.242403775453567505e-01 1.476466506719589233e-01 7.995077967643737793e-02 6.727828085422515869e-02 1.034977287054061890e-01 -3.444218337535858154e-01 5.641455948352813721e-02 1.741635650396347046e-01 6.431845426559448242e-01 8.402488380670547485e-02 3.805756568908691406e-01 -1.530873328447341919e-01 -3.824518322944641113e-01 3.360751271247863770e-01 4.482778608798980713e-01 -5.252186581492424011e-02 -4.242979288101196289e-01 6.038200110197067261e-02 1.079906802624464035e-02 1.570521891117095947e-01 3.007094264030456543e-01 7.802075892686843872e-02 3.385657966136932373e-01 -2.318996638059616089e-01 3.511423766613006592e-01 5.004593729972839355e-02 1.741807758808135986e-01 6.171815991401672363e-01 2.937394380569458008e-01 5.798578262329101562e-01 4.413019120693206787e-02 6.613463163375854492e-02 3.348641097545623779e-01 2.553456723690032959e-01 -4.899421334266662598e-01 -3.056007027626037598e-01 3.875315561890602112e-02 -2.646853923797607422e-01 -1.890480816364288330e-01 2.847254276275634766e-01 4.657557606697082520e-02 5.264134407043457031e-01 1.117047145962715149e-01 -2.354488521814346313e-01 -1.570640653371810913e-01 2.701666355133056641e-01 -3.875833377242088318e-02 5.142075419425964355e-01 -1.976809054613113403e-01 -8.473812043666839600e-02 1.204344332218170166e-01 3.113884627819061279e-01 4.468037281185388565e-03 3.543221652507781982e-01 2.173441648483276367e-01 4.363755285739898682e-01 -4.845516681671142578e-01 3.626090288162231445e-01 1.308028697967529297e-01 -1.410554628819227219e-02 -3.441944122314453125e-01 2.265741489827632904e-02 2.341140806674957275e-01 -5.764991044998168945e-02 1.829485595226287842e-01 4.988327920436859131e-01 1.846230328083038330e-01 -1.454715579748153687e-01 -3.281937167048454285e-02 6.389768421649932861e-02
2.010173797607421875e-01 2.665993273258209229e-01 1.372810155153274536e-01 2.826057374477386475e-01 4.382776021957397461e-01 -3.505884706974029541e-01 2.686705067753791809e-02 4.181916117668151855e-01 -2.704258859157562256e-01 1.029593124985694885e-01 2.636876106262207031e-01 -1.861723065376281738e-01 -2.353051155805587769e-01 2.240260839462280273e-01 -2.264070510864257812e-01 -2.007229626178741455e-02 -2.188779562711715698e-01 3.970297276973724365e-01 3.058038651943206787e-01 -4.693987071514129639e-01 -1.360625624656677246e-01 -2.378391623497009277e-01 4.965972006320953369e-01 -2.661310732364654541e-01 -2.269462943077087402e-01 -1.109489277005195618e-01 6.653065234422683716e-02 -7.769956439733505249e-02 -2.112583518028259277e-01 -3.406545817852020264e-01 1.371851563453674316e-01 -7.847214490175247192e-02 3.087953627109527588e-01 -4.737689495086669922e-01 -2.046818137168884277e-01 -9.062782191904261708e-05 -9.551991522312164307e-02 2.435636073350906372e-01 1.927552819252014160e-01 -4.431013166904449463e-01 6.483966112136840820e-01 -3.387834429740905762e-01 -2.109414637088775635e-01 2.799998223781585693e-01 1.379971504211425781e-01 -5.465575456619262695e-01 5.239942669868469238e-01 -2.210067957639694214e-01 -1.103558987379074097e-01 2.199293375015258789e-01 4.562998712062835693e-01 -1.300935000181198120e-01 2.326991222798824310e-02 -1.912409812211990356e-01 -1.690173894166946411e-01 3.329708874225616455e-01 -4.898935556411743164e-02 -4.209838807582855225e-01 -3.466833829879760742e-01 7.865791022777557373e-02 3.265832364559173584e-02 -3.521092534065246582e-01 -4.196163266897201538e-02 2.199286073446273804e-01 1.224753633141517639e-01 -1.307058036327362061e-01 -5.383751988410949707e-01 -4.002844989299774170e-01 -2.763223350048065186e-01 8.554346114397048950e-02
2.436199486255645752e-01 -8.265840262174606323e-02 6.146065890789031982e-02 1.280153095722198486e-01 -1.065259724855422974e-01 -9.389233589172363281e-02 -8.980994671583175659e-02 -1.054735947400331497e-02 1.617493927478790283e-01 -8.553178608417510986e-02 7.761508971452713013e-02 -3.988596200942993164e-01 -4.736094176769256592e-01 3.436059355735778809e-01 -4.366625845432281494e-02 -1.551439762115478516e-01 -1.656479686498641968e-01 3.726214170455932617e-01 -3.233139812946319580e-01 1.827246397733688354e-01 -3.053571879863739014e-01 3.077564239501953125e-01 1.332922577857971191e-01 1.743520498275756836e-01 4.727481007575988770e-01 4.236607253551483154e-02 -3.468441963195800781e-01 2.703430354595184326e-01 -3.404804170131683350e-01 2.990528009831905365e-02 -2.072398513555526733e-01 3.741009905934333801e-02 2.693964540958404541e-01 -2.175229042768478394e-01 1.875790953636169434e-01 -5.695298314094543457e-02 -7.694964408874511719e-01 1.477597206830978394e-01 -2.554715871810913086e-01 -1.089339628815650940e-01 4.155149310827255249e-02 9.553226083517074585e-02 2.702057547867298126e-02 2.248426973819732666e-01 -3.737428188323974609e-01 -3.826620280742645264e-01 2.661164700984954834e-01 1.538131386041641235e-01 1.031330004334449768e-01 4.915449023246765137e-02 4.978599846363067627e-01 -1.334971934556961060e-01 9.916329383850097656e-02 -4.105548262596130371e-01 1.983795166015625000e-01 7.510257512331008911e-02 7.776548713445663452e-02 2.194686383008956909e-01 1.291751861572265625e-01 -1.201030239462852478e-01 2.918858528137207031e-01 2.802445925772190094e-02 -2.069271653890609741e-01 1.625583916902542114e-01 3.266195058822631836e-01 -9.781542420387268066e-02 -2.630668282508850098e-01 3.157141804695129395e-01 -3.854090571403503418e-01 -4.755885899066925049e-01
4.292890727519989014e-01 -1.618184298276901245e-01 -2.076508663594722748e-02 -1.055258810520172119e-01 -1.131773889064788818e-01 1.357856020331382751e-02 7.677952200174331665e-02 4.676327109336853027e-01 -2.653236389160156250e-01 -1.256316751241683960e-01 1.159831061959266663e-01 -2.430000454187393188e-01 1.584674715995788574e-01 4.054637849330902100e-01 -1.063599660992622375e-01 -2.559226155281066895e-01 -4.881859198212623596e-02 -2.086331546306610107e-01 1.065846532583236694e-02 -5.887103080749511719e-01 4.368031620979309082e-01 8.747379481792449951e-02 -8.462541103363037109e-01 2.273882776498794556e-01 -1.203291863203048706e-01 5.971559509634971619e-02 -3.676379323005676270e-01 3.061485588550567627e-01 3.196031153202056885e-01 2.789898514747619629e-01 2.304526120424270630e-01 1.537516620010137558e-02 1.222774833440780640e-01 5.262763425707817078e-02 4.111399352550506592e-01 -4.981976933777332306e-03 1.232945695519447327e-01 -3.168985247611999512e-01 -1.787402033805847168e-01 -4.011470973491668701e-01 5.208620429039001465e-01 -3.949843645095825195e-01 8.799069374799728394e-02 -1.149245724081993103e-02 -3.603980243206024170e-01 -1.187743768095970154e-01 2.580515444278717041e-01 -1.924859881401062012e-01 -7.370088994503021240e-02 -4.468787461519241333e-02 -1.566535979509353638e-01 -1.173428818583488464e-01 -1.863868832588195801e-01 6.362673044204711914e-01 -3.129410445690155029e-01 -2.762708961963653564e-01 -3.143717944622039795e-01 1.736734062433242798e-01 1.391427125781774521e-02 -2.153796851634979248e-01 1.064535379409790039e-01 3.125502765178680420e-01 2.969755232334136963e-01 -1.482961773872375488e-01 -8.400455862283706665e-02 -1.449518650770187378e-01 -6.210923790931701660e-01 -3.211518377065658569e-02 5.160051956772804260e-02 -4.174403846263885498e-02
4.029162228107452393e-01 -2.428914308547973633e-01 -2.119440883398056030e-01 -1.239618062973022461e-01 7.304192334413528442e-02 -7.463603466749191284e-02 3.112998902797698975e-01 4.289377033710479736e-01 -6.724140793085098267e-02 3.300954401493072510e-01 8.246109634637832642e-02 -4.417149350047111511e-02 4.833399653434753418e-01 2.059260159730911255e-01 8.842122741043567657e-03 3.658223897218704224e-02 -2.673260271549224854e-01 -4.644404649734497070e-01 -6.453428417444229126e-02 1.605081409215927124e-01 -9.488405287265777588e-02 -1.745591163635253906e-01 1.488564908504486084e-01 -3.522510230541229248e-01 -2.469783872365951538e-01 5.484573841094970703e-01 -2.817976176738739014e-01 -1.285245120525360107e-01 4.695263877511024475e-02 2.696409523487091064e-01 -3.482235372066497803e-01 1.531019955873489380e-01 -5.361371440812945366e-04 -2.317478060722351074e-01 2.298380136489868164e-01 -5.460102856159210205e-02 -7.063276171684265137e-01 9.763711690902709961e-02 -4.474667906761169434e-01 3.749846518039703369e-01 7.752895951271057129e-01 -5.683348774909973145e-01 6.387116312980651855e-01 1.787290535867214203e-02 -4.708533287048339844e-01 4.618659019470214844e-01 4.954400360584259033e-01 -1.565049402415752411e-02 2.683348953723907471e-01 1.057335212826728821e-01 -7.263185083866119385e-02 2.494784742593765259e-01 -8.000929653644561768e-02 1.931954622268676758e-01 -1.868738383054733276e-01 3.357044756412506104e-01 -1.847695112228393555e-01 -1.198845449835062027e-02 9.664624929428100586e-02 1.455976516008377075e-01 1.778813004493713379e-01 4.072690606117248535e-01 1.182744875550270081e-01 -3.330047726631164551e-01 -2.589249312877655029e-01 3.419705033302307129e-01 4.019201919436454773e-02 -6.509657204151153564e-02 -2.696367800235748291e-01 -3.506441116333007812e-01
2.752437889575958252e-01 -4.395321905612945557e-01 3.026871681213378906e-01 4.996606707572937012e-02 -1.192589104175567627e-02 -2.174575030803680420e-01 -4.904968440532684326e-01 1.564827859401702881e-01 -1.497570574283599854e-01 3.767603635787963867e-01 3.169075846672058105e-01 4.017919301986694336e-02 3.282269462943077087e-02 1.407080292701721191e-01 -3.963277637958526611e-01 3.730696439743041992e-01 -2.382456213235855103e-01 -2.739515304565429688e-01 -2.954260408878326416e-01 -1.049430519342422485e-01 2.062661349773406982e-01 -7.943852245807647705e-02 1.940251588821411133e-01 1.842585206031799316e-01 -1.582017913460731506e-02 -1.151683479547500610e-01 -7.233647257089614868e-02 2.469602040946483612e-03 -1.335548907518386841e-01 -2.008492052555084229e-01 -9.057894349098205566e-02 2.870245575904846191e-01 -4.718871414661407471e-01 4.112834334373474121e-01 -1.044100970029830933e-01 -7.193299382925033569e-02 -1.825404465198516846e-01 8.701460808515548706e-02 -1.094439253211021423e-02 8.035984635353088379e-02 2.523699998855590820e-01 -1.850230544805526733e-01 3.605173528194427490e-01 1.864174604415893555e-01 -5.705204233527183533e-02 2.700231038033962250e-02 1.466402262449264526e-01 -3.900194168090820312e-01 -1.856754869222640991e-01 -2.199966162443161011e-01 -4.836693406105041504e-01 -5.825166702270507812e-01 1.709486544132232666e-01 5.003854036331176758e-01 1.493258774280548096e-01 -2.868742644786834717e-01 9.186234325170516968e-02 6.269860267639160156e-02 -1.944850683212280273e-01 -2.731550931930541992e-01 -7.057479768991470337e-02 9.716526418924331665e-02 -4.645715653896331787e-01 -3.187294602394104004e-01 3.243230283260345459e-01 -4.362374544143676758e-01 4.294943213462829590e-01 -2.324449867010116577e-01 -6.250391155481338501e-02 -2.875097692012786865e-01
1.585481911897659302e-01 -3.432356566190719604e-02 1.165320351719856262e-01 -3.320808289572596550e-03 -5.962675809860229492e-02 2.074249088764190674e-01 -1.747868955135345459e-01 1.731683909893035889e-01 -2.424114048480987549e-01 -2.793542444705963135e-01 -1.361578255891799927e-01 2.510640621185302734e-01 1.294904053211212158e-01 1.375917345285415649e-01 -4.464060366153717041e-01 -3.625302016735076904e-02 -1.562113165855407715e-01 1.307493299245834351e-01 9.099699556827545166e-02 -6.337268650531768799e-02 3.379502296447753906e-01 -4.044861495494842529e-01 -1.123970597982406616e-01 -2.666286230087280273e-01 2.205849885940551758e-01 1.191486604511737823e-02 2.622513333335518837e-03 -2.323620766401290894e-01 -1.808573752641677856e-01 2.009156942367553711e-01 1.338884085416793823e-01 1.070860493928194046e-02 6.817574054002761841e-02 -1.778385639190673828e-01 1.515142917633056641e-01 -7.830664515495300293e-02 -4.631102383136749268e-01 -1.216911002993583679e-01 -2.857169210910797119e-01 1.186603978276252747e-01 5.725736618041992188e-01 -2.598031461238861084e-01 9.991803020238876343e-02 -4.229081049561500549e-02 -4.111648350954055786e-02 2.139346860349178314e-02 3.108564913272857666e-01 -4.344679415225982666e-01 -1.476147025823593140e-01 -2.728318572044372559e-01 -6.287928670644760132e-02 1.066327765583992004e-01 -2.884415686130523682e-01 -1.166458893567323685e-02 2.671076450496912003e-03 -1.910603940486907959e-01 -4.302376806735992432e-01 5.817710161209106445e-01 4.092464447021484375e-01 3.321042656898498535e-01 -5.588346719741821289e-01 2.769074440002441406e-01 3.411306738853454590e-01 6.052828207612037659e-02 -5.772799849510192871e-01 1.919224858283996582e-01 -8.572002500295639038e-02 7.846832275390625000e-02 -3.565606772899627686e-01 4.025663435459136963e-02
-3.143069148063659668e-01 6.479014456272125244e-02 -2.282768189907073975e-01 2.364222854375839233e-01 3.627404272556304932e-01 -3.730412572622299194e-02 -3.337645828723907471e-01 6.649182736873626709e-02 3.801191747188568115e-01 4.576332271099090576e-01 5.183476805686950684e-01 -6.547781825065612793e-02 3.474356234073638916e-02 -2.745913863182067871e-01 4.189476668834686279e-01 4.245896935462951660e-01 3.534388542175292969e-01 -3.749083578586578369e-01 -9.553418308496475220e-02 7.988496422767639160e-01 2.791127264499664307e-01 -6.625934690237045288e-02 2.562843263149261475e-01 2.708948776125907898e-02 -2.177189439535140991e-01 1.154834628105163574e-01 -3.962068855762481689e-01 2.072518914937973022e-01 1.779207289218902588e-01 1.387909799814224243e-01 7.587230950593948364e-02 -1.319268792867660522e-01 -3.909267857670783997e-02 -1.863989606499671936e-02 2.235147058963775635e-01 1.987292021512985229e-01 4.974083304405212402e-01 5.246595144271850586e-01 3.388462364673614502e-01 6.700943410396575928e-02 -1.031732559204101562e-01 3.929074108600616455e-01 4.345268011093139648e-01 5.217249989509582520e-01 3.196511864662170410e-01 5.625522136688232422e-01 -4.437105655670166016e-01 6.869605183601379395e-01 5.129840597510337830e-02 1.266192495822906494e-01 -6.630679965019226074e-02 -2.752581238746643066e-01 6.192534565925598145e-01 2.602671384811401367e-01 -2.397377043962478638e-02 2.503819465637207031e-01 -3.218099176883697510e-01 2.112393453717231750e-02 -3.724922239780426025e-02 -4.503591656684875488e-01 -1.121821776032447815e-01 4.816031455993652344e-02 -7.192312180995941162e-02 9.996350109577178955e-02 -5.073659867048263550e-02 4.288346767425537109e-01 4.029718041419982910e-01 1.197847276926040649e-01 -1.164726614952087402e-01 1.927508711814880371e-01
5.630397796630859375e-01 -4.191166460514068604e-01 -1.181789636611938477e-01 7.223772257566452026e-02 8.133871853351593018e-02 4.934608563780784607e-02 -5.214918032288551331e-02 2.469846755266189575e-01 2.871688455343246460e-02 2.575608789920806885e-01 -2.588458657264709473e-01 -5.695008486509323120e-02 4.251420795917510986e-01 -1.514227092266082764e-01 3.544926270842552185e-02 8.168154358863830566e-01 1.237823292613029480e-01 -1.825505495071411133e-01 -3.339950144290924072e-01 2.788835465908050537e-01 4.337435662746429443e-01 5.066485702991485596e-02 7.650245428085327148e-01 -2.055684775114059448e-01 -2.303024977445602417e-01 8.169113844633102417e-02 5.172106027603149414e-01 1.633619517087936401e-01 -2.341458052396774292e-01 -8.920102566480636597e-02 7.453937083482742310e-02 -1.833847910165786743e-02 -3.288185000419616699e-01 4.708228111267089844e-01 1.198751255869865417e-01 -4.513365030288696289e-01 -1.124726142734289169e-03 1.127356141805648804e-01 -1.339776962995529175e-01 1.145722419023513794e-01 5.135197043418884277e-01 -7.295056432485580444e-02 1.998404413461685181e-01 -2.439012080430984497e-01 9.690239280462265015e-02 1.890499442815780640e-01 9.931324422359466553e-02 2.766893804073333740e-01 7.179467380046844482e-02 2.501796744763851166e-02 -2.605591714382171631e-01 -5.510606169700622559e-01 1.614747643470764160e-01 5.344848036766052246e-01 -5.682860314846038818e-02 2.514031827449798584e-01 -2.480816654860973358e-02 -1.586167514324188232e-01 -4.107105731964111328e-01 -3.026110865175724030e-02 1.860099285840988159e-02 -1.189003139734268188e-01 -4.161444008350372314e-01 4.621708989143371582e-01 1.702715307474136353e-01 -3.418597280979156494e-01 1.840417981147766113e-01 1.195860356092453003e-01 -1.557652801275253296e-01 -1.169298216700553894e-01
-1.923148185014724731e-01 -2.605516612529754639e-01 -7.006071507930755615e-02 1.579123288393020630e-01 1.979314386844635010e-01 6.938946247100830078e-02 -1.877604275941848755e-01 -1.231940090656280518e-01 6.756585091352462769e-02 2.371535003185272217e-01 1.103786081075668335e-01 5.921054631471633911e-02 -4.225130677223205566e-01 1.728030294179916382e-01 7.586757093667984009e-02 2.371489256620407104e-01 -2.937448769807815552e-02 -4.164513051509857178e-01 -3.060677647590637207e-01 3.798674941062927246e-01 1.383989900350570679e-01 -5.325150489807128906e-01 -3.156837821006774902e-01 -5.614050030708312988e-01 -1.628672182559967041e-01 -1.045701503753662109e+00 2.622484862804412842e-01 2.035596407949924469e-02 3.535130918025970459e-01 3.416334986686706543e-01 2.090004980564117432e-01 2.024990469217300415e-01 1.862833648920059204e-01 1.131974831223487854e-01 2.559801936149597168e-01 -4.818086028099060059e-01 3.402208387851715088e-01 3.643277585506439209e-01 2.896832227706909180e-01 -4.148457571864128113e-02 -6.790563347749412060e-04 -4.356700461357831955e-03 -1.357048004865646362e-01 1.275347918272018433e-01 2.817821502685546875e-01 2.706621885299682617e-01 -1.992223225533962250e-02 8.280853182077407837e-02 2.998235821723937988e-01 1.464532613754272461e-01 -3.076394498348236084e-01 -3.417882323265075684e-01 -4.167534038424491882e-02 -1.759429574012756348e-01 -5.972585082054138184e-01 -4.228548407554626465e-01 -4.972014427185058594e-01 1.290483772754669189e-01 -2.134448140859603882e-01 3.386583551764488220e-02 -1.470044106245040894e-01 -1.278237700462341309e-01 2.173568457365036011e-01 6.377784609794616699e-01 -4.630572721362113953e-02 1.565566658973693848e-01 -3.333492279052734375e-01 4.187675118446350098e-01 -4.716319143772125244e-01 4.570868611335754395e-02
5.296701192855834961e-01 -3.731868043541908264e-02 1.379735022783279419e-01 1.276755332946777344e-02 -2.496103644371032715e-01 3.721017241477966309e-01 3.842352330684661865e-01 -1.999266445636749268e-01 1.516519486904144287e-02 -2.254550755023956299e-01 -7.044218480587005615e-02 3.089731931686401367e-01 7.805170863866806030e-02 -9.744937717914581299e-02 -2.849205434322357178e-01 -2.539256811141967773e-01 -1.391940414905548096e-01 -1.055936962366104126e-01 -2.118395566940307617e-01 -4.826267436146736145e-02 -2.367809861898422241e-01 -7.244755327701568604e-02 -3.436526656150817871e-01 -2.868933379650115967e-01 5.368227362632751465e-01 1.172021627426147461e-01 6.627159118652343750e-01 -7.099877595901489258e-01 -1.163058355450630188e-01 -4.237882420420646667e-02 3.674445152282714844e-01 -6.331814918667078018e-03 2.171483635902404785e-01 1.926068067550659180e-01 -4.968028515577316284e-02 1.017631031572818756e-02 6.962079554796218872e-03 -1.396481096744537354e-01 1.168886572122573853e-02 2.567197382450103760e-01 8.200453221797943115e-02 -8.401846885681152344e-02 -8.304318040609359741e-02 -1.848831586539745331e-02 -1.553296297788619995e-01 2.098383754491806030e-01 -3.013528697192668915e-02 -1.051124464720487595e-02 -3.313083574175834656e-02 -8.073002099990844727e-02 4.531569480895996094e-01 3.136220574378967285e-01 4.658416211605072021e-01 -2.683432698249816895e-01 -6.592508405447006226e-02 -5.907815694808959961e-02 -5.977868437767028809e-01 4.977535456418991089e-02 -1.062721014022827148e-01 -3.399374485015869141e-01 -7.633241415023803711e-01 -1.282808184623718262e-01 8.206925541162490845e-02 -9.956979751586914062e-02 -1.503058336675167084e-02 -1.223296076059341431e-01 1.216031759977340698e-01 2.103187590837478638e-01 1.234241053462028503e-01 -3.163925409317016602e-01
9.619178622961044312e-02 1.566564887762069702e-01 -1.327698826789855957e-01 3.779902756214141846e-01 -3.911105543375015259e-02 -4.213321506977081299e-01 -1.265969276428222656e-01 4.324525967240333557e-02 4.131838679313659668e-01 3.714487254619598389e-01 1.101705804467201233e-02 -4.000653922557830811e-01 -1.194860264658927917e-01 1.455567032098770142e-01 1.625438481569290161e-01 4.930215775966644287e-01 1.975153386592864990e-01 -8.162308484315872192e-02 -1.696923524141311646e-01 -2.453584671020507812e-01 3.839010298252105713e-01 9.094145894050598145e-02 8.554608374834060669e-02 4.680104553699493408e-02 2.460328638553619385e-01 -2.394707798957824707e-01 2.614127993583679199e-01 2.037563174962997437e-01 7.219016551971435547e-01 6.225661039352416992e-01 -5.643027275800704956e-02 8.010970056056976318e-02 6.427741646766662598e-01 3.649815618991851807e-01 1.598543375730514526e-01 -2.425578422844409943e-02 -3.274440020322799683e-02 3.501969203352928162e-02 -5.094779729843139648e-01 -2.668219804763793945e-01 1.964609175920486450e-01 1.135730221867561340e-01 3.355229198932647705e-01 -2.490313053131103516e-01 -3.442611694335937500e-01 -1.016827225685119629e-01 6.279280781745910645e-02 5.691438168287277222e-02 1.506022512912750244e-01 -3.042702078819274902e-01 1.388476639986038208e-01 -5.229458212852478027e-02 1.353169605135917664e-02 3.014861941337585449e-01 2.696308791637420654e-01 4.452714696526527405e-02 -5.771824344992637634e-02 -1.664800494909286499e-01 -1.276396214962005615e-01 -3.246882259845733643e-01 6.484342366456985474e-02 2.898201048374176025e-01 3.889515995979309082e-01 -4.815410450100898743e-02 -1.056924983859062195e-01 6.045290827751159668e-01 2.959838509559631348e-02 3.794758617877960205e-01 3.630913794040679932e-01 -4.186697006225585938e-01
9.909255057573318481e-02 -1.541650444269180298e-01 -3.521360456943511963e-01 -1.058158725500106812e-01 2.584100067615509033e-01 9.435085207223892212e-02 1.533861607313156128e-01 -7.657091319561004639e-02 4.456388354301452637e-01 -3.542920351028442383e-01 1.311918199062347412e-01 1.172126680612564087e-01 -1.420620083808898926e-01 3.486009314656257629e-02 4.034934043884277344e-01 -3.444840908050537109e-01 -1.203679069876670837e-01 7.654960453510284424e-02 -4.808420538902282715e-01 3.445899784564971924e-01 7.057876884937286377e-02 -1.610634624958038330e-01 -6.459841877222061157e-02 3.133464455604553223e-01 2.452845126390457153e-01 9.466943740844726562e-01 -3.540068566799163818e-01 2.084368765354156494e-01 4.098769128322601318e-01 -5.014855414628982544e-03 9.620070457458496094e-02 -2.173149436712265015e-01 2.679184675216674805e-01 -2.154750972986221313e-01 -3.916184604167938232e-01 2.460235506296157837e-01 4.934491962194442749e-02 3.359690308570861816e-01 1.011538282036781311e-01 6.347227096557617188e-02 -1.758065447211265564e-02 5.412056446075439453e-01 1.388879567384719849e-01 3.398296236991882324e-01 2.232005447149276733e-02 1.674179881811141968e-01 4.487828910350799561e-02 1.639210134744644165e-01 7.776684314012527466e-02 2.098675072193145752e-02 4.834430813789367676e-01 -5.609155297279357910e-01 1.776556372642517090e-01 -9.251654148101806641e-02 -1.962682455778121948e-01 -1.277856379747390747e-01 5.511100217700004578e-02 3.375885784626007080e-01 2.789511084556579590e-01 -2.853240370750427246e-01 -2.684207558631896973e-01 -1.316825300455093384e-01 8.184324204921722412e-02 3.881293535232543945e-01 -2.516363859176635742e-01 3.288584053516387939e-01 8.590186387300491333e-02 -4.587795734405517578e-01 3.555362522602081299e-01 1.118861138820648193e-01
5.871934071183204651e-02 -5.637860670685768127e-02 1.752258241176605225e-01 -1.151734367012977600e-01 2.118450403213500977e-01 1.409549824893474579e-02 -2.988626658916473389e-01 8.492100983858108521e-02 -1.133058778941631317e-02 8.134759217500686646e-02 1.627084761857986450e-01 -4.651103913784027100e-02 2.093646489083766937e-02 -8.058247715234756470e-02 9.428545832633972168e-02 1.357356756925582886e-01 2.945869266986846924e-01 8.610041439533233643e-02 -1.940257288515567780e-02 3.656052947044372559e-01 4.699599742889404297e-02 -1.273699104785919189e-01 -8.211211115121841431e-02 4.898501932621002197e-01 1.304400116205215454e-01 1.098657920956611633e-01 -3.797393441200256348e-01 -2.240509390830993652e-01 3.199650645256042480e-01 1.644822955131530762e-01 5.725389719009399414e-01 2.114983797073364258e-01 4.190722405910491943e-01 -1.052011400461196899e-01 -2.476497367024421692e-02 -3.572517037391662598e-01 -4.566834867000579834e-01 3.705512285232543945e-01 2.079605460166931152e-01 -1.806627362966537476e-01 1.755349934101104736e-01 -4.515780881047248840e-02 1.735743433237075806e-01 3.375917375087738037e-01 9.228423237800598145e-02 -1.951480060815811157e-01 3.219464793801307678e-02 9.941112995147705078e-02 8.959271013736724854e-02 -5.774199031293392181e-03 1.817758828401565552e-01 1.611072272062301636e-01 1.968579441308975220e-01 1.894281245768070221e-02 -1.700087785720825195e-01 -2.162839025259017944e-01 2.245183438062667847e-01 3.354315459728240967e-01 -9.391371905803680420e-02 -3.342145979404449463e-01 -1.669621616601943970e-01 1.877823472023010254e-01 1.155908033251762390e-01 2.132192999124526978e-01 1.542211510241031647e-02 -1.110077723860740662e-01 -2.472072094678878784e-02 -1.618896722793579102e-01 2.671263813972473145e-01 -5.190718770027160645e-01
4.007359743118286133e-01 2.022380828857421875e-01 -4.893800914287567139e-01 -2.365431375801563263e-02 -8.846204727888107300e-02 1.372500956058502197e-01 2.507345676422119141e-01 4.677649438381195068e-01 7.575605511665344238e-01 -6.205511093139648438e-01 -1.848535239696502686e-01 1.788880378007888794e-01 2.164428867399692535e-02 8.429189920425415039e-01 4.884119927883148193e-01 -4.369629919528961182e-01 -2.853351533412933350e-01 -1.671042591333389282e-01 5.067846179008483887e-02 1.376042813062667847e-01 -1.639266908168792725e-01 6.586528569459915161e-02 -4.246042370796203613e-01 -1.213308051228523254e-01 5.228559374809265137e-01 7.524158805608749390e-02 -5.517163872718811035e-02 9.628110378980636597e-02 1.959605328738689423e-02 1.402156352996826172e-01 1.876256465911865234e-01 -9.609587490558624268e-03 2.097772210836410522e-01 2.324403077363967896e-02 -4.782604575157165527e-01 2.986601293087005615e-01 2.499436028301715851e-02 -1.632449477910995483e-01 -5.923294462263584137e-03 -8.234006166458129883e-02 6.163400411605834961e-01 3.815386593341827393e-01 2.243303656578063965e-01 2.181322500109672546e-02 -3.762032464146614075e-02 -1.628675311803817749e-01 6.070895791053771973e-01 2.051724195480346680e-01 -4.548993334174156189e-02 -3.393144607543945312e-01 1.180624887347221375e-01 2.792150080204010010e-01 -1.733561009168624878e-01 -5.359748601913452148e-01 -1.758940517902374268e-01 -1.792177706956863403e-01 2.352132797241210938e-01 3.378146886825561523e-01 -2.260471880435943604e-01 -4.714072048664093018e-01 8.734448999166488647e-02 -2.176666855812072754e-01 2.576091140508651733e-02 2.786102592945098877e-01 2.099328041076660156e-01 1.162544265389442444e-01 3.016617894172668457e-01 -2.734114825725555420e-01 -8.308712393045425415e-02 6.799437105655670166e-02
-4.083367884159088135e-01 2.822779305279254913e-02 -7.226573824882507324e-01 -9.573292732238769531e-02 1.006783992052078247e-01 -3.552451431751251221e-01 -2.484231442213058472e-01 4.655996263027191162e-01 -1.291549950838088989e-01 3.555821478366851807e-01 -3.837393596768379211e-02 -3.381500840187072754e-01 -1.286548078060150146e-01 1.153913214802742004e-01 7.257881015539169312e-02 3.311999440193176270e-01 -2.261965423822402954e-01 -5.039202049374580383e-02 9.447194635868072510e-02 3.867868781089782715e-01 -1.394062042236328125e-01 4.270383343100547791e-02 1.637013554573059082e-01 8.232150971889495850e-02 -8.869708329439163208e-02 1.913759559392929077e-01 -1.133316941559314728e-02 3.509070724248886108e-02 1.767357140779495239e-01 -1.785995252430438995e-02 -2.680488526821136475e-01 -4.095328450202941895e-01 3.241187892854213715e-03 -8.944816142320632935e-02 -1.511035561561584473e-01 1.171638816595077515e-01 1.530589163303375244e-01 6.681658625602722168e-01 -4.125086963176727295e-02 -5.230947956442832947e-02 5.407354235649108887e-02 -1.606739163398742676e-01 8.448787778615951538e-02 2.678099870681762695e-01 5.003016442060470581e-02 -7.494445890188217163e-02 2.530470490455627441e-01 -3.917423784732818604e-01 2.069854885339736938e-01 6.339567899703979492e-01 1.223798617720603943e-01 -5.981631577014923096e-02 -1.677376180887222290e-01 -1.396716386079788208e-01 1.363696455955505371e-01 9.243963658809661865e-02 2.841728031635284424e-01 6.753801554441452026e-02 9.511628001928329468e-02 -2.055385112762451172e-01 1.138939112424850464e-01 -9.750358760356903076e-02 -5.062861368060112000e-02 -5.165619850158691406e-01 4.548069238662719727e-01 6.835915893316268921e-02 4.505340754985809326e-01 4.273493587970733643e-01 2.136555165052413940e-01 2.804659307003021240e-02
3.980076611042022705e-01 2.645143866539001465e-01 1.294770389795303345e-01 4.143189787864685059e-01 -7.233747094869613647e-02 7.043872028589248657e-02 1.428215354681015015e-01 1.553010195493698120e-01 1.363971084356307983e-01 -3.276215791702270508e-01 3.716533631086349487e-02 -6.742917001247406006e-02 -2.327660322189331055e-01 3.779524266719818115e-01 -3.565947338938713074e-02 -5.041753053665161133e-01 2.485821247100830078e-01 -9.225437790155410767e-02 3.112165816128253937e-02 -4.550145938992500305e-02 4.689789712429046631e-01 2.645768821239471436e-01 -5.949505567550659180e-01 4.168395102024078369e-01 -3.282568454742431641e-01 -2.005805633962154388e-02 6.390582770109176636e-02 2.538853883743286133e-01 -3.797951340675354004e-01 -5.114941298961639404e-02 -2.781713902950286865e-01 1.331126987934112549e-01 1.281897425651550293e-01 1.792439967393875122e-01 -2.475094348192214966e-01 -5.318224430084228516e-01 -2.112071961164474487e-01 -1.882241070270538330e-01 -2.276702374219894409e-01 -3.610289990901947021e-01 3.051428198814392090e-01 -1.235706582665443420e-01 -1.849147975444793701e-01 -7.758145034313201904e-02 -4.683631956577301025e-01 -3.359974622726440430e-01 5.375775098800659180e-01 -1.092613786458969116e-01 2.516420185565948486e-02 2.417065948247909546e-01 -1.967974752187728882e-01 2.030572146177291870e-01 3.017321825027465820e-01 4.207700490951538086e-01 -2.258413136005401611e-01 2.865178883075714111e-01 -2.970326542854309082e-01 -2.292451262474060059e-01 -1.917027533054351807e-01 2.950311899185180664e-01 4.166240692138671875e-01 -1.868275403976440430e-01 -5.576350167393684387e-02 -6.274275183677673340e-01 -3.991208970546722412e-03 1.102497205138206482e-01 -1.704156845808029175e-01 -1.667783409357070923e-01 -2.185126692056655884e-01 -1.872940361499786377e-02
4.691383540630340576e-01 5.212549567222595215e-01 -1.589085673913359642e-03 -1.377557367086410522e-01 7.664026319980621338e-02 1.342360582202672958e-02 -2.601645588874816895e-01 1.894684433937072754e-01 -3.685147166252136230e-01 -1.239708736538887024e-01 3.345793187618255615e-01 3.225435614585876465e-01 3.665772080421447754e-02 3.080335557460784912e-01 -1.621230840682983398e-01 -1.570509374141693115e-01 -1.291349977254867554e-01 -2.057211697101593018e-01 -2.098598778247833252e-01 2.532123029232025146e-01 4.609995186328887939e-01 2.060350775718688965e-01 -8.961096405982971191e-03 4.767621755599975586e-01 -3.052549958229064941e-01 8.465447276830673218e-02 -4.468314051628112793e-01 -2.585672736167907715e-01 -2.884406745433807373e-01 -1.584075391292572021e-01 1.890782639384269714e-02 5.227283760905265808e-02 -2.174063771963119507e-01 1.622068695724010468e-02 1.986104398965835571e-01 -1.084574162960052490e-01 -3.264948129653930664e-01 1.796514093875885010e-01 4.434253275394439697e-02 -4.370643496513366699e-01 4.956560134887695312e-01 -3.749454617500305176e-01 8.345437049865722656e-02 5.054938793182373047e-01 4.443944245576858521e-02 -4.981724321842193604e-01 7.329274415969848633e-01 -4.671393930912017822e-01 -4.805316925048828125e-01 3.138914108276367188e-01 1.253970861434936523e-01 9.495350718498229980e-02 -2.682443261146545410e-01 -9.255714714527130127e-02 -1.191617641597986221e-02 -8.053533732891082764e-02 7.048593759536743164e-01 -5.005431175231933594e-01 1.011815890669822693e-01 -8.861389942467212677e-03 -1.687636226415634155e-01 -8.697461336851119995e-02 -6.392461806535720825e-02 -1.252246797084808350e-01 -2.483412623405456543e-01 -1.493213698267936707e-02 9.542683511972427368e-02 2.223897725343704224e-01 -6.408654898405075073e-02 -4.911487102508544922e-01
4.185612499713897705e-01 2.074217200279235840e-01 -5.548700317740440369e-02 1.511379778385162354e-01 -1.830491274595260620e-01 1.231220886111259460e-01 -4.419331848621368408e-01 4.339685440063476562e-01 -1.093766614794731140e-01 -2.254285067319869995e-01 -2.707632780075073242e-01 3.475937247276306152e-01 -3.295981585979461670e-01 2.957689166069030762e-01 -2.817036397755146027e-02 -4.068631529808044434e-01 -3.345319628715515137e-01 -4.890732467174530029e-01 -2.255382835865020752e-01 2.437155693769454956e-01 3.406947255134582520e-01 6.001980975270271301e-02 1.229953914880752563e-01 8.743746578693389893e-02 3.439573049545288086e-01 4.986946284770965576e-01 -1.786020249128341675e-01 1.070138067007064819e-01 -2.608865797519683838e-01 -9.434214793145656586e-03 2.287011444568634033e-01 2.609279192984104156e-02 2.730257809162139893e-01 -7.358387857675552368e-02 -2.410105168819427490e-01 6.485344469547271729e-02 -8.229304105043411255e-02 1.385510563850402832e-01 -2.034919559955596924e-01 -3.591648936271667480e-01 4.003458321094512939e-01 -2.359249293804168701e-01 8.542986214160919189e-02 1.055008172988891602e-01 1.131153083406388760e-03 -4.548251926898956299e-01 2.746154069900512695e-01 -3.181451559066772461e-01 -1.760310977697372437e-01 -3.025272488594055176e-01 -7.456026673316955566e-01 5.953905731439590454e-02 9.194982796907424927e-02 -2.752612903714179993e-02 3.507545590400695801e-02 1.817403137683868408e-01 -2.532604336738586426e-02 1.171274036169052124e-01 5.448997020721435547e-01 -2.634294629096984863e-01 -5.533864721655845642e-02 -2.122974842786788940e-01 2.209027111530303955e-01 -4.891584515571594238e-01 -1.059472858905792236e-01 -3.362734988331794739e-02 2.276469469070434570e-01 -3.606448695063591003e-02 -2.704862058162689209e-01 6.773112714290618896e-02
1.525759398937225342e-01 -7.751187682151794434e-02 3.534377813339233398e-01 3.567513823509216309e-01 -1.499575749039649963e-02 -1.467290371656417847e-01 -3.734617829322814941e-01 9.432038664817810059e-02 -3.342965841293334961e-01 9.181889295578002930e-01 -1.564181782305240631e-02 4.244619980454444885e-03 3.290135264396667480e-01 -8.025652915239334106e-02 -2.090121954679489136e-01 5.009757876396179199e-01 3.315366506576538086e-01 -3.269165456295013428e-01 4.205735325813293457e-01 -1.663620173931121826e-01 -1.111374422907829285e-01 2.974217757582664490e-02 5.497631430625915527e-01 4.490608274936676025e-01 6.704109907150268555e-01 -3.518236279487609863e-01 4.183596372604370117e-01 -1.540535837411880493e-01 9.464421868324279785e-02 -9.108342975378036499e-02 1.923096925020217896e-01 -5.604824796319007874e-02 -1.588471829891204834e-01 -3.929502069950103760e-01 2.828774154186248779e-01 2.668837308883666992e-01 -7.619091309607028961e-03 2.300886511802673340e-01 -1.129853203892707825e-01 -3.659965693950653076e-01 2.061951756477355957e-01 -3.840546905994415283e-01 5.008478164672851562e-01 1.176810115575790405e-01 1.050608530640602112e-01 -2.851197719573974609e-01 9.223542362451553345e-02 -2.938091456890106201e-01 9.115835279226303101e-02 5.500658750534057617e-01 -2.836009860038757324e-01 1.589509397745132446e-01 -3.295883536338806152e-01 -1.904650777578353882e-01 1.815453618764877319e-01 -9.425722062587738037e-03 -1.043844968080520630e-03 1.067092493176460266e-01 5.721513926982879639e-02 4.819644093513488770e-01 4.309121519327163696e-02 1.119056642055511475e-01 2.287520794197916985e-03 5.040812306106090546e-03 -5.073740482330322266e-01 4.890643954277038574e-01 -2.661592960357666016e-01 -2.716227471828460693e-01 -5.543172731995582581e-02 -2.375109642744064331e-01
6.573698520660400391e-01 3.395350873470306396e-01 -1.769904494285583496e-01 -2.528859376907348633e-01 -1.117280870676040649e-01 -1.802426278591156006e-01 -3.905054032802581787e-01 8.842267841100692749e-02 6.601342558860778809e-01 -4.195198044180870056e-02 3.191559016704559326e-01 -1.448402255773544312e-01 -4.126855134963989258e-01 2.243461906909942627e-01 5.563761591911315918e-01 -6.982842087745666504e-02 -2.922180481255054474e-02 2.656387090682983398e-01 3.515277206897735596e-01 -1.895815581083297729e-01 -9.931156784296035767e-02 2.008326798677444458e-01 2.850400805473327637e-01 4.612899124622344971e-01 -7.486305832862854004e-01 3.907124325633049011e-02 -2.598754763603210449e-01 2.114328145980834961e-01 -2.266671061515808105e-01 2.526141107082366943e-01 3.057339489459991455e-01 -1.565743535757064819e-01 -2.290582209825515747e-01 -1.080367192625999451e-01 -4.442332983016967773e-01 -3.595954179763793945e-01 -4.355825483798980713e-01 -1.017529964447021484e-01 -4.186007678508758545e-01 -4.750678539276123047e-01 1.769286394119262695e-01 7.409195303916931152e-01 2.153805345296859741e-01 -1.925283074378967285e-01 -3.150462508201599121e-01 -5.558534264564514160e-01 2.358384579420089722e-01 1.910188794136047363e-01 3.192971944808959961e-01 -2.231244742870330811e-01 5.970551371574401855e-01 3.443466424942016602e-01 -1.478044986724853516e-01 -3.147477805614471436e-01 1.233164221048355103e-02 4.487667977809906006e-01 3.072272837162017822e-01 -1.165371760725975037e-01 7.580843567848205566e-02 -2.980370260775089264e-02 2.922964282333850861e-02 -3.299203515052795410e-01 9.009552747011184692e-02 3.667932152748107910e-01 -6.047067232429981232e-03 -1.118173226714134216e-01 4.046992212533950806e-02 -2.003375142812728882e-01 -1.710570156574249268e-01 -1.131951361894607544e-01
3.086124956607818604e-01 -9.680716320872306824e-03 -3.830860555171966553e-01 3.070330619812011719e-01 -7.912924885749816895e-02 -4.819781184196472168e-01 -8.716303110122680664e-02 3.988722562789916992e-01 1.787318587303161621e-01 2.150264531373977661e-01 -2.519338205456733704e-02 -3.707740008831024170e-01 -9.519635885953903198e-02 4.567551612854003906e-01 9.644251316785812378e-02 9.595591574907302856e-02 2.604490518569946289e-01 1.728485338389873505e-02 -2.494973242282867432e-01 2.586111659184098244e-03 -7.152745872735977173e-02 2.850006222724914551e-01 -9.455171972513198853e-02 4.086533486843109131e-01 6.077665090560913086e-01 8.048726320266723633e-01 -3.078334331512451172e-01 8.381485193967819214e-02 2.769204080104827881e-01 2.942557036876678467e-01 -2.899004220962524414e-01 -3.402548432350158691e-01 -2.259930521249771118e-01 2.593319714069366455e-01 -7.490974068641662598e-01 4.976696074008941650e-01 -3.782819807529449463e-01 -1.503297239542007446e-01 -5.419041216373443604e-02 -8.892614394426345825e-02 7.124260663986206055e-01 -9.515111148357391357e-02 2.807581126689910889e-01 -2.122696787118911743e-01 -6.455392390489578247e-02 2.358284145593643188e-01 5.476850867271423340e-01 -2.860821597278118134e-02 -1.135501638054847717e-02 4.726466163992881775e-02 6.006711125373840332e-01 -9.741457551717758179e-02 6.281375139951705933e-02 -1.872333288192749023e-01 -3.713462129235267639e-02 2.732290141284465790e-02 -1.660331338644027710e-01 3.320051431655883789e-01 2.092221528291702271e-01 -1.366159915924072266e-01 -4.390762746334075928e-02 7.151837646961212158e-02 1.837058514356613159e-01 -2.669113576412200928e-01 -1.085922345519065857e-01 2.381665706634521484e-01 -1.316645592451095581e-01 -2.168537676334381104e-01 1.490806341171264648e-01 -1.155429854989051819e-01
1.722594350576400757e-01 -2.558541297912597656e-01 -2.630094587802886963e-01 -1.329833418130874634e-01 1.329855173826217651e-01 7.170838117599487305e-02 -4.195065200328826904e-01 -5.724400281906127930e-02 2.307153791189193726e-01 1.285196840763092041e-01 8.129349350929260254e-02 1.012236997485160828e-01 -2.494626305997371674e-02 -1.275078952312469482e-01 5.946073532104492188e-01 1.779067814350128174e-01 -4.302185773849487305e-01 2.330376654863357544e-01 -3.092366755008697510e-01 -2.923893630504608154e-01 2.192603051662445068e-01 -1.866623759269714355e-01 5.592225492000579834e-02 -3.127193152904510498e-01 -1.839267760515213013e-01 1.859308965504169464e-02 -1.728391349315643311e-01 -1.251159757375717163e-01 -4.293467700481414795e-01 -8.183416724205017090e-02 -3.195648193359375000e-01 -2.547793388366699219e-01 -3.927663341164588928e-02 -1.535655260086059570e-01 3.164374232292175293e-01 4.825954735279083252e-01 4.203264042735099792e-02 -3.058597743511199951e-01 9.092121571302413940e-02 -3.678992092609405518e-01 1.947296559810638428e-01 1.691599003970623016e-02 -1.630951911211013794e-01 1.504415739327669144e-02 1.198213100433349609e-01 -5.536078810691833496e-01 4.638694226741790771e-02 4.824728518724441528e-02 -2.027213275432586670e-01 -4.011184871196746826e-01 1.974982023239135742e-01 -5.472868084907531738e-01 -1.321799457073211670e-01 2.845869064331054688e-01 -1.377061754465103149e-01 1.858140528202056885e-01 -1.956903040409088135e-01 -1.053514257073402405e-01 -1.447826325893402100e-01 2.324259877204895020e-01 -3.266757428646087646e-01 -3.069741427898406982e-01 1.506718248128890991e-01 -5.552999973297119141e-01 -3.294017016887664795e-01 -4.838457331061363220e-02 -2.403547912836074829e-01 6.833622604608535767e-02 2.638977468013763428e-01 -3.521714806556701660e-01
-3.078291118144989014e-01 3.174910545349121094e-01 -2.695397138595581055e-01 -3.123122155666351318e-01 -4.194691479206085205e-01 -9.110213816165924072e-02 2.497055530548095703e-01 1.660178452730178833e-01 -3.873358666896820068e-02 2.200582921504974365e-01 1.387317385524511337e-02 -3.441315516829490662e-02 8.689525723457336426e-02 3.374197781085968018e-01 -3.817356526851654053e-01 -1.440228223800659180e-01 7.352374494075775146e-02 9.004109352827072144e-02 -9.597518481314182281e-03 -1.054232344031333923e-01 -1.325758248567581177e-01 1.380214816890656948e-03 2.562029063701629639e-01 5.299913138151168823e-02 -2.910034060478210449e-01 3.928227722644805908e-02 -3.827999904751777649e-02 -1.621821820735931396e-01 -6.340850144624710083e-02 -1.055271625518798828e-01 2.103777080774307251e-01 -2.584528028964996338e-01 -2.881940603256225586e-01 -2.407303303480148315e-01 1.954204887151718140e-01 5.330395698547363281e-02 -3.200624585151672363e-01 8.510223031044006348e-02 3.320007324218750000e-01 -1.527889352291822433e-02 -3.258659690618515015e-02 -3.627395033836364746e-01 1.853902190923690796e-01 2.205163687467575073e-01 4.954627454280853271e-01 -1.369546651840209961e-01 5.124692320823669434e-01 -1.072147414088249207e-01 -3.941950201988220215e-01 5.507127642631530762e-01 4.428031146526336670e-01 1.909556686878204346e-01 1.438886970281600952e-01 -1.433411687612533569e-01 1.950922422111034393e-02 1.559305638074874878e-01 2.593307383358478546e-02 -2.771486341953277588e-01 2.512108385562896729e-01 -3.396531641483306885e-01 3.420206904411315918e-02 3.322155475616455078e-01 -1.931307911872863770e-01 9.976387023925781250e-02 -4.079770296812057495e-02 -1.545101553201675415e-01 -1.588594764471054077e-01 1.475686579942703247e-01 -2.050436884164810181e-01 -3.167880475521087646e-01
-9.877542406320571899e-02 -3.154325187206268311e-01 -2.419388620182871819e-03 -6.865330785512924194e-02 6.859606504440307617e-02 2.083701938390731812e-01 -6.041570380330085754e-02 -3.577445745468139648e-01 3.095584809780120850e-01 3.780721500515937805e-02 6.236534565687179565e-02 1.090009808540344238e-01 -1.544919610023498535e-02 -3.094737529754638672e-01 1.769927740097045898e-01 2.194911539554595947e-01 -3.348197937011718750e-01 3.247395157814025879e-01 2.536615133285522461e-01 5.882603302597999573e-02 1.536278128623962402e-01 1.493595391511917114e-01 3.234805762767791748e-01 -1.811333745718002319e-01 1.399876624345779419e-01 -5.497822165489196777e-01 5.489262342453002930e-01 -1.115713268518447876e-02 -7.008201479911804199e-01 -3.427761197090148926e-01 1.369297653436660767e-01 1.100236326456069946e-01 -1.201039645820856094e-02 -4.420022293925285339e-02 -5.349792167544364929e-02 7.237028479576110840e-01 5.013346672058105469e-01 -1.119113489985466003e-01 3.368811011314392090e-01 -5.285232663154602051e-01 1.662292480468750000e-01 2.557436227798461914e-01 1.872223243117332458e-02 1.484151333570480347e-01 -6.576469540596008301e-02 -1.735274195671081543e-01 -1.422987431287765503e-01 2.217629253864288330e-01 -1.538638174533843994e-01 1.985198706388473511e-01 1.743733882904052734e-01 1.961991935968399048e-01 -8.975406736135482788e-02 5.566293373703956604e-02 2.495370358228683472e-01 -4.782641679048538208e-02 1.123040691018104553e-01 6.332808732986450195e-02 -3.975760042667388916e-01 4.922095239162445068e-01 -4.255170524120330811e-01 -3.525816500186920166e-01 -3.395986258983612061e-01 7.583463937044143677e-02 3.403894901275634766e-01 -2.390044927597045898e-02 2.102052569389343262e-01 3.712198883295059204e-02 2.004257142543792725e-01 2.371813803911209106e-01
3.795548081398010254e-01 2.053248323500156403e-02 2.359323799610137939e-01 9.730242192745208740e-02 3.258318305015563965e-01 -3.710549771785736084e-01 3.211298957467079163e-02 -3.748435974121093750e-01 -2.265532314777374268e-01 3.241346776485443115e-01 2.929993867874145508e-01 -3.824678361415863037e-01 -2.925695478916168213e-01 -4.509232640266418457e-01 2.317773411050438881e-03 3.475616574287414551e-01 2.306418716907501221e-01 -1.665610074996948242e-01 -2.744040191173553467e-01 -3.065137267112731934e-01 -4.639982432126998901e-02 4.499295726418495178e-02 -2.918618917465209961e-02 3.610833734273910522e-02 3.074732422828674316e-02 -3.511418700218200684e-01 -3.791196942329406738e-01 -2.037984430789947510e-01 3.806167244911193848e-01 -5.999896093271672726e-04 -1.208120211958885193e-01 8.986337184906005859e-01 -9.454233199357986450e-02 4.950901269912719727e-01 1.330985222011804581e-02 9.868262708187103271e-02 2.650200426578521729e-01 8.115270733833312988e-02 -2.109240740537643433e-01 -5.670939758419990540e-02 -4.716433584690093994e-01 -3.790143132209777832e-02 1.565634608268737793e-01 4.017081856727600098e-02 -9.600125253200531006e-02 3.421667590737342834e-02 -4.473563432693481445e-01 -8.471072465181350708e-02 -1.366917341947555542e-01 7.329100370407104492e-02 -3.306357264518737793e-01 -5.454993247985839844e-01 -1.132070869207382202e-01 -1.285155490040779114e-02 -4.752079844474792480e-01 4.591086506843566895e-01 4.382732212543487549e-01 3.058111667633056641e-01 -2.749240994453430176e-01 -9.105521440505981445e-02 -2.547497451305389404e-01 2.762725651264190674e-01 -2.172316610813140869e-02 -2.042024135589599609e-01 1.092197418212890625e+00 5.231458321213722229e-02 4.014433324337005615e-01 3.501815348863601685e-02 1.151026785373687744e-01 2.488554865121841431e-01
-1.333094835281372070e-01 2.373917251825332642e-01 -2.402237653732299805e-01 3.475376963615417480e-02 1.992712616920471191e-01 -2.786735594272613525e-01 2.946203351020812988e-01 -1.312071382999420166e-01 2.806892059743404388e-02 2.441127747297286987e-01 5.785321816802024841e-02 -3.977860510349273682e-01 -5.103921145200729370e-02 2.198766767978668213e-01 -2.387254089117050171e-01 3.238073289394378662e-01 -7.517946511507034302e-02 5.765708908438682556e-02 4.941841959953308105e-02 3.940835893154144287e-01 -2.585033141076564789e-02 -9.378905594348907471e-02 -4.071611166000366211e-01 1.596541702747344971e-02 2.490729987621307373e-01 7.712460309267044067e-02 -2.777778804302215576e-01 -4.244403839111328125e-01 -2.246849685907363892e-01 -2.087278664112091064e-01 2.748860418796539307e-01 -2.227398157119750977e-01 -1.537008434534072876e-01 1.632914990186691284e-01 1.748845577239990234e-01 -3.563164770603179932e-01 3.697204589843750000e-01 3.270057737827301025e-01 -1.764811575412750244e-02 -2.751237154006958008e-01 2.697650194168090820e-01 -1.426729410886764526e-01 1.612487435340881348e-01 4.066216349601745605e-01 -2.661938965320587158e-01 -3.350006043910980225e-02 2.979207932949066162e-01 -9.963856637477874756e-02 2.577277123928070068e-01 3.630057275295257568e-01 -6.606006529182195663e-03 -2.435156330466270447e-02 1.930568665266036987e-01 -2.968310713768005371e-01 -2.991196326911449432e-02 -1.610354185104370117e-01 1.753540635108947754e-01 -2.301107197999954224e-01 -5.386949051171541214e-03 -7.477299869060516357e-02 -5.016664266586303711e-01 4.158428609371185303e-01 -1.133686229586601257e-01 2.062049806118011475e-01 4.963488131761550903e-02 -5.888038873672485352e-01 9.517288953065872192e-02 2.634701132774353027e-01 3.242132365703582764e-01 -3.545519709587097168e-02
-9.805769473314285278e-02 -4.338444173336029053e-01 3.610771596431732178e-01 -1.819196045398712158e-01 1.750004440546035767e-01 1.304432004690170288e-01 -7.926291227340698242e-02 -3.027204610407352448e-02 -3.656305372714996338e-01 1.163075417280197144e-01 3.756668418645858765e-02 2.001213133335113525e-01 9.851539134979248047e-02 -1.524403542280197144e-01 -3.518536686897277832e-01 -1.604435034096240997e-02 1.593305915594100952e-01 -4.712320119142532349e-02 -1.453175097703933716e-01 -1.308093965053558350e-01 -7.946995645761489868e-02 7.591155916452407837e-02 -4.562279582023620605e-02 -7.906790971755981445e-01 -3.455958664417266846e-01 3.093062043190002441e-01 2.830505669116973877e-01 -7.644948363304138184e-01 -2.356003075838088989e-01 3.474106490612030029e-01 -2.286677993834018707e-02 2.494625598192214966e-01 1.685200929641723633e-01 2.279862016439437866e-01 -6.956949084997177124e-02 -4.796596765518188477e-01 3.792750462889671326e-02 3.134840428829193115e-01 -1.416058987379074097e-01 2.589019238948822021e-01 -1.893317699432373047e-01 -3.106162250041961670e-01 -5.052818730473518372e-02 -3.616895899176597595e-02 -9.496024996042251587e-02 5.028088111430406570e-03 -4.088813439011573792e-02 -4.640958309173583984e-01 1.687387824058532715e-01 2.379660755395889282e-01 2.381449043750762939e-01 -1.795126795768737793e-01 -1.597254574298858643e-01 -1.276634037494659424e-01 -1.095824018120765686e-01 -1.032058596611022949e-01 -2.411612570285797119e-01 -1.770838648080825806e-01 2.696863710880279541e-01 -1.498776227235794067e-01 -5.341452360153198242e-01 -1.851231306791305542e-01 3.110973238945007324e-01 -4.896666407585144043e-01 -4.580930620431900024e-02 -7.782628387212753296e-02 -1.113143377006053925e-02 -1.951040923595428467e-01 -2.708861529827117920e-01 -4.836802780628204346e-01
-2.320996820926666260e-01 1.448955982923507690e-01 6.472869962453842163e-02 3.940101712942123413e-02 2.929670810699462891e-01 -2.198009043931961060e-01 -7.590492721647024155e-03 5.872920900583267212e-02 2.754332423210144043e-01 9.294318407773971558e-02 -4.165804982185363770e-01 -4.790075123310089111e-01 -1.896888613700866699e-01 1.405040025711059570e-01 2.919352650642395020e-01 2.888063788414001465e-01 1.510428488254547119e-01 -6.460393965244293213e-02 -1.056169793009757996e-01 7.350257039070129395e-01 -7.329261302947998047e-02 1.844633072614669800e-01 3.086422011256217957e-02 -2.019007056951522827e-01 1.959083229303359985e-01 3.952421247959136963e-01 3.717063069343566895e-01 -1.541176736354827881e-01 -3.444043993949890137e-01 -1.455466598272323608e-01 1.246977597475051880e-01 -2.315298616886138916e-01 8.763310313224792480e-02 -1.809237599372863770e-01 -2.837089300155639648e-01 -1.619240343570709229e-01 2.569725811481475830e-01 8.274039626121520996e-02 5.354964733123779297e-02 -5.063959583640098572e-02 3.105512261390686035e-01 1.940332911908626556e-02 1.021540760993957520e-01 8.274020999670028687e-02 -1.627931594848632812e-01 2.333697304129600525e-02 9.590074419975280762e-02 -2.408834099769592285e-01 2.947021722793579102e-01 -4.166989028453826904e-01 4.982554912567138672e-01 -8.847224712371826172e-02 4.685468673706054688e-01 1.173701360821723938e-01 -6.907678395509719849e-02 1.903081089258193970e-01 -2.018829882144927979e-01 3.832547068595886230e-01 2.061082571744918823e-01 5.285318493843078613e-01 5.204169079661369324e-02 -3.575175702571868896e-01 -1.346057206392288208e-01 3.713567554950714111e-01 3.079822659492492676e-01 -1.611200422048568726e-01 2.532634735107421875e-01 1.729480922222137451e-01 -1.283911895006895065e-02 2.027507424354553223e-01
-9.624873101711273193e-02 -3.134695887565612793e-01 1.555521339178085327e-01 8.175110071897506714e-02 6.184487789869308472e-02 -3.079576492309570312e-01 5.738780833780765533e-03 -2.089401334524154663e-01 -2.446892671287059784e-02 -1.341676060110330582e-02 2.770503461360931396e-01 -3.136803805828094482e-01 5.607724189758300781e-02 -1.504162698984146118e-01 -1.698278933763504028e-01 -1.085604447871446609e-02 5.809633806347846985e-02 -3.756748437881469727e-01 3.757226467132568359e-02 4.314740300178527832e-01 -7.008796185255050659e-02 1.271403133869171143e-01 2.049207501113414764e-02 -6.348096132278442383e-01 7.601526379585266113e-02 2.141034156084060669e-01 1.657069474458694458e-01 1.085295081138610840e-01 -1.955346465110778809e-01 -2.620113641023635864e-02 1.915302872657775879e-01 4.056330025196075439e-01 -3.836275637149810791e-01 -3.914656043052673340e-01 -1.078743636608123779e-01 -1.293489485979080200e-01 6.341701149940490723e-01 1.113816201686859131e-01 -4.864527881145477295e-01 1.136888340115547180e-01 -1.994058489799499512e-01 -1.675596386194229126e-01 5.973844602704048157e-02 -4.301756620407104492e-02 -5.577481985092163086e-01 3.443050384521484375e-02 -2.203325182199478149e-01 -1.008707508444786072e-01 5.175737738609313965e-01 1.101859733462333679e-01 -2.376288026571273804e-01 -1.947498023509979248e-01 3.406604230403900146e-01 -5.794586986303329468e-02 3.445898294448852539e-01 -1.442075967788696289e-01 -8.181454539299011230e-01 9.007069468498229980e-02 -3.460304141044616699e-01 -1.823321580886840820e-01 -1.152971535921096802e-01 -3.246170654892921448e-02 -1.087922304868698120e-01 2.390985786914825439e-01 3.646892728284001350e-03 -5.021703243255615234e-01 -4.745910167694091797e-01 -8.787900209426879883e-02 -4.292100667953491211e-01 2.724507153034210205e-01
5.503931045532226562e-01 -1.913267821073532104e-01 -1.299600750207901001e-01 -1.918449252843856812e-01 3.175768852233886719e-01 5.893861055374145508e-01 3.100135624408721924e-01 -1.456072088330984116e-03 2.837721705436706543e-01 -4.296441376209259033e-01 -6.712897121906280518e-02 4.257025420665740967e-01 3.022567331790924072e-01 1.832504272460937500e-01 1.252778712660074234e-02 -3.738678395748138428e-01 -6.238997578620910645e-01 -1.701990216970443726e-01 -7.410059869289398193e-02 -2.976476848125457764e-01 1.765881627798080444e-01 3.142377436161041260e-01 -2.782152034342288971e-02 7.703341245651245117e-01 1.068815588951110840e-01 6.943203508853912354e-03 8.602435588836669922e-01 1.159949228167533875e-01 -2.011442184448242188e-01 -7.057815790176391602e-02 6.646526604890823364e-02 1.696449667215347290e-01 -1.827434450387954712e-01 2.337312549352645874e-01 3.908639252185821533e-01 -9.161509573459625244e-02 -2.816147804260253906e-01 3.617649376392364502e-01 7.397913336753845215e-01 -1.469274461269378662e-01 3.402982354164123535e-01 4.033349826931953430e-02 -1.742572337388992310e-01 3.488091230392456055e-01 5.250763297080993652e-01 -5.975738167762756348e-03 3.623124063014984131e-01 5.958314985036849976e-03 4.777750000357627869e-02 5.435300990939140320e-02 1.210967674851417542e-01 4.161738753318786621e-01 -8.547790348529815674e-02 -1.804245114326477051e-01 1.031471341848373413e-01 1.049246340990066528e-01 5.136494040489196777e-01 -1.850363910198211670e-01 -7.136479020118713379e-02 4.627218842506408691e-01 -6.743087619543075562e-02 -1.730183362960815430e-01 1.701377332210540771e-01 -1.871020942926406860e-01 2.081383466720581055e-01 -1.190851777791976929e-01 7.740304619073867798e-02 8.786596357822418213e-02 5.547883361577987671e-02 -4.397794604301452637e-01
1.495633572340011597e-01 7.552816718816757202e-02 -7.016980648040771484e-02 1.323564499616622925e-01 2.416391819715499878e-01 -4.763624966144561768e-01 3.082512319087982178e-01 2.526388466358184814e-01 -3.988686203956604004e-01 1.369805186986923218e-01 -2.610121108591556549e-02 -1.904231458902359009e-01 -1.208603009581565857e-02 1.497578918933868408e-01 -5.632875487208366394e-02 2.366258949041366577e-01 -3.529321551322937012e-01 -3.260001540184020996e-01 -4.601358473300933838e-01 1.157829463481903076e-01 1.612917035818099976e-01 1.646163016557693481e-01 1.981195956468582153e-01 3.256075084209442139e-01 1.937956959009170532e-01 -4.564870297908782959e-01 1.122337356209754944e-01 -8.871703594923019409e-02 -7.087540626525878906e-02 -5.457520484924316406e-03 4.215173125267028809e-01 3.059514462947845459e-01 4.408338367938995361e-01 2.212482988834381104e-01 5.912092328071594238e-01 4.809574782848358154e-01 -1.601739525794982910e-01 -1.936707794666290283e-01 -5.648790001869201660e-01 -7.761882990598678589e-02 5.012654140591621399e-02 -1.040195822715759277e-01 1.984564065933227539e-01 1.986951231956481934e-01 -2.831107974052429199e-01 -3.199260830879211426e-01 1.800908446311950684e-01 -1.290137618780136108e-01 1.095718741416931152e-01 -3.076483905315399170e-01 -3.041394054889678955e-02 -1.914593577384948730e-01 9.738335758447647095e-02 6.663979031145572662e-03 1.713011115789413452e-01 -1.501570045948028564e-01 3.129428327083587646e-01 1.890722662210464478e-01 9.341172873973846436e-02 -1.613172143697738647e-01 4.326511174440383911e-03 -2.905418276786804199e-01 1.229211241006851196e-01 2.121095806360244751e-01 -2.206623852252960205e-01 7.777597308158874512e-01 8.404540270566940308e-02 6.121215820312500000e-01 3.394778370857238770e-01 2.434397190809249878e-01
-6.398760527372360229e-02 4.172389209270477295e-01 -2.471542060375213623e-01 -2.517388463020324707e-01 2.355810254812240601e-01 -5.481173396110534668e-01 5.438513755798339844e-01 9.898906946182250977e-02 4.583837091922760010e-02 -2.379911690950393677e-01 1.820411235094070435e-01 -2.477590888738632202e-01 -8.424107730388641357e-02 3.688966333866119385e-01 1.224233135581016541e-01 -5.555555224418640137e-01 7.210121750831604004e-01 -4.035779088735580444e-02 -2.439128011465072632e-01 2.816027402877807617e-01 1.504255086183547974e-01 2.322066724300384521e-01 6.237289309501647949e-02 1.278333812952041626e-01 -3.554715216159820557e-01 3.284915089607238770e-01 -8.583506941795349121e-01 6.327673792839050293e-02 3.986379802227020264e-01 3.063005208969116211e-02 -2.147484719753265381e-01 1.397668719291687012e-01 2.850424498319625854e-02 -1.125782653689384460e-01 3.384042680263519287e-01 -5.588124319911003113e-02 3.010948300361633301e-01 2.046287953853607178e-01 -1.664872616529464722e-01 1.398824602365493774e-01 -9.789023548364639282e-02 -2.192836552858352661e-01 -7.082498073577880859e-02 1.544996052980422974e-01 -2.918252050876617432e-01 3.514719605445861816e-01 1.236899793148040771e-01 -1.437009572982788086e-01 -6.461375206708908081e-02 2.005185186862945557e-01 6.010814905166625977e-01 2.743702530860900879e-01 -1.825815588235855103e-01 -3.911740481853485107e-01 -2.643595337867736816e-01 2.187403738498687744e-01 1.990910172462463379e-01 -4.331421554088592529e-01 4.735440909862518311e-01 -5.737828463315963745e-02 -2.912986874580383301e-01 5.731323361396789551e-01 2.748201191425323486e-01 -1.451111584901809692e-01 5.479730293154716492e-02 -2.066885232925415039e-01 2.412234097719192505e-01 4.097266197204589844e-01 3.353549242019653320e-01 1.014809310436248779e-02
3.610273599624633789e-01 1.628866046667098999e-01 1.358515918254852295e-01 -3.777339756488800049e-01 -4.111829102039337158e-01 4.198040366172790527e-01 -2.183804214000701904e-01 4.161239042878150940e-02 5.733364820480346680e-01 -1.008707433938980103e-01 2.338280379772186279e-01 2.944128513336181641e-01 -1.340194046497344971e-01 -7.778714597225189209e-02 5.859703421592712402e-01 -2.634575664997100830e-01 6.867464631795883179e-02 -2.403173297643661499e-01 3.897013142704963684e-03 1.479007005691528320e-01 -2.695567905902862549e-01 -6.477467715740203857e-02 6.336732506752014160e-01 -6.951355338096618652e-01 1.823940686881542206e-02 -8.460640907287597656e-02 2.989054322242736816e-01 -3.822966516017913818e-01 4.065760076045989990e-01 4.603394120931625366e-02 2.666386067867279053e-01 -2.062072604894638062e-01 -1.012950614094734192e-01 -1.248754113912582397e-01 3.013884425163269043e-01 3.952045738697052002e-01 2.748832404613494873e-01 -7.685520499944686890e-02 -5.130767822265625000e-02 4.730892926454544067e-02 -1.990738213062286377e-01 7.248300909996032715e-01 -2.636935412883758545e-01 -1.887829303741455078e-01 1.376800704747438431e-02 1.546392738819122314e-01 -2.325884252786636353e-01 5.402746796607971191e-01 -1.352988779544830322e-01 1.353044658899307251e-01 -2.719801366329193115e-01 3.481305241584777832e-01 -1.986848264932632446e-01 -1.767507493495941162e-01 1.626268774271011353e-01 -5.718880146741867065e-02 -4.621535539627075195e-01 6.305702775716781616e-02 -2.766779661178588867e-01 -5.808513984084129333e-02 -1.557126790285110474e-01 3.129133284091949463e-01 -4.850983619689941406e-01 -5.466657131910324097e-02 -3.721893429756164551e-01 1.828526407480239868e-01 1.922967433929443359e-01 1.057951673865318298e-01 2.987947463989257812e-01 5.167066454887390137e-01
1.438467204570770264e-01 3.486219644546508789e-01 1.624652296304702759e-01 -3.053034543991088867e-01 -1.748861074447631836e-01 1.366117447614669800e-01 -4.080987274646759033e-01 -7.450426369905471802e-02 -1.530449539422988892e-01 5.124804377555847168e-01 -2.021490782499313354e-01 1.473749577999114990e-01 -1.170071735978126526e-01 -3.622216880321502686e-01 3.281799554824829102e-01 4.605316221714019775e-01 -9.591104090213775635e-02 -1.199969500303268433e-01 -1.445844173431396484e-01 2.224511057138442993e-01 2.023486234247684479e-02 -9.960249811410903931e-02 -1.718762814998626709e-01 8.575163036584854126e-02 -6.759519129991531372e-02 -1.283787190914154053e-01 -5.858275294303894043e-02 -6.215739846229553223e-01 4.001739919185638428e-01 4.721288681030273438e-01 1.010203137993812561e-01 1.787620931863784790e-01 -1.666624993085861206e-01 1.186956241726875305e-01 3.047313988208770752e-01 -2.796807289123535156e-01 -1.925893314182758331e-02 -3.658230304718017578e-01 -8.061049133539199829e-02 -4.899418950080871582e-01 1.302677839994430542e-01 -9.677874296903610229e-02 2.899552583694458008e-01 -4.024868905544281006e-01 -8.172163367271423340e-02 -3.803385198116302490e-01 -1.366938203573226929e-01 2.805455923080444336e-01 4.734329283237457275e-01 -3.918399512767791748e-01 1.822196505963802338e-02 -5.919407680630683899e-02 -1.771824657917022705e-01 1.480712890625000000e-01 4.348061978816986084e-02 4.581128247082233429e-03 4.110400676727294922e-01 -7.803109288215637207e-02 1.905415058135986328e-01 -2.227328568696975708e-01 -4.098268151283264160e-01 8.415301889181137085e-02 8.383275866508483887e-01 2.864748537540435791e-01 -7.095214724540710449e-02 1.788607835769653320e-01 -3.982207775115966797e-01 4.776363670825958252e-01 -2.057164758443832397e-01 -4.887926205992698669e-02
3.168157041072845459e-01 -3.158383369445800781e-01 2.951632142066955566e-01 -5.141539499163627625e-02 2.450274527072906494e-01 4.390466958284378052e-02 2.614816650748252869e-02 1.714077591896057129e-01 -3.830339014530181885e-01 8.887044340372085571e-02 2.290077656507492065e-01 7.671478390693664551e-02 -1.905640214681625366e-01 3.828319609165191650e-01 -2.319319248199462891e-01 9.476450085639953613e-02 -3.911833763122558594e-01 3.695677593350410461e-02 -3.032541871070861816e-01 4.222447574138641357e-01 3.773573040962219238e-01 -1.303820759057998657e-01 3.118484318256378174e-01 -2.216071486473083496e-01 -1.690918058156967163e-01 -2.065313160419464111e-01 1.398407071828842163e-01 -5.156570300459861755e-02 -3.548974096775054932e-01 -5.140555649995803833e-02 -3.202776715625077486e-04 3.234154582023620605e-01 4.042010307312011719e-01 -2.235728800296783447e-01 4.514615982770919800e-02 -1.937107741832733154e-01 4.302372634410858154e-01 2.552842795848846436e-01 -6.888864189386367798e-02 -2.718139253556728363e-02 3.124534785747528076e-01 -3.455145061016082764e-01 3.550828667357563972e-03 -1.869876086711883545e-01 9.931986778974533081e-02 -2.534154653549194336e-01 4.084911644458770752e-01 -4.945652782917022705e-01 -1.933047026395797729e-01 -2.220624685287475586e-01 1.896569579839706421e-01 -1.840233653783798218e-01 7.947638034820556641e-01 1.472954899072647095e-01 -7.824495434761047363e-02 1.432631760835647583e-01 2.179697155952453613e-01 -2.938570082187652588e-01 -7.532504945993423462e-02 -6.769961118698120117e-02 9.800669737160205841e-03 -9.399873018264770508e-02 -3.432666361331939697e-01 4.464405179023742676e-01 -7.456670701503753662e-02 3.354949951171875000e-01 -5.339442491531372070e-01 1.220888122916221619e-01 -2.293686419725418091e-01 -9.812134085223078728e-04
-2.024213783442974091e-03 -1.936430484056472778e-01 -4.785544052720069885e-02 -1.277595013380050659e-01 -2.341140992939472198e-03 -7.856619358062744141e-02 1.421172618865966797e-01 -2.409544214606285095e-02 -2.016794979572296143e-01 1.185650527477264404e-01 9.211990982294082642e-02 -1.134831905364990234e-01 -4.403636604547500610e-02 1.521909534931182861e-01 -6.979779154062271118e-02 -1.120550408959388733e-01 -1.307688802480697632e-01 1.473953016102313995e-02 -3.908878937363624573e-02 4.868889972567558289e-02 2.927549481391906738e-01 4.687458276748657227e-01 -1.569841057062149048e-02 -2.338292300701141357e-01 1.730168312788009644e-01 2.830627933144569397e-02 7.040408998727798462e-02 8.592361956834793091e-02 -1.878743618726730347e-01 -1.303501334041357040e-02 1.976790726184844971e-01 4.101752638816833496e-01 -2.040312737226486206e-01 4.113828763365745544e-02 4.441057741641998291e-01 8.233760595321655273e-01 -3.541209101676940918e-01 2.184299975633621216e-01 -2.945805191993713379e-01 -9.147235006093978882e-02 3.382602632045745850e-01 -5.248454213142395020e-01 4.130828976631164551e-01 3.990871906280517578e-01 -3.826007843017578125e-01 -4.911912083625793457e-01 4.422693550586700439e-01 -3.355937600135803223e-01 2.117286175489425659e-01 2.345058321952819824e-01 -7.464303821325302124e-02 1.784802414476871490e-02 3.764723241329193115e-01 6.377360820770263672e-01 1.405023336410522461e-01 -9.867281466722488403e-02 -2.793179750442504883e-01 -1.537104249000549316e-01 -2.504977583885192871e-01 1.345277726650238037e-01 8.093062043190002441e-02 8.214995265007019043e-02 -7.741616666316986084e-02 -2.540408074855804443e-01 -4.703836143016815186e-02 -3.836294114589691162e-01 -3.624219298362731934e-01 5.812291800975799561e-02 4.672679305076599121e-01 -3.572897911071777344e-01
1.343926042318344116e-01 1.367908418178558350e-01 1.757899224758148193e-01 -1.182529702782630920e-01 1.485099196434020996e-01 -3.510257005691528320e-01 -2.890037000179290771e-01 -1.510556489229202271e-01 2.558864653110504150e-01 1.998300254344940186e-01 -1.989280991256237030e-02 -3.149214982986450195e-01 -1.723940670490264893e-01 -3.609250783920288086e-01 2.209615856409072876e-01 1.508106440305709839e-01 -2.284709513187408447e-01 -1.025735735893249512e-01 4.064143896102905273e-01 3.162793219089508057e-01 -2.913185358047485352e-01 3.294688090682029724e-02 -3.191139400005340576e-01 -1.678960472345352173e-01 4.715488292276859283e-03 3.712868392467498779e-01 -3.445872366428375244e-01 2.555846273899078369e-01 1.877616494894027710e-01 -1.449423134326934814e-01 5.612256526947021484e-01 -1.643241792917251587e-01 -2.283641099929809570e-01 1.765233348123729229e-03 -3.634695708751678467e-01 -1.000231429934501648e-01 -1.995745450258255005e-01 -2.643931806087493896e-01 -1.434394270181655884e-01 -9.919972419738769531e-01 -1.835341565310955048e-02 -2.565623261034488678e-02 -6.263639032840728760e-02 6.997250020503997803e-02 -2.883470356464385986e-01 -7.509382963180541992e-01 -1.424374133348464966e-01 2.364130169153213501e-01 3.614619374275207520e-01 -4.600629210472106934e-01 4.413819313049316406e-01 3.196739256381988525e-01 1.563892662525177002e-01 1.774582862854003906e-01 2.182505875825881958e-01 -2.682321667671203613e-01 -4.859599769115447998e-01 -1.272446960210800171e-01 3.053679168224334717e-01 -3.075317740440368652e-01 1.286823153495788574e-01 6.964449584484100342e-02 -3.928208053112030029e-01 3.841109573841094971e-01 -6.277400851249694824e-01 -3.133920729160308838e-01 3.492633998394012451e-01 -2.403135895729064941e-01 1.960949599742889404e-01 4.514772817492485046e-02
5.110299587249755859e-01 -4.577756226062774658e-01 1.931725442409515381e-01 5.290690064430236816e-02 -2.525515854358673096e-01 2.796623110771179199e-01 -4.098177552223205566e-01 1.045874059200286865e-01 -1.195911988615989685e-01 1.970302164554595947e-01 8.794580399990081787e-02 4.612049162387847900e-01 1.866802573204040527e-02 1.791859865188598633e-01 -1.512018740177154541e-01 -2.187149971723556519e-02 5.663534253835678101e-02 -1.897655576467514038e-01 4.684462249279022217e-01 -1.164183169603347778e-01 -2.802521884441375732e-01 -4.173709079623222351e-02 -6.261333078145980835e-02 2.172406762838363647e-01 -2.004759162664413452e-01 -3.900665640830993652e-01 -3.471431136131286621e-01 -4.834598600864410400e-01 5.104281902313232422e-01 3.357837200164794922e-01 -3.592120409011840820e-01 1.227992922067642212e-01 -3.005438745021820068e-01 7.003054022789001465e-03 4.036401808261871338e-01 1.834361627697944641e-02 2.069661617279052734e-01 2.668227851390838623e-01 4.908429682254791260e-01 -5.575023293495178223e-01 3.899041116237640381e-01 -1.071243658661842346e-01 -2.540490031242370605e-01 2.039632201194763184e-02 3.066885769367218018e-01 -3.494110703468322754e-01 1.764253824949264526e-01 8.760641328990459442e-03 -1.212444603443145752e-01 2.142566628754138947e-02 -1.443837136030197144e-01 5.645211338996887207e-01 -3.163236677646636963e-01 -2.336627691984176636e-01 -1.990064978599548340e-01 -2.110226154327392578e-01 1.618366539478302002e-01 1.380245685577392578e-01 -7.962849736213684082e-02 -3.834713101387023926e-01 -1.490739434957504272e-01 6.330513954162597656e-02 5.673733353614807129e-02 -2.253294140100479126e-01 1.734361201524734497e-01 -2.732269465923309326e-01 -2.158069983124732971e-02 1.975253969430923462e-01 -1.638183444738388062e-01 -3.658379912376403809e-01
1.461708545684814453e-01 8.044864982366561890e-03 5.928959250450134277e-01 7.224848866462707520e-02 -2.664823234081268311e-01 -1.831459999084472656e-01 -2.591081559658050537e-01 -3.166662156581878662e-01 -2.836173474788665771e-01 -9.835648536682128906e-02 -1.062473356723785400e-01 1.630127280950546265e-01 6.039780005812644958e-02 -4.893333017826080322e-01 -2.585451863706111908e-02 2.104404568672180176e-02 1.204866319894790649e-01 -2.784498929977416992e-01 -5.541169047355651855e-01 -4.025468602776527405e-02 2.399732172489166260e-02 5.222394466400146484e-01 -9.630093723535537720e-02 3.823415338993072510e-01 -5.728744864463806152e-01 -1.313384026288986206e-01 -1.993675976991653442e-01 -4.064782261848449707e-01 1.975210160017013550e-01 -1.326441019773483276e-01 -1.268170922994613647e-01 1.923977136611938477e-01 4.587425291538238525e-02 -1.740814745426177979e-01 1.181266680359840393e-01 -1.561101078987121582e-01 -1.669389605522155762e-01 -4.396531283855438232e-01 -4.573426246643066406e-01 -8.895844221115112305e-02 -1.703412830829620361e-01 -1.082007810473442078e-01 -1.115360856056213379e-02 -1.668981015682220459e-01 -5.103464126586914062e-01 -3.578539192676544189e-01 -2.522789537906646729e-01 -1.402092874050140381e-01 6.462632119655609131e-02 1.752661317586898804e-01 -1.514717191457748413e-01 2.053682059049606323e-01 -2.186827361583709717e-01 -1.577111929655075073e-01 7.156280279159545898e-01 -1.849747002124786377e-01 2.751240730285644531e-01 -2.994949519634246826e-01 -2.968427166342735291e-02 -2.549573481082916260e-01 6.612662225961685181e-02 -1.268792450428009033e-01 -2.444616556167602539e-01 -3.423358201980590820e-01 6.709976196289062500e-01 3.795379996299743652e-01 -2.227038443088531494e-01 4.228550791740417480e-01 -3.570474982261657715e-01 -8.142118155956268311e-02
2.149652093648910522e-01 -2.096078991889953613e-01 6.257857084274291992e-01 -3.879568576812744141e-01 1.357865482568740845e-01 1.839962750673294067e-01 -5.560506582260131836e-01 1.644156128168106079e-01 -2.661450207233428955e-01 -1.393800601363182068e-02 -1.122195944190025330e-01 1.242675334215164185e-01 -5.336222704499959946e-03 3.785786777734756470e-02 -2.329303175210952759e-01 -5.724205449223518372e-02 -7.671958953142166138e-02 6.608461495488882065e-03 -3.606774508953094482e-01 -3.496100381016731262e-02 3.701815307140350342e-01 5.720976740121841431e-02 2.127297222614288330e-01 -1.613647788763046265e-01 -9.198152273893356323e-02 4.083667397499084473e-01 4.914856851100921631e-01 -1.148540452122688293e-01 2.379422783851623535e-01 -2.471763268113136292e-02 1.202806308865547180e-01 4.242177307605743408e-01 4.368764162063598633e-02 1.499661207199096680e-01 -3.524143397808074951e-01 -3.595102727413177490e-01 1.564470529556274414e-01 6.703186780214309692e-02 -2.457482516765594482e-01 -1.219552010297775269e-01 -2.047425322234630585e-02 -1.248259842395782471e-01 3.588553071022033691e-01 1.174172833561897278e-01 -3.058460950851440430e-01 -1.799369752407073975e-01 6.709884852170944214e-02 2.677204646170139313e-02 -1.446503214538097382e-03 -1.454028300940990448e-02 -8.383049815893173218e-02 -1.197309605777263641e-02 -3.484015762805938721e-01 6.216773763298988342e-02 -8.407109230756759644e-02 3.764589726924896240e-01 -7.360932230949401855e-02 4.266126453876495361e-01 3.739111721515655518e-01 -5.966638773679733276e-02 -5.193595290184020996e-01 -2.190002426505088806e-02 5.301778391003608704e-02 2.203103303909301758e-01 -1.242083460092544556e-01 2.419455051422119141e-01 9.813159704208374023e-02 -3.350988030433654785e-01 -4.711901545524597168e-01 1.878704428672790527e-01
2.953798770904541016e-01 4.917578399181365967e-01 -5.660864710807800293e-02 -2.309099733829498291e-01 -4.641578719019889832e-02 -3.708803653717041016e-01 7.692409753799438477e-01 -1.748072504997253418e-01 -1.063427254557609558e-01 -4.239201545715332031e-01 -2.512694895267486572e-01 -2.008714973926544189e-01 4.874043166637420654e-01 1.085103005170822144e-01 -1.130203828215599060e-01 -4.861704409122467041e-01 3.772549331188201904e-02 3.878341019153594971e-01 1.593782454729080200e-01 -1.432800143957138062e-01 7.298541255295276642e-03 9.980220347642898560e-02 -4.100709557533264160e-01 4.043885767459869385e-01 1.334159076213836670e-01 3.215596973896026611e-01 2.654119431972503662e-01 4.154925942420959473e-01 -4.355617165565490723e-01 7.371859252452850342e-02 -1.038608476519584656e-01 -1.568000465631484985e-01 -4.002818763256072998e-01 1.882818192243576050e-01 -2.171323299407958984e-01 5.153022408485412598e-01 -9.781353920698165894e-02 1.083261519670486450e-01 -7.681803405284881592e-02 5.788807943463325500e-02 1.715469062328338623e-01 -2.101100683212280273e-01 1.568704657256603241e-02 1.838273257017135620e-01 -1.772599965333938599e-01 -1.833850592374801636e-01 1.662581115961074829e-01 -2.353348731994628906e-01 -2.274354360997676849e-02 1.425669789314270020e-01 2.795795798301696777e-01 4.683796167373657227e-01 -2.467171847820281982e-01 4.613082110881805420e-02 -3.932144343852996826e-01 -1.162674427032470703e-01 1.661814153194427490e-01 -5.149415135383605957e-01 1.300852894783020020e-01 1.659899950027465820e-01 3.837053179740905762e-01 2.051901817321777344e-01 4.215386211872100830e-01 -1.559233963489532471e-01 -3.448289930820465088e-01 -4.261743724346160889e-01 1.129213124513626099e-01 -1.292722225189208984e-01 2.324769794940948486e-01 -3.099596798419952393e-01
8.011060357093811035e-01 -2.787156999111175537e-01 1.941528767347335815e-01 -1.764145866036415100e-02 2.139934897422790527e-01 1.297994852066040039e-01 -4.473431706428527832e-01 6.052476763725280762e-01 9.851914644241333008e-02 1.132676959037780762e+00 -1.743338443338871002e-02 -1.388070881366729736e-01 6.903215646743774414e-01 -4.019101709127426147e-02 2.048999518156051636e-01 9.018097519874572754e-01 2.184375226497650146e-01 -4.669437706470489502e-01 -1.926852017641067505e-01 -1.653099358081817627e-01 -1.920351386070251465e-01 -4.315887019038200378e-02 2.582840025424957275e-01 1.156140342354774475e-01 -3.805744647979736328e-01 2.356122732162475586e-01 6.000371575355529785e-01 -8.782418072223663330e-02 -3.009513616561889648e-01 -1.801857352256774902e-01 1.024375408887863159e-01 -2.051353901624679565e-01 5.310956239700317383e-01 -1.672662347555160522e-01 3.415774321183562279e-03 -9.198959916830062866e-02 -6.975782662630081177e-02 3.630566969513893127e-02 -8.624603599309921265e-02 2.216559648513793945e-02 9.341610223054885864e-02 2.585787177085876465e-01 5.552873611450195312e-01 -1.804675906896591187e-01 -1.604537069797515869e-01 2.221556156873703003e-01 7.172294706106185913e-02 1.438601315021514893e-01 2.080487757921218872e-01 2.294308245182037354e-01 -5.660706758499145508e-01 4.929658025503158569e-03 -5.037587136030197144e-02 -8.215979672968387604e-03 9.356309473514556885e-02 2.709026820957660675e-02 3.215855360031127930e-01 -2.704101502895355225e-01 3.106999993324279785e-01 2.674726843833923340e-01 -1.111275479197502136e-01 -1.414221674203872681e-01 9.014909714460372925e-02 1.831566244363784790e-01 -2.083196938037872314e-01 5.789028853178024292e-02 3.195866197347640991e-02 7.297901809215545654e-02 6.403111666440963745e-02 -1.043416336178779602e-01
3.343222290277481079e-02 -2.131131440401077271e-01 3.604420423507690430e-01 1.456350460648536682e-02 2.239971607923507690e-01 6.786242127418518066e-01 -1.165903881192207336e-01 -4.587692022323608398e-01 1.553547829389572144e-01 -2.329297959804534912e-01 3.055904507637023926e-01 4.124739170074462891e-01 -2.188622355461120605e-01 -2.863831222057342529e-01 6.017087772488594055e-02 -3.512716293334960938e-01 -2.451619803905487061e-01 -3.351176977157592773e-01 -1.449943170882761478e-03 2.861689925193786621e-01 1.771458536386489868e-01 1.581842303276062012e-01 -2.977255582809448242e-01 -2.315583378076553345e-01 3.546611964702606201e-02 -2.698149681091308594e-01 -7.093939930200576782e-02 -6.113495230674743652e-01 -3.057389557361602783e-01 8.125298470258712769e-02 -1.502123773097991943e-01 -1.203899234533309937e-01 7.112003862857818604e-03 3.669090270996093750e-01 -9.240023791790008545e-02 -1.307046413421630859e-01 -1.634218692779541016e-01 8.442527800798416138e-02 9.658234119415283203e-01 -6.028657555580139160e-01 3.761675208806991577e-02 8.690931648015975952e-02 -3.116292655467987061e-01 2.074778825044631958e-02 8.402582406997680664e-01 -4.068608582019805908e-01 -7.174390554428100586e-02 2.742363810539245605e-01 4.630277305841445923e-02 -1.323419660329818726e-01 -3.232709169387817383e-01 3.030502200126647949e-01 2.148417830467224121e-01 4.124640226364135742e-01 -2.028988301753997803e-01 -2.439033240079879761e-01 -2.687907814979553223e-01 1.921551525592803955e-01 -1.753439754247665405e-01 -3.783901333808898926e-01 -2.152003496885299683e-01 -1.812581866979598999e-01 4.879266917705535889e-01 -2.718610465526580811e-01 -2.068474888801574707e-01 3.098750710487365723e-01 7.841371931135654449e-03 -3.308950457721948624e-03 9.008600562810897827e-02 -2.766048908233642578e-01
-1.458999067544937134e-01 3.080443739891052246e-01 -1.725636124610900879e-01 5.135222524404525757e-02 4.534165561199188232e-02 -6.724140793085098267e-02 -1.526746600866317749e-01 7.438110709190368652e-01 2.771085798740386963e-01 1.680296212434768677e-01 3.253223598003387451e-01 -3.571971878409385681e-02 2.973317168653011322e-04 6.634041070938110352e-01 1.205461323261260986e-01 -9.509327262639999390e-02 1.230325177311897278e-01 1.197394356131553650e-01 5.358799919486045837e-02 5.252629984170198441e-03 -1.448728051036596298e-02 2.991208732128143311e-01 3.811221718788146973e-01 -4.226588457822799683e-02 -1.393075194209814072e-02 2.021257132291793823e-01 1.137621887028217316e-02 2.117002457380294800e-01 -1.000251695513725281e-01 -9.198582917451858521e-02 2.976203262805938721e-01 7.696353644132614136e-02 2.599665820598602295e-01 -3.412083256989717484e-03 7.744178175926208496e-02 -2.093799710273742676e-01 3.018352389335632324e-01 5.507368445396423340e-01 3.778398931026458740e-01 -2.930893599987030029e-01 6.378617882728576660e-01 7.467461377382278442e-02 -2.695765495300292969e-01 5.533217191696166992e-01 5.420149564743041992e-01 1.487617343664169312e-01 1.973300576210021973e-01 5.009179934859275818e-02 -4.723912477493286133e-02 2.518672943115234375e-01 1.619914919137954712e-01 4.992201179265975952e-02 5.942284464836120605e-01 -2.239766763523221016e-03 3.075982034206390381e-01 1.954931914806365967e-01 1.366243064403533936e-01 1.149934753775596619e-01 -1.485609114170074463e-01 2.454916387796401978e-01 1.525926142930984497e-01 7.033050060272216797e-02 -3.743334487080574036e-02 -5.247155576944351196e-02 1.048474907875061035e-01 3.236897885799407959e-01 1.870436668395996094e-01 -7.091233506798744202e-03 -3.400357961654663086e-01 1.944865882396697998e-01
-3.307000994682312012e-01 2.689173258841037750e-02 -8.266173303127288818e-02 1.833372563123703003e-01 1.746592521667480469e-01 -4.403945431113243103e-02 -3.282978758215904236e-02 1.824692487716674805e-01 2.309798821806907654e-02 1.505131274461746216e-01 2.998104095458984375e-01 -2.304276265203952789e-02 -2.771067917346954346e-01 2.940272390842437744e-01 6.582886725664138794e-02 8.799412101507186890e-02 9.969457983970642090e-02 -3.624906837940216064e-01 -1.612282693386077881e-01 -1.354647129774093628e-01 -2.156055532395839691e-03 1.671236604452133179e-01 -4.695014655590057373e-01 3.143938630819320679e-02 -1.481105387210845947e-01 1.761922538280487061e-01 -2.747009098529815674e-01 -3.228242397308349609e-01 4.045244455337524414e-01 -4.595687687397003174e-01 -2.768470942974090576e-01 9.659723192453384399e-02 1.551051735877990723e-01 3.067512996494770050e-02 -1.941348612308502197e-01 -2.087690830230712891e-01 1.076369583606719971e-01 2.162379212677478790e-02 -2.589130103588104248e-01 -1.170512884855270386e-01 2.784798443317413330e-01 -1.168297827243804932e-01 -2.914211452007293701e-01 -6.841944996267557144e-03 -3.382433950901031494e-01 -1.253324300050735474e-01 7.135505676269531250e-01 -1.396260410547256470e-01 -2.257563918828964233e-01 -9.295424073934555054e-02 1.709778904914855957e-01 7.222444564104080200e-02 -8.598805218935012817e-02 4.935407638549804688e-01 -1.936057768762111664e-02 1.707478165626525879e-01 -3.628716170787811279e-01 -4.619535207748413086e-01 2.803739011287689209e-01 2.935450077056884766e-01 -4.280691146850585938e-01 9.265231341123580933e-02 -9.698086231946945190e-02 -1.561639308929443359e-01 -4.218316972255706787e-01 2.198807708919048309e-02 -1.462686210870742798e-01 -3.200313821434974670e-02 1.116607561707496643e-01 -2.719143629074096680e-01
3.037921488285064697e-01 2.619315981864929199e-01 -7.270015776157379150e-02 6.059475615620613098e-02 -4.912662878632545471e-02 -3.879227936267852783e-01 -1.551714539527893066e-01 7.450422644615173340e-02 1.601320207118988037e-01 -9.166244417428970337e-02 -1.833065003156661987e-01 -4.696927964687347412e-01 -3.905447721481323242e-01 5.212743952870368958e-02 9.127517789602279663e-02 -1.901299059391021729e-01 -3.990479931235313416e-02 1.527901887893676758e-01 -3.822459280490875244e-01 -1.552661806344985962e-01 4.517316818237304688e-01 7.844040393829345703e-01 1.488377004861831665e-01 -1.594821661710739136e-01 -6.037680432200431824e-02 -3.612194657325744629e-01 3.587850034236907959e-01 2.342382445931434631e-02 -5.035373568534851074e-01 3.083899021148681641e-01 5.707183852791786194e-02 2.792267687618732452e-02 -4.573617875576019287e-02 5.752743035554885864e-02 -1.032348498702049255e-01 1.235144883394241333e-01 9.788491576910018921e-02 -3.818701803684234619e-01 1.898796111345291138e-01 -4.416905939579010010e-01 1.569042503833770752e-01 1.608454138040542603e-01 2.636191807687282562e-02 -8.098639547824859619e-02 -6.950031965970993042e-02 -3.862459957599639893e-01 3.419995680451393127e-02 1.169842779636383057e-01 1.322182943113148212e-03 1.054491549730300903e-01 -2.698937058448791504e-01 -5.466257929801940918e-01 -2.006090134382247925e-01 3.390807211399078369e-01 5.011858940124511719e-01 3.134075105190277100e-01 -3.015219867229461670e-01 -7.599002122879028320e-02 -3.232102990150451660e-01 3.747146576642990112e-02 5.224820971488952637e-02 -2.939541637897491455e-01 1.420643776655197144e-01 7.878819853067398071e-02 -5.085365772247314453e-01 1.278707534074783325e-01 -1.447385698556900024e-01 -2.486940473318099976e-01 2.633882164955139160e-01 1.132334843277931213e-01
-2.198382169008255005e-01 -1.674176305532455444e-01 -1.761337555944919586e-02 1.547949612140655518e-01 -2.562748789787292480e-01 3.343600928783416748e-01 -2.738302946090698242e-01 9.168954938650131226e-02 2.180590331554412842e-01 -1.751540154218673706e-01 -3.553867340087890625e-02 4.815838038921356201e-01 1.489565148949623108e-02 -1.675044298171997070e-01 1.685837805271148682e-01 -6.283384561538696289e-02 7.100822776556015015e-02 -5.375742912292480469e-01 3.574317991733551025e-01 3.137028217315673828e-01 2.201806306838989258e-01 1.412994712591171265e-01 1.007125526666641235e-01 8.502330631017684937e-02 5.369614362716674805e-01 -3.065432906150817871e-01 7.748688012361526489e-02 3.861022293567657471e-01 1.566922962665557861e-01 -2.316503375768661499e-01 -3.633445873856544495e-02 -4.188754037022590637e-02 2.784294188022613525e-01 -4.142198860645294189e-01 1.476046293973922729e-01 2.137055248022079468e-02 1.805365234613418579e-01 -2.130136452615261078e-02 4.726000726222991943e-01 -4.781998693943023682e-02 -2.010588794946670532e-01 2.837469801306724548e-02 -3.239852562546730042e-02 -2.556034028530120850e-01 5.636691451072692871e-01 1.708532124757766724e-01 -2.413307726383209229e-01 2.228701859712600708e-01 -2.817554473876953125e-01 -4.122634709347039461e-04 -8.594007492065429688e-01 -1.130617409944534302e-01 1.461291164159774780e-01 1.613692343235015869e-01 -1.472844481468200684e-01 3.601202741265296936e-02 3.985461890697479248e-01 2.128182202577590942e-01 -1.692193299531936646e-01 -4.696880280971527100e-01 9.969692677259445190e-02 4.182472452521324158e-02 -1.256082206964492798e-01 6.507410202175378799e-03 7.392045855522155762e-02 7.476310729980468750e-01 -3.163569569587707520e-01 -5.070636272430419922e-01 2.827745974063873291e-01 7.467839866876602173e-02
2.545015811920166016e-01 5.201445221900939941e-01 -2.570029497146606445e-01 -2.042049076408147812e-03 1.763284951448440552e-01 -9.482700377702713013e-02 -2.141839824616909027e-02 1.246309429407119751e-01 4.851785600185394287e-01 -9.443193674087524414e-02 -3.625866472721099854e-01 -3.361805900931358337e-02 -2.634044587612152100e-01 3.011935949325561523e-01 2.625029683113098145e-01 -2.601304054260253906e-01 3.541746139526367188e-01 -8.578876405954360962e-02 2.100270986557006836e-02 -4.641608297824859619e-01 -1.586639583110809326e-01 5.672955885529518127e-02 1.705400645732879639e-01 6.916416883468627930e-01 5.058439373970031738e-01 2.286119200289249420e-02 -6.401699036359786987e-02 -1.632849574089050293e-01 -9.212303757667541504e-01 -3.071152865886688232e-01 -4.742500931024551392e-02 1.188347190618515015e-01 -2.373901754617691040e-01 -3.078205883502960205e-01 4.975936934351921082e-02 -7.408737391233444214e-02 -4.433121085166931152e-01 1.178317144513130188e-01 -3.177096247673034668e-01 -3.706453740596771240e-01 2.308807522058486938e-01 6.034296005964279175e-03 -2.068443596363067627e-01 2.981240749359130859e-01 -2.314396202564239502e-01 -6.443671584129333496e-01 5.956290960311889648e-01 8.805212378501892090e-02 -3.234222829341888428e-01 5.626480579376220703e-01 9.490627050399780273e-02 3.337498605251312256e-01 -5.872777104377746582e-01 -4.848981499671936035e-01 -3.068667948246002197e-01 4.963601231575012207e-01 4.403366148471832275e-01 1.629432588815689087e-01 -4.360063374042510986e-01 1.545847207307815552e-01 1.175805702805519104e-01 -5.616782903671264648e-01 -3.784352838993072510e-01 -3.619492352008819580e-01 -3.494211733341217041e-01 -2.617727816104888916e-01 2.174292132258415222e-02 -4.386486485600471497e-02 2.963759899139404297e-01 -2.819961905479431152e-01
2.766853384673595428e-02 2.230250090360641479e-01 9.618441760540008545e-02 -2.659177407622337341e-02 -2.427258342504501343e-01 -6.006946042180061340e-02 -3.509589731693267822e-01 -2.141716331243515015e-01 -3.471779450774192810e-02 4.689787328243255615e-01 -4.187214970588684082e-01 2.530547231435775757e-02 4.140141308307647705e-01 -6.340667605400085449e-01 2.612764239311218262e-01 2.709395885467529297e-01 2.945565581321716309e-01 4.374768435955047607e-01 -2.774789743125438690e-02 -4.258168861269950867e-02 -3.546553254127502441e-01 -1.717672646045684814e-01 6.923273205757141113e-01 5.757307410240173340e-01 2.945959270000457764e-01 2.444974146783351898e-02 3.363745287060737610e-02 -9.026774764060974121e-02 9.183093160390853882e-02 -3.376089632511138916e-01 1.380804032087326050e-01 1.988380961120128632e-02 -2.173807471990585327e-02 9.302485734224319458e-02 2.216185927391052246e-01 3.279258310794830322e-02 4.037055075168609619e-01 -2.956608235836029053e-01 -3.455932438373565674e-01 5.170462280511856079e-02 -2.639694511890411377e-01 7.154975831508636475e-02 3.000833392143249512e-01 -2.387210428714752197e-01 -7.703874725848436356e-03 -6.561250239610671997e-02 -3.887242078781127930e-01 1.506200730800628662e-01 -2.061754763126373291e-01 3.256996870040893555e-01 -7.803534716367721558e-02 2.138478904962539673e-01 -2.420692741870880127e-01 -9.787596762180328369e-02 -3.139807283878326416e-01 4.369623661041259766e-01 7.013413310050964355e-01 1.970871090888977051e-01 3.068647980690002441e-01 6.175081059336662292e-02 -1.044903099536895752e-01 -1.541519314050674438e-01 -6.042031645774841309e-01 -1.442551910877227783e-01 1.754593402147293091e-01 3.962401449680328369e-01 -2.696995623409748077e-02 -3.779731392860412598e-01 1.352290995419025421e-02 -2.432597577571868896e-01
2.854744493961334229e-01 -1.973690688610076904e-01 -1.868735253810882568e-01 2.166019678115844727e-01 6.319680064916610718e-02 1.664649248123168945e-01 -3.997595608234405518e-02 2.424965798854827881e-01 2.031452208757400513e-01 -4.197036027908325195e-01 -1.814953088760375977e-01 -9.472532570362091064e-02 -4.100104868412017822e-01 4.708910584449768066e-01 -7.036045193672180176e-02 -3.719154596328735352e-01 -1.579786986112594604e-01 -3.954828977584838867e-01 -1.172250136733055115e-01 -2.350042760372161865e-01 7.229438424110412598e-01 -3.047454059123992920e-01 -6.326259374618530273e-01 -4.170137271285057068e-02 -5.077559947967529297e-01 2.275398233905434608e-03 3.074686229228973389e-01 -1.389586180448532104e-01 2.494315803050994873e-01 -5.004489794373512268e-03 1.327416747808456421e-01 4.031455814838409424e-01 1.759540289640426636e-01 -2.660050988197326660e-01 -2.923699915409088135e-01 -2.443291544914245605e-01 -2.145780324935913086e-01 -3.199334740638732910e-01 -3.495862782001495361e-01 1.846173219382762909e-02 9.908172301948070526e-03 1.944356858730316162e-01 1.046440526843070984e-01 -2.394359856843948364e-01 -4.117734432220458984e-01 2.635880187153816223e-02 5.803973600268363953e-02 4.967528209090232849e-02 -1.086216643452644348e-01 -9.234635531902313232e-02 -5.461027026176452637e-01 2.805066108703613281e-01 1.837989389896392822e-01 2.373953610658645630e-01 -4.389961957931518555e-01 3.956925272941589355e-01 -1.625050753355026245e-01 -1.128293722867965698e-01 7.752934843301773071e-02 5.698360800743103027e-01 7.433594763278961182e-02 2.095095813274383545e-01 -2.746375501155853271e-01 3.111380152404308319e-02 3.414776027202606201e-01 -3.190957903861999512e-01 -1.707527935504913330e-01 -3.479928076267242432e-01 -3.743818998336791992e-01 7.060892134904861450e-02
-3.788631856441497803e-01 1.461587101221084595e-01 3.196268528699874878e-02 2.940565347671508789e-01 -1.519372761249542236e-01 -2.480232119560241699e-01 3.682075142860412598e-01 -4.016279876232147217e-01 -2.363323271274566650e-01 -9.037169814109802246e-02 -4.721372947096824646e-02 -1.696750819683074951e-01 -1.272756755352020264e-01 -3.321706876158714294e-02 -1.138460859656333923e-01 -1.124477237462997437e-01 1.978464238345623016e-02 1.076810881495475769e-01 -3.618354797363281250e-01 -4.872293397784233093e-02 1.741735637187957764e-01 -1.097231134772300720e-01 -2.737086117267608643e-01 1.989857852458953857e-01 -1.484240144491195679e-01 -6.295778751373291016e-01 -9.807135164737701416e-02 3.338428214192390442e-02 4.895504415035247803e-01 -5.403779819607734680e-02 4.339736700057983398e-01 -1.800787001848220825e-01 -7.677584886550903320e-02 1.312301158905029297e-01 -7.879297249019145966e-03 1.705096065998077393e-01 2.981472015380859375e-01 -4.005176723003387451e-01 -1.276290118694305420e-01 4.352834224700927734e-01 -5.352190136909484863e-01 3.694283217191696167e-02 2.730149626731872559e-01 -1.096228808164596558e-01 -5.026012063026428223e-01 3.785147964954376221e-01 -2.105719745159149170e-01 8.134492486715316772e-02 4.248747825622558594e-01 -1.583103686571121216e-01 1.465599536895751953e-01 -7.244537770748138428e-02 -2.547571621835231781e-02 1.877443939447402954e-01 -3.721322715282440186e-01 8.623948693275451660e-02 1.440367549657821655e-01 -1.445278376340866089e-01 3.024218603968620300e-02 -2.383490502834320068e-01 -1.644707322120666504e-01 1.636129170656204224e-01 -3.774366080760955811e-01 5.791563391685485840e-01 -2.201097011566162109e-01 -1.361124366521835327e-01 -1.064808741211891174e-01 4.407659769058227539e-01 4.814612269401550293e-01 8.478007465600967407e-02
2.015296369791030884e-01 -2.903039455413818359e-01 -1.232436373829841614e-01 -3.207182586193084717e-01 1.648797839879989624e-01 -1.191340163350105286e-01 -2.674237191677093506e-01 5.160678625106811523e-01 -3.297590091824531555e-02 7.010622620582580566e-01 2.540274858474731445e-01 -3.246414288878440857e-02 2.074141502380371094e-01 4.579881131649017334e-01 -8.001442253589630127e-02 9.503018260002136230e-01 5.643426254391670227e-02 8.451544642448425293e-01 3.371159732341766357e-02 -2.904985798522830009e-03 -2.848990261554718018e-01 -5.270781368017196655e-02 -7.592143118381500244e-02 -3.044831752777099609e-01 -1.038642153143882751e-01 1.933342665433883667e-01 1.515104621648788452e-02 -2.852681279182434082e-01 1.459141522645950317e-01 6.999889016151428223e-02 -5.702646914869546890e-03 -4.228304326534271240e-02 -2.219198271632194519e-02 -1.175698563456535339e-01 -2.839609384536743164e-01 -2.471237629652023315e-01 -1.694117188453674316e-01 -8.167454600334167480e-02 -1.727516353130340576e-01 -6.158167719841003418e-01 6.295036673545837402e-01 -2.593675255775451660e-01 3.949829638004302979e-01 -3.665145337581634521e-01 -1.119390055537223816e-01 -9.515706449747085571e-02 3.982797265052795410e-01 1.777866184711456299e-01 4.516737163066864014e-01 -3.778533637523651123e-01 2.736429870128631592e-01 -1.994161754846572876e-01 3.432044759392738342e-02 -4.951620008796453476e-03 -4.811296239495277405e-02 1.176800727844238281e-01 3.578138723969459534e-02 6.099796891212463379e-01 2.358831316232681274e-01 2.152064815163612366e-03 -7.506944984197616577e-02 3.367812037467956543e-01 5.165253281593322754e-01 -3.350895345211029053e-01 -2.515010833740234375e-01 2.633590996265411377e-01 -1.116214916110038757e-01 2.566266059875488281e-01 9.938268363475799561e-02 1.379584521055221558e-01
2.071052491664886475e-01 2.527454793453216553e-01 -1.854925751686096191e-01 7.970525324344635010e-02 -1.054478660225868225e-01 -1.447427421808242798e-01 3.187080621719360352e-01 2.384438924491405487e-02 3.949385881423950195e-01 -3.248361945152282715e-01 -1.663474291563034058e-01 -2.065517902374267578e-01 -1.761328428983688354e-01 3.789417445659637451e-01 3.073906004428863525e-01 -4.532983005046844482e-01 5.515122413635253906e-01 2.161857187747955322e-01 -8.332427591085433960e-02 -5.927236676216125488e-01 -5.394894480705261230e-01 2.614631056785583496e-01 -5.682941675186157227e-01 -1.076016426086425781e-01 2.067909091711044312e-01 1.451690196990966797e-01 -1.374602019786834717e-01 4.395301342010498047e-01 -5.756956934928894043e-01 -4.307012856006622314e-01 -7.781597226858139038e-02 1.485541369765996933e-02 5.723857879638671875e-02 -3.925905525684356689e-01 1.034767553210258484e-01 -8.946445584297180176e-02 3.077028552070260048e-03 -9.415744990110397339e-02 1.255759149789810181e-01 7.946932315826416016e-02 -1.482978016138076782e-01 5.246044993400573730e-01 -3.913905322551727295e-01 -1.885912269353866577e-01 -1.100708469748497009e-01 -3.136526346206665039e-01 2.118521630764007568e-01 4.973401725292205811e-01 -3.522715866565704346e-01 4.607228040695190430e-01 -1.550557278096675873e-02 6.801516562700271606e-02 -4.483094215393066406e-01 -5.263068079948425293e-01 -3.896989524364471436e-01 1.623371094465255737e-01 9.051381051540374756e-02 -1.232536658644676208e-01 -3.428629934787750244e-01 3.117544353008270264e-01 1.611149907112121582e-01 -4.005767405033111572e-01 -1.513589024543762207e-01 -2.233950197696685791e-01 1.705638170242309570e-01 1.573255807161331177e-01 -1.349002718925476074e-01 -2.950040216092020273e-04 2.521295845508575439e-01 4.648499786853790283e-01
2.790195047855377197e-01 -5.691896677017211914e-01 -1.827400028705596924e-01 1.908771693706512451e-01 1.123831942677497864e-01 1.008026897907257080e-01 2.027277648448944092e-01 -4.481896385550498962e-02 1.447447389364242554e-01 8.611857891082763672e-02 -1.768290400505065918e-01 2.566235959529876709e-01 3.078247010707855225e-01 -3.463517725467681885e-01 3.465041518211364746e-01 1.835140287876129150e-01 1.694332957267761230e-01 -7.350715994834899902e-01 1.151254847645759583e-01 -2.013390660285949707e-01 2.441252470016479492e-01 -4.829339087009429932e-01 -3.747223913669586182e-01 5.004993677139282227e-01 2.997141778469085693e-01 1.183214709162712097e-01 3.870639204978942871e-01 -1.442401856184005737e-01 4.895558059215545654e-01 5.892328023910522461e-01 8.847910910844802856e-03 1.288611143827438354e-01 -4.239315688610076904e-01 -4.669786989688873291e-01 2.302172333002090454e-01 -2.383787035942077637e-01 2.958326935768127441e-01 2.000515609979629517e-01 3.804114162921905518e-01 7.511594146490097046e-02 -1.876562386751174927e-01 4.379436373710632324e-01 -1.023756992071866989e-02 -7.251126319169998169e-02 4.921515658497810364e-02 4.664521813392639160e-01 -6.472550630569458008e-01 2.873784899711608887e-01 2.197200357913970947e-01 -4.271629452705383301e-02 -9.290515184402465820e-01 2.117184400558471680e-01 -1.604848504066467285e-01 1.685191988945007324e-01 -4.111928045749664307e-01 -8.249661326408386230e-02 4.868446290493011475e-01 1.795249059796333313e-03 3.876456916332244873e-01 1.513790339231491089e-01 -1.616197056137025356e-03 -9.583318233489990234e-02 5.805614590644836426e-01 -1.711800098419189453e-01 -4.199928417801856995e-02 -2.114419341087341309e-01 -3.771027624607086182e-01 -2.013053148984909058e-01 -3.309160098433494568e-02 -1.835007369518280029e-01
