1.228881031274795532e-01
1.082014441490173340e-01
1.902705281972885132e-01
9.380114078521728516e-02
-9.386382251977920532e-02
2.643818557262420654e-01
8.886454999446868896e-02
-9.477880597114562988e-02
5.427926406264305115e-02
3.300927281379699707e-01
1.369652897119522095e-01
4.795070365071296692e-02
6.603667885065078735e-02
1.117462813854217529e-01
-6.525170058012008667e-03
6.413675099611282349e-02
6.531632971018552780e-03
2.521395683288574219e-01
1.971869766712188721e-01
2.554211765527725220e-02
1.236594170331954956e-01
2.800827026367187500e-01
1.458379626274108887e-01
3.514964878559112549e-02
-2.412086911499500275e-02
1.619043052196502686e-01
8.262407779693603516e-02
-3.966967109590768814e-03
-1.007122695446014404e-01
-1.845569461584091187e-01
1.374791860580444336e-01
-3.747961309272795916e-04
1.561039984226226807e-01
-5.816758051514625549e-02
8.137651532888412476e-02
-7.852402329444885254e-02
-1.230210624635219574e-02
2.995128631591796875e-01
5.000586435198783875e-02
2.349462956190109253e-01
1.280608177185058594e-01
6.650572270154953003e-02
1.869607120752334595e-01
-7.431823760271072388e-02
1.874032318592071533e-01
9.206664562225341797e-02
7.910602539777755737e-02
1.654862076975405216e-03
1.430925279855728149e-01
1.957714557647705078e-01
-7.793631404638290405e-02
2.382156997919082642e-01
1.090158820152282715e-01
-6.623536348342895508e-02
1.693972852081060410e-03
-8.511633425951004028e-02
-1.701420694589614868e-01
2.803584001958370209e-02
7.418807595968246460e-02
9.751430898904800415e-02
-8.591303229331970215e-02
2.126927487552165985e-02
1.849977374076843262e-01
9.460459649562835693e-02
8.260010741651058197e-03
1.687953919172286987e-01
1.738814115524291992e-01
-1.800320595502853394e-01
1.770263910293579102e-01
8.583346009254455566e-02
7.250663638114929199e-02
2.636570632457733154e-01
1.509274244308471680e-01
2.797245085239410400e-01
1.846477687358856201e-01
-6.680701673030853271e-02
-6.839044392108917236e-02
-1.608069837093353271e-01
1.355603933334350586e-01
8.749157190322875977e-02
1.869306117296218872e-01
-8.189318329095840454e-02
7.018811255693435669e-02
-5.769368261098861694e-02
-1.028717458248138428e-01
-5.343463271856307983e-03
2.447025291621685028e-02
2.032125145196914673e-01
1.363906413316726685e-01
-1.618582457304000854e-01
-7.472444325685501099e-02
2.610632777214050293e-01
2.642941176891326904e-01
4.102422669529914856e-02
4.659105464816093445e-02
-7.365623861551284790e-02
9.729337692260742188e-02
-5.991482362151145935e-02
8.713064715266227722e-03
2.091367393732070923e-01
1.214488819241523743e-01
1.089615225791931152e-01
1.102995127439498901e-02
-2.095245122909545898e-01
8.161614835262298584e-02
-1.128396466374397278e-01
-1.917403750121593475e-02
-1.194674447178840637e-01
4.768170043826103210e-02
-4.087823629379272461e-02
2.292701788246631622e-02
-9.082470089197158813e-02
8.415857702493667603e-02
1.075909193605184555e-02
1.420902311801910400e-01
4.831784591078758240e-02
-2.439581789076328278e-02
-4.840172082185745239e-02
1.806790232658386230e-01
-5.835114419460296631e-02
5.648992955684661865e-02
2.997468411922454834e-02
1.258356571197509766e-01
1.423709094524383545e-01
-3.640561550855636597e-02
-6.825675070285797119e-02
2.669565379619598389e-01
-2.153711952269077301e-02
-3.255132958292961121e-02
3.104517757892608643e-01
-8.750745654106140137e-02
1.363209784030914307e-01
-1.163386255502700806e-01
1.963292211294174194e-01
1.647351309657096863e-02
1.455325931310653687e-01
2.687943577766418457e-01
3.088021278381347656e-01
-2.002698369324207306e-03
-6.039283424615859985e-02
9.023039042949676514e-02
1.041902787983417511e-02
-8.990722708404064178e-03
7.832349836826324463e-02
9.667282551527023315e-02
-7.693359255790710449e-02
1.277271360158920288e-01
1.041814610362052917e-01
1.405867487192153931e-01
8.188720792531967163e-02
-4.405534360557794571e-03
1.506431549787521362e-01
5.186883360147476196e-02
-1.629912853240966797e-01
9.470123052597045898e-02
1.351564526557922363e-01
-2.927011623978614807e-02
3.531391546130180359e-02
8.958375453948974609e-02
4.034800454974174500e-02
2.711763978004455566e-02
1.898505352437496185e-02
2.089606970548629761e-01
8.023432642221450806e-02
-8.906135708093643188e-02
-4.944305121898651123e-02
-3.502411022782325745e-02
1.160232424736022949e-01
2.575619146227836609e-02
2.722976803779602051e-01
3.492008149623870850e-02
-2.310424856841564178e-02
2.599186897277832031e-01
2.785793244838714600e-01
4.850943759083747864e-02
-1.732392907142639160e-01
3.689751029014587402e-01
-3.969526849687099457e-03
-9.163431823253631592e-02
-2.651978097856044769e-02
1.932153701782226562e-01
1.775871068239212036e-01
-5.046615749597549438e-02
-5.624762922525405884e-02
1.377749145030975342e-01
9.460817277431488037e-02
9.627310186624526978e-02
2.315006405115127563e-02
3.751543909311294556e-02
1.686665266752243042e-01
1.452643275260925293e-01
-5.121497437357902527e-02
1.614164263010025024e-01
-3.882506862282752991e-02
-3.288551047444343567e-02
3.459906950592994690e-02
1.101851016283035278e-01
-1.192525699734687805e-01
2.669796943664550781e-01
2.048164308071136475e-01
9.246259182691574097e-02
7.319118827581405640e-02
-3.240080922842025757e-02
7.373512536287307739e-02
1.548999398946762085e-01
2.541521787643432617e-01
-1.678880676627159119e-02
4.301201179623603821e-02
-4.916061181575059891e-03
-8.282233029603958130e-02
-6.018624175339937210e-03
-9.783747792243957520e-02
-2.072320580482482910e-01
5.706450715661048889e-02
6.714785844087600708e-02
-7.561600208282470703e-02
5.828389152884483337e-02
-7.433239370584487915e-03
7.870069704949855804e-03
4.021066427230834961e-02
1.347854137420654297e-01
3.121563196182250977e-01
6.690253317356109619e-02
1.842944473028182983e-01
-5.654700472950935364e-02
6.169294565916061401e-02
3.019582331180572510e-01
-4.670248180627822876e-02
-3.783847391605377197e-02
6.581848859786987305e-02
2.161201089620590210e-01
2.664073705673217773e-01
2.459594011306762695e-01
-1.673278063535690308e-01
1.132372207939624786e-02
-5.853389948606491089e-02
4.625190794467926025e-02
2.832131981849670410e-01
-1.971125304698944092e-01
1.211004797369241714e-02
3.915426880121231079e-02
2.769340574741363525e-01
1.957089006900787354e-01
1.017145961523056030e-01
1.662312150001525879e-01
-1.435047574341297150e-02
-6.069805845618247986e-02
1.991855651140213013e-01
1.435116529464721680e-01
-5.876298248767852783e-02
2.326903045177459717e-01
8.689422160387039185e-02
-1.510146260261535645e-02
-1.302660852670669556e-01
2.117241919040679932e-01
-2.124320715665817261e-02
