2.600632607936859131e-01
-2.088728696107864380e-01
3.019081428647041321e-02
-4.543938115239143372e-02
2.812453508377075195e-01
-1.638424694538116455e-01
4.499711394309997559e-01
-6.711105816066265106e-03
2.144469469785690308e-01
2.646935284137725830e-01
6.087259054183959961e-01
-3.075894415378570557e-01
-6.016368865966796875e-01
2.605745196342468262e-01
9.075777977705001831e-02
-1.239253357052803040e-01
-1.835542172193527222e-01
-1.377320569008588791e-02
4.214768484234809875e-02
-8.403842151165008545e-02
-2.295650541782379150e-01
-3.856878876686096191e-01
1.775100268423557281e-02
-1.620136201381683350e-01
2.483119219541549683e-01
-2.299639880657196045e-01
-5.749231204390525818e-02
-1.752569675445556641e-01
-2.717894874513149261e-02
6.296709775924682617e-01
-5.213329941034317017e-02
3.481269180774688721e-01
2.256494164466857910e-01
-2.742349803447723389e-01
3.936010226607322693e-02
3.698796629905700684e-01
4.386127293109893799e-01
-6.270951032638549805e-02
1.830955743789672852e-01
2.542168796062469482e-01
1.105914562940597534e-01
1.590115725994110107e-01
-3.670158088207244873e-01
2.566180527210235596e-01
-3.549688458442687988e-01
-5.411953926086425781e-01
-1.112091466784477234e-01
3.418314754962921143e-01
3.566269874572753906e-01
1.263802647590637207e-01
-1.600516885519027710e-01
-3.953236639499664307e-01
4.735052883625030518e-01
6.817351579666137695e-01
-3.203547596931457520e-01
9.814117848873138428e-02
-2.668977081775665283e-01
2.799098193645477295e-01
-2.810909152030944824e-01
-4.139250516891479492e-02
-1.048194766044616699e-01
2.479693591594696045e-01
-1.386299133300781250e-01
3.586561083793640137e-01
1.345805674791336060e-01
8.747985959053039551e-02
6.478509306907653809e-01
4.374999180436134338e-02
3.063458502292633057e-01
-3.912803828716278076e-01
3.512418270111083984e-01
5.616821050643920898e-01
1.381789445877075195e-01
3.455173373222351074e-01
1.554558146744966507e-02
-4.048339426517486572e-01
-4.358977079391479492e-01
1.975260227918624878e-01
-1.411704067140817642e-02
1.244583074003458023e-02
-2.849053442478179932e-01
9.263513982295989990e-02
-4.827628135681152344e-01
1.971410810947418213e-01
-2.687053009867668152e-02
-1.595119535923004150e-01
-2.103067487478256226e-01
-4.937654435634613037e-01
-8.293280005455017090e-01
-3.846484422683715820e-01
4.371398091316223145e-01
2.372762374579906464e-02
-1.255749762058258057e-01
-4.120890200138092041e-01
-2.553299069404602051e-01
-2.207775115966796875e-01
2.347663491964340210e-01
7.373480796813964844e-01
1.838863492012023926e-01
-2.246820032596588135e-01
-6.611053347587585449e-01
7.289395481348037720e-02
3.298269212245941162e-01
2.592334747314453125e-01
-6.177924200892448425e-02
-2.840333282947540283e-01
-7.048867940902709961e-01
2.857817709445953369e-01
-2.788803577423095703e-01
1.995349526405334473e-01
-4.614825546741485596e-02
-2.858442664146423340e-01
6.357071995735168457e-01
-6.293747574090957642e-02
6.473841518163681030e-02
-6.323661655187606812e-02
6.224078312516212463e-02
1.177520304918289185e-01
-3.960660696029663086e-01
-2.848279774188995361e-01
5.364919304847717285e-01
-3.373675420880317688e-02
-7.409447431564331055e-02
-2.082543820142745972e-01
3.101239502429962158e-01
-2.953495681285858154e-01
-3.754684329032897949e-01
-2.313657402992248535e-01
-2.939242422580718994e-01
8.173396438360214233e-02
-3.102321028709411621e-01
5.286191105842590332e-01
2.531869113445281982e-01
6.345752626657485962e-02
-7.261301577091217041e-02
-1.099764332175254822e-01
1.777212172746658325e-01
2.889910712838172913e-03
1.502787917852401733e-01
6.740705668926239014e-02
-2.336744032800197601e-02
1.431043297052383423e-01
-7.018193006515502930e-01
5.597864985466003418e-01
-1.327716708183288574e-01
-1.048691496253013611e-01
-8.631197363138198853e-02
1.373452693223953247e-01
-5.151560306549072266e-01
-6.655268669128417969e-01
-3.626683056354522705e-01
2.667842805385589600e-02
8.414064347743988037e-02
-6.849752068519592285e-01
-6.178974360227584839e-02
-5.218004584312438965e-01
8.867397159337997437e-02
2.472986280918121338e-01
-4.900069534778594971e-01
1.622382253408432007e-01
-2.243115007877349854e-01
4.950197041034698486e-01
-5.010357499122619629e-02
-3.480020761489868164e-01
3.839517533779144287e-01
3.719820678234100342e-01
-8.491943590342998505e-03
-1.339127868413925171e-01
1.161247119307518005e-01
-8.398456871509552002e-02
4.237088561058044434e-01
3.012205362319946289e-01
1.670751869678497314e-01
-3.400842845439910889e-01
9.143229573965072632e-02
-5.308510065078735352e-01
4.788578450679779053e-01
-3.486967682838439941e-01
6.824457645416259766e-02
5.960748791694641113e-01
-6.878148764371871948e-02
1.862496137619018555e-01
-4.530168771743774414e-01
-1.073718219995498657e-01
-2.742392420768737793e-01
2.285044938325881958e-01
-2.744511067867279053e-01
-3.506423830986022949e-01
5.479150414466857910e-01
-7.963503003120422363e-01
3.144627213478088379e-01
7.188132405281066895e-02
-1.692914515733718872e-01
2.624828517436981201e-01
3.100452125072479248e-01
1.602708846330642700e-01
-2.066113501787185669e-01
2.306985706090927124e-01
7.737387716770172119e-02
-6.221041679382324219e-01
-9.455814957618713379e-02
-2.287083864212036133e-02
-4.512509703636169434e-01
-2.092898935079574585e-01
-9.093638509511947632e-02
1.604931801557540894e-01
-1.404718309640884399e-01
2.392947822809219360e-01
-9.387587010860443115e-02
6.033336743712425232e-02
-4.157592058181762695e-01
7.946280390024185181e-02
9.992808103561401367e-03
2.864853441715240479e-01
4.455400258302688599e-02
-4.207975864410400391e-01
-3.516281545162200928e-01
-3.578099608421325684e-01
-2.585037648677825928e-01
1.249526739120483398e-01
4.019029438495635986e-01
-7.112367749214172363e-01
-1.098409201949834824e-02
3.849687576293945312e-01
3.644769489765167236e-01
-8.384019881486892700e-02
-2.917541563510894775e-01
-3.780611753463745117e-01
4.225104153156280518e-01
-2.140806913375854492e-01
-4.629658460617065430e-01
3.673562705516815186e-01
1.591192781925201416e-01
-6.548894196748733521e-02
-1.702919006347656250e-01
-3.419507145881652832e-01
7.432919740676879883e-02
3.839762210845947266e-01
-1.320718973875045776e-01
-2.293875366449356079e-01
2.718013525009155273e-01
-7.339746505022048950e-02
-7.667036354541778564e-02
1.464995294809341431e-01
-3.206195235252380371e-01
1.625982224941253662e-01
-1.218082755804061890e-01
-1.529593616724014282e-01
-3.089697062969207764e-01
-3.882577419281005859e-01
7.593488693237304688e-02
-5.693249106407165527e-01
-4.978632330894470215e-01
2.435562163591384888e-01
1.134857088327407837e-01
7.090919017791748047e-01
