2.143891602754592896e-01
-1.537508666515350342e-01
4.340547323226928711e-01
3.035319447517395020e-01
4.036338627338409424e-01
3.087644577026367188e-01
3.777308762073516846e-02
3.295908272266387939e-01
3.168957531452178955e-01
1.379375755786895752e-01
1.944882124662399292e-01
-8.233564347028732300e-02
-3.275619447231292725e-02
6.840905640274286270e-03
-1.322254259139299393e-02
4.193097651004791260e-01
2.266688048839569092e-01
3.394967913627624512e-01
6.541655212640762329e-02
1.858956813812255859e-01
-7.567130029201507568e-02
4.336088299751281738e-01
5.670685172080993652e-01
1.498930752277374268e-01
2.033466696739196777e-01
-9.173690527677536011e-02
1.810781098902225494e-02
4.332860186696052551e-02
2.178146392107009888e-01
1.007324159145355225e-01
2.274415045976638794e-01
2.608172297477722168e-01
-2.715665847063064575e-02
6.605566293001174927e-02
-2.245159894227981567e-01
-1.645197868347167969e-01
4.024083018302917480e-01
1.954939402639865875e-02
5.216516181826591492e-02
-2.501523494720458984e-01
1.973845064640045166e-01
1.099451072514057159e-02
1.119119971990585327e-01
8.556696772575378418e-02
4.443270154297351837e-03
1.446242034435272217e-01
8.257181942462921143e-02
-2.088210778310894966e-03
1.399679332971572876e-01
4.800143465399742126e-02
5.142276734113693237e-02
2.521521449089050293e-01
2.350596785545349121e-01
2.386422082781791687e-02
-6.035836786031723022e-02
-3.787806257605552673e-02
2.944426834583282471e-01
3.149709105491638184e-01
8.981379866600036621e-02
6.380644440650939941e-01
4.255565404891967773e-01
5.498914122581481934e-01
1.289309114217758179e-01
-1.287062615156173706e-01
6.099572405219078064e-02
-5.030161887407302856e-02
-1.499506533145904541e-01
2.636739909648895264e-01
1.925715506076812744e-01
2.445282936096191406e-01
4.297198057174682617e-01
7.642142474651336670e-02
1.975514143705368042e-01
-3.077458404004573822e-02
5.282614827156066895e-01
-5.439665913581848145e-02
1.219210699200630188e-01
1.946832239627838135e-01
-4.976148903369903564e-02
5.256481170654296875e-01
2.730958163738250732e-01
2.721728682518005371e-01
1.773519366979598999e-01
-5.073717236518859863e-02
2.743361294269561768e-01
2.514241635799407959e-01
2.092130035161972046e-01
4.730958342552185059e-01
4.482738301157951355e-02
-4.447329416871070862e-02
8.892101794481277466e-02
3.455883264541625977e-01
1.043113023042678833e-01
3.857204914093017578e-01
3.176212906837463379e-01
3.952410817146301270e-01
6.245373934507369995e-02
1.396356076002120972e-01
1.973991841077804565e-01
2.587768435478210449e-02
-6.297900527715682983e-02
-5.504896491765975952e-02
-1.409213524311780930e-03
7.570428401231765747e-02
2.400199621915817261e-01
1.723119169473648071e-01
8.112281560897827148e-02
-6.145229935646057129e-02
4.120212495326995850e-01
-3.661470487713813782e-02
7.935087382793426514e-02
3.239913582801818848e-01
1.575608402490615845e-01
3.031318187713623047e-01
-1.727066785097122192e-01
-4.171815887093544006e-02
1.021840095520019531e+00
1.098516117781400681e-02
2.387173920869827271e-01
2.271776087582111359e-02
3.586767911911010742e-01
1.700492203235626221e-01
6.485160440206527710e-02
3.494928479194641113e-01
2.622874975204467773e-01
5.614627897739410400e-02
2.232697606086730957e-01
1.471656262874603271e-01
2.478311508893966675e-01
8.288750797510147095e-02
-1.215774789452552795e-01
2.708889842033386230e-01
-5.604285001754760742e-02
1.437653135508298874e-02
-1.556088030338287354e-01
-7.183861732482910156e-02
2.594018280506134033e-01
9.983385354280471802e-02
2.868741750717163086e-01
-1.898078620433807373e-01
1.253425031900405884e-01
1.159025132656097412e-01
-1.473318934440612793e-01
3.604987561702728271e-01
2.905543148517608643e-01
2.636126577854156494e-01
-3.841800242662429810e-02
3.695777058601379395e-02
1.553640961647033691e-01
-1.846102066338062286e-02
-7.070776820182800293e-02
2.695077359676361084e-01
-1.181574985384941101e-01
-2.383597344160079956e-01
3.634065687656402588e-01
-2.105598896741867065e-01
1.351182758808135986e-01
5.842209458351135254e-01
2.354725003242492676e-01
2.040503621101379395e-01
5.011371970176696777e-01
-1.404114067554473877e-01
1.488792598247528076e-01
1.742200702428817749e-01
1.083655580878257751e-01
-1.693075522780418396e-02
5.136371254920959473e-01
1.301662027835845947e-01
1.867260932922363281e-01
1.240378897637128830e-02
2.773655951023101807e-01
5.851953849196434021e-02
1.912365853786468506e-01
2.152647525072097778e-01
1.167435050010681152e-01
2.276123315095901489e-02
1.413104385137557983e-01
2.170471847057342529e-01
5.553605780005455017e-02
2.192364782094955444e-01
4.377401620149612427e-02
3.373071551322937012e-01
1.116101965308189392e-01
1.613299548625946045e-01
1.730476468801498413e-01
8.284167200326919556e-02
-3.679514676332473755e-02
-2.252469211816787720e-01
2.795129418373107910e-01
1.376440376043319702e-01
-2.772006578743457794e-02
5.876780673861503601e-02
2.443201690912246704e-01
3.439245820045471191e-01
4.296521842479705811e-01
1.442537307739257812e-01
4.679849743843078613e-02
2.297472804784774780e-01
-1.106283068656921387e-01
3.716010227799415588e-02
4.718179404735565186e-01
1.169938072562217712e-01
3.259537043049931526e-03
2.879748120903968811e-02
-1.369398385286331177e-01
2.510062046349048615e-02
3.898728191852569580e-01
3.602668642997741699e-01
1.554831415414810181e-01
1.627590507268905640e-01
3.791740238666534424e-01
-7.373838871717453003e-02
3.313348889350891113e-01
2.920717895030975342e-01
-1.459586918354034424e-01
1.246869340538978577e-01
1.140590459108352661e-01
9.957480430603027344e-02
4.566095173358917236e-01
2.198445796966552734e-01
2.720307409763336182e-01
4.083175659179687500e-01
-1.027976647019386292e-01
-6.273436546325683594e-02
2.069730460643768311e-01
3.649424314498901367e-01
2.754742801189422607e-01
1.420537084341049194e-01
2.604291439056396484e-01
1.772753298282623291e-01
9.577526897192001343e-02
1.379128545522689819e-01
1.849328726530075073e-01
-1.862784265540540218e-03
-2.280860207974910736e-02
3.742518275976181030e-02
2.566592991352081299e-01
-7.340122759342193604e-02
3.340174555778503418e-01
-1.753198169171810150e-02
2.020700089633464813e-02
-3.637677058577537537e-02
2.403425127267837524e-01
2.289183735847473145e-01
-1.046059727668762207e-01
4.038659632205963135e-01
-1.220880597829818726e-01
4.636497795581817627e-01
5.734320729970932007e-02
9.469839930534362793e-02
1.600493639707565308e-01
-3.172846138477325439e-02
3.974504172801971436e-01
1.168567091226577759e-01
9.817572683095932007e-02
4.742145165801048279e-02
