1.101525783538818359e+00 -9.789370894432067871e-01 -7.814845442771911621e-02 -8.565704524517059326e-02 -2.000661790370941162e-01 -3.328240811824798584e-01 -4.317216277122497559e-01 1.143158599734306335e-01 -3.704767227172851562e-01 1.027576029300689697e-01 -6.705255806446075439e-02 2.753666369244456291e-03 2.038559168577194214e-01 -6.104677319526672363e-01 9.644823148846626282e-03 -3.742585480213165283e-01 -1.574764996767044067e-01 -4.909866750240325928e-01 -1.186732128262519836e-01 -3.712131083011627197e-02 -1.479464024305343628e-01 -7.437727414071559906e-03 1.538799107074737549e-01 -4.310116469860076904e-01 -2.077738940715789795e-02 -7.873207330703735352e-02 -2.401866465806961060e-01 2.877519130706787109e-01 -2.952264249324798584e-01 -2.432548552751541138e-01 -6.593441963195800781e-01 -5.772367715835571289e-01 9.292083978652954102e-02 -2.056564986705780029e-01 2.086209505796432495e-01 4.201528131961822510e-01 -1.054306253790855408e-01 2.813395261764526367e-01 1.129616703838109970e-02 -3.551152348518371582e-02 7.564275860786437988e-01 -8.287210464477539062e-01 -5.545722246170043945e-01 -4.075401425361633301e-01 -1.576349884271621704e-01 1.689650565385818481e-01 -2.926370203495025635e-01 -2.041165083646774292e-01 -3.163344264030456543e-01 2.379960715770721436e-01 -1.898143291473388672e-01 4.936142265796661377e-01 -2.762800753116607666e-01 -3.001410365104675293e-01 4.539488255977630615e-01 -9.499584436416625977e-01 6.506975740194320679e-03 2.350849509239196777e-01 6.044613122940063477e-01 -7.024909257888793945e-01 -1.117554754018783569e-01 8.618846535682678223e-02 1.301241070032119751e-01 2.798737883567810059e-01 3.669163882732391357e-01 4.175390601158142090e-01 -7.329655438661575317e-02 -4.929626286029815674e-01 8.369003422558307648e-03 2.999195456504821777e-01 3.395467102527618408e-01 -3.817617893218994141e-01 -3.206529319286346436e-01 3.118883073329925537e-01 -1.637344509363174438e-01 4.594058096408843994e-01 7.206628471612930298e-02 1.922669708728790283e-01 -8.551321029663085938e-01 1.920518428087234497e-01 -5.586338043212890625e-01 1.459833383560180664e-01 -4.657787829637527466e-02 1.680935025215148926e-01 -2.144403606653213501e-01 2.692842185497283936e-01 -1.577860862016677856e-01 3.433137238025665283e-01 4.352747201919555664e-01 -2.710902392864227295e-01 7.470112442970275879e-01 -7.026191800832748413e-02 4.296804368495941162e-01 -4.288326501846313477e-01 4.265129938721656799e-02 -8.387468010187149048e-02 -5.494945049285888672e-01 3.367604315280914307e-01 -8.480188250541687012e-01 -4.455881938338279724e-02 -3.900845646858215332e-01 5.758876204490661621e-01 -4.690166115760803223e-01 -6.165163516998291016e-01 -1.261890530586242676e+00 2.348760515451431274e-02 7.699636369943618774e-02 8.772322535514831543e-02 1.010992005467414856e-01 -7.308799028396606445e-02 5.604909360408782959e-02 7.147663831710815430e-02 2.390394806861877441e-01 7.624476552009582520e-01 2.034710049629211426e-01 -2.484517544507980347e-02 -3.332544863224029541e-01 1.609447747468948364e-01 2.308057695627212524e-01 -1.449415832757949829e-02 1.694154888391494751e-01 7.558888196945190430e-01 3.699528276920318604e-01 -2.034597396850585938e-01 -2.096040844917297363e-01 -3.442893624305725098e-01 5.919363722205162048e-02 -4.031712114810943604e-01 -7.452622652053833008e-01 -1.575344949960708618e-01 -1.346714794635772705e-01 1.519545912742614746e-01 5.905648320913314819e-02 -7.346986234188079834e-02 -8.147563040256500244e-02 -6.492144893854856491e-03 -2.070110440254211426e-01 -4.464731365442276001e-02 -6.793252229690551758e-01 -3.430755063891410828e-02 -7.715465426445007324e-01 -1.600471735000610352e-01 -6.026983261108398438e-02 3.829647898674011230e-01 -9.063508361577987671e-02 -3.811835050582885742e-01 -3.040297925472259521e-01 1.309799551963806152e-01 -3.458977639675140381e-01 -6.673948466777801514e-02 -1.644714325666427612e-01 4.698414504528045654e-01 3.179733157157897949e-01 -4.628803431987762451e-01 2.885836660861968994e-01 1.910264045000076294e-01 -4.895052909851074219e-01 3.002595603466033936e-01 -4.331617951393127441e-01 -1.720934510231018066e-01 -3.347613513469696045e-01 -3.299210965633392334e-01 4.904805421829223633e-01 -6.991585493087768555e-01 -1.405758708715438843e-01 -1.218915507197380066e-01 2.038314044475555420e-01 -5.606964826583862305e-01 2.444933354854583740e-01 7.708434760570526123e-02 3.773907423019409180e-01 -3.284628391265869141e-01 -2.695647478103637695e-01 6.988285779953002930e-01 1.938368082046508789e-01 3.333514332771301270e-01 2.686483561992645264e-01 -4.486831128597259521e-01 -5.738483667373657227e-01 -1.302078366279602051e-01 2.796848118305206299e-01 -7.830638289451599121e-01 -2.580127418041229248e-01 5.685765668749809265e-02 -1.306125819683074951e-01 2.800836861133575439e-01 2.795236706733703613e-01 1.815018504858016968e-01 -6.885144710540771484e-01 7.935781776905059814e-02 -2.119165807962417603e-01 4.058596193790435791e-01 -1.719504296779632568e-01 5.987235307693481445e-01 3.589607477188110352e-01 -1.160589829087257385e-01 1.444146335124969482e-01 2.383955754339694977e-02 1.810605525970458984e-01 5.058329105377197266e-01 -1.763978898525238037e-01 8.020663857460021973e-01 -4.883440434932708740e-01 -4.312257170677185059e-01 -2.948485016822814941e-01 -6.998568028211593628e-02 1.812317222356796265e-02 -7.014283537864685059e-01 7.132473587989807129e-01 -4.733862280845642090e-01 -3.210256695747375488e-01 -1.237488687038421631e-01 8.477711677551269531e-02 3.781728819012641907e-02 3.500454127788543701e-02 1.500009894371032715e-01 2.541634142398834229e-01 1.117661967873573303e-01 -9.584714472293853760e-02 -2.175722084939479828e-02 -2.287893928587436676e-02 1.136719882488250732e-01 3.862870931625366211e-01 2.402292564511299133e-02 -7.142810821533203125e-01 -3.155719637870788574e-01 -8.499772548675537109e-01 -3.048757314682006836e-01 -1.007761955261230469e-01 -2.109012603759765625e-01 -4.147703647613525391e-01 -3.359220027923583984e-01 -1.126135110855102539e+00 2.874855697154998779e-01 9.788475930690765381e-03 -2.201849073171615601e-01 -5.863840505480766296e-02 -1.807492822408676147e-01 -4.376201033592224121e-01 -2.761780917644500732e-01 -3.132998943328857422e-01 5.422010421752929688e-01 2.181397676467895508e-01 -3.352988064289093018e-01 -1.815841495990753174e-01 1.483862102031707764e-01 -1.874488592147827148e-01 -3.834705948829650879e-01 1.426739692687988281e-01 -6.200076341629028320e-01 1.124782860279083252e-01 -1.507271230220794678e-01 1.818272471427917480e-02 4.688052535057067871e-01 5.086464285850524902e-01 -2.542705535888671875e-01
-5.183847546577453613e-01 -2.013429552316665649e-01 -2.189375460147857666e-02 4.298338294029235840e-01 -1.498741060495376587e-01 -3.656014502048492432e-01 -2.858628630638122559e-01 -6.113920733332633972e-02 5.617712736129760742e-01 3.760023415088653564e-01 4.865588620305061340e-02 -4.350337684154510498e-01 2.193581759929656982e-01 9.270739555358886719e-02 -1.017633974552154541e-01 9.864128381013870239e-02 4.855656921863555908e-01 -5.215774774551391602e-01 -1.345903277397155762e-01 -6.608889997005462646e-02 3.863157629966735840e-01 1.984197646379470825e-01 -6.827113032341003418e-01 -1.494614593684673309e-02 -1.832589209079742432e-01 6.251199245452880859e-01 -1.119748950004577637e-01 -3.104379773139953613e-01 -1.699430495500564575e-01 8.981335908174514771e-03 3.100742697715759277e-01 -3.142572343349456787e-01 -1.339472234249114990e-01 -1.578022390604019165e-01 2.831400632858276367e-01 -7.247445583343505859e-01 -3.201812505722045898e-01 -1.015416383743286133e+00 1.381105463951826096e-02 4.608356654644012451e-01 5.832599103450775146e-02 -2.012840062379837036e-01 1.190635710954666138e-01 1.291607469320297241e-01 5.920978263020515442e-02 4.232613742351531982e-01 4.040689468383789062e-01 -1.408804357051849365e-01 5.780301690101623535e-01 -8.336009830236434937e-02 -6.946222484111785889e-02 3.584013283252716064e-01 2.889364957809448242e-01 2.222913503646850586e-01 -3.205460309982299805e-02 -2.411731481552124023e-01 2.606742084026336670e-01 -6.889336705207824707e-01 -3.409753143787384033e-01 4.670211672782897949e-01 -4.132023453712463379e-01 2.691370248794555664e-01 8.709266036748886108e-02 8.688651770353317261e-02 -2.895232439041137695e-01 6.097955703735351562e-01 -1.152671933174133301e+00 -2.759532034397125244e-01 5.031521320343017578e-01 9.455434232950210571e-02 -6.616953015327453613e-01 -1.224831119179725647e-01 -6.120743751525878906e-01 3.719810843467712402e-01 1.135998517274856567e-01 -3.726797103881835938e-01 5.462067127227783203e-01 4.346397817134857178e-01 8.774656802415847778e-02 -3.142357468605041504e-01 -8.850148916244506836e-01 -1.681760698556900024e-01 -4.824025332927703857e-01 -5.951546598225831985e-03 7.908462285995483398e-01 3.449084162712097168e-01 5.812321305274963379e-01 -3.533800318837165833e-02 4.146353304386138916e-01 -1.150719672441482544e-01 -3.450830699875950813e-03 -2.311183363199234009e-01 -5.770865678787231445e-01 -3.549520075321197510e-01 5.524097681045532227e-01 6.064441055059432983e-02 -4.838872253894805908e-01 -3.321576416492462158e-01 5.461812764406204224e-02 1.273151040077209473e-01 -3.866157233715057373e-01 3.852187395095825195e-01 -4.874312877655029297e-01 -2.936291992664337158e-01 1.190527603030204773e-01 4.098469614982604980e-01 -1.958832740783691406e-01 -4.765199422836303711e-01 7.791591435670852661e-02 -7.194874286651611328e-01 -9.946615248918533325e-02 3.696525096893310547e-02 -1.442049890756607056e-01 1.841612756252288818e-01 1.577423661947250366e-01 -1.142985373735427856e-01 2.625060379505157471e-01 1.112902835011482239e-01 -1.018926799297332764e-01 2.035264223814010620e-01 -6.732462048530578613e-01 -6.110187768936157227e-01 2.314511239528656006e-01 -7.877616882324218750e-01 -2.377498447895050049e-01 -4.658704102039337158e-01 -4.721661806106567383e-01 -8.616942912340164185e-02 -1.010899066925048828e+00 2.211094945669174194e-01 5.676059722900390625e-01 3.926716446876525879e-01 -9.111737459897994995e-02 1.081817895174026489e-01 7.307346463203430176e-01 -3.571843504905700684e-01 -2.333266101777553558e-02 -6.376442313194274902e-02 -1.019109264016151428e-01 -4.994092285633087158e-01 4.184836447238922119e-01 -2.215135097503662109e-01 -2.611056864261627197e-01 7.507015019655227661e-02 -6.591367721557617188e-02 -1.658803671598434448e-01 -7.757968902587890625e-01 8.624291047453880310e-03 4.733105599880218506e-01 -4.913649260997772217e-01 4.084220230579376221e-01 9.083510935306549072e-02 5.049901008605957031e-01 9.202399104833602905e-02 -2.553299963474273682e-01 1.830481290817260742e-01 -1.166997402906417847e-01 5.178320407867431641e-01 3.846226334571838379e-01 -2.295534461736679077e-01 -5.538205504417419434e-01 1.955078691244125366e-01 -2.794064581394195557e-01 -2.098478227853775024e-01 -2.172855883836746216e-01 -5.772051587700843811e-02 -7.080113049596548080e-03 -3.384809494018554688e-01 6.187164187431335449e-01 -1.760449707508087158e-01 -9.221300482749938965e-02 2.563236057758331299e-01 5.061517357826232910e-01 2.685236632823944092e-01 4.914216399192810059e-01 5.224043726921081543e-01 -4.292424023151397705e-01 -3.998000025749206543e-01 4.153799265623092651e-02 3.931382298469543457e-01 4.883342981338500977e-01 1.897644624114036560e-02 -3.255473375320434570e-01 -6.478502601385116577e-02 -4.947266578674316406e-01 -5.528731942176818848e-01 -5.543848872184753418e-01 -1.963767856359481812e-01 4.718715548515319824e-01 3.202810287475585938e-01 -1.150570213794708252e-01 1.795538067817687988e-01 -4.328358769416809082e-01 -1.453891992568969727e-01 -3.076512813568115234e-01 8.900695294141769409e-02 -5.342231392860412598e-01 -6.982311606407165527e-01 -3.740391731262207031e-01 1.731224209070205688e-01 -5.673000216484069824e-01 1.408224254846572876e-01 -3.159931302070617676e-01 -4.958628714084625244e-01 -8.014523983001708984e-01 3.278902173042297363e-01 1.745289862155914307e-01 -3.211581334471702576e-02 -4.805140793323516846e-01 2.111260294914245605e-01 1.419327594339847565e-02 8.913409709930419922e-02 -3.285269439220428467e-01 -6.243816018104553223e-01 1.886061429977416992e-01 -6.692959666252136230e-01 4.869519267231225967e-03 1.013215407729148865e-01 -2.011505514383316040e-01 5.962350964546203613e-01 3.443031311035156250e-01 4.766680002212524414e-01 8.200941979885101318e-02 3.900041282176971436e-01 4.519255459308624268e-01 5.568569898605346680e-02 -3.319135904312133789e-01 -6.562695503234863281e-01 1.242949292063713074e-01 -6.113692652434110641e-04 -6.046870350837707520e-02 1.969753056764602661e-01 -3.009914457798004150e-01 4.105844795703887939e-01 5.980308726429939270e-02 5.097094617667607963e-05 -2.785610854625701904e-01 -4.297488033771514893e-01 -2.965053319931030273e-01 -1.220141053199768066e+00 1.983797177672386169e-02 4.891302883625030518e-01 -1.730854809284210205e-01 6.868799924850463867e-01 -3.378204405307769775e-01 -4.142679274082183838e-02 -2.506060302257537842e-01 -4.507006704807281494e-01 2.568869292736053467e-01 4.524981975555419922e-02 4.327155053615570068e-01 -8.891726136207580566e-01 -3.412426412105560303e-01 -2.492771893739700317e-01 -7.381311655044555664e-01 -7.565895467996597290e-02
2.669276297092437744e-01 -5.630376338958740234e-01 -1.745320260524749756e-01 -3.871960043907165527e-01 4.201522171497344971e-01 -3.842047154903411865e-01 2.537757158279418945e-01 -1.543803513050079346e-01 2.118304371833801270e-01 -4.182373359799385071e-02 -4.431485831737518311e-01 5.867011547088623047e-01 3.317163586616516113e-01 -3.050242960453033447e-01 1.761927902698516846e-01 -6.493553519248962402e-01 2.580347657203674316e-01 -2.542644143104553223e-01 3.775461614131927490e-01 -7.099760770797729492e-01 5.097426846623420715e-02 -2.452946901321411133e-01 -1.238903328776359558e-01 1.958128213882446289e-01 2.977078855037689209e-01 -6.445285677909851074e-01 -9.382818341255187988e-01 -4.940835833549499512e-01 9.314949065446853638e-02 -6.833193898200988770e-01 -1.711708754301071167e-01 -6.387884616851806641e-01 4.965197294950485229e-02 3.172510266304016113e-01 -4.259453415870666504e-01 5.365289002656936646e-02 -3.348110318183898926e-01 -3.210345208644866943e-01 3.094026446342468262e-01 -1.183315292000770569e-01 -8.823732286691665649e-02 -1.145786643028259277e-01 8.280667662620544434e-02 -6.384071707725524902e-01 2.913954555988311768e-01 -3.365454375743865967e-01 4.367179572582244873e-01 -6.666631996631622314e-02 3.096522688865661621e-01 4.535870254039764404e-01 2.325675785541534424e-01 3.036900050938129425e-02 2.586120963096618652e-01 8.431266993284225464e-02 -5.393878221511840820e-01 6.043650582432746887e-02 -1.409963816404342651e-01 -3.636874854564666748e-01 3.253904283046722412e-01 -6.152501702308654785e-01 -3.857835531234741211e-01 2.171617895364761353e-01 -6.891918778419494629e-01 -2.415453344583511353e-01 4.381836056709289551e-01 -9.825558215379714966e-02 -5.288267135620117188e-01 1.842374056577682495e-01 3.106813430786132812e-01 4.836032390594482422e-01 6.908969283103942871e-01 -9.220312535762786865e-02 -3.689236640930175781e-01 1.585310548543930054e-01 -2.488592863082885742e-01 3.241734802722930908e-01 2.485191226005554199e-01 3.108988404273986816e-01 -3.230561316013336182e-01 1.618118584156036377e-01 -3.284472823143005371e-01 4.720536470413208008e-01 2.125383913516998291e-01 -5.528532713651657104e-02 -2.390355467796325684e-01 -9.044490754604339600e-02 -1.924555152654647827e-01 -2.664940953254699707e-01 3.667739331722259521e-01 -5.819226503372192383e-01 2.205367982387542725e-01 -1.920666992664337158e-01 9.443697333335876465e-02 2.537125945091247559e-01 -1.566527485847473145e-01 1.052829623222351074e-01 -6.832897663116455078e-01 3.547246456146240234e-01 -9.463738799095153809e-01 -7.139561772346496582e-01 -1.934974193572998047e-01 4.752518236637115479e-01 -1.020208373665809631e-01 1.227361038327217102e-01 -9.219964742660522461e-01 2.099767327308654785e-02 -7.906692028045654297e-01 -2.065719813108444214e-01 -2.486523985862731934e-01 -1.040731593966484070e-01 -1.910204887390136719e-01 1.590637117624282837e-02 -6.840403191745281219e-03 3.548677563667297363e-01 -1.184785515069961548e-01 -1.518546640872955322e-01 1.544209271669387817e-01 1.427292078733444214e-01 1.475306153297424316e-01 2.964296340942382812e-01 2.508229017257690430e-01 6.661694049835205078e-01 -8.556322455406188965e-01 -8.469630964100360870e-03 -7.252761125564575195e-01 -4.243352413177490234e-01 -1.887981891632080078e-01 2.684148587286472321e-02 -9.937915205955505371e-02 1.246524080634117126e-01 -1.266021430492401123e-01 -5.382152199745178223e-01 -9.966965019702911377e-02 -1.429561376571655273e-01 7.162357568740844727e-01 2.161161601543426514e-01 2.408502548933029175e-01 3.545998036861419678e-01 -2.447032034397125244e-01 -2.854992747306823730e-01 -7.258643507957458496e-01 -6.711037755012512207e-01 -7.613905519247055054e-02 8.541752398014068604e-02 -4.233533143997192383e-01 -3.690374791622161865e-01 -3.116006553173065186e-01 -1.790008544921875000e-01 -5.479890108108520508e-01 -4.441031515598297119e-01 2.720532752573490143e-02 4.792727231979370117e-01 3.327796459197998047e-01 -4.641603827476501465e-01 2.306182235479354858e-01 -4.328083992004394531e-01 4.310457706451416016e-01 2.319648563861846924e-01 -8.764456957578659058e-02 4.617671966552734375e-01 -6.126391887664794922e-01 -2.445455454289913177e-02 1.618516296148300171e-01 -1.108311191201210022e-01 7.349662482738494873e-02 -7.631320953369140625e-01 4.703319072723388672e-01 6.509769707918167114e-02 2.348787337541580200e-01 -2.832040190696716309e-01 -4.564703404903411865e-01 -1.066211834549903870e-01 -7.553946971893310547e-01 -9.668924808502197266e-01 -2.099815458059310913e-01 -1.385200172662734985e-01 8.097829222679138184e-01 -2.509663701057434082e-01 4.623284339904785156e-01 -5.052153468132019043e-01 -6.489742994308471680e-01 6.551508307456970215e-01 -7.637419737875461578e-03 2.382611632347106934e-01 5.724328160285949707e-01 -1.519411504268646240e-01 3.197863996028900146e-01 5.824233293533325195e-01 -3.101552426815032959e-01 -5.905442833900451660e-01 -1.670850068330764771e-01 1.536642313003540039e-01 8.009155839681625366e-02 -4.766643643379211426e-01 -2.643976509571075439e-01 3.587901219725608826e-02 4.070196151733398438e-01 -3.473221295280382037e-05 -7.420923560857772827e-02 2.194693386554718018e-01 -4.936688393354415894e-02 1.132964119315147400e-01 6.236673891544342041e-02 3.898954987525939941e-01 4.683935046195983887e-01 -1.907573789358139038e-01 -8.480633795261383057e-02 8.150666835717856884e-04 4.254423081874847412e-01 -8.682640194892883301e-01 -3.629899621009826660e-01 9.179880470037460327e-02 1.639352887868881226e-01 -9.644938260316848755e-02 1.140041872859001160e-01 -3.127241730690002441e-01 -5.463166236877441406e-01 -2.813671529293060303e-01 -2.452674061059951782e-01 -8.899038657546043396e-03 1.950875222682952881e-01 -5.884187817573547363e-01 -4.260683059692382812e-01 -4.511204063892364502e-01 -3.501621186733245850e-01 -2.000000923871994019e-01 -2.540161907672882080e-01 3.621406853199005127e-02 3.759599477052688599e-02 -8.167057633399963379e-01 7.531622052192687988e-01 -3.006184697151184082e-01 -1.590146571397781372e-01 2.458096444606781006e-01 -4.444153010845184326e-01 -3.801352977752685547e-01 -4.307871162891387939e-01 4.352318644523620605e-01 -1.446883678436279297e-01 -7.186402082443237305e-01 1.388156414031982422e-01 -5.528779327869415283e-02 -8.296394348144531250e-02 1.031797975301742554e-01 1.147759184241294861e-01 2.830803580582141876e-02 9.470707923173904419e-02 6.116144824773073196e-03 -4.543183147907257080e-01 -8.185798525810241699e-01 -3.847494721412658691e-01 -2.163575291633605957e-01 -1.349089145660400391e-01 5.223835110664367676e-01 -2.664624750614166260e-01 -7.183124423027038574e-01
-2.199290134012699127e-02 2.268016189336776733e-01 6.186958551406860352e-01 -4.804847240447998047e-01 5.850560665130615234e-01 -1.041027680039405823e-01 2.156910896301269531e-01 -5.104099512100219727e-01 -1.621435433626174927e-01 -6.507225036621093750e-01 5.013706162571907043e-02 -3.171223700046539307e-01 -2.362934052944183350e-01 5.291218161582946777e-01 -3.240790367126464844e-01 -3.077302873134613037e-01 -4.560399055480957031e-01 -8.133862167596817017e-03 -6.626699566841125488e-01 3.551151752471923828e-01 6.471226811408996582e-01 -5.811759233474731445e-01 -7.680627703666687012e-01 -3.254735171794891357e-01 -1.923231631517410278e-01 7.141814380884170532e-02 8.283326774835586548e-02 -6.596720218658447266e-01 -4.203039109706878662e-01 5.573657155036926270e-01 -8.491884917020797729e-02 -2.614345401525497437e-02 4.154102206230163574e-01 -8.528143167495727539e-02 -7.280640602111816406e-01 -6.103404164314270020e-01 -4.567916989326477051e-01 -5.615052580833435059e-01 -3.940388560295104980e-01 -1.203670650720596313e-01 -2.163439393043518066e-01 -4.181545376777648926e-01 -2.357600182294845581e-01 4.288190603256225586e-01 -9.588190913200378418e-02 7.749633789062500000e-01 -5.767196416854858398e-01 1.707705557346343994e-01 3.693550080060958862e-02 6.871539950370788574e-01 3.033842444419860840e-01 -7.792517542839050293e-02 2.424338459968566895e-01 7.114197611808776855e-01 -4.988873898983001709e-01 -1.308014541864395142e-01 8.381983041763305664e-01 5.686631798744201660e-01 -5.498733520507812500e-01 1.914567202329635620e-01 -2.257948815822601318e-01 3.556504845619201660e-02 -4.173352122306823730e-01 4.010097309947013855e-02 -3.696107566356658936e-01 1.589072495698928833e-01 -3.690374642610549927e-02 -3.660368621349334717e-01 -1.266997400671243668e-02 -9.537319540977478027e-01 -1.601452231407165527e+00 -1.356488019227981567e-01 2.061653323471546173e-02 -7.436525225639343262e-01 1.882366463541984558e-02 -8.889238536357879639e-02 2.006147503852844238e-01 -1.006864979863166809e-01 -1.180550977587699890e-01 -3.193012773990631104e-01 5.251923203468322754e-01 1.202925667166709900e-02 7.908603549003601074e-02 -8.080176264047622681e-02 1.722585260868072510e-01 1.706086993217468262e-01 -1.400111019611358643e-01 -3.140364289283752441e-01 -9.534301161766052246e-01 6.836491636931896210e-03 9.306905418634414673e-02 -2.321038544178009033e-01 -3.854658901691436768e-01 -4.240565896034240723e-01 -6.659049540758132935e-02 -1.716771870851516724e-01 -2.269280999898910522e-01 -1.235285699367523193e-01 5.101395398378372192e-02 -1.057684049010276794e-01 -7.199625372886657715e-01 -6.505867242813110352e-01 3.167785108089447021e-01 5.442738533020019531e-02 -2.638590633869171143e-01 1.818655580282211304e-01 4.292747080326080322e-01 3.934518694877624512e-01 -5.093879699707031250e-01 4.842965304851531982e-01 3.405472636222839355e-01 -4.049608483910560608e-02 -2.938635461032390594e-02 -1.921715587377548218e-01 1.175995171070098877e-01 -8.158283680677413940e-02 -4.939443469047546387e-01 8.005131036043167114e-02 -2.929496765136718750e-01 -4.572717845439910889e-01 -7.970363497734069824e-01 -5.762368440628051758e-01 -6.756446957588195801e-01 3.123283088207244873e-01 -2.105892449617385864e-02 -9.305573999881744385e-02 -2.852713763713836670e-01 2.800022065639495850e-01 -4.979921281337738037e-01 1.966947764158248901e-01 6.161751598119735718e-02 6.667850911617279053e-02 -4.534947574138641357e-01 -1.939468532800674438e-01 1.031077802181243896e-01 6.947521120309829712e-02 1.027503684163093567e-01 -5.197088122367858887e-01 -6.492255926132202148e-01 -5.022389292716979980e-01 9.815426170825958252e-02 -3.442213237285614014e-01 3.114895522594451904e-01 9.946706891059875488e-02 -5.399831533432006836e-01 3.098169565200805664e-01 3.768045920878648758e-03 -5.386400222778320312e-01 -4.454991519451141357e-01 -1.746557503938674927e-01 -7.736409306526184082e-01 -2.456262111663818359e-01 -5.550503134727478027e-01 -7.158421277999877930e-01 -7.486624121665954590e-01 5.162069946527481079e-02 -3.378993272781372070e-01 -5.273662209510803223e-01 4.715901613235473633e-01 -1.292312443256378174e-01 4.327743947505950928e-01 5.286498665809631348e-01 3.160151541233062744e-01 4.156662151217460632e-03 -1.255279183387756348e+00 3.133875727653503418e-01 3.562493026256561279e-01 -4.020048677921295166e-01 -1.500842720270156860e-01 -1.413804590702056885e-01 -1.077057600021362305e+00 -5.049674957990646362e-02 -4.555056989192962646e-01 -2.195981591939926147e-01 -1.813994720578193665e-02 -4.136306419968605042e-02 -1.989598870277404785e-01 9.117729961872100830e-03 3.430193066596984863e-01 -4.760763943195343018e-01 2.261668145656585693e-01 -1.647633761167526245e-01 -5.824750065803527832e-01 -2.828483879566192627e-01 -3.704065978527069092e-01 2.497282922267913818e-01 -1.271616369485855103e-01 -1.858955062925815582e-02 3.907838165760040283e-01 -2.753178179264068604e-01 -7.407512068748474121e-01 -4.183518290519714355e-01 -3.563841581344604492e-01 2.642245590686798096e-01 -6.736319065093994141e-01 -3.389858901500701904e-01 -9.391251206398010254e-01 -3.971661627292633057e-02 -7.062551379203796387e-02 -1.264733970165252686e-01 -1.285059303045272827e-01 6.540526449680328369e-02 -1.060822367668151855e+00 -8.551848679780960083e-02 6.290443241596221924e-02 5.635606646537780762e-01 -1.288118004798889160e+00 3.244037032127380371e-01 -8.184420317411422729e-02 1.326735466718673706e-01 -1.390465021133422852e+00 5.932199768722057343e-03 -4.682106077671051025e-01 -6.678482890129089355e-01 -1.730000413954257965e-02 2.958540320396423340e-01 2.483494728803634644e-01 3.076436184346675873e-02 -3.262843787670135498e-01 -8.452806621789932251e-02 -4.454211294651031494e-01 -3.012838400900363922e-02 -7.709684967994689941e-01 -7.032153010368347168e-01 1.266569197177886963e-01 -5.624067783355712891e-01 -3.800765424966812134e-02 -6.866276264190673828e-01 7.590742111206054688e-01 -2.061486542224884033e-01 -1.149805914610624313e-02 7.616531252861022949e-01 -1.085407659411430359e-01 -3.496683835983276367e-01 -6.028893589973449707e-01 -4.734647572040557861e-01 -2.425188571214675903e-01 -5.837404131889343262e-01 -5.450774431228637695e-01 1.528261899948120117e-01 -3.800483644008636475e-01 -2.135293483734130859e-01 2.983732819557189941e-01 -8.458729386329650879e-01 -4.793073832988739014e-01 -2.962478399276733398e-01 -4.654510319232940674e-01 1.462543010711669922e-01 -2.646434307098388672e-01 -7.634469121694564819e-02 2.565402090549468994e-01 7.286988198757171631e-03 -8.327836394309997559e-01 2.055376917123794556e-01 -3.881884515285491943e-01 6.604812145233154297e-01
-6.723683476448059082e-01 -3.539647459983825684e-01 -3.111424744129180908e-01 1.846364438533782959e-01 -4.771787822246551514e-01 -4.273200929164886475e-01 -9.334677457809448242e-01 1.044283527880907059e-02 -4.930893182754516602e-01 -6.051822900772094727e-01 -5.180239081382751465e-01 -5.393995046615600586e-01 5.189012885093688965e-01 1.157387495040893555e-01 -6.568644642829895020e-01 1.748246699571609497e-01 -2.790056169033050537e-01 -4.337097704410552979e-01 3.261089324951171875e-02 -2.093642354011535645e-01 -2.235131114721298218e-01 6.435374915599822998e-02 -7.889260649681091309e-01 -7.016524672508239746e-01 1.543547213077545166e-01 -1.023517474532127380e-01 -8.883465081453323364e-02 -3.319794535636901855e-01 -5.336846113204956055e-01 -4.580501616001129150e-01 8.112829178571701050e-02 -2.997178137302398682e-01 2.472096681594848633e-02 -2.718325853347778320e-01 -3.420343697071075439e-01 -6.478097438812255859e-01 2.555005848407745361e-01 -2.676229476928710938e-01 -1.218923106789588928e-01 -2.576952874660491943e-01 -2.547082602977752686e-01 5.928787868469953537e-03 -2.475651204586029053e-01 4.902337193489074707e-01 -1.493978500366210938e-01 -1.158221960067749023e-01 -4.902862012386322021e-01 -4.281429648399353027e-01 -5.082212015986442566e-02 -2.598467469215393066e-01 -1.690848320722579956e-01 -3.772588372230529785e-01 1.200670301914215088e-01 -5.275493264198303223e-01 1.055181398987770081e-01 -3.274292349815368652e-01 1.014909371733665466e-01 -1.051344200968742371e-01 2.449616789817810059e-02 -1.374035626649856567e-01 -1.402913779020309448e-01 3.950674459338188171e-02 -5.819737315177917480e-01 8.656074851751327515e-02 -4.672130644321441650e-01 5.707086622714996338e-02 2.175688892602920532e-01 4.460055753588676453e-02 1.245460137724876404e-01 3.598365187644958496e-01 -2.803172171115875244e-01 8.318567276000976562e-02 -5.714878439903259277e-01 -6.392959952354431152e-01 -5.074304342269897461e-01 -2.997964620590209961e-01 -2.421723455190658569e-01 -1.204627156257629395e-01 -2.448917776346206665e-01 -3.744274675846099854e-01 -6.968419551849365234e-01 -5.351047515869140625e-01 6.605271995067596436e-02 -6.954530477523803711e-01 3.139590919017791748e-01 2.262915372848510742e-01 -2.447274774312973022e-01 -2.352610528469085693e-01 -3.117667324841022491e-02 2.716546356678009033e-01 -4.073720276355743408e-01 -2.104580551385879517e-01 -2.360213547945022583e-02 -2.534022927284240723e-01 -3.842673897743225098e-01 2.748107537627220154e-02 -1.105386137962341309e+00 -7.184927463531494141e-01 -3.848251998424530029e-01 -4.041292145848274231e-02 1.204837486147880554e-01 5.156306922435760498e-02 -1.194368004798889160e-01 5.348643288016319275e-02 -2.914857268333435059e-01 -2.159683704376220703e-01 3.462737202644348145e-01 -1.353997588157653809e-01 -1.096855551004409790e-01 -4.471630454063415527e-01 -3.900956809520721436e-01 2.119774222373962402e-01 -1.653534173965454102e-01 -6.144095063209533691e-01 -5.736423134803771973e-01 -2.929265797138214111e-01 -2.674158215522766113e-01 -1.876143813133239746e-01 -1.642839610576629639e-01 -1.146127060055732727e-01 -5.107552409172058105e-01 -2.559471130371093750e-01 -3.664918839931488037e-01 -2.280945032835006714e-01 -2.250941097736358643e-01 -3.700759261846542358e-02 -5.779775977134704590e-01 1.394874323159456253e-02 -3.846064805984497070e-01 -5.264760255813598633e-01 2.951051294803619385e-01 3.303787438198924065e-03 8.403506875038146973e-02 1.331828832626342773e-01 2.627517580986022949e-01 1.727138459682464600e-01 -3.532758951187133789e-01 6.741668283939361572e-02 -3.044711649417877197e-01 5.519154667854309082e-01 2.283921986818313599e-01 -4.658849239349365234e-01 -3.312961161136627197e-01 8.361718803644180298e-02 -3.318436443805694580e-01 -4.833835065364837646e-01 -4.878733456134796143e-01 -3.964579999446868896e-01 -8.127140998840332031e-01 6.388263404369354248e-02 2.382606267929077148e-01 -3.167969286441802979e-01 -2.898940742015838623e-01 -1.006234407424926758e+00 -1.776527017354965210e-01 -2.382746636867523193e-01 2.964995503425598145e-01 -3.900111317634582520e-01 8.734712004661560059e-02 -5.096391439437866211e-01 3.158282488584518433e-02 -6.827620267868041992e-01 -3.372063934803009033e-01 -2.512432038784027100e-01 -1.423120945692062378e-01 -1.565667837858200073e-01 -6.568412780761718750e-01 -7.691420912742614746e-01 1.285465657711029053e-01 -3.596269488334655762e-01 1.186861097812652588e-01 -5.259642750024795532e-02 -1.490702182054519653e-01 -2.958874106407165527e-01 1.657123118638992310e-02 2.900017201900482178e-01 -1.803440228104591370e-02 -2.344859689474105835e-01 1.818401366472244263e-01 -1.188569888472557068e-01 -2.902231812477111816e-01 -3.297625184059143066e-01 -2.596513032913208008e-01 -5.241168141365051270e-01 -8.388355374336242676e-02 6.662940979003906250e-02 2.781870961189270020e-01 -3.319732844829559326e-01 -2.092837244272232056e-01 -4.425593614578247070e-01 -1.167451515793800354e-01 -1.855149418115615845e-01 -1.576881483197212219e-02 -1.640442945063114166e-02 8.936116099357604980e-02 -4.987360239028930664e-01 6.793332099914550781e-02 -3.979035094380378723e-02 -9.018243104219436646e-02 -1.725528389215469360e-01 -1.276407837867736816e-01 -4.489808082580566406e-01 -4.627332091331481934e-01 -7.315254807472229004e-01 9.165098518133163452e-02 -3.589460253715515137e-01 -2.744466364383697510e-01 -2.630153596401214600e-01 1.152623295783996582e-01 -3.042638488113880157e-02 -3.563104197382926941e-02 -4.815032482147216797e-01 -4.513022303581237793e-02 -6.652612239122390747e-02 -2.522072196006774902e-01 -2.525139153003692627e-01 7.827094197273254395e-02 -6.430198997259140015e-02 -4.267564415931701660e-01 -4.636016488075256348e-01 -5.765921249985694885e-02 -5.615812167525291443e-02 1.214034929871559143e-01 -3.682194352149963379e-01 1.677425950765609741e-01 -7.784288525581359863e-01 2.254628539085388184e-01 5.170917883515357971e-02 -3.338229954242706299e-01 -4.494256973266601562e-01 -4.283882379531860352e-01 -7.799524664878845215e-01 8.428236097097396851e-02 -5.277625918388366699e-01 -4.145902991294860840e-01 5.287308618426322937e-02 -3.932718038558959961e-01 -1.747352480888366699e-01 -2.113278955221176147e-01 -2.538472414016723633e-01 -4.419508278369903564e-01 1.503055542707443237e-01 -3.089518845081329346e-02 -5.191154479980468750e-01 -4.406667351722717285e-01 -2.455844581127166748e-01 -2.164914608001708984e-01 -3.556300401687622070e-01 -6.388521790504455566e-01 -7.026419043540954590e-01 1.516684591770172119e-01 -2.211826145648956299e-01 8.247721940279006958e-02 -1.162554919719696045e-01 -2.517618834972381592e-01 -2.020197734236717224e-02
-3.810939192771911621e-01 2.075410038232803345e-01 -2.516146004199981689e-01 1.698891222476959229e-01 -1.792334020137786865e-01 1.665210276842117310e-01 -1.668210029602050781e-01 3.520866930484771729e-01 3.475300967693328857e-01 3.471442759037017822e-01 4.718965888023376465e-01 -5.163415670394897461e-01 8.058521198108792305e-04 -9.961185976862907410e-03 -2.563998401165008545e-01 5.493369698524475098e-01 -5.514436960220336914e-02 1.294159144163131714e-01 1.532135009765625000e-01 -2.884255908429622650e-02 -4.930387437343597412e-01 -7.670130133628845215e-01 7.202050089836120605e-01 -5.606120824813842773e-01 3.117433786392211914e-01 2.183271050453186035e-01 -8.969169855117797852e-02 1.419581025838851929e-01 3.234290778636932373e-01 -3.686186373233795166e-01 2.097877711057662964e-01 3.543555736541748047e-01 2.884335257112979889e-02 3.165796995162963867e-01 1.553246229887008667e-01 -3.546938598155975342e-01 -5.301119387149810791e-02 -5.632674694061279297e-01 5.586747527122497559e-01 -2.532687783241271973e-01 -8.178964853286743164e-01 -2.097143679857254028e-01 1.854730546474456787e-01 1.935572922229766846e-01 1.306943893432617188e-01 3.719064593315124512e-01 -2.342285066843032837e-01 9.533898234367370605e-01 -7.680495083332061768e-02 4.544566571712493896e-01 -4.269355162978172302e-02 -4.707954823970794678e-01 -2.029350250959396362e-01 4.372873306274414062e-01 2.280013114213943481e-01 -1.595611572265625000e-01 -5.626132488250732422e-01 -2.607425749301910400e-01 -1.068090051412582397e-01 1.203237473964691162e-01 -2.896361052989959717e-01 -2.478472441434860229e-01 -2.895588874816894531e-01 -2.017630338668823242e-01 1.171714290976524353e-01 -5.793642401695251465e-01 9.574436396360397339e-02 3.886821866035461426e-01 -1.814027279615402222e-01 -8.921567797660827637e-01 -1.170099675655364990e-01 5.647163093090057373e-02 4.262863695621490479e-01 -6.032451391220092773e-01 -3.708629906177520752e-01 2.118849605321884155e-01 -7.288667559623718262e-02 4.200450181961059570e-01 -1.266266465187072754e+00 -5.699467658996582031e-01 2.810582518577575684e-01 3.771197199821472168e-01 -3.967804908752441406e-01 -7.176517695188522339e-02 3.366045653820037842e-01 -3.674662411212921143e-01 -5.420565605163574219e-01 -4.321115612983703613e-01 1.091891974210739136e-01 5.116691812872886658e-02 -4.490565359592437744e-01 2.367817461490631104e-01 8.378391712903976440e-02 -6.727470159530639648e-01 -3.176338374614715576e-01 3.167640268802642822e-01 2.795216739177703857e-01 2.151319831609725952e-01 -9.064354896545410156e-01 2.479609251022338867e-01 -5.483208298683166504e-01 -7.711730599403381348e-01 -5.047320127487182617e-01 -3.295061588287353516e-01 2.846592068672180176e-01 -1.156260445713996887e-01 1.478461474180221558e-01 -4.120988845825195312e-01 5.431942939758300781e-01 1.522659091278910637e-03 -5.466181635856628418e-01 4.801923930644989014e-01 3.111068308353424072e-01 3.094075620174407959e-01 -5.783276259899139404e-02 -2.920217812061309814e-01 -2.915746569633483887e-01 -9.691291302442550659e-02 1.876329034566879272e-01 -5.354436859488487244e-02 3.414793312549591064e-01 3.444689512252807617e-01 -1.068369984626770020e+00 -8.010700345039367676e-01 3.873702883720397949e-01 -2.675863504409790039e-01 2.900624573230743408e-01 2.715019881725311279e-01 -1.355909407138824463e-01 -2.495262175798416138e-01 -7.939483523368835449e-01 3.041419982910156250e-01 9.215238690376281738e-02 3.754726648330688477e-01 1.979753077030181885e-01 -1.898099631071090698e-01 -5.387208461761474609e-01 -5.701661109924316406e-01 8.891854435205459595e-02 2.551280856132507324e-01 -5.802017450332641602e-02 2.547178566455841064e-01 -3.167673349380493164e-01 -7.697203010320663452e-02 1.757798939943313599e-01 1.960108429193496704e-01 1.797948591411113739e-02 -1.588496416807174683e-01 4.842500984668731689e-01 -1.915869116783142090e-01 -1.711297780275344849e-03 -4.696835875511169434e-01 6.229027360677719116e-02 -6.236801743507385254e-01 3.113837838172912598e-01 -9.625352025032043457e-01 -5.828750133514404297e-01 2.696089744567871094e-01 1.632818430662155151e-01 2.449587285518646240e-01 1.027293920516967773e+00 -9.940199553966522217e-02 2.602874338626861572e-01 -1.561632007360458374e-01 -1.089013367891311646e-01 1.630312055349349976e-01 1.495889481157064438e-02 -6.365408748388290405e-02 -6.000217199325561523e-01 -1.871379092335700989e-02 5.133901238441467285e-01 2.005602568387985229e-01 -6.088508293032646179e-02 1.789229810237884521e-01 -2.372721135616302490e-01 -1.074210405349731445e+00 5.948293805122375488e-01 -2.327972650527954102e-01 -1.068167686462402344e-01 6.356879323720932007e-02 -2.153767198324203491e-01 -2.875430285930633545e-01 3.627415895462036133e-01 8.834393322467803955e-02 -1.153994500637054443e-01 1.458956897258758545e-01 3.762841224670410156e-01 -4.371343553066253662e-02 -1.997731029987335205e-01 4.648276269435882568e-01 2.342579811811447144e-01 -2.397025227546691895e-01 1.426678150892257690e-01 -1.051329001784324646e-01 -4.617089629173278809e-01 3.527524173259735107e-01 -1.338426470756530762e+00 -2.398786544799804688e-01 -6.603084206581115723e-01 2.375440150499343872e-01 1.387473102658987045e-02 -4.278633296489715576e-01 -4.755700007081031799e-03 -5.493665933609008789e-01 4.565445482730865479e-01 6.334608197212219238e-01 -1.712624542415142059e-02 3.864145278930664062e-01 -9.020895361900329590e-01 -7.072941660881042480e-01 1.069372743368148804e-01 -9.317658841609954834e-03 2.443538457155227661e-01 -1.172305122017860413e-01 -4.193934202194213867e-01 3.088012635707855225e-01 3.902345597743988037e-01 -8.746318221092224121e-01 -7.384139895439147949e-01 -1.913301646709442139e-01 1.177903711795806885e-01 2.247030735015869141e-01 2.504340410232543945e-01 1.715896725654602051e-01 -4.488039612770080566e-01 -4.737154766917228699e-02 -8.573452830314636230e-01 -3.516191542148590088e-01 -5.112939476966857910e-01 -8.487501740455627441e-01 -4.129492342472076416e-01 1.281143277883529663e-01 2.720579504966735840e-01 -6.305657625198364258e-01 1.489705145359039307e-01 9.234941750764846802e-02 -1.346548050642013550e-01 -3.732760846614837646e-01 -1.431376934051513672e-01 -1.876253038644790649e-01 4.094740152359008789e-01 -3.440368548035621643e-02 -1.867221891880035400e-01 4.819032736122608185e-03 5.342292785644531250e-01 -3.698749244213104248e-01 1.050996854901313782e-01 2.389692515134811401e-01 -1.128660216927528381e-01 -1.564232110977172852e-01 5.299182534217834473e-01 2.464988827705383301e-01 6.521695852279663086e-01 -3.651935458183288574e-01 -2.978266179561614990e-01 6.139459013938903809e-01
-1.616107672452926636e-01 2.536424994468688965e-01 -2.823687195777893066e-01 -3.001914024353027344e-01 -5.683660507202148438e-01 -3.898147642612457275e-01 -8.916929364204406738e-02 -4.490133002400398254e-02 -6.949721574783325195e-01 3.648133277893066406e-01 -5.783274769783020020e-01 -5.686804056167602539e-01 -1.187379807233810425e-01 -4.733943846076726913e-03 -6.206606030464172363e-01 1.724987179040908813e-01 -2.861541137099266052e-02 -4.657993838191032410e-02 3.370630368590354919e-02 -7.093292474746704102e-01 -1.742517501115798950e-01 -5.811935067176818848e-01 -2.604606375098228455e-02 -1.798099577426910400e-01 4.602792263031005859e-01 -2.600950598716735840e-01 -1.075469031929969788e-01 1.025530230253934860e-02 1.564594060182571411e-01 -1.981929242610931396e-01 -1.970702111721038818e-01 1.102266982197761536e-01 -1.726070977747440338e-02 -4.171478003263473511e-02 -5.342327356338500977e-01 -4.679032862186431885e-01 2.933911979198455811e-01 -6.097611188888549805e-01 7.541603595018386841e-02 -2.751429677009582520e-01 -3.665421903133392334e-01 -2.440311461687088013e-01 -1.572805047035217285e-01 -2.895364724099636078e-02 7.967720180749893188e-02 -5.786443948745727539e-01 -1.084316894412040710e-01 -2.990241348743438721e-01 -8.162599056959152222e-02 -3.477256298065185547e-01 3.885836899280548096e-01 -6.102358698844909668e-01 -5.098936557769775391e-01 -2.906726598739624023e-01 2.979040145874023438e-01 1.308270543813705444e-01 4.763800501823425293e-01 -4.357689619064331055e-02 3.115836977958679199e-01 -2.198425680398941040e-01 2.754997089505195618e-02 -5.812929868698120117e-01 -8.283926844596862793e-01 -1.527961157262325287e-02 5.779070779681205750e-02 2.149877101182937622e-01 5.749893561005592346e-02 4.893628135323524475e-02 4.350723326206207275e-02 1.593954116106033325e-01 -3.426796756684780121e-03 5.133883953094482422e-01 8.714017271995544434e-02 1.351962387561798096e-01 -4.531187713146209717e-01 5.480454117059707642e-02 -4.193545281887054443e-01 -4.859561473131179810e-02 -2.844203710556030273e-01 1.922725141048431396e-01 -1.498000472784042358e-01 -1.408472508192062378e-01 1.271414756774902344e-01 -2.775850296020507812e-01 -1.125059947371482849e-01 -2.080362737178802490e-01 -7.117750048637390137e-01 9.673032164573669434e-02 -3.330102562904357910e-01 -2.216022908687591553e-01 -4.273501932621002197e-01 -1.986762732267379761e-01 -3.953553140163421631e-01 -6.160402297973632812e-01 1.554653197526931763e-01 -3.120242357254028320e-01 1.342155933380126953e-01 -2.886886000633239746e-01 -1.972111612558364868e-01 -7.568858265876770020e-01 2.665674984455108643e-01 4.583064615726470947e-01 7.927844673395156860e-02 5.517105460166931152e-01 -3.103521168231964111e-01 -6.114858388900756836e-01 -3.475949466228485107e-01 1.140672117471694946e-01 5.663977563381195068e-02 -4.882473647594451904e-01 2.534108757972717285e-01 4.366737604141235352e-01 -6.035412847995758057e-02 -3.795827627182006836e-01 -9.058416634798049927e-02 3.621193468570709229e-01 5.782787203788757324e-01 1.975960284471511841e-01 -4.880258738994598389e-01 -1.229515522718429565e-01 -4.377524554729461670e-01 -4.098398685455322266e-01 3.000901043415069580e-01 -1.853140592575073242e-01 -3.903464972972869873e-01 -2.447949647903442383e-01 -4.043788835406303406e-02 -5.099426507949829102e-01 1.341365128755569458e-01 -3.954281657934188843e-02 -6.745605915784835815e-02 -9.483634680509567261e-02 -3.228954076766967773e-01 -1.182025969028472900e-01 -1.747614443302154541e-01 3.661755025386810303e-01 -3.448939025402069092e-01 3.647646307945251465e-01 4.265523552894592285e-01 3.100290298461914062e-01 -6.714534163475036621e-01 -6.974421441555023193e-02 1.022018864750862122e-01 -3.491208255290985107e-01 4.438069760799407959e-01 -3.437349200248718262e-01 5.769377574324607849e-02 -1.696990989148616791e-02 8.816089481115341187e-03 -6.085867285728454590e-01 1.071395054459571838e-01 -5.773406624794006348e-01 -2.840351164340972900e-01 2.885345220565795898e-01 2.094634026288986206e-01 -1.444663107395172119e-01 2.511118352413177490e-01 -6.736329793930053711e-01 1.938810646533966064e-01 -1.013872921466827393e-01 3.391227424144744873e-01 -9.825121611356735229e-02 -2.268037199974060059e-01 -4.969445616006851196e-02 -3.351958990097045898e-01 -4.345214366912841797e-01 -6.106601357460021973e-01 3.911638259887695312e-01 4.370637536048889160e-01 1.050853952765464783e-01 -3.280388712882995605e-01 1.651338487863540649e-01 -2.727120518684387207e-01 -7.359372973442077637e-01 -1.586742401123046875e-01 4.746669232845306396e-01 2.086704820394515991e-01 -6.398944854736328125e-01 1.750184148550033569e-01 -5.517781376838684082e-01 -4.823631942272186279e-01 -4.133477509021759033e-01 -2.617582380771636963e-01 -6.023163795471191406e-01 -1.278261095285415649e-01 -4.515501856803894043e-01 -1.489183306694030762e-01 -4.137560129165649414e-01 -3.572564944624900818e-02 -5.822963118553161621e-01 -7.097995877265930176e-01 -2.893653213977813721e-01 -5.006125569343566895e-01 1.923370175063610077e-02 -6.415421515703201294e-02 2.616111636161804199e-01 -2.087070345878601074e-01 -2.800055742263793945e-01 8.556570112705230713e-02 -2.976816594600677490e-01 -6.139878034591674805e-01 -6.946181058883666992e-01 1.390092819929122925e-01 -3.037600815296173096e-01 -1.825695037841796875e-01 -8.842183351516723633e-01 -5.600557923316955566e-01 -1.682572960853576660e-01 1.776873767375946045e-01 -6.629799604415893555e-01 -6.063370704650878906e-01 -5.908994674682617188e-01 8.284877985715866089e-02 -2.389164268970489502e-01 -6.241698190569877625e-02 -4.702128171920776367e-01 -5.059944987297058105e-01 3.398665189743041992e-01 -9.339988976716995239e-02 1.093233600258827209e-01 -2.306666523218154907e-01 -8.267512917518615723e-01 3.304093778133392334e-01 -7.602900266647338867e-01 -3.480092883110046387e-01 -2.276204228401184082e-01 2.999574244022369385e-01 -4.626400470733642578e-01 -3.855929970741271973e-01 -2.535219490528106689e-01 1.099333837628364563e-01 1.888274699449539185e-01 2.309540361166000366e-01 5.072035193443298340e-01 -3.476818799972534180e-01 5.535524711012840271e-02 2.490532398223876953e-01 4.133440852165222168e-01 -4.941863566637039185e-02 3.683232963085174561e-01 -4.864006116986274719e-02 -7.250056862831115723e-01 -3.116736114025115967e-01 -9.500510990619659424e-02 1.191007345914840698e-02 -1.727086901664733887e-01 -2.292163074016571045e-01 -9.457913041114807129e-02 -5.292650461196899414e-01 -5.866740643978118896e-02 2.987185418605804443e-01 -3.453290164470672607e-01 -4.027324020862579346e-01 -6.993290185928344727e-01 -5.991123989224433899e-02 1.640597581863403320e-01
-1.312349140644073486e-01 -2.685150504112243652e-01 -1.831103265285491943e-01 -6.208479404449462891e-01 -3.571555614471435547e-01 2.840273380279541016e-01 9.912693500518798828e-01 2.679143799468874931e-03 -2.649044096469879150e-01 1.706059873104095459e-01 -5.435627698898315430e-01 8.250715583562850952e-02 -6.397930439561605453e-03 -1.215133741497993469e-01 -6.636443734169006348e-02 -5.707932710647583008e-01 -4.535109922289848328e-02 6.467441916465759277e-01 3.963742554187774658e-01 -2.582549154758453369e-01 4.015551209449768066e-01 -5.646067857742309570e-01 -1.669536828994750977e-01 3.189897537231445312e-01 -1.393384337425231934e-01 -2.630390599370002747e-02 6.594349145889282227e-01 -3.274016827344894409e-02 -2.227380312979221344e-02 6.492085009813308716e-02 -5.428832769393920898e-01 -7.187097799032926559e-03 -2.953732609748840332e-01 7.311984896659851074e-02 -1.447256565093994141e+00 3.831605613231658936e-01 4.000267088413238525e-01 2.176596373319625854e-01 2.625118754804134369e-02 -5.403681397438049316e-01 4.685389995574951172e-01 4.569765329360961914e-01 2.405684590339660645e-01 -6.231781244277954102e-01 -5.126778483390808105e-01 -7.319892197847366333e-02 -2.458032220602035522e-01 1.080665439367294312e-01 -4.365245103836059570e-01 1.563131064176559448e-01 -5.997011438012123108e-03 -4.507006108760833740e-01 -1.514162123203277588e-02 -1.870751231908798218e-01 -4.126349985599517822e-01 3.975318670272827148e-01 4.835978522896766663e-02 -8.765920996665954590e-01 3.552219271659851074e-01 -6.395891308784484863e-01 -2.559847533702850342e-01 -2.666380405426025391e-01 2.275043167173862457e-03 1.784331202507019043e-01 1.309948712587356567e-01 -7.357667684555053711e-01 -2.474243640899658203e-01 -8.401457667350769043e-01 -3.829242289066314697e-01 -4.130332171916961670e-01 -3.219354152679443359e-01 -5.690064430236816406e-01 -4.348206222057342529e-01 -7.458356022834777832e-02 2.723251581192016602e-01 5.703293681144714355e-01 -1.259651929140090942e-01 3.304477035999298096e-01 -2.251264005899429321e-01 -1.463494151830673218e-01 -2.096371538937091827e-02 3.419303297996520996e-01 -3.819263726472854614e-02 3.319729268550872803e-01 -6.404415965080261230e-01 6.421198844909667969e-01 3.524216711521148682e-01 9.534694254398345947e-02 2.065687030553817749e-01 -6.668568239547312260e-04 -5.276963114738464355e-01 4.810341298580169678e-01 3.874914944171905518e-01 1.982906907796859741e-01 1.535984426736831665e-01 -4.578038677573204041e-02 -3.333142101764678955e-01 -1.080269813537597656e-01 -2.694882154464721680e-01 -1.567232608795166016e-01 2.992488741874694824e-01 -2.271965891122817993e-01 9.716565161943435669e-02 -5.030756592750549316e-01 -3.721500337123870850e-01 -3.870980143547058105e-01 -7.202022522687911987e-02 1.918458491563796997e-01 -5.401482582092285156e-01 3.826684951782226562e-01 3.400845453143119812e-02 8.119039535522460938e-01 3.238150775432586670e-01 -6.666762232780456543e-01 1.811415851116180420e-01 4.081450700759887695e-01 -2.890067100524902344e-01 2.097138613462448120e-01 1.908558756113052368e-01 -2.030320465564727783e-01 3.548833429813385010e-01 5.988297462463378906e-01 1.094008982181549072e-01 6.797069311141967773e-02 -2.671554386615753174e-01 2.765656113624572754e-01 1.356680542230606079e-01 -7.649182081222534180e-01 2.654078900814056396e-01 -1.543544381856918335e-01 -2.925524711608886719e-01 3.576549887657165527e-01 -1.427846848964691162e-01 -1.826812773942947388e-01 3.277728855609893799e-01 8.072522282600402832e-02 -4.153922200202941895e-01 -8.682797551155090332e-01 -6.311714649200439453e-02 1.539003103971481323e-01 1.029921621084213257e-01 3.905357420444488525e-01 -8.106710910797119141e-01 2.170655280351638794e-01 4.946576431393623352e-02 -2.316790819168090820e-01 -8.797747083008289337e-03 -4.189916849136352539e-01 -3.195669651031494141e-01 -4.867422282695770264e-01 -9.491138905286788940e-02 1.603449136018753052e-01 6.466347724199295044e-03 8.816985413432121277e-03 -5.605167746543884277e-01 -3.706209957599639893e-01 3.442199230194091797e-01 5.000723600387573242e-01 -3.883996605873107910e-01 4.040404260158538818e-01 1.843103170394897461e-01 -2.628344893455505371e-01 1.860716640949249268e-01 2.525780498981475830e-01 3.170644342899322510e-01 -5.488184094429016113e-01 3.825764060020446777e-01 7.275634258985519409e-02 -4.435438513755798340e-01 2.316982746124267578e-01 -1.255134224891662598e+00 -3.068848252296447754e-01 -1.941971629858016968e-01 -8.882749825716018677e-02 -9.157999753952026367e-01 -4.981820285320281982e-01 2.279848009347915649e-01 -3.914206326007843018e-01 7.095108032226562500e-01 -9.763115048408508301e-01 -1.842464208602905273e-01 -4.767351448535919189e-01 -9.561951458454132080e-02 -7.919587194919586182e-02 2.497325688600540161e-01 3.817426264286041260e-01 2.739914357662200928e-01 3.234399557113647461e-01 3.073222935199737549e-01 -2.002502083778381348e-01 4.405330494046211243e-02 -2.213438600301742554e-01 -4.325951263308525085e-02 -2.475811988115310669e-01 -4.662447795271873474e-02 -4.724500775337219238e-01 4.617318212985992432e-01 4.759542644023895264e-01 -9.536661952733993530e-02 -2.134320735931396484e-01 7.004061341285705566e-02 1.350924074649810791e-01 2.501834630966186523e-01 1.415262818336486816e-01 -4.234551489353179932e-01 -2.077772170305252075e-01 -5.621770620346069336e-01 -9.822583794593811035e-01 -1.277821660041809082e-01 -1.400953680276870728e-01 1.892822980880737305e-01 -1.922389268875122070e-01 6.162563562393188477e-01 2.500783205032348633e-01 7.590230554342269897e-02 -6.692171692848205566e-01 -4.192949235439300537e-01 4.164695143699645996e-01 -1.964358538389205933e-01 -4.355485141277313232e-01 -1.996430801227688789e-03 -4.767148196697235107e-01 -1.705170422792434692e-01 3.083755373954772949e-01 -3.734568059444427490e-01 1.396933048963546753e-01 3.691926598548889160e-01 3.309966921806335449e-01 -5.915947556495666504e-01 -7.377021312713623047e-01 2.198693752288818359e-01 6.150391697883605957e-01 3.162825852632522583e-02 4.930927604436874390e-02 -9.238629788160324097e-02 7.582877278327941895e-01 -9.953839182853698730e-01 2.267624437808990479e-01 2.936256825923919678e-01 -4.132921397686004639e-01 2.345212250947952271e-01 -2.688683867454528809e-01 6.002969145774841309e-01 -2.658345103263854980e-01 -3.514975607395172119e-01 -5.189662575721740723e-01 4.755022227764129639e-01 -1.063858866691589355e+00 -1.762861162424087524e-01 4.300317168235778809e-02 -3.925947844982147217e-01 -1.814243197441101074e-01 -4.188126325607299805e-01 2.062515020370483398e-01 4.319608807563781738e-01 3.786878287792205811e-01
3.383480608463287354e-01 6.396909952163696289e-01 -4.531656205654144287e-01 2.480905950069427490e-01 4.464346468448638916e-01 5.184786915779113770e-01 -1.413958817720413208e-01 1.770971268415451050e-01 -5.650267601013183594e-01 -6.920350193977355957e-01 1.714469492435455322e-01 1.651791632175445557e-01 2.279340028762817383e-01 -5.693176984786987305e-01 2.769882977008819580e-01 -8.010303378105163574e-01 -4.095560014247894287e-01 6.516559123992919922e-01 -4.443911910057067871e-01 -5.452831983566284180e-01 6.293628364801406860e-02 -3.356036543846130371e-01 -6.891865730285644531e-01 -2.335637062788009644e-01 -4.714870452880859375e-01 1.036940887570381165e-01 1.050345301628112793e-01 2.189822643995285034e-01 1.759848296642303467e-01 -2.433514147996902466e-01 1.931650489568710327e-01 1.710792332887649536e-01 3.002369105815887451e-01 -3.419077992439270020e-01 -5.916786789894104004e-01 -2.643597424030303955e-01 7.318198680877685547e-01 -7.630173563957214355e-01 -3.203774988651275635e-01 -2.040415853261947632e-01 6.576003134250640869e-02 8.549344539642333984e-01 3.427339196205139160e-01 -4.465873241424560547e-01 3.560755848884582520e-01 -9.193557500839233398e-01 2.943204641342163086e-01 -5.499722361564636230e-01 3.458384573459625244e-01 -1.453346014022827148e-01 -3.424790203571319580e-01 -1.894921064376831055e-02 5.258522182703018188e-02 1.195412576198577881e-01 -5.306306108832359314e-02 -8.710057735443115234e-01 -2.119942307472229004e-01 -9.459162950515747070e-01 -1.861134320497512817e-01 -4.917405247688293457e-01 1.434544473886489868e-01 1.996763795614242554e-01 -9.173825383186340332e-01 8.251880854368209839e-02 -5.769394636154174805e-01 6.594426184892654419e-02 -2.112180441617965698e-01 -4.056726396083831787e-01 -3.554680049419403076e-01 -5.508357286453247070e-01 2.193884253501892090e-01 9.455046802759170532e-02 -4.035622775554656982e-01 8.919677734375000000e-01 1.349760442972183228e-01 4.599177241325378418e-01 2.189545929431915283e-01 -2.236613929271697998e-01 -3.539770245552062988e-01 8.390933275222778320e-02 2.928570508956909180e-01 -9.794067591428756714e-02 -2.206833511590957642e-01 3.199442625045776367e-01 -1.536291688680648804e-01 -1.184098701924085617e-02 -3.384386897087097168e-01 1.252291202545166016e-01 -3.139290213584899902e-01 4.956788569688796997e-02 -5.043931603431701660e-01 -5.538968443870544434e-01 3.329280018806457520e-01 -9.003579616546630859e-02 5.665985941886901855e-01 -5.139703750610351562e-01 6.433547139167785645e-01 4.056605398654937744e-01 2.256101071834564209e-01 -6.845881342887878418e-01 2.874323129653930664e-01 -6.823392212390899658e-02 6.540927290916442871e-01 9.583383798599243164e-02 -4.313649535179138184e-01 -9.478466957807540894e-02 -2.833185791969299316e-01 -3.760881349444389343e-02 1.373491883277893066e-01 2.260366082191467285e-01 -4.504745602607727051e-01 -2.016823291778564453e-01 -6.479795575141906738e-01 -7.673682272434234619e-02 -5.423714406788349152e-03 -1.977327466011047363e-02 -6.267012953758239746e-01 1.925240457057952881e-01 5.758972838521003723e-03 -1.584259867668151855e-01 2.789288759231567383e-01 1.077344715595245361e-01 5.198777094483375549e-02 3.395180702209472656e-01 -5.506281852722167969e-01 7.395446300506591797e-02 3.612869381904602051e-01 -6.335569024085998535e-01 -4.742286503314971924e-01 5.694571733474731445e-01 -5.609172582626342773e-01 -6.057550311088562012e-01 7.245454192161560059e-02 -1.066381931304931641e+00 -2.122853100299835205e-01 -5.172474384307861328e-01 1.789454072713851929e-01 3.274553716182708740e-01 6.575586199760437012e-01 2.986775338649749756e-01 -3.879580199718475342e-01 -6.198566555976867676e-01 -4.350063800811767578e-01 1.055743172764778137e-01 -3.761740028858184814e-01 4.312729239463806152e-01 -1.871235072612762451e-01 -1.052234396338462830e-01 -2.943336069583892822e-01 -2.001654542982578278e-02 5.068190097808837891e-01 2.387080527842044830e-02 -4.236623644828796387e-01 -3.764263987541198730e-01 1.410132497549057007e-01 -2.030121982097625732e-01 -5.121383666992187500e-01 -7.623584866523742676e-01 -3.143115341663360596e-01 1.344733536243438721e-01 -2.504764497280120850e-01 8.705537021160125732e-02 -3.968895077705383301e-01 3.127278685569763184e-01 5.418539047241210938e-01 -7.158779501914978027e-01 -4.921902120113372803e-01 5.173109769821166992e-01 -1.957726664841175079e-02 -1.012066230177879333e-01 -1.081802487373352051e+00 -1.472460031509399414e-01 2.586448490619659424e-01 -6.467156410217285156e-01 1.785966157913208008e-01 -5.255941748619079590e-01 3.810783326625823975e-01 4.784556031227111816e-01 -4.302123188972473145e-01 -1.274512112140655518e-01 -1.095641553401947021e-01 7.447051405906677246e-01 -4.300636053085327148e-01 2.452738881111145020e-01 -2.305968552827835083e-01 -3.368253409862518311e-01 -6.283388137817382812e-01 -1.801774650812149048e-01 -2.708117850124835968e-02 2.398173511028289795e-01 7.691022157669067383e-01 -5.238991379737854004e-01 3.243348300457000732e-01 -3.815388083457946777e-01 -8.900614827871322632e-02 -4.958670437335968018e-01 3.314524292945861816e-01 -6.760329008102416992e-01 -3.038492053747177124e-02 -5.925510525703430176e-01 -3.889982104301452637e-01 -7.930674403905868530e-02 -1.396436523646116257e-02 1.994481533765792847e-01 3.474621474742889404e-01 -8.967021852731704712e-02 -8.997265249490737915e-02 -4.772609174251556396e-01 -8.278816342353820801e-01 1.016489341855049133e-01 1.679407954216003418e-01 2.705914676189422607e-01 -6.866530776023864746e-01 2.127645313739776611e-01 -8.135998621582984924e-03 1.572041958570480347e-01 -2.774083912372589111e-01 2.400365471839904785e-01 7.111373543739318848e-02 -6.952894479036331177e-02 -2.491146922111511230e-01 -1.804722100496292114e-01 -6.149623543024063110e-02 -3.860045671463012695e-01 -3.324179649353027344e-01 -2.139999270439147949e-01 -4.757046699523925781e-02 3.288944065570831299e-01 -1.210981681942939758e-01 1.051067784428596497e-01 -2.497745752334594727e-01 3.780466318130493164e-01 1.093411520123481750e-01 4.117426276206970215e-02 3.301069140434265137e-01 -3.395785987377166748e-01 -3.480273187160491943e-01 -1.400288492441177368e-01 4.384196698665618896e-01 -5.316474661231040955e-02 1.131484378129243851e-02 -7.726941704750061035e-01 -6.468332409858703613e-01 1.392654031515121460e-01 -4.724742770195007324e-01 5.980511307716369629e-01 -2.952220737934112549e-01 -1.155377104878425598e-01 2.436553835868835449e-01 -5.435312390327453613e-01 -2.445424497127532959e-01 -2.884919345378875732e-01 -2.667380683124065399e-02 3.246500492095947266e-01 4.163661301136016846e-01 -2.379076182842254639e-02
2.905149757862091064e-01 -5.803612247109413147e-02 5.421743988990783691e-01 -2.851863205432891846e-01 2.095897346735000610e-01 -6.198851466178894043e-01 -1.796910762786865234e-01 6.262535452842712402e-01 -5.342069864273071289e-01 4.563740789890289307e-01 -3.678326010704040527e-01 8.485926687717437744e-02 -3.994657099246978760e-01 -2.441784590482711792e-01 5.578765273094177246e-02 -3.119509220123291016e-01 -1.766390651464462280e-01 -3.373578786849975586e-01 -1.182244196534156799e-01 -2.847498655319213867e-01 -1.076417416334152222e-01 -9.037458896636962891e-01 1.413196623325347900e-01 -1.831592768430709839e-01 1.822222620248794556e-01 -3.522885441780090332e-01 -1.729221642017364502e-01 -2.931320071220397949e-01 2.475950121879577637e-01 -2.551479041576385498e-01 -2.485270053148269653e-02 -4.322611391544342041e-01 -3.479397892951965332e-01 5.952891111373901367e-01 -8.590067178010940552e-02 2.204156070947647095e-01 -2.781425788998603821e-02 -1.992289125919342041e-01 1.594007201492786407e-02 -1.582897007465362549e-01 5.133348703384399414e-02 -8.795304894447326660e-01 4.264685213565826416e-01 -9.105048328638076782e-02 -9.830778837203979492e-02 7.839670032262802124e-02 7.338061463087797165e-03 8.086504787206649780e-02 3.672559261322021484e-01 2.775244712829589844e-01 -3.633641004562377930e-01 -1.437839269638061523e-01 1.823008432984352112e-02 1.851490437984466553e-01 -4.510070756077766418e-02 4.497382938861846924e-01 -8.327933959662914276e-03 -6.608007848262786865e-02 -4.938616454601287842e-01 -4.242046773433685303e-01 4.233106672763824463e-01 1.412866562604904175e-01 -1.126967191696166992e+00 -1.560788750648498535e-01 -1.232632324099540710e-01 3.524968624114990234e-01 2.944098412990570068e-01 -9.610733389854431152e-01 1.781360357999801636e-01 1.362304836511611938e-01 2.757735550403594971e-01 -2.283665239810943604e-01 3.023654520511627197e-01 -1.602394282817840576e-01 -5.108450055122375488e-01 -9.288202971220016479e-02 9.468857198953628540e-02 -1.369533240795135498e-01 -5.793378949165344238e-01 -3.637778013944625854e-02 1.117394566535949707e-01 2.389594018459320068e-01 1.173158362507820129e-01 2.350506186485290527e-01 -4.547011479735374451e-02 2.434130609035491943e-01 3.125970661640167236e-01 6.554281711578369141e-02 -2.392792552709579468e-01 1.139820814132690430e-01 3.060551881790161133e-01 -9.791596233844757080e-02 6.392583250999450684e-01 -9.482654929161071777e-02 -2.879243493080139160e-01 -2.697627544403076172e-01 -3.452617824077606201e-01 1.099383756518363953e-01 3.426207005977630615e-01 -8.941730111837387085e-02 -4.630445539951324463e-01 2.008563280105590820e-01 3.310330808162689209e-01 1.369125097990036011e-01 8.173757791519165039e-02 4.555093646049499512e-01 2.991848587989807129e-01 5.711444616317749023e-01 -2.911431789398193359e-01 -7.659710049629211426e-01 1.815944164991378784e-01 3.387742862105369568e-02 -1.306965053081512451e-01 -4.643713310360908508e-02 2.895280718803405762e-01 -1.296076923608779907e-01 -4.134668707847595215e-01 -1.237449049949645996e+00 -1.023384332656860352e-01 -8.098203539848327637e-01 6.157702952623367310e-02 -5.839231610298156738e-02 -3.113286010921001434e-02 -4.672763347625732422e-01 3.893560543656349182e-02 5.501283332705497742e-02 -1.432404071092605591e-01 -1.546934843063354492e-01 -3.809610903263092041e-01 -3.183143436908721924e-01 3.768809512257575989e-02 1.886676102876663208e-01 1.097132489085197449e-01 3.297641277313232422e-01 1.135732159018516541e-01 3.778681457042694092e-01 4.887172579765319824e-01 3.635301291942596436e-01 -4.818429350852966309e-01 -4.366680979728698730e-01 -1.833962947130203247e-01 -4.066636860370635986e-01 -7.828169316053390503e-02 2.019686996936798096e-01 -5.051463842391967773e-01 6.149098277091979980e-02 -6.982657909393310547e-01 -4.104453325271606445e-01 -1.140633150935173035e-01 -7.466326653957366943e-02 -2.419190406799316406e-01 -2.887101173400878906e-01 -3.628023713827133179e-02 1.098985150456428528e-01 2.027959227561950684e-01 2.429875880479812622e-01 1.064153388142585754e-01 1.268089264631271362e-01 -6.440309882164001465e-01 -2.802445739507675171e-02 7.823657989501953125e-02 5.888142585754394531e-01 -1.941460520029067993e-01 -4.772375226020812988e-01 -6.706243753433227539e-02 2.725384430959820747e-03 1.045475378632545471e-01 -5.621981024742126465e-01 5.635248497128486633e-02 1.116421539336442947e-02 -5.721351504325866699e-02 -7.524145841598510742e-01 -3.329006433486938477e-01 -1.007887244224548340e+00 -4.366200268268585205e-01 -1.598408818244934082e-01 9.866245985031127930e-01 -4.631355702877044678e-01 3.291501998901367188e-01 -6.049026846885681152e-01 -7.743889093399047852e-02 1.496231257915496826e-01 -1.851384490728378296e-01 5.037434399127960205e-02 3.638808131217956543e-01 -4.640751704573631287e-02 2.137335389852523804e-02 2.387692034244537354e-01 -8.128009438514709473e-01 -5.044053196907043457e-01 -3.827177286148071289e-01 4.001963138580322266e-01 -3.562948107719421387e-02 -8.627700805664062500e-01 5.301754474639892578e-01 -3.929440304636955261e-02 -3.390058577060699463e-01 2.211695462465286255e-01 2.184076160192489624e-01 1.719760745763778687e-01 1.509780734777450562e-01 2.607364952564239502e-01 -1.180990338325500488e-01 -1.230893656611442566e-01 1.456560567021369934e-02 -6.756410002708435059e-02 -2.962742149829864502e-01 -1.931577175855636597e-01 -2.387316972017288208e-01 -1.633242815732955933e-01 8.953985571861267090e-02 -3.300521969795227051e-01 4.996235072612762451e-01 -7.078109383583068848e-01 2.672552764415740967e-01 -1.967254430055618286e-01 1.215319633483886719e-01 2.722390592098236084e-01 -5.973292887210845947e-02 3.356851339340209961e-01 -2.247276157140731812e-01 -2.837725877761840820e-01 1.274009793996810913e-01 -2.695657908916473389e-01 -3.719078600406646729e-01 3.346324265003204346e-01 1.611296273767948151e-02 5.890581011772155762e-01 -1.583460867404937744e-01 2.480554729700088501e-01 7.536699771881103516e-01 1.427473425865173340e-01 -6.227876543998718262e-01 -2.955421507358551025e-01 4.132879376411437988e-01 3.247113153338432312e-02 5.877419114112854004e-01 1.543670594692230225e-01 1.209069415926933289e-01 -9.971977025270462036e-02 3.475056216120719910e-02 -2.395047545433044434e-01 4.207838475704193115e-01 -1.702292710542678833e-01 6.198828294873237610e-02 3.102419674396514893e-01 -5.602335557341575623e-02 2.023260891437530518e-01 1.122719123959541321e-01 -4.797164723277091980e-02 -2.181186825037002563e-01 3.038534522056579590e-01 -2.125981636345386505e-02 -6.536083668470382690e-02 1.932788938283920288e-01 -2.894866466522216797e-01
3.899523317813873291e-01 5.011510848999023438e-01 6.857979893684387207e-01 1.663231104612350464e-01 -1.957464367151260376e-01 -3.596999049186706543e-01 7.713766396045684814e-02 -2.002366930246353149e-01 -1.040222346782684326e-01 1.322762221097946167e-01 -1.491644382476806641e-01 4.309980571269989014e-01 -5.031083524227142334e-02 -1.874465793371200562e-01 -2.449630945920944214e-02 -3.423001766204833984e-01 -7.664986848831176758e-01 1.551877707242965698e-01 3.245923221111297607e-01 -1.161989688873291016e+00 6.727411597967147827e-02 3.199374973773956299e-01 3.329690694808959961e-01 3.662998974323272705e-01 -1.130292192101478577e-01 2.710376381874084473e-01 -2.993850111961364746e-01 7.009280323982238770e-01 -1.345219463109970093e-01 2.086806744337081909e-01 2.574672996997833252e-01 7.492733001708984375e-02 -2.311372943222522736e-02 -4.006898105144500732e-01 -2.825106382369995117e-01 -7.818892598152160645e-02 4.226230084896087646e-01 -1.067458167672157288e-01 1.726304441690444946e-01 -1.020157486200332642e-01 9.239259362220764160e-01 -6.115301847457885742e-01 -8.662920594215393066e-01 -3.293074071407318115e-01 -6.712264418601989746e-01 -2.433257848024368286e-01 -3.739368617534637451e-01 -1.118978261947631836e-01 8.272217586636543274e-03 -6.226807832717895508e-01 -6.370031088590621948e-02 1.564843654632568359e-01 -3.169775307178497314e-01 -3.375890851020812988e-01 -4.605005383491516113e-01 2.464454174041748047e-01 2.849542768672108650e-03 2.754596769809722900e-01 -1.683446913957595825e-01 1.588649302721023560e-01 -1.838142275810241699e-01 -2.263852059841156006e-01 -1.861593127250671387e-01 2.428931556642055511e-02 -1.670531779527664185e-01 1.349343210458755493e-01 2.837828695774078369e-01 3.815104067325592041e-01 -2.368383854627609253e-01 -7.162077724933624268e-02 7.696411013603210449e-02 -5.379438400268554688e-01 2.276123166084289551e-01 -2.299180328845977783e-01 -2.058424241840839386e-02 3.499703481793403625e-02 -7.083542943000793457e-01 -4.778180643916130066e-02 3.147180378437042236e-01 2.198341190814971924e-01 -6.659615635871887207e-01 1.906708627939224243e-01 -7.695939391851425171e-02 -2.889935672283172607e-01 -5.308247208595275879e-01 -1.773536056280136108e-01 -2.997894287109375000e-01 1.435594856739044189e-01 2.680489718914031982e-01 -2.439684122800827026e-01 -1.184521093964576721e-01 -3.790045678615570068e-01 -3.938740491867065430e-02 6.682836413383483887e-01 -4.223474562168121338e-01 -6.993830204010009766e-01 -1.373026669025421143e-01 -5.054120421409606934e-01 -5.381549000740051270e-01 -2.553296387195587158e-01 6.782581210136413574e-01 5.324971675872802734e-02 2.980797290802001953e-01 -7.462369650602340698e-02 -1.621600538492202759e-01 -9.703541398048400879e-01 -6.350759863853454590e-01 1.003715991973876953e-01 -6.562541723251342773e-01 4.342139661312103271e-01 5.966781377792358398e-01 1.728585213422775269e-01 -6.421480774879455566e-01 -5.541933774948120117e-01 -1.069206595420837402e-01 1.769494861364364624e-01 -5.271928906440734863e-01 -1.311051193624734879e-02 -4.931514561176300049e-01 -1.929723918437957764e-01 1.349948048591613770e-01 -6.601151227951049805e-01 6.122230887413024902e-01 4.369392395019531250e-01 -2.333182692527770996e-01 -1.308218985795974731e-01 -3.507453948259353638e-02 -1.410499066114425659e-01 2.289226502180099487e-01 -1.949626505374908447e-01 3.827356994152069092e-01 -5.054092407226562500e-01 -3.010353147983551025e-01 -6.916987299919128418e-01 -3.584049344062805176e-01 -8.089248090982437134e-02 1.746362596750259399e-01 -8.053826689720153809e-01 5.303008556365966797e-01 -1.480630338191986084e-01 -4.829393327236175537e-01 2.368987798690795898e-01 8.063213825225830078e-01 -6.764602065086364746e-01 -1.122839078307151794e-01 -6.075361371040344238e-01 -5.196532607078552246e-01 -2.550014853477478027e-01 -6.615910679101943970e-02 -2.611189484596252441e-01 -2.105568498373031616e-01 -2.491636276245117188e-01 2.091873735189437866e-01 -4.228829443454742432e-01 -2.075688987970352173e-01 2.500682771205902100e-01 8.480434864759445190e-02 -6.881515383720397949e-01 9.930828213691711426e-02 -4.213221967220306396e-01 2.242269963026046753e-01 -2.559300065040588379e-01 -5.861486867070198059e-02 -3.579253256320953369e-01 4.244985058903694153e-02 -4.244459271430969238e-01 4.182534664869308472e-02 -3.390262424945831299e-01 -8.653964847326278687e-02 -1.112962258048355579e-03 2.653954029083251953e-01 -1.419715699739754200e-03 -4.789204299449920654e-01 -6.418447196483612061e-02 2.031511068344116211e-01 2.397510707378387451e-01 -2.680740058422088623e-01 -6.923616528511047363e-01 -8.127088844776153564e-02 -3.775599896907806396e-01 -1.068270877003669739e-01 -2.948589920997619629e-01 3.371112644672393799e-01 2.710346132516860962e-02 2.501680254936218262e-01 -6.497128605842590332e-01 3.252189159393310547e-01 -2.333986759185791016e-01 4.458290040493011475e-01 -1.313840970396995544e-02 -7.794301956892013550e-02 -6.152595877647399902e-01 2.150405570864677429e-02 -2.543674111366271973e-01 1.547010093927383423e-01 1.597560942173004150e-01 1.430453062057495117e-01 -1.141241431236267090e+00 3.440464735031127930e-01 -3.605850338935852051e-01 1.011878326535224915e-01 1.217274591326713562e-01 -8.571786433458328247e-02 3.526517450809478760e-01 -1.974640786647796631e-02 -8.276721090078353882e-02 8.703026920557022095e-02 -4.912111461162567139e-01 4.881224036216735840e-02 -7.224722504615783691e-01 -1.950085759162902832e-01 5.979222059249877930e-01 -9.338409900665283203e-01 -2.744795009493827820e-02 -4.623340964317321777e-01 -8.671952486038208008e-01 -2.552950680255889893e-01 -5.781972408294677734e-01 3.652081191539764404e-01 -3.427924215793609619e-01 2.395304851233959198e-02 -2.072396576404571533e-01 5.243258085101842880e-03 8.550255745649337769e-02 -9.742018580436706543e-01 2.101615220308303833e-01 4.983030557632446289e-01 -2.245607227087020874e-01 -2.795071005821228027e-01 7.898235917091369629e-01 3.873070180416107178e-01 3.770675361156463623e-01 -6.372354626655578613e-01 1.795589476823806763e-01 -3.177895843982696533e-01 1.400772333145141602e-01 1.537977457046508789e-01 -3.441846370697021484e-01 6.020468473434448242e-01 -2.022302001714706421e-01 -8.313157409429550171e-02 -6.019197106361389160e-01 -7.944655418395996094e-01 -2.005835175514221191e-01 -6.713265776634216309e-01 -4.199616611003875732e-01 1.377538144588470459e-01 -5.741699934005737305e-01 6.183925643563270569e-02 -2.751377522945404053e-01 3.394986316561698914e-02 9.718945622444152832e-02 -8.104404211044311523e-01 4.271682500839233398e-01 -2.988028228282928467e-01 2.615799605846405029e-01
-5.646596550941467285e-01 1.293735206127166748e-01 2.148289680480957031e-01 -2.187438011169433594e-01 -3.869578242301940918e-01 -2.818961739540100098e-01 1.461842656135559082e-01 9.651156514883041382e-02 -4.514766335487365723e-01 1.650555580854415894e-01 5.572362542152404785e-01 -1.632896512746810913e-01 -7.022465467453002930e-01 3.942087888717651367e-01 6.731420755386352539e-01 -2.720491290092468262e-01 3.209271728992462158e-01 -6.268272399902343750e-01 8.487036079168319702e-02 8.813328742980957031e-01 4.702552258968353271e-01 3.017753362655639648e-01 3.926727473735809326e-01 -6.813306212425231934e-01 -5.099774003028869629e-01 -7.663930058479309082e-01 2.430299222469329834e-01 -1.584421545267105103e-01 -3.147540092468261719e-01 -4.780776798725128174e-01 -9.534615278244018555e-01 -6.032454371452331543e-01 -3.799479603767395020e-01 3.745147883892059326e-01 3.056505322456359863e-01 -3.507536053657531738e-01 -3.837004899978637695e-01 2.288894504308700562e-01 -3.397133350372314453e-01 1.371281147003173828e-01 -3.285570740699768066e-01 -9.253501892089843750e-02 -7.506219148635864258e-01 2.089695632457733154e-01 -1.839547455310821533e-01 -5.289151668548583984e-01 -6.895046234130859375e-01 -2.478165924549102783e-02 -1.135270148515701294e-01 -3.674746453762054443e-01 4.145087897777557373e-01 3.955042958259582520e-01 2.856195271015167236e-01 6.534023880958557129e-01 -8.286014795303344727e-01 -5.647101998329162598e-01 -3.356287479400634766e-01 -1.443397402763366699e-01 1.123150158673524857e-02 9.218233823776245117e-02 2.172246575355529785e-01 1.337615549564361572e-01 4.509174823760986328e-01 -1.762163341045379639e-01 4.747415482997894287e-01 -6.660345792770385742e-01 -4.320564866065979004e-01 -2.725281417369842529e-01 -2.131686210632324219e-01 -6.548740863800048828e-01 -2.809884492307901382e-03 -2.038400620222091675e-01 -1.001784205436706543e+00 -4.912709593772888184e-01 2.498075813055038452e-01 3.639972209930419922e-01 2.577611207962036133e-01 -5.752233862876892090e-01 -2.344054132699966431e-01 -7.402946949005126953e-01 6.273182630538940430e-01 8.460608869791030884e-02 -3.870227560400962830e-02 1.123769022524356842e-02 2.487675100564956665e-02 3.343739211559295654e-01 -4.157216846942901611e-01 -2.572983205318450928e-01 -5.678991973400115967e-02 -3.244754970073699951e-01 3.257949948310852051e-01 1.788824498653411865e-01 2.125789970159530640e-01 -8.257066458463668823e-02 9.111499786376953125e-02 -4.593529701232910156e-01 -1.495856344699859619e-01 2.192159444093704224e-01 -9.420391917228698730e-01 4.528657719492912292e-02 4.225504398345947266e-01 2.405301928520202637e-01 3.400555551052093506e-01 -6.489781141281127930e-01 6.297221779823303223e-02 -1.540421071695163846e-04 9.053771197795867920e-02 3.352886438369750977e-01 -2.076414972543716431e-01 1.818311959505081177e-01 8.367382735013961792e-02 -9.665836691856384277e-01 1.546572241932153702e-02 -2.952847182750701904e-01 7.426771521568298340e-02 -2.618187367916107178e-01 -2.165202796459197998e-01 -3.737943768501281738e-01 -5.408065319061279297e-01 -1.157526612281799316e+00 -5.740908980369567871e-01 -2.190993726253509521e-01 -7.710003852844238281e-02 1.672807484865188599e-01 4.167042076587677002e-01 -8.945056200027465820e-01 -8.205784559249877930e-01 -4.429383277893066406e-01 -4.056761264801025391e-01 6.904281973838806152e-01 -1.558842360973358154e-01 1.992350965738296509e-01 -1.219848990440368652e-01 -2.481167465448379517e-01 -1.058531880378723145e+00 -2.207134217023849487e-01 7.896449416875839233e-02 1.631320267915725708e-01 -1.559008210897445679e-01 8.188087493181228638e-02 6.586657464504241943e-02 4.431320354342460632e-03 -2.863490879535675049e-01 -7.103282958269119263e-03 -1.986894905567169189e-01 1.026653870940208435e-01 1.298431307077407837e-01 -3.209158480167388916e-01 2.269531190395355225e-01 6.598426401615142822e-02 3.063913881778717041e-01 4.436010122299194336e-01 -1.270297020673751831e-01 7.277745604515075684e-01 4.181908443570137024e-02 1.582722067832946777e-01 -6.812910735607147217e-02 1.376194208860397339e-01 -5.058925747871398926e-01 -1.592801138758659363e-02 -2.229802124202251434e-02 -7.289535403251647949e-01 1.218049749732017517e-01 -7.159816622734069824e-01 -4.605754911899566650e-01 1.402870006859302521e-02 1.084533408284187317e-01 -3.002566397190093994e-01 3.365283012390136719e-01 4.133172333240509033e-01 -4.358073472976684570e-01 4.209815263748168945e-01 -6.913977861404418945e-02 -1.403030706569552422e-03 -3.412047028541564941e-01 -2.611748501658439636e-02 -2.442833781242370605e-01 4.220901429653167725e-01 -4.351665675640106201e-01 -4.082108736038208008e-01 -4.998217895627021790e-02 -1.136190723627805710e-02 2.668818235397338867e-01 -4.858446419239044189e-01 3.786051571369171143e-01 1.083355620503425598e-01 1.199791580438613892e-01 -3.996707797050476074e-01 2.343497574329376221e-01 -2.612915635108947754e-01 -1.237513199448585510e-01 -1.327134668827056885e-01 -4.948496520519256592e-01 -9.570087492465972900e-02 -2.000378519296646118e-01 -7.994915246963500977e-01 -5.234619975090026855e-01 -1.526602953672409058e-01 -2.553997039794921875e-01 -2.789709866046905518e-01 -1.786200404167175293e-01 2.430476844310760498e-01 -1.991016119718551636e-01 2.592692673206329346e-01 -4.291829168796539307e-01 -3.380797505378723145e-01 -3.070219755172729492e-01 -1.968133449554443359e-01 2.199652045965194702e-01 -4.784030318260192871e-01 3.713601455092430115e-02 -1.446332931518554688e-01 -5.872230529785156250e-01 -1.462324638850986958e-03 -2.088340669870376587e-01 5.914375558495521545e-02 9.146379232406616211e-01 -6.150887012481689453e-01 2.863421142101287842e-01 8.909419924020767212e-02 1.100918412208557129e+00 4.191605374217033386e-02 -4.538986980915069580e-01 -3.417229056358337402e-01 1.916631460189819336e-01 -4.936572909355163574e-02 -5.834370851516723633e-01 -1.263416409492492676e-01 -5.658990740776062012e-01 -3.670096769928932190e-02 -6.906722784042358398e-01 -3.060777187347412109e-01 1.933065950870513916e-01 1.365909874439239502e-01 -4.076400101184844971e-01 -6.263077259063720703e-01 -8.625844717025756836e-01 -6.303777098655700684e-01 -2.434133738279342651e-01 -6.135604381561279297e-01 -3.670948445796966553e-01 -2.766592800617218018e-01 2.764279544353485107e-01 -1.866314411163330078e-01 3.250907659530639648e-01 3.589488863945007324e-01 -1.698667407035827637e-01 5.049519538879394531e-01 1.552168428897857666e-01 -1.662548184394836426e-01 -3.949032425880432129e-01 -3.899195492267608643e-01 7.182031124830245972e-02 -8.725760132074356079e-02 7.895204424858093262e-01 2.284153848886489868e-01
-2.308118343353271484e-01 -1.929647773504257202e-01 6.577782630920410156e-01 2.242887914180755615e-01 4.451236724853515625e-01 1.377394795417785645e-01 -8.063416481018066406e-01 -6.631881594657897949e-01 -4.764277935028076172e-01 -2.826556861400604248e-01 -5.164264440536499023e-01 -3.673208132386207581e-02 7.277554366737604141e-03 5.114143490791320801e-01 -7.591311633586883545e-02 -8.348385989665985107e-02 8.179759383201599121e-01 1.707596927881240845e-01 -1.351016163825988770e-01 -9.815542697906494141e-01 4.600544273853302002e-02 -1.672313213348388672e-01 -2.901956737041473389e-01 -6.147193908691406250e-01 3.610486388206481934e-01 -4.387435317039489746e-01 -1.159079521894454956e-01 -6.051890850067138672e-01 -2.933013737201690674e-01 -4.023621082305908203e-01 5.664746761322021484e-01 1.810672506690025330e-02 6.963293552398681641e-01 2.820134162902832031e-01 6.553789228200912476e-02 -5.069108605384826660e-01 9.208819270133972168e-02 2.533264756202697754e-01 2.736591398715972900e-01 1.433580964803695679e-01 -4.692977666854858398e-01 -2.379157207906246185e-02 2.784128785133361816e-01 -5.085804462432861328e-01 -3.311749100685119629e-01 1.612557917833328247e-01 -3.025388121604919434e-01 2.574529312551021576e-02 4.428540766239166260e-01 6.980885267257690430e-01 -4.039980173110961914e-01 2.550697885453701019e-02 3.922550976276397705e-01 -7.578701376914978027e-01 2.332113832235336304e-01 1.309056431055068970e-01 2.980535328388214111e-01 5.020539760589599609e-01 -9.473756700754165649e-02 -3.565850257873535156e-01 -5.197036266326904297e-01 5.535334348678588867e-01 -6.942863464355468750e-01 1.221652850508689880e-01 -4.608754813671112061e-01 6.198950409889221191e-01 -3.636929020285606384e-02 -1.934501826763153076e-01 -1.456004381179809570e-02 -2.711014747619628906e-01 5.042094588279724121e-01 -1.526656299829483032e-01 4.663028717041015625e-01 -2.862328886985778809e-01 -9.035708308219909668e-01 -2.234235405921936035e-01 -4.802952110767364502e-01 1.886994242668151855e-01 -1.396511793136596680e-01 1.156174615025520325e-01 -7.395028471946716309e-01 3.213241100311279297e-01 2.628766298294067383e-01 -1.345882117748260498e-01 -7.756178975105285645e-01 -2.088206410408020020e-01 7.123284786939620972e-02 -9.092836976051330566e-01 -1.736019700765609741e-01 4.742475152015686035e-01 9.044272825121879578e-03 -3.103027045726776123e-01 1.177975833415985107e-01 -6.670456379652023315e-02 -2.075353264808654785e-01 -5.220968648791313171e-02 -6.255419254302978516e-01 -1.849611252546310425e-01 -1.767484992742538452e-01 -1.108194589614868164e-01 -1.600199043750762939e-01 -1.063849255442619324e-01 -1.812554299831390381e-01 -8.069713711738586426e-01 7.049740552902221680e-01 2.051113098859786987e-01 6.903989613056182861e-02 -9.198129922151565552e-02 -9.920291602611541748e-02 -3.049183785915374756e-01 -4.056327790021896362e-02 1.365772336721420288e-01 -5.185361504554748535e-01 7.436514645814895630e-02 -1.095422625541687012e+00 -8.602025359869003296e-02 -8.275800943374633789e-02 -2.174212485551834106e-01 7.544616237282752991e-03 -1.561799645423889160e-01 -5.360558032989501953e-01 -4.406804740428924561e-01 -5.590043663978576660e-01 -5.509843826293945312e-01 -3.922817111015319824e-01 -2.998466193675994873e-01 -5.577461719512939453e-01 -1.210652757436037064e-02 -3.193078041076660156e-01 -2.144410461187362671e-02 -3.491990640759468079e-02 3.370209038257598877e-01 9.913590550422668457e-02 1.174076274037361145e-01 -2.441987246274948120e-01 -1.535305082798004150e-01 2.953068315982818604e-01 7.062847167253494263e-02 -3.771162033081054688e-01 1.167680621147155762e-01 -6.987694185227155685e-03 3.802891969680786133e-01 1.599022746086120605e-01 1.220945194363594055e-01 -6.256738305091857910e-01 -1.178022027015686035e+00 -4.713334739208221436e-01 -5.660848617553710938e-01 -2.114731073379516602e-01 2.176721096038818359e-01 -2.493526339530944824e-01 -2.758133113384246826e-01 1.242669448256492615e-01 -5.454391241073608398e-01 -3.637654483318328857e-01 5.112317800521850586e-01 -8.048053383827209473e-01 -2.901116907596588135e-01 6.368149816989898682e-02 -2.803490459918975830e-01 1.923521459102630615e-01 -1.953120827674865723e-01 1.761265099048614502e-01 -3.018981814384460449e-01 -7.616336941719055176e-01 3.728896006941795349e-02 5.919734835624694824e-01 -2.758322358131408691e-01 1.387563645839691162e-01 -3.457482457160949707e-01 -5.531672853976488113e-03 -3.942855000495910645e-01 3.604852855205535889e-01 -1.486153751611709595e-01 7.201722860336303711e-01 -1.258409768342971802e-01 5.826104283332824707e-01 -1.017652377486228943e-01 -3.207456171512603760e-01 -7.958016395568847656e-01 2.426900342106819153e-02 -7.307750731706619263e-02 2.986687794327735901e-02 3.992038592696189880e-02 2.108172327280044556e-01 -1.520437300205230713e-01 3.874129951000213623e-01 -4.546904936432838440e-03 5.457006096839904785e-01 -5.728482007980346680e-01 5.700396001338958740e-02 1.820320636034011841e-01 -2.891350686550140381e-01 -5.977473258972167969e-01 1.409804075956344604e-01 -6.771903485059738159e-02 -8.673858828842639923e-03 -4.808193147182464600e-01 7.988113164901733398e-01 5.244522690773010254e-01 -5.358402729034423828e-01 -2.827138900756835938e-01 1.011890769004821777e-01 4.952068328857421875e-01 7.027823012322187424e-03 2.358858138322830200e-01 3.263090252876281738e-01 -3.970519602298736572e-01 3.453958034515380859e-02 1.238787621259689331e-01 -5.302259325981140137e-01 -1.818063259124755859e-01 -5.832321196794509888e-02 -5.387197732925415039e-01 4.664137959480285645e-01 -4.707980751991271973e-01 9.905274957418441772e-02 1.077502295374870300e-01 -2.376099377870559692e-01 -2.431574463844299316e-01 3.599064946174621582e-01 5.052671432495117188e-01 4.115642607212066650e-01 -4.945412278175354004e-01 -1.619223207235336304e-01 4.499003589153289795e-01 -8.353384584188461304e-02 -1.834807544946670532e-01 -3.210081905126571655e-02 -4.808632433414459229e-01 4.544204100966453552e-02 1.313358694314956665e-01 -2.976123094558715820e-01 -5.932237505912780762e-01 2.865925133228302002e-01 -9.746614098548889160e-02 2.367405444383621216e-01 2.576401233673095703e-01 -6.248223185539245605e-01 5.560233592987060547e-01 -1.799232810735702515e-01 -6.034429669380187988e-01 3.920094370841979980e-01 -4.037604629993438721e-01 -2.971323020756244659e-02 -3.495675027370452881e-01 2.413859367370605469e-01 -6.011829376220703125e-01 -1.322501748800277710e-01 -4.595335125923156738e-01 7.345385104417800903e-02 1.717537492513656616e-01 4.142625033855438232e-01 5.613248422741889954e-02 -3.175943791866302490e-01 3.575344681739807129e-01
-6.475735902786254883e-01 3.236077427864074707e-01 1.930935978889465332e-01 4.712915513664484024e-03 -8.107705116271972656e-01 1.116509735584259033e-01 5.388811230659484863e-02 3.337796926498413086e-01 -2.182044088840484619e-01 3.936141431331634521e-01 4.894286990165710449e-01 7.242378592491149902e-02 6.337718963623046875e-01 9.128719568252563477e-02 -3.695740103721618652e-01 2.775782644748687744e-01 -4.810292720794677734e-01 -1.110693067312240601e-01 -5.808087438344955444e-02 4.258666634559631348e-01 -2.318703234195709229e-01 -3.761690557003021240e-01 9.286610409617424011e-03 -5.142632126808166504e-01 -5.811988711357116699e-01 -2.958043813705444336e-01 5.829098448157310486e-02 -5.737787485122680664e-01 1.474170386791229248e-01 6.662607192993164062e-01 3.608082532882690430e-01 -3.845591247081756592e-01 -3.681978583335876465e-01 -7.770662195980548859e-03 1.391362547874450684e-01 4.273271858692169189e-01 4.040988087654113770e-01 -4.832051098346710205e-01 -2.309314012527465820e-01 -2.683639526367187500e-01 1.252674460411071777e-01 3.632633090019226074e-01 -8.133674412965774536e-02 7.586756348609924316e-01 -3.348115086555480957e-01 -9.600268304347991943e-02 -1.901927739381790161e-01 -3.142082095146179199e-01 -6.612730622291564941e-01 -6.612105965614318848e-01 4.322161152958869934e-02 2.143571525812149048e-01 5.241743326187133789e-01 4.686155915260314941e-01 1.132556423544883728e-01 -2.194877713918685913e-01 2.620859444141387939e-01 -2.115164548158645630e-01 -8.869425654411315918e-01 -1.596874743700027466e-01 5.091453790664672852e-01 5.191474556922912598e-01 -4.723666310310363770e-01 -5.328723788261413574e-01 7.646495699882507324e-01 -1.546703428030014038e-01 -6.824456900358200073e-02 3.185337781906127930e-02 -3.375135958194732666e-01 -1.428453624248504639e-01 -3.164077550172805786e-02 -7.395643740892410278e-02 -3.241453766822814941e-01 2.872523665428161621e-01 5.890647172927856445e-01 4.361678957939147949e-01 -3.203189000487327576e-02 -2.547487616539001465e-01 7.149516791105270386e-02 -1.479807198047637939e-01 1.116364821791648865e-01 -6.733948588371276855e-01 -5.746074914932250977e-01 -5.460116863250732422e-01 -1.584103107452392578e-01 4.042118489742279053e-01 9.703919291496276855e-01 1.805601874366402626e-03 -1.920118778944015503e-01 5.245525836944580078e-01 -6.114379167556762695e-01 -3.954786062240600586e-01 -4.101827740669250488e-02 3.373167514801025391e-01 4.035913944244384766e-01 -3.751496672630310059e-01 -6.379320025444030762e-01 -6.502639055252075195e-01 3.659288883209228516e-01 1.848303824663162231e-01 -7.587491273880004883e-01 -2.132779210805892944e-01 -1.282902121543884277e+00 3.739622831344604492e-01 6.885886192321777344e-02 6.413889527320861816e-01 3.167297244071960449e-01 -3.084625303745269775e-01 9.295773692429065704e-03 -1.176032871007919312e-01 -6.097028255462646484e-01 -6.400466561317443848e-01 6.122045516967773438e-01 -2.448169142007827759e-01 3.247157037258148193e-01 1.709789335727691650e-01 -9.040169119834899902e-01 -4.510370790958404541e-01 8.362132310867309570e-02 -9.018547087907791138e-02 1.335722953081130981e-01 -2.179879099130630493e-01 -1.080830097198486328e-01 6.300584971904754639e-02 1.747121959924697876e-01 -3.432992100715637207e-01 -5.742319226264953613e-01 -8.744368702173233032e-02 -1.981228590011596680e-01 -1.584481447935104370e-01 7.719115354120731354e-03 2.087275683879852295e-01 -1.732448115944862366e-02 -1.266175359487533569e-01 5.342940092086791992e-01 2.180949449539184570e-01 -1.119203120470046997e-01 -6.678975224494934082e-01 -1.915005445480346680e-01 4.182780906558036804e-02 -2.600789070129394531e-01 1.071494966745376587e-01 -7.416921257972717285e-01 -8.638567477464675903e-02 5.905904173851013184e-01 1.443378627300262451e-01 -3.366584479808807373e-01 -5.250930190086364746e-01 -7.326924800872802734e-01 1.350909620523452759e-01 2.480642199516296387e-01 4.688509702682495117e-01 -2.720375657081604004e-01 3.832562267780303955e-01 -3.399176001548767090e-01 -1.709312647581100464e-01 -6.554898619651794434e-01 -6.840752810239791870e-02 -4.540590941905975342e-02 -6.790668964385986328e-01 5.798358321189880371e-01 3.905739188194274902e-01 -7.394746541976928711e-01 -6.925829648971557617e-01 -2.784636020660400391e-01 1.303708180785179138e-02 -4.587475061416625977e-01 2.683830820024013519e-02 6.708332803100347519e-03 2.296786196529865265e-02 -1.285490512847900391e+00 2.928402647376060486e-02 6.823357939720153809e-02 -1.702844351530075073e-01 -2.025237977504730225e-01 -1.242499798536300659e-02 -7.923809885978698730e-01 -3.320903331041336060e-02 -7.170630693435668945e-01 -1.054497510194778442e-01 1.615180671215057373e-01 3.365122973918914795e-01 -1.025750994682312012e+00 3.773296475410461426e-01 -3.778745234012603760e-02 1.631786376237869263e-01 -2.814753949642181396e-01 -2.724866569042205811e-01 -1.873214095830917358e-01 3.582772016525268555e-01 -5.101659893989562988e-02 -3.371140956878662109e-01 -1.654600650072097778e-01 -4.506765007972717285e-01 4.710357785224914551e-01 -2.153788357973098755e-01 4.211617410182952881e-01 2.271954268217086792e-01 -6.259726285934448242e-01 -1.084159966558218002e-02 1.413499414920806885e-01 -4.790544211864471436e-01 1.779106855392456055e-01 -3.681606054306030273e-01 -4.630852341651916504e-01 7.403660565614700317e-02 7.242282032966613770e-01 -5.209298804402351379e-02 -8.844115734100341797e-01 1.070058271288871765e-01 -2.112971097230911255e-01 -4.741747081279754639e-01 -5.453238487243652344e-01 -5.004779696464538574e-01 -6.525624990463256836e-01 -3.268382251262664795e-01 -4.294406473636627197e-01 -2.155004441738128662e-01 4.795916974544525146e-01 1.279000192880630493e-01 -4.858029186725616455e-01 -4.316827654838562012e-01 3.015630245208740234e-01 -6.505520641803741455e-02 -1.406394839286804199e-01 -1.253753006458282471e-01 -6.263738274574279785e-01 3.742873370647430420e-01 4.771712422370910645e-01 7.672303915023803711e-01 -9.282533526420593262e-01 -4.326991438865661621e-01 6.620137691497802734e-01 -1.955302059650421143e-01 3.381002247333526611e-01 6.487310677766799927e-02 -1.964272707700729370e-01 -8.294105529785156250e-02 -4.677616357803344727e-01 -3.153876960277557373e-01 -8.127732276916503906e-01 1.420707553625106812e-01 2.887388467788696289e-01 -6.514245271682739258e-01 -1.839542537927627563e-01 -3.855793178081512451e-01 -3.505014628171920776e-02 3.016125559806823730e-01 4.475371837615966797e-01 -5.802221894264221191e-01 -7.777609229087829590e-01 2.835509777069091797e-01 -1.036054566502571106e-01 -2.045396417379379272e-01 1.918774214573204517e-03 -7.181637287139892578e-01
-2.769165039062500000e-01 -3.795914053916931152e-01 -4.365238249301910400e-01 -1.770123690366744995e-01 -1.551400986500084400e-03 -5.864363312721252441e-01 -1.048353314399719238e+00 4.454935193061828613e-01 -1.155846476554870605e+00 2.557985484600067139e-01 5.091835260391235352e-01 -2.191262692213058472e-01 4.448791742324829102e-01 3.212069869041442871e-01 -2.416924834251403809e-01 3.687497973442077637e-02 -1.005227863788604736e-01 -8.215135335922241211e-02 1.516003608703613281e-01 1.514089703559875488e-01 3.445383161306381226e-02 -7.919809818267822266e-01 1.931476891040802002e-01 -8.648504614830017090e-01 -4.515959620475769043e-01 -5.373339056968688965e-01 2.622843980789184570e-01 -3.162464797496795654e-01 3.559724688529968262e-01 -2.788082957267761230e-01 -1.393507122993469238e-01 -2.282379269599914551e-01 -5.398155450820922852e-01 1.702477186918258667e-01 -3.213714957237243652e-01 -2.906224429607391357e-01 -8.908504247665405273e-02 -7.893098592758178711e-01 -1.762146800756454468e-01 -1.406572461128234863e-01 3.272709548473358154e-01 -1.405425071716308594e-01 -3.080496490001678467e-01 -2.819399833679199219e-01 2.094321101903915405e-01 -6.619232892990112305e-01 3.684562146663665771e-01 -3.529613912105560303e-01 -6.184956431388854980e-01 -6.257846206426620483e-02 8.284405618906021118e-02 -7.538789510726928711e-02 2.577624320983886719e-01 -3.678464144468307495e-02 5.346415638923645020e-01 -5.662906169891357422e-01 -1.788740754127502441e-01 -3.730249106884002686e-01 1.910041570663452148e-01 -4.540277123451232910e-01 2.093130946159362793e-01 3.176981955766677856e-02 -1.380498111248016357e-01 4.417484998703002930e-01 -9.880937635898590088e-02 1.896721124649047852e-01 1.580780558288097382e-02 4.750656485557556152e-01 -1.392451822757720947e-01 2.862055003643035889e-01 4.246429502964019775e-01 -2.265555709600448608e-01 -1.253553777933120728e-01 5.004453659057617188e-01 -4.065077602863311768e-01 4.417063668370246887e-02 2.753236889839172363e-01 -3.497103154659271240e-01 -3.311360478401184082e-01 -3.475355803966522217e-01 -3.390790522098541260e-01 1.414082497358322144e-01 7.222110778093338013e-02 -2.870197594165802002e-02 4.549707472324371338e-01 7.375969737768173218e-02 2.153272554278373718e-02 -1.195780709385871887e-01 -4.658535420894622803e-01 -1.174079775810241699e-01 1.736093163490295410e-01 -8.277817964553833008e-01 -2.924827337265014648e-01 3.279063999652862549e-01 -2.452141493558883667e-01 6.889984756708145142e-02 -2.804865241050720215e-01 -9.165602177381515503e-02 2.905845940113067627e-01 -2.259651124477386475e-01 2.068726122379302979e-01 2.228641659021377563e-01 -2.156231552362442017e-01 -2.335686422884464264e-02 -7.802090793848037720e-02 -2.721516788005828857e-01 -5.814223084598779678e-03 3.919062018394470215e-01 -1.756611764430999756e-01 -1.907466799020767212e-01 1.743849217891693115e-01 -4.580737352371215820e-01 -4.525585174560546875e-01 2.866016328334808350e-01 -5.499143898487091064e-02 -7.937827706336975098e-02 7.263537049293518066e-01 -8.643978834152221680e-02 -7.641615271568298340e-01 -1.110234856605529785e-01 -2.017272114753723145e-01 -4.683981835842132568e-01 7.753521949052810669e-02 -8.547564148902893066e-01 -1.653047353029251099e-01 -4.793058335781097412e-01 -5.788290500640869141e-01 -7.732933759689331055e-01 1.480716764926910400e-01 -1.609604805707931519e-01 2.581969499588012695e-01 4.391207993030548096e-01 4.616863727569580078e-01 -6.618687510490417480e-01 4.139761030673980713e-01 2.717740833759307861e-01 -6.081301569938659668e-01 3.319307267665863037e-01 -2.137644886970520020e-01 1.022267639636993408e-01 -7.044036984443664551e-01 -2.267956435680389404e-01 -2.040239749476313591e-03 -4.495537579059600830e-01 1.413347870111465454e-01 -2.089106440544128418e-01 -9.256668686866760254e-01 -6.744241714477539062e-01 2.751423716545104980e-01 -6.037493422627449036e-02 -2.983268797397613525e-01 4.528862535953521729e-01 8.897881954908370972e-02 3.560028672218322754e-01 1.346453279256820679e-01 7.368984222412109375e-01 -1.334352046251296997e-01 -3.366110026836395264e-01 -7.257017493247985840e-01 -3.456478714942932129e-01 -3.934715390205383301e-01 2.911236882209777832e-01 -2.067017704248428345e-01 -1.146558761596679688e+00 -6.589854136109352112e-03 8.545142412185668945e-02 -2.820986807346343994e-01 -4.535541832447052002e-01 5.276254937052726746e-02 -1.029822379350662231e-01 1.558885723352432251e-01 3.031045757234096527e-02 -3.826146423816680908e-01 -2.347339540719985962e-01 3.255286514759063721e-01 8.434932231903076172e-01 -2.779899351298809052e-02 -7.762266993522644043e-01 -2.118299603462219238e-01 -6.628873944282531738e-01 -4.192349612712860107e-01 -5.250856280326843262e-01 1.227745115756988525e-01 8.181945234537124634e-02 1.006581783294677734e-01 -2.909829914569854736e-01 -2.578223049640655518e-01 1.004726886749267578e-01 -5.297167301177978516e-01 -3.971988260746002197e-01 4.335123300552368164e-01 4.775011539459228516e-01 -2.924830019474029541e-01 -1.395319253206253052e-01 -7.704374790191650391e-01 -9.633860737085342407e-02 -2.858033180236816406e-01 -3.557671606540679932e-01 -1.759345680475234985e-01 -4.110609889030456543e-01 2.284373044967651367e-01 8.385143429040908813e-02 -6.332968473434448242e-01 -2.853747606277465820e-01 3.529169410467147827e-02 -1.120365023612976074e+00 3.874107301235198975e-01 -6.179960817098617554e-02 3.274803161621093750e-01 -6.058373674750328064e-02 -4.990948140621185303e-01 1.544746905565261841e-01 -2.385844588279724121e-01 -7.922238856554031372e-02 5.911463499069213867e-01 -5.532075464725494385e-02 2.222748249769210815e-01 -1.062929183244705200e-01 -4.054100811481475830e-01 5.088922977447509766e-01 -1.940406858921051025e-01 -1.836887001991271973e-01 -4.174054786562919617e-02 1.259184777736663818e-01 1.369907706975936890e-01 -4.042271077632904053e-01 -7.640596032142639160e-01 3.915596008300781250e-01 -7.250148057937622070e-02 -1.618290841579437256e-01 -2.849695086479187012e-01 -2.050699740648269653e-01 -2.000550925731658936e-01 6.440691649913787842e-02 5.264127254486083984e-02 -3.664057254791259766e-01 1.652926504611968994e-01 -3.333244919776916504e-01 -4.492501020431518555e-01 -6.100692152976989746e-01 6.656420230865478516e-02 -1.148376520723104477e-02 2.976890094578266144e-02 7.775019407272338867e-01 -4.064077138900756836e-01 1.745654195547103882e-01 -1.274895817041397095e-01 3.154984116554260254e-01 4.648583233356475830e-01 8.621617406606674194e-02 -5.311899185180664062e-01 -3.219057321548461914e-01 -2.176303565502166748e-01 3.839845657348632812e-01 -2.425225079059600830e-01 -1.434814482927322388e-01
