8.618395030498504639e-02
-2.313044667243957520e-01
2.461123317480087280e-01
-7.738664001226425171e-02
-1.978120356798171997e-01
-2.213926613330841064e-01
1.024997532367706299e-01
2.638678252696990967e-01
1.581294834613800049e-01
1.173437535762786865e-01
-4.391157627105712891e-02
-1.075083464384078979e-01
1.652585417032241821e-01
-8.407829329371452332e-03
-1.817086637020111084e-01
-9.710904955863952637e-02
-1.126228943467140198e-01
3.740075230598449707e-01
1.312873363494873047e-01
5.807942524552345276e-02
2.692705392837524414e-02
-8.605387806892395020e-02
-5.404130369424819946e-02
4.559786021709442139e-01
-4.377179220318794250e-02
9.791390039026737213e-03
1.299792826175689697e-01
-3.564716875553131104e-02
4.070494323968887329e-02
-3.487508893013000488e-01
4.372943565249443054e-02
4.708232823759317398e-03
1.906425575725734234e-03
3.440329730510711670e-01
1.840868890285491943e-01
-2.218934297561645508e-01
2.792183756828308105e-01
2.069195955991744995e-01
2.008510231971740723e-01
1.407623291015625000e-01
1.651690304279327393e-01
-1.302013844251632690e-01
3.364912867546081543e-01
-1.672437191009521484e-01
-6.711256504058837891e-02
-2.822489291429519653e-02
2.020334452390670776e-01
-1.482870280742645264e-01
-8.741294033825397491e-03
1.285080313682556152e-01
1.450717449188232422e-01
6.271852552890777588e-02
2.475076168775558472e-02
-1.768983155488967896e-02
2.804210484027862549e-01
1.790186017751693726e-01
-7.991502434015274048e-02
-1.280667781829833984e-01
1.293936371803283691e-01
1.307701170444488525e-01
-1.225663125514984131e-01
2.021911442279815674e-01
-2.095473259687423706e-01
1.946944743394851685e-02
4.032237082719802856e-02
8.886589109897613525e-02
-4.618421196937561035e-02
4.669978916645050049e-01
-2.789169847965240479e-01
3.384018540382385254e-01
1.152931675314903259e-01
7.788835465908050537e-02
-3.785128146409988403e-02
3.789480626583099365e-01
-6.238151341676712036e-02
2.826881706714630127e-01
2.249992340803146362e-01
1.358021795749664307e-01
1.071685254573822021e-01
2.843915298581123352e-02
1.397854834794998169e-01
3.021370768547058105e-01
1.426776349544525146e-01
1.037316396832466125e-01
-9.553118050098419189e-02
2.059721350669860840e-01
2.165063321590423584e-01
1.414013803005218506e-01
5.419396758079528809e-01
1.420691162347793579e-01
2.436460852622985840e-01
1.041551232337951660e-01
6.223808974027633667e-02
9.661459177732467651e-02
3.883143141865730286e-02
-8.570787310600280762e-02
2.344874739646911621e-01
-3.715944662690162659e-02
-1.547002494335174561e-01
9.155640378594398499e-03
-4.155118390917778015e-02
1.112376004457473755e-01
-1.003877371549606323e-01
-1.785751432180404663e-03
-7.998640835285186768e-02
-2.112847566604614258e-01
-7.545915246009826660e-02
8.157148957252502441e-02
2.501645088195800781e-01
2.359998673200607300e-01
1.555880755186080933e-01
7.355401758104562759e-03
-3.760343044996261597e-02
-1.388142704963684082e-01
1.135782599449157715e-01
1.752204000949859619e-01
-1.477094143629074097e-01
-8.446310646831989288e-03
-8.643185347318649292e-02
-2.208174206316471100e-02
-3.891120897606015205e-03
1.734252870082855225e-01
4.393015801906585693e-01
3.106893897056579590e-01
1.069606691598892212e-01
1.322897989302873611e-02
-1.877619922161102295e-01
4.939010832458734512e-03
1.546865254640579224e-01
8.983830362558364868e-02
4.028765484690666199e-02
8.021648228168487549e-02
2.879332602024078369e-01
1.111737787723541260e-01
-7.152725011110305786e-02
-8.436944335699081421e-02
1.749825030565261841e-01
-1.639089919626712799e-02
9.967821091413497925e-02
-5.613405257463455200e-02
-6.446374952793121338e-02
4.223806038498878479e-02
-6.650876253843307495e-02
9.223964810371398926e-02
-3.396653831005096436e-01
2.371743619441986084e-01
1.691403687000274658e-01
-1.201132982969284058e-01
1.321678459644317627e-01
-6.607028096914291382e-02
1.786641627550125122e-01
2.631339728832244873e-01
1.065845340490341187e-01
1.677333414554595947e-01
2.283081412315368652e-01
-2.133850939571857452e-02
3.380432426929473877e-01
-3.038703650236129761e-02
-6.655091792345046997e-02
-1.870191991329193115e-01
2.537088096141815186e-01
-2.678097784519195557e-02
2.190778851509094238e-01
-2.218879610300064087e-01
2.890555858612060547e-01
-1.626600623130798340e-01
1.837611496448516846e-01
-4.669375345110893250e-02
2.074013501405715942e-01
1.372698135673999786e-02
8.609344065189361572e-02
5.363322049379348755e-02
1.041062176227569580e-01
-1.674848347902297974e-01
1.559524983167648315e-01
2.802931889891624451e-02
1.908611953258514404e-01
2.383148223161697388e-01
-3.567939624190330505e-02
2.915587127208709717e-01
-1.270221173763275146e-01
3.068622648715972900e-01
2.522575259208679199e-01
4.556199163198471069e-02
1.731209605932235718e-01
2.623007297515869141e-01
-1.177180707454681396e-01
5.563366785645484924e-02
2.723057568073272705e-01
2.110096514225006104e-01
3.610408604145050049e-01
1.652326285839080811e-01
1.540736705064773560e-01
8.110760152339935303e-02
3.337354585528373718e-02
2.234582901000976562e-01
-1.797215044498443604e-01
1.493901759386062622e-01
2.482807040214538574e-01
4.559653997421264648e-02
-8.352585136890411377e-02
-9.924092143774032593e-02
1.180428713560104370e-01
-1.160978302359580994e-01
1.711730360984802246e-01
2.310085594654083252e-01
2.904296815395355225e-01
2.956241667270660400e-01
-2.546309828758239746e-01
1.522103995084762573e-01
-2.036666274070739746e-01
1.656121611595153809e-01
3.577369153499603271e-01
4.548729956150054932e-01
-8.762999624013900757e-02
1.230192929506301880e-01
-9.498097747564315796e-02
1.101518422365188599e-01
2.464163489639759064e-02
3.144308030605316162e-01
-1.405558455735445023e-02
2.474315017461776733e-01
1.226868405938148499e-01
6.421767920255661011e-02
-8.267723023891448975e-02
1.263958066701889038e-01
-7.888593524694442749e-02
5.841863155364990234e-02
-1.859531179070472717e-02
-6.170883774757385254e-02
7.105757296085357666e-02
-8.421524614095687866e-02
1.552506089210510254e-01
5.910662561655044556e-02
5.726277455687522888e-02
-2.927193641662597656e-01
1.969003379344940186e-01
1.432302296161651611e-01
2.995499968528747559e-01
8.803241699934005737e-02
1.574144810438156128e-01
-8.570354431867599487e-02
-3.973444178700447083e-02
2.101228535175323486e-01
1.076882183551788330e-01
5.873596668243408203e-02
2.509441971778869629e-01
1.419277191162109375e-01
8.750969916582107544e-02
-6.514360755681991577e-02
-7.242874801158905029e-02
-2.167781889438629150e-01
2.217687815427780151e-01
8.826018124818801880e-02
1.734416186809539795e-01
1.217666342854499817e-01
