3.626938909292221069e-02
2.266148291528224945e-02
-3.801136836409568787e-02
2.573732100427150726e-02
-1.117691956460475922e-02
-5.377345532178878784e-02
-3.648876771330833435e-02
2.183373644948005676e-02
1.356748864054679871e-02
1.863286346197128296e-01
-8.056795224547386169e-03
5.365739762783050537e-02
-3.825404867529869080e-02
2.067301422357559204e-03
-1.672316901385784149e-02
4.855459928512573242e-02
-5.056984722614288330e-03
-5.038530007004737854e-02
2.319620549678802490e-01
2.740587806329131126e-03
1.602847874164581299e-01
-8.196492493152618408e-02
-5.824809893965721130e-02
1.061155870556831360e-01
-3.182956203818321228e-02
1.189129985868930817e-02
3.365583717823028564e-03
-8.437661081552505493e-02
-1.959006488323211670e-02
-2.115821093320846558e-02
7.272289693355560303e-02
4.023342858999967575e-03
1.154069155454635620e-01
1.513637453317642212e-01
-1.119111943989992142e-02
-5.555088073015213013e-02
4.069324210286140442e-02
6.719145923852920532e-02
1.142698228359222412e-01
5.355289950966835022e-02
-2.160923788323998451e-03
1.847408562898635864e-01
-2.995107695460319519e-02
1.064741685986518860e-01
-3.446649014949798584e-02
8.421457558870315552e-02
-1.580889970064163208e-01
-9.412797540426254272e-02
2.932940982282161713e-02
1.381751149892807007e-02
-8.939713984727859497e-02
-1.795671880245208740e-02
-1.451211981475353241e-02
2.500498294830322266e-02
8.637671917676925659e-02
9.075004607439041138e-02
9.314971417188644409e-02
-1.204290054738521576e-02
1.007710546255111694e-01
-3.925584629178047180e-02
-4.776307195425033569e-02
-2.676788717508316040e-02
4.517676308751106262e-02
-1.387799531221389771e-01
1.101600900292396545e-01
-3.869166597723960876e-02
-4.134846106171607971e-02
-4.383181780576705933e-02
1.062210649251937866e-02
1.810645870864391327e-02
1.132184118032455444e-01
3.109240718185901642e-02
1.677279919385910034e-01
1.445644348859786987e-01
-9.265242144465446472e-03
6.923149526119232178e-02
-8.826214820146560669e-02
1.328758597373962402e-01
-3.858354687690734863e-02
-7.381851971149444580e-02
1.018981784582138062e-01
-1.002885699272155762e-01
7.333678752183914185e-02
-1.758915185928344727e-02
-1.202707886695861816e-01
5.699541047215461731e-02
1.330044399946928024e-02
7.319220900535583496e-02
4.681101068854331970e-02
1.724107377231121063e-02
9.662862867116928101e-02
1.961967162787914276e-02
5.743455141782760620e-02
-5.810363963246345520e-02
1.157314050942659378e-02
5.629939213395118713e-02
1.281613707542419434e-01
-1.801832392811775208e-02
-3.350367397069931030e-02
2.063446491956710815e-01
-1.001418754458427429e-01
6.477877032011747360e-03
3.023553267121315002e-02
-1.764166541397571564e-02
1.852199085988104343e-03
-8.904954046010971069e-02
7.046566903591156006e-02
5.063553899526596069e-02
1.880150735378265381e-01
4.283606633543968201e-02
3.765036538243293762e-02
1.017390005290508270e-02
-1.778676174581050873e-02
7.450756430625915527e-02
-5.733720958232879639e-02
7.755383104085922241e-02
3.232357278466224670e-02
9.009917825460433960e-02
2.626850269734859467e-02
3.889669850468635559e-02
9.610087424516677856e-02
-1.210017688572406769e-02
4.722508601844310760e-03
-1.064616255462169647e-02
3.233578428626060486e-02
7.407119870185852051e-02
-6.526232697069644928e-03
9.469947963953018188e-02
-6.722174584865570068e-02
1.365642398595809937e-01
-2.518207021057605743e-02
1.744671911001205444e-01
6.138838455080986023e-02
-5.529012065380811691e-03
-9.687367081642150879e-02
-2.475962042808532715e-02
2.304090410470962524e-01
2.512831687927246094e-01
2.312322519719600677e-02
-8.845952153205871582e-02
5.856125801801681519e-02
-4.949529096484184265e-02
4.846192896366119385e-02
-2.529556676745414734e-02
1.532991696149110794e-02
-2.795769087970256805e-02
9.419343620538711548e-02
5.409192666411399841e-02
7.512972503900527954e-02
4.177309945225715637e-02
1.198976021260023117e-02
-1.048398986458778381e-01
-6.125666573643684387e-02
1.556977536529302597e-02
1.013412699103355408e-01
-1.538295485079288483e-02
-1.463147066533565521e-02
2.515626549720764160e-01
8.320768177509307861e-02
8.166456222534179688e-02
-6.506823003292083740e-02
6.746067199856042862e-03
-9.009177982807159424e-02
1.453346852213144302e-02
1.127466633915901184e-01
-1.783343777060508728e-02
-3.783923387527465820e-02
-7.933999598026275635e-02
-1.020404975861310959e-02
2.778851659968495369e-03
6.424885988235473633e-02
1.437723785638809204e-01
8.340254426002502441e-02
4.915651679039001465e-02
1.106872335076332092e-01
5.182601138949394226e-02
-2.042174153029918671e-02
6.924135232111439109e-05
-1.269103437662124634e-01
-7.842240482568740845e-02
1.001275330781936646e-01
-2.430781722068786621e-02
1.852809041738510132e-01
-4.405949264764785767e-02
3.402087092399597168e-02
8.851036429405212402e-02
-2.916136384010314941e-02
-1.360815390944480896e-02
1.891294680535793304e-02
1.820795610547065735e-02
3.289622068405151367e-02
-2.213456109166145325e-02
-4.806300252676010132e-02
-2.225156128406524658e-02
-1.063888048520311713e-04
1.048654317855834961e-02
2.794983983039855957e-02
4.584407433867454529e-02
1.106932237744331360e-01
-1.070562079548835754e-01
-6.793510913848876953e-02
1.591060310602188110e-02
3.074826858937740326e-02
5.401764065027236938e-02
9.198751300573348999e-02
1.059571281075477600e-01
-2.184734120965003967e-02
2.577356807887554169e-02
2.835335023701190948e-02
6.214823201298713684e-02
-6.736233085393905640e-02
1.388501375913619995e-02
1.950667053461074829e-02
-3.624808043241500854e-02
-8.607532829046249390e-03
-4.830672591924667358e-02
-6.532362848520278931e-02
-2.906292304396629333e-02
1.429478973150253296e-01
-6.535895634442567825e-03
1.471524685621261597e-01
-7.134141866117715836e-03
1.093389000743627548e-02
-3.937090188264846802e-02
-7.360487431287765503e-02
1.352906227111816406e-01
-1.211018487811088562e-02
4.610820859670639038e-02
-7.850916124880313873e-03
-8.209828287363052368e-02
-1.056637912988662720e-01
-6.422749906778335571e-02
8.874451741576194763e-03
5.906260386109352112e-02
-1.307345554232597351e-02
8.943416923284530640e-02
5.582745745778083801e-02
-8.030852675437927246e-02
-1.065936610102653503e-01
-7.350043952465057373e-02
8.125877380371093750e-02
1.398062705993652344e-02
5.684576183557510376e-02
-2.860930562019348145e-02
1.491995248943567276e-02
-4.082011524587869644e-03
-3.405976295471191406e-02
-3.663355857133865356e-02
8.461242914199829102e-02
1.630063652992248535e-01
-7.370518147945404053e-02
-7.076024077832698822e-03
-2.851468510925769806e-03
1.420246064662933350e-02
-2.099545486271381378e-02
2.399228326976299286e-02
