-9.328386932611465454e-02 1.380364131182432175e-02 3.615850955247879028e-02 -1.247572526335716248e-01 2.469013072550296783e-02 -6.524432450532913208e-02 1.345399618148803711e-01 1.162863057106733322e-02 -3.695105761289596558e-02 -8.109322935342788696e-02 4.740171879529953003e-02 9.578690677881240845e-02 3.030389919877052307e-02 1.179184839129447937e-01 8.209410309791564941e-02 -2.551194094121456146e-02 1.142433062195777893e-01 -6.256984081119298935e-03 1.143797338008880615e-01 3.133545443415641785e-02 -3.819274250417947769e-03 2.306977286934852600e-02 3.302170336246490479e-02 -7.051364332437515259e-02 3.318906202912330627e-02 1.264269948005676270e-01 -7.683296501636505127e-02 -2.704554237425327301e-02 1.794749796390533447e-01 3.183478489518165588e-02 -2.137731947004795074e-02 -1.507706493139266968e-01 -1.385587602853775024e-01 -3.198985755443572998e-02 -1.763219386339187622e-01 -7.869524508714675903e-02 1.603808552026748657e-01 1.318498849868774414e-01 -2.511545121669769287e-01 -2.480585686862468719e-02 1.111849248409271240e-01 1.106510385870933533e-01 4.418252035975456238e-02 -2.929258858785033226e-03 -3.958918154239654541e-02 -7.254023104906082153e-02 2.069506980478763580e-02 5.721385776996612549e-02 1.743735820055007935e-01 -5.952813196927309036e-03 3.826024383306503296e-02 7.707317918539047241e-02 2.426346763968467712e-02 -8.350675925612449646e-03 -5.255038291215896606e-02 2.402595803141593933e-02 2.305812984704971313e-01 -6.885797530412673950e-02 -1.277245488017797470e-02 -2.782363817095756531e-02 -1.064033284783363342e-01 -1.170489415526390076e-01 -1.084696128964424133e-01 -1.542083621025085449e-01 -1.411250233650207520e-01 -4.539737477898597717e-02 5.646836385130882263e-02 -8.746108412742614746e-02 -2.016609460115432739e-01 1.796068102121353149e-01 -7.421297952532768250e-03 -1.034486889839172363e-01 1.171495541930198669e-01 -1.476628519594669342e-02 -4.358241334557533264e-02 -3.532646223902702332e-02 1.166937872767448425e-01 8.738731592893600464e-02 -4.408881068229675293e-02 -8.470892161130905151e-02 -9.837470948696136475e-02 -8.505485951900482178e-02 1.206949055194854736e-01 -9.707193821668624878e-02 2.458186820149421692e-02 -4.106672480702400208e-02 -9.447606652975082397e-02 -1.901038140058517456e-01 -7.506617903709411621e-02 1.377486996352672577e-02 -9.159188717603683472e-02 -4.142107442021369934e-02 -9.451957419514656067e-03 -1.579026132822036743e-01 9.696041792631149292e-02 -8.095850050449371338e-02 -7.648200541734695435e-02 -2.202865183353424072e-01 -1.326156258583068848e-01 1.394672244787216187e-01 -1.032466888427734375e-01 -4.325264319777488708e-02 -6.214496120810508728e-02 7.225691527128219604e-02 -1.476039588451385498e-01 -1.167428046464920044e-01 9.040615707635879517e-02 2.618286013603210449e-01 3.332386538386344910e-02 4.212903603911399841e-02 -1.598562747240066528e-01 2.227653712034225464e-01 -1.867750585079193115e-01 -5.416430160403251648e-02 7.863527536392211914e-02 -1.869090087711811066e-02 -1.046993657946586609e-01 -6.856998056173324585e-02 1.024753674864768982e-01 -1.200095657259225845e-02 -4.941617697477340698e-02 -2.096533402800559998e-02 -4.704916104674339294e-02 2.233021706342697144e-02 -6.599251646548509598e-03 1.384818106889724731e-01 2.881318144500255585e-02 6.592104677110910416e-03 1.548823062330484390e-02 -9.444323927164077759e-02 6.445937603712081909e-02 4.840115830302238464e-02 -1.227876916527748108e-01 -9.993030875921249390e-02 -1.122507974505424500e-01 1.625343598425388336e-02 -2.191785909235477448e-02 1.129769980907440186e-01 -8.962033689022064209e-02 -2.056952193379402161e-02 -1.398818939924240112e-01 6.739611923694610596e-02 -2.234655171632766724e-01 5.161668360233306885e-02 -9.652478247880935669e-02 5.013320478610694408e-04 7.360088080167770386e-02 -1.335405185818672180e-02 -8.517149835824966431e-02 -3.333587944507598877e-02 1.510544959455728531e-02 -6.610399484634399414e-02 4.226941615343093872e-02 -1.044528111815452576e-01 1.427647471427917480e-01 -3.056120313704013824e-02 -1.300885975360870361e-01 8.276346325874328613e-02 -4.728359635919332504e-03 -8.358296006917953491e-02 1.308444738388061523e-01 -2.691163122653961182e-02 7.445111870765686035e-02 -2.398778684437274933e-02 2.292999438941478729e-02 1.111584305763244629e-01 -8.195289224386215210e-02 5.009394139051437378e-02 -3.941049799323081970e-02 -1.096718013286590576e-02 2.413440123200416565e-02 -2.535686828196048737e-02 -2.277377620339393616e-02 1.100464761257171631e-01 -3.898487985134124756e-02 -1.438249796628952026e-01 -1.003467291593551636e-02 9.078202396631240845e-02 7.329790294170379639e-02 9.491055458784103394e-02 1.000027954578399658e-01 -8.576218783855438232e-02 7.107838243246078491e-02 -1.504319161176681519e-01 -2.525928243994712830e-02 7.010460644960403442e-02 -1.555484235286712646e-01 -4.654750600457191467e-02 -2.021223753690719604e-01 -2.091503702104091644e-02 9.807112067937850952e-02 -4.855258390307426453e-02 8.752997964620590210e-02 -1.978722214698791504e-01 -1.098853945732116699e-01 -5.110101401805877686e-02 6.900583952665328979e-02 -1.029774397611618042e-01 9.856513142585754395e-02 -8.031512051820755005e-02 -3.803956136107444763e-02 -5.429890751838684082e-02 -6.324094533920288086e-02 1.348194032907485962e-01 1.302898675203323364e-02 -8.405667543411254883e-02 -8.210320770740509033e-02 -7.403962314128875732e-03 1.140674799680709839e-01 -3.766280785202980042e-02 2.554074162617325783e-03 -1.102070212364196777e-01 1.195518523454666138e-01 1.250290870666503906e-01 -4.460645839571952820e-02 2.574917115271091461e-02 -3.534147515892982483e-02 -2.224624715745449066e-02 8.991152793169021606e-02 3.572766482830047607e-02 -7.623974233865737915e-02 1.244893297553062439e-01 -2.296476624906063080e-02 1.989507302641868591e-02 -3.933930397033691406e-02 4.590928182005882263e-02 -7.559457421302795410e-02 1.019924432039260864e-01 7.069926708936691284e-02 -8.446604758501052856e-02 1.189299374818801880e-01 -5.184497218579053879e-03 -1.604622304439544678e-01 8.290190249681472778e-02 5.871084332466125488e-02 3.240955993533134460e-02 5.550775304436683655e-02 -1.003928780555725098e-01 2.866557426750659943e-02 8.342467993497848511e-02 -4.799745231866836548e-02 3.996371757239103317e-03 -6.695789098739624023e-02 4.507352039217948914e-02 -7.880678027868270874e-02 -8.310103788971900940e-03 4.644525796175003052e-02 1.759998202323913574e-01 7.904537767171859741e-02 4.208926111459732056e-02 -3.711272776126861572e-02 1.151935085654258728e-01 -1.938394010066986084e-01 1.126525178551673889e-01 -1.071132719516754150e-01 1.363131701946258545e-01
-4.174121841788291931e-02 -4.209726676344871521e-02 -2.340900450944900513e-01 -1.515384297817945480e-02 1.196626275777816772e-01 2.428492298349738121e-03 2.445438876748085022e-02 -6.713279336690902710e-02 1.248895451426506042e-01 1.128316149115562439e-01 -1.185038685798645020e-01 -9.020494669675827026e-02 1.205628272145986557e-02 1.400115638971328735e-01 -7.754105329513549805e-02 1.315637975931167603e-01 -3.023816272616386414e-02 -2.158811986446380615e-01 8.175033330917358398e-02 1.015921533107757568e-01 -1.423645485192537308e-02 -6.749949604272842407e-02 -7.947423309087753296e-02 1.429518461227416992e-01 -8.458880335092544556e-02 2.621246967464685440e-03 4.118955880403518677e-02 3.233931586146354675e-02 5.454620346426963806e-02 -5.947111174464225769e-02 4.339311644434928894e-02 9.737836569547653198e-02 1.067116484045982361e-01 1.300844550132751465e-02 4.369481652975082397e-02 -1.872081495821475983e-02 -5.024881102144718170e-03 -5.544954538345336914e-02 6.220746785402297974e-02 -2.155457623302936554e-03 -9.856572002172470093e-02 -2.000051587820053101e-01 7.355398684740066528e-02 -2.696640975773334503e-02 5.866876244544982910e-02 -4.912529140710830688e-02 9.666484594345092773e-02 -1.151984371244907379e-02 6.750982254743576050e-02 -5.119917169213294983e-02 -6.997972726821899414e-02 5.230457708239555359e-02 7.341004908084869385e-02 -8.170074969530105591e-02 1.091824769973754883e-01 1.767726987600326538e-02 2.657909505069255829e-02 -2.938557416200637817e-02 3.770293295383453369e-02 -1.110590100288391113e-01 2.983267605304718018e-02 5.523883551359176636e-02 -2.001534998416900635e-01 1.140742469578981400e-02 2.394912578165531158e-02 4.685099050402641296e-02 -1.358496118336915970e-02 3.660426288843154907e-02 5.084377247840166092e-03 -6.527385115623474121e-02 7.864050567150115967e-02 7.735846936702728271e-02 1.314055919647216797e-01 7.183124870061874390e-02 -6.617473065853118896e-02 8.539811521768569946e-02 -1.615090519189834595e-01 -1.046446561813354492e-01 1.635104790329933167e-02 -1.610376536846160889e-01 5.835702177137136459e-04 -9.004447609186172485e-02 1.878280937671661377e-01 1.751300394535064697e-01 -1.069344952702522278e-01 -1.043866798281669617e-01 2.188804447650909424e-01 3.135464340448379517e-02 3.887072950601577759e-02 -3.497738391160964966e-02 -1.031856238842010498e-02 9.329094737768173218e-02 2.005217410624027252e-02 -3.716154396533966064e-02 -8.825239725410938263e-03 -1.867480725049972534e-01 3.366233780980110168e-02 3.356442227959632874e-02 1.179979764856398106e-03 -2.656729817390441895e-01 -1.595059037208557129e-01 4.680971428751945496e-02 -4.826040938496589661e-02 -8.423631638288497925e-02 2.509076707065105438e-02 -9.062929451465606689e-02 -1.970428973436355591e-01 -4.695519804954528809e-02 -3.449622169137001038e-02 -5.487811192870140076e-02 -2.778035402297973633e-02 3.186430782079696655e-02 -2.615647017955780029e-01 -2.202635630965232849e-02 7.894799113273620605e-02 -1.028292626142501831e-01 -1.106659322977066040e-01 -6.784286350011825562e-02 -8.440960198640823364e-02 -7.894132286310195923e-02 -4.317593947052955627e-02 1.124794036149978638e-01 1.999367773532867432e-02 -9.691630303859710693e-02 8.337021805346012115e-03 -3.631572052836418152e-02 -9.175521135330200195e-02 -3.252730518579483032e-02 1.242889761924743652e-01 1.034795716404914856e-01 -7.953144609928131104e-02 -1.404742151498794556e-02 2.969846501946449280e-02 -9.231558442115783691e-02 3.855608031153678894e-02 -4.522384703159332275e-02 1.601768136024475098e-01 -9.411485493183135986e-02 -1.110377535223960876e-01 3.244704799726605415e-03 2.672461606562137604e-02 -8.982942998409271240e-02 -5.331119149923324585e-02 8.458795398473739624e-02 -1.903048008680343628e-01 9.548536688089370728e-02 -7.736869156360626221e-02 2.111528627574443817e-02 7.473601400852203369e-02 -7.521345466375350952e-02 -8.696283400058746338e-02 4.187234491109848022e-02 1.889496296644210815e-02 -1.644546091556549072e-01 8.107582479715347290e-02 1.854131370782852173e-01 -8.324643224477767944e-02 -8.135803043842315674e-02 -2.383854538202285767e-01 8.505897969007492065e-02 -6.486885249614715576e-02 8.354882895946502686e-02 1.061621457338333130e-01 -3.197788074612617493e-02 -1.325664222240447998e-01 5.541001632809638977e-02 1.062242835760116577e-01 4.489842057228088379e-02 -8.302047848701477051e-03 -3.818567842245101929e-02 -1.833894699811935425e-01 1.206381618976593018e-01 -1.256698220968246460e-01 -1.205930765718221664e-02 8.083334192633628845e-03 3.244966268539428711e-02 1.949902065098285675e-02 1.383230388164520264e-01 7.221752312034368515e-03 -7.911249063909053802e-03 1.105091497302055359e-01 3.893499821424484253e-02 9.989778511226177216e-03 1.585052609443664551e-01 3.142634034156799316e-02 3.098069131374359131e-02 3.553543984889984131e-02 -2.165963873267173767e-02 9.245865792036056519e-02 -3.027916140854358673e-02 7.791729271411895752e-02 1.372783351689577103e-02 -4.065468907356262207e-02 -1.828772202134132385e-02 4.233143851161003113e-02 8.157899975776672363e-02 4.260630160570144653e-02 2.190292626619338989e-01 -1.727135106921195984e-02 -1.289330869913101196e-01 -6.815057247877120972e-02 4.759564250707626343e-02 9.947657585144042969e-02 -9.187433868646621704e-02 -8.428271114826202393e-02 3.271992551162838936e-03 3.747100476175546646e-03 9.977119043469429016e-03 6.973122060298919678e-02 -4.566678777337074280e-02 -6.318423897027969360e-02 -8.320438675582408905e-03 -1.924631558358669281e-02 -1.383706331253051758e-01 2.073191702365875244e-01 5.435405671596527100e-02 8.312739431858062744e-03 -6.540110334753990173e-03 1.856805235147476196e-01 -1.243039667606353760e-01 -9.498196654021739960e-03 -6.696708500385284424e-02 -6.074262782931327820e-02 -2.295341342687606812e-03 -1.922477334737777710e-01 6.041172519326210022e-02 -6.310444325208663940e-02 1.319602876901626587e-01 -2.543913945555686951e-02 -1.633060425519943237e-01 -1.202742457389831543e-01 2.298001054441556334e-04 1.760112196207046509e-01 5.051033571362495422e-02 1.017958763986825943e-02 -2.075793892145156860e-01 -3.312671184539794922e-02 2.040440775454044342e-02 7.159998267889022827e-02 3.846884146332740784e-02 1.067004799842834473e-01 -7.001039385795593262e-02 -6.010919064283370972e-02 6.349205225706100464e-02 -1.233029514551162720e-01 -1.569162160158157349e-01 1.015249192714691162e-01 -1.775071918964385986e-01 1.047242730855941772e-01 7.295677904039621353e-03 1.345561351627111435e-02 -2.517202123999595642e-02 -1.148972958326339722e-01 1.278283894062042236e-01 -1.658046096563339233e-01 1.218937188386917114e-01
-1.028828844428062439e-01 1.105573922395706177e-01 1.743009500205516815e-02 1.026943922042846680e-01 4.243227839469909668e-02 1.532302983105182648e-02 -7.240932900458574295e-03 8.785992860794067383e-02 2.535591088235378265e-02 1.593589037656784058e-02 2.000645250082015991e-01 -1.936520449817180634e-02 1.694839075207710266e-02 6.432057917118072510e-02 -2.313024736940860748e-02 -1.116119846701622009e-01 -1.776574850082397461e-01 -5.688029900193214417e-02 -5.375905707478523254e-02 1.006344109773635864e-01 9.067185968160629272e-02 4.856956750154495239e-02 3.250071313232183456e-03 1.058566868305206299e-01 6.076246500015258789e-02 1.094475947320461273e-02 -4.035729542374610901e-02 2.218558341264724731e-01 7.282838225364685059e-02 7.018280029296875000e-02 1.102618034929037094e-02 -7.306206226348876953e-02 -1.271671056747436523e-01 9.639156609773635864e-02 2.852937765419483185e-02 1.035059690475463867e-01 3.213385865092277527e-02 3.687940537929534912e-02 -1.461565494537353516e-01 2.993742562830448151e-02 -1.845463812351226807e-01 1.937555521726608276e-01 1.040450185537338257e-01 1.160798201453872025e-04 9.145937860012054443e-02 -2.622761065140366554e-03 1.426095366477966309e-01 1.107800938189029694e-02 -4.084579646587371826e-03 -2.269405871629714966e-01 -1.969667896628379822e-02 -2.413990348577499390e-02 -1.334030926227569580e-01 1.041776090860366821e-01 -3.411004319787025452e-02 1.116409376263618469e-01 -2.425764920189976692e-03 1.351403445005416870e-01 1.674101129174232483e-02 -1.119111012667417526e-02 -7.960604503750801086e-03 -1.141019165515899658e-01 1.475642025470733643e-01 1.144116651266813278e-02 -6.140844896435737610e-02 -2.630854249000549316e-01 -8.384384214878082275e-03 -8.693929016590118408e-02 -8.066992461681365967e-02 -1.271942853927612305e-01 -9.068254381418228149e-03 2.135911136865615845e-01 4.349257797002792358e-02 1.775489598512649536e-01 3.083346039056777954e-02 -9.376224875450134277e-02 -9.225134737789630890e-03 1.103758811950683594e-02 -4.184653051197528839e-03 -1.387762930244207382e-02 -6.707727164030075073e-02 2.079453319311141968e-02 1.016662418842315674e-01 9.403242170810699463e-02 1.012911275029182434e-02 1.605960726737976074e-02 1.957422196865081787e-01 4.173458367586135864e-02 -9.432392567396163940e-02 2.533151805400848389e-01 -7.443776726722717285e-02 -1.010992564260959625e-03 3.066732548177242279e-03 -1.164845451712608337e-01 -7.754631340503692627e-02 -1.201284974813461304e-01 4.588709771633148193e-02 7.050447165966033936e-02 -7.199060916900634766e-02 -1.811704039573669434e-02 -1.045916303992271423e-01 1.102663502097129822e-01 8.278689533472061157e-02 2.639319002628326416e-02 8.811242133378982544e-02 1.857048422098159790e-01 8.867802470922470093e-02 -2.358885481953620911e-02 -1.218007802963256836e-01 3.708386793732643127e-02 -6.176497042179107666e-02 -4.124942794442176819e-02 -1.063775550574064255e-02 -6.850092858076095581e-02 -1.612241715192794800e-01 2.242396473884582520e-01 -6.455178838223218918e-03 -3.793563321232795715e-02 -2.477816641330718994e-01 2.467195503413677216e-03 -6.220801174640655518e-02 2.980454824864864349e-02 3.641565889120101929e-02 6.351827830076217651e-02 1.106699183583259583e-01 5.356738343834877014e-02 -7.248239964246749878e-02 1.249230951070785522e-01 3.462384641170501709e-02 -2.675386890769004822e-02 9.614709019660949707e-02 -2.010994404554367065e-01 1.851002573966979980e-01 -3.564141690731048584e-02 1.305501461029052734e-01 -7.276497036218643188e-02 1.264225989580154419e-01 1.323863631114363670e-03 -1.025860831141471863e-01 1.688253581523895264e-01 -2.702307701110839844e-02 1.534398049116134644e-01 -1.875331550836563110e-01 5.979470908641815186e-02 -7.883455604314804077e-02 -9.369264356791973114e-03 -1.724248938262462616e-02 -3.164321556687355042e-02 9.305104613304138184e-02 -1.072961930185556412e-02 1.802553422749042511e-02 1.708840429782867432e-01 -1.981708966195583344e-02 -5.443362984806299210e-03 -2.487094886600971222e-02 -6.126651167869567871e-02 -2.295461250469088554e-03 1.686603277921676636e-01 -6.054843962192535400e-02 4.301270842552185059e-02 1.270908210426568985e-02 -1.392854005098342896e-01 -1.426996383816003799e-02 -1.678478270769119263e-01 -1.650315672159194946e-01 -5.044335033744573593e-03 2.177886292338371277e-02 -2.258751541376113892e-01 -1.212903708219528198e-01 1.701607741415500641e-02 1.051194593310356140e-01 2.360440604388713837e-02 4.461378976702690125e-02 5.324446037411689758e-02 3.049936890602111816e-01 -1.768757104873657227e-01 -8.037076890468597412e-02 1.989341154694557190e-02 4.771327227354049683e-02 6.588690727949142456e-02 -1.145173236727714539e-01 6.674209982156753540e-02 -2.838506549596786499e-02 7.891634851694107056e-02 2.749058417975902557e-02 -9.182608127593994141e-02 5.242681130766868591e-02 -6.247046962380409241e-02 -8.309488743543624878e-02 1.557788718491792679e-02 3.139233216643333435e-02 -3.672858700156211853e-02 9.512583725154399872e-03 5.861856788396835327e-02 -1.204947903752326965e-01 6.661961227655410767e-02 1.130063738673925400e-02 -2.402126975357532501e-02 4.642343148589134216e-02 5.995804071426391602e-02 -2.404548414051532745e-02 -1.230157911777496338e-02 -8.048918098211288452e-03 1.451178640127182007e-01 7.751153409481048584e-02 1.222497317939996719e-03 1.122376769781112671e-01 3.974675014615058899e-02 -5.998333171010017395e-02 1.114443540573120117e-01 4.765352979302406311e-02 -1.474063247442245483e-01 -3.507002443075180054e-02 9.612724930047988892e-02 1.142297014594078064e-01 1.357311103492975235e-02 -3.151810169219970703e-02 7.279107812792062759e-04 5.213974788784980774e-02 4.096580296754837036e-02 -1.093876212835311890e-01 -1.701304130256175995e-02 -3.805337101221084595e-02 -1.377019584178924561e-01 5.003889277577400208e-02 -5.536393448710441589e-02 1.432159096002578735e-01 2.810162957757711411e-03 -1.136713624000549316e-01 1.539665013551712036e-01 -5.071982741355895996e-02 8.598127961158752441e-02 9.510095231235027313e-03 -1.715715392492711544e-03 -4.443785920739173889e-02 1.135747283697128296e-01 -5.728729814291000366e-02 -1.133470460772514343e-01 9.163075685501098633e-02 -1.522967666387557983e-01 -5.181040614843368530e-02 -4.930579662322998047e-02 -2.099579013884067535e-02 -1.452522724866867065e-01 -3.746028617024421692e-02 2.250685691833496094e-01 -2.130065485835075378e-02 4.515710100531578064e-02 -9.387577325105667114e-02 -2.963363938033580780e-02 -7.708103954792022705e-02 -9.575175493955612183e-02 -7.399993389844894409e-02 -1.269264519214630127e-01 -2.521481551229953766e-02 8.489391207695007324e-02
1.217081472277641296e-01 -1.282433122396469116e-01 2.126477286219596863e-02 7.759645581245422363e-02 -2.390723302960395813e-02 3.678033873438835144e-02 1.359498351812362671e-01 -2.583781778812408447e-01 -2.772174775600433350e-02 -8.056832104921340942e-02 1.408873870968818665e-02 3.587030246853828430e-02 1.002918034791946411e-01 -3.654243797063827515e-02 -1.529334783554077148e-01 -1.590541750192642212e-02 -4.149490967392921448e-02 -5.035992339253425598e-02 -4.268988221883773804e-02 -3.953238576650619507e-02 9.510864317417144775e-02 -8.850267529487609863e-02 -1.218200102448463440e-01 1.857495307922363281e-01 -6.311167031526565552e-02 -7.704034447669982910e-03 3.565114364027976990e-02 3.560483828186988831e-02 -2.442876063287258148e-02 -2.260058186948299408e-03 6.822484731674194336e-02 2.373343799263238907e-03 -1.082473173737525940e-01 9.394006431102752686e-02 -1.597939059138298035e-02 2.373422123491764069e-02 -4.155598580837249756e-03 1.241017058491706848e-01 -5.885207280516624451e-02 -9.082221239805221558e-02 5.659192800521850586e-02 7.515236735343933105e-02 -1.660714894533157349e-01 -3.550279885530471802e-02 9.646159410476684570e-02 -1.289448291063308716e-01 -1.426111757755279541e-01 1.147077009081840515e-01 -2.364393919706344604e-01 -9.692277014255523682e-02 -1.700003147125244141e-01 -7.167636603116989136e-02 -1.967061460018157959e-01 -8.045089244842529297e-02 -5.353745445609092712e-02 6.956360489130020142e-02 -4.323567450046539307e-02 2.351867556571960449e-01 -1.044446602463722229e-02 -7.353324443101882935e-02 5.301483720541000366e-02 -1.449491232633590698e-01 -3.402725979685783386e-02 1.289787292480468750e-01 -3.954543173313140869e-02 2.530811354517936707e-02 -1.503828614950180054e-01 2.791876159608364105e-02 7.081408053636550903e-02 6.111708469688892365e-03 3.916624933481216431e-02 2.820865437388420105e-02 1.174046844244003296e-01 5.255495384335517883e-02 6.849046796560287476e-02 8.136454224586486816e-02 5.728309229016304016e-02 1.396691799163818359e-01 -2.157915942370891571e-02 -1.372850090265274048e-01 3.115272894501686096e-02 1.602544449269771576e-02 -1.339935362339019775e-01 -1.071056816726922989e-02 3.353722020983695984e-02 4.661339893937110901e-02 1.105078905820846558e-01 -1.008552536368370056e-01 -9.941216558218002319e-03 6.097806245088577271e-02 -3.617538511753082275e-02 4.063109681010246277e-02 1.290507763624191284e-01 1.599552780389785767e-01 3.624673187732696533e-02 -6.719212234020233154e-02 -1.022468693554401398e-02 -3.934390842914581299e-02 -1.014179959893226624e-01 -3.563661500811576843e-02 1.199299003928899765e-02 -8.213672041893005371e-02 4.070917144417762756e-02 9.637589007616043091e-02 -3.441936895251274109e-02 -4.187909886240959167e-02 4.558663070201873779e-02 -2.064001560211181641e-02 -6.050487607717514038e-02 -1.529287110315635800e-04 6.797774881124496460e-02 5.960334464907646179e-02 -1.118727251887321472e-01 -5.664676427841186523e-02 -7.400351762771606445e-02 3.258964419364929199e-02 -2.239318490028381348e-01 -5.100993439555168152e-02 -9.999532252550125122e-02 1.895203888416290283e-01 1.028533503413200378e-01 -5.318854004144668579e-02 7.771211117506027222e-02 -6.313771754503250122e-02 -5.334041547030210495e-03 1.672203391790390015e-01 -2.552470192313194275e-02 2.206762582063674927e-01 -3.878614678978919983e-02 5.521997809410095215e-02 5.498747900128364563e-02 -1.487982124090194702e-01 -1.126738637685775757e-01 2.910694107413291931e-02 -3.473587858024984598e-04 2.207590341567993164e-01 -3.014400042593479156e-02 7.226358354091644287e-02 -6.510030478239059448e-02 9.251222014427185059e-02 1.886432874016463757e-03 -5.140877142548561096e-02 -1.235873252153396606e-02 -7.598169893026351929e-02 9.930420666933059692e-02 4.352847114205360413e-02 -1.330832205712795258e-02 1.083085387945175171e-01 3.290551304817199707e-01 -6.895966827869415283e-02 -5.777463782578706741e-03 6.054529920220375061e-03 -1.000126823782920837e-01 -1.347134113311767578e-01 5.323512107133865356e-02 5.131082143634557724e-03 -3.958724439144134521e-02 -3.741363435983657837e-02 1.002054288983345032e-01 -1.354140639305114746e-01 -1.581997722387313843e-01 1.423772126436233521e-01 1.107587590813636780e-01 2.186236716806888580e-02 2.420648746192455292e-02 -1.437410712242126465e-01 -2.767261490225791931e-02 4.983389377593994141e-02 6.900181621313095093e-02 -1.843221019953489304e-03 2.820406481623649597e-02 1.423866860568523407e-02 1.712464839220046997e-01 -3.957043960690498352e-02 1.687064580619335175e-02 -1.220411248505115509e-02 -1.013362705707550049e-01 -8.636549115180969238e-02 2.721432037651538849e-02 3.030299581587314606e-02 1.731973290443420410e-01 -1.046374663710594177e-01 -1.100289747118949890e-01 1.223805826157331467e-02 -7.943949662148952484e-03 7.945399731397628784e-02 -5.074766278266906738e-02 -8.036705851554870605e-02 -5.595409125089645386e-02 -7.134423591196537018e-03 -2.504809200763702393e-02 4.707548394799232483e-02 -3.074754588305950165e-02 -3.228828310966491699e-02 -1.502718124538660049e-02 -4.099994152784347534e-02 1.392063200473785400e-01 -1.752592325210571289e-01 3.769456967711448669e-02 1.968856900930404663e-02 6.332025863230228424e-03 -9.506522864103317261e-02 1.080509624443948269e-03 5.943303462117910385e-03 -1.405045241117477417e-01 -4.166113212704658508e-02 -1.885279268026351929e-02 -8.191070705652236938e-02 -6.990092247724533081e-02 2.812963724136352539e-02 -1.185489371418952942e-01 -1.449054852128028870e-02 -3.147733956575393677e-02 9.853304177522659302e-02 5.932901985943317413e-03 -3.029443137347698212e-02 9.257938712835311890e-02 -1.111780926585197449e-01 -4.387612640857696533e-02 3.487842157483100891e-02 5.322548002004623413e-02 -1.910547316074371338e-01 1.582927405834197998e-01 9.085650742053985596e-02 -4.854101687669754028e-02 5.641481652855873108e-02 1.103229671716690063e-01 5.287340283393859863e-02 1.098781004548072815e-01 1.064125746488571167e-01 -1.196450144052505493e-01 1.377786789089441299e-02 1.524182707071304321e-01 -1.524529904127120972e-01 -5.656888335943222046e-02 -4.876391962170600891e-03 -8.919657021760940552e-02 -9.570735506713390350e-03 9.389200061559677124e-02 1.183961182832717896e-01 -6.015454232692718506e-02 2.695431560277938843e-02 -1.728465855121612549e-01 1.906066834926605225e-01 -6.733032315969467163e-02 1.186830252408981323e-01 4.262740537524223328e-02 1.020238026976585388e-01 2.398974262177944183e-02 1.121566817164421082e-01 -9.357799589633941650e-02 1.225701272487640381e-01 -1.780543923377990723e-01 1.119134947657585144e-01 4.884328693151473999e-02 -5.161840468645095825e-02
-1.736143976449966431e-02 2.075884193181991577e-01 4.099499806761741638e-02 8.811435848474502563e-02 1.635690778493881226e-01 4.698706790804862976e-02 7.296314090490341187e-02 -8.500683307647705078e-02 1.962286680936813354e-01 9.386622346937656403e-03 -1.674442887306213379e-01 4.406849853694438934e-03 1.853055357933044434e-01 -4.535521194338798523e-02 -1.408675312995910645e-02 4.955923184752464294e-03 7.397523149847984314e-03 9.701920300722122192e-02 -2.764222770929336548e-02 9.546586126089096069e-02 -3.083159215748310089e-02 9.495013952255249023e-02 2.285793982446193695e-02 7.224451284855604172e-03 -3.436005115509033203e-02 2.700906060636043549e-02 -1.056739389896392822e-01 7.768393028527498245e-03 -2.241834066808223724e-02 1.108971610665321350e-01 -1.530824303627014160e-01 -9.820646606385707855e-03 9.366481751203536987e-02 1.286552995443344116e-01 1.192742511630058289e-01 9.740471839904785156e-02 1.856029778718948364e-02 -3.167375326156616211e-01 5.038683116436004639e-02 -5.243088677525520325e-02 1.814273297786712646e-01 -1.116623654961585999e-01 -1.418718043714761734e-02 7.605489343404769897e-02 -2.421780489385128021e-02 -7.079895585775375366e-03 -1.700588166713714600e-01 -7.128059398382902145e-03 4.491559788584709167e-02 -4.184954240918159485e-02 -1.150374934077262878e-01 -5.388536024838685989e-03 5.287326872348785400e-02 -8.203364163637161255e-02 -3.976537659764289856e-02 -7.506425026804208755e-05 1.076738461852073669e-01 4.135540686547756195e-03 1.155183762311935425e-01 -3.263891860842704773e-02 1.872700303792953491e-01 -5.991590395569801331e-02 7.513128803111612797e-04 -1.221803352236747742e-01 -8.945605717599391937e-03 4.044548422098159790e-02 8.404850214719772339e-02 -1.258043050765991211e-01 -1.093150600790977478e-01 -6.605929881334304810e-02 -1.117750257253646851e-01 -9.044715017080307007e-02 -6.081587821245193481e-02 -4.441141616553068161e-03 -1.298446021974086761e-02 -1.508404761552810669e-01 6.502259522676467896e-02 2.926498465240001678e-02 -7.108363509178161621e-02 -2.465591393411159515e-02 -7.602968811988830566e-02 1.002696901559829712e-01 -2.505025267601013184e-01 -8.459728211164474487e-02 -1.127257198095321655e-01 -1.254029870033264160e-01 -1.336349099874496460e-01 3.787720203399658203e-02 -2.125994414091110229e-01 -5.786920338869094849e-02 -1.028039678931236267e-01 7.279506418853998184e-03 -1.337092071771621704e-01 3.835577517747879028e-02 4.425456281751394272e-03 1.471664570271968842e-02 -1.268018130213022232e-02 -1.458976604044437408e-02 8.164542913436889648e-02 -1.764528751373291016e-01 1.671975851058959961e-01 4.471312835812568665e-02 -7.193833589553833008e-02 2.712550340220332146e-03 -3.429166506975889206e-03 1.040527001023292542e-01 -1.397815048694610596e-01 2.702720649540424347e-02 3.308908268809318542e-02 4.846500977873802185e-02 -1.158574149012565613e-01 1.345398277044296265e-01 -3.883669525384902954e-02 5.263744387775659561e-03 8.201999217271804810e-02 -3.029415151104331017e-03 -2.558448016643524170e-01 -1.984453201293945312e-02 -6.828062236309051514e-02 -2.096473984420299530e-02 -1.805216073989868164e-02 -5.317877978086471558e-02 1.372710708528757095e-02 -3.987704403698444366e-03 -9.643462300300598145e-02 9.815448522567749023e-02 2.346800640225410461e-03 6.972371786832809448e-02 4.717882722616195679e-02 -2.962579950690269470e-02 -9.866904467344284058e-02 -5.870173126459121704e-02 8.115991204977035522e-02 -7.759072631597518921e-02 1.031955108046531677e-01 1.287816911935806274e-01 1.011580079793930054e-01 1.357027739286422729e-01 -1.041067615151405334e-01 1.182997506111860275e-02 -1.750518195331096649e-02 -6.130694225430488586e-02 4.380566067993640900e-03 -7.434185594320297241e-02 -6.039723008871078491e-02 -1.172353774309158325e-01 -2.396950870752334595e-02 3.913099318742752075e-02 -9.945534169673919678e-03 -1.506475806236267090e-01 1.091418936848640442e-01 -5.085218697786331177e-02 -2.625929377973079681e-02 4.319354891777038574e-02 -8.532512187957763672e-02 6.080156564712524414e-02 -1.051067337393760681e-01 -1.455915123224258423e-01 6.215819716453552246e-02 6.581234931945800781e-02 -2.298337221145629883e-02 2.760878503322601318e-01 -2.672398835420608521e-02 -5.816990882158279419e-02 -1.323692798614501953e-01 1.956943422555923462e-03 -1.006873100996017456e-01 -5.695718899369239807e-02 -7.205225527286529541e-02 2.875452861189842224e-02 -6.576848030090332031e-02 -3.368775546550750732e-02 9.007918834686279297e-02 5.842516943812370300e-02 1.793878227472305298e-01 -3.547251597046852112e-02 -1.979120448231697083e-02 1.703455746173858643e-01 -1.958525553345680237e-02 -7.819825410842895508e-02 3.107155486941337585e-02 -1.227295957505702972e-02 5.804597586393356323e-02 -2.392112649977207184e-02 1.561636030673980713e-01 -5.414670333266258240e-02 -1.105362325906753540e-01 -3.554142778739333153e-03 1.767920702695846558e-01 7.267730683088302612e-02 1.361727565526962280e-01 1.677828431129455566e-01 4.594136960804462433e-03 3.426638618111610413e-02 -2.103342674672603607e-02 3.123534843325614929e-02 -2.289701551198959351e-01 2.729218825697898865e-02 -3.585432469844818115e-02 6.210573762655258179e-02 -2.614548616111278534e-02 5.161344259977340698e-02 -6.648661196231842041e-02 4.091223701834678650e-03 -2.483417466282844543e-02 -1.794413179159164429e-01 -9.371430426836013794e-02 -2.146414816379547119e-01 2.043646201491355896e-02 -1.024355143308639526e-01 1.142880134284496307e-02 -1.336894035339355469e-01 7.162319868803024292e-02 7.817309349775314331e-02 1.074625700712203979e-01 -1.829107254743576050e-01 5.504339933395385742e-02 2.155692316591739655e-02 -2.309315279126167297e-02 3.463079780340194702e-02 -3.539581969380378723e-02 7.036511600017547607e-02 -1.749722957611083984e-01 -7.767947018146514893e-02 -7.051187008619308472e-02 3.015273064374923706e-02 8.015605807304382324e-02 1.358286589384078979e-01 8.619464351795613766e-04 1.150502637028694153e-01 -1.178388893604278564e-01 5.799439176917076111e-02 3.325928375124931335e-02 -4.557937011122703552e-02 -1.293522119522094727e-01 9.662129729986190796e-02 2.934592403471469879e-02 -1.363958604633808136e-02 -1.466720998287200928e-01 -8.638470433652400970e-03 3.636650741100311279e-02 -8.067700266838073730e-02 7.514905184507369995e-02 6.119843199849128723e-02 -8.796156197786331177e-02 1.294744908809661865e-01 8.030754327774047852e-02 -1.101527512073516846e-01 1.727077960968017578e-01 1.657202653586864471e-02 -5.245393142104148865e-02 -7.306257635354995728e-02 -1.016649007797241211e-01 -1.048744469881057739e-01 4.901582747697830200e-02 -3.289880231022834778e-02
-2.380613610148429871e-02 1.041519120335578918e-01 -1.555843651294708252e-01 -8.137134462594985962e-02 -1.464668568223714828e-02 1.957058608531951904e-01 -1.216127630323171616e-02 -6.520738452672958374e-02 5.904696136713027954e-02 -9.177914261817932129e-02 -1.429405212402343750e-01 6.931956857442855835e-02 -8.815496414899826050e-02 8.414529263973236084e-02 1.476470679044723511e-01 -4.731497913599014282e-02 -8.290520869195461273e-03 5.730249732732772827e-02 -8.916018158197402954e-02 -4.875499755144119263e-02 -1.058345753699541092e-02 -7.270975410938262939e-02 -1.839255839586257935e-01 2.622008882462978363e-02 -1.618824712932109833e-02 -1.774996668100357056e-01 1.076588258147239685e-01 -1.319513171911239624e-01 -8.426877111196517944e-02 -3.880743309855461121e-02 -4.972372949123382568e-02 -4.879902303218841553e-02 -2.748650871217250824e-02 -1.835763752460479736e-01 1.222220435738563538e-02 9.542334079742431641e-02 2.121718414127826691e-02 -5.711523815989494324e-02 -7.267458736896514893e-02 7.606756687164306641e-02 8.972121402621269226e-03 1.060907393693923950e-01 -5.243675038218498230e-02 -8.704024553298950195e-02 -6.825005984865128994e-04 -8.548667281866073608e-02 1.033487245440483093e-01 9.439342468976974487e-02 -1.157211437821388245e-01 1.612977087497711182e-01 -7.602038234472274780e-02 -3.781552985310554504e-02 2.401080913841724396e-02 -5.711058527231216431e-02 5.649586766958236694e-02 -1.312797516584396362e-01 -3.729951754212379456e-02 -6.412678211927413940e-02 5.721563473343849182e-02 -2.153456583619117737e-02 8.376825600862503052e-02 -6.520844250917434692e-02 1.304081082344055176e-02 3.740001935511827469e-03 -2.833787724375724792e-02 1.506097428500652313e-02 -1.536583602428436279e-01 -1.023436412215232849e-01 -2.451520413160324097e-02 4.796021059155464172e-02 3.961469512432813644e-03 2.745108492672443390e-02 -1.549667716026306152e-01 -5.813542753458023071e-02 4.333611205220222473e-02 -7.176308333873748779e-02 9.156982600688934326e-02 1.426607072353363037e-01 -7.777642458677291870e-02 3.113846667110919952e-02 -8.891379088163375854e-02 3.096821904182434082e-02 5.789941549301147461e-02 -2.805355703458189964e-03 -9.165955334901809692e-02 4.630534723401069641e-02 -5.004391074180603027e-02 -1.415877509862184525e-02 -1.207343339920043945e-01 5.616340786218643188e-02 7.933335006237030029e-02 -8.036305755376815796e-02 -5.311695486307144165e-02 -7.405246049165725708e-02 -1.020261794328689575e-01 6.775886565446853638e-02 8.088771253824234009e-02 5.662443861365318298e-02 4.756554961204528809e-02 1.200405359268188477e-01 -2.126046866178512573e-01 -1.853797137737274170e-01 2.360640652477741241e-02 3.428426384925842285e-02 5.935990065336227417e-02 1.250770688056945801e-01 6.626736139878630638e-04 7.586091756820678711e-02 9.347377717494964600e-02 -9.569224715232849121e-02 9.329099953174591064e-02 8.873485773801803589e-02 -1.037037447094917297e-01 9.668076038360595703e-02 8.775360882282257080e-02 -1.224968880414962769e-01 4.506449773907661438e-02 -4.958798363804817200e-02 4.167474433779716492e-02 1.042263433337211609e-01 3.690567985177040100e-02 -3.120246157050132751e-02 9.360773488879203796e-03 4.722887650132179260e-02 4.300459846854209900e-02 4.008267074823379517e-02 -4.889018461108207703e-02 -1.694201678037643433e-01 -1.089171133935451508e-02 -1.884857565164566040e-01 1.051354408264160156e-02 2.466190233826637268e-02 1.538973301649093628e-01 -5.777302384376525879e-02 2.309571206569671631e-02 5.447310395538806915e-04 -2.536424621939659119e-02 3.719525784254074097e-02 1.848499290645122528e-02 1.129692047834396362e-01 -1.435408443212509155e-01 -9.325966238975524902e-02 7.421151548624038696e-02 4.784924164414405823e-02 -1.620912998914718628e-01 2.295219711959362030e-02 4.722251743078231812e-02 -4.251422360539436340e-03 -1.253016013652086258e-02 1.422643512487411499e-01 -1.612612009048461914e-01 1.605563461780548096e-01 2.213573083281517029e-02 -7.111795991659164429e-02 -1.628004759550094604e-01 6.050290912389755249e-02 1.125428527593612671e-01 -6.550551950931549072e-02 -8.012642711400985718e-02 1.279203407466411591e-02 3.016467578709125519e-02 3.492287173867225647e-02 5.997615307569503784e-02 -6.756377406418323517e-03 1.544657349586486816e-01 1.163447275757789612e-01 -1.482665091753005981e-01 2.514306921511888504e-03 -1.131254509091377258e-01 5.314161628484725952e-02 -2.139773517847061157e-01 -1.056981459259986877e-01 -8.732969313859939575e-02 -1.269594579935073853e-01 6.732309609651565552e-02 -2.828134223818778992e-02 -9.690560400485992432e-02 -2.040397226810455322e-01 2.202193140983581543e-01 -7.383890450000762939e-02 1.008544713258743286e-01 -9.672945737838745117e-02 -1.649315096437931061e-02 7.760219275951385498e-02 1.836410164833068848e-02 -1.656498312950134277e-01 1.708071976900100708e-01 3.720411285758018494e-02 -1.007621660828590393e-01 -3.882514685392379761e-02 -6.869082897901535034e-02 -5.053127557039260864e-02 -7.925706356763839722e-02 -5.126507952809333801e-02 -6.013312935829162598e-02 6.019062176346778870e-02 1.759793050587177277e-02 -1.309118419885635376e-01 -1.352247297763824463e-01 -2.985515817999839783e-02 1.694210320711135864e-01 3.394151851534843445e-02 2.981599569320678711e-01 -3.016959130764007568e-02 1.739488244056701660e-01 5.205199122428894043e-02 -5.220638215541839600e-02 -6.655321270227432251e-02 1.765105314552783966e-02 -1.912862956523895264e-01 -2.223189361393451691e-02 -1.628146506845951080e-02 3.435550257563591003e-02 5.911242589354515076e-02 1.428094208240509033e-01 -2.598438598215579987e-02 -1.083582863211631775e-01 7.303399592638015747e-02 7.358694076538085938e-02 1.908246544189751148e-03 -3.288494795560836792e-02 -6.271719187498092651e-02 -1.440744549036026001e-01 1.657457277178764343e-02 6.300892680883407593e-03 -9.005474275909364223e-04 -7.939643226563930511e-03 3.580465540289878845e-02 -6.224022433161735535e-02 2.011164277791976929e-01 1.326439715921878815e-02 -5.173234641551971436e-02 1.163919176906347275e-02 -6.735096871852874756e-02 1.417249739170074463e-01 1.141992360353469849e-01 -2.077334374189376831e-02 -5.552540719509124756e-02 -8.441807329654693604e-02 8.912494033575057983e-02 2.680489420890808105e-02 -7.150052487850189209e-02 -1.395758800208568573e-02 -2.878851629793643951e-02 4.822276160120964050e-02 5.760167166590690613e-02 2.379467934370040894e-01 -1.846221834421157837e-02 -1.173822060227394104e-01 9.252744168043136597e-02 -1.999410688877105713e-01 -1.083246394991874695e-01 -5.616198480129241943e-02 1.024361848831176758e-01 -9.860356152057647705e-02 3.140902891755104065e-02
1.883506625890731812e-01 -2.132893307134509087e-03 1.075041294097900391e-01 1.231185570359230042e-01 -1.680658385157585144e-02 8.252579718828201294e-02 -3.325258195400238037e-02 -2.451553754508495331e-02 7.520469278097152710e-02 1.105579063296318054e-01 -6.712278723716735840e-02 6.040931120514869690e-02 -2.055939845740795135e-02 -3.699893504381179810e-02 -7.295040786266326904e-02 -1.427094489336013794e-01 -1.600228846073150635e-01 -1.211535483598709106e-01 -7.055777311325073242e-02 -8.750709891319274902e-02 9.925180673599243164e-02 1.210812702775001526e-01 1.202107174322009087e-03 7.230626791715621948e-02 -7.767500821501016617e-03 6.697731092572212219e-03 -8.799158036708831787e-02 1.262840628623962402e-01 -3.709693253040313721e-02 -1.193194314837455750e-01 -1.591437160968780518e-01 -9.483244502916932106e-04 1.262313890038058162e-04 -1.293426472693681717e-02 -1.706933528184890747e-01 8.685320615768432617e-02 2.835223078727722168e-02 -1.820058748126029968e-02 2.156893350183963776e-02 -4.443511366844177246e-02 1.107975915074348450e-01 6.123786047101020813e-02 1.960228197276592255e-02 -8.307672105729579926e-03 8.514846675097942352e-03 3.030869923532009125e-02 -1.142378002405166626e-01 5.762396380305290222e-02 -3.270771354436874390e-02 1.000299528241157532e-01 6.696128845214843750e-02 5.610020831227302551e-02 -7.115582376718521118e-02 -7.617715746164321899e-02 -2.877087891101837158e-02 3.521854430437088013e-02 -7.456642389297485352e-02 1.625396311283111572e-01 1.457471866160631180e-02 -1.108506247401237488e-01 6.739884614944458008e-02 -6.510669831186532974e-03 5.582899972796440125e-02 6.670846790075302124e-02 8.250072598457336426e-02 -6.511557847261428833e-02 1.021313387900590897e-02 -9.037043899297714233e-02 -9.797329455614089966e-02 -1.935397982597351074e-01 2.285355329513549805e-01 -9.075383096933364868e-02 -8.676151931285858154e-02 7.828620076179504395e-02 3.314114734530448914e-02 7.660064101219177246e-02 -2.120195776224136353e-01 1.831296086311340332e-01 6.227153167128562927e-02 -2.080988138914108276e-02 -1.940553039312362671e-01 -2.007741183042526245e-01 7.432755082845687866e-02 -1.210514828562736511e-01 1.419892460107803345e-01 1.203322317451238632e-02 1.155833750963211060e-01 -3.556168079376220703e-02 -8.336767554283142090e-02 2.716330252587795258e-02 -6.704622507095336914e-02 -2.240712381899356842e-02 2.128205001354217529e-01 -1.571135669946670532e-01 -2.392363548278808594e-02 2.109979651868343353e-02 -4.774598404765129089e-03 -1.568873524665832520e-01 -1.917156018316745758e-02 -1.615343242883682251e-02 -6.878618896007537842e-02 7.541992515325546265e-02 -1.454995125532150269e-01 6.296952255070209503e-03 9.996167570352554321e-02 -3.507101908326148987e-02 8.711931109428405762e-02 7.319631520658731461e-03 -2.622389048337936401e-02 -5.941124260425567627e-02 -1.787447254173457623e-04 -6.349043454974889755e-03 -1.071866154670715332e-01 -1.537625677883625031e-02 -8.753982186317443848e-02 -6.021084636449813843e-02 -5.645888671278953552e-02 6.140978634357452393e-02 -2.215198986232280731e-02 -1.523230038583278656e-02 1.024485845118761063e-02 2.919257618486881256e-02 1.112006977200508118e-01 -2.315465360879898071e-02 1.417370736598968506e-01 -6.755690276622772217e-02 1.148596592247486115e-02 -1.448931992053985596e-01 -8.910734951496124268e-02 1.772963106632232666e-01 1.515108346939086914e-01 -4.212120547890663147e-02 1.125233545899391174e-01 9.361353516578674316e-02 -9.196712076663970947e-02 2.806580439209938049e-02 2.661495096981525421e-02 2.620870806276798248e-02 2.484772503376007080e-01 -9.037297219038009644e-02 -1.789339818060398102e-02 7.866597175598144531e-02 -8.482243120670318604e-02 -1.280676871538162231e-01 4.624348133802413940e-02 -8.241137117147445679e-02 -1.082184538245201111e-01 -3.253794461488723755e-02 -9.957057982683181763e-02 -1.263456605374813080e-02 -1.177270803600549698e-02 -2.116861520335078239e-03 -7.423356641083955765e-03 -1.598242670297622681e-01 2.566877752542495728e-02 1.309476196765899658e-01 -1.608943492174148560e-01 4.636799171566963196e-02 1.793207228183746338e-01 -2.043640911579132080e-01 -4.423217847943305969e-03 1.543931216001510620e-01 -3.370026499032974243e-02 -1.632815599441528320e-01 -1.273110625334084034e-03 1.303729116916656494e-01 -8.089254796504974365e-02 1.883712410926818848e-02 -9.386130422353744507e-02 1.476280950009822845e-02 -1.989156939089298248e-02 -6.423836946487426758e-02 2.990273199975490570e-02 1.667213737964630127e-01 5.753134563565254211e-02 6.747739762067794800e-02 -4.042537882924079895e-02 -8.070749789476394653e-02 1.039994880557060242e-02 1.184463948011398315e-01 -5.882187560200691223e-02 -9.754785895347595215e-02 -8.426344394683837891e-02 -9.929219633340835571e-02 -4.373277723789215088e-02 -1.171670779585838318e-01 -4.466675221920013428e-02 4.373669624328613281e-02 7.088119536638259888e-02 5.798126384615898132e-02 -1.327052991837263107e-02 -1.365964561700820923e-01 2.990004792809486389e-02 -6.967031955718994141e-02 -2.632572352886199951e-01 1.228553056716918945e-01 -8.047863841056823730e-02 -4.500484839081764221e-02 1.506252884864807129e-01 1.625583171844482422e-01 -1.912006363272666931e-02 -4.350688308477401733e-02 1.058908179402351379e-01 -8.735425025224685669e-02 1.958235204219818115e-01 -6.254168599843978882e-02 8.535665273666381836e-02 1.709330640733242035e-02 -1.038006618618965149e-01 2.849907577037811279e-01 -2.023598849773406982e-01 -1.395679917186498642e-02 -6.110354512929916382e-02 1.879608631134033203e-02 1.537659168243408203e-01 9.992916882038116455e-02 -1.119575742632150650e-02 9.972503781318664551e-02 -6.535824388265609741e-02 3.976366482675075531e-03 1.042691916227340698e-01 2.258951775729656219e-03 -5.870068818330764771e-02 1.905227825045585632e-02 1.601487211883068085e-02 -9.998374432325363159e-02 4.446849226951599121e-02 1.583065837621688843e-01 -9.391371160745620728e-02 3.589466586709022522e-02 -1.152956113219261169e-01 1.193876713514328003e-01 -1.807290315628051758e-01 5.034233629703521729e-02 7.099156081676483154e-02 -4.383373260498046875e-02 2.394177950918674469e-02 -1.388052999973297119e-01 -5.578124150633811951e-02 -9.233081340789794922e-02 1.741703152656555176e-01 4.999344423413276672e-02 -7.742857933044433594e-02 -2.129577696323394775e-01 2.507169917225837708e-02 -1.333683580160140991e-01 3.807066380977630615e-02 -2.409448660910129547e-02 5.286084488034248352e-03 8.072996139526367188e-02 -9.802155941724777222e-02 -1.382085494697093964e-02 -2.546735703945159912e-01 -1.290527582168579102e-01 -9.564702212810516357e-02 -8.863121271133422852e-02
1.079240292310714722e-01 9.981033205986022949e-02 2.834868729114532471e-01 9.671244025230407715e-02 -1.273604854941368103e-02 -8.081020414829254150e-02 1.014906689524650574e-01 -4.832137748599052429e-02 -2.724394388496875763e-02 -5.614683777093887329e-02 -5.512200295925140381e-03 9.207929484546184540e-03 5.567837879061698914e-02 1.187823861837387085e-01 -1.364674270153045654e-01 3.812355548143386841e-02 7.970608025789260864e-02 -1.594340987503528595e-02 -2.695962972939014435e-02 5.329294130206108093e-02 2.131593972444534302e-02 -1.042345613241195679e-01 1.151038985699415207e-02 -5.106461420655250549e-02 1.746401377022266388e-02 5.738104134798049927e-02 8.282776176929473877e-02 -1.095644757151603699e-01 -2.150080725550651550e-02 1.455428358167409897e-02 1.440629959106445312e-01 6.120541132986545563e-03 5.138888210058212280e-02 3.532427176833152771e-02 1.124108023941516876e-02 -7.760007679462432861e-02 -1.346055120229721069e-01 1.036607325077056885e-01 -6.757569313049316406e-02 -4.957728553563356400e-03 3.495847061276435852e-02 -1.271202880889177322e-02 1.074044108390808105e-01 -7.484870404005050659e-02 -1.347742229700088501e-01 -4.797855764627456665e-02 1.043591797351837158e-01 5.428814794868230820e-03 1.445520296692848206e-02 5.621394142508506775e-02 -5.985635146498680115e-02 1.018818244338035583e-01 7.451190799474716187e-02 1.600581035017967224e-02 1.216058358550071716e-01 9.824977815151214600e-02 -1.416426599025726318e-01 -2.548427786678075790e-03 1.082825139164924622e-01 2.953621000051498413e-02 -1.228158455342054367e-02 -6.621576100587844849e-02 -1.185297295451164246e-01 1.315559595823287964e-01 -8.313634991645812988e-02 9.593746066093444824e-02 -6.949749588966369629e-02 -8.671028167009353638e-02 -2.325122654438018799e-01 4.857868701219558716e-02 -2.557137906551361084e-01 -1.068688370287418365e-02 -1.360793504863977432e-02 -1.484633088111877441e-01 -2.060919255018234253e-02 7.755914330482482910e-02 -5.668501928448677063e-02 -2.998204715549945831e-02 1.052851304411888123e-01 -1.062614768743515015e-01 -7.204769644886255264e-03 7.088136672973632812e-02 -2.039094828069210052e-02 6.964493542909622192e-02 3.360479138791561127e-03 -1.283283084630966187e-01 -2.121671475470066071e-02 4.193161614239215851e-03 1.720797419548034668e-01 5.158349126577377319e-02 6.651580333709716797e-02 -3.409956395626068115e-02 -1.425939202308654785e-01 1.102692335844039917e-01 -6.685759872198104858e-02 -7.114362716674804688e-02 -3.070267662405967712e-02 1.157273575663566589e-01 3.521079197525978088e-03 -8.071081712841987610e-03 3.868957236409187317e-02 1.469819396734237671e-01 4.234320949763059616e-03 -8.554959297180175781e-02 1.056535318493843079e-01 -1.135103777050971985e-02 4.603470861911773682e-02 1.058848574757575989e-01 -6.350720673799514771e-02 2.766191214323043823e-02 5.359059199690818787e-02 1.266479343175888062e-01 -5.937656387686729431e-02 -2.876403331756591797e-01 -7.696069031953811646e-02 2.355180308222770691e-02 7.565744966268539429e-02 -9.808000922203063965e-02 1.489471793174743652e-01 1.303372532129287720e-01 2.556867711246013641e-02 -1.892810910940170288e-01 2.099109627306461334e-02 1.554793268442153931e-01 -1.082124263048171997e-01 -2.093213982880115509e-02 -1.260934621095657349e-01 1.538563817739486694e-01 2.026459127664566040e-01 7.660678774118423462e-02 1.393766850233078003e-01 -1.397142261266708374e-01 -4.790551960468292236e-02 1.610437929630279541e-01 -2.868903987109661102e-02 1.887430697679519653e-01 1.032050028443336487e-01 3.505476564168930054e-02 -3.635770455002784729e-02 -1.431452631950378418e-01 -8.434453606605529785e-02 -1.863272860646247864e-02 3.991137072443962097e-02 -4.175537079572677612e-02 -9.253036975860595703e-02 -6.971536576747894287e-02 6.458765268325805664e-02 -1.411747783422470093e-01 -4.044319689273834229e-02 -1.676880866289138794e-01 -5.774649232625961304e-02 6.883339583873748779e-02 1.551070660352706909e-01 2.516765519976615906e-02 -1.759102791547775269e-01 -2.768525481224060059e-02 -6.188684701919555664e-02 -1.296820342540740967e-01 1.008115783333778381e-01 -1.166558917611837387e-02 -4.690469056367874146e-02 7.956757210195064545e-03 7.874577492475509644e-02 -6.728339940309524536e-02 6.572757661342620850e-02 -3.441907465457916260e-02 -1.781135797500610352e-01 1.389114744961261749e-02 -1.956371217966079712e-02 1.572564840316772461e-01 -3.176458925008773804e-02 -1.225130707025527954e-01 -3.599944710731506348e-02 -9.900968521833419800e-03 2.000091522932052612e-01 1.602106541395187378e-02 -2.658082172274589539e-02 3.574251383543014526e-02 -1.063743606209754944e-01 -9.853525459766387939e-02 -6.020959466695785522e-02 3.068139543756842613e-03 -1.816029697656631470e-01 2.350120106711983681e-03 -9.238781780004501343e-02 -4.184813052415847778e-02 1.091795191168785095e-01 5.508903414011001587e-02 -4.111975058913230896e-02 3.812009841203689575e-02 -1.452637761831283569e-01 1.063817292451858521e-01 1.099069863557815552e-01 -5.326970294117927551e-02 1.918253749608993530e-01 1.263466663658618927e-02 4.343903437256813049e-02 -1.146585941314697266e-01 8.289508521556854248e-03 3.072323463857173920e-02 -1.555035412311553955e-01 -2.107710838317871094e-01 -1.059530973434448242e-01 -5.608237534761428833e-02 1.474374681711196899e-01 9.559211134910583496e-02 -2.683563902974128723e-02 1.333683580160140991e-01 1.067266464233398438e-01 -4.702049121260643005e-02 1.350300461053848267e-01 -9.202536940574645996e-02 -1.392063647508621216e-01 -5.343858525156974792e-02 1.899849325418472290e-01 -8.725085854530334473e-02 8.589470386505126953e-02 2.323993667960166931e-02 -2.406582050025463104e-02 8.506544865667819977e-03 8.214898407459259033e-02 2.355909720063209534e-02 3.187366947531700134e-02 -5.504947528243064880e-02 6.529252231121063232e-02 -8.647479861974716187e-02 -1.393498182296752930e-01 5.969650670886039734e-02 -1.224961876869201660e-01 6.404305249452590942e-02 -1.201799660921096802e-01 -1.826112531125545502e-02 8.420565724372863770e-02 -3.700983524322509766e-02 -6.295531988143920898e-02 -7.221621274948120117e-02 4.999508708715438843e-02 -1.561757177114486694e-02 1.212763041257858276e-02 4.088243842124938965e-02 -8.306414633989334106e-02 -6.734608113765716553e-02 5.399648845195770264e-02 -7.150926440954208374e-02 -1.308761686086654663e-01 4.034579265862703323e-03 3.740344662219285965e-03 1.887911581434309483e-03 -1.280239969491958618e-01 3.190262243151664734e-02 1.202907711267471313e-01 4.733977373689413071e-03 -8.352489769458770752e-02 9.180924296379089355e-02 1.283458154648542404e-02 -2.084891200065612793e-01
-5.195711553096771240e-02 5.046593025326728821e-03 -1.492355465888977051e-01 -1.389101594686508179e-01 7.901652902364730835e-02 5.769935250282287598e-02 1.730774790048599243e-01 1.232660748064517975e-02 5.274191871285438538e-02 5.618815869092941284e-02 1.743781194090843201e-02 -2.530755661427974701e-02 -1.199968233704566956e-01 -8.569462806917726994e-04 -3.004649654030799866e-02 -8.116076886653900146e-02 2.230378985404968262e-02 -7.155929342843592167e-04 -6.634472869336605072e-03 -2.143959701061248779e-01 1.238469853997230530e-01 9.624647349119186401e-02 6.847945600748062134e-02 -4.943190142512321472e-02 -6.007137149572372437e-02 5.037691444158554077e-02 6.743358820676803589e-02 -1.225217133760452271e-01 -9.119941294193267822e-02 -2.809510380029678345e-02 -4.891644045710563660e-02 9.819447994232177734e-02 9.784528613090515137e-02 -5.171773582696914673e-02 1.067166700959205627e-01 4.598239064216613770e-02 2.877815254032611847e-02 1.256054043769836426e-01 4.319532215595245361e-02 -7.082398235797882080e-02 2.745846472680568695e-02 -5.362256243824958801e-02 5.119682475924491882e-02 5.497257038950920105e-02 -5.649324879050254822e-02 -2.643755450844764709e-02 2.327482551336288452e-01 -8.841877430677413940e-02 -6.453629583120346069e-03 1.086105406284332275e-01 8.551043272018432617e-02 -1.094818115234375000e-01 4.441419616341590881e-02 -9.806744009256362915e-02 4.402513056993484497e-02 -1.437219083309173584e-01 -1.084981784224510193e-01 -8.502545207738876343e-02 7.104602642357349396e-03 6.210696324706077576e-02 -8.651378005743026733e-02 1.370041072368621826e-01 -2.344304928556084633e-03 -4.483886435627937317e-02 -4.527963232249021530e-03 1.246666461229324341e-01 3.653184510767459869e-03 1.279461383819580078e-01 -3.620151430368423462e-02 -7.217066362500190735e-03 -6.862391531467437744e-02 -8.993287384510040283e-02 -1.973441056907176971e-02 1.630329340696334839e-01 -7.521132379770278931e-02 5.860931798815727234e-02 -6.802433729171752930e-02 1.815381646156311035e-01 5.111109837889671326e-02 -1.032502017915248871e-02 -1.714044436812400818e-02 2.615625225007534027e-02 -1.478981226682662964e-01 -9.863253944786265492e-05 7.853741198778152466e-02 1.258243620395660400e-01 1.073469892144203186e-01 -2.567698061466217041e-02 -1.506102979183197021e-01 4.935030266642570496e-02 -1.043259426951408386e-01 4.367837216705083847e-03 4.397043585777282715e-02 1.210503205657005310e-01 2.191823571920394897e-01 -7.559680938720703125e-02 2.413939684629440308e-02 -9.790606051683425903e-02 -1.055970191955566406e-01 1.871860399842262268e-02 -4.901994392275810242e-02 -1.268388330936431885e-02 -5.250849574804306030e-02 1.091380417346954346e-02 -4.101839661598205566e-02 1.045459434390068054e-01 -8.431934565305709839e-02 8.512597531080245972e-02 -1.172204315662384033e-01 6.724555790424346924e-02 -5.945168435573577881e-02 2.198091521859169006e-02 1.462800204753875732e-01 -5.253611598163843155e-03 -8.084928989410400391e-02 3.058995492756366730e-02 1.000428497791290283e-01 -7.167894393205642700e-02 -2.146048843860626221e-02 1.295270025730133057e-01 -1.157554537057876587e-01 -1.066309288144111633e-01 -8.769730478525161743e-02 -9.137760102748870850e-02 -6.691718846559524536e-02 5.001179501414299011e-02 -3.856999054551124573e-02 -1.226456984877586365e-01 -1.998518407344818115e-01 6.495252996683120728e-02 -3.873301669955253601e-02 -6.506007909774780273e-02 1.464369613677263260e-02 -1.054523140192031860e-01 -8.224776387214660645e-02 -1.735511422157287598e-01 1.578970986884087324e-04 6.457020342350006104e-02 6.866039335727691650e-02 8.664970844984054565e-02 -1.761230640113353729e-02 7.174748182296752930e-02 -8.612182736396789551e-02 -1.796532720327377319e-01 -2.043328247964382172e-03 -1.780663728713989258e-01 1.383090913295745850e-01 -1.281980872154235840e-01 1.765154600143432617e-01 -1.161700487136840820e-01 -1.516066491603851318e-01 -4.433806985616683960e-02 -1.354209780693054199e-01 -7.086085528135299683e-02 -4.248601570725440979e-02 6.397341936826705933e-02 -7.836863398551940918e-02 -1.788580119609832764e-01 -3.886943310499191284e-02 -8.741411566734313965e-02 -1.394025534391403198e-01 -2.337824106216430664e-01 1.984985359013080597e-02 1.970012113451957703e-02 -3.506488353013992310e-02 6.477975100278854370e-02 3.160346671938896179e-02 -6.486347317695617676e-02 -1.136442422866821289e-01 -1.127526760101318359e-01 9.788105264306068420e-03 -9.837340563535690308e-02 -1.434793919324874878e-01 6.569593399763107300e-02 1.677806228399276733e-01 -3.358562290668487549e-02 7.307912409305572510e-02 1.453250050544738770e-01 -9.040312469005584717e-02 1.302812844514846802e-01 -1.898746788501739502e-01 -5.092028062790632248e-03 7.694670557975769043e-02 1.279416494071483612e-02 -1.619756072759628296e-01 -1.250708550214767456e-01 -1.644512563943862915e-01 -2.224496565759181976e-02 -3.611754253506660461e-02 -4.641008004546165466e-02 3.335113637149333954e-03 9.310781955718994141e-02 -9.713278710842132568e-02 5.497761815786361694e-02 4.439176246523857117e-02 -1.129602193832397461e-01 -6.336804479360580444e-02 1.230378914624452591e-02 4.441525414586067200e-02 1.254140585660934448e-01 -1.419327035546302795e-02 1.754551380872726440e-02 -7.952449470758438110e-02 -3.037096746265888214e-02 -1.950061321258544922e-01 -2.233820110559463501e-01 -1.133276000618934631e-01 -3.982087969779968262e-02 4.180390387773513794e-02 -4.700246267020702362e-03 -9.612237662076950073e-02 4.846198111772537231e-02 5.760019272565841675e-02 -1.300505101680755615e-01 1.144421547651290894e-01 -1.028447449207305908e-01 3.608213365077972412e-02 -2.965071005746722221e-03 -1.210684422403573990e-02 1.100778463296592236e-03 -7.279629260301589966e-02 -1.874339729547500610e-01 1.566359102725982666e-01 -1.355786174535751343e-01 -3.907999023795127869e-02 5.084222182631492615e-02 -1.179385855793952942e-01 -1.940912753343582153e-01 -1.449457631679251790e-04 -3.725084662437438965e-02 -1.051782742142677307e-01 4.547044262290000916e-02 7.784073799848556519e-02 5.239057913422584534e-02 -1.351462770253419876e-02 6.106872856616973877e-02 -1.057535186409950256e-01 8.444996923208236694e-02 1.723691970109939575e-01 -3.580272570252418518e-02 1.486966013908386230e-01 -5.845832824707031250e-02 -1.930475980043411255e-02 -2.254246734082698822e-02 -1.179825812578201294e-01 -2.357336133718490601e-02 2.016484923660755157e-02 -3.445472940802574158e-02 -5.366977676749229431e-02 -2.361943013966083527e-02 -1.101846620440483093e-01 -1.682493835687637329e-03 7.853419333696365356e-02 4.925715550780296326e-02 -5.375142022967338562e-02 -3.212812170386314392e-02
-8.286997675895690918e-02 -5.708942189812660217e-02 -1.177816744893789291e-02 -6.359865516424179077e-02 -8.163615316152572632e-02 6.082050502300262451e-02 4.439792782068252563e-02 6.012206524610519409e-02 -8.728178218007087708e-03 7.382581382989883423e-02 -1.399070024490356445e-01 -1.627057045698165894e-01 5.944222211837768555e-02 4.159235209226608276e-02 -1.518508493900299072e-01 -1.701079756021499634e-01 -2.735964767634868622e-02 -4.324135184288024902e-02 -5.359540134668350220e-02 1.512841582298278809e-01 -2.265649288892745972e-02 9.918759763240814209e-02 -1.807603798806667328e-02 -1.160925999283790588e-01 -9.502883255481719971e-02 -5.005766451358795166e-02 -1.386684775352478027e-01 -5.917334556579589844e-02 -4.994803294539451599e-02 1.023286432027816772e-01 -7.994052022695541382e-02 5.047183483839035034e-02 1.443457752466201782e-01 -3.846600651741027832e-02 6.454835087060928345e-02 -2.831179590430110693e-04 1.425246149301528931e-01 -9.680486470460891724e-02 -1.031582280993461609e-01 8.551573753356933594e-02 1.430512499064207077e-02 -1.782897859811782837e-02 -3.658521175384521484e-02 -3.860058262944221497e-02 -6.352277100086212158e-02 2.646381221711635590e-02 2.679639437701553106e-04 -9.391359984874725342e-03 -1.120137646794319153e-01 -1.380635052919387817e-01 8.158878982067108154e-02 -2.225459739565849304e-02 3.779963776469230652e-02 7.134674582630395889e-03 1.564555615186691284e-01 -1.936283409595489502e-01 -1.535778772085905075e-02 -4.381205886602401733e-02 -9.789536148309707642e-02 -1.856694370508193970e-01 5.957911163568496704e-02 1.704491861164569855e-02 -9.452553093433380127e-02 5.551809445023536682e-02 9.993103891611099243e-02 6.125478073954582214e-02 1.895288378000259399e-01 -1.085781827569007874e-01 -1.009936928749084473e-01 -1.131077483296394348e-01 -4.628049582242965698e-02 9.055004268884658813e-02 1.803721114993095398e-02 1.276398915797472000e-02 7.040642201900482178e-02 3.820926696062088013e-02 -1.351454257965087891e-01 1.245411019772291183e-02 -2.408634684979915619e-02 8.095327764749526978e-03 1.431202143430709839e-01 1.937757432460784912e-01 -9.546534717082977295e-02 4.976596217602491379e-03 1.478411350399255753e-02 1.319742947816848755e-02 7.915439084172248840e-03 1.702036261558532715e-01 1.524284929037094116e-01 -6.009050831198692322e-02 -5.027342215180397034e-02 -2.410627007484436035e-01 5.956928804516792297e-02 -1.772788912057876587e-01 1.206334605813026428e-01 -6.937738507986068726e-02 1.054239347577095032e-01 -1.457461118698120117e-01 -1.899480521678924561e-01 -8.166020363569259644e-02 -3.016450442373752594e-02 -3.665370494127273560e-02 1.044692620635032654e-01 1.835709117585793138e-04 3.340867534279823303e-02 -1.435453295707702637e-01 1.272743046283721924e-01 -9.941750764846801758e-02 -2.802274189889431000e-02 5.132402479648590088e-02 -1.171920374035835266e-01 2.177216857671737671e-01 2.388483285903930664e-02 5.178306251764297485e-02 -6.800056248903274536e-02 7.832904905080795288e-02 -7.317171990871429443e-02 1.006115227937698364e-01 7.138766348361968994e-02 -1.373362392187118530e-01 1.359806209802627563e-01 3.199621289968490601e-02 -7.734331488609313965e-02 -7.567099481821060181e-02 4.819210246205329895e-02 -3.899106383323669434e-02 3.154066950082778931e-02 1.314908117055892944e-01 -3.390046954154968262e-02 -2.400545626878738403e-01 6.568743288516998291e-02 -1.714262664318084717e-01 -1.140299662947654724e-01 2.491532452404499054e-02 1.590870320796966553e-01 -7.832296192646026611e-02 -1.813243180513381958e-01 -8.847714960575103760e-02 1.401397287845611572e-01 1.774657964706420898e-01 -5.638469010591506958e-02 -9.747135639190673828e-02 -2.803417854011058807e-02 7.771675288677215576e-02 4.887976869940757751e-02 4.128607362508773804e-02 -1.231953576207160950e-01 6.984288245439529419e-02 3.322855010628700256e-02 7.469446212053298950e-02 5.310932919383049011e-02 -7.865107804536819458e-02 -7.894951105117797852e-02 -7.902429997920989990e-02 8.590190671384334564e-03 -3.646095097064971924e-02 7.143911439925432205e-03 -2.596349827945232391e-02 5.535876750946044922e-02 -3.158780559897422791e-02 -6.721797399222850800e-03 4.062281921505928040e-02 1.433040797710418701e-01 -2.269635349512100220e-02 -6.327390670776367188e-02 4.667147994041442871e-02 -1.365473866462707520e-01 -6.365539133548736572e-02 1.498361825942993164e-01 -9.501357376575469971e-02 -1.398008037358522415e-02 2.541016601026058197e-02 -3.109655110165476799e-03 2.478492073714733124e-02 7.816399633884429932e-02 -6.612511724233627319e-02 -8.401585370302200317e-02 -2.061772719025611877e-02 -8.213226497173309326e-02 -1.562076508998870850e-01 6.511091440916061401e-02 -5.461309850215911865e-02 -2.825156413018703461e-02 -5.598258972167968750e-02 -6.661311537027359009e-02 1.496596485376358032e-01 5.396893993020057678e-02 -1.202987879514694214e-02 -6.820230931043624878e-02 9.079945087432861328e-02 -4.135747253894805908e-02 -1.619522869586944580e-01 -2.903993939980864525e-03 -2.491993457078933716e-01 -1.988853514194488525e-01 -8.642081171274185181e-02 8.823262155055999756e-02 -4.227854683995246887e-02 7.809696346521377563e-02 1.352820545434951782e-01 -2.137535251677036285e-02 -1.578422486782073975e-01 9.704487398266792297e-03 -1.088154688477516174e-01 9.845833480358123779e-02 -1.921141743659973145e-01 3.799224738031625748e-03 -4.374020919203758240e-02 4.561893641948699951e-02 -1.734758913516998291e-01 -5.793118476867675781e-02 1.776854842901229858e-01 1.113309059292078018e-02 -2.872150763869285583e-02 -9.101600153371691704e-04 -1.148226335644721985e-01 -7.208438962697982788e-02 -8.589933812618255615e-02 -4.473196715116500854e-02 3.349610045552253723e-02 1.047037243843078613e-01 7.316485047340393066e-02 3.258622810244560242e-02 2.613328583538532257e-02 -3.692014887928962708e-02 -1.517917960882186890e-01 -1.252217739820480347e-01 3.039214573800563812e-02 -1.394902020692825317e-01 4.126195609569549561e-02 -1.244330182671546936e-01 6.262217462062835693e-02 -7.252942025661468506e-02 4.632756114006042480e-02 -1.090263351798057556e-01 -6.720804423093795776e-02 4.716882854700088501e-02 2.169137075543403625e-02 9.920928627252578735e-02 3.902902081608772278e-02 -1.195579171180725098e-01 1.615103632211685181e-01 -3.175463154911994934e-02 -1.062013879418373108e-01 -1.849552839994430542e-01 -1.475288569927215576e-01 1.917959749698638916e-02 -7.718659937381744385e-02 -4.935612156987190247e-02 -1.106957644224166870e-01 -1.171515807509422302e-01 4.486218094825744629e-03 -5.632311105728149414e-03 -4.680909961462020874e-02 -1.346006840467453003e-01 -1.538744121789932251e-01
-8.085445314645767212e-02 -2.113909274339675903e-02 3.405806049704551697e-02 -3.216213732957839966e-02 3.431829437613487244e-02 5.827935785055160522e-02 -7.581501454114913940e-02 -1.346727460622787476e-01 -2.697097510099411011e-02 -2.159015042707324028e-03 5.980960279703140259e-02 -1.150073856115341187e-01 1.519077867269515991e-01 1.119532883167266846e-01 -9.885589033365249634e-02 -4.544391296803951263e-03 -1.609342396259307861e-01 -2.965222299098968506e-02 -1.100563779473304749e-01 9.432917460799217224e-03 1.077588796615600586e-01 6.645548343658447266e-02 4.024710506200790405e-02 1.884218305349349976e-01 1.081473976373672485e-01 -4.754072800278663635e-02 1.545233428478240967e-01 1.170659810304641724e-01 1.387310922145843506e-01 4.113098978996276855e-02 8.504874072968959808e-03 -1.079572960734367371e-01 2.950947359204292297e-02 -8.510989695787429810e-02 -1.835692091844975948e-03 8.496578037738800049e-02 1.019641384482383728e-01 8.396425098180770874e-02 -2.819128334522247314e-02 -1.010421216487884521e-01 1.026092469692230225e-01 -3.007984254509210587e-03 -8.265284821391105652e-03 7.092399895191192627e-02 -6.888621300458908081e-02 9.444356709718704224e-02 -6.350471079349517822e-02 -6.008753553032875061e-02 -7.358456961810588837e-03 -2.039947360754013062e-02 -5.200270190834999084e-02 -2.037380188703536987e-01 -2.787121385335922241e-02 7.762285321950912476e-02 1.012847274541854858e-01 -6.165400892496109009e-02 -2.794166654348373413e-02 1.784575358033180237e-02 -6.153685599565505981e-02 -1.042819097638130188e-01 9.289565682411193848e-02 9.443157911300659180e-02 -2.249563485383987427e-02 5.124027375131845474e-03 -6.224551424384117126e-02 -5.482320487499237061e-02 2.141279401257634163e-03 7.660523802042007446e-02 -7.474028319120407104e-02 -8.042693883180618286e-02 -1.715660095214843750e-02 1.142641156911849976e-01 8.187967538833618164e-02 9.909533709287643433e-02 -6.979720294475555420e-02 1.543954364024102688e-03 -1.269762217998504639e-01 2.237522751092910767e-01 -9.188662469387054443e-02 -8.559051901102066040e-02 -1.466400772333145142e-01 3.354663029313087463e-02 -2.083850950002670288e-01 -1.241683661937713623e-01 6.534703075885772705e-02 9.709226340055465698e-02 3.541007637977600098e-03 -9.652294218540191650e-02 1.180364787578582764e-01 1.384510099887847900e-01 -9.160035848617553711e-02 1.782942265272140503e-01 -1.592255979776382446e-01 -5.093967542052268982e-02 -5.669732764363288879e-02 -7.570604979991912842e-02 1.138753890991210938e-01 -1.726503670215606689e-02 -6.713215261697769165e-02 -1.488819485530257225e-03 4.720432311296463013e-02 -1.554413884878158569e-01 7.299517095088958740e-02 -1.215799674391746521e-01 1.476810276508331299e-01 2.843658439815044403e-02 -6.197830662131309509e-02 -5.096597224473953247e-02 7.822593674063682556e-03 -7.712551951408386230e-02 -9.709265083074569702e-02 5.878459289669990540e-02 4.733053501695394516e-03 -1.288668019697070122e-03 4.474902153015136719e-02 4.422035068273544312e-02 1.102030277252197266e-01 1.054633259773254395e-01 3.368911892175674438e-02 1.183196809142827988e-02 3.645438328385353088e-02 -1.318124681711196899e-01 1.234455127269029617e-02 -7.514087110757827759e-02 1.347940117120742798e-01 8.692458271980285645e-02 7.146945595741271973e-02 6.001285836100578308e-02 -3.929012641310691833e-02 2.516100369393825531e-02 3.876295313239097595e-02 -1.154752075672149658e-01 -4.535305872559547424e-02 1.299945861101150513e-01 1.187567040324211121e-01 1.830332167446613312e-02 9.304268658161163330e-02 -1.848717629909515381e-01 8.009629696607589722e-02 1.256026298506185412e-04 -2.229193001985549927e-01 -1.786985397338867188e-01 -1.356703191995620728e-01 -1.325323879718780518e-01 3.479553759098052979e-02 -2.083249203860759735e-02 5.775699019432067871e-02 -1.323836892843246460e-01 -1.597742736339569092e-02 1.435511708259582520e-01 4.655859246850013733e-02 2.275522612035274506e-02 -5.375181790441274643e-04 2.896133437752723694e-02 4.185737296938896179e-02 -6.807974725961685181e-02 -1.108422800898551941e-01 4.087994620203971863e-02 1.929138600826263428e-02 -1.230120658874511719e-01 -1.106611490249633789e-01 1.965409368276596069e-01 -5.148212658241391182e-04 -9.543207287788391113e-02 -1.525349915027618408e-02 -2.917910180985927582e-02 6.640458852052688599e-02 -1.237288340926170349e-01 -2.052902011200785637e-03 1.520577073097229004e-01 5.213811993598937988e-02 1.058383285999298096e-01 -1.145417094230651855e-01 -1.766432523727416992e-01 1.167864724993705750e-02 8.137088268995285034e-02 8.818008936941623688e-04 4.014197364449501038e-02 1.485413163900375366e-01 6.769400835037231445e-02 -3.008292056620121002e-03 4.647516831755638123e-02 -6.478731334209442139e-02 -3.382117673754692078e-02 1.135512739419937134e-01 -6.036407500505447388e-02 6.467219442129135132e-02 1.560178995132446289e-01 1.818520426750183105e-01 -1.483495980501174927e-01 1.952350139617919922e-01 1.225238740444183350e-01 1.300398074090480804e-02 -9.869492799043655396e-02 -1.787292659282684326e-01 2.027222141623497009e-02 3.400151804089546204e-02 1.084533780813217163e-01 1.914104819297790527e-01 8.898272365331649780e-02 -5.723366630263626575e-04 3.710906580090522766e-02 -7.598748058080673218e-02 1.472030878067016602e-01 -9.854979813098907471e-02 1.124960035085678101e-01 -2.431328874081373215e-03 1.211119145154953003e-01 1.912396587431430817e-02 5.741011723875999451e-02 5.318135768175125122e-02 -1.683902889490127563e-01 -8.263488113880157471e-02 -3.699523955583572388e-02 -3.215737640857696533e-02 1.219635680317878723e-01 -1.693005673587322235e-02 -1.585978083312511444e-02 -1.315319538116455078e-01 4.124796763062477112e-02 -2.557362988591194153e-02 -2.131879515945911407e-02 -2.953877858817577362e-02 -3.393777459859848022e-02 -6.007266044616699219e-02 -1.894100219942629337e-03 7.435131818056106567e-02 -1.033293679356575012e-01 8.646016940474510193e-03 -4.708328098058700562e-02 -9.974279673770070076e-04 -2.204677760601043701e-01 -2.073509991168975830e-02 -3.542020171880722046e-02 -1.308314055204391479e-01 1.182492598891258240e-01 -2.407858893275260925e-02 -2.197857946157455444e-02 -3.678962588310241699e-02 6.697655469179153442e-02 -2.470322325825691223e-02 -1.405202504247426987e-02 -6.194844469428062439e-02 -1.434527635574340820e-01 -5.235051363706588745e-02 -2.993295341730117798e-02 1.094855554401874542e-02 1.125343292951583862e-01 -1.651987582445144653e-01 -8.086413145065307617e-02 7.397215347737073898e-03 -1.173455342650413513e-01 -2.428394742310047150e-02 1.466953456401824951e-01 -1.223936975002288818e-01 1.011137012392282486e-02
7.909493893384933472e-02 2.137372829020023346e-02 2.337820641696453094e-02 -2.571269124746322632e-02 9.171310812234878540e-02 -1.836600154638290405e-02 9.848195128142833710e-03 9.642275981605052948e-03 -4.499131441116333008e-02 -6.262382864952087402e-02 7.937589287757873535e-02 -1.977207064628601074e-01 -7.330099493265151978e-02 -9.283807873725891113e-02 1.692455075681209564e-02 -5.280489474534988403e-02 1.527810543775558472e-01 1.734147779643535614e-02 4.922865424305200577e-03 4.402950033545494080e-02 3.005685843527317047e-02 1.125441044569015503e-01 -1.011018753051757812e-01 -1.847250312566757202e-01 -1.197924762964248657e-01 -1.607306301593780518e-01 2.866474352777004242e-02 1.133541315793991089e-01 -2.275818586349487305e-02 -1.072938665747642517e-01 -1.271480619907379150e-01 -7.709204405546188354e-02 -4.220754839479923248e-03 -7.252594083547592163e-02 1.355899125337600708e-01 -2.299112500622868538e-03 2.171407081186771393e-02 4.374277068563969806e-06 -2.379843294620513916e-01 5.740974470973014832e-02 -1.146671473979949951e-01 1.967073380947113037e-01 -1.128148101270198822e-02 -1.407331973314285278e-01 -1.716848760843276978e-01 3.069783747196197510e-02 -5.197225883603096008e-02 -1.188627779483795166e-01 5.432762950658798218e-02 -6.049500778317451477e-02 2.166811563074588776e-02 1.476456820964813232e-01 -2.971685677766799927e-02 -1.122972965240478516e-01 3.655453026294708252e-02 6.012143939733505249e-02 2.610917901620268822e-03 1.717394590377807617e-01 -6.243158504366874695e-02 -1.875388249754905701e-02 -7.531560957431793213e-02 1.959681883454322815e-02 -1.501370873302221298e-02 5.218165367841720581e-02 -9.914164245128631592e-02 9.371241182088851929e-02 -3.319296985864639282e-03 -1.111628115177154541e-01 1.622693985700607300e-02 -3.812549263238906860e-02 6.504009943455457687e-03 -9.917172789573669434e-02 1.047591939568519592e-01 2.219179421663284302e-01 2.729791216552257538e-02 1.559588462114334106e-01 7.444059103727340698e-02 -1.549613326787948608e-01 -6.957375258207321167e-02 -8.648755610920488834e-04 -1.268138289451599121e-01 -5.894365534186363220e-02 -7.699222117662429810e-02 -1.333908587694168091e-01 -9.782344568520784378e-04 9.397763758897781372e-02 8.091959357261657715e-02 5.812309682369232178e-02 -1.325081884860992432e-01 3.971732407808303833e-02 -1.074564382433891296e-01 1.547755300998687744e-01 -2.182475775480270386e-01 -3.003073669970035553e-02 -2.077837735414505005e-01 -4.325931146740913391e-02 -2.580107748508453369e-02 5.161464679986238480e-03 2.940273284912109375e-02 -3.534914180636405945e-02 -4.306692630052566528e-02 7.549614459276199341e-02 -1.638001650571823120e-01 5.295562744140625000e-02 3.914026543498039246e-02 1.426239907741546631e-01 2.178784087300300598e-02 -8.703465014696121216e-02 -1.428471952676773071e-01 5.176355130970478058e-03 4.162856191396713257e-02 4.620976373553276062e-02 -4.564589634537696838e-02 3.115905681625008583e-03 -4.480016231536865234e-02 2.654414065182209015e-02 4.460312053561210632e-02 4.211151972413063049e-02 -1.565251946449279785e-01 -1.228055357933044434e-01 9.209172427654266357e-02 -1.022267341613769531e-02 -1.197267174720764160e-01 -2.032738178968429565e-01 -5.803384259343147278e-02 3.150196000933647156e-02 8.914454281330108643e-02 -4.679384082555770874e-02 4.495848342776298523e-02 -5.677280202507972717e-02 1.410702764987945557e-01 9.643035382032394409e-02 1.370238885283470154e-02 -4.938635602593421936e-02 9.921212680637836456e-03 6.556266546249389648e-02 -1.443952322006225586e-01 1.129397451877593994e-01 2.899275720119476318e-02 -1.652835458517074585e-01 -5.319691821932792664e-02 -1.149279922246932983e-01 1.253944039344787598e-01 -5.207441747188568115e-02 -1.998026669025421143e-01 -7.341748476028442383e-02 1.692159660160541534e-02 -6.290372461080551147e-02 -4.322224110364913940e-02 -1.936084032058715820e-02 -1.127287447452545166e-01 -7.013779878616333008e-02 -1.005589682608842850e-02 1.834366023540496826e-01 9.664298593997955322e-02 -1.317434199154376984e-02 -6.035690754652023315e-02 1.527981162071228027e-01 6.875541526824235916e-03 1.884522140026092529e-01 5.408859252929687500e-02 1.860972307622432709e-02 -3.431976586580276489e-02 5.749945715069770813e-02 1.068602055311203003e-01 -5.455247685313224792e-02 -1.030463501811027527e-01 -2.024529501795768738e-02 -7.871823757886886597e-02 8.435633033514022827e-02 5.369887873530387878e-02 1.168356835842132568e-02 -1.548014134168624878e-01 -8.619797974824905396e-02 1.040374711155891418e-01 -1.797908097505569458e-01 -3.990963473916053772e-02 -1.110466122627258301e-01 -6.963741034269332886e-02 4.185793921351432800e-02 8.950160443782806396e-02 -6.850019842386245728e-02 -2.375110983848571777e-02 -4.537530243396759033e-02 1.803123205900192261e-01 -5.472230538725852966e-02 -6.270073354244232178e-02 1.207828298211097717e-01 -5.931654945015907288e-02 2.546396479010581970e-02 -1.296883728355169296e-02 5.097423121333122253e-02 7.740027457475662231e-02 -1.088376268744468689e-01 7.959228008985519409e-02 -3.469644114375114441e-03 3.125504031777381897e-02 -9.039826691150665283e-02 -2.038623206317424774e-02 2.018092758953571320e-02 5.025136843323707581e-02 6.618843227624893188e-02 1.530312467366456985e-02 -1.266448497772216797e-01 -7.671231776475906372e-02 -1.416140645742416382e-01 -5.057293921709060669e-03 4.311997815966606140e-02 2.669707406312227249e-03 2.178287804126739502e-01 -8.334080129861831665e-02 -5.985982343554496765e-02 -4.622626304626464844e-02 -2.834982611238956451e-02 9.752942621707916260e-02 1.256009843200445175e-02 -3.801943361759185791e-02 -2.182188034057617188e-01 1.210369765758514404e-01 -1.612613908946514130e-02 6.345589458942413330e-02 4.407213255763053894e-02 9.833408892154693604e-02 1.203008927404880524e-03 4.112207517027854919e-02 1.841023005545139313e-02 5.727275088429450989e-02 -5.462079122662544250e-02 6.791011989116668701e-02 -1.269732564687728882e-01 -1.489000767469406128e-01 -2.009585648775100708e-01 -8.417376317083835602e-03 -6.609356403350830078e-02 -9.193835407495498657e-02 -1.401557624340057373e-01 -4.854196682572364807e-02 3.656321763992309570e-02 5.479266867041587830e-02 4.720118641853332520e-02 -6.260714679956436157e-02 -9.259024262428283691e-02 1.343773156404495239e-01 1.797130107879638672e-01 -4.481782764196395874e-02 1.513235419988632202e-01 7.448419183492660522e-02 -6.538798660039901733e-02 1.106039434671401978e-01 1.833647042512893677e-01 8.201324939727783203e-02 -8.053264766931533813e-02 -9.188847034238278866e-04 1.217118576169013977e-01 -7.661817222833633423e-02 -1.148210465908050537e-01
1.854168437421321869e-02 -1.864976808428764343e-02 5.161649733781814575e-02 2.998448908329010010e-02 1.132081672549247742e-01 -5.846991017460823059e-02 7.320037484169006348e-02 1.367535907775163651e-02 4.432802554219961166e-03 -9.725410491228103638e-02 -3.011966347694396973e-01 -5.613228306174278259e-03 -7.760617882013320923e-03 1.228245347738265991e-01 6.043394096195697784e-04 5.125803872942924500e-02 5.965840071439743042e-02 -1.081785839051008224e-02 -3.100800514221191406e-02 -8.467224426567554474e-03 1.416543126106262207e-01 3.436492756009101868e-02 -1.913087256252765656e-02 1.653525047004222870e-02 6.866580992937088013e-02 2.423714473843574524e-02 2.347914278507232666e-01 6.747827678918838501e-02 6.379595398902893066e-02 3.040152601897716522e-02 1.946613937616348267e-02 1.342402994632720947e-01 -9.067732840776443481e-02 -3.387808427214622498e-02 -3.359745815396308899e-02 1.595551073551177979e-01 4.646823182702064514e-02 1.202056482434272766e-01 1.151442825794219971e-01 8.193285018205642700e-02 8.459463715553283691e-02 2.966507803648710251e-03 4.794044792652130127e-02 -3.329456225037574768e-02 3.049658238887786865e-02 2.283734083175659180e-02 1.317685693502426147e-01 -5.134299397468566895e-03 1.877046525478363037e-01 -8.318674564361572266e-02 3.815217688679695129e-02 -7.962198555469512939e-02 -2.046179622411727905e-01 -1.156131178140640259e-01 -7.235038280487060547e-02 2.104914486408233643e-01 2.292374819517135620e-01 -1.003285869956016541e-02 2.961456589400768280e-02 -2.468850314617156982e-01 -9.787843376398086548e-02 5.064987391233444214e-02 -1.400601211935281754e-02 -3.580709919333457947e-02 -2.775862999260425568e-02 1.004113256931304932e-01 -3.984441608190536499e-02 -2.694112434983253479e-02 -4.342324100434780121e-03 -7.148410379886627197e-02 9.899653494358062744e-02 -4.415386170148849487e-02 7.467138767242431641e-02 -1.528593003749847412e-01 9.590981155633926392e-02 -2.336046844720840454e-02 8.157176524400711060e-02 1.621655933558940887e-02 -7.231462001800537109e-02 -1.590209901332855225e-01 8.198988623917102814e-03 -3.530922532081604004e-02 -1.209522709250450134e-01 -3.791245445609092712e-02 -1.348143368959426880e-01 -1.021190732717514038e-01 -2.326667495071887970e-02 -4.956098645925521851e-02 -6.624186038970947266e-02 1.282285898923873901e-01 6.215586513280868530e-02 4.198261350393295288e-02 4.338672012090682983e-02 1.139534451067447662e-02 9.239126741886138916e-02 -5.078164394944906235e-03 -1.606731675565242767e-02 7.271158695220947266e-02 4.762720316648483276e-02 2.755885198712348938e-02 8.519654721021652222e-02 -1.258578002452850342e-01 1.108281612396240234e-01 2.692290209233760834e-02 -2.228897437453269958e-02 -1.655746996402740479e-01 -2.396059455350041389e-03 -4.295412823557853699e-02 -8.745261281728744507e-02 1.574883610010147095e-01 2.386291697621345520e-02 -3.402736410498619080e-02 -5.912214517593383789e-03 -9.229572862386703491e-02 -7.977579534053802490e-02 -5.546266585588455200e-02 -5.451478064060211182e-02 7.547779381275177002e-02 4.571303725242614746e-02 -7.132206857204437256e-02 1.147592142224311829e-01 4.145691543817520142e-02 -3.079384937882423401e-02 -1.488337516784667969e-01 4.127596691250801086e-02 5.376285687088966370e-02 -1.415159255266189575e-01 -9.522401541471481323e-02 -9.450162202119827271e-02 3.426507487893104553e-02 3.725652694702148438e-01 -1.795777827501296997e-01 3.657239302992820740e-02 -1.535566300153732300e-01 2.618301101028919220e-02 -1.488310098648071289e-02 -1.017624139785766602e-02 -1.061016842722892761e-01 -1.193287968635559082e-02 1.108527705073356628e-01 1.864663213491439819e-01 -1.149532757699489594e-02 -8.963027969002723694e-03 -6.726013380102813244e-04 -5.208259820938110352e-02 1.878453604876995087e-02 -1.138393655419349670e-01 1.177570670843124390e-01 5.575134605169296265e-02 3.317311033606529236e-02 -8.777418732643127441e-02 1.216962654143571854e-02 -2.813760936260223389e-02 1.116540655493736267e-01 -3.657940030097961426e-02 -8.545875549316406250e-02 -2.621244452893733978e-02 -1.178765669465065002e-01 1.477112919092178345e-01 3.414947539567947388e-02 -8.145558089017868042e-02 6.994501501321792603e-02 -1.073335558176040649e-01 1.327693909406661987e-01 -2.362056076526641846e-02 1.779917813837528229e-02 -3.170121833682060242e-02 -1.938385367393493652e-01 1.426409184932708740e-01 -2.503138780593872070e-01 -1.742557995021343231e-02 -1.286010146141052246e-01 -7.563696056604385376e-02 2.649559266865253448e-02 -1.296118739992380142e-02 -2.143478989601135254e-01 -2.313724718987941742e-02 -3.781746327877044678e-02 9.558684378862380981e-02 3.301457315683364868e-02 2.751515433192253113e-02 5.427676439285278320e-02 -1.007980406284332275e-01 -1.550279464572668076e-02 -1.585403978824615479e-01 1.136799827218055725e-01 3.141784295439720154e-02 2.169147366657853127e-03 4.269883409142494202e-02 -1.005062237381935120e-01 1.074325889348983765e-01 -3.122876025736331940e-02 1.858615726232528687e-01 6.197035778313875198e-03 3.382268128916621208e-03 3.881891816854476929e-02 -1.196461692452430725e-01 -6.876011379063129425e-03 -1.667609363794326782e-01 6.599410623311996460e-02 4.279946535825729370e-02 -2.864255942404270172e-02 1.116074174642562866e-01 2.235751971602439880e-02 5.822959938086569309e-04 1.116978600621223450e-01 3.607153147459030151e-02 2.760343253612518311e-01 1.850291155278682709e-02 3.584748506546020508e-02 -3.572895750403404236e-02 -1.252296566963195801e-01 -3.941402584314346313e-02 2.428387477993965149e-02 4.979350417852401733e-02 -9.312134981155395508e-02 5.799638479948043823e-02 -6.430799514055252075e-02 1.453827321529388428e-02 -4.874015599489212036e-02 1.000238209962844849e-01 4.353243485093116760e-02 -9.229328483343124390e-02 -2.317507937550544739e-02 3.686548396944999695e-02 -3.502390161156654358e-02 -4.303810745477676392e-02 -6.235672160983085632e-02 -7.165136188268661499e-02 1.028669159859418869e-02 7.188361883163452148e-02 -2.947399334516376257e-04 8.509903401136398315e-02 7.562000304460525513e-02 -4.359674453735351562e-02 -9.940963238477706909e-03 2.799973357468843460e-03 -6.080227717757225037e-02 -3.955851495265960693e-02 -9.671971201896667480e-02 1.514699608087539673e-01 -3.240711055696010590e-03 -2.069177627563476562e-01 -3.340317308902740479e-02 7.327903807163238525e-02 8.196379989385604858e-02 4.659602046012878418e-02 -1.106572523713111877e-02 7.309012115001678467e-02 5.908583104610443115e-02 -3.002884984016418457e-02 -7.803880423307418823e-02 7.836145907640457153e-02 -8.708558976650238037e-02 -5.000993236899375916e-02 -2.148625254631042480e-01
6.324659287929534912e-02 -1.211454393342137337e-03 -1.744604706764221191e-01 -1.256085187196731567e-01 2.470256090164184570e-01 -8.656954020261764526e-02 2.100256457924842834e-02 1.329133659601211548e-01 1.819921582937240601e-01 -3.142829239368438721e-02 -5.675123538821935654e-03 1.131972223520278931e-01 -1.041474491357803345e-01 9.593135863542556763e-02 -1.419202685356140137e-01 2.006671577692031860e-01 1.129731908440589905e-01 -1.172200217843055725e-02 -1.588222943246364594e-02 -5.662340670824050903e-02 -6.886318325996398926e-02 -1.766916215419769287e-01 -6.656028330326080322e-02 -1.390813887119293213e-01 -2.919558994472026825e-02 -1.118627116084098816e-01 6.955701392143964767e-03 -8.428060263395309448e-02 -5.584473535418510437e-02 1.031660065054893494e-01 1.102695986628532410e-01 -7.777128368616104126e-02 1.107641682028770447e-02 1.064560003578662872e-02 4.515046253800392151e-02 2.560440823435783386e-02 4.389668628573417664e-02 -1.433836389333009720e-02 6.988406181335449219e-03 4.504438862204551697e-02 8.688246458768844604e-02 6.349714100360870361e-02 -7.676633447408676147e-02 -8.684551715850830078e-02 4.404338821768760681e-02 -1.066714450716972351e-01 -9.676607325673103333e-03 -4.974009469151496887e-02 6.472644954919815063e-02 1.190841868519783020e-01 1.689705103635787964e-01 -8.259811997413635254e-02 6.375867128372192383e-02 3.839222341775894165e-02 -8.813413232564926147e-02 1.119972020387649536e-02 -1.913288235664367676e-01 -1.338786538690328598e-02 -1.442029774188995361e-01 1.918608881533145905e-02 -1.433770954608917236e-01 -1.986813545227050781e-01 -2.118254266679286957e-02 1.426325831562280655e-02 1.417382061481475830e-01 -2.952854633331298828e-01 -4.001404345035552979e-02 -1.627572476863861084e-01 -8.127731829881668091e-02 -7.326769828796386719e-02 -1.175973936915397644e-02 7.112274877727031708e-03 9.803939610719680786e-02 -1.082986220717430115e-01 -2.402663603425025940e-02 6.022150069475173950e-02 7.349169999361038208e-02 -5.681768059730529785e-02 2.557378262281417847e-02 -9.176547825336456299e-02 -1.267265379428863525e-01 -9.754548664204776287e-04 2.683581784367561340e-02 6.317177414894104004e-02 1.227952241897583008e-01 -8.653977513313293457e-02 4.129794426262378693e-03 -4.810659214854240417e-02 -5.836782231926918030e-02 9.784168004989624023e-02 3.751444816589355469e-02 2.008024416863918304e-02 -7.099132239818572998e-02 3.965146467089653015e-02 -1.334994584321975708e-01 1.837388053536415100e-02 1.755937933921813965e-02 -1.554807126522064209e-01 -1.938130557537078857e-01 4.311192408204078674e-02 -1.458919793367385864e-01 7.293761242181062698e-03 -1.051078960299491882e-01 6.051424890756607056e-03 7.923603802919387817e-02 1.418851912021636963e-01 8.835583925247192383e-02 -1.086222231388092041e-01 5.486363917589187622e-02 -7.679773867130279541e-02 8.622017502784729004e-02 8.858864195644855499e-03 -1.400665193796157837e-01 8.894841372966766357e-02 7.250889390707015991e-02 -5.989606678485870361e-02 1.186808794736862183e-01 -6.097812950611114502e-02 1.409384608268737793e-01 -5.267136171460151672e-02 -2.078859880566596985e-02 9.003432840108871460e-02 3.123149648308753967e-02 -1.106638237833976746e-01 -2.037426829338073730e-02 -1.446091569960117340e-02 7.133119273930788040e-03 5.992645397782325745e-02 4.219167307019233704e-02 1.248489972203969955e-02 2.452845126390457153e-02 7.567361742258071899e-02 -6.515345722436904907e-02 4.766305536031723022e-02 -3.908896446228027344e-02 -1.272556036710739136e-01 2.606800757348537445e-02 -4.350218176841735840e-02 -3.695165365934371948e-02 9.254442900419235229e-02 4.140450432896614075e-02 -1.077937036752700806e-01 2.428760193288326263e-02 2.005829513072967529e-01 -5.124597996473312378e-02 -8.891169726848602295e-02 -6.005082651972770691e-02 2.816010639071464539e-02 -4.557485505938529968e-02 1.092398092150688171e-01 1.162624284625053406e-01 -4.157279804348945618e-02 -9.758137166500091553e-02 -8.362651616334915161e-02 -8.678824454545974731e-02 7.416384667158126831e-02 -4.744776058942079544e-03 -3.148084133863449097e-02 2.960360422730445862e-02 4.023487679660320282e-03 1.430303454399108887e-01 1.014282181859016418e-01 -8.465079218149185181e-02 3.007650189101696014e-02 8.850656449794769287e-02 7.385971397161483765e-02 -1.257567852735519409e-01 1.161888986825942993e-01 -2.669644914567470551e-02 -1.051993593573570251e-01 -6.927856057882308960e-02 1.083243754692375660e-03 9.814936667680740356e-02 -5.622984841465950012e-02 -1.237434446811676025e-01 5.411340296268463135e-02 -2.162480950355529785e-01 -1.861270219087600708e-01 1.512809842824935913e-01 -1.439606491476297379e-02 -1.949880868196487427e-01 -1.105224117636680603e-01 -1.168322712182998657e-01 1.092293858528137207e-01 -6.689339876174926758e-02 3.507513925433158875e-02 -7.912711799144744873e-02 7.443024218082427979e-02 6.233996152877807617e-02 1.144273504614830017e-01 -8.514152467250823975e-02 -3.393809869885444641e-02 7.615599036216735840e-02 2.609881339594721794e-04 3.465511277318000793e-02 1.265516728162765503e-01 -1.649588048458099365e-01 1.280204057693481445e-01 5.523568764328956604e-02 3.085088916122913361e-02 3.207506611943244934e-02 1.560596823692321777e-01 -1.331968009471893311e-01 7.075297087430953979e-02 1.120851933956146240e-01 -1.431737542152404785e-01 -1.680162698030471802e-01 1.540293246507644653e-01 -1.714567691087722778e-01 -2.491460368037223816e-02 1.547633558511734009e-01 7.670576870441436768e-02 -1.948141492903232574e-02 -6.767781823873519897e-02 -2.425888180732727051e-02 -3.902102634310722351e-02 3.898494690656661987e-02 -1.268970817327499390e-01 -1.599829643964767456e-01 1.910623908042907715e-01 1.281724274158477783e-01 1.387785095721483231e-02 -8.016098290681838989e-03 -6.353479623794555664e-02 -3.384842351078987122e-02 1.225523725152015686e-01 -4.832189902663230896e-02 -1.622181758284568787e-02 -9.826593101024627686e-03 1.039094850420951843e-01 1.142779812216758728e-01 1.203531515784561634e-03 9.543228149414062500e-02 -1.348604112863540649e-01 -1.210801601409912109e-01 -5.666233133524656296e-03 1.027834340929985046e-01 -7.250262051820755005e-02 -8.237452059984207153e-02 6.811974570155143738e-03 2.203266322612762451e-02 -5.617496743798255920e-02 1.385039277374744415e-02 -1.044793799519538879e-02 -1.399075686931610107e-01 6.657087802886962891e-02 -1.023277863860130310e-01 8.668355643749237061e-02 1.143495664000511169e-01 7.521840929985046387e-02 -2.029736153781414032e-02 1.256527453660964966e-01 1.698801219463348389e-01 -1.368004530668258667e-01 2.741937339305877686e-02 1.445529342163354158e-04
8.044189773499965668e-03 8.400569111108779907e-02 -7.863683253526687622e-02 -8.903926610946655273e-02 1.296783331781625748e-02 -1.193938627839088440e-01 -1.310497075319290161e-01 -9.625597298145294189e-02 1.805048808455467224e-02 1.216455698013305664e-01 5.374475568532943726e-02 3.131424775347113609e-03 -2.181335389614105225e-01 2.774753607809543610e-03 -1.401427686214447021e-01 -8.248345553874969482e-02 -1.055540330708026886e-02 9.445897489786148071e-02 -1.338446233421564102e-02 -7.007120642811059952e-03 -4.748263210058212280e-02 4.177875444293022156e-02 1.108282506465911865e-01 8.466300368309020996e-02 -5.789569020271301270e-02 3.284366801381111145e-02 -4.052510485053062439e-02 -7.212071865797042847e-02 1.869808435440063477e-01 -7.635944336652755737e-02 -1.565840393304824829e-01 1.324810981750488281e-01 1.589738726615905762e-01 9.307572990655899048e-02 5.903639644384384155e-02 -3.302419558167457581e-02 5.793262645602226257e-02 1.987891970202326775e-03 1.797425933182239532e-02 9.093710780143737793e-02 -2.426977753639221191e-01 1.733186393976211548e-01 -6.699292361736297607e-02 -1.327719818800687790e-02 1.578647643327713013e-01 -3.285262361168861389e-02 1.727140042930841446e-03 -7.989895343780517578e-02 5.517581477761268616e-02 -3.154849633574485779e-02 -3.209995850920677185e-02 -1.613965034484863281e-01 -8.420640975236892700e-02 4.931022599339485168e-02 -2.806749045848846436e-01 -1.070627272129058838e-01 5.423853546380996704e-02 1.697863489389419556e-01 -6.890418380498886108e-02 -1.183362025767564774e-02 -6.349786370992660522e-02 -1.916985362768173218e-01 -3.940468654036521912e-02 -9.399864822626113892e-02 9.248001128435134888e-02 4.324314743280410767e-02 1.023456305265426636e-01 -6.342425942420959473e-02 6.004819273948669434e-02 3.524022176861763000e-02 1.763584762811660767e-01 9.539014101028442383e-02 2.865166869014501572e-03 2.979962527751922607e-02 -1.128302421420812607e-03 -7.688540220260620117e-02 5.633454024791717529e-02 2.069108188152313232e-02 6.391171365976333618e-02 -1.902152970433235168e-02 9.159371256828308105e-03 -1.434616893529891968e-01 -2.960974574089050293e-01 5.680340528488159180e-02 -9.807309508323669434e-02 -9.080278128385543823e-02 -1.483648922294378281e-02 -6.708362698554992676e-02 1.047082468867301941e-01 1.031769514083862305e-01 1.407581120729446411e-01 1.672046631574630737e-02 4.884507507085800171e-02 1.871702075004577637e-01 -5.173082649707794189e-02 -5.382170155644416809e-02 -1.314214710146188736e-02 2.940761856734752655e-02 -4.055519774556159973e-02 -4.837513342499732971e-02 1.539103835821151733e-01 -5.133212357759475708e-02 -1.353472620248794556e-01 -2.611837117001414299e-03 -3.755103051662445068e-02 -4.221645370125770569e-02 2.686933241784572601e-02 -6.186524406075477600e-02 1.050517782568931580e-01 -1.422027647495269775e-01 -1.124397963285446167e-01 -4.087552055716514587e-02 1.357376724481582642e-01 -5.404985696077346802e-02 -1.393081620335578918e-02 -3.209935501217842102e-02 -8.821163326501846313e-02 -1.877856999635696411e-02 8.587304502725601196e-02 5.505853146314620972e-02 8.557120710611343384e-02 -1.041226983070373535e-01 -4.645256698131561279e-02 5.949939414858818054e-02 -2.114612311124801636e-01 -9.185665100812911987e-02 1.059770807623863220e-01 -6.272404640913009644e-02 -8.360700309276580811e-02 6.751070916652679443e-02 -1.507155448198318481e-01 5.006694793701171875e-02 7.417755573987960815e-02 -6.799139827489852905e-02 -7.239334285259246826e-02 1.515834927558898926e-01 -2.824259921908378601e-02 4.467909410595893860e-02 -7.948871701955795288e-02 -2.112765051424503326e-02 -2.808438614010810852e-02 1.715972088277339935e-02 1.161337364464998245e-02 -1.009984984993934631e-01 -8.577041327953338623e-02 -5.357037484645843506e-02 -1.212911903858184814e-01 4.310431703925132751e-02 -1.373467892408370972e-01 3.154788911342620850e-02 -7.321073114871978760e-02 -7.996877655386924744e-03 8.236118406057357788e-02 -1.206296682357788086e-01 6.016768515110015869e-03 1.835183501243591309e-01 6.973008066415786743e-02 -2.351974695920944214e-02 1.435210555791854858e-01 -7.267225533723831177e-02 -6.542279571294784546e-02 -1.222468093037605286e-01 -3.197402507066726685e-02 -4.822456464171409607e-02 8.738106489181518555e-02 -1.233650222420692444e-01 1.345693767070770264e-01 -6.024143099784851074e-02 -9.474478662014007568e-02 6.085838750004768372e-02 1.101973876357078552e-01 -9.757684916257858276e-02 -2.272341251373291016e-01 3.834237158298492432e-02 -2.851241454482078552e-02 3.532434627413749695e-02 9.344888478517532349e-02 -2.831297926604747772e-02 9.814218431711196899e-02 -7.878676056861877441e-02 8.618590235710144043e-02 -2.406325936317443848e-01 -7.853725552558898926e-02 1.191317737102508545e-01 -2.278385683894157410e-02 -5.251251533627510071e-02 -5.700513347983360291e-02 4.939525946974754333e-02 8.904586546123027802e-03 -9.966354072093963623e-02 -7.371030002832412720e-02 1.269737482070922852e-01 2.086827307939529419e-01 -1.057510375976562500e-01 1.549679487943649292e-01 5.159030109643936157e-02 5.926710739731788635e-02 -1.056549251079559326e-01 8.611935377120971680e-02 5.960811302065849304e-02 -1.628255844116210938e-02 -1.094690710306167603e-01 -8.346124738454818726e-02 3.819167986512184143e-02 6.384860724210739136e-02 1.305556148290634155e-01 -4.172651469707489014e-02 -7.624171674251556396e-03 6.226067990064620972e-02 -4.788837209343910217e-02 1.126042194664478302e-02 9.164174646139144897e-02 -7.121341675519943237e-02 -5.278465151786804199e-02 -1.123772487044334412e-01 -5.041766911745071411e-02 -6.230296567082405090e-02 6.255181506276130676e-03 -1.324365139007568359e-01 -1.005298085510730743e-02 4.115060716867446899e-02 -1.736360788345336914e-02 -1.628794670104980469e-01 -8.652835153043270111e-03 -1.245646923780441284e-01 1.568889804184436798e-02 -2.608007565140724182e-02 -7.097517699003219604e-02 -1.159114167094230652e-01 1.688989698886871338e-01 -1.767978630959987640e-02 -1.021438241004943848e-01 7.771101081743836403e-05 -3.685093298554420471e-02 2.776162885129451752e-02 9.340518712997436523e-02 7.722511142492294312e-02 -2.410117909312248230e-02 1.178253442049026489e-01 -9.660241752862930298e-02 -1.949777454137802124e-01 -4.659190773963928223e-02 6.256750971078872681e-02 -8.948402106761932373e-02 2.507491968572139740e-02 -9.815044701099395752e-02 -7.274399045854806900e-03 -7.647425681352615356e-02 9.821218252182006836e-02 3.400502353906631470e-02 -2.865764126181602478e-02 -1.613776385784149170e-01 8.857887005433440208e-04 1.292186081409454346e-01 -2.828934416174888611e-02 5.462749302387237549e-02
