2.775243483483791351e-02
1.163038685917854309e-01
3.008244093507528305e-03
1.812342181801795959e-02
1.059637889266014099e-01
1.835670471191406250e-01
6.317788362503051758e-02
5.031773075461387634e-02
4.223802592605352402e-03
-6.860244274139404297e-02
1.159779503941535950e-01
-1.486403793096542358e-01
-1.087263226509094238e-02
-6.820938084274530411e-03
1.754333674907684326e-01
1.916839927434921265e-02
9.547955542802810669e-02
1.204629093408584595e-01
-7.119991350919008255e-03
2.219217717647552490e-01
-1.058275625109672546e-02
8.715883642435073853e-02
3.014460578560829163e-02
7.962355017662048340e-02
-7.024467736482620239e-02
1.013982966542243958e-01
-5.978166311979293823e-02
4.679864272475242615e-02
-2.779862098395824432e-02
5.140212550759315491e-02
-3.812615573406219482e-02
3.491092473268508911e-02
2.218125313520431519e-01
2.431392371654510498e-01
3.725265711545944214e-02
1.029069535434246063e-02
1.365627199411392212e-01
-4.114776477217674255e-02
1.689051091670989990e-01
2.534747123718261719e-01
2.131602466106414795e-01
-5.369478836655616760e-02
-3.713200567290186882e-04
2.744043618440628052e-02
-3.093846514821052551e-02
8.062078617513179779e-03
4.246031120419502258e-02
-9.730053693056106567e-02
1.849766969680786133e-01
-5.095841735601425171e-02
1.987768709659576416e-02
3.125246614217758179e-02
2.785880267620086670e-01
3.383051231503486633e-02
4.255566000938415527e-02
1.764952987432479858e-01
2.143407613039016724e-02
2.283274680376052856e-01
8.175280690193176270e-02
8.331899344921112061e-02
2.493630349636077881e-01
9.075050055980682373e-02
2.202435731887817383e-01
2.433623969554901123e-01
-3.078190609812736511e-02
1.481473296880722046e-01
4.289899393916130066e-02
2.148379087448120117e-01
6.308449804782867432e-02
-5.279038101434707642e-02
-4.082416370511054993e-02
6.094265356659889221e-02
4.393239971250295639e-03
9.621252864599227905e-02
-1.143828034400939941e-01
4.336259886622428894e-02
-5.275775492191314697e-02
1.447589695453643799e-01
2.090124338865280151e-01
1.685885936021804810e-01
1.328660249710083008e-01
3.912328556180000305e-02
5.732727795839309692e-02
-3.794507309794425964e-02
-5.828894209116697311e-03
-4.297575354576110840e-02
9.177276492118835449e-02
4.565882682800292969e-02
8.664201200008392334e-02
2.107952535152435303e-02
-2.849771082401275635e-02
2.703376412391662598e-01
-2.800301834940910339e-02
4.478122666478157043e-02
1.813248544931411743e-01
2.385523915290832520e-01
3.609440522268414497e-03
1.049998998641967773e-01
5.808645486831665039e-02
8.892580866813659668e-02
4.447711631655693054e-02
2.135150432586669922e-01
1.402989327907562256e-01
6.078384444117546082e-02
-7.807771861553192139e-02
2.315785586833953857e-01
2.683421671390533447e-01
9.709345549345016479e-02
4.750427603721618652e-02
2.871504426002502441e-01
1.958591938018798828e-01
7.696481049060821533e-02
8.878447860479354858e-02
8.874412626028060913e-02
-3.905976936221122742e-02
1.659260392189025879e-01
-2.801204659044742584e-02
1.919704377651214600e-01
2.666286230087280273e-01
3.653795644640922546e-02
-3.368930146098136902e-02
-3.201463446021080017e-02
1.286605093628168106e-02
2.148428857326507568e-01
2.459561973810195923e-01
1.273884437978267670e-02
8.522008359432220459e-02
3.406321108341217041e-01
7.897216826677322388e-02
2.351616322994232178e-01
7.397299259901046753e-02
2.913300506770610809e-02
1.982655674219131470e-01
6.655218079686164856e-03
6.438452005386352539e-02
2.033068239688873291e-01
-1.350693106651306152e-01
3.219926655292510986e-01
9.926114231348037720e-02
1.243412643671035767e-01
1.938019320368766785e-02
1.871562600135803223e-01
1.092541292309761047e-01
3.680964708328247070e-01
5.417093262076377869e-02
-7.477343548089265823e-03
5.647340416908264160e-02
9.301430732011795044e-02
-6.281191948801279068e-03
1.368828564882278442e-01
2.451284527778625488e-01
2.713243067264556885e-01
2.229340821504592896e-01
-3.681893274188041687e-02
2.719635367393493652e-01
1.791128814220428467e-01
2.505280077457427979e-02
1.801785677671432495e-01
5.637875944375991821e-02
1.556642502546310425e-01
-1.932651852257549763e-03
1.120353583246469498e-02
-1.267617847770452499e-02
4.414290189743041992e-02
1.876227371394634247e-02
-3.499292535707354546e-03
2.046782337129116058e-02
3.389778360724449158e-02
7.832910120487213135e-02
-9.009682387113571167e-02
5.539775639772415161e-02
5.311001837253570557e-02
1.435959525406360626e-02
3.235785067081451416e-01
1.908196061849594116e-01
8.862820267677307129e-02
-1.723608002066612244e-02
-9.369881823658943176e-03
1.377928443253040314e-02
1.580462753772735596e-01
1.640920639038085938e-01
3.821158409118652344e-02
1.080205440521240234e-01
6.390609592199325562e-02
8.763321489095687866e-02
1.746946573257446289e-02
1.680540144443511963e-01
3.207776546478271484e-01
1.636672466993331909e-01
-1.584652066230773926e-02
4.657681658864021301e-02
1.096553355455398560e-01
8.933836966753005981e-02
-2.419202402234077454e-02
1.048636808991432190e-02
5.511904507875442505e-02
2.937431447207927704e-02
-7.190485019236803055e-03
2.587924897670745850e-01
1.461882442235946655e-01
-2.271476387977600098e-02
-9.391363710165023804e-02
3.159535527229309082e-01
1.232573390007019043e-01
3.797101974487304688e-02
-7.899663597345352173e-02
-5.450483039021492004e-02
7.791998982429504395e-02
1.238520257174968719e-02
2.388150542974472046e-01
-5.106408894062042236e-02
2.579817175865173340e-01
1.393848955631256104e-01
1.772675216197967529e-01
-5.746332556009292603e-02
-2.033920586109161377e-02
2.564332075417041779e-02
2.088855355978012085e-01
3.182047307491302490e-01
3.082441687583923340e-01
3.140056738629937172e-03
7.165770977735519409e-02
-9.116528183221817017e-02
-9.257487207651138306e-02
1.600086688995361328e-01
7.459786534309387207e-02
-3.704206272959709167e-02
1.818977445363998413e-01
-7.565911859273910522e-02
8.066649548709392548e-03
2.021688371896743774e-01
-2.987812459468841553e-02
3.237553834915161133e-01
1.170722395181655884e-01
-2.840654924511909485e-02
-2.655615285038948059e-02
-7.687716186046600342e-02
-6.314950436353683472e-02
-6.738373637199401855e-02
-2.403222210705280304e-02
7.367517799139022827e-02
1.024221032857894897e-01
-8.485416322946548462e-02
3.293726965785026550e-02
2.286353558301925659e-01
-1.171042844653129578e-01
2.265409380197525024e-01
9.079597890377044678e-02
2.221166156232357025e-03
1.414464861154556274e-01
-5.953753739595413208e-02
2.235208600759506226e-01
6.813092529773712158e-02
1.790237575769424438e-01
-7.650890853255987167e-03
7.951148599386215210e-02
