1.732888817787170410e-01
-2.302920445799827576e-02
-1.215693801641464233e-01
4.374485462903976440e-02
-5.221508443355560303e-02
7.718932628631591797e-02
-3.909631446003913879e-02
8.244324475526809692e-02
1.428138017654418945e-01
2.806823253631591797e-01
-4.868491552770137787e-03
-8.664223551750183105e-02
-1.979420706629753113e-02
1.242438778281211853e-01
2.752861380577087402e-01
-3.448251262307167053e-02
1.761548817157745361e-01
7.188875973224639893e-02
-2.112499251961708069e-02
1.561768501996994019e-01
2.230100035667419434e-01
2.517174184322357178e-01
3.771699592471122742e-02
-7.280340418219566345e-03
2.372979223728179932e-01
1.757756620645523071e-01
2.068432122468948364e-01
1.588822007179260254e-01
-2.742070704698562622e-02
3.598864376544952393e-02
2.943971194326877594e-02
1.270835995674133301e-01
5.829882249236106873e-02
1.839937269687652588e-01
1.192418634891510010e-01
9.523613750934600830e-02
-2.551212720572948456e-02
5.338094383478164673e-02
1.968962699174880981e-01
6.342962384223937988e-02
-8.654485642910003662e-02
3.760697320103645325e-02
-5.942331254482269287e-02
1.332517713308334351e-01
-1.541674137115478516e-02
-4.917308222502470016e-03
2.076033949851989746e-01
1.829037666320800781e-01
-6.625799834728240967e-02
1.581085473299026489e-01
7.707203924655914307e-02
1.050760596990585327e-01
1.588156372308731079e-01
1.540904492139816284e-02
2.016465216875076294e-01
-5.257156491279602051e-02
7.698272168636322021e-02
1.813918650150299072e-01
1.939793378114700317e-01
6.820280849933624268e-02
8.199829608201980591e-02
9.926163405179977417e-02
1.746536791324615479e-01
-3.603421896696090698e-02
1.775675415992736816e-01
-1.755528710782527924e-02
1.493256241083145142e-01
1.096631810069084167e-01
7.206062227487564087e-02
1.488748490810394287e-01
6.735216826200485229e-02
-1.261244993656873703e-02
1.292681097984313965e-01
1.108523085713386536e-01
6.221819296479225159e-02
1.664900630712509155e-01
1.455913186073303223e-01
2.111267298460006714e-01
1.110329926013946533e-01
1.739949136972427368e-01
1.222286522388458252e-01
1.820906698703765869e-01
-1.586907058954238892e-01
-9.268081188201904297e-02
-1.664807647466659546e-02
-1.829441040754318237e-01
2.381351403892040253e-02
3.973837569355964661e-02
1.182474941015243530e-01
1.319197416305541992e-01
1.265842169523239136e-01
-8.418558165431022644e-03
5.680866539478302002e-02
-1.397860515862703323e-02
1.204762533307075500e-01
1.505338102579116821e-01
-1.100081298500299454e-02
-8.973547257483005524e-03
1.547947227954864502e-01
-3.034503199160099030e-02
3.597124814987182617e-01
-5.650660768151283264e-02
8.021572232246398926e-02
1.247021779417991638e-01
1.738636791706085205e-01
9.125940501689910889e-02
1.149215623736381531e-01
-1.051666140556335449e-01
1.766659766435623169e-01
1.515951305627822876e-01
-9.182880818843841553e-02
1.308912634849548340e-01
1.911190450191497803e-01
1.854809001088142395e-02
2.304159700870513916e-01
8.355090022087097168e-02
5.582695454359054565e-02
-8.543516509234905243e-03
8.948220312595367432e-02
2.151709049940109253e-01
2.469986230134963989e-01
1.126564294099807739e-01
3.858317807316780090e-02
1.075018420815467834e-01
-7.751737534999847412e-02
7.392901927232742310e-02
6.243008375167846680e-02
5.207666382193565369e-02
6.920016556978225708e-02
7.758577913045883179e-02
2.967808246612548828e-01
1.649594604969024658e-01
9.457965940237045288e-02
1.596855372190475464e-01
-7.737514376640319824e-02
2.130171507596969604e-01
1.984332948923110962e-01
-1.119223609566688538e-01
1.300997734069824219e-01
1.625995934009552002e-01
1.669263243675231934e-01
1.163571551442146301e-01
7.975932955741882324e-02
1.353193819522857666e-01
-7.370384782552719116e-02
5.509522557258605957e-02
4.707227647304534912e-02
-1.295655816793441772e-01
5.238489434123039246e-02
2.858230471611022949e-02
1.525133401155471802e-01
1.302477866411209106e-01
-5.157893523573875427e-02
5.944503843784332275e-02
-1.387381111271679401e-03
-5.459231510758399963e-02
2.150385528802871704e-01
7.439714670181274414e-02
1.455308496952056885e-02
2.313186675310134888e-01
1.466019302606582642e-01
3.261388242244720459e-01
2.068961709737777710e-01
2.112011238932609558e-02
-1.663523353636264801e-02
8.223214186728000641e-03
4.108939692378044128e-02
1.731826215982437134e-01
2.801597416400909424e-01
-6.761580705642700195e-03
1.605228036642074585e-01
7.444400805979967117e-03
1.969779580831527710e-01
6.571251899003982544e-02
1.883413940668106079e-01
6.559293717145919800e-02
2.495227009057998657e-01
1.290273964405059814e-01
8.943562395870685577e-03
-3.302486985921859741e-02
7.012960314750671387e-02
1.508763730525970459e-01
7.564235478639602661e-02
6.865338236093521118e-02
-8.486259728670120239e-02
4.627804830670356750e-02
7.117988169193267822e-02
3.197990357875823975e-02
3.009313344955444336e-01
1.303320527076721191e-01
1.106849089264869690e-01
9.661496430635452271e-02
-1.249076947569847107e-01
-6.017341092228889465e-02
1.874720156192779541e-01
8.527249097824096680e-02
2.491791844367980957e-01
1.082485765218734741e-01
8.513241261243820190e-02
1.812083125114440918e-01
6.315921200439333916e-04
1.108134984970092773e-01
2.049986422061920166e-01
-6.406231224536895752e-02
-3.000038489699363708e-02
2.624178305268287659e-02
1.189745739102363586e-01
-8.225528150796890259e-02
1.237646266818046570e-01
1.434212829917669296e-02
3.391200304031372070e-02
2.640626728534698486e-01
2.667173445224761963e-01
1.375508010387420654e-01
-7.045672088861465454e-02
-2.025259733200073242e-01
-1.125307520851492882e-03
8.356031775474548340e-02
3.712096437811851501e-02
-4.436665214598178864e-03
1.532620787620544434e-01
4.639378562569618225e-02
2.033421993255615234e-01
3.882521763443946838e-02
1.438532024621963501e-01
2.935797870159149170e-01
2.004231661558151245e-01
1.680231690406799316e-01
-5.560600757598876953e-02
2.389143705368041992e-01
1.070366706699132919e-02
1.619051955640316010e-02
9.761381149291992188e-02
1.242538765072822571e-01
2.791430652141571045e-01
1.443626284599304199e-01
-2.468646503984928131e-02
1.728649288415908813e-01
1.775585412979125977e-01
-5.002617463469505310e-02
1.960709095001220703e-01
2.540778815746307373e-01
4.171527549624443054e-02
7.900217175483703613e-02
1.072337478399276733e-01
6.784762442111968994e-02
4.990175366401672363e-02
-6.259937305003404617e-03
-9.553660452365875244e-02
-2.959105744957923889e-02
2.875091135501861572e-01
-1.356967985630035400e-01
1.450247317552566528e-01
3.305549547076225281e-02
2.076462805271148682e-01
1.889065802097320557e-01
