-3.216070355847477913e-03
6.559815257787704468e-02
5.389507394284009933e-03
-2.852753736078739166e-02
-5.073750019073486328e-02
5.644688848406076431e-03
8.366287499666213989e-02
-1.278380863368511200e-02
-7.087696343660354614e-02
-7.174516096711158752e-03
-7.712508738040924072e-02
4.213735155644826591e-05
-1.716724410653114319e-02
-1.687494851648807526e-02
-1.868188963271677494e-03
-6.893041078001260757e-03
-3.648478537797927856e-02
6.700700614601373672e-03
-8.894929662346839905e-03
1.270301267504692078e-02
1.101277582347393036e-02
7.554428186267614365e-03
2.726922975853085518e-03
-1.680131815373897552e-02
-2.154880203306674957e-02
1.376188825815916061e-02
-2.125841006636619568e-02
5.033420026302337646e-02
3.543995693325996399e-02
-1.479631382972002029e-02
1.146277412772178650e-02
9.849659167230129242e-03
-3.141147643327713013e-02
-3.311715647578239441e-02
2.907466702163219452e-02
5.434032157063484192e-02
3.179173171520233154e-02
-8.063284331001341343e-04
-6.110363826155662537e-02
8.811067044734954834e-02
1.997913047671318054e-02
3.029317222535610199e-02
-1.563800871372222900e-02
-1.030418556183576584e-02
-6.923886947333812714e-03
5.492046475410461426e-03
4.781276360154151917e-02
1.380931958556175232e-02
-1.760297641158103943e-02
-3.156036511063575745e-02
-3.412919119000434875e-02
-2.475399523973464966e-03
4.167776927351951599e-02
1.131551992148160934e-02
5.179079249501228333e-03
1.207419019192457199e-02
6.244508177042007446e-02
3.264805674552917480e-02
-4.002311732620000839e-03
-5.968550592660903931e-02
-1.587118208408355713e-02
2.085874415934085846e-02
3.824349865317344666e-02
-6.979987770318984985e-02
-6.138341128826141357e-02
6.668583303689956665e-02
4.031266644597053528e-02
-3.537395037710666656e-03
1.455578021705150604e-02
1.575135160237550735e-03
1.798493787646293640e-02
-8.406419306993484497e-02
-6.023298576474189758e-02
-1.512784603983163834e-02
8.315888699144124985e-04
-7.264029118232429028e-04
2.024276927113533020e-02
7.773156743496656418e-03
4.319931380450725555e-03
-8.932107128202915192e-03
-2.476671896874904633e-02
2.192582376301288605e-02
3.409111127257347107e-02
6.867859337944537401e-05
-4.931692965328693390e-03
-2.862181141972541809e-02
-6.484337616711854935e-03
-1.364877074956893921e-02
9.925976395606994629e-03
3.266257420182228088e-02
1.067787641659379005e-03
1.693757809698581696e-02
4.367040097713470459e-02
3.042057715356349945e-02
6.489324383437633514e-03
1.531953364610671997e-02
1.595984026789665222e-02
-3.328024223446846008e-02
2.021037507802248001e-03
-7.243451196700334549e-03
-4.631987307220697403e-03
2.195473946630954742e-02
1.148817129433155060e-02
1.708056777715682983e-02
-3.699570661410689354e-04
-7.584910839796066284e-02
-4.385858401656150818e-02
-1.306723617017269135e-02
-1.035079360008239746e-03
-3.088893741369247437e-02
-8.099549263715744019e-02
-2.950963750481605530e-02
6.501816213130950928e-02
3.115585632622241974e-02
-4.829163104295730591e-02
-6.357865408062934875e-03
-3.808965533971786499e-02
1.994013786315917969e-02
-1.594192348420619965e-02
-8.967011235654354095e-03
-2.341203205287456512e-02
5.193993449211120605e-02
5.868392065167427063e-02
4.916699230670928955e-02
-3.929613903164863586e-02
1.425018883310258389e-03
1.261981111019849777e-02
-3.889674693346023560e-02
-1.638016849756240845e-02
7.805033237673342228e-04
-2.111925557255744934e-02
-2.788605913519859314e-02
-7.356799393892288208e-02
-8.299185335636138916e-02
-2.471781708300113678e-02
-2.037633676081895828e-03
9.509863331913948059e-03
3.069631569087505341e-02
-1.884514652192592621e-02
-1.915346831083297729e-02
-6.385919451713562012e-02
3.115510195493698120e-02
6.020503863692283630e-02
-3.197626792825758457e-04
6.138388533145189285e-03
1.588722690939903259e-02
-1.563341915607452393e-02
7.490800227969884872e-03
3.937021270394325256e-02
-2.084819413721561432e-02
1.314206328243017197e-02
-6.903158128261566162e-02
4.227439407259225845e-03
-1.662379875779151917e-02
2.821838483214378357e-03
5.943570751696825027e-03
3.416644409298896790e-02
4.664178937673568726e-03
-2.805763855576515198e-02
9.703970863483846188e-04
-1.203320175409317017e-02
5.009051412343978882e-02
2.788303792476654053e-02
-2.608536183834075928e-02
-2.765726298093795776e-02
6.185145303606987000e-02
-5.915340781211853027e-02
-9.315813658758997917e-04
5.477433279156684875e-02
-4.180527478456497192e-02
7.926325313746929169e-03
-1.328121591359376907e-02
-9.029839187860488892e-03
2.356038801372051239e-02
-1.455640792846679688e-02
-2.945615723729133606e-02
2.211508713662624359e-02
-3.550023585557937622e-02
-6.161576602607965469e-03
2.369504980742931366e-02
-7.080873101949691772e-02
2.674810960888862610e-02
5.208698567003011703e-03
-4.245876148343086243e-02
-3.579283878207206726e-02
-6.738925352692604065e-03
5.303350742906332016e-03
1.008185092359781265e-02
4.635550547391176224e-03
2.345344610512256622e-02
1.812589727342128754e-02
-8.122212253510951996e-03
4.031245037913322449e-02
-4.290550202131271362e-02
5.770623683929443359e-02
-1.090996339917182922e-02
7.932255044579505920e-03
-3.262776136398315430e-02
-1.765141636133193970e-02
-4.800735041499137878e-02
3.683714661747217178e-03
5.461014807224273682e-02
6.985249370336532593e-02
4.843500442802906036e-03
-4.725678637623786926e-02
-3.361617401242256165e-02
2.621440589427947998e-02
-1.983243413269519806e-02
-5.013603717088699341e-02
3.330050408840179443e-02
-5.857862532138824463e-02
-3.190393000841140747e-02
1.253191661089658737e-02
-1.824186183512210846e-02
1.016912050545215607e-02
-1.475952379405498505e-02
-8.017138391733169556e-02
-1.974222995340824127e-02
-4.292932897806167603e-02
8.818475529551506042e-03
1.511324755847454071e-02
3.724975511431694031e-02
5.805303342640399933e-03
2.819059416651725769e-03
4.385208338499069214e-02
-2.536464110016822815e-02
4.678517580032348633e-02
1.237477827817201614e-02
-1.810112781822681427e-02
8.069046773016452789e-03
-8.279131725430488586e-04
6.495699286460876465e-02
-3.455724567174911499e-02
-8.890253491699695587e-03
-7.570566236972808838e-02
-9.917900897562503815e-03
2.017429471015930176e-02
1.495805475860834122e-02
-6.373743712902069092e-02
-3.333666920661926270e-02
-4.122263938188552856e-02
3.473014011979103088e-02
1.105752494186162949e-02
2.239377424120903015e-02
-3.244758816435933113e-03
9.241068735718727112e-03
2.168958541005849838e-03
1.269830577075481415e-02
9.301109239459037781e-03
-5.216756090521812439e-02
-4.791762214154005051e-03
2.421445446088910103e-03
9.046403318643569946e-02
2.680798992514610291e-02
6.818449590355157852e-03
6.475764513015747070e-02
