8.942403793334960938e-01 -3.348217248916625977e+00 -8.366532325744628906e+00 -5.269202709197998047e+00 4.541452825069427490e-01 -1.164097428321838379e+00 8.349207043647766113e-01 8.112878203392028809e-01 -9.152611494064331055e-01 1.016470551490783691e+00 5.946946144104003906e-01 1.186153888702392578e+00 2.042925834655761719e+00 2.245846033096313477e+00 -1.664543628692626953e+00 7.787864208221435547e-01 -1.710270762443542480e+00 5.932672023773193359e+00 -2.538006544113159180e+00 3.161154270172119141e+00 -1.998578190803527832e+00 5.106933116912841797e-01 8.555399775505065918e-01 -1.391546964645385742e+00 1.910181879997253418e+00 3.302272558212280273e-01 2.720329999923706055e+00 4.333100616931915283e-01 1.592949867248535156e+00 1.762713044881820679e-01 1.781547307968139648e+00 6.728827953338623047e-01 2.178908824920654297e+00 -8.435310721397399902e-01 1.461384057998657227e+00 8.999730348587036133e-01 -5.740703940391540527e-01 -1.181804180145263672e+00 5.378433465957641602e-01 1.737170100212097168e+00 1.087608575820922852e+00 1.858487367630004883e+00 -1.314308881759643555e+00 -2.191398620605468750e+00 -4.820095539093017578e+00 8.091587424278259277e-01 -2.596960306167602539e+00 -4.133980751037597656e+00 -1.360157251358032227e+00 7.735742926597595215e-01 -4.738420486450195312e+00 1.065097212791442871e+00 -1.727568864822387695e+00 1.731554269790649414e+00 -2.040385305881500244e-01 6.368854045867919922e-01 6.481918096542358398e-01 5.547566413879394531e-01 1.298890113830566406e+00 5.379661917686462402e-01 -4.851404190063476562e+00 3.260879814624786377e-01 4.471985101699829102e-01 7.906461954116821289e-01 1.786855459213256836e+00 1.246922373771667480e+00 1.411591768264770508e+00 9.143265485763549805e-01 1.080324769020080566e+00 1.106155991554260254e+00 -9.294864535331726074e-01 6.991311311721801758e-01 -1.163129925727844238e+00 -1.969120621681213379e+00 8.158311843872070312e-01 -1.725099921226501465e+00 -2.427115821838378906e+01 -3.340678930282592773e+00 6.992426514625549316e-01 -1.206682205200195312e+00 3.961691856384277344e-01 -2.758111000061035156e+00 4.594909548759460449e-01 7.337370514869689941e-01 -9.802499771118164062e+00 1.185672879219055176e+00 -3.494771957397460938e+00 -7.257708549499511719e+00 3.156052529811859131e-01 1.255526065826416016e+00 7.025796175003051758e-01 6.171281337738037109e-01 -9.672512412071228027e-01 9.038749933242797852e-01 2.124154329299926758e+00 9.687100052833557129e-01 -1.188980937004089355e+00 2.483779191970825195e+00 5.205684900283813477e-01 -2.998091697692871094e+00 7.202961444854736328e-01 -1.216182994842529297e+01 -1.406812667846679688e+00 -8.089307785034179688e+00 1.942030191421508789e+00 -3.403934478759765625e+00 4.208372235298156738e-01 -2.830918312072753906e+00 6.062815785408020020e-01 2.452716827392578125e+00 -1.003059267997741699e+00 -2.549322843551635742e+00 -1.941231608390808105e+00 4.069284498691558838e-01 1.917334318161010742e+00 -1.250178337097167969e+00 2.201774358749389648e+00 2.480122804641723633e+00 3.160976171493530273e-01 1.097525000572204590e+00 1.610545992851257324e+00 -1.355625629425048828e+00 1.403195142745971680e+00 -1.828228187561035156e+01 3.271925687789916992e+00 -2.129227638244628906e+00 -1.020958662033081055e+00 -2.852306962013244629e-01 -1.559237837791442871e+00 1.071355700492858887e+00 2.401340484619140625e+00 -6.673485636711120605e-01 4.331467151641845703e+00 -3.848105192184448242e+00 -1.701595306396484375e+00 4.108630180358886719e+00 1.460726499557495117e+00 8.939952850341796875e-01 5.727666616439819336e-01 4.639479517936706543e-01 1.048349380493164062e+00 8.755932450294494629e-01 1.720262646675109863e+00 -1.604774713516235352e+00 1.339854717254638672e+00 3.111486196517944336e+00 1.261553883552551270e+00 -5.322663307189941406e+00 1.826279640197753906e+00 1.185731649398803711e+00 1.588770747184753418e+00 3.083445787429809570e+00 1.368623137474060059e+00 7.202661633491516113e-01 -2.104691505432128906e+00 -2.801084518432617188e+00 -1.345319175720214844e+01 -2.029312610626220703e+00 7.780390381813049316e-01 1.071650624275207520e+00 7.459319233894348145e-01 3.368127107620239258e+00 2.113997697830200195e+00 1.789707422256469727e+00 5.776172876358032227e-01 -1.056142210960388184e+00 1.572306394577026367e+00 5.894702076911926270e-01 2.605545997619628906e+00 5.664073824882507324e-01 2.984307050704956055e+00 8.300879001617431641e-01 -1.653208017349243164e+00 9.631419777870178223e-01 6.455665230751037598e-01 -9.580387473106384277e-01 6.352710723876953125e-01 -2.026886790990829468e-01 6.164163351058959961e-01 3.628771066665649414e+00 2.130849838256835938e+00 -1.196516633033752441e+00 7.547551393508911133e-01 6.228675842285156250e-01 1.565548777580261230e+00 1.061620831489562988e+00 -4.220118999481201172e+00 8.734613656997680664e-01 3.525398075580596924e-01 1.319697499275207520e+00 -1.510928273200988770e+00 1.203513741493225098e+00 -1.954207539558410645e+00 -1.060505986213684082e+00 -2.553822755813598633e+00 1.488296627998352051e+00 1.675897955894470215e+00 1.702755808830261230e+00 -2.195661306381225586e+00 9.633750915527343750e-01 6.074900627136230469e-01 1.074486136436462402e+00 1.519111156463623047e+00 5.927204489707946777e-01 5.309511661529541016e+00 6.946462988853454590e-01 -1.564989805221557617e+00 -1.636282563209533691e+00 -3.265178203582763672e+00 -5.296605587005615234e+00 3.103751242160797119e-01 -1.810272216796875000e+00 -3.789432287216186523e+00 2.893889904022216797e+00 9.641467332839965820e-01 2.003533124923706055e+00 -1.418974161148071289e+00 8.350074291229248047e-01 -7.108402252197265625e-01 -5.454414367675781250e+00 8.278843164443969727e-01 8.444362878799438477e-01 7.641224861145019531e-01 1.305221796035766602e+00 -1.667856574058532715e+00 -3.543421506881713867e+00 -1.332254528999328613e+00 1.540737032890319824e+00 -3.077621459960937500e+00 -2.398376703262329102e+00 3.390080928802490234e+00 -1.346583724021911621e+00 1.331278085708618164e+00 1.428392767906188965e+00 2.036737918853759766e+00 -2.123530954122543335e-02 1.939198374748229980e+00 9.258723258972167969e-01 3.490515470504760742e+00 1.254839539527893066e+00 -1.020471692085266113e+00 6.124666929244995117e-01 1.274594068527221680e+00 6.091873645782470703e-01 1.817780613899230957e+00 2.917237520217895508e+00 -1.211024165153503418e+00 7.805422544479370117e-01 -3.327722549438476562e+00 1.276882410049438477e+00 -2.234492492675781250e+01 -3.081627130508422852e+00 5.497719645500183105e-01 2.510470449924468994e-01 -4.375380992889404297e+00 -4.122842848300933838e-02
