1.598521828651428223e+00 -7.348129749298095703e+00 -1.906989336013793945e+00 -1.631569981575012207e+00 9.899959564208984375e-01 -8.995286822319030762e-01 -1.426073551177978516e+00 7.863658666610717773e-01 -5.401154994964599609e+00 1.027432203292846680e+00 -8.420721054077148438e+00 6.065251231193542480e-01 1.762722015380859375e+00 3.380455970764160156e+00 -2.466425418853759766e+00 1.910300374031066895e+00 -1.188831925392150879e+00 -2.818058013916015625e+00 -7.361497879028320312e+00 2.124687194824218750e+00 -1.374554395675659180e+00 -6.944469928741455078e+00 1.177011847496032715e+00 -6.900520324707031250e-01 1.793095588684082031e+01 1.207057833671569824e+00 2.697749376296997070e+00 9.803232550621032715e-01 -6.339836716651916504e-01 5.494596958160400391e-01 2.740272760391235352e+00 6.253144741058349609e-01 3.972676098346710205e-01 -8.302800059318542480e-01 2.081649780273437500e+00 -1.302881717681884766e+01 -6.251312732696533203e+00 2.401667594909667969e+00 1.999650359153747559e+00 7.428321242332458496e-01 1.402468919754028320e+00 2.144622325897216797e+00 -2.884904861450195312e+00 -1.906668901443481445e+00 -4.227410793304443359e+00 1.002103209495544434e+00 4.484242796897888184e-01 -8.101303577423095703e-01 1.807038068771362305e+00 4.848217964172363281e-01 -4.920701503753662109e+00 6.862554550170898438e-01 -2.994242668151855469e+00 4.054462432861328125e+00 -1.769587874412536621e+00 2.733115673065185547e+00 1.069559931755065918e+00 6.795741319656372070e-01 2.010298967361450195e+00 3.652379512786865234e+00 -3.873806715011596680e+00 5.328016877174377441e-01 6.288709640502929688e-01 5.356187224388122559e-01 5.802850723266601562e-01 2.886148452758789062e+00 7.481992244720458984e+00 -2.304261922836303711e+00 9.900132417678833008e-01 7.389721870422363281e-01 7.050477862358093262e-01 6.887117028236389160e-01 -1.924998760223388672e+00 5.931554436683654785e-01 -2.113211059570312500e+01 -3.252985715866088867e+00 -6.946316242218017578e+00 -1.106184482574462891e+00 -1.368350744247436523e+00 -1.496327161788940430e+00 4.754935801029205322e-01 -5.465467572212219238e-01 2.320828676223754883e+00 8.375877737998962402e-01 -7.789470672607421875e+00 3.167407512664794922e+00 -2.880318164825439453e+00 9.916250109672546387e-01 8.614575862884521484e-01 4.068199992179870605e-01 -1.600494503974914551e+00 -4.665697574615478516e+00 -2.192070245742797852e+00 7.517495155334472656e-01 1.069591641426086426e+00 -3.317210972309112549e-01 -1.097595691680908203e+00 3.134466648101806641e+00 9.557274818420410156e+00 -1.021412134170532227e+00 7.448615431785583496e-01 4.716943800449371338e-01 -1.655394315719604492e+00 -1.479296684265136719e+00 3.052500247955322266e+00 4.480476081371307373e-01 6.806464195251464844e-01 -8.763864636421203613e-01 5.637154579162597656e-01 6.339480876922607422e-01 -2.886267852783203125e+01 -3.310273885726928711e+00 -1.568742156028747559e+00 1.390262842178344727e+00 1.687303185462951660e+00 -6.958130002021789551e-01 1.039626598358154297e+00 1.771840095520019531e+00 1.140482306480407715e+00 6.338329315185546875e-01 1.462439775466918945e+00 -1.662900924682617188e+00 4.211775779724121094e+00 -2.056006908416748047e+00 1.800742030143737793e+00 -1.154213786125183105e+00 -2.331108331680297852e+00 4.816693961620330811e-01 6.841090321540832520e-01 1.190038919448852539e+00 1.767652630805969238e+00 -2.366982460021972656e+00 8.265932798385620117e-01 -1.520652174949645996e+00 -1.433842062950134277e+00 1.043779134750366211e+00 6.363108754158020020e-01 8.609992265701293945e-01 6.950780749320983887e-01 4.251897931098937988e-01 3.233236312866210938e+00 3.504100739955902100e-01 1.395272016525268555e+00 -8.525649309158325195e-01 2.498186826705932617e+00 -2.033203125000000000e+00 6.518689393997192383e-01 -3.885892152786254883e+00 5.623396396636962891e+00 8.656246066093444824e-01 1.323709011077880859e+00 2.268492937088012695e+00 1.046655416488647461e+00 5.342100858688354492e-01 -5.818836688995361328e-01 8.057550191879272461e-01 1.120856523513793945e+00 -1.107506513595581055e+00 3.500165700912475586e+00 4.993681609630584717e-01 1.618777990341186523e+00 2.054665803909301758e+00 -7.040607452392578125e+00 2.130614280700683594e+00 9.120047092437744141e-01 3.197782635688781738e-01 8.014801740646362305e-01 5.803034305572509766e-01 1.239747047424316406e+00 1.457242608070373535e+00 4.667148366570472717e-02 3.287199139595031738e-01 -4.237803936004638672e+00 6.970837116241455078e-01 1.295954108238220215e+00 1.720620751380920410e+00 1.666822433471679688e+00 1.578532218933105469e+00 8.218841552734375000e-01 1.046535134315490723e+00 7.373775243759155273e-01 -1.494035911560058594e+01 -4.093898773193359375e+00 -8.800169453024864197e-03 1.489974021911621094e+00 6.579970717430114746e-01 -2.290642738342285156e+00 -1.960004925727844238e+00 1.054237484931945801e+00 6.620850563049316406e-01 -8.647788763046264648e-01 -6.229166984558105469e+00 2.340383768081665039e+00 -1.113581538200378418e+00 7.492174506187438965e-01 1.097480893135070801e+00 5.810059905052185059e-01 1.775841474533081055e+00 -1.900075912475585938e+00 2.342263936996459961e+00 -1.065352439880371094e+00 3.429272025823593140e-02 1.626469373703002930e+00 8.645471334457397461e-01 8.272430896759033203e-01 2.342994451522827148e+00 7.471793293952941895e-01 -1.454630255699157715e+00 -3.631972551345825195e+00 -1.415950894355773926e+00 2.141510009765625000e+00 7.380344271659851074e-01 -3.024325370788574219e+00 1.092217922210693359e+00 4.363817572593688965e-01 4.979515671730041504e-01 -7.963534832000732422e+00 1.121976733207702637e+00 -7.383887290954589844e+00 2.028410434722900391e+00 1.042913556098937988e+00 5.562288165092468262e-01 1.629945039749145508e+00 8.206721544265747070e-01 -1.181457519531250000e+00 -6.769768714904785156e+00 -1.975543379783630371e+00 4.665699303150177002e-01 -5.220811843872070312e+00 -2.053400754928588867e+00 1.472126245498657227e+00 2.781586170196533203e+00 1.088417530059814453e+00 5.580699443817138672e-01 8.650953769683837891e-01 6.619692444801330566e-01 1.885268092155456543e+00 1.412600159645080566e+00 1.348357677459716797e+00 1.076674222946166992e+00 -6.623122692108154297e+00 9.075081944465637207e-01 1.027093648910522461e+00 7.240932583808898926e-01 -5.629770755767822266e+00 6.600992679595947266e-01 2.257990121841430664e+00 1.284225344657897949e+00 -1.471347332000732422e+00 7.877227663993835449e-01 -2.422691154479980469e+01 1.277898073196411133e+00 8.765360713005065918e-01 7.082861661911010742e-02 -1.442963004112243652e+00 8.307950496673583984e-01
