0.00942286
0.01816803
0.02176448
0.0027464367
0.0023122334
0.032431968
0.0010270466
0.020826211
0.018501157
-0.0025189458
0.045069076
-0.033525363
0.022324683
0.030239414
0.02491308
0.020097733
0.05741193
0.022420065
0.024475452
-0.0035943459
0.0065761474
0.016252527
0.0131097
0.026168043
-0.03222536
0.031771112
-0.020873774
0.025567682
0.02313905
0.021432657
-0.0071547106
-0.02310143
-0.019707086
-0.0040947474
-0.0018433733
0.021130236
-0.022266809
-0.008647709
-0.0018575449
-0.0011597114
0.019840932
-0.013963573
-0.013789861
-0.009820263
0.0068568047
0.02733974
0.017858611
-0.014823912
-0.017935302
0.03515766
0.017373258
-0.017596357
0.03928442
0.025682578
-0.0058313105
0.013018307
0.0040935506
0.015679259
-0.020835957
0.021781579
-0.01952132
0.039198793
0.00018363935
0.015659591
-0.0105214985
0.0054011685
-0.040779535
-0.008420184
0.017536927
0.012503411
0.032811053
-0.026773952
0.0113815
0.015863769
0.0020478491
0.0274905
0.01920279
-0.0034893197
0.048564024
-0.018413737
0.0349246
0.003358559
0.037073802
0.0054821107
0.020900227
0.012986072
-0.0170113
0.040797926
0.02646093
0.022044154
-0.024745222
0.005893126
0.0106947515
0.009866853
-0.0057432265
0.0007760751
0.022946224
0.023491219
0.040262584
0.008886971
-0.008938051
-0.012858721
-0.009663786
0.008910702
-0.030245237
-0.039946403
-0.030582996
-0.013521037
0.005352924
-0.016696641
0.05935797
0.017654689
0.012131714
0.028643467
-0.004655129
0.047345947
0.014160514
-0.010774263
0.003081353
-0.00872386
0.016910294
-0.018265786
0.0016354109
0.0103307525
0.0044959295
-0.011002806
0.035391577
0.0029079276
0.012308266
0.028037338
0.016802423
0.00699707
0.020530835
0.0024650753
-0.019580511
0.029653149
0.026893495
-0.017191004
0.00502654
0.013818728
-0.0076320856
0.037651625
-0.013720244
0.0141840605
-0.01721337
-0.0047317315
0.0067770304
0.0022983826
-0.010057091
-0.035410646
-0.0017058928
0.018735077
0.0024898006
0.02563926
-0.010038088
-0.009413399
0.015667703
0.02477107
-0.013353364
0.031437565
0.014791683
0.014067599
0.009084958
0.00022832512
-0.00091046526
0.002300683
-0.042829648
0.076757945
0.008772611
-0.006208084
0.031853467
0.0016656583
0.03641736
-0.008958994
0.002059223
-0.0015995381
-0.00088652765
0.059940543
0.0024724442
-0.0016426459
0.00914231
0.0400712
0.0026423174
0.027337369
0.005521016
0.016606545
0.028517144
0.03510765
0.03414567
-0.0061717704
0.027926514
0.029965067
0.013845179
-0.039210137
0.031791467
-0.008559981
-0.02039314
0.025122507
0.0066209873
0.014702257
0.034335874
0.038905147
0.018030422
0.028325565
-0.021837277
0.025221642
0.008505685
0.035246458
-0.011794926
0.0085762
0.0072923885
0.03454888
0.0075970953
0.018062683
0.01999195
0.034294825
0.00036406223
-0.025569068
0.022234095
0.01677064
-0.009845681
0.021485712
0.02643258
-0.016268672
-0.01443477
0.030185178
0.019629324
0.021140743
0.02498368
0.0024160936
0.0011571852
-0.0016358291
-0.0040534944
-0.029398328
-0.010464722
0.004143623
0.00546796
0.01688476
-0.013431647
-0.0043417355
-0.025878593
-0.012922387
0.0018748286
0.037743907
0.05085145
-0.03310892
0.022599272
0.017034523
0.019291805
-0.018572606
-0.007032929
0.015526549
0.045130208
0.0425981
0.009940567
-0.0005518029
-0.026742123
-0.006037691
0.019205494
0.018910127
0.0041165343
0.008106107
0.01347092
-0.0033494427
-0.010329654
0.01501831
-0.022777805
0.0027608345
-0.031181809
0.00080978166
0.0032301974
-0.004804024
0.011043422
-0.0019246457
-0.009420012
0.0003788568
-0.0054369927
-0.022063265
-0.017363854
-0.010336822
-0.028530542
0.016325291
-0.005805413
0.021437502
0.022762999
-0.009154484
-0.008543874
-0.0028496902
0.010419114
0.025679447
-0.030156942
0.038048547
0.010556773
-0.007866748
-0.01902957
-0.029892325
0.03208302
0.06092575
-0.019640822
0.0038447077
0.009653172
-0.008503096
0.0048256507
-0.00026211227
0.064116314
-0.0001290741
0.0040552854
0.0014151266
-0.00983561
0.01058847
0.002041124
-0.010600733
-0.01085295
0.011938335
-0.0034361556
0.025919098
0.011633454
0.025171949
0.02112919
0.017624542
0.0041866708
-0.0050686537
0.0115166055
-0.016084475
0.04378275
0.020076413
0.0075006783
0.003802951
0.03148918
-0.013048514
0.03662038
0.0047647604
0.021262811
0.032908075
0.004312194
0.0070023974
0.0031302208
0.007265567
0.015315747
-0.01818457
0.012280936
0.0021981872
0.0022155587
-0.0006187737
-0.0030897208
-0.017392611
0.018054979
0.023229672
0.02204356
0.00052400987
0.03246831
0.00019742738
-0.021353995
0.03010218
-0.008975712
-0.02341988
0.056174185
0.00027144435
-0.0044096285
-0.0049603237
0.012824708
0.033972636
0.02111198
-0.008049244
0.016424133
0.016612427
0.006714738
0.029370314
-0.01097165
0.029774483
0.05656836
-0.025544567
0.038216643
0.020726409
0.03478749
-0.013857547
0.0063726115
0.018778011
-0.01985091
0.042090878
0.025466802
-0.008332515
0.027104955
0.021266788
-0.010447549
0.0011385058
-0.01341487
-0.006257593
-0.028912554
-0.012134146
-0.01377538
-0.00061679765
-0.026988484
0.031200767
0.024350535
-0.009392726
0.0064057214
0.022499288
0.015287859
-0.040493295
0.0075703324
-0.027107181
-0.030795287
0.03423027
0.025760612
0.011972985
0.022465281
0.033353385
-0.008501402
0.005368722
-0.0049392856
-0.012260121
-0.004143076
0.018303823
-0.009936572
0.010392594
0.040625975
0.008835177
0.000299867
0.0052002124
0.017715735
-0.022414409
0.017554047
-0.020493507
0.031047717
0.023236036
-0.012132257
0.04262272
0.017141823
-0.019122362
0.025098266
0.0043543777
-0.014074932
-0.008429321
-0.015777577
0.0005702448
0.012368513
-0.014269301
0.039668184
0.026819387
0.051793113
0.0055609634
0.021826772
0.022594092
0.019053984
-0.008551099
0.030212162
-0.003260251
-0.041704234
-0.023230636
-0.0028785584
0.03431417
-0.0009793693
-0.0016795867
0.026717445
-0.010961175
-0.007338083
0.018545516
0.026059153
-0.011492582
0.026009796
-0.010412398
0.00522975
-0.0013674552
-0.022067364
0.01383272
-0.006164781
0.014761774
0.021181151
0.040691413
0.040839586
0.0027971172
0.04178286
-0.04798083
0.010626272
-0.044699997
0.007435166
-0.0111952275
-0.0047374195
-0.012323252
0.023320893
0.004049615
-0.01889019
0.032537933
-0.019522723
-0.0052730567
0.015914321
-0.0033590135
0.014050021
0.017853253
0.000429779
-0.00711885
-0.010092984
0.017752085
0.016208528
-0.0055404804
0.0049768877
-0.00986902
0.040397026
0.014499186
-0.0049663708
0.021628635
-0.019920606
0.004643179
0.0027012003
0.023031361
0.013722794
-0.012213787
-0.023635631
-0.014847556
0.011172646
0.013413864
