0.011859513
0.030961879
0.11473831
0.061112
0.09782254
0.013022647
0.18814792
-0.025694428
0.037841372
0.17253885
-0.060649917
-0.010848351
0.13184732
0.1388977
0.02592825
0.124540895
-0.0009562566
0.18202154
0.042771734
-0.058339857
-0.011064315
0.59646297
0.017822778
-0.0008194343
0.10965086
0.18018214
-0.00021841198
0.23230186
0.0037614598
0.1403689
-0.0006093005
-0.25801867
0.030666467
0.14891349
-0.13894796
0.07557723
-0.055082783
0.017195612
0.25518677
-0.00061430194
0.045191493
-0.06473071
-0.10479713
0.063960366
-0.00035777653
-0.16422936
0.029424073
1.1821036
0.019644806
0.011588844
0.02622559
0.42822042
0.40489012
-0.0095229335
0.07813316
0.029068911
0.075465195
0.047826793
0.013115216
0.026457341
0.3281013
0.10424549
0.1665418
0.16254778
0.029989155
0.013813934
0.025877323
0.032379452
-0.06469675
0.025464322
-0.09232893
-0.30106464
-0.028526114
0.030860728
0.19567138
0.29384735
-0.0136935115
0.070217125
0.060862143
0.020932138
0.2875206
-0.002032108
0.101030245
0.32139593
0.025748197
0.004060571
0.008876388
0.03423745
-0.028986676
0.19436878
0.14402837
-0.14060277
0.082814015
-0.19384815
-0.09389464
0.19280697
-0.0042423126
0.025747955
-0.17348228
-0.18862697
-0.020529777
0.021105768
0.17903385
0.013273905
0.07770599
0.007643355
0.253789
0.0021846367
0.048726052
0.12192929
0.12046093
-0.1915502
0.53124505
0.3461008
0.0745243
-0.15534602
0.031233799
0.39746076
0.020664819
0.1933583
0.013660035
0.021366607
0.04787976
-0.3350174
-0.062160317
-0.00090165256
-0.021589981
-0.11602207
0.16829735
0.048670206
-0.22296096
0.41706315
0.23645465
0.10903333
0.029966794
0.021152267
-0.017209785
0.02173817
-0.06451938
-0.29274765
-0.12872878
0.10554507
-0.43893868
-0.20864668
-0.116507895
0.009545925
0.33992118
0.075366125
0.10703155
0.11351952
0.023926135
0.08220741
0.112435415
-0.0963658
0.36814734
-0.12840347
-0.21933714
-0.07100545
0.32742542
0.175425
0.01954174
-0.03889958
-0.011890411
0.35449937
-0.016949758
-0.13518527
0.030145839
-0.017785463
0.07417319
0.07022123
-0.2618453
-0.26393038
0.12757093
0.06814863
0.41553843
0.2524267
-0.06443804
0.3624186
0.010082931
-0.25028586
0.07503857
0.014831935
0.4694147
0.10869682
0.08275208
0.12132156
0.07900803
0.15286101
0.12548518
0.8490263
-0.09623255
0.028633485
0.3379095
0.14205605
0.12708032
0.020652242
-0.48494065
0.13076049
-0.023375012
0.37203148
0.03283293
-0.26804212
0.29942486
-0.0703378
-0.45028874
-0.07777552
0.14525594
-0.20213765
0.24874154
0.23075539
-0.00076431414
0.32571033
0.020315615
-0.18680012
-0.14969602
0.13979355
-0.21944635
0.022002745
-0.2849659
-0.04058682
0.2682824
0.0025946333
-0.11575132
0.021108087
0.1710832
0.20041722
-0.12343164
0.13050334
0.002349551
-0.0041071493
0.33075157
0.18168348
-0.17888583
0.2742074
-0.3294937
-0.0919765
-0.61089194
0.39818
0.046101592
-0.19320217
0.26086384
0.1422188
0.13648759
-0.0007531395
0.12763764
0.074759565
0.0064289947
0.021690387
0.003063081
0.0808762
-0.11008674
0.013739139
0.1424031
0.023700397
0.36701965
0.2188979
