0.0016113884
0.047782045
-0.00619366
-0.017449468
-0.055777974
-0.023997357
0.0001697058
0.4534308
-0.011121041
-0.5363598
0.030734882
-0.092974246
-0.018295899
-0.25723484
0.21869002
-0.08598065
0.04772811
0.07662327
-0.0060792826
0.27255505
0.030737616
-0.0006361488
-0.39254454
-0.8418731
3.3088908
-0.23313053
-0.0011312834
-0.0015818599
0.46283516
-0.6631145
-0.0046608956
-0.32720414
0.514969
-0.023859609
0.9080048
-0.008426211
-0.017122457
0.0029129423
-0.0018732325
-0.003454462
0.030718453
0.68128145
0.39739662
3.2165542
-0.004057216
-1.3935144
0.030225012
0.0009214898
-0.000701409
0.5036052
0.030007068
0.002630022
0.47160798
3.3914592
0.04778841
0.19394325
-0.03327517
1.250598
-0.2372965
-0.008787835
-0.0014045715
-0.03592478
-0.16552429
-0.0009590098
-0.6962956
0.0030807338
0.030212013
-0.5713001
0.3843584
0.047481388
0.0021839982
0.3876439
-0.0007820799
-0.23907274
0.39507774
0.0014934523
-0.0058425865
-0.06352762
0.0070964675
-0.0033086597
-0.34594154
-0.0009409049
0.06725424
-0.0041699954
0.03026184
0.11367379
-0.09095034
-0.0023823117
-0.0016870294
0.50600046
0.4923927
-0.4588159
-0.02122574
-1.4129105
3.5179328e-05
-0.38428676
0.012411531
0.002350856
-0.38432494
-0.7493706
1.7213777e-05
0.000116248644
-0.037113447
0.0012992844
-0.52942365
-0.11363455
-0.23741053
0.9318534
0.8227937
-0.13528004
-2.031128
-0.0043399567
0.0053071952
-0.0021979627
-0.001690728
0.004554908
-1.0278884
-0.004780655
-0.0061031897
0.1255399
-0.013472829
7.060655e-05
0.52333707
0.0072646015
0.00026540837
-0.5917597
0.32354596
0.030749887
0.002302717
0.00028364387
0.030725764
-0.06606896
-0.012569899
0.720269
-0.03150393
0.8511993
-0.0727338
0.0046387627
-0.07628692
0.009312568
0.00041653842
-0.0032258928
0.0075324215
0.083914295
0.8137846
-0.869375
0.017715612
-0.0441496
0.25310734
0.005971134
0.8194419
0.26249543
0.5024687
0.5091273
-0.23730269
-0.19792753
-0.014273117
0.4249317
0.003706172
-0.023467759
-0.3269516
0.030212987
-0.23818403
0.031890076
-0.00058698806
0.23350991
-0.65261996
-0.8340302
0.0050116796
7.2508876e-05
-0.0038510347
-0.008504697
-0.0021845922
0.085031085
0.36627886
0.47719088
-0.023565551
-0.32858545
0.015215481
-0.027927598
0.00073104125
-0.12494452
-0.0027915668
0.31158245
0.44930565
-0.00012155315
-0.565138
0.0529732
-0.00543755
-0.00089311594
-0.0037582633
-0.67511654
-0.27117708
0.0148602
0.008698529
-0.25192153
0.24901505
-0.0028156252
0.4352919
-1.2308904
0.4295747
0.42471793
-0.015135849
-0.0056702127
-1.6508904
-0.008609907
-0.0025138054
3.3739636
-0.32474247
-1.8175471
-0.32839698
-1.637398
-0.36111903
-0.4827911
0.03023232
-0.0013407698
-0.5079164
-0.11581618
1.3857006
0.016647354
-0.017374482
-0.016668623
0.0034609954
-0.012475862
-0.06104439
0.030210534
-0.8188715
-0.033502314
0.53652525
3.3308673
0.16388096
-0.018148378
0.020689115
-0.93967044
-0.02867418
-0.65508604
-0.0007788288
0.2733208
0.46365014
-0.041691672
0.056761738
0.030733576
-0.0016670139
0.10654292
0.51262057
-0.14822417
0.37771314
0.030212944
0.053160544
-0.38426903
-0.007091208
-0.009996808
3.3653564
0.030229906
-0.01792291
0.70439386
