-0.029302202
-0.04672565
0.00839761
0.061804853
0.004817048
-0.07118507
-0.054828994
0.1112989
-0.102759674
0.15248461
-0.052103564
0.037162393
-0.07577899
-0.14050812
0.025053753
0.058459245
-0.021465387
0.038424417
0.00533789
0.054177716
-0.06625937
0.0089344
-0.10366709
-0.055221774
0.10039807
-0.023271453
0.02228291
-0.026082808
0.03447349
-0.034559924
-0.07002914
0.061506048
-0.14728071
0.061934035
0.080216795
0.089171596
0.10083726
0.15813088
-0.023556925
-0.110799365
-0.01957208
-0.017708935
-0.06290045
-0.029749695
-0.15541527
-0.051876996
0.08971418
0.08401789
0.007186329
-0.056607436
-0.060153443
0.04293996
-0.086845525
-0.12698044
0.030652227
-0.031635467
-0.1057919
-0.15815221
-0.0684598
0.08538439
-0.12218079
-0.04208947
-0.054031663
0.12983048
-0.07926272
-0.1174761
0.05873831
0.0022781624
-0.03264555
0.114071496
0.06372753
-0.19930385
0.20182581
0.05689802
0.027534554
-0.10001026
-0.058624122
-0.202578
-0.05391604
-0.082273446
-0.15355602
0.05078009
-0.026062315
-0.018731155
-0.0052210884
0.05587351
-0.06160497
-0.07981412
-0.048698116
-0.12643173
-0.09318327
0.027731257
-0.015257804
0.11999416
-0.00048782243
-0.18265028
0.010779634
-0.03132294
-0.08022444
0.12771864
-0.008017767
-0.059921917
0.08502695
-0.096315876
-0.05655839
0.12896368
-0.14398268
-0.02537837
-0.05582818
-0.11582118
-0.10461146
0.04027723
-0.02004704
0.07428769
-0.014634284
-0.036111437
0.012262399
0.04439429
-0.119861856
-0.028439831
-0.022841293
0.09916098
-0.11430795
-0.068613745
0.030992556
0.18278801
-0.008510174
-0.024418315
-0.10075677
-0.06833954
0.02347907
0.009460898
-0.051700447
-0.081563756
-0.008590184
-0.14866285
0.019214856
0.0404225
0.08431197
-0.06636334
0.11080027
-0.10209206
0.052745212
0.14701954
-0.058002554
0.06216258
-0.035644207
-0.12273937
-0.062469978
-0.042746328
0.037862115
0.013967079
0.07938805
0.18889545
-0.18787178
0.048898723
0.05331502
0.0048165442
-0.040592466
-0.023063002
0.01246149
-0.19640079
-0.027457511
0.035425857
0.08880145
-0.17183721
-0.053127564
-0.1728459
-0.074493885
0.052515112
-0.026644016
-0.03614252
-0.036560994
0.106566265
-0.022859717
-0.057287145
-0.016554855
-0.0067749433
-0.06259899
-0.024245797
0.12821096
-0.05346236
0.00514253
-0.09102733
-0.13534054
0.023133064
0.07573087
0.09894803
-0.0684159
0.06665484
-0.11232472
-0.05208809
0.102020934
0.012625026
-0.15127961
-0.008357586
-0.0919962
0.11664921
-0.08747691
-0.06597661
0.00016236705
0.039487604
-0.020454781
-0.0766358
-0.033742305
-0.082777224
-0.050966408
0.019617606
-0.08126903
0.031336736
-0.017389081
0.11046877
0.055951845
-0.06466362
-0.0402177
-0.05368189
-0.008665558
0.12766045
0.007129539
-0.06483928
-0.041161735
0.011687369
-0.11870593
0.1324078
-0.03071846
-0.1216348
-0.11454699
-0.018349499
-0.15728259
-0.001869026
-0.043398347
-0.18310831
0.07990024
-0.1707906
0.088445336
-0.04019101
-0.05786188
0.011105262
-0.065493226
0.03468185
-0.061194673
0.074661046
0.0022850367
0.036676858
0.05214404
0.06467127
0.0051424624
-0.12215577
-0.045554616
0.10101565
-0.13920158
-0.13370247
-0.06810771
-0.05352416
0.037762232
-0.13850556
-0.033500094
0.012812437
-0.02344166
-0.090990365
0.21279295
0.03326901
0.051500335
-0.0468056
-0.042462155
-0.104472086
0.090499476
0.0036462657
0.01667389
-0.14668302
0.056147255
-0.10189739
0.016588269
-0.03583863
-0.050667252
-0.1094556
0.116874136
-0.09047343
0.089913
-0.034610685
-0.1285656
-0.15812346
-0.046123125
-0.08202845
-0.009747696
-0.04857851
-0.05123526
-0.13146776
-0.04967214
0.051412668
0.08376667
0.08211829
-0.09268001
-0.014093974
-0.007895035
0.09707584
-0.018209308
0.16882528
0.02852711
0.05515198
0.17548677
0.019364635
-0.10373789
-0.05219558
0.009758073
-0.090570726
-0.036768958
0.024400763
-0.15145801
0.050549194
-0.08117935
0.10992385
0.06477058
-0.15215276
0.046800464
-0.010903078
-0.036827546
0.124639444
0.013867986
-0.020829156
-0.09079981
-0.096877895
-0.052164644
-0.08068864
-0.1020899
0.01439154
0.023084257
-0.13652141
0.04696496
-0.077436976
0.03569634
0.066890396
0.119749166
0.100165345
0.099296615
-0.074543536
0.028210644
-0.049974717
4.834866e-05
0.0058474233
0.087312795
0.052075002
0.12353953
0.024668977
-0.06824372
0.033271674
-0.026347686
-0.0828521
-0.11769253
-0.06154846
-0.0425607
0.058774248
0.06406973
0.01670747
0.0151641965
0.07557464
0.093776055
-0.056624543
0.006979431
-0.016530016
-0.0096809445
-0.08390308
0.12621343
0.1535179
-0.06541415
0.013720615
-0.036279812
-0.0516488
0.085748866
0.09687391
-0.08827122
0.019498413
-0.029458499
-0.09498225
0.01709725
0.057830453
-0.049393117
-0.063997485
-0.035248257
-0.089020975
-0.060294457
-0.13409884
-0.092221886
-0.023197463
-0.079471745
-0.1047184
-0.003544544
0.101494536
0.13160165
-0.110854484
-0.047496162
-0.09685745
0.05467765
-0.0945252
-0.08498203
-0.02871024
0.068086475
-0.0070817415
0.06383041
-0.0027936497
-0.124041714
0.032044347
-0.14245321
0.0612027
0.009379799
0.036060426
0.1499221
0.17393206
-0.043899022
-0.021400707
-0.1407648
0.0147116985
-0.06978876
-0.086597316
-0.11602396
0.0021148426
0.020081982
-0.022830412
-0.013740393
-0.10788784
-0.03399695
-0.051210493
-0.16390905
-0.021741832
-0.12200814
-0.0035195642
0.17325154
-0.008944705
-0.040178634
-0.12122847
-0.077516004
-0.0029200076
-0.037568025
-0.025004057
0.08080691
0.00644705
-0.015708277
0.00088888936
-0.020147856
-0.15110235
-0.096267805
-0.17069376
-0.14396687
-0.044818696
0.08992605
-0.06089374
-0.001955678
-0.04787914
0.06623059
-0.052113947
0.09013352
-0.05180793
-0.10629616
0.018683428
-0.09236902
-0.02404033
-0.006348403
-0.08438348
0.019789249
-0.07219886
0.012141023
-0.10082227
-0.07304735
-0.00553119
-0.11186615
0.048152614
-0.10158256
0.0803816
-0.058886778
0.02804708
0.19294374
0.115029305
0.003691137
-0.1129984
-0.1377141
0.057388153
-0.12819418
-0.044270433
-0.026679043
-0.0012306431
0.20552945
-0.019884044
-0.055955518
-0.026890568
-0.17850016
0.13663669
0.100579515
0.07493496
0.04705039
-0.082172826
-0.07557019
-0.13016102
-0.023085428
0.048570003
0.14086242
0.02474534
0.052035056
-0.032142676
-0.08243049
-0.046940435
-0.11008217
0.05287581
-0.047143817
-0.0039387248
0.007281212
-0.0053144936
0.01870651
-0.042927824
-0.063373946
0.005221902
-0.096226305
-0.15396978
