-0.002413799 0.010792763 -0.007951137 -0.0074289925 -0.017570661 -0.012875992 -0.0014216605 -0.02589442 -0.0075625097 -0.038894523 0.015245619 1e-44 -0.02095283 0.024072327 -0.029214678 -1.1e-44 0.010789107 -0.018825684 -0.0056221904 -0.025225323 0.0152461985 -0.0028607321 0.014964808 -0.03583155 0.03193463 -0.013150687 -0.006384142 -0.0019385258 0.017853703 -0.031825162 -0.00843326 0.014831247 0.033016082 -0.010341028 0.024716603 -0.0063183145 -0.008078475 -0.004613025 -0.0007637559 -0.013581919 0.015258278 -0.02730433 0.018878346 0.030773683 -0.0053526 0.048722126 0.008863266 -0.0025758059 -0.0013617639 0.014972447 0.008876312 -0.00423699 0.018714074 0.033279683 0.010793341 -0.04087438 1e-44 0.05599897 0.01420189 -0.007327319 -0.010698965 -0.017038064 -0.049959183 1e-44 -0.02554356 -0.008571137 0.00886215 -0.035194524 0.016648766 0.010784782 -0.008461931 0.056484554 -0.0038664022 0.014271915 0.016970605 -0.009977722 -0.0058834325 1e-44 -0.004646863 -0.0069548576 0.030350015 -0.004858668 -0.03171636 -0.00512855 0.0088681355 -0.021921033 1e-44 -0.004504225 -0.005733077 0.015038785 -0.019540662 -0.025459753 1e-44 0.008833999 -0.0019227739 0.008358466 -0.029701103 -0.0039833654 0.008352977 -0.024819758 -0.007626439 -0.0007834678 -1e-44 -0.0022712946 0.03197316 -0.015758878 0.014201124 0.025288474 -0.020787045 -0.0291795 0.012767683 -0.003996243 -0.012934901 1e-44 -0.013941663 -0.007125565 -0.0319374 -0.010479682 -0.016224349 -0.016914416 -0.0040397593 -0.010608538 -0.032538746 -0.00916088 -0.0038743704 0.047323037 0.014489387 0.0152471075 -0.0024114787 -0.0028668758 0.01524582 -0.028389445 -0.01390374 -0.04517922 -0.024589162 -0.030663619 -0.016381595 -0.009812189 -1e-44 -0.014472037 -0.0025554593 -0.008138604 -0.0066303127 -0.019492136 0.029373616 -0.0302752 -0.006224683 -1e-44 -0.03382563 -0.0094039915 -0.02672056 -0.040131398 0.014943309 0.015130663 0.014201472 -0.036155254 -0.013490534 -0.036369335 -0.011434188 -0.014586127 0.01478213 0.008862281 0.014229494 0.015463618 -1e-44 -0.021353414 -0.028610835 -0.03262191 -0.0062747006 -0.0060627386 -0.0026080378 -0.013168127 -0.0026425472 -0.020858368 -0.017760858 0.019349432 1e-44 0.014812263 -0.02185653 1e-44 -0.001792114 -0.030077428 1e-44 -0.028348476 0.015902488 -0.0020202568 -0.042000875 -0.043456614 -0.009734258 -0.0033546148 -0.004028286 -0.0318173 -0.013901224 -0.0056776754 -0.006599326 0.02422932 -0.027666364 -0.0076754997 -0.03861491 -0.03864554 0.018674796 0.026075236 -0.012685449 -0.010453398 0.010348968 -0.01631625 -0.005501057 0.033020735 0.025947236 0.011410235 0.0147898765 0.0102630565 -0.04144268 -0.027929218 0.008864162 -0.0019083894 0.023927035 -0.023939226 0.06614025 0.051952235 -1e-44 -0.022498274 -0.006346725 -0.009038403 -1e-44 0.008862011 -0.024061542 -1e-44 -0.037708074 0.032275137 0.016188972 -1e-44 -0.033615302 -0.039835002 -1e-44 -0.031409908 -0.0039475043 -0.018393837 -0.035343576 1e-44 -0.03894053 0.015245591 -0.0053164507 0.022503719 0.02628796 -0.03236146 0.02872862 0.008862286 -0.03317367 0.008365886 -0.0072264527 -0.04167757 0.032889016 0.008863882 1e-44 -0.056451235
