0.05059069 -0.009727451 -0.004186145 -0.035485264 0.029661765 -0.014860399 -0.017659007 0.016786834 0.032497585 -0.034178633 0.019100146 0.037977394 -0.042326324 0.05312646 0.05049183 -0.021985685 0.0066215093 -0.014854815 -0.032820474 -0.020419426 0.033696532 -0.0072061596 -0.015479562 -0.0021086475 0.0368886 -0.013903414 -0.006943692 0.04325686 0.002277845 0.01789156 0.020986712 0.05155412 0.03359797 0.032450903 -0.025697747 0.020672472 0.018768176 0.015559482 0.03713374 0.019396408 0.020605061 0.011557846 0.020777455 0.0062941075 -0.019534329 -0.0069613126 -0.01234544 0.028371653 -0.018973464 0.050006513 -0.019234879 0.041575946 0.012825891 -0.044660613 0.044738892 0.0058167693 -0.027964514 -0.026890697 -0.043206412 0.0033075553 0.041900784 0.01864459 -0.02394545 0.009773976 -0.029739399 0.02641995 -0.028732054 -0.10239998 0.024718128 0.01281796 0.02610577 -0.0032228087 -0.0026089326 -0.042942427 0.0057508135 -0.06084067 0.023493854 0.018947426 -0.06705429 -0.08033976 -0.023211583 -0.011170364 -0.015692301 -0.031163992 0.015107027 -0.036977813 0.036226097 -0.065941826 -0.015008171 -0.011145593 -0.05077915 0.027579505 0.007966508 -0.06412645 0.016992662 -0.02988975 -0.034181535 -0.030452158 -0.04025767 -0.01743052 -0.0180824 0.0039367685 0.016552895 0.0018067386 0.03698313 2.913644e-05 -0.00034263587 0.011596994 0.009653728 0.04131295 -0.008188562 0.0073385625 -0.015397362 -0.0077985674 -0.025542445 0.030689608 -0.01287307 -0.0009931766 0.01830406 -0.017933106 -0.030968487 0.038367353 0.022262184 -0.013297206 0.0400659 0.0044762795 0.014845187 -0.003304757 0.029218545 -0.029183924 -0.0043811635 -0.0071766335 0.04757527 -0.02582864 0.034038264 0.00077793107 -0.013586448 -0.020860903 -0.024769336 -0.004568457 0.007953262 -0.024284694 -0.009755411 0.03848206 -0.04672919 0.02880887 0.013581238 0.020702261 -0.043841045 0.03740955 -0.055162203 -0.0030863604 0.010339431 0.041037805 -0.03309226 0.006188511 -0.036972158 0.042582534 0.034884654 -0.033945397 -0.064186566 0.0045861346 -0.017711803 0.01310108 0.0052531813 -0.025313627 0.013241922 -0.018496523 -0.02049303 0.010020294 0.009261248 -0.024141336 0.02276633 0.015007245 -0.05078697 0.020336399 -0.004757254 -0.028315773 0.028323267 -0.0020171003 -0.017280743 -0.040493224 -0.0023982397 -0.017534906 -0.0018455717 0.044404395 0.0072627305 -0.0396061 0.032855287 0.023703368 -0.022786073 0.031377077 0.031741418 0.039940525 -0.09118272 0.011420758 -0.02454711 0.018325374 0.013111907 -0.06543935 0.013258422 -0.015753811 0.024462149 0.015155763 -0.037561245 0.039669722 -0.020986423 -0.03368598 -0.02553982 0.0028404868 0.047070026 -0.03126639 0.0023067815 0.008263572 0.015957335 0.011357771 -0.008790499 -0.027788358 -0.04126454 0.020292763 -0.0022207373 0.004253704 0.0011395074 0.052498024 -0.005488182 0.023829076 -0.023232974 -0.06938991 -0.039975386 -0.04349667 0.020219695 -3.035938e-05 0.017928872 -0.015527133 -0.033020046 -0.035250623 0.03674336 0.039813142 0.0002630077 -0.031739198 -0.016531814 0.03128019 -0.046547815 0.015663072 0.017208416 0.05907736 -0.0015717817 0.021499598 -0.047402672 0.007296586 -0.02207446 -0.057098508 0.018587276 0.040299587 0.004115889 -0.0458566 0.040334843 0.012231314 0.022144997 -0.021897288 -0.003669768 0.0031527425 -0.003745309 0.007230618 0.021327157 0.03297065 -0.06440279 0.0040741013 -0.05377503 0.021607028 0.020528711 -0.053071614 -0.07602083 -0.015266936 0.035408206 -0.0055535184 0.02892776 -0.055384737 -0.013735122 -0.06809887 0.006626932 -0.0010444964 -0.0043814536 0.05000539 0.038768645 0.0015890654 -0.055944968 -0.04181057 -0.026272902 0.0079885805 -0.027560672 -0.0065373927 -0.04190107 -0.014677771 -0.026087021 -0.029634316 -1.4094398e-05 -0.015009483 -0.037730347 0.029955871 0.009166652 0.037715003 -0.0021710007 0.011238228 -0.026794257 0.03480574 0.0074341684 0.018799381 0.021266097 0.0066008326 0.03818943 -0.020753054 -0.011907609 -0.060438477 -0.035961676 -0.012805542 0.04586562 -0.04494867 0.052542787 -0.012450888 -0.03135945 0.025890568 -0.028575795 -0.048093785 0.010785709 -0.008287894 -0.0005823549 -0.025592266 0.0064615803 0.040169016 0.020180114 -0.024239931 -0.029090634 0.032513317 -0.0072408332 -0.02181198 -0.036074948 -0.022074008 0.025979301 -0.015495457 -0.003383396 -0.00024503728 -0.03975105 0.020691808 0.019249909 0.018530602 0.04123325 0.022756767 0.0501538 0.03488158 0.0012803642 0.022329671 -0.037061818 -0.029787952 -0.0070871296 -0.012451535 -0.0030764272 -0.021569893 -0.03225352 0.021358082 0.052286226 0.03185429 -0.035420552 -0.04570622 -0.010747608 -0.0052863914 -0.03528742 0.012017985 -0.035449956 0.030652387 -0.012887275 0.047152203 -0.01802288 0.01937289 -0.057857785 -0.02819453 -0.0055418042 -0.009473861 -0.05673654 -0.047269657 -0.018493272 -0.013819867 0.006432741 -0.009926903 0.013151803 -0.048415005 -0.0236439 0.022902457 0.031583097 -0.04396437 0.02328613 -0.024102127 0.01938772 0.023075428 -0.0003540972 -0.038552426 -0.020763848 -0.05633642 -0.030622264 -0.035340946 -0.036327895 0.008649823 -0.029864104 -0.0008289616 0.0054798545 0.032111593 -0.051961366 -0.033455934 -0.0028201335 -0.003881598 -0.006395995 0.040580083 -0.044872288 0.023220917 -0.035672132 -0.019071098 0.0055877133 0.0032856362 0.024582095 -0.020831842 0.03649569 0.011921237 -0.0076609445 -0.032159887 -0.036534272 -0.0555095 -0.0061735925 -0.01727225 0.01922857 0.031270847 0.013833328 0.03924841 -0.0085641425 -0.00043023628 0.007368868 0.014908553 0.009357867 0.026873464 -0.018011557 0.0116012115 -0.0064441143 -0.003304426 0.028456764 0.020795502 0.018077178 -0.050223242 -0.021900386 0.040596377 0.046636652 -0.00025700743 -0.034351934 -0.029383127 0.016932212 -0.021066574 0.020617701 -0.027460005 -0.019116329 -0.06565564 -0.0049796 0.033188824 0.01975765 -0.015208121 -0.026293183 0.03818326 -0.0011571861 -0.023233302 0.023008637 0.0050153458 -0.004891588 0.03115206 -0.040513106 0.03952522 -0.021591207 -0.07948479 -0.011598503 -0.060858987 -0.021388631 0.012957867 0.0009794629 0.023120478 -0.025568223 -0.034674075 0.027312716 -0.007833373 0.054950956 0.03348092 -0.02268529 -0.05575397 -0.02910629 0.0063976846 -0.04704876 -0.041670583 0.027658923 -0.03565278 0.022150781 0.0010116297 -0.02375446 0.04252815 0.030853463 -0.04815947 -0.052551016 -0.028127287 -0.025727842 -0.0040930035 0.039448157 -0.019194715 -0.008665888 0.0238384 -0.055936657 0.032889035 0.0002939811 -0.013204853
0.02671737 0.04860054 0.0012568599 0.051029075 -0.024257042 0.023408249 0.0029372687 0.016135262 -0.045811616 0.020338312 0.003872902 0.018850934 -0.017498152 -0.016175868 -0.026573986 0.005414326 0.06122561 0.01675471 0.038438205 0.04656998 -0.0013997735 0.024921514 0.053716093 -0.041066866 0.0016015708 0.0021233466 -0.017039154 0.0014475662 0.0033218118 0.023431174 0.021085171 -0.0017188527 -0.002511844 0.02223267 0.020283703 0.055429257 -0.014103584 -0.012891185 0.020605447 -0.008614905 0.008741139 0.07119683 -0.002573066 0.044718567 0.05499913 -0.065531366 0.0098523935 0.004988857 -0.056206115 -0.04140639 0.0018688174 0.0047158347 -0.006998176 0.032735217 0.016376503 0.0010601217 -0.038042784 -0.0014472994 0.10937078 -0.0017365603 -0.017284771 -0.05315787 0.051842548 0.034743927 0.010160528 0.008542956 -0.039186627 -0.038435217 -0.0074013295 -0.027202476 -0.020444853 -0.024462987 0.058679003 0.06595423 -0.02086162 -0.0326113 0.0069755795 -0.018962976 -0.052757155 0.033252943 0.022180654 0.012522924 -0.00905326 -0.05037693 0.049925175 0.02316594 0.01649293 0.0042803274 0.022749899 -0.02283069 0.024381751 -0.03404522 0.023487443 -0.010470912 -0.01689991 -0.020729195 -0.005973969 -0.030674638 -0.04166665 0.0010202475 -0.042238772 0.020591078 0.038963486 -0.046382014 -0.0075828647 0.013896324 -0.013300951 0.055955626 -0.035341762 0.051101178 -0.031979285 0.053116795 0.014469221 0.03387131 -0.065157376 0.015126357 -0.009933058 -0.0046087275 -0.0009463767 -0.031308442 -0.015208228 -0.011359773 0.0012723964 -0.0018890653 -0.0023588438 0.016591456 0.01522863 0.0063471724 0.0034486994 -0.0023083135 0.011026658 0.031565595 0.025993768 0.037970267 0.0281622 -0.091982834 0.011049246 -0.032871746 -0.0026031444 0.025362406 -0.021984795 -0.024895618 -0.041230652 -0.010005085 0.004225338 -0.0178701 -0.017710958 -0.030936522 -0.0029688103 -0.0018369707 0.039999787 0.0017607991 -0.016408391 -0.056322325 0.03162457 -0.032346107 -0.0020401771 -0.042674605 -0.019153573 -0.03039987 0.07583163 -0.02336041 -0.032449882 -0.0077944486 0.00792849 0.05443948 0.026763467 0.004703266 0.017276352 0.026277866 -0.031413205 -0.014095622 -0.045391385 0.056607697 0.036091328 0.0035605782 0.056906477 -0.034352954 -0.017551558 -0.010882426 0.0028429714 -0.0066227512 0.025928322 0.00048394926 -0.030065 0.0022154665 0.046378452 0.017782379 0.0116042495 -0.009822559 0.04003055 -0.026257135 0.06391129 0.0048334384 -0.08169038 0.0071191243 0.02022862 0.019545838 -0.05024062 0.007850424 0.011819162 0.023670333 -0.012517238 -0.014640801 -0.010911218 0.030754164 -0.06249501 0.019626515 -0.021476598 0.00210677 -0.014846031 0.011905254 0.006390597 -0.010394973 0.0016428133 -0.037335522 -0.00785881 0.008297992 -0.05229562 0.018355003 0.030318202 -0.017036628 -0.00825965 -0.048445914 -0.04023107 0.033996504 -0.03555805 -0.033873342 0.00936674 -0.014446423 -0.016597426 0.0074412366 0.03566319 0.07834127 0.045437623 -0.02138307 -0.029329536 -0.02497928 0.026266854 0.010240861 -0.037662502 0.018108327 0.07719321 0.0576219 -0.015778635 0.023327904 -0.007777032 0.011362563 -0.021070108 -0.011111649 0.03319559 -0.068286635 0.03202309 0.016993077 0.028768707 0.008905225 -0.015831789 -0.0065454408 0.029370038 -0.016132763 -0.017306143 0.06955847 -0.026509 0.025947994 -0.040328607 0.050915353 0.017221302 0.064704984 -0.009035063 0.031125216 0.04079436 -0.060965225 -0.06316899 0.018243501 -0.04185726 0.021722393 -0.0068156025 -0.009226513 -0.011765263 -0.025239611 -0.019484004 0.020329984 0.08453838 -0.03247905 0.002597213 0.02536505 0.0059910887 0.028297972 -0.025352852 0.011333241 0.021302402 0.024854194 -0.01339838 -0.059999887 0.02416247 0.0032247575 -0.0019290693 -0.026014786 0.016325112 -0.021098126 -0.01468732 -0.027015934 0.0040796185 0.06669753 0.0064911614 0.03367245 -0.015417746 0.07503608 0.07414996 -0.018807672 0.038027756 0.0038161778 0.0008269122 0.015170923 -0.03254158 -0.028498242 -0.031598657 -0.08995384 -0.015216768 0.002680366 0.016486295 -0.038557183 -0.003329405 0.0023564107 -0.0088395635 0.056113627 -0.0020147895 -0.001740539 -0.022626864 0.006655616 0.031092383 -0.011668623 0.023753915 0.030618768 -0.049326535 0.013085357 -0.012908402 -0.034127887 0.05202568 -0.014384477 -0.0019380449 0.0044641555 0.034221306 0.060061343 0.023737162 0.019384386 0.02514576 0.010731411 0.053236216 -0.018580478 0.0056143384 0.0021662083 0.018777361 -0.031986386 -0.022075627 0.027658282 -0.00842609 -0.016655315 -0.02635106 0.010952674 0.0025449162 -0.03294776 0.01635621 -0.026571056 0.0024048158 0.008383153 0.042199574 -0.04482038 -0.020994717 0.02610107 0.037062112 0.03062676 -0.036007505 -0.016931584 0.010117162 0.0021914106 -0.015985746 -0.00928993 -0.009480249 0.036541075 0.011810507 -0.0046716644 -0.007855377 -0.005411912 0.03131608 0.006046564 -0.008444363 -0.0014716984 0.020707585 -0.048596036 -0.012867201 -0.051261794 -0.011661843 0.03196284 0.02315024 -0.021908903 -0.05124364 0.04733417 -0.062484704 -0.018851459 0.017460132 0.020161398 -0.03690125 0.010028004 -0.044135354 0.024287729 0.007700294 0.0033723942 -0.0044222586 0.054747734 -0.0045981393 -0.0042805662 0.05239618 -0.0019131158 0.017024867 0.009458887 -0.013648314 -0.04136608 -0.037477553 -0.026343573 -0.033891518 -0.050356023 -0.017315365 0.008432769 -0.009294274 -0.0037018738 0.015044174 0.06974278 0.059805054 -0.026876055 0.030867264 0.025382815 0.03184726 -0.016386293 -0.02373489 0.023700444 0.01631739 0.025340337 -0.034460165 -0.025704361 -0.005705214 -0.026569491 -0.024458816 0.0031933512 -0.019444725 -0.018781304 -0.0040316726 -0.010442029 -0.0252937 -0.034477938 -0.00304153 -0.0037156378 -0.019118695 0.010596381 0.02935858 0.04154353 -0.07741783 0.00038293254 -0.03212265 0.041968316 0.005270881 0.01903125 0.025406443 -0.017880967 -0.0127080595 0.006824567 -0.0047942973 -0.020006608 0.0006977263 -0.016468845 -0.062147338 0.014932367 -0.045516487 -0.055814777 -0.02855821 0.0055459747 -0.012223438 -0.016654164 0.052244693 0.030268703 0.015786724 -0.045238726 -0.028765826 0.014787019 0.033744615 0.005618478 -0.014008538 -0.024973147 -0.057188526 0.039489806 0.045407698 -0.032265354 0.0008540584 0.059921257 0.058371462 0.032960948 0.069223985 -0.007292359 0.055905692 0.031368714 -0.026441885 -0.010183409 -0.030822603 0.01404396 0.0070920163 0.07604979 -0.011131457 -0.048080217 -0.00046852545 0.0075102355 0.029308468 0.012121643
-0.024390375 -0.00464519 -0.022034109 -0.020066777 0.025631486 -0.042889655 0.0022931641 0.017669588 0.017787658 0.018412488 0.01423984 -0.000972873 -0.025400043 -0.027315153 0.047521353 -0.00026028982 -0.02688603 0.024209507 0.047733217 -0.015518915 -0.0367733 0.020653388 0.005349427 -0.051189743 0.028498063 0.05040164 -0.031124987 0.015172751 -0.026416242 -0.033748575 0.036792446 0.027669488 -0.0045652944 0.035647146 0.039467733 -0.014214787 -0.01796856 0.053409018 -0.01663616 0.0026944396 -0.04754478 -0.03236204 -0.0032922828 -0.015479369 -0.012583588 -0.040948696 -9.6475305e-05 0.035597105 -0.034031503 -0.035376087 -0.035476256 -0.015078354 -0.012186562 -0.02231309 0.05072223 0.00012689889 -0.011308522 -0.07249224 0.01384228 0.03748985 -0.00055399875 -0.0024000432 -0.036680277 0.028331669 0.00652773 -0.008249195 -0.0821302 -0.038378496 0.030878376 0.03779113 0.007941124 -0.03264531 -0.044279072 -0.0069127567 -0.0052874046 -0.048629493 0.020939136 0.026551755 0.0053830924 0.011274623 0.027329668 -0.01785001 0.027118437 0.030758953 0.0059834435 -0.034996558 0.037155196 -0.056673605 0.029888207 0.02151218 -0.02144677 0.0074937604 0.044980366 0.024063243 0.0013995214 -0.0051493915 0.0034176204 -0.03539587 0.010636037 0.058711756 0.011590155 0.016123665 0.019528212 -0.0402434 -0.0089059 0.008515836 0.039949574 -0.041419208 -0.0501725 -0.009153501 -0.017878314 -0.03438842 0.0442107 -0.003436455 0.04114636 0.006882544 0.04362631 0.030031713 0.024846794 -0.03606426 -0.026875399 0.030997949 0.047126293 -0.037272055 0.011366255 0.0053196857 0.049265217 -0.0128129795 0.05277193 -0.025463136 0.019799639 0.026870418 -0.022173772 -0.03255168 0.017716076 0.008291355 -0.009085036 -0.021306362 -0.0014879693 -0.002889126 -0.0177835 0.030958828 0.009944834 -0.030317713 -0.052749738 0.015004207 0.022041984 0.00796137 -0.07262296 0.033150654 0.02619402 0.005834988 -0.006487072 0.03943675 -0.007874825 -0.017885897 -0.024618158 0.028137311 0.021396799 -0.025837576 -0.017682364 0.059101313 0.011221899 0.027406806 -0.04691749 -0.020169254 -0.017396074 0.015250056 0.03593273 0.02398352 -0.016482998 -0.05054205 -0.013875977 0.005313667 -0.012854696 -0.001737436 0.006671028 0.009987075 0.0008680787 0.0055918507 -0.08967586 -0.03997036 -0.033235434 -0.015661152 -0.018773193 -0.031449508 0.033770017 0.030198537 0.005402449 0.0022321953 0.0041386564 -0.007716106 -0.011932586 -0.01480162 0.061707918 0.034413714 0.0038340425 0.055626996 0.0069007794 -0.04375845 0.04091478 -0.029346257 0.048413392 -0.011744569 0.03333219 -0.026115607 -0.015262206 -6.591424e-05 0.00036450042 -0.009387605 -0.011007459 -0.025536144 0.052128688 -0.05088821 0.006925871 -0.011453878 0.006669151 0.004186 0.022299495 0.025042161 0.031639483 -0.034612417 -0.0532547 -0.011541527 0.0026689009 -0.036371212 -0.053764526 -0.069153644 0.0031525537 0.045090858 -0.009109946 -0.0034733668 0.014570808 0.012593847 0.039201647 -0.0038987494 -0.013567275 -0.011972285 -0.028044395 0.055943415 -0.011814682 -0.03279381 -0.02335927 -0.0447203 -0.023973368 0.026582612 -0.054967377 0.0028037014 0.006493256 0.0035409916 -0.019262202 -0.029012857 0.03783699 -0.022568481 -0.0047892677 -0.040392283 -0.016683394 -0.035043076 -0.011228269 0.03400941 0.032767735 0.038841724 -0.012292511 -0.000500435 0.0020383096 0.008409997 -0.018543664 0.031571142 -0.11431368 -0.020572653 -0.0561326 -0.023341717 -0.06576323 -0.03219309 0.020073915 0.0008848862 0.02484546 -0.027792541 0.04317125 -0.0018188108 -0.02245706 -0.0027027142 -0.018652577 -0.03357949 -0.0122748315 0.008230576 0.055457264 0.051788773 -0.009913921 0.025682084 -0.039135017 0.0036594528 -0.03418486 0.00031914908 -0.0061053894 -0.00051476655 0.007964242 -0.012608664 0.03906458 0.017068982 0.023697617 0.024986545 0.011238933 -0.016904227 0.02722779 0.044037174 -0.012000776 -0.022890996 -0.034897402 -0.03365898 0.0036170857 0.037103366 -0.01772104 0.014350615 -0.04027213 -0.039434463 0.01431066 -0.05275599 -0.023458298 0.032043945 -0.037900306 0.036806136 0.012440255 0.00012412583 0.037306547 -0.047877777 0.047130313 0.040336963 -0.0031273346 -0.044286624 -0.031138962 -0.006702548 0.013448986 0.015243537 -0.039312158 0.01936579 0.024611326 0.030909488 0.020641645 0.07062711 0.049977314 -0.039609324 -0.013766262 -0.02787908 -0.014735012 0.05285825 -0.016589984 0.016567655 -0.0038508931 -0.0026753694 -0.0071054003 -0.061123926 0.0069531 0.024826655 -0.03433981 0.040339254 -0.017673712 0.00014681544 0.055035744 0.027031317 -0.016397005 0.009524421 0.04489013 -0.1134739 -0.0073204846 0.0045285113 -0.003264225 -0.004086026 -0.01654018 -0.0008754157 0.008444527 -0.008144453 -0.038891993 -0.015600275 -0.047096312 -0.012428458 -0.02349367 -0.048093867 -0.05543152 0.033315487 0.026508208 0.017848924 -0.10030456 0.03794164 0.0028171048 -0.0026426173 0.01860324 -0.029553011 -0.005386096 -0.008412902 0.029300697 0.0007282679 0.00013979555 0.033664368 0.015416514 -0.047001563 -0.018664943 0.034706965 -0.059983216 -0.042558603 0.026140207 0.019780578 -0.021699192 -0.012908565 0.016501471 0.006278882 -0.07656239 -0.03741021 0.025131455 -0.039539006 0.011180822 -0.007481 -0.062053934 0.029979475 -0.036610123 0.028981313 0.028154448 -0.03353324 0.042119343 0.054260775 0.0011687207 -0.030663569 0.026264409 0.06400082 0.0057962313 -0.06735403 -0.024353737 0.041859053 -0.020989941 0.014027726 -0.023731943 0.02617471 -0.0024773 -0.010714316 -0.019955806 -0.01852279 0.025396097 -0.01241464 0.033172067 0.0069544218 -0.014825525 0.008075379 0.061222784 -0.0203798 0.016265744 -0.022444136 0.01871277 0.024343986 0.02984133 0.046882607 -0.026156629 -0.012431181 -0.02230735 -0.0006195485 -0.01789257 -0.05602464 -0.09067039 -0.029224778 0.001924041 0.05335573 0.058805488 0.013157133 -0.03350065 0.0067144623 0.021344349 0.047321044 -0.016927175 0.05225496 0.010869161 -0.0039343196 0.00042471214 -0.028952431 0.018865013 -0.045088805 -0.0040121074 -0.015210638 -0.052786134 0.06217881 -0.016998112 -0.022205843 -0.020038439 0.014582707 -0.02495337 0.010952345 -0.02634061 -0.020423116 -0.011954115 -0.0464147 -0.012541339 -0.021126192 -0.0061593438 0.0010993001 0.029620986 0.014487453 -0.034995575 0.04631367 -0.049584277 -0.0065630837 0.0007221391 -0.058254674 -0.018257601 -0.010979408 -0.010216713 0.004832487 0.017815027 0.0008622454 0.028309831 0.040281706 0.0037538048 0.019817151 0.02426291 -0.000554348
0.014490031 -0.017125161 0.013529015 -0.009224917 -0.0013128212 0.017507097 0.0075913407 -0.008219275 0.018101158 -0.0233095 0.014224037 0.028733496 -0.029498322 -0.016514251 -0.020460283 -0.006703408 0.017655853 0.014960703 0.027265413 -0.053561438 0.03168753 -0.012694013 -0.011420798 -0.027998695 0.0020071743 0.025153687 -0.02232977 0.020783227 0.033902477 -0.014983644 -0.0030030613 -0.003279657 0.001348721 -0.033290353 -0.028645538 0.030652516 -0.013038583 0.050291456 0.021854779 0.036873873 -0.018099844 0.03306668 0.015420518 -0.028370071 -0.007565791 0.012601978 -0.018477337 0.018100476 0.03640947 0.009246059 -0.061840754 0.0051997947 -0.031508308 0.014596856 -0.0065912507 -0.022474013 -0.028168915 -0.06264692 0.03819717 0.0052136704 0.022994414 -0.03899261 -0.0033913201 -0.025015948 -0.032896962 0.026377289 -0.030691145 -0.03782212 -0.03804651 -0.020330092 -0.021520918 -0.020244604 -0.021354081 -0.03315134 -0.005752356 -0.013498892 0.013720266 0.027702983 -0.049790498 -0.06631809 -0.00431232 -0.0016601884 -0.026973218 -0.02122494 -0.009174352 -0.06988514 0.043241564 -0.004077512 0.0023309656 0.02398319 -0.022641838 -0.028874056 -0.030843494 0.022939457 0.04326275 -0.0024328623 0.026323179 -0.06662573 -0.01171073 0.013825874 0.029322868 0.021592107 0.010970021 0.017291255 0.028918423 0.014511755 0.0032513293 0.0014165211 -0.028531486 -0.01979773 -0.02254423 -0.015974946 -0.027140578 -0.03984674 0.008175861 0.031389836 0.01249864 -0.030899413 0.034267478 0.0062855054 -0.052234452 0.015302155 0.032208085 0.02732722 -0.008496548 -0.032850236 0.05067941 -0.03449186 -0.013364343 -0.004129671 -0.018153762 0.00017436098 -0.028220264 0.018426096 -0.04445036 -0.030945253 0.022745132 0.04828102 0.0032662253 -0.004843123 -0.020454988 -0.02385471 0.0012658183 0.0055320556 -0.060610637 0.02135319 -0.02649232 -0.022376094 -0.029082447 0.014196549 -0.018048873 -0.06714767 0.025127087 0.047834136 -0.031353366 -0.009449521 0.02130287 -0.0022999807 0.04394787 -0.04712193 -0.01956563 0.026671994 0.040128008 0.04779351 -0.011545567 -0.03537949 -0.030962085 -0.014179284 -0.006456484 0.031344123 0.0041494775 -0.013412769 0.037104134 -0.009538721 -0.017048966 0.025843313 -0.011420858 -0.029717516 0.01207367 0.03264654 0.0030058562 -0.019001424 -0.027372574 -0.018825427 -0.027024115 0.014385732 -0.02152967 0.033718914 0.026586229 0.031626638 0.023400256 0.008731105 -0.051728062 0.0038888485 -0.04250119 0.014756279 -0.023729483 -0.0032840965 0.044767935 0.01113157 -0.023960005 0.043379895 0.009677491 -0.004825219 0.032208685 0.0119590135 -0.039335392 0.02949712 0.002781822 0.023558354 -0.020831227 0.0012614764 -0.020379718 -0.057722107 0.026495539 0.009856035 0.032937855 -0.03268158 0.0029075018 -0.042470787 -0.016029116 0.031997442 -0.091979936 0.04093172 -0.013803091 -0.037840746 -0.026912505 -0.04303232 0.024820829 -0.015707402 -0.001656775 0.048025854 0.02330239 0.041051693 -0.0098811295 0.012139203 0.023939392 0.013425991 0.03291031 0.02443152 -0.05700931 -0.02119391 -0.0038233858 -0.042185176 0.044372093 -0.021533847 -0.024062097 -0.02767555 0.0017836163 -0.010352099 -0.02644373 0.012336052 0.026917757 0.027855396 0.04266758 -0.039640743 0.017351853 0.017181048 -0.01889879 0.026192714 0.010038144 0.029832324 0.0367283 -0.029079268 0.043800972 -0.00861218 0.031345837 0.038107757 -0.029358096 0.016683204 -0.02093446 -0.05933842 -0.06562653 -0.016535679 -0.011078318 0.033724982 0.0072660125 -0.011182373 -0.023538668 0.015584368 0.026867997 0.013659689 0.012730531 0.018406074 -0.023035422 -0.03821165 -0.029550834 0.02529362 0.01375496 0.007691274 -0.032900967 -0.031457555 0.046195474 0.02330534 0.04067377 0.0095097115 0.015948972 -0.008280283 -0.03126854 0.04548157 0.027938329 0.027782686 -0.021024479 0.032005716 -0.0039696232 0.03383961 0.007731807 -2.4549174e-05 0.022400025 0.035090182 0.021195041 -0.030708672 -0.028433066 -0.04638161 -0.008399218 0.0030392008 -0.042333674 -0.036648966 0.029286286 0.022270156 0.020025954 0.046589233 0.028696794 0.029485133 -0.022945885 -0.009853534 -0.028963018 0.035124775 0.0010018058 -0.0024081245 0.042816255 -0.060316212 -0.031060819 -0.023507494 -0.027117092 0.04268365 -0.0058873347 0.029991971 0.020070769 -0.0307854 -0.006964827 0.040910184 0.021338927 -0.001219603 0.010423929 -0.030130534 0.026172433 0.04501543 0.0025318072 -0.031202123 -0.03500112 -0.008192976 0.010784964 -0.011600386 -0.022460641 0.035499353 0.03554483 0.034917872 0.03069439 0.02845665 0.033029173 0.03868986 -0.096975595 -0.052363988 -0.02337634 -0.0054184324 0.0068472633 0.025059097 -0.011824364 -0.019148733 0.040573694 -0.036568787 0.0095107425 -0.017810643 0.03535272 0.021542031 0.040329244 -0.04679489 0.005562393 0.023147209 -0.008374775 -0.0833457 0.057973746 -0.03588957 -0.00803292 0.016618479 -0.013879113 0.03601621 0.01760788 -0.0030023106 -0.028722282 0.021630276 0.039320137 -0.019968882 0.027369661 0.047636814 0.0018544438 -0.01902003 0.005796888 -0.03966682 0.0043960647 -0.024563989 -0.042952027 -0.0051849685 -0.019164832 0.040406458 0.016905705 0.024586072 -0.005803513 0.027217515 0.005431632 -0.016549291 0.0067325234 0.038224306 0.008097062 -0.032269355 0.011538569 0.0315401 0.03754153 0.015839852 -0.002109 -0.020890413 0.003894852 -0.08671997 -0.0040339814 -0.042363927 0.027413623 0.00027732545 0.016590195 -0.009591155 -0.038129423 0.0084261745 0.024893517 -0.007010992 0.029435955 0.026173372 0.015066729 -0.011415944 0.03231776 0.009779472 -0.015224122 -0.02341088 -0.028059168 -8.982538e-05 0.010035139 0.011267803 0.000103592705 -0.024900557 0.03725181 -0.02429237 -0.032180563 0.0139041105 -0.028208053 -0.0049457895 -0.01957652 -0.07755746 -0.08872544 -0.043092534 -0.026517374 0.0075570485 0.015108652 0.017348865 0.0048150904 -0.0029838304 -0.0004783016 0.027311426 0.019578798 0.04046299 0.034312155 -0.007076177 -0.0115884 0.04504278 0.043358274 -0.0049425787 0.041139532 0.036495727 -0.05549549 0.04723513 -0.009957632 -0.017228412 0.033699267 -0.04387176 0.038941834 -0.009241566 -0.022933537 -0.00610921 -0.016138352 -0.011105924 0.01631028 -0.012829918 -0.039028797 -0.0060935346 -0.04641213 -0.04301188 -0.012284371 0.018257618 0.006416936 -0.018976025 0.021057114 0.018223505 -0.05645075 0.008988617 0.003222087 -0.0067930915 0.035158537 0.013509875 -0.01176368 0.020398341 -0.057587583 -0.0041870316 -0.015024257 0.012308841
-0.023917418 0.015671713 0.009207454 0.039559085 -0.004465865 -0.098498695 -0.07272815 0.018539045 0.013132488 0.010586312 -0.033167947 -0.009898842 0.02295304 0.018976605 -0.004238399 -0.015569719 -0.00807504 -0.0104232915 0.003693251 0.01040104 -0.03424928 0.033547606 -0.00803849 0.01824175 -0.02261068 -0.009142925 -0.03615284 0.025099622 0.0031597577 -0.07157868 -0.026826836 0.038181487 0.01579042 -0.037683863 -0.015584574 0.021899104 0.018135535 0.048350643 -0.01909567 0.013214093 0.019153208 0.038629953 0.0384737 -0.017164277 -0.013801405 0.0068731797 0.00017655337 0.031256832 -0.030285377 0.040434208 0.016492233 0.027782144 -0.0012571482 -0.035836536 -0.018121317 -0.0052644946 0.038260892 -0.03545049 0.020821564 -0.017723903 0.029751787 -0.04479448 -0.035669602 0.015222261 -0.031760722 0.017080227 0.004418534 0.02247833 -0.011696476 0.0068835616 -0.0333168 -0.03407187 0.007717399 -0.047245506 -0.010747226 -0.05482975 0.023560492 0.022682989 0.020902028 -0.008965039 -0.014493205 -0.026043195 0.027670784 -0.015207341 -0.009289665 -0.07597549 0.04129017 0.01748593 0.021329692 -0.026365524 -0.024349885 0.033627715 -0.01999569 -0.07013994 -0.022073323 0.0014758082 0.00088561804 -0.013757304 0.013336138 0.029797561 -0.016422346 -0.0138338385 -0.021426959 -0.0060539586 0.02516263 0.043086592 -0.028490108 0.036635347 0.0040513505 -0.014733395 0.028476773 -0.029691163 0.046906732 0.0070186984 0.0022157277 0.03204454 -0.0069407113 0.04648425 -0.014062642 -0.0078141065 -0.05269056 0.027152166 0.023989933 0.02651932 -0.0025814327 -0.01946167 0.0051801032 0.02637338 -0.0130641805 -0.018888412 -0.027466131 0.004077725 0.0119588 0.02136932 -0.019036971 0.02115065 -0.04552676 -0.032613806 0.029361062 -0.0021009748 -0.018097257 -0.047079157 -0.015051806 0.009213307 -0.05412836 -0.01122162 -0.03634969 -0.04510729 -0.04358097 -0.033294324 -0.053203937 0.017622197 0.030921144 0.001282657 0.009227671 -0.017837452 0.0007800185 -0.0015775514 -0.0050110715 -0.00908169 -0.008661847 -0.013359095 -0.022351861 0.013309022 -0.020013122 0.011231967 -0.031654686 -0.011008313 0.022163158 0.0037540041 -0.010237815 -0.025570558 0.01589829 -0.002668198 -0.045109104 -0.016042123 0.016010333 -0.012746974 0.029721405 0.012851578 -0.043264534 0.007591275 0.049827874 0.03516025 -0.007462316 0.036095273 0.028597102 -0.028295945 0.04321856 0.004548438 -0.031701043 -0.010494487 -0.03584391 0.052881617 -0.028485764 0.0077137435 -0.0059875245 -0.0007801662 0.03393893 0.008094583 0.03851725 0.026532637 -0.010990562 0.020490857 -0.043819353 -0.02641424 0.010954661 -0.017769033 0.018143665 0.02493453 0.020376954 0.01725815 -0.02079887 0.016846566 0.03577454 -0.037213538 -0.015516032 -0.007880256 -0.008475185 -0.03940214 -0.012754791 -0.030289777 0.010483513 -0.013063172 -0.003942276 -0.018838178 -0.029677268 -0.046728563 -0.0434816 0.029537203 -0.034343306 -0.0054564127 0.043289628 -0.0008766403 0.035486545 -0.0060388027 0.004783368 0.037314 0.025202978 0.0014270316 -0.029134288 0.007227871 -0.019773964 -0.024020636 0.038970593 -0.025178678 -0.060659386 0.019607801 0.042295285 0.042554345 0.004920023 -0.08356246 -0.023733415 0.04926143 0.037871785 0.004136143 -0.017764907 0.03223305 0.002586228 0.008713341 0.059079226 -0.03933652 0.02733646 -0.0005498801 0.0036259883 0.013163514 -0.013315852 0.025272107 -0.04295304 0.0028385494 0.04963541 -0.025602104 -0.0029061632 0.02854363 0.038595784 -0.023474518 0.018759953 -0.0313037 -0.029543655 -0.06550286 0.017678961 0.037701216 -0.058058377 0.021629794 0.031596784 0.01633627 0.014770531 -0.03228873 0.027405957 0.0043587354 -0.05753998 -0.018967316 0.025391087 -0.1196439 0.004998933 0.005816684 0.036107954 -0.043734375 -0.037750106 0.028862935 0.02557632 -0.013877762 -0.031293556 -0.0038351407 -0.022472283 0.027059367 -0.01561508 -0.037552837 0.022196194 0.0008989817 0.03182323 -0.011016983 0.03409961 0.0026631742 -0.039474364 0.03786914 0.03813467 -0.017883172 0.027720371 0.03736972 0.033657264 -0.012764316 -0.011017951 -0.04837143 -0.015149792 -0.01605618 0.028856015 -0.031556144 -0.004522458 0.04655995 0.0044343714 0.0084920265 0.022045713 -0.0037698348 0.04000449 0.010532584 -0.02691517 -0.035929974 -0.014986566 0.02148479 0.004413323 0.018343545 -0.00848402 0.024104219 0.025803985 0.024950877 0.012014608 -0.025463145 -0.016209058 -0.02446578 -0.020436175 -0.0251519 0.011293376 -0.04704057 -0.011931503 0.042019498 0.007468411 0.017926719 0.0063899085 0.04361863 -0.008516975 0.0020884355 0.008080332 -0.064925395 0.0075591826 0.010921989 0.01850973 0.012400312 -0.0050094775 -0.03765924 0.040752802 0.010772144 0.034901336 0.024033656 -0.038515694 0.0207106 -0.019687818 -0.056419767 -0.0076136948 -0.056684587 0.013532144 -0.06313837 -0.016740521 -0.023033129 -0.018469753 -0.02909033 0.005349861 0.028348103 -0.06102741 -0.0062401276 -0.005991579 0.022663804 0.023979338 -0.004669171 -0.036682203 -0.04477482 -0.022722969 -0.043801997 -0.038515378 -0.014591864 -0.03268749 0.022315573 -0.00438143 0.04146156 -0.030576957 -0.0024328087 -0.026062818 -0.051873203 0.011208666 -0.008807998 0.00863876 0.015569596 -0.021236965 0.033209898 -0.02513296 -0.0236999 -0.01735652 0.015209554 -0.0055863596 -0.019661972 -0.032729115 0.03371681 -0.026854934 0.00077826175 0.02314381 -0.00061530276 -0.055228014 0.0076596155 0.028314048 0.045704596 -0.014305038 0.006283127 -0.044387504 -0.035581194 -0.0021256362 0.038845565 0.020877564 -0.0076362123 0.024506168 -0.008434767 -0.051512465 -0.01122389 -0.0033420492 -0.0342148 0.013372843 0.0069076447 -0.037332848 -0.0038288839 0.010572318 0.010418821 0.023547122 0.004316802 0.049112603 -0.0055967844 0.029645747 -0.034459174 -0.016525365 0.011399306 0.061317474 -0.01356806 0.04541806 -0.023674507 0.010613993 3.692643e-05 0.032050736 0.015504275 0.0013832742 0.0027095191 -0.005347216 -0.02217079 0.0020185697 -0.0058164936 -0.031510215 -0.01832353 0.016550183 -0.050122503 0.025723342 0.03864249 0.013504007 -0.034132227 -0.012403274 0.018583018 0.0076256194 -0.0023181029 -0.021398371 0.02490191 0.036594808 -0.036016103 -0.018034128 0.044400092 -0.0028367934 -0.054892413 0.032466054 0.031500507 0.0317017 -0.01863425 -0.022414569 0.001554537 0.03365779 -0.02937076 -0.04314289 -0.020732054 0.026682032 -0.035772987 0.016083162 0.025386918 -0.023119852 0.029896934 0.045035604 0.022945968 0.055279907 0.02200565
-0.051876053 0.055211436 0.040430028 0.02673618 0.019007405 -0.11557839 -0.107706256 -0.0830906 0.0196356 -0.0011111851 -0.009385998 0.032112125 -0.10313065 -0.038034137 -0.061771683 -0.11413179 0.06118841 -0.046840817 -0.051460072 -0.009457199 -0.059687037 -0.024827633 0.008063967 0.009888374 0.055206474 -0.032083407 -0.09496707 -0.0925138 -0.1192406 -0.10338003 -0.032712165 -0.14554931 0.009577941 0.035055608 0.015128165 -0.045121673 -0.05901619 -0.05453281 -0.0033288319 -0.08256637 -0.020926083 -0.060812138 0.035820797 0.027697368 0.1018384 0.04301678 -0.057707857 0.0061431993 -0.15673132 0.031174596 -0.10891175 0.014905702 0.021823939 0.05263654 -0.0030489299 0.046870865 0.018610926 -0.030582188 0.030760627 0.023901252 0.002138317 -0.044907343 0.050125167 0.013561278 -0.06070569 -0.18318997 -0.10256369 0.0024521335 -0.015714053 0.011563218 -0.07543347 0.031070072 0.0064744847 -0.09940575 -0.024411408 -0.0052150395 0.048246417 -0.013554305 -0.027465079 -0.039841324 0.067772344 -0.06255095 0.0011916533 0.009661246 0.06649767 -0.026293634 -0.009934942 0.033475414 0.017229443 0.017726626 -0.04393081 -0.076027244 -0.09383267 0.08867004 0.004394201 0.06708976 0.038031045 -0.06237462 0.04830704 -0.10827576 -0.025788447 -0.005711799 -0.017167507 -0.17605533 -0.051451463 -0.07642579 -0.1554215 -0.029140977 -0.022351133 -0.042766586 0.04645306 -0.08337844 -0.14340657 0.06662498 0.01712027 0.0035152938 -0.14496005 -0.037503935 -0.064112514 -0.061312415 -0.10765086 0.05103661 -0.016757455 -0.14634272 0.020128278 -0.033031426 0.049946588 0.017871894 0.036070887 -0.00042330514 0.05358161 0.10371506 0.064365126 0.119147375 -0.088337734 -0.0154969655 -0.20538408 -0.016121699 0.0053247516 -0.004299924 0.10830974 0.021184862 -0.009032254 0.08132827 -0.13900065 -0.02797137 0.008733772 -0.020553831 0.059578303 0.021848425 -0.04000131 -0.029331833 -0.09246351 -0.16649145 -0.016519105 -0.08514385 -0.09114301 -0.008604609 -0.009244307 -0.06792422 0.08968383 -0.054346856 -0.025450317 -0.13695644 0.015187998 -0.084101945 0.11650904 0.027879272 -0.07466755 -0.03524467 -0.05955337 -0.030103914 -0.05712028 -0.07190593 -0.07302477 0.0046475716 -0.09688077 0.049967036 0.04272717 -0.048318893 -0.012244977 -0.1563409 -0.028875057 -0.05392613 -0.037946925 0.038853876 0.067703046 -0.013941163 -0.009576607 0.09450408 0.032607134 -0.09338189 -0.013506529 -0.0407318 -0.047163595 -0.07188809 -0.13915297 0.022174072 -0.101153724 -0.16091198 0.036721513 0.05705642 0.03365962 -0.029063273 0.030015187 0.029926617 -0.070382476 0.091968745 -0.12430696 0.10295556 -0.012135061 0.004353476 -0.047662012 -0.023120906 -0.008179316 -0.09607052 -0.093051955 0.058831386 -0.018497692 0.042847246 0.04107623 -0.07184255 -0.054329127 -0.034384724 -0.034451615 0.021942353 -0.082951434 -0.16809238 -0.09801039 -0.016084546 0.024255747 -0.10779272 0.048958547 0.02923807 -0.12945148 -0.0717659 -0.07913356 0.004805299 0.035124086 -0.06347825 -0.22217298 -0.038744904 -0.018849581 0.0152412895 -0.032990966 -0.18391412 -0.39655647 0.047682345 0.0149456095 -0.015300523 -0.03774003 -0.043235686 -0.02655328 -0.21415293 0.085681714 -0.006679427 -0.054352347 -0.017328765 -0.101511925 -0.12227115 -0.010420228 -0.0016196923 -0.10789539 -0.09586188 -0.060747888 0.0057608024 0.012104209 0.034264464 0.058417656 0.080098234 -0.06744691 0.0010134607 -0.03756 -0.09053892 0.07678116 0.012279147 0.08570763 -0.044969026 0.015089447 -0.077388056 -0.1559483 -0.0035787509 0.07182585 -0.057640202 -0.012456969 0.049661443 0.00091020315 -0.024741953 -0.0001087284 0.008193935 -0.12484779 0.125248 0.080360584 -0.075841285 -0.0024799989 -0.093765885 -0.0059360005 -0.10591738 0.0916385 0.014437798 -0.17210941 -0.019975623 -0.040064044 -0.07987026 -0.13811524 0.09962134 0.0036829507 -0.096425585 -0.060882926 -0.17554975 -0.11783518 -0.13658933 -0.03504364 0.037152294 -0.008572787 0.016719816 -0.046667226 -0.14974923 0.004515325 -0.21876222 0.07531348 -0.061462436 -0.123258576 -0.20436113 -0.0146633275 0.029813036 -0.016756954 -0.069684856 -0.20326637 -0.062451508 -0.08260605 -0.17996104 -0.1672511 -0.08609653 0.081771255 -0.20707522 -0.055656 -0.13464707 0.0845537 0.005424906 0.038884312 0.059832096 -0.19330518 -0.021727482 0.023620585 -0.10371019 0.064395584 0.0013247934 0.022109766 -0.042149648 -0.024239454 -0.0064931316 -0.09794362 -0.06260215 -0.05737712 -0.07907885 -0.1826256 -0.03230611 -0.024181753 -0.15199329 -0.0074502407 -0.017163439 0.0088999495 -0.08250162 -0.17217089 0.09378073 0.05527321 -0.007318084 -0.012938662 0.10704432 0.1300687 -0.09084719 0.057747524 0.017648844 -0.010881782 -0.056297734 0.06353083 -0.051350884 -0.036452845 0.004927693 -0.06428544 -0.03195093 0.0151353115 0.012960211 0.068302624 0.048265897 -0.025048973 0.009853268 -0.094553284 0.13074902 0.025429482 -0.1594177 0.012201898 -0.08057101 0.0565311 -0.14108281 -0.063725285 -0.010631403 -0.12157792 -0.030012406 0.10127668 -0.007222138 -0.012780037 -0.0704048 0.059257634 -0.041171886 -0.028125633 -0.052347664 0.1250104 -0.119692735 -0.019509057 -0.071892224 -0.15752435 -0.07050174 0.07292597 0.031779267 0.13157979 -0.08081764 -0.0028656842 -0.115651324 -0.060695995 0.091755964 -0.04122503 0.031663954 0.066214524 -0.16744593 0.062239513 -0.044897094 0.0014333838 0.043263532 0.08608421 -0.109340385 -0.12825695 -0.20070547 0.04759651 -0.095623 -0.022264061 -0.11541529 -0.004584233 -0.12216551 -0.032782227 0.032780338 -0.008443369 0.013871439 0.036816772 0.055615015 -0.09636609 0.03754138 -0.015231765 -0.0045921374 0.031369187 -0.0056910045 0.012535825 -0.04619315 -0.015799563 -0.017250441 -0.04446401 -0.09869781 0.09556993 -0.13831367 -0.08214466 0.062231418 0.1036202 0.05203216 0.015449646 0.096424274 0.06849629 -0.018108906 -0.015234337 -0.07371704 -0.023659432 -0.002966669 0.014039085 0.03318838 0.060631976 0.03957505 -0.16131179 -0.032702375 -0.0757498 -0.00074754906 0.007070763 -0.08994984 -0.13843717 -0.039036736 -0.082426086 -0.10069911 -0.17926157 0.047113042 0.12822638 0.018950753 0.040226962 -0.07167235 0.010761776 -0.015373831 0.03881375 -0.054629702 0.014882652 0.040938273 0.03137253 -0.21481752 -0.04015651 -0.005990571 -0.040581096 -0.023405261 -0.006143694 -0.015988732 -0.13067016 0.010146569 -0.012326633 -0.09796587 0.11551986 0.015938856
-0.05106509 -0.03999601 0.015509313 0.03826895 -0.08374553 -0.02904972 0.011353705 -0.009633873 0.01424585 0.030661253 0.057754487 0.11333083 -0.09785116 -0.11033468 -0.04754901 0.0382155 -0.121020176 -0.09718405 0.079220094 0.070632696 -0.009843134 0.07271323 -0.026860394 -0.10393893 -0.09567136 -0.063402094 -0.1018504 -0.002094796 0.07452352 -0.0069834194 0.14070214 -0.0074966787 0.028530544 -0.15284291 -0.05738764 -0.105477884 -0.0043907845 -0.17982501 -0.092442505 -0.010447911 0.11213447 0.020953003 -0.0770027 -0.08914981 0.01925065 0.00079995027 0.002606439 -0.001284748 -0.0059079747 -0.07077125 -0.20959777 -0.030361969 0.03605669 -0.06708356 0.051703677 -0.0103284605 0.047558304 0.047856737 -0.07001197 0.083926484 0.013561387 0.04877222 -0.024409687 -0.0814511 -0.07780986 -0.088022485 -0.028340165 -0.05611927 -0.031110493 -0.08152667 -0.14778621 0.013338977 0.040834934 0.12882325 0.06655518 0.022971096 0.003989586 0.010699927 -0.09112221 0.060935657 0.038959518 -0.065301314 -0.011853824 0.10546233 0.11860668 -0.076770216 0.09193399 0.06326433 -0.11332993 -0.021098288 -0.1582937 0.006974843 -0.055750497 -0.03808222 -0.036709227 0.019979361 -0.05571653 0.09957424 0.031493247 -0.17691357 -0.060977552 0.013410772 -0.04593616 -0.02518973 0.020797068 0.012916171 0.09673563 0.012724594 -0.05999602 -0.11686982 -0.0021993963 -0.0024435131 -0.11589523 -0.19331938 0.09115366 0.08914764 0.043579463 -0.10180271 -0.011853226 -0.19614613 0.0053730416 0.01246222 0.02110704 -0.053974878 -0.06880983 -0.0860572 -0.02968618 0.055380736 0.036923032 0.09770383 -0.018400116 0.04091483 0.04852224 -0.0035968106 0.026025433 0.08391683 -0.024095237 0.03176984 -0.1120424 -0.088435434 -0.07211808 0.09000321 -0.009549973 -0.0104517 -0.0082277395 0.15915069 0.090938374 -0.12460355 -0.039713234 0.047936313 -0.08582259 0.041910082 0.04600996 -0.030509317 -0.046675447 -0.039459795 -0.04104201 -0.1724433 -0.011733693 0.009464097 -0.12351081 -0.010051228 -0.036650393 -0.17356128 -0.014030073 0.030276896 0.06355195 -0.04478498 -0.0671148 -0.15824473 0.036562845 -0.030767273 0.03442279 0.010794526 0.0072791697 -0.04788867 -0.081195705 -0.108880825 -0.11689425 0.046108726 -0.16849834 -0.120486364 -0.006618535 -0.054179925 -0.07179779 -0.021357374 0.10391446 -0.016962849 -0.009663945 -0.12888189 0.028489387 -0.17910527 -0.036504038 -0.15946941 0.02149892 -0.07263241 -0.060455874 0.09487561 0.00546559 -0.015873859 0.015748369 -0.0851493 -0.014943456 -0.13328196 -0.057303816 0.023588415 0.010103871 0.049991846 -0.02847108 0.06337748 0.04537389 0.0728402 -0.0025694459 0.020675078 -8.153383e-05 -0.033169463 0.018872654 0.042319145 -0.052322593 0.049517173 0.03900277 0.019010242 -0.050764933 -0.0817535 -0.039834548 0.010436473 -0.033438962 -0.07487334 0.069976985 -0.035012554 0.067651324 0.02725102 0.05860926 -0.00067037356 -0.07898423 0.0034710213 -0.05212031 -0.06701862 0.0007139526 0.01988426 0.05584005 0.054467134 0.07358493 -0.03175566 0.031697042 -0.072476506 -0.08491907 0.021072727 -0.12012366 -0.04957605 -0.050773595 -0.092222326 0.07655801 -0.031600203 -0.0112152295 0.075506315 -0.015881289 -0.10234925 -0.13129558 -0.032103952 -0.10593641 0.039503686 -0.16827765 0.03942422 -0.14024127 -0.034902405 -0.02370378 -0.058135923 -0.0054066796 0.03281569 -0.14733203 0.079515755 -0.0020341568 -0.0644278 0.09584379 -0.057740785 -0.020132944 0.015959391 -0.050121695 -0.14468682 0.07751437 -0.04494838 -0.06639171 0.02064878 0.012439228 0.13758549 0.064623296 -0.025878724 -0.026789883 0.043969654 -0.006947887 0.03686125 0.00802352 -0.029852305 -0.074150264 0.09004449 0.056827176 -0.07396151 0.02361225 0.012221723 -0.025429282 -0.062167253 0.002406299 0.045719206 -0.013793109 0.008187588 -0.07680312 0.042590182 0.036126364 -0.104810484 0.09162044 -0.090924524 -0.04497032 -0.020846538 -0.072950915 0.036370676 -0.12953939 -0.062271714 0.017479278 -0.007725352 0.018714532 -0.1502245 -0.07231996 -0.019923527 -0.06207252 -0.03445854 -0.08759987 -0.09785379 0.0735484 0.0021669993 0.014470053 0.0030269718 -0.028910182 0.009927376 0.006916795 -0.06465385 0.03945172 0.08070814 0.007115447 0.045726232 0.102908336 -0.048901644 -0.05166611 -0.0051456834 0.06687454 0.010472477 0.015610159 -0.022565298 -0.041302163 0.046960883 -0.087308526 -0.015707795 0.12904611 -0.09122979 -0.09309263 0.010862051 -0.058128007 -0.28716603 0.051207025 -0.124205865 -0.075823985 0.00910361 0.017600492 0.105766766 -0.03801661 -0.0035386174 0.03956323 0.03435187 0.07038539 -0.0007359905 -0.011785031 0.026873758 -0.008499248 -0.05529123 -0.08944215 -0.10901814 -0.07262248 -0.09359905 -0.30096632 0.014986633 -0.10620011 0.042650037 -0.050706465 -0.13518625 0.054948736 -0.04959093 -0.021377388 -0.006117233 -0.022833426 0.11499874 -0.10682117 -0.085886665 0.050488167 0.015336166 -0.19822294 -0.32867578 -0.0713677 0.020312876 0.003367758 -0.10035733 0.031767108 0.016231574 -0.053032115 -0.05185393 0.109611414 0.090075165 -0.015272166 -0.011923597 0.07518692 0.06606653 -0.06207971 -0.06282063 0.03622864 -0.13804846 0.15137307 0.015143114 0.06974661 -0.00039144076 0.02374986 -0.18673989 -0.014044985 0.045428257 0.033111677 0.112173066 -0.01143984 0.051784337 -0.0037590356 0.052927658 -0.09735079 0.008111177 -0.019391488 0.029087048 -0.05098899 -0.15664487 0.041440558 0.02284732 -0.0065564564 -0.18984391 0.054950487 -0.120585665 -0.011860917 0.06744008 -0.18470754 -0.007209034 0.01001956 0.057237845 -0.068413034 0.03760663 -0.050389405 0.03567962 0.13314344 -0.19840968 0.087004654 0.096696034 -0.049365375 -0.00022026284 0.08304348 0.022892853 0.009572847 -0.037403375 -0.006892093 0.030989403 0.010484479 0.016511142 -0.047286615 -0.015717598 0.00051471364 -0.07171909 -0.049124356 -0.07282005 0.043323357 -0.019598428 0.011462808 -0.07206334 -0.15983263 0.11030678 0.12585165 -0.0052690087 -0.0684288 -0.05731148 0.12508416 -0.028318064 -0.10635757 0.0010740513 -0.13417189 -0.059846297 0.004831572 0.01715995 -0.027737256 -0.006429085 -0.12599657 0.11297189 0.024851445 0.026695013 0.04448894 -0.07806 -0.0070613916 -0.02999089 0.0012142373 -0.13474381 0.086873 0.03442491 0.06365724 0.08314588 -0.010299763 -0.016771395 -0.081417456 -0.00093014055 0.06296807 0.03699328 0.04106155 -0.017564468
0.0326904 0.023618488 -0.021994773 -0.0055942927 0.030242393 -0.04663681 0.0018417295 0.031619735 -0.013819846 0.04752337 -0.051351175 -0.024915569 -0.015812404 -0.01576966 0.021561641 -0.002129959 -0.0040928 -0.022980535 -0.038961925 0.02421808 5.980925e-05 0.021964466 0.0027246466 0.017525172 -0.041515347 0.02251539 0.0053563365 -0.027061885 -0.016083745 -0.063978374 -0.03378137 0.022520654 -0.023146799 6.152696e-05 0.03391248 0.0037807978 -0.0024314143 0.01518043 0.02585572 0.0021846332 -0.0144182965 0.00095565425 -0.02928908 -0.04096605 0.027932556 0.014441468 0.027057318 0.025849212 -0.023939632 0.012889048 0.007971592 0.039816085 -0.009311902 -0.00501228 0.009411173 0.036621135 0.03214416 0.014991432 0.015597062 -0.0036639024 -0.01811461 -0.028924128 -0.0071581556 -0.03238835 -0.042313352 0.025363801 -0.03441799 -0.014618106 0.029494366 0.009896655 -0.0030559986 -0.008529269 -0.0050380495 -0.02706397 -0.020054659 -0.05473098 -0.025660666 -0.0080863815 -0.04710862 -0.017424423 0.026438333 0.032680664 -0.018567981 -0.011624707 0.045665387 -0.048785046 0.005046558 -0.025683967 -0.0034141887 0.008570566 -0.018861024 0.003808369 0.002381014 -0.023320403 2.3196935e-06 -0.004315775 0.010919343 -0.028784601 -0.015509091 -0.0059601595 -0.060352296 0.023539655 -0.007866768 -0.048693404 0.028056843 -0.0071715657 0.00054550875 0.0069154296 0.022247288 0.029764302 -0.018155733 -0.011772907 -0.022778101 0.013302855 0.012326046 -0.01263212 0.0029138357 0.0027104034 0.011062029 -0.003925917 -0.058708254 0.041524258 -3.2847478e-05 -0.012733099 0.023144372 0.016961236 0.031628612 0.0075273123 0.0016280673 0.014321732 0.005237822 0.021459369 -0.026574166 0.03661796 -0.0018898012 -0.007948249 -0.014229938 0.026412327 0.019947458 -0.026538355 0.017309615 0.006563397 0.03089726 0.013766503 -0.025051089 -0.019617256 0.007082051 0.012566572 -0.04351075 0.028717259 0.0049803485 0.022516137 0.043684233 -0.009365663 -0.028085442 -0.01639193 0.019811511 0.012820018 -0.038169928 -0.035323795 0.029312009 0.025160598 -0.0020571505 -0.013556918 -0.06549563 -0.03288862 0.04851297 -0.029231189 0.004975973 -0.03590911 0.0018307014 -0.0031634576 -0.028720656 0.04034006 0.033507477 0.041981768 0.0089557795 -0.0038765834 -0.014516868 -0.017803412 -0.029983383 0.018244281 -0.014331362 0.038636178 -0.044505414 -0.016429769 0.045057822 -0.008704227 -0.034237646 0.01903752 0.03534577 0.00720079 0.004683328 -0.030725962 0.027735176 -0.06189301 -0.0016654559 0.044946827 -0.02094499 -0.031972256 -0.0075129177 0.017154478 -0.02604649 -0.015117754 0.022183357 0.013039244 -0.013429317 -0.010859465 -0.050881956 -0.0017760724 0.008934062 -0.009458247 0.016034864 -0.07744917 0.008511292 -0.009315647 -0.030274792 -0.047502715 0.030253995 0.0023747575 0.01989227 -0.020472167 -0.042557113 -0.015199069 0.002491634 0.04968672 -0.011531793 -0.009063459 -0.010251485 0.01499964 0.020184318 -0.03256897 -0.03303379 0.0077064126 -0.019778103 0.028936762 0.031789754 0.039592247 0.036096342 0.0236247 0.008433197 0.020250833 0.017471856 0.022452038 0.02902262 -0.018607805 -0.036426917 -0.0061868546 0.028645411 -0.0007028406 0.013503083 -0.19316103 -0.0068107047 -0.03338781 0.027419912 0.022255521 -0.031435147 -0.017801752 -0.012338406 -0.0020155262 0.018245356 -0.02664553 0.007805308 -0.002242342 0.037865143 -0.040644925 -0.03758765 0.004604305 -0.0054035536 0.006248789 0.000636664 -0.039789826 0.032929342 0.040894326 -0.011634779 -0.020768158 0.005971962 0.0048922813 0.002442092 -0.0862514 -0.033956885 0.0022631793 -0.016177805 -0.020620232 -0.01094274 -0.0010182476 -0.07789399 -0.027653227 -0.0032145279 -0.015947428 -0.040639106 0.011061027 0.020407703 -0.1352693 0.03872174 -0.03626295 0.041367933 -0.0008268679 0.004326422 0.0065921247 -0.04417677 0.0005978123 0.0104393745 -0.05663322 0.04695493 -0.0076924264 0.00064377073 -0.03301054 -0.03410203 0.032418836 0.040127285 -0.033455968 -0.0038846033 -0.009839828 -0.061204307 -0.008750484 -0.022986548 0.01837787 -0.015033751 -0.019316835 0.049735073 -0.015327166 -0.03187041 0.010307913 -0.012515193 0.015049381 0.007640778 0.019918196 0.018294498 0.025203584 -0.025337452 0.017070157 -0.028864568 0.03300855 0.031413633 -0.03354473 0.011882854 -0.0186373 0.0014938397 -0.037825674 0.037382126 0.00050757243 -0.04515926 0.040546093 0.011035749 0.015037503 -0.0009278195 -0.038000956 0.009473277 -0.0054038917 -0.037068244 0.051140413 -0.00034657132 0.014586811 -0.019188937 -0.034075685 0.03929019 0.015965164 -0.0006833029 -0.010996719 -0.033785325 -0.030984938 -0.023683058 -0.054061275 -0.022553436 0.007041813 -0.034205023 0.027866546 0.021467065 -0.046064556 0.052239392 -0.022458127 -0.0044277953 0.017820561 -0.017438596 0.0027054492 0.022133986 -0.005128297 0.030985879 -0.02970689 0.01651494 0.000684993 0.018615494 0.047816332 0.0029625532 0.009646986 -0.033597745 -0.027859598 0.0018041504 0.033047423 0.03809344 0.015930112 0.0051964517 0.029451529 0.022728717 0.0029716662 0.024411233 -0.023925478 -0.0068545206 -0.054509558 0.011443787 -0.004127773 -0.07952001 0.011443225 -0.01696386 0.036843773 -0.018117277 -0.037288845 0.025701493 0.027431905 -0.016318396 -0.02487152 0.007286868 -0.009934395 0.007975049 -0.029863656 -0.024473064 0.030135375 0.050492566 0.02378502 -0.022153636 0.022541722 0.024445925 0.0063642026 -0.002917346 -0.015225545 -0.004685976 0.018786976 0.046743352 0.012602165 -0.053118117 -0.0137577485 -0.013222632 0.040710684 0.033111583 -0.027038304 -0.010175701 -0.028336085 -0.02436755 -0.014436101 -0.02530811 0.029016078 0.02950494 -0.002349374 0.022764664 -0.019354612 8.969409e-05 0.0019332571 -0.008466549 0.0022537806 -0.005429043 -0.014149143 0.01815074 0.032358427 0.030794537 0.0042343265 0.044971094 -0.023376146 -0.017230203 0.02958008 -0.006285199 0.017391706 0.004989579 -0.05185107 0.008552212 0.02302218 -0.0015780571 0.041259695 -0.0096314205 -0.010696298 -0.038559888 -0.015246994 -0.031354424 0.016331717 -0.010673276 0.0412692 0.021359911 -0.009634554 -0.008883611 0.006588857 -0.030415842 -0.012963154 -0.019586405 0.014186431 0.02432654 -0.039911877 0.038556002 0.0051240027 0.007581648 0.024031982 0.011171703 0.012193059 -0.023568619 -0.05906228 -0.010091123 0.042034063 -0.025538176 0.018507628 0.0037831808 -0.043383483 0.03271183 -0.005655666 -0.04160281 -0.0008027668 -0.00019933411 0.039205868 0.0032644274 -5.751347e-05 -0.023154158 0.013895198 -0.020692559 0.021202773
-0.10772937 0.03585887 -0.05504814 -0.02049688 0.018328026 0.19719963 0.17591308 0.04656689 0.004753851 0.061247386 0.024168627 0.038338084 -0.039164193 -0.08759193 -0.06571797 0.007645277 0.0071752397 0.0026767447 0.109926656 0.016754087 -0.019173367 -0.00617198 0.026058065 -0.104843654 -0.033269104 -0.008355983 0.0082438905 -0.014922926 -0.006762108 0.15219186 0.059401527 -0.03530962 0.06930067 -0.0039363075 -0.08127646 -0.062380902 -0.0494366 -0.019562261 -0.05581069 0.05117115 -0.0032986123 -0.09352749 0.061288998 -0.044787716 0.013443543 0.08845235 -0.0033591595 -0.015759997 -0.07930788 0.030979712 -0.19692805 0.045970533 0.0064111953 -0.01902183 0.0343553 -0.031216413 -0.010373693 -0.00055405835 0.034698974 0.023477282 0.042642433 -0.054124653 0.061400022 -0.058952518 -0.038767558 -0.05016695 0.008933689 -0.1903789 0.010418734 0.03762584 0.024494585 0.12528515 0.01396012 0.019291239 0.0368187 0.016946519 -0.007786975 -0.010294564 -0.115917094 -0.07584507 0.017640732 0.031091569 -0.017096413 0.041468024 -0.06520402 -0.040667206 0.025607042 0.013509689 -0.116019025 0.029232265 -0.059846465 -0.0827629 -0.01882614 -0.017462105 -0.03616524 -0.031474862 -0.11097574 -0.112876974 0.022963975 0.12492139 -0.0413009 -0.009225507 0.041987985 -0.023340546 -0.0060084574 -0.19393711 0.03819891 0.03593529 -0.087887235 -0.0070912167 -0.022202771 0.04002141 -0.020884028 -0.004369149 0.020123769 0.019492624 0.018417751 -0.10952842 0.08066316 -0.043687575 0.05462079 -0.11506417 -0.0071770013 0.07575515 0.03476386 -0.06257515 -0.09976699 -0.12734468 0.07669643 0.013543248 0.08505824 0.02653358 -0.025449697 0.059954025 0.019453712 -0.0426174 -0.03383883 0.012909907 0.010401961 0.07535838 0.042103674 0.12745042 -0.040572625 0.0075281067 -0.04608789 0.053249057 0.062962055 -0.18820983 0.033575363 -0.010725728 0.0489793 -0.20198213 -0.031338934 -0.09866062 0.008027027 -0.1227604 -0.052069843 -0.032080166 0.015974624 -0.06322578 0.033945598 -0.10175267 0.04296378 -0.1630229 -0.049572006 0.053810984 -0.04469126 -0.094335295 -0.024594048 -0.03096732 0.05883223 0.0012045744 0.020860633 0.06585971 -0.031187119 0.02330202 0.010146233 -0.021715714 -0.062464464 0.009801601 -0.0022339434 -0.07903415 -0.0674558 -0.14879803 -0.08877621 -0.033456746 0.09242685 -0.07797523 0.046500906 0.05706879 -0.032207824 0.0099027185 0.06152993 0.09183913 0.0855892 0.043234084 -0.04154168 -0.051646262 0.07263464 -0.03875078 -0.009164069 -0.011298212 0.03723169 -0.014449685 -0.105553195 -0.01644482 0.062112767 0.07955589 0.019233005 0.099639 -0.035818752 0.045962494 0.0039120456 0.023921764 -0.00043118975 -0.012781726 -0.20343979 -0.03414872 0.014105383 0.002423698 0.042475473 -0.0067206775 -0.03497305 0.0439764 -0.0058499975 -0.06619665 -0.07093411 -0.003652172 -0.03659709 -0.06461366 -0.009270077 0.09806106 0.056749165 -0.008567005 0.0483419 -0.0073961765 -0.04495498 0.051656827 -0.005349484 -0.024395024 -0.0016788548 0.03891646 0.04405643 -0.0177619 0.029518668 -0.02954027 0.045655455 0.02250825 -0.11329969 -0.086600006 -0.009404057 0.20938915 0.05953738 -0.06435245 0.020198565 -0.025394287 -0.12912153 -0.039863527 -0.06256551 0.01506409 -0.112996005 0.027335454 -0.064882174 0.08306123 -0.030132754 -0.017181266 0.11435119 -0.060271144 -0.03248587 0.061924104 0.04075948 -0.004061537 0.042374868 -0.08473691 0.11414573 -0.006335135 -0.027644707 0.069796644 0.031404566 -0.00675275 0.16114555 -0.051367573 0.012826478 0.075265154 -0.020700779 0.050634563 0.061399512 0.0068332953 0.0029086028 0.03635281 0.03993524 0.017778711 0.111807175 0.15063517 -0.008317427 0.014474365 -0.012766198 -0.028326819 0.020618483 0.03926503 -0.015674753 -0.10553384 -0.013487379 -0.0018214325 -0.019288562 -0.0010403987 -0.06207444 -0.02186161 0.04862771 -0.050750643 0.08717863 -0.09236521 -0.10422455 0.06583586 0.005460279 0.018533116 -0.079840876 0.003325978 -0.05135999 0.032742515 -0.024582066 -0.14416726 -0.012945085 -0.11313906 -0.013284194 0.091424346 -0.052365184 -0.09922762 -0.056078225 -0.0061096596 -0.06667504 -0.0021392086 -0.17197523 -0.0018517147 0.011909253 0.06506086 -0.13649139 0.08126831 0.11263769 -0.017036583 0.09193141 -0.05554658 -0.019954234 0.07127693 0.067006074 -0.033098616 -0.0050632637 -0.007973575 0.049405772 -0.0048951698 -0.042202972 -0.028054958 0.10331231 -0.07919068 -0.06867445 -0.16208656 -0.011786589 -0.08795239 -0.015987726 -0.06385825 0.016913582 0.019708553 -0.055385925 -0.052875016 0.057537977 0.08970309 0.06987574 0.045471363 -0.027553836 0.06316817 0.053042307 -0.009016333 -0.012123057 -0.015664788 -0.022672696 -0.06618271 -0.012204822 -0.1063275 -0.18064502 0.015143207 0.002682956 -0.021252085 0.007683761 -0.07844139 -0.002238644 0.049833 0.036340166 0.032547034 -0.009503149 0.12179595 -0.079542175 -0.0109712295 0.035899747 -0.06285832 0.04296341 -0.024888583 -0.084053025 -0.093843766 0.026239118 -0.021203961 0.04149111 -0.0030890156 0.026038459 0.015688978 0.064969204 0.058298882 0.01920464 0.018655967 0.05910371 -0.06637411 -0.08034966 0.014775094 0.03718344 -0.02111516 0.011528767 0.028373618 0.080389254 0.04398609 0.084916405 0.058115758 -0.011175682 0.08290565 0.0077435696 -0.008132881 0.02710641 0.0031985284 0.1761418 -0.010466619 -0.06379639 -0.1398891 -0.09440044 -0.14379418 -0.043473687 -0.012490421 -0.023597123 0.0023636343 0.03531939 -0.014742779 0.02803226 -0.16140173 -0.024397569 0.068718314 -0.06807936 0.018970044 -0.10665111 0.059544895 0.041527804 -0.042146686 -0.048864342 0.04372319 0.050996147 -0.10283536 0.16358115 0.115460984 0.01125949 -0.007569159 -0.04107847 0.048875425 0.019486781 0.03155994 -0.028681803 -0.04448386 0.084818006 0.055092804 -0.08984612 -0.008547877 0.09459062 -0.011156303 0.031228583 0.014304655 -0.025707634 0.090889595 -0.07995972 -0.23625161 -0.09895919 0.0066888556 -0.025868386 -0.0016132545 -0.032342266 0.042344306 0.027753556 -0.13361226 0.0073716827 -0.030617082 -0.017719798 0.019882457 0.05863898 0.0272684 0.06079003 0.017064853 -0.0038705596 -0.03235248 -0.020468298 -0.081475526 -0.091598615 0.008144271 0.042430747 -0.055192586 -0.04588922 0.017926764 -0.023720404 -0.039164845 0.033138014 0.059013557 -0.059728462 -0.01527302 -0.048058312 0.018621415 0.0028931575 -0.06366503 0.040343814 0.044858858
0.006781597 -0.041835625 -0.012735101 -0.0023034092 -0.03564842 -0.049438912 0.0039415373 0.003650563 0.0488096 0.0008642084 0.02953403 0.036989305 -0.026890468 -0.012459753 0.0045094355 -0.00114705 -0.039993837 -0.05024586 0.005466183 0.017402478 0.013728131 0.05999002 0.0391283 0.004347762 -0.012928026 0.03323203 -0.0025438864 0.016450569 -0.037854534 0.02330063 -0.043113705 0.017670728 -0.011287666 0.014860143 -0.041150924 -0.021044487 -0.013333861 0.03280651 -0.032359663 0.021315819 0.0036113106 -0.039038368 -0.031192988 0.0072774095 -0.035003357 -0.026603082 -0.004500303 -0.023943579 0.011976161 -0.028401794 0.023364175 -0.050785415 0.040073156 0.031228727 0.044255737 0.038998183 0.022613179 0.024271261 -0.06454785 0.01568232 -0.037371214 0.04574555 -0.017337322 -0.027691435 -0.008182022 0.050922997 -0.009604699 0.001757322 0.05145172 0.00095558324 -0.017104745 0.027320484 -0.04194797 0.035675768 0.037441984 0.01294451 0.0004106293 0.026234196 -0.018831275 0.011088906 0.027413996 0.0049501676 0.023832515 -0.02901294 0.014518881 -0.05661383 -0.0048885024 0.021408956 0.03146686 -0.003222492 0.035481904 0.029211285 -0.0035552033 -0.00368271 0.04124849 -0.0142236035 0.017524045 0.03992353 0.017514575 0.02511088 0.00408846 0.0023043912 -0.0010220297 -0.033332944 0.023209553 0.0049100854 0.008581938 0.013574969 -0.03353256 -0.019832527 0.014865218 0.005988939 -0.007297246 -0.009397915 0.038935747 -0.037829388 -0.02000394 0.052481923 -0.018833097 0.04148682 0.00891875 -0.01774872 0.039352503 -0.015047849 0.0505267 -0.015444227 -0.032557245 -0.01163792 0.025233887 -0.012403498 -0.02054778 -0.0016122605 0.0057714633 -0.034812182 -0.00707973 0.03318458 -0.012979631 0.039371215 0.024899073 0.043390863 -0.005705355 0.0033132911 -0.003620001 0.04758933 0.018995741 0.037586797 0.033411246 -0.011624669 0.03664727 0.028856218 -0.0010846853 -0.031267155 -0.018002579 -0.014062033 0.04726876 0.0156124085 -0.0030397277 0.040356338 -0.008169384 -0.009550125 -0.05236227 -0.0070815487 0.053918783 -0.011507518 -0.0011506248 0.0430451 0.022807986 -0.017980907 -0.012070566 0.03655305 -0.0147375595 -0.010002207 -0.052337077 0.013159569 0.0003499659 0.010716502 0.0009498586 -0.013914397 0.012678311 0.026803223 0.009742437 -0.031264625 0.0033131796 0.027540019 -0.005311854 0.021683948 0.00067355385 -0.00033249264 0.025500609 -0.02515063 0.0058680456 0.0061964737 0.044049714 0.010721108 0.032423723 -0.022622319 0.013379063 0.039236654 -0.044047352 0.006131361 0.04906006 -0.00674322 0.020667372 -0.070099175 0.022399506 0.024345549 -0.056874197 -0.002687657 -0.022307321 0.012441173 0.025731796 0.0074740364 0.016340196 -0.002995819 0.0058023045 -0.00810921 0.020628886 -0.019945353 0.011201706 -0.025632752 -0.03075091 -0.024624268 -0.02553803 -0.008990747 -0.07594333 -0.07687685 0.0037227047 0.02088254 0.048152108 -0.01736265 0.057165783 0.031806484 -0.024332874 -0.012780488 -0.04730608 0.036323395 0.0009020103 0.0188852 -0.04819382 0.023939334 -0.023277747 -0.028219547 -0.042120524 -0.019998256 -0.012403381 0.021231014 -0.025585396 0.0055114464 -0.004273146 0.049595803 0.03724966 -0.023046182 -0.06709779 -0.017388763 0.008976605 -0.09087797 -0.043034166 -0.0011704721 0.044997834 0.018823955 -0.025224078 -0.0126346005 0.011257665 -0.059354354 -0.024897056 -0.013906572 -0.0016656595 -0.009158924 0.017484238 0.0023008278 -0.033206698 -0.004118927 -0.0019273313 0.0282707 0.010421083 -0.03672612 -0.017362176 -0.04124211 -0.012085963 -0.046630245 0.035010353 -0.006580058 -0.05053873 0.018744038 0.0035226725 0.033355813 -0.008716971 -0.013809488 0.029655905 -0.018672293 0.024361994 -0.026442617 -0.010966834 -0.040106285 -0.05945951 0.010135066 0.02808822 -0.016705647 -0.062497213 0.04018851 0.013336973 0.015174459 0.011393171 -0.01476171 -0.062995255 -0.013418588 0.00209933 -0.019094553 -0.061377652 -0.020815963 0.006683242 -0.01886583 -0.022650458 -0.0024960234 -0.0015226336 0.022316974 0.015827518 -0.034690026 0.024189888 -0.026294282 0.02266156 -0.04045964 -0.020485334 0.00070614135 0.02355045 -0.043889277 0.012126565 0.014557773 0.0049563665 0.0045462097 -0.014755313 -0.011893123 0.021075036 0.0021921825 0.022980552 -0.039898273 0.050209038 0.017815182 -0.019667188 0.045137327 0.027980758 -0.0058773356 -0.034684 -0.002688105 -0.03811917 -0.005622886 -0.01105077 -0.009195327 0.0245812 -0.015394263 0.032539546 0.021094529 -0.0620803 -0.06190958 -0.0034108 -0.009284113 -0.020971688 0.03503735 -0.008312548 -0.008965859 0.04478424 0.007443701 0.024319857 -0.04211896 -0.025094062 0.03106173 -0.023637196 0.028915016 -0.009115031 -0.017810423 -0.0076987604 -0.023136726 0.016141668 -0.0020010604 0.019310934 -0.009157093 -0.0016966634 -0.044089586 -0.042684875 0.021746676 -0.058014374 -0.0046780705 0.059688568 -0.03435511 0.0009526761 0.056788154 0.023912923 -0.010999707 -0.023370273 0.0077339383 -0.04267161 -0.005336504 0.03610541 0.034073867 -0.011700652 0.017938647 0.03845148 0.028395442 0.028016087 0.009492858 -0.040741052 -0.0011426947 0.015220515 0.052643314 0.030668715 0.024914272 -0.004575736 0.026695145 -0.017134812 -0.024152229 0.019948546 -0.006527255 0.035019383 -0.036343947 -0.0006590934 -0.0174931 0.021594895 0.02116676 0.035603393 0.023064766 -0.027764507 0.03198718 0.021450302 0.043496963 -0.020430095 0.019762412 0.03695403 0.017603302 -0.02326637 -0.006361851 -0.040687926 -0.0060627656 -0.042441927 -0.0066521135 -0.008832036 0.010908876 -0.022079071 -0.04666218 -0.0028462445 -0.03329432 -0.0137559045 0.0009611549 0.032164417 -0.011685121 0.017514767 0.0060888184 0.037159637 0.06447231 0.03613001 -5.7120997e-05 0.0221287 -0.026257724 0.029805431 -0.038770635 0.00782644 -0.009519163 -0.027973307 -0.008564672 0.02484957 0.05234497 -0.026576987 -0.032257278 0.042784978 -0.034522876 -0.012052446 0.0344966 -0.022998873 0.0059039965 0.041796155 -0.0555308 0.032251157 0.0038057377 -0.018889468 -0.05130673 -0.01565849 -0.0010653192 -0.005511945 0.033917833 0.03831494 -0.013985338 0.018227125 -0.0006955709 0.00038918728 -0.047945235 0.044863455 0.002106006 -0.039992604 -0.06626828 0.018833458 0.04021979 0.005572931 0.028065922 0.0026953602 0.007764713 0.040382065 0.040216424 -0.05527078 -0.05044542 -0.033868555 -0.031645313 0.014461372 0.009056332 -0.03535883 0.0062350105 0.03225068 0.005142277 -0.06702984 0.010876487 0.04530574 -0.024119806 0.0069672693 -0.019522192
0.024307478 0.04207796 -0.0011451574 0.023669641 -0.024204794 -0.09450965 -0.007924829 0.007422648 0.022237306 0.045816105 0.018191133 -0.018147092 0.002360518 -0.02305395 -0.015589523 0.0035348977 -0.0051067183 0.022728516 -0.0016489176 0.0111338645 0.04199172 0.006112909 0.013572161 -0.004647075 0.022746457 0.030955287 -0.028112702 -0.017645001 0.018507242 -0.10761802 -0.0007683434 -0.01989781 0.03667683 -0.05183056 -0.04113448 -0.024927918 0.002811795 -0.039381348 -0.022143018 -0.0048096133 -0.026250001 0.048820883 0.0067849075 0.017335108 -0.015331953 -0.0085704075 -0.024669738 -0.028518248 -0.026862733 0.046711832 0.0025657152 0.016843492 -0.031678688 -0.011153415 0.04369608 -0.008300127 -0.03947457 -0.007311838 -0.017148923 -0.018248212 0.026393654 -0.032112326 0.025218476 -0.012051146 -0.027175725 0.037760597 0.0316017 -0.035755772 0.005174818 -0.032912783 -0.023664681 0.026706455 -0.0145898 0.027081944 -0.04683549 -0.030985676 -0.06743806 -0.028289594 -0.021606896 0.055817433 0.013841625 -0.04764717 -0.03970115 0.038620126 0.010033442 -0.06429777 -0.007871624 0.035780814 0.033662792 0.021746852 0.022783177 0.0046467157 0.03851804 -0.04118503 0.04023114 0.039693274 0.04214595 0.0017888835 0.027966687 -0.016985575 0.016703267 -0.021129474 0.023676984 -0.0004730173 -0.031807378 -0.011337545 -0.021894135 0.013718179 -0.008713057 -0.024969203 0.02717241 -0.013748228 0.0036205465 -0.0068266587 0.006166726 -0.016943365 0.013012958 -0.005223032 -0.03313915 0.02971716 0.019146534 0.0291589 0.040709246 -0.030981563 -0.019762063 0.021232389 -6.558291e-05 -0.026514485 0.031018024 0.018670062 -0.01587618 -0.01725321 -0.031437155 0.020057365 0.0188858 0.02717679 -0.0002202367 -0.0022793976 -0.00734598 0.009273649 0.020699685 -0.011743723 0.0027030215 0.03670196 -0.0507308 0.04031072 0.012820053 -0.0021796916 0.0050976546 -0.041335445 -0.055974204 -0.006463651 -0.030532315 -0.012650432 0.003131129 0.031590562 -0.0066385074 0.02140571 -0.007827995 0.02212409 0.030652162 0.037372317 0.00677402 -0.029902548 -0.026521444 0.033051386 -0.009559519 -0.026728394 0.040658213 -0.0023596222 0.028730825 0.029654026 -0.006503905 0.023264762 -0.04691439 0.0069658114 0.0157096 -0.031813413 0.0057290816 -0.0076487553 -0.030364657 -0.016088735 0.009333939 0.023956548 -0.028369699 -0.016927814 0.028865645 0.046332184 -0.029386876 0.05018438 -0.03378132 0.039011486 0.014892669 0.040150113 -0.010965768 0.010131855 0.018682169 0.046428762 0.04705571 -0.013720357 -0.023882428 0.032800213 0.049215443 -0.05195685 0.0039500017 0.0065473956 -0.029320272 -0.024361484 -0.01700571 0.035719 0.016045563 -0.0028142987 0.03236718 -0.033117782 -0.033223525 0.023891479 0.0022326421 -0.019870324 0.019327221 -0.021701718 0.033125333 0.0022118802 -0.006370654 0.037579067 0.005168725 0.040674828 0.016186457 -0.026009355 0.010469417 0.039798345 0.037805155 -0.022900805 0.028679565 0.033224914 -0.038903415 0.00011495856 -0.023021081 -0.039146658 -0.023297558 -0.019110568 -0.00791137 -0.014250624 0.040629916 0.0054302234 -0.03253367 0.0018719165 -0.14144936 -0.013572639 0.050931815 0.023221217 -0.012127615 -0.20603651 0.0031768426 0.040804755 0.0034640033 0.034558065 0.023865275 -0.02627334 -0.022604428 -0.0048794583 0.0002185861 -0.0035115045 -0.0056227506 -0.045400072 0.039297905 0.037302624 0.020344853 -0.042027906 -0.035455577 0.007603657 -0.02621939 -0.0162538 -0.008041401 -0.04034635 0.0030755736 -0.014195298 0.011489744 0.0020530105 0.037140902 -0.05342149 -0.047603685 0.00037456097 0.013482082 -0.033483986 -0.021515766 -0.025808109 -0.029320844 -0.00917825 -0.004400832 0.013476269 -0.007376118 -0.009239881 -0.018166335 -0.15893854 -0.024675041 0.026539907 0.004561654 -0.016267743 0.019329423 0.03042131 0.01653753 -0.018840866 -0.013069531 -0.032427497 0.009670904 0.042161018 0.034884915 -0.011229069 0.009092848 -0.01649741 0.0141899055 0.0095142275 0.025688462 0.04787871 0.011100549 0.04036664 -0.031448018 -0.0049194195 -0.000149685 0.009203756 0.01418862 -0.025726575 -0.04396115 -0.05583833 -0.028933717 0.020355888 0.041333042 -0.047330327 -0.013202952 0.008600601 0.0034537287 0.038514163 0.026930895 0.010901564 0.0037571609 -0.02573657 -0.0032432007 -0.07732344 0.041493025 -0.017629141 -0.027185727 -0.00782729 0.012928885 0.0077739195 -0.046278402 0.03220005 0.011540491 0.03349919 0.015271129 -0.007668929 0.04433429 0.013651147 -0.008724212 0.004320362 -0.045659892 -0.03933238 -0.01392337 -0.016097924 -0.039795585 0.020410934 0.025632367 0.02728933 -0.015201803 -0.019137906 0.033490006 0.0068423846 -0.020263966 -0.026349528 -0.025352843 0.037898056 0.016019622 -0.032529727 0.016109515 -0.03817507 -0.057915337 0.025998339 0.008382072 -0.027517065 0.030028455 0.0125259105 -0.02955955 -0.045849014 0.025712963 0.002171463 0.002734849 0.041395556 0.028384928 -0.017186917 0.0063907485 -0.014591231 -0.015570342 -0.0019222718 0.00078797346 0.03778779 0.029342068 -0.010265149 0.033389714 0.0019732008 -0.016334724 -0.025285974 -0.015678594 -0.019427309 0.02481209 0.017672127 -0.008452988 -0.020393407 -0.007643862 0.032248195 -0.035977945 0.010896169 -0.039144665 0.028105348 -0.018249366 0.012094968 0.025350196 -0.016399104 0.0006733131 0.01442466 -0.024329789 0.029933251 0.022655739 0.038819455 0.001090451 -0.0003086463 0.021793963 0.035862856 0.0023121296 -0.038627557 0.04481245 -0.01358922 -0.03576621 0.035238795 -0.018025763 0.03051331 -0.008375697 0.012488826 0.005378763 -0.025829326 -0.010450481 -0.032989737 0.01900656 0.023807056 0.027772998 0.023014689 -0.013086233 -0.007536714 -0.011493773 0.031974334 -0.022323513 0.027943293 0.046024166 -0.014747717 0.0037111547 0.050584115 0.039166264 -0.027633587 0.032863528 -0.04407364 -0.009498805 0.02314709 -0.039532483 -0.0019995158 0.030449914 -0.0012671133 -0.034468994 0.021402257 -0.03234285 0.04301807 -0.020404965 -0.0368261 -0.026542354 0.014609921 -0.023021959 0.020106995 0.044691358 0.049909864 0.020775683 0.04692078 0.048416805 -0.021284357 -0.014849247 -0.0027074674 -0.009356417 -0.00812972 0.009123254 0.002023687 0.0360541 0.010437137 0.01976308 0.014112124 -0.045270044 0.0140252365 -0.041417267 -0.030248133 0.030062966 0.031088412 -0.062040858 0.02919869 -0.0042558326 -0.03871702 0.04738937 -0.016600966 -0.0007480483 0.023412077 -0.0058362135 0.050977908 -0.035474494 0.014267377 -0.0012437002 -0.028735932 0.036383234 -0.017959835
-0.020559689 -0.021950046 0.017786453 0.01988121 0.027362406 -0.100140624 -0.023266848 -0.002391573 0.045638423 -0.0027886473 -0.0550127 -0.025242645 -0.06144083 0.04115496 -0.022193598 0.008860814 -0.0067798775 0.014978168 -0.017253473 0.018946411 0.0060325614 -0.017411 -0.024612276 -0.025466267 0.02423849 -0.00491363 -0.06607286 -0.037573125 -0.024200825 -0.062800035 -0.010363726 0.03838509 -0.0046088337 0.007909017 -0.017126117 0.025064709 -0.037854195 0.024294686 -0.018564776 0.017218674 -0.011026133 0.018255623 0.03220562 -0.0030257932 0.01787812 0.023701916 -0.031188335 0.03701589 0.005476258 0.036102295 -0.011828185 0.033897463 -0.0031316928 -0.04765639 -0.00030258507 -0.020771889 0.00054533256 -0.02561349 -0.058136534 -0.038107377 0.037061423 -0.014151994 0.037176605 0.008167614 0.028533364 0.006009179 -0.07643987 -0.015238878 0.03406431 -0.007048417 0.013371681 -0.023395574 0.012755271 -0.054127913 0.0063575413 -0.041302066 -0.0035487963 0.0054025827 -0.03390603 0.035159655 0.055148717 -0.025022386 0.012789952 -0.0300964 0.0013936047 -0.042947132 0.028491922 -0.021292014 0.004345124 0.019097703 0.008789113 0.028807033 0.04264302 -0.040237613 -0.02791897 0.030085342 0.009507459 -0.018150045 0.015611421 0.016380375 0.012015244 0.010790323 -0.0036546127 -0.046746377 -0.027794305 -0.018778022 -0.007607549 0.006136904 -0.027690584 0.001964076 0.0236676 -0.038228042 0.0019611828 0.0045147813 -0.010471946 -0.009818642 0.0133234225 -0.01806218 0.028941505 -0.04621217 0.003097029 0.018219637 -0.024266964 0.012113797 0.022144299 0.030142559 0.021883635 -0.014345749 -0.009843196 0.030386174 0.008714811 0.04729139 0.008904168 0.049213927 -0.0035734014 -0.022748932 -0.034626376 0.040927067 -0.00033848124 0.02645943 -0.026993161 -0.048707344 -0.0047138757 0.0295183 -0.04434485 -0.0027277991 0.0037680385 0.0002372764 -0.06335999 0.004324127 -0.020166645 0.017173517 -0.00587041 0.047606345 0.018075032 -0.009252509 0.030409385 0.025961002 0.031125285 0.019894427 -0.007816631 0.01385847 -0.002354589 -0.017998599 -0.010233386 0.005504211 -0.022282707 -0.036691412 -0.032305527 0.03166214 0.0026520507 -0.0011700065 -0.02826351 0.0097595565 -0.015358616 0.049331892 -0.02460719 0.013411877 0.0045772614 0.0026140667 -0.030997531 0.0045576156 0.0128378635 -0.022670971 -0.018922867 0.038680024 -0.011023096 -0.044862542 0.037106846 -0.006348122 0.0108755585 -0.019988602 0.013740453 0.0026695314 -0.014920841 -0.02746868 -0.015519042 0.018288134 0.015553077 0.0109044835 0.010675043 -0.020739224 -0.005518878 -0.024275554 0.03725458 0.020135028 0.0020716933 -0.071435474 0.02322689 -0.013496293 -0.013862697 0.0041349623 0.0027766682 -0.03325557 0.0028133662 0.030814542 0.005618027 0.019339655 0.02069949 -0.017010663 0.047929063 -0.030971952 -0.024993146 -0.023908792 0.026615402 -0.020411413 -0.04626189 0.0065417527 -0.03430304 0.025783967 -0.04910629 -0.03345796 -0.011654905 0.03437506 -0.005983701 -0.020658826 0.021484217 -0.015426396 0.0130406255 0.0011979032 -0.026667517 -0.03018226 0.0065376596 0.01121672 -0.005825057 0.032506727 -0.14772472 0.01838663 0.044167724 -0.01427811 -0.013527701 -0.12502363 -0.0007032167 -0.019411635 0.006040928 -0.027297866 -0.0108047845 -0.026048366 0.028205527 -0.03278715 0.021313418 -0.020844443 -0.03528927 0.01354831 0.0043371757 0.0476018 -0.019903468 -0.038969167 -0.038006075 -0.026123937 -0.0019139423 0.0028019839 -0.0075987936 0.02869168 0.023874346 0.020738306 -0.00032225944 -0.045571916 -0.031996768 -0.013371839 -0.060215406 0.042706054 -0.008462204 0.02892972 -0.019221904 0.020879798 -0.051368784 -0.022742348 -0.0045563537 -0.021056825 -0.026517108 0.0011337625 -0.062145557 -0.086774975 0.0069140913 -0.019587003 -0.0005996758 0.014161554 0.0009486395 0.03744197 0.04674538 -0.029392036 -0.0053487835 0.0090611875 0.019018412 0.039027072 0.030444833 -0.019897522 0.012208447 -0.03800466 0.04306879 0.028637487 -0.014775235 0.015439741 -0.026910873 0.057316642 0.013704675 -0.053499736 -0.014423225 -0.043387197 0.036104005 -0.023230158 -0.012103139 0.004381092 -0.0058900807 -0.038967766 0.016948799 0.005030928 -0.012599854 0.0034641256 0.018185833 0.019847156 -0.021857332 -0.05291479 0.015075654 -0.06155205 0.025036378 -0.07077978 0.032535892 -0.008848517 -0.0053158295 -0.030965852 -0.04765669 -0.0012681064 0.03481914 -0.018155998 0.033213973 -0.016410341 0.024805976 0.022826765 0.024115328 0.047974605 -0.037398163 0.028166825 -0.020238133 0.0046140994 0.0015484175 0.032117918 0.00854 0.024491778 0.013082987 -0.02597968 0.033350334 -0.011053753 0.039528567 0.027112598 -0.014566414 0.035919398 -0.0016397015 0.026063615 0.015284414 0.02391301 -0.066359356 0.029790156 -0.02713473 -0.021393234 -3.2087024e-05 -0.0023124968 0.01757354 -0.04286824 0.035435118 -0.03610627 -0.01825185 0.023211041 0.015228856 -0.04263682 -0.035472304 -0.04436155 -0.036888562 -0.010147027 -0.013027723 -0.04250794 0.034265503 0.046474345 -0.025772322 -0.031421967 0.010056834 -0.037342004 -0.008752676 -0.0035336143 0.011591787 0.002507754 -0.04891293 0.03025358 -0.022446157 0.02916784 0.017778505 -0.029994342 -0.005336795 0.014699924 0.0015010092 -0.011613986 -0.057760276 0.011497848 -0.028025007 -0.0148549685 0.0130461855 -0.0067013595 0.032575443 0.038904905 0.035116415 0.012945101 -0.017658288 0.000812136 0.018228423 0.034583732 -0.09038119 -0.024199348 0.003220967 0.039740905 -0.030349474 -0.0151380785 -0.0066815466 -0.03218269 0.021790473 -0.008435481 0.0094887 0.021256234 -0.025939787 -0.008080003 -0.066789955 -0.016803224 0.035794616 0.043510105 -0.013490375 0.002980534 0.019205768 0.043362495 0.0011131524 0.034006447 -0.018816477 0.045783553 0.012191351 0.027260317 0.04377079 0.006009261 0.044892307 0.0013316353 0.036928307 -0.040215295 0.012033752 0.0046817167 -0.009596364 -0.014777248 -0.03110616 -0.010184926 -0.029431857 0.012279088 -0.00765254 -0.017786378 -0.021176597 0.045977797 -0.050091363 0.0051051066 0.04582926 -0.008048027 0.031245764 0.0070045856 -0.0031061717 -0.005340392 0.031140111 -0.011209048 -0.026736612 -0.007938758 -0.009772879 -0.011232497 0.0205579 0.017854016 0.016397001 0.038028624 -0.05514193 -0.050796237 -0.011968291 -0.024567802 -0.0035923603 -0.008291221 -0.03770307 -0.023114977 -0.02520371 -0.0686943 0.007155754 -0.052915163 -0.029013371 -0.0021239205 -0.026559737 -0.003807493 -0.0017072288 -0.008031869 0.0002635882 -0.0239116 -0.00233899 0.010208756
0.014389598 -0.060379364 -0.04484652 0.029841319 0.015849706 -0.07404949 0.037131883 -0.06604253 0.03276007 -0.012560859 -0.025594605 0.004504596 0.023992417 0.0050519626 -0.028875144 -0.032220077 -0.027641619 -0.0024405846 -0.038061034 -0.014218999 0.024531078 -0.020677842 0.043449376 -0.033843692 0.039659664 0.020302074 0.0032422019 -0.0063092303 -0.031066354 -0.017164165 0.039918527 -0.001153819 0.018214356 -0.008992069 0.00037125082 0.013889197 0.010211985 -0.010183613 0.0008112218 0.039308023 0.050710514 0.09253485 0.009217251 -0.01627888 -0.041056097 0.0048129936 0.014109798 -0.045894336 -0.006788067 -0.032909602 -0.025226096 0.016552467 0.013920654 0.06190487 -0.032484375 -0.045948014 -0.04179891 0.03791551 -0.036953464 0.028890807 0.018868783 0.050293252 -0.031724464 0.008406777 0.054898545 0.03798634 -0.021342551 0.0014990472 0.0051666945 -0.04256877 0.0006064984 -0.01304297 0.04137638 -0.0020089576 -0.01477384 0.001332872 -0.07214982 -0.005222198 -0.033346754 -0.0069547924 -0.015334467 -0.0065068 -0.043070525 0.055351157 -0.010886675 0.03916823 0.02557221 0.059434507 0.020657368 -0.03991423 -0.00045378908 -0.0037907462 -0.027191509 0.005807307 -0.024108818 -0.020101357 -0.0007872034 -0.06486824 0.014848094 0.04841438 -0.007326712 0.020106552 0.09177041 -0.033722453 -0.07799451 0.036465846 -0.012536145 0.02477862 0.033339974 -0.065176584 -0.07483265 0.00741078 -0.029037403 0.0059732334 0.053687032 0.03410109 -0.03372506 0.036902133 -0.04477278 0.06783068 0.0027424274 -0.0076138726 -0.0035906709 0.029170526 0.026291505 0.006366218 -0.04313254 0.042714857 0.0172715 -0.053608876 0.022558518 0.02194452 -0.031173015 0.0446429 0.07933295 -0.08250877 -0.040175978 -0.042473476 0.0021460196 0.011489065 0.017358858 -0.012805775 0.0066284775 0.057428434 0.030470617 0.1045072 -0.018154582 0.021697719 -0.0056532626 -0.018905655 0.058508255 -0.007918825 0.009961265 0.0130212195 0.017320314 0.021429854 0.045048065 0.039527576 0.03978154 -0.009588473 -0.02051347 0.007617447 0.052242048 0.0043749707 -0.019911697 0.018716233 0.020984147 0.050431788 0.01695544 0.019989898 -0.03541194 -0.02706096 -0.009512669 -0.028108979 -0.014419015 -0.04709244 -0.008781901 0.0027186503 0.014938656 -0.053774722 0.048624687 -0.0038962606 0.011809034 0.009841623 -0.0372056 0.04803208 0.020323224 0.024224283 0.03675007 0.012202786 0.012194242 0.059295647 -0.022149188 0.022995707 -0.09487824 -0.029934244 0.031105677 -0.0050854995 0.0033332098 -0.0013141013 -0.009138094 0.06604634 -0.002388836 0.03173034 -0.039845116 0.020316338 0.043712046 -0.004497526 0.047539167 0.00966728 0.015377279 -0.02046873 -0.04236184 -0.01091032 -0.020661568 0.03697186 -0.060587008 -0.021370916 -0.05462398 -0.018956685 -0.07211795 -0.0035728994 0.050670564 -0.020930024 0.07492108 0.012536961 -0.016531963 0.04669978 0.009304308 0.022425812 -0.004991847 0.0036019022 -0.012695723 -0.014017483 0.040011752 0.04827807 -0.008303014 -0.041712314 -0.03987259 -0.016896477 -0.022381624 -0.010260314 -0.012945339 -0.05534812 0.057711292 0.0054245354 -0.04271079 -0.014178057 -0.095740944 -0.029567413 -0.008682721 -0.044179615 0.02254479 0.017881965 0.016485048 0.02755861 0.013894404 -0.044050604 0.041757017 -0.06977041 -0.022576416 -0.00663412 -0.0017158655 0.051196534 -0.034556944 0.030305322 0.037326787 0.026867254 0.007993989 -0.036077384 -0.017481746 0.009948 -0.017468974 0.034712046 -0.05801151 0.03527797 -0.024018893 0.020274103 0.029779239 -0.030907491 0.068414226 -0.041459255 -0.03126983 -0.008211618 -0.038170516 0.032587312 0.00018319392 0.009510376 -0.01536711 0.016539877 -0.015899675 0.061089613 -0.049295284 -0.052465674 0.006097769 -0.018484855 0.033482455 0.02096987 -0.007452358 -0.032075528 -0.012145974 -0.0069672484 0.030804792 -0.013460915 0.010105028 -0.047953628 0.014557449 0.024766201 -0.0013192579 -0.03281257 -0.00046483753 0.001157463 0.005612785 -0.0105106905 -0.02296063 -0.004334052 0.026261583 -0.015939077 -0.013747211 -0.009612552 -0.0030510216 -0.0070135635 0.023645634 -0.048978496 -0.04285955 -0.08902448 -0.0343174 -0.01704883 0.0016658788 0.0113433795 -0.049190115 0.051730543 0.031795114 -0.10660034 -0.024224255 -0.0010407664 -0.026013076 0.096801125 -0.026040165 0.006370204 0.008115702 0.02192087 0.009742509 -0.014149684 0.0023301432 0.042561784 -0.010873898 -0.00489063 0.029737191 -0.029790249 -0.017713556 0.028007664 0.05919403 -0.026801355 -0.00063286076 -0.022310995 0.022429757 0.037197657 -0.020280443 -0.018472187 0.002605738 -0.07020843 0.0025157453 0.023952823 0.025634293 0.026838923 0.025749672 -0.06470506 -0.003389304 -0.08129105 0.07186358 -0.005809346 -0.009476504 0.027846023 0.034496225 0.0050614597 -0.008448858 0.0036636344 0.027546888 0.055608425 0.044239182 -0.036890157 -0.02949334 -0.0010285594 -0.017133594 -0.035037264 -0.012769416 -0.00013374102 -0.054208655 0.06942637 0.025224678 -0.0022048585 0.014666338 0.002321391 0.020195607 0.012656384 0.025241109 -0.036338434 0.04463146 0.0018500481 -0.037167307 -0.004596691 -0.025376406 0.022832884 0.0438967 -0.010071195 -0.0090636825 -0.026776772 3.182039e-05 -0.026164198 0.025958931 -0.0763503 0.08494055 -0.012062032 -0.016658643 0.069946 -0.0313428 0.001246072 -0.110593736 0.028952543 0.02761885 -0.06334259 0.040777035 -0.013571768 0.039404787 -0.0064120037 -0.03977351 0.011635784 0.006155904 -0.0040160725 0.015366078 0.0442616 -0.016205955 -0.0052056764 -0.08047921 -0.003921909 0.012939925 0.047564767 0.004601509 -0.029626256 -0.00021187899 0.008475758 -0.031460073 0.019062096 -0.020970743 0.0023727475 -0.004850638 -0.010824806 0.039597236 -0.037172362 -0.0033067614 -0.044553537 -0.043126963 -0.057394303 -0.016876815 -0.09676262 0.05717239 0.0104859155 -0.06264317 0.042692997 -0.0006875121 0.0021893608 -0.060174666 -0.039572626 0.03253791 -0.0040336587 0.0024017093 -0.02050835 0.060094897 -0.060201425 0.0133072045 0.013901749 0.004811189 -0.033469982 0.01034861 -0.0050597214 0.049690284 0.014630094 0.03631201 0.09629511 0.06364662 -0.03744313 0.0015682133 0.013787456 0.012073866 0.010035776 0.024834495 0.035011873 0.02652222 -0.042297143 -0.03564799 0.023832947 -0.03545301 0.001421251 0.03166295 -0.018706787 -0.014528725 0.0009902129 0.0028482336 0.014186587 -0.000755845 -0.04025389 0.04975226 0.02470978 0.07978688 -0.03078019 -0.024897272 -0.025928965 0.010777725 0.004266265 0.013713992 0.021174617
-0.015366874 0.024823945 -0.026046433 0.050872944 0.017694866 -0.038122334 0.0027037729 -0.0074475063 0.023798462 0.015545959 0.0138319675 -0.059519768 -0.0033020426 -0.04665104 0.014912264 0.03131886 -0.042867925 0.048679635 0.0076347217 0.07075936 -0.046935275 -0.020277275 -0.0071902005 0.033914834 -0.015545641 -0.023498815 -0.041037533 0.0122046005 -0.033762075 -0.031653333 -0.02288708 0.0026937702 -0.012824239 -0.02531923 -0.004490206 -0.012136414 0.022819314 0.0015044229 -0.06191816 0.027055684 -0.00024662586 0.004925027 -0.045630597 -0.004632623 -0.0057379096 0.032377187 -0.016764808 0.012316237 -0.0071942895 0.013783905 -0.026031457 0.0125241615 -0.05038652 0.013601151 -0.020167593 0.0049934397 0.03565569 0.004069124 -0.032105237 0.038076025 -0.00080421637 0.019440513 -0.0428986 -0.0012735662 0.031016273 0.019550798 -0.07001693 -0.029482894 -0.0032247428 -0.029795103 -0.030181982 -0.020005692 -0.028947422 -0.011990673 0.016709382 -0.03382379 -0.049547613 -0.023693705 0.035376877 0.004996847 -0.016418533 -0.004533571 0.017168932 0.043853275 0.013828816 -0.0068731504 0.0015468787 -0.037573766 -0.011796872 -0.0005435286 -0.0060939007 -0.021380851 -0.028388215 -0.024832828 0.037539177 -0.04410613 0.0063848333 -0.014522867 0.0061068237 0.047350656 0.0063676145 -0.04656545 -0.009450118 0.0014180377 0.014126057 0.017381974 -0.015826067 -0.02204676 0.010616626 0.001751317 0.03680557 -0.012486137 -0.040818922 0.013867743 0.01741304 0.03831648 0.03481381 -0.01479653 -0.039455127 0.005023412 -0.011284406 0.037642978 -0.017733788 0.020507114 0.0034155715 0.006631588 0.0053307866 -0.008259867 0.02259564 0.020768302 -0.0015151897 0.021574765 -0.009915378 0.019309131 -0.0144047085 0.043786503 -0.04054198 0.0021399206 -0.03273797 -4.0682353e-05 -0.045439065 -0.029632734 -0.01585917 -0.015844269 0.011399968 0.026619297 0.0057148617 0.02057896 0.014931389 -0.029253911 0.0011395079 -0.010982091 -0.0018927526 0.020729257 -0.012042631 0.054916665 -0.028204814 0.019297184 -0.034973342 0.012000662 -0.049415585 -0.009874779 0.01089828 0.01292592 0.055533085 0.042690292 0.0061839456 -0.0054514385 -0.008815808 0.036652133 -0.032342147 -0.0022964668 -0.008035889 0.0065326323 0.01713464 -0.0055232514 0.044755943 -0.046218995 0.022061855 0.024658162 0.03083162 -0.04443721 0.014514043 -0.027480539 0.011384662 -0.01402246 -0.01424493 0.045774195 -0.016270572 0.031253234 -0.027417589 0.0056643165 0.050435662 0.037469465 0.0021624197 -0.0074482597 -0.016453315 -0.021575361 -0.041880768 0.037524194 -0.0063167163 -0.028905775 -0.014246752 -0.03791211 -0.042816356 -0.06730192 0.029339526 0.048665214 -0.011318186 -0.04083116 -0.011136092 0.013191802 -0.045184843 0.029515898 0.024425834 -0.009933831 -0.009627861 -0.03833191 0.036800437 -0.043134365 0.0043377997 0.032716222 -0.054334365 -0.013163132 0.055402294 -0.022903448 -0.04543643 -0.021645812 -0.027525991 0.00061855087 -0.06309275 0.0029850737 -0.061656483 0.039259695 0.057335768 -0.023916252 -0.04220645 -0.0019088255 -0.011449571 0.028313486 0.045438882 -0.03341602 -0.026640216 0.01173437 0.0134373475 0.01468648 0.02194857 -2.164512e-05 0.015782746 0.037776273 0.003992172 0.062292762 -0.0783007 -0.00841932 0.039162084 -0.014135256 -0.019460255 -0.0107903 -0.038158156 -0.008667518 0.029303102 0.02749147 -0.043308787 0.049141094 0.022463152 0.02993489 -0.041820634 0.015349192 -0.05825804 0.023479886 -0.03470995 -0.01476662 -0.013073976 0.019219087 0.0019365416 0.0013616333 0.008688037 0.025113866 0.011947824 -0.05022782 -0.011452443 0.02590449 0.016912835 -0.020942101 0.014258843 -0.0262389 -0.13011609 0.01015479 -0.011428056 0.0006017828 0.0735136 -0.007530339 0.04420722 0.025300419 0.013469357 0.021272333 0.024089552 -0.0011347163 -0.029790925 -0.050781995 0.0010871897 -0.019409345 0.039137237 0.0022662305 0.01687978 0.039645016 -0.03230364 -0.009394946 -0.009651789 0.034777008 -0.013864919 -0.030608147 0.015266053 -0.03220714 -0.036951985 -0.023332749 0.03988422 -0.06385673 -0.019521832 0.007707804 -1.2917729e-05 -0.010127784 0.0129596 0.04063779 -0.038422443 -0.022011114 0.032156717 0.012547728 -0.008575316 -0.008108768 0.019774187 -0.009657163 0.023349123 0.053002976 -0.04412879 -0.066144496 0.0536544 -0.023312649 -0.047366537 -0.0010493004 0.00010419094 -0.01967968 -0.00471345 0.018523697 -0.013749718 -0.04631768 0.03578954 -0.0237329 -0.006548078 0.020161392 0.008413153 -0.03334287 0.060116492 0.023741387 -0.123272516 0.016139647 0.04237966 0.015335978 -0.0049985824 -0.0001467071 0.015264121 -0.013868759 -0.022895552 -0.04741311 0.018400412 0.028280567 -0.0007621086 -0.04736319 0.012055058 -0.009198776 0.012979223 -0.006889822 -0.058444615 0.037141424 0.009841088 0.056203347 -0.023274839 -0.032747824 0.022774473 -0.030088216 -0.022393921 -0.025684461 -0.06411949 0.036851767 0.023694273 -0.07429414 -0.023328794 -0.017598245 0.062738776 -0.024490949 -0.013198036 -0.045530718 0.0069387998 0.0023109135 -0.031443596 -0.021873564 0.028490072 -0.05224806 0.069423646 -0.0063161897 -0.0076154815 0.022968264 0.013134409 -0.005357086 0.0159387 -0.017442673 -0.017412689 0.03134027 -0.0018824998 0.057382964 0.005216439 0.020443093 -0.010240981 -0.012693961 -0.08577695 -0.012852976 -0.007453085 -0.0054095183 0.03096763 -0.026891932 0.0059298547 -0.0051904963 -0.010932533 -0.07850734 -0.03706921 -0.034413874 0.016967071 -0.02684649 -0.0059619406 -0.04418371 0.026193025 -0.014508893 0.024485966 0.03954276 -0.007760581 0.0057765353 -0.009264545 -0.01818029 0.0040357183 -0.053506657 -0.046592437 0.014038766 0.0013980273 0.040700242 -0.010688888 -0.044080902 0.033045225 0.031366028 0.024273138 0.022422599 0.04457193 -0.011016661 0.03194722 0.040734947 -0.041471902 -0.06824301 -0.10194786 0.011520457 -0.033938114 -0.0205969 -0.03759379 -0.02208442 0.030423282 0.026686681 0.032678157 -0.00032567338 -0.023691328 0.016374186 0.029537413 0.02725355 0.025509195 -0.010277335 0.03835049 -0.007470665 0.042204384 -0.0845924 -0.0052090036 -0.016207127 -0.04202792 0.05407326 -0.01379743 -0.025440065 0.046329863 0.01684261 -0.019509608 -0.022953495 0.023732496 -0.06676115 0.013762989 0.0143721355 -0.036771372 0.057553813 -0.01295759 0.049553044 -0.010121851 0.03867372 0.0312912 -0.020173065 -0.008181022 0.0625992 0.028907256 -0.06973898 0.013238144 0.037061557 0.016017023 -0.10075705 -0.04628641 -0.044133764 -0.023772513 -0.008488223 0.013460738 -0.04800794
0.030422837 0.033797566 0.0031760181 -0.03747948 0.003934149 -0.020368958 0.029804558 -0.015695736 0.044528708 -0.04705063 0.028047489 0.03283936 0.02374096 0.024177475 -0.03492387 0.037808746 0.020551082 -0.0061765495 0.05040691 -0.015495021 0.02844765 0.04531787 0.015844584 0.0014591909 -0.013704175 -0.002552839 0.034658574 0.01751895 0.006917253 0.02014883 0.024128588 0.0016251432 -0.040773224 0.013557777 0.025029637 0.04486459 0.0008868645 -0.023192393 -0.0070261536 -0.04695818 -0.009101347 -0.02420459 0.03744715 0.0099422615 0.05027605 -0.014564183 0.023743188 -0.016107872 0.04225022 -0.015209886 -0.030141016 0.043515377 -0.04194579 -0.007850211 -0.03794472 0.034371085 -0.015863622 -0.034611676 -0.018110793 -0.015098697 0.018207725 0.04274585 0.0034804915 -0.028684791 -0.03813156 0.02361423 0.0011334922 -0.012924663 -0.029194301 0.003863494 0.017959058 0.024258452 -0.044911575 0.005687484 0.02831843 -0.03897563 -0.033219136 0.024997914 -0.026145881 -0.055675734 0.0043452126 -0.0036540008 -0.009667525 -0.04397988 -0.019824844 -0.012293732 0.015618393 -0.03302307 0.022021672 -0.02371824 -0.011408474 0.03570552 0.0060699256 0.018987307 -0.027272707 0.017080663 -0.022224052 -0.030667955 -0.01759064 -0.0039243363 0.020592764 -0.005015668 0.043580584 -0.013214553 0.006360794 0.025148755 -0.042293876 0.0338984 0.023008022 0.018020976 -0.026067559 -0.032175902 -0.022743087 -0.010577918 -0.015664497 -0.023440031 0.023577059 0.030407311 -0.023821695 -0.0025969986 -0.023598032 -0.020728603 0.007852591 0.029852625 -0.03959405 -0.016606627 0.022745794 0.0040014265 -0.0085294675 -0.017730942 -0.043822523 -0.03307764 0.032468803 0.043012854 0.042668156 -0.0050369245 -0.015135494 0.040058896 0.026600134 -0.050443556 -0.00040268357 0.0030509862 -0.0048798616 0.04806629 -0.025255982 0.02867029 -0.014794679 0.021724049 0.0039524566 0.023069214 -0.03516955 -0.06864213 0.049681842 -0.022333309 0.0013282733 0.01208874 0.034768492 0.023598336 -0.0037461706 -0.014102338 0.015321471 0.037163023 0.0039332784 -0.01813894 -0.03071851 -0.11254099 0.008489405 -0.037909582 0.0015305942 0.033307586 0.023254786 -0.06881052 -0.01911614 -0.011691224 0.013618415 0.0027477043 -0.046285745 -0.011167694 0.009884012 -0.04357017 -0.016279545 0.008484703 -0.014755739 0.034352068 0.017436253 0.030685544 0.022004252 0.052284148 -0.038406655 -0.006234191 -0.000574811 -0.00996089 -0.118982986 -0.011269079 0.020601543 -0.0016651647 0.03281841 -0.006255436 -0.0030812884 -0.035715185 0.002182114 0.009625061 0.042368222 -0.050494246 0.006787795 -0.018069359 -0.055850208 -0.05257927 0.01680765 -0.011133134 -0.024079707 -0.023411935 0.007729155 -0.043577712 0.04308779 0.0152712595 -0.007663318 -0.02221251 -0.043358117 0.026046116 0.03222005 0.03525766 -0.07680388 -0.039197333 0.008027506 -0.045790024 -0.040719636 0.0073016174 0.057273768 0.031964023 0.00976882 -0.014947754 -0.036980323 0.041339785 -0.07459162 0.023087446 0.01636911 0.06494555 0.028575577 -0.011547956 -0.036418993 0.030423379 -0.07221805 -0.028524565 9.389292e-05 -0.014043019 0.021221299 0.013202446 -0.027194975 -0.02962834 0.0054193833 -0.020024704 -0.014778025 -0.044520356 0.0022012822 -0.004725434 0.0046975124 -0.008664972 0.027346596 0.006454745 0.044144075 -0.007317975 0.020586839 -0.058281112 -0.027675651 -0.01421651 -0.0047261654 0.020603793 -0.00344096 0.017901672 -0.010823189 -0.013849183 -0.026404712 0.024917742 -0.03144471 -0.02995525 0.020160249 0.009122725 0.0023388155 -0.10445679 -0.004533911 -0.041438926 -0.036811166 -0.0023914182 -0.034802526 -0.037456647 -0.00029162786 0.02792258 -0.035473954 -0.0068812375 0.008140035 0.017814146 -0.0145359235 0.024317063 -0.018720038 0.019826187 -0.03311071 -0.044361863 0.00094244984 -0.024975026 0.03343623 -0.019633466 0.01668601 -0.012228863 0.03818448 -0.008934973 0.019718431 -0.041282196 -0.020546932 -0.00019351733 0.02954767 0.0027709585 0.0054414133 -0.0034592228 -0.019196384 -0.012659716 0.032539252 -0.03464201 -0.03694939 0.0011564138 0.009749492 -0.010637963 -0.031184727 -0.014131121 0.03489511 -0.011886508 -0.0130422 0.026549995 -0.014972399 0.016332485 -0.014256285 0.0025529896 0.03934563 -0.08048544 -0.027492957 0.009733013 0.008630895 -0.026472157 0.0071562645 0.0063536596 0.014343099 0.038818065 0.04972248 -0.028897548 -0.0055735717 0.056636807 -0.032471407 -0.028484536 -0.019508181 -0.0011859908 0.005362125 0.0035513963 0.034055978 0.035799745 0.002939078 0.02227895 0.0087385755 0.006759968 0.021471506 -0.020712271 -0.0051419777 0.029659064 -0.03082494 -0.05186403 0.02467421 0.021282572 0.008070073 -0.030698555 0.02459221 -0.03307119 0.016991844 0.037512023 0.0014753212 0.008619659 -0.015753048 -0.00039264603 0.031732153 -0.037960406 -0.021217681 -0.0014631207 0.033919413 -0.06620842 -0.014318032 0.0542297 -0.038585726 -0.035955478 0.004149418 3.3072014e-05 0.013376681 0.023733387 -0.004544562 0.032508615 0.026474021 0.013094065 0.042878192 0.008052322 -0.03211753 -0.01573574 0.0065551605 -0.021756379 0.0008600593 -0.038903706 0.0021447379 -0.028506499 -0.025120381 0.018052815 -0.00063410023 0.020260101 0.017386055 -0.010436334 -0.0538854 0.006849594 0.00073312595 0.02318185 0.03716102 0.024129026 0.0133547215 0.0045621363 -0.043357044 0.001968024 -0.010911555 -0.021966988 0.019676056 -0.10214649 -0.0127990665 -0.03350058 -0.008180552 0.011094634 -8.5895124e-05 0.024800707 -0.03309005 -0.046841383 0.0027287242 -0.020956744 0.04371753 0.01183202 0.019110488 -0.017477462 0.011559398 0.03120815 -0.009516753 -0.048165612 0.042326458 0.016526604 -0.033018667 0.042452812 -0.033977076 -0.028709402 0.05473942 0.02169899 -0.005315903 -0.029391523 0.035727143 -0.03213317 -0.014538963 0.057160456 -0.15306166 0.016410911 0.019257339 0.01765113 0.03460639 0.023346819 -0.023431381 -0.035350274 0.03745249 0.017635925 -0.00074190466 -0.0031050546 -0.0033806989 0.020903999 0.03012473 0.011193097 -0.034596585 -0.07921263 -0.0061938097 -0.019310573 -0.051358167 -0.0051581436 0.00067485665 -0.018587062 -0.010943518 0.011602318 0.04065105 -0.014910735 -0.022379907 0.021711553 0.006014566 -0.06490677 -0.013990068 0.04684553 0.020509144 0.020010015 0.018460048 -0.023895781 0.0313225 -0.012971297 -0.052513473 0.01999807 -0.070241466 0.0068562482 0.032126915 -0.011246545 0.033716664 0.02887932 0.022328375 -0.00023284493 -0.055059817 0.04072738 0.0048926314 0.005245232 -0.0391672 -0.0083039785
