0.018247783 0.021768477 -0.03330793 -0.07593894 -0.09393663 0.019282745 0.0119993985 -0.038953096 -0.067336805 0.012903332 -0.0775665 0.015655162 0.023225978 -0.062191416 0.049244706 0.024810677 -0.03322021 0.19156623 0.00988571 -0.042905137 0.036410168 -0.18318826 -0.05857544 -0.10568464 -0.03808388 0.03944347 -0.10281913 -0.05373903 0.0062555764 0.022493254 -0.038702026 0.01897341 0.02395189 -0.047246132 0.01445991 -0.052326728 0.014668465 0.021075808 0.04821446 0.015352831 -0.101930335 0.022767102 0.0100675365 0.032644004 -0.07598582 -0.075847685 -0.07739797 -0.028780842 0.004895396 -0.057948485 0.014144377 0.032881614 0.051906098 -0.05592156 -0.03930868 -0.017218918 -0.034995638 0.018709742 -0.051574044 0.023664646 -0.2678664 0.0028254269 -0.049546137 -0.07005198 -0.013892383 -0.03834263 -0.03557981 0.011075718 -0.023458749 -0.067591086 0.014279177 0.05059709 0.016071893 -0.02513535 -0.07235539 0.01645243 0.012621457 0.010922991 -0.048005812 0.0256384 -0.14270923 -0.021558331 0.014485694 -0.027146786 -0.02843717 0.020924892 0.013804712 -0.01503856 0.011248911 -0.04481265 0.009431636 -0.04670451 0.032482307 0.02231712 0.00950333 0.05232774 -0.06136308 0.020676514 -0.061813965 0.030405736 0.01706806 0.024835296 0.026494889 0.04679626 0.0139833735 0.053166296 -0.12140242 -0.03847674 -0.078594014 -0.041519336 -0.079278305 0.024806708 0.033240236 0.017484125 0.023554614 0.026110934 -0.07995036 -0.13990009 0.039495595 -0.03796063 -0.06304273 0.034985173 -0.06882268 0.020347955 -0.0025364866 -0.035922706 -0.05797088 0.013189868 -0.1006705 0.025017211 0.050569553 -0.18499756 -0.044183932 0.010090806 0.014513988 -0.09101466 0.012970368 -0.10541611 -0.03456382 -0.018479748 -0.14225289 0.03460691 0.020684673 0.014663487 0.013615564 -0.13869588 0.03044605 -0.079503685 -0.11474961 0.012691371 0.00866915 0.05353299 0.0059670154 0.029944958 -0.4200113 0.01692997 0.035475828 -0.06537673 0.015755622 0.022700993 0.017271047 -0.059059244 -0.084234565 0.12436081 0.022168389 -0.057317067 -0.032122 0.022083009 0.031939663 0.020187031 -0.064195745 -0.023215363 -0.043856077 0.025253046 0.020601511 0.0115211895 -0.04585778 0.01224907 -0.04735752 -0.071120635 0.021000436 0.04338602 0.02843583 0.015939891 -0.036614336 -0.043409143 -0.057024002 -0.025380943 0.025015708 0.015260563 0.02409439 0.018082494 -0.05413189 -0.042203695 -0.27277422 -0.08889877 -0.030628474 -0.117687315 0.023084693 -0.06506933 0.033033494 -0.07392891 -0.068311796 0.015309475 -0.044839256 0.032758538 -0.054685157 -0.05060837 -0.04097346 -0.009737402 -0.045443546 0.01962459 -0.035564926 0.017256415 0.03480807 -0.013285883 0.015315967 0.0117944395 -0.06506456 0.021033267 0.012726512 -0.014391431 0.05060051 -0.03775847 -0.03234086 -0.01360429 -0.043472286 0.02120823 -0.099432535 0.040770765 -0.14669724 -0.06849009 0.022734977 0.01655253 0.0153653575 -0.06418035 0.011811747 -0.032776617 0.02123091 -0.014918636 0.027389733 0.008243408 -0.029308766 -0.057071127 -0.14788707 0.03668771 0.0122201415 -0.014356053 -0.030867612 -0.054620113 -0.048069146 -0.0905499 0.021763593 -0.025887387 0.049170744 0.0067851134 0.0315486 0.030215165 -0.03450932 0.02541434 -0.1778409 0.011802615 -0.16139281 -0.038372908 -0.036806334 -0.13503267 0.0183292 -0.037979566 -0.070772946 0.005851761 0.014382689 0.021572342 -0.07901949 0.047287773 0.042300783 0.02340398 0.019615844 -0.04296289 -0.098522045 -0.099107005 -0.02815472 -0.04119767 0.022166431 -0.09668145 0.073022336 -0.060631383 0.026351525 -0.06615749 -0.031972896 -0.00024224885 -0.054874185 0.03776945 0.004660105 0.021593396 -0.020204807 0.028218608 0.015988892 0.307192 0.020011673 0.02322482 0.012863951 -0.11522229 -0.020971188 0.03792378 -0.12950517 -0.03397816 0.07450491 -0.030397624 -0.030506497 -0.03629093 0.016534142 -0.020906677 0.03152441 0.038874637 0.031462446 0.013661958 -0.08384071 0.03734673 0.040101495 0.03716467 -0.11087088 0.012858204 0.01673861 0.01701072 0.040256746 -0.14250265 0.044931658 0.011574826 -0.04215427 -0.07160278 0.0046686395 0.03818904 -0.037428718 -0.024776 -0.11766837 0.032223124 0.047042187 0.016314704 -0.065986685 0.008058967 -0.040602017 -0.0788303 -0.07505459 0.015802043 0.017387586 0.040856015 0.0377637 0.016118383 -0.06251382 -0.05458263 -0.04585353 0.01440716 -0.08713647 -0.037617408 -0.0560925 -0.03280436 0.0708606 -0.10720016 -0.040155075 -0.029219043 0.023853747 -0.06768754 -0.035849936 0.018601695 0.004494799 -0.030587573 0.02526726 0.022490563 -0.03221997 0.031821292 0.012105662 0.023553224 0.021341536 0.026562655 0.024544373 0.01072974 0.018774368 0.0019680934 0.01387515 -0.11803998 -0.09756253 0.024864415 0.014651271 0.003964128 -0.13425767 -0.06377533 -0.0046035056 -0.06290734 0.058999248 -0.10762424 -0.036753297 -0.057065703 0.0167248 -0.045263696 -0.00795467 0.003445878 0.013911275 -0.02117841 0.023611898 0.015089039 -0.025794216 -0.11936325 -0.062885985 0.012279597 -0.034609552 -0.028393386 -0.0009064529 -0.041762654 -0.07524758 0.021232689 -0.09087461 0.012290942 0.022668079 -0.07149981 -0.043458503 -0.02265494 -0.054017577 0.020404337 0.011028694 0.032679487 -0.036405917 -0.02426438 -0.03819916 -0.014897132 -0.029879557 0.015629213 -0.1379431 -0.04516164 -0.059661847 -0.040178016 0.038115725 -0.15393938 -0.119154625 0.03524147 -0.06843185 -0.05108159 0.024635095 0.015583577 0.013686922 0.023170765 0.010617268 -0.105055265 0.01970564 0.020333389 -0.15527214 -0.03436913 0.02178482 -0.0697336 -0.04604362 -0.0021063115 0.011281837 -0.030834494 -0.0509385 -0.040866148 -0.027569788 0.064950205 0.0119529795 -0.059755813 -0.042460803 -0.04441632 0.023033427 0.032728978 -0.060946457 0.02318837 -0.12509124 0.0164009 -0.043701824 -0.042122383 0.033302728 0.026660599 0.011271903 -0.016479027 -0.13368501 0.01955202 0.0070555564 -0.060620535 -0.045119956 0.06238299 -0.05741378 -0.119548425 -0.17114605 0.011132193 -0.093588665 0.007370512 0.02311159 0.019460237 0.027358674 -0.15487705 0.033904407 -0.06645857 0.01446673 0.022037856 -0.07023245 0.0077722785 -0.07450878 -0.20649572 -0.02038506 0.012092407 0.012040781 0.25751537 -0.034900345 0.020426856 -0.1410769 0.033287134 -0.0516239 -0.023281451 -0.04454942 0.017798748 0.016023125 -0.084810756 0.061064783 -0.12160373 -0.062240075 -0.05571125 -0.10819724 0.014734421 0.028483441 -0.033104938 0.0226328 0.027060851 0.020131411 -0.040405165 0.04290559 0.015216379 -0.13277788 0.026969342 -0.029893555 -0.06822298 0.024334362 0.013204396 0.015234519 0.009048924 0.017337374 0.06542612 -0.1510674 0.0024213034 -0.017244851 0.013709512 0.013673695 0.02499889 0.023160879 0.04177495 0.031309236 -0.028060062 0.01295695 0.042873967 0.010577685 0.015405644 -0.040449634 -0.12524576 0.009660666 -0.059608847 0.01693755 0.03184369 -0.083701745 0.032908786 -0.04104465 0.016767416 -0.04290591 -0.03120649 0.017974148 -0.14331669 0.023131516 -0.042510252 0.022569636 0.015889058 -0.0008383539 0.012773304 -0.060237914 0.014967815 -0.15890011 -0.051340643 0.012711842 -0.03648514 -0.055783242 0.017987462 0.007861001 -0.04540404 0.024794653 0.032696083 -0.09414998 -0.10496745 0.0149968425 0.022521708 -0.04471353 0.012793904 -0.059989676 -0.04230788 0.019645203 0.013188885 -0.02528295 -0.043588784 0.010985221 -0.04384956 -0.12736829 -0.048676424 -0.40881082 0.01507439 0.014282539 -0.0136358775 0.013933181 -0.017617011 -0.08222525 -0.02923491 0.014357828 0.043233253 0.02582346 -0.034839597 0.011245745 0.018482797 0.009114623 0.015340385 -0.03482742 0.016825302 -0.08054585 -0.0103755025 0.040502094 -0.043336637 -0.018500276 -0.06744221 -0.14072835 -0.069338515 -0.022394273 -0.08141444 0.012809244 0.01567258 -0.043917842 0.019223742 -0.06058029 -0.043929506 0.04328838 -0.016503949 -0.06421665 -0.078813195 -0.08211274 0.04259148 -0.1749323 -0.06942031 -0.04411032 0.016416855 -0.073872715 0.022859367 0.011107492 0.03452895 -0.16302772 -0.05333401 -0.07060471 0.019137729 -0.03807564 0.027136307 -0.037825264 -0.048577584 -0.055255216 -0.032097116 -0.017208979 -0.012310625 -0.03401152 -0.08018134 -0.14587314 -0.06884169 -0.055929024 0.0066241752 0.015441963 -0.1327618 0.01981855 -0.038458966 -0.007696767 -0.0734142 0.01715356 -0.14897522 -0.10824161 0.010977932 -0.019848702 -0.050082523 -0.043539982 0.041588392 0.011947805 -0.041534733 -0.07007263 0.019688964 -0.1310512 0.022274842 -0.079618335 -0.035940424 -0.08579457 0.020933766 -0.038198754 0.018978547 -0.012806857 -0.03948681 -0.16967395 0.0052489163 0.011140008 -0.038060404 0.010573332 0.024679637 0.028994776 -0.1413213 -0.14148657 0.015727792 -0.022153549 -0.061599687 -0.026120115 -0.023427928 -0.04010757 -0.053894274 -0.028786281 -0.035163093 0.048978373 -0.030223668 0.019896513 -0.09797426 0.052212972 -0.03899047 -0.056424417 0.02215455 0.04111184 0.042460017 -0.14919417 -0.09747806 -0.020695316 -0.047936082 -0.03298799 -0.11991003 -0.05137082 0.02509799 0.018086702 0.037223835 -0.0070624906 -0.10879498 0.027303282 0.017620502 -0.065487705 0.05530728 0.013860205 -0.049374975 0.05093685 0.014608399 0.03677569 -0.081992425 0.014174366 0.0093036 -0.07117162 0.036873873 -0.037369214 -0.108335815 0.03994069 -0.07657603 -0.14721973 -0.0100947805 -0.08944905 0.016032929 0.016882613 -0.11137293 -0.040398456 -0.09238279 -0.017460443 -0.051047195 -0.07163513 -0.079125986 0.02522493 0.029451756 -0.13827409 -0.053365126 0.023173846 -0.08798003 -0.032951217 0.0207039 -0.043165542 0.073315315 0.02820026 -0.059879187 -0.033252385 -0.058069136 0.018370772 0.019325003 -0.019619888 -0.047771692 0.015845036 0.0063967286 -0.07532319 -0.045880888 0.027924769 0.02529278 -0.030898523 -0.1289815 -0.036191892 0.014701088 -0.06941636 0.014298506 0.00996934 -0.023971904 0.01613092 -0.026671417 0.03762106 -0.1341226 0.021817368 0.05281545 -0.046428367 0.023054646 -0.034730535 0.2628981 -0.032302745 0.17462549 0.022626063 -0.03816628 -0.080334246 -0.0530939 -0.07526319 0.023563294 0.018574325 0.0120800715 0.008644369 -0.04155549 -0.04755467 0.012520156 -0.03273151 -0.02377985 -0.10390558 0.029655084 0.016459584 -0.09093026 0.0075367666 0.013689696 0.014061106 -0.08166269 -0.03991169 0.018028032 -0.06955157 0.026876496 -0.09842566 -0.024211572 -0.02882243 0.019302338 0.020726632 0.022228494 0.01510176 0.015326644 -0.11310303 -0.21100616 -0.039675016 0.017835118 -0.067897476 0.010568323 -0.054916974 -0.066388726 -0.030956341 -0.02900768 0.014038547 -0.06523524 0.018140977 -0.116565354 -0.044125628 -0.05683161 -0.05506377 0.013630645 0.043917824 0.014412083 -0.033642177 -0.037295092 -0.091206826 -0.03714726 -0.05948835 -0.050683547 -0.09707595 -0.035656914 0.017400008 0.025602879 -0.3195287 0.01449722 -0.14324296 -0.046839524 -0.053394493 -0.05451722 0.021868747 0.031399325 -0.055901326 -0.037687488 0.022248559 0.040843822 -0.06249004 0.015878562 0.019199667 -0.03411265 -0.02617242 -0.020828612 -0.053032078 -0.070524946 -0.048745766 0.035465766 -0.15516017 -0.054376386 0.0041911746 -0.03636772 0.01778999 -0.053962838 -0.059341993 0.020507373 0.015444766 0.012672388 0.011231668 -0.059097733 0.009349656 0.013408252 -0.039278146 -0.18702535 0.0048992564 0.020818718 -0.046697024 0.017025858 -0.032809 0.0070955995 -0.14498508 0.013067104 -0.058381576 -0.08085662 0.025881246 0.014243459 -0.05532966 0.019708581 0.01974795 0.057215653 0.013546733 -0.13329746 0.017607931 0.013771946 -0.03300591 -0.064973325 0.017553447 0.01985795 -0.0790999 0.007759622 0.036443938 -0.10406694 0.018078463 -0.0485871 0.013226604 0.014489396 -0.04438557 0.010874841 -0.104135156 -0.10917256 -0.08004514 -0.06208764 -0.039600123 -0.06368761 0.00915608 0.01704059 -0.05688247 -0.033277124 -0.021018721 -0.03757331 -0.05990431 0.009739907 -0.045756377 -0.027915483 0.011162374 -0.019236427 -0.017140266 -0.05301627 0.0047458312 0.005555077 -0.035814904 -0.08531294 0.036541626 0.029922558 -0.11458895 0.010918367 -0.03923946 -0.40656793 -0.06768103 0.01304931 -0.03912787 -0.058683526 0.024817867 0.012712979 -0.03750359 0.008308745 0.017015724 0.031331975 0.019991837 -0.039873663 -0.04181498 0.011630973 -0.03963286 0.01328729 -0.059175637 -0.045318495 0.01621546 0.009529755 -0.13361584 0.012509014 -0.026454613 -0.024813317 -0.026868924 0.013554082 -0.041013487 0.014385857 0.03246852 -0.026479414 0.022040643 0.010401694 0.015347281 -0.1255157 0.017695256 0.021955226 -0.06387617 -0.06375077 0.034771632 -0.21064705 -0.06059535 0.015711898 -0.114759095 0.016017623 0.029087478 0.008137678 0.020280898 -0.14606096 -0.122750476 0.022668986 -0.035697848 -0.046829447 0.005238305 0.008904979
