-0.0005256899
0.12472621
-0.09367081
-0.016929187
-0.08610265
0.11079975
0.1112932
-0.082493216
-0.077713184
0.0572968
-0.12654157
0.09361553
0.07311545
-0.086593136
0.14056222
0.109018765
-0.12630984
-0.024828512
0.08913451
-0.059200782
0.076933205
-0.111647725
-0.045372304
-0.11292457
-0.10003597
0.14822643
-0.041033268
-0.08415182
0.08973398
0.022343198
-0.00031715108
0.112689
0.19040424
-0.060249574
0.07943055
-0.074376926
0.13509668
0.111254014
0.123292364
0.13835908
-0.15969028
0.14128762
0.033733808
0.16524848
-0.044378582
-0.08897338
-0.09339025
-0.11038726
0.11781881
-0.052066203
0.121309415
0.13139212
0.21390699
-0.10378471
-0.06943014
-0.06622719
-0.1085797
0.16200241
-0.12791996
-0.19147393
-0.083516195
0.09952875
-0.024548106
-0.054211218
-0.09098251
-0.091694765
-0.032854144
0.1271557
-0.017231002
-0.062234886
0.14148252
0.14665724
0.09439519
-0.0629418
-0.04778365
0.10898366
0.12305457
0.13398696
-0.12351028
0.11631879
-0.088500895
-0.074733555
0.11615912
-0.09520854
-0.0927619
0.12350753
0.09064857
-0.04129128
-0.05210137
-0.11108596
0.11963321
-0.097880945
0.015222681
0.11745327
0.11666311
0.031645667
-0.022084689
0.10853529
-0.09688777
0.16237105
0.1305576
0.12287515
0.021343134
0.046710793
0.105320975
0.05148751
-0.08559781
-0.079365864
-0.06526962
-0.059695456
-0.014279988
0.12997533
0.09907156
0.12187247
0.104119346
0.11883401
-0.063105255
-0.012584819
0.13813576
-0.035238713
-0.037358046
0.07119589
-0.07100646
0.14224415
-0.047554575
-0.07577575
-0.06872344
0.0922061
-0.05023614
0.122629896
0.11623752
-0.0607535
-0.10141578
0.108571604
0.0295046
-0.11794909
0.10274298
-0.13633785
-0.025155434
-0.065717936
0.49158207
0.124765515
0.09348552
-0.017455656
0.11458368
-0.05580325
0.14863458
-0.08157329
-0.051134303
0.11788415
-0.13425589
0.21404691
0.118970126
-0.12395078
0.03772219
0.1121872
0.13929339
-0.0403673
0.02404861
0.13040736
0.14049676
-0.027545942
-0.08144475
0.074901395
0.13797279
0.008782407
-0.10393866
0.1423373
0.14043227
0.13179354
-0.05455526
-0.08425663
-0.10648263
0.13468829
0.13558076
0.12561801
-0.12287743
0.11411062
-0.10167849
-0.053644698
0.059653584
0.10422157
0.09925226
0.12689708
-0.06943247
-0.096992716
-0.098377675
-0.031053307
0.12989256
0.11427823
0.076455615
0.1261329
-0.06480369
-0.033980038
-0.14837416
-0.10067534
-0.050826497
-0.15214208
0.06373998
-0.061911695
0.05245359
-0.11768328
-0.0503685
0.11551559
-0.10347289
0.13196234
-0.10203301
-0.12596966
-0.07588188
-0.07534097
-0.0887954
0.08069542
-0.10231155
0.124418736
0.10718415
-0.078100406
0.12708263
0.13006046
-0.092027515
0.015726294
0.15220183
-0.08004214
0.17353788
-0.08269533
-0.08550547
-0.03552292
-0.10687603
-0.0499668
-0.1205781
0.13935131
-0.054624688
-0.034798943
0.13041596
0.097800665
0.07579582
-0.031777076
0.107129484
-0.04973878
-0.003656026
-0.113668405
0.03530833
0.1141461
-0.07197934
-0.06809814
-0.101347476
0.13398935
0.108553156
-0.08946741
-0.08992911
0.015088706
-0.07428221
-0.09568735
0.06591638
-0.027921736
0.06348785
0.10730197
0.07324432
0.19077775
-0.053338893
0.12879491
-0.006110642
0.12023291
-0.03252689
-0.088724464
-0.053743254
-0.13799863
0.123313256
-0.09567287
-0.055488948
0.12805113
0.10991451
0.12199744
-0.1324896
0.13507655
0.10698763
0.07951809
0.13179477
-0.10675106
-0.09020074
-0.15767047
-0.065869376
-0.052513037
0.12015256
-0.11479108
-1.0380511
-0.04616037
0.041301154
-0.054590978
-0.10084377
0.037916057
-0.02173224
0.14604203
0.11842473
0.09929052
-0.07791039
0.18859497
0.13090274
-0.27012745
0.05326901
0.12288995
0.11979819
-0.062116582
-0.08823074
0.13365339
-0.070643485
-0.03673142
-1.0828062
-0.08345072
-0.08317532
-0.05932509
0.16894688
-0.07963986
0.12534663
0.13644199
0.03530149
0.10199596
-0.054648858
0.06795577
0.15183322
0.1389533
-0.058076236
0.07074924
0.13447605
0.083365954
0.09053665
-0.03521429
0.058386713
0.1297981
-0.07100818
-0.076286815
0.13328272
0.13136147
-0.07595472
-0.047079302
-0.074573375
0.11433963
0.13782892
0.13201031
-0.101182945
0.10627548
-0.059031866
-0.078725
-0.08603458
0.09214137
0.12733431
0.082077354
0.118368745
0.08215075
-0.053935092
-0.095570035
-0.046000518
0.09679816
-0.097394764
-0.12173894
-0.10346241
-0.027136978
0.15067106
-0.09823485
-0.020382248
-0.098958544
0.12769477
-0.07355476
-0.016917074
0.07075033
0.13345884
-0.1125438
0.15859105
0.14085525
0.01437072
0.08692812
0.12583907
0.060748894
0.12719722
0.10698199
0.11598144
0.12576543
0.04826282
0.13304268
0.12183407
-0.040893506
-0.10627103
0.09855538
0.116242446
0.11477462
-0.09370215
-0.0025305632
-0.09166013
-0.0935676
0.15104885
-0.027920742
-0.09428447
0.031144239
0.13925663
-0.07595107
-0.0060530314
0.11163386
0.14676301
-0.09123832
0.11296782
0.11348789
0.09092807
-0.062460657
-0.039736133
0.1137526
-0.009100018
-0.0980805
-0.09820005
0.017496884
-0.056732826
0.08331991
-0.08500714
0.116306536
0.16835034
-0.036876366
-0.108298376
-0.048809215
-0.09726541
0.021015188
0.10189335
0.033706047
-0.06647479
-0.09152942
-0.11214638
-0.07612469
-0.0996448
0.1265929
-0.09010457
-0.12856635
-0.1041077
-0.06537102
0.0833442
-0.09705958
-0.12054113
0.07975817
-0.03426558
-0.07404069
0.124009974
0.09827472
0.021456158
0.12394166
0.14369304
-0.11129057
0.14175567
0.14801787
-0.055415224
-0.053613085
0.0086361505
0.067242965
0.00819512
-0.085757546
0.13659881
-0.0890708
-0.058833994
-0.12812868
-0.103567526
0.11831706
0.084143475
-0.09409787
-0.0565633
-0.03109695
0.105059564
0.14541923
-0.08029308
-0.024607
-0.03685264
0.13529985
-0.025114728
-0.088350154
0.02044905
0.12634051
-0.23859566
-0.07300936
-0.036621552
-0.02423842
0.13723442
-0.09551665
-0.10568825
0.14844953
-0.06756461
-0.04895249
0.06735609
-0.018723214
-0.06511231
0.117908075
0.068496525
-0.02842751
0.17980286
-0.068047754
-0.11600701
-0.097510144
0.17582613
0.06305722
-0.09403819
0.13680278
0.16814528
-0.03041373
-0.09041328
0.074119754
0.13567364
-0.13215123
-0.08460162
0.086579
-0.050998926
0.14836897
-0.08155037
-0.07417213
-0.12554918
0.13730446
0.03738337
-0.056907825
-0.96330553
-0.04290495
-0.07809956
-0.025190804
-0.033732336
-0.2614083
0.14976323
-0.11609411
0.10957287
0.06665711
0.06197481
-0.04896938
0.1599036
0.116219565
-0.0951778
0.119967975
-0.07488052
-0.09370069
0.16119881
0.13817735
0.10321769
0.1147382
0.11698658
-1.1684271
-0.086959265
-0.047781605
-0.03184104
0.03730745
0.12252214
0.1421815
0.17022794
0.13367578
0.11611286
-0.040371295
0.095608674
0.15087198
0.08029885
0.13090731
-0.12995163
-0.16816369
0.06977954
-0.08224023
0.09982167
-0.078334525
-0.08051438
0.13780193
-0.0693824
0.13158183
-0.0857741
-0.055998545
0.047621105
-0.06589108
0.11625612
-0.10639806
0.1399932
0.051139183
-0.053081945
0.029356549
-0.055696208
0.14657451
-0.109512225
-0.056553654
0.102745436
-0.081820294
-0.19940363
0.11047733
0.142948
-0.1137916
0.050938446
0.12969032
-0.081741825
-0.016786957
0.12627225
0.062861785
-0.06949693
0.11197143
-0.10231411
-0.071850814
0.052546393
0.11240466
-0.120581135
-0.050697368
0.11435452
-0.11536401
-0.115673594
-0.08988139
-0.24920335
0.10433728
0.11458284
-0.07684068
0.09977487
-0.07839866
-0.071974
-0.119232275
0.14652547
0.15931682
-0.009070523
-0.11344114
0.116680995
0.0564811
0.12480739
0.12641947
-0.014205798
-0.07474402
-0.18324107
-0.10629745
0.13716161
-0.071400866
0.008229896
-0.050757978
-0.07333737
-0.10285723
-0.06502062
-0.046734776
0.04920865
0.107009545
-0.064733066
0.013836951
-0.114061594
-0.059921633
0.11974699
-0.07577365
-0.057027955
-0.105986126
-0.08425219
0.15229876
-0.07678474
-0.0075854687
-0.047881432
0.027778575
-0.15212871
0.112226024
0.14409721
0.13009001
-0.08686428
-0.114183284
-0.12228277
0.1250022
-0.054434925
0.13642445
-0.06459466
-0.09952361
-0.099956654
-0.11280469
-0.07694125
-0.07838273
-0.10938885
0.3406049
-0.1413477
-0.12890619
-0.004114459
0.12403542
0.14004724
-0.045780517
0.15003024
-0.09409516
-0.08722878
-0.112586275
0.13638812
-0.09030208
-0.06232093
0.12828837
-0.086803496
-0.08255808
-0.10253809
0.13312595
0.11475089
-0.041882798
-0.16263483
0.120450564
-0.13948046
0.050151948
-0.07699429
-0.078661144
-0.06512914
0.109432444
-0.08358172
0.14498614
-0.07677216
-0.06835442
-0.08878846
0.13328552
0.13609117
-0.055907797
0.070762016
0.12746994
0.15418406
-0.022789046
0.053585406
0.13990916
-0.09965034
-0.103807084
-0.0903441
-0.05293496
-0.10742239
-0.069134615
-0.10318887
-0.10180359
0.13979693
-0.09984325
0.121946834
-0.066689804
0.08565596
-0.11642592
0.03713688
0.10844308
0.093212664
0.07197888
-0.043714225
-0.07124785
-0.056335498
-0.12487953
-0.1110597
-0.06708269
-0.098709725
0.1491097
0.13624732
0.098671
-0.09572828
-0.10083554
0.18073307
0.13790616
-0.03299484
0.07564133
0.13596141
-0.06632767
0.14466918
0.11964818
0.15283735
-0.11937832
0.15071183
0.11442867
-0.04918539
0.13299826
-0.07710437
-0.06051973
0.16095583
-0.091028035
-0.08298363
-0.078641914
-0.125346
0.07252633
0.11239673
-0.092901886
-0.037614383
-0.06380966
-0.08616092
-0.08666622
-0.11815203
-0.09151932
0.02500434
0.12338399
-0.053864274
-0.11771169
0.115690745
-0.073342726
-0.084726006
0.121380314
-0.028575653
0.20972952
0.05428354
-0.08169989
-0.02165831
-0.058212973
0.11582699
0.117568545
-0.07673726
-0.017482288
0.09330877
0.12715915
-0.0972741
-0.10464197
0.09379783
0.09411224
-0.064998925
-0.06562249
-0.07198838
0.1097845
-0.063607626
0.05003378
0.08245176
-0.07829025
0.1226609
-0.0724342
0.11928259
-0.064460985
0.09536121
-0.19700289
-0.062057137
0.07342806
-0.080734275
-0.0035479218
-0.044396665
-0.28342447
0.10791995
-0.089525215
-0.033376604
-0.082131736
-0.076188534
0.07903102
0.14250883
0.10532269
0.087374024
-0.12355803
-0.086910814
0.13164788
0.005683019
-0.09007906
-0.051109195
0.12914835
0.13075542
-0.083267115
-0.021215469
0.11320595
0.13592696
-0.10540929
-0.09116516
0.08929269
-0.10876595
0.14171529
-0.097829044
-0.074390404
-0.05963207
0.11153375
0.1407695
0.09316257
0.10023924
0.07420941
-0.061094068
-0.0029664917
-0.016123198
0.09494601
-0.04018555
0.14396083
-0.11458865
-0.031649288
-0.09026782
-0.08098684
0.12125472
-0.11535475
0.12789127
-0.054738976
-0.05040674
-0.061345264
-0.01928527
0.124045536
0.14320894
0.13142446
-0.0914757
-0.07952146
-0.04177876
-0.08881001
-0.10139686
-0.07878663
-0.093224615
-0.08476979
0.073403776
0.075466186
-0.054184336
0.12903431
-0.0407918
-0.11199065
-0.1083266
0.051498264
0.13234855
0.13931759
-0.08627022
-0.120549455
0.09428536
0.14531508
-0.06161957
0.11923919
0.08225918
-0.13805719
-0.00687282
-0.09443307
-0.11582781
-0.05494404
0.12786746
0.06729053
-0.14171578
-0.10414709
0.14298399
-0.04384663
0.07788042
-0.10700743
-0.11541206
0.11325194
0.04268017
0.12436051
0.07311941
-0.06415553
0.14149952
0.12186843
-0.07942574
-0.07122343
0.13248156
0.1095563
-0.069772035
0.12450195
0.08179051
0.13395526
-0.08009616
0.064232044
-0.033237305
-0.056750786
0.14543572
0.13392
-0.11088344
0.15729563
0.120976955
0.15631127
0.09818338
-0.12354986
0.120456696
0.03158727
-0.05915054
-0.08163226
0.12843125
0.027336897
-0.023283074
0.10697283
0.12889683
0.026573716
0.13910909
-0.09675445
0.12237601
0.12610137
-0.034081712
0.11675823
0.015334663
-0.06674114
-0.08185032
-0.058499295
-0.09409762
-0.05576855
0.13212658
0.108824536
-0.17025764
-0.025128659
-0.051942796
-0.060511746
-0.11784516
0.12742986
-0.049633507
-0.08164956
0.12516505
-0.026607579
-0.1135556
-0.15484357
0.13764007
0.10911031
-0.07499747
-0.03448828
0.13607082
0.13832395
-0.103215076
0.09890768
-0.077548124
0.19531095
-0.13433668
0.119660236
-0.06253353
-0.106056266
0.042630486
0.10855997
-0.05282841
0.11627671
0.06876531
0.08053202
0.1335194
-0.06954437
-0.037150122
0.13025671
-0.11598984
0.121932395
-0.11532976
-0.089606084
0.13633558
0.12579043
-0.019265741
0.09727042
-0.09122822
-0.08838824
-0.11471956
-0.0011057567
-0.09308714
0.115906216
0.16296141
-0.09704138
0.13259442
0.1237445
0.09877112
-0.04975517
0.15419613
0.09489533
-0.07108224
-0.057310257
0.028457765
-0.092763364
-0.1205344
0.14405458
-0.034900103
0.118374124
0.09176849
0.12463288
0.12194743
-0.08713796
-0.04066278
-0.042467657
-0.083750166
-0.10295079
0.12270456
-0.001072355
