-8.338836580514907837e-02
9.965270757675170898e-02
9.914577007293701172e-02
-5.132699012756347656e-02
-1.003034412860870361e-02
1.050812900066375732e-01
4.977195709943771362e-02
-1.249365657567977905e-01
8.144654333591461182e-02
9.267774969339370728e-02
1.531854085624217987e-02
1.109916567802429199e-01
-3.136260434985160828e-02
-2.033597230911254883e-02
2.253819704055786133e-01
-2.585074119269847870e-02
-1.143916025757789612e-01
9.500574320554733276e-02
1.630011051893234253e-01
1.653451472520828247e-01
3.810010105371475220e-02
-4.115159064531326294e-02
9.433670341968536377e-02
7.163148373365402222e-02
4.065500572323799133e-02
4.572393372654914856e-02
-4.794535785913467407e-02
-5.553003028035163879e-02
-2.178503386676311493e-02
1.907929480075836182e-01
1.230711862444877625e-01
-2.295064367353916168e-02
8.328660577535629272e-02
1.404338516294956207e-03
4.303386807441711426e-02
2.076210826635360718e-01
3.629143908619880676e-02
-2.877907827496528625e-02
-8.636266924440860748e-03
7.889658212661743164e-02
3.074622750282287598e-01
7.213544100522994995e-02
-7.136909663677215576e-02
-2.618377655744552612e-02
1.509964615106582642e-01
-8.126727305352687836e-03
-7.717925310134887695e-02
3.472428768873214722e-02
1.203919667750597000e-02
-8.496461808681488037e-02
-1.168209165334701538e-01
1.235063895583152771e-01
2.493544816970825195e-01
1.039123721420764923e-02
8.024340867996215820e-02
5.319277197122573853e-02
-7.816291600465774536e-02
2.685153298079967499e-02
-4.137372598052024841e-02
6.660370528697967529e-02
2.528284788131713867e-01
-2.659657411277294159e-02
6.974751502275466919e-02
1.618489027023315430e-01
-4.225549474358558655e-02
-1.128634065389633179e-01
1.959802657365798950e-01
6.429590284824371338e-02
2.380307763814926147e-02
-1.089935526251792908e-01
3.384465724229812622e-02
3.722401708364486694e-02
9.852601587772369385e-02
1.826832629740238190e-02
5.739045329391956329e-03
9.933017194271087646e-02
5.316135659813880920e-02
-3.608842939138412476e-02
5.548538267612457275e-02
1.016172096133232117e-01
4.559804871678352356e-02
7.249014079570770264e-02
-7.163865026086568832e-03
-6.447470188140869141e-02
-5.744966492056846619e-02
3.593489760532975197e-03
-7.482059299945831299e-02
2.843160033226013184e-01
1.462429165840148926e-01
6.349428743124008179e-02
5.325359478592872620e-02
-2.180340141057968140e-02
1.285934895277023315e-01
3.676977241411805153e-03
9.606738388538360596e-02
-1.515972893685102463e-03
-2.327710017561912537e-02
1.100622341036796570e-01
1.096951141953468323e-01
-1.083402782678604126e-01
6.325875967741012573e-02
4.723374173045158386e-02
1.899624466896057129e-01
1.171093881130218506e-01
-2.943863347172737122e-02
8.172228932380676270e-02
-3.880760399624705315e-03
6.539743393659591675e-02
6.574614439159631729e-03
-1.143894419074058533e-01
-7.561302930116653442e-02
2.576659619808197021e-01
1.506359428167343140e-01
8.791068568825721741e-03
1.011770311743021011e-02
7.436646521091461182e-02
7.680871337652206421e-02
1.372935324907302856e-01
-2.276920899748802185e-02
-1.673294976353645325e-02
3.718092665076255798e-02
7.053710287436842918e-04
-8.319935761392116547e-03
5.838848650455474854e-03
2.469360977411270142e-01
4.275199398398399353e-02
3.767727687954902649e-02
1.423507630825042725e-01
5.147595331072807312e-02
-6.520435959100723267e-02
5.581452324986457825e-02
-6.996600329875946045e-02
7.720632106065750122e-02
7.171761244535446167e-02
1.331441998481750488e-01
7.097859680652618408e-02
1.611298471689224243e-01
-8.939415961503982544e-02
1.230222955346107483e-01
-6.518489122390747070e-02
-1.253813505172729492e-01
4.984126612544059753e-02
-7.157289236783981323e-02
1.329670399427413940e-01
2.401220947504043579e-01
6.669607013463973999e-02
1.061525717377662659e-01
-3.732941672205924988e-02
1.843927055597305298e-01
-2.314946800470352173e-02
4.749368876218795776e-02
5.813943967223167419e-02
-2.035955153405666351e-02
1.889208704233169556e-02
8.604434877634048462e-02
4.852806031703948975e-02
-3.969569504261016846e-02
1.379752457141876221e-01
3.679316863417625427e-02
5.395210534334182739e-02
-1.991497352719306946e-02
1.613691002130508423e-01
-7.592041045427322388e-02
-6.004267930984497070e-02
-3.308778256177902222e-02
2.382228523492813110e-02
2.424348331987857819e-02
2.169347368180751801e-03
3.218163177371025085e-02
4.046888276934623718e-02
5.636684596538543701e-02
6.139107048511505127e-02
-9.482890367507934570e-03
-2.267531678080558777e-02
4.068053886294364929e-02
2.095442414283752441e-01
1.254083812236785889e-01
-9.162627905607223511e-02
2.301819808781147003e-02
-1.145634800195693970e-02
3.179186955094337463e-02
-2.524523809552192688e-02
-6.659702956676483154e-02
1.399134006351232529e-02
-2.386199310421943665e-02
-4.842120036482810974e-02
-1.007178127765655518e-01
9.258442372083663940e-02
-3.284326288849115372e-03
2.683793306350708008e-01
-2.104992792010307312e-02
1.055212691426277161e-01
-6.922091543674468994e-02
8.624121546745300293e-02
2.582237422466278076e-01
5.337359011173248291e-02
9.430231526494026184e-03
-1.762134023010730743e-02
2.233550399541854858e-01
1.694382727146148682e-01
-3.321574255824089050e-02
8.687053620815277100e-02
1.807048567570745945e-03
2.340883016586303711e-02
9.807780385017395020e-02
-3.454162552952766418e-02
1.098479628562927246e-01
-6.691425293684005737e-02
1.497976332902908325e-01
1.806938201189041138e-01
-8.168211206793785095e-03
2.143670916557312012e-01
1.865204074420034885e-03
-1.350954174995422363e-02
5.191893875598907471e-02
-1.128203235566616058e-02
1.439030766487121582e-01
1.482004374265670776e-01
1.494185626506805420e-01
5.697356909513473511e-02
-5.983250215649604797e-03
-7.750489749014377594e-03
-6.362741440534591675e-02
3.136590123176574707e-03
-2.942884340882301331e-02
-2.929386124014854431e-02
1.057796999812126160e-01
1.608405709266662598e-01
9.193533658981323242e-02
-5.662932991981506348e-02
2.346066571772098541e-02
1.472982950508594513e-02
1.842937022447586060e-01
7.739804685115814209e-02
5.100181698799133301e-02
-3.779854997992515564e-02
2.659217640757560730e-02
3.731674328446388245e-02
5.324313789606094360e-02
6.868213415145874023e-02
1.775816269218921661e-02
3.014852665364742279e-02
2.004240155220031738e-01
-4.584869742393493652e-02
-7.177463918924331665e-02
9.375578165054321289e-02
1.658163964748382568e-01
1.679133065044879913e-02
3.219055384397506714e-02
5.769483745098114014e-02
1.585672423243522644e-02
4.051692411303520203e-02
2.389805763959884644e-02
-6.717905867844820023e-03
3.595352545380592346e-02
4.996882379055023193e-02
