0.29119998
0.0435347
-0.37521607
-0.0020162717
-0.42383504
0.39852253
-0.21790636
-0.07450549
0.22578818
0.48124737
-0.0037499978
-0.051149633
-0.26119813
-0.22247541
-0.24483965
-0.31460413
0.42186293
-0.016608832
0.09996071
-0.019968122
-0.16891249
-0.06648058
0.2499727
0.13413699
0.0037823278
-0.06786048
0.040379643
0.13389835
-0.03079748
0.108677045
0.079413734
-0.029142618
0.22326384
-0.2709566
-0.018345738
-0.18177977
-0.011306352
-0.17050752
-0.04720712
-0.01245483
0.1231831
-0.06404832
0.2545734
-0.08409023
-0.011704861
0.016738955
0.10624442
0.20770966
-0.075319126
-0.033179585
-0.0747756
0.027534802
-0.38462833
0.069924556
-0.060719274
-0.15434726
0.02755526
0.16366391
-0.034364432
0.8183434
0.40118766
0.06834439
0.047848295
-0.18982877
0.06881747
0.030880684
0.09259581
0.16498333
-0.18106139
0.49910328
0.20260854
0.018802686
-0.47987735
-0.084990524
-0.23089574
0.43585703
-0.34025046
0.0019213192
0.33766618
0.37315497
0.057940293
0.3947317
0.393259
-0.13978884
-0.10755289
-0.110917814
-0.1319849
0.8258613
-0.311184
-0.0960845
0.029148763
-0.00016570426
-0.031741254
-0.039332587
0.048830364
-0.0053290348
0.093925536
-0.016880514
0.10784914
0.35932338
0.029505461
0.361972
0.0995078
0.070828974
0.011411404
-0.1482753
-0.37345606
0.011512719
0.45565388
0.5678487
-0.116614506
0.019527169
-0.14588264
-0.101010405
-0.0315059
-0.010726862
-0.006344351
0.012010495
-0.07728843
0.30234215
0.23724529
-0.07482875
-0.23341309
-0.0933819
0.2844098
0.19732244
0.00073791377
0.013807726
-0.3210519
-0.037151814
-0.014686938
0.1372882
0.11868171
0.01666847
0.40749794
0.0010059116
0.19294891
0.12223664
0.01361593
0.15606666
-0.27754077
0.19325158
0.10117732
-0.23656328
-0.018539285
-0.054445986
0.4487451
0.03391471
0.021926576
0.08594527
-0.14336962
0.011613432
0.048177674
0.045591287
-0.11060159
0.5376593
0.024429785
0.45067772
-0.05438794
-0.07465748
-0.058422726
0.024635369
-0.2100713
-0.04938622
-0.006512236
0.26430812
-0.042990495
-0.003936527
0.09460292
-0.25160354
-0.04716736
0.060817637
-0.37617344
0.100504175
-0.10227963
-0.15225877
-0.04236653
-0.1587892
-0.062180363
-0.21601288
0.08227819
-0.072752275
0.029456956
0.101425394
-0.11419985
-0.24535275
0.16964193
0.49738145
-0.2105661
0.15136267
0.019644953
-0.044156983
0.1455887
0.1703961
-0.03926197
-0.14248845
0.21712343
-0.25893694
0.16813836
0.048447344
-0.042375352
0.08737446
0.36708084
-0.19367173
-0.053265065
-0.090228304
-0.03649407
0.023779929
-0.08927946
-0.21135928
-0.050504494
-0.029318346
0.10997681
0.024600087
0.01781948
-0.008708951
-0.017623642
0.45675477
-0.1195644
-0.04193927
-0.06029434
0.18199557
-0.0069723767
-0.26069084
0.017435884
-0.22550078
0.040036425
0.057733007
-0.11054299
-0.3575241
-0.07014605
0.26897728
-0.054279
0.28588855
-0.108607315
0.1771054
0.58590347
0.3366082
0.2917563
0.08391794
0.30860656
0.16264132
-0.042854898
0.009382837
0.12703775
-0.19492456
0.079978794
0.73755854
-0.15113908
0.01967256
-0.24484205
0.2518915
0.12843242
-0.009346097
0.109019995
-0.5274584
