0.08783106
0.1354749
-0.043193765
-0.011588901
-0.064169526
0.1941399
0.051280774
-0.113515325
0.07211593
-0.10475622
0.1528062
-0.009003014
0.03394922
-0.09673291
0.100365736
0.052250087
-0.0029367362
-0.02605425
0.044225372
0.030273553
0.07213489
-0.008552933
-0.1105215
0.20170793
0.013786693
0.032047138
-0.057882614
-0.119112395
-0.08356878
-0.12040241
-0.060616773
-0.014885348
-0.06191109
0.062922314
-0.15050027
0.12673794
0.052619293
-0.07534278
-0.05409078
0.08973767
-0.055727463
-0.060762756
0.010891488
-0.058353886
0.042921085
-0.089082986
-0.07080227
-0.03670121
0.08144729
-0.0678947
0.041707907
-0.0044053006
0.09777062
-0.16072822
0.078331135
-0.02511609
0.101357296
0.11691519
0.07202614
0.15406659
-0.149189
-0.014343751
-0.09212951
0.0047923895
0.064832084
0.07817332
0.077537924
0.08243085
0.06773581
0.11811485
0.057035185
0.01605509
0.13890696
-0.043101266
-0.0530555
-0.09292747
0.06292399
0.026733903
0.021761434
0.09889627
-0.102566496
0.0073798946
-0.046303865
-0.002359645
0.08011699
0.0073253703
-0.07029617
-0.009350266
0.04723711
0.053999506
0.009270249
-0.07910008
-0.041611336
-0.09544301
0.089012526
0.06304896
0.07443667
0.06327662
-0.13479804
0.018911337
-0.018776063
0.10690042
0.09498533
0.03372799
-0.009954951
-0.11829099
0.005277183
0.010836262
0.07317871
0.096097454
0.07304161
0.07230627
-0.08841394
0.015992837
-0.03616749
0.07534447
0.07596726
-0.08267508
0.05659257
-0.03298622
-0.14017521
0.0003660744
0.058457814
0.035266586
0.06259207
0.007554889
-0.1390564
-0.09870405
-0.10886145
0.068246864
0.012095864
-0.018915592
-0.037564624
0.07359906
-0.034384448
0.13846502
0.08888178
-0.10078873
-0.02519123
-0.07307645
0.13422395
0.12976451
0.06389375
0.064049
0.058268458
0.15722243
0.19900128
0.010402514
-0.04629161
-0.06799129
0.0853926
0.06514762
0.12578805
0.104317866
-0.061033532
-0.07950605
0.16129668
-0.0065085003
0.061372645
0.0836358
0.06347508
0.0554682
-0.025755774
0.00044381086
0.06564105
0.13027889
-0.04888907
-0.1146056
0.06654891
-0.017335074
0.09666006
0.047572326
0.101054
-0.066707425
-0.084480114
-0.09263643
0.13001238
0.009808224
-0.0027992646
0.0070065423
0.07984298
-0.036872797
0.008980007
0.060496032
0.101529
0.08720864
-0.011946365
0.07868311
-0.06404568
0.04604418
0.055034034
-0.10055937
0.022340199
-0.11770966
-0.008093707
0.034795333
-0.1362791
0.15165141
-0.041069146
0.040542755
-0.13618708
0.17407191
0.07399141
-0.10054927
0.16466217
-0.013640666
-0.05392989
0.06755691
0.008465274
-0.014532902
-0.03498802
-0.07151494
0.07410947
0.026018865
-0.007123972
-0.09258144
-0.08761047
0.01437433
-0.053195465
-0.06591364
-0.09702642
0.049516056
0.13920285
0.08783701
-0.025962489
0.066407725
0.07738394
-0.09703578
0.021346048
-0.113860525
0.021487504
0.14442614
0.04564849
-0.034297027
0.023580004
-0.03215809
0.02075097
-0.07986365
-0.07068863
0.0462137
0.03179105
0.012188519
0.032707196
-0.108390175
-0.024143139
0.10722272
0.05950304
0.06892534
-0.006730623
-0.07863374
-0.0823777
0.12101963
0.02802771
0.0012226836
0.07946695
0.16496408
0.011981439
-0.10430291
-0.11090913
0.017089346
0.15086399
0.070046596
0.012515882
0.09605161
0.070973754
-0.11466362
-0.05753553
-0.06642107
0.00547574
0.005685069
-0.014357148
0.08274113
0.12526476
0.09355139
0.026559394
-0.12716849
0.048595488
-0.0046237074
0.021433126
0.017075593
0.035867862
-0.02974577
0.10248307
0.056635506
-0.089011505
-0.009443519
0.14394186
0.07600371
0.007238261
-0.03794933
0.07417777
0.04438297
0.031200292
0.022983652
-0.07226915
0.15454714
0.037097745
-0.071434595
0.055975426
0.088802025
0.06357609
0.11849702
0.028905246
0.090621315
0.1385547
0.078060865
-0.07169014
-0.042667005
-0.0986194
-0.11202069
0.16049221
-0.037724707
0.05008984
0.084988706
0.11513631
0.10228427
0.1338567
0.041944362
-0.08703536
0.1336234
0.049166318
0.03238522
-0.009364575
-0.051006984
-0.05980222
-0.06542591
0.1283222
-0.037756864
0.013995867
-0.04246849
0.059733775
0.11129604
0.058591437
-0.078006424
-0.013325055
0.1219666
0.123282894
-0.10507939
0.028972436
0.08799742
-0.03801215
0.091637395
-0.1511981
-0.10862365
0.08357879
-0.0048447778
0.09064928
0.082940504
0.22881272
-0.027300527
-0.00624796
0.058975775
-0.011944104
-0.09367893
0.01585966
0.0703418
0.04309991
-0.099585176
-0.024561042
-0.028056387
-0.0060905553
0.056910563
0.10493626
-0.0036716952
-0.14258936
0.075094745
0.13655923
0.09487884
-0.061656095
-0.1283947
-0.06696993
-0.012117614
0.109174065
-0.0675585
0.048869297
0.012211532
0.01362376
-0.04456221
0.046855558
0.03262775
-0.10334893
0.03836521
0.027915686
0.034014054
-0.025516897
-0.009862232
0.0844498
0.16149047
0.054951046
-0.0082493415
0.091074064
0.04620722
0.06705497
-0.020227347
0.040827133
0.16357201
-0.10278521
0.011220217
0.07490716
0.10284776
0.1035234
-0.14106056
0.07527518
-0.0082873525
0.027289268
0.078694426
0.008981936
0.047355756
0.020930482
0.06131458
-0.15470843
-0.09959261
-0.1021312
-0.07429466
-0.02476206
0.031106327
0.03621574
-0.03931691
0.0060615595
-0.08552387
0.03038065
-0.04682017
-0.020994915
0.070075534
0.041554876
-0.10528723
0.123207256
-0.017804164
0.11302798
0.057127997
0.10106058
0.08269879
0.012336702
0.002111406
0.13837719
0.014666533
0.090154395
-0.06726324
0.039662413
-0.026410226
0.03461503
-0.117497005
-0.08967482
0.0133192325
-0.073358186
0.0759328
0.15295519
-0.083209544
-0.029809117
-0.045018476
-0.12394493
0.050243363
-0.023603505
0.04576773
0.01844446
0.07374163
-0.12487442
0.039102513
0.07624635
0.032144785
-0.017861659
0.023224153
0.07779141
-0.029286426
0.02539925
0.1429126
-0.009090811
0.191192
-0.001006938
-0.10476545
-0.06323286
-0.105498336
-0.10273574
0.053481515
-0.057911523
0.026382491
-0.051877562
0.1138295
-0.06870067
-0.0069884374
-0.10693196
0.116892874
0.10070857
0.034695346
-0.04099388
0.12599492
0.05830382
-0.057305805
0.03874618
0.110224836
0.024540037
0.041809175
0.11675253
0.12915075
-0.025823731
-0.006866949
0.10468513
0.055658195
-0.06775934
-0.14195639
0.17353767
0.111786604
-0.07529481
-0.07176782
-0.05831236
0.033461686
0.06621706
0.06850745
0.08869595
0.059179552
0.1172879
0.042259082
