1.741716414690017700e-01
2.843243181705474854e-01
2.027283459901809692e-01
1.619705706834793091e-01
2.162193953990936279e-01
2.644949033856391907e-02
-3.918445706367492676e-01
-1.182238608598709106e-01
2.343892753124237061e-01
-1.047615706920623779e-01
4.621267318725585938e-01
2.203209251165390015e-01
2.271790653467178345e-01
1.386751383543014526e-01
-3.056524395942687988e-01
3.135918080806732178e-01
2.377942502498626709e-01
1.048431545495986938e-01
3.898811340332031250e-01
1.626503914594650269e-01
3.659503161907196045e-01
-3.068436086177825928e-01
-6.765833590179681778e-03
3.663661479949951172e-01
-4.464441165328025818e-02
3.554102778434753418e-01
-3.658757545053958893e-03
-7.395659387111663818e-02
4.447204470634460449e-01
3.212947025895118713e-02
1.478388756513595581e-01
-1.879868805408477783e-01
4.671187698841094971e-01
1.970143318176269531e-01
1.409097313880920410e-01
2.998379766941070557e-01
2.601812966167926788e-02
-6.475660949945449829e-02
6.808529794216156006e-02
-3.961535170674324036e-02
-2.504877746105194092e-01
3.709170520305633545e-01
4.180990457534790039e-01
2.593469619750976562e-02
-1.132430806756019592e-01
-1.324483193457126617e-02
-1.249950751662254333e-02
8.449495583772659302e-02
1.002720966935157776e-01
-4.039129987359046936e-02
3.897485882043838501e-02
4.223336577415466309e-01
-2.429511100053787231e-01
3.510567545890808105e-01
4.078071713447570801e-01
3.380101323127746582e-01
1.563411802053451538e-01
1.447643935680389404e-01
-3.838644027709960938e-01
-2.182721495628356934e-01
-2.491936683654785156e-01
4.006812870502471924e-01
4.838748872280120850e-01
-6.360063701868057251e-02
-3.249716162681579590e-01
-1.269416660070419312e-01
4.130033850669860840e-01
-2.357245981693267822e-01
5.429402738809585571e-02
2.747071683406829834e-01
3.984156548976898193e-01
4.002702534198760986e-01
3.345058560371398926e-01
-5.497360825538635254e-01
1.778844743967056274e-01
2.907544746994972229e-02
4.440443813800811768e-01
4.163309633731842041e-01
-2.137916721403598785e-02
4.306058883666992188e-01
-2.139406204223632812e-01
-4.851465113461017609e-03
2.445157617330551147e-01
1.047449707984924316e-01
-1.187859624624252319e-01
-6.448996067047119141e-02
2.625020965933799744e-02
-8.063687384128570557e-02
-2.329041957855224609e-01
4.095998108386993408e-01
4.088609218597412109e-01
-1.351423263549804688e-01
4.910925328731536865e-01
2.792453765869140625e-01
2.505700290203094482e-01
1.038645878434181213e-01
1.074482426047325134e-01
-3.857370465993881226e-02
8.522573858499526978e-02
2.126514911651611328e-01
4.455113410949707031e-01
3.872219920158386230e-01
-1.993142068386077881e-01
4.790995270013809204e-02
-2.552266418933868408e-01
3.433283567428588867e-01
3.081554472446441650e-01
4.886912405490875244e-01
-1.794039458036422729e-01
5.811337381601333618e-02
3.881361484527587891e-01
3.768115937709808350e-01
3.325950801372528076e-01
3.626697957515716553e-01
2.391662597656250000e-01
2.457406744360923767e-02
1.019278317689895630e-01
-8.204852789640426636e-02
2.749846279621124268e-01
3.551719188690185547e-01
1.332193613052368164e-01
3.019314408302307129e-01
3.629072606563568115e-01
3.228862285614013672e-01
-3.125403821468353271e-02
3.336790204048156738e-01
2.220204919576644897e-01
3.847178816795349121e-01
4.890984296798706055e-01
-1.339640617370605469e-01
-1.710999161005020142e-01
5.100600793957710266e-02
2.683457545936107635e-02
-4.786764085292816162e-01
-5.469998344779014587e-03
-1.465978622436523438e-01
4.311494529247283936e-01
4.641140103340148926e-01
2.111643701791763306e-01
1.769245415925979614e-01
-5.705667734146118164e-01
2.632719576358795166e-01
1.754079014062881470e-01
-2.317218035459518433e-01
3.695632517337799072e-01
3.740617334842681885e-01
3.133912086486816406e-01
-6.208529323339462280e-02
2.144423723220825195e-01
1.495239734649658203e-01
4.511504471302032471e-01
-1.711184233427047729e-01
3.815720379352569580e-01
3.369050472974777222e-02
4.133072197437286377e-01
1.160823926329612732e-02
2.618216276168823242e-01
3.473542332649230957e-01
3.823026716709136963e-01
7.469369471073150635e-02
3.034679293632507324e-01
2.181545794010162354e-01
-1.821342855691909790e-01
-5.737115815281867981e-02
5.625569447875022888e-02
3.478338718414306641e-01
4.382916092872619629e-01
-3.772042924538254738e-03
3.658088445663452148e-01
2.246833406388759613e-02
-1.909359246492385864e-01
2.674646973609924316e-01
3.098028898239135742e-01
1.458542495965957642e-01
2.497076243162155151e-01
1.909878253936767578e-01
4.181368649005889893e-01
-3.333594501018524170e-01
3.510762155055999756e-01
3.662472069263458252e-01
-2.576735913753509521e-01
-5.372213572263717651e-02
-4.129211902618408203e-01
6.449606269598007202e-02
4.825766757130622864e-02
1.677748560905456543e-01
2.075785957276821136e-02
4.328069388866424561e-01
-1.172951236367225647e-01
-1.346992403268814087e-01
1.667793691158294678e-01
-4.352571368217468262e-01
3.344739675521850586e-01
4.722803831100463867e-01
1.193808838725090027e-01
4.276381731033325195e-01
3.209655284881591797e-01
-1.080986857414245605e-01
6.042090058326721191e-01
3.313533365726470947e-01
3.589534759521484375e-01
3.463441133499145508e-01
-4.831296801567077637e-01
-1.329998224973678589e-01
9.998194873332977295e-02
2.936197221279144287e-01
8.644720911979675293e-02
3.882727399468421936e-02
-1.878622174263000488e-01
-3.373069763183593750e-01
2.219020426273345947e-01
1.511961072683334351e-01
-6.717335432767868042e-02
1.731089204549789429e-01
2.810605168342590332e-01
2.339158803224563599e-01
2.136805653572082520e-01
-3.685117885470390320e-02
-1.714238673448562622e-01
2.401196956634521484e-01
3.986738920211791992e-01
-3.596878051757812500e-01
-2.913151085376739502e-01
3.933594822883605957e-01
-9.182702004909515381e-02
4.136079847812652588e-01
7.418075948953628540e-02
-3.684998750686645508e-01
1.274471879005432129e-01
2.531045675277709961e-01
3.847526013851165771e-01
1.183702424168586731e-02
1.960027962923049927e-01
4.456687569618225098e-01
3.508202433586120605e-01
4.947499334812164307e-01
-2.540697157382965088e-01
3.260276317596435547e-01
7.197976112365722656e-03
1.586586609482765198e-02
-3.494281768798828125e-01
3.353441953659057617e-01
4.228765666484832764e-01
3.684933781623840332e-01
2.723037600517272949e-01
1.902383416891098022e-01
-2.229372560977935791e-01
-4.500153660774230957e-02
-3.615935742855072021e-01
3.222936093807220459e-01
-2.388299070298671722e-02
3.799484968185424805e-01
-3.637467026710510254e-01
3.494460880756378174e-01
-8.496062457561492920e-02
3.703733384609222412e-01
