1.197341736406087875e-02
1.682449877262115479e-02
2.872498705983161926e-02
1.742570474743843079e-02
1.620103977620601654e-02
-2.129116468131542206e-02
9.103387594223022461e-03
7.229258865118026733e-02
2.889151498675346375e-02
8.904022164642810822e-03
1.021305844187736511e-02
-2.088715694844722748e-02
-2.415547892451286316e-02
4.550029337406158447e-02
1.703677885234355927e-02
-5.259909480810165405e-02
2.993068657815456390e-02
2.212280593812465668e-02
3.724916279315948486e-02
1.238985732197761536e-02
-2.295215800404548645e-02
4.573757760226726532e-03
2.606288762763142586e-04
2.593756839632987976e-02
-4.425130784511566162e-03
3.910475969314575195e-02
-1.424684934318065643e-02
1.333746314048767090e-02
1.023720111697912216e-02
1.155945938080549240e-02
1.957870647311210632e-02
-1.687006652355194092e-02
1.172481570392847061e-02
-1.056479364633560181e-01
1.578737422823905945e-02
1.663899794220924377e-02
4.844225943088531494e-03
-1.438473351299762726e-02
-2.399498596787452698e-02
2.574205864220857620e-03
1.496674865484237671e-02
-4.199097398668527603e-03
-2.100936695933341980e-02
2.938599139451980591e-02
5.371602717787027359e-03
4.202415794134140015e-02
-8.941535837948322296e-03
-3.343162313103675842e-02
-2.072378061711788177e-02
2.356737479567527771e-02
1.782835461199283600e-02
1.774816401302814484e-02
-1.617365516722202301e-03
3.969295695424079895e-02
-1.326848007738590240e-02
-1.073795603588223457e-03
-7.772790268063545227e-03
-1.797465607523918152e-02
-1.661937870085239410e-02
1.502048224210739136e-02
-2.820301242172718048e-02
5.349785089492797852e-02
1.521823089569807053e-02
2.430687099695205688e-02
1.676126383244991302e-03
6.352878175675868988e-03
-9.440631838515400887e-04
-3.086265921592712402e-02
1.860335469245910645e-02
3.012851998209953308e-02
4.577725380659103394e-02
-1.436715573072433472e-02
1.308728125877678394e-03
3.388788923621177673e-02
-8.876517415046691895e-03
-3.029572777450084686e-02
3.240503370761871338e-02
2.421035431325435638e-02
1.752371713519096375e-02
2.494309097528457642e-03
3.021072410047054291e-02
1.201210450381040573e-02
5.576215684413909912e-03
-1.166586391627788544e-02
2.765351720154285431e-02
3.878275677561759949e-02
1.216067746281623840e-02
5.057135224342346191e-02
2.861806191504001617e-02
2.105912566184997559e-02
-2.136456221342086792e-02
-6.288189906626939774e-03
-1.889315433800220490e-02
-9.119735099375247955e-03
-2.052957192063331604e-02
2.371748723089694977e-02
2.551589906215667725e-02
2.817017398774623871e-02
2.471844293177127838e-02
8.143677376210689545e-03
1.815091632306575775e-02
-3.418161347508430481e-02
8.671862073242664337e-03
1.748421601951122284e-02
7.747659925371408463e-03
-3.259462490677833557e-02
-3.689200803637504578e-02
4.636625945568084717e-02
2.559487894177436829e-02
-2.727792784571647644e-02
2.351849153637886047e-02
1.683575287461280823e-02
1.425118930637836456e-02
1.740022562444210052e-02
1.972298510372638702e-02
3.030528686940670013e-02
2.769379876554012299e-02
4.283028468489646912e-02
2.467461861670017242e-03
1.203389372676610947e-02
3.656404092907905579e-02
6.475564558058977127e-03
-1.309084473177790642e-03
1.089922618120908737e-02
1.631885766983032227e-02
-3.501842916011810303e-02
5.029320716857910156e-02
3.343475610017776489e-02
-1.977245323359966278e-02
1.905500888824462891e-02
3.879832848906517029e-02
1.784804835915565491e-02
1.871345192193984985e-02
3.295988962054252625e-02
-2.156202308833599091e-02
5.461734905838966370e-02
5.299748480319976807e-02
-2.373492717742919922e-02
-6.094141281209886074e-04
2.373926341533660889e-02
-3.027122095227241516e-02
4.373236000537872314e-02
-1.836721226572990417e-02
-3.695357963442802429e-02
1.230101450346410275e-03
-5.338657647371292114e-03
2.099928632378578186e-02
-2.045198157429695129e-02
-2.858494780957698822e-02
-3.149520233273506165e-02
8.564529009163379669e-03
7.219071034342050552e-03
2.052917378023266792e-03
4.183055460453033447e-02
-1.923926174640655518e-02
-2.090974710881710052e-02
2.612999640405178070e-02
2.015395276248455048e-02
-6.652029231190681458e-03
4.270929843187332153e-02
1.808705739676952362e-02
3.338557109236717224e-02
1.273756753653287888e-02
-4.479851108044385910e-03
2.667323872447013855e-02
9.119044058024883270e-03
-2.688434161245822906e-02
7.226130366325378418e-02
4.058048501610755920e-02
-1.581256091594696045e-02
4.058495908975601196e-02
3.556773439049720764e-02
7.245520502328872681e-02
2.125355228781700134e-02
1.264967117458581924e-02
1.602779328823089600e-02
8.763305842876434326e-03
3.129222616553306580e-02
2.120659127831459045e-02
2.623511292040348053e-02
7.650827988982200623e-03
-8.547604084014892578e-04
6.064920686185359955e-03
6.980061531066894531e-02
1.283992268145084381e-02
3.831694275140762329e-02
2.954852394759654999e-02
2.390552125871181488e-02
2.486121281981468201e-02
1.977252960205078125e-02
2.542207576334476471e-02
5.482423678040504456e-02
4.950436577200889587e-02
-3.459010273218154907e-02
4.658430442214012146e-02
-6.850187783129513264e-04
1.337494980543851852e-02
3.098941594362258911e-02
2.092598006129264832e-02
5.800030776299536228e-04
4.435345903038978577e-02
7.153396494686603546e-03
3.172624856233596802e-03
4.115438088774681091e-02
3.013513982295989990e-02
3.454026207327842712e-02
2.065846696496009827e-02
7.457046303898096085e-03
7.964568212628364563e-03
8.276976644992828369e-03
-5.257315933704376221e-04
3.255831077694892883e-02
8.251031860709190369e-03
2.614903263747692108e-02
1.806511916220188141e-02
1.512680761516094208e-02
2.225654199719429016e-02
-1.240075286477804184e-02
3.358217328786849976e-02
-1.287521235644817352e-02
1.241866964846849442e-03
2.948968484997749329e-02
3.254744783043861389e-02
-1.251776609569787979e-02
-3.382639726623892784e-03
4.871439188718795776e-02
2.858480066061019897e-02
4.226245358586311340e-02
-1.529162004590034485e-02
-3.213742002844810486e-02
2.454643510282039642e-02
1.299399882555007935e-02
2.727432735264301300e-02
7.134118583053350449e-03
-1.342123467475175858e-02
3.235284611582756042e-02
4.852713271975517273e-02
5.466236546635627747e-02
2.867109142243862152e-03
-1.266543939709663391e-02
-2.618719637393951416e-02
-1.611847802996635437e-02
-4.249667748808860779e-02
3.033310733735561371e-02
2.623702026903629303e-02
-1.033464912325143814e-02
2.929116366431117058e-03
2.760091423988342285e-02
1.808000169694423676e-02
-1.006166217848658562e-03
1.856264541856944561e-03
6.769403349608182907e-03
6.814485788345336914e-02
4.433585703372955322e-02
2.361208945512771606e-02
-1.425036136060953140e-02
-3.612730652093887329e-02
-3.466155752539634705e-02
3.991841152310371399e-02
2.345987159060314298e-04
6.126191932708024979e-03
2.166726626455783844e-03
3.239515423774719238e-02
-3.951532393693923950e-02
5.952159408479928970e-03
1.112688612192869186e-02
-4.780421499162912369e-03
-1.519217714667320251e-02
-2.175617963075637817e-02
1.531040295958518982e-03
4.830041900277137756e-02
-9.917820716509595513e-05
1.372428052127361298e-02
6.094443611800670624e-03
1.199253275990486145e-02
-2.842571213841438293e-02
-1.766245928592979908e-03
1.345933787524700165e-02
9.259478189051151276e-03
-2.656836993992328644e-02
-1.474023703485727310e-02
1.747252792119979858e-02
9.690238948678597808e-05
3.529680520296096802e-02
3.195825219154357910e-02
1.811633352190256119e-03
-5.951413419097661972e-03
1.614669151604175568e-02
1.740416698157787323e-02
4.571594297885894775e-02
-1.270268298685550690e-02
3.332510218024253845e-02
-1.430104766041040421e-02
9.500266984105110168e-03
-2.067954279482364655e-02
-1.866090856492519379e-02
2.504779398441314697e-02
4.432225227355957031e-02
-1.207724027335643768e-02
3.094638884067535400e-02
9.934132918715476990e-03
-1.363751478493213654e-02
-2.018947526812553406e-02
1.826608926057815552e-02
6.462544202804565430e-02
-3.523367643356323242e-02
1.291306130588054657e-02
1.507218694314360619e-03
-4.541007801890373230e-03
2.205615676939487457e-02
4.629576578736305237e-03
-1.320594456046819687e-02
-1.616102061234414577e-03
2.139096893370151520e-02
8.560247719287872314e-03
2.895150519907474518e-02
2.117228507995605469e-02
-2.191917598247528076e-02
4.021706432104110718e-02
2.171705849468708038e-02
-7.543547078967094421e-03
8.616982027888298035e-03
-1.607619039714336395e-02
1.858794689178466797e-02
1.868443191051483154e-02
4.335945099592208862e-02
1.116770412772893906e-02
1.887303963303565979e-02
4.004491493105888367e-02
-1.347541343420743942e-02
2.992657572031021118e-02
3.820349462330341339e-03
5.710448604077100754e-03
7.227334193885326385e-03
-1.107181608676910400e-02
-2.834284305572509766e-02
-1.934289932250976562e-02
1.593394670635461807e-03
2.255138754844665527e-02
-3.296530991792678833e-02
4.766073822975158691e-02
1.659161970019340515e-02
-2.546885982155799866e-02
-9.969311766326427460e-03
1.520015951246023178e-02
-3.839015960693359375e-02
-2.522799745202064514e-02
7.100703660398721695e-03
-1.877410151064395905e-02
-1.580091938376426697e-02
2.237409725785255432e-02
3.488585352897644043e-02
-2.609473094344139099e-02
1.158755645155906677e-02
-1.625490747392177582e-02
-2.602378278970718384e-02
2.286724932491779327e-02
1.669947244226932526e-02
-2.575167827308177948e-02
1.741303876042366028e-02
-9.154915809631347656e-03
2.194283716380596161e-02
3.175743296742439270e-02
4.041925072669982910e-03
1.802063733339309692e-02
2.616810239851474762e-02
1.178365945816040039e-02
2.135051786899566650e-02
1.104673463851213455e-02
5.096516758203506470e-02
3.468396514654159546e-02
-8.120209909975528717e-03
2.224615961313247681e-02
2.245310880243778229e-02
4.851236566901206970e-02
2.758048847317695618e-02
8.051293902099132538e-03
-4.567498713731765747e-02
-2.381319180130958557e-02
3.676544502377510071e-02
-2.374611422419548035e-02
-4.034704715013504028e-02
4.093166813254356384e-02
2.082278020679950714e-02
4.349514842033386230e-02
1.452676020562648773e-02
-5.981579422950744629e-02
3.979977965354919434e-02
-4.263644665479660034e-02
7.298958487808704376e-03
-4.196448717266321182e-03
-4.209867678582668304e-03
-2.270185574889183044e-02
2.563129551708698273e-02
3.113056300207972527e-03
-2.429510466754436493e-02
1.462875865399837494e-02
3.231802210211753845e-02
1.091625913977622986e-02
-2.786553464829921722e-03
-6.745699010934913531e-06
8.079864084720611572e-03
-1.884420029819011688e-02
4.111431911587715149e-02
-1.387580577284097672e-02
-4.274742677807807922e-02
3.864947333931922913e-02
4.340361803770065308e-02
-2.090705186128616333e-02
1.653718762099742889e-02
-1.602602005004882812e-02
-2.451844885945320129e-02
2.185592241585254669e-02
3.867450729012489319e-02
1.735890097916126251e-02
1.709399744868278503e-02
3.980914130806922913e-02
1.676768437027931213e-02
2.668956108391284943e-02
6.320505868643522263e-03
4.474792256951332092e-02
-2.874704450368881226e-02
2.370444126427173615e-02
-3.767006844282150269e-02
2.782200090587139130e-02
2.211680449545383453e-02
-3.934051468968391418e-02
1.992637477815151215e-02
2.997711487114429474e-02
2.285859361290931702e-02
1.439749915152788162e-02
2.230945974588394165e-02
6.270924117416143417e-03
5.797125399112701416e-03
-8.189952000975608826e-03
-1.397737674415111542e-02
-3.175294259563088417e-03
1.280705444514751434e-02
4.085709527134895325e-02
3.799610584974288940e-02
5.716275423765182495e-02
-3.417975082993507385e-02
2.380940690636634827e-02
-2.826682291924953461e-03
-1.929508708417415619e-02
-1.903633936308324337e-03
4.624775797128677368e-02
2.253631316125392914e-02
6.412964779883623123e-03
-2.641955018043518066e-02
2.343718195334076881e-03
4.117751494050025940e-02
-5.781781394034624100e-03
-2.582990191876888275e-02
9.828948415815830231e-03
3.521781787276268005e-02
-1.070658490061759949e-02
7.836005650460720062e-03
2.244870923459529877e-02
1.735840924084186554e-02
-3.167351242154836655e-03
-8.090672781690955162e-04
2.521298639476299286e-02
3.179068677127361298e-03
7.733667152933776379e-04
-4.719852469861507416e-03
1.887367479503154755e-02
1.193569414317607880e-02
1.996459253132343292e-02
5.160944163799285889e-02
6.440794467926025391e-02
-1.164005044847726822e-02
-7.894514710642397404e-04
-4.847335815429687500e-02
-1.028118282556533813e-02
-1.240075286477804184e-02
2.022979594767093658e-02
5.823126062750816345e-03
-1.485786866396665573e-02
4.321256279945373535e-02
3.159815818071365356e-02
-2.608114108443260193e-02
-1.057946495711803436e-02
4.997139796614646912e-02
-8.672454394400119781e-03
1.534818857908248901e-02
2.343239262700080872e-02
-8.736126124858856201e-03
2.502300962805747986e-02
2.762039192020893097e-02
8.814740926027297974e-03
-1.672508567571640015e-02
-1.197628304362297058e-02
2.396713197231292725e-02
1.998542621731758118e-02
-5.100153386592864990e-03
-1.084707770496606827e-02
-3.209308162331581116e-02
5.651797726750373840e-02
1.540520228445529938e-02
-2.013616077601909637e-02
2.420616336166858673e-02
-1.503842137753963470e-02
-1.253172755241394043e-02
8.050012402236461639e-03
3.663780167698860168e-02
1.081925444304943085e-02
-5.958543717861175537e-02
-2.906854450702667236e-02
-4.153291881084442139e-02
2.385463006794452667e-02
2.517352066934108734e-02
